<?xml version="1.0"?>
<opencv_storage>
<my_nn type_id="opencv-ml-ann-mlp">
  <layer_sizes type_id="opencv-matrix">
    <rows>1</rows>
    <cols>3</cols>
    <dt>i</dt>
    <data>
      140 35 36</data></layer_sizes>
  <activation_function>SIGMOID_SYM</activation_function>
  <f_param1>1.</f_param1>
  <f_param2>1.</f_param2>
  <min_val>-9.4999999999999996e-001</min_val>
  <max_val>9.4999999999999996e-001</max_val>
  <min_val1>-9.7999999999999998e-001</min_val1>
  <max_val1>9.7999999999999998e-001</max_val1>
  <training_params>
    <train_method>BACKPROP</train_method>
    <dw_scale>1.0000000000000001e-001</dw_scale>
    <moment_scale>1.0000000000000001e-001</moment_scale>
    <term_criteria><epsilon>9.9999999747524271e-007</epsilon>
      <iterations>5000</iterations></term_criteria></training_params>
  <input_scale>
    1.9648489097734083e-002 -3.3796206514049252e+000
    1.7775841066149281e-002 -2.9813145243853567e+000
    1.8679870714423879e-002 -3.1995403146226113e+000
    1.4710329369024826e-002 -2.3949501401004558e+000
    1.3408244826500649e-002 -1.9204013604578614e+000
    1.3454254418722372e-002 -1.7942130513557673e+000
    1.3899960970559700e-002 -2.2068466722889846e+000
    1.6016427738229574e-002 -2.7383496555562425e+000
    1.6670578998398255e-002 -2.7639000114803403e+000
    1.8029443400549218e-002 -3.0553995271012711e+000
    2.0378657541980986e-002 -3.4392325365624385e+000
    1.5133595280691426e-002 -2.3526538368327343e+000
    1.4685669533830933e-002 -2.0895781757194358e+000
    1.5809055889667155e-002 -2.4600575535851319e+000
    1.4786085449014965e-002 -2.0934430652527500e+000
    1.6414477091456579e-002 -2.4982295953620146e+000
    1.5892191989904363e-002 -2.4402981855973227e+000
    1.4710167553178104e-002 -2.0550827522653079e+000
    1.5105774943130644e-002 -2.3625060557574118e+000
    1.9014680655367936e-002 -3.2324177823934694e+000
    1.9819708051648496e-002 -3.4424558492986197e+000
    1.4459789135940529e-002 -2.0072439255059082e+000
    1.5583723007443298e-002 -2.3679594845244583e+000
    1.7634379246400236e-002 -2.8436159255281299e+000
    1.7483680718617594e-002 -2.8718378668912887e+000
    1.6783374527198084e-002 -2.6339580359426074e+000
    1.7326200427228981e-002 -2.7374686584840346e+000
    1.5579188822023807e-002 -2.4099217331904366e+000
    1.4115880451815497e-002 -1.8801889946065724e+000
    1.9734688704860101e-002 -3.4253434481128284e+000
    1.8102170831092362e-002 -3.0077053592758829e+000
    1.3955885671937247e-002 -1.8669428861381296e+000
    1.6047959187051326e-002 -2.4844740093887863e+000
    1.9008281960288601e-002 -3.0161625108872694e+000
    1.7582820911844065e-002 -2.8796192887631173e+000
    1.8230679285920860e-002 -2.9264723207825747e+000
    1.6894907059256142e-002 -2.6522926840360923e+000
    1.5277451028997599e-002 -2.2858573039616572e+000
    1.4374570361638061e-002 -2.0033084637192715e+000
    1.8782197628921454e-002 -3.2771855813676307e+000
    1.7550135297841458e-002 -2.9268446948351010e+000
    1.4617670484150590e-002 -1.9842888597378519e+000
    1.7285323065962230e-002 -2.7479413185601431e+000
    1.9482980474169215e-002 -3.0169874353934820e+000
    1.8211623468840331e-002 -2.8972901631698527e+000
    1.8325759519928458e-002 -2.9405333472304878e+000
    1.7273009576536880e-002 -2.6725734858319541e+000
    1.6770171099839182e-002 -2.5696163397938014e+000
    1.4381387029188796e-002 -1.9642381316997779e+000
    1.7593123482806859e-002 -2.9020722420471037e+000
    1.6544774324544896e-002 -2.3798030511006241e+000
    1.6073131668607687e-002 -2.3840274926991016e+000
    1.6453451547508116e-002 -2.5204799669785176e+000
    1.8194716913520256e-002 -2.6750707973591212e+000
    1.7432423930779456e-002 -2.6979533807296092e+000
    1.6079127738296079e-002 -2.3994803246181835e+000
    1.5663780299534059e-002 -2.2814552789554958e+000
    1.5708008986900182e-002 -2.3798277386013895e+000
    1.5867093670387012e-002 -2.2734163717898768e+000
    1.7651453895270057e-002 -2.7799593044567121e+000
    1.6881860328227090e-002 -2.5412734830154959e+000
    1.5513621743947645e-002 -2.2012176163820141e+000
    1.6247353362957111e-002 -2.5144111079451781e+000
    1.6471655288310443e-002 -2.4090470926993710e+000
    1.4104042213587369e-002 -1.9763578169047777e+000
    1.4436945434663433e-002 -1.9035467562458690e+000
    1.5482048500165045e-002 -2.3629159268284683e+000
    1.5015816821238396e-002 -2.2354489591454292e+000
    1.5021738422986054e-002 -2.1147406345474220e+000
    1.6699122168178589e-002 -2.5553078868577215e+000
    1.6600886708336860e-002 -2.4818325628963605e+000
    1.5713042626043346e-002 -2.2771676241783556e+000
    1.6229663273336400e-002 -2.4653789722385806e+000
    1.7598854064254307e-002 -2.7640298584030885e+000
    1.5767430356438957e-002 -2.3445651975095010e+000
    1.6383690344863321e-002 -2.3168821120881513e+000
    1.5206307571294068e-002 -2.2293444034439811e+000
    1.5351521067653223e-002 -2.3045527261765160e+000
    1.5137003411468442e-002 -2.1567128016381161e+000
    1.6925826031960814e-002 -2.6699103202628680e+000
    1.7249080106461687e-002 -2.7057020163717813e+000
    1.5579458278104544e-002 -2.1985552741392365e+000
    1.7495546535845584e-002 -2.7307393207833739e+000
    1.8040253894877574e-002 -2.8386043761722735e+000
    1.6529767654459061e-002 -2.5189604536711117e+000
    1.7242829065100933e-002 -2.5149796868765453e+000
    1.7373538953706372e-002 -2.7235870431074689e+000
    1.8018045970776948e-002 -2.8204887944828916e+000
    1.5204249520394906e-002 -2.1090288084724835e+000
    1.7301330301163011e-002 -2.6959585220513071e+000
    1.7597628889984590e-002 -2.8599753017718812e+000
    1.6243207803722022e-002 -2.1972932785961179e+000
    1.6120303063607185e-002 -2.3725914902469722e+000
    1.7078523096957208e-002 -2.5964254683673262e+000
    1.7261806928117414e-002 -2.7159047867640473e+000
    1.6755332067197971e-002 -2.4732655535420873e+000
    1.7395178644160476e-002 -2.7075167809341250e+000
    1.7712580196278818e-002 -2.7735432440951837e+000
    1.5078017735983672e-002 -2.1617798953193312e+000
    1.6927171640242329e-002 -2.6607571356141566e+000
    1.6419511922987504e-002 -2.6129903605311671e+000
    1.4614594619220916e-002 -1.9950718531624159e+000
    1.5325768718708539e-002 -2.3144423186351322e+000
    1.7627678333874425e-002 -2.9177419871728953e+000
    1.6879356167242270e-002 -2.7532720305583704e+000
    1.7568808395734724e-002 -2.8033049888161479e+000
    1.7748392913389654e-002 -2.8694205067516192e+000
    1.6392400508434161e-002 -2.5762941585960375e+000
    1.4716736117019314e-002 -2.2141450117040127e+000
    1.6697855626731772e-002 -2.6065078897990155e+000
    1.7879423939854918e-002 -2.8639319887921704e+000
    1.4546011402452506e-002 -1.9918497253227179e+000
    1.5787831162770345e-002 -2.4575312106277885e+000
    1.7840219078019543e-002 -2.8425903168657536e+000
    1.6198432121303490e-002 -2.5249638004166268e+000
    1.6910663585767777e-002 -2.6759739004511465e+000
    1.7612456358305009e-002 -2.8096920645369776e+000
    1.6470055305715058e-002 -2.5776986557977319e+000
    1.5591787567218643e-002 -2.2871363139585639e+000
    1.9086752052869221e-002 -3.3656045371913863e+000
    1.9204224403901880e-002 -3.3426369280070198e+000
    1.4245080602755589e-002 -2.1339597794750911e+000
    1.4905980546776809e-002 -2.1759066193241656e+000
    1.6209652082823670e-002 -2.5177442798644849e+000
    1.5188349506195339e-002 -2.3389435766200402e+000
    1.5385352559642181e-002 -2.3733797964956218e+000
    1.5961081886688887e-002 -2.5109267550022660e+000
    1.4630740734674196e-002 -2.0806832110376829e+000
    1.5759918676613579e-002 -2.4020958015707334e+000
    1.9926420941536641e-002 -3.3727917413338657e+000
    1.7237171768006040e-002 -2.8499968058879825e+000
    1.6862243437033075e-002 -2.7365209656542446e+000
    1.5889267928562979e-002 -2.5377244720331937e+000
    1.4628705724013586e-002 -2.2153496115083033e+000
    1.3511863046473359e-002 -1.9105442088785956e+000
    1.3803733734675857e-002 -1.9249419838363966e+000
    1.4357823194390627e-002 -2.2179894658449419e+000
    1.6494395813031429e-002 -2.6812857193773714e+000
    1.6939194565126395e-002 -2.6897219435707256e+000
    1.9959107549741718e-002 -3.4063816216962883e+000</input_scale>
  <output_scale>
    5.2631578947368418e-001 4.9999999999999994e-001
    5.2631578947368418e-001 4.9999999999999994e-001
    5.2631578947368418e-001 4.9999999999999994e-001
    5.2631578947368418e-001 4.9999999999999994e-001
    5.2631578947368418e-001 4.9999999999999994e-001
    5.2631578947368418e-001 4.9999999999999994e-001
    5.2631578947368418e-001 4.9999999999999994e-001
    5.2631578947368418e-001 4.9999999999999994e-001
    5.2631578947368418e-001 4.9999999999999994e-001
    5.2631578947368418e-001 4.9999999999999994e-001
    5.2631578947368418e-001 4.9999999999999994e-001
    5.2631578947368418e-001 4.9999999999999994e-001
    5.2631578947368418e-001 4.9999999999999994e-001
    5.2631578947368418e-001 4.9999999999999994e-001
    5.2631578947368418e-001 4.9999999999999994e-001
    5.2631578947368418e-001 4.9999999999999994e-001
    5.2631578947368418e-001 4.9999999999999994e-001
    5.2631578947368418e-001 4.9999999999999994e-001
    5.2631578947368418e-001 4.9999999999999994e-001
    5.2631578947368418e-001 4.9999999999999994e-001
    5.2631578947368418e-001 4.9999999999999994e-001
    5.2631578947368418e-001 4.9999999999999994e-001
    5.2631578947368418e-001 4.9999999999999994e-001
    5.2631578947368418e-001 4.9999999999999994e-001
    5.2631578947368418e-001 4.9999999999999994e-001
    5.2631578947368418e-001 4.9999999999999994e-001
    5.2631578947368418e-001 4.9999999999999994e-001
    5.2631578947368418e-001 4.9999999999999994e-001
    5.2631578947368418e-001 4.9999999999999994e-001
    5.2631578947368418e-001 4.9999999999999994e-001
    5.2631578947368418e-001 4.9999999999999994e-001
    5.2631578947368418e-001 4.9999999999999994e-001
    5.2631578947368418e-001 4.9999999999999994e-001
    5.2631578947368418e-001 4.9999999999999994e-001
    5.2631578947368418e-001 4.9999999999999994e-001 1. 0.</output_scale>
  <inv_output_scale>
    1.8999999999999999e+000 -9.4999999999999996e-001
    1.8999999999999999e+000 -9.4999999999999996e-001
    1.8999999999999999e+000 -9.4999999999999996e-001
    1.8999999999999999e+000 -9.4999999999999996e-001
    1.8999999999999999e+000 -9.4999999999999996e-001
    1.8999999999999999e+000 -9.4999999999999996e-001
    1.8999999999999999e+000 -9.4999999999999996e-001
    1.8999999999999999e+000 -9.4999999999999996e-001
    1.8999999999999999e+000 -9.4999999999999996e-001
    1.8999999999999999e+000 -9.4999999999999996e-001
    1.8999999999999999e+000 -9.4999999999999996e-001
    1.8999999999999999e+000 -9.4999999999999996e-001
    1.8999999999999999e+000 -9.4999999999999996e-001
    1.8999999999999999e+000 -9.4999999999999996e-001
    1.8999999999999999e+000 -9.4999999999999996e-001
    1.8999999999999999e+000 -9.4999999999999996e-001
    1.8999999999999999e+000 -9.4999999999999996e-001
    1.8999999999999999e+000 -9.4999999999999996e-001
    1.8999999999999999e+000 -9.4999999999999996e-001
    1.8999999999999999e+000 -9.4999999999999996e-001
    1.8999999999999999e+000 -9.4999999999999996e-001
    1.8999999999999999e+000 -9.4999999999999996e-001
    1.8999999999999999e+000 -9.4999999999999996e-001
    1.8999999999999999e+000 -9.4999999999999996e-001
    1.8999999999999999e+000 -9.4999999999999996e-001
    1.8999999999999999e+000 -9.4999999999999996e-001
    1.8999999999999999e+000 -9.4999999999999996e-001
    1.8999999999999999e+000 -9.4999999999999996e-001
    1.8999999999999999e+000 -9.4999999999999996e-001
    1.8999999999999999e+000 -9.4999999999999996e-001
    1.8999999999999999e+000 -9.4999999999999996e-001
    1.8999999999999999e+000 -9.4999999999999996e-001
    1.8999999999999999e+000 -9.4999999999999996e-001
    1.8999999999999999e+000 -9.4999999999999996e-001
    1.8999999999999999e+000 -9.4999999999999996e-001 1. 0.</inv_output_scale>
  <weights>
    <_>
      1.0018191641496198e+002 6.4720208408401392e-001
      -5.0554760297808798e-001 -1.4156632394745725e-001
      -2.9257586142410652e-001 -3.8291870741133044e-001
      -3.1506946243489620e-001 -1.5110713702359785e-001
      -6.6356167437559552e-002 2.6900790864844215e-001
      -5.5580519926637828e-001 1.2725692273578106e+000
      -2.5663804314261723e-001 -1.9498839427598033e-001
      5.7749804251060299e-001 -7.2224942866260550e-002
      2.8200422661554930e-001 -7.2922112857496102e-001
      -3.0693218848444953e-001 -4.7609773777911163e-001
      -5.3692880243901481e-002 -1.2844280090379848e-001
      1.5840737452986958e-001 6.5124931580713297e-001
      6.1749660917476168e-001 3.5586655286169155e-001
      -2.8335261285102747e-001 -3.9598908949687905e-001
      5.0352647562207731e-001 -4.9111902760116144e-001
      5.0922682443471379e-001 -3.9979745597939087e-001
      4.6751283134898719e-001 8.0340018013876291e-001
      -8.7020671041575381e-001 9.3636315356753144e+001
      6.4537865626570878e-001 -5.1152874319476493e-001
      3.8415424850600816e-001 -2.0533684931687769e-002
      -2.4359920152171965e-001 4.7373180701599815e-001
      -5.8953336091184383e-001 -6.9639196252925017e-001
      -1.0891444063339211e+000 3.3163145976573422e-001
      -1.6150053143939330e-001 8.1681205176222416e-001
      1.5808098792337349e-001 6.1078689226862959e-001
      -2.6855858786038345e-001 4.8718351788214032e-001
      -2.8656811639847080e-001 -1.3469658995429165e-001
      -5.5675928625119797e-001 -2.4139965623984597e-001
      -1.3870380818591549e-001 1.3535391081681992e-002
      -3.5215478878210654e-001 5.0389042355988933e-001
      3.1998434360737005e-001 5.4563874741349752e-003
      -6.6685056396226638e-001 -2.8015863055276002e-001
      -1.7455262399374361e-001 8.7455919845889643e-002
      -1.5627468925878771e-001 -6.7416689738823932e-001
      -6.2521098559764648e-002 4.8441864838895354e-001
      4.7958629613232269e+001 -2.3470400781494796e-001
      1.7235242682557309e-001 -1.1910417632882328e-001
      -1.6330832580070784e-001 -1.8364629078811176e-001
      6.3614232327565148e-002 -5.7447275844143564e-001
      -3.7786171350647657e-001 5.1635139476958719e-002
      -5.3831420765947124e-001 1.0576674658377561e+000
      -2.2524434481144662e-001 -1.3962867148154204e-001
      1.3635004219618049e-001 -3.3303956094561743e-001
      7.9928548473917582e-001 -1.1781318404897470e-002
      4.5777172535277144e-001 6.7511885340713029e-001
      4.0381872448811090e-001 -3.6323844016079093e-001
      2.4524354967124612e-001 2.3201232622474011e-001
      1.2022810683010650e-001 2.4387843782778282e-001
      -2.4322970017115520e-002 2.8661014306746530e-001
      -2.6795506065573965e-001 2.0360819558865892e-001
      6.4651425476604851e-002 -1.3362201534688142e-001
      -4.3332793382888653e-002 1.8384639782157458e-001
      -2.6944336520770516e-002 8.1376948670984433e+001
      -2.6829488078081187e-001 -7.6806898410590449e-002
      1.4748221841434656e-001 -1.3714175945016469e-001
      -2.6228942472879624e-001 -2.8053194628950229e-001
      -3.7183256930398045e-001 -7.5192521013739655e-001
      6.7597870731128895e-001 3.0264448952521206e-001
      -4.1188400111511161e-002 2.6975627890990761e-001
      -2.6925951842096074e-001 3.1629895796205215e-001
      -1.9019333137557572e+000 -2.9347232969632214e-001
      -3.0238470773984244e-001 -3.3861859772357022e-001
      4.9677239838582500e-002 -2.2518176531013007e-001
      -2.1958927738077419e-001 1.9544283923235264e-001
      -7.6151526930373059e-001 1.5583931085285807e-001
      2.0822304590371615e-001 -1.7125086685165278e-001
      -4.3947689368613785e-001 -4.1033285038847328e-001
      2.0493740996439735e-001 -1.3386206628192748e-001
      -2.5641255668394974e-001 6.2627350566659667e-001
      3.8647186255262372e-001 6.3757555705768099e-001
      8.5085496439839432e+001 -2.3643515847588176e-001
      2.6626382262388992e-001 -1.8514629553410406e-001
      -1.3926631807560008e-001 3.6495335355200670e-001
      2.5623459500642815e-001 1.6759607795826748e-001
      2.0586706504603511e-001 1.3004279069643561e+000
      -6.7127521469453014e-002 5.9237724880681031e-001
      -3.5425475526357268e-002 2.2116241199647044e-001
      -2.9360659918248833e-001 2.7868150781008749e-001
      3.5631594752943879e-001 -2.5637443931698428e-001
      -2.6736745504078441e-001 1.1655554445593545e-002
      -1.2770287657571375e-001 2.7069253056188031e-002
      -3.5019995387506170e-001 4.7935257522747389e-003
      1.3812125423795266e-001 -2.7402326841728963e-001
      2.5286027740527306e-001 -3.5260288311239657e-001
      -4.5878289049320392e-001 -2.6264116894388251e-001
      1.7167296289169287e-001 -2.7321847492346474e-001
      4.9475233055329099e-001 -4.5884255376942557e-001
      3.8545799967707722e-001 4.0439827333198643e+001
      5.8762811112659359e-002 -3.4093677458840516e-001
      1.9362082447198439e-001 6.9035122172236674e-002
      -1.3619329393712343e-001 6.9984779749008769e-002
      1.3228981888049118e-001 6.9574746655585651e-001
      1.8925439963505883e-001 8.1374889415037477e-001
      -8.3394378795300628e-001 1.7880480587012249e-001
      -2.7427455855883603e-001 4.7872090730418487e-001
      -2.4036401477890504e-001 2.1507036788453021e-001
      1.5771077197616021e-001 -2.8226293727536020e-003
      4.5450634775532339e-001 -1.8324361972255301e-001
      -8.0565057145486230e-002 4.0049109304368330e-001
      -4.6340444331840080e-001 -1.7777527782017494e-001
      -2.1450673584770330e-001 -1.9919774797283626e-001
      2.3920611325163443e-001 7.0405677992191829e-002
      -2.0036320410986494e-001 -1.4048151755413671e-001
      -3.7642810305025878e-002 -1.6044424140775021e-001
      1.1701819703640869e-001 5.0139590742486606e-001
      8.0010494074071502e+001 6.0274640839919891e-001
      -8.8520741213887505e-002 3.0135724909709904e-001
      -3.4265740203680554e-002 1.3800870080972855e-001
      -3.0985712200485827e-001 1.3920738275611988e-001
      2.7215202760830109e-001 -6.9182558180939024e-001
      -3.5597449352047045e-001 2.6430782743306591e-001
      -2.2815384850724324e-001 3.2144129513852848e-001
      3.4984355661694966e-001 -3.2820427255671386e-001
      -7.6155581696203078e-001 -1.1592356654971225e-001
      -2.0947622159752677e-001 -1.1462698031088002e-001
      -3.4240115267693211e-001 -8.9252930074714090e-002
      1.0686675233206646e-002 1.6767333508106472e-001
      -3.4129134442964221e-001 -3.5702852659482975e-002
      -3.0869968757562816e-001 -2.3247924246541243e-001
      2.9192341721913101e-001 3.0218522706460238e-001
      -7.5024386682214672e-002 -1.2160999314193152e-001
      6.7361112809394844e-002 9.7910548435787573e-002
      5.0593732748774323e-002 7.3221065654338958e+001
      1.0892095699495059e-001 -6.0736335760258218e-003
      2.3507410029994572e-001 -3.1773431427078641e-001
      -2.7632434245179704e-001 1.1529255943806911e-001
      8.0275749720708944e-002 5.6641712898658277e-002
      -8.3637296488132031e-003 -3.8495360076070226e-002
      1.4565126702695568e+000 4.4127175420651016e-001
      -1.0008731467132902e-001 2.5016966211192881e-001
      7.6575746034727199e-001 2.3913175037357942e-001
      -3.2508863313059738e-001 -2.7693832762948617e-001
      -3.0238542785325129e-001 -2.2886008567736030e-001
      4.2254129597447865e-001 8.0197956980041701e-002
      -4.5029182323303740e-001 1.9240324659025337e-001
      1.2452094755368071e-001 -3.0965707672615866e-001
      -8.9258519244878043e-002 6.8986877104388833e-001
      1.2549524068837128e-001 -1.9734877459706107e-001
      2.5143126357622403e-001 -3.3456523647325292e-001
      -1.2587894379553042e-002 3.5346913655337314e-001
      7.9289380431636587e+001 -3.9855288797177252e-001
      9.0344102256174383e-002 1.9609432246081554e-001
      -2.1018208351848661e-001 -1.1435686972205839e-001
      -6.6193683855228641e-002 5.7213025213085057e-002
      -1.1238114584605690e+000 -7.1413526196578370e-001
      -3.8790731946118456e-001 3.8869641354123891e-001
      2.0788824411355572e-001 1.5145719418067877e-001
      2.5363450194104115e-001 1.4354407612925557e-001
      -2.7452926693559765e-001 -3.3287281123946622e-001
      -1.3858478725998044e-001 -5.4783747076781897e-001
      7.9242496760062286e-002 -3.7242924284250983e-001
      1.3286963728711240e-001 4.1068075985143737e-001
      6.0115221550990050e-001 1.8038285521363567e-001
      -8.7880802447629192e-002 2.1211632637615413e-001
      4.1125998872112562e-001 -4.7883993655333502e-002
      -1.5467801359286829e-001 -1.8811076160069535e-003
      4.0919213935765969e-001 -3.2396118139301949e-001
      -3.6432276631137650e-001 8.9448605653775132e+001
      4.3803750909669988e-002 -4.9423486086765456e-001
      -6.5557505332714525e-002 2.8248285271865896e-002
      2.1017258450193721e-001 3.3729742107328525e-001
      2.1083046131031433e-001 2.9752312043848184e-001
      -6.7914960993990670e-001 8.1785657839809722e-001
      8.2466308017158996e-001 -2.9421926153803624e-001
      -2.1169124431650810e-001 1.9970142085372689e-001
      -6.6241756728201395e-001 -1.4447131448045514e-001
      -2.3974046488579182e-001 -3.9793752652727554e-001
      -2.2172413737792301e-001 1.9027983358440934e-001
      1.7494974604242108e-001 3.6988112585796412e-001
      1.7700365733651144e-001 4.1635012909956232e-001
      4.1518648413182591e-001 -5.7958042724141748e-002
      -1.5068675444501123e-001 2.0560818412829363e-001
      -4.4215709070275766e-001 2.0303709564826383e-001
      -9.3685865890643316e-001 -8.6022137307180391e-002
      -2.5988885194338385e-001 2.3509554528810103e-001
      6.4707604075587881e+001 -1.0012386810590014e-001
      5.9434218281553619e-001 2.7033125990169684e-002
      3.2699626068957616e-001 -5.6469262561138445e-001
      -6.1229387006672504e-003 -2.4011061290918334e-001
      1.0451256712303852e-001 9.4631076221342580e-001
      -4.2544430221946716e-001 1.2911932567750786e+000
      -8.6985519850572979e-001 6.4746589522304365e-001
      -5.4515368993099125e-002 -8.0435728817148422e-001
      1.9625895960961878e-001 -2.3262822638487356e-002
      3.5642929781581945e-001 1.5722783883404984e-001
      3.3561461778254831e-001 -1.5961493368361584e-001
      4.8185805610425259e-001 3.2868226062200223e-001
      -4.2398927791502516e-001 -1.5475881489233081e-001
      -1.6026355696625794e-002 1.1544578412721446e-001
      -2.9173307413034094e-001 -4.1085501044556511e-001
      4.6442612842864534e-001 2.2940454019738232e-001
      4.6876599235626604e-001 2.2966329050128579e-003
      -6.3348105172003788e-002 6.4216457185038280e+001
      -1.1318565983759435e-001 -1.3952625966067672e-001
      -3.5327970372483829e-002 -1.3252272334042245e-001
      4.7332074672026984e-002 -3.0499909576224321e-001
      4.6512039669634742e-002 -4.0604525467206731e-001
      -7.3762139650385405e-001 5.4775757706863037e-001
      -6.2765429467370615e-001 5.4889715633349523e-001
      -5.6610998462547912e-001 -1.4231156966000147e-001
      -3.3532386153855692e-001 7.1205725974097533e-001
      -3.0478308830806797e-002 -4.9109125529356323e-001
      -2.8093886306181443e-001 -3.6429605394503628e-001
      1.7142706107603389e-002 1.6864189991302433e-001
      -8.3234562196492085e-002 4.6836095264296509e-002
      -5.7047298712280141e-002 1.3740200975453146e-001
      -4.5187493257123146e-001 -3.7459626590244613e-002
      6.6167234179395878e-002 -4.9815164437954884e-001
      -3.6671182733323271e-001 -9.1198442371038113e-001
      -1.4474111286892499e-001 -1.2208301437553834e-001
      8.2339995426775459e+001 6.0528963460117199e-002
      -8.8861673577147929e-002 2.8388463324704161e-001
      -2.5320937299818016e-002 1.6561567814927239e-001
      4.0175486365944724e-001 6.6335979443063597e-001
      2.5382266152998392e-002 5.7141253461496330e-002
      -7.6792095269448968e-002 5.7319233792110000e-002
      -1.4066858214869915e-001 8.5999273493819195e-003
      -1.1511657472438412e-003 -2.4545052736940778e-001
      -5.5389169663071680e-001 -1.5294921809215153e-001
      -6.0025278517939029e-001 4.8343002998768447e-001
      -1.6871674190134561e-001 -5.9225513679255284e-002
      1.9406981535623907e-002 -5.8311725845020390e-001
      1.5954966601783776e-004 -3.8927794580940762e-002
      -9.6214957745739585e-002 -1.5853045605455679e-001
      2.7921987393888720e-001 -2.5994142336956910e-001
      -4.9611067479331228e-001 -3.3868104502220259e-001
      2.6966238021457917e-001 -1.8724776950771252e-001
      -1.1291434068775605e-001 8.5904791631436410e+001
      2.0296669424293443e-001 -1.1994941377349073e-001
      6.5122778492110966e-001 -1.8055054601150186e-001
      8.0682245856999249e-002 1.8375680230425923e-001
      3.7854340307688283e-001 1.0366096180194616e-001
      -5.9956693992456078e-001 1.6812817379521863e-001
      6.7751724918652001e-001 -1.1832005055750212e-001
      -5.3844838613709825e-002 4.0280961788125802e-001
      -8.5062518207759841e-001 -3.2837661379468297e-001
      -5.4037679984746810e-002 4.4774545481315944e-002
      2.9733059264422429e-001 -1.4197968820794138e-001
      2.5153621216755930e-002 -1.8681704241584621e-001
      3.1652999595720133e-001 2.7076716449407717e-002
      -2.4114593271085785e-001 -2.9073613786244058e-002
      -4.0017738717265508e-002 5.4382830156310846e-001
      2.2556605303864479e-002 -3.3030710097856458e-001
      3.0567724635834778e-002 3.6228407523386595e-002
      -3.6314810915833257e-001 -7.0277476622562049e-002
      4.5472684825763992e+001 3.2617990404688391e-001
      -1.7704442649448046e-001 -1.6647445772993366e-001
      6.5324414627931671e-001 -4.0348472212898634e-001
      -3.0191977125785618e-001 2.5499019229580255e-001
      -1.1900081906267486e-001 -1.9753098895490179e-002
      9.2943592651087636e-001 -1.8123811954396399e-001
      5.3431625518425674e-001 -3.0911607814221448e-001
      -6.5851597510354326e-002 6.8209363806116707e-001
      6.2089989488374142e-001 1.6549163360942004e-001
      3.3221615355857576e-001 -4.3241052742162439e-001
      4.8087633165334165e-001 -5.7409553069804020e-001
      1.9557262427991501e-001 -1.2464586842350024e-001
      -9.7683214324133738e-002 1.1849781423286306e-001
      -6.5117383833801445e-001 6.9530416626203251e-001
      2.6458554107347859e-001 2.0993786015317223e-001
      -7.5581835462526670e-002 2.4606314167297791e-001
      -8.7023321618470473e-001 3.1298578597382720e-001
      6.9958139538174413e-001 9.2531987753524845e+001
      -4.0709625464567717e-001 1.6598080219015771e-001
      -2.0207218349223430e-001 1.5351601280132848e-001
      -4.8904439333145527e-001 1.4046416246819432e-001
      -8.2219367250154954e-002 4.2754282533146552e-002
      2.8759647492147250e-001 -1.5057272990284068e-001
      1.1618604002324300e+000 5.6183531549614407e-001
      9.7506378739085145e-002 -1.2364567493573553e-001
      4.1459566381768626e-001 3.7253803561883084e-002
      5.1419801679952394e-002 6.1352283954345499e-001
      -3.9260087791535142e-001 3.9481618181717727e-002
      1.1397105724960899e-001 3.6320208237387075e-001
      -3.2727416807187026e-001 4.3841258249257753e-001
      3.2528616479927297e-001 -9.7077486105383831e-002
      4.3670267442094352e-001 4.1701905432859077e-001
      1.4027749697163899e-001 5.1815444159416146e-001
      5.8791836026626876e-001 -9.8205815629812523e-002
      2.8609578222227877e-001 -5.1659521834403388e-001
      9.3907362321042797e+001 -2.6887193975661580e-002
      1.2665887909282114e-002 -2.7325660630205484e-001
      4.6956643700490795e-003 1.3039542789985828e-001
      -4.3799724693577602e-001 -8.7960932663974423e-001
      1.7092029477480433e-001 -9.5171468042999183e-002
      9.0188214604244143e-002 -1.7225195079592839e-001
      7.4036461791716313e-001 -3.0463571477778278e-001
      -3.1685600859711749e-001 -7.8917990502286461e-001
      1.5600268801967895e-001 -2.2441290361776600e-001
      -3.1275384463925476e-001 5.7622552617580547e-001
      -1.7939801034396241e-001 4.5767068810250569e-002
      2.9292693908418937e-001 4.9291901468831736e-002
      2.8773265308784374e-001 3.0605187804905614e-003
      1.8070630685970063e-001 3.9387212273215559e-002
      -6.9844322782384216e-001 -1.0367752897516458e-001
      -2.9117901597480161e-001 -7.3930229199171651e-002
      -2.7771443356588316e-001 -5.8860480383891700e-001
      1.4522590553731149e-001 9.2591922075835910e+001
      4.9459488797169804e-001 -5.7868084170261153e-002
      2.9985355811103870e-001 3.3436445507261665e-002
      -2.4703746333310295e-001 -1.7553424302970033e-001
      3.1247657969219894e-001 1.5415920730203547e-001
      1.0485049398683288e+000 -7.5233968854655862e-003
      -5.1504400262784977e-001 -2.4708313706641125e-001
      4.0567829040046643e-001 4.5966520989926235e-001
      -2.6031508327715341e-001 2.4899169168467969e-001
      -5.6350397834316973e-002 -5.1027697557438167e-001
      -8.2150972822782842e-001 -3.3014029892736448e-002
      -2.7845003098810384e-002 6.5833006283170503e-001
      4.6012016848577170e-002 -1.2136324750442860e-001
      -8.4806003081900228e-002 -2.7683292227177919e-001
      -1.3045383752228770e-001 -2.2126202136452988e-001
      -2.1533014738227674e-001 -1.1996394849812368e-001
      -2.3311030004989058e-001 -3.3637251176240734e-001
      5.0260171694532077e-002 -1.4716622671210508e-001
      8.5203455169504181e+001 -1.3182462920716601e-001
      2.0173951377207916e-001 -5.4649430638502930e-003
      1.0262723011099659e-001 -2.3001478696525340e-001
      -2.0178855680420821e-001 4.6243886290237202e-001
      9.7500216799390020e-003 -1.1212942856712733e+000
      -2.6970565635606558e-001 6.2481979554590095e-001
      -1.4219605047965600e-001 3.2562491064706683e-001
      4.7813603147410239e-001 -4.4951476116783035e-001
      -6.8783273373542608e-001 -1.1115400287257862e-001
      -2.1679384296978685e-001 6.3018891114293055e-002
      1.1518893574471041e-001 3.1145857045895120e-001
      5.2333525532675736e-002 -1.1771380345471913e+000
      -2.5150561783970188e-001 3.1711311493042654e-002
      1.2045525782176308e-001 -2.3188453964703490e-001
      3.6925171157053754e-001 5.0398555008996848e-001
      -3.3324745997804234e-001 -4.9128214700376219e-002
      -2.4711048950629913e-001 -4.1521838466124283e-001
      4.6292004660181368e-001 1.0210902790134944e+002
      1.6742324073736831e-001 7.1030934587500349e-001
      -1.2491852245047354e-001 1.0367579156942236e-001
      -3.2692873058884875e-001 6.9196818692189521e-002
      -3.9182425807797003e-002 9.2518475714994025e-002
      9.0442321611434218e-001 1.8356249172573141e-001
      1.5698539384580148e+000 -6.4348476243960917e-001
      1.0203325988901424e-001 -8.1992654780375274e-001
      -1.7245222536126550e-001 8.7600041681735932e-003
      -1.9966740632842458e-001 5.3841927264208264e-002
      1.9773703817693752e-001 -8.7294895345167531e-002
      -1.7075558922911682e-001 -2.5891185335436584e-001
      -2.5289251551424480e-001 1.4738922831405002e-001
      5.5076747589650286e-003 -2.6753227288386289e-001
      -2.7230632921448401e-002 -2.1472375540390662e-001
      1.1165380616564762e-002 1.5705615354440653e-002
      2.4932940024724862e-001 3.5710342754755786e-001
      1.9673790185496490e-001 3.6384039255870776e-001
      1.0321233586556997e+002 1.2975207417304244e-001
      3.3569045489423266e-001 2.5851590810450426e-001
      -3.4655410769109762e-001 1.7723192327803067e-001
      5.5072809192478554e-002 3.6456178379876808e-001
      2.5494020306764725e-001 -1.2032374337112166e-001
      1.6019724570677790e-001 2.7459459204415437e-001
      -2.1225889646749058e-001 -5.8322975941461783e-002
      1.2257612036655727e-001 -1.2350452767034172e-001
      -9.5102731392139220e-002 -9.9908032318664797e-002
      1.0934549674651033e-001 -1.5818154091718201e-001
      6.6674925857375167e-002 -1.0284690516635789e-001
      -6.0348192429180603e-001 4.6640321491508756e-002
      -4.6458994076531324e-001 -3.0094895359161825e-002
      3.6575638945487587e-001 -7.3188748358720815e-002
      5.3711628368142439e-001 4.3244214112355954e-002
      -1.8100333755780799e-002 -1.4040959151305626e-001
      2.9252498566586782e-001 4.1753944167862556e-001
      -1.7297911944790334e-001 9.7587623453914006e+001
      -1.8095161772224769e-001 -6.0435696087327330e-003
      2.5824807083318522e-003 -1.8027359043263642e-002
      -1.6609138856454495e-001 2.4812154615496029e-001
      -1.4272590031015439e-001 2.4810618568260615e-002
      4.4793813094006057e-001 3.2358150220302179e-001
      6.2290161127645183e-001 1.0384493586344639e-002
      8.2068844075124858e-001 4.9843593503601419e-001
      -7.9840960725061461e-001 -4.6402187366032266e-001
      -1.2249427823499810e-001 -2.5411951373820368e-001
      -3.8516167441649179e-001 5.2267203616565734e-002
      7.7605167975133595e-003 2.7201654854249602e-001
      4.2037777858068393e-002 -5.7344784890133255e-002
      4.0288263354141804e-002 -5.8174591410529240e-002
      -6.6714239274552434e-001 -1.8839384174824597e-001
      1.3664041280775319e-001 -6.7925701829448959e-002
      2.9461560536468823e-001 1.0479691860690810e+000
      -5.2787869640651774e-001 1.7628284089949525e-001
      9.9699071234931310e+001 -5.2819638673185882e-003
      1.5840795810106615e-002 1.8759560606556172e-001
      -3.2842703963785891e-001 -2.2875635897387159e-001
      1.8561944865566393e-001 4.8240153006726327e-001
      -8.2216936619257830e-001 -2.1876176110037815e-001
      -4.8496701136070575e-001 4.2019241343357078e-001
      -1.1500479363598762e-001 2.2746548382068019e-001
      2.9898722607618788e-001 -5.2191462349434126e-001
      -5.5754162333876445e-001 -1.0621214968988159e-001
      -2.8697405406919035e-001 -8.5405495433700218e-001
      3.0610086956934179e-001 -6.5107493497115809e-002
      -3.1396181282299696e-001 -2.3882595155636149e-001
      -1.0532236594873978e+000 3.1347036221688857e-002
      -1.4635180064282988e-001 -2.1759994170576111e-001
      5.0128189215643693e-001 4.5875934476287999e-001
      -1.6700712594331574e-001 3.4131709734263785e-002
      -2.9435574732576797e-001 6.8229450426858249e-003
      -5.3954736533589243e-001 9.3556070496471179e+001
      -6.5023383838815196e-001 -7.3889753516023615e-002
      2.8836676171073933e-001 -1.9747481286304441e-001
      -1.7238915982988501e-001 -6.1326033811806224e-001
      6.3955000690159525e-001 -1.4434136712848186e-001
      -8.3774137381115568e-002 -4.3907060883519028e-001
      -1.5018816115815678e-001 1.5382658845973435e-001
      -1.5872766018885651e-001 4.1529274321732451e-002
      -1.8482322863817383e-001 -3.6944540105389412e-001
      -1.5700430136040635e-002 -1.4755829595816780e-001
      -3.0944470832703869e-001 -2.1558968145176067e-002
      5.1773220562206984e-002 -3.9808026075392255e-001
      1.4168051356229630e-001 -3.6007051066771195e-001
      -2.0229738499178812e-001 3.4021263832292697e-001
      -5.1561456520133220e-001 3.4652576139774971e-001
      -4.7480501858269668e-003 -1.5269022426911091e-001
      1.7842478857333344e-001 -2.0390331545581061e-002
      -8.5939669060171170e-002 7.5280256753247718e-002
      8.9064406390916204e+001 2.5103713157069596e-001
      -2.3406287905299814e-001 2.1562080729659072e-001
      -5.0102360340370844e-001 -1.6994843159417933e-001
      2.1508689437473111e-001 1.0211935726410197e-001
      -2.6937942475353260e-001 -1.6512621357351969e-002
      -6.4317198857099911e-001 2.1250900532005384e-002
      2.4599947707893058e-001 9.6375718409773797e-002
      1.2890359192247708e-001 1.8025027177419914e-001
      -5.2800931189007128e-001 -8.7173135780705790e-002
      -1.9769694274044264e-002 2.8246172733709718e-002
      7.1035244462697697e-002 -3.2508657929486501e-001
      -1.9826816055772156e-001 3.6522993519638447e-002
      4.0139421524568936e-001 4.6712392372384538e-002
      8.8368504837423825e-002 -3.4771718899248377e-001
      4.0764121011068288e-001 -1.4482095888560489e-001
      2.4717276195978667e-002 -2.9707770799137778e-001
      -3.4530223960252168e-002 -2.1705391285342132e-001
      1.6123646188943583e-001 1.0344414742796172e+002
      2.6667452049292334e-001 -2.9735149274133527e-001
      1.2655162111541304e-001 -3.4076481447188356e-001
      -1.3664129131999439e-001 -4.2360169206294390e-001
      2.9539547463270699e-001 2.4116264528877870e-001
      5.7566347490425973e-001 -2.5391532385852683e-001
      1.4569923697730536e-001 1.1303861076700979e-001
      -3.2007044306642479e-001 -9.5264060978583493e-003
      4.7809573165882926e-002 2.2616642732736555e-001
      -1.9707045927116671e-002 -6.1862406953951073e-002
      -5.1369906233378573e-002 4.3439756906669909e-002
      2.7006857824856306e-001 2.3613255252612711e-001
      6.6141035886985416e-002 1.8535701746909961e-001
      2.2816067788504144e-001 -8.9944085845041037e-003
      1.1843565038664074e-001 -3.4394315108201012e-001
      2.0981732091337548e-002 1.0278568981056295e-001
      -2.2409983124627084e-001 8.3887562262350918e-002
      -3.4524880608176343e-002 3.6578770812284539e-001
      1.0155126021103578e+002 2.2408756232734031e-001
      5.0369196624476940e-002 -5.7459397486602004e-002
      -1.8282467618906909e-002 -1.1464271662188982e-001
      2.1613583229230579e-001 2.8841918907659247e-001
      5.4174573787617608e-001 1.3978832856440218e-003
      1.1636770379101742e-001 -1.3625322058342662e-001
      1.4227695359087555e-001 2.7355323609949578e-001
      1.1626762778530778e-001 1.6584263738876542e-001
      2.0317202492334580e-001 -2.3629248231663921e-001
      -2.7999941904982895e-001 2.8250293899298512e-001
      1.4242704420131061e-001 1.6649797249617404e-001
      -4.4941924699506425e-001 9.5681932530928271e-002
      5.6574732683558102e-002 -1.4409212800285620e-001
      1.4249623052062932e-001 -2.5214419959327716e-001
      -5.2555080068552318e-001 1.3791171099860994e-001
      5.0135811963190757e-001 4.5926785172837527e-002
      -6.1727929449211766e-002 1.9739987313164986e-001
      1.5788304284450921e-001 8.4826094957840084e+001
      -2.8978143803176765e-001 -6.0787008619491649e-002
      1.1826098944520862e-001 2.1644661732628391e-002
      4.4467905718032857e-002 4.3511203272620169e-001
      3.9161015608162641e-001 5.8510949254544842e-001
      7.7727955442546248e-001 5.5412893619701376e-001
      -3.7996653208200970e-001 -5.4784439505111149e-001
      -1.9531197895255012e-001 -1.2823614609225717e-001
      1.1771326403727498e+000 -9.2445062991504665e-002
      -8.0431912697973576e-002 -3.4627892782409092e-001
      4.6610489953882128e-001 -2.9540498236683327e-001
      3.2563706457836789e-001 -2.8551927452768439e-001
      -5.3344002884199782e-001 -9.8535688285941614e-002
      7.8608075280051912e-002 5.2215823044356853e-002
      -3.3166426907209379e-001 -3.0331486030999000e-001
      -1.8741743563160818e-001 -6.5818759093151408e-002
      -3.4506450685090112e-001 5.8166417853253258e-002
      4.7430392209636428e-002 2.3798393484545083e-001
      1.0009598686024682e+002 3.1763411881824183e-001
      4.5191977183810995e-002 -2.9823982297788648e-001
      -2.8650092021912277e-001 -3.3732162301706379e-004
      -4.1495059533128015e-001 4.7011889631600479e-001
      3.3287641489957870e-001 5.5884850959141030e-001
      2.7313890042987754e-001 3.0704903522157843e-002
      5.8734065767074795e-001 -3.6899039922221002e-002
      3.7910549812532995e-001 -5.1017205411529043e-001
      -9.1575502385963681e-001 1.7304847382405317e-002
      -4.5935133791513560e-001 8.0619471899460643e-002
      1.7639150068920459e-001 6.5468498322408475e-002
      1.0755965805864946e-001 3.3472347767802391e-001
      -4.2960272736263091e-003 -4.2149116930777530e-001
      2.6229681241504837e-001 -3.2215333092757670e-001
      -8.9254466789734654e-001 -7.2862535037778592e-002
      -1.7993456516909451e-001 5.4083466491109816e-002
      -1.6001430800638050e-001 -8.9921211938772716e-001
      -4.8171394533643830e-001 9.5547145726609699e+001
      -7.9852133320703692e-002 -1.4264215084982898e-001
      1.2028288293869144e-001 -2.1778056123144865e-001
      3.2577932887203387e-001 -1.7765414367233562e-001
      -4.1327219609036897e-001 5.3114118285822376e-001
      -6.8606137607015061e-001 -3.6771371750214871e-001
      8.5547329626805213e-001 -4.3673001433653302e-001
      3.9375113850574506e-001 3.5256721088536384e-002
      -2.0552188909211559e-002 5.5292307760506303e-002
      -4.7035927806898102e-002 1.8108008525992408e-001
      2.8834014570169525e-001 2.5532095101821875e-002
      -2.9057886638107222e-001 -8.9658789697092921e-003
      6.5116476284107203e-002 3.6581855941454622e-001
      2.6036235863018720e-001 8.0772294631992161e-002
      -2.4194562664413929e-001 -8.7522717964283805e-002
      -9.3800004909702139e-002 1.0411653015858333e-001
      -2.5370742708885868e-001 -1.7882645755062526e-001
      3.4753427391970369e-002 1.7803215592710692e-001
      9.6484140522006470e+001 3.6087753121675233e-002
      2.7199983554580698e-001 1.5543074610131558e-001
      6.3342388814718840e-003 4.7438725905965090e-001
      -2.2679292605064305e-001 3.2954462076790474e-002
      1.1611501436002341e+000 -4.9687771311383250e-001
      -1.3467239806148862e-001 1.6151004505551676e+000
      4.9867462358105452e-001 2.9540859123239810e-001
      1.7633580764892931e-001 2.3277064690124022e-001
      3.7360528955816036e-001 -2.0858439042437210e-001
      -1.6647766589681651e-001 -1.6091971900277491e-001
      6.1254756319507768e-002 2.5362902031511475e-001
      -5.6986835450691653e-001 -4.8536919222742436e-001
      9.3003778335427212e-001 -4.2635072711044520e-003
      -4.8926681536454762e-002 -5.9396110331455795e-002
      7.1541510093987279e-002 -1.0218857102614208e-002
      3.4966310906212961e-001 -5.2769623275154814e-003
      -6.0129088591103952e-001 -6.2876962424931668e-002
      3.6245677126994674e-001 9.3663358597284798e+001
      9.6804837396144414e-002 8.4143028544133872e-002
      2.3257979014724037e-001 -2.9487888509602517e-002
      3.1747905958697814e-001 4.3510284580781329e-002
      5.9510755998112042e-001 -2.4031732906395367e-001
      3.0128802966214463e-001 2.9226439473055454e-001
      -1.0345431744443510e+000 -4.3966621425366115e-001
      2.3309937442547818e-001 -2.4980085822173725e-001
      2.5124757624127925e-001 2.8024373169454847e-001
      -2.5984657123345994e-001 -2.8829525685024643e-001
      2.3453155092417974e-001 4.3305145211372263e-002
      4.3875979945542397e-002 1.1479070457051209e-001
      3.4093059989414295e-002 2.5275499326824058e-001
      2.4906811561056946e-001 9.7787266367573247e-002
      -2.4141567440548756e-001 1.1164123523438718e+000
      1.8098866475482558e-002 7.7783806829486213e-002
      -1.4492780566664193e-001 -1.1307186499650926e-001
      2.0517810805726272e-001 5.1799055905269864e-001
      7.2249952432046555e+001 6.4845882933253940e-001
      -3.0153553304005315e-001 3.2283708985142108e-002
      7.6378322506311450e-002 1.6993613013526288e-001
      -1.1043082831053348e+000 -3.5790031178050957e-001
      -1.1055961226563640e+000 -5.5846259876741500e-001
      5.3151240477099337e-001 6.1765103756337335e-002
      -5.1346020840428763e-001 8.7149893509659432e-002
      -6.4017916906828856e-002 2.8026641421586462e-002
      -1.0701561475368918e-001 -5.7406880878408610e-002
      -2.6093058066158969e-001 -2.2870334268292181e-001
      1.1875515927326004e-001 3.7865553317548883e-001
      -5.6686904873486640e-002 1.1772021405877613e-001
      -9.8177251568457413e-002 2.1348379532982784e-001
      2.7893916693576587e-001 -1.8790073370972022e-003
      -7.8633571922743573e-001 8.1954572631255759e-002
      4.0927258985726717e-001 3.1574329344842611e-002
      7.7778071337905252e-001 2.3609780631697214e-001
      -6.0068378972269021e-001 7.0533554961667406e+001
      5.9866082262708536e-002 -1.9710675085370433e-001
      -4.5896470906114512e-001 1.8406747338623400e-001
      3.2957335095701375e-002 -1.8155718997391618e-001
      2.6497764983704658e-001 -6.8088042416346847e-002
      -6.3457481699005380e-001 6.3342893671327016e-001
      1.0942092994226194e+000 5.0377217986854728e-001
      -1.6679079541369882e-001 2.2080636349995762e-002
      -3.8969182257828305e-001 -8.2052681586640124e-003
      1.1703939811795580e-001 -3.3225574387146503e-002
      9.3103151933021933e-002 6.2607235446483930e-002
      -7.5381997392467689e-002 -4.1107024008027876e-002
      -1.4891413173777587e-001 -2.5286995668149748e-001
      7.2080358140912917e-002 -3.4946708986477526e-001
      -9.8985957755401387e-003 9.1770034324921868e-002
      1.7810739005180601e-001 -1.1686330869762400e-001
      -7.8415870150072176e-002 -6.6159084623940201e-001
      2.6466440734934987e-001 3.2067489674724470e-001
      9.3873090762387861e+001 1.8966102692606038e-001
      3.0288834166056500e-001 5.5893179289411687e-001
      -5.2057289967275910e-001 7.2277089708047096e-002
      5.4909623795244014e-002 9.9875823993471891e-001
      3.2708905316600667e-001 4.4943692225352427e-001
      -3.8540794510976306e-001 -3.9157908457894092e-001
      7.7824055980508799e-001 4.0816159884999502e-002
      3.2249242665147709e-001 6.0324064931169630e-001
      1.5460559200354582e-001 -2.2005389785933374e-001
      6.1626580980587216e-002 6.0131459492960469e-002
      -2.9921386038009573e-001 -4.1928373639348654e-001
      1.4375293402969291e-002 -3.1610117431078621e-001
      1.6165839200776896e-001 -8.9384108207312199e-002
      -1.5480196601506802e-001 -2.7154509306877422e-001
      2.6756565283271017e-001 -1.8299792158078604e-001
      -3.4761421299297446e-001 -5.7463787920392495e-001
      -9.7225503833158297e-002 -1.0202015720335665e-001
      9.2355568722527009e-002 6.1310004522427590e+001
      3.9369012869187175e-001 1.0695074888324817e-001
      2.8098046971106022e-001 -1.8346340131576894e-001
      4.6821936045302953e-001 -5.9316173403891104e-001
      7.2231259645275525e-001 3.1743229048329558e-001
      -4.0572482084227240e-001 4.9158746422808014e-002
      9.5398637781155482e-002 -3.1541474880241555e-001
      -8.4170924613635595e-002 3.0212229661070400e-001
      6.2372756374543847e-001 6.2176622574122575e-001
      -2.3743904424145959e-001 2.3309187878549592e-001
      1.6782684897398314e-001 -6.0929667475159405e-002
      1.5078958287870212e-001 2.1152911411900485e-001
      3.2989242405798530e-001 -5.5056228262679710e-002
      2.1439063760136312e-001 -5.5098606028551836e-002
      -1.2526607839779499e-001 5.7258608353181073e-001
      4.4917356585955054e-001 2.2113176459806011e-001
      -1.3298612161144591e-001 -6.8283119979317755e-002
      1.1070877806655358e-001 1.4523528218658213e+000
      9.8181473837001889e+001 8.7630557093689457e-002
      -7.1520730805760574e-002 -7.7283539920163435e-001
      -7.9083908819244625e-002 -6.0965177059776346e-002
      2.3443936249426742e-001 -3.2993912597588165e-001
      1.0856715809746718e+000 -2.1271482953611068e-001
      2.9727993721185564e-001 -5.0550010822280755e-001
      2.6804196947292064e-001 1.8112812458215641e-001
      3.3815070575992745e-001 -5.4921381469304953e-001
      9.1526440709168669e-002 -2.5793538066501515e-001
      2.2819329895726800e-001 -3.0219256623920454e-001
      1.5314221829120281e-001 1.1844735906653431e-001
      -3.1180440460824926e-001 -4.2972312095477655e-001
      2.7860808853633279e-001 -5.2867489592092021e-001
      -3.7349794584957452e-001 1.4946975944587190e-001
      4.4153529268514652e-001 1.8753257958097741e-001
      1.7899488065967820e-001 3.5762060982223010e-001
      -6.0640295476945327e-001 3.0222776710468219e-001
      -1.3058783846604305e-001 9.2216838378360094e+001
      4.2856153567461630e-001 -2.2249645268566601e-001
      5.5986201011641790e-001 7.7598530851050798e-002
      1.5737464452831515e-001 1.6931271846261556e-001
      -3.2397465370163958e-001 4.8878202503665391e-001
      -5.8444796082876511e-002 -2.8268271099289216e-001
      -7.2632285986758105e-001 -8.7372589122144606e-001
      8.7767190091541325e-002 1.0905067394579437e+000
      8.1027699962942168e-001 1.3079652596692500e-002
      -4.5047619065533012e-001 -2.9117765158605430e-001
      1.7143386543427896e-001 4.6841765711092720e-002
      2.2977752293162496e-001 2.4348392722385849e-002
      -3.4316140175269572e-001 -4.4310183239904481e-002
      -2.0875764018529563e-001 -7.3713085954332333e-002
      -2.0582400091447625e-001 -9.2426320242998061e-001
      -3.6959855335498260e-001 -1.6742496131770762e-001
      6.9601916188060775e-002 -7.6229372890002578e-001
      -1.9478605869993240e-001 -2.9236549756159985e-001
      1.0220601776200323e+002 1.4143239655134202e-001
      -3.0240367893775466e-001 -3.7156190904913827e-001
      -2.4138643878848254e-001 -4.1636212055611022e-003
      -5.6479863303338568e-002 5.4501012086687339e-001
      -6.3337140283242321e-001 4.9299667583841394e-001
      4.0568487988927204e-001 1.1902182024781194e-001
      -7.3205240931021098e-001 4.7326049364555095e-001
      4.0025736117024047e-001 -7.8820161939252853e-001
      -2.1664899753371342e-002 -1.2711052474530438e-001
      1.0719703262160160e-001 -1.5688548117834303e-001
      -4.6849945253248051e-002 -2.4445589487115868e-001
      -4.2535141777213892e-001 -3.6936721734632927e-001
      9.9592946185210127e-002 -4.1960126565589251e-001
      8.9193507113581164e-002 9.9847197873230188e-003
      -7.1284499022304837e-001 -2.4305704101559372e-001
      3.4036377979572613e-001 -5.8015645906366220e-001
      4.7305671995360327e-001 1.0293712683717789e-001
      -7.8061472572619939e-001 9.5184736789342921e+001
      3.4663812928878148e-003 -1.4173893128756826e-001
      -1.7042668184805840e-001 -8.7093386625698183e-002
      2.2881347320208884e-001 -4.0771912175268671e-001
      -7.2255140762428194e-001 6.8265251745615463e-001
      -8.8261016507169454e-001 3.1813445164438947e-001
      1.2165081487643292e+000 -1.8596438802033849e-001
      -3.2924835742270436e-001 1.2181446931890079e-001
      -2.5251314065040990e-002 -6.1335596596474043e-002
      -2.1745975690158853e-001 9.8192691681737956e-002
      -2.3379837973198045e-001 -1.9832556228667533e-001
      -8.1384929362871682e-003 -1.5667030831395368e-001
      1.7371919209602609e-002 8.8488281975201255e-002
      1.0719286980128589e-001 -2.8310982699540396e-002
      -2.0526528366859028e-002 -6.3350585530978631e-001
      1.6013140028112730e-001 -2.3314964452021091e-002
      -2.4722636046821089e-001 5.1764063836649232e-001
      3.4576202046694893e-001 6.3087490882554698e-001
      8.4404502090363792e+001 -3.9338950338214596e-001
      2.0174839920314633e-002 -6.6829942593038844e-002
      1.0158279044489797e-001 5.4365101585309117e-001
      -2.7940663202445493e-001 1.7958559897597567e-001
      7.7136439870528017e-001 -2.9445891842162497e-001
      -4.0449990795069074e-001 9.9138376444325205e-001
      1.3330575230487209e+000 -3.7119060815591481e-001
      -3.5210212508866162e-001 -7.6223953279743722e-003
      -4.5318194919652201e-002 -1.3298185125379669e-001
      3.0361136758823054e-001 -4.2953421279143711e-001
      -9.2492783227712289e-002 -3.6384837029137507e-001
      2.9002573282471092e-002 6.0009822459742845e-001
      1.3297832934985349e-001 2.7814411585064092e-001
      1.8810896591831671e-002 -9.2350624032323109e-002
      -4.1722184107778404e-001 -2.4199663327872464e-001
      4.3966265302318092e-002 8.1281164639689193e-002
      -3.2363396536121147e-001 7.9968494293433973e-002
      -1.6804169506775843e+000 9.0259222132324354e+001
      1.6032067501786251e-001 -2.0007146821794583e-001
      3.2655260261471208e-001 2.7157786422955915e-001
      -3.8361066202635598e-004 -6.2575721513201632e-001
      -6.8393173058361331e-002 -1.2475544119066335e+000
      -4.4797450224793989e-001 -1.0412143997768150e-002
      -1.3069678048939433e+000 -1.9501328618096039e-001
      4.8218937932629026e-002 -1.6967064217515711e-002
      3.7871196817453789e-001 -3.1366832679034734e-001
      -1.2533532431881594e-001 -1.5856695333751135e-002
      1.0955907558259710e-001 2.7296955420701811e-002
      4.4186477134413921e-001 5.7926894799087481e-001
      -8.9474806916525193e-002 3.4648465173278292e-001
      2.2791981408914749e-001 2.4211957170711426e-001
      -4.6005619049524056e-002 1.0341554599956511e-001
      3.9100132255057998e-002 -2.3459142412481276e-001
      1.4667631726641434e-001 -2.5583806328657105e-001
      2.0521215949263788e-001 -6.8040006124876751e-001
      9.3911298143363240e+001 -3.8716417468827619e-001
      7.9718897954931776e-003 4.1757216397371211e-001
      -9.6098341578958066e-002 2.7660781713416421e-001
      1.3476251804970699e-002 9.9451940208320572e-002
      -2.1271197684911056e-001 -4.3745817968903711e-001
      -3.9722085182740657e-001 -1.4716344494744713e-001
      7.8514268154208630e-002 -1.4160662815516528e-001
      2.3903857271607487e-001 -1.1233002240664791e-001
      -5.3750930395326690e-001 -1.3311129648239300e-001
      5.0744117094799500e-002 -5.3338241562611199e-001
      -8.6577569299159926e-002 1.4493622379971316e-001
      -9.3900954513510149e-001 -1.2608012845032657e-001
      7.8783238415006882e-002 -3.8727984339570776e-001
      3.4086757087007452e-001 -9.9358488872433398e-002
      -3.5747846439342346e-001 3.9061081146643438e-002
      -3.4815365313117658e-001 -9.2126485445983147e-002
      4.2544913103929399e-001 3.4137424078519085e-001
      3.4787329497574786e-002 7.7456735338872093e+001
      1.4552742915497843e-001 -2.4745784623720654e-001
      3.9111757902148031e-001 -4.5965098025636288e-002
      -2.5101432722523489e-002 3.3598475638270381e-001
      -6.8224153960666933e-001 -1.2450731713150076e+000
      8.8859349127616027e-001 3.2537288496563233e-001
      8.4230060948613742e-003 -1.9272716886472024e-001
      -5.7433174053720526e-001 1.3284754772805879e-001
      1.8545784443328830e-001 -2.3482432921854623e-001
      2.7487884712205402e-001 1.6381123321307858e-001
      -6.2280067658472715e-001 4.9657851382271932e-002
      4.0276398574803696e-002 -3.4943591719312816e-001
      1.9690014842335751e-001 -7.9320301024233777e-002
      4.3289024941969462e-001 -2.6577551762371948e-002
      1.1304947934978761e-001 1.3220461790783322e-001
      -9.0807277444674775e-002 -2.4577336695864838e-001
      -1.7057147786771067e-002 2.4737197724639354e-001
      9.7572559101410028e-001 -4.9237602667891278e-001
      1.6282036566309745e+001 -1.5478790558495983e-001
      1.9675408907509329e-001 -5.9973822688113865e-001
      -7.6674474168949880e-001 2.9691248011453597e-001
      -1.5504390694123402e-001 -1.1101758718327517e+000
      8.5219741749397482e-001 2.0960696713858126e-001
      -6.9661243627969227e-001 -1.4263134824084196e+000
      1.4367813887226000e-001 3.0964560931123719e-001
      -2.9143133811436811e-001 -5.7824051660823117e-001
      4.3104098324213147e-001 -5.3579442805208759e-002
      -3.7153123527721332e-001 3.6243198600235879e-002
      -4.0993210696297860e-001 -1.2882852417031967e-001
      2.8647941200085097e-001 4.2205223769252592e-001
      1.8364048350240550e-001 9.5994285938553553e-002
      3.4316653842653677e-001 -3.6548365260454485e-001
      -1.3313526184740931e-001 3.4743877904047255e-001
      -6.3608636286459158e-002 -6.2314493023763728e-001
      3.0125913338415544e-001 -2.3952101927510966e-001
      -9.3525615111592464e-001 1.0064079103114450e+002
      -1.1157112762552839e-001 3.0856200899035557e-001
      4.9418239373755848e-002 -2.3193442177667764e-001
      2.6104919175764396e-001 -3.1420922239227371e-003
      6.3476817503145821e-001 4.4310460401019391e-001
      -2.3953259022999426e-001 -5.2809465840965353e-001
      7.7639156566953105e-001 1.1867580008351888e+000
      -4.4909262503255901e-002 2.1975856085074688e-001
      2.9868914984302580e-001 5.1627648954694155e-002
      -1.8654169325559861e-001 4.2395842244451715e-001
      -1.0699437374742399e-001 -1.5994713949194014e-001
      3.0512900159393425e-001 -9.4031047789645517e-001
      2.1054459698778069e-001 -3.3146764240935755e-001
      -5.5230886041134064e-001 2.0901530311473582e-001
      4.5213389073075205e-002 8.5756691209108046e-002
      5.4272287538831798e-001 -1.2654403861846031e-001
      -2.1269581911113755e-001 -1.4554577274018715e-002
      2.4410801472867416e-001 -1.1312063799873662e+000
      1.0538277263461688e+002 -6.2752999826279721e-001
      -3.7785303002940129e-001 4.5010002217447109e-001
      -1.2620262299361343e-001 4.1286766045412293e-001
      -1.0228666996253512e-001 -2.0399486242398696e-001
      4.4708278485851616e-001 -5.7741594507324567e-001
      9.5236380194617620e-001 -4.6845698631490063e-001
      5.1914460731594514e-001 -3.3573302442599257e-001
      1.9439236596886711e-001 3.7524506622456971e-001
      9.5221728080126217e-002 -4.6053720972931289e-001
      2.8045438318816296e-001 5.2471924635402088e-002
      -3.0503695504675182e-001 2.3908393091875704e-001
      -2.8411571270969310e-001 -2.2553683547705317e-001
      -1.7263930868441318e-001 3.2982375583330378e-002
      6.5476577408769873e-002 -3.4279653368343949e-001
      -3.5634823339113636e-002 2.0361327862328604e-001
      2.7218208540063765e-002 -4.5921603968338653e-001
      -1.0238572917962470e-001 -8.4526650179414575e-001
      2.0494593323724164e-001 1.0030297439834857e+002
      -1.6492739542929502e-001 9.8550030747368664e-002
      -1.5022654115840803e-001 -5.5662972003635180e-002
      2.6275091289286912e-001 2.9212524800136047e-001
      -5.2434981202620123e-001 -5.1837014467532666e-002
      -8.6166360982685086e-001 -3.5048017170379625e-001
      9.1450543030951925e-001 -3.9351702494232593e-001
      1.7752223149762866e-001 -4.5005315707914023e-001
      1.9455752430209189e-001 -4.3876589531022268e-002
      -1.4926915117027148e-001 4.7030071777285958e-002
      -2.6057378363282946e-001 -2.8718010552200379e-001
      -1.0303479887539471e-001 -3.6013230571664329e-001
      5.5530190904251986e-001 -2.8950148405053566e-001
      -3.0335962940553274e-001 1.5457653940329086e-001
      -1.2405422205599644e-001 -5.3858554657619684e-002
      2.3699734632114947e-001 -3.8424727934670727e-001
      2.5531696247040486e-001 8.2493304691571889e-001
      -1.3036105912386433e+000 4.9932797240588661e-001
      1.0344937273366173e+002 -3.6065983401412655e-001
      -3.0067261246704458e-001 6.5504996832773599e-001
      8.7284173843172747e-002 -8.8655480356622907e-002
      3.9247117131967457e-001 8.6699152082598305e-002
      -7.0385498386253009e-001 -4.3621848067199537e-001
      1.4859190715722581e+000 1.5992718490469846e-001
      -1.0588368483849857e+000 8.6442450158891637e-001
      -4.2357004463289344e-001 -3.5368822076224671e-001
      2.0529916377269739e-001 6.4021526225458897e-002
      -1.0793724561555829e-001 7.7361291226495321e-001
      3.7457485727005004e-002 1.8437513490603971e-001
      6.5419225142949544e-001 -5.1435907393302027e-001
      -6.0691800201551938e-001 -6.9331394331017426e-002
      -1.5601048666067282e-002 -1.9914842438891564e-001
      -3.9412758182904239e-001 1.1140403072785630e-001
      2.1156485663377647e-001 -1.2340505966035199e-001
      3.8172158702517711e-001 3.1028292942145991e-001
      1.0944458024976200e+000 1.0284975416185304e+002
      6.1314025244014292e-001 1.1895709173519956e-002
      -8.4324060944265089e-002 -3.5292591827461729e-002
      1.5208634172713439e-002 7.9714390772947355e-002
      -8.5153825083192014e-001 6.8993007261792816e-001
      1.3117531851697101e-001 -3.4893516592783058e-001
      -1.3364383819258568e-001 -3.6650012031443263e-001
      -6.9609212498916745e-002 3.2627219885866698e-001
      4.6126222476455775e-001 1.5108186703819592e-002
      -1.3102612461152183e-001 2.3522299804375318e-001
      2.1127326583185480e-001 -8.7853158143843355e-002
      -4.0032394131441718e-002 -6.7416159260803432e-001
      2.0910639860074348e-001 -3.6981219030594076e-003
      2.1154307924531875e-002 2.8984652492163029e-002
      -1.9457471408314400e-001 4.6873493446918257e-001
      -1.5043539936643202e-001 -1.3198210904615060e-001
      1.9893476377279756e-001 1.2766729688622352e-001
      4.4483195850104479e-001 3.4551537240924973e-001
      2.4238150779303254e+001 2.2582757692382115e-002
      3.5554014911807313e-001 -3.5517261597544619e-001
      2.7279990904483636e-001 -1.6561898196407648e-001
      -4.0960503206452142e-002 -5.1098975767835053e-001
      -2.0357343895645591e-001 -2.1562924517947485e-001
      1.7801761643416567e-001 3.3401062274304116e-002
      2.6784065768963267e-001 -3.0469935027599609e-001
      -8.6843908899694650e-002 6.7330913142404814e-001
      2.0403286423695977e-001 3.1215490770467907e-001
      8.6440481304443473e-001 -2.0103010408366395e-001
      1.8428965804970399e-001 3.8318905022354677e-001
      -1.2343866168031804e-001 1.4654095691103786e-002
      1.4100855297929871e-001 1.7748327268614728e-001
      -3.4629962466179137e-001 4.3791826897425978e-001
      5.8279224668115581e-001 4.9434437123344617e-002
      9.3795868323774914e-002 4.9917900970842512e-002
      -1.6659804531872022e-001 -4.7015832218809991e-002
      -7.2060084270966718e-001 8.5528627357082982e+001
      -3.6338139741040837e-001 -5.7366151902557683e-001
      3.0364014064122780e-001 -1.2875611736479867e-001
      4.9999616199559727e-001 3.4901640551216850e-001
      -2.4058251774191572e-001 -3.6943228280856222e-001
      -4.5392000669546900e-001 2.7132392547824397e-001
      5.6969392055340129e-001 7.4325353857879167e-002
      -5.4103230346101083e-001 1.7444375109078455e-001
      6.5682868160676677e-001 -2.8609785213223649e-001
      -1.9985590441084927e-001 -1.4878482692797246e-001
      8.8892132264533699e-002 -6.3826394880949355e-001
      3.3634703093001850e-001 9.7940876069618210e-002
      3.9056145615195464e-001 1.6261982154310603e-001
      8.1253624850796791e-002 2.7251264464196107e-001
      -2.3800205928479964e-001 -4.2845514352030822e-001
      1.0664062109561064e-001 -2.3954765968679244e-002
      5.9648129948772599e-001 1.1536953056082990e+000
      5.5422000834887619e-001 -1.4561493821003262e+000
      9.9081515750877244e+001 -1.1326878339239403e-001
      -1.6096239028385170e-001 4.7562443097586726e-001
      -1.7853226678363739e-003 5.5912870424943817e-001
      8.6792126765271038e-001 -1.8921997960611062e-001
      1.4052844328047671e+000 8.1226995158618853e-001
      7.6997363389219564e-001 1.3774320894132572e-001
      -8.3441888861727564e-001 1.9442783727439267e-001
      -6.7031774505071984e-001 5.1493971121739579e-001
      -4.0703773738283086e-002 -1.3678341550502963e-002
      1.2706203023774577e-002 7.1743218544727483e-001
      -4.6871633779845617e-001 4.1524362505504969e-001
      -3.6829698573869274e-001 6.8923088461174364e-001
      -3.4793033179770305e-001 -2.4533034164555159e-001
      3.4011836558439290e-001 -5.4861578536141153e-001
      -5.1741566227580083e-001 -3.4097654701317670e-001
      -2.6761968595353020e-001 -3.8631287905237710e-001
      3.9635998214750706e-001 -5.3621407449322721e-002
      -2.4623090877844648e-002 7.2905683825655657e+001
      -3.5952526183710365e-001 -4.1717723277540081e-001
      -1.0326120525826889e-001 -6.0937036744992991e-002
      -8.2364121803742640e-002 -3.2134187323504301e-002
      -2.0989096517844774e-001 -1.2074336514905533e+000
      7.4073919853567316e-001 -4.3695644816958090e-001
      -7.0022516110182342e-001 -4.9344797723478684e-001
      -6.2784044698269925e-001 1.3613816750598956e-001
      7.2403522833909695e-001 6.2660063580151593e-001
      2.6336665791890479e-001 -3.2876563678823523e-002
      -1.4394061940572578e-001 -1.9564829298502076e-001
      -1.2213449089836145e-002 -4.9750708167998486e-001
      2.9637475084851341e-002 4.5711687789732780e-001
      -1.9882629684972214e-001 3.5271402321047279e-002
      -2.3482130687843068e-002 -6.3887392908855500e-001
      6.0001985996678074e-002 5.7096727852952045e-001
      9.3647030155988423e-002 -1.1150505750606540e-001
      -4.3372559696801655e-001 -6.2264700239880155e-001
      8.4255251787998361e+001 -1.3207754276078110e-001
      2.0098454427908499e-001 1.6937036205786911e-002
      1.6010179084909856e-001 1.6160314552802157e-001
      2.8943835109074117e-001 1.0669906042849221e-001
      -6.3717387956496419e-001 -1.1375706054633214e-001
      -6.1153727464383345e-001 1.2651431344828609e-001
      -1.4347240535044792e-001 -1.4537900368108628e-001
      -4.9790391954886531e-001 -3.7683343050899765e-002
      -1.3084987166684522e-001 3.4207245450927327e-002
      1.3743085654650539e-001 2.2413011369996427e-001
      -5.1724088262769330e-001 1.1511787642385747e-001
      4.5973235682107971e-001 -4.4080099303279979e-003
      -5.6437886452671693e-001 -7.9096568793850935e-002
      -4.7748821376117974e-002 -5.4969156422794563e-001
      -5.2271087498519053e-001 -2.0591733645564540e-002
      1.8723014585752396e-001 2.0053131387423923e-001
      -3.4730533638432110e-001 -4.8839718027618484e-001
      -6.8822011656700766e-002 1.0258611600486455e+002
      -2.2579634044236568e-004 -5.5977998003281355e-002
      -1.4525942147580276e-001 1.6781833781896727e-001
      5.9844978859388953e-001 5.0689092878295629e-002
      1.2362453519720387e-001 -4.8237260248084379e-001
      1.6504664722495233e-001 2.3585537031920768e-002
      -5.2996462925835519e-001 6.6405659023164743e-001
      -4.4363595615018230e-002 -2.4411101680362898e-001
      7.3992545268681120e-001 2.0862101173430614e-001
      2.8004733254015594e-002 1.2858233841532588e-001
      4.5032389540657580e-001 -2.4932699775569292e-001
      9.0114497243511937e-001 -1.4386067189426077e-001
      1.7057420213318356e-001 3.1853189663044179e-002
      -3.2157061489571198e-001 -1.1061808747467304e-001
      -3.3222297423741526e-001 6.5909037449930974e-001
      6.7603616880681539e-001 1.2844677328013607e-001
      1.6507844666222407e-001 2.8922179683300098e-001
      4.5997662089825841e-001 -3.5390301191409085e-001
      8.7722117381264852e+001 -7.5035839097982740e-002
      -4.9176975037842768e-001 -5.4136440973207889e-001
      -5.4345512485301839e-001 6.1934090851729973e-001
      8.3098321023372546e-001 -6.5127152160339563e-001
      1.2594792731188840e+000 -1.0181538756540318e+000
      -5.7916623320548422e-001 -3.7267899890563860e-001
      2.8225548850540910e-001 1.6074767357014677e-001
      -7.1672959653585472e-004 2.9874952914842851e-001
      2.3617367483805699e-001 4.2335643674579267e-002
      -3.2034370264435436e-001 1.8328066405329524e-002
      -6.9863754608064946e-002 2.2814899707755154e-001
      6.7526827529144695e-001 -2.8207108908701922e-001
      8.4893063202175345e-001 5.0060797191591219e-002
      4.2781858796732541e-001 3.1690890763724194e-002
      3.2658380191101760e-002 1.8237180588489743e-001
      -6.9122036148022856e-002 -3.7602545762145806e-001
      -6.8581541779471900e-001 4.2288492420147400e-001
      1.6185799906012760e-001 1.0111792627102022e+002
      -2.4337242362644265e-001 -2.1896066610932401e-002
      -5.1858558474242777e-001 -1.1198273874191043e-001
      2.0569322956590028e-001 2.1954919646707924e-001
      -3.6508930940664114e-001 -6.2714797054653271e-001
      -3.9919666251230618e-001 -1.4815947492968132e-001
      2.0509333011993833e+000 3.1039003767018591e-003
      2.3307753522940367e-001 -6.6427556764925433e-001
      3.3288697213423679e-001 -7.4192052325215729e-001
      -2.9994616452271383e-001 -2.1436021845016820e-001
      4.1776727314197731e-001 -3.0872942712306378e-001
      2.7593128047037557e-001 -1.4359710379410012e-001
      3.9921650153967886e-001 2.8383250428715767e-001
      3.0075841101331025e-001 -9.8254810551006294e-002
      -2.5768362667520350e-001 2.3124011935472831e-002
      3.0124314730804103e-001 -2.4959705442444158e-001
      -2.7218818660549421e-001 6.9028175744541631e-001
      -2.2293691986246880e-001 8.1295366091890583e-003
      1.0884934141587142e+002 -2.7496148338042825e-001
      -6.6226744770900528e-002 1.8537726499219531e-001
      -1.6523710334229175e-001 4.0706154882335449e-001
      6.6183168420566085e-001 -4.8028521667322377e-001
      -8.3384096295925059e-001 1.2651885355936838e+000
      7.4125206422246481e-001 -1.0641986566394686e+000
      -6.5086537573572978e-001 1.7573512297126814e-001
      -6.3588635659534543e-001 2.9589756967309089e-001
      1.8382967335446956e-001 6.8881220714160182e-002
      3.7556803207004641e-001 1.2357722682112467e-001
      -3.9899633486401515e-001 3.0995411141479534e-001
      -3.1613239414289962e-001 5.6481046110710986e-001
      -7.3386323741753456e-001 -6.4264279270909597e-001
      2.7658527993196541e-001 -2.1676373683478656e-001
      -5.0954511226690036e-001 -6.0500989635427209e-002
      -1.3161692321546634e-001 -1.6330073690547434e-001
      -1.6589789961739476e-001 -6.8744801726208349e-001
      5.3441412279080736e-001 1.0313906484168876e+002
      -4.7537024823461249e-001 -4.1450428059638667e-001
      -4.2540090892828142e-001 -3.4987296564761217e-001
      4.7308073188960520e-001 -4.8642245868295153e-001
      2.0479213166292359e-001 -1.9826551481366167e-001
      3.2008384081904240e-001 -5.4205060695044560e-001
      1.0982435673668864e+000 -9.5093426916963722e-002
      -3.3359350011127176e-001 -2.1222009154294810e-001
      1.3528613903023263e+000 -6.9191636049991026e-002
      -3.8439771184618543e-001 6.7834683926166739e-001
      1.8658030155281355e-001 -4.7289375511347703e-001
      3.6817679793256736e-001 -6.6035001884061162e-001
      9.9242307529861318e-001 3.8066328848482861e-001
      -2.6959375333776681e-001 3.1520283970290212e-002
      -2.4136067453574003e-001 -1.5296884978042927e-001
      -1.2418357246533830e-003 -1.0006134243749543e-001
      -4.5733499099801606e-001 4.1441599714882676e-001
      -2.5596327027153520e-001 -4.3053566688165540e-001
      8.7870661398842230e+001 7.3361385315394129e-002
      -3.4807982977358276e-001 -2.0932809077380835e-001
      9.2867568074568960e-002 4.9992001753606874e-001
      -1.8386338141056446e-001 5.7796155743190747e-001
      -7.0130399084281135e-003 -9.7535373046811424e-001
      4.6187652782187638e-001 -2.4766945340770272e-001
      -3.9298182763713602e-001 2.0982607094341013e-001
      -2.5553016737575773e-001 1.0942903600034961e+000
      -3.7072147924948917e-001 2.4195420890918305e-003
      9.2939243744053976e-002 2.6906381991710487e-001
      -2.7366591785205319e-001 6.4295832551060361e-001
      -5.0352520249986921e-001 1.6642756126998628e-001
      -3.4703003987157849e-001 -4.0679691572162546e-001
      1.9425875432271555e-001 -1.3611247423651648e-001
      4.3714721151187880e-001 3.0529080700751526e-001
      -3.2545772687685953e-001 -3.0378421922686449e-001
      -2.4122167926230809e-001 -4.7581201911131455e-003
      -6.7121577986373682e-001 9.3556698960816590e+001
      -2.3124949120077090e-001 -3.9965141739213639e-001
      9.5360146904845899e-002 -1.9298436026302913e-002
      1.6333030516863928e-001 -7.9305941003640978e-001
      3.3916634523425127e-001 -2.8984430646008763e-001
      -2.0563450168804037e-001 3.7252823388090751e-002
      -1.2249482900780027e-001 5.2637258309723012e-001
      -4.2384377811791946e-001 -1.6582847563075356e-001
      5.5654402717146823e-001 -3.8391107986304807e-001
      -1.4094674493828349e-001 -2.6341577669077609e-001
      -2.8326433573761256e-001 3.1342504596645171e-002
      3.5078156369770791e-001 -4.4472581765051522e-001
      5.9893716365486815e-001 5.4011170429526045e-001
      -1.1316917084716938e-001 2.1744913759196896e-001
      -1.5888611331833924e-001 4.1249878215949065e-001
      1.5484157762142930e-001 5.2059239570306427e-002
      4.1939276981643842e-001 1.0409099805391621e-001
      -1.0051297130284063e-001 -7.3335365829584453e-001
      9.5387773146049426e+001 -1.1691973755014479e-001
      -7.5325695723118133e-002 -1.8384715327963069e-001
      -2.2745928250744438e-001 3.0824663125636365e-001
      3.1754324004653156e-001 -3.9429854173746720e-001
      -1.9958378519825698e-001 2.9430759085421098e-002
      2.8229826122302498e-001 -4.3963755751752237e-001
      -1.6913065258378462e-001 5.1365534689958547e-001
      -4.1250222845066536e-001 1.6038830857673228e-001
      -3.8942016403306023e-001 -4.4695260060736521e-002
      -2.1864638090883956e-001 -1.5710980051148088e-001
      -3.4689113424499646e-001 6.2501272159851295e-001
      -3.9402407219629587e-001 5.3708461969913870e-002
      -9.8458711299251833e-001 -2.1532138524406153e-001
      5.2068887445630629e-001 -3.8108636152372416e-001
      2.2504755061578793e-001 -1.1456986122791681e-001
      -2.6174706269994980e-001 -8.5248726532297758e-002
      9.9356637132299572e-002 -3.0596788043917661e-001
      -4.0219682509920328e-002 3.7238335998091685e+001
      2.0981633498367536e-001 -6.9237108273786471e-002
      7.6917618194258675e-001 2.1838990906441799e-001
      -3.7871870531773592e-002 -3.5665953458598770e-001
      7.7562264111995294e-002 2.7321675915950687e-002
      -5.1840400265902886e-001 8.0098306130693642e-001
      1.6821262503539491e-001 2.6117356007943678e-002
      -3.1435044779865323e-001 1.1816366545942365e-001
      4.9686415795400207e-001 2.1990326568908045e-001
      3.7324693254528318e-001 7.0184567886126342e-002
      -1.8758703830616991e-001 4.6445785636997474e-003
      1.4936604712422047e-001 -5.2193908406520488e-002
      -1.0895854247757125e-001 -5.0718407258267906e-001
      -1.9979916060194297e-001 3.5210988671070942e-001
      2.3830100603086413e-001 -7.7701334177868855e-002
      1.2591555545869518e-001 -2.1899053716490860e-001
      1.0429187238296890e-001 -2.1898141762510923e-001
      6.0976824680710841e-002 -2.2970022478018068e-001
      9.1202997257118056e+001 -4.7018967428496300e-001
      -1.2880272733091824e-001 -4.2025667665946631e-001
      -5.0399371949061057e-002 -9.5093371596030332e-002
      -5.1544469591667552e-001 -7.6856444906002497e-001
      -1.1475252120320121e+000 4.9093157329549875e-001
      -1.4821283217199263e-001 -6.4533250615376447e-001
      1.4727306654275721e-001 3.2898873929047556e-001
      -1.1545034365607575e-001 1.3536015628265471e-001
      2.2358993699331503e-001 -6.4303069641001340e-002
      -5.2050088221360491e-001 -1.5252145281616489e-001
      -3.8824756281550049e-001 -1.5990734318239180e-001
      -5.3798245830971914e-001 9.7213272029135323e-002
      -8.2668130959892075e-002 5.4825065331726160e-002
      3.6929995588530978e-001 -4.5975516289604862e-001
      7.1425276497019019e-001 1.5406493309568559e-001
      -4.2979987384150643e-003 8.2847505820854997e-002
      -7.1100063887728118e-002 5.7168229529811898e-001
      -5.5888675646515740e-001 1.0627189640399658e+002
      -2.5084769915057059e-001 -3.3607435332195507e-001
      -1.0018113441210401e+000 2.4295345879445488e-002
      1.3555415941092397e-001 -7.7695640272684585e-001
      4.0277178670170699e-001 -4.3025622997227758e-001
      -6.9802582801096014e-001 1.1936036709605233e-001
      -8.3826179818134139e-001 -1.3648796999852533e-001
      4.2981005824475738e-001 -1.9679954186278531e-001
      2.7791771785058064e-002 5.0630546309432867e-001
      -1.1769562889889404e-002 8.9524593650604722e-002
      -4.8304496904162519e-001 -3.0680557647408141e-001
      2.9772601723100528e-001 -3.2822928275349543e-002
      -2.5814239995278326e-001 1.6820689587067844e-001
      -3.4468173072218522e-001 1.8682407696314077e-001
      -3.0561098719494262e-001 1.7173632120034510e-001
      3.3016141905717422e-001 2.5355183940829074e-002
      -2.3074314627824419e-001 -4.8836708040771620e-001
      -4.8319666283625523e-001 1.8362526706034563e-001
      9.0073641441619998e+001 9.7233951806811686e-002
      -2.8968568118373866e-001 -3.9542759371444372e-002
      -4.1807157343752149e-001 2.7694422324643342e-001
      -2.3901990628979430e-001 4.7934942813241072e-001
      -8.4222748111414059e-002 1.4740618367555317e-001
      6.9099532938636832e-001 5.7362371797974498e-001
      6.8262397109305553e-002 3.0122853116484749e-001
      5.4744314343125655e-001 4.5741530318665724e-001
      -4.1435399724741845e-001 -6.6291523787132933e-002
      -2.1732151775311265e-001 4.1649895099604212e-001
      -3.5626138231514526e-001 5.4203645141725609e-001
      -4.7622472951079664e-001 -6.9166791343887410e-002
      -1.6370077990874241e-001 -9.3490138091822356e-002
      3.6097744950749766e-001 -2.0137184947335526e-001
      -6.4131389731502475e-001 2.8034410801221099e-001
      -3.1346532860178739e-001 -2.6874861950107842e-001
      3.4795565549858859e-001 -1.5717407033000366e-001
      -1.1341633247234113e+000 1.0149878328037013e+002
      5.3395557804071292e-002 -3.0780194346625539e-001
      5.9464254332247768e-001 -1.0837364943194498e-001
      -1.6286893213413350e-002 8.6128552319866958e-001
      2.9743544760018226e-001 -1.3622141919421180e+000
      -8.6184319786166952e-001 1.1388325510319531e-002
      -1.2992058766940882e+000 -1.3380602069406708e-001
      3.8933940335718642e-001 -1.2385741460625668e-001
      1.0196728163449123e-001 -3.3233067298351981e-001
      1.0834577171977078e-001 -4.7613965369936717e-001
      3.6718272275160097e-001 -3.7208448143585432e-001
      5.5703719957160169e-001 2.1000763666674460e-001
      9.8813753395061377e-001 -2.5620763255244633e-001
      -3.2333022047633314e-001 5.0134724053943824e-001
      -2.2067291142258705e-001 7.1177573585850240e-001
      2.5694263721866845e-001 -2.5192699899072751e-001
      4.0657385798732198e-001 2.3495818162080886e-001
      -8.4042958368061071e-001 5.0804350464790426e-001
      1.0215099985487362e+002 9.0120254185235449e-002
      -2.1640355588182300e-001 2.5810257026040984e-001
      -2.3814231638502942e-001 4.2802486281446822e-001
      5.6799832009819329e-001 -1.3399271698331583e-001
      7.7931918842781145e-001 -5.9830018813984465e-001
      -9.5318423534974828e-002 -1.0551168798890926e+000
      6.7307388997254403e-001 5.3599805469239689e-002
      2.8838006056854099e-001 -2.6263175471639316e-001
      1.8785028029175319e-001 2.2263159639841285e-001
      -3.0579282082261527e-001 -2.6450682156095995e-001
      -2.2681312104062931e-001 5.2531038958690002e-001
      -5.2083756972169426e-001 1.9285930266661325e-001
      -8.2887112100867089e-001 -1.2445267798153185e-001
      3.5303694033658778e-001 -1.5499364534598362e-001
      -2.6999927195962320e-001 -2.6310743857392058e-002
      -1.1424520973813321e-001 4.4847509475965608e-001
      1.7958807198271720e-001 2.1792734919240467e-001
      4.6397277324675684e-001 1.0632358283010976e+002
      -1.0490553279093281e-002 -2.7605636336734041e-001
      8.0339264523600706e-001 -1.6121687201662960e-001
      2.0246182728264592e-001 3.7544713474952718e-001
      1.3708534379216319e-001 -2.8927113207340455e-001
      -5.0235078429617708e-001 -6.2531296468991282e-001
      -1.7037660605851540e-001 -6.9721952131591478e-002
      -2.1732444941479551e-002 5.8774399128109189e-001
      3.6228700846065326e-001 -6.2692451586909437e-001
      1.9927270234515994e-002 -3.1797406612464363e-001
      4.0179337947191274e-001 -2.1946980353621498e-001
      4.3050369537727207e-001 -5.2985985944399676e-002
      -1.2472309880776415e-001 -4.5085287395335383e-001
      -6.2209939698310408e-002 1.4537682925233919e-001
      5.5420865672832831e-002 1.5411600126868161e-001
      7.0021881386680751e-002 -4.0382079960248735e-001
      -1.4183798668475520e-001 -1.9852225225027568e-003
      -3.7286516697517735e-001 -5.5759208303273844e-001
      1.1442198790212334e+001 6.1824548857480385e-002
      -1.5268369806079204e-001 -7.6713831702233881e-001
      -2.0964926890804569e-001 7.7512868966938238e-003
      3.1455535040674942e-002 -4.4006198658743290e-001
      6.4757785247923250e-001 -2.6184493756683597e-001
      -7.7918338023468411e-002 -7.2353562147584449e-001
      -5.5054003370248905e-001 2.3134152559183335e-001
      3.6551108967314581e-002 4.4506362092756246e-001
      2.9652596852771529e-001 3.2063506385941409e-002
      -2.0671621195920242e-001 1.2673899779701280e-002
      -2.0826463845185136e-001 4.7863337469619954e-001
      -2.7660618969531980e-001 3.9646218853098608e-001
      6.3467906265818200e-003 -2.2170506047726804e-001
      2.6810390587518179e-001 1.5060132685284269e-001
      -1.5933110261559039e-001 1.1977380221068794e-001
      -4.0822736979951157e-001 -5.7132788105997290e-001
      -9.2977769309547609e-001 -1.6646699847778323e-001
      -1.1227370929625322e-001 8.7193069819162346e+001
      -2.8896969623991170e-001 -1.1500566444026619e-001
      1.0711414314757577e+000 -1.4939946141742849e-001
      1.1120731756655831e-001 -1.9073155313215748e-001
      1.4987141704397139e-001 -5.9377557948075832e-001
      -3.2466193071007343e-001 -6.2015540903158062e-001
      -4.7878065810874004e-001 6.4792041390420041e-001
      2.9746040728785124e-002 6.2078513858483275e-001
      -5.1491686389311009e-001 -6.2594186525391782e-001
      -8.2159805942735684e-002 -1.5779908368723547e-001
      -8.7961717870524370e-002 3.7775903550678210e-005
      4.5069722426051945e-001 7.4062694277391372e-002
      5.8482635331888492e-003 -8.4615035396028537e-001
      4.9578871890307373e-002 3.1244446190603531e-001
      1.3429727375246819e-001 3.0772279713427133e-002
      2.4165433972641071e-001 -2.5814959634184126e-001
      2.9856803967257511e-001 1.0468034818097867e-002
      -2.5112347288245462e-001 2.8061558818986854e-001
      1.0420684812033902e+002 3.5216425310480470e-001
      -1.0243567637569696e-001 2.2748014181534393e-001
      -9.7352490516184526e-002 2.4542698023481010e-001
      5.8894780259552448e-001 -3.4109179434010400e-001
      1.9304067671045802e-001 -1.1790486680240244e+000
      -7.9433478820060144e-001 5.1532182795201598e-001
      -1.3164948140687745e-002 1.7317670329150156e-001
      1.5383395738051778e-001 2.4767634778950270e-001
      -2.2325424023937426e-001 1.5547206543351403e-002
      -2.7304859182497970e-001 -2.4953965833027317e-001
      -2.7146811082289501e-001 4.3078272896437431e-001
      -6.4824336408266084e-002 -2.5421974797283451e-003
      -6.4055734239758202e-002 1.0551915289541972e-001
      1.4845162929623745e-001 4.6723795713490002e-002
      -2.5488156133957940e-001 -4.2974330171526631e-002
      2.4439969168905326e-002 3.0813458881194561e-001
      5.1410733522703123e-001 -4.8206100333706059e-001
      -1.6335374545245648e-001 6.8234583003815800e+001
      -3.3010512374639270e-002 -3.8957416928458860e-001
      6.4762554420298379e-001 9.5688788018824592e-002
      -1.8494569421335283e-001 -3.5965187563515473e-002
      -1.1286158750088027e-001 1.2663942667796750e+000
      -4.9981974807311863e-001 -7.6125379693940598e-001
      -1.2503549964633252e+000 -5.8843507448142551e-001
      -2.8876539801864370e-001 1.0419447081515464e-001
      8.9883901994788379e-002 -4.5917502447452851e-001
      2.3993463062044840e-001 6.9632261579759642e-003
      7.9869604104390979e-001 -1.1251166686003539e-002
      2.3313902209195672e-001 -1.3851461100334311e-001
      5.2747287278871802e-001 1.2513461095642295e-001
      -2.9014006776448883e-002 1.0930658026255828e-001
      1.9605202921278034e-001 8.5731663419081991e-002
      3.4695467688957726e-001 -3.9498581438561359e-001
      2.0682222752726859e-001 2.9312138673085048e-001
      1.1278956810329378e-001 1.4978373084677577e-002
      7.6056123943195075e+001 5.5887670708197046e-001
      3.9351699650514183e-001 5.3871175406745053e-001
      1.8491704758140917e-001 2.1642135884167316e-001
      -7.2113241355235566e-003 7.9657694741718257e-002
      -1.1673961232760972e+000 -7.8588630126069384e-002
      4.0874074471443689e-001 -1.3864136305533779e+000
      -1.1111737977404310e+000 -4.4747121606950518e-002
      -2.7705210216117987e-001 2.8931763515661002e-001
      -6.2715524753076540e-002 1.1376338282361095e-001
      -3.5513373113910912e-001 2.5720541474264891e-002
      -6.7288547807322477e-002 5.9014371513562806e-002
      -2.3263232113010304e-001 5.1288797103116590e-001
      6.5215457473595861e-002 5.8279472797199883e-001
      1.7932393568530264e-001 -2.1228424438584859e-001
      -1.3791160350522985e-001 -6.2266568955078518e-002
      -9.4960589931377237e-002 3.8407607398305965e-001
      2.6761456645431908e-001 -4.0803285709795939e-001
      2.4440967000458608e-001 8.7129877745148647e+001
      -5.4593035262329670e-001 1.7757934880427484e-002
      -5.3256849540995210e-001 2.9182023027674592e-001
      2.0068554045370762e-001 -5.7753099848210010e-001
      4.4623305866229901e-001 3.8352997663705723e-001
      -5.2753653540767931e-001 3.6148705945307424e-001
      3.6457545514924922e-001 -2.5425751446633282e-001
      2.6827542276578925e-001 -4.0954598770550316e-001
      -5.8370525761520076e-001 1.9757737285434107e-001
      2.4251341181370759e-001 8.0044705455757564e-002
      -3.1289872638514810e-001 -3.6888524640576709e-002
      4.1231300786736758e-001 1.8995069574013240e-001
      -5.7144413537903571e-001 -2.1482750889689853e-001
      -6.8562917194485762e-001 1.8546315658731299e-001
      1.4564913015400771e-001 2.3871423504893066e-001
      4.0100951720079703e-001 -3.1396844350765102e-001
      2.5877397928359341e-002 -4.8762342971886552e-001
      1.0407258881150272e+000 1.3984289902277253e-001
      1.0698054982803147e+002 -1.5723695699957219e-001
      -1.9156275482128932e-001 7.0471359246168278e-002
      -2.3132789758981787e-001 4.4431178817791905e-002
      6.5484674834138934e-001 -5.1207512561423141e-001
      1.2753434557841561e-001 -1.0347996022188537e+000
      -6.0795834621339706e-001 -7.4636824142611269e-001
      -1.1009652347312624e+000 8.2522164206969617e-001
      -4.8135618240288586e-002 -8.5859170812674224e-001
      -2.2724053638262209e-001 -4.6974353622574946e-002
      -4.7324638186151458e-001 3.6970945874053257e-001
      -4.2241513899326188e-001 2.7378553754821211e-001
      -2.7601287412904035e-001 1.1111520156631538e+000
      2.9478121533789825e-001 -2.8164863386502710e-002
      1.5665380503358643e-002 -1.2970988245353798e-001
      -1.0564151324612731e-001 -4.6140378416676703e-002
      -3.0085377310999539e-001 -1.1992389653509021e-001
      -2.7351640769683971e-001 -5.0718912209881883e-001
      -2.7211858614851748e-002 9.9063926098861089e+001
      -1.4054301790111023e-001 -9.8840541987075085e-003
      -3.5740933147829251e-001 -1.4083594160814786e-001
      -4.7059298893873086e-002 -4.8880210372831301e-002
      7.1125837891536248e-001 5.7148613024688192e-004
      6.4796294490258000e-001 -1.3108730511220207e-001
      4.4108839776868453e-001 -5.8647717000632607e-002
      6.9827913803034491e-001 2.7135685197017911e-001
      -1.5308591004698256e-002 -2.1535098820423673e-001
      4.1655905231535263e-002 -7.1413775325383705e-002
      -7.7653238658665225e-001 -1.0187195686516433e-001
      3.6329536285683522e-001 -7.6700128620560393e-001
      2.1110357026943156e-002 -3.6398705863330688e-001
      -8.9353515834212915e-002 2.4478424205548556e-002
      7.3970034669566143e-002 6.9499241505263298e-001
      2.4983249305011332e-001 -7.1638705109224515e-002
      -1.7136625759135257e-001 3.9635644725208263e-001
      -6.1227674807860144e-001 1.4214562772038880e-001
      9.5922626507397794e+001 -1.0100786385336839e-001
      -2.6201981446602052e-001 -3.1151676009531455e-002
      -1.8161629933342627e-001 1.2433688926567708e-001
      8.9715264240107256e-002 -1.5069625922733429e-001
      5.7493113427337506e-001 -8.2779119997586093e-001
      1.3690790613031956e-002 -4.4644275271602168e-001
      3.2034999297674610e-001 -2.2379631268908565e-001
      1.6821972890365403e-001 -5.8525517648148617e-001
      -5.7495830638554034e-002 1.3853433730986880e-001
      -3.6178276237835533e-001 1.0793058976847708e-001
      -1.0273174625290435e-001 1.5771121392897861e-001
      -1.2926742867482022e-001 2.6807532962105024e-001
      -6.7556336396833061e-001 -8.7428755681978165e-002
      1.6904416537739000e-001 6.8391891258576448e-002
      -2.3862725825238076e-001 1.0661991866837115e-002
      -2.5189788931249774e-001 -6.3095700969002841e-002
      -2.7101025308474957e-001 -1.4950256195952591e-001
      -2.1582931631311675e-001 1.0205724009034194e+002
      3.7320799408993299e-001 -4.4701871226378243e-001
      8.3383093326720636e-001 3.3339735714456792e-001
      2.7215185934178560e-001 6.5444617243033587e-001
      1.0076887934238644e-001 -5.6570340111672467e-002
      -6.4270875620213497e-001 2.8651301295780268e-001
      -1.7721448917494026e-001 -4.6013051309389774e-001
      2.7479022561938582e-001 7.1874011877792104e-002
      -6.4270056721661667e-002 -3.1149820095360264e-001
      2.5090825181392024e-001 -1.8744276702643059e-001
      3.7007199767533178e-001 1.0027105865468834e-001
      3.1216083858964050e-001 -2.2862008937033333e-002
      -5.1459604029120393e-002 -2.7842870377762585e-001
      -2.4321691684384633e-001 2.4086914179151837e-002
      2.2771009864344338e-001 -8.9548317195010080e-002
      -8.2996481299578997e-002 -2.2035159898222365e-001
      9.9306437482672164e-002 6.9826947524682870e-001
      -4.6413698473151643e-001 -3.8149098138410309e-001
      9.5075726688477459e+001 -3.2548934175812066e-001
      -1.6175402852089341e-001 7.9715064123081519e-002
      -5.5884126882488915e-002 4.0223080121010235e-001
      5.6016665962657297e-001 -2.8041476016349542e-001
      2.9712042925719245e-001 1.2670544477336843e+000
      1.9300690689266178e-001 -8.4747642083757124e-001
      4.7867370587019391e-002 -1.6527297452360543e-001
      3.4606580269473891e-001 -1.1153802290773731e+000
      -3.0599543742373969e-001 -2.1909017300159281e-001
      2.6838033163391295e-001 2.2014259436904896e-001
      -3.9378811889464044e-001 2.7677071925270752e-001
      4.7072419308778923e-001 4.3313381704318255e-003
      -3.5003316659137079e-001 -3.6093565414620145e-002
      1.0725143693321702e-001 -1.7446272340598057e-001
      -1.0149420303192809e+000 6.6660199972555262e-002
      -4.3697459698590463e-001 -2.2514020822234193e-001
      -2.2302222611717354e-001 -4.1895028515760591e-001
      -1.6290808905769255e-002 9.0793071221041799e+001
      -6.2315747663457577e-001 -2.2174479692198934e-001
      9.1363884837486908e-001 -2.5368218536875500e-002
      2.9950244986574187e-001 9.0574976799921125e-001
      3.4166807760958495e-001 -1.0339629780111128e+000
      -1.1872821672075720e-001 -1.0406193005051592e+000
      -1.3524974491639341e+000 -1.2870543924996661e-001
      4.3147662711332446e-001 6.5722894645597885e-001
      -1.9552540204950172e-001 -9.6781503275103820e-002
      -2.0669626223250168e-001 -2.4452362912853673e-001
      5.7179384646826581e-001 -6.2873368974809807e-001
      3.3133621215635611e-001 -1.9766001739293174e-003
      -8.6859554784370696e-001 -9.9242136955731447e-002
      -2.3965441058622058e-001 3.0373582036883817e-001
      -6.4146588881020816e-002 -1.4258997985726521e-001
      3.7384981058799438e-001 1.5521405371725253e-001
      1.9924545700525292e-001 -7.5979837272826976e-003
      -5.9476113083584081e-001 -2.8623156968535307e-001
      1.1072338000965627e+002 -3.2298884621294705e-001
      -1.2733736844726101e-001 -5.9299336632901634e-001
      -9.6589415562200701e-002 3.4407622865579934e-001
      1.3892357082094309e-001 -2.5457366520577429e-001
      3.3391988741770573e-001 -7.3760398259036275e-001
      -6.5961837086709374e-001 7.7143152859667519e-001
      -8.0060963389277817e-002 6.3103021144939664e-001
      1.8665220055343271e-001 6.0033661542989158e-001
      -4.9331415410370494e-001 -2.2936363784357616e-001
      -1.0151534486651263e-001 4.1880162139573573e-002
      -3.8408974746391006e-001 3.6983596994133128e-001
      -1.0752181309580295e-002 -6.9981412092291617e-001
      -5.0529097866846839e-001 -2.5208500396571526e-001
      3.8948332279085918e-001 -1.6779228504319360e-001
      1.8134250775132840e-001 2.8833411004187043e-001
      -3.3499991751103325e-001 -6.8414153679493703e-002
      4.0981385259685799e-001 -8.2779331587734506e-001
      2.7141700093348559e-001 6.4796662684396196e+001
      -1.8036480759641696e-001 1.4177946285363568e-001
      -1.4841944549859093e-001 -6.7326518596316653e-001
      4.5329846239024829e-001 -2.6629968994054964e-001
      -5.4535977429560978e-001 4.8680964536113391e-001
      6.6227582324669687e-001 -7.9227167649287644e-001
      -6.5162003933243853e-002 5.0484675168937554e-001
      1.0391706842484695e-001 3.1364835196851315e-001
      2.6671907823486607e-001 5.3836731732293773e-002
      -2.8950447698191167e-001 -2.3791342876123572e-001
      2.4203354961826748e-001 -3.7467616565578188e-001
      -1.0872363495028456e-001 1.9615714380861887e-001
      9.7712211676858396e-001 8.7458627297384767e-002
      -3.6225793404751061e-001 4.5961517105308564e-001
      -4.9436191658983758e-001 -6.4386440093071123e-002
      2.2234949186350011e-001 -4.6089181384704442e-001
      -1.0447140914428794e-001 3.8883514893411081e-001
      -2.4411327059886945e-001 3.8086605746333706e-003
      1.0303803367853168e+002 1.6100160924594362e-001
      -4.1624993855159748e-001 3.3906376288586826e-001
      3.3887920979928199e-001 2.3972080885331165e-001
      1.3947090361073616e-001 -6.9822477665382399e-001
      4.2207307455052645e-001 -2.2360907340829525e-001
      -1.7768227845073492e-001 1.0307764465597844e+000
      -3.1595687532698580e-001 -7.2831022114573235e-002
      9.8955650130479925e-002 6.2552194077824785e-001
      1.3928093045058954e-001 8.3981153810781389e-002
      2.5555317363075736e-001 8.6736347844428782e-002
      -4.0067866766047261e-001 -1.4711456473292089e-001
      -5.4822587309972404e-001 5.7455157497547726e-001
      1.0738456947971492e-001 -1.5130482070243909e-001
      1.2658235513109900e-001 -9.3920484116032696e-002
      -1.1226177982436740e-001 1.6807481689706816e-001
      -2.9465400049518985e-002 3.1557729060171830e-001
      2.2652347817582286e-001 4.1707844235374458e-001
      4.4449630021995595e-001 4.3291255847278912e+001
      -6.4671179653980848e-001 -1.5616259533997168e-001
      7.2028125684807057e-002 5.7916019174748734e-001
      -1.1039632487397803e-001 7.0973707929183200e-002
      3.1406427485531130e-001 -3.0654896529504649e-001
      -5.0800663720662476e-001 -1.9135987191981601e-002
      1.2981716536827774e+000 5.0667793596036759e-001
      -5.3475348872200668e-001 1.9820333426313716e-001
      -6.4101015697729261e-002 1.5082348005644763e-001
      3.4882576403097981e-001 4.0035277632473032e-001
      -2.4523766868649671e-001 2.9026381848580807e-001
      3.1937869422079801e-001 -4.1531859144034344e-002
      -3.4078894218017269e-001 -3.1947252364743245e-001
      -3.4008536662958638e-002 -3.4042695442269266e-001
      4.0054602605667883e-001 -1.5303780684015700e-001
      3.1132113371972786e-001 -3.0793479738981944e-001
      2.0750518757960346e-001 -1.1666808072226637e-002
      3.9924787820047158e-001 6.0558756159544105e-002
      1.0301033915702232e+002 -4.1424303215898112e-001
      2.5700169978004322e-002 -2.1116630923380628e-001
      -2.7244580099079146e-001 5.2289384588324828e-001
      -1.6542184453829281e-001 3.7567599783516670e-001
      8.7566924910824059e-002 -1.3651539431221626e-001
      2.8739093835203056e-001 1.0102387203894789e-001
      4.7913659385670315e-001 3.8171635409602384e-001
      3.2574100221126456e-001 1.8210762666198571e-001
      1.9003522427467490e-001 -2.3097250918458914e-001
      -4.2585811528916502e-002 5.3219800541883577e-001
      -4.4221783190258990e-001 1.1532729618647206e-001
      7.4806157599693335e-002 2.7004409853686334e-001
      1.8413910450255495e-002 -9.2685315402454949e-002
      3.4439465684893994e-001 -3.4560243990989348e-001
      3.0144211317361130e-001 2.7451030510703245e-001
      -2.6015377728607025e-001 -3.9293712413584159e-001
      2.1071395758562383e-001 -4.1653975274600158e-002
      -5.7941587533731309e-001 1.1172651840405999e+002
      -6.9263995593039154e-002 -2.0114452995451218e-001
      4.9343530961502444e-002 -2.8511251938505625e-002
      2.2416797368067584e-001 -1.3437848938459451e-001
      1.6150578720059064e-001 2.8626089766874157e-004
      5.8089183755872548e-002 -6.2437921597586477e-001
      8.3383914942643342e-002 -8.4620247835027107e-001
      3.8835864962755912e-001 5.5692097465619395e-001
      4.1912690447258627e-001 -2.1475820046043906e-001
      -4.5613797571668052e-001 -1.6228337685068678e-001
      1.5094613852734926e-001 -2.7355133098226542e-001
      2.8746626216421975e-002 -4.9151542098012195e-003
      7.0488842049378364e-001 -2.9732459200563614e-002
      4.7667699501197813e-002 3.1243821639655628e-001
      -1.1845097416847394e-002 4.6889087202128277e-001
      4.6016682511154740e-002 -3.0120620704692364e-001
      -4.8473882844894578e-001 5.9910386884549849e-001
      -1.3339758111187253e-001 1.4572403483106758e-001
      1.0181283619776931e+002 -2.4966323258650366e-001
      -1.0928110230676141e-001 1.7209060987373276e-001
      -1.4749084242450478e-001 -1.6139413260270255e-001
      3.3999276658395766e-001 6.5445710042277905e-001
      -1.6107644267592494e-001 5.7211193734756483e-001
      -2.2607016182096665e-001 -2.2105600876970315e+000
      1.3558692464068256e-001 1.5234427579322335e-001
      1.4366948801737942e+000 -5.6754643434135565e-001
      3.3541932334296498e-001 -2.6011532419415704e-002
      -2.2452941613774788e-001 -5.2563105747704220e-001
      -2.4629689711456337e-001 2.8517868161465243e-001
      2.0362317791488633e-002 -1.5610096859240161e+000
      -1.4115264459120282e+000 -2.2532557201449525e-002
      3.4893252731502505e-001 -9.9754716287377143e-002
      4.9895946998706459e-001 2.2473673105047021e-001
      -1.6990638856118917e-001 -6.2644248252472301e-001
      -7.3246374912036960e-001 -1.5616749818641579e-001
      -5.1880492409196866e-001 9.8367372705902056e+001
      -5.7034629807570925e-001 -2.0733966920214908e-001
      -1.0295233936685248e-001 -3.3165017638670347e-001
      1.6929390725132695e-001 2.7954317237394483e-001
      -8.7332280439195289e-002 -9.9290263413345847e-002
      7.5018308208229634e-002 5.6720022811125634e-002
      8.9067768012686332e-001 1.4399269278474022e-001
      -5.8234487768288801e-001 -3.1552321314222259e-001
      7.1383272825822641e-001 2.8124896588764309e-001
