<?xml version="1.0"?>
<opencv_storage>
<my_nn type_id="opencv-ml-ann-mlp">
  <layer_sizes type_id="opencv-matrix">
    <rows>1</rows>
    <cols>3</cols>
    <dt>i</dt>
    <data>
      140 10 36</data></layer_sizes>
  <activation_function>SIGMOID_SYM</activation_function>
  <f_param1>1.</f_param1>
  <f_param2>1.</f_param2>
  <min_val>-9.4999999999999996e-001</min_val>
  <max_val>9.4999999999999996e-001</max_val>
  <min_val1>-9.7999999999999998e-001</min_val1>
  <max_val1>9.7999999999999998e-001</max_val1>
  <training_params>
    <train_method>BACKPROP</train_method>
    <dw_scale>1.0000000000000001e-001</dw_scale>
    <moment_scale>1.0000000000000001e-001</moment_scale>
    <term_criteria><epsilon>1.0000000474974513e-003</epsilon>
      <iterations>5000</iterations></term_criteria></training_params>
  <input_scale>
    6.2797246046692040e-002 -8.5487984284896754e+000
    5.7560478268674935e-002 -7.6939172619128824e+000
    4.7909876218670641e-002 -6.0813602880232605e+000
    4.0945721567595642e-002 -4.8206762858915937e+000
    4.4057471195501643e-002 -4.8962536321934165e+000
    4.3028898733261829e-002 -4.6213037239523205e+000
    4.8285207427274837e-002 -5.3660960520844769e+000
    5.1412088627175972e-002 -6.1146110740587956e+000
    5.0288590556055932e-002 -6.4704653182125291e+000
    5.6365491434762903e-002 -7.5153988579683872e+000
    4.9709223016716458e-002 -6.5715592828099156e+000
    4.1575978522149212e-002 -4.8034113852589719e+000
    3.6982401386049642e-002 -4.2283212251383420e+000
    3.3274722847946220e-002 -3.9131074069184755e+000
    3.5504176838705138e-002 -4.1752911962317238e+000
    3.6864496266984112e-002 -4.2541628692099671e+000
    3.8236701007153893e-002 -4.3742785952184056e+000
    3.8251368658456360e-002 -4.3428053883567452e+000
    4.1202572234183388e-002 -4.8014730843568376e+000
    5.0270512920636404e-002 -6.5150584745144773e+000
    5.4394975122753771e-002 -7.1039837510316417e+000
    4.2138156468488751e-002 -4.9357827276756492e+000
    4.1278324068019595e-002 -5.1047527430784232e+000
    4.8734702750068963e-002 -6.4524746441091310e+000
    4.4644834441570726e-002 -5.7204914531132616e+000
    3.9378353455701405e-002 -4.8697897106884076e+000
    3.9509269523029272e-002 -4.9913377164093644e+000
    4.6586996257694697e-002 -5.5127945571605386e+000
    3.8214111064932318e-002 -4.3742419132325860e+000
    5.0664111958829458e-002 -6.4579854710187954e+000
    5.7007441096849777e-002 -7.3767628779323617e+000
    3.8501554296340626e-002 -4.5457501772546163e+000
    4.4262233226699303e-002 -5.3911400070119750e+000
    6.7142494787513454e-002 -9.1089984595059921e+000
    4.8373004715172377e-002 -6.2014192044850978e+000
    4.8196891250827399e-002 -6.2334646017736777e+000
    4.5407868973509360e-002 -5.8243159936688009e+000
    4.6305119176009109e-002 -5.6245284759125731e+000
    4.1610517509063361e-002 -5.1458339986208355e+000
    5.4473830279053934e-002 -7.1505981212971470e+000
    5.1436264349676152e-002 -6.8101613998971224e+000
    3.7750216613461708e-002 -4.6483100056709183e+000
    4.6882783920854293e-002 -5.9916197850851782e+000
    4.7002778886434109e-002 -5.9881540301317058e+000
    4.8063100208400225e-002 -6.1680978600780296e+000
    4.8680776472625885e-002 -6.3966540285030415e+000
    4.0071158320999216e-002 -4.9100525995997701e+000
    4.7983358418447267e-002 -5.9371408816425415e+000
    3.8952499123195511e-002 -4.9080148895226348e+000
    4.8889770924646615e-002 -6.4827836246081407e+000
    4.9948413278994248e-002 -6.6531286487620331e+000
    4.2870093331209919e-002 -5.5102359961715148e+000
    4.7404783042593934e-002 -6.0709725483215298e+000
    3.9628493810284528e-002 -4.7395678597100295e+000
    4.1308679347602413e-002 -4.9239945782342076e+000
    4.5154102992064321e-002 -5.3311944265963938e+000
    3.8139921322542659e-002 -4.2284459439592297e+000
    4.4288464072090833e-002 -5.2112759391493553e+000
    4.5078188309317695e-002 -5.8090758667940738e+000
    4.9985006746626669e-002 -6.6779969013493226e+000
    5.2631902936687416e-002 -6.8807441105896006e+000
    4.4330220848134642e-002 -5.5737864346387953e+000
    4.7835271084923713e-002 -5.8199579819990523e+000
    4.8775909938397775e-002 -6.0839818329828157e+000
    3.8835610375074978e-002 -4.6059033904838920e+000
    3.9691429887290401e-002 -4.5115925305220088e+000
    4.4520775372027810e-002 -5.1851863049955060e+000
    4.5997124145269574e-002 -5.4031288495976657e+000
    4.2288601408867602e-002 -5.1394746912243754e+000
    5.4983061716797059e-002 -7.2321053844827068e+000
    5.6885966913629502e-002 -7.5279096215703047e+000
    4.4704672919695640e-002 -5.5165566382904423e+000
    4.7183344342024487e-002 -5.8098424666479485e+000
    6.1059412575997868e-002 -8.0191361849810541e+000
    4.7214187103115868e-002 -5.8577068132599086e+000
    4.5274058424447414e-002 -5.4781610693581371e+000
    4.1533880776051427e-002 -4.8040855430966154e+000
    4.4199929398035818e-002 -5.0829918807741192e+000
    4.1856028476574526e-002 -4.9390113602357939e+000
    4.8993975853333226e-002 -6.2255011984302087e+000
    5.6280522872799360e-002 -7.5190778558059943e+000
    4.1495085751356901e-002 -5.2117827703704265e+000
    5.5051895579503095e-002 -7.3035514802140771e+000
    5.2600827218802396e-002 -6.9783764110277842e+000
    4.5900114162905917e-002 -5.7619943312501229e+000
    4.7374983139115048e-002 -5.8113312650647799e+000
    4.1293336870310678e-002 -4.9854822048088421e+000
    4.8504842480149309e-002 -5.9854975620504254e+000
    3.7435712568637529e-002 -4.5172426499489289e+000
    4.2065518431202722e-002 -5.2694072754819947e+000
    4.7253998093645312e-002 -5.9729053590367673e+000
    4.7352788031138390e-002 -6.0895685408043967e+000
    6.7485458450387059e-002 -9.0700456157320204e+000
    5.4246798478564208e-002 -7.1244128668514328e+000
    4.7018940327317141e-002 -6.0152897658747735e+000
    5.1357817649729361e-002 -6.6217346223051061e+000
    4.1068925864504460e-002 -5.1883743008823968e+000
    5.6763640128280307e-002 -7.2468247230437859e+000
    3.7964343759530471e-002 -4.6569595011690712e+000
    4.0144279102074465e-002 -4.9725380381102902e+000
    4.6951634053288789e-002 -5.8313929494184675e+000
    4.0615670396898847e-002 -4.9524040770618658e+000
    4.4688798243963428e-002 -5.4937429307912371e+000
    4.5269934540627353e-002 -5.7191017302992551e+000
    4.3638221726486605e-002 -5.3791381314849156e+000
    4.1352609408089575e-002 -5.2462677135729638e+000
    4.5480864313459476e-002 -5.9398008793378070e+000
    4.3487213160254369e-002 -5.3257340383591520e+000
    3.8662362076618828e-002 -4.5518487618205903e+000
    4.3312099567955481e-002 -5.1974519481546579e+000
    5.3031682813492950e-002 -6.7562363904390024e+000
    4.4485519453365263e-002 -5.5102730096235106e+000
    5.8857482389721341e-002 -7.4160427811048892e+000
    6.0229793416231421e-002 -7.9945012461144502e+000
    5.6555071424494209e-002 -7.2654415090000226e+000
    5.4455160840343908e-002 -6.9593695553959511e+000
    4.6869050205259263e-002 -5.9898646162321336e+000
    5.7775269640540805e-002 -7.0986547965011129e+000
    4.6307767023705815e-002 -5.5908910719954150e+000
    6.3560463247520071e-002 -8.1950623947135881e+000
    5.8656435327642378e-002 -7.6918138859648364e+000
    4.2502298728152726e-002 -5.0322721694132833e+000
    4.2072798435391003e-002 -5.2170270059884842e+000
    4.1156019497998464e-002 -5.1664523143154071e+000
    3.8062485268631589e-002 -4.5877982243790605e+000
    3.8988535936779756e-002 -4.6188418906438420e+000
    3.7989904469017954e-002 -4.3941656169164105e+000
    3.7712257372739692e-002 -4.2891407385262612e+000
    4.1662487768676475e-002 -4.9939435338720202e+000
    5.3315664422095524e-002 -7.0767658576261452e+000
    4.6699748724894734e-002 -6.0709673342363155e+000
    3.8610838042353497e-002 -4.8443731463806188e+000
    3.8157934374606177e-002 -4.4263203874543162e+000
    3.7866957509952948e-002 -3.8901987681891663e+000
    5.0152360257375878e-002 -4.7343828082962833e+000
    4.1504297669719213e-002 -4.0729550779884454e+000
    3.6320996728463367e-002 -3.9154034473283508e+000
    3.3279963838750461e-002 -3.8715691265746366e+000
    3.3697741626074480e-002 -4.0302498984785080e+000
    4.4208758980452206e-002 -5.6115651399187332e+000</input_scale>
  <output_scale>
    1. 0. 5.2631578947368418e-001 4.9999999999999994e-001
    5.2631578947368418e-001 4.9999999999999994e-001
    5.2631578947368418e-001 4.9999999999999994e-001
    5.2631578947368418e-001 4.9999999999999994e-001
    5.2631578947368418e-001 4.9999999999999994e-001
    5.2631578947368418e-001 4.9999999999999994e-001
    5.2631578947368418e-001 4.9999999999999994e-001
    5.2631578947368418e-001 4.9999999999999994e-001
    5.2631578947368418e-001 4.9999999999999994e-001
    5.2631578947368418e-001 4.9999999999999994e-001
    5.2631578947368418e-001 4.9999999999999994e-001 1. 0. 1. 0. 1. 0.
    5.2631578947368418e-001 4.9999999999999994e-001 1. 0. 1. 0.
    5.2631578947368418e-001 4.9999999999999994e-001 1. 0. 1. 0. 1. 0. 1.
    0. 1. 0. 1. 0. 1. 0. 1. 0. 1. 0. 1. 0. 1. 0. 1. 0. 1. 0. 1. 0.
    5.2631578947368418e-001 4.9999999999999994e-001 1. 0. 1. 0.</output_scale>
  <inv_output_scale>
    1. 0. 1.8999999999999999e+000 -9.4999999999999996e-001
    1.8999999999999999e+000 -9.4999999999999996e-001
    1.8999999999999999e+000 -9.4999999999999996e-001
    1.8999999999999999e+000 -9.4999999999999996e-001
    1.8999999999999999e+000 -9.4999999999999996e-001
    1.8999999999999999e+000 -9.4999999999999996e-001
    1.8999999999999999e+000 -9.4999999999999996e-001
    1.8999999999999999e+000 -9.4999999999999996e-001
    1.8999999999999999e+000 -9.4999999999999996e-001
    1.8999999999999999e+000 -9.4999999999999996e-001
    1.8999999999999999e+000 -9.4999999999999996e-001 1. 0. 1. 0. 1. 0.
    1.8999999999999999e+000 -9.4999999999999996e-001 1. 0. 1. 0.
    1.8999999999999999e+000 -9.4999999999999996e-001 1. 0. 1. 0. 1. 0.
    1. 0. 1. 0. 1. 0. 1. 0. 1. 0. 1. 0. 1. 0. 1. 0. 1. 0. 1. 0. 1. 0.
    1.8999999999999999e+000 -9.4999999999999996e-001 1. 0. 1. 0.</inv_output_scale>
  <weights>
    <_>
      3.6188435011603665e-001 8.9264700823713503e-002
      4.5729803901266831e-002 -6.9814270126929132e-002
      1.2635534032784854e-001 -1.8985691941901661e-001
      -3.7193654120856645e-001 3.1457697641436495e-003
      3.1895400592375993e-002 9.4929909328988968e-002
      3.2468598335514498e+000 2.6465485833327557e-001
      1.6846137588307328e-001 -2.8223950655874384e-002
      2.5995565463698822e-001 -2.3090642463290204e-001
      -1.1302629395012133e-001 2.1399289348878897e-001
      1.2219158868771234e-001 -1.4321586322973240e-001
      4.0014277855791329e+000 2.8034291315692600e-001
      1.3632693574004615e-001 3.5064822452200502e-002
      2.4846533944803706e-001 -2.5774056844186943e-001
      8.2998822517310611e-003 2.7429257425620457e-001
      8.0111103194539998e-003 -1.1775502834491380e-001
      2.8267193454055928e+000 1.1103880255113968e-001
      1.2707633070975674e-001 3.0886398309979881e-002
      1.6643725673535706e-001 -2.9816419721456217e-001
      1.5871528033087054e-001 2.9273441544138973e-001
      -5.0493718759640364e-002 -1.0200076883976110e-001
      2.5312840365056997e+000 -6.8458898797883860e-002
      1.7324206236943382e-001 -5.3211367477139095e-002
      6.8893921401995128e-002 -6.6238417540894060e-002
      1.1943904811294226e-001 1.8047416571428027e-001
      1.3771478084670802e-001 -4.2383805196243483e-002
      9.4335671666293308e-001 1.2818541751367490e-002
      1.4906923850683948e-001 3.7901894124865526e-002
      2.5002134330992791e-002 9.2657118448829068e-002
      4.3613572463138565e-002 8.5144408657429199e-002
      1.4177678696214108e-001 1.2052587885600052e-002
      -9.9036591621065406e-001 8.5519820579114097e-003
      6.9018504737515474e-002 1.4907803873165082e-001
      8.2813230958544967e-002 -2.9683180487355576e-001
      4.8923748613659529e-002 1.5575255011023934e-001
      4.4909409307673211e-002 -2.0022780283254002e-001
      -4.9217913825898157e-001 1.1582282537564084e-001
      9.4735672597243678e-002 1.3888305131918363e-001
      1.2823269310312246e-001 -2.9671617380350374e-001
      -1.0770178366701669e-001 1.5259312470001737e-001
      2.2573223945002344e-001 -2.2227168327420890e-001
      2.1768365494841304e+000 3.3379788190551152e-001
      1.6436709713909792e-001 1.4312929212900799e-001
      2.9404695693966576e-001 -2.6379877745674823e-001
      -1.6616039312389072e-001 2.3965711196555692e-001
      1.7406473056848462e-001 -7.8329004674278072e-002
      1.5023607110108228e+000 1.0137802864481243e-001
      5.8294771231139776e-002 -5.2034941320450057e-002
      1.5321486771023846e-001 -1.6983050249009723e-001
      -3.6327215826737763e-001 7.2540668166787087e-002
      -5.4790378390108989e-003 1.8044886701228714e-002
      -1.6582041831019192e-001 2.7986473617886481e-001
      -4.4611099653768783e-002 4.6594662566928326e-002
      7.7515990888221892e-002 -2.5070588320610782e-001
      -1.4911758172500225e-001 3.5634712770682905e-002
      3.7136455216020582e-002 -8.2539800509031050e-002
      1.4219344042259212e+000 2.8830448933257030e-001
      1.4546734743578158e-002 5.9798149644166212e-003
      7.6950751821616717e-002 -2.0756651904194184e-001
      -3.9174827860971380e-002 1.3465676209681277e-001
      -1.0837800280858317e-001 -7.3248126170242941e-002
      8.8671830573989574e-001 4.2427326573824248e-001
      6.8445956108595621e-002 8.4584242441530580e-002
      9.9379634615456722e-002 -2.0934226108531995e-001
      2.4920784704337569e-002 1.6557128871342133e-001
      8.1684000453972797e-002 -1.2340138345644025e-001
      -1.5486743254302260e-001 4.5381343406710961e-001
      5.1529779957085936e-002 1.6221764136367370e-001
      1.1959074270046809e-001 -1.2651901238207247e-001
      -1.3079808503465126e-001 9.3544033445012970e-002
      1.1095372788426143e-001 -8.2057315863820854e-002
      2.3219081122637073e+000 3.6126263485555504e-001
      9.6430476940267879e-002 -1.1346044076095539e-002
      1.2520470238106360e-001 1.2077130734598427e-002
      -1.0564705475556611e-001 8.0713995187240539e-002
      3.6668279110641100e-001 -1.2431854886152618e-001
      3.0658024061455995e+000 3.5326216224037305e-001
      6.5880858993031630e-002 -5.6665597934303043e-002
      1.3651363575829720e-001 1.0863182351051872e-002
      -6.4417087676126833e-002 5.7708123918854395e-002
      3.3700124043136376e-001 -1.7065730566564979e-001
      2.6346473925032807e+000 1.7607883273819153e-001
      -5.0206236646210045e-002 4.2756186008883201e-002
      1.5026224603167096e-001 -1.9465863481812959e-001
      -6.6989627508872177e-002 1.4400141350130180e-001
      -1.2393885260615618e-001 -3.3677637906640306e-001
      2.0635995826989681e+000 1.3639177371773278e-001
      -5.0820325371100553e-002 3.5777302718081418e-002
      8.5210057763064007e-002 -2.8785170538447680e-001
      4.1366774122047104e-002 2.0429075463861693e-001
      -1.4960842288452630e-001 -3.0750299364375550e-001
      -1.7411169139728397e-001 1.5684842893270021e-002
      2.8965320156976008e-002 1.3710378988173112e-002
      3.8999748840083892e-002 -4.3549041596879851e-001
      -1.0149608788683050e-001 1.6532357360739233e-001
      5.4078268494370856e-002 -1.2320108108738877e-001
      -1.3146278877410638e+000 7.0175521333793844e-002
      -9.3994956284782442e-003 8.5893143420898460e-002
      3.2149972779277877e-002 -3.9782672680047981e-001
      -2.7570316956246943e-001 6.5339173180061494e-002
      1.4436821454042384e-001 -9.6211870135898186e-002
      7.2541762728947690e-001 9.6127420830043442e-002
      1.6253071869365494e-002 6.0220769174843036e-002
      8.8624630087521208e-002 -3.4509326211622349e-001
      -3.1450573663074445e-002 1.4689121876308700e-001
      5.9274724961244668e-002 -7.8673541274426745e-002
      2.2625622436009665e-001 1.2804563432242330e-001
      1.0149186104485021e-001 5.6799303676519725e-002
      1.1681171397344899e-001 -4.7236849665075464e-001
      -1.7681056089074106e-002 2.2121055045295179e-001
      9.1501167688233881e-002 -3.2070307353830679e-002
      -1.4538463136521853e+000 2.1622903621685940e-001
      9.6048833272517328e-002 1.6924713224418683e-001
      1.6988114011488481e-001 -4.1407616792288399e-001
      -1.1586649570595671e-001 1.3898382405579973e-001
      1.1295481992325500e-001 -5.5069877023968358e-002
      -9.8210034703634685e-001 2.4588370670672377e-001
      4.9081264158905839e-002 1.2366904234388849e-001
      1.5505709297697295e-001 -3.3974772718780821e-001
      -2.1309945059133942e-001 7.8846022569988877e-002
      1.2925931502370472e-001 -6.8165757397301949e-002
      -1.9310964967531961e-002 1.6930692427887364e-001
      5.3261828788397685e-002 -1.5516362023674044e-002
      9.1162647513790759e-002 -2.9136041806328970e-002
      -1.2323983036258600e-001 -5.7746794109686084e-002
      2.6470928391534493e-001 2.2681283702243832e-003
      -7.5376899758981775e-001 1.3298408213150903e-001
      -4.4856269517332979e-002 -6.2376574571594515e-003
      7.7598757508288319e-002 -6.9440323822181913e-003
      -1.3374296390863250e-001 -1.0339012961368980e-001
      1.3034165348944690e-001 -1.0497038502954287e-001
      -9.9328318041730690e-001 2.3905943708029745e-002
      -7.7085310390792819e-002 6.5483731958794589e-002
      6.9734101877049537e-002 -2.0218918026971600e-001
      -1.8714566059966634e-001 -4.9501458315808863e-002
      -4.4510653965900135e-002 -2.0811226739252633e-001
      -4.4773058205160726e-001 -4.1103054581117654e-002
      -7.2860835084473011e-002 9.5126172590100894e-002
      5.6882783910174137e-002 -2.6411107089145719e-001
      -1.8399610586258924e-001 6.8795436789692202e-002
      -2.4259475920043749e-001 -1.9310752075762588e-001
      -1.1057487492712892e+000 4.6499246346185250e-003
      7.1270888406875926e-003 1.0901910856220721e-001
      2.3843419671801286e-002 -2.8830483549789276e-001
      -1.0245610840448889e-001 1.1570711228461013e-001
      -1.0919615839008009e-001 -1.2808056670177845e-002
      -1.7266589153672851e+000 1.0303299572141192e-002
      9.7469879610581900e-002 1.2779608551620339e-001
      6.3303716292114426e-002 -3.9902771748183263e-001
      -8.1335868814435469e-002 1.3964399558525048e-001
      2.0231635342476020e-001 -3.6236268533368629e-002
      9.6629610220260609e-001 -3.0464543439941531e-002
      1.5209861967534039e-001 2.2675694709970814e-002
      1.5137385760292760e-001 -7.1309037072133610e-002
      1.3356318437043158e-002 1.4446627513471882e-001
      1.9210765986225013e-002 6.0935396014343300e-002
      4.4204872200658102e-001 -1.9574341083840457e-002
      1.9874211959753507e-001 1.1283145969294013e-001
      1.8801524419830856e-001 -2.3062098354029914e-001
      2.8308800794812228e-002 2.1043072945224137e-001
      5.6556458610338657e-003 6.4069572974131211e-002
      5.7443287370098672e-001 -3.2347407356965591e-002
      1.8904949092970877e-001 3.5342177673477880e-002
      2.1714568689308006e-001 -2.2087099152949022e-001
      -2.1795067983222619e-001 1.7643240020409945e-001
      -7.5741848932128514e-002 1.3964384757029050e-001
      7.1984218564298630e-001 1.8072290624091789e-001
      2.7515593419734358e-001 4.0728228870984776e-002
      3.8826622893202706e-001 -1.6657787982948524e-001
      -1.7426925316815284e-001 9.9895844396604289e-002
      7.7252852002091477e-002 3.0682757766411595e-002
      -1.1323015413529265e+000 1.4823626588718875e-001
      6.5957019387289040e-002 5.5527661302930222e-002
      2.1036097074945567e-001 6.8563495306055044e-002
      -5.8917566948639415e-002 -1.0247883035313929e-001
      -1.6835393583206501e-001 4.6537080995322853e-002
      -7.9436155632428640e-001 1.7723996631637012e-001
      1.0465751419982547e-001 7.1691456542611835e-003
      2.2128707639279971e-001 1.0807858567396547e-001
      -6.2727940759673639e-002 -7.6231191708571677e-002
      -1.0260319492526720e-001 3.4092865345977462e-002
      -1.6229683340307319e-001 -4.8706647635571769e-003
      4.0614345567911450e-002 -1.5902435471153848e-002
      1.8721535345420737e-001 3.3739470006309128e-003
      -1.2207261558688783e-001 -5.7711596276213681e-002
      -8.7709762074729178e-002 -1.8330246344092130e-001
      1.2999142110237212e+000 -1.0083068435995800e-001
      6.4641587031255263e-002 -1.0107583639819405e-001
      1.4191570075294188e-001 -1.7812641245649654e-002
      -1.4201338849399778e-001 3.1272356486977605e-002
      -2.8021818450940866e-001 -1.0949645893760372e-001
      6.1852657789094667e-001 -4.7496987810305001e-002
      1.2026162297815032e-001 3.7884700661497447e-002
      1.5124422375783747e-001 -1.4620916102235490e-001
      7.8250808661170207e-002 1.5338281644513108e-001
      -4.7475305510290854e-002 3.2117424349472706e-002
      7.0988790807311830e-001 -8.8707528252892937e-002
      1.9150598712532341e-001 -2.2609922605563056e-003
      1.6311005270546888e-001 -2.1419295857492660e-001
      3.5752690731856718e-002 1.6754322791974396e-001
      1.5288458704383884e-001 7.5117619100636426e-002
      -7.4744839925093032e-001 2.2553051289413875e-003
      1.1894063071009338e-001 1.0820065256460518e-001
      1.5623273901393028e-001 -2.9681645154930356e-002
      -6.2517328857362928e-002 7.8286568062571157e-002
      1.1916898433596444e-001 1.7899781829886308e-001
      4.9797913481285078e-001 -4.3429710602325346e-002
      2.0197026170339788e-001 1.6189080602936826e-001
      1.9754062824515445e-001 -1.4526185706751299e-001
      -1.6624239310110533e-001 1.7835473676818053e-001
      8.7657089554630502e-002 1.9197002503838070e-001
      1.5498032523480412e+000 -1.0832695653389628e-001
      3.2153396384871058e-001 6.0272424823887005e-002
      2.4998255894586158e-001 -2.4008861439926940e-001
      -1.7421295250060653e-001 2.3121258379292742e-001
      1.4504477012398875e-001 1.9300567397055390e-001
      4.6903077317311315e-001 -1.6408611600322806e-001
      2.4959835576154460e-001 -9.1138228588391795e-002
      2.3370745854595440e-001 -1.8791489612466336e-001
      -2.7082036056592534e-001 6.1128055538715760e-002
      9.6781676582324630e-002 1.4571415951044719e-001
      -9.3939795159299366e-001 8.0257630082172182e-002
      1.4821831949241931e-001 -8.1043158500486261e-003
      1.8482401465590478e-001 3.4641463800206412e-003
      -6.7159331393872645e-002 -5.8721211827145070e-002
      -4.3835834211830592e-002 5.1675158450522597e-002
      -1.5712777257391725e-001 1.9769645157908353e-001
      1.9321476287754308e-001 -1.9137844434208795e-002
      2.7729951844862161e-001 4.1540314258353660e-002
      -7.2319411804664752e-002 -4.3332116881179376e-002
      -5.6319728489700363e-002 1.2206092249660686e-001
      2.4258584220957174e-001 -3.4253903145050189e-002
      4.1186569732032816e-002 -1.1081015298337671e-001
      1.6855414953497583e-001 4.9051868429687319e-002
      -1.7649511849236357e-001 -8.7473186507070436e-002
      -1.5711179183658902e-001 -1.6341527659972696e-001
      1.1576528306719029e+000 -1.0563528115773017e-001
      1.5306490462894856e-001 -5.4123069777272111e-002
      2.0007422483085474e-001 -7.2857641246698718e-002
      1.2903492415163880e-002 9.0706205592369651e-002
      -1.8442870687640039e-001 -1.3747313886338403e-001
      1.5626814105762230e+000 -1.3352366413568673e-001
      1.7864815422444996e-001 -4.3200714859537512e-002
      1.7866604635115438e-001 -1.4014680328194118e-001
      1.1261233038682650e-001 1.6454602528651011e-001
      -4.4778616209719645e-003 7.5495455987547380e-002
      1.4590494519895589e+000 8.9286212696911438e-004
      1.4270694090445032e-001 -3.4901695784734309e-002
      1.7647181038253820e-001 -4.6315156129638116e-002
      2.4240334910926142e-002 1.2878782855259560e-001
      1.1127391488697641e-001 1.0511137047083204e-001
      -2.1416169276178474e+000 1.5513419821344113e-001
      1.3903316340593494e-001 1.3878060769714032e-001
      1.8139805152450869e-001 -7.1579068109308044e-002
      -8.4983713159095933e-002 2.5114472162019335e-003
      2.2836754640436180e-001 1.2641621109576065e-001
      -7.7038480384743102e-001 2.1447816174348627e-001
      2.3042593441320483e-001 1.6188337501266165e-001
      2.8360181026514775e-001 -1.3379475403540167e-001
      -9.3941872737220891e-002 1.1521234215292597e-001
      3.3151128792423062e-001 1.3416533459946028e-001
      1.0860926398076505e+000 3.6360880901815780e-002
      3.3845614493135961e-001 5.8688862692252437e-002
      3.5160351901734499e-001 -2.8597529056562582e-001
      -1.0037461721382360e-001 2.1364626887032523e-001
      3.1318438878649824e-001 9.1065157204473529e-002
      2.8919470718266155e-001 -9.5271809890371782e-003
      2.5371183976520995e-001 5.9963693319600664e-002
      2.7220490882571624e-001 -2.2410163443077089e-001
      -2.1971421141409536e-001 1.2853470095234273e-001
      1.9621037051943657e-001 6.7735764082117950e-003
      -8.0478106377236502e-001 1.4059668737995587e-001
      2.8327423415365044e-001 1.1059269616495353e-001
      2.4804572136706354e-001 -1.3979784594871075e-001
      -1.8399106201284549e-001 1.0827376190866533e-001
      1.1709440296897683e-001 2.0277741150518067e-001
      -2.5782869377939971e-002 2.1943457620269455e-001
      2.7790439813208384e-001 7.7027458504897228e-002
      2.9537110551459905e-001 -6.8948952950268497e-002
      -1.9917775621564479e-001 8.4713033204620272e-002
      1.0170085420968397e-003 1.3882603071072458e-001
      -3.2918705608840765e-001 1.0368499527073244e-001
      1.7890584538376147e-001 1.2107440867110816e-001
      2.7646488200052083e-001 -1.0840281574204372e-001
      -1.5502485928462109e-001 8.1728139391233648e-002
      -6.1735923833344190e-002 -1.0644639673987653e-001
      1.0155294531587811e+000 -2.0709190420314081e-002
      2.3512097137394422e-001 1.1557951255456705e-001
      2.7227328295306913e-001 -1.8017990084129390e-001
      -4.6061751351522205e-002 1.9540655612372446e-001
      -2.7826174778935765e-002 -1.8307905747670238e-002
      1.5488845375566611e+000 3.5660320889399849e-003
      1.4359766769288476e-001 3.8748229013169072e-002
      2.3361496068247550e-001 -6.4288819656300247e-002
      -3.8590073079916604e-002 1.4030584162216386e-001
      7.3069105399398834e-003 1.4669310131011226e-001
      8.9983467520925042e-001 1.0493383928689980e-001
      1.1840852731676460e-001 2.4646149042224990e-002
      2.1437293383772912e-001 -2.5132526126153999e-002
      -2.4029150521095929e-002 8.3481949491519353e-002
      1.6719716977947605e-001 1.4558332891553710e-001
      -1.8961878611447442e+000 8.3519668549331849e-002
      1.5035889898760588e-001 1.1403308851485858e-001
      1.6473130496750085e-001 4.3719253660236664e-002
      -9.7112316698146850e-002 -5.4518966969663941e-002
      3.5384852100805547e-001 2.1584029867057586e-001
      -9.8371322930491401e-001 2.0250858937906230e-001
      1.9007199261399857e-001 1.7086088797361146e-001
      2.6837154718037959e-001 1.9543962779530664e-002
      -9.6446087597243074e-002 2.1518875936227550e-002
      2.6605714741099135e-001 2.3569436062683297e-001
      -1.2010183354685267e+000 3.5961923854801889e-002
      1.5113456005871229e-001 1.5573154466717640e-001
      2.6930791594063525e-001 3.0334979661377010e-002
      -1.4626019028754089e-001 -2.9799621895718647e-002
      1.5387408057857282e-001 7.9312268783930162e-002
      -7.7169268794866630e-002 -1.1306518539687896e-001
      3.1542905545929334e-001 -2.7293507934540676e-002
      2.6449532771325807e-001 -1.9219898038457733e-001
      3.2520091630619745e-002 6.0322133692281212e-002
      1.2599916452921348e-001 4.4962452599870313e-002
      -7.9123642720539428e-002 -3.6944652853097927e-002
      2.4231613918106867e-001 -1.2799905510283577e-001
      1.5953927212213417e-001 -8.7872013347103900e-002
      6.2737563630043250e-002 5.2039321889347148e-003
      -4.5280694439604592e-002 1.5450789472043885e-001
      6.1672176220228681e-001 -6.4180774386373179e-002
      2.3651073660478181e-001 -2.2341795618678070e-001
      1.5421655657063929e-001 1.4847525578364657e-002
      6.1826514232946383e-002 -1.1773157138734301e-002
      -1.7889604237022972e-003 4.9909496957266104e-002
      4.9898075040690298e-001 -2.5499485796806148e-001
      1.7376149192800530e-001 -1.1091593449013160e-001
      1.7568360507293829e-001 -9.1794082989317974e-002
      5.6138367486024437e-002 1.6876849584787874e-002
      4.2353034802222661e-002 -8.4813207547335442e-002
      2.0186494808733588e+000 -1.3308041485349431e-001
      1.9549645666932203e-001 9.1793164119108081e-002
      2.3618749738212758e-001 -1.3833495955382363e-002
      -1.5506353451684057e-001 1.6095510305206018e-001
      1.1285543683010345e-001 1.7782010818111280e-001
      6.1982631162974944e-001 1.3825247501562982e-001
      1.6813108034197777e-001 1.7670422421599066e-001
      2.4441201143944782e-001 3.2925936554892350e-002
      -8.0182622598503853e-002 1.1128963256440681e-001
      1.8362419012142425e-001 2.6015743894516963e-001
      3.9050023800410905e-001 1.6721740286843087e-001
      1.3502461678227221e-001 3.2930987485181071e-002
      2.6120121280782321e-001 6.4456883071088697e-002
      5.0974771982151480e-002 2.1014318732806167e-002
      2.7920272570099064e-001 2.0899338333718809e-001
      -2.1482138842475500e+000 -3.7569821837200620e-003
      1.9716185052559493e-001 1.3305503104336089e-001
      2.0587189335005338e-001 -7.1167263770857535e-003
      -1.8680433506396682e-001 -3.2246493561719665e-002
      2.6026351768682193e-001 2.0719378887781967e-001
      -2.3669141362208914e+000 -5.4236034697094385e-002
      1.3623544990965653e-001 1.1196996201956420e-001
      1.7589955103229346e-001 3.1455564256966388e-003
      -7.0634122584663631e-002 -4.5803660203587435e-002
      3.4825338800642541e-001 1.1902712871573713e-001
      -1.1650239649031591e+000 -1.7706830661262266e-001
      2.2331068274118016e-001 -1.7766748303656904e-002
      1.4924617590805719e-001 -1.0225709729646015e-001
      -3.7219361531916018e-002 5.1682643106051116e-003
      3.9323085532824792e-001 5.6214033923396231e-002
      1.0614625264332886e+000 -4.8323407803137437e-002
      3.1410604021388117e-001 -9.4381187103628472e-002
      3.0879538979227994e-001 -5.8348387707975249e-002
      -1.0089497767294102e-001 3.4676810152641097e-002
      2.9558471693454774e-001 1.9189793988584822e-001
      9.1768875915422077e-001 3.1557271402037158e-002
      1.9495284287810413e-001 -1.6296936920283223e-001
      1.4191061990924619e-001 1.3532083465193370e-001
      -1.4047078521236239e-001 -6.5883947390733597e-002
      4.6970741064513176e-002 1.7206938682504846e-001
      5.0892543974317661e-001 -8.1454049157675151e-002
      1.9791174899435657e-001 -1.7812574608937676e-001
      1.4653468390333815e-001 6.6714479369288343e-002
      -1.4322156636976169e-001 -4.9735132449711582e-002
      5.4534067817918815e-002 1.9086090637031364e-001
      8.7037880925208477e-001 -3.3777403270487516e-001
      1.1744503180860692e-001 -8.0081979982420295e-002
      1.5537521112004143e-001 -4.7503668133480725e-002
      2.8012329566203448e-002 4.0231336395296462e-002
      -8.2203953656333595e-002 3.6394517427583168e-003
      1.0020957268104089e+000 -1.3771921135609916e-001
      1.9547160980986192e-001 -1.3362472731529101e-002
      1.9220107338251052e-001 -1.3903986309673574e-001
      1.8642077645796756e-001 1.3328360657210364e-001
      3.5084103532198804e-002 -4.7847858973108330e-003
      2.3447444801578496e-001 1.8261914336080629e-001
      2.3996469057668735e-001 1.1687915406865902e-001
      2.6758299592795648e-001 -1.4445389273140444e-001
      1.1080505813720104e-001 1.7327314066991131e-001
      3.3411484908719724e-001 1.5207712461853276e-001
      -2.3399553160144895e-001 2.5708424281142300e-001
      1.7613124608086916e-001 1.2301846330254185e-001
      2.5021665938986981e-001 -2.0904926088069747e-002
      4.9149782087287874e-002 7.0465176624971773e-002
      3.6511733032965021e-001 1.7644003612509870e-001
      -2.1898377974471890e+000 -9.6255584982152559e-002
      2.3418110331905154e-001 1.1658948082791346e-001
      2.0552681668211664e-001 -1.4294478236234845e-001
      -2.4774581001318713e-001 3.0777021307103591e-002
      2.0673819159779502e-001 1.0304149171029595e-001
      -2.1327879415640618e+000 -1.8246340776224920e-001
      1.5480379725670262e-001 8.2216778708886135e-002
      1.5000851383535868e-001 -1.5284654978607551e-001
      -1.9086751717661038e-001 -2.2119663281039105e-003
      2.0680344457750519e-001 -3.0590695742289831e-002
      -1.0663559022090123e+000 8.3817991956864984e-002
      1.9573809232299599e-001 5.4167925662401084e-002
      2.5067095345876456e-001 -7.8836962558670079e-002
      -6.6495430291502733e-002 3.9546889603173915e-002
      2.6719278397798352e-001 1.1098600815274537e-001
      4.7880759612685125e-001 1.4270132559704635e-001
      1.5894833860446039e-001 -6.2729910578666698e-002
      2.4275843689980064e-001 -1.3966122413922841e-002
      -5.7321470461471360e-002 1.8525103545405382e-002
      1.9981479162674612e-001 8.9737998351588771e-002
      3.8612641067471964e-001 1.9141576991756709e-001
      1.0330714299340472e-001 -9.1364177998410956e-002
      1.3566257942517362e-001 1.1871628119324122e-001
      -3.3786215558964668e-002 -4.0551798215023777e-002
      -8.3600458647168405e-002 8.7279265482169369e-002
      3.0468725289566617e-001 1.2286304608203311e-001
      7.1800119954694402e-002 -5.7255668382367219e-003
      1.6464942570526206e-001 1.5290793400827457e-001
      -8.3564642269930489e-002 -3.5083362650906877e-002
      -2.3810728206366677e-001 2.3449554314994897e-001
      -1.9161168387725754e-002 -1.4234490994939347e-001
      2.5976958044202955e-002 -3.4974701367439881e-002
      1.2053453577632735e-001 4.2446378399753779e-002
      -1.0480111243662163e-001 -1.9281791086402798e-002
      -1.0141668868682802e-001 -3.6676676122829266e-002
      4.1979678933876846e-001 9.1986142386142576e-003
      2.2560348443576661e-001 -1.6990266138483416e-002
      2.3952506046028432e-001 -2.1469784891968233e-001
      1.3405773601546658e-001 1.3761962283406054e-001
      1.4018935863556656e-001 -1.3035891547875811e-001
      -5.6909995374750180e-002 2.3841308580923104e-001
      2.4985507131622486e-001 1.2508480449118559e-001
      2.8244075524674583e-001 -2.2961323155593785e-001
      1.6176801454281617e-001 1.9219923386743668e-001
      2.2515713249433497e-001 2.2187212887998121e-002
      -3.7345342259226777e-001 2.2021139331766476e-001
      2.3034360123445807e-001 1.4349086161520225e-001
      2.7237973003660942e-001 -1.7577391631687508e-001
      6.3582887977059105e-002 1.7395880557968554e-001
      2.6017885005863028e-001 6.2923711560643580e-002
      -8.0162239214221642e-001 -6.5125363224128777e-002
      1.9119323443533787e-001 1.0046616882994387e-001
      2.1127827375466743e-001 -1.9126813138287163e-001
      -1.0402677393145353e-001 8.0183504272096681e-002
      1.6628699787678847e-001 -5.4843875742170860e-002
      2.1558991167233776e-001 2.0725203237181114e-001
      2.7124343780687621e-001 1.8158539180653413e-001
      3.3308125885009493e-001 -1.9999298840443408e-001
      -1.9676632737600944e-001 1.7521577222072673e-001
      2.3006197987376839e-001 4.7367378494259968e-002
      9.8873473385575894e-001 2.1595745403262093e-001
      3.0197509041972848e-001 1.0286451191062354e-001
      4.1067668236583016e-001 -1.6803606366290932e-001
      -2.9939230595673250e-001 1.5838411983058362e-001
      1.5429543748424282e-001 1.4423653737830908e-001
      1.4606326920277930e+000 4.1614637356566904e-002
      1.7561647404753253e-001 -1.0714056982689905e-001
      2.2129626110097805e-001 -1.2872982697735189e-002
      -3.1204432648649039e-001 4.3236105791065529e-002
      -3.4983220929657832e-002 1.1173106176122125e-001
      1.7995429971194230e+000 6.1172426111939307e-002
      1.3376049657290551e-001 -3.1707736357792025e-002
      1.3333805461104381e-001 1.2922313697170237e-001
      -8.2908503644974416e-002 6.3304371026216236e-002
      -2.5180331784823545e-001 6.2220808792818411e-002
      5.4476354481910838e-001 9.3249955034319806e-002
      1.1228740971889507e-001 3.3528446685595827e-002
      1.9027110917523293e-001 1.4473148937707628e-001
      -1.2201457028435551e-001 5.1383221458876083e-003
      -2.8995725296981700e-001 1.4593497249106022e-001
      -4.9476760279976734e-001 -6.7303621083754372e-002
      8.6208878545292050e-003 -5.8273067433671916e-002
      1.3401642725348181e-001 7.9239014090912302e-002
      -2.5802120578919507e-001 -1.0748386346533692e-001
      -1.0383136741999424e-001 -2.7721142632558142e-002
      -8.3484416701410394e-002 1.9012137893992057e-001
      1.2119774099092613e-001 5.5886737951977128e-002
      3.0111933110769296e-001 -7.7258793427570555e-002
      2.9071012565740732e-002 3.1249507638152620e-002
      1.5405402771119998e-002 -1.3415840551938502e-001
      -1.0710269610837869e-001 3.1809787217629104e-001
      2.1281516273976656e-001 1.3870943606764422e-001
      2.7975162501959755e-001 -1.9189417158966030e-001
      1.4686445021334568e-001 1.6353505676835420e-001
      1.8850607879280776e-001 2.9058754439993232e-002
      -1.8662245194560872e-001 2.2914014355720569e-001
      2.3961113780109541e-001 1.3970087826151076e-001
      2.6439044033505854e-001 -2.6432084252977950e-001
      1.1625970255366941e-001 1.9133382630888468e-001
      1.9487711293759724e-001 1.2099788280851639e-002
      -1.0405625758451642e-001 6.6866418619687312e-002
      1.7619339995148423e-001 7.5316043894183657e-002
      2.0095982143472269e-001 -2.5952247927864852e-001
      9.6901150555163185e-002 1.4352848249780217e-001
      1.0682842858627499e-001 -1.8055129253387472e-001
      -7.2485064566624013e-001 1.7390625280566235e-001
      1.1773549425210256e-001 1.4645699698322634e-001
      1.9216560385700696e-001 -1.2140661763931880e-001
      6.1941947297008129e-003 7.2296114990556784e-002
      1.0009949992705209e-002 -2.2407300328754806e-001
      -4.4583505059340789e-001 4.0454442375687988e-002
      1.6747406607122713e-002 -3.8820649607808691e-003
      1.3005717031425840e-001 -6.2291204845520552e-002
      -1.8161155736892143e-001 -1.6859276658032350e-002
      -1.8331262395408368e-001 -1.2235966699569958e-001
      1.3397475347560917e+000 -1.6825900442835628e-001
      2.7790484542565760e-003 -7.3195796295252358e-002
      5.8861112395217477e-002 8.3618771652804250e-002
      -1.4525550146587846e-001 -2.9781981140430724e-004
      -2.2657907684303188e-001 -2.3720820356006014e-001
      3.6366596028260950e-001 -4.3301795150379303e-002
      -2.3224458764939563e-002 -3.7178343855895225e-002
      6.8198591944900449e-003 2.0706488952070487e-001
      -3.8861713807925795e-002 -9.0245876633952254e-002
      -3.0318397609941128e-001 -1.4973491543563378e-001
      -1.1463099835275823e+000 5.3795423030470614e-002
      -6.8351700051456033e-003 -1.2900228196558996e-002
      4.4388333062376856e-002 1.6962408972593021e-001
      -3.3375671274090739e-002 -1.4008512998155911e-001
      -1.8435727982874917e-001 -1.1564489623079319e-001
      -5.4155604096792986e-001 -9.7236978662350159e-003
      1.7958441216534480e-002 -2.6451084750890429e-002
      1.3296401691160112e-001 1.1141096013496760e-001
      -9.4136092665334375e-002 -9.3814645772869465e-002
      -5.8563466825512667e-002 -1.3494946779889885e-001
      -8.9840460926574073e-001 1.0797316319540574e-001
      -1.4864679879465366e-002 -2.0378275606518559e-002
      1.4754953384327049e-001 4.1268389263001616e-002
      -1.0295049648307120e-001 -6.4267570681396366e-002
      -8.4476296032212406e-002 -8.1210490489013104e-002
      -9.3809374675657053e-001 2.0091106998759342e-001
      4.9392431322490341e-002 1.2756443464731185e-001
      1.4928408379270855e-001 -8.4608330503132184e-002
      1.1870537703862645e-001 6.6042271870461675e-002
      4.9660793880802336e-002 -1.8244756356258451e-001
      -1.0327810293460374e-002 1.2184246663569367e-003
      1.3226373528934005e-001 1.1968017071020454e-001
      1.3360149426152648e-001 -2.2346963979367326e-001
      1.8696488839581273e-002 1.6131330859642015e-001
      3.7912481309032298e-002 -1.5882511046340886e-001
      2.0491976085650745e-001 2.4599669949968245e-001
      1.6366259635585631e-001 7.0895978285750602e-002
      1.9166221890686894e-001 -3.6541459440944607e-001
      2.2264531789290709e-001 2.0477664532094156e-001
      2.1128821740475418e-001 -7.5863385166253697e-002
      -2.6281547916626233e+000 1.3480055095706045e-001
      5.3428372655819824e-002 1.0244430340516514e-001
      8.5411980781926730e-002 -2.4395408584342193e-001
      5.0058105373862169e-002 3.7979503746936587e-002
      2.5778294422400445e-002 1.7553398024041642e-002
      -8.2155029757209008e-001 -2.4544744321797998e-002
      1.4635242514328109e-002 1.1074182484571037e-001
      8.3140317206409284e-002 -1.5166855621911854e-001
      -2.1407773907987293e-001 7.8216103464118364e-002
      -2.3338361785428555e-001 9.1299838024587937e-002
      2.2508208455382213e+000 -1.7026126202655437e-002
      6.2439335197389263e-002 -2.9905003398762106e-002
      9.8899739932141906e-002 -5.4689773661696160e-002
      -1.1874995019023030e-001 1.0979293358690816e-001
      -1.2732882487572850e-001 -1.0563513121710155e-001
      1.5594663214632856e+000 1.4291330968867752e-001
      8.2013601034519559e-002 -1.1492765063017200e-001
      3.0806102032639126e-002 1.8192362926500222e-001
      -2.1117955455308077e-002 -4.9016223942812270e-002
      1.2088279668815792e-001 -7.2177958414440663e-002
      3.9761021526239954e-001 1.0904421655808071e-001
      4.7957461012525973e-002 -1.1419358862871501e-001
      5.7975306218218343e-002 2.6560663369445298e-001
      -5.2954575531196216e-002 -1.5781337880541624e-001
      2.6686964718252359e-001 -8.1522999980384564e-002
      -1.3055264313868544e+000 3.3788490114148202e-002
      -9.8816975280449248e-002 2.6878629070449453e-002
      5.9173651976163165e-002 -5.7234857433724256e-004
      -2.8808129013317026e-002 -1.1245854357507674e-001
      -3.8111041341242949e-002 -2.2463512953787146e-001
      -1.3314421818115607e+000 3.1212865194597533e-001
      -7.3271492669227320e-002 1.1126824991886426e-001
      1.3375802256006816e-001 -1.5672855576853434e-001
      5.1372293817560519e-002 8.9663757491204778e-003
      2.7618223135931142e-002 -1.9876945494271711e-001
      -4.1913385563997996e-001 2.6894100411506089e-001
      1.0034528012180291e-001 2.0853274998734561e-001
      2.1011907770495292e-001 -3.2489374707321644e-001
      -2.7356884181928352e-002 1.9975512124733796e-001
      1.5815709620500062e-002 1.3170818423704921e-002
      8.8099625940734783e-001 5.7281091474560758e-002
      1.5674126624838633e-001 1.5826199638646346e-001
      1.9154418448000490e-001 -3.7340878607517741e-001
      -1.0856569121669127e-001 2.7202592084840987e-001
      -4.3584916575798828e-003 -6.9560688335368066e-003
      -5.8141583626976312e-001 1.7795729923271525e-001
      -4.9191547339024588e-002 3.6995581970257464e-002
      3.4366387165388902e-002 -4.2528724692697661e-001
      -2.8688707622138803e-007 1.0060042601662361e-001
      1.4098284772863881e-001 -9.0401914083487855e-002
      8.8456574399852356e-002 1.5312544643148404e-001
      -1.9023230051882549e-002 1.2020511446335475e-001
      4.5316818657681390e-002 -4.5580437123406875e-001
      -5.8582781182174734e-002 2.1458500845145440e-001
      2.5531360750136508e-002 1.1294903277148077e-002
      -1.8997957103159105e-001 5.3457431222991457e-003
      -2.7402645340557818e-002 1.9180781462275254e-001
      4.9340586158355716e-003 -3.5906880649595085e-001
      -2.5558534221345003e-001 1.6400513017087201e-001
      -2.3879397321209458e-002 1.5590273457586193e-002
      1.5275958522717101e+000 -2.5174826606597939e-002
      -5.3575345243962916e-002 5.9682389788872310e-002
      -3.7218433109320929e-002 -2.2433957991759110e-001
      -1.7928099494726202e-001 1.4851858079403948e-001
      -9.9109181928652895e-002 -1.0915741331212590e-001
      2.5176926996026818e+000 -9.1085192536369923e-003
      -2.8103954370815899e-002 -4.6124980306821675e-002
      -6.7687626232203299e-002 6.8339116644295789e-002
      -1.3758901836612827e-001 2.6244828062386604e-002
      1.0110395677361987e-001 -7.5412568213646419e-002
      1.3475893864840076e+000 2.5508816517765157e-002
      -8.9829641581249606e-002 -1.9195747190684481e-002
      -4.8165993374247505e-002 1.1764448323873429e-001
      -1.1905891705161169e-001 -1.6269337662193396e-002
      1.4493564890947780e-001 -5.2375822855237168e-002
      -3.4180632479676604e-001 8.0877195638617547e-002
      -1.8824185427196052e-001 1.2654867978172279e-001
      -3.2450490086771727e-002 -1.5728654083595864e-001
      -2.3337607761666577e-002 3.1223289127725599e-002
      -1.1400391168152496e-001 -2.0184829334421284e-001
      -9.4057697439372867e-002 1.0065676936512793e-001
      -7.3893847232203824e-002 1.9941619946447073e-001
      2.7072294091862157e-002 -3.7280451894741801e-001
      -5.4289700583969508e-002 1.8020874072981424e-001
      -1.3079796026598201e-001 -1.9733922386364808e-001
      -2.5057074380624067e-001 -5.7691145055508007e-002
      -2.7500822753336832e-002 1.5658053042706241e-001
      5.0208374886683595e-003 -4.0365274665152084e-001
      -2.8570933919514441e-001 1.7957840374181142e-001
      -1.5246493506454725e-001 3.2207663723623596e-002
      3.4981023205450745e-001 3.8100440330968086e-002
      -5.8083135732355066e-002 9.8194874853122310e-002
      2.8203422133551353e-002 -3.7951015557265733e-001
      -2.7244236186788123e-001 1.2076673103849729e-001
      -6.1152542710058580e-003 -4.4751375984629964e-002
      1.2051392085965255e-002 5.0561256958573759e-003
      -1.0065708957074458e-001 3.9786499385207355e-002
      -2.6320964742626293e-002 -1.8712194928665682e-001
      -3.2041218172067887e-001 5.6393918461282264e-002
      -1.8631229810830310e-001 1.0724960141797744e-001
      -3.6826269807675366e-001 1.7046543480049278e-001
      -8.7947211498597924e-002 8.5845823400907115e-002
      -3.7647929199558491e-002 -7.5665542894372925e-002
      -9.4995764425347781e-002 3.1629333264988631e-002
      -1.4600180295456891e-001 5.9207900772322825e-002
      1.7841871604539535e-004 3.0169214654046411e-001
      -4.6019710402985879e-002 1.4190131612620444e-001
      2.1204735485436454e-002 -1.5012549388362970e-001
      9.5481093606403042e-002 1.1793539650909721e-001
      -1.2360483219107300e-001 -2.6200923757899931e-002
      -9.1820245846039858e-002 3.3650329171768023e-001
      -2.8682726119445241e-002 1.8080329489795477e-001
      4.2292055049545446e-002 -1.9786535712366971e-001
      1.6944807230664810e-001 1.6952934552102478e-001
      -1.1464220812406518e-001 -1.6778461462960870e-001
      7.7797383559503303e-002 9.5518665421173876e-002
      -3.9473636748701038e-002 1.0927441949367456e-001
      -5.2437768248378924e-002 -7.8620383089604368e-002
      1.8147667532884090e-001 1.0591661551935487e-001
      1.6485282000382787e-001 -2.4427303910620643e-001
      -2.2780501317298620e-002 6.3582697471642427e-002
      -3.7803073651671806e-002 7.8090771324645675e-002
      -4.4149994049857547e-002 -6.0464463287795756e-002
      3.6328133859144088e-002 7.1864538208242401e-002
      2.1109963426793765e-001 -2.6452860145391155e-001
      -1.6376309408023189e+000 8.9083469039797761e-002
      -9.5433341875056726e-002 1.7997529551740421e-001
      -4.8557096687436171e-002 -1.2816298332208925e-001
      -6.7858071462394212e-002 3.7128225134487360e-002
      -1.6963862032572385e-001 -2.1012639585062742e-001
      -1.0745426161792495e+000 1.7043855284834080e-002
      -1.4145885922815260e-001 1.0489584009878848e-001
      -6.2612874185407341e-002 -2.9578076322250318e-002
      -1.1737546419971950e-001 -1.9701422016812891e-002
      -2.5585854944756359e-001 -1.6649156671012943e-001
      -5.5323381710472452e-001 3.4826081459938645e-002
      -1.5846356837629133e-001 8.5272222686111621e-002
      -1.8455649510539778e-002 3.6671184477051209e-004
      -1.6246693959602310e-001 -4.5877997556594691e-002
      -2.6503255444046048e-001 -1.2031993596000583e-001
      -1.0135207246924858e+000 1.0958193293581292e-001
      -1.4374625397165011e-001 3.9193228982621602e-003
      -4.2451670485237715e-002 -8.4688346166983161e-002
      -3.0873125920399136e-001 -6.9304020662630056e-002
      -1.4846276600989322e-001 -3.1715810975928439e-002
      3.0431936394714274e+000 -2.7196446665828172e-001
      4.8707148114622692e-002 -5.4865564023524237e-002
      -1.9669044666192176e-001 -1.5356591559888497e-001
      -1.5050406056206067e-001 -3.5265643382549328e-001
      1.8650913196732849e-001 -1.3206919367362954e-001</_>
    <_>
      -5.7534380982048085e-002 3.0054601295485422e-001
      -7.5076687181203905e-001 2.8418971638739415e-001
      6.9473507103005405e-001 -9.5833628621898292e-001
      9.1849276567530336e-001 -1.3241882521429300e+000
      -3.3864236870396990e-002 5.3625490687347732e-001
      2.9930792766524328e-001 -1.0618089915427931e+000
      -4.7503387828339841e-004 -3.7945812455398145e-002
      -8.9459622397552382e-002 2.8688942777649323e-001
      7.8958662798870483e-002 -8.1267172887623154e-002
      -6.6014994947566197e-001 -2.2410273044416489e-002
      -2.3639932098032074e-003 -5.9163191274280366e-003
      -7.5285531969143185e-002 -8.7107094968655449e-004
      -2.5231348549906565e-002 -2.8826072822073483e-003
      6.7139547157613871e-003 1.1437939179716154e-001
      6.8232167926390072e-002 -1.7116218683293858e-002
      -2.9473445284629073e-003 -9.1461398319002407e-003
      -6.3050249013537049e-002 -1.4298109488187796e-001
      -1.3357111678864006e-001 1.0896553805971096e-001
      -7.5747730231376697e-003 -1.7463196853300214e+000
      1.4868811305266512e+000 -2.5263167386788860e-001
      9.6042280855424567e-001 -3.3788173448819603e-001
      -5.1262087660042455e-001 -3.9397412364083978e-001
      1.4753431006658693e+000 -8.9386025400883118e-001
      3.2493413032957452e-001 4.4738178067987722e-001
      1.5855217000956618e-002 -1.4748651380927746e-002
      8.6525342732151952e-003 6.7074492767008176e-001
      -1.2429826362788244e-002 1.9050074792992925e-002
      6.1660654795444769e-001 -3.2179877396736459e-002
      5.7192742268462909e-002 -3.2634256246048515e-002
      7.4262249288245142e-003 1.0399266066517168e-002
      6.5819850686872064e-003 -7.3129305436175959e-003
      2.0924851277131742e-002 -3.9605740784716854e-002
      -7.2676845130319301e-002 -1.4284634148154920e-002
      -1.6766136131450803e-002 -5.7919276917053498e-003
      4.4695275348010974e-002 -9.2062791785578946e-001
      1.5412562113006460e-002 -3.4187607156979299e-002
      5.5569733109365271e-001 -1.9600278004162019e-001
      8.4475593104858006e-003 -4.3715602375816526e-001
      4.2118552124485170e-001 -3.8222794481705441e-001
      2.3620298695099093e-001 -5.9183555573196678e-001
      -1.1381581325365098e+000 2.7563434647034551e-001
      6.3703426264943042e-001 -9.0417043937676689e-001
      -3.8840980869491259e-001 5.8505265157105879e-001
      5.8499315736477786e-001 -4.8602281497489969e-001
      -1.4052356490458026e-001 1.4767563647562210e-001
      -6.7867233841414543e-001 7.5297253471387382e-001
      -7.0562656697649595e-001 6.9995916616320875e-001
      3.8290677002498746e-002 4.9300957867361933e-001
      -5.2563734249966543e-001 -5.0871142118526003e-001
      -6.6423810850789425e-002 3.0926357736823711e-002
      8.1983530473514865e-001 5.9063956567516307e-001
      -4.8422129649314066e-001 -5.2628392229675088e-002
      5.0455710289182151e-002 5.4752273825402631e-001
      -2.2034339538660147e-001 1.5227641755033333e-001
      -3.9540616264929618e-001 5.2724634535587422e-001
      -4.3080334513514990e-001 4.7990952659683367e-001
      -4.7370982904667863e-001 -2.3817542719457914e-002
      -1.6879704885140082e-001 9.2428070064990986e-001
      6.6919988537776398e-001 8.1346215475755421e-002
      -3.0808018643946011e-001 5.9419666427059115e-001
      4.7073547972550540e-002 -7.0426061965547751e-002
      -3.8985005638770853e-001 -9.7695720787758344e-002
      4.8576228521329073e-001 -3.2446124840461310e-001
      1.7537223351039369e-001 5.0081650097636363e-002
      -4.9474876605232604e-001 5.5694830255606931e-001
      -2.8663402800803500e-001 -6.1970713148603129e-001
      1.7624991006042484e-001 6.0799253555191701e-001
      -1.8397382036767798e-001 5.7767943227997065e-001
      9.4696961450252759e-001 9.1806430075211928e-002
      5.8538440228388033e-001 1.1246399569900913e-001
      -4.3953983381375467e-001 -9.2703019737296125e-002
      3.6747764601744654e-001 -1.8604784304659303e-001
      -4.9865274544603860e-001 -5.5158606845102143e-001
      -9.6614573303564738e-002 -1.2883541382382253e+000
      -8.1506624243050507e-001 -4.1416843555255650e-001
      -4.5442326701610530e-001 1.6129027745586025e-001
      -3.6074139463005744e-001 -1.5889765414499710e-001
      -2.1970052153164379e-001 -6.9671508728574216e-001
      3.1558380732599517e-001 -5.7266791055286048e-001
      -6.0695784161501209e-001 2.6536328415021754e-001
      1.8785941168328979e-001 -2.2568064692929468e-001
      5.4555707518342433e-001 -7.1960198772150685e-001
      6.8382866631706574e-001 -6.8896252702611882e-001
      -1.4332939949949991e-001 -4.2091543175986645e-001
      3.9793273358948572e-001 4.2697278175139397e-001
      1.1602792006259634e-001 6.9427479786039845e-002
      -7.1219987080147529e-001 -5.4136791505738280e-001
      3.9275470653269751e-001 5.4695294211599313e-002
      -1.4610047836839563e-001 5.6991647849228044e-001
      -5.8801981127105427e-002 1.5075430681335891e-001
      5.5912223513008696e-001 -7.0899405702301999e-001
      2.5031378487050615e-001 1.0068956630553945e+000
      1.7236295006687546e-001 -1.2951143645860699e-001
      3.6826366520282698e-002 -7.8598307712029991e-001
      -2.0404607641193298e-001 -7.6672827156395895e-002
      5.5880642899506650e-001 -3.4501189596119482e-002
      -5.3673637450327516e-001 3.5649602503670752e-001
      3.6920236068140927e-001 -3.8755979774188132e-001
      3.3681633623866986e-001 8.2808054589115263e-002
      -9.0305966121157344e-001 -1.8880845638739249e-001
      2.1897307462389873e-001 1.0952258793900724e+000
      -6.9458520196013496e-001 -8.7019290746767519e-001
      -4.0241141236257477e-001 7.7915785845671148e-001
      6.1775191719215028e-001 -2.6879040471800025e-001
      4.1033929038619665e-001 4.2255668916363387e-001
      5.3202393099948120e-001 1.9982827293032440e-001
      1.8436896324239465e-003 7.3220063750082742e-001
      6.5615817387994479e-001 5.9617862200240668e-001
      -7.5498214326438745e-002 7.8603357576223429e-002
      3.0738566703718073e-001 -2.5182969965264035e-001
      5.4230195034579198e-001 -6.8269556133608500e-001
      8.7561589703533660e-001 -1.0329251383548310e-001
      -2.6027951416374956e-001 -8.6527376625159080e-001
      -9.5969084035362451e-001 1.7676071710044188e+000
      7.1151156644057040e-003 -1.8922951465871828e-002
      -7.1683126540471875e-002 1.4020053690828382e+000
      9.2059870007071276e-002 -5.3817318077335849e-002
      -4.4146386907160046e-001 -3.2062545508055137e-002
      5.3130967763399877e-003 5.5039641587966377e-002
      -6.7556625756762342e-002 -3.5387163338205782e-002
      -2.5724922728643522e-003 3.1600577283696155e-002
      4.0051128786850344e-003 8.9098509288587716e-002
      5.7779988548060164e-002 -2.2237798606480695e-002
      3.3359319351902068e-002 -2.5043927318989561e-002
      1.7428902025676209e-004 8.5382699249373406e-001
      -1.2000913523908871e-002 -1.5965806895985143e-002
      8.7464116790978397e-001 8.7506158672695689e-001
      -5.6258900820148394e-001 4.9845503589981716e-001
      1.4525311612109548e+000 2.7705364710431191e-001
      4.2380244705021475e-001 1.4084219971327555e-001
      -9.4065950015842259e-001 -3.7566571508437602e-001
      8.1405305328586730e-001 3.1257053042819088e-001
      -5.6901623998825668e-001 4.2782722073852653e-001
      7.0709029398148282e-001 1.7359624398481061e-002
      -6.3360723405080047e-002 3.8757810547444699e-001
      4.3575788823312228e-001 -2.7309894594663875e-001
      6.9700802451704147e-001 6.5381632355418995e-001
      -4.4523626269253769e-001 -3.6927771414454336e-001
      -5.2658433527372950e-001 2.8614718621959989e-001
      7.8207670992699441e-001 -7.9613694116877343e-001
      -4.7434843030206880e-001 3.0364495476937631e-001
      6.9894011612857854e-002 7.0741367493416918e-002
      4.6309044308471942e-001 3.3727812527103923e-001
      4.4992883293341723e-001 6.4310963646078589e-001
      8.2350831560164012e-002 4.4974926615296446e-001
      7.0807409221867035e-001 1.3164068906341768e+000
      -1.8091461249249863e-001 -7.4047438566666879e-001
      -9.2973112812095127e-001 1.6453725698675309e-001
      -1.6064983716637696e-001 -5.4731639670945897e-001
      5.1158799315346515e-001 -4.0899962070859258e-001
      7.6907910466755852e-002 1.8491836481663790e-002
      1.5922095943750031e-001 7.5121426096373523e-001
      -2.4645647048502814e-001 1.7750395593578161e-001
      -1.1409974080022560e+000 7.7599318030876566e-002
      -7.2933318556147500e-002 -1.2863089741303460e-001
      2.7116127556643155e-001 -8.1844822698491047e-003
      1.5848757340318059e-001 2.8671448947272863e-002
      -1.0179980026424393e-001 -2.5242278797431267e-001
      -1.4161130449264700e-001 1.9812682328193543e-002
      3.5299967681355092e-002 7.6417220774989136e-002
      3.5670486276534095e-002 -3.5452126797149214e-001
      3.1130913612919542e-001 -2.8864820027439791e-001
      -1.1055579127632628e-001 -1.5468223229755634e-001
      -3.6889969012220351e-002 8.1561878752962957e-001
      1.6578393409688732e+000 7.9134579446739928e-001
      2.1461110576298617e-001 8.4837587926131131e-001
      -2.2291183142244025e-001 -4.3888579959217588e-001
      -6.8843532764155924e-001 2.6329063225247057e-002
      -2.4941596734745788e-002 -4.6683846056298613e-002
      -1.5313445528616748e-001 -1.0596347118884710e+000
      2.0136948165728377e-001 -1.3209493541031966e-001
      -4.8309186784871838e-001 -1.0868323891640627e-001
      8.8078579922776720e-002 8.6410923600240594e-002
      -2.0012279681550629e-001 -6.5745946075401851e-002
      -6.2068091581751528e-002 5.2055910632005209e-002
      7.2608322252590271e-002 1.7833293615839443e-001
      6.9976959740890285e-002 -4.9495289598996156e-002
      4.3051443640827657e-002 -4.9218181311018849e-002
      -1.9239527931974938e-002 9.3808642476558068e-001
      -1.3888152740562157e-001 1.3993810918677355e-001
      -4.1339047538239269e-002 -2.5179163152199506e+000
      -2.6162861287948576e+000 -2.5779194992552417e+000
      -2.2640349410985707e+000 -2.3353257216609413e+000
      -2.3810457625833221e+000 -2.3430805512030912e+000
      -2.4191522893940092e+000 -2.8689531631439227e+000
      -2.9868316011725131e+000 -2.1066028733188578e+000
      5.1130143857329039e-003 -1.3658627294383769e-002
      -3.3706933205702921e-002 -2.8472086168166806e+000
      5.1941850009597230e-002 -1.0043245072130729e-002
      -2.4181417381477961e+000 -6.3860701358493727e-002
      6.7719901349405059e-002 3.0706797301098654e-002
      -4.3074079914489784e-002 -4.9882196378144249e-002
      1.1511964264973973e-002 4.6164084204014383e-002
      2.7529194225320172e-002 7.4543158487248530e-003
      -4.4045561526552202e-002 -3.8474453826853217e-002
      4.5023221761517393e-002 -2.2618183696076932e-002
      4.5671604073190694e-002 -2.6237708798006261e+000
      5.0283548413095583e-002 -3.8644669171201046e-002</_></weights></my_nn>
</opencv_storage>
