<?xml version="1.0"?>
<opencv_storage>
<my_nn type_id="opencv-ml-ann-mlp">
  <layer_sizes type_id="opencv-matrix">
    <rows>1</rows>
    <cols>3</cols>
    <dt>i</dt>
    <data>
      140 35 36</data></layer_sizes>
  <activation_function>SIGMOID_SYM</activation_function>
  <f_param1>1.</f_param1>
  <f_param2>1.</f_param2>
  <min_val>-9.4999999999999996e-001</min_val>
  <max_val>9.4999999999999996e-001</max_val>
  <min_val1>-9.7999999999999998e-001</min_val1>
  <max_val1>9.7999999999999998e-001</max_val1>
  <training_params>
    <train_method>BACKPROP</train_method>
    <dw_scale>1.0000000000000001e-001</dw_scale>
    <moment_scale>1.0000000000000001e-001</moment_scale>
    <term_criteria><epsilon>9.9999999747524271e-007</epsilon>
      <iterations>50000</iterations></term_criteria></training_params>
  <input_scale>
    3.0754689990749734e-002 -4.2604856477810493e+000
    2.6832808392902436e-002 -3.4538855553239105e+000
    2.1743551276050765e-002 -3.0719561037195473e+000
    1.6572028937872262e-002 -1.6965614625146728e+000
    2.0021319195974510e-002 -1.9339343010861629e+000
    1.8487550091810637e-002 -1.7412961242724143e+000
    1.7665191103088503e-002 -1.7151796486654993e+000
    1.7550341384047052e-002 -2.1351087190029743e+000
    1.8707232854840019e-002 -2.4377862813963400e+000
    2.3207479010221611e-002 -3.0887704095166826e+000
    4.0135971429571350e-002 -5.6955451956776093e+000
    2.1820495296535597e-002 -2.4118466207452003e+000
    1.9069526046757986e-002 -2.0744068802738922e+000
    3.0929454627717689e-002 -4.0179294652319513e+000
    1.9018759706129970e-002 -2.3214773566294893e+000
    2.7280180008946935e-002 -3.3034592979584176e+000
    3.1386549988604545e-002 -3.9350887048212950e+000
    1.9652227320841636e-002 -2.2458811035099333e+000
    1.9670393346902869e-002 -2.4956811558883016e+000
    5.0684265785733762e-002 -7.1417298258710478e+000
    3.0585089719204751e-002 -4.5007871089917240e+000
    1.7604586085893093e-002 -1.8567336887465371e+000
    2.7797935439305851e-002 -3.7822565907105523e+000
    2.7691039018116967e-002 -3.7149259532742542e+000
    2.4518200792946331e-002 -3.5183618137877986e+000
    2.9674452468016366e-002 -3.8122398155004773e+000
    3.0104346584140417e-002 -3.8947498393231665e+000
    2.4079849485834467e-002 -2.8316398004748469e+000
    1.9027139355583780e-002 -1.9877414645536431e+000
    1.0047652921881593e-001 -1.4107532680629374e+001
    2.3072876318958151e-002 -3.1948723427907364e+000
    1.5695390938660202e-002 -1.8054604389127564e+000
    2.4357613834201240e-002 -3.1946532894419564e+000
    2.2586617243688736e-002 -3.1000132166962788e+000
    2.3257638152547486e-002 -3.2538889377798466e+000
    2.5000251773822885e-002 -3.4258157508816671e+000
    2.2177795619359491e-002 -2.8373717270518051e+000
    2.0113207905085587e-002 -2.2419941436700093e+000
    2.0256187306842241e-002 -2.2351436681393735e+000
    2.5422659913566636e-002 -3.5488444323094424e+000
    2.2125850247946534e-002 -2.7788685045780350e+000
    2.0050455919753733e-002 -2.1641960858384186e+000
    2.9255639657408076e-002 -3.7758059932842296e+000
    2.6796431825824765e-002 -3.4927474107973469e+000
    2.8070531830344300e-002 -3.8395224319192813e+000
    2.8563414451849609e-002 -3.8560609509996970e+000
    2.8284978380760696e-002 -3.5497647867854671e+000
    2.2231337052030856e-002 -2.6496974848889274e+000
    2.1985204856109213e-002 -2.3324928277028367e+000
    2.2192297351801869e-002 -2.9779289008949132e+000
    2.1886452841451805e-002 -2.4211888455856059e+000
    2.1332276226725757e-002 -2.7778623448989448e+000
    2.0066833517506908e-002 -2.3478195215483084e+000
    2.2123311985916678e-002 -2.6126248748368477e+000
    2.1154478491276101e-002 -2.6502595084851839e+000
    1.9524568861953060e-002 -2.3551511189730880e+000
    2.0890723841162955e-002 -2.5440984627816263e+000
    1.8534229078874847e-002 -2.2345329933218485e+000
    2.5870737215613962e-002 -3.0495131492904957e+000
    2.1874013729043778e-002 -2.7588599815756463e+000
    2.0951711709395606e-002 -2.4231964073897854e+000
    2.4065075724456767e-002 -2.8126057252958847e+000
    2.7640334792667566e-002 -3.3937148562622146e+000
    1.9197190120950093e-002 -2.3810514871890911e+000
    1.7087464972234536e-002 -1.8240868857860366e+000
    1.8300459191536191e-002 -1.8660749481869561e+000
    2.0465931086177756e-002 -2.7360391620833888e+000
    1.9672712719802775e-002 -2.4492527336154453e+000
    2.0042168143754736e-002 -2.4733288124902328e+000
    2.0883533531312417e-002 -2.5380019344773124e+000
    2.2558588591896699e-002 -2.5611047610737723e+000
    2.5239112663942617e-002 -2.9853137947819626e+000
    2.7358952744297605e-002 -3.2890591002285277e+000
    3.0516476673751319e-002 -3.9013408147598954e+000
    1.8732858827085263e-002 -2.2327226114532248e+000
    2.1175009132577652e-002 -2.4443901167419329e+000
    2.6177360189193935e-002 -3.1347388826559737e+000
    2.2485842109629124e-002 -2.6392757176177186e+000
    2.5097244144497852e-002 -2.9175546317978753e+000
    2.0043017295883332e-002 -2.5448368522866867e+000
    2.0875071299657856e-002 -2.5421922767114582e+000
    2.1779338201002963e-002 -2.3773508855032297e+000
    2.1618641170737536e-002 -2.7523232540495224e+000
    2.1796509231835327e-002 -2.8655598230728505e+000
    2.1848878145477830e-002 -2.6921914539880962e+000
    2.3753727180298487e-002 -2.8890470683038036e+000
    2.9082077652060660e-002 -3.8615546232376796e+000
    2.8586062620324183e-002 -3.5607514251441312e+000
    2.4104806550160632e-002 -2.7569872491746223e+000
    2.0933963990855019e-002 -2.5186175426497446e+000
    1.9977261493094430e-002 -2.6938088544594518e+000
    2.1529426489367336e-002 -2.2848103861841085e+000
    2.5852899426398988e-002 -3.2283808158715734e+000
    2.3748238388573980e-002 -2.7688961696177974e+000
    2.3910931044858804e-002 -2.9447806014933922e+000
    2.2323128279911498e-002 -2.6369195280645457e+000
    2.6849502217235869e-002 -3.4543562696362522e+000
    2.3247079718661592e-002 -2.9124232060035724e+000
    2.3186658706062138e-002 -2.7773269631355055e+000
    2.0555066172302631e-002 -2.5160685686534188e+000
    2.2040407490402158e-002 -2.7302554778735675e+000
    2.2059776294890341e-002 -2.2845655825395808e+000
    2.3714584330120952e-002 -2.7790528511860488e+000
    2.9171361820445552e-002 -3.6801496146605843e+000
    2.3109807868816997e-002 -3.0793818985198649e+000
    2.6093686787818222e-002 -3.2494794327954879e+000
    2.2972630337636277e-002 -3.2987261375449592e+000
    2.3403045477396928e-002 -3.1111423581514543e+000
    2.1263833843956428e-002 -2.6938619501062302e+000
    2.0942408376963352e-002 -2.6492146596858639e+000
    2.6600579817910589e-002 -3.2702087813643832e+000
    1.7604713963197387e-002 -1.8963577822231685e+000
    2.5110415009703960e-002 -3.0407143175813389e+000
    3.0313688245304730e-002 -3.8233139299390588e+000
    2.4635684619892042e-002 -3.2057184611634519e+000
    2.3174932378244386e-002 -3.1192010547843303e+000
    2.6818810748572990e-002 -3.6021015186677099e+000
    2.8574355861620094e-002 -3.7566348471823665e+000
    2.0563446467458019e-002 -2.5704308084322522e+000
    2.2651712663408912e-002 -3.0862958503894644e+000
    3.6798045339745948e-002 -5.2345219495788609e+000
    1.8733439833607403e-002 -2.1233183211404389e+000
    2.1080094466438999e-002 -2.4031307691740458e+000
    2.4883878363932618e-002 -3.2107979301461809e+000
    1.9529993417878377e-002 -2.4253810575827708e+000
    2.0608912048788782e-002 -2.5497088375360870e+000
    2.9122696653578604e-002 -4.0262128123572420e+000
    2.3799644125466469e-002 -2.6938222194512358e+000
    2.1569302903284321e-002 -2.3786896858028239e+000
    6.1287951298286215e-002 -8.6013809150188560e+000
    2.1062447632270730e-002 -2.6347805584993669e+000
    1.9302524700469153e-002 -2.7325136529101646e+000
    1.6404545473182350e-002 -1.9408627862958869e+000
    1.6006916482203301e-002 -1.8247884789711764e+000
    1.6106134792179986e-002 -1.7515421586495734e+000
    1.5679313499423107e-002 -1.6286886897525752e+000
    1.8853470839974674e-002 -1.6602837758452698e+000
    1.8904214582646267e-002 -2.3695251465935678e+000
    2.3327110057168726e-002 -2.9902439204533162e+000
    3.3977168907942300e-002 -4.6315128367638847e+000</input_scale>
  <output_scale>
    5.2631578947368418e-001 4.9999999999999994e-001
    5.2631578947368418e-001 4.9999999999999994e-001
    5.2631578947368418e-001 4.9999999999999994e-001
    5.2631578947368418e-001 4.9999999999999994e-001
    5.2631578947368418e-001 4.9999999999999994e-001
    5.2631578947368418e-001 4.9999999999999994e-001
    5.2631578947368418e-001 4.9999999999999994e-001
    5.2631578947368418e-001 4.9999999999999994e-001
    5.2631578947368418e-001 4.9999999999999994e-001
    5.2631578947368418e-001 4.9999999999999994e-001
    5.2631578947368418e-001 4.9999999999999994e-001
    5.2631578947368418e-001 4.9999999999999994e-001
    5.2631578947368418e-001 4.9999999999999994e-001
    5.2631578947368418e-001 4.9999999999999994e-001
    5.2631578947368418e-001 4.9999999999999994e-001
    5.2631578947368418e-001 4.9999999999999994e-001
    5.2631578947368418e-001 4.9999999999999994e-001
    5.2631578947368418e-001 4.9999999999999994e-001
    5.2631578947368418e-001 4.9999999999999994e-001
    5.2631578947368418e-001 4.9999999999999994e-001
    5.2631578947368418e-001 4.9999999999999994e-001
    5.2631578947368418e-001 4.9999999999999994e-001
    5.2631578947368418e-001 4.9999999999999994e-001
    5.2631578947368418e-001 4.9999999999999994e-001
    5.2631578947368418e-001 4.9999999999999994e-001
    5.2631578947368418e-001 4.9999999999999994e-001
    5.2631578947368418e-001 4.9999999999999994e-001
    5.2631578947368418e-001 4.9999999999999994e-001
    5.2631578947368418e-001 4.9999999999999994e-001 1. 0.
    5.2631578947368418e-001 4.9999999999999994e-001
    5.2631578947368418e-001 4.9999999999999994e-001
    5.2631578947368418e-001 4.9999999999999994e-001 1. 0. 1. 0. 1. 0.</output_scale>
  <inv_output_scale>
    1.8999999999999999e+000 -9.4999999999999996e-001
    1.8999999999999999e+000 -9.4999999999999996e-001
    1.8999999999999999e+000 -9.4999999999999996e-001
    1.8999999999999999e+000 -9.4999999999999996e-001
    1.8999999999999999e+000 -9.4999999999999996e-001
    1.8999999999999999e+000 -9.4999999999999996e-001
    1.8999999999999999e+000 -9.4999999999999996e-001
    1.8999999999999999e+000 -9.4999999999999996e-001
    1.8999999999999999e+000 -9.4999999999999996e-001
    1.8999999999999999e+000 -9.4999999999999996e-001
    1.8999999999999999e+000 -9.4999999999999996e-001
    1.8999999999999999e+000 -9.4999999999999996e-001
    1.8999999999999999e+000 -9.4999999999999996e-001
    1.8999999999999999e+000 -9.4999999999999996e-001
    1.8999999999999999e+000 -9.4999999999999996e-001
    1.8999999999999999e+000 -9.4999999999999996e-001
    1.8999999999999999e+000 -9.4999999999999996e-001
    1.8999999999999999e+000 -9.4999999999999996e-001
    1.8999999999999999e+000 -9.4999999999999996e-001
    1.8999999999999999e+000 -9.4999999999999996e-001
    1.8999999999999999e+000 -9.4999999999999996e-001
    1.8999999999999999e+000 -9.4999999999999996e-001
    1.8999999999999999e+000 -9.4999999999999996e-001
    1.8999999999999999e+000 -9.4999999999999996e-001
    1.8999999999999999e+000 -9.4999999999999996e-001
    1.8999999999999999e+000 -9.4999999999999996e-001
    1.8999999999999999e+000 -9.4999999999999996e-001
    1.8999999999999999e+000 -9.4999999999999996e-001
    1.8999999999999999e+000 -9.4999999999999996e-001 1. 0.
    1.8999999999999999e+000 -9.4999999999999996e-001
    1.8999999999999999e+000 -9.4999999999999996e-001
    1.8999999999999999e+000 -9.4999999999999996e-001 1. 0. 1. 0. 1. 0.</inv_output_scale>
  <weights>
    <_>
      7.6800785094592061e-001 -4.9823771573058437e-002
      -8.6345857225545594e-002 -7.8464791622377447e-002
      -1.0978720851438846e-001 4.0275368423075009e-001
      2.1156382014838307e-001 -2.4226583020451464e-001
      -3.8817207274428739e-001 6.6415843464797966e-002
      3.7575941185352922e-002 -8.2698106738577457e-002
      -2.6841400417101425e-003 -1.3314549281959900e-001
      -2.6148992378886565e-001 3.5625932974143876e-001
      -4.1875929000031858e-001 -3.9541029088732429e-002
      -3.6929400441646658e-002 -1.6375185708530812e-001
      -7.5397850591915394e-002 3.9151390738958891e-001
      -6.4646993679691678e-002 -1.8631526320116820e-001
      1.2126631022188386e-001 -1.4440415794649850e-001
      -1.5214975912638112e-001 1.3992046109826880e-002
      2.3332040486957864e-001 1.4874803977521853e-001
      -3.0400076979813274e-002 -2.5498202214423887e-001
      1.9306731391143223e-001 2.4951606385285752e-001
      1.9006584057735587e-001 -4.7360955513167630e-001
      5.1420175389496281e-002 2.1756639359712521e-001
      4.7377539556124076e-001 -3.2379563892655505e-001
      -1.3043447021557089e-001 2.1291847278332737e-001
      -9.5340318831761264e-002 1.4685240106413119e-001
      6.8507234428977160e-002 -3.8365262036305964e-001
      -3.0978894858185979e-001 -9.7545365956092409e-002
      1.6964318463318334e-001 2.8234307695758437e-001
      -1.1016810213465467e-001 7.6162182907351647e-002
      -1.9626407012805130e-001 -2.1681764614827878e-001
      -1.8553878499447704e-001 -3.8049521458630192e-001
      -1.2351075877991519e-002 7.1054035836882357e-002
      2.7532254670526829e-001 -1.7236549730819070e-001
      1.0263399589917724e-001 3.6635209124235311e-002
      1.6861857104537295e-001 -8.4197867214289263e-002
      1.9739141808901628e-001 -1.1755560312214378e-001
      -2.4437395486445640e-001 1.3028390665508713e-001
      -8.0777690378614209e-002 -5.0530344635589905e-002
      -1.5288392421159172e-001 -3.9045891235599185e-002
      7.5115883003465736e-002 3.9412453520834589e-001
      -4.5948273692699532e-001 -1.8478652839718557e-001
      2.2890951302587796e-003 -2.2950331151617209e-001
      -9.2758661691477826e-002 1.2024188818562048e-001
      -3.8839223848371379e-001 -4.0856658255438350e-001
      5.3391437026610040e-002 -1.2345338796749177e-001
      2.0553844982329891e-001 1.2619321053173263e-001
      2.5918994927121669e-001 -3.6288426666382467e-001
      -3.1333588812091956e-001 -2.9987208049481867e-001
      -4.8543593011662650e-001 6.2862032961646483e-002
      1.4386589474302981e-002 4.7467985356647334e-002
      2.0268458863397792e-001 1.4793171770280306e-001
      9.3423932292722861e-002 2.5333677017780032e-001
      2.1561418317332032e-001 6.7971747391414164e-002
      -1.6996338056353924e-001 -3.1594597984024775e-001
      3.1952577743000338e-001 -3.8613309704772419e-002
      -1.3375547879634231e-001 -2.3641435965514632e-001
      -5.3732325673877840e-002 3.2507657991366018e-001
      9.6723217354851079e-002 -3.1945085088828934e-001
      1.1234114684207612e-001 3.6836285909958305e-001
      -3.9169915920437526e-001 -2.5272246813714777e-001
      1.3161156838352975e-001 -2.9179525209839569e-001
      -9.6827404901062800e-002 -5.8700742066898227e-003
      1.4078778632036543e-001 -1.9606966124093909e-002
      2.5907008250430819e-001 -4.4474475316320011e-001
      7.5481865704032869e-002 -2.8661000095639100e-001
      3.4964301983568848e-002 1.7199220279836211e-001
      -1.1345348438075392e-002 -1.0085586798503564e-001
      -1.1025979103248715e-002 -9.5308092911787184e-002
      -9.9257093894982260e-002 -1.1310883618853602e-001
      -1.7177765355874811e-001 -1.4501915878355168e-001
      -7.8221520653978374e-002 6.4592537391218688e-002
      -8.2117120796379017e-003 1.3364244080541968e-001
      2.3252943089891404e-001 -1.8953217650496854e-001
      -2.5698244807555937e-001 -5.2398442144690738e-001
      -3.0567977649175077e-001 7.7957877109032417e-002
      1.6355799225269391e-001 2.2754070030906307e-003
      -1.7072028071214115e-001 -2.4754884282715087e-001
      -8.3008508329737357e-002 1.1357970297045480e-001
      -1.8989055363169273e-003 -1.7927469216338591e-002
      1.4430523143870325e-001 5.6032380741718173e-002
      2.8570494396510288e-001 2.5977182010192629e-001
      2.2758294875391527e-001 -3.0596280009401916e-001
      -6.5457476623082059e-002 -8.2145527275153021e-002
      -5.2312031903936218e-001 -4.2985939022555215e-002
      -2.7716184243290275e-002 -1.1570061658743279e-001
      1.2282001176159088e-001 1.3900151950193498e-002
      -1.6511866792335261e-001 5.9157661682877519e-002
      2.4763827392987620e-001 -4.0793027988233880e-004
      1.4182003319646247e-001 9.1132831569113823e-002
      -1.0214852652746004e-001 -9.1550572558539600e-002
      1.5895703064696501e-001 -1.6259501309165898e+000
      -2.8049852911500689e-001 1.2985416039439723e-001
      1.2667773834536686e-001 3.9983714623490463e-001
      1.1185423870875452e-001 1.7356768830155062e-001
      -2.5550997211452009e-001 -8.1117080491819413e-002
      1.2662441251788170e-001 -1.4756947325465836e-001
      4.3008894076281716e-002 5.9947087063359432e-002
      -2.3456726414388976e-001 2.6079787997214132e-001
      1.0859078246698800e-001 2.5919226893900443e-001
      -8.1706083741494115e-002 -6.6134669107990901e-002
      -1.2247955058061302e-001 -4.8446101367827045e-002
      -8.3297591330264181e-002 -7.1485475157154629e-002
      1.4269779931402959e-001 -1.5280349515625864e-002
      -5.9080346116080866e-003 -2.8627051496488304e-001
      8.2684540377968810e-002 8.0920045028384430e-002
      -3.7006222586194287e-001 1.2366933182222796e-001
      -1.7039910723608290e-001 -1.4155111465394690e-001
      6.9666783756187928e-002 1.2427318851698028e-001
      3.3579310488301267e-001 2.2610161226615047e-001
      -2.7748988974907005e-002 -1.1383883528848636e-001
      3.1131847181323100e-002 7.9541754602247758e-002
      -8.6437848914267104e-002 8.5922362024735702e-002
      -2.9792898120584020e-002 -3.0039408604499274e-001
      1.0806423870184201e-001 8.9168021325533697e-002
      2.5857601702501570e-001 1.2995636208119149e-001
      1.0101581310700754e-001 5.8108966024357098e-002
      -2.5583800525190936e-001 2.1669405334456340e-001
      4.1634243571866285e-002 1.2169570523832139e-001
      8.5344997894166857e-003 3.9521423744872036e-001
      -2.1847799573121163e-003 -1.2887124801700675e-001
      -2.1177433142253288e-001 -4.0774668008435022e-001
      -3.3096617472114370e-001 -2.1306606013724674e-001
      -4.6962596394495411e-002 5.2376052710400779e-002
      3.6182500405962943e-002 3.9105815959552703e-002
      -2.1379905351900191e-001 -1.5115968771540783e-001
      2.0715858772100687e-001 -3.0046806846753293e+000
      -1.7152265813562839e-001 -3.6710562983788331e-002
      1.4585977822985924e-001 1.1933738027605144e-001
      2.7196282675173666e-002 1.9449157002916245e-002
      -1.6178717450898480e-001 -3.2230996680691587e-001
      -8.1654172554813900e-002 -1.3645282560292765e-001
      -6.3582056203725382e-002 1.8569108520277264e-001
      -3.7240247154068713e-002 -1.1166646590292352e-002
      1.1188676593592102e-001 3.7808523666590460e-002
      -2.0863612749620106e-001 1.8877970247644055e-001
      -2.1721055714295853e-001 1.9513517474632674e-001
      2.0498224676968015e-002 1.2043083780793741e-001
      1.2577524460092462e-001 1.6232860648302053e-001
      -5.7193869932933329e-002 1.8899076982113369e-001
      -5.3014092354379920e-002 4.8544369112332075e-001
      1.5231954006860279e-001 -1.0937091232758214e-001
      3.6822481115326336e-002 4.1156406453508787e-001
      7.3754568588314917e-002 2.7584932542616553e-001
      -2.0098405594016810e+000 -2.0474900548500505e-001
      1.0932951749779055e-001 8.9811419904459358e-002
      -2.1405106878055508e-001 1.5684740945248488e-001
      2.6162521113879200e-001 -2.5580817296021569e-001
      -1.7896994961839705e-001 2.1854279107696586e-001
      -4.1582763996935501e-002 -6.6762001554480411e-004
      5.2876081828196995e-002 5.5510868598255061e-002
      -4.5024341345910962e-002 2.9537185110530667e-001
      -2.1603496280661835e-001 -1.4386986101991245e-001
      -9.4093004282082476e-002 -2.6679127717859279e-002
      -2.5826006617833941e-001 2.3573260068616878e-001
      -1.3920696572051372e-001 -1.8391975969052710e-001
      -1.3693232683351725e-001 -6.7843185213986665e-003
      -1.3951639805924537e-001 4.5355739062856795e-002
      6.3281752165973607e-002 2.7117908747644559e-001
      -1.5078925809634641e-001 -5.0226807712031314e-002
      9.2431066344853527e-002 7.7566957765354369e-002
      2.2345984085886561e-001 -2.1050025076888099e+000
      -1.2170165674693190e-001 1.3240319458563635e-001
      9.5803012188573206e-002 -1.0415026269907017e-001
      7.3274888863271062e-002 4.7795473394397336e-001
      -1.7255462101363317e-001 -2.8162381228231986e-001
      6.0380958410222098e-002 -1.4700850140015212e-001
      2.4657703223787295e-001 2.0452161475239278e-001
      2.2362826572707103e-002 -4.0958844079996594e-002
      -3.7301564036492811e-002 5.4097294204752976e-002
      -1.5429629236023346e-001 -1.3427430982362737e-001
      2.4625648021248975e-001 1.6828441969390467e-002
      1.5585701448337017e-001 1.7198511994182875e-001
      8.2385849800559852e-002 2.2316340222592673e-001
      -1.1581474904984479e-002 -8.8216544751374332e-002
      2.0595046457906008e-001 -1.7573972485499753e-001
      2.6090751112551142e-001 -3.3058048152062119e-001
      2.1543035744304601e-001 1.0199052467260307e-001
      2.1704406449181330e-002 2.5689310448299912e-001
      5.4859082618105917e-002 1.5925407775850056e-001
      -2.7575685879499000e-002 2.4708432179795772e-001
      -3.7251391657270005e-001 3.1540181076921253e-001
      -6.0073196162717057e-002 -4.5812755651165764e-002
      -4.9940186330226838e-001 -1.8857254066848894e-001
      -1.1085589669597040e-001 1.9787521458310700e-001
      -2.7559619698360516e-001 7.5827145335833079e-001
      5.0007153784114654e-002 -1.8293876406397983e-001
      -4.0761150371707378e-001 -3.8523141697172597e-001
      -3.3854305607815421e-001 6.2881654007137078e-002
      -5.4212326964271074e-001 3.0201158341737333e-001
      1.3190095159879095e-001 1.6646007034008528e-001
      6.6673508329470166e-002 -8.2952475007016246e-002
      7.4391535636785730e-002 -4.6318676771523004e-001
      -1.8269184777902370e-001 -2.3811946453464861e-001
      -1.8486337119909158e-001 1.4942539868522983e-001
      8.3087776996318030e-002 -2.5963641092447942e-001
      1.3428186758081687e-001 -1.9907537080026692e+000
      2.7335320538668240e-001 2.4320652272076132e-001
      -3.7887619961218844e-001 4.4153839744895251e-001
      -3.6029096585934152e-002 5.6893374038446874e-002
      -2.1703821296070274e-002 1.0449902136653051e-001
      -2.9744461232632635e-001 8.5855250891476772e-003
      5.3155614431775777e-001 2.7382193438926961e-001
      -1.1169739228350209e-001 -1.9206529057169947e-001
      -1.5530718394184900e-001 -2.9781440646597629e-001
      3.7490766046940921e-001 3.3104229827955944e-001
      -2.6527464493972375e-001 7.3748245819652913e-001
      2.6988941374546682e-001 8.2871308148456446e-002
      1.4451345353716294e-001 -3.1415605269221775e-001
      -2.5670583474492253e-001 -6.7432487704452204e-001
      -1.5736533302767422e-001 -2.3922544791809144e-001
      2.0857149895924286e-003 1.3530250389537829e-001
      7.1022247039517802e-002 -5.0252416275003750e-002
      1.7207903875324398e-001 -2.1056231664732774e-002
      -4.7363074710104097e-001 -3.9691155144014312e-001
      6.4078318127403680e-002 -2.6097114302582980e-001
      3.1418499411726114e-001 3.5522163236535909e-001
      -2.5884434655910612e-002 -6.7600187388187655e-002
      -4.3509279868646909e-002 1.6187870487385383e-001
      2.4266545627747116e-001 8.0390112868589034e-002
      2.0010514410645389e-001 -2.2024941735909684e-001
      -1.8954453380465550e-001 5.3869884660635325e-001
      -7.5636080421998514e-002 7.6794257074311409e-002
      2.2744939056875205e-001 1.1821559649362642e-001
      8.4107614876109238e-002 3.0524941831850966e-002
      -2.2449316875398576e-001 -2.1217883082296984e-001
      -9.7495492454900426e-002 -1.6268036341390954e-001
      -2.1422303791032721e-001 8.7866691825491339e-002
      1.5168184913288699e-001 3.3896574115975642e-001
      1.0723297494482770e-001 2.6757952938050827e-001
      -2.1926885688486924e-002 4.9039578023983743e-001
      4.0730245111629548e-001 -4.7242070063487529e-001
      -1.5218260501632724e-001 3.8282335642451670e-001
      -3.3913228658265854e-001 3.2684453965096116e-001
      -9.6878937374072951e-002 1.5155454324055531e-001
      5.9772350180614629e-002 5.9635880112378059e-001
      8.7268352467222334e-003 1.7192871512352023e-001
      1.3870987851732944e-001 6.3491257393045952e-002
      -3.7814959681651478e-001 -2.7298947416126973e-001
      1.0036878660839173e-001 1.5245515948905911e-001
      2.1920625394413246e-001 1.3260612335838762e-001
      -2.7640804908275057e-002 3.0166182763131916e-001
      -2.4822358804719533e-001 -9.8391622905643586e-002
      -1.7813249575938387e-002 -4.5506281127834597e-001
      3.8150410893624871e-002 -2.0038653229900216e-001
      3.1505340731897730e-001 -1.2816726074256319e-002
      3.1088113383736948e-001 1.4156842218992524e-001
      -6.1380096274817088e-002 -3.9216812665928891e-001
      5.0327120646971202e-001 1.6193233807115201e-001
      1.1620397990780857e+000 -4.5769149426071193e-001
      -2.0557193467624096e-001 -1.0431406937538815e-001
      2.2868788295139927e-001 -1.4792980552118035e-001
      2.7211559708391031e-001 -3.3728122594846831e-002
      4.5760875877538221e-001 3.9659082364815729e-001
      3.5557355836926083e-002 -1.0601762410234582e-001
      -1.6243771799085968e-001 -5.4932911563715305e-002
      -6.5877859951599740e-002 3.5748073804850616e-001
      1.1792830847545116e-001 3.0101053096271736e-002
      -9.7958461943923139e-004 -1.6431144557461221e-002
      -1.8986977562785393e-001 -2.8552867983010222e-001
      -1.4631622861038390e-001 -2.1478941210717284e-001
      -4.1605376914253756e-001 2.3148063851908010e-001
      -2.1444326533264037e-002 1.9504259053041939e-001
      2.2584511056845410e-001 4.2024222358292357e-001
      -1.1259592769935500e-002 -1.7358551948258602e-001
      -1.7318729380227429e-001 1.2188405614986947e-001
      5.2645790097760161e-003 3.2989610279937409e-001
      -3.8053996831343551e-001 -1.6626163576030188e-002
      -1.9147703833918814e-001 3.4476330121780230e-001
      -1.3068239908260337e-001 7.9297546350873313e-002
      -3.9215113279937167e-002 2.1038118576672751e-001
      -7.3287105940355217e-003 1.8337050735407759e-001
      -5.5489523592581629e-002 1.3205342455019559e-001
      -4.5918534726188659e-001 -1.5123789327324899e-001
      3.2901296716400208e-001 2.1460327162960560e-001
      -2.1716192194694284e-001 1.3326765325716307e-002
      -2.3788506235724441e-001 2.4375028151119024e-001
      -2.4327264826283179e-001 -6.3242977533562003e-004
      -1.9327095893162077e-001 6.0305520088152556e-002
      2.5102419084969707e-001 2.6271470650768108e-001
      2.7843108660004484e-001 3.3741452366096214e-001
      -2.6569139775123710e-002 1.9958796844215526e-001
      -1.3676750802657084e-001 -2.9157817338703401e-001
      1.9130520543437940e-001 -2.5495671349037140e-002
      -6.0518272787515082e-001 -2.9160404570541548e-001
      2.6025806317377820e-001 -3.1326851607067047e-001
      -2.1760597095350986e-001 8.3743450164493277e-002
      8.8260521398494871e-002 -1.4699048194574535e-001
      1.8246373927969475e-002 -3.5297389858744888e-001
      -1.5625579107901289e-002 -3.2533993660526263e-002
      -5.3665577814633783e-002 -1.0522182797716371e-001
      -2.4672965330931668e-001 3.8720011747410646e-002
      1.4075528106570305e-002 -6.2654773104106415e-002
      -1.0551230695246312e-001 1.0386996376823920e-001
      6.8852242535970290e-002 2.6342734703167431e-001
      -2.2567310575333610e-001 -1.1966550781975049e-001
      9.5298795002518186e-002 2.0164585101285737e-001
      9.8617923236746285e-002 5.4339360496232988e-002
      -2.4333789334961611e-001 -1.5280512462444840e-001
      -1.8323318425873131e-001 6.2369539073868351e-002
      -3.1746685807910574e-001 -6.5187357236148505e-002
      -3.1412174897937778e-001 -2.3252998182181903e+000
      -1.0600723569176847e-001 -1.8504908208087961e-001
      -3.4859485450176322e-002 2.5722215510410956e-001
      3.5733834061106984e-001 -2.0552969465881457e-001
      2.3754343588264209e-002 -1.0985514924958702e-001
      -1.3223176467870324e-002 1.0782648719212959e-001
      1.7410723499635800e-001 1.6288620857050151e-001
      1.5643095495772699e-001 2.2297760513047329e-001
      5.8586051530911273e-002 -9.2483857428615257e-002
      1.8955380703584809e-001 -3.7008221854363331e-002
      -5.6438617624239434e-002 1.8411746403697557e-001
      3.7782822946736176e-002 3.0904770890265765e-002
      4.7928970883073227e-002 -1.8138494584211365e-001
      -3.0649595193347379e-001 -2.6929614223511877e-001
      -4.6837095365181958e-001 -3.1595708652441705e-002
      -2.6092168942983435e-001 -4.0294286459497447e-001
      2.3488878463991000e-001 1.2613076620522944e-003
      2.1374644218219099e-001 2.5719287248666733e-001
      1.7215776343199575e-002 -2.3333626328027660e-001
      1.9972347234484858e-001 -3.4095914692277063e-001
      1.5548040920205511e-001 2.2836728878137030e-001
      -3.9247619125880984e-001 2.2985321856361207e-001
      -5.8565877052608191e-002 -5.5037911917574907e-002
      1.6577432274159848e-001 4.2468405570193346e-001
      3.2292157730246535e-001 1.4765371941345290e-001
      -9.8634321375868278e-002 3.3619473534089944e-001
      -3.9266171862033530e-002 -4.2803506262598361e-003
      2.2076860997398592e-001 3.4871818029186552e-001
      -2.6019026800986672e-001 3.9225200355807710e-001
      -3.6269419176833850e-001 -6.9633498264681945e-002
      1.8399850634871773e-001 -1.8190579977115540e-002
      -2.0353104148039894e-001 4.3952155438431235e-002
      4.2300149301787354e-002 1.3264108147637076e-002
      1.0734179279504004e-001 6.6869580151218189e-001
      -1.9381859365377307e-001 2.8077188931013755e-002
      8.7808099790572691e-001 -3.2429681420253571e+000
      -3.1292834277417902e-001 8.3301197780805705e-002
      -2.3347626120520867e-001 2.6196605827304359e-001
      8.0672407469868285e-002 -9.2238291496656282e-004
      -1.9587689357449503e-001 -3.0095516705720005e-001
      1.7421802408935226e-002 2.4317850073607003e-001
      4.9962044066614025e-001 3.6878173151928006e-001
      6.2787216651964253e-002 -2.6974839873985562e-001
      2.1896688334955464e-001 -8.4428363419672154e-003
      -1.5026601111860188e-001 1.6167132367839929e-001
      1.6304850402928694e-001 1.3586835026492797e-001
      3.6279789128783924e-001 4.5575883113339606e-002
      -2.1581091473332104e-001 -1.7023704588511679e-001
      -9.4614517418585398e-002 -2.5160015713139539e-001
      3.5544259891152459e-002 -6.0265224420343301e-002
      4.0668409649046361e-001 1.2017992682671665e-001
      5.8590387629447005e-001 1.5258954405245518e-002
      1.3913251430444510e-004 6.1825839537386607e-001
      1.6962355192443241e+000 9.4487086960534886e-002
      1.6152046953587201e-001 -2.0391798890726456e-001
      2.1203428414423703e-001 2.0622660488928593e-001
      -1.0873253682749241e-001 3.0696720134827876e-001
      -2.1395695809887771e-001 3.3404574432738404e-001
      5.2409134862166806e-001 5.1254542757547805e-001
      1.6794330838731256e-001 -4.0909778366089333e-002
      -4.0526642940686980e-001 7.2608012016696852e-002
      -2.5076695197573478e-002 -1.3741113099009256e-001
      6.5511165652196626e-002 7.0945335553654912e-002
      1.2682558757152498e-001 1.4047030227646096e-001
      -7.9230915027954749e-002 -2.9738166105023250e-001
      -3.7326313892810387e-001 -1.7651043694916621e-001
      2.5122427384322554e-001 4.0544644357327769e-001
      -1.4906619763212928e-001 5.0053331493736597e-001
      3.3643086630978536e-001 2.9395885110024517e-001
      -3.1256374567694334e-001 2.3903094942391961e-001
      6.4453344065896589e-001 -1.5283473581945877e+000
      -1.5816527337339828e-001 2.0740203382783876e-001
      -2.9464231447382283e-001 2.5020016596045325e-001
      3.3374013597861629e-002 2.1699825630237224e-001
      -3.3175123476938684e-001 -2.7806404114844302e-001
      1.7791818252232811e-001 1.0375714803344354e-002
      3.8836623257976527e-001 3.5996069160077032e-001
      1.8057487934328342e-001 -3.4278272150291078e-001
      2.2882551420667707e-002 -1.5491380103501534e-001
      4.9020660257750537e-002 1.3812159857821846e-001
      1.1303676804849033e-001 9.3038707311749358e-001
      6.3673870135699404e-002 1.6751437036873526e-001
      -5.3846806103342526e-002 -1.9296059475236133e-001
      -3.5239291869064887e-001 -1.2077262485558181e-001
      -2.1883977325806400e-001 -1.7686719825105082e-001
      2.3633895884605829e-001 2.2444646749172631e-001
      6.0158754224124578e-001 3.2284601288185916e-002
      3.2496761967175203e-001 -1.4862373252257756e-002
      -7.8718934838722510e-001 -3.2289849955231426e-001
      6.8106731700824319e-002 6.9352440586076466e-002
      -2.1064701975888409e-001 4.2150562309810069e-002
      1.0832409680891661e-001 -3.0244687583294705e-001
      -9.8090831335616367e-004 3.0910662012466444e-001
      6.4280638482552471e-002 -2.9231619462101138e-001
      -3.6621655036563956e-002 -3.5224565995026914e-002
      -1.7569321739768057e-001 4.1123042379304070e-001
      -2.1765148588120267e-001 1.9374050031379067e-004
      -1.1321267498203866e-001 -6.8238068633137652e-002
      1.8565077776313096e-001 -8.3150161991128430e-002
      -1.8074982886014085e-001 -2.1813917281698644e-001
      -1.1681048445454770e-002 5.1086079363634164e-002
      3.2018877052795874e-001 -2.9584192062674864e-002
      3.0217644851901360e-001 2.1797195203990677e-001
      -3.3518105499733453e-001 -5.8330884656791475e-002
      7.6508710533163007e-002 4.7229825069282705e-001
      6.5502144138054316e-002 -1.9239615694004295e+000
      -6.4252051807780292e-002 6.4947801120636764e-002
      9.0674925215149249e-002 1.2362922748898815e-002
      1.7542152477985046e-001 -2.0277384275223356e-001
      -1.1458062223503926e-001 -1.5383516099306363e-001
      1.6427603362365623e-001 1.9557210834471050e-001
      -6.3439324959181989e-002 -1.7401602845726327e-001
      -3.9072731964591802e-002 -1.8680821720402616e-001
      2.8834391252412776e-002 -1.3075580175603038e-001
      2.1007673379590613e-001 -1.4302030402953445e-001
      -2.1109861559430995e-002 2.0777664991551351e-001
      -1.8162157083531645e-003 8.5290664293623364e-002
      -1.0423592656124760e-001 -1.0129917661116522e-001
      2.0410064529728980e-001 1.6772468689799813e-001
      3.1809979597506371e-003 -3.3485837103630192e-002
      -1.4921111729409011e-002 -1.3820478829175975e-001
      2.0977886868152162e-001 4.6025456797896887e-002
      -3.8422538928393625e-002 1.9628073208706712e-001
      -9.2691092556329413e-001 -1.2544536119437420e-002
      1.4575342544171821e-001 -7.9651696802867961e-002
      -1.8781453718145150e-001 1.5212997019900815e-001
      2.0431989900326075e-001 -1.6866470846829701e-001
      1.2289095167669266e-001 3.8064708400476516e-002
      -1.3617569673834070e-002 2.6317195742634335e-003
      -7.0285036334104115e-002 3.0113724320324364e-001
      -6.3493682139902738e-002 7.9306449049522346e-002
      -2.7468059449412521e-002 -2.6935215605301038e-001
      -1.7301849305432221e-001 3.2309758620661533e-001
      -3.5954841228842399e-001 4.7023356684748652e-001
      -3.3683704104442040e-002 -2.6152837941663745e-002
      -1.8802549736546650e-001 4.6176626242733422e-002
      -2.4073453154377658e-001 -3.0611689290186217e-001
      8.1657177863421505e-003 -4.5494493613952809e-002
      -2.5685479825550189e-001 4.0826521228905233e-002
      -1.3306148567627135e-001 -7.0158159576455104e-002
      1.9167601530683434e-001 -1.5165302441950261e+000
      -1.9895411680359237e-001 2.6778204418020407e-001
      -2.7942766200311997e-001 1.5646554619711514e-001
      -2.9062447238809791e-001 -1.8880008698723739e-002
      2.0835211483835159e-001 5.5202140400574218e-001
      -9.7317343901154624e-002 2.9201702972330235e-001
      1.2960658103823611e-001 1.4237314409317856e-001
      -4.0457328170840623e-001 -1.8915856839783726e-001
      1.4869240583511073e-001 3.1688645468100002e-001
      5.5375668237838009e-002 1.0016786232972250e-001
      1.1201828381162411e-002 2.7512112944232192e-001
      -1.4833625711897691e-002 -1.5943251864218935e-001
      -1.7653839469935742e-001 -4.7196337767137259e-001
      1.8178002355375378e-001 6.7793551215557218e-002
      3.3436459047524869e-001 -8.6793586029246250e-002
      3.5051537571604685e-001 -1.8598850696510039e-001
      4.0925756358053005e-002 -3.9524640553447116e-001
      1.6764562674119102e-001 1.1798683143346579e-001
      -1.3088950849287910e+000 -3.3740838651092697e-001
      2.3311985099126153e-001 -1.4594843832217022e-001
      -1.8910790314576845e-001 -1.4462434338547472e-001
      -3.1706826146464098e-002 -2.3296492147618926e-002
      2.2640240829418457e-001 -1.2874432431436689e-001
      1.0825545431334001e-001 1.1756237428498946e-002
      -2.2310462562889649e-003 -6.6334379444460412e-002
      -1.4520199030465658e-001 3.9347882530772309e-002
      1.3996515072966237e-001 -3.7625622917909253e-002
      -9.3430921912626863e-002 1.7577796412122831e-001
      1.6455949255026700e-001 6.5793487405104503e-002
      -1.3014779688167272e-001 -2.0099248887931714e-001
      -2.3116799438125513e-001 2.4148537811950860e-001
      2.8968857053834574e-001 5.8661117230973073e-002
      -2.2276155035684539e-001 6.0801233487639314e-002
      -2.8375614918210557e-001 1.9667222749480506e-001
      -2.9451788332007783e-001 -4.8729420170371802e-002
      -1.0674630032042848e-001 -3.6180532882981120e-001
      -1.8434408151478210e-001 1.2252003172816248e-001
      -2.6107526026939598e-001 4.3298529242305088e-002
      4.1815701706685088e-001 -8.6879461152161955e-002
      -1.6379132753814563e-001 -2.3913455967359745e-001
      -9.9104367825717216e-002 6.7673937794726956e-003
      3.5708982926850596e-001 -1.0399609579404935e-001
      1.0765704463100942e-001 -1.2262278129524072e-001
      2.3792340454907013e-001 -2.8711809829986412e-001
      -2.4584334013556065e-002 -2.2942969794036080e-001
      1.0177076530897125e-001 -1.1581118969330424e-001
      1.7386629911088064e-001 -1.0488427668901454e-001
      -7.4612329162680430e-002 -3.8929249206635312e-002
      1.1996131582718110e-001 -3.7836855032034955e-001
      -2.3237082929296171e-001 -3.0169573942156869e-001
      -2.2517613785777679e-001 9.0884549581587819e-004
      2.3585475755915605e-001 -1.0370711918444768e-001
      6.6437219300500089e-002 6.1622744143597585e-002
      -1.5909568110625045e+000 -4.9462614473599143e-003
      1.8309563518765640e-001 -2.0997343438085417e-001
      2.1534811290641209e-001 1.4516822640237359e-001
      -2.0604639376770051e-001 -2.5877299605646418e-002
      5.6529115106413307e-002 -1.0075916854878512e-001
      9.0668933120809481e-002 2.2971337893000024e-001
      3.2172946332512614e-001 4.9548195501307774e-001
      -9.6635636319069330e-003 -7.1122390888908676e-002
      -2.5393705568147174e-001 2.7477918505316573e-001
      3.0699379675481514e-001 -4.8371652181780023e-002
      2.8014282748437463e-001 1.9176558971560426e-001
      -6.6264281622499283e-002 9.1374949504730185e-002
      -1.6126672740891870e-001 -6.1779125300349436e-001
      -3.9755155528451164e-001 -3.5023195996738826e-001
      -2.1045342533675410e-001 6.0298253247628289e-002
      1.5947288920729330e-001 5.9917398751274165e-001
      -2.5455074506812853e-001 1.9533392942806535e-001
      2.4014454755988560e-001 5.5365489468049721e-002
      -9.9706817936625669e-002 1.1953468947000422e-001
      -5.7161672523411228e-002 2.2318297244926878e-002
      2.7197937520043958e-001 2.9541196788423398e-003
      -2.5389910493522300e-001 -2.1803100535211056e-001
      1.1565936978800084e-001 -1.3115144477600961e-002
      2.9997042341471386e-001 -1.1097815137125933e-001
      -5.5057289749028135e-003 -1.9178736697127324e-001
      1.7323707848717115e-001 -1.6484348437867935e-001
      -1.1302624518639426e-001 -1.2516842527639266e-001
      -1.8065204512301571e-002 -2.0124957042578456e-001
      2.6691886828615619e-001 -1.2875663676086840e-001
      3.2477698189725332e-002 6.8674891593987722e-002
      -3.4019387974436016e-002 -2.1426119235115226e-001
      3.6979584455169176e-002 -7.1976012626025262e-003
      1.6399944701937820e-002 -1.5705642613143503e-001
      1.8916756031424363e-002 -5.0449322832801728e-002
      1.7890565880504450e-001 5.5122378021874238e-002
      -2.4642718408104130e+000 -1.9229895975196687e-001
      -2.8328755786464765e-001 6.5830803594791557e-002
      -1.9448870879105373e-001 -1.5285056712683842e-001
      -1.6044991488079632e-001 -1.5731114860592567e-002
      -6.9365575703799032e-002 -2.0135685388501684e-001
      2.1488228777400428e-001 1.3191950838371694e-001
      4.3415591820037874e-001 6.5248753127251938e-002
      2.6774375607878292e-001 1.7315611655767868e-001
      -3.9554912391783721e-002 -1.9507576850910402e-001
      -1.2470389749973530e-001 -1.4082868497101961e-001
      -1.5276815827034335e-001 1.6183600625193609e-001
      2.9184185903883531e-001 -1.1569591939107811e-001
      -9.1121341099806533e-002 -1.8340831273181407e-001
      -2.5101445900321995e-001 -2.0386662836673697e-001
      -4.6528269232338229e-002 1.7312805950722351e-001
      -1.5517313213598885e-001 3.9021490059075009e-001
      2.4448401155974098e-001 -3.5495677621340767e-002
      3.8913183738545742e-002 -1.3524937171221183e+000
      -2.5920545963469416e-001 1.2771395598015364e-001
      -2.4647313690345637e-001 3.6761008241670967e-001
      2.6418466877678798e-001 2.1387160946624564e-001
      -1.3942100375413619e-001 -1.4391855077609125e-001
      2.0597715057269766e-001 1.2021648379684345e-001
      3.1412749594249229e-001 3.3993857355484791e-001
      3.5831311440644942e-001 -1.4178243484698724e-001
      3.6346953300489447e-002 -1.2364876715750256e-001
      2.5391567330962861e-001 2.6970436328098302e-001
      1.9970138333310491e-001 4.5542432288219642e-001
      1.1827230142025863e-001 -1.3230416272601864e-001
      -2.7447352175322182e-002 -2.8096188451163995e-001
      -5.1966264552598451e-001 -2.7993116947608709e-001
      -1.7695306801203528e-001 -3.2885806401200446e-001
      2.5346419877185833e-001 1.5259187566561805e-001
      6.3797234874654307e-001 -2.5898448464432139e-001
      3.2526677827116396e-001 3.9211367467871455e-001
      -2.0864900650966320e+000 -7.1960838910037433e-002
      -1.5066520054911289e-001 1.3425457308165784e-001
      9.5771041127050330e-002 -5.1523611008467605e-002
      -1.0226596777328253e-002 -2.4863515294127214e-001
      -1.3792361880497356e-001 2.7015225891652128e-001
      1.9761488011677811e-001 5.7172842759273049e-002
      1.1166175237630177e-001 -5.8644334302942393e-002
      -1.2182074363941887e-001 -1.4149895937406592e-001
      1.0369464292361977e-001 -4.1971397257042443e-002
      -1.1755105804971037e-001 1.5317840345787812e-001
      4.8067705021704260e-001 4.8440983696705735e-002
      2.4193913879608966e-001 -1.4258663724566703e-001
      -1.1364789868466579e-001 1.6161680347466162e-001
      3.3552157323738868e-001 1.9998310408357547e-002
      -2.1707777925225758e-002 1.6882389408236456e-001
      -2.3487977868004617e-001 2.1651426579466346e-001
      2.8442206107423006e-002 -1.6574062353637967e-001
      -1.0250109921959762e-002 -1.8610297226091235e+000
      -1.8816623159498480e-001 -2.9669710130063458e-002
      -1.8919778257901443e-001 4.3013932131922138e-002
      9.6165012513685366e-002 1.2492532408339417e-001
      -2.0856236878227344e-001 9.2122765898297959e-002
      3.7186137380585599e-001 2.1067525113689589e-001
      1.1454598193355280e-001 -2.1734544123631228e-001
      8.2455681882692269e-002 -3.1853883703828151e-001
      2.5541482951077549e-001 -1.6043954705879512e-001
      1.8576332549797478e-001 -2.9950954950965343e-002
      2.8232865873185103e-001 -1.1329874346836256e-001
      3.5390066892627892e-001 -3.2165536262616132e-002
      -3.2662279889730883e-001 -5.2053358314065712e-001
      4.5382366515118809e-002 -2.8939865079245369e-001
      -5.8513307491249958e-002 8.3209783452257768e-002
      3.8764891249440692e-001 -2.8412995985917905e-001
      8.4653037983425342e-002 -1.9515294736364555e-002
      -4.0600947255125482e-002 3.8462831932467006e-001
      -2.1181970968694794e+000 -1.0861889541410794e-001
      2.2266332410600514e-001 -8.4270273645244892e-002
      -2.1727353958180909e-001 -2.4970836344563735e-002
      1.4003067940203930e-002 -1.1442474478881745e-001
      2.0406937832069750e-002 -1.3028866968756272e-001
      1.9357243206329841e-001 2.0138265391585870e-002
      1.8035474728428871e-001 7.0087833020918797e-002
      -1.3114845986321569e-001 -3.0553824584048893e-002
      1.0630906325222933e-001 -3.4539807190345978e-001
      -3.3335395067859826e-002 3.3847678462555375e-001
      7.5011161539319951e-003 4.5557311887142693e-001
      2.7931524370257706e-002 -1.4554893576676609e-001
      -7.1924265955992689e-002 1.5445220582256879e-002
      1.6753862188633234e-001 -1.5016307825136307e-001
      -5.7181381381082287e-002 -2.2022711792335604e-002
      -2.7006575740865163e-001 2.2966156945911723e-001
      -1.8606876827565880e-001 -9.5375051102891711e-002
      1.7740404456630046e-001 -1.7122146600106107e+000
      -1.8751348250231892e-001 1.3701138925331899e-001
      -4.6082401279871332e-001 3.0712520701234214e-001
      -1.3538092086738845e-001 1.2318692007659589e-002
      1.5603130274942559e-001 3.8432905189511685e-001
      -1.4340587473228825e-001 3.4174003200545972e-001
      3.1137442920862657e-001 4.9444424870524140e-001
      -3.2345561540601830e-001 -1.2755812764551749e-001
      2.6716177653138468e-001 2.2585864212954992e-001
      -4.6324325235472981e-002 2.4803196244497655e-001
      -7.1845883289560944e-002 3.6120483110148260e-001
      1.3221555701668758e-001 -1.4864197274112501e-001
      -1.0238057131577920e-001 -2.7323071910687508e-001
      -8.0842482361375506e-002 -1.2327055827770186e-001
      1.6495637197115354e-001 1.0490634785132177e-001
      2.8970100479789351e-001 -8.7908675688065194e-002
      1.7627433466728601e-001 -3.1354445025189248e-001
      4.0848510418301498e-001 3.0362001337602484e-001
      -1.7734519539801286e+000 -3.5073149307308998e-001
      1.0888706776732732e-001 -2.3141621539264862e-001
      -2.0682218018850909e-001 -3.8162179906856566e-002
      -2.4925506024379745e-002 7.3239255543456269e-002
      1.3741497643460093e-001 -1.0524735466502665e-001
      1.3920853472017511e-001 8.8971483815305272e-002
      1.1935117515906762e-001 -3.5920372605889490e-003
      -1.1449325170032477e-001 2.8704488105680409e-001
      -3.2612148673312330e-002 -3.3473498830788061e-002
      -3.5114692005712013e-003 1.4085250045841033e-001
      1.5223395548532756e-001 -1.4791207245829194e-002
      -2.1689217146086229e-001 -2.5322278283894312e-001
      8.2487291253541990e-003 8.7366581494572951e-002
      3.2419543617455876e-001 -8.2180472396170587e-002
      3.7148939424792277e-002 1.0574269340034965e-001
      -4.6637844904500181e-001 2.3257666084078127e-001
      -1.9003519856318427e-001 1.6706154328837469e-001
      1.0476599854245486e-001 5.4617537516908088e-001
      8.5978774191324769e-002 1.2707012110555821e-001
      -9.3293380287837249e-003 -2.7381382836587909e-001
      1.7360426974188303e-001 2.1148843903485151e-001
      -1.8457285742978227e-001 2.0471195249267250e-002
      -1.8687621961947268e-001 -3.3722991305445815e-001
      5.2479807539660738e-003 -3.1951355438468604e-001
      1.5823422545756877e-001 -6.3529187002552917e-002
      5.2988120069135683e-002 -2.4591325240929679e-001
      -8.7555996237527980e-002 -4.5039743678967104e-001
      -7.1159962090004386e-002 -1.6685420466300716e-001
      -1.0316588232487434e-001 -6.4290547218045779e-002
      5.4369759350003787e-002 1.4510156748087277e-001
      3.6734012950997569e-001 -1.8203014979976992e-001
      -1.8711751856943568e-001 -1.9067960006559365e-001
      -1.8685246165752328e-002 -2.9337906270861835e-001
      -2.1389076456547024e-001 -5.3005382480007530e-002
      6.6567204899661392e-002 -3.9648782896755763e-001
      1.4485943134069954e+000 3.0390595186738861e-001
      -2.9833254342544789e-003 -1.3148125543492259e-001
      4.1384393529706978e-002 3.5171036797725441e-001
      -7.5386817586179794e-002 1.0133728131521384e-001
      8.1523085892242497e-002 -7.9533145884454232e-002
      1.6536193165734578e-001 1.9477367248756586e-001
      2.2722742585841227e-001 4.0536855339812250e-001
      1.3876841465366394e-001 -4.8438723655795948e-002
      -4.1732428380065878e-001 3.3835063106879820e-001
      1.2427163782265797e-002 -6.9357482371302237e-002
      1.8144955159421483e-001 1.6414460178312065e-001
      -1.4360581760527155e-001 9.8892606177734058e-002
      -1.2366063156013546e-001 -6.4630109168553485e-001
      -3.4644771093223953e-001 -3.2953535944874313e-001
      -4.6546212802235187e-001 -1.7772011783774463e-001
      1.1622098271791734e-001 3.0426823627812644e-001
      -3.4934752159895177e-001 2.7087298333472759e-001
      -1.1205024842846310e-001 3.4205821898596596e+000
      -1.1234691276698071e-001 -1.8152752731479740e-001
      -7.3484320709099726e-003 -1.5247493177855206e-001
      1.6417642434435421e-002 -2.2368355063976569e-001
      -6.1479030397104117e-002 -3.0687909632230370e-001
      3.2710484345575752e-001 -5.1618979476482849e-002
      2.9371176117697173e-001 -2.5966527601995965e-001
      -3.5751660957250742e-002 -1.9196019104128689e-001
      9.1616312114844792e-002 -1.6589181689851845e-001
      -8.7819184798000091e-002 -1.2470947322337488e-001
      -1.4776803027309776e-001 -3.6643146274552385e-001
      -1.7613000361049388e-001 1.2593799856312080e-002
      -3.2522154585273733e-001 2.1096374632535456e-001
      8.0788625250237264e-002 7.7589052798764047e-002
      4.2966406486237324e-001 -1.0466899959753746e-001
      2.0512071558826631e-001 1.8793237139900279e-001
      -1.7459169142658323e-001 7.4399602450582525e-002
      -9.5376151389506298e-003 -1.9201521928310977e-001
      -2.3508174791407385e-001 -1.3646539833367022e-001
      -6.8814206243294873e-002 -1.0860557200062174e-001
      2.4733730222592673e-001 -1.0225029073334597e-001
      7.9391229621511555e-003 -1.1945955992937374e-002
      -3.2270766335019796e-001 -2.8117827307672517e-002
      2.5729944298918928e-001 4.0785009519061832e-001
      2.6242155218241842e-001 1.4831126520011151e-001
      -3.6653813643096919e-003 -3.6003466890886161e-002
      -5.2337190175638919e-002 -2.0321994578704740e-002
      1.4486469725466777e-001 4.0967013609978257e-003
      4.7922978377730768e-001 8.2718774386303831e-002
      5.2587478497994899e-001 1.7714311466625274e-001
      -2.9492787804429876e-001 -5.4650592345886495e-001
      -4.4708412858140575e-002 5.9170927714956349e-002
      -1.8775142253158386e-001 2.2165648030332377e-001
      3.8986082369584246e-001 4.8365923360435004e-001
      1.6317435888343368e-001 2.0547195386685752e-001
      1.8117802608591974e-001 -7.2829922116223733e-001
      -3.9979031528928649e-001 -2.3803666080296773e-001
      1.4525060797801759e-001 1.2478356840269027e-001
      1.2303864949377372e-001 -1.9465816891337637e-001
      -1.6966251169013508e-001 -1.9052813553613576e-001
      1.0216073707154387e-001 -6.0007896933553699e-003
      -2.4225639976054317e-001 2.4129034152731024e-001
      3.3112049638414393e-001 1.6497800079907640e-001
      1.3533309794265380e-001 7.0461569481241548e-002
      1.0268906760470811e-001 -2.5174953108758964e-002
      -4.7541707346531814e-003 2.4918779281863312e-001
      -2.8415001456182792e-001 -1.7541647941689248e-001
      -2.1708835632512413e-002 1.2449732560809089e-001
      -2.7660807513306673e-001 2.6228160190390987e-001
      -2.9725689447483772e-001 1.6651800176241474e-001
      6.5275144364943458e-002 -1.6674613903547192e-001
      4.5755855303548598e-001 -2.1373275968925916e-002
      2.2546666816253094e-001 5.2900927504513563e-002
      -1.7665195636624678e+000 2.9399433098411509e-001
      2.4870297344842299e-001 -5.1649575061753973e-002
      -3.4476478133095879e-002 6.3921536980086305e-002
      -2.8504672703781270e-001 1.5052563392275792e-001
      -1.0017952694964917e-002 -4.4945315172679778e-001
      2.2089504849120314e-001 1.7316505076380881e-001
      3.0601280296749914e-002 2.9267633291832060e-002
      -1.1511964918717750e-001 -1.1372565861886755e-001
      1.0966309466473383e-003 -1.5692234528302973e-001
      -2.0454808694697099e-001 -1.5843573039490133e-001
      6.0799613662823729e-002 8.8616582227241822e-002
      7.8612978067137736e-003 1.3514040080790843e-001
      3.4149601696785943e-002 9.3701226357255626e-002
      7.8799574646640128e-002 -1.5216731323321986e-001
      -3.6021583792393369e-002 -1.7286210574960351e-001
      -2.1134154843922598e-001 1.1108346429394383e-001
      -2.0264080023210485e-001 1.1644081261233047e-001
      1.4908618980120916e-001 -4.4184284228362430e-001
      -5.0820042849949461e-002 4.7400860912920019e-003
      1.0942058517733118e-001 -1.1968080835304805e-001
      2.3422100831167647e-001 3.6847194503893309e-002
      -1.8567088393399775e-001 5.5188426320776415e-003
      3.0564443358998300e-001 5.8637178377319250e-002
      -2.1589220442171642e-001 -3.7878568971325471e-001
      5.7923701265877321e-002 -2.6309086395217102e-001
      3.3502793312211099e-001 -3.0162293510686172e-001
      6.6380879794207093e-002 -1.9076013890419813e-001
      1.2730016312377267e-002 -3.1409140473061237e-001
      2.4912543425290298e-001 -1.0710303781602254e-001
      -1.5807179024318768e-001 -3.2290308457914829e-001
      2.0646954292675224e-001 -1.6154178638317770e-001
      -1.4042592429216594e-001 2.7391865281229683e-001
      2.5407245397180878e-001 -2.8444862582161667e-001
      -1.6143546162373004e-001 1.9399874791467370e-001
      1.1378343115230204e-001 3.4055098719324606e-001
      -1.1569249199965117e+000 9.9024498201819827e-002
      6.1940244216286959e-002 7.6080988429562166e-002
      -3.9081107174989332e-001 1.0714381933899583e-001
      -1.4670397591027236e-002 -2.3059348033375798e-001
      1.1760078657439539e-001 3.3731448089718848e-002
      -4.8209535844099920e-002 -1.9665091171051108e-001
      -2.2757456033980716e-001 3.8628864747805020e-001
      -1.0175510515196909e-001 1.4146292068439054e-001
      -1.6101830704276276e-001 -3.0282325205304933e-001
      -2.6329468383710408e-001 2.0476718469418378e-001
      -4.3139859228890948e-001 2.7363219874067674e-001
      -1.1473172534761050e-001 -4.9675567356600947e-002
      5.0876020318311954e-002 1.0328054725241471e-001
      6.0031128992223244e-002 -4.5396676186537538e-001
      2.4400691526382329e-001 -8.9493905749856315e-002
      -4.4746795576649101e-001 -2.7654798514205339e-002
      7.6442879725963600e-002 -1.4768578459436516e-002
      2.1141283784906602e-002 -5.7710915685915753e-001
      2.2278939001295583e-002 1.8799033025055961e-001
      -2.9814108411584728e-001 2.3922651281734536e-001
      -2.5086189855774227e-001 4.1625038538464637e-002
      1.0963899778811290e-001 5.6202962081520835e-001
      -1.2236999285918697e-001 2.4025587726087980e-001
      1.2412461216872800e-001 2.1477611458319379e-001
      -3.3887695883639862e-001 -1.3086927205031804e-001
      6.2990062592276713e-002 3.5040664883943701e-001
      -7.0586518203598361e-002 1.0840338677208536e-001
      -3.3682969059319362e-002 1.0809365434166060e-001
      1.9893517455813414e-001 -6.9891087560334450e-002
      6.9161798586671389e-002 -3.9867517283735604e-001
      1.0004170090171929e-002 -2.0573822818546003e-001
      2.6067506809068935e-001 7.3215420045577989e-002
      2.7096225242144922e-001 -6.0328154764366225e-002
      -7.3368919922389877e-002 -3.2855483130764485e-001
      2.2538170605317637e-001 1.3459120203414218e-001
      -5.1822863978420419e-001 -3.6642204460656963e-001
      1.6447808454618745e-001 -3.2246185299677327e-001
      -1.4488164472285103e-001 -2.9220796712693966e-003
      -6.7684838892473606e-002 -8.1874754965875571e-003
      8.2869349650307095e-002 -2.1398629375463160e-001
      -3.1661261720584984e-002 1.0069498571282059e-001
      1.8817185190559108e-001 -2.7029650039315500e-001
      7.1513275899947964e-004 4.3731112185265070e-002
      2.1171909494767413e-001 -1.4751891802120606e-001
      1.5708739201158031e-002 4.0815736759676574e-001
      1.4454891077089449e-001 2.5522928212402457e-001
      -1.1125927165679449e-001 -1.6982062231833121e-002
      3.9730836737382413e-001 2.2951160267901116e-001
      1.6121640338331034e-001 4.3835381079109996e-002
      1.3248284643277872e-001 -2.8706900868636243e-001
      -5.7693295077029094e-001 1.7806498406004381e-001
      -2.9188223936934010e-001 -2.4757327973003920e-002
      2.8033451806047507e-002 1.4537351165324408e+000
      1.5309083399337819e-001 2.7547069097218707e-001
      7.4145345785519248e-002 -2.1012981047821364e-001
      1.5416511493871823e-001 6.7622429986815752e-002
      -1.7492828827649267e-002 6.4293820713377997e-002
      -9.0403474342502080e-002 -1.4980700061588190e-001
      1.7854513485466806e-003 -5.4752449389570690e-001
      2.6886549309204677e-001 -1.6049649308129038e-001
      8.4115827848180058e-002 -1.9296674399488925e-001
      2.2726274757931701e-002 -4.5891446616370102e-001
      1.2023593179737214e-002 -3.7924539339574798e-001
      -9.0733593264155366e-002 -3.3202202091249766e-001
      1.4110627242333654e-001 -2.0557560696261251e-001
      3.0861336156540020e-001 -1.2534314877013539e-001
      -1.4267657760795915e-001 -1.9341696659546564e-001
      -5.0319238064051856e-002 -5.4541984168858061e-002
      -1.2204830760952620e-001 -9.2730244472621223e-002
      9.7613468810651749e-002 -7.0184191147857011e-002
      1.8235749644387262e+000 1.3932413905765995e-001
      -2.6794754775213200e-002 -5.1893503196877237e-002
      -1.4944987017962225e-001 7.6398574836633745e-002
      -1.0330502582573300e-001 9.0631689418131836e-002
      6.6387151013198226e-002 1.3565842134108586e-001
      1.1111244928403782e-001 2.9045006258862072e-001
      -1.9633001368045899e-001 5.1644490452293457e-001
      3.6872567866051619e-003 -5.1082198019154791e-002
      -4.3384190300395897e-001 2.2754346958600083e-001
      -2.0679776416965590e-001 -1.0238330172454073e-001
      5.8595563529870623e-002 -1.9477010724447144e-001
      6.9411858585311917e-002 5.1674547442774950e-002
      -3.4354788253707202e-001 -3.3288319220980667e-001
      -2.8538721665833794e-002 -1.9491324210670724e-001
      -4.8309158346594805e-001 1.3504254376075317e-001
      -1.9276968140692411e-002 2.5303416074414481e-001
      -2.2196613565972631e-001 2.1845615578590452e-001
      -3.2734410634728578e-001 2.2783698279357809e+000
      9.2751086382890369e-002 -2.2083781681313849e-001
      1.9966230198281734e-001 5.8947370207653671e-002
      1.6963609483391529e-001 1.5754347078712189e-001
      9.1023167897050797e-002 -3.1282440118686311e-001
      -1.6098092121760119e-001 -1.0905443217763315e-001
      -1.2824500943895556e-001 -1.4425925061203007e-001
      -1.7548619527328602e-002 3.4977282131552168e-001
      3.4374722316222345e-001 -2.0325691309198229e-001
      -2.3382337709896479e-003 -1.5608538762714136e-001
      2.6403298548139975e-001 -1.7021711542212947e-001
      -4.3640000867832159e-002 2.7715583734674667e-002
      1.7953103365685752e-001 3.0350519315051918e-002
      1.9618603828869260e-002 -1.4722470986448083e-001
      -2.7789782054487611e-001 8.6662577661605941e-002
      -2.2261268380959792e-001 -1.1115671704789991e-001
      -2.5699225488824168e-001 2.8201775577974825e-001
      -6.5345021406982035e-002 -2.0567079132080202e-001
      2.0293336200823206e-001 -5.9394342134690373e-002
      -2.4514614700443160e-001 -2.7012403810330848e-002
      2.3069921729166573e-001 3.7338293579626836e-001
      -3.0299898403966652e-001 7.4310568091175380e-002
      -7.7868447176170696e-002 -1.9107358419092557e-001
      2.1416150734328329e-001 9.1195088799005137e-003
      2.0194941817637749e-001 2.2306798549820922e-001
      3.0681416681399765e-001 1.1295382606587631e-001
      -1.1163578308652580e-001 1.1224034437090753e-001
      1.3510710717123314e-001 7.4303277853404542e-002
      3.2207908168416573e-002 1.1850118638660348e-001
      9.3514147267268213e-002 2.1112735254539317e-001
      8.1599201498900778e-002 -4.2627478765075572e-001
      -7.5198670422839606e-002 -2.6340784208995599e-001
      -1.1312689447292647e-001 -2.5938186213000619e-001
      8.0440937078734079e-002 4.0771990264900820e-001
      -7.6411114992808532e-002 3.0613171639256195e-002
      9.6263800457236426e-002 1.1912740627281604e+000
      1.8601944994183991e-002 -3.3804581819547086e-001
      3.0748597942587878e-002 -1.2108465164284857e-001
      1.8502255905139539e-001 -3.5831296811819652e-001
      6.2083023961095905e-002 -1.7249482659180963e-002
      -1.2408081579642476e-002 1.8029772337862518e-001
      -5.2426787382342716e-002 1.0112029065475081e-001
      7.0971507516753213e-002 3.2785198157444734e-001
      2.7448889028515627e-001 -2.0240938358115027e-001
      7.3884010246321991e-002 -8.5145162283563960e-002
      -1.4368292695939300e-001 -5.3873140013336082e-002
      4.0561341960111831e-002 7.6810877333664089e-003
      6.6771163835664574e-002 3.0801327614703011e-001
      -1.6144226139838266e-001 1.9752061181320762e-001
      -1.4764779417593618e-001 -1.2171560148648104e-001
      -3.3221494143831487e-001 -2.3988108553968646e-001
      1.4276215819924004e-001 -4.2414217005676401e-002
      1.3803759564442512e-002 -4.0088238719125507e-001
      1.6839456278441642e-001 -5.7524039492508637e-002
      1.2797798301056504e-001 -9.8065793861747217e-003
      -1.5192012578254421e-002 2.8697991460090756e-002
      1.6609211996507936e-001 -1.4709952229209741e-001
      1.1280349778359013e-001 -1.3830630283437879e-002
      -1.2759026051866784e-001 -8.7719885905311198e-002
      -3.0334128460146131e-001 2.0516389996074194e-001
      -2.0747227263626142e-001 -3.1499493595819511e-001
      3.6542109423811212e-002 1.2988977132970764e-001
      -2.8530967905093030e-001 -5.5201334857803076e-002
      -1.9534621315135495e-001 -4.0266660197816752e-002
      -7.1133770687923759e-002 -2.8308353412655834e-003
      -4.1356917844779018e-001 3.4598020264211674e-002
      -3.4749148715750150e-001 -1.2370799466000028e-001
      4.6288598944103622e-002 2.3856224979909138e-001
      -1.4728265894703327e-001 -2.1643612877147847e-001
      -3.1091723715335462e-001 6.7750858811280068e-002
      5.1789661923161485e-002 5.7665715938205830e-001
      1.7935377304276880e-002 3.8417256466024730e-001
      1.3122779547578170e-001 -3.6768759416293806e-001
      -7.0731811874869516e-002 -1.8493999540511244e-002
      -3.4092942509360297e-001 2.3181693045228086e-001
      1.1194877976103110e-001 6.3993668613871587e-003
      -4.2600552100303440e-001 -9.0316745773990278e-002
      -2.6715656949171662e-001 -2.2677779345427107e-001
      3.8333121974001683e-002 1.1750108410862876e-001
      -7.1248766547789250e-002 -3.0800936366856535e-001
      1.5259385933466327e-001 -3.3593388366119586e-001
      4.8178391348620980e-001 -1.5920574057426515e-001
      -1.8952096450460554e-001 -3.4999248767622754e-001
      1.3752894677817332e-001 -1.4681685217672449e-001
      1.7648739240383873e-001 1.2155280331342076e-001
      3.6628573898585842e-002 1.2326429674369693e-001
      -2.3241520040632954e-001 -9.5483958364379909e-002
      -4.0703098317545053e-002 1.7554303877962621e-001
      6.7707848910503254e-001 -1.9126245557999413e-001
      -2.0622311004864885e-001 -1.8884999215630716e-001
      -1.5855715780142599e-001 1.9703422734338050e-001
      -3.6625928659957459e-002 -2.4224366263970121e-001
      8.1392488312097597e-002 -6.7134088478868412e-002
      -9.5153161435524880e-002 -7.0901642410104132e-002
      -3.5464805500151869e-001 4.2855215777553185e-001
      -3.6894214953753429e-001 1.2571241778705625e-001
      -3.3111267361702701e-001 -4.4135420576099829e-002
      -8.3168180198272490e-002 1.5579905911451680e-001
      -3.3822349189369566e-001 1.1413452619129327e-003
      -3.7481790260348820e-002 -2.4312764474568216e-001
      1.7819135274446304e-001 4.9836989103864034e-002
      -8.5133840544217035e-002 -3.9918197534917804e-001
      2.7065252581358284e-001 1.6396682183814551e-001
      -2.5030825809442953e-001 2.5266792213432757e-002
      -4.1744097728524804e-003 7.7457645467869859e-002
      -8.7909601247970884e-002 -3.3764073150166662e-001
      -1.6716271171485725e-001 7.7937727662604026e-002
      -5.0900079692617828e-001 3.8794707931547934e-001
      -3.6309711585985331e-002 -1.8607335548288748e-001
      -1.7125046133065858e-001 3.8520752492337768e-001
      -1.3144589166004783e-001 2.4142130438289397e-001
      1.8939214729480852e-001 1.0848194123046298e-001
      -3.0621377140011885e-001 -5.3615178746956738e-001
      1.8102807943713967e-001 -1.5219383152456113e-003
      4.6528478873896946e-002 2.8162915020596641e-001
      -9.8071360926893694e-003 1.7865989500589738e-001
      7.9634778481487242e-002 -1.1714045004795590e-001
      -3.9276191255358145e-001 -1.4299199051435166e-001
      7.4568834542075663e-002 -4.7210127117735062e-001
      5.7884888921907997e-002 1.6571750580631442e-001
      4.0781063801998868e-001 3.3002070077735496e-001
      7.0695467292897121e-002 -2.4718256303630548e-001
      2.7441639613451202e-001 4.5579758914277464e-002
      -9.4206594262902732e-001 -2.5348695738680468e-002
      7.8485679303658754e-002 -2.8800779115817821e-001
      -3.2992558813456707e-001 -3.6440892710358008e-001
      -1.9603589810639918e-001 -1.2392120410692688e-001
      4.1768368189760235e-001 -2.8504765074066102e-001
      -5.8562384326238469e-002 -1.3876959322763083e-001
      5.7365557644572122e-002 2.2703986483422495e-001
      -1.1762726562099811e-001 -2.5313052755869719e-001
      2.0924841087032034e-001 -5.4543882926111212e-004
      -1.8804692351895372e-002 -1.6989898789631355e-001
      -2.1568996835471893e-001 2.0446844007528941e-001
      1.1414411953514000e-001 -2.5618329514010690e-002
      -3.6893826169347457e-002 -2.4720186682543871e-001
      -2.8805696709232231e-002 1.0206955291358076e-001
      6.1311837914110372e-002 2.3440039991235215e-001
      -2.1219940324970561e-002 9.7246587289815847e-002
      -4.1236770162304237e-001 -2.5331706692636224e-001
      -2.6673620444470975e-001 9.3781418390319371e-001
      2.7287107543021355e-001 3.8377568624700792e-001
      -2.1410696512389496e-001 -2.8121896248706041e-001
      1.5411980556005697e-001 4.7827946247656600e-002
      -2.3312419000265380e-001 -1.2595765017651939e-001
      -3.1538164615441920e-002 -4.1429058635797456e-003
      2.8660597872669508e-001 -1.3057212339870003e-001
      8.8598104114367568e-002 -3.1516331766816330e-001
      -1.1761133800424003e-001 -3.5738420907672758e-001
      5.9418548816073245e-002 -2.7821573426699420e-001
      -1.4673755053224846e-001 -4.0999495629083359e-002
      2.8075209994404915e-001 -2.0345956774048587e-001
      -2.5788574627020548e-002 5.5292276427549497e-002
      -8.2066054978033973e-002 -3.0439058022584869e-001
      5.9055527988916903e-003 -3.8846144850164305e-001
      -2.3061799263417787e-001 1.7818289995280640e-001
      -2.4035765258536266e-002 -2.8602225517051499e-001
      1.3654996439003983e-001 -2.5062751497751301e-001
      1.1787881908388793e+000 2.3470989551551433e-001
      2.3360724394948582e-001 3.9584339592494910e-002
      -1.3527828262399693e-002 5.1062951208405587e-002
      -6.8934001259820937e-002 3.0525495700610267e-002
      2.1144726627496721e-001 8.3167473085226123e-002
      1.4540644376362444e-001 1.9438575384335066e-001
      -2.6865526972878956e-001 3.6201566723186901e-001
      7.9184905524792515e-002 -1.4948638938928865e-001
      -2.6250973870019495e-001 1.8388465181095148e-001
      -8.0135059274137804e-002 3.7655095279726783e-002
      -3.5393281132253686e-002 -8.4513378752382684e-002
      -2.9605671631164118e-002 2.6725318810337889e-001
      -2.4657259557731714e-001 -2.7074604292631815e-001
      -7.3201917351047849e-002 -5.5699249607735563e-002
      -4.0925112231646443e-001 -4.2895507007694927e-002
      3.3152729069362320e-003 9.7058043787005013e-002
      -3.8052226930353322e-001 2.4237376804126676e-001
      -2.1415506342143392e-001 1.0391744121945186e+000
      -5.2685127217014883e-002 -6.6461523586590326e-002
      -1.8400041743597739e-001 3.7729994804203415e-002
      2.7101298813464075e-001 -4.7762065684683573e-002
      -1.1936188870534513e-001 -5.9672698796189381e-002
      -9.4404246336482645e-002 1.5094832479509643e-001
      5.1629597042390882e-002 8.2789779782488096e-002
      -1.4857779369114563e-002 1.5559529227575586e-001
      9.0237692585548548e-002 -2.4400394831103167e-001
      5.4343122747134334e-002 -1.9325294787871219e-002
      4.3020081719242716e-002 9.6595442920456326e-002
      2.2631401361974224e-001 1.7388864901436479e-001
      1.1605665832547406e-001 4.3558133437449013e-002
      -3.0302130316039300e-001 -3.2718024631599768e-001
      -1.9081299383079831e-001 -1.7171353667934167e-001
      -3.5125553295271855e-001 1.1116211675058191e-002
      8.2660964459382869e-002 -2.0270761998304920e-001
      1.8677568893000765e-001 -2.7171807780840224e-001
      8.5036409673744595e-001 -1.1723697774863673e-001
      -1.3231193869746399e-001 -6.7333155516833873e-002
      -2.1762605715739763e-002 2.9340541821174254e-001
      -4.7925879695631618e-001 1.3164918821169538e-002
      3.3048765035519713e-002 2.7354963858388971e-002
      1.0194937138923006e-002 -1.1099105912589961e-001
      2.1052826618579669e-003 1.2663464433763758e-001
      1.1840161804137908e-001 -9.9962140291899593e-003
      6.8123561599874205e-002 4.7504063722140055e-002
      1.4499412176010474e-003 -3.3277725593362464e-002
      -1.7264537601810556e-001 -1.3825043855909269e-001
      5.0333737182641398e-002 5.0442746074311389e-003
      2.5867063133204909e-001 -1.7862742395995013e-001
      1.5033467884536167e-001 -2.6308472484505546e-002
      8.5675124613788839e-004 -1.7030041856369962e-001
      -8.7702887566961138e-002 1.6723186334234488e-001
      -1.4619864490628245e-001 1.0378406891868076e-001
      -3.0686261133062921e-002 8.8700750291401476e-001
      8.9306785692130561e-002 -1.9964060227811092e-001
      3.3705976391566672e-001 -1.9861475191527792e-001
      2.1430742661671126e-001 -1.0133638137147942e-001
      -1.1109511897887130e-001 -4.3275165151259107e-003
      8.9259015915327686e-002 3.4880994927045626e-002
      -3.9165228478661984e-001 4.3209934247807162e-002
      1.6122940622079085e-001 4.5770052932468275e-001
      1.7006973901959516e-001 -7.6079019497744468e-002
      -2.2682967606815676e-002 -1.5948615543828756e-001
      -1.6674687526617413e-001 -1.9615809913802926e-001
      -1.0945207319594308e-002 -1.3313352209759860e-001
      2.8868033765005924e-001 2.4371778155421275e-001
      -2.3981801057348959e-001 3.0624796549789157e-001
      -1.7911867297041065e-001 -1.4747494553143064e-002
      -4.9812008836507965e-001 -3.8284141169005276e-002
      -9.5155542622195992e-003 -3.1378285548236309e-002
      -3.5343829549105703e-003 -4.4268393193044253e-001
      9.0295253830917488e-001 2.1694256196442452e-001
      2.6142572468861347e-001 -1.8551214444331832e-001
      -3.3507208991864146e-001 4.0240631727254637e-002
      -2.3421176499486721e-001 1.5742009711338714e-001
      8.9913808216292884e-002 -5.1958934825991288e-001
      2.2822761025425495e-001 3.6040599194658490e-002
      -2.4109491351801127e-001 -2.2444356128637707e-001
      -1.7073530789315278e-001 -1.8893434438163340e-001
      -1.0879642961279436e-002 -2.1223150708815514e-001
      -3.2401534226198592e-001 -1.7432080182283669e-001
      -3.3321565272074349e-001 2.4413112558799088e-001
      4.3412214238265134e-002 -8.0763134240114012e-002
      1.1928501019705709e-001 2.8195989698524915e-001
      -1.5059249858669776e-002 7.5389428220350038e-002
      -2.4153792662882542e-001 -3.4458623303967112e-001
      -4.2758791994814839e-002 -2.7148426126907527e-001
      -4.4477981040771813e-001 -1.2152700976689067e-001
      -3.2300592436621178e-001 -5.9455150714524063e-001
      4.2296811161900155e-001 1.2457332960233368e-001
      1.2179155430075740e-001 -2.0778028130027792e-001
      1.8703869782579235e-001 -1.7116354059108010e-001
      1.7783262796056393e-001 2.0386817745704935e-001
      -6.6268883311362561e-002 2.5237678423466761e-002
      -1.6853630294733010e-001 -2.2207076759371275e-001
      1.9194469188891475e-001 -1.7324449759616109e-001
      -4.8361829406330104e-001 -9.2943945987292415e-002
      1.1414143649126110e-001 1.0818632897403524e-001
      -1.3034978012995990e-001 -1.9788332574510639e-001
      -3.8680626863310828e-002 -5.5024758358731454e-002
      1.6103565324217295e-001 -1.5574585983480940e-001
      -7.8358927867815550e-002 -9.1653459590912457e-003
      -1.2385528422598233e-001 -3.1141146667973709e-002
      3.2433883854072632e-001 -2.7411666347243463e-001
      -7.1205821828263849e-002 -6.1375583592028535e-002
      8.4539639586738324e-002 -2.4603902838792746e-001
      1.4614201532862254e+000 8.8622790318423378e-002
      -1.8095168944482462e-001 9.4232090226964910e-002
      -5.9094495711494843e-001 1.9236605855029215e-001
      1.5167510079762692e-001 -3.7421694385694670e-001
      2.7948013863793524e-002 1.0393763334006613e-001
      -4.7928294697271817e-001 -3.7716265243916230e-001
      -3.4775274160643688e-001 4.8669160785296800e-001
      -2.2841320927500178e-001 -2.1535689344545048e-001
      -3.1224636102827114e-001 1.9603651757676768e-001
      -3.2796124399042054e-001 -2.1617115963835781e-002
      -2.0517882540945490e-001 -2.2196135057587035e-002
      -4.7023941103726798e-002 -7.8201095153910133e-002
      -1.4385816741066725e-002 -1.8207938345301402e-002
      -4.5327419166726376e-002 -4.1854179432029709e-001
      6.3751000362595470e-002 1.2719082604310622e-001
      -4.5111540749114099e-001 -2.7430749003197963e-001
      2.4948916279040975e-001 5.7420490184286445e-002
      -4.4041566541648053e-001 7.2756461806938399e-001
      4.0351412443700864e-002 6.9994791340521556e-002
      -1.2914674994672379e-001 -7.6962655695523519e-002
      -5.0264550694240892e-002 -1.2980373699634579e-001
      -2.3722799042531759e-002 4.0575666543287792e-001
      2.0261007657559067e-002 -2.2998726601955824e-001
      -1.3975250253254212e-001 7.4594875237695271e-002
      -1.5485832190756707e-001 -8.7843988947899215e-002
      -2.6389023545432044e-001 1.7804420069824745e-001
      2.0102536211602287e-001 7.2780309545844316e-002
      8.1518266720844432e-002 8.6165128371100158e-002
      -1.4344799447532280e-001 -3.0866804334956099e-001
      8.6962852562484705e-002 1.8193658983907832e-002
      7.5244856182692735e-002 -1.3729648337072062e-001
      -6.4738867632820413e-002 2.4565850847781950e-001
      9.1638450098723165e-002 -3.5453120141280925e-001
      -1.1878960266367061e-001 -5.3697439326378785e-002
      2.6172654479936414e-001 -2.0909984756477837e-001
      8.3770374730941966e-001 -8.1670864124552184e-002
      -7.0491663423066682e-003 -2.7848627064102651e-002
      -1.6699916014713456e-001 2.1124670415301591e-001
      1.1912858422288213e-001 7.5613721320711272e-002
      2.0353559483387978e-001 -4.2146116732579070e-001
      -1.6302022072698003e-001 -2.3499848416536692e-001
      -1.3979231492943336e-001 -1.9237221429897847e-001
      -9.2618011521224813e-003 -2.3697521397955823e-001
      3.1467608645530235e-002 4.2572266614111474e-003
      -3.5541213996508600e-002 4.6776527172662528e-002
      -8.9135426068696927e-002 1.6368712786423059e-001
      9.2922016549890102e-002 1.7969938068186755e-001
      -4.4986483607939408e-002 6.1352294807382995e-002
      8.3969587341347421e-003 8.0949016290932194e-002
      -3.7661917985135941e-002 8.0259895452478039e-002
      -4.5328149470205764e-001 -3.2887652670065692e-001
      -1.5751390788087033e-001 -1.9934250509182086e-002
      -3.4538634011865238e-001 8.6366277546361681e-001
      2.0999316363841117e-001 1.8792623725801566e-001
      -2.1833845548307604e-001 2.2555610032502252e-001
      8.9013093858208520e-002 1.3026364778690946e-001
      -5.8337147398645116e-002 2.3285392892772763e-001
      -2.8086975895335026e-001 -2.7952626270333952e-001
      1.6605370759706056e-001 -3.1856006801667630e-001
      3.2220070038914383e-001 -1.5186346858358454e-001
      -2.4702390392618179e-001 -1.6168078332526004e-001
      4.2262700864105734e-001 -1.8882791837056236e-002
      1.3833553598121079e-001 1.6825810780419881e-001
      2.3028568222614193e-001 3.7152227465625486e-002
      4.4564891513673544e-001 -4.5337587819000208e-001
      -1.6584043610031138e-001 -3.7969151309352694e-001
      -4.1423639894900581e-003 -8.7121878918106757e-002
      1.8735757531369190e-001 -1.0379507910067073e-001
      -8.7422905823090327e-002 -2.6840059908313924e-001
      -1.3277759124974678e-001 1.2754584678118230e-001
      2.8773460659485300e-001 1.9250921512929098e-001
      2.2997559240875660e-002 2.7813664650149172e-002
      1.4371146368612467e-001 7.7676968965181656e-002
      1.1700929455482706e-001 7.0502785495626510e-002
      3.4396037813776797e-001 -4.0274454298095924e-001
      -2.2092839256095109e-001 -1.3088990027658354e-001
      -1.5525521915034446e-001 3.0078666500065365e-001
      2.1992782817243714e-001 -1.0247532511283799e-001
      -3.4128829734088366e-002 3.2839322172776170e-001
      -8.4678833176034501e-002 1.9547947894599657e-001
      5.5982859165432164e-002 1.9788762246323000e-001
      1.2241657278391009e-001 5.4576130407107093e-001
      -5.0890140765362546e-001 -2.4991448122793170e-001
      -3.3044429075843995e-001 -2.3152221351234500e-001
      4.7150016669207741e-002 1.4142236934043878e-001
      -2.5572600588207184e-001 -1.4366157029277900e-002
      -4.9988081130204864e-002 -1.4235258700331191e-001
      3.2687571190867085e-002 9.6803713063942609e-001
      -7.8815731959930968e-002 -1.3060816901619776e-001
      1.5905139744604568e-001 1.7374505726399553e-001
      9.6752351712269466e-002 3.1331921458971701e-001
      8.1260173538028349e-002 1.8032166506618577e-001
      -4.4132136293778199e-002 -1.6372951085162255e-001
      -1.4892482103452143e-001 -2.9138755175040454e-001
      2.8680886258127120e-001 3.1240071140953907e-001
      3.3204935003220531e-001 -1.7448206515827575e-001
      5.1494216279338620e-004 -3.8728491110754426e-001
      1.9439264940346031e-002 1.6084358786759675e-002
      -2.3196650639281696e-001 1.3844224887546036e-001
      2.7687627114382790e-001 -2.9523385343247732e-001
      -1.4775931730534703e-002 -1.6631630118543968e-002
      -3.0589599374890342e-001 8.3551012184318207e-002
      -1.2425588071645244e-001 -3.1589841149687442e-001
      -1.2443042844162033e-001 -5.4227612084232373e-002
      7.9931167244117224e-002 -1.6623264382383704e-001
      8.8508474082170008e-001 -1.1624971904803427e-001
      -1.8599558404928249e-001 -1.0225977658285508e-001
      1.2394403728421179e-001 3.4404768359752341e-001
      -4.2090905878779478e-001 7.1781229019176676e-002
      -3.7746855456559154e-002 -1.0599854559056557e-001
      1.1253315928656478e-001 -3.4553830095651432e-002
      2.9021446435977816e-002 1.2316833574570832e-001
      1.4603848587009530e-001 1.3922691334028453e-001
      -3.2749326021195235e-002 -9.0408545057415711e-003
      1.0870975663468507e-002 -4.6515972228195382e-002
      -1.1499404634566533e-001 -8.7449586883682914e-002
      5.3279040498601937e-002 -7.3051397910676476e-004
      3.1970080499181597e-001 -1.8225116992148180e-001
      5.0285514171875753e-002 -1.6670176276756263e-001
      -1.4898274477610380e-002 -2.6689685602752222e-001
      1.6781660427183140e-002 2.7134037317475934e-001
      -1.1111059860677840e-001 1.3699430658605835e-001
      -1.6890942179327101e-002 1.5417908059349754e+000
      1.1898624576172297e-001 -3.2517247795515525e-001
      -3.5068842742775073e-002 1.1666171865192616e-001
      2.8130497469725030e-001 -2.1211709102942417e-001
      2.3558193804265951e-001 1.1195862839821402e-001
      -6.2163383585043197e-001 4.3653171997890650e-002
      -3.8202943955043467e-001 -7.5321403729145031e-002
      1.7380380383217364e-001 3.4309068237601709e-001
      2.9174781024862345e-001 -9.3981018635203112e-002
      1.0388599418268628e-001 -1.0251139731421605e-001
      1.6773009138109277e-001 -2.2698217925555117e-001
      1.4112746341771801e-001 -4.4257522198843248e-002
      2.5291618091540119e-001 1.4367049610745022e-001
      9.4110800064790320e-002 -1.2075690380810794e-001
      -5.8001980571336709e-001 2.2618309845372089e-001
      -3.8176056140633774e-001 -2.4607530828755944e-001
      -3.8741188976149199e-002 -8.2446162455578773e-002
      -1.7597829204516099e-001 -1.0166981182444605e-001
      4.2646030953930725e-001 3.1457753889530593e-001
      1.3998221021700907e-001 -1.0718191399776544e-001
      -2.6328328913749821e-001 9.0856497331382055e-002
      -1.2483895326861538e-001 -1.1886158234816864e-001
      5.9043050344146829e-002 -4.5855666025594960e-001
      -5.7720181274675576e-002 -3.3288826555448722e-002
      -3.1624660792725279e-001 7.8026771606721959e-002
      -5.6849521617014190e-002 7.1820734249375767e-002
      -2.3157217954792975e-001 1.4836387562515051e-002
      -4.2947097771238157e-001 -1.1829740440621345e-001
      -3.1425705758563122e-001 2.7372507585893951e-001
      -1.2362440350130317e-001 1.7542530237138457e-001
      6.6224779715543053e-002 2.4785022851468358e-001
      -4.0290817722927302e-001 -4.1515357524358237e-001
      -1.6891545336746042e-001 -5.2579218107951986e-001
      -8.6652996611463681e-003 -1.3553924982325410e-001
      -1.4634972517620033e-002 -7.9062789824030172e-002
      -3.2319756676711475e-001 1.2668979710041230e+000
      -1.7337753199318087e-002 -1.4429999659270215e-001
      4.5018569974081761e-002 -2.8260016958695605e-001
      2.7889395819445137e-003 -2.3489719194826192e-001
      -2.8224790588839899e-001 1.3758276887213075e-001
      1.8903077066256757e-001 -1.1889914728639507e-001
      -3.2797631909967218e-001 -5.8666680610949040e-001
      3.9453542784740003e-002 -1.3683162462698065e-001
      1.1109379317516581e-001 -1.5967154648671439e-001
      5.3332829157547820e-002 -3.2938402827378221e-001
      -8.5821208181913522e-002 -4.2495514987707289e-001
      5.6268548714567296e-002 -1.1147987040872620e-001
      -1.2056710299722506e-001 3.2005782511129129e-003
      4.8952587160212158e-001 -8.2183623017611340e-002
      -1.5076892236985276e-001 1.7268990993202796e-001
      -1.0146081508497543e-001 -2.7836538268029487e-001
      -3.0828176106244881e-001 4.2987249632672600e-002
      -2.1061228601509352e-001 -4.8947974144981193e-001
      2.8655245661086748e+000 -2.6522902785297570e-001
      -1.7741650155451075e-001 2.0134024302511686e-001
      -2.1042435928330686e-001 1.0242392998245994e-001
      -7.0208158596902659e-002 -5.0312345977146455e-002
      1.0996533634985978e-002 -8.8844533723272848e-002
      -3.1983862998131568e-001 -2.0734789766083847e-001
      -1.5473125427299386e-001 1.9915938542260023e-001
      2.9503048521386233e-001 -1.1901017737482020e-001
      5.5168586993737258e-002 -3.5096227786955664e-001
      -2.2362667530831812e-001 2.1619085820104869e-001
      -4.8509564033800995e-001 6.2476907826375444e-003
      1.6036509319867259e-002 2.4765898733928185e-001
      2.9813397921365553e-001 3.7788614512372798e-001
      9.7356975587276684e-002 -1.5114370552781484e-001
      2.2070240040036790e-001 -3.1681681297581377e-001
      -3.1954744056701950e-001 -7.6230927766581538e-002
      -5.5285623290425127e-002 -1.7126038768900989e-001
      -1.0259610304411905e-001 5.7117954558835693e-001
      -3.0722168934623101e-001 -1.6605071581512948e-001
      -2.9059880228751150e-001 -2.1321806034051263e-001
      -1.6095000654563069e-001 -1.4311185883466720e-001
      -2.1819498924481279e-001 5.0130380779659622e-001
      -4.0377110009940910e-002 -4.4026371363666397e-002
      -1.3249935930953058e-001 -2.0658345959835980e-001
      -1.7391982600414346e-001 -1.4760584240480165e-001
      3.7947343035733649e-001 -1.3791193835652207e-001
      6.9581373417463344e-002 -4.2973183149225221e-002
      -9.6762330106585484e-002 -4.7393511536551114e-001
      -1.2046622217723521e-001 -1.7810116996679706e-001
      -3.1317805259245657e-001 1.0279586954715485e-001
      2.6522251433943250e-001 -2.4416740579962043e-001
      1.0356814860824283e-001 3.2683024959026186e-001
      1.8260238175044424e-001 -2.6443696980874642e-001
      -3.4216070722223890e-001 -1.0564309152264606e-001
      1.4825805572914119e-001 -3.1712937697176313e-001
      1.5017280150799979e+000 1.7105601560089642e-001
      2.3560205624324540e-001 -1.0103610668890196e-001
      -4.2741714048582180e-001 -3.4026409956613868e-001
      -9.8478727577824332e-002 -1.5995898749789272e-001
      2.5176371999486841e-001 -2.5780542694183406e-001
      -9.8017877260347616e-004 -3.7011620334673878e-001
      -4.3753021414436516e-002 1.3180119337340968e-001
      -2.2441783999332654e-001 -1.2800359715284096e-001
      -1.0055077620771864e-001 1.1571580828451118e-001
      -2.2286779657675332e-001 -1.1212100008644607e-001
      1.5119113725149724e-001 2.1055896079921724e-001
      -4.0687815713614539e-001 -1.4439562867501707e-001
      1.7044281424303025e-002 -7.8924452211421928e-002
      1.4294033700698722e-001 -1.4204776354937740e-001
      7.1680770248368025e-002 8.4483143222319451e-002
      -1.9174362693177155e-001 -1.5777963022133124e-001
      -4.4539430050620621e-001 8.6296422873240367e-002
      -4.7004306936141305e-001 1.5021086586198709e-001
      3.4033258194350158e-001 1.5775454684106971e-001
      -1.5471286449048155e-001 -2.1557487160575189e-001
      6.5320767586073553e-002 -1.7062507023121613e-002
      -1.1444768693459148e-001 2.2297994768966120e-001
      -1.3435314923525343e-001 -4.8146090317426449e-001
      -8.1213452411601952e-002 -3.3633049871161830e-001
      2.6508584257073320e-001 -2.5016841302782555e-001
      -1.4916642595749255e-001 -8.3364359531428248e-002
      1.9457318176750071e-001 -4.2779720441517549e-001
      -3.8876952540459087e-001 -4.6369611617243850e-003
      -7.1042632793255858e-002 -5.2515903213594027e-002
      9.4992380671249488e-002 -1.8352087306197226e-001
      5.2459934446641369e-002 -3.1137723338252027e-001
      -4.2135006607832248e-001 5.6515286893643310e-002
      -1.4257471008712153e-001 -2.9838037322237426e-001
      -2.8013512669141594e-001 4.3885764145287033e-002
      1.0958978364652182e-001 -3.4199844925879569e-001
      6.5106957332136828e-001 1.2876642988591061e-001
      3.9992174600155389e-002 7.5912237510735170e-002
      -7.1456105991765106e-002 -2.4399506769211966e-002
      -1.1052248387399415e-002 3.2126878972000845e-002
      4.0371117070462759e-001 -6.5529687981609394e-002
      -4.4577973592158171e-001 -4.9005918341724436e-001
      -3.8249818783973538e-001 3.6429139593118087e-001
      1.2220577698418450e-001 -3.5039795565005340e-002
      2.5835523490986539e-001 8.4423563096098331e-002
      -3.1979534503321200e-001 -7.4256071515812511e-002
      -2.7285666259348951e-001 -1.7801616422709737e-001
      2.8047264657301271e-002 3.4736167246653693e-001
      -3.5361953538831864e-001 8.2885535261479452e-003
      -1.1359256263416729e-002 -2.7149233815036078e-001
      3.9931810398247830e-001 1.1263309614237134e-001
      -3.1030506932688734e-001 -2.6498297570280416e-001
      -6.7518455316162143e-002 -3.4788947935750880e-002
      -2.1897430031672865e-002 5.6841549415007364e-001
      7.4085266334277325e-002 1.0791342695721943e-002
      2.1856465849681367e-001 -1.8807151369621924e-001
      1.1224664096638136e-001 2.0601777599829594e-002
      7.2977702683099152e-002 2.3995774888702787e-001
      3.6354311643724685e-003 -2.7259702949260774e-002
      -1.4702018474029344e-001 -3.0981611417882055e-001
      2.0543475438014139e-001 2.7652511629276338e-001
      1.0931856401566482e-001 -2.4340890815684532e-001
      1.0249096853759337e-001 -3.0768185955073529e-001
      1.0036298212932104e-001 -1.1564416125496348e-001
      -3.5216759804730030e-001 -9.6400735365674950e-002
      1.2244924108428661e-001 -6.1744791759604553e-002
      8.7133315032196124e-002 -2.3825445488724263e-002
      -3.8473165615460508e-001 -2.0243990258871333e-001
      -2.4636844541467107e-001 -4.8508193412449002e-001
      -1.0764215236548215e-001 -2.8558362987030367e-002
      2.6012037621810585e-001 -4.4791794948365171e-001
      1.5588425581816030e+000 -2.2509345856876137e-001
      -1.3084834030311857e-001 -3.3014964714185585e-001
      1.8916964562210734e-001 4.2173966842842092e-001
      -4.9233273155968003e-002 -2.3666064428481404e-003
      9.6575326162091191e-002 6.0990269854834474e-002
      2.7207054758007256e-002 1.1578619649476175e-001
      -9.0762995532240015e-002 1.5908037584598850e-001
      2.1579091617512706e-002 1.1348389451316612e-001
      -5.9768583601161218e-002 2.1095574311184204e-001
      2.2250810256222275e-002 2.1830742070585604e-001
      -2.6720198335005346e-001 2.0050365127667283e-001
      6.5967142371581897e-002 -3.7612598141576879e-002
      -1.3642751861975305e-001 -2.5593052605846545e-001
      -5.1922256021637936e-001 -7.5695213773393402e-002
      -1.7210834563588040e-001 3.7444741304702468e-002
      -1.0471091923914726e-002 1.3856697820618966e-001
      -3.4679981867994669e-001 6.0656227922338844e-002
      1.4429451281560413e-001 1.2648992536763843e+000
      -2.2491438212000586e-001 2.2794744638561532e-002
      -1.9545595548923041e-002 -2.6245761026246822e-001
      1.2858641635554433e-001 -1.8888724445027838e-001
      -1.5156472471229140e-001 -6.6096502955017719e-002
      -3.2861149292538927e-001 -2.1028100190184074e-001
      -4.2603604066497269e-001 -9.5851893263167232e-002
      3.6574450342269048e-002 3.7832290133372290e-002
      3.5795749993714432e-001 4.2157458971131725e-002
      5.9487998524507188e-002 -5.0915233555092487e-001
      2.2161056204647162e-001 -2.1247411061497018e-001
      -3.5584927650871283e-002 -3.7259805855142913e-001
      -1.4797841123187222e-001 3.0169150559313684e-001
      2.8550524810688688e-001 9.2652082130706886e-002
      -3.1385423215023178e-001 7.5996593069659335e-002
      -2.9597551106761466e-001 -3.3373850993116022e-001
      3.5349506245843730e-002 -1.1243780389423352e-001
      -6.3755257371127305e-002 -2.4883230877556403e-001
      1.5168885355142763e+000 -4.6477104206992935e-002
      -9.4718034595907673e-003 -2.4315672521141737e-001
      -1.9621698935158280e-001 2.2203537244317870e-001
      6.6746475989925363e-002 1.3161304719727207e-002
      5.1774761601053675e-002 -1.4384004628382835e-001
      -8.1608097266377758e-002 1.3971483270006257e-001
      -4.6642326017667984e-001 2.0577492111774187e-001
      -1.8714855292217933e-001 6.7956441986383662e-003
      -1.9447210092206821e-001 2.1827891200346915e-002
      -3.6400700101848826e-001 -5.9806240282979900e-002
      -5.6010042683144889e-001 5.6180688894791476e-002
      -6.2832711894452692e-002 -2.8016024904411893e-002
      -1.4787895107927623e-001 2.1521766531451847e-001
      -3.7039790257535066e-001 -4.1603971890414287e-002
      -1.4157774515287036e-001 9.9797498934615120e-002
      -1.9314413719693366e-001 -1.9877202394232035e-001
      -3.2009948727054788e-001 -4.1195716081579445e-002
      -1.7581994097101900e-001 -2.8344008924907971e-001
      3.4831812052060906e-001 5.1215410285691619e-002
      8.3620875809175751e-002 8.1711914781739614e-002
      4.8000469184049988e-002 -9.8334996510606218e-002
      -1.7478661160372166e-001 2.2985197892901738e-001
      -7.9018305320050261e-002 8.8372647943707958e-002
      -1.8478293104012447e-001 -1.2353360150969599e-001
      -9.9279238182756177e-002 7.0690007809052602e-002
      -6.2751417645578220e-002 -1.3333536818008390e-001
      1.0885070635223332e-001 -8.8286260122294909e-003
      3.5147406173552151e-002 4.9574552537220519e-002
      4.4042848927966394e-001 -3.2035814051607901e-002
      1.1322802984366280e-001 -2.1969220789769028e-001
      6.6414958800677520e-002 -4.0288662090072930e-001
      -2.8599068044468889e-001 -4.1176048445061859e-003
      -2.6731578825770586e-001 1.7097582254748507e-002
      -1.7131487278002794e-001 -4.3182448418421782e-002
      -1.7743681208897766e-001 -2.6528720489012408e-001
      5.2358693756507624e-001 9.1367886409844515e-002
      3.0774214160018999e-003 -5.5017006956087793e-002
      1.8626502943630890e-001 6.3255650984927789e-002
      2.5876217851256173e-002 -2.1627981945541033e-001
      3.0339709304828627e-001 -8.0177990679749539e-002
      2.7152695161682172e-001 -1.1721274649331667e-001
      -1.3042837632894938e-001 2.0769544811388100e-002
      -1.2546465762180661e-001 1.5740770980268853e-002
      -3.0215899230903603e-001 1.8599012251244448e-001
      1.4022279922637013e-001 -1.8751671525793705e-002
      7.1295967595981766e-002 1.0953818377908606e-001
      -2.1025758345647325e-001 -9.3356460680393633e-002
      -3.9325861411707463e-001 -4.9485536224794215e-002
      -2.9446953952131183e-001 -1.7834975667259337e-001
      -6.2373846496237180e-002 7.1458487229165077e-002
      3.6594069910220572e-001 -1.2752838425577651e-001
      -3.0219964738984600e-001 3.4735039506648524e-002
      -2.7138077069237448e-001 1.6403078611597410e+000
      -6.7712247448658391e-002 7.7924506981908337e-002
      -8.7610805524970706e-002 7.3859214975188756e-002
      8.1788678897822195e-002 1.3732621028292474e-001
      -2.7592436510005699e-002 4.3306218092162113e-001
      -7.2437978193036281e-002 -5.0161105593040184e-002
      -2.5805951200104771e-001 -1.1400651871695601e-001
      -3.8482674069546408e-001 -1.5701152952271413e-001
      1.4813077377998984e-001 5.6607998896176716e-002
      -2.1367529496415950e-002 -3.0233451507971409e-002
      -8.1123361319414014e-002 -2.1094451157372529e-001
      2.6163880295648860e-002 -1.3674199584978852e-001
      -3.1392000808865970e-002 -2.0655234333825406e-001
      1.8734014955901754e-001 -2.4122281147813648e-001
      1.8727661378650295e-001 2.5289032344551343e-001
      1.8301340757627318e-001 -9.9108239545654370e-002
      -4.9483144757300013e-001 -1.2375194520896712e-001
      2.8755476221538162e-001 -4.1906500508895654e-002
      1.8176463303879313e+000 -1.5540964520633638e-001
      9.5754547448917968e-002 -1.6557290980788780e-001
      -2.5076632101511676e-001 -1.6654933104616848e-001
      -1.6887375111718048e-001 1.2214809576090281e-001
      2.1660992170527052e-001 -4.7135800298668745e-001
      4.3149796197722301e-002 -1.5974773371836759e-001
      3.1141658910740624e-002 -1.2272011589196585e-001
      2.9770040510331507e-002 -2.5410788297844250e-001
      2.0173321803359875e-001 -2.0856477273687685e-001
      -8.5321982365438281e-002 -6.7209688101980428e-002
      -5.7097868953757812e-002 1.9993104211628751e-001
      1.2902485374049210e-002 3.5544385668523519e-002
      6.4118436114890001e-002 2.0637274106193335e-001
      2.1770262433743259e-001 1.4342048142845473e-001
      -1.3954809186027936e-001 -1.2220643615753325e-001
      -1.9858978235678118e-001 -9.4148523698039596e-002
      -5.4456301315843336e-001 -1.8320747549945901e-001
      -5.1973792684001408e-001 1.7750206135032844e+000
      -5.3682125517259885e-002 -2.1888676182750813e-001
      -2.1828817610396414e-001 -1.8422757941106815e-001
      1.2071661283730069e-001 -4.3952003613069543e-002
      -8.0548792560015584e-002 9.6444776613876140e-002
      -1.6910468692479116e-001 -2.4927896810832029e-001
      5.5778366218374627e-002 -5.3933661900155572e-001
      2.6501506132446473e-001 -7.4421629888806476e-002
      5.2835356897120496e-002 -2.5401119727557320e-001
      1.7070425594291386e-001 -4.4482802495507334e-001
      -2.0473971113305545e-001 -3.0778860288979254e-001
      -5.6520952828571863e-002 6.7922828655130399e-002
      5.4027716132511359e-002 -1.4826626157635167e-001
      3.0441159477469765e-001 -2.4670969289518477e-001
      -2.5181616397515455e-001 -7.0871283518550626e-002
      -1.7235094684638816e-001 -3.6132757324670983e-001
      -2.8804522024254348e-001 -9.4521251495983213e-002
      -1.3015856553958513e-001 -3.8259821646832143e-001
      1.4123280783054379e-001 1.6288578049557709e-001
      8.4358648941861680e-002 -1.5091132688543349e-001
      -9.5394888526656035e-002 6.0240027035809926e-002
      -1.0228470963163747e-001 1.0205518319379710e-001
      2.9350687984006446e-001 -4.0771426139790963e-002
      -3.9451545717301562e-001 -1.2092641868766894e-001
      -2.0428766304667645e-001 3.5438437151581181e-001
      -1.8621460571906817e-001 -4.0229290590817771e-002
      4.7519913697678669e-002 1.3304729696297826e-001
      -3.7293651666467076e-001 -2.5917684274639186e-001
      6.7474002993584359e-002 -3.1551121038545221e-001
      8.7543582812799697e-002 7.6938151632151338e-003
      -2.9808632577351124e-001 -2.9539963778509048e-002
      -1.1362625190860227e-001 -4.5402186281604495e-001
      1.8941590793923777e-001 1.6886143759487005e-001
      -4.0540729826535238e-001 -2.2148961193558251e-002
      3.0642708998282628e-002 2.2822162600152354e-001
      -1.7484007151860675e-001 1.0592558176546636e+000
      -2.1643732597228293e-002 -1.2617114321458914e-001
      -2.8127273785450613e-001 2.1602552827136384e-002
      2.7665529999560645e-001 1.8130781747111347e-002
      -5.9897245881080877e-002 -3.7938115585642786e-002
      -2.5494200645945719e-001 3.8394473071465263e-002
      -1.1793401941578886e-001 2.0241379873359805e-001
      6.8703249818271542e-002 1.8047953561442395e-001
      2.9708243486014879e-001 -1.1163050787223132e-001
      8.4205967103969138e-003 -1.0390358540203894e-001
      1.3590556536180720e-001 -2.4528625254832095e-002
      4.6860605126393184e-001 2.1992919882059636e-001
      1.6765557134903156e-001 -1.8022348041714628e-001
      -3.0642401926150586e-001 -3.9481452331029465e-001
      -3.1207049499761769e-001 1.0031859848673765e-001
      -2.1527545642552795e-001 1.1532172857820745e-001
      1.3604194090587121e-001 -9.4343996149042722e-002
      -5.6552835716112429e-002 3.3312174595141825e-002
      -6.4666439851325352e-001 1.9692078433291277e-001
      1.9157753542871653e-001 1.1210232614019207e-001
      1.0337508468947501e-001 1.6005513575893077e-001
      -2.6444742752575778e-001 6.4045019995709176e-002
      1.6822791077354646e-001 6.7435264010498708e-002
      1.1726507258459192e-002 -1.7786324611762361e-001
      4.2470298941517708e-002 1.1615605010273188e-001
      -6.2320336966932482e-002 -4.0646582955228827e-003
      -4.5213540721620600e-002 -8.5780087993712020e-002
      1.6366584550944824e-001 3.8583322561965297e-002
      -2.5659993996960956e-001 -5.3638749575594301e-002
      -2.4738742660697083e-001 -8.8676001429316725e-002
      3.0833714170046139e-002 -2.5774369537747310e-001
      -3.9860827196511112e-001 -1.8152841433108313e-001
      1.9299109187291735e-001 3.8624434094963772e-002
      4.0600244919813228e-001 1.6351465815997990e-001
      2.3632649160167324e-001 3.1085694687629406e-001
      4.7712102954200286e-001 1.6511856111077510e+000
      -3.0784992390763277e-001 -3.0227717549022232e-001
      -5.7888013956001731e-002 -8.9511322634818868e-002
      1.6662578389366714e-001 -4.5313508225413091e-001
      -2.3762943399179015e-001 -1.3521229715091806e-001
      7.4645431612082383e-002 -1.5053566899503548e-001
      -6.7965365965809765e-002 -1.0859201743823098e-001
      1.8259789971684393e-001 7.7330329184392449e-002
      1.9706844046276337e-001 -1.1806474112986254e-001
      1.9281266561230606e-001 -3.3013973162934868e-001
