<?xml version="1.0"?>
<opencv_storage>
<my_nn type_id="opencv-ml-ann-mlp">
  <layer_sizes type_id="opencv-matrix">
    <rows>1</rows>
    <cols>3</cols>
    <dt>i</dt>
    <data>
      140 33 36</data></layer_sizes>
  <activation_function>SIGMOID_SYM</activation_function>
  <f_param1>1.</f_param1>
  <f_param2>1.</f_param2>
  <min_val>-9.4999999999999996e-001</min_val>
  <max_val>9.4999999999999996e-001</max_val>
  <min_val1>-9.7999999999999998e-001</min_val1>
  <max_val1>9.7999999999999998e-001</max_val1>
  <training_params>
    <train_method>BACKPROP</train_method>
    <dw_scale>1.0000000000000001e-001</dw_scale>
    <moment_scale>1.0000000000000001e-001</moment_scale>
    <term_criteria><epsilon>9.9999997171806854e-010</epsilon>
      <iterations>50000</iterations></term_criteria></training_params>
  <input_scale>
    3.4970944180816345e-002 -4.6139789478564568e+000
    2.4929566656713462e-002 -3.0312794956647524e+000
    2.2255561846959929e-002 -2.2923228702368728e+000
    2.0497972104716003e-002 -1.6366349602359183e+000
    2.2604304610298710e-002 -1.8662678993877873e+000
    2.1815946248977949e-002 -1.7343677267937470e+000
    2.0700742330609281e-002 -1.6068951234135453e+000
    2.2171151390783937e-002 -2.2905570780603655e+000
    2.3548670066161181e-002 -2.7345893114329671e+000
    2.4552594282438663e-002 -2.9961837710288433e+000
    4.6812501225117369e-002 -6.2128966469710454e+000
    2.2316748776425768e-002 -2.2128451208624678e+000
    1.9266260407731935e-002 -1.8664189769990311e+000
    2.5626295820412075e-002 -3.0102889371540309e+000
    2.3357514897286612e-002 -2.6029030663663768e+000
    2.4718333661051341e-002 -2.9074939968811639e+000
    3.0220123348979607e-002 -3.6330254538601423e+000
    2.0009647601228604e-002 -1.8771550655902585e+000
    2.5172297177880457e-002 -2.6839961865915036e+000
    5.5717092127061163e-002 -7.5514071423457585e+000
    3.7996390811133977e-002 -4.7994191143313607e+000
    2.0974202122225286e-002 -1.8883336348165953e+000
    2.6983061692813493e-002 -3.1924334865309962e+000
    3.0533461540214898e-002 -3.8014159617567547e+000
    2.7039692890658114e-002 -3.2996875230631231e+000
    2.6778711488697607e-002 -3.2711869752912168e+000
    2.9599598632163802e-002 -3.6777501300463524e+000
    2.2371540473390569e-002 -2.4734534435892446e+000
    2.1448742543270609e-002 -2.0577387377450242e+000
    5.3218814351336005e-002 -7.2760097745967194e+000
    2.8309329459264773e-002 -3.2369948903578063e+000
    2.1419685933249954e-002 -1.9297798295487381e+000
    2.4337711389763417e-002 -2.8300195025409276e+000
    2.5146076303272459e-002 -3.0473901220028310e+000
    2.5782325506683947e-002 -3.1333582467341832e+000
    2.8740000626262582e-002 -3.6607575797701966e+000
    2.5377523057651227e-002 -3.0072364823316704e+000
    1.9938383574225158e-002 -2.0667380723657764e+000
    2.1173326475088145e-002 -2.1735742959582676e+000
    3.3756495026088823e-002 -4.2290558924871906e+000
    2.3530454984905785e-002 -2.5574663261719475e+000
    2.1629448703497072e-002 -2.1257692553905718e+000
    2.8519275796765782e-002 -3.5114358324767867e+000
    2.5817611544979597e-002 -3.1424874052404852e+000
    2.8894626650011870e-002 -3.5982839750092905e+000
    2.6258536714274232e-002 -3.2979080954583795e+000
    2.5315568389114307e-002 -3.0347037606450775e+000
    2.2622491486654971e-002 -2.4962505449805845e+000
    2.1518563778545836e-002 -2.2520521904484379e+000
    2.3709454513019347e-002 -2.8836624051459783e+000
    2.1622179359427549e-002 -2.3723584915921911e+000
    2.4619259904490307e-002 -2.6204124760841871e+000
    2.2561324519766654e-002 -2.4612994968282935e+000
    2.3142492035289276e-002 -2.4574433729972798e+000
    2.3473030494104395e-002 -2.5937698695985358e+000
    2.1377712021042938e-002 -2.3154734332792133e+000
    2.3790098870872464e-002 -2.4540973866484377e+000
    2.1132707807285690e-002 -2.1674233444847384e+000
    2.5870737215613962e-002 -3.0495131492904957e+000
    2.2846421542259718e-002 -2.7044451500649940e+000
    2.2235608794131542e-002 -2.4181224563618051e+000
    2.5171993442526849e-002 -2.7712791530631904e+000
    2.7001921634816944e-002 -3.1490991106605262e+000
    2.2827811657248887e-002 -2.4511362766970994e+000
    2.0501370877304959e-002 -1.8457640467973622e+000
    2.1107669701928782e-002 -1.9109037227027399e+000
    2.4031074999449231e-002 -2.6081226085339742e+000
    2.3173540754477490e-002 -2.5910915256100142e+000
    2.5319443120975269e-002 -2.8571409096825531e+000
    2.3393437966260359e-002 -2.7151008939590930e+000
    2.2558588591896699e-002 -2.5611047610737723e+000
    2.4352873415017164e-002 -2.6628345024732831e+000
    2.5194632351466399e-002 -2.9666679593851684e+000
    3.0813948570389962e-002 -3.8661876096911154e+000
    2.0644873424167331e-002 -2.1438410746408763e+000
    2.2380758245626652e-002 -2.3646669883894909e+000
    2.5211023757777899e-002 -2.8669661079548052e+000
    2.3073086236742132e-002 -2.6577311208947343e+000
    2.4032803130483338e-002 -2.6676411474836503e+000
    2.3538328137116725e-002 -2.7503065282712322e+000
    2.3285348658119712e-002 -2.6894577700128268e+000
    2.1666660583498656e-002 -2.2661972804053128e+000
    2.4177488652560739e-002 -2.8574769401245224e+000
    2.4032213490936583e-002 -2.7419253579815459e+000
    2.2214360312664366e-002 -2.3422266154665490e+000
    2.2951791662692674e-002 -2.5462143875799685e+000
    2.6873881212839252e-002 -3.2542590531172531e+000
    2.5917397629985697e-002 -3.1586828361545067e+000
    2.3326316751280423e-002 -2.4769632600265901e+000
    2.2021631910066310e-002 -2.3687017823265073e+000
    2.1250626282721140e-002 -2.2804578329645122e+000
    2.1179516736926324e-002 -2.2370864553378431e+000
    2.6689742882223807e-002 -3.2603189039566520e+000
    2.1767846214987781e-002 -2.4427604924381603e+000
    2.2986228191689419e-002 -2.6376696849963608e+000
    2.2415384025820235e-002 -2.6338076230338774e+000
    2.4209828776479165e-002 -2.9074491246252947e+000
    2.2524065930543978e-002 -2.6761405833727565e+000
    2.3034778368014333e-002 -2.4640014485535331e+000
    2.2373640138731717e-002 -2.3590206821275252e+000
    2.3867547601785371e-002 -2.6269219579215024e+000
    2.2655708988018351e-002 -2.2768987532958445e+000
    2.3305651174075643e-002 -2.5949385979134849e+000
    2.6947112835244359e-002 -3.2833372795193050e+000
    2.3946515320910945e-002 -2.8197021790372636e+000
    2.5529098967700108e-002 -3.0993921715473411e+000
    2.5244381938185515e-002 -3.0577257622627205e+000
    2.4438797926505555e-002 -2.8906515672444852e+000
    2.3319706950826934e-002 -2.4988523479495486e+000
    2.5360247462777315e-002 -2.7238490790489260e+000
    2.4230141239013507e-002 -2.8992878376307099e+000
    2.1986673415606887e-002 -1.9664331036083409e+000
    2.2796949979249085e-002 -2.5404351133125700e+000
    2.6810573227883123e-002 -3.2935113549627673e+000
    2.3820181302417101e-002 -2.7244332364639559e+000
    2.6046828763008276e-002 -3.0906190254107009e+000
    2.7086846774693585e-002 -3.3020559146274899e+000
    2.6549517261568560e-002 -3.1859420713882272e+000
    2.3647225410739055e-002 -2.4386201204824651e+000
    2.6057396457999579e-002 -3.0739584884046378e+000
    3.6941576935151405e-002 -4.6511754209914065e+000
    2.1487997083480016e-002 -2.0514322215634828e+000
    2.2157030964286541e-002 -2.3278730656853548e+000
    2.5481592046139513e-002 -3.0824763378314390e+000
    2.1725703812399293e-002 -2.3334763751005116e+000
    2.3745309101726914e-002 -2.6735733966725648e+000
    2.8489105348109112e-002 -3.4988182505646503e+000
    2.2217615458962225e-002 -2.2925801951716647e+000
    2.1420736891395824e-002 -2.1755435905323885e+000
    4.6413090569669489e-002 -6.1816435002478549e+000
    2.3384522832593155e-002 -2.7761813200319185e+000
    2.4212378902455142e-002 -2.6550386740223466e+000
    1.9914215256387969e-002 -1.7742321154988157e+000
    2.2058266836067406e-002 -1.6833214879273939e+000
    2.3435960675446725e-002 -1.8265401851426291e+000
    2.1496101836481998e-002 -1.7069248364531486e+000
    2.0204762344267973e-002 -1.5538725040388588e+000
    2.0646553529426407e-002 -1.9665842236778652e+000
    2.2391012372099849e-002 -2.4833032158931987e+000
    2.9151406828209315e-002 -3.6320830945022045e+000</input_scale>
  <output_scale>
    5.2631578947368418e-001 4.9999999999999994e-001
    5.2631578947368418e-001 4.9999999999999994e-001
    5.2631578947368418e-001 4.9999999999999994e-001
    5.2631578947368418e-001 4.9999999999999994e-001
    5.2631578947368418e-001 4.9999999999999994e-001
    5.2631578947368418e-001 4.9999999999999994e-001
    5.2631578947368418e-001 4.9999999999999994e-001
    5.2631578947368418e-001 4.9999999999999994e-001
    5.2631578947368418e-001 4.9999999999999994e-001
    5.2631578947368418e-001 4.9999999999999994e-001
    5.2631578947368418e-001 4.9999999999999994e-001
    5.2631578947368418e-001 4.9999999999999994e-001
    5.2631578947368418e-001 4.9999999999999994e-001
    5.2631578947368418e-001 4.9999999999999994e-001
    5.2631578947368418e-001 4.9999999999999994e-001
    5.2631578947368418e-001 4.9999999999999994e-001
    5.2631578947368418e-001 4.9999999999999994e-001
    5.2631578947368418e-001 4.9999999999999994e-001
    5.2631578947368418e-001 4.9999999999999994e-001
    5.2631578947368418e-001 4.9999999999999994e-001
    5.2631578947368418e-001 4.9999999999999994e-001
    5.2631578947368418e-001 4.9999999999999994e-001
    5.2631578947368418e-001 4.9999999999999994e-001
    5.2631578947368418e-001 4.9999999999999994e-001
    5.2631578947368418e-001 4.9999999999999994e-001
    5.2631578947368418e-001 4.9999999999999994e-001
    5.2631578947368418e-001 4.9999999999999994e-001
    5.2631578947368418e-001 4.9999999999999994e-001
    5.2631578947368418e-001 4.9999999999999994e-001 1. 0.
    5.2631578947368418e-001 4.9999999999999994e-001
    5.2631578947368418e-001 4.9999999999999994e-001
    5.2631578947368418e-001 4.9999999999999994e-001 1. 0. 1. 0. 1. 0.</output_scale>
  <inv_output_scale>
    1.8999999999999999e+000 -9.4999999999999996e-001
    1.8999999999999999e+000 -9.4999999999999996e-001
    1.8999999999999999e+000 -9.4999999999999996e-001
    1.8999999999999999e+000 -9.4999999999999996e-001
    1.8999999999999999e+000 -9.4999999999999996e-001
    1.8999999999999999e+000 -9.4999999999999996e-001
    1.8999999999999999e+000 -9.4999999999999996e-001
    1.8999999999999999e+000 -9.4999999999999996e-001
    1.8999999999999999e+000 -9.4999999999999996e-001
    1.8999999999999999e+000 -9.4999999999999996e-001
    1.8999999999999999e+000 -9.4999999999999996e-001
    1.8999999999999999e+000 -9.4999999999999996e-001
    1.8999999999999999e+000 -9.4999999999999996e-001
    1.8999999999999999e+000 -9.4999999999999996e-001
    1.8999999999999999e+000 -9.4999999999999996e-001
    1.8999999999999999e+000 -9.4999999999999996e-001
    1.8999999999999999e+000 -9.4999999999999996e-001
    1.8999999999999999e+000 -9.4999999999999996e-001
    1.8999999999999999e+000 -9.4999999999999996e-001
    1.8999999999999999e+000 -9.4999999999999996e-001
    1.8999999999999999e+000 -9.4999999999999996e-001
    1.8999999999999999e+000 -9.4999999999999996e-001
    1.8999999999999999e+000 -9.4999999999999996e-001
    1.8999999999999999e+000 -9.4999999999999996e-001
    1.8999999999999999e+000 -9.4999999999999996e-001
    1.8999999999999999e+000 -9.4999999999999996e-001
    1.8999999999999999e+000 -9.4999999999999996e-001
    1.8999999999999999e+000 -9.4999999999999996e-001
    1.8999999999999999e+000 -9.4999999999999996e-001 1. 0.
    1.8999999999999999e+000 -9.4999999999999996e-001
    1.8999999999999999e+000 -9.4999999999999996e-001
    1.8999999999999999e+000 -9.4999999999999996e-001 1. 0. 1. 0. 1. 0.</inv_output_scale>
  <weights>
    <_>
      -1.6906261566467999e+000 4.3227677066805172e-002
      -2.2760717243830450e-001 -2.5389087555964152e-001
      4.8466103614961176e-001 -3.0679287924618870e-001
      -2.2962731359259243e-003 2.8168640544556373e-001
      2.6770171653832492e-001 1.3380956705825062e-001
      3.6099471635379521e-001 1.9015576083598551e-001
      3.6761987392178025e-001 1.6177075019798712e-001
      -3.5835254389064719e-001 -2.7613510542090047e-001
      -1.2200504878552705e-001 -2.2463531769967418e-002
      1.4087909151405886e-001 6.6314622982040813e-002
      -1.1453103913847386e-001 1.4651176559377613e-001
      -1.6613056562332119e-002 5.3615799329943391e-002
      1.4400396031092086e-001 -9.4258482293034879e-002
      -9.5243970306331180e-002 1.2062594270812311e-002
      7.3214738332858714e-002 1.1733136142544313e-001
      -2.9596070180060125e-002 -3.7890041949031528e-001
      1.4151833602666800e-001 2.8293425078248711e+000
      1.7622420767261046e-002 -9.8898028314884090e-002
      -5.9925751458349573e-002 2.0482718686360687e-001
      -1.7200337076696748e-001 -1.3471812673773503e-001
      1.5802368265529601e-001 2.5898745631578157e-001
      1.6762422665039692e-001 3.4202778749910950e-001
      1.2941596642288497e-001 4.5639664010561010e-001
      7.7691418821199829e-002 -4.3169306144362568e-001
      2.0554004394326464e-001 -8.9282686302484260e-002
      -1.2754049108317722e-001 4.7499237300108250e-002
      1.1880500500629688e-001 -4.6177454381776943e-002
      2.0028942662609275e-001 -1.3580506384505045e-001
      7.1215841153775827e-002 2.2609429233357006e-001
      -1.1630747498124555e-001 -1.1839334907260728e-002
      -1.2046600429567381e-001 3.2539389952989814e-002
      3.1618991939585500e-001 1.7857232516746177e-001
      -1.5764365812831765e-001 4.8144586469422546e-001
      -3.2116542869341789e+000 2.8967920569033558e-002
      -7.6660970243459983e-002 -6.0178589787476956e-002
      2.8631736722914913e-001 2.0713639626683007e-002
      -1.8422573631764488e-001 1.6951428826921641e-001
      9.9744678983395788e-003 -1.1024368604509224e-001
      2.6137733262813750e-001 -5.5165617119196750e-002
      4.5106985291372775e-001 -1.3187726432196645e-001
      -3.6006004275598563e-001 3.3049260282426424e-001
      -1.3848752962133623e-001 -1.0068894861419908e-001
      -9.0133458858886281e-002 9.7176985103751862e-002
      7.8719382906301302e-002 8.9034193065401349e-002
      1.4924497878938298e-001 1.4836075542546642e-001
      3.0304147106269658e-001 -1.9488088245923460e-001
      1.0421681624809159e-001 -2.8923919621473313e-002
      1.4586960716508035e-001 7.7715384509265462e-002
      1.7234077259081357e-001 -6.9748861907131643e-002
      4.7793866541917573e-001 -6.2361152445714740e+000
      -7.0978643040773032e-002 -1.2582715936226294e-001
      5.2879571824100080e-002 1.5757731616211490e-001
      -3.0423434812028449e-001 -2.5750514391393153e-002
      2.2785307237328678e-001 -4.0537832706460289e-002
      -1.0149080877661003e-001 1.1152047153634551e-001
      1.4850868168791226e-001 1.3315912989018175e-001
      -2.5742520634832239e-001 -3.2076756431755155e-001
      1.1681903265693518e-001 -1.0574393586098738e-001
      -8.3884630338874430e-002 4.6947333619156664e-002
      3.6623483390763045e-001 1.9350040610956801e-001
      1.5839385066110234e-001 1.2184938431122581e-001
      -2.8803260384643842e-001 2.6180747111247721e-001
      -6.6210268482381901e-002 1.7617556265530191e-002
      1.3190780914549485e-001 3.0672919657503239e-001
      2.6586845149679217e-001 -8.9618312140754192e-002
      -2.6192226174816624e-001 5.5728427478284770e-001
      -7.8440144901760922e+000 8.6037517690568957e-002
      -3.7068506873439233e-001 2.0482089110503229e-001
      8.6692882937945651e-002 -3.3382776068763687e-001
      2.8767221841231930e-002 8.0718289154346451e-002
      -5.3302016198918931e-002 -2.5100507834433161e-001
      -5.0083136723271603e-002 -1.9417765246270358e-001
      1.2338146361921859e-001 -4.6517286176455300e-002
      5.8125220435059849e-003 -1.0164597099316175e-001
      -4.1326413970401288e-001 -9.0721648378437852e-002
      -1.5663582199537626e-001 2.9551032323062548e-001
      -1.3744679973683349e-001 2.7722916331107117e-001
      3.9441035252171480e-001 -2.7570856564922819e-001
      -1.4008078552661957e-001 7.4783471122585099e-002
      -2.4392410055482661e-001 2.8018920350424986e-001
      7.9795616528748961e-002 -8.1220293302667973e-002
      -3.5419474178375526e-001 -2.9114197508493916e-001
      3.8631140301812833e-001 -3.4974726911635226e+000
      3.0280145259180422e-002 -1.4735965817689925e-001
      2.6486838621454051e-001 2.2257943992441245e-001
      1.0970588609328187e-002 -8.1773563961696188e-002
      8.9972273045330842e-002 -1.2653727454268265e-001
      -2.2801400921794612e-001 -5.1466952643543416e-002
      -4.2042007000778486e-001 2.0161528658640321e-001
      -2.4248763884063601e-001 3.1772147045777571e-001
      1.9056586401219983e-001 -1.8000382505778709e-001
      2.4299670878262825e-001 -1.4711648382246997e-001
      3.2796788080695205e-001 1.3024156852726523e-002
      9.7605262278847985e-002 3.1391638596082050e-001
      -3.5457888821193509e-002 -1.6487372428028393e-001
      2.7371518300906517e-001 -1.9437398222435839e-002
      1.1154688219976205e-001 2.0867423635040705e-001
      -1.1094391091818669e-001 -1.5175556590328801e-001
      -2.7736908431360363e-001 4.3347488219358971e-001
      -3.2016229053701446e+000 -2.2428260741463107e-001
      -3.0700520233810638e-003 3.6250463869048244e-001
      7.5032027518916342e-002 -5.0147757173135676e-001
      -3.8364822383936265e-002 -3.5020381019481059e-002
      8.2415935166879173e-002 -2.7049366134759173e-001
      1.3398471970083811e-001 2.7296348067923792e-001
      2.6517808192470715e-001 -7.5789301648232527e-002
      -9.9389489582685356e-002 4.1069422266557293e-001
      -1.8133622847123931e-001 -1.5165608289694421e-001
      -5.3535490694040469e-002 2.4381083952122534e-001
      2.4821372538787728e-001 1.0785312451858743e-001
      7.0362334276920790e-002 -1.9583395046267602e-001
      4.9863104101861561e-001 -5.3663673751293411e-002
      -1.3215433545935122e-002 4.2264573465614236e-001
      2.8571320301254688e-001 3.9439118988571270e-001
      -8.8076108539100015e-002 -1.3999417817266052e-002
      3.3912343170210552e-001 -1.5463834488664907e-001
      -6.2179262129368203e-002 -3.4803034909287694e-001
      -2.0413411519786476e-001 2.5610562234727390e-002
      -2.3165157772316411e-001 1.5426479556076289e-001
      1.7674190549588309e-001 2.7152200473761889e-001
      1.1084990255108532e-003 1.1346771432201043e-001
      3.8826910612240900e-001 4.6428964337142421e-002
      -2.7506947984816961e-002 -5.4964910077190865e-001
      1.7011436625980458e-001 -2.6393669468198278e-001
      -3.0392767121946068e-001 2.6254199676364703e-002
      1.3939565757153530e-001 1.1379392875361070e-002
      1.2113088522292689e-001 1.3514629083962673e-001
      -1.5333949760490170e-001 3.3137317559115897e-001
      -1.2969838206549020e-001 -2.5831096726263294e-002
      -1.7109598280633395e-001 -2.2892733817376179e-002
      3.0363379720425243e-001 1.1910057974954213e-001
      -1.3531527141970817e-001 4.3556518795266752e-001
      7.7427278686422900e+000 -7.5300152493614422e-002
      -4.0817610456918202e-001 3.2450325167793358e-002
      1.7993033726704999e-001 -3.9756309144340052e-001
      3.6056276752782682e-002 2.4177918091827413e-001
      2.5874503832033748e-002 5.6161398818510358e-002
      8.6522103090762206e-002 2.6523696502930055e-002
      2.3155222474628823e-001 -5.4396567484824215e-002
      -5.5455424483601568e-001 1.7964994037989204e-001
      -3.3372869255008825e-001 -3.8137646801902297e-001
      1.4699240186021451e-001 2.7019909899379729e-001
      -4.4904623862729018e-002 1.6265588889517324e-001
      -1.1220815951077594e-001 -4.7540215993986334e-002
      1.9018279293010107e-001 -1.7829325783953157e-001
      -1.1664969755970404e-001 4.2167927250189065e-002
      1.2876444208294038e-001 1.5683144987806363e-001
      3.8883774441135992e-002 -1.6567623548716881e-001
      4.1518877492112288e-001 6.2967430601127923e+000
      1.0730207546116294e-001 -3.4326573625926970e-001
      -5.9337657173257674e-002 2.8040209280511752e-001
      -1.6803366230267772e-001 2.4352708280130883e-001
      3.0375795368012964e-001 -2.1188539282346344e-001
      -1.9463862513430791e-001 1.7499062254026757e-001
      -2.7836910207589816e-001 2.7635481205444601e-001
      -1.2693863117395678e-002 -4.2315895478135607e-001
      -2.1247183179027243e-001 -1.5519012403988811e-001
      -2.6439897417968394e-001 2.2890687094028281e-001
      1.0804770978496965e-001 -9.2877896797799217e-002
      1.6346422790409706e-001 -1.7234928252254696e-002
      -2.8384920269412556e-002 -3.7745846186371723e-001
      -3.4924509629368543e-002 -1.2257530216386335e-001
      4.7189552645383291e-002 4.9837790177265688e-002
      -3.1684358773269966e-001 -3.5922577770535319e-001
      -1.8770611346270433e-001 7.5817079276017357e-002
      1.6212580035114714e+000 1.1614198630446448e-001
      1.3157663208507439e-001 9.2221551253223913e-002
      2.8029500541948976e-001 2.7575203744962196e-001
      -3.2904511766540079e-001 2.3223204281275285e-002
      -2.8789558359705431e-001 -9.1415485405919664e-002
      1.8397084246566664e-001 -2.9664424950202922e-002
      3.4493854075967795e-001 -2.0954029045057163e-001
      6.2811078372076667e-001 2.3385303727920154e-001
      1.5844548681514944e-001 3.2884240572737478e-001
      2.1811708177792219e-001 -9.1479171416542063e-002
      3.6973709998059628e-001 -2.1030224952536808e-001
      3.4340590721584124e-001 5.6941714815691902e-001
      -3.2995748714541168e-001 3.8234847817279705e-001
      3.0687709577290601e-001 -1.8337042448630964e-001
      2.0135638294070962e-001 -1.6545487337174813e-002
      3.7570928727648650e-001 2.6539573689560252e-003
      5.4389690129093331e-002 -5.1886821686080715e+000
      -1.1053708267820848e-001 5.5885172201802402e-001
      -4.5434260397942329e-002 1.2451251538049777e-002
      -2.6724439255501622e-002 -1.0972050568287872e-001
      -8.7986312722566767e-002 -1.6523023338963869e-001
      6.7155008799532193e-002 4.1937118394590200e-001
      5.3586469795679027e-002 5.8729245273875484e-002
      -3.4964119918559672e-001 2.1414076375741575e-001
      6.6582721023305791e-001 1.5536914957078563e-001
      6.7459167475190956e-002 3.0723719325060922e-001
      -1.2449112617595617e-001 3.8938678973091329e-001
      -2.6091317118990032e-001 3.8478910283709922e-001
      2.7027944004651039e-001 1.3539038428984554e-002
      6.4940869694895792e-002 2.9246566354912723e-001
      -1.8300505371202775e-002 2.3466252002178314e-001
      1.8739451893450271e-001 5.2657144438453940e-001
      1.1695146936586226e-001 2.6185885859186231e-001
      -1.2403681338773120e+001 -3.4997943471502235e-001
      -1.5946546463818465e-001 1.8709759914707558e-001
      2.1795153802395414e-001 -2.3316929245908929e-001
      -2.7409653618800428e-001 2.5860273394980970e-001
      -8.5885815136394997e-002 -1.5818610668385269e-001
      1.1919231346795844e-001 -1.4062837247383531e-001
      5.1028396001607113e-001 -2.8623473489257095e-001
      -4.1513620222710053e-002 1.6481112483218585e-001
      -2.6572668232543700e-001 -3.5231056254365445e-003
      4.4846855621754750e-002 1.1837738788719697e-001
      1.3217281326544397e-001 1.0016625472351982e-001
      -2.7983052446293216e-001 1.9229146225809873e-001
      -2.4119736558918633e-002 3.3227905000554014e-001
      -2.5787659960627396e-001 2.1807476031046577e-001
      4.3615408718850390e-001 5.5185017746528968e-003
      -1.0263584223474431e-001 1.0101419006986213e-001
      3.1068538279679841e-002 -9.2276634267878865e+000
      1.0879224840945299e-001 1.7081006435582560e-001
      2.0510280163713986e-002 1.3905696741929868e-001
      7.2118206727147013e-002 -2.2002773337411863e-001
      2.9688204098094747e-002 1.4070157581183720e-001
      1.5410214466543345e-001 -8.6736624426409947e-002
      -7.8268186694733524e-002 -1.8611836918687386e-002
      -3.0190143237684197e-001 2.5878511763163586e-001
      -4.3932539841860076e-003 1.3344204825636535e-001
      -3.0815832841928965e-002 5.3871128922017210e-002
      1.4420117075612360e-001 2.1938308746905624e-001
      -1.4223377102748333e-001 2.7916415768191347e-002
      1.2834234655109839e-001 -6.8933227207917336e-002
      1.0561670751840603e-001 1.2556792768975586e-001
      -2.7240249514236575e-001 -6.9994741561128421e-002
      -2.1250835473645391e-001 1.4907961179161208e-001
      2.2709157425110701e-001 -4.0417030515822211e-002
      -6.4998920874553807e+000 9.5927897610389681e-002
      2.1833606110638995e-001 -1.1758660677273879e-001
      1.4760838878037047e-001 8.2580190796687034e-002
      -2.4012333228012958e-001 -2.8140380801736908e-001
      -3.6720962407195828e-003 1.2944971526504037e-001
      -5.6842269908777769e-002 -3.5855611655580383e-001
      -9.2882832548252400e-002 -9.6804000942597238e-002
      4.9092267484560786e-001 -3.3953433022872882e-002
      -3.0665377401233849e-002 1.5588942927347413e-001
      -3.6620575579656878e-003 -7.6714639426596981e-002
      -8.3433895439248756e-002 -1.8973191974035247e-001
      1.0089604849920135e-001 1.8615490631595397e-001
      -4.4036805038900083e-002 9.5594705413023839e-002
      9.2897970703620061e-002 -1.6000092734634605e-001
      -2.9739504107273235e-001 -4.2375765868558091e-001
      1.4400355068778464e-001 7.7073910271240345e-002
      -1.2224150621290042e-001 -4.4860767090234166e+000
      1.8990528349840323e-002 2.1729636538004804e-002
      -1.6912784033902042e-001 1.4705568232293170e-001
      -1.8563806957709292e-001 -1.2826752167183406e-002
      -1.1240641935904089e-001 -6.0401601981912564e-002
      1.3170908624276467e-001 -1.4498463974505155e-001
      -3.4028480766391794e-001 -3.9571738379663796e-001
      -1.5512594238587732e-001 4.4097847339444007e-001
      -8.1333092478251323e-002 7.7433251235152593e-003
      1.4613169872693044e-001 -4.7129102150485609e-002
      4.9195024070431762e-002 -1.4608071413347323e-001
      -1.8113651615476492e-001 7.2729015693076757e-002
      1.7952868008087361e-002 9.7125662982316258e-002
      1.1209265373764749e-001 3.0213338992984552e-002
      -1.7128595804143990e-001 -2.6301110661322513e-001
      -4.0819515224452180e-001 -1.2353926673504188e-002
      -1.4091951561784541e-001 -4.6591044396886300e-002
      -1.3065241195040294e+001 -1.4161356396888986e-001
      -2.7561368071051012e-001 2.4076145017238766e-002
      2.0575507207837754e-001 -4.6255357386193810e-002
      8.0691599455072954e-002 3.9676044728418930e-001
      -1.6382260807090823e-001 -3.4120671144780279e-001
      2.1075316948017447e-001 -3.2567827276824851e-001
      1.7117647393147167e-001 -2.5275837961856246e-001
      2.1968814594093014e-001 -1.4241617538063953e-002
      -1.6365114840151945e-001 -1.4296465889009732e-001
      -1.3194160101862101e-001 9.9307413046303018e-003
      -5.3947887821123475e-002 -2.2777015803563268e-003
      -1.0566177915409969e-001 2.0514114866766120e-001
      -5.1674630974801706e-004 -8.5593763875664960e-002
      -3.2630072646100083e-001 2.0099769905500076e-001
      5.0503335732134502e-002 -3.5863789397550788e-001
      -2.6925996277871578e-001 7.8027010375507008e-002
      5.9938385076335955e-002 -8.2736984647924885e+000
      -3.6023208468866252e-001 -4.8862506863899167e-002
      1.9337781945537658e-001 7.0919260410364504e-003
      -7.6167077240301362e-002 -1.2757750969758194e-001
      1.4893391159083610e-001 -1.4268297922831047e-001
      -3.3642043010457734e-001 1.8089550159136306e-001
      1.1867363055089085e-001 3.1954918764075141e-001
      -2.8958513716082634e-001 1.0278692955968871e-002
      2.2073216209320101e-001 -3.3988610654743900e-001
      -7.7975691898119884e-002 -2.5302234492309793e-002
      1.1717286532501754e-001 1.9268325908111944e-001
      -7.8819683746896810e-002 -9.8756999606175941e-002
      -1.5662128561824304e-001 2.3282576289331183e-001
      1.3809260195092196e-001 3.6836497683064530e-003
      3.6737301862967447e-001 4.2462669069899261e-001
      8.8694362515267647e-002 -1.6994576507978426e-001
      5.3880369192599212e-002 1.0353441382172009e-001
      -3.0413423058853066e+000 2.9282725925475962e-002
      -2.6513248421545513e-002 5.1738849915479453e-002
      -2.0536579675127342e-001 -2.2705059243579315e-001
      3.7640697789737759e-001 -1.9452054251699782e-002
      1.3428741114629950e-001 -2.5170597710687670e-001
      1.6927504670041449e-001 -1.3079069660290843e-002
      7.6755995054506226e-002 -1.1336351001999885e-001
      -3.6349320678227426e-001 -4.5081998634044919e-002
      -1.7165993272156793e-001 -5.6383604516217645e-001
      2.0663584584817468e-001 1.5357608793047436e-001
      1.6318995170413336e-001 7.0079623271233618e-003
      2.3585021350543819e-001 -2.2800244271567416e-001
      4.2990173100953925e-002 -1.5638101466399779e-001
      -1.2452865382923950e-001 6.3920136560745883e-002
      8.6216227587121969e-002 -6.2365209133720637e-002
      -1.4796946042550721e-001 3.7240363113098710e-002
      -2.6048890878984154e-001 2.7939779589703846e+001
      -1.7747424749094048e-001 -2.2328942956820014e-001
      1.0632749085524563e-001 1.3802277402534804e-001
      -5.9042716073028867e-001 -1.4394532123825712e-001
      1.9980739975755335e-001 -2.5918847752934221e-001
      -2.4709464953936372e-001 2.5040899292948832e-001
      -3.7234462538121897e-002 1.4022863342116990e-001
      -8.1600812946775500e-002 -4.4733081089919524e-002
      3.6541957019620867e-002 -3.7190447220668577e-001
      -1.7553147676831390e-001 -6.5672255919999381e-002
      9.0865000773908453e-002 1.6266167888136288e-001
      1.2374041332926795e-001 -9.3434868909306759e-002
      -1.4608646346154633e-001 -3.9121204711984074e-003
      -1.8483497314773990e-002 -1.5774090843558811e-001
      2.6100782631540836e-001 1.7618506771881257e-001
      1.8822595414000408e-002 -3.1408901835889774e-001
      -3.6146689507506186e-002 3.7354977988124283e-001
      7.4395313146667386e+000 -9.7237602835583983e-002
      3.5614886002519869e-001 -2.6631107613530991e-001
      -1.6735082875389617e-001 -5.1977802253154015e-002
      1.1223514628869798e-001 8.2231270844797685e-002
      -1.7445927178734658e-001 4.9202950455366268e-002
      3.3345362279768748e-001 -2.7235638949079065e-002
      -8.4547816648225180e-002 -1.7045720068961387e-001
      1.7766447481461398e-001 1.4353777929466358e-001
      6.0318203742134126e-002 8.1631090515269414e-002
      -1.3549622232702699e-001 -8.9358689489180007e-002
      1.2369939202255566e-001 3.8839157611497394e-002
      3.7297311433881702e-001 1.1866868959091385e-001
      -1.9380500625666219e-001 4.9930888564514345e-002
      1.6931824885568342e-001 -3.2762070397264992e-003
      5.6023712986801436e-002 1.6381213295278971e-001
      -7.0785477172692873e-002 2.9529577090268628e-003
      4.5973508232940663e-001 -7.9606821431275527e+000
      -5.3119833642816854e-002 -1.9168283998448257e-001
      1.3657872944020202e-001 2.0805476239572562e-001
      4.3681917233693045e-002 2.4583430264375730e-002
      8.5726269508586653e-002 -1.5733055904390192e-001
      -3.4809725377251016e-001 1.9251197850383994e-001
      2.0972346372086623e-001 2.2927198430626342e-001
      -1.3485380244520548e-001 2.3094527652357283e-002
      -1.6639249007306811e-001 -1.9564135939666569e-001
      -2.2398371944919972e-002 4.8998192642782462e-002
      2.0818739798574487e-001 2.9061627468981943e-001
      8.3051435675983970e-002 4.1833623906626644e-001
      -2.0021579653029981e-001 -2.5849589995241234e-001
      1.6808268963601600e-001 -1.5450465399302257e-001
      2.7133487189765698e-001 3.2276586496042098e-001
      8.1524945017146661e-002 -2.1057031190412681e-001
      -1.8894744999392146e-001 2.1259514469572213e-001
      -1.4482889948111632e+001 -3.8728375273839388e-001
      -4.5846768642169036e-002 1.2397944286632881e-001
      5.4880825242853690e-002 -2.5685199891539595e-001
      -1.7054655293025833e-001 1.7622815053575927e-001
      6.0625828586559703e-002 -2.4473918917262810e-001
      3.2192589149511897e-001 3.1490301279613546e-002
      6.2790624654177341e-001 -1.5800109354644862e-001
      -2.6290378887440499e-002 2.1219101768890530e-001
      -1.7118488415355387e-001 -1.9272082490092485e-001
      -1.6438957930925713e-001 -2.3943120525824135e-001
      2.4876582952849637e-002 2.5648422459660113e-002
      -3.4825320000866727e-001 6.8136109836460276e-002
      4.6256235451411426e-001 1.5277593359122077e-001
      1.7897826493213313e-002 1.2299898320058736e-001
      2.1075840058563447e-001 -8.7684160781696982e-002
      -5.0440773862761780e-002 2.0670050868586982e-002
      -2.9219877259484044e-002 -7.7402856345375115e+000
      -1.5134316350541854e-001 -7.4404913309550888e-002
      -2.2512187476685788e-002 -2.3515879265933636e-002
      7.4408597930032738e-002 -3.3545423948258601e-001
      2.4165217598936262e-001 -2.6909177936283185e-001
      -9.9442804167430149e-002 -4.1983678270236260e-002
      -3.2078103270768980e-002 -1.3388044767566640e-001
      -2.6848827454356239e-001 2.6279355451054831e-001
      -9.2934524696892826e-002 -3.1928131126308767e-002
      8.6926739439688705e-002 -2.0309311348669223e-001
      -1.5122758380416923e-001 -1.2868887720802011e-003
      -2.9169448668878872e-001 -2.8263220856552140e-001
      -6.0664880328603572e-002 2.7313019361568269e-001
      2.9151633244536446e-003 1.6570251434245248e-001
      -2.2224616184428689e-001 1.4459518011409276e-002
      -2.3596029719591730e-001 2.2005111503086836e-001
      2.1183873337801823e-001 9.7638708630873192e-002
      -5.6637747844626478e+000 5.2271988034545011e-002
      1.6171696158570362e-001 -1.9797399073126898e-001
      -9.4154760155145401e-002 -1.7622562200194408e-002
      -1.2447776322911186e-001 2.8134006303754757e-002
      -7.4735680073200597e-002 2.8401477093855498e-001
      -1.8368771657729130e-001 -6.2772213785557016e-002
      -3.9343093837634935e-001 -1.4606403154924669e-001
      3.1299807567450116e-001 -4.2854369460254088e-002
      4.6748808313925819e-002 9.6649997006556090e-002
      1.2431975982933288e-001 -3.7805174947460685e-001
      3.9082687027022299e-002 -1.2112975436673512e-001
      1.7777222834614592e-001 2.0991786141735599e-001
      -9.1774666026139207e-002 1.5216384191714050e-001
      2.7256832759016258e-002 -2.7900202523002776e-001
      -1.6714697217305910e-001 -1.8059751329977411e-001
      2.7036670397845142e-001 2.0354785758232963e-001
      -5.0063896133458047e-002 -6.2238224702561071e+000
      1.6719206052315860e-001 1.0921112396443670e-001
      -6.2729294749654024e-002 1.3779865850886983e-002
      -4.5176377782014370e-003 -1.6333120325803413e-001
      1.4359750713670444e-001 7.2955672942256120e-002
      1.6790208488567335e-001 2.9549736046534880e-001
      -2.0100967748628704e-001 -8.3608859481172762e-002
      -1.9413484988768881e-001 2.8338234143280167e-001
      -2.1813248580965876e-002 2.5367028706920262e-002
      -5.0670609768549785e-002 1.6741784606758447e-001
      -1.5062048943664921e-001 7.0005579444478494e-002
      -1.7674394645449296e-001 -8.1517360128928976e-002
      2.6808975934167262e-001 -1.1881639281699329e-001
      5.2921165024467941e-002 -2.1100607373369457e-001
      -1.6978310669829197e-001 1.9143002821764336e-002
      -1.3937776181317546e-001 4.2747378240260633e-002
      2.3320867592056624e-001 -8.7548147422306155e-002
      -8.5630081350575136e+000 -1.4464280054307072e-001
      -1.4231654696160612e-001 5.6770749954317280e-002
      1.6499140190874528e-001 -2.1386050934472559e-001
      -1.5969030728251979e-001 2.0885376018916496e-001
      4.4987858719884845e-002 -9.7411931935745114e-002
      5.6181554809220480e-001 -1.8462853111806496e-001
      2.0737915025316406e-001 -1.0371166676890080e-001
      1.0657983303471631e-002 7.2040781783650300e-004
      -2.9936321739940852e-001 -2.4343283600860516e-001
      -6.5199409559079180e-003 -7.8451151622011620e-002
      -8.9687902145926784e-002 -1.4062998724916131e-002
      -3.8237773701572519e-001 1.7132756105508878e-001
      2.3199330513421643e-001 -2.8619278687905730e-001
      -5.1400689989028692e-001 2.7058505307089387e-001
      -2.0406926615437686e-002 -2.2944428019217314e-001
      -4.3772764629490930e-002 3.0287441775135765e-001
      -7.9019995762874731e-002 -5.1657646532179706e+000
      -2.3932669308742133e-001 -1.9989455291060737e-001
      3.8889997959946065e-001 2.4819157005447839e-001
      2.5088570244163427e-001 -6.3150777188789059e-002
      3.4097333628402759e-001 -2.5156794199136789e-001
      -4.7961019360942508e-001 -1.7138532974553485e-002
      -5.7386622757692074e-001 5.1343922662080288e-001
      -2.5380328552038534e-001 -2.4622155326747736e-001
      9.7508399238712642e-002 -3.7825422432594508e-001
      -1.7759454126716095e-001 -2.0108370229761599e-001
      1.5097746142224008e-001 9.0353760870791507e-003
      1.2124357672861760e-001 -1.9590235188228167e-001
      1.0142774294872166e-001 -5.2296480372907496e-002
      2.2608497049655410e-002 -3.6622935768093845e-001
      2.7578255977301991e-001 3.5137291167341261e-001
      -4.0104242844677407e-001 -2.4924042187452908e-001
      2.2095028854795598e-001 3.8927672906258058e-002
      -7.6091983821882438e+000 -1.2913201330561969e-001
      1.3126799643142733e-002 6.2239150616235570e-002
      -2.3382779369490075e-001 -2.1178274619807821e-001
      1.8305040242267789e-001 5.1370992647213537e-002
      -7.7911796314957496e-002 -2.1954391577461504e-001
      2.5477722285368548e-001 2.8730414275419675e-001
      6.7759352945971707e-003 -7.9585831880173760e-003
      -1.4500756252286798e-001 -8.9854153422314009e-002
      -5.8220511098834554e-002 -1.8230371749515639e-002
      -4.2619161235230942e-002 6.1759588941927193e-002
      2.2898141568856298e-001 2.8473511590792400e-001
      9.5101246517934543e-002 -4.6175081278837815e-001
      6.0856828709539942e-002 1.5094357371798209e-001
      -2.6358715014999087e-002 2.3114408020608665e-001
      1.9974291748044221e-001 1.5073321591372874e-001
      -5.0307110693641544e-001 -1.3358123539231684e-001
      1.7699945669535763e-001 3.1956225354272625e+001
      -1.1940468627028629e-001 -2.6534617550296780e-001
      1.4725187624778516e-001 1.6005978810157212e-001
      -2.2239508394775304e-001 8.9610602613912783e-003
      4.7072659564132435e-001 1.8812358381452780e-002
      -1.9662109293574723e-001 8.3072795371987654e-002
      -1.8737242477342181e-001 2.6950732222557711e-001
      -5.8291461554002721e-002 -1.4279315620954183e-001
      -1.1916660780780973e-001 -2.5465695089162094e-001
      -1.1084542208762102e-001 -1.5670866129485272e-001
      1.3292739449248064e-001 1.1568574178526088e-001
      2.1147688400967218e-001 -1.9530681274650852e-001
      -1.0912578394984916e-001 1.7383786960936436e-002
      -7.0418911068271445e-002 -2.8934310419586456e-001
      1.6772131878871577e-001 1.6959114971831810e-001
      3.5509683017717224e-002 -3.4497534476536296e-001
      -4.6186689854061931e-004 1.5807738996199056e-001
      -1.6636342303695697e+000 1.0015004153527340e-001
      2.1560766349113120e-001 -2.1995896576349833e-001
      -3.5512843663227256e-001 -9.6542533906169153e-002
      1.5863713242822850e-002 -1.3163316872859734e-001
      -1.9727114464258491e-001 2.7974459614501863e-002
      2.1809148168145234e-001 1.4804411552835958e-001
      -1.4597995413372894e-001 6.2543540333132266e-002
      -1.6146143022074143e-002 2.9941308845685567e-002
      -1.5375431365170983e-001 1.2037692011693701e-001
      5.0682574126895237e-003 -9.3454818853295388e-002
      1.4543627232235506e-001 2.5530767179971670e-001
      4.3122613399090481e-001 -3.4645582149765965e-002
      9.4492919189472294e-002 -1.1643542974946339e-001
      -6.7200612619830249e-003 1.6558022878978720e-001
      2.0271968674938724e-002 1.3000734243454973e-001
      -4.7501836746961963e-002 6.9825999696452298e-002
      4.4022465216673301e-001 -4.8169451838751343e+000
      -2.5074224561796216e-001 -7.8052765987292841e-002
      4.3315135941788298e-002 -1.1956783653029933e-001
      1.7690321028024547e-001 3.4748954371101926e-002
      2.8479501238487137e-001 -1.8696515125869673e-001
      -2.4740470271802678e-001 -6.9904722409412064e-003
      1.7269746034434580e-001 3.4027257453987068e-002
      -2.1561626759401589e-001 2.2179311787875466e-001
      6.3775596179256480e-004 -6.1404725893981070e-002
      2.1002205543950378e-001 -1.2580386156360993e-001
      4.0025767251761248e-002 1.5144026603737193e-001
      3.9252755798878415e-002 1.1421946635976399e-001
      -1.7975334725717387e-001 -9.3792218804452820e-002
      1.4560948692629444e-001 -6.8116886366563642e-002
      4.7594128024991633e-002 2.2853166397204935e-001
      2.5506131906939433e-001 -5.8582511421763232e-002
      -5.2749678263969910e-002 2.8732903864235743e-001
      -6.4079411713784769e+000 -8.5487955550278771e-002
      -2.3052054107316242e-001 -9.6180355607940762e-002
      3.3702768474474343e-001 1.2600399987955815e-001
      -2.8427500638186343e-001 2.3301845043388186e-001
      -2.3267305800137680e-001 -2.0108065902705588e-001
      8.2295034360319125e-002 1.0692994825347660e-001
      1.9846203642340984e-001 -7.2044623973770788e-002
      1.9343075794274778e-001 -2.6621253205435674e-001
      -7.6685854943559645e-003 1.8862162193038637e-001
      -1.0923119025153183e-001 -1.7659262320571328e-001
      1.4864108465012830e-004 -1.2065150407079393e-001
      -1.0524044049691901e-001 6.1809907911096321e-002
      1.6020290938618462e-001 3.8986965294575682e-002
      1.5583062504421763e-001 -1.2658290810438433e-001
      7.5053725790134634e-004 -2.8314339289890905e-001
      1.9771996269097444e-001 -8.0510150628299346e-002
      1.0523581615026806e-001 -4.4959107717976474e+000
      -2.0629095399121830e-001 -1.2623073685307210e-001
      -1.9476082302396150e-001 1.9580486430914916e-002
      -2.0856036323131016e-001 -2.0863462533452276e-001
      3.7055144713244326e-001 -2.5795882193575356e-002
      1.0890132269095290e-001 3.9725233199084969e-002
      5.3666530422390023e-002 -3.2958847987840260e-002
      -1.8573504551629577e-001 -6.5890766339292708e-002
      -1.0920949794394928e-001 -3.1399013112465173e-002
      1.4966135332337670e-003 -9.0483606531417460e-002
      -1.3370661058353392e-001 -9.4108264267827299e-002
      -7.6818087484131020e-002 -4.5030446200938462e-001
      -5.0176650662611344e-002 5.3327570153047088e-001
      -1.4857089382169747e-001 5.6214318580211586e-002
      -1.5244331328269164e-001 4.4078106276063234e-002
      -7.8873013712202136e-002 1.7382973196147924e-001
      2.7073974470285152e-003 1.1093829395101945e-001
      -4.2695464031915726e+000 1.4024466689279816e-001
      6.5976766370462750e-002 -5.3632968143976105e-002
      -2.3178330023027394e-001 -2.6064065249511842e-001
      -1.8162804230906790e-001 2.3487051500479811e-001
      -7.4815860775073864e-002 2.2749277889680047e-001
      -2.7433643697954632e-002 -1.9667882958278199e-001
      -2.3075432657365608e-001 -1.9624278726822109e-001
      3.9901896352817789e-001 -7.1698926784843986e-003
      6.5823872162573238e-002 2.2213471812249121e-002
      2.0926133126461782e-001 -4.2645036914644274e-001
      6.3217895381278463e-002 -8.2763941091368004e-002
      -1.6571962124764344e-002 3.5754278797150424e-001
      3.0091781192480994e-002 -1.0895382118054523e-002
      -1.1372872908640455e-001 -4.8400704359650888e-002
      7.9642252293738905e-002 -7.6107925101372889e-002
      1.4028418687783920e-001 2.5952385889854879e-001
      -1.3381891220220768e-001 -3.4763666696145807e+000
      9.2127004714993826e-002 1.4174952022670376e-001
      -4.2898766110310016e-002 -4.0255354857666924e-002
      -3.1327136670086324e-003 -1.9018775341162134e-001
      2.1492193886034958e-001 -1.5542726847141114e-001
      1.7842137273595621e-001 2.4461173978359237e-002
      -1.9289412820049773e-001 -2.4858580981914494e-001
      -3.1657125269591130e-001 2.8061467577978699e-001
      -6.4021220444525793e-003 1.0138897997527699e-001
      4.6925600845966108e-002 1.2376209600896616e-001
      -1.6148606050804290e-001 2.3412193062685027e-001
      -1.1798992183048741e-001 5.2100222268226686e-002
      1.4259801495871879e-001 -1.6791015810979564e-002
      1.5470053143913579e-001 4.5262095326576893e-002
      -2.0427486272105824e-001 1.8294740770280959e-001
      -1.6306717350694203e-001 5.6737171774128500e-002
      1.1735910833878146e-001 2.2907747783334122e-003
      -4.3921747685997126e+000 -1.2799545180842536e-001
      -1.8504607389521796e-001 1.0443786071079306e-001
      1.0201752530978003e-001 -2.1155103394743427e-001
      -2.5658610481191796e-001 2.0468941484549802e-001
      1.4445112303829635e-002 -1.1100520612560219e-001
      4.6652579372643860e-001 -2.5283891397632913e-001
      2.0137205729992558e-001 -1.4771174943087620e-001
      -1.6078569197021136e-001 4.2483088153436765e-002
      -4.0896075428668704e-001 -3.3894639285555817e-001
      4.9487639972763647e-002 -3.6085707101619936e-002
      -9.3012129781615410e-002 -8.9402209213044689e-002
      -4.9865208456071958e-001 7.7471529709128586e-002
      4.1108344429116611e-001 -4.0569987859604972e-001
      -4.3061887912090679e-001 2.9240162387378177e-001
      3.3301018252229260e-002 -2.5493736667797295e-001
      2.1138574995720374e-002 4.0974103865986938e-001
      -1.9915663616699675e-001 -6.1511720786660771e+000
      2.0243068695090013e-002 -1.4557663330085810e-001
      1.1471245970956757e-001 4.0219963918460688e-001
      2.1287467305695634e-001 -1.6422883250309436e-001
      1.2081320257744216e-001 -3.6853187268601550e-001
      -3.8714494257718918e-001 2.8286623467560673e-001
      -5.1828954165314223e-001 4.1217137587406061e-001
      -1.3602141190677577e-001 -2.0177421941690307e-001
      -1.0596540416628911e-001 -2.8724599719362159e-001
      -2.1814833956201382e-001 3.3010553086669663e-003
      -7.1282274205454578e-003 1.0175341087091358e-002
      3.4376789302804876e-002 -6.4386816111817471e-002
      1.2216370989687815e-001 -2.2479967203013024e-001
      -8.7829902726299966e-002 -2.2271790467301411e-001
      1.2064061469733332e-001 3.8933374447925120e-002
      -6.2953871050353738e-001 -1.1272704708352016e-001
      1.9669433535216749e-001 7.4372302800426879e-002
      3.0744933117613598e+000 -1.6884778123042857e-001
      1.5540467167127608e-001 1.9720437185254541e-001
      -1.8588363903337282e-001 -1.7577408915824733e-001
      1.4874825287086771e-001 6.5442383113281197e-002
      -1.3288019411205153e-002 -7.2587162492232071e-002
      3.5983838564275200e-002 2.2346986113738967e-001
      7.5078046224914388e-002 -1.3402328003321862e-001
      1.2459066986456158e-001 6.5486810584634413e-003
      9.9856555367738395e-002 1.5473643014000291e-002
      1.3429283721807306e-001 5.4915962548176878e-002
      2.2409887134805315e-001 9.5329250205972688e-002
      8.5014343877090739e-002 -2.9462091038673349e-001
      1.4621649193789144e-001 1.1600778961484559e-001
      -3.5833082566372298e-002 2.9341096344908252e-001
      2.3668584170911880e-001 1.9735755315355627e-001
      -9.8971079069076914e-002 -1.0545770502349593e-001
      1.5075165657626965e-001 1.2198537569823392e+001
      -1.4849863248882871e-002 -2.7262223741244044e-002
      -1.2068910176707036e-001 -2.1236451143303214e-001
      -2.0182659704217151e-001 -8.5382501273927533e-002
      7.3652739135786946e-002 -1.6674380437201608e-001
      1.2644479240361703e-002 2.8711887435903440e-002
      -3.7071517686314281e-002 1.3319301769968209e-001
      -3.4550372449893767e-003 1.0294168845165340e-001
      -2.6081072260236127e-001 -1.4438433187232161e-001
      -5.3360010253494256e-003 -1.0772312293834535e-001
      -2.3702503625731994e-001 1.1102005614008741e-001
      2.8944124426967610e-001 7.0047268330923271e-002
      -6.0487025316637459e-002 6.5114288079582569e-002
      -1.2618763940823353e-002 -6.0771989105551122e-002
      2.8310056833467789e-001 7.8704076097703843e-002
      1.9176574350140176e-002 -3.4113776393184919e-001
      3.2533204452198407e-002 1.1924950342834403e-001
      -1.9125732060394363e+000 -1.2963258484121074e-001
      -2.8327458052184162e-001 1.5325471535209265e-001
      -2.5654370944837990e-001 -1.0316520423810414e-001
      2.2822929939173973e-002 -9.4000825175318048e-002
      -8.5138363580150988e-003 -9.6747797831117463e-002
      -7.5961129440063627e-002 1.7048791377594677e-001
      1.8422421329260283e-001 2.0471770056813601e-001
      -1.7080351015785358e-001 -4.1303050601023528e-001
      -2.5946466585679268e-001 -8.7724041137276054e-002
      -2.8759258390706000e-001 1.4378463166126962e-001
      1.0110065440986696e-001 4.5446884923947312e-001
      -8.0582823414384566e-002 -3.3280815547107528e-001
      -5.9570626786477128e-002 1.9616018566405666e-001
      -2.5037370540258036e-001 3.1292005927384431e-001
      2.0542057760885771e-001 1.9911313421605289e-001
      -5.1207772835669563e-001 2.4436200255105295e-003
      2.3086018926540380e-001 -8.3178977932632306e-002
      -5.6051683527694345e-002 -1.6438231316774324e-001
      -2.7389698386121989e-002 8.8401997535268780e-003
      1.4716350500558043e-001 6.4978682594942064e-002
      2.0870445527982068e-001 5.9806232181561066e-002
      -1.4749008039352809e-001 -4.6564989490485975e-001
      3.2021602440725982e-001 -1.3598429183281219e-001
      8.1177099895286348e-002 -1.6782542018933175e-001
      -1.3064658112547037e-001 -1.3972118161758851e-001
      3.2578437600223287e-001 -6.6414322160226510e-002
      2.6662506628552352e-001 1.5842999034129629e-001
      1.4976287548344694e-001 1.3111921295792131e-001
      -2.7312169412291620e-001 8.5371168966664149e-002
      7.8114725519938602e-002 -1.3721251409034729e-001
      -4.2235595242594126e-002 2.2108149919939590e-001
      2.1153673762525077e-001 -1.8335188600443586e-001
      -1.1432129200833623e-001 3.1565212190909886e-001
      -3.4253426934613729e+000 -1.6821445460053458e-001
      -5.3950792582329536e-002 3.7038054974417582e-002
      9.3328546668113702e-002 2.0409177551248425e-001
      -2.7747471500231896e-001 3.3670624486825798e-002
      -3.8775190727857833e-001 -2.9754239870284083e-001
      -1.8234519114993776e-002 -1.5130120931430242e-002
      1.3837316540536745e-001 -6.6100708268506794e-002
      2.5918866485513714e-001 5.5715411637893703e-002
      -1.6707117512316291e-001 9.1574460749645772e-002
      -1.8895880249105879e-001 -2.6582743864362668e-001
      5.0216175727119353e-002 -1.3145909102960252e-001
      -7.9268954655127857e-002 7.0714017988808095e-002
      1.6949161632658821e-001 4.6391462032686882e-002
      9.5078943871469881e-002 -3.7651221484190756e-002
      -5.7471517823884821e-002 -3.0843055973456523e-001
      1.1212851032920997e-001 1.9802306894536614e-001
      6.0320242323186918e-002 -4.8104679264689132e+000
      -1.6536911672714039e-002 -2.3898381442443065e-001
      -1.2167040178906927e-001 1.0959781727641023e-001
      -3.3856544915570203e-001 -2.0366340102815822e-001
      4.5741119289531484e-001 -2.9623570676737234e-002
      3.9576258624898476e-002 1.5735847652066098e-001
      -8.2504938629694741e-002 1.5943886664999513e-001
      -1.2112151600123780e-001 -4.8797015800504405e-002
      -2.7184308796770845e-001 -2.4119449398029413e-002
      5.1060218189867678e-003 1.3860840280341824e-002
      -1.5942819900340247e-001 -3.9353491005801863e-002
      6.7877229674747228e-002 -3.4622977483760353e-001
      2.4018109345195250e-002 4.0385749993357040e-001
      -1.8862832906438443e-001 -7.8317024989648931e-002
      5.3106480542147505e-002 2.0596562506787588e-001
      -1.7423006470677582e-001 -2.3637492612895186e-002
      -1.3129100774021565e-001 1.2066499358820634e-002
      -2.0297624419565881e+000 2.9289681342250476e-002
      1.5288953165693667e-001 -5.1517774788970558e-002
      -1.4969220938474585e-002 -1.3760539114584661e-001
      -2.7674863503273228e-001 2.2298179738864224e-001
      -8.6785609839371780e-002 2.3695538468729582e-001
      -1.8867914582278062e-002 -9.1756726565326935e-002
      -2.0056264693421230e-001 -2.1360635024604466e-001
      1.3469877558473642e-001 4.2809446682256945e-003
      -4.4570497622648503e-002 1.4861001719455197e-002
      7.6020845250264660e-002 -3.0635333689482785e-001
      1.5765769385262668e-001 -6.4282268296784628e-002
      9.7660269468746886e-003 1.2462686986409249e-001
      1.6633261467494634e-001 9.4408492696695621e-003
      2.5496217176460556e-002 -6.1943917553464178e-002
      1.5235436271956482e-001 -1.2802235328740430e-001
      8.0244052900963619e-002 1.6122725260039242e-001
      -5.5548418867068149e-002 -7.8195612780478840e-001
      6.3301135330153538e-002 4.6646870552727447e-002
      2.8593680633436820e-002 1.1706044423500991e-001
      -5.4891264498953714e-002 -2.0471542378429008e-001
      1.5778709116499209e-001 -7.8966771444110614e-002
      9.7585977482190930e-002 2.0393272626526118e-001
      -1.5275981715235834e-001 -1.4347227521650477e-001
      -2.9339202829630612e-001 4.7575130600063735e-002
      6.2564962935302559e-002 -1.0869991847822146e-001
      -1.1756822456809865e-001 1.1701234881386487e-001
      -1.7185008986332549e-002 2.2154131842030575e-001
      -1.4638508666885966e-001 1.7979951944854362e-002
      1.0455462670237378e-001 9.5896489776215468e-002
      3.7134387253647386e-002 -9.2062855280603151e-002
      -7.1291304022299551e-002 2.1942963425801129e-001
      -1.7806311629590918e-001 2.1306635067328928e-002
      1.5890738007721686e-001 -2.2023063123276197e-002
      -5.8839621317047035e+000 9.9194042934482488e-002
      -3.7517002139584121e-001 1.4129545258821191e-001
      1.0788622987951177e-001 -1.1758220001653190e-001
      2.9254101609577844e-002 1.9897837164367155e-001
      -2.4465761821611082e-001 -3.3366860761854433e-001
      3.3406419806691440e-001 -4.4159348755664279e-001
      1.1351399254418583e-001 -4.8200265953203057e-002
      -2.1693829150153082e-001 -2.2123086921114832e-001
      -3.7044923275878527e-001 -4.3544584034003225e-001
      3.2024428638507657e-002 -7.3635702447835877e-002
      -6.3135426312284831e-002 7.4850244164385543e-002
      -1.9094964469846795e-001 5.3396087629974061e-002
      9.3244043842536858e-002 -3.1812016030696538e-001
      -4.5336258690263853e-001 3.2943016449078200e-001
      2.1319010412114644e-002 -5.0073991693788666e-001
      -3.4593441575726308e-001 2.6058215586593714e-001
      -3.3357643866849973e-001 -5.8523942105723348e-001
      -1.8522432308062242e-001 1.8776562185869503e-001
      9.1935193610165736e-002 2.2768686388104903e-001
      4.0512041150616337e-002 -1.9831245755645979e-001
      3.8873736885760554e-002 -3.4340174878882646e-001
      -2.5789689771897795e-001 2.9427570015987214e-001
      -2.6888011902912035e-001 3.6381992822285814e-001
      -1.5863314520140259e-001 1.8243593942994743e-001
      2.3818571836684274e-001 -2.0789008045126639e-001
      -8.1354246932496446e-002 4.6244012201908040e-002
      -3.4669365218395543e-001 6.7854647792365608e-002
      2.2375954455414206e-002 8.0957457231218458e-002
      1.7521339262953628e-001 -5.5223482418311806e-002
      -4.5903370798481113e-002 -1.4581734014592279e-001
      1.8823524622968124e-001 -8.4151689626131270e-003
      -3.2458516804141679e-001 8.8144615483723487e-002
      1.5140541267957056e-001 2.4217122337088409e-001
      4.4166726049074763e+000 -1.5916352900241179e-001
      2.2271898149078653e-001 1.0979876291976441e-001
      -7.8617362516450073e-002 1.1226207569941389e-002
      -1.2742953882760441e-001 -1.2854952045691106e-001
      -1.6408842219957392e-001 -1.1580395440662087e-002
      1.8179719509145872e-001 2.2518857922441179e-001
      8.0132208300445665e-002 -9.6848469012925306e-002
      1.7502761342465323e-001 8.4029638058996742e-002
      1.9966213065123113e-003 1.5485841377807516e-001
      1.3799931112156569e-001 -7.7771896364433810e-002
      2.9256324836567521e-001 9.6516683792171404e-002
      -7.4561351886161331e-003 -1.7915573361552919e-001
      2.2643118792339140e-001 3.6816749784252145e-002
      -4.0401828812120351e-002 2.3751101457175963e-001
      1.1268925200739084e-001 1.8811335805727969e-001
      -1.4137951804021755e-002 -1.9458448215806751e-002
      1.3741960717383481e-001 1.9583698932813329e+000
      -1.9795589084656212e-001 -1.5618610622522919e-001
      1.5646546856138718e-001 -6.1994844513406928e-002
      -2.1434019542704044e-001 -2.7280584294045107e-001
      1.6900001137647683e-001 -3.5752520946847582e-001
      -1.6362774446600173e-001 1.2647083998972097e-001
      -1.8151680516152159e-002 2.3082162650495500e-001
      -6.1524576213053794e-002 3.2144022160642403e-002
      -2.4389083539776751e-001 -9.7032737479005288e-002
      2.0818882700332778e-001 -2.8472670111718879e-001
      1.0035907658387441e-001 1.2962700727619450e-001
      3.3240109788766475e-001 -3.6410033813196757e-001
      -3.0188189929798970e-001 7.2235815210500265e-002
      2.4334257144918398e-001 -8.7266308224762681e-002
      3.7487443964442452e-001 3.1843758811746747e-001
      2.2832618351852053e-002 -5.9643488774154019e-001
      -3.2275160044545358e-002 9.5913893100365036e-002
      2.3708801931271473e-001 -2.7195191906826999e-001
      -2.9219130362693208e-001 1.4237480398464850e-001
      -1.1020763768535069e-001 -1.6656331032918817e-001
      3.8900808123852958e-002 -4.1529562864206756e-003
      1.1345633533143828e-002 -7.7941722608794770e-002
      -6.5231854158771946e-002 2.7408758236621233e-001
      9.6481808443120279e-002 1.1706547016291766e-001
      -1.4869685321283682e-001 -3.6209928294968557e-001
      -1.3555646553150480e-001 -7.0999796037477844e-002
      -3.9802040471524791e-001 2.6945563857941912e-001
      8.5003848652728767e-002 3.7279155982653922e-001
      -2.3521633994783495e-001 -4.1589898605153314e-001
      -3.4289461702000541e-002 2.9197338503451026e-001
      -1.6678242859899223e-001 1.2096086209952212e-001
      9.7330161128612896e-002 2.1193867306009309e-001
      -5.4659285341623809e-001 -5.7724193301260975e-002
      2.3279438056620805e-001 2.5619659633104894e+000
      -1.7771587297614044e-001 -2.9500586321088768e-001
      9.8024678944378010e-002 1.9265228732244108e-001
      -8.9573433771942212e-002 -6.6546385617958564e-003
      2.8315658792092541e-001 1.7968984521757932e-002
      -3.2292053534030751e-001 -2.0578563081961310e-001
      1.7197017124999109e-001 1.3594898208952130e-001
      6.8792135174717047e-003 -1.5689424947810202e-001
      -2.4813527968215005e-001 -1.2234889354158988e-001
      1.1964113943633121e-001 -3.0445057294500055e-001
      3.4012014827201570e-001 6.8804107526358488e-002
      1.5258886365206922e-001 -1.4719814204238976e-001
      -4.8067800811109795e-001 -1.0879976373938090e-001
      1.7248824426897569e-001 -8.7483315307370996e-002
      6.0850206697847749e-002 1.1044920262198339e-001
      2.1936698905979837e-002 -4.7988914500081825e-001
      -1.9298613691711465e-002 1.4002091402770561e-001
      9.3984485496179746e-003 1.0048533151202219e-001
      -1.5894750173929834e-001 3.5078580742669271e-002
      1.2995145473174893e-001 2.0518333819788220e-001
      -1.6936692334851222e-001 1.3415656855091776e-001
      -2.8213713092011927e-001 -3.4652467903636042e-001
      -1.1972834160621638e-001 -3.8944587173225922e-002
      9.2147942342917219e-002 -3.2819812899180921e-002
      1.5954724461168981e-001 2.0776674372575514e-002
      -7.2289487825590970e-002 8.9664032491129128e-002
      1.1880608864720445e-002 8.7854843505360714e-002
      1.6071363152563206e-001 -8.3425889404387707e-002
      1.2012696378687977e-001 -1.6513798017043496e-001
      1.9045440935207276e-002 -2.4980244700658935e-001
      1.1796237338022827e-001 2.4979560390843987e-002
      9.2353031353266501e-002 -1.5178082182984443e-001
      7.3354775306004968e-002 4.7278566720589024e-003
      4.5027571905217043e-002 1.2375351802115707e-001
      3.7067524062030571e-001 -4.1617816833034244e-001
      -9.3650281588130296e-002 8.5455659493876665e-002
      -1.6713813316980483e-001 -4.7805069292157831e-002
      3.9009158135180816e-001 8.9792184839638703e-002
      -7.6723537749581617e-003 -4.6248706942115532e-002
      7.2816725384880224e-002 1.2926668789312335e-002
      8.9812083640936874e-002 -1.0549315381539745e-001
      -3.6225095701768129e-001 9.1202900495729156e-002
      -2.3638506383763410e-002 7.9393162537605255e-002
      8.3121386205478820e-002 9.4453046538978944e-002
      2.4076189445888635e-001 1.2024225172838066e-001
      -1.8635673610633993e-001 1.8324131651843617e-001
      -4.3771155981007293e-001 -5.4120066091017230e-002
      -4.7500424930958601e-002 8.1744509988597697e-002
      9.2189063136636204e-002 -4.2394109244500862e-004
      -2.8794336527420911e-001 1.0464944782848758e-001
      -1.3996097355569197e+000 1.3002898342787022e-002
      -8.8770798718188201e-002 -8.9801813085083962e-002
      -8.7180011904004318e-002 -4.0656384041602156e-001
      -2.1357932257465070e-001 6.6453949609220103e-002
      1.3080819774622138e-002 2.4918673794518148e-001
      -4.5299419772711007e-002 1.2352738312464266e-001
      -8.7238246009215481e-002 -8.8637592649965638e-002
      5.0845497996479652e-002 -8.2319625812531522e-002
      -1.2831017324509672e-001 -2.3323655309042970e-001
      -6.3636250176306655e-002 -6.0267488031073992e-002
      2.4483044552946406e-001 1.9224071516569616e-001
      5.8329746146781006e-002 1.6296070328821445e-002
      3.1020183053880412e-001 -1.0014158666143112e-001
      8.1756716268999802e-002 -2.5494601632848141e-002
      6.9974604330620971e-002 8.9823010509531759e-002
      -8.6907614749386006e-002 -6.1293373377204731e-002
      2.5678871043700105e-002 -2.9404073305440441e+000
      5.8976337809874421e-002 -8.5179051554143931e-002
      1.2156061216564476e-001 -1.2712136664762763e-001
      -2.6601357497682371e-001 -1.3436000494421479e-001
      -1.1080506283775131e-001 -9.1788330292053202e-002
      1.4272363935813667e-001 4.0134125715339440e-002
      -1.1169612246954876e-001 -1.5034595242108356e-001
      -1.2679148093998729e-001 -9.7517202685057189e-002
      3.7894675382597456e-002 -2.7192812070148797e-001
      -4.3832404372819422e-001 7.0339335455525511e-003
      1.7694098816810414e-001 3.2535711842456883e-001
      1.2033613325008495e-001 5.6047057698386638e-002
      -2.4787498722164760e-002 1.9943459914234793e-001
      -1.1039791341812083e-001 -7.3252000377937504e-003
      3.0707558297987211e-002 8.6070616305412156e-002
      -3.9564807035847721e-002 -1.4210977960883006e-001
      1.1160837986907834e-001 -1.4211645020917291e-001
      -5.6038161688386561e+000 1.0289487858363079e-001
      -3.1355049091003340e-001 2.4035796455930439e-001
      -2.1633740890014910e-001 -5.4204968551355937e-001
      -1.0253927755696697e-002 9.3047909907771429e-003
      -2.7058994532952207e-001 -2.2762957041443277e-001
      3.7989965015978883e-001 -2.0153695009158867e-001
      1.3938406709605605e-001 1.7717691755015358e-001
      -7.0765712190340904e-002 -1.1415838644551833e-001
      -3.9909522793890218e-001 -4.9842064437729827e-001
      -2.9976316057413365e-002 -2.0831197480548316e-001
      1.3414033764903511e-002 3.7989511236289997e-001
      1.3502333840093220e-001 -5.5425103871762367e-002
      7.1595978316142908e-002 -3.5012520614627923e-001
      -4.6000697859945122e-001 3.5311605658948181e-001
      3.6334904902747558e-003 -3.5434676727229199e-002
      -1.9820404609252804e-001 4.4237512165415098e-002
      2.0353942071962680e-001 -2.1828202191905527e-001
      -1.1922854253630823e-001 3.0299389059020848e-001
      1.0595458795280102e-001 -1.1618033628953021e-001
      9.8541507441679846e-002 -5.3486097060538668e-002
      -1.4598883187680972e-001 -2.9467962065567521e-001
      -4.3023642442591589e-002 1.9967042781873237e-001
      5.1156635440963653e-002 9.5836674905200994e-002
      -1.3697698816392989e-001 4.4342793567724870e-001
      2.6877545723105672e-001 -1.0913427802768766e-001
      -5.4023690531623710e-002 1.3511982221907756e-001
      -1.5879234425374611e-001 3.0598354177162557e-001
      -1.9897605721753770e-002 4.2635493730743440e-001
      1.6108519940195737e-001 1.2181324776517757e-001
      -1.8359296329022534e-001 -5.0620773119422292e-002
      7.9135972347008227e-002 6.3392427369680052e-002
      3.1766339051053145e-002 3.3316432409721997e-001
      -5.5909637406073888e-002 2.2130813954269765e-001
      3.4702680539400457e+000 -1.2288263455752654e-001
      -1.8317320311539091e-002 -1.3451013464000442e-002
      -1.1081446569947462e-001 1.5367328152354651e-001
      -1.6758899737770505e-001 4.3869182627146300e-002
      -1.8907990840414590e-001 2.9155127867689812e-002
      3.2690018436497653e-001 2.4379867336155864e-001
      1.4724793647190243e-001 -8.3894964435731606e-002
      1.8168863639837102e-001 -9.3549183625255355e-002
      -8.0793221262050921e-002 2.2258588222703621e-001
      -1.5975828107510126e-001 2.5625373374791593e-001
      2.7689871273950900e-001 2.3615361910804494e-001
      -1.5736923545294815e-001 -2.4149856837578379e-002
      1.8239406381727238e-001 1.0346366504116210e-001
      -9.6943259324785924e-002 8.6214989718925134e-002
      1.1410120874360705e-001 9.0973648391945786e-002
      -2.6947952324783403e-001 -5.4233424562826829e-002
      2.2753123034021250e-001 -1.1573256467066437e+000
      -1.7803297170263976e-001 -1.2849990836523292e-001
      1.3102779687233751e-001 -9.3440261722635531e-002
      4.2639803921249927e-002 -2.4613202023398356e-001
      2.7352922436248182e-002 -2.4550620784934873e-001
      -9.8701971332859365e-002 4.5525755407005875e-001
      6.5052287410288401e-002 3.3095315704125328e-001
      -2.8514783366654632e-002 9.0921638313121722e-002
      -2.7592182321394504e-001 -9.2123495759643931e-002
      1.0953617959487666e-001 -2.5635160009459262e-001
      2.1708929100457397e-001 1.5020373335845169e-001
      2.9193813750244446e-001 -4.3243512330711165e-001
      -2.8486437987058810e-001 -7.6870459406170724e-002
      2.2774547302374834e-001 -1.5711560825033488e-001
      2.6694654651627581e-001 1.8592873699265808e-001
      1.5040801933644767e-002 -5.4122286928636987e-001
      5.3083336444983503e-002 1.1757729450844881e-001
      1.6161777936753516e+000 -2.8129054678006327e-001
      -3.4448248751652799e-001 1.7411636839991101e-001
      -1.0664820370953743e-001 -9.9182523577313400e-002
      6.6285617800174224e-002 -5.0211385995629319e-003
      -1.8433713939659369e-002 -9.6956518607107661e-002
      -1.0814336815448137e-002 2.2053784767072745e-001
      1.1117616928187196e-001 1.4621185217015764e-001
      -9.5801788357149462e-002 -3.9475529349222094e-001
      -1.2595009663782503e-001 -4.5538185230016348e-002
      -4.7418625724460162e-001 3.0374626647780606e-001
      -1.1201708062790862e-002 3.4754715620925281e-001
      -3.0870185830319186e-001 -4.4325915259387150e-001
      -6.0828081822394020e-002 3.1026730316034451e-001
      -1.7585739892900931e-001 1.1619853636102538e-001
      8.9456701803651256e-002 1.2365434173888630e-001
      -5.6384482387049706e-001 -1.4815559329914899e-001
      2.1404207553021007e-001 3.4148620794332394e+000
      -1.9034504491595033e-001 -2.5623305260335349e-001
      2.1068080951626536e-001 -6.7361446577973612e-003
      -1.5391335177793550e-001 2.4423857210716767e-002
      1.2545608563305538e-001 -3.8993586824120151e-002
      -6.2715774723866163e-002 -1.6841036607485538e-002
      2.0006129743267867e-001 2.0365894284063629e-001
      9.1732028628672344e-002 1.1043817724606430e-002
      -2.5962088140637180e-001 8.2871246589611980e-003
      -6.9774270654839746e-003 -4.7890112140825236e-001
      2.8973934745782087e-001 3.1658012127775480e-003
      3.2080722763969227e-001 -9.4748895925157353e-002
      -3.3023193056132949e-001 -7.1731269251297192e-002
      2.4669081277932231e-001 -5.9088118828970533e-002
      4.9310687739333545e-002 6.1949845590295809e-002
      1.4341863091893270e-001 -3.8988118453921344e-001
      -1.8576074624618338e-001 2.2997667804057098e-001
      -4.6600429639496719e+000 -2.1890552793271120e-001
      -3.0199734336771439e-001 1.4337064115894496e-001
      -1.1497034183864591e-001 -9.2883592246369284e-003
      -2.6348044253290198e-001 1.4524682277697720e-001
      -4.9401510838924562e-001 -4.8851351018740524e-001
      2.6419966466851519e-001 -2.2229754873499266e-001
      2.8784301052861516e-001 -1.8483227762429980e-001
      5.0345841753038145e-001 2.9730863632198561e-002
      -2.1934996953107777e-001 2.4311297314966836e-002
      -2.3366863089966172e-001 -6.5162493952983180e-002
      -5.8291853785267481e-004 -2.2302869221929822e-001
      -5.0467257898846385e-001 1.4945125872957671e-001
      1.5554606883892447e-001 1.8002385114580022e-002
      -4.7053245439484255e-002 1.7275094303170768e-001
      2.2055045384872071e-001 -3.8658261228371826e-001
      -1.6335541355013955e-001 9.6493639720642496e-002
      -1.1551046368365500e-001 -1.7590064166009254e+000
      -1.2392372188796834e-001 -5.2261395367984333e-002
      2.4106673613334285e-002 1.0092121067039322e-001
      -1.6250730226582338e-001 -1.1138770138416190e-001
      2.6280388498641932e-001 -3.4463298884687410e-001
      -3.4178876683000875e-001 1.6152659580028372e-001
      -2.4009871720075765e-001 -5.1390313770457718e-002
      -3.8926700533960745e-001 2.0894684794723828e-001
      1.4173362430685827e-002 -1.3895433704238567e-002
      -7.2010722485539011e-002 1.6227033321926204e-001
      -1.0837112416214097e-001 2.1741805356268868e-002
      -2.5574379075380405e-001 -7.1038519163210537e-002
      -3.7970784958152332e-001 -3.4970244991186653e-003
      -2.2736630919836509e-001 1.1052955429968819e-002
      1.8110307227556874e-001 7.3110915032420093e-002
      -3.5231499162915486e-001 7.1295263065068767e-002
      -3.6476413319965977e-002 -2.1465683038634550e-001
      -1.2773696838706945e+000 4.6099236777661444e-002
      3.3191387442631157e-002 -9.6101774243691568e-002
      4.1612172864513813e-001 -2.2998289106706898e-001
      -1.2100814816235385e-001 1.3279696953526676e-001
      -1.0960916661369537e-001 -1.6304853420530335e-001
      3.0815364884377544e-001 -2.4945887786147344e-001
      2.3654742444453284e-003 -1.4406478718850355e-001
      -1.0493152478666777e-001 -1.2258794440940828e-001
      -1.3646105728604493e-001 -1.8442397904502755e-001
      2.0248815789607075e-001 -2.9928746252699695e-001
      2.5371092520840660e-002 -1.0492208501108202e-001
      2.1520705478088781e-001 -1.3740167812693516e-001
      5.4742615773468915e-002 -2.4200265296158333e-001
      -1.5837341970281460e-001 2.0095052977845004e-001
      -1.5698241158792085e-002 -4.0669311841593947e-001
      6.9784685304085839e-002 -2.5284961726215437e-002
      -3.6793834939345393e-001 -1.6717996498197230e+000
      1.5495929429968688e-001 8.1112956838297459e-002
      -3.1826027264019313e-002 2.7341671517191379e-001
      -1.8341752885539989e-001 -2.6714164134185578e-002
      4.1870390657375425e-002 -1.8258643826316781e-001
      -1.6600130659911258e-001 1.3049941968554551e-001
      -3.5040576325648848e-001 -2.0866984093414950e-001
      -1.5147086030579099e-001 -2.0468910519126937e-001
      5.7178468821241349e-002 -2.3670718110396022e-001
      -2.7755993737368889e-001 3.0197833139960090e-001
      -2.4670646487413725e-001 2.6472281363447470e-002
      -1.2216930366340374e-001 2.7159798629093618e-001
      -2.2550909807095945e-001 -3.9701798845026733e-002
      -2.1894716978030820e-001 1.9715677830152850e-002
      2.2461937131869514e-001 -5.8860668465615364e-002
      -5.0786982645136369e-001 -1.4516689155681881e-001
      1.4236976297761419e-001 -4.2313311057618130e-001
      -2.4933953188024552e-001 1.7726104956850894e-001
      -3.0932546961412877e-001 -2.8482642726402796e-001
      -1.7666201164661718e-002 3.8277892866818007e-002
      2.1776772624765378e-001 4.4743376671080998e-001
      -7.4097750839635088e-002 -1.7038360555757384e-001
      1.3882143611254677e-001 -5.4224619942410082e-002
      -1.1552100799814839e-001 -1.5126385330731745e-001
      -1.1509192821540801e-001 -2.0587209602846428e-002
      -5.4935683640324952e-002 1.6167355725733479e-001
      1.9656986352966827e-001 2.4929047514714522e-001
      -9.6633484785712084e-002 -1.2419640398570399e-001
      -1.5783234974607596e-001 -7.4716923058404494e-002
      2.5551858949465417e-001 -2.4482975380270455e-001
      -1.4656899960730035e-001 -8.3107412688336962e-002
      2.0121225164563974e-001 -2.7397733237952038e-001
      -1.7627244362071479e-001 -3.6490711721472929e-001
      9.5808794916404996e-002 1.6072074168580643e+000
      -7.9254395746999884e-002 -5.7368974611775217e-002
      8.2918097972465091e-002 4.3234894513310369e-002
      3.4617789996390380e-001 -1.7962573995128167e-001
      -3.4752209338291234e-002 -2.5503704746001560e-001
      1.4822508461490907e-003 -1.1713785665803400e-001
      -1.5011011068860980e-001 1.2203347255106443e-001
      -4.8516596618027624e-002 2.2342657191550719e-001
      8.3155639806423778e-002 -1.6419725975564983e-001
      1.2988264929974369e-001 -4.1192837727842030e-001
      3.2723249204421247e-002 1.3406562679503162e-001
      1.5576984461450966e-001 2.1689746455164616e-001
      2.1780779043353390e-001 2.9765497951392067e-001
      -7.1882552599042429e-002 2.8939518290609740e-003
      -1.5651545272508720e-002 1.1815943583054317e-001
      -2.0786069768110302e-001 -4.5349296521338123e-003
      -3.2678629334846804e-001 2.5800975346750932e-001
      4.0608181702298172e+000 -1.0351311104263243e-001
      -1.8122174332409405e-001 2.0202829213939219e-001
      9.8486148433572063e-002 -7.2215511303795096e-002
      -2.5647178791757319e-001 -2.3774213536961344e-001
      -1.2569989408834750e-001 -8.8266856437464195e-002
      1.0196112893456362e-001 -1.4218450890843051e-001
      3.3564661445111832e-001 5.0863252158568358e-002
      -2.8901578820125413e-002 -3.0870603780730005e-001
      -1.4489888204016144e-001 -1.2774312282202197e-001
      -4.4289539913297277e-001 2.3180111457849634e-001
      5.5145855964556588e-002 1.9914308867850977e-001
      -2.5290217583761526e-001 -2.7887161078409928e-001
      5.3893749104334698e-002 8.8774957028512583e-002
      -7.2748219887198859e-002 2.0547108954083076e-001
      2.0483094955479930e-001 -1.6587101367667362e-001
      -4.8804200548777049e-001 -2.1868096308526563e-001
      7.9621155802821544e-002 2.2651107022109107e+000
      -1.7176735777208860e-001 -1.5281982994265356e-001
      1.4241576409785617e-001 3.4076046025306639e-001
      1.0833650680592348e-001 -2.7071495609750368e-001
      -5.2924048642186201e-002 -9.1564818920227886e-002
      -1.0824629336453066e-001 4.9109462163772065e-002
      -2.0619671070027390e-001 2.9420181608196827e-001
      -3.5248893713978845e-002 -1.8283376663608319e-001
      -2.7013795676021335e-001 -1.3118326557020571e-001
      1.4389011249423003e-001 -3.3780467263545444e-001
      2.3434283038023374e-001 -6.9731578680157461e-002
      1.3371931692148506e-001 -4.8642655890729269e-001
      -3.2932360386042653e-001 1.0952398940530225e-001
      1.8496722779870278e-001 -1.7227627640647877e-001
      2.8798605713417963e-001 1.7150046114167369e-001
      -3.7431647846058097e-001 -5.5215011834949268e-001
      -1.1571380969324908e-001 -2.0003504668174309e-002
      2.6141067209392750e+000 -3.1927797112447065e-001
      -4.0922158591823665e-001 1.5687656405838932e-001
      2.7736610950146907e-002 -8.2540083628314789e-002
      -1.0352709875208945e-002 1.4791732848317438e-001
      -3.2546919063732672e-002 -1.9264483396947837e-001
      -1.0598076914394311e-001 2.1263140531961611e-001
      3.8556114542649594e-002 8.3445573253457500e-002
      -1.3568643264303731e-001 -2.9889740058206843e-001
      -2.5732377493381653e-001 2.2401489350819113e-002
      -3.9887803390748761e-001 1.6339381944425421e-001
      6.1179853049370759e-003 3.1888080542100755e-001
      -3.8534935235510465e-001 -3.8829184540242734e-001
      5.8111531281606378e-002 2.8087395686664557e-001
      -3.0022752507153000e-001 1.1105646312165002e-001
      6.0823236114591860e-002 4.2372837103276578e-002
      -5.1616792201422523e-001 -4.3432269218381669e-002
      1.4076853254150901e-001 -1.0761412772381994e-001
      -3.5017940317199170e-001 -2.2420291524245464e-001
      1.7679766444125986e-001 -4.6681093583245500e-002
      -3.5491458942417897e-001 1.0513643652568148e-001
      8.2466778444546807e-002 -5.7148112991283181e-002
      -2.1753925060291188e-001 4.2879434523366025e-002
      1.7185594188280276e-001 1.8204135816258840e-001
      7.9209165680633100e-003 1.7580289372273045e-002
      -3.0405451655051979e-001 -1.1153973761906069e-001
      -1.5083563204347741e-001 -2.7322454273274860e-001
      2.9552553818210175e-001 -5.3225604578259174e-003
      1.4395780692926227e-001 -3.2224393471918578e-001
      -2.9313720541755384e-001 -1.7648465845806052e-001
      2.9489948063001192e-001 -2.0657175350009113e-001
      1.9252690834027308e-001 1.3023420832172125e-001
      -5.3699082788478750e-002 -5.2648883758393739e-001
      -9.0254920898185324e-003 4.7231052780651983e-002
      -3.1035376572150706e+000 -2.3009701340522787e-001
      4.2220520250137566e-001 2.9092789555167325e-001
      1.4021969758431849e-001 1.9575055756165560e-001
      -3.0068840420860815e-001 -1.3388242647789941e-001
      -5.0125802778136952e-001 -4.0408569892596791e-001
      3.2823149082314013e-001 -3.0454201786586671e-001
      1.6927037219429555e-001 2.3691599573716655e-002
      2.2059161795142165e-001 8.4659600174399108e-002
      3.9140001267192283e-002 1.8967001136846018e-001
      -3.1859464339913474e-001 4.4407157557152424e-002
      2.0782218991403084e-001 -1.8856863465415896e-001
      -1.8930336042576623e-001 -1.3749955494947330e-001
      5.5503213800965172e-002 -9.2332960362342384e-002
      -2.6486230886080517e-002 1.7054805347959975e-001
      2.9794740045763579e-001 -3.7557257010662348e-001
      3.6543286983319122e-002 1.9458240772163571e-001
      -2.2027597991467272e-002 -8.8358558758221417e-001
      -5.0432010367458889e-002 -2.1092377782325003e-001
      9.6166669534317656e-002 5.8528169040305021e-002
      -2.5995190868743984e-001 -2.6903308081217969e-001
      1.6051772172624820e-001 -2.8753260189842939e-001
      -1.3613244320342471e-001 -6.8393874882925046e-002
      -2.4913773852137683e-001 -1.1191109554471730e-002
      -2.0275219015774659e-001 1.4032343533688407e-001
      -1.7880280167071685e-001 -1.8921789216639878e-001
      -1.5562942665591953e-001 -4.8546526313919473e-002
      -9.1888553709341542e-002 7.6513558007991464e-002
      9.2795100006275111e-002 -1.0595083545934832e-001
      -1.2106704051121335e-001 2.0646673514325706e-001
      -2.4736279376563905e-001 -1.6801287137835430e-001
      2.4574341924936505e-001 -2.5961579973783153e-002
      -4.4820632677706390e-001 -4.4416634129236894e-003
      1.4441519307934095e-001 -5.9135669925117686e-002
      -1.1868295112550800e+000 1.9494510195666614e-001
      -5.8991667944720098e-002 -8.6334219413235741e-002
      1.0331007117103745e-001 -2.0614951553814459e-001
      -1.0793929902838864e-001 4.5188983648139482e-002
      -2.1294794505029691e-002 9.6228101932105556e-002
      -1.7211579127014720e-001 -3.2251515183060347e-001
      -3.8251705736343823e-002 -1.0096849677703171e-001
      -2.7486003124717956e-001 -1.6571894072902849e-001
      -1.7066538558007321e-001 -3.2059253150313521e-001
      1.7988869594131157e-001 -1.6053824141485340e-001
      6.4474284100945814e-002 1.0275233667618307e-001
      7.9298322071596830e-002 1.1567862687884645e-001
      2.1737219875576902e-001 -2.2492552250107017e-001
      -5.9892091193768586e-002 6.1274681317474128e-002
      -4.6497009239179904e-002 -3.8215475946666655e-001
      -2.3020748346221948e-002 1.7679240000795254e-001
      -2.9588377301148083e-001 2.4903366779517060e+000
      1.8033997906514401e-001 1.0429029445998635e-001
      -3.6777471171944875e-001 2.3327810064402604e-001
      -2.0186051669340274e-001 -1.5142841373179335e-002
      7.2802608242349701e-002 1.1455096102824171e-001
      2.9616911420632580e-001 -1.3278636534873717e-001
      1.7083368413989572e-001 -3.8217446908461705e-001
      -2.7111618489341412e-002 -8.1572543157248281e-002
      7.9680201260964964e-002 -1.5454719583627360e-001
      3.2992084172133833e-002 1.7561239059873382e-001
      -3.0676223450812407e-001 2.0721807171184486e-001
      1.5187764457164876e-001 6.0014823595459121e-001
      2.0642688640172877e-001 3.0860928350728184e-001
      -1.1321317797507206e-001 1.3574426349773569e-001
      2.1178044944471452e-002 -1.8098917094521907e-001
      -1.3151337653095224e-001 -4.9810143077077602e-002
      -3.1559292026226302e-002 1.6363309872206686e-001
      1.2579881568875233e+000 2.0898820445838590e-001
      5.3608224633586643e-003 -2.5152806413987072e-001
      -1.2746502449857749e-001 2.7777036027006742e-002
      1.1979804902686873e-001 2.7014646582145302e-001
      5.8601650800579386e-002 -1.1242163178987405e-001
      1.8840864338911076e-001 1.2508829767135005e-001
      -1.9307276476607077e-001 -2.6447816146324021e-002
      -9.8732667874784269e-002 6.2517167513536920e-003
      6.3845815815482848e-002 1.0503759380136704e-001
      1.3459810989354551e-001 4.1640979446493094e-002
      2.0455071847689180e-001 -7.7463093255730600e-002
      1.0748859100688252e-002 -8.8255005955465551e-002
      4.6814884255081968e-001 -4.2205344090114871e-001
      -9.1545880528389953e-002 -6.0613551480121527e-002
      1.7067721344131473e-001 5.0244095548787199e-002
      -2.3828671986288807e-002 -7.0079028598085041e-002
      3.5524209486287484e-002 5.9703867222903018e-001
      -2.0495085940003721e-001 2.7062931918813021e-001
      1.6487247745742972e-001 1.5412622207962304e-001
      2.1676364444879648e-001 -3.3773825626414644e-001
      7.8114796122745578e-002 -3.8004889784593643e-001
      -4.9693135520868953e-001 4.8341658398783682e-001
      -2.8503232732120848e-001 3.0922646750538896e-001
      -2.4051897394624402e-001 2.5455606101989275e-001
      2.4529590950018082e-001 -4.9074424094692429e-003
      1.9759590673787877e-002 -1.9448802015830724e-001
      -3.7660307922898123e-001 2.4592529140712840e-001
      -2.1946944920165226e-001 -8.1556075331118555e-002
      -1.7577009185714612e-001 3.8927156592236410e-002
      -9.2915508994448309e-002 9.1482951653781286e-002
      1.5701023263640213e-001 2.2567362089081816e-001
      -1.7518202033613517e-001 -2.8995250316370862e-003
      2.1792038131352848e-001 -9.2110359864516447e-002
      3.5392639695504862e+000 1.1006375755232947e-001
      -2.1355102317848779e-001 1.4862071379523265e-001
      1.6176495962305909e-001 1.7747108220901012e-001
      -2.6252090263774908e-001 4.9281533807844807e-002
      2.0007271424858510e-002 -1.7648165291612333e-001
      4.0391607783815460e-002 7.7160273498813381e-002
      1.9598865453537678e-001 1.8819800947332935e-002
      -2.4186332639455266e-001 -1.2934712224804026e-001
      -8.4710835324063122e-002 -1.3374919825482043e-001
      -1.6163909537538940e-001 1.2786849457427979e-001
      3.1299349436234936e-001 1.3430836717139485e-001
      -1.3556426601879097e-002 -4.2643358209959903e-001
      6.8966146245770937e-003 -1.6945651949816212e-001
      -6.3553128176783033e-002 2.3260813925691406e-003
      2.5853646764159832e-001 2.2743209856989235e-001
      -2.0054159452101414e-001 -6.1976918701917245e-002
      1.6082714974174334e-001 2.5816996587756917e+000
      -7.4291363238588912e-002 -2.4217482982722119e-001
      1.6582976367218172e-001 2.3222088936931778e-001
      -3.5103901793425625e-003 -2.6683238768709949e-001
      -6.1489039401462657e-002 3.8645604455813935e-002
      -2.9583525684797690e-002 -9.6687563956603786e-002
      1.4573941547618558e-002 3.1735295982823769e-001
      -3.1255294513098095e-002 -3.0488766356867303e-001
      -3.0484859020670613e-001 -1.1005720442389635e-001
      -1.4954788358522281e-001 -2.7917522251678711e-001
      1.7840312858562499e-001 2.1772685508972173e-001
      3.0143924847883818e-001 -2.4941059776763813e-001
      -3.3085055670019070e-001 7.6103799829577781e-002
      1.2398158912540619e-001 -1.4290859319654958e-001
      1.5848098463008536e-001 2.2804782892813644e-001
      5.8833419436935507e-002 -4.9039146837569048e-001
      -4.0841919982129708e-002 2.4161951934673195e-001
      3.9741378043887896e+000 -3.0910049517712729e-001
      -4.1187275100197845e-001 1.6404892989106604e-001
      2.5204744163692724e-002 -1.5052119722402235e-001
      -3.6535433328521189e-002 2.1525642036856993e-001
      -1.0249352406988148e-002 -1.9290201277195343e-001
      -1.1832692082605017e-001 1.8139535177101929e-001
      7.9114836183571610e-002 6.7192437065046753e-002
      -1.4431039755406400e-001 -2.8236577591121859e-001
      -2.8478874692713330e-001 3.1093685627162266e-002
      -3.5432727623719007e-001 1.5221624801763894e-001
      5.2551025649118586e-002 3.5024100804740232e-001
      -3.7019721585651821e-001 -3.1611569325205424e-001
      7.9852143543423848e-002 2.3941244281219137e-001
      -3.5512119682965271e-001 1.5697928684330692e-001
      1.1567601874480914e-001 9.8157893772307339e-002
      -5.1293721053611618e-001 -2.6226136974882706e-002
      1.4599466143345560e-001 1.2254727724315029e+000
      -3.2239269236044588e-001 -1.5815425588006832e-001
      3.0497155086768418e-001 2.1563041726301663e-001
      -2.4120940059413049e-001 6.0561034436869788e-003
      3.6379551766020385e-001 -9.5149564764565112e-002
      -3.2312534504356460e-001 2.3979435301299052e-002
      -5.6081740823858257e-002 5.5938669104381653e-002
      9.5331274875663341e-002 6.5442804518575310e-003
      -1.1948590544803919e-001 -1.5183710201159806e-001
      2.0220774106981945e-001 -1.9537745732772460e-001
      2.6077341705910778e-001 -2.1815015530691297e-002
      1.4625874803180661e-001 -2.8413628714429007e-001
      -2.3833139475195014e-001 -1.0818817925180804e-001
      2.8115564792753057e-002 -5.2049296952617385e-001
      2.1418038079598026e-001 1.9840122817862643e-001
      5.1309279620844479e-002 -2.5906504840528821e-001
      6.3724705419038061e-002 1.5451888929109928e-001
      2.4634539050319582e-001 -2.0684672249743197e-001
      1.9291829140313035e-002 6.1013602750479595e-002
      4.3848616961428236e-002 3.0918429377322192e-002
      -1.7732741037988747e-001 -2.5312283119635001e-003
      -4.5137147987367848e-001 -2.3384137638210278e-001
      5.3158680817140820e-002 -1.9649134733102799e-001
      2.5943975769227895e-001 -1.2785049372303767e-001
      3.1669895608651183e-001 -3.0190937886984950e-003
      -1.8322334155014178e-001 -6.2282470325056731e-002
      -8.9692674205330572e-002 -2.2866240520814432e-001
      4.6956529565110205e-002 -9.2771516134463827e-002
      4.2367690399628104e-003 1.2100592472859248e-001
      -9.7662567435197842e-002 4.3942030116086904e-002
      4.5029528980228876e-002 1.9253499995343931e-001
      6.0343587011768271e-002 -3.3622800984049084e-001
      -1.2961851983940523e-003 1.9221752274858139e-001
      6.8219064260640630e-002 -3.6229001017471059e+000
      -1.6090838583285243e-002 -2.7798307014103307e-002
      8.2775158970682744e-002 -1.7717773928996478e-001
      -3.0911901723033003e-001 -8.9202802393679559e-002
      -3.6905978181817345e-002 -2.6171701299885147e-001
      -2.8684652048533359e-002 -5.6649743925603676e-003
      -3.2599827894101308e-001 6.8570458543353932e-002
      -1.8966323927043929e-001 -5.8384063497203285e-002
      -2.2392583415251760e-001 -2.1616009772353750e-001
      -4.2488055163209676e-001 8.2485564342793749e-002
      4.8121551648729617e-002 3.6669523574260808e-002
      -1.6405253253980792e-003 -1.0226551691102366e-001
      -1.2276829406658328e-001 6.1459848179439891e-002
      -3.0283342322469148e-001 -3.1986861321649414e-002
      3.8158963083951031e-001 1.0591208749589531e-001
      -3.8642907470102833e-001 -8.8469732229980502e-002
      2.9724135348740222e-001 -1.8716914901670859e-001
      -4.0239981225934240e-001 1.7678189605238970e-001
      1.9958604068652791e-001 -1.4898292707831337e-001
      -1.7500746437492401e-001 -1.8935737684099851e-001
      2.2734647977513824e-002 -1.9217892682227317e-001
      -9.2854699037304742e-002 1.6000489772888912e-001
      4.7530545161233052e-003 -6.5808628215625373e-002
      -2.0610361539045147e-001 -2.6915248457622803e-001
      -6.4184719096204768e-002 1.8044693156166972e-003
      5.2303631322160572e-002 -2.7834358415460614e-001
      1.6469808239297259e-001 1.3989839143654204e-001
      3.2017939265244744e-001 2.3519616812575344e-002
      2.5858983874460623e-001 9.8304255528140830e-002
      2.0033991305072876e-001 -7.6997590696317716e-002
      1.5214123443877575e-001 -9.0460772329272063e-002
      -4.8889656555255734e-002 -2.6981539011069866e-001
      1.8305842188930919e-002 1.6704881571308045e-001
      1.1265826130734229e-001 7.2759306492120712e-001
      3.4903819343804460e-002 2.7402330982623485e-001
      -2.7898837076090360e-001 6.6676953393763824e-002
      -3.7774864499543942e-001 2.3669532549065991e-002
      -3.3181068805558128e-002 4.8972321501218906e-002
      2.9823461584828553e-001 1.4832058641182888e-001
      8.1271970481998301e-002 -5.9816428865518120e-002
      -1.4339347464993901e-001 -5.6715238018715766e-002
      8.4275293902148996e-002 1.5421699765233846e-001
      -1.0043273805444063e-001 5.9328434196176984e-002
      -6.7821637064545873e-002 2.5524195210696465e-001
      1.5434460851602741e-001 1.2838336138953285e-001
      1.4024026975827658e-001 2.8434600703882101e-001
      9.1325715745098637e-002 2.2853643683297206e-001
      -9.5094388322466347e-002 -3.4458493112440758e-002
      -7.6887534265165244e-002 -1.6684037917872274e-001
      -1.0123204906827138e-001 2.6102019736545928e-001
      2.6785931389561073e+000 -1.4084643717119103e-002
      -1.4970542558508890e-001 -7.1979444125075093e-002
      8.8916433338990922e-002 -4.6969162668073566e-001
      -9.1452954305945425e-002 2.5529309050217497e-001
      2.4982686370273871e-002 -1.8855048119595867e-002
      1.4635085291010028e-001 -5.1586912605434312e-002
      3.6584668067416726e-002 6.9773321413556383e-002
      9.8163064123091837e-003 -1.6345083127423216e-001
      -2.8737305465430413e-001 -1.9586347917588501e-001
      9.6820500662646337e-003 -4.1329050777579479e-001
      -9.4812724412173754e-002 9.6891465087429393e-002
      -7.4834255854099835e-002 9.0984576548391774e-002
      5.0725197514935128e-001 -3.4423823393380115e-001
      -2.3467425709506237e-001 3.6167854981823377e-001
      -1.4916818458981416e-003 -1.1024958600227719e-001
      -2.0217242884844017e-001 6.4644608736007997e-002
      -6.8977064751003764e-002 1.8358252615057691e+000
      -1.4389694598546721e-001 1.2656310621061201e-001
      1.2239284417812110e-001 1.9234284950550845e-001
      1.7492557157059729e-001 -3.9814122151779391e-001
      6.0371673846997584e-002 -3.3177754935776038e-001
      -2.7240413356697474e-001 1.2956285915375376e-001
      -4.5949521732418486e-001 3.7689853874185120e-001
      -3.1310722667517860e-002 2.1932211368887772e-001
      1.5063789738826414e-002 -2.8143972990301036e-001
      2.6922847425932442e-002 -3.0735459282594829e-001
      -5.0499564123479235e-001 5.3544306064441403e-002
      8.7066365927208234e-002 2.0131772054236909e-002
      1.7985739645408844e-001 7.4493443876834903e-002
      -1.2471644103196382e-001 -1.7569570018429342e-001
      2.4962317481241364e-001 2.6562053613792196e-002
      -3.6586668898477015e-001 -5.2694894302093842e-002
      2.8806856059470815e-001 2.7371683857805345e-002
      4.8016176127624615e+000 -3.8325767457967438e-002
      -3.7648902152310669e-002 2.0627834480252608e-001
      1.7716772665880948e-001 -3.2032851460659359e-002
      -2.8092601043551763e-001 -1.6291082143459482e-002
      -5.4583076317750757e-002 -2.3545923360885013e-001
      1.6428928858926789e-001 8.6925682506645147e-002
      3.0092681627013596e-001 -1.7893154577139975e-001
      -7.2958004904264726e-002 -4.0322077436677050e-003
      2.6403383688168351e-002 -1.9728688584089382e-001
      -8.8961973977081832e-002 -1.4454400992902910e-001
      3.0347587187341413e-001 2.3107666218538329e-002
      -5.3518781352917363e-002 -4.7299531091682756e-001
      3.4065024971641121e-002 -1.7599359797446223e-003
      8.8139849877929305e-002 1.2907947885979804e-001
      2.3522472368501970e-001 2.1639563365377396e-001
      -1.7963150041617321e-001 -2.9025671938411057e-002
      6.5012161342794056e-002 1.5583564530365515e+000
      2.9930829013503281e-002 -2.0508381716968158e-001
      1.6728268663266371e-001 2.2037927076562400e-001
      6.1032727126676498e-002 -2.5745173699350854e-001
      1.1719821295396556e-002 5.6985666140085031e-002
      -1.0106685970776863e-001 -7.4667150897212167e-002
      9.8991648844559937e-002 1.7893124950132433e-001
      -2.9654589822682702e-002 -3.6422644481428479e-001
      -2.1053805635688749e-001 -4.7897717729862281e-002
      -8.3408088079214820e-002 -1.6698721458964874e-001
      2.0004021043104012e-001 2.7618050423430224e-001
      1.9458311667611108e-001 -9.0649208533906164e-002
      -5.2663055426824112e-001 4.0488502712712211e-002
      -2.5719646618129682e-002 -4.6200125047324625e-002
      8.5510991951061863e-002 3.0244538760277379e-001
      2.2280333405457281e-001 -3.6122643757577955e-001
      -1.1571794550811397e-001 1.9900582579434795e-001
      2.8320084301508612e+000 -1.5980122767383823e-001
      -1.4411906493685486e-001 3.6643775013464791e-001
      -8.6952175411930191e-003 -1.1001726641574242e-001
      -2.8673881835054659e-002 1.7545216556087170e-001
      2.4061362514149313e-002 -3.0613904341793208e-001
      -3.2035154951791329e-002 -1.4362335673878243e-001
      1.5421801802872881e-001 2.9746997358052857e-001
      -1.7474205198027429e-001 -2.0061892418857774e-001
      -2.0575801599380220e-001 1.3358880543565302e-001
      -2.3340505108792831e-001 1.0827402231338158e-001
      7.6002778312335761e-002 3.4769364794623053e-001
      -3.2142837491716864e-001 -2.8783803396641755e-001
      5.7265026984928601e-002 -6.0178608054899912e-002
      -6.2111818575931965e-001 4.0229921138883407e-001
      3.5668365730580093e-001 1.2916113779052787e-001
      -3.9069038732557648e-001 5.8681732399471727e-002
      1.1597972018621343e-001 3.7573197519003636e+000
      -2.8163104463663691e-001 -7.2135219905169287e-002
      2.4940382123598656e-001 1.5154464201952828e-001
      2.2224005372489822e-002 -1.4081853538712386e-001
      2.0327808771583034e-001 -1.0263404991199609e-001
      -2.6021703850575523e-001 -1.0241448643009539e-001
      -8.5554612097552871e-002 6.9284776516588834e-002
      2.4746036954296149e-001 -1.0558701684836459e-001
      -2.0316655270181308e-001 -2.5344251049516026e-001
      2.4467175393785653e-001 -3.9791514730875865e-001
      -9.0669588074587734e-003 1.4109513926881471e-003
      3.2456838341418315e-001 -1.5432060338169945e-001
      -2.5346328978155608e-001 -1.6981595144239643e-002
      5.9000719855734310e-002 -4.7796116278660383e-001
      2.3095374864165852e-001 1.0090852306540551e-001
      4.4207514708572836e-002 -2.5480178574138584e-001
      1.1994249937759670e-001 1.8502786247769945e-001
      1.6561804937860349e+000 -1.8971126761069082e-001
      -9.9083120211284875e-002 8.2691226516090899e-002
      8.0414577461575820e-002 2.3624359210094287e-001
      -2.8252047556588028e-001 -9.7759148135961298e-003
      -3.9533659097897267e-001 -3.2031406470133222e-001
      6.4630900902515206e-002 -6.1020685523941604e-002
      1.3572224187123347e-001 -1.1790849759156116e-001
      2.1933765162690413e-001 1.1220504178590782e-001
      -2.4394263390818918e-001 4.2789474010729708e-003
      -2.0186534808927595e-001 -2.3275415016756720e-001
      1.0607206214648442e-001 -1.1923676220294621e-001
      -9.0215002508378980e-002 1.2049519691122726e-001
      2.2649481644601036e-001 1.7379346796487921e-002
      1.2612610744913320e-002 -1.1874524166849677e-002
      -1.0613119318913360e-001 -3.2597303320511367e-001
      1.2111929982264702e-001 2.9208847157093515e-001
      1.5258245861862254e-002 -3.5951297072579460e+000
      7.7374895693728810e-002 -1.7160946555596585e-001
      -2.2801668127995205e-002 1.2374809187177734e-001
      -1.1119621005640004e-002 4.9859027975206131e-002
      2.4030157432855170e-001 -1.2657562385552257e-001
      7.7254018764636279e-002 -2.0618295481708163e-001
      -1.2418459648517899e-001 -2.1022399511848358e-001
      -2.2405613979731018e-001 -1.8772733783172185e-001
      -8.8194416104853152e-002 -2.9242130511216857e-001
      -2.1683930219787875e-001 2.8569269676619602e-001
      1.3109855132544060e-001 1.2086611528375965e-001
      -5.0678952130063043e-002 1.5760040733712091e-001
      5.2172360480142232e-002 2.9854508582819117e-001
      -3.5076423788033811e-001 -4.9283314648364780e-002
      1.6358736124656167e-001 5.2734614377615785e-002
      -3.6465573721089439e-001 6.0169096299751347e-002
      1.9525901069137395e-002 -8.5704574802307490e-002
      1.4483499332114396e+000 5.4082941576395961e-002
      2.3909248544321526e-002 -1.3591309162423961e-002
      1.1415682045158379e-001 -2.9621942601299445e-001
      -5.9242240305007798e-002 1.6135532717343978e-001
      -2.3422851859744750e-001 8.2580650727466176e-002
      -1.8417794273823196e-001 -1.2026607381287362e-001
      -2.6453931552066390e-001 -3.2849295456011141e-001
      1.9712952955481525e-001 8.8353534937245654e-002
      -1.5281445789690278e-002 -9.3403464629582211e-002
      2.1916812247758907e-001 1.0811363865272502e-002
      1.8806320994017534e-001 -3.1035060711023223e-002
      1.8265826053647835e-001 3.2974221805426841e-002
      -1.0484515217644268e-001 3.3413905136426385e-002
      1.2316597804470296e-001 6.6488320092016294e-003
      -4.0084808426733995e-002 -3.1092736194423803e-001
      -4.9157726556626563e-002 6.5215520429905735e-002
      2.4250858141104267e-001 1.6017660003540459e+000
      8.9140872462310644e-002 -8.6308928937349774e-002
      -1.7707685073741908e-001 1.9602139812180897e-001
      -2.1800283922486061e-001 7.2052304149758342e-002
      2.3504830197710969e-001 -2.5628247604114477e-002
      1.3897247419635594e-001 -1.8306921054105547e-002
      -6.7019791887949348e-002 5.3223693208429596e-002
      -3.4391646715771024e-001 4.3158120997597561e-002
      -1.9169459411221838e-002 9.2819801696910467e-002
      -1.8933170722936088e-001 2.6308253564992035e-001
      1.3437562924581217e-001 2.2544003259858908e-001
      2.7360357598637652e-002 4.6202749145242208e-002
      1.7357929005091330e-001 -2.5731580369266586e-002
      1.1917852637527909e-001 3.5397204880872439e-002
      -1.8662601688147548e-001 5.5247089226919850e-002
      -1.8875094431746450e-001 -1.0005591288929672e-001
      -1.7762055814034877e-001 7.4831252037741561e-002
      4.9914659755978208e-001 -7.7829777780078324e-002
      -2.7430348347819367e-001 -2.4711771971351834e-003
      4.4163416731401556e-001 -4.1961381015276489e-001
      2.9441849829503795e-002 3.6966521656871359e-001
      -3.9490726427628464e-002 -6.3765258100893299e-002
      2.2959382709247525e-001 6.9329159102078916e-002
      -3.5810213227270619e-003 -6.8547359015910830e-002
      2.5483933265997155e-002 -1.7798226010320889e-001
      -2.3845217255242404e-001 -1.9176424165190772e-001
      1.0664109310239907e-001 -5.3861405507067826e-002
      -3.9182742060348302e-002 -4.6574272578129551e-002
      -3.7214848648300457e-002 -2.3949399709032818e-002
      2.4465643051212516e-001 -1.9825922913355115e-001
      -1.4270514259187939e-001 3.4159407427790567e-001
      1.2548106539220583e-001 -2.1019776461408443e-001
      -2.9723852340767781e-001 -1.8324569058956469e-001
      2.2125869985823689e-002 -7.9320008939329278e-001
      -1.5492781541517534e-001 7.2469687738995259e-002
      1.4765859373366316e-001 3.6284566819917718e-001
