<?xml version="1.0"?>
<opencv_storage>
<my_nn type_id="opencv-ml-ann-mlp">
  <layer_sizes type_id="opencv-matrix">
    <rows>1</rows>
    <cols>3</cols>
    <dt>i</dt>
    <data>
      784 35 36</data></layer_sizes>
  <activation_function>SIGMOID_SYM</activation_function>
  <f_param1>1.</f_param1>
  <f_param2>1.</f_param2>
  <min_val>-9.4999999999999996e-001</min_val>
  <max_val>9.4999999999999996e-001</max_val>
  <min_val1>-9.7999999999999998e-001</min_val1>
  <max_val1>9.7999999999999998e-001</max_val1>
  <training_params>
    <train_method>BACKPROP</train_method>
    <dw_scale>1.0000000000000001e-001</dw_scale>
    <moment_scale>1.0000000000000001e-001</moment_scale>
    <term_criteria><epsilon>9.9999999747524271e-007</epsilon>
      <iterations>5000</iterations></term_criteria></training_params>
  <input_scale>
    1.0830222319240046e-002 -2.3104244497259185e+000
    1.0460676232568338e-002 -2.1879370805319915e+000
    1.0061760886349394e-002 -2.0498064536259615e+000
    9.7636358452079502e-003 -1.9493949646185833e+000
    9.4637318493822689e-003 -1.7912543712798668e+000
    9.1381451277053934e-003 -1.5498483857380119e+000
    8.4273470967038272e-003 -1.1849525849402611e+000
    8.4871016272610022e-003 -1.0132970039611564e+000
    8.2959869011863391e-003 -8.5411028860795835e-001
    8.4880782707709521e-003 -7.8935944666385582e-001
    9.0960366389620084e-003 -7.3116840501756231e-001
    1.0101253339666705e-002 -5.8472492786457042e-001
    1.0691508505316428e-002 -4.9491337698895693e-001
    1.0418917473096955e-002 -5.4378059915123078e-001
    9.6550411301708251e-003 -5.8462876429560329e-001
    9.8511267574104503e-003 -5.5760362998467061e-001
    1.0431363532619850e-002 -5.4963830882936038e-001
    9.8352498098941664e-003 -5.9467913688776486e-001
    9.7854340473815336e-003 -5.8683914649028646e-001
    9.6853746511560736e-003 -6.1234067003441761e-001
    9.4866974690540253e-003 -6.7621890096323367e-001
    8.9921734981655600e-003 -7.7337392428169272e-001
    8.4988207684701649e-003 -9.0232533151260508e-001
    8.4053721370573407e-003 -1.0511741807349395e+000
    8.5821846285847637e-003 -1.2894141300120618e+000
    8.4443937435739400e-003 -1.3818990425491768e+000
    8.4627851871246444e-003 -1.4287702605797814e+000
    8.4842478141705195e-003 -1.4593260508692745e+000
    1.0243455587521801e-002 -2.1415659795553026e+000
    1.0586414118007417e-002 -2.1990116786617775e+000
    1.0135747788957801e-002 -2.0128287153457194e+000
    9.5001496312742684e-003 -1.7483569837122106e+000
    9.1114020066707189e-003 -1.5262501633006549e+000
    8.5367067040499293e-003 -1.1976936094446740e+000
    8.1995689574174881e-003 -1.0334502064369455e+000
    8.6788538925538228e-003 -1.1471168821544571e+000
    8.9378821563405493e-003 -1.2773297837943105e+000
    9.0761025795299682e-003 -1.2588669452508860e+000
    9.0636670714526850e-003 -1.2927674044915756e+000
    8.8056510562270710e-003 -1.1527691986255109e+000
    8.7170077876208875e-003 -1.1283204268138534e+000
    8.8900695312117434e-003 -1.3402674429050132e+000
    9.4273975812670021e-003 -1.5056800363867737e+000
    9.0944934287854936e-003 -1.3480008907832386e+000
    8.7040322561538069e-003 -1.1696329500064089e+000
    9.0034600336061678e-003 -1.3544656101302450e+000
    9.1076494836461082e-003 -1.3110223278961186e+000
    9.1540334035666634e-003 -1.1685380806944170e+000
    8.7298838782979837e-003 -1.0025415663821988e+000
    8.9294492794208032e-003 -9.6585035385876539e-001
    8.6466565392748045e-003 -1.0254515829699997e+000
    8.9030121305312265e-003 -1.2593156381051080e+000
    8.9758646866579250e-003 -1.5013884567182978e+000
    9.7238151034665776e-003 -1.8287629256667692e+000
    9.6931717371386231e-003 -1.7244951179705277e+000
    8.3106358348551609e-003 -1.3842919488344814e+000
    9.8738683013331295e-003 -2.0148641238014915e+000
    1.0235643278149549e-002 -2.0256986983954546e+000
    9.0276649625680716e-003 -1.6028123160230106e+000
    8.5261945699567684e-003 -1.2412864580442202e+000
    8.5029162811397479e-003 -1.0298917031702208e+000
    8.1801093864326182e-003 -1.0102556327950782e+000
    8.3866105201100462e-003 -1.2161288431414714e+000
    8.8575344145937398e-003 -1.4469369114693673e+000
    9.3665588631499392e-003 -1.6620170247653099e+000
    8.7893943210100977e-003 -1.5234824206076347e+000
    9.0246949617843845e-003 -1.5777246740308017e+000
    8.8764232193063210e-003 -1.3962903944379474e+000
    8.7261460356265145e-003 -1.2493977215301453e+000
    8.2191611298945942e-003 -1.1529291342491872e+000
    8.3103669313356211e-003 -1.1080101416393526e+000
    8.4354432322545723e-003 -1.1647579096425638e+000
    8.4336136312136191e-003 -1.2458367987713417e+000
    9.0237448106115833e-003 -1.5803376095691284e+000
    9.7432182231745844e-003 -1.7961672154741697e+000
    9.0503627131044567e-003 -1.5577346742818079e+000
    8.6454921029526129e-003 -1.4575008108392364e+000
    8.7619538250130833e-003 -1.3734171250201272e+000
    8.5345627440922070e-003 -1.2755641715197945e+000
    8.5287543999106614e-003 -1.1375328483240448e+000
    8.6094044561110007e-003 -1.2498495263643423e+000
    8.7072139610076520e-003 -1.4047114563291225e+000
    8.9586636564047157e-003 -1.3951080675177467e+000
    8.1730910212439098e-003 -1.2911696513619537e+000
    9.0725290607932101e-003 -1.6776430498216848e+000
    8.9836407676058619e-003 -1.4960688379986755e+000
    8.4637447254626505e-003 -1.2364071127210370e+000
    8.2275972514896135e-003 -1.0672307788976501e+000
    8.4236611538176451e-003 -1.0802476036238495e+000
    8.4056343207439613e-003 -1.2097742220136725e+000
    9.2253823649573342e-003 -1.5865034374794738e+000
    9.5959565176364711e-003 -1.7425312665436461e+000
    9.0988534976372860e-003 -1.5920153094661571e+000
    8.6656383576469865e-003 -1.3939771971124537e+000
    8.6186209321761405e-003 -1.3297970014373948e+000
    8.4530596856298365e-003 -1.1778293712311345e+000
    8.4452673393440921e-003 -1.1284876665838470e+000
    8.3961502833699748e-003 -1.1192924776463915e+000
    8.2512691168683851e-003 -1.0547367910459411e+000
    8.5503430299700266e-003 -1.1397539329146200e+000
    8.5928240478480092e-003 -1.2890514722845290e+000
    9.0969041346197384e-003 -1.5660847824509307e+000
    8.8687460196436758e-003 -1.5431695474136820e+000
    9.0626839490817908e-003 -1.5648287173178250e+000
    9.2223405139003310e-003 -1.6151179140414085e+000
    9.3995455146194673e-003 -1.6209001440756745e+000
    8.5353470435034495e-003 -1.2850996487366135e+000
    8.3706823645061136e-003 -1.1341730423555767e+000
    8.4052285199389103e-003 -1.1100097813407095e+000
    8.6124094558750978e-003 -1.1666412821764307e+000
    8.2386619242988731e-003 -1.1561338505045606e+000
    8.2167477513689548e-003 -1.2617128257415577e+000
    8.7642382428835628e-003 -1.5368420054299969e+000
    8.8144329324036687e-003 -1.3527694492764633e+000
    8.5222134256249665e-003 -1.1979969103749852e+000
    8.8868706305062200e-003 -1.2973632342319141e+000
    8.9117751072224499e-003 -1.3192622294243472e+000
    9.2513221200038881e-003 -1.5229992964261405e+000
    9.2439723691268381e-003 -1.6200283547088883e+000
    8.7322716331767278e-003 -1.3850203058745632e+000
    8.7963393592758298e-003 -1.1352027125702364e+000
    8.8112304717445095e-003 -9.9382269514805377e-001
    8.5395628448078874e-003 -1.0075714385316528e+000
    8.8037879926544400e-003 -1.0544684808788856e+000
    8.9506733825869839e-003 -1.1758364656219893e+000
    9.2909939652962830e-003 -1.3890719885588585e+000
    8.8508189352510241e-003 -1.2281169787076067e+000
    8.8546040511747887e-003 -1.1897308321356306e+000
    8.5855767232944219e-003 -1.1862099421976682e+000
    8.4618672140861096e-003 -1.1301473395943484e+000
    8.5188828642210387e-003 -1.0512748102712752e+000
    8.7376575747677016e-003 -1.1278733590987313e+000
    8.5172378053375245e-003 -1.2127648834735583e+000
    8.5660871226117506e-003 -1.3334148092453679e+000
    8.6038035129359317e-003 -1.2818740562757291e+000
    8.5844206462219498e-003 -1.2140961546715154e+000
    8.5625161934545779e-003 -1.1254132995963491e+000
    8.5781895892136899e-003 -1.0491853768395554e+000
    8.3174160860378515e-003 -1.1589748551734431e+000
    8.4377684257827233e-003 -1.3455847710692246e+000
    8.6253295158750295e-003 -1.4693655644674326e+000
    8.6691746734421839e-003 -1.2865395612661172e+000
    9.2091870671699074e-003 -1.4255154382673121e+000
    9.0633215973575758e-003 -1.4303860827865356e+000
    9.1338435895062225e-003 -1.4522152211919492e+000
    8.7623475583930941e-003 -1.4179188709977002e+000
    8.8964689529887481e-003 -1.2709255352278255e+000
    9.0794224531723193e-003 -1.0144138185767182e+000
    9.0056206014286679e-003 -8.8430180562034322e-001
    8.9682011719154544e-003 -8.7131645658348766e-001
    9.0722460371853910e-003 -1.1377521645113315e+000
    9.5067480722554592e-003 -1.3717952059572389e+000
    9.0329713041656431e-003 -1.4212920486957006e+000
    9.2740846468473779e-003 -1.6598234553125804e+000
    8.9504483629755851e-003 -1.4611938758154344e+000
    9.0443682338047972e-003 -1.3821462221047034e+000
    9.3323330003396727e-003 -1.3511294241926299e+000
    8.8989479050621770e-003 -1.1604804847652410e+000
    8.8035406304460048e-003 -1.0451605154207941e+000
    8.5903394264225837e-003 -1.0917217591362249e+000
    8.6360897481614456e-003 -1.2051337004740836e+000
    9.0525421835082037e-003 -1.4502201146539069e+000
    9.0792342712803197e-003 -1.4786842627821859e+000
    8.9143198423667688e-003 -1.4002276128072051e+000
    8.7527225442104260e-003 -1.2722197832739703e+000
    8.6688775823160081e-003 -1.1709226346076458e+000
    8.8333980516180979e-003 -1.2870794435980168e+000
    8.8766562850245371e-003 -1.5610287126651459e+000
    8.3625520271711912e-003 -1.3523043603508298e+000
    8.5625165255684040e-003 -1.2696582755976924e+000
    8.8400457950851413e-003 -1.3263953824354833e+000
    8.8825200927125075e-003 -1.3480442224392806e+000
    8.8809073450520394e-003 -1.3236932514759543e+000
    8.8828772857352523e-003 -1.2995368337099844e+000
    8.7668293173083882e-003 -1.1030657570184730e+000
    8.6794084871375469e-003 -9.2414073947237108e-001
    8.6494271383792207e-003 -8.9572416718726733e-001
    8.9901784411660166e-003 -1.0648531670806254e+000
    9.2152220060014983e-003 -1.4654071805952567e+000
    9.3854069101278782e-003 -1.6364608527335385e+000
    9.3491708875152943e-003 -1.6670737262543214e+000
    1.0830855894202062e-002 -2.1779571347184641e+000
    9.6244026018049607e-003 -1.7660972414354084e+000
    8.8665778181187972e-003 -1.4669331707097721e+000
    8.9794331358329076e-003 -1.4008223666414201e+000
    8.8624321632413995e-003 -1.3264261755340103e+000
    8.7658789759942173e-003 -1.2152600491976959e+000
    8.5121789645192653e-003 -1.1398160380273359e+000
    8.9360434436639834e-003 -1.3724336546939564e+000
    9.2038455211333713e-003 -1.5272662639041308e+000
    8.9261985318339499e-003 -1.4914012087484705e+000
    8.9034559651489046e-003 -1.4264309347499666e+000
    9.0583754875606520e-003 -1.4485854951672523e+000
    8.9901714052399301e-003 -1.3560650803710428e+000
    8.6438905616321900e-003 -1.2708419335491594e+000
    8.7070162816664104e-003 -1.5310935985337699e+000
    8.5970923699738074e-003 -1.4601953958038321e+000
    8.8964087334113939e-003 -1.4592841968416805e+000
    9.2777027552511538e-003 -1.6090475483464386e+000
    9.3093483055237750e-003 -1.6644525720996770e+000
    9.2009754969542938e-003 -1.5971176763067219e+000
    8.9183811340446083e-003 -1.4721266121497660e+000
    8.9713594372785848e-003 -1.3006157912888165e+000
    8.7100798428090091e-003 -1.1925929163277034e+000
    8.8524570983816459e-003 -1.2233542006850069e+000
    8.6141319237346883e-003 -1.2355421913679558e+000
    8.7581289380696346e-003 -1.4523727301858247e+000
    9.3168914935996931e-003 -1.6192368615076227e+000
    9.6770060437340009e-003 -1.7641712741968891e+000
    1.0320928455128518e-002 -2.0564062839332404e+000
    9.6991065776628940e-003 -1.7741934430175395e+000
    8.8961745232045437e-003 -1.4060405078006664e+000
    8.9870573949430467e-003 -1.3827786799791901e+000
    9.2452605731699194e-003 -1.5193502282055873e+000
    9.0038756655963659e-003 -1.4035708238676556e+000
    8.4953256358500182e-003 -1.1386872434026205e+000
    8.7058181738372716e-003 -1.3448993932964375e+000
    9.1624570159241393e-003 -1.5373397255580490e+000
    9.5574963016187113e-003 -1.6742871499396732e+000
    8.9754653131626904e-003 -1.4864077486835321e+000
    8.8893068332279498e-003 -1.4403455083057219e+000
    8.9564012375882105e-003 -1.3963391345753751e+000
    8.5642169689318821e-003 -1.2804471264873263e+000
    8.5784246151872200e-003 -1.4623726293428281e+000
    8.6848266571816820e-003 -1.5628766681850539e+000
    9.3207022065879431e-003 -1.7196748227021903e+000
    1.0676162696243961e-002 -2.1442835135151044e+000
    1.0482143144280882e-002 -2.1303213078356151e+000
    1.0042608469450738e-002 -2.0085894604410930e+000
    9.7078057789227908e-003 -1.8470766749025123e+000
    9.7464627341222378e-003 -1.7543137543684999e+000
    9.3475751387371020e-003 -1.5961451614996018e+000
    9.3004629559732127e-003 -1.5657051717500854e+000
    8.8012724872511446e-003 -1.4117091054230519e+000
    8.5369142560506490e-003 -1.3982469760453187e+000
    9.6770988937700288e-003 -1.6873171390133737e+000
    9.4729184368271303e-003 -1.7075665993721465e+000
    1.0458681523861110e-002 -2.0555134293364539e+000
    9.9031265979331127e-003 -1.7980574560688567e+000
    8.8343796071901157e-003 -1.4089404799205525e+000
    8.9987663245021474e-003 -1.3639859633386922e+000
    8.7771580650797335e-003 -1.3740489129987312e+000
    8.8232137338282914e-003 -1.2640270464825667e+000
    8.5822155729730377e-003 -1.2371068243896775e+000
    8.7911105376875399e-003 -1.3882714185261777e+000
    1.0627024818568099e-002 -1.9533823632887157e+000
    1.0177560648535599e-002 -1.9445594908996098e+000
    9.2906067753832731e-003 -1.6305149149991451e+000
    8.9261290039595580e-003 -1.4979044722628936e+000
    9.2447636579590237e-003 -1.5849338937123714e+000
    8.8723690162212463e-003 -1.4593524817843513e+000
    8.6387163455291568e-003 -1.5085805508238239e+000
    8.6077356576231105e-003 -1.5290947240192581e+000
    9.5614057749137272e-003 -1.8092120639481131e+000
    1.0616706343238313e-002 -2.1442401570788134e+000
    1.0810950496179117e-002 -2.2615352734463734e+000
    1.0696645130303228e-002 -2.2205222756738978e+000
    1.1383174459572886e-002 -2.3816006106776739e+000
    1.1135490374604897e-002 -2.2323654372225832e+000
    9.6879950455450049e-003 -1.7960222325992012e+000
    9.8720588443153654e-003 -1.8262207057616535e+000
    9.2032915093631928e-003 -1.5655140052934833e+000
    8.6590059369088309e-003 -1.4011485553889464e+000
    8.8206557661103351e-003 -1.4132728612594609e+000
    9.3550778794849760e-003 -1.5887315844777605e+000
    1.0406187322160764e-002 -1.9917080752828988e+000
    1.0071868240321455e-002 -1.8597174127234293e+000
    9.1036567767653811e-003 -1.4293492785869688e+000
    8.6569116198260392e-003 -1.2164150719887725e+000
    8.5143669341099636e-003 -1.2316042923604595e+000
    8.8238589600517486e-003 -1.2295268302092839e+000
    8.6932087930292907e-003 -1.2784343206693847e+000
    1.0114860787750275e-002 -1.8212553916563725e+000
    1.1773994542888168e-002 -2.3994454458879964e+000
    1.0348382991817453e-002 -1.9885388583334793e+000
    8.9711276021165985e-003 -1.5555253234305972e+000
    9.1410703706967088e-003 -1.6244118020570029e+000
    9.4666797712867398e-003 -1.7571539555200346e+000
    9.5568260937641900e-003 -1.7504682223523811e+000
    8.7473201133652888e-003 -1.5833177117225115e+000
    8.6107523406147649e-003 -1.5253416315801052e+000
    9.7213655329061923e-003 -1.8433862650135486e+000
    9.9817798692153660e-003 -1.9596282438375749e+000
    1.0891128050910267e-002 -2.2558766895939439e+000
    1.2423048440721299e-002 -2.6967061512706332e+000
    1.4348808780508746e-002 -3.1903725875620190e+000
    1.1324865907269400e-002 -2.3660514253623215e+000
    1.0179727637687161e-002 -2.0312956416948191e+000
    1.0510876825646729e-002 -2.0296563598539201e+000
    1.0137528110097993e-002 -1.8304777816120392e+000
    8.4741960181814180e-003 -1.3331219077922831e+000
    8.7696271384971047e-003 -1.2516237488144522e+000
    9.0392566024804430e-003 -1.4598448899296246e+000
    9.6810474276460869e-003 -1.7872121578254023e+000
    9.4568888287889456e-003 -1.6439206761671452e+000
    8.9056793906235228e-003 -1.3696068757567128e+000
    8.7574887078518838e-003 -1.2140590445201953e+000
    8.7886448857926111e-003 -1.2470880113984071e+000
    8.8630291660068243e-003 -1.2883748493692742e+000
    9.0634869335662963e-003 -1.4906243984363621e+000
    9.4431476895572852e-003 -1.6499710430424845e+000
    1.0559731334116265e-002 -1.9630725476553570e+000
    9.3124224199570334e-003 -1.6185003422585309e+000
    8.8060201474613881e-003 -1.4810420235661044e+000
    9.4840602734696869e-003 -1.7827928608718120e+000
    1.0848898209691865e-002 -2.2067375351999083e+000
    1.0721421535782722e-002 -2.1591687330597056e+000
    9.0716447254156080e-003 -1.7028233440978158e+000
    8.5385386418270100e-003 -1.4234541643294030e+000
    8.9781750843124022e-003 -1.5794634791165505e+000
    9.4670119812929211e-003 -1.7946829104288760e+000
    9.6675316131237081e-003 -1.8730795647322336e+000
    1.0344679124052632e-002 -2.0273049568574151e+000
    1.0640484476274843e-002 -2.1570092787753126e+000
    9.8040729539465073e-003 -1.9096361488587497e+000
    9.6077927620896609e-003 -1.8446876028671022e+000
    1.0250055376547745e-002 -1.8872393449980160e+000
    9.1215254883510247e-003 -1.4807024723449191e+000
    8.6887914943540139e-003 -1.1731892103150061e+000
    8.5537650175005545e-003 -1.1169380961030522e+000
    8.9292557211226257e-003 -1.2775314455632065e+000
    8.7468160531064994e-003 -1.3999335539186513e+000
    8.7884079176326051e-003 -1.3811851207294519e+000
    8.6656067928696460e-003 -1.1856389340654574e+000
    8.6314650543064825e-003 -1.0326181982382807e+000
    8.6870599413309390e-003 -1.2714183354402064e+000
    9.8652542578752823e-003 -1.6753803864601553e+000
    9.2101512377188201e-003 -1.5125311262446395e+000
    8.7359510764956124e-003 -1.3276122329100160e+000
    8.8180098503389519e-003 -1.3270759687317530e+000
    8.4046203459459332e-003 -1.2163897810161692e+000
    8.8596758545990452e-003 -1.4131976360587464e+000
    9.9881272065459326e-003 -1.9182490583853624e+000
    1.1291836856349595e-002 -2.3639989966717816e+000
    1.0251464918467852e-002 -2.0457914648660300e+000
    8.6389296976978006e-003 -1.5412840760538675e+000
    8.2657269958201132e-003 -1.3544498202421376e+000
    9.3110746781530831e-003 -1.7273643119604942e+000
    9.6746265095536375e-003 -1.8484822797505962e+000
    1.0427992034258978e-002 -2.0568921058835503e+000
    9.9747001814489440e-003 -1.9402926963575460e+000
    9.6999873551466154e-003 -1.9000770754369187e+000
    9.6005496495181405e-003 -1.7732527378912721e+000
    9.5797247349071468e-003 -1.7727066311787281e+000
    9.5383524044053928e-003 -1.6876669921457244e+000
    8.6911734721605068e-003 -1.3576281529322396e+000
    8.3379987474708778e-003 -1.0915934724072576e+000
    8.3930666042639195e-003 -9.6251948080555716e-001
    9.1581820251156586e-003 -1.2869870458969970e+000
    8.8020480630853059e-003 -1.3796672496225688e+000
    8.6343831338451717e-003 -1.3153956383443135e+000
    8.8604561448089366e-003 -1.2852092393400942e+000
    8.5205633765135652e-003 -1.1164082281530876e+000
    8.7011135774612662e-003 -1.3098902406623996e+000
    9.6141670371287825e-003 -1.6424374967178070e+000
    8.7043338065522242e-003 -1.3218636507020030e+000
    8.3694793900236097e-003 -1.1959042467987691e+000
    8.7100295695974536e-003 -1.2234442731809640e+000
    8.6686140244885499e-003 -1.3078035605630984e+000
    8.8891801476704245e-003 -1.4048687350870912e+000
    9.9587598216590596e-003 -1.8743809420721631e+000
    1.0989788036798441e-002 -2.2490545637915011e+000
    9.6805120055458837e-003 -1.8659165719400677e+000
    8.4230775283962393e-003 -1.4447876497484651e+000
    8.3109293336428875e-003 -1.3724997373400165e+000
    1.0135535888835942e-002 -2.0134794062003460e+000
    1.1145329191891064e-002 -2.3379676940267937e+000
    1.0881079597712104e-002 -2.2747992430336210e+000
    1.1210943218339925e-002 -2.3386696947389507e+000
    1.1356166557933757e-002 -2.4161607603263082e+000
    1.1030673931661957e-002 -2.3173524842337305e+000
    1.0662808840800593e-002 -2.1908590691652199e+000
    1.0154015112193198e-002 -1.9117091264544810e+000
    9.2845430989239620e-003 -1.5433158306410641e+000
    8.9115137435929158e-003 -1.4420813687601273e+000
    8.6395890021423068e-003 -1.2740512685982883e+000
    9.1314905297433004e-003 -1.4671253676183853e+000
    8.9677490571640258e-003 -1.5526954656129150e+000
    9.2344131837130815e-003 -1.6324928604163107e+000
    1.0221334800905618e-002 -1.9174571248699384e+000
    9.4007651974422953e-003 -1.6774553490421227e+000
    1.0565762456949549e-002 -2.0558273061528247e+000
    1.1475348422010591e-002 -2.3215805203470143e+000
    9.3119460240660128e-003 -1.6719987388067210e+000
    8.8465547749907378e-003 -1.4795016745795235e+000
    9.3893949218259148e-003 -1.5711753664635024e+000
    9.1976865051666534e-003 -1.5976775744302669e+000
    9.1777793053408087e-003 -1.6189335046795124e+000
    9.8557648197234605e-003 -1.8938583116590384e+000
    1.0207833312655590e-002 -2.0320359808521378e+000
    9.9918157433691295e-003 -1.9362666314271482e+000
    8.3681640108959239e-003 -1.3916456808956892e+000
    8.2984159855129091e-003 -1.3837690285551802e+000
    1.0443156646926235e-002 -2.0800131717951249e+000
    1.1236209917260346e-002 -2.3878403042875829e+000
    1.1611070111347399e-002 -2.5178616155368365e+000
    1.2141251742795551e-002 -2.5908758196595709e+000
    1.2361984918515258e-002 -2.7137428643592152e+000
    1.0879455613987706e-002 -2.2569078283392847e+000
    9.8487380186778068e-003 -1.8781896975314158e+000
    9.7505647026785592e-003 -1.7806954236668977e+000
    9.5679616897649620e-003 -1.6439102089486857e+000
    9.0665789245650448e-003 -1.4234707758213498e+000
    9.0240725336821898e-003 -1.2980487243466683e+000
    9.0429814334292025e-003 -1.3909818516222301e+000
    8.6751333724489395e-003 -1.4323152552707215e+000
    9.3182304104471644e-003 -1.5970824639217431e+000
    9.7527565487586457e-003 -1.7540481599730611e+000
    9.2709161429493231e-003 -1.5681749260526867e+000
    1.0016305116797708e-002 -1.8557415131995383e+000
    1.0857852468863102e-002 -2.1314529496283936e+000
    9.7917421979709512e-003 -1.8047780578831427e+000
    9.1401018348346193e-003 -1.5873805428691707e+000
    9.6817949366847598e-003 -1.7722666642240903e+000
    9.9179388827053492e-003 -1.8863218338925625e+000
    9.5868684554687843e-003 -1.7214187867331816e+000
    9.6098731810472533e-003 -1.7339336129572511e+000
    9.6653255438647594e-003 -1.8079177409424325e+000
    9.4278806331514822e-003 -1.7460969617733850e+000
    8.1225677878366057e-003 -1.2679811940841503e+000
    8.2092959162161812e-003 -1.3224842959363652e+000
    9.8100625346553214e-003 -1.8868951547243773e+000
    1.1005415432513765e-002 -2.2842568673736250e+000
    1.0539783203273019e-002 -2.1341237152307455e+000
    1.0288006463009253e-002 -2.0645289284821033e+000
    1.0506180785035733e-002 -2.1891923798368533e+000
    9.5972841085115463e-003 -1.8478161055564513e+000
    9.0126461492194224e-003 -1.6013920966391335e+000
    9.0519388578189832e-003 -1.5198488982542933e+000
    8.8981277015150687e-003 -1.3090802078864394e+000
    8.7132383098844912e-003 -9.8984831347429103e-001
    8.8369670471998112e-003 -8.5360914573843638e-001
    8.7538127874102548e-003 -9.5451745272573318e-001
    8.3326573026227743e-003 -1.0265751917672523e+000
    8.4635123913826202e-003 -1.1523995034294108e+000
    8.6306723890271098e-003 -1.2511096401518012e+000
    8.8079927159426877e-003 -1.2660224863784975e+000
    8.8205968887276297e-003 -1.3190489467373352e+000
    9.3426866046913016e-003 -1.5576342261778338e+000
    8.8747076158644765e-003 -1.4993120802550535e+000
    9.2455975316285393e-003 -1.6638991100593572e+000
    1.0212125819112213e-002 -1.9703788294752702e+000
    1.0426853156152209e-002 -2.0874233616548796e+000
    9.5097016449135988e-003 -1.7636564484580852e+000
    8.8181055573687134e-003 -1.5057217129250027e+000
    8.5416593278008976e-003 -1.3288103395824373e+000
    8.5630381116018860e-003 -1.2682319981920216e+000
    8.1424646845621035e-003 -1.1723935394078862e+000
    8.3112141671145522e-003 -1.3517792890986096e+000
    9.7147579083994538e-003 -1.7919928264578937e+000
    1.0237721776760581e-002 -2.0816319611102223e+000
    1.0985938274528427e-002 -2.3306149640618550e+000
    1.1155813583691283e-002 -2.3570079367331149e+000
    1.2603314680411324e-002 -2.7592891468557195e+000
    1.3001860335123109e-002 -2.8530765306438020e+000
    1.1300564267159328e-002 -2.3298472329881945e+000
    1.0191136395627709e-002 -1.8648777188803867e+000
    9.0058294612514016e-003 -1.3829712702021137e+000
    8.6513031608046308e-003 -1.1245462659704655e+000
    8.8011731750974979e-003 -1.0128753906725603e+000
    8.7947812093958581e-003 -1.1385600292510689e+000
    8.9063276597621029e-003 -1.4363510823901431e+000
    9.1579919554624824e-003 -1.5390836291030119e+000
    8.8144324503468627e-003 -1.3889454800259025e+000
    9.0981833351216276e-003 -1.3125116862990855e+000
    8.7037025532342247e-003 -1.1939659501504576e+000
    8.7693610734293770e-003 -1.2780210019926057e+000
    9.0268607429589177e-003 -1.5071278858733506e+000
    1.0220388143284020e-002 -1.9805404879500419e+000
    1.1851379274273313e-002 -2.5251777522006416e+000
    1.3458354298099641e-002 -3.0134579746464456e+000
    1.0817119978719073e-002 -2.1519646643548462e+000
    9.0466218586587981e-003 -1.5867321552122398e+000
    8.6087465268162092e-003 -1.3899250249070190e+000
    8.4706671989403255e-003 -1.2104293995291324e+000
    8.1194856613891232e-003 -1.1047973745245712e+000
    8.2974934191899306e-003 -1.3531461175331512e+000
    9.8820021372087972e-003 -1.8397444764535871e+000
    1.1934575583909469e-002 -2.5895233812761949e+000
    1.3875410106368885e-002 -3.1573784768086282e+000
    1.5131697305889400e-002 -3.4770351459317150e+000
    1.8008323475535132e-002 -4.2822374309667302e+000
    1.6841673211819293e-002 -3.8977479127452108e+000
    1.0899824546363542e-002 -2.1796616847687376e+000
    8.8914349294670503e-003 -1.4843075951564975e+000
    8.5472586235897999e-003 -1.2789020731768612e+000
    8.5555900400540452e-003 -1.2859830667881507e+000
    8.7644114473095225e-003 -1.3532073577690908e+000
    9.4511796312697419e-003 -1.6352096767151925e+000
    1.0948104117354631e-002 -2.2230332070204439e+000
    1.1185202308405567e-002 -2.3309053692653356e+000
    9.2811652019914211e-003 -1.5974490866672741e+000
    8.9529905496870052e-003 -1.3016490719793667e+000
    8.5693318793446886e-003 -1.1229395316891269e+000
    8.8219779195748346e-003 -1.1619172472986103e+000
    9.2887504105076558e-003 -1.5826123595418267e+000
    1.0447863754025757e-002 -2.0864091519202841e+000
    1.4848547989787601e-002 -3.3263110458820471e+000
    1.4697777317993281e-002 -3.3456414906575422e+000
    1.2235912268509050e-002 -2.6073651609046902e+000
    1.0148906084499382e-002 -2.0058338433943321e+000
    9.4027444274791885e-003 -1.7252341718011812e+000
    9.1506467793840938e-003 -1.4643476856943538e+000
    8.0592679853330601e-003 -1.1711814642982512e+000
    8.1113092675498440e-003 -1.2768180566950635e+000
    9.4565229847864991e-003 -1.7161416800356033e+000
    1.1942320471169903e-002 -2.5589894391077714e+000
    1.5186910356423607e-002 -3.4955685371770286e+000
    1.4920918942446399e-002 -3.4279507187954654e+000
    1.4550886679016280e-002 -3.3077691694951530e+000
    1.2102541920926588e-002 -2.5258271751227657e+000
    9.1055804601055928e-003 -1.5129383931671703e+000
    8.5447729792931734e-003 -1.2317464300256920e+000
    8.7599974353727815e-003 -1.2631396885467321e+000
    9.1103784846677336e-003 -1.4998644664124601e+000
    9.2428860673158236e-003 -1.5416959698883765e+000
    9.9991461595658349e-003 -1.8012997326195852e+000
    1.2113588695058200e-002 -2.5480040342508752e+000
    1.1553958127572036e-002 -2.3494841445173238e+000
    9.0036493059122182e-003 -1.5125578408963167e+000
    8.7324835467469351e-003 -1.3262793235642676e+000
    8.6576501472577557e-003 -1.2111454069219469e+000
    8.9559433809680653e-003 -1.2624860632541834e+000
    9.1901937465321201e-003 -1.5183548514720810e+000
    9.9187486621783953e-003 -1.9083299226263037e+000
    1.3124299257290405e-002 -2.8215117846410371e+000
    1.1460138468344615e-002 -2.3976895533972860e+000
    9.8181429150664117e-003 -1.9121337760304387e+000
    9.5176529096789465e-003 -1.8149907232947167e+000
    9.3459938337186743e-003 -1.6825764350553172e+000
    9.0473414776615323e-003 -1.4403598171981655e+000
    7.9894663626956797e-003 -1.1539857840083956e+000
    8.2584587412467686e-003 -1.2947549830451088e+000
    8.9211658319089341e-003 -1.5166437851792096e+000
    1.0449303400684907e-002 -2.1208806227020416e+000
    1.1189452710441439e-002 -2.3667745466971652e+000
    1.0946167311863627e-002 -2.2739031090500106e+000
    1.0777980919643366e-002 -2.1634039800307483e+000
    9.8184601278222452e-003 -1.7379720775421466e+000
    8.4604671948177532e-003 -1.1547764846692368e+000
    8.5058625257847329e-003 -1.1423950654551691e+000
    8.8005025552443748e-003 -1.3391023822676664e+000
    8.9897401798261778e-003 -1.5417774887766669e+000
    8.7996312456663766e-003 -1.4179686836287635e+000
    9.1996272597701222e-003 -1.5388713278262234e+000
    9.6550417308571852e-003 -1.7274550113797595e+000
    9.2653267084118664e-003 -1.6628455541433120e+000
    8.4808496266252295e-003 -1.3551300564328852e+000
    9.1559641892422512e-003 -1.4769813136878296e+000
    9.0480661941025348e-003 -1.4775142265227319e+000
    8.8302314936435228e-003 -1.3055744703356729e+000
    8.8145331020441416e-003 -1.4206296245622856e+000
    9.5981982263414929e-003 -1.7069463734109775e+000
    1.0294295720571060e-002 -1.9172576638603631e+000
    9.5723365892064170e-003 -1.8004621938379535e+000
    9.1583630642261358e-003 -1.6873666617003638e+000
    8.9751019191976946e-003 -1.6119964437848422e+000
    9.2468530403421907e-003 -1.6197812167986942e+000
    8.6898138421019865e-003 -1.3542411441671671e+000
    8.0313446892142162e-003 -1.1807684270214984e+000
    8.2886975665834896e-003 -1.3081794578060246e+000
    8.7467420667405090e-003 -1.4406680960719229e+000
    1.0156528302408877e-002 -1.9540100993764871e+000
    1.0321922317236632e-002 -2.0422142291427381e+000
    9.6809204169806973e-003 -1.8228861034739190e+000
    9.6973429151781740e-003 -1.7532852476649274e+000
    8.7413180901508257e-003 -1.3537451340641675e+000
    8.5545827563208478e-003 -1.1549739105029750e+000
    8.7716632400912653e-003 -1.2700041846426482e+000
    9.1309316403412090e-003 -1.4719962332766199e+000
    9.4534502762564747e-003 -1.6348746866836601e+000
    9.1603318866836855e-003 -1.4927989498498220e+000
    9.1436527252003498e-003 -1.4875629356032916e+000
    9.1965731060945476e-003 -1.6033945216762939e+000
    9.4412883610493561e-003 -1.7025289326910831e+000
    9.1129591893274031e-003 -1.5523390199602767e+000
    9.6495923238143315e-003 -1.7249904235459279e+000
    9.4935102849080279e-003 -1.6862850929148636e+000
    8.8110956695787810e-003 -1.2592935643453351e+000
    8.7431995260743942e-003 -1.2169240030231521e+000
    8.7496120244032576e-003 -1.2850000857674317e+000
    9.2302117941873117e-003 -1.4792483166182870e+000
    9.1519980542463502e-003 -1.5994875611477588e+000
    9.4665932069092368e-003 -1.6771306070251994e+000
    9.3339886114707973e-003 -1.6902121802380470e+000
    9.3341355387484941e-003 -1.5642055219432556e+000
    8.8920946890484014e-003 -1.3657643066416458e+000
    8.2414702061757161e-003 -1.2701935752500277e+000
    8.3973644325901712e-003 -1.2945370892324717e+000
    8.8946879404640505e-003 -1.3691570133813031e+000
    9.7114597261199996e-003 -1.6781863817870140e+000
    9.3790601915805238e-003 -1.6271936904613977e+000
    8.9244356518023392e-003 -1.4299254630638352e+000
    8.7672571724010107e-003 -1.3299731530806076e+000
    8.8797730364272385e-003 -1.3185537481586533e+000
    9.0368999091344996e-003 -1.3442069215016468e+000
    9.0759918546344746e-003 -1.3841980665598455e+000
    9.0281092647636393e-003 -1.3871091603415224e+000
    8.9062929564797996e-003 -1.4380039244952507e+000
    8.9587265002085414e-003 -1.4524629148304795e+000
    9.2209711313139785e-003 -1.5513558069215923e+000
    9.4918012670111573e-003 -1.7088189342811639e+000
    1.0379796301868496e-002 -1.9749506512163748e+000
    9.4148137663970007e-003 -1.6915638444530585e+000
    9.3510177883896848e-003 -1.6163190450928930e+000
    9.3735330540350627e-003 -1.5430853543142180e+000
    9.1939329565827559e-003 -1.2498896522427816e+000
    8.6597629397242009e-003 -1.0400313291232828e+000
    8.6282740528390127e-003 -1.1076362112643650e+000
    9.0607455846956775e-003 -1.3830045107451610e+000
    9.2330743814807714e-003 -1.5546614475404639e+000
    9.2077519280668544e-003 -1.5867521405002543e+000
    8.8975803610501156e-003 -1.4545797770885749e+000
    9.1173347863735994e-003 -1.4276109950023241e+000
    8.6771887409112028e-003 -1.3344604968359739e+000
    8.2273198627902128e-003 -1.2803422023051780e+000
    8.1531303604234235e-003 -1.1571950242493501e+000
    8.5885343432150398e-003 -1.2391107644498454e+000
    8.6712731969404763e-003 -1.2743159682799072e+000
    8.4127565137451007e-003 -1.2109842980162995e+000
    8.5469246823591475e-003 -1.2392280538811973e+000
    8.5333066464692627e-003 -1.2423788123949207e+000
    8.5580760389828651e-003 -1.1466209233540154e+000
    8.6566085733200404e-003 -1.1532831483948531e+000
    8.9173905514242872e-003 -1.1781441660912448e+000
    8.6553617217898539e-003 -1.1446850956272827e+000
    8.6698540337571354e-003 -1.2586252131542155e+000
    9.1387022553876540e-003 -1.4571449212188432e+000
    9.4843447147397140e-003 -1.6450646233874897e+000
    9.5331313330513211e-003 -1.8076292859527663e+000
    9.7050735063386288e-003 -1.7699095651551513e+000
    9.1656037967276453e-003 -1.5205929113622438e+000
    9.0139284552041773e-003 -1.3371075930076104e+000
    8.7113647664799482e-003 -1.1684521218168551e+000
    8.8477409853295382e-003 -1.0888374100673632e+000
    8.6717654828290403e-003 -1.0795329735095833e+000
    8.6371630097764503e-003 -1.1788736019755621e+000
    9.4448249519127822e-003 -1.5548323522290615e+000
    8.9850206598159604e-003 -1.5513729469229816e+000
    9.1464423417091396e-003 -1.4810250992054468e+000
    9.1216407411966703e-003 -1.3928871059054095e+000
    8.8982750998991608e-003 -1.3632494856025188e+000
    8.8430277402469365e-003 -1.3957093279056376e+000
    8.5625570576123057e-003 -1.4283058974462268e+000
    8.1496553413020843e-003 -1.1240608752936909e+000
    8.6490868409663801e-003 -1.2338898634460975e+000
    8.8510626895652554e-003 -1.2749218217392404e+000
    8.6677650078027212e-003 -1.2783902001374634e+000
    8.8022596021970698e-003 -1.3572045126081358e+000
    8.7394863636165148e-003 -1.3412122835312721e+000
    8.5090034652418670e-003 -1.2618702828614248e+000
    8.5453357609774922e-003 -1.2027846215799685e+000
    8.7113843671867176e-003 -1.0591317502112898e+000
    8.7682995295958327e-003 -1.0488675372474252e+000
    8.7330537323821334e-003 -1.1941742754901923e+000
    8.6834059994771676e-003 -1.2334000859683671e+000
    9.2368588341072370e-003 -1.4573713921687821e+000
    9.5102950082406358e-003 -1.6285743670630282e+000
    9.3700925735252742e-003 -1.4724152754165050e+000
    8.9981303869090569e-003 -1.1657304475618588e+000
    8.6441304362669755e-003 -9.7621153345633294e-001
    8.4183250676148260e-003 -1.0375725162877796e+000
    8.5509964135152029e-003 -1.1145644454037484e+000
    8.7103515835103319e-003 -1.2843083807111300e+000
    8.8332549227552355e-003 -1.4616351656053974e+000
    8.9046814472143240e-003 -1.5000069305185981e+000
    8.9905132942762755e-003 -1.3956572336105819e+000
    8.8423353984341101e-003 -1.2353318279017391e+000
    8.7746682177819012e-003 -1.2726108807001266e+000
    8.7237966105067830e-003 -1.3396680195981032e+000
    8.8306708368816825e-003 -1.4149467609827868e+000
    9.3033365651144263e-003 -1.7582348666293450e+000
    7.9845433162686278e-003 -1.0136381851768981e+000
    8.4980130808334723e-003 -1.1299509310975864e+000
    8.5174309330632771e-003 -1.2554682714968601e+000
    8.5202754610635475e-003 -1.2283590064053684e+000
    8.3580669309783161e-003 -1.2034797057959874e+000
    8.4091445884441878e-003 -1.2851053790575728e+000
    8.8731124540957790e-003 -1.4688543348420557e+000
    8.7361215006009438e-003 -1.3873467894656963e+000
    8.3575532280668365e-003 -1.2168956345536848e+000
    8.4256963752434126e-003 -1.2051087042051318e+000
    8.3727960644780063e-003 -1.0870319981129648e+000
    8.5172607465429633e-003 -9.4285295546188475e-001
    8.4679679160747316e-003 -9.7220689466292010e-001
    8.4731783868812385e-003 -1.0684477764201568e+000
    8.2855772246819837e-003 -1.0001593953245673e+000
    8.4634635701900159e-003 -9.5237376665664297e-001
    8.4903628578222902e-003 -1.0550660440942636e+000
    8.5056259456702289e-003 -1.2341054601832622e+000
    9.1379206643865812e-003 -1.5288473028249647e+000
    9.0836622103969318e-003 -1.5804402606612233e+000
    8.9261437852137353e-003 -1.5687181156905716e+000
    8.7526558349764541e-003 -1.4104300123370817e+000
    8.4659591623119056e-003 -1.0938196893791108e+000
    8.4481875168539600e-003 -9.6719475671775346e-001
    8.4726997912951338e-003 -1.0362365104802058e+000
    8.6706614994739480e-003 -1.2915966574613846e+000
    9.0470620558674702e-003 -1.5325524667872994e+000
    9.0650048017384740e-003 -1.6863718457023398e+000
    7.9737078212231277e-003 -1.0480734633026498e+000
    8.5108275825494777e-003 -1.1199635905465619e+000
    8.5702488453716710e-003 -1.3255823591107050e+000
    8.6347817199393731e-003 -1.3598092560605057e+000
    8.6931283266378657e-003 -1.3682872620526689e+000
    8.6829793587651066e-003 -1.4175524156080788e+000
    8.9047957057340789e-003 -1.4881085557784743e+000
    8.6200685156716701e-003 -1.4644432036499520e+000
    8.9904100290146838e-003 -1.5304957705674327e+000
    9.1646487551299820e-003 -1.5538719361655935e+000
    8.8551972388418321e-003 -1.4344048424987192e+000
    8.4500273581006192e-003 -1.1415414542681646e+000
    8.4068936595589824e-003 -1.1078817190563202e+000
    8.4572701612698215e-003 -1.2004853927828878e+000
    8.3756518719203914e-003 -1.1103942641414786e+000
    8.5907986843012357e-003 -1.0820242251969916e+000
    8.8666222008532362e-003 -1.4112756321732542e+000
    9.3444088940717162e-003 -1.7097259599477930e+000
    9.4891093598273631e-003 -1.7841557873276552e+000
    9.3943025394899928e-003 -1.7272610760907119e+000
    9.0079353883299965e-003 -1.5211403394765881e+000
    8.6783432517447360e-003 -1.2173436049843913e+000
    8.3113833883825816e-003 -9.8095571894759381e-001
    8.3681384641201319e-003 -9.8158289765611551e-001
    8.3901533738011350e-003 -1.2161747038732575e+000
    9.3245798491431910e-003 -1.6282541090349896e+000
    9.3141041734910689e-003 -1.7479654737482728e+000
    9.3833290771327803e-003 -1.8420406255329735e+000
    7.9755510493356510e-003 -1.1258627048559842e+000
    8.4154248943162438e-003 -1.1793059324658619e+000
    8.5524043990098057e-003 -1.2469935185099970e+000
    8.5988434905972869e-003 -1.1216048068478623e+000
    8.8982572738709291e-003 -1.1399035808768632e+000
    8.7570020496590874e-003 -1.1777070307576083e+000
    8.7951006322753277e-003 -1.2456994651466919e+000
    8.7710245458256231e-003 -1.2855504172884538e+000
    9.2361311342566300e-003 -1.4302739107304396e+000
    9.1063628047879826e-003 -1.3939130276295786e+000
    8.7630964660913267e-003 -1.3335103664097656e+000
    8.6500194188918762e-003 -1.2038800346566061e+000
    8.9123774489679643e-003 -1.2837954904542690e+000
    9.2675160606017423e-003 -1.5376895944237035e+000
    9.1123973178292243e-003 -1.4179353345279078e+000
    8.8111997277133224e-003 -1.1649727740950935e+000
    8.9446714719341996e-003 -1.1513447009100020e+000
    9.2165598564025123e-003 -1.3926062453801438e+000
    9.1071476206515487e-003 -1.4339611733683377e+000
    8.9665630473501901e-003 -1.3098495089870610e+000
    8.5918158275001526e-003 -1.1362708626651548e+000
    8.3513823180105633e-003 -1.0145327490449609e+000
    8.3519360484418104e-003 -1.0801735269636550e+000
    8.8939218488931580e-003 -1.4046434054176644e+000
    9.3592033702985626e-003 -1.6836604871639913e+000
    1.0463134207141896e-002 -2.0640621677271227e+000
    9.5763572016813112e-003 -1.8752091066037098e+000
    9.2855828774552288e-003 -1.8120807556724399e+000
    8.6470261920713054e-003 -1.4173079892671954e+000
    8.3054141579114640e-003 -1.1943713676708037e+000
    8.1197405544466868e-003 -1.0773727389226306e+000
    8.3579933166984324e-003 -9.6215478831947321e-001
    8.6099409566981304e-003 -8.2572016835024264e-001
    8.8551066434180547e-003 -7.4817948966788350e-001
    8.9762446069331613e-003 -6.8853523009093975e-001
    9.0936618899012580e-003 -6.9489496659029792e-001
    9.2682127641818528e-003 -6.7477483298679064e-001
    9.3492161918366720e-003 -6.4191593719422591e-001
    9.5178800437241019e-003 -6.3861590562454085e-001
    1.0012960879824676e-002 -6.3002703454020281e-001
    9.4689265003240243e-003 -6.1960495020117323e-001
    9.2536563720570768e-003 -6.0980433060257622e-001
    9.6924278074482992e-003 -6.2409470466501393e-001
    1.0404633946478028e-002 -5.4532003198269174e-001
    1.0552482506849823e-002 -5.5746296340883295e-001
    9.3040670692943837e-003 -6.2846558886552895e-001
    8.9785865480637040e-003 -6.7979529628083679e-001
    8.8493082582652548e-003 -7.6017961639706788e-001
    8.5999474127045651e-003 -8.7738804775752444e-001
    8.4746476464437354e-003 -1.0147464229872565e+000
    8.5664922371154334e-003 -1.2435594200771733e+000
    8.6858897595848434e-003 -1.4455897673631790e+000
    8.9309093487721508e-003 -1.6050906230374478e+000
    9.3039759162561846e-003 -1.7675547883093015e+000
    9.5232563411305881e-003 -1.8538127764926731e+000
    9.9147234993375265e-003 -2.0074432062777370e+000</input_scale>
  <output_scale>
    5.2631578947368418e-001 4.9999999999999994e-001
    5.2631578947368418e-001 4.9999999999999994e-001
    5.2631578947368418e-001 4.9999999999999994e-001
    5.2631578947368418e-001 4.9999999999999994e-001
    5.2631578947368418e-001 4.9999999999999994e-001
    5.2631578947368418e-001 4.9999999999999994e-001
    5.2631578947368418e-001 4.9999999999999994e-001
    5.2631578947368418e-001 4.9999999999999994e-001
    5.2631578947368418e-001 4.9999999999999994e-001
    5.2631578947368418e-001 4.9999999999999994e-001
    5.2631578947368418e-001 4.9999999999999994e-001
    5.2631578947368418e-001 4.9999999999999994e-001
    5.2631578947368418e-001 4.9999999999999994e-001
    5.2631578947368418e-001 4.9999999999999994e-001
    5.2631578947368418e-001 4.9999999999999994e-001
    5.2631578947368418e-001 4.9999999999999994e-001
    5.2631578947368418e-001 4.9999999999999994e-001
    5.2631578947368418e-001 4.9999999999999994e-001
    5.2631578947368418e-001 4.9999999999999994e-001
    5.2631578947368418e-001 4.9999999999999994e-001
    5.2631578947368418e-001 4.9999999999999994e-001
    5.2631578947368418e-001 4.9999999999999994e-001
    5.2631578947368418e-001 4.9999999999999994e-001
    5.2631578947368418e-001 4.9999999999999994e-001
    5.2631578947368418e-001 4.9999999999999994e-001
    5.2631578947368418e-001 4.9999999999999994e-001
    5.2631578947368418e-001 4.9999999999999994e-001
    5.2631578947368418e-001 4.9999999999999994e-001
    5.2631578947368418e-001 4.9999999999999994e-001 1. 0.
    5.2631578947368418e-001 4.9999999999999994e-001
    5.2631578947368418e-001 4.9999999999999994e-001
    5.2631578947368418e-001 4.9999999999999994e-001 1. 0. 1. 0. 1. 0.</output_scale>
  <inv_output_scale>
    1.8999999999999999e+000 -9.4999999999999996e-001
    1.8999999999999999e+000 -9.4999999999999996e-001
    1.8999999999999999e+000 -9.4999999999999996e-001
    1.8999999999999999e+000 -9.4999999999999996e-001
    1.8999999999999999e+000 -9.4999999999999996e-001
    1.8999999999999999e+000 -9.4999999999999996e-001
    1.8999999999999999e+000 -9.4999999999999996e-001
    1.8999999999999999e+000 -9.4999999999999996e-001
    1.8999999999999999e+000 -9.4999999999999996e-001
    1.8999999999999999e+000 -9.4999999999999996e-001
    1.8999999999999999e+000 -9.4999999999999996e-001
    1.8999999999999999e+000 -9.4999999999999996e-001
    1.8999999999999999e+000 -9.4999999999999996e-001
    1.8999999999999999e+000 -9.4999999999999996e-001
    1.8999999999999999e+000 -9.4999999999999996e-001
    1.8999999999999999e+000 -9.4999999999999996e-001
    1.8999999999999999e+000 -9.4999999999999996e-001
    1.8999999999999999e+000 -9.4999999999999996e-001
    1.8999999999999999e+000 -9.4999999999999996e-001
    1.8999999999999999e+000 -9.4999999999999996e-001
    1.8999999999999999e+000 -9.4999999999999996e-001
    1.8999999999999999e+000 -9.4999999999999996e-001
    1.8999999999999999e+000 -9.4999999999999996e-001
    1.8999999999999999e+000 -9.4999999999999996e-001
    1.8999999999999999e+000 -9.4999999999999996e-001
    1.8999999999999999e+000 -9.4999999999999996e-001
    1.8999999999999999e+000 -9.4999999999999996e-001
    1.8999999999999999e+000 -9.4999999999999996e-001
    1.8999999999999999e+000 -9.4999999999999996e-001 1. 0.
    1.8999999999999999e+000 -9.4999999999999996e-001
    1.8999999999999999e+000 -9.4999999999999996e-001
    1.8999999999999999e+000 -9.4999999999999996e-001 1. 0. 1. 0. 1. 0.</inv_output_scale>
  <weights>
    <_>
      8.8322362998308201e-001 4.9763010507413571e-003
      -7.7394446446889406e-002 -2.2624488058586606e-002
      1.4848099618092594e-001 3.2823686139469073e-002
      -1.6536355496212293e-001 3.4437717602430812e-001
      2.0312555928230852e-001 -4.2262308061147003e-002
      1.0874895615146266e-002 -7.6552826870683224e-002
      -7.2956129272384027e-002 2.4427181087669423e-002
      6.2206934591415880e-002 8.0309244266127205e-002
      -1.6667821537680669e-001 1.8652118434691173e-001
      1.1191123526680782e-001 1.0350356769441496e-001
      -1.1661690950314621e-001 -2.2438980481010906e-001
      -3.3680043882935294e-002 -3.4825657595768535e-002
      -8.4461367565225501e-002 -4.3441627830566376e-002
      -1.2794185697382499e-001 1.0051890937839188e-001
      9.8359934875909730e-002 -2.3468417396535612e-001
      2.3858883484426070e-002 -1.5530417865577066e-002
      -7.8798183170644687e-003 -6.8204919569892872e-002
      1.0974452081158820e-001 5.7180520417475815e+000
      -1.8390126349782494e-002 -1.5734145708686517e-001
      -4.6372625725185579e-002 1.8227782153467317e-001
      -7.8628869528086706e-004 -1.5058267285461371e-001
      3.3946282004312628e-001 2.1597553645155843e-001
      -7.8637884610581396e-002 -1.3045360889818440e-002
      1.1863987017636936e-002 -6.8756605707841159e-002
      2.9108199290119829e-002 7.8056772745586658e-002
      6.8474181954465446e-002 -1.3172704469362509e-001
      2.2762886364322135e-001 1.3598859658807502e-001
      1.1315527946946945e-001 -1.3476705569816155e-001
      -2.2342202236434447e-001 -6.5726297201635364e-002
      7.8195453561421283e-002 -8.9748390082762822e-002
      -4.0409594372565409e-002 -1.2435857323674371e-001
      4.5491283751133343e-002 1.0572975155310581e-001
      -2.3344361594072754e-001 3.1483091060989898e-002
      9.9604468740922773e-003 -3.1539745061583600e-002
      -3.8562183422831679e-002 4.0874703270255990e-002
      1.6962349074450007e+001 -7.2310233113170974e-002
      -2.8718572180019686e-001 -4.1031011396187866e-002
      2.3293930356725415e-001 -7.7293164202032527e-002
      -1.7742496422951085e-001 3.7158032467436003e-001
      2.3823411287431945e-001 -2.1595009283844838e-001
      -4.1280892933013749e-002 3.2835741146012259e-002
      -4.3304143612491477e-002 3.1456994004405069e-002
      1.4437765591088980e-001 5.4910211934309935e-002
      -5.4831614272208555e-002 2.4523810705705687e-001
      1.5190928874695658e-001 1.4653526228387062e-001
      -1.6109678227648230e-001 -1.6688589740515913e-001
      -6.1591131456067122e-002 1.2937840466358377e-001
      -9.1807614017161365e-002 -2.6011963100200427e-002
      -1.5278039025022006e-001 -9.9639477027075568e-002
      7.5481367577083458e-002 -2.3607416518999713e-001
      3.9074891767016839e-002 2.3814317531934172e-002
      -5.9492537356262989e-002 1.5154288348510703e-001
      4.0586834298944975e-002 1.2675229382028936e+001
      -1.0605630487688027e-001 -3.7604284914447839e-001
      -2.6458667656628566e-002 2.3510871538556449e-001
      -1.0147764564806452e-001 -1.8715719774799988e-001
      3.9387758959410157e-001 2.3687122501420871e-001
      -1.7518756891762888e-001 -4.9551036358756906e-002
      2.3233522466346558e-002 -4.4045461014207150e-002
      3.2728897680688221e-002 1.9699365174811020e-001
      3.8123380733760127e-002 5.1459975518514882e-002
      2.5823486221738379e-001 1.6300090053839680e-001
      1.3983082785313719e-001 -1.7771673716246794e-001
      -1.9218291352021563e-001 -5.6979404276919741e-002
      1.7883792085817807e-001 -9.6018765664706351e-002
      -1.6745423471439449e-002 -2.0318163629250913e-001
      -1.6844752617663414e-001 6.2761146427389364e-002
      -2.0248675950250861e-001 4.9390578347877231e-002
      1.3418248535797504e-002 -7.8221788403232365e-002
      2.7935577106702381e-001 5.2437116026326065e-002
      2.5724878970181951e+001 -7.2825262103801275e-002
      -3.1415128581002133e-001 -3.6611443057445923e-003
      4.1606097016109990e-002 -1.6120837066290844e-001
      -2.1851040988267165e-001 4.3233355940641555e-001
      2.1180967887428931e-001 -5.1281242899588429e-002
      -1.8178375469009481e-002 -1.4168525110126966e-002
      -5.6813285051265504e-002 2.9128608752739239e-002
      1.4784353292710062e-001 1.2469270819069537e-002
      -1.2196208602838210e-002 1.6597156555259626e-001
      1.9221465072255289e-001 7.7575406033990615e-002
      -1.8160966543132126e-001 -3.0065198667885806e-001
      -1.4213959513843327e-002 1.9370457159266763e-001
      -9.6366744515196640e-002 -1.1674761955338757e-002
      -3.3629369938954540e-001 -1.1483194604202004e-001
      1.8026974186418031e-002 -1.1225012868757782e-001
      8.1964943606365206e-002 -2.3233966537307793e-003
      -9.1070408745326417e-002 1.8064478238360746e-001
      4.6685836748806449e-002 4.4243004721452614e+001
      -6.2117491611901977e-002 -2.6513953018964243e-001
      7.2480398755910752e-002 -2.6659380478260046e-002
      -2.3110109713607727e-001 -2.4431101459272606e-001
      4.5214458067190982e-001 2.6908998720082428e-001
      -1.1485134391101755e-001 -2.9135725981894359e-002
      1.6194381322227194e-002 -5.4999984148990176e-002
      -5.7351681598296497e-002 1.1746207839912876e-001
      3.3373454639776444e-002 -6.0219394941512960e-002
      1.9048331397884177e-001 2.3176268311267864e-001
      5.0731347968569929e-002 -2.6193591280598366e-001
      -5.1041946138347694e-001 2.9669135604092567e-002
      1.3567513957758123e-001 -9.3788825196336828e-002
      -1.7921194203391826e-002 -4.8582067962439518e-001
      -1.1951248579281208e-001 -1.0805944519263737e-001
      -7.5543265783751977e-003 9.1962399251910756e-002
      -1.0049927131811815e-002 -1.2694791905407016e-001
      1.9757608229401821e-001 1.5264734115943115e-001
      4.6271045559799617e+001 -5.3083589527968746e-002
      -8.6240328086632220e-002 4.7104661825305483e-002
      -8.6172297631055439e-002 -2.7335692596289174e-001
      -1.4177263767716652e-001 1.7859433451548246e-001
      7.4617603412260744e-002 -1.2927968874906628e-001
      3.0896064077196857e-002 1.8933307983234082e-001
      -1.5145693337473830e-002 -1.8382990972902291e-001
      -8.3729573316512720e-002 5.4298624582342657e-002
      -2.9212983430000466e-001 3.4770335642479977e-001
      4.6787260421231339e-002 6.0902390178824456e-002
      -1.0837550904235542e-001 -3.9353219816052659e-001
      -3.3458646836084745e-002 8.5399019309383928e-002
      3.1724084567756598e-002 -7.8468585735820315e-002
      -3.8979734174252967e-001 -1.0819086964407269e-001
      -1.4686975844727437e-001 1.2477746827242604e-001
      -1.1037186552171712e-002 -3.1731945760268755e-002
      -1.5457170954694770e-002 1.4457816695087611e-001
      2.3313628914057546e-001 2.7058570675926074e+001
      -1.0548274739998796e-001 2.6210089198597061e-002
      1.6101681168121001e-001 -8.7144656519939148e-002
      -2.2589723932416719e-001 -1.5677787324047848e-001
      -8.0812326693780995e-002 8.7859529848941020e-002
      -3.0216191509267097e-002 7.9964410669567290e-002
      3.0819397914115709e-001 -1.5769246759856462e-001
      -2.2324628619495790e-001 -2.5995989115983647e-002
      6.9522464299085193e-002 -2.3889685890419421e-001
      2.9022029669200838e-001 6.0157895067319146e-002
      1.2362172234548913e-002 -2.5977784521634451e-001
      -4.6655187574276319e-001 -7.8421028437807572e-003
      -9.1607500096154981e-003 5.4443015910427384e-002
      -1.0103885991576238e-001 -3.7678782534895555e-001
      -1.6655049642847397e-001 -1.3533004468942841e-001
      1.9848001146869687e-001 -4.3181717340238311e-002
      -5.7376894840474084e-002 1.3307403305253497e-002
      2.4734754961430833e-001 1.5387567747485664e-001
      -3.6470969103394964e+001 -8.7302279669595112e-002
      4.1106772769356641e-002 1.6204606016277284e-001
      -2.1211185067200120e-001 -1.2396310524605686e-001
      -1.0938297653162898e-001 -2.4045581315955428e-001
      1.2284001605263443e-002 1.2442786905286303e-001
      1.9599061928763731e-001 4.0992411909276777e-001
      -1.9566920943918936e-001 -2.1941191533894192e-001
      -1.9298574584573688e-001 9.2171594624537556e-002
      -8.3300559718273978e-002 1.4261560368607482e-001
      1.3278259643615528e-002 -1.3149841253350057e-002
      -1.5047781892927470e-001 -4.8160984167923443e-001
      -1.8545561482609069e-002 7.0583542543301778e-002
      2.3596469733427248e-002 -3.9970197843121093e-002
      -1.8948869836759036e-001 -2.1259462288386338e-001
      -1.2096788745447454e-001 8.3590521007176441e-002
      -1.5085760234301471e-001 -1.9994393703774982e-002
      1.0681008925245020e-001 2.9337631467387698e-001
      6.1389827242466478e-002 -9.6992672072478101e+001
      -3.9684502888871626e-002 3.2975478831387031e-002
      1.6429540877431098e-001 -1.7772644092790699e-001
      -1.2209551021814370e-001 -1.2311412501866410e-001
      -2.8471686265136092e-001 -1.4628306016089309e-003
      1.5160672775707668e-001 2.1764205150145069e-001
      4.1150342306871884e-001 -1.8911362137013787e-001
      -2.5334940178312260e-001 -2.2594394724986466e-001
      1.0399316508789407e-001 -5.6060367561419480e-002
      1.4730057751175690e-001 -5.9656133188184810e-003
      -3.7198728493352186e-002 -9.7555692070053657e-002
      -5.0368408111372165e-001 -3.5944101363222410e-003
      5.3855384285738446e-002 6.1742411616246572e-002
      1.8679617270029255e-002 -1.3796837943218299e-001
      -1.4827780502218496e-001 -1.0614333461816347e-001
      6.3120564519012726e-002 -1.6125253386670618e-001
      -2.2391428680852140e-002 1.5141969312494188e-001
      3.0034355528021234e-001 1.6979214126875128e-002
      -4.6525245474273710e+001 -5.0555736808391830e-002
      1.5479949703174692e-002 1.1863205877749085e-001
      -1.6263637449929158e-001 -1.2546025168770705e-001
      -1.7260437535073472e-002 -3.8305825652976927e-001
      -7.3924567354840931e-002 2.1667570030235911e-001
      2.1933617830732274e-001 4.3665351831293653e-001
      -1.4593151710997032e-001 -2.5303448266489448e-001
      -2.3059225517756579e-001 8.8127764123972899e-002
      -1.4906943160811839e-001 2.0731981865837920e-001
      -1.1281367597186641e-001 -7.2279855412853575e-002
      4.7851843399838688e-002 -4.3887655457316171e-001
      8.7411784418067132e-003 5.5645688952819398e-002
      1.2684821890551179e-001 3.4687935364837469e-002
      -7.1423057960751685e-002 -1.6168063637798419e-001
      -5.7525402680043677e-002 3.7656492763278093e-002
      -1.4185639441558276e-001 6.6421003489576358e-002
      2.1770883828861617e-001 2.7287432783088700e-001
      9.5414961970272258e-002 -1.0830310249969149e+002
      -6.0500793123699256e-002 -7.2642406831689071e-002
      1.0618097659460284e-001 -2.3362392889462624e-001
      -1.5160836210318437e-001 -1.3112077862971614e-002
      -3.8771318429355289e-001 -2.0968375026209918e-001
      2.7020726140507145e-001 8.1273086548491243e-003
      3.4714457576846536e-001 -5.8330277423859940e-002
      -1.5827189163926081e-001 -2.9046678179155350e-001
      5.5494838868594160e-002 -9.3148396710596271e-002
      2.7172500369425395e-001 -1.7986413740325208e-001
      -6.2510788906312106e-002 1.4477432260327372e-001
      -1.8335697513613639e-001 -4.5577410927240609e-002
      1.0285500551670126e-001 1.4308925200156980e-001
      -4.4667638309159839e-002 -1.4232122397237845e-001
      -2.1483785720373297e-001 -6.7831743098345332e-002
      2.7500851631827142e-002 -8.7552924461924669e-002
      2.5552262571300738e-001 1.9263216398518826e-001
      3.8901037821561696e-001 2.3770164297060994e-001
      -3.6926365993942539e+001 -5.7704284337061172e-002
      -7.5228617372279691e-002 9.1780570102359404e-002
      -1.9003731063638915e-001 -1.1936080946133511e-001
      2.7592800621530193e-002 -3.3148492469089696e-001
      -1.7346206525716554e-001 2.2081332584025545e-001
      -1.9400352535418719e-002 3.0710825353275245e-001
      -3.3213601491134015e-003 -1.5277517975227137e-001
      -2.1914328033604916e-001 9.5130424622676523e-003
      -1.0156760309864238e-001 2.9511130508523969e-001
      -1.3459350767561468e-001 -8.3238252880313571e-002
      2.8806632351064957e-002 -4.1831926112922885e-002
      -3.8316596656031529e-002 -3.2446147425349792e-002
      1.4377560936831207e-001 -8.2185858394394989e-002
      -1.8929464320637945e-001 -1.2546326044361852e-001
      -9.1768314924041389e-002 3.0900676797766230e-002
      -3.1839630412298918e-002 3.0792389876175030e-001
      1.6583555242455073e-001 3.3283489735564331e-001
      3.1657606676234817e-001 3.9615969794471617e+001
      -3.6278703078987042e-002 -6.8984044904129335e-002
      1.2132627455093402e-001 1.3158484576232879e-002
      -1.1111061017820825e-001 -1.3246594453711177e-001
      3.3272391677850538e-002 8.2723910147109642e-002
      2.7109591792981985e-001 -4.9878177372765953e-002
      3.0175004213147266e-001 4.3741391030566144e-003
      -3.0696982573723769e-001 -3.3582723319466733e-002
      2.5358161048590067e-002 -2.1915076354196295e-001
      2.7576292307474709e-001 1.9025746698839796e-001
      -7.9882204311219535e-002 -1.9098238117850697e-001
      9.9831474131634859e-002 1.4155454433855422e-001
      6.2347756369317345e-002 -5.4599964971212361e-002
      3.1702276462363885e-002 -2.2358279423015731e-001
      -1.0255326056455819e-001 1.0091138699485801e-001
      2.5477253179061774e-002 1.8926139675418580e-001
      1.6951270960337936e-001 -8.6274106323172270e-002
      3.7437719570538053e-001 2.2318982468010384e-001
      9.4993789284909568e+001 5.8344427826468161e-004
      6.9874015816234910e-004 1.0607141571256694e-001
      1.7623227414216326e-002 -1.4430053993625197e-001
      -1.1880655287630154e-001 1.7896760473128125e-002
      7.3890657984160876e-002 2.0914799190287026e-001
      1.0678984704931692e-002 1.8015029138123095e-001
      1.1171818443230033e-001 -3.2643208066420926e-001
      -7.4014121983970629e-002 7.3446403277201588e-002
      7.8468001883747682e-002 -4.5579186080356646e-003
      1.4375154792537806e-001 -9.2583688966174124e-002
      -1.7173229728340855e-001 1.8213703785971713e-001
      1.5380817806885147e-001 3.1263425055377089e-002
      -3.7452579283253490e-002 5.1022045580938910e-002
      -9.4458833663188635e-002 -4.4496252725068332e-002
      5.5702112576802403e-002 -4.4893053000364266e-002
      1.6357468145298959e-001 2.5962469233302332e-001
      4.1965348540085106e-003 3.7053927789218666e-001
      1.6903278267929656e-001 2.8655002526738760e+000
      -7.1983950654444684e-002 7.8006339136374975e-002
      4.2847638331014661e-002 -9.8847832719944975e-002
      4.7771863262177666e-002 9.5616924674069587e-003
      -3.0130480563439693e-001 -1.6036585419271571e-001
      2.3607680730411390e-001 1.5869838745509132e-001
      -6.5256320500201598e-003 1.9887643106904909e-001
      -2.1194908467586274e-001 -3.4200678853922312e-001
      1.8531768121484448e-002 2.6805540036155467e-001
      -5.7635581612598526e-002 -1.3284661074764856e-001
      -5.7620278865555476e-004 9.2755437569153054e-003
      1.2082221133794205e-001 6.0507058482573824e-002
      -6.9236708949212925e-002 1.4860441573685559e-001
      1.0134868342353498e-001 3.4407239671294984e-002
      -8.4542989400786500e-002 -1.0817084686064926e-001
      -2.4198624389320458e-001 -1.0166581665098702e-001
      3.1434354855002272e-001 2.9236193883340589e-001
      3.2882570631481062e-001 1.3195391988537006e-002
      4.6245695758014289e+000 -3.8095782180780767e-002
      1.2949779729548969e-001 3.1061752481848282e-002
      8.0232915411912853e-002 6.9639707784157026e-002
      -1.5899177931038005e-001 -2.6260125740973056e-001
      -6.1128161620968464e-002 2.8955257654069672e-001
      1.5043973342010833e-001 7.8502367698780912e-002
      1.4691460386677427e-001 -2.8370666208569439e-001
      -3.8943764211339532e-001 -1.0554032583513045e-002
      2.9217692930553218e-001 -8.0071696834080358e-002
      -2.7845442798881567e-002 -1.7232051692353274e-002
      7.8279012905867709e-002 9.9470451731881390e-002
      1.1759404303444361e-001 -2.5683945284914102e-002
      1.5863865125858032e-001 9.4574601032671152e-002
      1.3119579389652500e-001 -9.6010005302329962e-002
      -5.3483727175273374e-002 -2.4780749102908498e-001
      -9.5645487086649245e-002 1.5888769256981503e-001
      3.1746606551758255e-001 3.0891316179973566e-001
      -7.7936096276441755e-002 5.3627332166391838e+001
      -6.5502485467359437e-003 1.4985256202961206e-001
      3.3477212764857975e-002 1.6351067460846724e-001
      8.5520761102821002e-002 -1.3158954843869686e-001
      5.9649339961257888e-002 2.2033449011016640e-001
      1.0928585576876652e-001 1.3954053462953445e-001
      1.7750098872307044e-001 3.2182880766394931e-002
      -3.5877159262907299e-001 -8.7634366884426496e-002
      4.4614086599427789e-002 1.3947213785023679e-001
      -1.0706306254149955e-001 2.1387502756570925e-001
      -7.8270332324075195e-002 -7.6394438671753245e-002
      5.2755547020919051e-002 2.2387453954416905e-001
      1.3030424061126361e-001 -4.4712832041006192e-002
      1.9330549594994423e-001 6.3555685586770536e-002
      -9.4960212216290585e-002 9.3073243635672737e-002
      -1.3891707093979419e-001 9.7749519141395722e-002
      -1.2649528409515218e-001 1.0733964228577780e-001
      2.0399140740767474e-001 -3.2084713521845831e-001
      8.3683308121617159e+001 -4.5748269613269103e-002
      6.5388745085247890e-002 5.2228595534570911e-002
      8.1391443345129488e-002 6.9373051654965101e-002
      -3.3501882721794100e-002 2.4542376961637580e-001
      2.4311295345092135e-001 9.7016379306978859e-002
      4.2271403924012380e-002 1.9135410793877808e-001
      -2.7215591373351299e-002 -3.1187524390243343e-001
      4.4865848925140880e-002 4.0407926362027100e-002
      6.0642462349430076e-002 -3.2825494381945104e-002
      2.7611764323659393e-001 -7.6960321476024440e-002
      -1.6253440608025774e-001 3.9040437013841307e-002
      2.3605958375048305e-001 1.6081596079066054e-001
      -1.1723868033975259e-001 1.1173254898127204e-001
      -8.4662289758021259e-002 -1.8766904314950938e-001
      2.0175460520846730e-001 -5.0859540758120693e-002
      2.1295255359430221e-001 -1.9142697935478120e-001
      -2.4131869052544691e-002 2.1462101033675207e-001
      -1.4168560775076278e-001 8.1022725501856556e+001
      -7.5490609199558717e-002 1.6876470469101373e-002
      5.4683862826243282e-002 4.4683481893482882e-002
      7.0532971542208986e-002 -7.2354913609599773e-003
      2.1908526407830106e-001 2.3805213392381983e-001
      8.2364282846933326e-002 1.8915176150542973e-002
      1.1650802997221010e-001 4.7602715545208896e-002
      -2.3957321324542658e-001 4.2689206631172261e-002
      1.9805858775847722e-002 3.9685398166672763e-002
      -2.2515954972597358e-002 2.6241643847432361e-001
      -2.0853076010246632e-002 -1.8977847485870966e-001
      4.3351274711959237e-002 2.5129031248546019e-001
      1.2862913521349797e-001 -2.0555216144089691e-001
      9.0534165191911847e-002 -1.5742998617299914e-001
      -2.0483845776286530e-001 1.9664162267705640e-001
      -7.5319984119362290e-002 2.3072474481901112e-001
      -2.1504347542119862e-001 -9.4016321844681474e-003
      1.7215574936933031e-001 -1.6806990825070747e-001
      6.4688896495585624e+001 -1.3076963029620561e-001
      -1.9572220327829354e-001 4.5552179812883634e-002
      5.5983820916400778e-002 4.5918462938204632e-002
      4.7418096724437107e-002 5.7600650700475886e-001
      1.7673046450130236e-001 -4.8622713773129371e-002
      -3.0204580302785277e-003 -1.2147210847822786e-002
      5.0868736690138715e-002 -1.8554302064093048e-001
      -1.3160938234270303e-002 4.2449710210635615e-002
      -1.2229902044432958e-001 1.2268079784320728e-001
      2.4779268928380946e-001 -4.9243605710227366e-002
      -1.0738418560912533e-001 1.2209631820570260e-001
      1.7771486481429485e-001 1.3116182394331077e-001
      -1.3764511254510609e-001 3.6535366603427225e-002
      -1.4243040192360593e-001 -2.0122357688556164e-001
      1.1675817137534304e-001 -5.4512734002756351e-002
      2.2072381914596195e-001 -3.7097486303731464e-001
      -1.6141399907186235e-001 7.5583490565150707e-002
      -1.6204754487495598e-001 2.4966705683661260e+001
      -1.2108136408905586e-001 -2.6624183736251883e-001
      -2.0911572445004582e-002 4.7062755307837933e-002
      -7.6764596622345638e-002 9.5506969427650773e-002
      4.8645539079329830e-001 9.4571720252002903e-002
      -1.5596152013058537e-001 1.8675272884704081e-002
      1.2522100394702762e-001 1.0369241556443386e-002
      -7.9486297889418966e-002 -2.1846810033307387e-001
      1.7410109152382566e-001 -1.2198799306627942e-001
      9.9178301745619368e-002 2.0138234064637608e-001
      -2.2807688146393040e-001 -9.3106062253330596e-002
      1.3093994918710994e-001 9.9558725862774450e-002
      1.0437395391151461e-001 -1.3435266859517425e-001
      -1.8141187815523502e-001 -5.4457171573582583e-002
      -2.2576257143367010e-001 1.2622632594250954e-001
      -8.1979918656229042e-002 1.4619684899170293e-001
      -3.5952643615641799e-001 -1.7734890347104304e-001
      2.0501613323006360e-001 2.5648313747872209e-001
      4.8600620917211783e+000 -1.6575982012603499e-001
      -2.1950903623076229e-001 -2.6304291026107176e-002
      -6.3117473971824059e-002 -2.5977113620095912e-002
      6.5473838161791240e-002 4.2829712767272227e-001
      1.2396211165707584e-001 -1.5553305241715257e-001
      6.7065316120032123e-002 7.4108568151919588e-002
      -1.0724061923383871e-001 -9.4038134209453061e-002
      -1.7319009949711656e-001 2.2816474122299804e-001
      -1.3456597132730572e-001 4.3457435863320723e-002
      1.5024496553892536e-001 -3.2961311994013959e-001
      -1.0489672910045469e-001 3.1146982559420298e-002
      6.3959934563727255e-002 1.4524177990418999e-001
      -1.0735626628536735e-001 -1.0608692389097593e-001
      -8.7392723220095406e-002 -2.5449922936058839e-001
      -1.7185009269458699e-002 -1.9336569341874693e-002
      7.6078998703481421e-002 -3.9071346439678295e-001
      -1.5938785286231877e-001 2.0009353387891360e-001
      2.2935779332321893e-001 9.1707823651787002e-001
      -1.7784559282601067e-001 -1.4921554807751719e-001
      -4.6203776250282880e-002 -4.5186186101434669e-002
      2.0421792883498789e-002 -6.8447493556254430e-002
      4.7302364712787598e-001 2.7687463962310577e-001
      -1.3826548294537061e-001 5.4522226888400145e-002
      2.7604987932696494e-002 -9.5998929725313889e-002
      -1.7150947747510703e-001 -1.5195886849893486e-001
      1.6719887622895632e-001 -1.4967840320460046e-001
      2.5687031538800011e-002 2.3365666780830704e-001
      -2.2906486438818716e-001 -8.1314363933382247e-002
      1.4148064736944385e-001 9.6517639751553752e-002
      2.5139278069081200e-001 -1.1748391424509397e-001
      -1.6483802722783070e-001 -1.2973660519112701e-001
      -3.0472837495576138e-001 -5.4459689455281417e-003
      -9.0266638057689988e-002 1.0657517229711770e-002
      -4.9545475421590207e-001 -2.0702318335134012e-001
      2.4557582774720763e-001 1.6759990668952848e-001
      3.2937277312814457e+000 -1.5353230603001941e-001
      -1.4129153363705066e-001 -1.6378229181134749e-001
      -1.7004814461785919e-002 4.0780790944972389e-002
      5.0919593216470181e-003 4.2518345624086890e-001
      2.7066964651734615e-001 -9.4257569298725627e-002
      1.5415913725314826e-003 2.6821431886669520e-003
      -1.4939369490985865e-001 -3.6221938504545081e-002
      -2.4167694835329651e-001 1.5849368764782765e-001
      -1.8842621358252795e-001 1.0083738480815362e-001
      1.2136661563912084e-001 -1.9166489853033747e-001
      -1.1579508980156174e-001 1.7654666429657542e-001
      7.0829115133693998e-002 2.8989355252161964e-001
      -1.5250916774618972e-001 -2.2946037590195126e-001
      -2.2222769020829564e-001 -3.0390256944611715e-001
      9.9971240895195809e-002 -1.5348617827972785e-001
      1.5923830319284928e-002 -4.2452456887155277e-001
      -2.0090856440487950e-001 1.3925141379784628e-001
      6.1680362265881541e-002 1.6284288936923950e+001
      -8.8871152944291376e-002 -1.3757852049708855e-001
      -2.4633165864727272e-001 -3.6886653669977176e-002
      9.9765387785861637e-002 3.8902538316330282e-002
      3.6544644661541620e-001 2.5294072082830044e-001
      -1.3890622375988626e-001 -5.3181086793963030e-002
      7.7356257242799306e-002 -1.6860696639200340e-001
      7.6629784089024447e-002 -2.8028987583716830e-001
      9.9298476099641819e-002 -3.8372384044552610e-001
      1.7518436514113508e-001 8.5958624566877376e-002
      -1.9267183509539931e-001 -6.8486522196355745e-002
      3.1274463273839742e-001 9.3278903210396960e-002
      2.5045824380075310e-001 -1.4822808227749001e-001
      -2.0004128554788353e-001 -2.3435562492349166e-001
      -1.9167927825723846e-001 1.1757188671301633e-001
      -1.1724677840214603e-001 5.2138196587209876e-002
      -3.9142124201369777e-001 -1.7927378808753419e-001
      3.9769617981250227e-002 3.8598438513369547e-002
      1.2725303550722472e+001 -8.6236751565315017e-002
      -1.4110564867938075e-001 -2.0744824617212732e-001
      -5.6288267522050642e-002 1.0522380716933147e-001
      4.7674737819937002e-002 3.1855340490365569e-001
      2.3198091497283985e-001 -6.9278806175228483e-002
      -4.8506594285603520e-002 5.9020768608223591e-002
      -2.0056501905308752e-001 9.0171822253878806e-002
      -2.7934045066025937e-001 6.0231530090295048e-002
      -3.5964293836006461e-001 1.3962041767878727e-001
      6.4647604895625391e-002 -2.1392983069882948e-001
      -3.9932695085884935e-002 2.8793558046854167e-001
      1.2351352485222677e-001 3.0276988158768209e-001
      -1.4047006503316650e-001 -1.7313331413816757e-001
      -1.9645502189422459e-001 -1.8538452647978101e-001
      1.1548389548796953e-001 -1.1640011457375897e-001
      4.6738333100352240e-002 -3.7251635997501809e-001
      -1.3713164960853971e-001 5.9176482183738157e-003
      1.6358421128703345e-002 3.7826711327887912e+000
      -8.1121380029054946e-002 -1.6436022766904695e-001
      -2.0481962955473282e-001 1.0053706330174815e-001
      1.1231465199272594e-001 5.2806546482220967e-002
      3.0218583759495449e-001 2.1616645918159699e-001
      -4.2686111193379984e-002 -2.2351966129776860e-002
      1.0234795742779194e-001 -2.0878317196538482e-001
      8.3888365453529110e-002 -1.3898341612074119e-001
      7.2437839289219277e-002 -2.8216088294069741e-001
      7.8369973830591119e-002 5.5217635070488283e-002
      -2.2737033870986814e-001 -2.0286610531992953e-002
      3.0747151648277932e-001 1.3277563143912680e-001
      3.1899620679830243e-001 -1.3642722022617940e-001
      -1.3452005504017225e-001 -7.6460614857914153e-002
      -1.0593299209824393e-001 1.2280122173716233e-001
      -1.1811426101886892e-001 4.2352557229193080e-002
      -3.7383723768296440e-001 -1.1472097585820570e-001
      -1.4679145114842929e-003 -7.9376395981914042e-003
      9.4572826443306575e+000 2.3924648703512661e-002
      -3.4212478884817592e-002 -1.8764286297300792e-001
      1.1995349832977332e-002 9.4000346673212512e-002
      7.1236236269039729e-002 -2.3968377582169459e-001
      -1.6455508529591725e-001 -2.7903368837940888e-002
      1.5429764230171802e-001 2.3206697486565956e-002
      1.0709562049341859e-001 1.9495591401526274e-001
      -2.7852356451899929e-001 3.4810402242464789e-002
      -2.2322345919837425e-002 2.1994653930723124e-001
      -2.9935821543497115e-001 1.4873501173135462e-001
      1.9538821977301529e-001 -1.9373065006043316e-001
      -2.7257216513932303e-001 -1.9706656359648003e-001
      2.0783091199679404e-001 -1.1271766979829836e-001
      8.5432587401411006e-002 1.8261223009396713e-001
      -7.2126222415833718e-002 -3.9698132736648134e-001
      -2.8879471154629488e-001 2.3910462894976164e-001
      4.4418973570398362e-001 -1.6608687426757979e-001
      2.0683410724920822e-003 2.7961190467645878e+001
      -1.9023890551640416e-002 -1.7545647730710345e-001
      -2.0207039083858760e-001 7.4161508148506902e-003
      5.5321645687026764e-002 6.3825490716907504e-002
      -2.6800938303649319e-001 -1.6223885658885612e-001
      -6.2756081250076298e-002 1.4054078438646178e-001
      1.7446207832350111e-002 1.0336123327138344e-001
      2.0084551644430532e-001 -1.9310543514659526e-001
      3.9821678227417862e-002 1.3574902664600050e-001
      1.4140803815966921e-001 -2.8996707620758100e-001
      1.7539344131803114e-001 1.9318514239303988e-001
      -2.0329084582916826e-001 -2.8002408218393415e-001
      -1.1561135220217465e-001 2.0921123033661468e-001
      -9.6006341678112714e-002 1.1422184602154177e-001
      1.4233108858307678e-001 -1.6948608433198342e-001
      -3.4360872688108596e-001 -2.9756339078380328e-001
      2.4311590254373394e-001 4.7728567570147890e-001
      -1.4291863861675880e-001 -2.7888579520458619e-003
      4.1937140266018353e+001 -9.0639312503322536e-002
      -2.8794834084304133e-001 -1.3742232454964456e-001
      1.8179620955672562e-002 -4.6365999230021562e-002
      4.3681098941215100e-002 -2.6179358956998861e-001
      -1.2677118645426885e-001 -1.3264738074494820e-001
      9.6335768654417273e-002 -4.2390695636067788e-002
      9.5915486535121636e-002 1.9375337836429457e-001
      -1.6180379416826360e-001 7.1908546817365457e-003
      1.7712109621614772e-001 6.0222760465107099e-002
      -2.2218978558189195e-001 1.7231320974095246e-001
      6.1127941541808749e-002 -2.3336816171026253e-001
      -2.3811289290668922e-001 -7.0974781041696577e-002
      1.9100429426200854e-001 -7.7357850968229586e-002
      3.9589348572032494e-002 1.6618963851346674e-001
      -1.9137781143761984e-001 -1.2878692611476072e-001
      -2.4513595395359186e-001 2.2502232900187463e-001
      4.3958715425432665e-001 -5.6282209525340653e-003
      2.5206056723291549e-002 2.4570982715056250e+001
      -8.2032948083472390e-002 -1.1259173017922573e-001
      -3.3890369962334500e-002 -1.6836228012415319e-001
      -2.0997599575453982e-001 5.6466103549145477e-004
      -1.6479944563056051e-001 -2.0694934952086685e-001
      -7.7789198153087255e-002 8.3438888774866951e-002
      -4.6281568202674135e-003 3.5888836602895824e-002
      1.0330030667349266e-001 -2.7363167811121947e-001
      9.6461156091612755e-003 1.5687301538531848e-001
      7.6153633512851780e-003 -1.7439900502076119e-001
      -3.9903634568473643e-002 2.1215809657044796e-003
      -3.8911320100870356e-001 -1.3031285417417518e-001
      -1.0295138530767767e-001 1.8291001577035756e-001
      -6.3628822926959927e-002 -9.0216145954005483e-002
      1.0401144263789708e-001 -2.9293039004494309e-001
      1.6804335538500215e-001 -1.3639926782290321e-001
      1.6117544381701687e-001 3.4080008375736198e-001
      -2.8287938265857272e-002 -2.5441866919900000e-003
      1.2670472648532455e+001 -3.1760566693123056e-002
      -3.3448392650842734e-002 7.2958155684214210e-002
      -1.0891917499912097e-001 -2.4647437076843176e-001
      -5.9324818448103715e-002 -1.2354495019017925e-001
      -1.7331226799229607e-001 -5.9260782505201649e-002
      1.1989211042916946e-001 5.0165420800993586e-002
      -1.6759323600370010e-002 -3.1131209763665652e-002
      -3.1074184275201933e-001 8.0654508012055773e-002
      1.4593046014973438e-001 3.8029656145638677e-002
      -1.9286662154100981e-001 -7.0368361561433085e-002
      8.0128884414900348e-003 -2.8115856488197072e-001
      -3.6709024846642074e-003 -2.8061165256284243e-001
      1.7960395867330842e-001 -5.1237940619310238e-002
      -1.8023659062974684e-001 -8.1914183826685055e-002
      -3.1121253113453634e-001 2.4396672278258993e-001
      -1.2775903424917448e-001 1.5027602146704008e-001
      2.4905570169338492e-001 1.0217162448536282e-001
      9.4894133109500012e-002 -1.1212259144189014e+001
      -1.0676471395953933e-001 2.0771956315339880e-002
      2.6280662305797214e-001 1.1304679569329640e-001
      -2.1021781697053193e-001 -2.4305485572477256e-001
      2.7623543028791043e-002 1.2556975205686302e-001
      8.0175906973328406e-003 5.2942540277683567e-002
      3.0577662989556781e-001 -2.8227123795231018e-001
      -2.5068528887007124e-001 -1.4849438295495609e-001
      7.7687816447436428e-002 5.5386010000215091e-002
      9.9900723908828946e-003 1.9564382036658856e-001
      -5.1336250816680272e-002 -3.4451847577675843e-001
      -3.4853453954809999e-001 1.3179796883632494e-001
      -8.8807028240612346e-002 -4.7148297327514514e-002
      -7.3699768146658198e-002 -1.4577501921258040e-001
      -8.8290125831708602e-002 4.0795830500026777e-003
      4.1098531676325673e-001 7.0363609289997728e-002
      -1.6333099136429322e-001 -1.0539796425168343e-001
      1.3971815301799440e-001 1.0345368610925389e-001
      -1.2358264101523268e+001 -8.9826495638462844e-002
      7.2675402109133855e-002 3.5243169330224844e-001
      1.4502615559366233e-001 -2.6589127762995080e-001
      -3.0404208726666632e-001 -2.7598251889471761e-002
      1.9208405380001536e-001 1.6847567157822398e-002
      5.0664839103100767e-002 3.0232560021771421e-001
      -3.4384005534099787e-001 -3.6058795628014512e-001
      -7.5731440013749596e-002 1.2405268961304007e-001
      -1.5777948124075386e-001 1.4299761449108723e-003
      3.0424002560105007e-001 -5.2359486385561954e-002
      -2.8826537593141466e-001 -3.9559778233500831e-001
      1.9184729519601126e-001 1.6581908300920889e-001
      -1.5228731180087224e-001 2.1767916589199188e-002
      -1.1452869842402903e-001 -7.5407404646893869e-002
      2.6327778476087227e-001 4.8435707575871334e-001
      1.4856553603668970e-001 -2.4924856895931916e-001
      -1.5953125027471415e-001 6.4720856984727224e-002
      1.5039771610226424e-001 2.8005173864950059e+001
      -8.1675764054678093e-002 9.5674139765751579e-002
      4.3358654730281787e-001 5.6108976545561559e-002
      -1.0948461823782106e-001 -1.9277156452617078e-001
      -7.1151313879245517e-002 1.3731439306065193e-001
      6.5707207099327147e-002 1.7490434971212960e-002
      2.1491739249039099e-001 -2.4738429367561318e-001
      -3.2512442464997277e-001 7.4296316017369315e-002
      1.1052014946886143e-001 -2.4598235713215422e-001
      9.4357019061586944e-002 2.5098094402918891e-001
      -1.1119281492086640e-001 -2.9399650243842307e-001
      -3.5933838523327960e-001 1.6558969097243786e-001
      9.7349649212169681e-002 -1.3232789446511525e-001
      3.3504943781502622e-002 -1.7471075898606117e-001
      6.7283473111538229e-004 2.0000110887023273e-001
      3.1642333210460111e-001 1.4147648414144157e-001
      -1.7855761052786370e-001 -9.1828671514076338e-002
      -7.7579611263524336e-003 1.6758396932403549e-001
      -8.0046336122890850e+001 1.1108623109006618e-001
      8.9942477608250915e-002 3.5833268018402670e-001
      -1.5537545408931574e-002 -7.0066431899091203e-002
      9.9695630730215909e-002 2.7554150434257896e-001
      -3.2667930091808281e-002 3.0600054806368432e-002
      4.3397151074346080e-002 3.8595989171319617e-001
      -1.1958676508380524e-001 -1.7056934377976402e-001
      7.1935604488378727e-002 1.6095610021187429e-001
      -1.4857467048608722e-001 4.9655523272251506e-002
      1.2483984806982725e-002 -2.1830157910957976e-001
      -1.2109033090677493e-001 -1.9149470724428694e-001
      1.1288297141609804e-001 -7.8805487346022662e-002
      -9.9039738209796432e-002 -3.3652762916000813e-002
      -6.4471883116966416e-002 7.2482795710474002e-002
      1.9235916641170162e-001 1.4161550855307509e-001
      1.3800701189898645e-001 6.5204802412991009e-002
      -1.5077071598631678e-001 2.3964211876229581e-003
      1.8741090377685074e-001 -7.8444071626037129e+001
      1.3689643466791812e-001 1.0227501779003134e-001
      2.2594095418306454e-001 1.1223947231654688e-001
      2.7512776528464183e-003 9.7325035789196893e-002
      1.7037553994038399e-001 -4.0537451260945136e-002
      1.1544913641617130e-001 -3.2491592736786756e-002
      4.0732081010139892e-001 -1.3532239667417223e-001
      -2.2054219816943024e-002 2.1541299176189892e-002
      1.2511479084098584e-001 -2.2671994932091330e-001
      1.1603000110994804e-001 -7.2000737792772926e-002
      -3.0431261873022492e-001 2.6623458446228643e-002
      -5.6562822700634889e-002 1.3971650645842390e-001
      -1.7894049039868087e-001 1.0878783362847786e-002
      -5.8334706498844889e-002 2.1990163167615789e-002
      1.1053412119605281e-001 1.8343528682996463e-001
      -5.1314385561425743e-002 9.3963849278819928e-002
      5.3497523804209940e-002 -1.0569540745948366e-001
      4.7019973060050922e-002 2.2411517648308596e-001
      3.8794699025627743e+001 1.7371792638782309e-002
      4.9469215553889459e-002 1.8888618648391273e-001
      8.4901439803215573e-002 1.2359380563157307e-001
      -1.6503699419773188e-001 2.5104473892738488e-001
      1.0699508816209476e-001 7.7892540528571599e-002
      -7.0956935369854007e-002 1.2972702972188085e-001
      -1.9852199245951466e-001 -2.6654868538695926e-002
      -1.2153389696118845e-002 1.6345508122639678e-002
      -1.5727665909389188e-001 -2.9542328543743588e-002
      4.0791047569250977e-002 -2.7310249128683717e-001
      -9.9345727563118588e-002 2.9600661347144348e-002
      2.7317951095780163e-001 -2.3027999141326572e-002
      -2.2466688908524955e-002 4.1721014514509352e-002
      1.1853610997311552e-001 1.5487551569742652e-001
      -1.0944253329887781e-001 -2.7513932514168192e-002
      1.2880684254379293e-001 -4.9654331925853494e-002
      -2.0988142746428212e-001 5.6954616824450861e-005
      9.1503465638424666e-002 -9.8490857531498676e+001
      1.0949327816454113e-001 -5.3747562607807636e-002
      1.3239147689607467e-001 8.1812847002426997e-002
      1.0969310750548134e-001 -3.1420015265384299e-001
      3.2342147717400732e-001 1.0268835410483107e-001
      1.7463239168274061e-001 -1.2806980344157468e-001
      2.4590274609347287e-002 -2.1067877955915559e-001
      -2.7894052886696066e-002 -7.8265485958221609e-002
      3.9158589334952643e-002 1.1157680851796943e-002
      -1.0917270255263863e-001 1.5058137649240222e-001
      -1.8892734933735805e-001 -3.4366531006484922e-002
      1.0003190091369607e-001 1.7293384941732917e-001
      8.5577001974955477e-002 -5.2102888777865751e-002
      -8.9263902450730070e-002 7.0201049846231017e-002
      5.2355453382930725e-002 -2.1280356830611918e-001
      7.6472523738496390e-003 1.4052894924488341e-001
      -4.3226527886870890e-002 -3.0178678242600132e-001
      9.0563344438085669e-002 2.0453222716097433e-001
      5.5398527641266121e+001 2.4815450907708581e-002
      5.2202290806446637e-002 9.9201438962787325e-002
      8.2879485716970527e-002 1.2899166349003244e-001
      -2.4324042759273209e-001 -1.6011150017272394e-002
      1.5892810429029422e-001 1.5742033407122075e-001
      -1.5753167790144826e-001 -9.1547148245415960e-002
      -1.5540169196576462e-001 2.1878611124903340e-002
      5.5436741303590414e-002 -2.3022319659524434e-002
      -8.7215124898194593e-002 1.2866064807773703e-001
      2.1173487034258404e-001 -1.6202550441983363e-001
      -2.2781007020534064e-001 6.3569163618024657e-002
      1.2012356864497559e-001 1.6642676912141344e-002
      -2.4578412745589879e-002 1.8809987106196517e-002
      -5.0146302921112669e-002 3.6593748777355301e-002
      -1.4696198356022550e-001 9.5996889457385329e-003
      1.3975401976149388e-001 -2.2293522779484015e-001
      -2.0389534479223365e-001 1.7831625059005807e-001
      2.0257090185820137e-001 -3.6145187518326217e+001
      -7.5522322467245842e-002 9.0227249168144008e-002
      -4.3849335514681891e-002 5.7012185142989204e-002
      1.0996836468060971e-001 1.3217090794515113e-001
      -1.5180898237836110e-001 -7.1736947219611519e-003
      4.2811359094129385e-002 -1.0482379800506281e-001
      -6.3170730181392729e-002 -1.9617796032953147e-001
      1.8976846785210100e-001 -6.4256203440217194e-002
      -2.2151254269943344e-002 -2.0660601163990582e-002
      1.6736651966500518e-001 1.8664380450495988e-003
      -1.1398621028822967e-001 -1.1998874271973506e-001
      -9.1806597214457941e-002 -5.8307698240205361e-002
      1.1076471236652090e-001 -1.1172423775775134e-001
      -5.0581616960658590e-002 -2.2042464967874123e-001
      -6.3187239363738906e-002 1.3935143856926677e-001
      4.3358625432613540e-002 1.0978735995990870e-001
      -4.9141060619267769e-002 -6.1754156829153556e-002
      6.8681030541180285e-002 1.5335700341260683e-001
      9.4306255765186066e+001 -7.2354967216032684e-002
      1.6970100772679428e-001 -5.8482522755513751e-002
      1.4997271388069966e-001 2.2470945291226724e-001
      1.5417155038094096e-001 -2.3093685236936945e-002
      1.7981668300696749e-001 4.6354805196693133e-002
      -4.8609195886223193e-002 -4.0871795254430926e-001
      -1.1601719745660562e-001 2.1692896622278002e-001
      1.5625508347942807e-001 -5.3024656543699741e-002
      1.8779734970788595e-001 6.2086374615248741e-002
      2.5980305807776150e-002 6.5821884393812660e-002
      -2.7276254918729204e-001 3.0766920267006621e-002
      -5.9665413480278214e-002 8.8621041341422707e-002
      -2.6647306846995250e-001 -7.3773586363246130e-002
      -1.4857862633507130e-001 8.0480263900135934e-002
      2.1179454133071748e-001 -1.9328584681124428e-001
      4.2019433479700233e-002 -1.2784270345267865e-001
      -9.8087809680846891e-002 8.1647849893482477e-002
      -4.3018065391404167e-002 7.7320695579970860e+001
      -6.2149744158766186e-003 1.5111841156287029e-001
      -1.4932791414106844e-001 2.2640038937000586e-002
      2.3062605830267494e-001 1.8716449988156333e-001
      -2.9520118764141878e-001 -1.5087584080080133e-001
      9.6715653308712068e-002 1.1634639671667247e-002
      -4.8743700414956675e-001 -5.2076038274743428e-002
      3.8296503661317416e-001 -1.2976428585304003e-002
      -1.6203867255295318e-001 6.2944658966282341e-001
      1.1646991958954866e-002 -2.9685005671760245e-001
      1.5448347367932194e-001 -1.1185025154102389e-001
      1.5949904444151072e-001 -2.5219718162569960e-001
      -2.7621591946033736e-001 9.2770228844426442e-002
      -1.9476935804117007e-001 -8.1908873681622099e-002
      -9.4348085815981003e-002 2.3000639715459681e-002
      -2.7813790912763087e-001 -2.5235463967523736e-001
      2.3820582052762096e-001 3.1231100144539209e-001
      7.2858227605464773e-002 -1.0766439486916293e-001
      -2.4724074020380641e+001 -2.2269978171569074e-002
      -1.1843118484148221e-001 -1.7632372210487837e-001
      2.3969672388020338e-001 1.5110760230490025e-001
      1.3987007498448670e-001 1.7618594531581561e-001
      -1.2453694986412998e-001 -1.7935055183300661e-001
      -7.5462766881575785e-002 -4.9059862196368131e-001
      -8.8416395565114922e-002 3.0442385496709062e-001
      8.3429412683210566e-002 -1.3086441848953614e-001
      5.7514169787498526e-001 -1.3637622431934681e-002
      -2.3779993608627473e-001 9.9462199543242452e-002
      7.3274244559173543e-002 2.1471341965068794e-001
      -1.3970702679190475e-001 -8.8673506471924526e-002
      1.0324215534229053e-001 -1.0240258434487756e-001
      -8.3070569242118586e-002 -2.9284213855258168e-001
      3.0137899410258046e-002 -2.2616213951266959e-001
      -2.0199155269915955e-001 1.6020692692404201e-001
      1.2648377383591256e-001 -4.8426638178035393e-002
      -2.4303804000393045e-001 1.3070201973406041e+001
      -1.9203771723751316e-003 -7.9955576284091084e-002
      -8.2451655592692297e-002 4.7052980045862441e-001
      5.3826553767295740e-002 1.7485190748894666e-001
      3.5603964333582000e-001 1.0158676381044542e-001
      -1.9184042575075694e-001 -1.5360748172321014e-002
      -3.1280132150531520e-001 -1.7108746831700955e-001
      1.4782934677059481e-001 3.1622962931746107e-001
      -7.6265549732232887e-002 3.7504237003793839e-001
      -2.3825966686831269e-002 -7.7088734022497371e-002
      5.1538856986998831e-002 -1.3333692801922781e-001
      1.3741648100468137e-001 -1.7157628144932813e-002
      -3.5844177274454332e-002 -2.4795643999392124e-002
      -7.0708414231875169e-002 -1.1696679513534754e-001
      -3.4079703481178902e-001 2.0598212823563303e-001
      -1.3269391364876512e-001 -8.5271703289180514e-003
      -4.8402131448718695e-002 -2.5186676566222144e-002
      -7.3665342460094388e-002 -1.8449922391963327e-002
      -3.3657092351667623e+000 2.8172533872486912e-002
      -2.0676880248211107e-001 -1.8718177876673209e-002
      6.1163876542880624e-001 -9.5853091471755011e-002
      -2.3947019459893282e-001 4.9964529621304943e-001
      4.3485901559233697e-001 -1.6701119617812138e-001
      -5.7920988582242761e-002 1.9896532857725444e-001
      -6.3651448687772408e-002 -1.8963381275204080e-001
      1.6735234306139102e-001 1.1641286370308127e-001
      4.5138235801294994e-002 2.9861834402249202e-003
      2.4978803776867473e-001 4.5923542042318688e-002
      -2.4959034778660558e-001 8.9113187767632107e-002
      2.2232377047403482e-001 -3.6910178739895459e-002
      -1.7325266986609208e-001 -4.3489409801207711e-002
      -4.3114644540099271e-002 -3.5262968502935615e-001
      3.2248345786762095e-001 7.9275365930933303e-002
      2.5918206619825557e-001 -3.2347943884506197e-001
      -1.7629068312542828e-001 7.8007313725577926e-002
      1.1682685367249741e-001 -2.2820595406018178e+000
      -1.1618593937029100e-002 -2.7611863562881603e-002
      6.9455092955286069e-002 5.4664218919813512e-001
      -1.2760511256115778e-001 -2.7001198223498912e-001
      4.6075469286760096e-002 3.9741219369760372e-001
      -1.4785916965834628e-001 -5.6391012649716368e-002
      2.7335250639711933e-001 -3.1550311094423016e-002
      -2.4492534136330046e-001 -7.4616618622146996e-002
      1.9771580028035513e-001 -3.3724887916462715e-001
      1.5494276065978108e-001 2.2614798035354935e-001
      9.6026872849568512e-002 -3.6126658438393799e-001
      1.3716956321296435e-002 3.0635373963835577e-001
      -7.8516269198787875e-002 -2.7304556587885065e-001
      -1.2612408221397856e-001 -4.7109648727768428e-003
      -2.2044945921720127e-001 4.6794222498231069e-001
      1.4303970961297138e-001 2.8973560413606075e-001
      -3.9284517877742181e-001 -8.2655514951230705e-002
      1.5545085686009788e-001 9.6957885902821450e-002
      4.4526804070373416e+001 -1.4239565804495921e-001
      1.1943621951862335e-002 1.1756888899769435e-001
      2.0509224905052906e-001 -1.9008903818294062e-001
      -2.6734685162919525e-001 -7.5045086162660729e-002
      2.9086519783943132e-001 -1.3773582697735642e-001
      -6.6882424036021765e-002 2.8284394481313563e-001
      -1.1418711983980563e-001 -2.1957946652844271e-001
      -9.1349934575624139e-002 2.1599102838947420e-001
      -4.1667963141853870e-001 1.5930427949418691e-001
      1.9794277968389168e-001 6.4791970136745657e-003
      -1.8502998306508897e-001 2.1220015961247424e-002
      3.2097456081141079e-001 1.0782522833217033e-001
      -2.3687569796327537e-001 -6.3665335961828981e-002
      -1.4139669535819679e-002 -1.1961766102208299e-001
      3.2268168899300370e-001 3.4968620640878312e-001
      2.4484068476385829e-001 -3.6333150386758012e-001
      -1.5325817693663643e-001 -1.2523438486251464e-002
      8.9657460109787770e-002 5.3298948015970005e+001
      -1.6894872693179844e-001 -1.2009059144984933e-001
      2.3521843916890453e-001 8.7393910489356838e-002
      -1.5994398727662851e-001 -3.2737523392628776e-001
      -9.5193654632872937e-002 2.2662594761431615e-001
      2.0797552746324305e-002 -1.3610761400449640e-003
      2.1426983255313115e-001 -2.7966175399662113e-001
      -2.6571530142669630e-001 -1.2255211469219895e-001
      9.9175732708262215e-002 -2.6532622768890923e-001
      1.5112805025046408e-001 2.5503563820868502e-001
      -1.3381024750399475e-002 -1.7218645087602119e-001
      -2.1076495479012086e-001 3.4316805521778154e-001
      1.2367767543113951e-001 -1.6844293121115345e-001
      -6.6767087732276048e-002 -2.7534782285367144e-002
      -1.5874265290589626e-001 2.6778388769868072e-001
      3.9971309928555299e-001 1.9936818643957588e-001
      -4.5396305825313649e-001 -1.2298339352246745e-001
      -2.0337366150644798e-002 2.6160570852338577e-001
      2.8750685036713556e+001 -1.3668011745043476e-001
      -1.6708458620730401e-001 4.0800109407618146e-001
      6.7467390942607406e-003 -8.9795135104728072e-002
      -3.4716652779464935e-001 2.2993191328830764e-001
      1.9247260723163334e-001 -9.7033093603506981e-002
      1.2286521625501791e-001 1.0534370091852131e-001
      -1.8770661864439592e-001 -2.8004871897809258e-001
      -2.0034607330661433e-001 1.2369819269067729e-001
      -5.3548287825055125e-003 4.0978299646135440e-002
      2.2623748129769267e-001 -1.0886633245576045e-002
      -9.1221891682675429e-002 -2.5638850613839387e-001
      2.7040211234353706e-001 2.4277571334335489e-003
      -1.0735195348940192e-001 -2.7311917101746356e-002
      -1.5652325921550091e-002 -1.5551782409520717e-001
      -5.0226285893031485e-002 2.3813290765603096e-001
      1.1490479059624224e-001 -5.3726718466435430e-001
      -1.7313169154847655e-001 1.2811405335114856e-001
      2.3947636256520036e-001 3.4768428244873085e+001
      -1.9857650613404906e-001 -2.0098313140755847e-001
      2.8019859662970981e-001 -2.2889875682360252e-002
      -1.6329220978950021e-001 1.2783512773231989e-002
      2.4996631759319940e-001 5.4471647692591239e-002
      -3.8758007949650003e-001 1.1679143978637022e-001
      -5.1706070832664597e-002 -1.2943916857183918e-001
      4.7655565504889190e-004 -1.1245213706451855e-001
      2.0510164101707626e-001 2.1436456384381058e-001
      -1.8321442637709637e-001 6.9182036139677022e-002
      -1.1941897036158494e-001 -6.0473646413555709e-002
      -1.7737014671958029e-001 9.5602650090745415e-003
      -1.5391606869165059e-001 -1.0645087437927543e-001
      -3.8035950393119640e-002 -1.7515680406202251e-002
      -6.8826046886152029e-002 -4.4240446952657088e-002
      1.8492388537670518e-001 1.0552659571161085e-001
      -1.6907836367449175e-001 -2.6362236311526316e-001
      1.1487826581986524e-001 2.4716264499486806e-001
      2.2191003226341120e+001 -1.5351686459482961e-001
      4.5188747176023315e-002 1.4118270827423821e-001
      7.2422079106497242e-002 -2.1623463036130203e-001
      1.1842091681994692e-001 1.5852822506964057e-001
      5.0045998309479429e-002 -4.3529627293310436e-001
      9.1779839855322051e-003 -9.1032320662532584e-002
      -1.9084102533980893e-001 1.6583616925405061e-002
      -1.9085277178596796e-001 1.8647697169707605e-001
      5.0191771899225539e-003 -2.2438159901039240e-001
      2.7514102903102806e-002 -2.0151205823737212e-001
      -1.0475625715337697e-001 -1.0027276278028587e-001
      -8.6499181696536337e-002 -1.7238476162081123e-001
      -3.3662795640364548e-002 -2.0894072093410349e-001
      -2.1152546528463552e-002 5.0592852929642995e-002
      1.4574652448138636e-001 2.1068923177012933e-001
      6.8718060658188418e-002 6.0979666139140243e-002
      -2.3181382489379371e-001 1.2979124399467779e-001
      1.5303943214987803e-001 2.0331865922227692e+001
      -5.5379236897820115e-002 -3.1613981769621012e-002
      -5.9690721282804782e-002 2.5738802437089009e-001
      -1.3051857703983585e-001 1.4864834777377095e-001
      1.8209688562760756e-001 1.2324349012208292e-001
      -2.9856558973772440e-001 -7.6566804837999852e-002
      1.2123014060883586e-001 -1.3329114702581854e-001
      9.5974981578200863e-002 -1.0102053596968295e-001
      1.7658225889128470e-001 -1.5957965173558869e-001
      -1.4187770620990805e-002 6.8667252636029907e-002
      -1.5567470488896354e-001 -6.5998090054707900e-002
      8.4389125483522193e-003 -1.1246721428427407e-001
      -2.2044042774219855e-001 -4.0066080951546588e-002
      -3.3838500511914826e-001 9.1659096910875371e-002
      1.3869510225466303e-001 2.5134901564973383e-001
      3.2824009388814517e-002 5.1301653979101074e-002
      1.2421176479459881e-001 -2.3299717069306453e-001
      1.0592765170959551e-001 5.0651037063553041e-002
      5.4765407873302907e-001 -9.9242513905164226e-002
      -2.1871072819937096e-001 -1.8049396573069229e-001
      7.9415787793967560e-002 6.9094602291327537e-002
      3.8102356663194087e-002 3.1473300091716322e-001
      3.1253568342950100e-001 -1.5052713855909729e-002
      -1.2212991883775573e-001 5.1566577045641285e-002
      -9.0455723617172121e-002 6.5390626962509357e-002
      -2.5286420912570551e-001 1.2120187047400821e-001
      -5.8221425112445289e-002 1.0211775543561076e-001
      1.4045450503824125e-001 -1.1647982484161144e-001
      -9.3200578942513129e-002 2.6553612543188387e-001
      8.8565964289356175e-002 9.1458269351503765e-002
      -1.3309103524600790e-001 -3.7156788677426539e-001
      -1.7965756640363015e-001 -2.7995901009979712e-001
      2.3782860625732510e-001 -1.8568805513088421e-001
      5.8280086809810908e-002 -1.4222957905714134e-001
      -2.3863309235159030e-001 1.6136505033705750e-001
      1.1476481123801240e-001 3.0452384456587125e+000
      -9.8040051374333623e-002 -1.7211705100179325e-001
      -1.9709309916998657e-001 1.2135477804404531e-001
      9.8635967775884528e-002 6.1063934222766028e-002
      3.1958910227037979e-001 2.3732016289694316e-001
      -3.7782836569475960e-002 -5.0263432132140871e-002
      8.6464527138888678e-002 -2.1241445223441030e-001
      9.8852404656104925e-002 -1.4659009300135253e-001
      6.9879095544910674e-002 -2.6506030942773684e-001
      9.0353314558279579e-002 7.0832057644806462e-002
      -2.2902481355726892e-001 -4.5018495463750224e-002
      2.8030408298404624e-001 8.1595388256177390e-002
      3.1710820368454651e-001 -1.3923815232980105e-001
      -2.3412206345288611e-001 -8.7541022319479370e-002
      -1.3753985501285815e-001 1.4286902406118268e-001
      -1.0484597456302677e-001 4.6059859628443993e-002
      -3.4929970487437589e-001 -1.6637545492391462e-001
      1.3006066365289040e-002 8.8814148719475114e-002
      4.9155348373291623e+001 -1.3125984349204202e-002
      -4.7114429496151883e-002 -1.8516304669595565e-001
      -9.4244430762688583e-002 8.9806312237924346e-002
