<?xml version="1.0"?>
<opencv_storage>
<my_nn type_id="opencv-ml-ann-mlp">
  <layer_sizes type_id="opencv-matrix">
    <rows>1</rows>
    <cols>3</cols>
    <dt>i</dt>
    <data>
      140 32 36</data></layer_sizes>
  <activation_function>SIGMOID_SYM</activation_function>
  <f_param1>1.</f_param1>
  <f_param2>1.</f_param2>
  <min_val>-9.4999999999999996e-001</min_val>
  <max_val>9.4999999999999996e-001</max_val>
  <min_val1>-9.7999999999999998e-001</min_val1>
  <max_val1>9.7999999999999998e-001</max_val1>
  <training_params>
    <train_method>BACKPROP</train_method>
    <dw_scale>1.0000000000000001e-001</dw_scale>
    <moment_scale>1.0000000000000001e-001</moment_scale>
    <term_criteria><epsilon>9.9999997171806854e-010</epsilon>
      <iterations>50000</iterations></term_criteria></training_params>
  <input_scale>
    3.4970944180816345e-002 -4.6139789478564568e+000
    2.4929566656713462e-002 -3.0312794956647524e+000
    2.2255561846959929e-002 -2.2923228702368728e+000
    2.0497972104716003e-002 -1.6366349602359183e+000
    2.2604304610298710e-002 -1.8662678993877873e+000
    2.1815946248977949e-002 -1.7343677267937470e+000
    2.0700742330609281e-002 -1.6068951234135453e+000
    2.2171151390783937e-002 -2.2905570780603655e+000
    2.3548670066161181e-002 -2.7345893114329671e+000
    2.4552594282438663e-002 -2.9961837710288433e+000
    4.6812501225117369e-002 -6.2128966469710454e+000
    2.2316748776425768e-002 -2.2128451208624678e+000
    1.9266260407731935e-002 -1.8664189769990311e+000
    2.5626295820412075e-002 -3.0102889371540309e+000
    2.3357514897286612e-002 -2.6029030663663768e+000
    2.4718333661051341e-002 -2.9074939968811639e+000
    3.0220123348979607e-002 -3.6330254538601423e+000
    2.0009647601228604e-002 -1.8771550655902585e+000
    2.5172297177880457e-002 -2.6839961865915036e+000
    5.5717092127061163e-002 -7.5514071423457585e+000
    3.7996390811133977e-002 -4.7994191143313607e+000
    2.0974202122225286e-002 -1.8883336348165953e+000
    2.6983061692813493e-002 -3.1924334865309962e+000
    3.0533461540214898e-002 -3.8014159617567547e+000
    2.7039692890658114e-002 -3.2996875230631231e+000
    2.6778711488697607e-002 -3.2711869752912168e+000
    2.9599598632163802e-002 -3.6777501300463524e+000
    2.2371540473390569e-002 -2.4734534435892446e+000
    2.1448742543270609e-002 -2.0577387377450242e+000
    5.3218814351336005e-002 -7.2760097745967194e+000
    2.8309329459264773e-002 -3.2369948903578063e+000
    2.1419685933249954e-002 -1.9297798295487381e+000
    2.4337711389763417e-002 -2.8300195025409276e+000
    2.5146076303272459e-002 -3.0473901220028310e+000
    2.5782325506683947e-002 -3.1333582467341832e+000
    2.8740000626262582e-002 -3.6607575797701966e+000
    2.5377523057651227e-002 -3.0072364823316704e+000
    1.9938383574225158e-002 -2.0667380723657764e+000
    2.1173326475088145e-002 -2.1735742959582676e+000
    3.3756495026088823e-002 -4.2290558924871906e+000
    2.3530454984905785e-002 -2.5574663261719475e+000
    2.1629448703497072e-002 -2.1257692553905718e+000
    2.8519275796765782e-002 -3.5114358324767867e+000
    2.5817611544979597e-002 -3.1424874052404852e+000
    2.8894626650011870e-002 -3.5982839750092905e+000
    2.6258536714274232e-002 -3.2979080954583795e+000
    2.5315568389114307e-002 -3.0347037606450775e+000
    2.2622491486654971e-002 -2.4962505449805845e+000
    2.1518563778545836e-002 -2.2520521904484379e+000
    2.3709454513019347e-002 -2.8836624051459783e+000
    2.1622179359427549e-002 -2.3723584915921911e+000
    2.4619259904490307e-002 -2.6204124760841871e+000
    2.2561324519766654e-002 -2.4612994968282935e+000
    2.3142492035289276e-002 -2.4574433729972798e+000
    2.3473030494104395e-002 -2.5937698695985358e+000
    2.1377712021042938e-002 -2.3154734332792133e+000
    2.3790098870872464e-002 -2.4540973866484377e+000
    2.1132707807285690e-002 -2.1674233444847384e+000
    2.5870737215613962e-002 -3.0495131492904957e+000
    2.2846421542259718e-002 -2.7044451500649940e+000
    2.2235608794131542e-002 -2.4181224563618051e+000
    2.5171993442526849e-002 -2.7712791530631904e+000
    2.7001921634816944e-002 -3.1490991106605262e+000
    2.2827811657248887e-002 -2.4511362766970994e+000
    2.0501370877304959e-002 -1.8457640467973622e+000
    2.1107669701928782e-002 -1.9109037227027399e+000
    2.4031074999449231e-002 -2.6081226085339742e+000
    2.3173540754477490e-002 -2.5910915256100142e+000
    2.5319443120975269e-002 -2.8571409096825531e+000
    2.3393437966260359e-002 -2.7151008939590930e+000
    2.2558588591896699e-002 -2.5611047610737723e+000
    2.4352873415017164e-002 -2.6628345024732831e+000
    2.5194632351466399e-002 -2.9666679593851684e+000
    3.0813948570389962e-002 -3.8661876096911154e+000
    2.0644873424167331e-002 -2.1438410746408763e+000
    2.2380758245626652e-002 -2.3646669883894909e+000
    2.5211023757777899e-002 -2.8669661079548052e+000
    2.3073086236742132e-002 -2.6577311208947343e+000
    2.4032803130483338e-002 -2.6676411474836503e+000
    2.3538328137116725e-002 -2.7503065282712322e+000
    2.3285348658119712e-002 -2.6894577700128268e+000
    2.1666660583498656e-002 -2.2661972804053128e+000
    2.4177488652560739e-002 -2.8574769401245224e+000
    2.4032213490936583e-002 -2.7419253579815459e+000
    2.2214360312664366e-002 -2.3422266154665490e+000
    2.2951791662692674e-002 -2.5462143875799685e+000
    2.6873881212839252e-002 -3.2542590531172531e+000
    2.5917397629985697e-002 -3.1586828361545067e+000
    2.3326316751280423e-002 -2.4769632600265901e+000
    2.2021631910066310e-002 -2.3687017823265073e+000
    2.1250626282721140e-002 -2.2804578329645122e+000
    2.1179516736926324e-002 -2.2370864553378431e+000
    2.6689742882223807e-002 -3.2603189039566520e+000
    2.1767846214987781e-002 -2.4427604924381603e+000
    2.2986228191689419e-002 -2.6376696849963608e+000
    2.2415384025820235e-002 -2.6338076230338774e+000
    2.4209828776479165e-002 -2.9074491246252947e+000
    2.2524065930543978e-002 -2.6761405833727565e+000
    2.3034778368014333e-002 -2.4640014485535331e+000
    2.2373640138731717e-002 -2.3590206821275252e+000
    2.3867547601785371e-002 -2.6269219579215024e+000
    2.2655708988018351e-002 -2.2768987532958445e+000
    2.3305651174075643e-002 -2.5949385979134849e+000
    2.6947112835244359e-002 -3.2833372795193050e+000
    2.3946515320910945e-002 -2.8197021790372636e+000
    2.5529098967700108e-002 -3.0993921715473411e+000
    2.5244381938185515e-002 -3.0577257622627205e+000
    2.4438797926505555e-002 -2.8906515672444852e+000
    2.3319706950826934e-002 -2.4988523479495486e+000
    2.5360247462777315e-002 -2.7238490790489260e+000
    2.4230141239013507e-002 -2.8992878376307099e+000
    2.1986673415606887e-002 -1.9664331036083409e+000
    2.2796949979249085e-002 -2.5404351133125700e+000
    2.6810573227883123e-002 -3.2935113549627673e+000
    2.3820181302417101e-002 -2.7244332364639559e+000
    2.6046828763008276e-002 -3.0906190254107009e+000
    2.7086846774693585e-002 -3.3020559146274899e+000
    2.6549517261568560e-002 -3.1859420713882272e+000
    2.3647225410739055e-002 -2.4386201204824651e+000
    2.6057396457999579e-002 -3.0739584884046378e+000
    3.6941576935151405e-002 -4.6511754209914065e+000
    2.1487997083480016e-002 -2.0514322215634828e+000
    2.2157030964286541e-002 -2.3278730656853548e+000
    2.5481592046139513e-002 -3.0824763378314390e+000
    2.1725703812399293e-002 -2.3334763751005116e+000
    2.3745309101726914e-002 -2.6735733966725648e+000
    2.8489105348109112e-002 -3.4988182505646503e+000
    2.2217615458962225e-002 -2.2925801951716647e+000
    2.1420736891395824e-002 -2.1755435905323885e+000
    4.6413090569669489e-002 -6.1816435002478549e+000
    2.3384522832593155e-002 -2.7761813200319185e+000
    2.4212378902455142e-002 -2.6550386740223466e+000
    1.9914215256387969e-002 -1.7742321154988157e+000
    2.2058266836067406e-002 -1.6833214879273939e+000
    2.3435960675446725e-002 -1.8265401851426291e+000
    2.1496101836481998e-002 -1.7069248364531486e+000
    2.0204762344267973e-002 -1.5538725040388588e+000
    2.0646553529426407e-002 -1.9665842236778652e+000
    2.2391012372099849e-002 -2.4833032158931987e+000
    2.9151406828209315e-002 -3.6320830945022045e+000</input_scale>
  <output_scale>
    5.2631578947368418e-001 4.9999999999999994e-001
    5.2631578947368418e-001 4.9999999999999994e-001
    5.2631578947368418e-001 4.9999999999999994e-001
    5.2631578947368418e-001 4.9999999999999994e-001
    5.2631578947368418e-001 4.9999999999999994e-001
    5.2631578947368418e-001 4.9999999999999994e-001
    5.2631578947368418e-001 4.9999999999999994e-001
    5.2631578947368418e-001 4.9999999999999994e-001
    5.2631578947368418e-001 4.9999999999999994e-001
    5.2631578947368418e-001 4.9999999999999994e-001
    5.2631578947368418e-001 4.9999999999999994e-001
    5.2631578947368418e-001 4.9999999999999994e-001
    5.2631578947368418e-001 4.9999999999999994e-001
    5.2631578947368418e-001 4.9999999999999994e-001
    5.2631578947368418e-001 4.9999999999999994e-001
    5.2631578947368418e-001 4.9999999999999994e-001
    5.2631578947368418e-001 4.9999999999999994e-001
    5.2631578947368418e-001 4.9999999999999994e-001
    5.2631578947368418e-001 4.9999999999999994e-001
    5.2631578947368418e-001 4.9999999999999994e-001
    5.2631578947368418e-001 4.9999999999999994e-001
    5.2631578947368418e-001 4.9999999999999994e-001
    5.2631578947368418e-001 4.9999999999999994e-001
    5.2631578947368418e-001 4.9999999999999994e-001
    5.2631578947368418e-001 4.9999999999999994e-001
    5.2631578947368418e-001 4.9999999999999994e-001
    5.2631578947368418e-001 4.9999999999999994e-001
    5.2631578947368418e-001 4.9999999999999994e-001
    5.2631578947368418e-001 4.9999999999999994e-001 1. 0.
    5.2631578947368418e-001 4.9999999999999994e-001
    5.2631578947368418e-001 4.9999999999999994e-001
    5.2631578947368418e-001 4.9999999999999994e-001 1. 0. 1. 0. 1. 0.</output_scale>
  <inv_output_scale>
    1.8999999999999999e+000 -9.4999999999999996e-001
    1.8999999999999999e+000 -9.4999999999999996e-001
    1.8999999999999999e+000 -9.4999999999999996e-001
    1.8999999999999999e+000 -9.4999999999999996e-001
    1.8999999999999999e+000 -9.4999999999999996e-001
    1.8999999999999999e+000 -9.4999999999999996e-001
    1.8999999999999999e+000 -9.4999999999999996e-001
    1.8999999999999999e+000 -9.4999999999999996e-001
    1.8999999999999999e+000 -9.4999999999999996e-001
    1.8999999999999999e+000 -9.4999999999999996e-001
    1.8999999999999999e+000 -9.4999999999999996e-001
    1.8999999999999999e+000 -9.4999999999999996e-001
    1.8999999999999999e+000 -9.4999999999999996e-001
    1.8999999999999999e+000 -9.4999999999999996e-001
    1.8999999999999999e+000 -9.4999999999999996e-001
    1.8999999999999999e+000 -9.4999999999999996e-001
    1.8999999999999999e+000 -9.4999999999999996e-001
    1.8999999999999999e+000 -9.4999999999999996e-001
    1.8999999999999999e+000 -9.4999999999999996e-001
    1.8999999999999999e+000 -9.4999999999999996e-001
    1.8999999999999999e+000 -9.4999999999999996e-001
    1.8999999999999999e+000 -9.4999999999999996e-001
    1.8999999999999999e+000 -9.4999999999999996e-001
    1.8999999999999999e+000 -9.4999999999999996e-001
    1.8999999999999999e+000 -9.4999999999999996e-001
    1.8999999999999999e+000 -9.4999999999999996e-001
    1.8999999999999999e+000 -9.4999999999999996e-001
    1.8999999999999999e+000 -9.4999999999999996e-001
    1.8999999999999999e+000 -9.4999999999999996e-001 1. 0.
    1.8999999999999999e+000 -9.4999999999999996e-001
    1.8999999999999999e+000 -9.4999999999999996e-001
    1.8999999999999999e+000 -9.4999999999999996e-001 1. 0. 1. 0. 1. 0.</inv_output_scale>
  <weights>
    <_>
      -2.6026862625536049e+000 1.3780733113358656e-001
      -3.5894130247030093e-001 1.3641119452477077e-001
      9.5331785982341807e-002 2.9047643805736117e-001
      2.5752192587870770e-001 -1.3738547099651427e-001
      1.8176580995790526e-001 2.8739582569643524e-001
      1.2477121564610479e-001 1.5637247389478859e-001
      -4.4781430690013058e-001 9.4986714586885387e-002
      -1.4614523748222899e-001 -9.1587527710124211e-002
      2.5484356699157951e-001 1.4774167826933246e-001
      -8.0749502881308027e-002 -7.2766413330455334e-003
      1.4933733267966826e-001 9.3193311203282041e-003
      -7.6418136660042019e-002 9.3841142921172765e-002
      -2.8253077639003366e-002 -1.5684757407967268e-002
      9.2465299696719627e-002 1.9152722487776133e-001
      3.4243775734508364e-001 2.9165619230264523e-002
      4.6341911876250620e-002 1.0153785789726553e-002
      -3.0546983246230353e+000 1.9333765189695368e-001
      -1.5299539923042432e-001 2.2374429369238993e-001
      1.6147986553858162e-001 1.3250016556152461e-001
      -3.7031157076005919e-002 -2.2592442264845305e-001
      3.7603976823195762e-001 -1.5422359146611955e-002
      -2.1402192421824798e-001 -1.2689163280743878e-002
      -4.1412739241643119e-002 1.1858466101061421e-001
      2.6104046027877973e-002 1.4434641064010878e-001
      1.6340080561209189e-001 1.6771699747998478e-001
      -2.5405122191297014e-001 5.6107392217021712e-002
      2.9403332537214261e-001 -1.2708488040193050e-001
      -3.1676762429631952e-002 -2.0067019963192506e-001
      -9.7176618250557345e-002 -5.7322885659583350e-002
      1.4465482214962473e-002 1.3000393437575841e-001
      2.0231979125223895e-001 -2.2647184013557123e-001
      -6.8433015623340976e-002 -2.2369717814357415e-001
      -2.2812748783050689e+000 7.8397164093486946e-002
      -2.3033223407595327e-001 4.5198540941092374e-001
      -7.7396477599137675e-002 3.6891591433923132e-001
      8.0269205054108395e-002 -1.4864103365134071e-001
      2.8926056361625047e-001 -2.8929433633823520e-001
      -3.4599394381992860e-001 -3.1455300219502608e-001
      -1.0410800713027069e-001 3.4003102715467026e-001
      -1.9688455598803042e-001 3.8963942518695466e-001
      4.3457539017850932e-001 3.9952485425274120e-001
      3.7116511989835087e-002 2.2248308939484673e-001
      1.0346407488044443e-001 -4.5797229636266451e-001
      3.1900783824814916e-001 4.5302905101090862e-002
      1.1883078003335451e-001 -2.9236419402297809e-001
      9.6324317447083700e-003 1.5635252540049097e-001
      3.3009461862250666e-001 7.5356562498358856e-002
      -1.0259765620875901e-001 -3.7289129625474488e-001
      1.6278621100574447e-001 1.4243426619029523e-001
      -1.0262282091825474e-001 4.7737166925406978e-002
      -2.2242609759748413e-001 1.7444635044743800e-001
      9.2955843877710762e-002 6.0849100796311346e-002
      2.2710216658903470e-001 -2.7311879134001588e-001
      -9.6823097092576291e-002 -2.7621125705090011e-001
      -2.5265175118868732e-002 6.6678687309630391e-002
      -1.0949176477473584e-001 2.8141954258311441e-001
      6.0688867153272519e-001 4.5661972640030152e-001
      1.3090295182735323e-001 1.8902418245503216e-001
      1.0108675760886246e-001 -1.4878971269766167e-001
      2.0292776629052262e-001 3.6622026269867808e-001
      2.5667932961001094e-001 -6.9543742126160157e-002
      1.4465420402661960e-001 -1.4816435220633953e-001
      1.2820753038595573e-001 -1.2459916085043677e-002
      1.9516306972249675e-001 -1.2588361871657008e-001
      -1.3127260642335314e+000 -1.7533889048475897e-002
      1.9488594721943830e-001 2.6838770651857632e-002
      -7.9347753189170825e-002 -1.2580842531858047e-001
      1.7402095568115547e-002 -1.8923358611211874e-001
      -2.7382692275724690e-001 5.9504509407764826e-002
      4.1748689019793228e-001 -1.6262451634569383e-001
      2.8020048778367795e-001 1.3770064189953743e-001
      1.3472851108719922e-001 -3.4814514953309006e-001
      2.1133128661858891e-001 2.8802427749436710e-001
      -5.2590319649869113e-002 -1.3509564234839846e-001
      -2.8213379705464942e-001 -3.1592341558260389e-001
      2.0080096806200104e-001 1.0248430153610683e-001
      2.4880714036448470e-001 -4.0839778519472986e-002
      8.9407152445440688e-002 3.4377819664562914e-001
      1.5206355810418606e-001 1.8552651457979422e-001
      1.9554504221633329e-001 -4.2792815645856311e-002
      -9.0723077405024388e-001 1.5954261697172167e-001
      1.7771859519285499e-001 1.0868848556925749e-001
      3.9454917036151602e-002 7.5821038577043642e-002
      1.5658523185780907e-001 -4.0365477854111603e-001
      -5.1734025990681137e-002 4.2072295502350539e-002
      1.8648922232191603e-001 -3.2485658657124217e-001
      1.0769081314088441e-001 3.7484152749040706e-001
      -7.3652037829767869e-002 -2.1465746750433687e-001
      3.8985804558390719e-001 2.2576779508540573e-001
      1.0914061189854077e-001 7.1928822934493042e-002
      -2.9249806483865215e-001 -4.0638138373299543e-001
      2.8390928621860445e-001 -9.9643880699812490e-002
      2.8596204667979902e-001 -1.1489074481576053e-001
      1.5072150343946925e-001 4.5268905920720492e-001
      -5.9489491787178467e-002 1.3116755272116573e-001
      1.4913115941324839e-001 -2.7753770620215945e-001
      2.4911210690504140e+000 3.0324457491185347e-001
      -3.0432901163780157e-001 7.3781297414779014e-003
      -2.2027154059288478e-001 1.2595173084089151e-001
      1.2606991572817922e-001 8.0092646686622970e-002
      9.0265072175450670e-002 -2.3043135404090939e-001
      -7.0364500835702143e-002 -1.4598402351686851e-001
      -2.5920155405018941e-001 2.0342695606295608e-001
      -1.1398834984520428e-001 1.2495980734861235e-001
      3.9701883267456650e-001 2.9440863920998150e-001
      2.8550863557943890e-001 -1.2282787096444434e-002
      1.4763951967256964e-001 -6.4946869881305019e-002
      2.7065053441577841e-001 -4.9850969910681622e-002
      1.8969690839967068e-001 -9.6859881365570069e-002
      2.5780858818073499e-001 -1.2181143385676061e-002
      2.3291373196714144e-001 6.6146635814685203e-002
      9.9639248993252730e-002 -1.7202733991139213e-001
      -3.8922332201099659e+000 -2.3895439919590461e-001
      -2.3070478674940850e-001 4.0733760897354893e-001
      -1.4527742373010280e-001 2.5680232630308131e-001
      7.2857020971322434e-002 1.4543119234813513e-002
      -6.3396551279810129e-002 -3.3440181221339438e-001
      -3.6657679191001678e-002 -2.7030229462224963e-002
      -4.7120686189219739e-002 1.4052070578282644e-001
      -1.4937574021454891e-001 2.3465381996306908e-001
      2.5591893872567512e-001 3.9834567868291892e-001
      -1.4103476391777711e-001 1.6127473421931321e-001
      -3.2300668991619565e-003 -2.7104604248304304e-001
      2.5704681607928459e-001 -1.7800806996613536e-001
      1.1976554387336893e-001 -2.1330605245157674e-001
      -8.4447823743338229e-002 1.6274450398131049e-001
      1.3453745663042255e-001 -8.5718314862589684e-002
      5.9647234152904093e-002 -1.0529706314110564e-001
      -2.9689734544555249e+000 2.3360084655433433e-001
      -3.5307818320449963e-001 4.3440769725282496e-001
      1.7667925406654683e-001 2.4121675218766410e-002
      -1.9319680534624206e-001 -1.3093292469163587e-001
      -6.7088128884077072e-002 -5.8470799372942313e-002
      -4.5728750998345058e-002 -2.9112840143696977e-001
      6.7024708904032629e-002 1.5700652860186215e-001
      -3.5365693114546504e-001 2.3115962929709433e-001
      5.4601811184751457e-002 3.6337772453149142e-001
      -2.2274463750435158e-001 6.9451280685153549e-002
      1.3607144796135123e-001 5.5942550970379631e-002
      -6.7274938931931377e-003 -2.3604394961494560e-001
      -8.8048577740296285e-002 -3.3860738843068522e-001
      2.4490649948993051e-001 2.0005163493195519e-001
      1.6166685159108010e-001 -3.9417863268372039e-001
      -2.9002568498318515e-001 -2.3395742724062446e-001
      -3.0612928581052743e+000 2.3444277653641185e-001
      -1.7276947212041491e-001 1.1541513403185386e-001
      5.7006197447678775e-001 9.7573208289404884e-002
      6.9590496819377373e-002 -4.0403155182633405e-002
      -2.0984094434045999e-001 3.8227344574995673e-002
      -6.0566820160228782e-003 -2.8128587519262543e-001
      -2.1549663674339373e-001 6.4044202057603319e-002
      -3.6506960655972154e-001 1.7743265625249652e-002
      -9.1521287170750185e-002 -7.2872669505643995e-003
      -1.8906381666883096e-001 -1.7433564589672118e-001
      -2.7168740694899352e-001 5.2994158004597149e-002
      5.7127825020764069e-003 -1.3494184934069323e-002
      -2.3651513114189657e-001 -1.9106692041282011e-001
      1.8475925916199912e-001 2.4129521532393733e-001
      9.5448544161681609e-003 -3.2017640154442611e-001
      -2.3030758477076799e-001 -7.8729835841173212e-002
      -3.3859486975389190e+000 5.8317646039053012e-002
      -1.2433700530057473e-001 2.7310779878662184e-001
      2.8376331236490632e-001 3.2247252755910510e-001
      4.8324358748016732e-001 -2.0480406394577522e-001
      -1.2537501220384364e-001 2.5894423057607630e-001
      1.0229415175787718e-003 -2.2150297786432077e-001
      -2.3366952440816441e-001 4.6190627397425360e-001
      -3.0711646670640974e-001 5.2268495777703337e-002
      1.9393702589472195e-001 -1.5939603903286936e-001
      2.0415143199419953e-002 1.1234815968271346e-001
      -2.4028810481847970e-001 -1.9104769453524612e-001
      4.8198891862058828e-002 -2.2909579899272414e-001
      1.5548949071428381e-001 -2.1587918046211518e-001
      1.8200820068878365e-001 2.7169962488803329e-001
      1.9154236749680095e-001 7.5121872364713765e-002
      2.2438594742723555e-002 -2.3106129322155888e-001
      -2.0608527480512731e+000 -1.5862609776719083e-001
      -3.1463283256353264e-001 2.3120155664184178e-001
      -2.2199460232244977e-001 2.7286543904520422e-001
      9.9504287215256365e-002 1.0112962166098745e-001
      1.8055825816384194e-001 -2.5290885791590595e-001
      -5.3709585532632176e-001 -1.2163068386870271e-001
      8.3350231973740613e-002 1.8586779087802602e-001
      -2.8588636011622220e-001 3.8858996352711411e-001
      3.1718241707695644e-001 2.1947288913124474e-001
      1.7386222363539053e-001 2.5828483010180853e-001
      6.3414529606771158e-002 -2.9001360778071283e-001
      3.4845116848479268e-001 -2.2541818994721960e-001
      2.1680730777555485e-001 -1.6469169815485596e-001
      4.1437972784528702e-002 -1.6554250125297110e-001
      -1.0350500612995940e-001 2.0451231896637813e-002
      -1.1435354076805038e-002 -2.9699806265118167e-001
      -1.8037975566491875e+000 1.3981656383250779e-001
      3.2768258464909793e-002 3.4153183164995932e-001
      -2.5864242465737164e-001 1.8888053595207191e-001
      2.9359432873294691e-002 -2.8367675168290624e-001
      1.5117569553128953e-002 1.0443128601207920e-001
      4.7478284845679652e-001 1.8154260580135279e-001
      3.4529744575109426e-002 2.8615418433414369e-001
      -1.8440651377249911e-001 2.4783746044227794e-003
      3.9333391271631740e-001 4.3101512092541561e-001
      1.6460957682150979e-003 1.9202960126450544e-001
      -1.6944978668239322e-001 1.2821207389060790e-002
      3.0251072544275719e-002 -2.1553126369297732e-001
      1.1459668573719574e-001 -3.6867988214425057e-001
      2.7484872152056122e-001 5.1723162347275059e-002
      8.6443487659388876e-002 7.3304103223703412e-002
      -6.1397804160680490e-002 -1.6354832025781574e-001
      -4.8432310655975724e-001 1.6460296696600893e-001
      4.1575312588822599e-001 -2.7172299353467633e-001
      1.0993031920272076e-001 -1.8923731094902652e-001
      -7.0900727948186734e-002 -2.4378097755794051e-001
      -2.2944057903267534e-001 2.2891252782168584e-001
      1.9458990741860127e-001 1.4726675598003028e-001
      -7.9278433032230186e-002 2.5839736501408561e-001
      -2.4611559337580552e-001 2.0170376308701901e-001
      1.9691757927259904e-001 -1.1567291840493975e-001
      -5.7207703095588903e-002 2.2329128550768840e-002
      -8.5708972174304329e-002 8.1292672214665879e-002
      -1.9427554849313891e-001 -1.6629505922191031e-002
      2.3845519483908117e-002 1.2600672070750604e-001
      2.3335950966731756e-001 1.5865627834097235e-001
      6.0704645114774046e-002 -8.6096291463390956e-002
      2.8855335039846147e-002 -2.5646467802431944e-001
      -2.1700061793331860e+000 2.4953947102169076e-002
      2.5628679926616466e-001 -6.4131278308432363e-002
      2.8335409669357609e-001 -2.5351510485074041e-001
      -1.2010157513372180e-001 -2.5929479025165530e-001
      -2.0528487656735758e-001 3.7161490340846404e-001
      1.8519394495810873e-001 1.7579457340229043e-002
      1.6902048829018854e-001 2.6332850157026860e-001
      4.1774862408747527e-003 -3.8221090826630005e-001
      1.0681133920788158e-002 -1.6207200682060185e-001
      4.3787943794056546e-002 -2.5662851862475178e-001
      -5.9435202477501808e-002 -7.1298525943702049e-002
      -2.3642108925131197e-001 7.8569801001933115e-002
      -4.9917204661823936e-002 -1.7816837376568744e-002
      9.7406465940666737e-002 1.6268129883300964e-001
      -5.6778940927261240e-002 3.3757328994123967e-002
      -9.2247592625201158e-002 -1.2659582219770060e-001
      -6.4343083636255394e-001 1.1932060536817940e-002
      -6.3671600074451853e-003 -5.9765452161179268e-002
      2.6354506635586522e-001 -3.3734124913880953e-001
      -1.4905674434065477e-001 -3.4317182717810574e-001
      -2.5022363286382482e-001 2.7470729492820223e-001
      2.7434028225525553e-001 -2.9560685310707890e-001
      -1.3678595897787313e-001 3.3303605605479647e-001
      -3.1622666629332674e-001 -2.5650372647018616e-001
      1.3027464823219109e-001 -5.9643672422041473e-002
      2.0876465250288082e-001 -2.0896179794569045e-001
      -7.1437437159623376e-002 7.8415064141695735e-003
      -2.1568269648531596e-001 3.5919259577292098e-002
      1.3017552526971692e-002 -9.5801086695153970e-002
      2.5068829668028725e-001 2.1783215368543005e-001
      -2.4417383161724437e-001 -2.3590573918046570e-001
      -1.6020576068450312e-001 -2.4841983757295960e-001
      3.7815226292214970e+000 2.0783902195545015e-001
      -1.4076940098034157e-001 2.9199689189763789e-001
      2.4395755542254713e-001 1.4165486013312028e-003
      -1.5368658660278209e-001 -4.0579372448413686e-001
      -9.9704854685007768e-002 7.9358489091643905e-002
      4.1383435165186888e-002 -4.0023283940414250e-001
      -2.8186416055145447e-001 2.4846747203513822e-001
      -2.3513511952082775e-001 -3.5447793426994029e-002
      1.0717099656034151e-001 1.9421489538058143e-001
      1.3921945617253398e-001 1.7163590837940385e-001
      -2.2030892906925584e-001 -5.7359412377091488e-002
      4.0148829265414999e-002 -9.3348096185466981e-002
      5.0416125785742345e-002 -2.8118607786704997e-001
      1.7359878204293333e-001 1.3703317996200234e-001
      2.0603843860645377e-001 -1.4858910584502538e-001
      -5.4696126982811577e-001 -2.1664087064459922e-001
      5.0815238633666257e-003 -2.8419289814659954e-003
      -1.2424238189955933e-001 3.4128783158142251e-001
      -3.2366256208818311e-001 3.6155503250196031e-001
      1.6315342176860789e-001 7.6191546626173390e-002
      8.7448258410359636e-002 -7.2241842709919818e-002
      2.5231748672458826e-002 1.8038970506243002e-001
      7.7614134181719918e-002 1.2687275366509101e-001
      -6.1218159929804844e-003 1.0998756246077013e-001
      3.2347185089870062e-001 4.2363618909115508e-001
      2.5433139269701294e-001 1.2671639168645710e-001
      -8.4898708015860205e-002 -6.4146079123957270e-002
      3.3083942520059445e-001 -1.3618540682903638e-001
      3.6428724765770804e-001 -3.2978043019433229e-001
      9.0387022380135226e-002 -1.0545045230725605e-001
      6.8341774178236878e-002 2.1552260248421790e-001
      1.7797930057897129e-001 -9.3609467770709720e-003
      -2.5602337971463984e+000 -1.5194621156531432e-001
      -8.5379809962370518e-002 -1.3884251450527182e-001
      -8.6750522971033500e-002 2.7734736662681322e-002
      1.4967793680900171e-001 2.4836594956604344e-001
      -2.8478886302110445e-001 -2.8546387704013915e-001
      -1.1136113850800174e-001 1.8117396668983024e-001
      -6.8758054115071077e-002 -6.2628545005281089e-002
      -4.1013355172491484e-001 1.2896516384206105e-001
      4.7742212283857104e-002 1.2847659653972854e-001
      -1.3899432009997176e-001 -2.2151826250548823e-001
      -4.8754116404169473e-001 -4.8846461182379857e-003
      1.5134568821533306e-001 -2.5318327480579012e-001
      2.3559325877149351e-003 -1.4682110579278566e-002
      2.2603469591896730e-001 4.9919513146676531e-002
      -2.8160276300717996e-001 1.3577899518643979e-001
      1.8577930598326736e-001 1.1798685372775571e-001
      -3.3709372629959260e+000 -1.5732655680636903e-001
      -2.3093649930513521e-001 2.4361106244978142e-001
      3.1719544306698017e-002 8.2297037519580854e-002
      -1.2260187233858365e-001 -1.0506283272595268e-001
      -1.6331087946970962e-001 2.2546620090319774e-001
      6.4780872363390585e-002 -1.3972538737477708e-001
      -2.2657252592156388e-001 1.7948555472337846e-001
      -2.6529217243880315e-001 1.7734588866314882e-001
      -2.2184893951880637e-002 5.7918407414415968e-003
      -3.1541991604468890e-002 -2.5028271970646793e-001
      -1.9492202851860080e-001 -1.1272363710837533e-002
      6.8184229007034511e-002 -1.8442157314956037e-001
      -4.3817138273808773e-002 -4.5860158663049755e-001
      2.9757490791425678e-001 2.4590836264330174e-001
      5.5664831479690535e-002 -5.1733432808224056e-001
      -1.0906539202108509e-002 -2.8686200897234898e-001
      1.2885172392935498e+000 -2.8272057274727902e-001
      -2.2987910275236731e-001 1.1165689577400828e-001
      -2.6145514420196581e-001 2.6501544567010948e-001
      6.9039589043907987e-002 1.3683727914027463e-001
      2.6737815141449539e-001 -1.7826583534824667e-001
      -4.9175514902683876e-001 -1.2141225125845172e-001
      -1.6551482160006598e-001 -5.9283044105171594e-002
      -2.4053053816000605e-002 4.3580927000347047e-001
      2.2256180281660448e-001 2.6012214031300235e-001
      2.3199493535597804e-001 2.5988887847417782e-003
      -1.1268968444194387e-001 -3.2897437381941580e-001
      4.4652550183748968e-001 1.1363499175185651e-001
      1.3868641123353287e-001 -1.4156498054666267e-001
      -8.0375624796684239e-002 -6.7250205501254032e-002
      -3.0785399591926133e-001 -4.6760962909046876e-002
      1.0328713879962323e-001 -1.1367253156380744e-001
      -2.1538917684295833e+000 5.7805950234069495e-003
      -7.3290047873172615e-002 1.2010222340713418e-001
      -2.5149181128927700e-001 3.4208325534540179e-001
      4.3733035168860124e-001 1.8275586632570157e-001
      -3.4596741606008820e-002 -1.6165688564186742e-001
      -1.7082543518306431e-002 -1.0161114271484549e-001
      -7.9875054004586693e-002 3.3510754220031108e-002
      1.8819990386481324e-002 -1.3646888102916607e-001
      3.5601908110107156e-001 3.6054026664949790e-001
      1.0983779480050644e-001 1.4176185164134986e-001
      -1.7456614410236504e-001 -2.4078900773697812e-001
      3.4291481556966580e-001 1.9681139904591047e-001
      3.6386329040732235e-001 -1.5869642547143908e-001
      -2.7874182572192360e-002 -5.0258734659833965e-002
      1.7683095957375680e-001 3.2816444398924377e-001
      3.1591255262874618e-001 2.0835117476441015e-001
      -2.2723631622265987e+000 -1.5217417955478822e-002
      -2.3332662276138347e-001 4.5585033356431537e-001
      4.1035664608012730e-002 2.7239268139286088e-001
      9.6837268985878258e-002 -8.5541861579554929e-002
      2.1135299752045793e-002 1.5890085870597440e-001
      3.0706234141928573e-001 2.9436173774297425e-001
      -2.6882806748113786e-001 4.1341143358143378e-001
      -3.3204328439667363e-001 6.2538358873516886e-002
      2.1235196476925317e-001 1.6271647880250739e-001
      4.0021716054842060e-002 1.5308456586783617e-001
      -1.9058936490145215e-002 -1.4744745031734716e-002
      -8.0248999303778226e-002 -4.8538619388031085e-001
      1.9365998005761935e-002 -3.3917274964355226e-001
      3.0078582013579636e-001 6.8704869489628229e-002
      1.1161416927755019e-002 7.6453413659590824e-002
      -1.2947073219462375e-002 -2.9387653433447281e-001
      -3.1368495884924545e+000 -7.0391105706876733e-002
      3.8022599537284658e-002 3.5980780330315176e-001
      1.7345590030988983e-001 -3.4444449150668063e-002
      -7.0078868983855111e-002 -2.7543517757750755e-002
      -1.6740141743887757e-001 1.2528123161360394e-001
      1.0474065181057093e-001 -1.9594772088702700e-001
      -2.8924759447079129e-001 2.1962447675538715e-001
      -3.6968770472202761e-001 2.0127959442181093e-001
      -1.0670213427050150e-002 -5.5871714949057138e-003
      1.6071084003713210e-002 4.6494187351453983e-002
      1.1907428650055166e-001 1.3938127031291106e-001
      -1.2352074367971570e-001 -2.2171710038532071e-002
      1.4180419796209898e-001 -2.4676035333470223e-001
      2.0383322743806695e-001 -7.3965198424669601e-002
      -1.4452815476438291e-001 -2.6346698459178286e-001
      -1.4383151056692112e-001 -2.4240741100089455e-001
      -3.9950402560428584e+000 -3.8666540777320463e-001
      7.9339527922145284e-002 9.0476323577711543e-002
      1.3121408361149320e-001 -2.5047829740594280e-001
      -1.4735286549618251e-001 3.7690683373208897e-002
      -4.6679733349838443e-001 1.4470369674303682e-001
      2.7484776901551039e-001 -5.4232871665033551e-003
      1.9582523066878632e-001 1.5238628803181131e-001
      -1.1191449694269678e-001 -2.5285417954683304e-001
      -4.0677883232468973e-002 -2.1454928087982838e-002
      4.9028236494500464e-003 -9.2166799906504199e-002
      2.3946154566173657e-002 1.9752390004486667e-001
      -2.2560250142593663e-001 -2.4397140798138017e-001
      8.5982006344535164e-002 -4.2344734521954981e-002
      1.0329959169149652e-001 -2.0916825031408393e-001
      -3.1987027714488420e-001 -1.5684251191713880e-001
      -1.1735586185434711e-001 -7.0898254726631207e-002
      -2.2003506843515677e+000 -1.3089281079172863e-001
      1.0371450643076890e-001 -3.3490253060584528e-002
      2.2400407701282382e-001 -2.1838806017518783e-001
      -1.3789495467807369e-001 -3.9700659354186651e-001
      -1.4655873931417391e-002 1.2579251666031280e-001
      -3.8636655081723079e-002 -1.5426538602565930e-002
      -8.7245200414565752e-002 1.3933643921753269e-001
      -5.8634998838726263e-002 -1.3307770802067589e-001
      2.9269404197964772e-002 -3.5725404485250328e-002
      -6.7002881648872054e-002 -1.0904827682440273e-001
      -1.2422491325341875e-001 1.1350046673044299e-001
      -1.8824009647730136e-001 -4.8558186716762958e-001
      1.5644383493456607e-001 -1.0228749583664649e-001
      6.0260558930338257e-002 -4.9720000637990834e-002
      -1.1889919677205651e-001 -3.2085054210934405e-001
      -2.6035321287519397e-001 -2.5343081021395591e-001
      -8.7120050825376483e-001 1.8200112606077715e-001
      -1.8578477779553429e-001 2.5183154908025174e-001
      1.5557134508254359e-002 -1.6078797626362232e-001
      -3.1276942000209090e-001 -4.2476775641956177e-001
      2.0429604675271826e-001 5.8248321343956154e-002
      -1.9280701627633109e-001 -3.7431501556509525e-002
      -2.4400839447265660e-001 -4.5189107940997890e-002
      -1.6403800880080140e-002 -1.7855514836699149e-001
      -1.8403869327617889e-001 2.1591219926626451e-001
      -5.8587883107648212e-003 -2.1243189273154650e-001
      1.5820192365894681e-001 7.6874060910235992e-002
      -1.1598388989138972e-001 -3.5412065350850092e-001
      -4.1391436677338314e-002 -2.4380425427562349e-001
      1.0977245498303159e-001 -8.8307361579325810e-002
      6.9610041907226194e-002 -3.7809375666065093e-001
      -4.9998946511932563e-001 -4.6956837290183087e-002
      -1.1175150983165107e+000 3.5223019870630562e-001
      -9.0574501844266925e-003 3.0069162619472450e-001
      1.6071953755824073e-002 8.3537284437522966e-002
      -1.6357336066115954e-001 -2.6437915303542264e-001
      -1.5959325026842180e-001 -2.3741581476646137e-002
      1.4249834445260756e-001 -1.0157394209050430e-001
      2.6189229597443308e-002 3.0895445996828141e-001
      -3.2798055934843179e-001 7.5417812967067538e-002
      2.9203592773283538e-002 2.8040947829721963e-001
      -6.1504133531734513e-002 7.1880419954227642e-003
      -2.1243721942642679e-001 1.4896384555616015e-002
      7.0249255975183902e-002 -3.2680148679261095e-001
      -2.1614429694529268e-002 -3.2046680311597298e-001
      3.7986848487139802e-001 2.2007158924115092e-001
      -1.5112838480875423e-001 6.4806181190189147e-002
      -2.8921229309111324e-001 -1.4125515392291721e-001
      -7.0090143991879572e-001 -1.8907509455333121e-001
      -5.3106558991781634e-002 -1.6455196304632899e-001
      -1.1799783021125446e-001 2.3143013744150126e-001
      3.1830014069366880e-001 2.9656243791773917e-001
      1.0870445648083361e-001 -3.4012144897529217e-001
      5.3279520533170956e-002 1.3779757785637581e-001
      -9.0255217746389796e-002 -1.6139404404922184e-001
      1.2965423089911077e-001 -1.5187400128260192e-001
      2.5185459270576904e-001 1.4769404690545709e-001
      2.0240179302271488e-001 -1.2893137101863361e-001
      -6.7356643235533017e-002 8.3853030874750628e-004
      3.2221348299070796e-001 6.2641396978832628e-002
      2.4432353816782967e-001 5.2067746829401835e-003
      -3.7431288868558892e-002 -2.3574983159208138e-001
      -3.0976265379321694e-001 -4.8235168743999239e-002
      5.4649012642840500e-001 1.9097191774029298e-001
      -2.5466603129863685e+000 -6.4633366535868611e-002
      -1.1404786515818800e-001 6.3865471497621826e-002
      -1.4012537254982632e-001 1.9161499384367603e-001
      3.9206116162047175e-003 -2.2937988151058469e-001
      -2.0240529300320642e-001 2.5279146633763200e-001
      -5.1322373025823195e-002 7.2258746780654581e-002
      -2.7474335414335060e-001 1.7297757224691798e-001
      -2.2159059297063016e-001 8.7405641588970670e-002
      6.1367601915293677e-003 1.0781213700310549e-001
      1.2112871313990821e-001 -2.2660984737594184e-001
      -8.3462772008778732e-002 2.8605897253038734e-002
      -1.2107655788505466e-002 -4.4996090428453367e-001
      -2.8142926235005340e-002 -1.4073474347454051e-001
      3.0541158643671601e-001 1.5145121320206276e-001
      -2.2697651709453076e-001 -3.1800971871591072e-001
      5.6072633097592195e-002 -8.6935918900073461e-002
      -9.0333132861074183e-001 -3.4701724739687151e-001
      -2.6846642254866743e-001 5.7977627304012548e-002
      -2.6052188833866557e-001 1.4721691891908331e-001
      1.8065252140750868e-001 3.4513334585715844e-001
      2.1678482844737761e-002 -3.8794770385481420e-001
      -3.0664683123729308e-001 -1.2644298514951349e-001
      3.2318420458901653e-001 -2.7177194236980401e-001
      3.9854886447787063e-001 -2.3978540751097535e-001
      1.4684390318459895e-001 3.6657854669523082e-001
      1.9153120386985006e-001 -4.2311482755839452e-001
      1.2432117314221779e-001 -2.5541504745611981e-001
      3.3838794581681608e-001 4.0147640485376640e-001
      1.8637565937249073e-001 -3.5652787703048028e-002
      -1.8801314048827147e-001 -3.7311457719388436e-001
      -2.4305031467659002e-001 1.7268297053672114e-002
      2.0596972903432031e-001 2.3241947102856700e-001
      1.3116369173546714e+000 -1.7920458580892545e-001
      1.1333243181762692e-001 2.1160326417850794e-001
      -2.0774517563483685e-001 3.0638836887414889e-001
      2.1936680485292565e-001 1.0190582255842058e-001
      8.0805627525040502e-002 -4.5792582508400459e-002
      -7.4493261856900441e-003 2.8276367686585535e-002
      1.2554907135312543e-001 -9.7451065169874646e-002
      1.9536220730255538e-001 -3.8999800054266037e-002
      3.4243226904050311e-001 2.1947099796961347e-001
      1.2742083656075684e-001 2.8127342963168972e-001
      -2.3176057551228396e-001 -7.1546633074877297e-002
      3.2576432391294136e-001 1.3978516932818166e-001
      3.2712648378629278e-001 -4.9142789582561859e-002
      -1.0505377340806875e-001 -2.6539988411415566e-001
      -2.0851684741215790e-001 1.9597609511748706e-001
      3.0621160811551801e-001 2.8187196756075278e-001
      -3.9324094666141591e+000 1.2747418883549538e-001
      -2.1998179937431042e-001 4.0745918646363083e-001
      3.6415994812964819e-001 2.6856517943518959e-001
      2.5660942540218584e-001 9.3118321940697329e-002
      -1.4473658520673408e-001 1.8574130434764330e-001
      1.1956956000253745e-001 -1.8285673820451900e-001
      -5.3015359813226448e-001 2.0706409251207750e-001
      -3.5313446452592473e-001 -1.0764568567128334e-001
      -5.4757971059880605e-003 -6.2084944820030664e-002
      -1.3076022767198813e-002 5.8900865949681025e-002
      1.2532872084153968e-001 -1.0191291388300598e-002
      -1.2474111667312550e-001 1.9347365390536939e-001
      -1.6764881759120144e-002 -2.0146388821086988e-001
      1.7448783124676751e-001 2.7809050337813467e-002
      9.9600134460499271e-002 -5.1391861409712629e-002
      -6.2494081445468849e-002 -4.7594448745862467e-002
      -1.7659995772040993e+000 -9.3324630874984507e-002
      -1.4994486608175411e-001 3.8284169106409505e-001
      1.1080285947723363e-001 9.1561707902853881e-002
      -1.0240603832033543e-001 -2.9792071198394793e-002
      4.6600734225443356e-002 1.0994637599466034e-001
      1.0797797965372241e-001 2.0630355043568104e-002
      -2.9852441467709928e-001 3.3319649311794347e-002
      -3.5889516549344064e-001 1.3906163571935165e-001
      1.0948031827944203e-001 1.1816429020994101e-001
      -3.9354181523470970e-002 8.8750895248398576e-002
      1.5434974943810414e-001 2.0348615097553507e-001
      -1.9442504696226562e-001 -1.9847418484819072e-002
      -7.4996059146850858e-003 -2.1230599324776186e-001
      2.1981619066905628e-001 -1.5006000247162912e-001
      -2.0598586195153520e-001 -3.1039663323711048e-001
      -1.0625242603770424e-001 -1.4662984221037306e-001
      -5.4405917843963003e-001 -3.5201073753141887e-001
      1.8704957459347363e-002 6.3938556507338248e-002
      1.6419846165951332e-001 -2.2450750465664726e-001
      -1.1756038900210670e-001 -6.5110325442338246e-002
      -3.7179376394516750e-001 1.1188710189040238e-001
      1.8579058915802915e-001 -4.3937192554986265e-002
      6.7598191841015121e-002 -4.7519284316761917e-002
      -1.1619774484779187e-001 -2.9570717880122599e-001
      -5.8345858187341712e-002 -3.1699960368178848e-002
      -4.2946099557480091e-002 -1.3584434870926929e-001
      -1.7200888247071544e-001 2.3834964444017193e-001
      -2.1035840508001408e-001 -4.0108440633722803e-001
      8.9945953814178511e-002 -5.0111658957558945e-002
      1.7356044088615782e-001 -2.6374469121792843e-001
      -2.3482525747466623e-001 -2.0464606347622952e-001
      -2.6804874494041103e-001 -1.4572030059110300e-001
      -2.9840949873609057e+000 -2.6534535794249653e-001
      2.1266878028870159e-002 6.1695479772969526e-003
      1.4154640826898951e-001 -1.2861334167961935e-001
      -5.0335267156308698e-002 -1.4687154429928703e-001
      -2.2044989768679055e-001 6.6908920083311479e-002
      1.2479548622696018e-001 -1.4092576808362361e-001
      -3.0323919806355742e-003 2.4464462988922131e-001
      -3.9122740797626354e-001 4.3323399904611849e-002
      1.7769855086707706e-001 2.4159055661260156e-002
      5.0249570131706701e-002 1.2591113962173524e-002
      -9.7983678946003142e-002 2.0609039084315059e-001
      -1.6407368800043914e-001 -4.0036962645868607e-001
      2.4726367236452385e-001 -1.4296631919456967e-001
      2.8206093064065191e-001 -8.6521112894689570e-002
      -2.7521111612040466e-001 -3.1395841278990289e-001
      -2.1473442443799701e-002 -3.2089641141242625e-001
      -1.4657330964271920e+000 2.0672233643474547e-001
      -1.6538005417195747e-001 2.9213801541595491e-001
      -3.3705182139619483e-002 -1.3914740896978697e-001
      -3.3293422775153197e-001 -3.1326418847281368e-001
      1.2256332812635588e-001 -8.4105677939732663e-003
      -2.3219081259541677e-001 3.7366732928464383e-003
      -1.3704105211911882e-001 -1.2383742518997193e-001
      -1.2408859901826647e-001 -4.9475476495494365e-002
      -2.1960887478554203e-001 2.4712493144434747e-001
      1.1611339005697696e-002 -2.7159905771380999e-001
      1.7379131226503400e-001 1.6365437478122616e-001
      -4.9431841529180849e-002 -3.6346669044489660e-001
      -3.2203983383838862e-002 -2.4938235750927454e-001
      1.5438797691307787e-001 -9.7936568032014268e-002
      4.3442580951707804e-002 -3.8653650031552123e-001
      -4.9297540075329593e-001 -7.9284244210823654e-002
      -4.6663197455603038e+000 3.9853307736232213e-001
      -4.9234243360558816e-002 2.7661528047478662e-001
      4.4996955689119178e-001 2.0821623575120723e-003
      -1.4083983280900397e-001 -1.1222391809582959e-001
      -6.7591834595085831e-002 -2.5055537260092565e-002
      -1.3325735339888206e-001 -3.3029144399862120e-001
      -1.5195669423060224e-001 1.7723301725434651e-001
      -3.3427631847088457e-001 -3.6657726922745188e-003
      -1.8133383463265221e-001 1.5704456194165991e-002
      -2.3509794598936015e-001 -1.5886129520900708e-001
      -1.2786928657220092e-001 -6.1354408606883522e-002
      -1.2816065379838947e-002 2.6205277378040060e-002
      -1.9341875861807842e-001 -3.2504709283962285e-001
      2.3609651244697963e-001 2.1907130353400553e-001
      1.7151366904831211e-002 -1.9406600632108034e-001
      -3.8131420628416729e-001 -1.3633178366593918e-001
      7.8241463295547620e-001 7.7914700244787014e-002
      -1.6763198211220509e-001 -3.0268624634096603e-001
      -2.1416935394700976e-001 6.0411400147399832e-002
      1.8419354511520589e-001 3.3080297438529382e-001
      -2.2302113442355817e-001 2.1957478899690623e-002
      -5.6458382187411095e-002 2.6913324419529527e-001
      1.1041268151203575e-001 -1.4236742351488171e-001
      7.7947067319274393e-002 -2.3157603273558147e-001
      1.5721133457383513e-001 1.6213644316925707e-001
      2.1686077971878287e-001 -2.0194993213383594e-001
      1.6882931486966493e-001 1.6272828240415951e-001
      -1.2523955072431431e-001 -8.2156870921430286e-002
      1.0031254589545123e-001 3.0215057730344563e-001
      2.3915454155766946e-001 -4.5873511757633612e-001
      -4.9285994038737407e-001 9.3963096589879447e-002
      2.8505603717856431e-001 2.9984129041736157e-001
      -1.4432917295501955e+000 -2.4082128190768684e-001
      -1.8338148295501133e-001 9.5641646446138318e-002
      -1.3409094846977540e-001 1.7922504713311160e-001
      1.7089918091927833e-001 3.5664236983789588e-001
      -2.2236613394642671e-001 3.0660277820871717e-002
      -1.7240859129829733e-001 5.9244132675269685e-002
      1.9788092670114033e-001 -2.1749954723794435e-001
      2.7061028048078672e-001 -3.2684529580859972e-001
      6.7373108226568557e-002 3.6051759613191481e-001
      3.3872485660825002e-001 -3.5644022061846575e-001
      2.2519918469446368e-001 2.7865992580834584e-002
      1.5830131487200274e-002 1.5769709413552713e-001
      1.1516337197080659e-001 -2.9907121997977643e-002
      -1.3782777617884165e-002 -5.0861649110042184e-001
      -2.6959119881626104e-001 6.8878684494451919e-002
      1.6207096809859056e-001 2.8098566672436709e-001
      4.3171135100219793e-001 -1.5659779106632769e-003
      -2.8657632547384067e-002 2.0269987425112425e-003
      -2.6227407352334442e-001 8.3531869402328290e-002
      2.2975956533917472e-001 2.7641138679579946e-001
      -2.7611401558815479e-001 -1.2156517418551621e-001
      3.3095042082960752e-001 1.4166746352569434e-001
      3.4387395638919332e-001 -1.6664236096610380e-001
      3.8595094053328727e-001 -4.4050667237637603e-001
      2.4088876334427756e-001 4.7827140522010819e-001
      1.1485149480444366e-001 -5.3438411813601330e-002
      1.7787372711651908e-001 1.1378465522400411e-001
      -2.5787496123135743e-004 2.6282287312884728e-001
      1.7245674427818264e-001 -4.3116328127469749e-003
      1.7758140577986720e-002 -2.6940961528178925e-001
      -1.4079469201644476e-001 1.3050476947413134e-001
      3.3159165898370474e-001 3.3907080220486713e-001
      -2.5217173898869977e-001 -1.7335063616121049e-001
      8.5533422594053304e-002 6.1608796302681165e-002
      -1.9374516345931889e-002 2.6663741900908644e-001
      2.0543855047306270e-001 1.1684152310464338e-001
      -1.8116419502724879e-001 -1.4444204727695753e-001
      2.1412181744492287e-001 9.8090732095237124e-002
      1.1713179255967213e-002 6.7859059027900001e-002
      3.2366574368509876e-001 -3.8441093622136563e-001
      2.9288195935312439e-001 1.5361093532745723e-001
      3.1413180149351863e-002 1.2986134625879359e-002
      -7.8610350885876465e-002 -5.1010794975823925e-003
      2.2525716324985778e-001 2.0529599263384826e-001
      2.5712490814937738e-001 -5.4967275032298035e-002
      -1.7318566286727538e-001 -1.0464337091239671e-001
      -2.5022012060217546e-002 2.6718376840137081e-001
      2.9899658782380245e-001 2.7518881468829204e-001
      -3.9439197015925158e+000 -4.2720506700876973e-002
      -1.8989403180981859e-001 5.6224381001823232e-001
      3.2329344834169110e-001 1.2807252421525181e-001
      3.5911488535137613e-002 6.0011148231748225e-002
      -2.7560143104652124e-001 1.2208211288311924e-001
      1.3539736977173371e-003 -2.8723482278371404e-001
      -1.1814913676357833e-001 3.8920837614501635e-001
      -1.5241764512322084e-001 -1.4544815499008606e-001
      -1.0961986475982227e-001 -3.6344949746690836e-002
      1.6862565470191973e-001 -1.3257957104248291e-002
      1.5716341184076549e-001 8.7146223669273860e-003
      -5.5071461176258447e-002 -6.3456590129855855e-002
      6.3777864687331598e-002 -3.9673572023476855e-001
      7.8129814024128288e-002 -1.1120692208328732e-001
      4.5122798432145422e-002 -6.0994853786349210e-002
      -2.2531232166128720e-001 -8.4769509350346037e-002
      -1.1115719945699079e+000 -1.4986305926852071e-002
      -2.2010580150836395e-001 2.4794080199118540e-001
      1.9375800903519352e-001 1.4253057630092333e-001
      6.4875930885984215e-002 -5.2803897775402620e-002
      1.5034716017293613e-002 1.3205533926414592e-001
      1.1364466012715850e-001 -3.6337671327422591e-002
      -4.0781204234449259e-001 -5.8692665071271702e-002
      -3.9204565553707876e-001 -1.1818733746619813e-001
      1.0055475211957697e-001 1.0438351835151725e-001
      -9.2865373368677187e-002 -7.4275657275272968e-003
      2.5563035876323862e-002 1.6013837954726506e-001
      -1.9838318440857100e-001 -2.6472438423482014e-002
      -7.5831320175825520e-003 -1.5431949679567922e-001
      2.7192481462165013e-001 -7.9325160380337462e-002
      -5.2294128410977594e-002 -2.3569980823524841e-001
      -9.3574445857861704e-002 -1.2125344787397435e-001
      -3.0497403367224707e+000 -3.4386520623887901e-001
      -4.9109931752877603e-002 1.2519641020435762e-001
      2.6772059086269052e-002 -9.0985710961693916e-002
      -1.4934945401375391e-001 -8.7707258079531836e-003
      -2.0234389545361792e-001 1.3966056584519304e-001
      1.7597121146264816e-001 6.2267434284473989e-002
      1.1116015838786081e-001 1.5682341324735830e-001
      -2.4482567432081540e-001 -2.5585431985525254e-002
      7.6172055609297476e-002 6.7869032186754941e-002
      8.4095245469313087e-002 -3.5818180990583065e-002
      9.5929245880444561e-002 2.7001717489698629e-001
      -1.2903436229198426e-001 -3.6023714980968152e-001
      2.0819917809886720e-001 -1.5273719444381825e-001
      2.1827129471703091e-001 -2.0411670036766791e-001
      -1.5490232763510911e-001 -2.1326250211633793e-001
      1.0590039984029487e-002 -2.3180448410840576e-001
      -4.2246175263932502e+000 -1.9057206824006351e-001
      -1.3853731030626057e-001 9.7295599662709897e-002
      -7.7298132369635938e-002 -1.1291244562354898e-001
      -7.9595057983315606e-002 -2.6803426883599946e-001
      -1.7318159383911014e-001 3.0759529087661563e-002
      6.0028718464516372e-002 -1.5045928156565697e-001
      -2.0434738789939497e-002 3.3713941079798493e-001
      -4.0970419274649894e-001 1.5567018433659546e-001
      1.9227443380130357e-001 1.9531013170083372e-001
      9.9157303102201791e-002 -7.0437806203466569e-002
      1.4148896307043969e-002 1.3976006240265204e-001
      -1.1111600021194530e-001 -4.6813575561758680e-001
      2.9667734625586184e-001 -2.8016799671698900e-001
      2.8749839047842657e-001 -1.1711647427409631e-003
      -6.2057827610066348e-002 -3.3685340497310690e-001
      -1.1902458835472934e-001 -3.8249802782893261e-001
      -2.1001705322723159e+000 2.4111344021185890e-001
      -2.8268952778315631e-001 1.6019981776251288e-001
      2.9003377644001260e-001 -1.4959724347713149e-001
      -9.1002263907841968e-002 -1.5467039460031176e-001
      -1.8275561217389094e-001 -2.0256997356346979e-001
      -9.9334495724996794e-002 -4.0736323978383931e-001
      -2.5926255045544327e-001 -4.4452556865524427e-002
      -3.8755398730330021e-001 -2.1792483830549431e-001
      -2.7925533983834161e-001 1.5535412837238860e-001
      4.6076282019720964e-002 -3.7536484611590443e-001
      -8.5347955335808412e-002 1.9629869527279406e-001
      -9.9435458771545485e-003 -2.9792398953778698e-001
      -3.4235738242929172e-002 -2.8225289272580661e-001
      2.6695908701288462e-001 -8.0931486922593762e-003
      -8.1266556259038183e-002 -3.6814271582175428e-001
      -4.5312119918938021e-001 9.7936594908609800e-003
      -3.1852493312846741e+000 7.7021923664048600e-002
      -9.8472182946050132e-002 3.1743608498042980e-001
      3.4159303118980522e-001 8.5726508751864747e-003
      -2.4618027241241264e-001 2.5030932655375957e-002
      -5.0438344897133926e-002 2.2260911828819385e-001
      -1.5813273655953591e-001 -9.1063557541240986e-002
      1.3576219126032107e-001 2.1190685689171485e-001
      2.3503941111993549e-003 -1.8288455196750231e-001
      -1.4298795723862645e-001 -1.1581257677141940e-001
      -9.3567247589069813e-002 -1.4434708189250450e-001
      -3.3448534104532066e-002 -3.7485002542069747e-002
      -9.1348702760159536e-002 -1.5604287282760512e-001
      -1.4471828531729203e-001 -2.9387612525659107e-001
      1.4288302367270736e-001 -9.8898652226386094e-002
      -3.6666788205733949e-002 -7.9274922788140467e-002
      -3.0010061576132152e-001 -8.1858213635842031e-002
      -1.1994800156518264e+000 3.1915814081601039e-002
      -1.1339433545211240e-001 -1.4712343273274991e-001
      -5.4249555932567778e-002 6.5878384671060108e-002
      1.3226190964280107e-001 2.4911281866837698e-001
      1.7129726334622411e-001 3.3988263611845357e-002
      -2.5535340726130107e-001 1.1978131833198717e-001
      2.5445775107477442e-001 -2.0995506352084575e-001
      3.8124921143535889e-001 -3.7325175291068169e-001
      1.3416267459238565e-001 8.1429202621167179e-002
      2.0399811394775577e-001 -3.0809636490073117e-001
      3.1195354769274858e-001 2.0784764009199075e-001
      -1.2478604485608172e-001 8.0195416841196424e-002
      1.0507305522680629e-001 1.0109832481187699e-001
      5.1147409239594495e-002 -6.6922354994641065e-001
      -3.2945394154696422e-001 -4.6905026162822952e-002
      2.5311412104451675e-001 3.7136204247303112e-001
      -1.9366198694668237e+000 1.3140437594495968e-001
      -8.6110218879202227e-002 2.1075012974664069e-002
      -1.9133397399112720e-001 1.8022935120298483e-001
      2.2152143226445678e-001 1.0662283528899254e-001
      1.8600379609559450e-001 -9.0798544525725874e-002
      1.2943185565666487e-002 -1.3157267237606315e-001
      -1.6870783835279946e-001 -1.1423232413007139e-001
      1.5457718210686489e-001 -1.5895443589038055e-001
      1.3383022053669219e-001 4.0251818292347147e-001
      4.7561576368016434e-001 -2.2337860861228476e-001
      4.7054835825035601e-001 1.0076852821649844e-001
      2.7820667751189250e-002 2.5353677885390807e-001
      2.2400654910869461e-001 -1.2265485025659685e-001
      8.4963997375743713e-002 -5.0506416536637666e-001
      -2.1595497819250983e-001 -1.8360976850747918e-001
      2.6527417763421651e-001 1.3173944608307034e-001
      -7.4867276542682892e-001 1.6180289146469773e-001
      -2.4096948643055175e-002 -6.0886857504818995e-002
      -1.9634354249185265e-001 2.6255455271154918e-002
      1.2552794393318584e-001 7.5525117464464372e-002
      -1.1440075736840234e-001 -4.9896765724719863e-002
      3.0073941699924794e-001 3.7914850928424282e-002
      -1.7951061270891203e-001 1.0973234471314494e-002
      6.6614592492872049e-002 -7.9414880172285873e-002
      1.1942382390452619e-001 3.5403009752571996e-001
      2.0430834451610314e-001 1.7919096744232850e-003
      3.4249118050725785e-001 1.4797569272760799e-001
      -8.0907267232347882e-002 1.0615373322160764e-001
      1.2015638917755266e-001 -5.7508654997535297e-002
      1.3366512984817683e-001 -1.6398988742935758e-001
      -1.9164687656120163e-001 -1.3572315113543637e-001
      2.9494410826949052e-001 1.8170530911487487e-001
      -2.4337467181190648e+000 3.1498381895747364e-002
      2.2073421583651540e-001 9.1589109554698674e-003
      -8.0894533120895451e-002 2.9369760303277731e-001
      2.1517482506962948e-001 2.3488593993434909e-002
      -2.2440242422055465e-001 1.5316583482944362e-002
      1.6025377528489587e-001 4.9129635115375707e-002
      -3.7903807010511720e-001 1.8911253409883103e-001
      8.0775189327472241e-002 -7.3283489410886429e-002
      2.0134108767957906e-001 1.8574837658010923e-001
      2.8441876621313916e-001 4.7623208073806850e-002
      1.0398039004781123e-001 -1.2505269665898686e-001
      2.0692551447921326e-001 2.3784042846143250e-001
      2.0233799312785156e-001 -2.2229003294676638e-002
      -6.4655497088913869e-002 -7.2891099438616255e-002
      1.2234778225680999e-001 9.2309564987795883e-002
      2.8253683540237751e-001 8.8765467682279484e-002
      -6.2156631690015407e-001 -4.5033118831673519e-002
      5.3743035624836698e-002 3.3064650807646195e-001
      3.4002315696800217e-001 2.7318683407333944e-001
      1.8458704557844041e-001 6.7779849820492094e-002
      -2.8889467177463196e-001 4.4717086644270078e-002
      -2.4823508499894098e-001 -4.3942598928401500e-001
      1.9070726862720053e-001 1.8933588012915625e-001
      1.5078241773361478e-002 -2.2374128496520551e-001
      1.5938011778718997e-001 -5.9964818743688926e-002
      2.0304026239176612e-001 2.6552202795374297e-001
      -1.5125073965148591e-002 -1.3994876178843146e-001
      1.8573989069203914e-001 3.9493463762560915e-001
      1.7296001754824220e-001 -1.0379179728152309e-001
      -1.1544171500412406e-001 -1.5531922940955045e-001
      5.0548595181704636e-001 1.3310137902856051e-001
      -5.5549350464249782e-002 2.6815681676677659e-002
      9.6990059444441570e-002 -7.4509740119163406e-002
      -6.4315032215530414e-003 4.8493296782719943e-002
      3.0609149784320222e-001 1.7216766043284756e-001
      2.6619590479250926e-001 6.4173584300119421e-002
      -1.4621369249576696e-001 -9.0543284667364415e-002
      -1.6028408198985122e-001 -4.0148676726819688e-001
      -6.4525024987429430e-002 -1.7627251237377142e-001
      -1.2332865989344664e-001 -3.5023263361328244e-001
      2.6571129354477546e-001 4.4121765344581863e-002
      -4.0091871792584145e-002 2.5445861157160499e-001
      2.7876845065258364e-003 -2.2382926903336927e-002
      -2.4567202284439413e-002 3.8354162997012253e-001
      9.6886687628342155e-002 2.2179107776972048e-001
      2.7770013850588544e-002 -2.0295646636197248e-001
      3.0929345979776263e-001 -4.7350407036341711e-002
      9.6019915958757293e-002 1.6108865341393355e-001
      3.4552188902651260e-001 -2.1253061119817210e-001
      -1.3617211095543030e-001 1.4906221279895707e-001
      7.6638854608594917e-002 -4.1593863436744975e-002
      -8.3396900457649248e-002 2.9140070936909054e-002
      -1.1206297684233030e-001 1.4000096415436653e-001
      2.8245744955585378e-001 -9.3012375328598476e-002
      1.3148047943457866e-001 1.0380599055104930e-001
      -3.2130398993066211e-001 7.8013741091366551e-002
      2.9480536810613789e-001 1.2323922333505467e-001
      3.4102708020194647e-002 1.3924911685603208e-001
      1.9646851935854515e-002 2.9090089965743332e-001
      -1.2510802600716409e-001 6.4197253230231406e-003
      1.1940511503770299e-001 -2.3763808960710620e-001
      3.1207060341948095e-001 -3.9912569693097005e-002
      1.9433041283465866e-001 -2.4687153880283691e-001
      1.9294970289776520e-001 -1.4697201618164210e-001
      -6.6845750375512059e-001 3.6553245531445101e-002
      -1.6067932529516546e-001 5.3042610698115070e-002
      7.3636512585642688e-002 -2.3037502226062190e-001
      -1.7363935340774372e-001 -1.3267662096908242e-001
      -1.1243308250297315e-001 -5.9386793807399696e-002
      1.2268290963937027e-001 -3.2465413888731709e-001
      2.0740432606476700e-001 1.6973202123147657e-001
      -5.2387531718772851e-001 2.0522944994773690e-001
      1.5569347534656167e-001 1.7473492285148309e-001
      6.2292080340482309e-002 -7.0726718329267354e-003
      -5.5370180041246497e-003 3.5618083983648013e-001
      -4.5040064252939813e-002 -2.1159462489795239e-001
      1.5899193208107124e-001 -2.9660735528764121e-001
      4.4498737213343298e-001 8.7013185818217278e-002
      8.8993085017723281e-002 -4.2907938991304345e-001
      8.7506669544405585e-002 -2.0948749764082375e-001
      -2.2074790243245550e+000 -5.1469731397083558e-002
      -3.3746035730558738e-001 2.5899399922862498e-001
      3.2907049681910300e-001 -3.1436105742386516e-001
      -1.8976572538691741e-001 7.4600931478471744e-002
      -2.2644429768314264e-001 -1.4590955423591612e-001
      1.8555197259593444e-003 -6.0056946455259497e-001
      1.8882797014818750e-001 -1.2599871874682955e-001
      -1.5728770731639075e-001 -4.6254865104951204e-001
      -2.2725458757578940e-001 8.7736669738585280e-002
      -2.4251559468046252e-001 -2.2487957635129588e-001
      -9.0130349850852026e-002 1.2036863120594316e-001
      -1.1922767017560931e-001 -1.2865107391791875e-001
      -3.6345179127890911e-002 -2.4984440038931771e-001
      3.2690340832629000e-001 -1.1543461818629662e-001
      2.4043821868959861e-003 -3.9563590238933083e-001
      -2.8203369450553945e-001 4.3548697457623436e-002
      -5.2801243121408858e-001 -6.8427858082239862e-002
      -3.1912482159100847e-001 2.1743628098241741e-001
      2.4795894028360718e-001 -8.3031983733399109e-002
      -1.1568175126273225e-001 1.1342465453881238e-001
      3.7950506702841377e-002 2.5763051272363346e-001
      -2.7757451222120971e-001 -2.0309779248808130e-001
      3.8259634368001505e-001 4.4307147805221117e-002
      -6.5229682485428958e-002 -1.9361801436397258e-001
      -9.1798713013033939e-002 -1.2812399415644848e-001
      -1.9910609069787047e-001 -3.5890168006684584e-002
      -1.0205497587583441e-001 1.4855406472248145e-001
      -1.7491432232836984e-001 -1.7079764119968180e-001
      1.7680913764637519e-002 -2.3162755576373514e-001
      2.7673568057178421e-001 -2.0502319304128733e-001
      -9.8738559410499374e-002 -2.6104163513960329e-002
      -6.0819138744786082e-002 1.9054791286248032e-001
      -1.0003617685971182e+000 1.0701047393798795e-001
      -2.0438483257868326e-001 3.3428302649252672e-002
      -9.8856483168392004e-002 1.2044178871811086e-001
      1.7858200276206071e-001 -1.8155259695293763e-001
      4.6904517113856109e-001 -3.1182124557500503e-002
      -2.6790257204607121e-001 -6.5044661233810405e-002
      -3.1552547098586479e-002 -1.0255872802021460e-001
      2.7625930132022120e-001 -6.8058510927893959e-002
      6.2287130252682982e-002 2.8747684581045563e-001
      1.9191298858273806e-001 -3.5565579142164711e-001
      3.4611856887255554e-001 3.9193466751557438e-002
      -7.5357743108894010e-002 1.0708583191277785e-001
      1.4362496555743798e-001 -1.6122993594616297e-001
      3.3693806590466745e-002 -3.1912992384408956e-001
      -2.2017877931394253e-001 -3.5323229069680884e-001
      2.2622657040415206e-001 2.5098648077810493e-001
      -1.6250058159595513e+000 2.0241467387653958e-001
      -2.5392722589556806e-002 2.6382639221229218e-002
      -1.5899315762645261e-001 1.4372472986340692e-001
      2.1437266503692409e-001 -1.0363122048999471e-001
      3.7916495026135549e-001 -1.1111051159336882e-003
      -1.8440489285706765e-001 -4.9391125641939530e-002
      4.7031097274842996e-002 -1.8875532684611004e-001
      3.6793674968794698e-001 -1.3217545116199828e-001
      1.0686064976646223e-001 3.7582309543378367e-001
      3.7693268673266361e-001 -1.6556038761523623e-001
      5.0654427974214755e-001 5.6161017678278295e-002
      -3.9670797622100948e-002 2.5216667158496447e-001
      2.1997508945922470e-001 -5.7366169577877123e-002
      -6.8276743332363665e-002 -4.7180887163982116e-001
      -1.2427764268781595e-001 -3.3082164510943934e-001
      2.4247284118207107e-001 2.3730956957698052e-001
      -8.7383281755183795e-001 1.8155959840979446e-001
      -9.1440675857981296e-002 3.7641242775110747e-003
      -1.9781516033892407e-001 -4.2415297832793858e-003
      1.0387834499867084e-001 -1.6239232962115387e-002
      -5.2541472429407231e-002 3.1844664625908124e-003
      2.6809108417931748e-001 2.3580336451976430e-003
      -1.2551359059391573e-001 3.0590813045916689e-002
      6.0683075475622079e-002 -9.4911367111221057e-002
      2.1437369117167246e-002 3.3446930356879406e-001
      1.7590395690649285e-001 3.3689695636371891e-002
      3.8261044049600423e-001 1.0910917594407588e-001
      -1.4954351569126637e-001 6.2752537752413351e-002
      1.0936320518138891e-001 -6.9845836970382325e-002
      1.2416623632009735e-001 -1.1287551925184824e-001
      -2.1977834442909266e-001 -1.9982158552054036e-001
      2.5557931264008060e-001 1.5509496582824409e-001
      -3.4618749697708853e+000 2.3876235632783141e-001
      -1.3309092007913770e-001 1.7607140349442261e-003
      -8.5326981312677602e-002 -1.9754662727730307e-003
      1.2944784589508257e-001 -5.3464771946913736e-002
      -1.0010958453716957e-001 7.4823230858015205e-002
      2.1890327537508532e-002 -1.1588370778232535e-001
      -4.3559941141362157e-001 1.5409528475772383e-001
      -1.5227064543367960e-001 5.4279795344720209e-002
      -1.3830749366309941e-001 2.8656059499163367e-001
      1.9042673364511001e-001 -4.8375275679762034e-002
      5.5452428364831163e-001 -2.7123851680057674e-002
      -1.4311435757723748e-001 -1.2355914899691549e-001
      1.0310238486644099e-001 5.1985981903501597e-003
      2.1525242022512869e-001 -4.3379920399018911e-002
      -1.7986115173342834e-001 -1.4445587219170455e-001
      1.9602050281364219e-001 6.8904213421186924e-002
      1.1466115022671271e-001 -6.6875165803222475e-002
      -2.1935347036638606e-001 7.3342820623015093e-001
      3.0481306159796318e-001 1.8689241027975034e-001
      5.7388686426426562e-002 -3.3067453847582606e-001
      4.1426380130860890e-002 1.2300849610983378e-001
      -3.8689067612256232e-002 -4.2476199710342427e-001
      -2.5755630698531057e-001 2.4382199033618299e-001
      -2.4542341753199418e-001 -3.0345042184912057e-002
      -1.9697786029852374e-001 1.1487838206224390e-002
      5.7161775875594352e-002 9.3203572399757378e-002
      -2.4193395497668616e-001 -1.2782359984541664e-001
      -2.0394557303037342e-002 -1.0879199685978942e-001
      8.3412887187930398e-002 -7.0834813163582000e-001
      8.3017443682065428e-002 1.1286293443839870e-001
      2.6153684744372907e-001 -2.4478061335254717e-001
      -3.9398407429790838e-001 -3.1909651593286376e-001
      -1.6895653909359403e+000 -2.8150116740546766e-001
      2.2735202813197289e-001 1.8699674578365824e-001
      -4.3645512015896344e-002 1.1545446272398711e-001
      -1.1441760691184366e-001 1.0327606451494228e-001
      -1.5014393643657029e-001 1.2679708685771007e-001
      -2.1172765339665017e-001 -7.8198256175001507e-002
      1.6834894452269658e-001 -1.5812847985976269e-001
      -1.8112223308025732e-001 1.6865985938981408e-003
      1.5432905908279511e-002 -7.4343569332619916e-002
      1.1265547130903418e-001 2.6382472155778197e-001
      -2.1790886501374573e-001 -1.1846628280328836e-001
      9.5250935432341005e-002 2.0464236516655576e-001
      1.0652326899500598e-001 1.1466745396265212e-002
      -7.6037263963987202e-003 -3.3544180044039562e-001
      6.6631736100593308e-002 2.1700567184733226e-002
      -4.3746586973323750e-003 3.0215307205809602e-002
      -4.9532417632464600e+000 -3.5429276581480540e-001
      -4.8323538659113069e-002 7.2561106589627541e-002
      -2.4558557465875111e-001 8.6962722040341958e-002
      -1.6901295874866509e-002 1.1188385961951329e-001
      -2.0209901041879677e-001 1.4865958050522929e-001
      3.7576716498029607e-002 4.5600848508440588e-002
      1.7415475880094025e-002 9.5008043294091057e-002
      -3.0519958882689868e-001 -8.7688943077045264e-002
      1.6318168404556530e-001 -1.8538267086160901e-003
      1.8170665583242529e-001 -1.3790866756072013e-002
      -1.1478977065054834e-001 -8.7915624150882526e-002
      1.4546103780126265e-002 7.0121174724464039e-002
      6.4722861609174981e-002 5.3377518811293040e-003
      8.8805977224059168e-002 -1.3825680033307761e-001
      2.0056195783002184e-001 1.2905289865891079e-001
      3.2129741812561244e-002 -4.7786975893342208e-002
      -4.3689451160209725e+000 -2.9455449970124636e-001
      5.2385322750257680e-002 -6.2469801403586975e-002
      9.2198222851138947e-002 -2.3704774700406335e-002
      -1.2371146063417980e-001 1.8949073311581296e-001
      -3.5237927707230787e-001 -2.3575979015422171e-002
      -1.1790038313600589e-002 -8.2210220643302273e-002
      2.1267330867926604e-001 9.3740284738112245e-002
      -2.2037307255645799e-001 -1.1285942407938152e-001
      -9.9136157289612878e-003 -1.0842290698377957e-001
      2.7746832612557965e-001 -1.7457527641608719e-001
      -1.3568406564197369e-001 6.6262194460484578e-002
      2.3578835957611657e-001 -7.5102317680841829e-002
      1.3453290656564953e-001 -3.9437150983060920e-003
      2.5002432849033650e-002 -9.5577456156552471e-002
      1.7613499741743791e-001 -2.5574370449496668e-002
      -5.7457247923220023e-004 -1.0656784884034980e-001
      1.5130197297527231e-001 -3.4921601104091970e-001
      -2.6362338132305863e-001 2.9553761331429479e-001
      1.7727154561568495e-001 2.2366330451931898e-001
      7.9768442353045463e-002 -3.9249588779261829e-001
      1.3946634485884535e-001 -1.4274556762384927e-001
      -2.4702025408735404e-001 -2.9450148603970883e-001
      -1.0337087503244045e-001 6.8458448283359993e-002
      -3.5778939980537931e-002 -1.1285861335216468e-001
      1.7593748004766766e-002 1.1354230430248079e-001
      -7.4641942979941520e-002 -4.0734764502686857e-002
      -2.9691801764622883e-001 -2.9733510600712265e-001
      1.5522233174791110e-002 -2.3021336867468468e-002
      1.5545974131882986e-001 -3.0772079078413778e-001
      -2.0274561994475040e-001 6.8581175091345745e-002
      1.4436521769694771e-001 -1.6182600677928136e-001
      -2.8825837566405943e-001 -1.9233359200180067e-001
      -6.3760313791978473e-001 -4.7102004898381948e-002
      -3.7731315015432632e-001 4.0418817427959502e-001
      9.3644616238948361e-002 3.0418197835319887e-003
      -1.6035178973455685e-001 -2.3196130731275780e-001
      3.5566020848552971e-001 4.6414946707846447e-002
      -8.3845724292603938e-002 -3.6951094483707075e-001
      5.9409930398836387e-002 3.0337376022644946e-001
      -3.1821088122414848e-001 1.0537357664013131e-001
      -1.8549431721308185e-001 9.4569552862034570e-002
      -1.8992208404596136e-001 8.3909687194088076e-002
      7.0087598923157524e-002 -1.3001589355309184e-001
      -1.4308635826019137e-001 -2.2150518139564970e-001
      5.0260483412690259e-002 -5.4575554957022787e-001
      2.4977967939440118e-001 3.3683950530068241e-001
      -5.1597399665540875e-002 -2.2295619671645591e-003
      1.8508345508944896e-002 -1.6573581315529898e-001
      -3.6382921557745869e+000 1.6049849469819674e-001
      -1.1294472939521880e-001 1.4292553174998449e-001
      -5.8105891957222783e-003 -2.3624051776414863e-002
      -3.7003104148229785e-002 -7.5206934938369191e-002
      3.0528195122097107e-001 -4.7792621736536804e-002
      -1.8033058818189213e-001 -1.7259617143866016e-001
      -1.4009557636535278e-001 7.6130258360073685e-002
      -1.2267860704978360e-001 2.2397593179548848e-002
      -1.7700066514810989e-001 3.0021246398121659e-001
      1.0966135411872345e-002 2.3196745270443329e-002
      4.4146621947499159e-001 -1.0760644969131318e-001
      -1.9753813878209597e-001 4.1989003904809731e-002
      7.0299117350094767e-002 -3.7846039649197954e-001
      1.0024592516774597e-001 5.8443656149466498e-003
      8.0513845666850478e-002 -3.5142403679657264e-002
      1.0941291718017851e-001 -1.5028447857012325e-001
      -3.6112764870200258e+000 2.6754881474721615e-001
      2.9711000449351422e-002 -5.4387319276109999e-002
      -1.7898513548823838e-001 5.1300540973577620e-002
      -4.7662267037390099e-002 -1.6189225175506664e-001
      3.5510433153770182e-001 -2.7889334776382623e-002
      -9.4600757811167988e-002 8.5162995571182634e-002
      -1.9403807866987971e-001 6.4218752015108752e-002
      1.6842216186038489e-001 -6.4309912549048470e-002
      -1.2389158443191071e-001 3.2429284638307826e-001
      2.3259361436798004e-001 -2.0997543833299442e-001
      5.8732264213494090e-001 -8.7558025742041551e-002
      -1.6272201231305072e-001 1.2424726201891224e-001
      4.7591204785306929e-002 -1.6381275148908300e-001
      -7.3656236363124475e-002 -1.4474848172685159e-001
      -5.1336946221614499e-002 -2.5726819246619875e-002
      5.9840727624224627e-002 -9.5134197493986702e-002
      -1.5257617704056459e+000 4.5789335511861706e-002
      5.3688650340449992e-002 9.1311397391550836e-002
      -1.3224109903018649e-001 2.6720965500517089e-002
      2.7960867825593937e-002 -8.8085818539028485e-002
      -7.1739798108117869e-002 4.0376353405126679e-002
      5.0351980353704395e-001 1.0729652364224596e-001
      -1.4034174762372714e-001 7.9283695366610479e-002
      1.3258939004638179e-001 -1.9384371692234045e-001
      4.5568395220152699e-002 1.7966581884678570e-001
      9.0735284318887360e-002 -5.6825060051137376e-002
      1.5903920278783282e-001 1.9209879919557565e-001
      -9.6459436002472435e-002 -5.6408149102821999e-002
      7.5183674915426144e-002 -1.7572202018177943e-001
      8.4118364743893961e-002 -4.5670407958454506e-002
      -1.7758480492250814e-001 -2.4576258949190358e-001
      2.2136216651343604e-001 1.5708517245734055e-001
      -1.1324098673224900e+000 1.6641939035172570e-001
      -1.6145096693962857e-001 4.1865482734840802e-002
      -9.0275628507595421e-002 -3.1703068498322495e-002
      -5.7635303299476551e-005 -1.4343595557143258e-002
      -2.7985922949102232e-001 1.6506256560526125e-001
      2.3750167480370538e-001 9.7655533627558688e-002
      -4.2456973994730735e-001 1.2537279336537263e-001
      -1.6659807193486853e-001 2.7688647086111868e-002
      -1.6787593337869208e-001 2.5264455854593343e-001
      1.4001529552750261e-001 -9.1062956832663883e-002
      2.1979206842532653e-001 9.3736750590232079e-002
      -2.0442708721858929e-001 -5.8008048640332571e-002
      -2.0392702782328603e-002 -1.8837316176991184e-001
      2.2181894059097929e-001 -1.9657236851804451e-002
      -7.7195102554468237e-002 -1.4669845370337073e-001
      -5.5523534956055859e-002 -1.6830554257504043e-002
      -2.6820494038401717e+000 1.0485144952572314e-001
      -3.7920610250132941e-001 2.1056796568454716e-001
      9.6919683002158318e-003 5.4363938512874709e-002
      -9.3325630578808383e-002 -5.3972478683513299e-002
      1.4474762868435351e-001 1.0113968619094584e-001
      -4.0376705902609966e-001 -4.0249714233822009e-001
      -3.2125903991481181e-001 3.7487878848494705e-001
      -4.7070715399963942e-001 1.4630458461230547e-001
      -1.3813408331167304e-001 -1.1174794267812313e-001
      2.1969719842162844e-001 9.3157273736491936e-002
      3.4726190092948950e-001 -5.1281001186545536e-002
      -1.0059982977637923e-001 1.2095550222879024e-001
      5.1956692317592507e-002 -3.1938618132059776e-001
      3.0447003445913318e-001 -8.5134497904908499e-002
      1.3540884153417745e-002 -1.1443065948820740e-001
      -2.1111686011818337e-001 -3.1139576927995555e-001
      -1.8224547642962636e+000 7.5457702188106587e-002
      4.6259415658718453e-002 8.4396754484297107e-002
      -4.9171311473425183e-003 -1.8141074923973163e-001
      -2.1408385522070308e-001 1.1926421294348684e-001
      -4.0528241797992337e-001 1.1673443791170436e-001
      1.0216518021455845e-001 -1.2838054830627613e-001
      8.3410510353208123e-002 -1.3757161301148915e-001
      -2.7076665387995297e-001 -1.5360385181872230e-001
      -2.0440037235093209e-001 6.8146314935631447e-002
      -1.8347866663239659e-002 -2.0057998464833660e-001
      9.8385025320264552e-002 9.8561024989418239e-002
      -2.1304789257387433e-001 2.3670656969143511e-001
      -1.1753052464571698e-001 -2.9728074133810765e-002
      3.3405061108399298e-001 -2.0309128378951022e-001
      -1.0050012982969057e-001 -1.8649139860760763e-001
      -1.4595514940097232e-001 6.3714372398101668e-002
      -2.6311202017818687e+000 1.5328818326531931e-002
      -5.0943013539780119e-002 -5.3168753198268331e-002
      1.4231887716329686e-001 -1.3177462928796455e-001
      -9.3796440309128537e-002 1.4283544025243816e-001
      -4.3849623259252224e-001 1.2269103631272267e-002
      1.9258073254282709e-001 -3.6681678905615384e-002
      1.0677233830966379e-001 2.4787017337047083e-002
      -4.1845966766593368e-001 -1.2330872345433758e-001
      6.6691429416328316e-002 5.9251465020754575e-002
      -2.8977436134963053e-002 -3.2598159024178841e-001
      -8.2383241237807839e-002 2.6907919773687738e-001
      -1.8882327055051654e-001 3.7724792103455564e-002
      -1.3516862631444077e-001 3.2259866075779434e-003
      3.7321724742655493e-001 -5.6612154041387926e-002
      -6.1574249774817992e-002 -6.9333523992211182e-002
      -1.2019810458867221e-001 -3.8723754644605394e-003
      -4.8214059875133985e-001 -3.1520322797991118e-001
      -2.8414003109342234e-001 -8.8049474138722106e-002
      8.9991507882265578e-002 6.1934761582069779e-002
      -1.9989123428037912e-002 1.7813012901368519e-001
      -2.9036160524423094e-001 -2.5240821037546365e-002
      2.2909187556000241e-001 1.5026770759328989e-002
      -1.4429366934997568e-002 2.1335508467021494e-001
      -4.6552539062755950e-002 -1.2872998395814092e-001
      2.3753553649237488e-001 5.5986422389949379e-002
      2.2790477527060929e-001 -3.2277454835966601e-001
      3.6703167475927022e-002 9.9527786893774575e-002
      1.9112645136181769e-001 -3.8483784987938655e-002
      1.1401585725103662e-001 -8.8207739219578751e-002
      6.5140987464976485e-002 7.8542673521533407e-002
      1.1374676076048698e-001 -9.4873874336088612e-002
      1.3657286561386570e-001 -1.0925945521446763e-001
      7.1469525338197903e-001 -4.6047082875824485e-001
      -3.2494667408806205e-001 8.6598515162970763e-002
      1.5547018709161595e-002 2.8828462386582882e-001
      2.3362210475836467e-001 -4.1575370290990656e-002
      1.3939724636604187e-001 -3.3149739993665306e-001
      -4.5354703845941086e-001 -2.5472583134740412e-001
      -1.9589956007344214e-001 7.2579808138682851e-003
      -3.2486926478342712e-002 -1.0381175578958016e-001
      2.9174365503374955e-001 1.0268888700919528e-001
      1.5659506608097401e-001 -4.2113140672250346e-002
      -1.3991045333815000e-001 -1.3962901135946992e-001
      1.0777698369405229e-001 5.2761185258978459e-002
      2.3887201217125484e-001 -1.2445461850581108e-001
      -1.3265330282054086e-001 -2.7481297521865733e-001
      2.8721674910543817e-002 -4.6236090792498304e-002
      -5.6735918417543850e-002 -4.3306139888415571e-002
      -4.1952221866937087e+000 -3.1817722825938083e-001
      -1.5694102963514178e-003 3.8394576102282552e-001
      -5.8222279092503090e-002 4.0131115047895871e-001
      1.1101224128343902e-001 1.0057753896840257e-001
      3.0804635474127617e-001 -8.2498064623475642e-002
      -5.5668192385210091e-001 -1.9816622597549263e-001
      -1.0958775546500488e-001 2.2378308670667801e-001
      -1.5290912938272597e-001 2.1493212892505650e-001
      2.0086541641743791e-001 -4.3690106251693180e-002
      3.8189143533437259e-001 3.3379557484663802e-001
      -1.2498139552394755e-002 -2.3650802484911870e-001
      3.2063474706666545e-001 -1.2350074414345533e-001
      2.9080275584926152e-001 -2.8771972251496858e-001
      -7.0350487001815482e-002 -3.4884955371563375e-001
      2.6406486383842295e-002 9.5481999891490504e-002
      9.5627123573103975e-002 -2.1822133765382207e-001
      -4.3448177757599575e+000 -1.3814601392057654e-001
      2.0473178626064442e-001 1.9458888525693918e-001
      1.4353514425534722e-001 3.0462179117895677e-001
      1.8091932574721920e-001 1.3523837125582161e-001
      2.9624315260829531e-001 -3.2454641413248836e-001
      -4.3236020597472480e-001 -2.5714638510219306e-001
      5.3435116530757415e-002 2.8523240031017461e-003
      9.2013143149981311e-002 -5.4213072344108555e-002
      2.9081482365039002e-001 1.3427420229812176e-001
      4.3744716379428483e-003 4.7327427258146515e-001
      1.1472497894062894e-001 -9.6574172189761748e-002
      2.5972111128435538e-001 7.1006979733020864e-002
      3.3959021416202112e-001 -2.1222515983381790e-001
      -2.3689490898538268e-001 -2.6823388736082482e-001
      2.7362957258187776e-001 8.9540059095841132e-002
      3.5496093488954972e-001 6.0656072214228755e-003
      -3.4213731884614678e+000 2.7957683371297332e-001
      1.0050348446570409e-001 -2.3429398862654820e-002
      5.1708875522699455e-002 1.0834296330145463e-001
      6.2696016616592104e-002 1.3508424589443810e-001
      2.2481281081050514e-001 -2.4864841877502453e-001
      -1.2352491809948406e-001 -1.0762011809400493e-001
      -1.4206560080515743e-001 1.0190419559321182e-003
      8.6462230459555506e-002 -7.1207394877496624e-002
      2.0972843297163207e-001 3.5773345329087464e-001
      7.6347730562929456e-002 7.8772189920799082e-002
      4.3621996618833564e-001 8.9347450094567002e-002
      -5.4574437430661996e-002 1.3213074334641259e-001
      1.5691774935906691e-001 -2.0582406466380354e-001
      1.5318950684135213e-003 -2.8793946957542421e-001
      1.7097621534396239e-002 -1.9304574939640218e-002
      2.1264785917663309e-001 -7.9260541981994222e-003
      -1.1339750129383246e+000 3.1017882114615529e-002
      7.2978810654417192e-002 7.4062724572092772e-002
      -7.4221948735951102e-002 5.5068588593255120e-002
      4.1380412799771615e-002 -7.2990381062195547e-002
      -5.3085866381499369e-002 4.6080364217213232e-002
      5.1167882840629342e-001 8.9756899692347333e-002
      -1.7172485401453302e-001 5.2125400506511307e-002
      1.1645073569827497e-001 -2.5038836257164276e-001
      1.0316971638689618e-001 1.6502964903973716e-001
      6.9066325629173780e-002 -4.8587491075099701e-002
      5.6544707509174161e-002 2.3400274000572829e-001
      -5.5747347278443014e-002 -5.4743649989880440e-002
      8.2036390844898430e-002 -1.9530968201075871e-001
      1.0854132599525616e-001 -4.5291805791516364e-002
      -1.7169536120204787e-001 -2.5211148549739348e-001
      2.3794333288890548e-001 1.4948046240566268e-001
      -6.5919481721985829e-001 1.9061739327081445e-001
      -4.9223083356096910e-002 -9.8009994921865844e-003
      3.9708452580230147e-002 -9.7620997128232606e-002
      -1.5029814976583900e-001 -2.6104333980016659e-001
      -6.2176796340436179e-002 2.2005809715128180e-001
      2.4363199795916254e-001 -1.1886034936341038e-001
      -4.1944309668090785e-001 1.3685669603973422e-001
      -6.9271377797410744e-002 -3.1591231844947038e-001
      -4.9055520482442223e-002 -2.6433259617874127e-002
      1.2324357277403764e-002 -8.3736185818795383e-002
      2.8865538684462597e-002 1.9918752659352640e-001
      -9.0842955819732979e-002 -8.3848582527862384e-002
      -1.5183967249805268e-002 -7.0113588337234994e-002
      2.7110903507421008e-001 -1.5560172187434829e-002
      -1.3084938119787218e-001 -2.3993065554385379e-001
      -1.4618538636046968e-001 1.1156732284158906e-001
      -2.1678004242777735e+000 7.5538702479679212e-002
      -2.7881096078755613e-001 4.6397830601509160e-001
      2.9474820331370238e-001 7.3751407926507154e-002
      -6.3500992324554029e-002 1.6329578319508903e-001
      -4.2000350585088891e-001 2.7656211382789875e-001
      -1.1683004874029461e-001 -2.4746452981270242e-001
      8.1275863866316495e-002 2.2667131664952272e-001
      -1.4081341106000791e-001 -1.7553107829262676e-001
      -1.9805994906626598e-001 1.1863059094398445e-001
      1.7217984520101054e-001 -4.2544518077702320e-002
      1.9341042339493328e-001 2.8217973778321442e-002
      -1.0423843703397757e-001 -1.3189728195519425e-002
      -5.2726407830867052e-003 -3.6545258169061845e-001
      1.7931261632843151e-001 -2.0088748027520348e-001
      5.0681421679714990e-002 5.1792288562246061e-003
      -3.5193310317667709e-001 -3.6672368061449905e-002
      -3.6547498304473147e-001 2.7265410591612543e-001
      -1.6793955807074964e-001 4.5050123169552835e-002
      -3.3069115053146463e-002 -1.6413123461510559e-001
      -1.6216677963409099e-001 3.3457532425890446e-001
      -5.1193346790772098e-001 -3.1397014917674501e-003
      -2.3796122321171145e-001 -6.1907384230093912e-002
      2.2359371307395678e-001 -2.7252887067106313e-001
      -3.5432675939395936e-001 -1.1031948472742317e-002
      -2.0822527152795636e-001 3.8405969582422783e-001
      1.0775056518060605e-001 -2.9171138461638213e-001
      2.3026211935053348e-001 2.0917113589551281e-001
      -1.0993065357252368e-001 2.3920908844256625e-001
      -9.7838022665383814e-002 -3.3946442155067862e-002
      3.6108366072350068e-001 -2.8876640584454771e-001
      -1.5112850855825233e-001 -4.8379350124893063e-002
      -2.5530002425586851e-001 9.2970988260203502e-002
      -1.3623809494800365e+000 6.9344184127818231e-002
      -2.4895336915039587e-001 -2.2861228148032403e-001
      -6.2528468941636536e-002 -1.8447002525815703e-001
      -2.8432518203293775e-002 1.3582895659071456e-001
      -3.3736582187807490e-001 -2.6793974944975346e-001
      -1.3751101693454648e-001 -2.2703078342801988e-001
      -4.5041973746434032e-002 1.0314871071211937e-001
      -5.0944305716644522e-001 3.2664844357187484e-001
      1.2141082599471631e-001 2.3919699046522874e-001
      7.1475987568694527e-002 -4.8080966269823067e-001
      5.9288843049520583e-002 3.5979673087960127e-003
      -1.7232722341488721e-001 1.6248206796151232e-001
      -8.8451916409394926e-002 -8.8389919432625502e-002
      3.9767306802468028e-001 -3.7647474090750477e-002
      -2.7536178473368311e-001 -2.8124789743541267e-001
      -8.4427390192108903e-002 -2.1601878062394281e-001
      -2.6955255398846911e-001 -2.6533172630854963e-002
      -3.9909305560482644e-001 -1.2718618249696884e-001
      1.6058554990372223e-001 2.1909289974144135e-002
      1.3977180691832831e-002 2.1507789908100497e-002
      -5.9413108550940535e-002 -1.9634615410462693e-002
      8.5712925248952240e-003 -1.2569579971094375e-001
      -3.0329561394136534e-001 3.2172058313763024e-001
      -4.3033892360637371e-001 2.4779784432725915e-001
      3.4830405152792449e-001 1.0592607484823124e-001
      2.1374669274521307e-001 -1.7801377094027127e-001
      1.7056924179600580e-001 7.8574381335093077e-002
      -1.7106443332733218e-001 -1.2295726022173700e-002
      -5.8349884377335452e-002 -1.4503413926770339e-001
      3.2631642865485705e-001 1.1710562356094738e-002
      -1.2766011748252803e-001 -3.5036828289126171e-001
      -5.7738615252780389e-003 -4.0391025252395313e-001
      1.0890560540837058e+000 -1.1923987331259228e-001
      -4.1363390950771173e-001 1.8671849861118112e-001
      2.1079811689200559e-001 -3.8759284865930936e-002
      -1.3441915601972843e-001 5.7717221198461621e-002
      -2.2138001885593508e-001 1.8379633594127501e-001
      9.4892306566130388e-002 -6.9304074743457331e-002
      -2.0005118376755973e-001 4.8856491785367669e-002
      -7.3732118993184437e-002 -4.2732864435015033e-001
      -2.1293217133212070e-002 8.6826391176104398e-002
      2.2557599451803095e-001 -2.9057623192254162e-001
      1.0664915895731947e-001 2.9737089118564419e-001
      -1.1261997247137261e-001 -2.4956751373883113e-001
      3.4717587678382178e-002 -1.9492260320619492e-001
      2.1697389343361520e-001 -1.6969307219078203e-001
      1.1673834040442933e-001 -1.5444156571363371e-001
      -3.0603599697837119e-001 -4.7692933805324168e-002
      -3.0658800001884665e+000 -1.1269411527706714e-001
      -4.1950351433922006e-002 3.8500005266849302e-001
      1.5886162536860676e-001 9.8746221421127864e-002
      -1.4230823334409093e-001 6.3880121022833455e-002
      -4.0106872078086046e-002 2.1390125353911238e-001
      -8.7819569712959678e-002 -1.0764876075436461e-001
      8.7614073203863066e-002 2.0315947427344896e-001
      2.1766744769877586e-002 -2.8302580094974683e-001
      -8.0806328349595072e-002 -3.3712813039726494e-002
      1.0003105126086416e-001 -9.1643401194855742e-002
      3.7058245693703425e-002 -2.3289722745093635e-002
      2.2724668653359890e-002 -1.2069233269764335e-001
      -3.4646788552607577e-003 -3.1043712999783302e-001
      1.1440817278116459e-001 -1.3753211265690560e-001
      -3.5547427215258325e-002 1.1944467233979771e-001
      -1.5968149227544823e-001 -4.2673249587609902e-002
      -5.6837117402878796e+000 -1.3031099878687599e-001
      2.3489816473711389e-001 1.1178188035432036e-001
      2.4656539245827187e-002 3.1291782328201484e-001
      2.4130012571434573e-001 3.5194333401978056e-001
      2.7527973193180588e-001 -3.0298908834331922e-001
      -5.3212912136289048e-001 -1.3757891595372246e-001
      -5.3303188113751475e-002 -3.2409522232101681e-002
      6.5784066722348877e-002 2.8627671953797586e-002
      2.7727953874077876e-001 1.4581737553528390e-001
      2.3695095041460568e-001 3.7535570186613676e-001
      2.3903822822878990e-001 -1.0819923746887880e-001
      2.1013816206457994e-001 -3.3735398357338804e-002
      3.4498813995367922e-001 -8.9609008235734991e-002
      -1.9242478396505666e-001 -5.7042691886226027e-001
      1.0805451806292642e-001 1.4445022919609291e-001
      3.6460832842325308e-001 -1.4024898611528077e-002
      -4.1914501139656259e+000 2.8942141842617310e-002
      2.1722062155791563e-001 1.6284348564610746e-003
      4.4876959090580102e-003 2.5656238063386494e-001
      1.7473473408744922e-001 2.3792360127158363e-001
      2.9874473046221822e-001 -4.2191677254581811e-001
      -3.4686088514987323e-001 -1.7930328538276100e-001
      -6.7982660058858904e-002 -6.5117367508189319e-002
      1.1885003278515940e-001 -4.9860031532526314e-002
      3.2281403627706307e-001 3.2468119384617211e-001
      1.4262329761066597e-001 3.4499764710990161e-001
      3.5975802999931838e-001 -5.9470137318834229e-002
      1.9847188091889922e-001 1.8783939104201322e-001
      3.3505444035127663e-001 -1.0991375185518402e-001
      -1.9689326130134591e-001 -4.0177251647525331e-001
      1.4297864588676071e-001 1.3167457624540502e-001
      3.8750247355443190e-001 2.7832876644389465e-002
      2.4270827704326585e+000 2.2939903667382727e-002
      -1.4745035947139528e-002 -9.9283037775886818e-002
      -8.6201287150035069e-002 2.3711176148789995e-002
      -2.9085025191447452e-002 -9.2374855530618832e-002
      -5.3330604054307500e-002 2.1902278770233860e-002
      3.2421047471229447e-001 5.5851580833444707e-002
      7.9515803605097496e-002 -6.5730892420638717e-002
      1.9360315001357739e-001 -6.1303242495536192e-001
      2.0723184668467604e-001 6.0464124907309560e-003
      -4.7763710813581273e-002 5.9817673076062700e-002
      -1.1441030982152608e-001 2.6038003014230943e-001
      -5.4303965037247617e-002 -3.9418771023146060e-002
      3.0728958104557197e-002 4.2718270672200853e-002
      1.7176572084403072e-001 -8.9853258033596048e-002
      -1.5795009288198386e-001 -7.3857518384693246e-002
      8.0161678986608795e-002 1.7210739145179199e-001
      -1.4633589494761492e+000 -2.6998270192214176e-006
      6.8210482968036751e-002 2.1653833097039856e-002
      -1.3433924543527134e-001 -6.0257024932904198e-004
      -1.0374636932951635e-001 -6.5952707257369960e-003
      -7.7173420407770699e-002 1.6117944470570059e-001
      3.7302641824886407e-001 4.8503449623902649e-002
      -2.4718780439982577e-002 8.0092171891955555e-002
      2.0717824989967654e-001 -4.5981073621524343e-001
      7.8272518476257477e-002 -6.3254137564027445e-003
      8.1726482501752559e-002 -7.5300553021922914e-002
      1.2563954377996903e-001 1.8538265492389763e-001
      -3.6407266297818594e-003 7.6592933558905105e-002
      3.2728103273988125e-002 1.9392689402888141e-002
      1.3569934485385343e-001 -1.2027436453610299e-001
      -2.4781765128456390e-001 -6.2159386304996594e-002
      1.5666125118788457e-001 2.4588591428470516e-001
      -4.8758293480544088e+000 -2.5894743649462964e-002
      -2.2655099975110457e-001 5.4673522774902594e-001
      1.9656289065735802e-001 8.0316687921311483e-002
      4.5303564737184015e-003 -1.7886206372757625e-002
      -2.6571623758116941e-001 5.6527285176449914e-002
      -4.9291804185901227e-002 -3.1275096138561703e-001
      -9.3848104588041589e-002 3.7592647822114872e-001
      -1.6866707324636909e-001 -7.1915681747440549e-002
      -1.4522601725379256e-001 4.1450200498738210e-002
      1.7840617321864391e-001 -2.0540611741535614e-001
      1.6609864671070373e-001 -3.0620439125302268e-002
      -4.7142829830253780e-002 -1.6442798359465399e-001
      2.7154895091194654e-002 -4.4406502426936223e-001
      1.4611130941531586e-001 -8.0887358192450173e-002
      -4.3176808024061347e-002 -1.7939070511397542e-001
      -2.5724082859604913e-001 -8.5325268985766242e-002
      7.3946091294859129e-001 3.4881325962096282e-001
      -2.7329635176683509e-001 5.0450437372883572e-002
      2.3072123742573414e-001 -1.1291052888307399e-001
      -1.7186911240739364e-001 1.0459922227917276e-001
      -2.8244328424484477e-001 -2.6023711867424946e-002
      -3.1327843318975562e-002 -1.3699848668586853e-001
      -3.6026414629061628e-003 -1.1382252606303304e-001
      -5.0509605392675805e-001 -1.1422549278885369e-002
      -1.8427152286362727e-001 1.7461143112979957e-001
      -1.0049751761048194e-001 -3.1344489874353498e-001
      -1.4885899794855191e-002 3.4303611065556061e-001
      -5.5595628272060195e-003 -6.9495867065666461e-002
      -4.8974245439083977e-002 -1.3631556111392865e-001
      4.1636387904271571e-001 1.1659755861679660e-001
      -1.5201872867465038e-001 -1.8593536207551023e-001
      -2.0697072885043111e-001 1.3213129334710463e-001
      1.9021093242737538e-001 1.1257935335320561e-001
      7.4912671379797346e-002 -9.5366029271123989e-002
      3.6071167971674045e-001 -2.3943363649071717e-001
      -2.6412496080796555e-001 3.8926834398003984e-002
      -5.1001427584545989e-001 1.7743734246978080e-001
      2.1081856029955756e-001 -2.4019557720416865e-001
      6.6816362592315118e-002 1.7091107595231650e-001
      -3.3732363290518003e-001 9.3438226904587682e-002
      -1.5037740835873662e-003 -8.1351867964892341e-002
      5.3665913793148655e-003 -1.0702664243412224e-001
      -6.9868900135618667e-002 1.8157272384591819e-001
      -1.2737762073082187e-001 5.6660451130421376e-002
      -6.4698319041452054e-002 -8.7068833568478859e-002
      3.2603795035279531e-001 5.8632933409352821e-002
      -8.3697875107036114e-003 -3.9189738700162230e-001
      -1.8792492476081205e-001 -2.5769251430758211e-001
      -1.0052035069818117e+000 5.3936629009577894e-002
      -8.3267382851165195e-002 3.7120654347004836e-003
      2.9763422210019419e-001 -3.4722542561934203e-002
      -6.8021900123420853e-003 -1.9967824713297408e-001
      -3.0122636468271041e-001 2.0352339730016986e-001
      1.4529224182535669e-001 -2.0388888442394673e-001
      -4.0099876751456376e-002 3.3948485438204345e-001
      -4.3200714923737071e-001 1.1408590236652640e-001
      3.2040513694026473e-001 8.0297646487699978e-002
      3.0231798097367537e-003 4.7729174271058106e-002
      -1.4266269481403651e-001 1.0870265646408540e-001
      -3.4219657030900141e-001 -4.5319769806296324e-002
      -3.9490435083543628e-002 -1.5576535899974647e-001
      3.4348475219469649e-001 8.1373513837316915e-004
      7.0407217809946271e-002 -2.6009405808170838e-001
      -2.0162818439526409e-001 -2.7053640587021882e-001
      1.6900600439269624e+000 2.0233921873751787e-001
      -5.1636844164925666e-001 1.5908431051303082e-001
      3.4726597717315394e-001 1.2040371203743383e-002
      -1.0168306396541156e-001 -1.2209458824805497e-001
      -1.7912994333157287e-001 3.3929911035717175e-001
      1.0713503498263253e-001 -2.3298673460827055e-001
      -5.2565135369044624e-001 2.3640491745665976e-001
      -3.5540919065987508e-001 -8.5050108604688437e-002
      5.6051860718298800e-004 1.0176294242805936e-001
      2.2543793465987871e-001 -6.1073246863237569e-002
      1.3518697144525404e-001 3.2030132196669858e-001
      -1.0749507299348414e-001 -2.1961609657423348e-001
      1.0876275438565214e-001 -2.7948553801033843e-001
      3.2539498702575148e-001 1.1482288272348909e-001
      3.9786311057026646e-001 -3.0353689375041887e-001
      -3.4523076077411285e-001 -2.0423686190115592e-001
      -2.1314030036896505e+000 2.2771258627984689e-001
      -1.0321319403221471e-002 3.5567564920805683e-001
      2.8771835548439623e-001 4.3895403381853819e-002
      -2.4828721045486099e-001 -1.3008958213996696e-001
      -4.4664173952172363e-002 3.8666081107234629e-001
      -1.4571389679835348e-001 -4.7988704929111378e-002
      1.2957754839107269e-001 2.1477751054159411e-001
      -2.5885844650056507e-002 -1.1104952420816058e-001
      -1.2902050049247518e-001 2.7226492539729873e-002
      -2.9935529410039519e-002 4.0119777504201884e-002
      9.1329693377370957e-002 3.1224749912129285e-002
      -3.9924676204175433e-002 -7.7828796422359431e-002
      -2.2365998986091394e-002 -2.8738577467567361e-001
      1.1968981414066614e-001 5.9692894078313252e-003
      2.0112233333598695e-001 2.3420981495711507e-002
      -2.8118614030332573e-001 -4.7926548396363552e-002
      -4.3044776504480051e+000 9.9471027354272767e-002
      2.0857850062857547e-001 1.1187286749235389e-001
