<?xml version="1.0"?>
<opencv_storage>
<my_nn type_id="opencv-ml-ann-mlp">
  <layer_sizes type_id="opencv-matrix">
    <rows>1</rows>
    <cols>3</cols>
    <dt>i</dt>
    <data>
      784 34 36</data></layer_sizes>
  <activation_function>SIGMOID_SYM</activation_function>
  <f_param1>1.</f_param1>
  <f_param2>1.</f_param2>
  <min_val>-9.4999999999999996e-001</min_val>
  <max_val>9.4999999999999996e-001</max_val>
  <min_val1>-9.7999999999999998e-001</min_val1>
  <max_val1>9.7999999999999998e-001</max_val1>
  <training_params>
    <train_method>BACKPROP</train_method>
    <dw_scale>1.0000000000000001e-001</dw_scale>
    <moment_scale>1.0000000000000001e-001</moment_scale>
    <term_criteria><epsilon>1.0000000149011612e-001</epsilon>
      <iterations>5000</iterations></term_criteria></training_params>
  <input_scale>
    9.6465912755174816e-003 -1.9359993178418060e+000
    9.6298535777265774e-003 -1.9113780957823419e+000
    9.3678544105165237e-003 -1.8100717685178904e+000
    9.0402097421274138e-003 -1.6680098008241668e+000
    8.8799549590523278e-003 -1.5643035616215923e+000
    8.7133826142314370e-003 -1.3889178541748906e+000
    8.3794108078087941e-003 -1.1119259872225442e+000
    8.3825364349535431e-003 -9.4922692829823840e-001
    8.5895443435091545e-003 -8.0182385171063020e-001
    8.8450916329823118e-003 -7.3385165220066739e-001
    9.4582081625859404e-003 -7.0398085574030422e-001
    9.9275782828620700e-003 -6.5470449688621435e-001
    1.0648136314545278e-002 -5.7626113248260591e-001
    1.0442026595382178e-002 -6.0157916798491140e-001
    9.6002982768001021e-003 -7.0447119475476683e-001
    9.2875242586478515e-003 -7.2527783198885565e-001
    9.2490460374776290e-003 -7.4204906525343217e-001
    9.0873255445157435e-003 -7.0493559686223106e-001
    9.2422576091153869e-003 -6.6292322940631188e-001
    8.9758479280702304e-003 -7.0877736222371146e-001
    8.9511959666298165e-003 -8.1362547629748350e-001
    8.7438955239557605e-003 -9.2946593172454872e-001
    8.4999590504629130e-003 -1.0323183511665821e+000
    8.2721906261186140e-003 -1.1145079332166157e+000
    8.3746530138910178e-003 -1.2509479049124279e+000
    8.3187217181829049e-003 -1.3191963501223694e+000
    8.3456925322703684e-003 -1.3433982566434128e+000
    8.4773257192263390e-003 -1.4101584697734497e+000
    9.6688230327347177e-003 -1.9207206008680049e+000
    1.0039998399839009e-002 -1.9646193036259878e+000
    9.3572336620157057e-003 -1.7027902922929750e+000
    8.8527653650666994e-003 -1.4099581994205324e+000
    8.6758628106769573e-003 -1.2186635330217612e+000
    8.5096276033061382e-003 -1.0965828718667470e+000
    8.4447831580263793e-003 -1.0609586306566194e+000
    8.7569253974496986e-003 -1.0631355378086775e+000
    8.6612770037008627e-003 -1.1317916399287145e+000
    8.9042953947689515e-003 -1.2126537612725019e+000
    8.8230816571186321e-003 -1.2563145527038317e+000
    8.6926217747617905e-003 -1.1464305461819031e+000
    8.6050656143661242e-003 -1.0424154339018143e+000
    8.6594141503841520e-003 -1.0902362140633952e+000
    8.7647786697274098e-003 -1.1126243026061755e+000
    8.7542020004371772e-003 -1.1797444412987876e+000
    8.6748116590108226e-003 -1.2200031388901826e+000
    8.5867947260112251e-003 -1.2410598270120872e+000
    8.7713164108027906e-003 -1.2611139314221318e+000
    8.7545915686021748e-003 -1.2476413903475900e+000
    8.6545666365971524e-003 -1.0851154125635349e+000
    8.7485458072302236e-003 -8.5778005692782178e-001
    8.7791707824009454e-003 -9.0911629193501409e-001
    8.7632855388118259e-003 -1.1594101653919415e+000
    8.9856613133744226e-003 -1.4656740900342236e+000
    9.3572559023783284e-003 -1.7253090556403472e+000
    9.3787149332827842e-003 -1.6775274056066789e+000
    8.2529224674390868e-003 -1.3298750211164023e+000
    9.4007392487270632e-003 -1.8004046441967705e+000
    9.5339860415602929e-003 -1.7858761943985726e+000
    8.6542105283362886e-003 -1.3838185077756555e+000
    8.3660235839658481e-003 -1.1342159406606245e+000
    8.4928957376346620e-003 -1.1164997921732331e+000
    8.2507121321845536e-003 -1.1740614405166216e+000
    8.6920765696669351e-003 -1.3227670237039506e+000
    8.4419971541059256e-003 -1.2156271275912907e+000
    8.8801482289460748e-003 -1.4259535950051392e+000
    8.7066208608915924e-003 -1.3908372934738258e+000
    8.7557058451927759e-003 -1.3901122421070171e+000
    8.7502155910111207e-003 -1.3303046985475966e+000
    8.5588020465387094e-003 -1.1933474722463491e+000
    8.4452075234041166e-003 -1.2077885452983201e+000
    8.3942649467126790e-003 -1.0520716124831657e+000
    8.5766958081558986e-003 -1.2046765469319136e+000
    8.6279943197387441e-003 -1.1723668740910766e+000
    8.4384602097211433e-003 -1.1827309387591605e+000
    9.0862905796519292e-003 -1.4837231022236037e+000
    9.5281441971822641e-003 -1.6784010371138791e+000
    8.6584314787205331e-003 -1.4352955589937897e+000
    8.8525620465286833e-003 -1.3491327372214776e+000
    8.5341789123022909e-003 -1.2423260442484183e+000
    8.3866760516954734e-003 -1.0854704492862191e+000
    8.5439688937523871e-003 -1.1984279934794715e+000
    8.8629266749883032e-003 -1.4458147747809547e+000
    9.4817734777355080e-003 -1.6917774042186133e+000
    8.3733284491967659e-003 -1.3613800872057564e+000
    9.0721647420134131e-003 -1.6170745669363269e+000
    8.7158137128342146e-003 -1.3841310718766224e+000
    8.3830992776852582e-003 -1.2108970386115701e+000
    8.4339093266378000e-003 -1.2159571529458879e+000
    8.5694009078299428e-003 -1.2879881345064914e+000
    8.5888535249846430e-003 -1.3483615026089566e+000
    8.5725601110505714e-003 -1.2288969497398428e+000
    8.6300641060455142e-003 -1.2231473947798697e+000
    8.5482014855186271e-003 -1.2964065442358230e+000
    8.5155367080667309e-003 -1.2222717438586663e+000
    8.6706846915281157e-003 -1.2830916684950127e+000
    8.6385443505980798e-003 -1.3719153195851257e+000
    8.6653089930516618e-003 -1.3872381390619548e+000
    8.7927825975396834e-003 -1.4810620049772516e+000
    8.4252148088338388e-003 -1.2441405373536831e+000
    8.8537071926098453e-003 -1.3182951092925392e+000
    8.5930399077206541e-003 -1.3151556261008910e+000
    8.6050326049783663e-003 -1.3493176162950926e+000
    8.7741871816784753e-003 -1.3129426406428493e+000
    8.4934936372861262e-003 -1.1149273404321869e+000
    8.8311365276485167e-003 -1.3641486466413069e+000
    9.1005105041273605e-003 -1.5901854975022722e+000
    8.7732137303295019e-003 -1.4492038822999780e+000
    8.5253086501193391e-003 -1.2935423222591373e+000
    8.4014663820759557e-003 -1.2012060355954737e+000
    8.5371424391275826e-003 -1.2359998236995593e+000
    8.6451634225367131e-003 -1.3979659899416446e+000
    8.4124526443499562e-003 -1.3092300262772012e+000
    8.8964331934763639e-003 -1.5131864573582399e+000
    8.7558851269701390e-003 -1.3797578520643969e+000
    8.5046976866768407e-003 -1.2559707439708894e+000
    8.8554522357742593e-003 -1.4122233197048328e+000
    9.0679935005645446e-003 -1.5346075568562734e+000
    9.1176205870278221e-003 -1.4431584657288354e+000
    8.5775412777932686e-003 -1.2858650822388837e+000
    8.8733669684741504e-003 -1.3591841868834573e+000
    8.7754444121360044e-003 -1.1557797794988529e+000
    8.6229501741465452e-003 -1.0494966750613057e+000
    8.4071021367677651e-003 -1.1134346975234941e+000
    8.8456534001690786e-003 -1.3698812021611202e+000
    9.0506329887276044e-003 -1.5064866187833406e+000
    9.6767199401766712e-003 -1.7659384531963243e+000
    9.0744192183211947e-003 -1.4871951906030132e+000
    8.8742560243333397e-003 -1.3550366081166314e+000
    8.8987124015463045e-003 -1.4647447821059485e+000
    8.5928202450260439e-003 -1.3060348201577734e+000
    8.4525648476524804e-003 -1.0456656297927887e+000
    8.7613097509160170e-003 -1.0707693386663877e+000
    8.5280993159472188e-003 -1.2362135658811446e+000
    8.9136308874326504e-003 -1.4823236663285246e+000
    8.9533816945503789e-003 -1.5518376574265418e+000
    9.0998689072205874e-003 -1.6081736652583118e+000
    8.7892598942193676e-003 -1.4255592509747843e+000
    8.3662454473235007e-003 -1.2172961828236069e+000
    8.6638926176192711e-003 -1.2747242707988380e+000
    8.5243777737461380e-003 -1.3018121365630726e+000
    8.7756682611902261e-003 -1.4665458661160276e+000
    9.1485654918388587e-003 -1.4771841732970521e+000
    9.1502858220176408e-003 -1.4337024203931832e+000
    9.1902773102801524e-003 -1.5171480702445093e+000
    9.5424954859374845e-003 -1.6161767509870439e+000
    8.9066845639228596e-003 -1.4255904980372920e+000
    9.1153576368303568e-003 -1.3913316116987136e+000
    8.8773068334800087e-003 -1.2982376991002471e+000
    8.7277491676185318e-003 -1.0571021868619923e+000
    8.9318779292855855e-003 -1.2221294473486164e+000
    8.9727070320886095e-003 -1.3675451124202793e+000
    9.1887847561729647e-003 -1.4809172038644536e+000
    9.3716411725959931e-003 -1.6568720830286694e+000
    9.6107365789552344e-003 -1.7960649665803754e+000
    9.3353367965273992e-003 -1.6272878204283001e+000
    8.9931269200545366e-003 -1.4498075569523206e+000
    9.5358020662226622e-003 -1.6928954259286386e+000
    8.7912605711920611e-003 -1.3327727965298455e+000
    8.8554282684188915e-003 -1.2711776169772959e+000
    8.5911776978367660e-003 -1.2514277694911780e+000
    8.5263324602066169e-003 -1.2233858409513911e+000
    9.0744511667333848e-003 -1.3370264343576648e+000
    9.2896798389570726e-003 -1.5627957503465826e+000
    9.1391031609470864e-003 -1.5426968220198074e+000
    8.8906246802711621e-003 -1.4082600473392182e+000
    8.4950845689638742e-003 -1.1439805251910498e+000
    8.5866676184220298e-003 -1.1755959219894117e+000
    8.8642923699020042e-003 -1.4054793997403616e+000
    8.4319100887480861e-003 -1.3425835949492815e+000
    8.9124051816192630e-003 -1.4182309814899934e+000
    8.6952463728716574e-003 -1.2943901397932687e+000
    9.0073671935247956e-003 -1.4311792372758172e+000
    8.9239711180412584e-003 -1.3745716849024174e+000
    8.9027114650496956e-003 -1.3280949880228563e+000
    8.6474248927545291e-003 -1.2677709415468772e+000
    8.6671399455035599e-003 -1.1484049494345321e+000
    8.6124310108374683e-003 -1.0786490641156437e+000
    8.9606788384280819e-003 -1.3574504459047321e+000
    9.5290070134930842e-003 -1.6686886186059420e+000
    8.9078730918488551e-003 -1.4842878857167476e+000
    9.4262534818180255e-003 -1.6906579588473576e+000
    9.9953149001667050e-003 -1.9267030140397918e+000
    9.6920090503269662e-003 -1.7822646650127756e+000
    8.7847654923992966e-003 -1.3987408017942751e+000
    9.3522255873724133e-003 -1.5916286049034680e+000
    8.6300473948919109e-003 -1.3242902840590638e+000
    9.2063718525523634e-003 -1.5047237304652192e+000
    8.7192033061032001e-003 -1.3209436029699513e+000
    8.6895675352835766e-003 -1.1508363983167520e+000
    8.7214446599037862e-003 -1.1468264808521147e+000
    9.1198916163207685e-003 -1.4503223790711579e+000
    8.9400469766560148e-003 -1.4225589975028845e+000
    8.9783321968765518e-003 -1.4225348625561065e+000
    9.0136756863313829e-003 -1.3485104545923050e+000
    8.7445185339166624e-003 -1.2922937797637863e+000
    8.6365605874021319e-003 -1.4276966502548305e+000
    8.5000692613994514e-003 -1.3702622015820987e+000
    8.9102439327295932e-003 -1.4775013112221964e+000
    9.0728527227131768e-003 -1.5334386835366660e+000
    9.0063350878418127e-003 -1.5273910806449158e+000
    8.7375036377318350e-003 -1.3610554460917188e+000
    9.0787292175575057e-003 -1.4905881734131290e+000
    8.9099814337590712e-003 -1.3597211241484795e+000
    8.4980757829388673e-003 -1.1711571313867879e+000
    8.9637053529969379e-003 -1.3815925302861110e+000
    9.0888976958920422e-003 -1.5323530180082834e+000
    9.2517908554221612e-003 -1.6530983259096075e+000
    8.8431379037955862e-003 -1.4474037971197413e+000
    9.4390571439296623e-003 -1.6960087048359398e+000
    1.0456904200125169e-002 -2.0964377812034303e+000
    1.0182039318177681e-002 -1.9396283506784162e+000
    8.7326979168563922e-003 -1.3784160698863306e+000
    8.7644345434241596e-003 -1.3616311972387654e+000
    9.0310244452816001e-003 -1.4400113126674698e+000
    9.3540418470809857e-003 -1.6326908706987582e+000
    8.7022989019922559e-003 -1.3104625724025443e+000
    8.6435932585522124e-003 -1.2644031440068579e+000
    8.8342722997775316e-003 -1.3612520291262589e+000
    9.5134015577136039e-003 -1.6689503729480335e+000
    9.1627310057977081e-003 -1.6058719517961324e+000
    9.1428405824687323e-003 -1.5766879744873818e+000
    9.1248983947674386e-003 -1.5143935129836796e+000
    8.5929848706875478e-003 -1.2988648681810639e+000
    8.5414076463256865e-003 -1.3877895102250806e+000
    8.9824858038173132e-003 -1.5798807791901295e+000
    9.4643781489054026e-003 -1.7160881800040599e+000
    9.9799334594677918e-003 -1.8911564865394170e+000
    1.0305828334243523e-002 -2.0200999540194724e+000
    9.7011145387792055e-003 -1.8277658133715402e+000
    1.0443703122500531e-002 -2.0474874263396603e+000
    9.3856316918063988e-003 -1.5896721215910867e+000
    9.1835349738517719e-003 -1.5085731292285782e+000
    9.7182040951406534e-003 -1.7708340872098953e+000
    1.0187031428217624e-002 -1.9107603913922664e+000
    9.5400526290255888e-003 -1.7435292126363728e+000
    9.2985363577424967e-003 -1.5833803481403952e+000
    1.0124010376409521e-002 -1.8575139041706987e+000
    1.1844870600316767e-002 -2.4753002742247898e+000
    1.0982485367982495e-002 -2.1663041163155707e+000
    9.0950943961180461e-003 -1.5166395282951624e+000
    9.0673507035676035e-003 -1.4531628490958564e+000
    9.3177567445980672e-003 -1.6071696064805505e+000
    9.4769785424916944e-003 -1.5676807090181777e+000
    8.9732327750670308e-003 -1.4584370334620078e+000
    9.3335594148536236e-003 -1.5821986988316619e+000
    9.5627035181766254e-003 -1.6290377664189537e+000
    1.0416111401472703e-002 -2.0029352481820939e+000
    1.0263479033051668e-002 -1.9669773548294103e+000
    9.3779591341723260e-003 -1.6835240488211629e+000
    9.1935278300624059e-003 -1.5794024398410909e+000
    9.1202877290963574e-003 -1.4934566373505120e+000
    8.5633844026144525e-003 -1.4156117097976182e+000
    8.9426552682971214e-003 -1.6015280632941920e+000
    9.8943541667558393e-003 -1.9281629931335169e+000
    1.1598832183187396e-002 -2.4378495840784109e+000
    1.1683031167220820e-002 -2.4979659244774886e+000
    1.0841261593757697e-002 -2.2235437795359920e+000
    1.0639490059089200e-002 -2.1429624188550713e+000
    9.6491009226240178e-003 -1.7856344781715334e+000
    1.0537143506344498e-002 -2.0598855769796751e+000
    1.1010615638813039e-002 -2.2647964855890752e+000
    1.0273521080187151e-002 -2.0083786485034274e+000
    9.2023454002089361e-003 -1.6768659699660815e+000
    9.3233431755474720e-003 -1.6525276144247802e+000
    9.6121777751301350e-003 -1.7489677029470434e+000
    1.1166976467360238e-002 -2.3225464697101321e+000
    1.0948133541372964e-002 -2.2168310012795325e+000
    9.1256699038210608e-003 -1.5815440012554289e+000
    9.0084618260471445e-003 -1.4600019667609612e+000
    9.0588327689012076e-003 -1.5332871783769677e+000
    8.9538731925842760e-003 -1.4389285221353443e+000
    9.7041940299755301e-003 -1.6932695052795947e+000
    9.9475911593017892e-003 -1.8718574410774069e+000
    1.0704004346732594e-002 -2.1195534245315173e+000
    1.1984464565147396e-002 -2.5238820662638104e+000
    1.0815207901430925e-002 -2.2051764216960645e+000
    1.0304892780646564e-002 -2.0337854298216542e+000
    9.8417037525090120e-003 -1.8881088907287369e+000
    1.0122109657265267e-002 -1.8952846109411201e+000
    8.8081571901717538e-003 -1.5481520414235108e+000
    8.9091084302815038e-003 -1.5981620195728121e+000
    1.0200262899046519e-002 -2.0226204633290594e+000
    1.0972297753161142e-002 -2.2966818776964155e+000
    1.1043877768867923e-002 -2.3434244209871244e+000
    1.2857883958338716e-002 -2.8366038064773882e+000
    1.2871572146292283e-002 -2.8202324554061970e+000
    1.0546521253322803e-002 -2.1500204301227255e+000
    1.1099980411142770e-002 -2.3335877382982915e+000
    1.1220920242259265e-002 -2.3136722442740112e+000
    1.0396908382474432e-002 -2.0349885740681830e+000
    9.3014722201847210e-003 -1.7270910594444975e+000
    9.3275352521761824e-003 -1.6108409857905948e+000
    9.2101391415304115e-003 -1.5661090233790151e+000
    1.0447246710668920e-002 -2.0976820846420887e+000
    1.0470782236477650e-002 -2.0759612459573797e+000
    9.7355822541327058e-003 -1.7920973806802662e+000
    9.1384421645632607e-003 -1.5493966018930605e+000
    8.6951266663706835e-003 -1.3230369128141926e+000
    9.1652289869047273e-003 -1.4675828249197616e+000
    9.5076656429848149e-003 -1.7338574234427160e+000
    9.7463937848590622e-003 -1.8560030311191136e+000
    1.0430596338689771e-002 -2.0452000207246979e+000
    1.0224023496400452e-002 -1.9978321381115982e+000
    1.0325331423887571e-002 -2.0791240672964348e+000
    1.0471363218036111e-002 -2.1311670728894616e+000
    1.1345027929927004e-002 -2.3743745102170712e+000
    1.0608126557675096e-002 -2.1680756564855406e+000
    9.0358990217039477e-003 -1.6418348723046585e+000
    8.8815348772779343e-003 -1.5722978319540910e+000
    1.0159843072407151e-002 -2.0238042574936759e+000
    1.1274906068929088e-002 -2.3887384802248328e+000
    1.1218640590278385e-002 -2.3871559290514481e+000
    1.2191925171988149e-002 -2.6474120964562049e+000
    1.2028616458728604e-002 -2.6026321001988406e+000
    1.0456074350212832e-002 -2.1357964023160809e+000
    1.1142051040528731e-002 -2.3309980740156679e+000
    1.0285629401063598e-002 -2.0304338556580346e+000
    9.6827476271048839e-003 -1.8178285421027371e+000
    9.1041886988587860e-003 -1.5735966244543045e+000
    9.1415864534640755e-003 -1.5475413145919519e+000
    8.7648710898094069e-003 -1.3942063029316212e+000
    9.9320168701211749e-003 -1.9306266437541966e+000
    9.5250499117237094e-003 -1.7836767589172466e+000
    9.0617417371012011e-003 -1.5832886106769664e+000
    8.7622996502928902e-003 -1.3254976349014775e+000
    8.5868171180036295e-003 -1.3084112763507953e+000
    9.7426890232130033e-003 -1.7247020147814041e+000
    9.3640441164940993e-003 -1.6732694154277308e+000
    9.4915767417494031e-003 -1.7183018812007735e+000
    9.1886079536600638e-003 -1.5930325660697491e+000
    8.9901587723409514e-003 -1.5558782105755133e+000
    9.6789791745801983e-003 -1.8419104558047112e+000
    1.1347554063877148e-002 -2.3681424161678630e+000
    1.1779828305010398e-002 -2.5301959606955533e+000
    1.0757974954390901e-002 -2.2207621326897109e+000
    8.9996377894423010e-003 -1.6522470386469810e+000
    8.5910264598251899e-003 -1.4616853619726085e+000
    1.0070763470379288e-002 -2.0118947034534274e+000
    1.0547657918130072e-002 -2.1498722183484347e+000
    1.0830866761867538e-002 -2.2551746428239459e+000
    1.0687108877219194e-002 -2.2087029596590737e+000
    1.0245876306961063e-002 -2.0886747174334457e+000
    9.8022040950005596e-003 -1.8796579384875332e+000
    9.6700568295442560e-003 -1.8267967552455060e+000
    9.5371757709807360e-003 -1.7718913295929342e+000
    8.8479786299882467e-003 -1.5147389867826002e+000
    8.5336941385381164e-003 -1.3341274475497171e+000
    8.4079945692923357e-003 -1.2359007044818549e+000
    8.7722768515119069e-003 -1.3335253466017527e+000
    9.4420155368649533e-003 -1.7398724125500133e+000
    9.3561443207631160e-003 -1.6870691825580917e+000
    9.2891971830900231e-003 -1.6228197596734792e+000
    8.5744826517987881e-003 -1.2563890617376452e+000
    8.7807747877672853e-003 -1.3682710103928715e+000
    9.1213061551968545e-003 -1.5454015654165159e+000
    8.9126240320465330e-003 -1.4981474656621308e+000
    8.6904564266501155e-003 -1.4562880455031109e+000
    8.9002185289755505e-003 -1.4892228012972677e+000
    9.2673210960827323e-003 -1.6371075160839694e+000
    9.4152128764189782e-003 -1.7114435613944918e+000
    9.8407286036610968e-003 -1.9052508129559500e+000
    1.0948985776445630e-002 -2.2452070166444034e+000
    1.0358502508716763e-002 -2.0958054474185284e+000
    8.7535994686812595e-003 -1.5430198001121469e+000
    8.7134768791002279e-003 -1.5101344582047396e+000
    1.1776850011511485e-002 -2.5235814549780873e+000
    1.2204297775167525e-002 -2.6559546783261143e+000
    1.2328365758598976e-002 -2.7158901192636167e+000
    1.2329296911339159e-002 -2.6988347178362955e+000
    1.1887036064008226e-002 -2.5752503359517918e+000
    1.0985815422220189e-002 -2.2931246731492378e+000
    1.0376819092557565e-002 -2.1094553657387074e+000
    9.6873117756999839e-003 -1.8302419650943698e+000
    9.4397227226291538e-003 -1.6637206207255388e+000
    9.4523098922776050e-003 -1.7181408678691992e+000
    9.6638004627045779e-003 -1.7788384134098427e+000
    9.7375487591638311e-003 -1.8125975602427564e+000
    1.0783831529638532e-002 -2.2317886475393589e+000
    1.1374980043494258e-002 -2.3911494080889488e+000
    1.2204587758129175e-002 -2.5810923789494535e+000
    9.0119894908336443e-003 -1.5157595927227097e+000
    9.5289345621815957e-003 -1.7170139950191690e+000
    1.0145282999246307e-002 -1.9404951193143367e+000
    9.2628579353688494e-003 -1.6682039784359179e+000
    9.4133936777062981e-003 -1.7376943383656254e+000
    9.5693419499227710e-003 -1.7564029408276096e+000
    9.3283663354865633e-003 -1.7024923880110454e+000
    9.9401975316836047e-003 -1.9264909704243822e+000
    1.0956389045634118e-002 -2.2482055232656086e+000
    1.0984852194860133e-002 -2.2786437691844550e+000
    1.1242943382031384e-002 -2.3460102980517545e+000
    8.8048686577322094e-003 -1.5432810362998839e+000
    8.6542919724135765e-003 -1.5078073667161978e+000
    1.1450720092955533e-002 -2.4212340442423610e+000
    1.1868473710713725e-002 -2.5644518307375113e+000
    1.1388782657718559e-002 -2.4335618434256414e+000
    1.1284151909900057e-002 -2.3666865322149970e+000
    1.1426645167429635e-002 -2.4235054023303522e+000
    1.0677804065457401e-002 -2.1751690309466407e+000
    1.0274791070525414e-002 -2.0382248428494294e+000
    9.7805717315137264e-003 -1.8498700412754292e+000
    9.5937468257355548e-003 -1.7310823805880433e+000
    9.0444984159535752e-003 -1.5464495832598815e+000
    8.8530872555443677e-003 -1.3775207654218895e+000
    9.1508503606316585e-003 -1.5490497228098605e+000
    9.8073495935566916e-003 -1.9181586429570474e+000
    9.9815096883005550e-003 -1.9090380453629601e+000
    9.4956327913394839e-003 -1.7376307111890157e+000
    8.8615392339731584e-003 -1.3844724692213402e+000
    9.2050268262287710e-003 -1.5702735860660850e+000
    1.0501802914918479e-002 -2.0192534149528250e+000
    1.0143888062195896e-002 -1.9748638149777347e+000
    9.5380693844161358e-003 -1.7750654026695294e+000
    1.0162854958286366e-002 -1.9409058854315824e+000
    1.0566398269345920e-002 -2.0774149193443452e+000
    9.9795016930614676e-003 -1.9379398271727437e+000
    9.9322650480873787e-003 -1.9350406644707057e+000
    1.0403741708754431e-002 -2.0315553730298803e+000
    1.0324129685934064e-002 -2.0474237865009433e+000
    8.5327280022334615e-003 -1.4304729964908611e+000
    8.7659009385042865e-003 -1.5514448017526197e+000
    1.1410149056945299e-002 -2.4118125382457829e+000
    1.2387860424844346e-002 -2.7075438495975228e+000
    1.1724054757741026e-002 -2.5358003916746075e+000
    1.1583664162818801e-002 -2.4640439836011523e+000
    1.1272013688972531e-002 -2.4053829234871653e+000
    1.0761887588421875e-002 -2.2224743847107069e+000
    1.0302487908943433e-002 -2.0813342067924085e+000
    9.7458425669654288e-003 -1.8786012865105044e+000
    9.7769430356039241e-003 -1.8189246932752616e+000
    8.9420329321678264e-003 -1.4685470391121402e+000
    8.4480172773583433e-003 -1.2502824806686013e+000
    9.1593634792093703e-003 -1.5745563190236334e+000
    9.2238114022274772e-003 -1.6844435952283776e+000
    9.2310961031986973e-003 -1.6675907613709759e+000
    9.6062007040232083e-003 -1.7801629158859753e+000
    9.1194791560282682e-003 -1.5139778309956886e+000
    9.1620046483693214e-003 -1.5097026697859557e+000
    9.4437922944254956e-003 -1.6570099923712149e+000
    9.0774048429212873e-003 -1.5925166831617932e+000
    9.6957415250242922e-003 -1.7967501941354254e+000
    9.9401687901163448e-003 -1.9226963685261138e+000
    1.0781343481398699e-002 -2.2057258898711463e+000
    1.1218834101196073e-002 -2.3463335685928550e+000
    1.0228826154371547e-002 -2.0497666321161607e+000
    9.5067509425276996e-003 -1.7715010820356023e+000
    8.9082147975057188e-003 -1.4986587007011207e+000
    8.5734391862809442e-003 -1.3580039707621108e+000
    8.9092192771686608e-003 -1.6001209707970823e+000
    1.1111653944099286e-002 -2.3112665604054556e+000
    1.1758965708252508e-002 -2.5513294058224836e+000
    1.2300673975290024e-002 -2.7179952466932891e+000
    1.2585535533425667e-002 -2.8025888301899742e+000
    1.2853567260232877e-002 -2.8576313770785586e+000
    1.2882704491214503e-002 -2.8451418416874867e+000
    1.1853248140471581e-002 -2.5367112988199891e+000
    1.0839507045594488e-002 -2.1960795210231128e+000
    9.8450894546712707e-003 -1.8417733979917084e+000
    8.6677465906409030e-003 -1.3719882460494357e+000
    8.8589860547004344e-003 -1.4085966922618076e+000
    9.3207878000302318e-003 -1.6311379054045312e+000
    1.0034887200566433e-002 -1.9302404308100247e+000
    1.0191138247643380e-002 -2.0142621979143560e+000
    9.9572270596827474e-003 -1.9120530714602890e+000
    9.4670682972224553e-003 -1.6089632817142998e+000
    8.5802629375783673e-003 -1.3149437363399608e+000
    9.3864848370261173e-003 -1.6545758580659997e+000
    9.8477235212089832e-003 -1.8742410411935555e+000
    9.7832363715882123e-003 -1.8592391498249150e+000
    1.0032486561984353e-002 -1.9528476686715792e+000
    1.2701223777025518e-002 -2.7871300780670638e+000
    1.2876103135492109e-002 -2.8382649693473598e+000
    1.1278875516535131e-002 -2.3982209930596770e+000
    1.0199285902609561e-002 -2.0263548713629125e+000
    8.8409831402217441e-003 -1.4854036883781989e+000
    8.3232092604416056e-003 -1.2172380676128642e+000
    8.7499763329436722e-003 -1.5383835073303318e+000
    1.0617028929975375e-002 -2.1571310693012244e+000
    1.2222475217899733e-002 -2.6686230519267564e+000
    1.4111084397039796e-002 -3.2259880029983150e+000
    1.4783769582805535e-002 -3.3986003803218137e+000
    1.3468048515844632e-002 -3.0479017598495441e+000
    1.2490077275814866e-002 -2.7279409122331160e+000
    1.2045554494818426e-002 -2.5772973770904315e+000
    1.0108623070514725e-002 -2.0103534551088211e+000
    8.8073425230220034e-003 -1.4908139664980049e+000
    8.8179685769985867e-003 -1.4619066476519922e+000
    9.6508476511210830e-003 -1.7826911317886698e+000
    9.3249389544777708e-003 -1.6915461708741879e+000
    1.0183966655272943e-002 -2.0407771688267164e+000
    1.2218925586391106e-002 -2.6263262119831881e+000
    9.9161410466377317e-003 -1.9115062126943450e+000
    9.4042893941109051e-003 -1.6564837206465921e+000
    8.5932824541865068e-003 -1.3338435803764477e+000
    9.3993993317319467e-003 -1.6611924765704846e+000
    9.9357171342882560e-003 -1.9299415577932459e+000
    1.0495841551848727e-002 -2.0880427549973941e+000
    9.9781517992066152e-003 -1.9375047052413104e+000
    1.3159993203728905e-002 -2.9073831748141372e+000
    1.3597075257421605e-002 -3.0511345204791840e+000
    1.1898399847000286e-002 -2.5826112792905942e+000
    1.1038696149717659e-002 -2.3172273990369239e+000
    9.5771370885659388e-003 -1.7292759793578969e+000
    8.1881846380377401e-003 -1.2054100081089045e+000
    8.6307318702370413e-003 -1.4482068053916710e+000
    9.6916616811906411e-003 -1.7980018586144026e+000
    1.1321708147597526e-002 -2.3719167846945162e+000
    1.3211033997698735e-002 -2.9353712104083156e+000
    1.3292702108820114e-002 -2.9487956109791131e+000
    1.1888777842569790e-002 -2.5468211652440451e+000
    1.0724825904502109e-002 -2.1613174334517811e+000
    1.0270891648554426e-002 -2.0014127161832556e+000
    9.1172151409045013e-003 -1.5368306568514971e+000
    9.1050539011326530e-003 -1.5137556770044540e+000
    9.3673536547868742e-003 -1.7028977635054774e+000
    9.5318420557010952e-003 -1.6895643302580527e+000
    9.4225961440667274e-003 -1.6693879025374807e+000
    1.0106084865594242e-002 -1.9747447279274277e+000
    1.1606077277625059e-002 -2.4174970954579575e+000
    1.0032501953911588e-002 -1.9380019453631190e+000
    9.3869603420987883e-003 -1.6938428729250532e+000
    8.6208237032261038e-003 -1.3581957082523959e+000
    9.7217309402659376e-003 -1.7992806258979364e+000
    1.0830201656955816e-002 -2.1973267843341033e+000
    1.0228484945924515e-002 -2.0391952291793842e+000
    9.8143654096801876e-003 -1.8691705312593720e+000
    1.0098564730538962e-002 -1.9369850321353441e+000
    1.0020123022995984e-002 -1.9753427328228730e+000
    9.6042828268200955e-003 -1.8455249786451742e+000
    1.0194714895850832e-002 -2.0024307651295130e+000
    9.6817528182204550e-003 -1.7635503770286900e+000
    8.1959442193467267e-003 -1.2037208729624502e+000
    8.3830109060766302e-003 -1.2614056871544392e+000
    9.0618975142181032e-003 -1.4660136880678494e+000
    9.7282132402599572e-003 -1.8164799136347944e+000
    9.7901783870663894e-003 -1.8536854029109024e+000
    9.6128566181915513e-003 -1.7734570407244714e+000
    9.5889950416594514e-003 -1.6950633053187054e+000
    9.0980427200403891e-003 -1.4628854157655360e+000
    8.9471334441923595e-003 -1.3376849517330416e+000
    8.9324490631540535e-003 -1.3484792182685579e+000
    9.5328194645632226e-003 -1.6434546257164366e+000
    9.2760416449387956e-003 -1.5829603426603380e+000
    8.7577960820599491e-003 -1.3267251569218015e+000
    9.3737504254247598e-003 -1.5460113979837782e+000
    9.7043636381049844e-003 -1.7372171340044273e+000
    1.0027702405898576e-002 -1.8576740701391525e+000
    9.2603765898931958e-003 -1.6409616094770711e+000
    9.5261128824927713e-003 -1.6884171242406083e+000
    8.9316996971066428e-003 -1.4305880753133462e+000
    1.0006930288692739e-002 -1.8313009201286889e+000
    1.0539329521520696e-002 -2.1015158225762982e+000
    9.9850166278515756e-003 -1.8751604254075134e+000
    9.6475007624467861e-003 -1.6793548715192939e+000
    9.1707400564880106e-003 -1.5703623905998663e+000
    1.0238116957043885e-002 -1.9815334427211078e+000
    9.3082834934060926e-003 -1.6633507557879470e+000
    9.7105713501294214e-003 -1.7450674265289190e+000
    9.3433799990723099e-003 -1.5921255052216416e+000
    8.2703628763451543e-003 -1.1288604008196346e+000
    8.1525621685398196e-003 -1.1325485793848951e+000
    8.9812817036482445e-003 -1.4264475717307958e+000
    1.0210934252936123e-002 -1.9478966723615372e+000
    9.9220997338842140e-003 -1.9043681466130382e+000
    9.6173687841373760e-003 -1.7698444254922421e+000
    9.4256444704537892e-003 -1.6345102293205180e+000
    9.0781405593876527e-003 -1.3783617130041415e+000
    8.5453040210107679e-003 -1.0843506529720406e+000
    8.9902672029426138e-003 -1.3289051723526557e+000
    9.2308616429096838e-003 -1.5490608810284510e+000
    8.8816235676162369e-003 -1.3436372235886214e+000
    8.9151823492249500e-003 -1.3639063952210069e+000
    9.2461162754165372e-003 -1.5621520932937534e+000
    9.2472497704171111e-003 -1.5458265194029257e+000
    9.2603406859597080e-003 -1.5637207213450095e+000
    9.2022019747619328e-003 -1.5819779701975483e+000
    9.8461562295508870e-003 -1.8170143887139412e+000
    8.9675156884868757e-003 -1.5063725835065160e+000
    9.2346161870607915e-003 -1.5588673461141320e+000
    9.1579555384397621e-003 -1.5936255301532689e+000
    8.8505744210473167e-003 -1.4269593673642984e+000
    8.8490916738349027e-003 -1.2978463295873481e+000
    8.8309600782653184e-003 -1.3742697149355829e+000
    9.3292300080062406e-003 -1.6551491339598430e+000
    8.7153162694144203e-003 -1.3701991188871747e+000
    9.1127616273749910e-003 -1.4747686988297914e+000
    9.1102211812315263e-003 -1.4802755548239750e+000
    8.0732589099004135e-003 -1.0071886645216908e+000
    8.2784141191461179e-003 -1.1796063722256653e+000
    9.1011385607427647e-003 -1.4459305715322097e+000
    9.3551900426169909e-003 -1.5971907389892468e+000
    8.9984563077804038e-003 -1.4379872440826071e+000
    8.6396182544145154e-003 -1.3112056871116902e+000
    8.9552122606778636e-003 -1.3684311477886175e+000
    8.6213378061452597e-003 -1.1475984459261217e+000
    8.9499933476583412e-003 -1.1169367456246559e+000
    8.8028391582904517e-003 -1.2763322060140851e+000
    8.9872807254076387e-003 -1.3791136155573021e+000
    8.7298708134904198e-003 -1.3391160787306184e+000
    9.1388057100562550e-003 -1.5066925478379041e+000
    9.0464287921886363e-003 -1.5046332458987290e+000
    9.1962540298386672e-003 -1.5369228645724504e+000
    9.1940489871472370e-003 -1.5280735911136010e+000
    9.2788775967705094e-003 -1.6292882787871075e+000
    9.6668762806126334e-003 -1.7643507410795529e+000
    9.0771221763301293e-003 -1.4886081923325760e+000
    9.2074391627287398e-003 -1.4620688674650542e+000
    8.7969889216423479e-003 -1.3943856364496263e+000
    8.7943744727818924e-003 -1.2293409174450087e+000
    8.6828162149999357e-003 -1.1457113481721759e+000
    9.2027255183274315e-003 -1.4785440245476924e+000
    9.0609792766581203e-003 -1.4941507005266670e+000
    8.5041846902049571e-003 -1.2118932196346119e+000
    9.1094636709230098e-003 -1.4943107697595828e+000
    9.1863203574044632e-003 -1.4667785978412695e+000
    8.0550060907293441e-003 -1.0388665701330158e+000
    8.2535193480863991e-003 -1.0903469805004202e+000
    8.5786829208218864e-003 -1.2557488566301445e+000
    8.5132663248579706e-003 -1.1659709404792347e+000
    8.2821800846273833e-003 -1.1505964952009267e+000
    8.6293649817280275e-003 -1.2965823839726891e+000
    8.6223045118120085e-003 -1.3607262493394139e+000
    8.8014029992162287e-003 -1.2256935973054452e+000
    8.3975178786310136e-003 -1.1145967764435989e+000
    8.9594698433642459e-003 -1.2927810120259318e+000
    8.7104602303045443e-003 -1.3218551542160921e+000
    9.0901780854247254e-003 -1.5115326480826590e+000
    9.2995156008775087e-003 -1.6557586695608713e+000
    9.5954539351669615e-003 -1.7664633618175614e+000
    1.0052336309095217e-002 -1.9481403600234115e+000
    9.2394760521014030e-003 -1.6457090489707251e+000
    9.5058638657900315e-003 -1.7462110932102612e+000
    9.4092036422274532e-003 -1.6610933173089677e+000
    8.9899235587807894e-003 -1.4444760917510511e+000
    8.9244395484385786e-003 -1.3204769436889150e+000
    8.7889542203072116e-003 -1.3481591531583799e+000
    8.6560543120311126e-003 -1.1681333936053797e+000
    9.0395130153409220e-003 -1.3112797280314157e+000
    9.7863467565522892e-003 -1.7898060222602492e+000
    8.9459685626075806e-003 -1.4132274931862816e+000
    9.1062352971825692e-003 -1.3978171900535830e+000
    9.3547999187009404e-003 -1.6321265458132559e+000
    9.1761780259783186e-003 -1.4894290788436195e+000
    8.3043624748660692e-003 -1.2097157876219857e+000
    8.1563866800613404e-003 -1.0637621605363226e+000
    8.8966111539042231e-003 -1.3910836556706412e+000
    8.7519481554369227e-003 -1.3875297075526751e+000
    8.7788205990988744e-003 -1.3761295289538513e+000
    8.9959269382671493e-003 -1.5100594926043776e+000
    8.7934014608096883e-003 -1.4067836397918987e+000
    8.5991769321075006e-003 -1.3213437195618376e+000
    8.6865798468414319e-003 -1.3016314784457463e+000
    8.4745677368298460e-003 -1.0908013465990940e+000
    8.6139472469230812e-003 -1.2302646446102601e+000
    8.8478302840280052e-003 -1.4366310217223339e+000
    8.9542215623486712e-003 -1.5221324174241417e+000
    9.5006400946941096e-003 -1.7199167900506596e+000
    1.0333680942334063e-002 -2.0188217131578199e+000
    9.2222263485094626e-003 -1.5865389949553461e+000
    9.0928657111955438e-003 -1.5382129401006421e+000
    8.7307158866380217e-003 -1.3626401617846671e+000
    8.5929376940018631e-003 -1.2770079411394459e+000
    8.5802718473353291e-003 -1.1434347904182016e+000
    8.5506551032553581e-003 -1.1465279156384689e+000
    8.4843076811663108e-003 -1.1917952476893323e+000
    9.1297344515192322e-003 -1.5281564607526241e+000
    9.3277665617296415e-003 -1.5809687926546452e+000
    8.5665168781969992e-003 -1.2720282494581543e+000
    9.1271612251316893e-003 -1.5128464289883816e+000
    8.8343383477959975e-003 -1.4397588226452711e+000
    8.6006266602416063e-003 -1.3184776103311802e+000
    8.9566822312499034e-003 -1.5132161246988327e+000
    8.2876641306627950e-003 -1.0394567922050546e+000
    8.2798826230570874e-003 -1.1675872948537014e+000
    8.6767803541736039e-003 -1.3657284103268217e+000
    8.6545697886409954e-003 -1.4094222190389669e+000
    8.5161546788016657e-003 -1.3267917130254216e+000
    8.4967440827945998e-003 -1.3334854335393242e+000
    8.7653150897701228e-003 -1.4228132819358326e+000
    8.7860517656242719e-003 -1.3077166315116062e+000
    8.3607194420176421e-003 -1.0927215743110756e+000
    8.4666876698763424e-003 -1.1896688761635317e+000
    8.4287827848838221e-003 -1.1933103384598005e+000
    8.3986953573334400e-003 -1.2154015621267389e+000
    8.5064817242578947e-003 -1.2822328330681032e+000
    8.6781242957099380e-003 -1.4051979223283049e+000
    8.3604035446615751e-003 -1.1702695104559084e+000
    8.6463408183852612e-003 -1.2380569160511101e+000
    8.5255274212804859e-003 -1.1838319713889143e+000
    8.4786120751087733e-003 -1.1604580269471088e+000
    8.6373236493949984e-003 -1.2309397098197077e+000
    8.4956667456939378e-003 -1.1898541438596066e+000
    8.8304255147450342e-003 -1.4595468703251133e+000
    8.7785730864958986e-003 -1.4555995716624106e+000
    8.4341851261178092e-003 -1.1934022688584121e+000
    8.5299925102405236e-003 -1.2058967859628136e+000
    8.5336234505148656e-003 -1.3100295837410354e+000
    8.4044843185653046e-003 -1.2795821604713535e+000
    8.9078595056590725e-003 -1.4791313162631754e+000
    9.3973091501545567e-003 -1.7380273679498353e+000
    8.2018324734796887e-003 -1.0848514042770152e+000
    8.6658684855758870e-003 -1.2048392921910884e+000
    8.4477726356274700e-003 -1.2351417726466192e+000
    8.7067251022116352e-003 -1.3033203040358075e+000
    8.6395849803852388e-003 -1.3129233874150947e+000
    8.5732373528448081e-003 -1.2899134051125680e+000
    8.8980148962030728e-003 -1.2877624522379452e+000
    8.3715554426993886e-003 -1.1786950373259779e+000
    8.7506414104116647e-003 -1.3355923477584137e+000
    8.7542533013921110e-003 -1.2952759267089544e+000
    8.8279049445021546e-003 -1.3049389941730107e+000
    8.6766945465468290e-003 -1.2220628060449259e+000
    8.5855536708581634e-003 -1.1364281196530663e+000
    8.5905903395682697e-003 -1.2236764232428250e+000
    8.5299346650893268e-003 -1.0389744941887697e+000
    8.8935587705137546e-003 -1.0046735672780553e+000
    8.7202897246413946e-003 -1.2282546628138875e+000
    8.7021340700747969e-003 -1.3139005243867128e+000
    8.9108198995991230e-003 -1.4380202541729890e+000
    9.1470757413312787e-003 -1.5854622833839134e+000
    9.1442340909996499e-003 -1.5878216698649612e+000
    8.6736342567646091e-003 -1.1619052257269156e+000
    8.4713230876775816e-003 -9.4661029015164699e-001
    8.5278047248019233e-003 -1.0750609286859223e+000
    8.4670020950011349e-003 -1.2108282973589042e+000
    9.2163565040080577e-003 -1.5628826630736439e+000
    9.2268703481330223e-003 -1.6726752047589464e+000
    9.3161173278340642e-003 -1.7357148183338551e+000
    7.9502789381943745e-003 -1.0386275172320707e+000
    8.8587645309160939e-003 -1.3426779682384866e+000
    8.6116145104372342e-003 -1.3417425331688180e+000
    8.4350515364491497e-003 -1.1346270298931260e+000
    8.6190631868520093e-003 -1.0756125399538361e+000
    8.6936379782299057e-003 -1.0062178412908911e+000
    8.5586401356123245e-003 -1.0462377520721990e+000
    8.6261515876656231e-003 -1.2407236192352797e+000
    8.9330482967351424e-003 -1.4138773358481722e+000
    8.8791704909366529e-003 -1.3925103963789791e+000
    8.5389394446881203e-003 -1.2427737473211551e+000
    8.6205156317724612e-003 -1.2077406959956460e+000
    8.7475135995160654e-003 -1.1233609777175033e+000
    8.7641416772433495e-003 -1.2435330761360088e+000
    8.9700554735186629e-003 -1.1978491157414963e+000
    8.7615045894283896e-003 -1.0242281524612755e+000
    9.0210160935008613e-003 -1.2941164689883953e+000
    8.9838138480516309e-003 -1.4698649361996980e+000
    8.9049556217800398e-003 -1.4518534180769782e+000
    8.8112910585573193e-003 -1.3259553290819119e+000
    8.6870607265392003e-003 -1.1026000182287492e+000
    8.4916934203196903e-003 -9.2638803892841548e-001
    8.5282609360474750e-003 -1.0428288829017274e+000
    8.6970395884551650e-003 -1.2554576659985659e+000
    9.2761587792483044e-003 -1.5787563295217582e+000
    9.4804325996129656e-003 -1.7020828642811259e+000
    8.9396981857751967e-003 -1.5525610820062818e+000
    8.6043520962632621e-003 -1.5134369744953782e+000
    8.3060388142654398e-003 -1.2269548325608450e+000
    8.2454105581286040e-003 -1.1149690585870138e+000
    8.2127120346135139e-003 -1.0603908199147019e+000
    8.3326321344041436e-003 -9.7108097236112234e-001
    8.5059237782081909e-003 -8.8795946385387725e-001
    8.8561043711612338e-003 -8.1965110444171874e-001
    8.8586026154408859e-003 -8.0155106471430748e-001
    8.8551801956054076e-003 -7.5672612684737461e-001
    8.9594041453362350e-003 -7.1276782961044172e-001
    9.0714139367486252e-003 -6.9322836014125866e-001
    9.3140391027444029e-003 -6.6440416737918251e-001
    9.5485688167285653e-003 -7.0597680758488290e-001
    9.6928081763474980e-003 -6.8446224285178070e-001
    9.7092638924165531e-003 -6.8718113618063825e-001
    9.8739515693546265e-003 -6.9051399500423083e-001
    1.1006889056681117e-002 -6.1764340381936833e-001
    1.0773255228544646e-002 -5.6380281576625646e-001
    1.0262100840294197e-002 -5.7351375133760585e-001
    9.8786501606427796e-003 -6.0274858847346902e-001
    9.6914691111765726e-003 -6.4975542079945092e-001
    9.3404894112143790e-003 -7.5835776346332417e-001
    8.8010688764776357e-003 -1.0101046138516994e+000
    8.4448540906717114e-003 -1.1692850506048578e+000
    8.4955498910925780e-003 -1.2855511342576633e+000
    8.6339977912074477e-003 -1.3885821727423029e+000
    8.6358105296060438e-003 -1.4256012391763362e+000
    8.3832495772341378e-003 -1.3661505215406906e+000
    8.6746488123092529e-003 -1.5515324490248401e+000</input_scale>
  <output_scale>
    5.2631578947368418e-001 4.9999999999999994e-001
    5.2631578947368418e-001 4.9999999999999994e-001
    5.2631578947368418e-001 4.9999999999999994e-001
    5.2631578947368418e-001 4.9999999999999994e-001
    5.2631578947368418e-001 4.9999999999999994e-001
    5.2631578947368418e-001 4.9999999999999994e-001
    5.2631578947368418e-001 4.9999999999999994e-001
    5.2631578947368418e-001 4.9999999999999994e-001
    5.2631578947368418e-001 4.9999999999999994e-001
    5.2631578947368418e-001 4.9999999999999994e-001
    5.2631578947368418e-001 4.9999999999999994e-001
    5.2631578947368418e-001 4.9999999999999994e-001
    5.2631578947368418e-001 4.9999999999999994e-001
    5.2631578947368418e-001 4.9999999999999994e-001
    5.2631578947368418e-001 4.9999999999999994e-001
    5.2631578947368418e-001 4.9999999999999994e-001
    5.2631578947368418e-001 4.9999999999999994e-001
    5.2631578947368418e-001 4.9999999999999994e-001
    5.2631578947368418e-001 4.9999999999999994e-001
    5.2631578947368418e-001 4.9999999999999994e-001
    5.2631578947368418e-001 4.9999999999999994e-001
    5.2631578947368418e-001 4.9999999999999994e-001
    5.2631578947368418e-001 4.9999999999999994e-001
    5.2631578947368418e-001 4.9999999999999994e-001
    5.2631578947368418e-001 4.9999999999999994e-001
    5.2631578947368418e-001 4.9999999999999994e-001
    5.2631578947368418e-001 4.9999999999999994e-001
    5.2631578947368418e-001 4.9999999999999994e-001
    5.2631578947368418e-001 4.9999999999999994e-001 1. 0.
    5.2631578947368418e-001 4.9999999999999994e-001
    5.2631578947368418e-001 4.9999999999999994e-001
    5.2631578947368418e-001 4.9999999999999994e-001
    5.2631578947368418e-001 4.9999999999999994e-001
    5.2631578947368418e-001 4.9999999999999994e-001 1. 0.</output_scale>
  <inv_output_scale>
    1.8999999999999999e+000 -9.4999999999999996e-001
    1.8999999999999999e+000 -9.4999999999999996e-001
    1.8999999999999999e+000 -9.4999999999999996e-001
    1.8999999999999999e+000 -9.4999999999999996e-001
    1.8999999999999999e+000 -9.4999999999999996e-001
    1.8999999999999999e+000 -9.4999999999999996e-001
    1.8999999999999999e+000 -9.4999999999999996e-001
    1.8999999999999999e+000 -9.4999999999999996e-001
    1.8999999999999999e+000 -9.4999999999999996e-001
    1.8999999999999999e+000 -9.4999999999999996e-001
    1.8999999999999999e+000 -9.4999999999999996e-001
    1.8999999999999999e+000 -9.4999999999999996e-001
    1.8999999999999999e+000 -9.4999999999999996e-001
    1.8999999999999999e+000 -9.4999999999999996e-001
    1.8999999999999999e+000 -9.4999999999999996e-001
    1.8999999999999999e+000 -9.4999999999999996e-001
    1.8999999999999999e+000 -9.4999999999999996e-001
    1.8999999999999999e+000 -9.4999999999999996e-001
    1.8999999999999999e+000 -9.4999999999999996e-001
    1.8999999999999999e+000 -9.4999999999999996e-001
    1.8999999999999999e+000 -9.4999999999999996e-001
    1.8999999999999999e+000 -9.4999999999999996e-001
    1.8999999999999999e+000 -9.4999999999999996e-001
    1.8999999999999999e+000 -9.4999999999999996e-001
    1.8999999999999999e+000 -9.4999999999999996e-001
    1.8999999999999999e+000 -9.4999999999999996e-001
    1.8999999999999999e+000 -9.4999999999999996e-001
    1.8999999999999999e+000 -9.4999999999999996e-001
    1.8999999999999999e+000 -9.4999999999999996e-001 1. 0.
    1.8999999999999999e+000 -9.4999999999999996e-001
    1.8999999999999999e+000 -9.4999999999999996e-001
    1.8999999999999999e+000 -9.4999999999999996e-001
    1.8999999999999999e+000 -9.4999999999999996e-001
    1.8999999999999999e+000 -9.4999999999999996e-001 1. 0.</inv_output_scale>
  <weights>
    <_>
      -7.4371397522886085e-001 -3.4310762071425187e-002
      -1.3872409067485791e-001 -3.7055431041274851e-002
      3.5470027826820094e-001 4.7421514548456598e-002
      -2.2935704567500001e-001 2.1107610396686463e-001
      3.9512003885842334e-002 -3.8643707523115517e-001
      -2.1443408256421971e-002 3.5321158722337664e-001
      -6.6993734614030943e-003 -2.2460850150281866e-001
      4.5681845275057403e-001 1.7544355072327020e-001
      5.0128474073725526e-001 5.4244528023218941e-001
      7.0242066425937041e-002 -4.5855433526296036e-002
      -6.9164231910349316e-002 2.8106147637476393e-002
      -1.9717997782582597e-001 1.6464640205360076e-001
      -1.6516041582025506e-002 8.1630964202472941e-002
      -3.3061416301085993e-002 3.5300803267458984e-002
      4.0778499949206723e-002 4.1396718646418432e-002
      4.3535813829286119e-001 2.7794258909680880e-001
      -5.3879694939302547e-001 2.4315164904661948e-001
      -7.4612886728560612e-001 -4.8924996295409091e-002
      -1.6703413543159354e-001 3.1479388389814719e-002
      3.7378267815891875e-001 2.7565572522039606e-002
      -2.0947052334965169e-001 1.8493917396251225e-001
      2.7089970801395837e-002 -3.7219827455379978e-001
      -6.6544329564199908e-002 2.8520824706836517e-001
      4.4024947647337415e-003 -2.1270004270035517e-001
      4.6399699900827956e-001 1.8348695715088822e-001
      4.6884060773024550e-001 5.4292244486761643e-001
      7.8827497468880625e-002 -5.0630283469698799e-002
      -3.4355687571765867e-002 2.0952619186349730e-002
      -1.8812706209075453e-001 2.3413387032029845e-001
      4.6235340412021991e-003 8.2772742889090048e-002
      -5.2250968416557020e-002 2.8907355012297218e-002
      5.0092201579770797e-002 4.0690579917352192e-002
      4.4500880487728967e-001 2.7430509693123134e-001
      -5.3672546304378677e-001 2.1737159583303031e-001
      -7.7450507729455031e-001 -4.4220776265953129e-003
      -2.1412259683213186e-001 8.5579824923675926e-002
      4.1390209177160281e-001 8.1668315626692804e-003
      -1.9200433526104310e-001 1.8644737006327503e-001
      1.1048608380029456e-002 -3.5067677517156531e-001
      -9.4700919159418542e-002 3.2422392853560605e-001
      -1.8041277132442499e-002 -2.2203052005995114e-001
      5.0256364586151969e-001 1.5694297003637678e-001
      4.1063223679590150e-001 5.4900105038317948e-001
      1.1615077679161800e-001 -2.1696615383846162e-002
      -5.5419966848466249e-004 -1.6139857434825993e-003
      -1.6404769433765995e-001 2.8367366870672600e-001
      -1.0319691734249657e-001 8.0079005256092989e-002
      -1.6306908746366044e-002 -2.2152554502751326e-001
      9.1870050682200818e-002 8.9983953184993470e-002
      4.4716837962743544e-001 2.6132566509893013e-001
      -5.3067308557538628e-001 2.0412338497195501e-001
      -5.6145868666307197e-001 3.3850814008347614e-002
      -2.6055204334764570e-001 2.6182334379817547e-002
      5.6954904934203610e-001 6.4951873650485686e-002
      -1.0537354060682241e-001 4.0981891944308395e-002
      2.9868297838592430e-002 -3.0908840962427875e-001
      -4.9663919653351776e-002 2.5006672757119008e-001
      -1.5056058390649144e-001 -2.8440929459231568e-001
      5.3705469355764268e-001 1.6192396469675696e-001
      3.7784385710573037e-001 5.4677055077963033e-001
      1.3870210935539906e-001 -1.8068988641557242e-002
      8.0166114380898282e-002 -8.0805631980399723e-003
      -1.7288351456341861e-001 2.7143887908674508e-001
      -3.4817122988370258e-001 5.7540483716172146e-002
      -6.9682185401059110e-002 -2.2634697534018081e-001
      1.6331140302667607e-001 1.5458074564781821e-001
      4.8371540646739009e-001 2.5719621382120678e-001
      -4.8907359735640588e-001 1.6183795223663441e-001
      -1.2435548347535961e+000 1.4845952799389691e-002
      -2.9456651554312197e-001 3.8674338873919335e-002
      4.6309822712501314e-001 4.1231641356476237e-002
      -1.0459357532182570e-001 4.8990647791750316e-002
      4.4621731743635276e-002 -1.8901395113426936e-001
      -5.9080154395722714e-002 1.5971355655297062e-001
      -1.7731274799981492e-001 -2.7133426457722881e-001
      5.5119776886149419e-001 2.3355094206971347e-001
      1.9276513912979390e-001 5.3496618764362447e-001
      1.5370838796582945e-001 -4.2776971773944912e-002
      3.2672085441687121e-002 -1.1493405729748348e-002
      -1.7550555087787159e-001 2.0123517763269305e-001
      -3.8274826278653978e-001 5.1469943829737880e-002
      -4.0789869035260579e-002 -4.8170976949205829e-002
      7.6726093973334214e-002 1.4378973098548600e-001
      2.8577164244439213e-001 2.2445390921728178e-001
      -5.0822567914511796e-001 1.6064398958312823e-001
      -1.8579866908751934e+000 -2.9363932900851764e-002
      -1.7269567892416127e-001 8.6339889318708452e-002
      3.7317913754599596e-001 1.4953539600824550e-001
      -1.3844938422896966e-001 8.7032029788212104e-002
      1.5937773206053781e-002 -2.1540192882835291e-001
      -5.5328389425746645e-002 1.2362342972762362e-001
      -2.2120852755698875e-001 -2.0257019736515525e-001
      3.6640290375022344e-001 2.5376589263452853e-001
      1.7319584008303462e-001 5.1335857749268388e-001
      1.8553672235726495e-001 -1.7679958879497772e-002
      1.2921001305039692e-001 -8.1755957634138177e-002
      -1.2279473923570221e-001 2.7908962995692804e-001
      -3.6109710546837714e-001 6.6963917784718510e-002
      2.4442828888653116e-002 -4.2342654849706479e-002
      1.0578400377996575e-001 1.4905508761214514e-001
      2.8194428215854517e-001 8.0012716123298439e-002
      -5.2778049067283694e-001 1.3202355901265647e-001
      -2.5889146065442743e+000 -6.5929023534942510e-002
      -7.2861527448160046e-002 4.4958207095807341e-002
      3.1246967583873880e-001 2.3664006563034878e-001
      -1.3244756816560049e-001 6.4191791001090834e-002
      -1.5644426966613881e-001 -2.6021242534567629e-001
      -1.1599655996161373e-001 -2.3553891623538247e-003
      -2.2162222511589916e-001 -1.5721843196378485e-001
      3.0819794444002918e-001 2.4803374007739737e-001
      1.8196363132221274e-001 5.3845505054221321e-001
      2.4215582359816848e-001 2.0741823445138097e-001
      1.4402908414974042e-001 -1.2307773158655863e-001
      -1.2496933328032891e-001 3.7536876941321706e-001
      -2.3700075223406333e-001 7.9719489391057163e-002
      1.0162824020422460e-002 -1.1054133335369103e-001
      9.4393071680706500e-002 2.0375318432821915e-001
      3.1409368658126152e-001 3.9355994190962300e-002
      -5.1660126160816378e-001 2.0704539151873699e-001
      -2.6612274447148301e+000 -1.7162452965352890e-001
      9.0762207559654001e-002 5.4698538822644346e-002
      3.0194898982487001e-001 4.3546086477052492e-001
      -1.9883318663663879e-001 -1.5584387135213528e-002
      -2.1254441989311490e-001 -2.3529718173803124e-001
      -2.5521222537140598e-001 -1.2240051227533026e-001
      -1.8547148850002576e-001 -2.0385153302266071e-001
      2.6075406200511303e-001 2.8522052171402695e-001
      1.9059954443319796e-001 5.1179606042439729e-001
      3.9214258950962678e-002 2.8263047074303121e-001
      1.3262525816587287e-001 -1.4548752869977477e-001
      1.1564482677735943e-002 2.1248905555253941e-001
      -8.9413398689363155e-002 1.0111819613374447e-001
      2.5140334268663632e-003 -3.8285819370377977e-002
      3.3191551245159698e-002 2.5137114673409855e-001
      1.9890801451230015e-002 9.7161250449371836e-002
      -2.2632066742867940e-001 2.7311615352740543e-001
      -2.7017675023765770e+000 -1.1901761550784440e-001
      1.9647538842078299e-001 5.9265053634998704e-002
      3.6911793416389710e-001 4.7031812665745176e-001
      -1.4539357611011894e-001 -6.1822923112156918e-002
      -2.2270159445213267e-001 -3.2365803996227516e-001
      -2.5775824752159648e-001 -9.7101506551634034e-002
      -2.1879868949777836e-001 -9.5168828982191311e-002
      1.8847095693310420e-001 2.0909554314201539e-001
      2.4946316149615888e-001 5.0370251009265876e-001
      9.7442899446028491e-002 3.2731230592298816e-001
      1.0417500078356706e-001 -5.9216374303241337e-002
      2.1416302724951441e-001 9.8264903952880192e-002
      9.8143394580704896e-002 3.5140617548454128e-002
      -6.9219477785016859e-002 -7.3614096109274788e-002
      6.2781092717298703e-002 2.8444174750509338e-001
      -9.2548661123935561e-002 1.0889383976642859e-001
      -1.3661780481409763e-001 1.8853499984682862e-001
      -3.3459709789802874e+000 -9.9340582884159562e-002
      1.6656088198770364e-001 5.3837292111988101e-002
      2.8645992207806259e-001 4.2177368294720896e-001
      -1.1823185729578314e-001 -5.9701065857350882e-002
      -2.3159189462583990e-001 -2.8218858595200202e-001
      -2.2718691329425544e-001 -8.4919482649202890e-002
      -2.3409004152956572e-001 -3.7566389881247518e-002
      1.6975048223860317e-001 1.4841966593521880e-001
      3.6581255150008274e-001 5.0039959829141956e-001
      9.9307155070019068e-002 3.3823129540888924e-001
      7.1901880113579841e-002 -4.0041616211731412e-002
      2.2839689350301451e-001 1.1819553079134179e-001
      1.6320059445539348e-001 -1.5183420756720805e-002
      -6.2607635892421076e-002 5.3019161019179197e-003
      7.7196769614434779e-002 7.5679191346699801e-002
      -1.3611890257074843e-001 1.0366092284306036e-001
      -2.8528870651593555e-002 1.3659344263169326e-001
      -2.9285087226584796e+000 -3.8060017929761672e-002
      1.3565240154340016e-001 8.2296128143046030e-002
      3.2195441239832556e-001 3.3222862864017888e-001
      -1.3285286249819889e-001 -7.8000022373306624e-002
      -2.9916512716849464e-001 -3.3878404762428677e-001
      -3.4784128154446953e-001 -6.1495298416385548e-002
      -2.2354175374838695e-001 -1.1180619780908225e-002
      2.8838363745406714e-001 8.4248243622014302e-002
      2.1699099428145052e-001 4.4324748653041568e-001
      2.8199983232850844e-002 2.4925892845464834e-001
      9.3328628150664200e-002 5.2264503955272108e-002
      1.4712013768974339e-001 2.6290965075296630e-001
      1.9515689687821416e-001 -5.7728484440344910e-002
      1.0362800325853296e-001 -1.8917929361013114e-001
      1.0116098276232061e-001 2.0323705562930647e-002
      -1.5908450461834919e-001 8.1357241546194253e-002
      -1.7633038398019298e-002 6.7186603374125214e-002
      -2.3746735590537464e+000 5.0746453218841102e-002
      1.0299049542202603e-001 8.7275176548785013e-002
      4.1841837800187331e-001 1.5166597731105996e-001
      -1.4387789113368277e-001 -6.9212507921949079e-002
      -2.4680577085144700e-001 -3.3020849491098303e-001
      -4.2043693958688466e-001 -6.7278577795469655e-002
      -1.2782285097684218e-001 5.0626707969214001e-002
      2.5616711023897604e-001 6.9394304976822807e-002
      1.4604969171683035e-001 3.4005670084301814e-001
      -4.9107427790590082e-002 2.4374314913727749e-001
      1.7099689604641427e-001 1.4740330017867054e-001
      -2.4514131920275305e-002 3.4049924629190687e-001
      1.5111891308798470e-001 -1.7364929891995828e-001
      1.5724068342137940e-001 3.5401101402521257e-002
      1.2379815157724633e-001 2.5589627202381286e-002
      -1.5836972252799114e-001 5.4274799120779864e-002
      -7.4305691461091172e-002 4.9065256746496526e-002
      -1.4086074819844463e+000 1.4482064809216143e-002
      -3.0520075912367385e-004 1.6279734554243738e-001
      4.8703621814299908e-001 -3.4509547614432604e-002
      -1.3833567433148936e-001 -9.4117907355577429e-002
      -1.1654004152211636e-001 -3.7465929107514495e-001
      -3.6482109535204377e-001 -5.7060217163292203e-002
      -1.8086427350865250e-001 1.2583855060413371e-001
      1.7358446047210144e-001 8.8039799479116540e-002
      1.7300841207194761e-001 1.4864802777468056e-001
      4.2640036545280535e-002 2.4344960721254863e-001
      -3.2828854559752783e-002 1.6096245574788276e-001
      -1.2717187234658625e-001 4.8248952256969319e-001
      -3.6214493224651575e-002 -2.0573792340468519e-001
      2.0248604292400185e-001 -8.5869180982121762e-002
      4.0714172169029540e-002 4.5040883783459974e-002
      -1.4081792665342585e-001 5.7013541619007575e-002
      -3.6812859648365039e-002 7.8672575577483000e-002
      -3.2859693141541346e-001 1.4989049310576204e-002
      -8.2100395135243406e-002 1.4152084170202545e-001
      3.7719335491729178e-001 -1.8360533289929520e-001
      -1.1213846820696287e-001 -1.0815428358636042e-001
      -1.4495471766567572e-001 -2.7143040948559705e-001
      -3.2244384308779261e-001 -1.4120071892120558e-002
      -2.1123525206189120e-001 1.3942540648696983e-001
      1.2906111930392175e-001 -2.0234878383271301e-002
      2.9324779022735573e-002 8.3108084540727517e-002
      4.3321531024500516e-002 2.4016405467898108e-001
      4.0820014064779600e-002 1.6920277162613856e-001
      -1.5080941009200258e-001 4.8534292851836414e-001
      8.1944199033766850e-004 -1.2462596235570039e-001
      3.3202601745239041e-001 -1.5215035880403878e-002
      1.1367058627171802e-002 6.3129412203883684e-002
      -2.4548854347420504e-001 5.8652816822547860e-002
      7.6491828927051850e-002 5.1486286272682417e-002
      7.0092546850158000e-001 -6.6935316334798309e-002
      -2.2622349504844613e-001 1.4361413036412829e-001
      2.8138155998039177e-001 -6.9041491472954172e-002
      -3.0966779960749186e-001 -6.2500194433608935e-002
      -1.4327121975543058e-001 -2.3965374909328926e-001
      -4.0955666869265589e-001 1.8114662806651002e-001
      -2.4025424607095131e-001 2.1191780066789366e-002
      1.8996311576435032e-001 1.0548422966964990e-001
      -1.3809856203376358e-001 4.3141177284225431e-002
      5.1832923464950970e-002 2.0886617901296839e-001
      -5.0217025525091177e-002 -9.5164324497889405e-002
      -2.6216406878764908e-001 5.8085873628692497e-001
      -2.1376194843675003e-001 -9.0146867333280076e-002
      2.9341189354041669e-001 -1.7844351319789942e-001
      7.0462273183539703e-002 9.6639385656325683e-002
      -1.5031761349327089e-001 4.6863112534477218e-002
      -8.5571180521328769e-002 9.1180377362071172e-002
      9.1663347777649518e-001 -6.7127845405323919e-002
      -1.8940221386691719e-001 9.1874191406158684e-002
      2.5049729211346172e-001 -3.9931842261724623e-002
      -2.9212256117192753e-001 -6.9070233057255043e-002
      -1.1817895723815684e-001 -2.5823484555918885e-001
      -3.8018487532184947e-001 2.3819981306407997e-001
      -2.9450994922678903e-001 -4.0414925357539266e-002
      3.6856710561166887e-003 7.2813121498366246e-002
      -1.4662295273003764e-001 2.9940622660478578e-002
      2.6923775364789387e-001 1.9362113640238829e-001
      -8.3169085121730629e-002 -1.0124676481396654e-001
      -2.2490163753337528e-001 5.6671076925438968e-001
      -1.0824022857550158e-001 -9.9053430599736168e-003
      3.6743317010738896e-001 -1.8728877922889209e-001
      7.9795543099815666e-002 1.6301464691858167e-001
      -1.7509639770469132e-001 -7.3566665149699201e-002
      -1.2401707347499941e-001 8.4210961961055542e-002
      4.8448467876352058e-001 -4.0176387496899009e-002
      -1.5405453248476700e-001 3.6917203285068131e-002
      1.0785485575239251e-001 -4.8480046878504233e-002
      -2.6349042139516249e-001 -9.9333337837195862e-002
      -1.7162415101737219e-001 -1.7677778890080934e-001
      -3.8138562125810893e-001 1.2011946647174754e-001
      -2.0505047297304926e-001 4.1668555465562925e-002
      -6.4757865816295404e-002 7.1532095779651236e-002
      -1.9825316418953590e-001 -2.5817357908736124e-002
      1.8564010205746986e-001 1.2492350761000851e-001
      1.1236081836288982e-001 -7.4619659482751635e-002
      -1.1953523904421776e-001 5.1169988267150190e-001
      4.1105344842550309e-003 -3.1573324634851282e-002
      2.5657543876647981e-001 -5.9954823153174248e-002
      1.0969576705412012e-001 1.5820315437597829e-001
      -2.0318457184531691e-001 -8.3338034851511797e-002
      -9.6809955584932383e-002 6.7066682922283335e-002
      7.5624779468037595e-001 -6.4387036189598401e-002
      -1.6011626831014006e-001 3.7989056473446116e-002
      5.4846511845045277e-002 -1.1816237945137634e-001
      -2.5394916376193055e-001 -1.3022928510958026e-001
      -1.2623695421392964e-001 -9.6625486350187459e-002
      -4.1284866165151435e-001 8.6578192930268125e-002
      -2.4104220500621915e-002 -2.3234111874107087e-002
      1.2010683726113232e-001 6.4485525626024331e-002
      -3.7057629884264848e-001 -5.9995034146854774e-002
      7.7411576749243260e-002 -7.0783361733994469e-003
      1.2129597037807426e-001 -5.2961019027193919e-002
      -4.5059681816203762e-002 4.6668571210357679e-001
      2.5500530285693299e-002 -8.3457354495135291e-002
      2.5334855180425747e-001 -2.0252606729897654e-001
      1.3985560092651012e-001 1.2028693647008311e-001
      -1.8901621405556490e-001 -1.6791040247841668e-001
      -7.8659003429824376e-002 4.2672709164002761e-003
      8.2850483879642278e-001 -6.3754396767725624e-002
      -1.7048661799182596e-001 2.5189520609834370e-002
      -2.3183201979893677e-002 -1.0235757426521387e-001
      -1.1845648649372963e-001 -1.6728481820462437e-001
      -1.1314567683673039e-001 -4.9940511356279449e-003
      -3.5111823824975191e-001 2.6179459951368200e-001
      3.1247932615017932e-001 -7.9540756751504696e-002
      1.4818427404429893e-001 8.1070451507557956e-002
      -1.3403449579157123e-001 -8.0773787027375796e-002
      -1.1849266793206779e-001 3.5302853490556535e-002
      1.5599225610472867e-001 -1.7584239492963411e-002
      -1.0068990066300183e-001 2.6730992271077358e-001
      2.8230479962869908e-002 -6.9563596544024775e-002
      3.2253810384022824e-001 -3.2201734814468141e-001
      -1.1825819412743153e-002 2.3571913596359825e-001
      8.5260766368816007e-002 -1.1962147205840164e-001
      -9.7862435787717819e-002 -8.6824097085212479e-002
      -5.2216460245545826e-001 1.3957907330406742e-002
      -9.8073140173201470e-002 4.5916244304192916e-002
      8.1445925678489670e-002 -2.9157761840126356e-001
      -3.6874051952874007e-002 -1.9115748030525620e-001
      -4.9881789070840225e-002 -6.4046190685770651e-002
      -2.9597919077171236e-001 1.0122272690165514e-001
      5.8395141450691768e-001 -8.5502855004070413e-002
      2.1037902682860137e-002 8.1496954859081261e-002
      -1.7478928280733386e-001 2.1528705248746324e-002
      -3.5399044556685599e-001 -2.0222688003468926e-002
      1.7342321821609077e-001 7.3946756995984964e-002
      -1.3246486714120637e-001 1.6036402209409889e-001
      9.7194592338094798e-002 -1.4061162429352483e-001
      1.6667366772927220e-001 -2.3477948818404221e-001
      -1.2433011184566843e-002 3.7967932158537782e-001
      1.9583790776468377e-001 -4.3290755353873223e-002
      -2.6959913795128981e-001 -6.9525614498790606e-002
      -2.4490516508934262e-001 8.7950047935804229e-002
      -1.9502004788854888e-002 2.8374694084180137e-002
      1.9570647678879285e-001 -1.6148180774269530e-001
      -1.9620733331661330e-001 -1.4998613264484062e-001
      -9.0593805093621818e-002 5.6182396297558716e-002
      -2.5265633902931040e-001 -8.9295334889353869e-003
      5.2943871830894007e-001 -2.1280203269472509e-001
      7.0117785834801216e-002 1.1805176687206310e-001
      -1.9731053412409053e-001 1.1672702013870294e-001
      -4.3406914615748537e-001 -2.0118848796660815e-001
      1.3338043832865429e-001 7.4692650399961744e-002
      -2.1881955836824821e-001 2.2537223268340245e-001
      1.2304027190251061e-001 -2.2730051251334507e-001
      9.6838085922317352e-002 -1.7559195840968583e-001
      1.4913583076291025e-002 3.1957960857651851e-001
      2.1711299762145189e-001 -1.0300466879759189e-002
      -3.2585885871593318e-001 -1.0908276338213292e-001
      -1.2031285748466494e+000 1.9467880720744335e-001
      -1.0165749665084844e-001 5.8520368870483307e-002
      1.9884456573894432e-001 -1.7950204110366016e-001
      2.8337671813831823e-002 -1.2390641043274575e-001
      -1.2675907664609243e-001 1.0920717259689923e-001
      9.8798488156053282e-003 -1.0834997864942121e-001
      3.9165493775755073e-001 -2.1471994222705879e-002
      1.0995409384706370e-001 -5.4155858665099837e-002
      5.7805264300981110e-002 1.3411904593711671e-001
      -3.1345546598797180e-001 -2.1408583052839369e-001
      1.6573190559444143e-001 2.4279191252653556e-001
      -1.0301966835005731e-001 1.6467582094461344e-001
      2.1333740612846827e-001 -1.6586975866097986e-001
      1.0474247758094571e-001 -3.1026457298734522e-001
      -1.2838475409412223e-001 3.6766677045819435e-001
      3.4384547044222002e-001 8.2125661495290880e-002
      -3.6172039555097035e-001 -6.0267857929573641e-002
      -2.2866438482760416e+000 3.5710902771720299e-001
      -7.2037189459179460e-002 5.0820071644958421e-002
      1.9218487714834423e-001 -3.2375555976801806e-001
      1.4301013408486213e-001 -1.1426665435188145e-001
      -7.2520481834440376e-002 -4.1599219254519718e-002
      9.7668970588850837e-002 -7.3441189447880278e-002
      3.6009315613660459e-001 8.7280444097253676e-002
      2.0411922645015196e-001 -1.3213679572695811e-001
      2.9807009560048808e-001 3.0936097896263709e-001
      -3.2138949516101623e-001 -3.3323580601390845e-001
      1.3943274629727187e-001 3.1152724689965139e-001
      -5.1410051208769604e-002 1.2293126043631361e-001
      2.7286640827113345e-001 -1.4281103782645488e-001
      9.0834470204895601e-002 -2.2477331211581073e-001
      -1.2776641864840502e-001 2.4796110433429810e-001
      1.4786577305612364e-001 8.6459639179240586e-002
      -7.4940608124993688e-002 -6.0950009955219472e-002
      -2.5093238249380434e+000 3.4948730688027557e-001
      -6.6808300417007960e-003 3.6776677532686243e-002
      2.9891337058388018e-001 -2.5867113316633117e-001
      1.0565348730348340e-001 -1.0937409434564631e-001
      -8.7951527293230178e-002 -5.2279932494806260e-002
      -5.7936150281883182e-002 1.2624713029787530e-003
      1.8475678973625043e-001 1.5009950943164841e-002
      2.1308532712260933e-001 -1.2519030212705134e-001
      4.4824034082083852e-001 2.2934802456618203e-001
      -3.4477967004192428e-001 -3.5444102701350294e-001
      2.2049681077757435e-001 3.0967140737616805e-001
      -1.1185479823420781e-002 1.2656795127004378e-001
      2.7255796291432383e-001 -1.2806252020066583e-001
      -1.5337830268458334e-002 -1.8565047878683974e-001
      -4.6217190494332129e-002 1.8119957630997410e-001
      6.1870865671888341e-002 1.1655678817334521e-001
      -1.7935995787761749e-001 -9.8500631877999761e-002
      -2.5575957710321378e+000 2.7673815654298034e-001
      2.0417133981188447e-002 3.9351999388587557e-002
      3.9945446329785295e-001 -4.8042616023269598e-002
      7.7748628507148976e-002 5.7771651500655899e-002
      3.0492622603906498e-002 -1.1321839108993610e-001
      -1.6720654268235078e-002 6.8445096090944499e-002
      3.4257871409546338e-003 3.0659702248266621e-004
      1.2575467022783077e-001 -1.3771075153416254e-001
      5.1792105242588449e-001 1.7577354314640789e-001
      -1.5784339702073755e-001 -2.1348225895119879e-001
      2.0352980683320054e-001 1.5257024400186275e-001
      -2.3668309328793106e-002 1.0215825336628817e-001
      3.0095967180733280e-001 -1.4810946833739924e-001
      -6.5066230134929320e-002 -1.3179504708862083e-001
      -3.9964835331446485e-002 1.3985256557471412e-001
      8.9422199187006404e-002 1.7601624714930320e-001
      -2.3670246616944482e-001 -5.2078268905313398e-002
      -2.6940529840257716e+000 1.9910048109207368e-001
      3.5369969567723002e-002 3.0585369827612428e-002
      1.4212015180385082e-001 3.1840819819522581e-002
      1.0014941980783354e-001 3.6411940017247173e-002
      1.6971203320997155e-001 -9.5851407257489765e-002
      6.1987456713173537e-002 1.2436792504653212e-001
      8.6869113749972138e-002 -7.4805605126706851e-002
      1.3059745266048334e-001 -1.1732768011692184e-001
      5.3004760372630899e-001 1.2621919129344031e-001
      -9.9246142493873771e-002 -2.1083800719163068e-001
      1.3765206160780338e-001 2.1914201337323141e-001
      -7.1503518586687270e-002 8.6614634360045156e-002
      2.8721726034655054e-001 -1.7561524548593016e-001
      -5.5025873485750179e-002 -6.3443569614404213e-002
      -4.4630392578554591e-002 1.1679200314385611e-001
      1.2281844018372488e-001 1.5056882782628850e-001
      -2.7550560823486225e-001 -4.4706539029012823e-002
      -2.4529864836182020e+000 1.6338680792517243e-001
      -1.6745934264490510e-002 3.5311406802074348e-002
      1.0526438617984260e-001 3.4941335970870735e-002
      1.5654856089707378e-001 -5.5090071449108775e-002
      2.1485322977226828e-001 -1.0461001214935674e-001
      3.3601572014406500e-002 1.5978114687441805e-001
      -2.4017621734328157e-002 -8.5680265491765800e-002
      1.3791004631009732e-001 -1.3009476938647555e-001
      4.9439656921820763e-001 8.4436744194280391e-002
      1.2461743595998728e-001 -2.3259446152752564e-001
      8.6581068114272311e-002 2.5141390872083319e-001
      -1.2417132538323138e-001 2.0187527392708900e-002
      2.9688469570382969e-001 -1.6769418607980621e-001
      -5.7090513351928336e-002 -4.5572071438657491e-002
      -5.4824326411516237e-002 1.3764139250077997e-001
      4.2096185745340214e-002 4.2267295915852002e-002
      -2.8421693357267491e-001 -9.4813718028976882e-002
      -2.8083877871616827e+000 2.0832367358664930e-001
      8.9188892562139608e-003 4.4155573984322370e-002
      2.3054666866009238e-001 -1.8546764848464187e-001
      1.1832542968529339e-001 7.4997343630283597e-002
      2.2590770035293900e-001 -2.0188072969869533e-001
      -4.3009712900819877e-003 2.1494415573554235e-001
      -4.2115385244758823e-002 -7.1964926690189890e-002
      2.5144823335603506e-001 -1.4661465874725282e-001
      5.7837059287749282e-001 8.4634737981852656e-002
      1.5483584496882119e-001 -2.2616951990038794e-001
      1.5361548851738435e-001 1.7112195578517100e-001
      -1.3579047243724154e-001 2.4763273926970517e-001
      3.0781971596557067e-001 -1.8765735200611103e-001
      -3.9395939854295542e-002 -3.3138878488746526e-002
      3.4884584241572515e-002 1.4425107230812634e-001
      2.0338996184905966e-001 4.5400316510126694e-002
      -3.0107298161679441e-001 -1.0836153375683925e-001
      -1.0536781785524532e+000 -3.0052884863559847e-002
      -1.3475326873188159e-001 8.3275558280183459e-002
      2.4914189645429785e-001 2.2194611288173702e-001
      -2.0692057134568598e-001 2.3558242357709502e-001
      -1.6448164488972667e-003 -3.0353286734971008e-001
      -9.8376148155869841e-002 2.8940989461912653e-001
      5.7198662058074081e-003 -1.8117504794791561e-001
      4.4519169735701580e-001 1.5923490416658398e-001
      3.5149251026448303e-001 4.7828831928808080e-001
      6.1187901513792178e-002 -2.6587263526841796e-002
      5.6890750934099121e-002 2.8616932022680890e-002
      -7.6546529642675193e-002 2.9285782474555794e-001
      1.5572574957435081e-002 9.6760088012307968e-002
      3.7175841001982471e-002 -1.7515801191915023e-001
      1.5980628285553571e-002 4.1562634090266247e-002
      3.5426853402955877e-001 2.5579238274336263e-001
      -4.6715060465934405e-001 3.0365638001200229e-001
      -1.2218886252278431e+000 -1.5625613874028948e-003
      -1.7783137897243345e-001 1.6673675494676299e-002
      2.8147369619352458e-001 1.0220730842361847e-001
      -1.9200617242055829e-001 2.2243696700133958e-001
      -3.4040169259731100e-002 -1.6264317804440614e-001
      -7.8579040217362325e-002 1.9841785683073898e-001
      -1.0885139483475142e-002 -8.8043050382045171e-002
      4.5913776148968760e-001 1.0803345659898887e-001
      2.9161328086742655e-001 3.8139145284110187e-001
      7.5036870437844919e-002 4.2433947232998863e-002
      6.7049956468087674e-002 3.1261253332230635e-002
      -1.1397730933972663e-002 2.9558111175119262e-001
      -1.4683480139028887e-001 1.6197855101403849e-001
      6.9060334161680600e-002 -1.6567695720435923e-002
      -1.0464201387667049e-002 1.8448444995490816e-002
      3.3305359934727480e-001 1.6878766780960550e-001
      -4.0791290284132198e-001 2.3551147715497223e-001
      -1.2865655400178910e+000 2.2111613808310795e-003
      -2.5872661690177479e-001 4.9034027042640239e-002
      2.9452299715418673e-001 5.8050138453546070e-002
      -1.7904746892636303e-001 2.3222278356456352e-001
      -5.6865605551897160e-002 -1.7478373446705925e-001
      3.6354480981300153e-003 1.3732682339282368e-001
      -1.7739665559108143e-002 -9.4917185316877845e-002
      5.0871567459207179e-001 9.0077738896564383e-002
      2.0918798173603406e-001 4.5681239847441996e-001
      1.0576891265914237e-001 6.7807529434168498e-002
      6.9209127063431714e-002 1.5082496934327081e-003
      -1.9377454158688152e-002 3.6546905105472577e-001
      -2.5253168892292621e-001 1.3810815242883720e-001
      1.1718872856723543e-001 -7.3111594039895297e-002
      7.4584196212060819e-002 -4.2415523117647095e-003
      3.1966961043078046e-001 1.5271098161952615e-001
      -3.8910559344515416e-001 2.0932885549265048e-001
      -1.3129772589596493e+000 3.4284992969259465e-002
      -1.3685486678800754e-001 1.1340998245175250e-001
      1.6173728106432383e-001 2.1230252956125703e-001
      -6.0634604034902485e-002 1.7770266706363932e-001
      -1.0877663986693631e-001 -1.6828986194574971e-001
      -4.5044236682114595e-002 1.3436904689865652e-002
      -2.3015178353787868e-001 -5.8956571874200607e-002
      2.3836618990829184e-001 1.0363734398358788e-001
      3.0213677756722353e-002 4.8150620943149919e-001
      7.9964775561502888e-002 1.0866601796272193e-001
      6.9220729770284734e-002 -5.9801031639022159e-002
      -7.2431641274028208e-002 1.8716248475622091e-001
      -3.5626775383963666e-001 7.3959895894220029e-002
      1.6090709287077138e-002 -9.0702727060660862e-002
      1.4825095927580115e-001 1.2004546860365433e-002
      1.3986162844814591e-002 8.6801463315905006e-002
      -2.9354699060139627e-001 2.1381066371131233e-001
      -2.2985608407758078e+000 -1.4848441265775930e-001
      -5.4074991124391118e-002 7.7904098551148507e-002
      2.1158251052149107e-001 3.6576197566332241e-001
      -1.3316275159877006e-001 3.0613271942665188e-001
      -1.0620679843354017e-001 -2.6402028088133184e-001
      -2.2257800200370201e-001 7.9264062314392536e-002
      -2.5920743074920094e-001 -1.7255402771722730e-001
      2.8982788309567747e-001 1.8899813081407549e-001
      1.2964604760812298e-001 6.2560569922990450e-001
      1.5719595244906423e-001 2.2093635197504272e-001
      4.4733539445635677e-002 -2.0836231137968736e-001
      -3.2006677471068018e-001 3.4226288053916570e-001
      -1.7573553115492663e-001 -2.3901731019501868e-003
      4.8058208057253075e-002 -1.5747736684060973e-002
      2.2784588015890217e-001 9.8604544168130831e-002
      -9.9936237414863460e-002 3.5415214411110590e-002
      -2.8858109948362720e-001 2.9458861929007141e-001
      -2.3215329575874226e+000 -2.1171248202132525e-001
      1.6890106590698836e-001 9.2561232928700138e-002
      2.7102257319794681e-001 3.7334554344070831e-001
      -1.1145083317545790e-001 1.3837620845806040e-001
      -1.4307990930191897e-001 -3.7785974880118645e-001
      -2.9311246956135806e-001 1.5459765144328817e-002
      -2.5224967271025978e-001 -9.3669790975921558e-003
      2.3262235395203090e-001 1.5504639862053210e-001
      6.0170428926710796e-002 4.3512384523152381e-001
      2.1633772990323902e-001 3.5044438871616357e-001
      1.8579302363706144e-002 -2.7737004788272851e-001
      -2.3567033756434130e-001 3.8107218512126173e-001
      9.9285143498179657e-003 -1.1594920796166659e-001
      9.2639802178758626e-002 -2.5628124179674155e-001
      8.7550331191101755e-002 1.3578463016885636e-001
      -3.4704769644443488e-002 -7.3765280265126312e-002
      -5.3589162020132496e-002 1.8505239169207544e-001
      -2.3780309738179790e+000 -2.6684987261698334e-001
      1.0196112200440331e-001 7.0860633758859051e-002
      3.7477544476935692e-001 2.0471901831664113e-001
      -2.2874144615525413e-001 9.2871248749020446e-002
      -1.8024771510830373e-001 -2.5583206431786143e-001
      -3.1305601961927193e-001 6.1027124866046056e-002
      1.2429214449107879e-002 1.0146263519626873e-001
      3.1058738323318491e-001 1.4029631865426712e-001
      -1.8991762397176357e-002 3.9864837426172645e-001
      -2.4058482173170786e-002 2.3743740005439742e-001
      8.0998751068279307e-002 -2.3880907091016915e-001
      -9.6188478807371525e-002 2.8744783450915301e-001
      1.3978799732524515e-002 -9.9987177132223409e-002
      1.0357047858392135e-001 -2.7416970719253825e-001
      1.2425830554186050e-002 1.7640883530104320e-001
      -1.6639545932166216e-001 6.1161607825342967e-002
      -7.6719675510384139e-002 1.2408778132928611e-001
      -2.1941801530976597e+000 -1.5147059524467404e-001
      1.7518304989582295e-001 2.4208593977973956e-002
      4.1785992852271037e-001 3.6173160920340189e-002
      -6.9857001209022787e-002 8.5304612944381908e-002
      -2.4880788499638573e-001 -1.9426572941493064e-001
      -2.2541045009339969e-001 2.0153120671252889e-001
      9.5728331198688524e-002 2.5671731279785681e-001
      1.8692721253875125e-001 -7.2347927976066845e-002
      9.7268854662562673e-002 3.1615766351847541e-001
      -5.8210379277449660e-002 1.3744602967367839e-001
      1.5275403938272350e-001 7.3979993898750804e-002
      -1.1404304951312849e-001 1.3309267641330641e-001
      2.2897030361703238e-001 -9.3405240075717960e-002
      1.8953015750257765e-001 -2.0899267792372908e-001
      1.9800645981089448e-002 1.2293440943921165e-001
      -3.2987440359556430e-001 1.9066536363048217e-003
      7.8758487192817167e-002 8.4507038116221483e-002
      -2.0318812945683020e+000 6.4648357608614551e-002
      -1.6627821584620891e-002 1.5261137431347931e-002
      3.3145465602780788e-001 -2.1030032161195455e-001
      -8.4741143681914502e-002 2.6360547936892625e-001
      -1.7098083913485324e-001 -1.6030491614103556e-001
      -2.1047616910253475e-001 3.2042352525649709e-001
      1.1672857994454709e-001 6.8325057263496497e-002
      3.3501018207898825e-001 -1.1815433194372876e-001
      2.2623351327189797e-001 3.6426786476598338e-001
      -9.1598005556696685e-002 -5.4079326700010963e-002
      2.0098810931619035e-001 2.2535331094760402e-001
      -1.8726155924341020e-001 2.1090784424309281e-001
      2.4166408261829506e-001 7.5953160535676802e-003
      2.5488626549917859e-001 -2.0298115711031794e-001
      1.5785145174048595e-001 1.6071100540576383e-001
      -2.3581653473272671e-001 -2.8814687539498580e-002
      1.6896054567506692e-002 1.6042119986887185e-001
      -8.7551610827836701e-001 9.4739205288367531e-002
      -2.6440385854561221e-001 3.3140564876749989e-002
      4.6674895029795055e-001 1.9642164930404351e-002
      -3.8353413342742715e-001 1.6227704257406722e-001
      -6.5516870869776270e-002 -2.6673536905001571e-001
      -2.0588810825904261e-001 3.5875320116895737e-001
      -1.8963152549725926e-001 3.0539450839077852e-002
      5.1025958277421057e-001 8.3581206541134323e-002
      2.7945975558924663e-001 4.5503245898563255e-001
      6.2860672567178311e-002 -1.6849111540283981e-001
      -3.2686077735270130e-002 1.0982537672404820e-001
      -2.8492560349547780e-001 1.0862953836222350e-001
      -9.1938763409906116e-002 3.3393554696771910e-002
      1.7111722731247089e-001 8.1505083044989282e-002
      1.4992324688075015e-001 1.2011046918693349e-001
      1.2354339075678683e-001 1.1270686076241052e-001
      -1.6613571777794478e-001 2.2445412611210469e-001
      -5.0961060178161477e-001 2.0145577428753881e-003
      -1.7734696026003868e-001 -5.3227325818182812e-003
      2.7349439577365137e-001 8.5598662312338453e-002
      -4.5785564873106765e-001 1.8388765139451307e-001
      -4.1267310919229548e-002 -3.4164037898794242e-001
      -1.1720068951412135e-001 3.3515385386769830e-001
      -4.0387424555459439e-001 1.6949327841535491e-002
      4.8385213692364448e-001 2.4239020983259721e-001
      1.1086330078135360e-001 6.6574438458618518e-002
      7.0302538749156249e-002 -2.0783419741631620e-001
      -7.1987949701106543e-002 5.2282766016348223e-002
      -3.3056028989948233e-001 1.8497199644497100e-001
      -1.8572841770906420e-001 9.1246374244723108e-002
      1.8936772559342371e-001 4.8647664207463880e-002
      1.2492035256122852e-001 4.9252903687522352e-002
      2.1908367039915749e-001 1.8202960254487952e-001
      -2.8620728949140695e-001 3.1665150826699529e-001
      -8.5133998688979293e-002 -1.7658593335437678e-002
      -1.1929744934218253e-001 6.1472014041696749e-002
      2.4769304442553697e-001 -4.5968040618330548e-002
      -3.4375266010717714e-001 2.1535386102000903e-001
      2.9905839310796486e-002 -2.6227850289774668e-001
      -2.1757917528744936e-001 3.3332602890958130e-001
      -3.5270838275508465e-001 -1.7798681497257985e-002
      3.4988736347928595e-001 2.4941736955453817e-001
      1.3451244842279825e-001 -6.4665486925343518e-002
      1.9639609052985757e-001 -1.7047959467486890e-001
      -8.9815932665283850e-004 -4.2418445388190451e-002
      -4.1652614496810109e-001 2.5340303977212097e-001
      -1.5276724160863644e-001 -5.4764792523649387e-002
      9.3104999846659042e-002 2.7484020767905593e-001
      1.9382829447854480e-001 2.6026251983524717e-002
      4.7667187479944606e-001 2.5421276180519964e-001
      -3.3889430795320769e-001 2.5595857307980818e-001
      2.9165633503998512e-001 -3.9384021496779970e-002
      -2.0270773362264138e-002 1.2557538180605621e-001
      3.5112984009134568e-001 -9.4919043266201028e-002
      -2.4615507720237600e-001 1.6151844483917932e-001
      1.1386122399783391e-001 -2.8598485962309372e-001
      -2.6628067853341303e-001 3.4253598628507176e-001
      -3.3044421170227339e-001 -4.0793176177698794e-003
      8.4601442764297138e-002 2.1374474609196095e-001
      2.0791749215025176e-001 -2.1573936543350303e-001
      3.1280336278131621e-001 -1.7004676412806588e-001
      4.3383212353894231e-002 -8.5603044454933122e-002
      -2.3461207318684996e-001 3.8970377715267263e-001
      -1.9489735164391359e-001 1.3791795176373325e-001
      -1.2695716442561312e-002 -2.4275415468914632e-001
      1.3002599975960702e-001 1.6141805601398118e-001
      5.1457184715638371e-001 2.0134972798028872e-001
      -3.6507766628603550e-001 2.3982746865182350e-001
      -1.1812630056257316e+000 3.8663668930373318e-002
      1.6883526883663066e-001 8.6728533440627448e-002
      2.5767731208172301e-001 -1.8691201143386865e-001
      4.4512381045319287e-002 1.7291370087864591e-001
      -3.4170159251799434e-002 -1.0232873416911256e-001
      -1.9204857616135787e-001 2.1569319929507966e-001
      -1.2738450685037980e-001 4.8238360189091341e-002
      -8.3888742997342333e-003 -5.4725621079090944e-002
      2.1478036780910617e-001 -2.9696983979356384e-001
      2.2400669684128682e-001 -8.8951728040471384e-002
      2.2411875529998529e-001 2.3648519201329779e-001
      3.7940119680325922e-002 2.1532823570873827e-001
      2.2635984433214329e-001 1.1179374627406256e-001
      6.2043143972826169e-002 -3.1025588558163144e-002
      1.4275717710355648e-001 1.5771069810903834e-001
      3.7585819368079770e-001 1.0489445738992764e-001
      -5.9704858965838832e-002 6.2846455535740628e-002
      -1.7545860964337519e+000 -2.0694719140305008e-002
      -8.3846374003799934e-003 7.7132343914365631e-002
      4.0511730453190348e-001 -2.0243632664187799e-001
      4.3510396618306357e-002 7.9195206055063555e-002
      9.0155730016617433e-002 -1.9570148178015731e-001
      -1.5034012074008241e-001 2.5605159155668505e-001
      3.7476136085911264e-002 -1.4913000753446229e-001
      1.0226614282834669e-001 -4.5349854135885805e-002
      2.4524044643613369e-001 -2.6460944477200581e-002
      7.2473716595169574e-002 -1.6460912034086625e-001
      1.5905045358751776e-001 1.8591482455296640e-001
      -1.1381696539684989e-001 1.7907575433070338e-002
      4.4461412506556691e-002 3.9500123284919725e-002
      1.9978004728270760e-002 1.6398852556818688e-001
      1.8492320589574776e-001 1.7518225110635299e-001
      4.9530026457655191e-001 2.1041019813811204e-001
      -8.8197254086246721e-002 9.8361208865495681e-002
      -5.8188778150054266e-001 -2.1379355024851488e-002
      -1.3503607267255222e-001 1.1362859482223629e-001
      4.1985299194474585e-001 -1.2622883875303120e-001
      -6.5269748239846104e-002 1.1264209710452970e-001
      2.3119335032015187e-001 -8.2431671161644030e-002
      -1.7536351379168313e-001 3.3764465462291349e-001
      1.3789804952454632e-001 -3.5707763875179477e-001
      2.2384321628377949e-002 4.3423004794973158e-002
      1.2045033287258772e-001 1.4115303370107929e-001
      -1.1005016936428731e-002 -1.0711175683079883e-001
      -5.9893507589669708e-002 4.7501332876596331e-002
      -1.3716700843052543e-001 1.3049974707900819e-001
      -1.4699517634328885e-001 8.7893533058375786e-002
      1.9686144873563136e-001 8.0607315504572799e-002
      7.2590912298477764e-002 1.7743383423495801e-001
      5.4786612144001812e-001 1.1528397477046760e-001
      -3.1140164849709118e-001 1.2914793450365605e-001
      -1.6900131515819424e-002 9.8392976345369310e-002
      -1.4473710004211784e-001 1.0235098618542528e-001
      2.9072276451665280e-001 -1.8325630108535795e-001
      -8.7095300114034976e-002 1.8372527349447598e-001
      1.8260135633918129e-001 1.0154763955674365e-001
      1.3378159259113136e-003 3.3538911726518283e-001
      1.3570124081821600e-001 -6.8549120879723743e-002
      1.9038133454351214e-001 -5.9746668183423446e-002
      8.6547392514264451e-002 2.6427120150372047e-001
      -6.4613441592220322e-002 -1.3297100424316949e-001
      -3.9656117283409134e-002 1.2005040179075793e-001
      -2.0349595673566817e-001 -8.0558354945856649e-003
      1.6239342355059544e-003 5.0235160200545838e-002
      -2.9270354448640911e-002 4.6903960631490708e-002
      2.2431175211402168e-001 -1.5936632128226780e-001
      4.0072540036602139e-001 -1.1368633670785845e-001
      -4.3982541909537448e-001 2.4660046701972041e-002
      -2.3255945737829384e-001 6.3901781814383246e-002
      6.9976531598348449e-002 1.9942736201353634e-001
      2.0394236821765876e-001 -1.1127802506023501e-001
      2.1048731637668301e-003 9.3432388167348154e-002
      1.0650971090593503e-001 -6.2362743149570091e-002
      1.4780505408670022e-001 2.7352215271714031e-001
      1.7416501065314402e-001 2.6191705658495001e-002
      3.3412908416465081e-001 -1.0055321221299379e-001
      1.8071787877289647e-001 2.9959200828882449e-001
      -2.9205053117600488e-001 -2.2670532525814951e-001
      7.4438550561678515e-002 3.0577886144559401e-002
      -1.4296727357994021e-001 -7.9472454954957666e-002
      -1.2764848706402490e-001 3.0369172535980579e-002
      5.2693357866936442e-002 -8.5628808384745431e-002
      4.9120179549932879e-003 -1.2565385794174433e-001
      3.5341199892266090e-001 5.1457203922422479e-002
      -5.3502299065991621e-001 7.3512254377899921e-003
      -3.0050544500267889e-001 -8.7903769845574867e-002
      -1.8476695191109491e-002 2.3006828304520882e-001
      1.9171809592058892e-001 1.5706684017781275e-001
      -3.8071749098845975e-002 6.0965028094237067e-002
      1.2872639752406911e-001 -1.3907567166762388e-001
      1.2626626519356979e-001 3.7248325387684961e-001
      3.7542483245707255e-002 -4.9510321722480537e-003
      3.6616574590337431e-001 -4.3214658503323497e-002
      2.1169994713475201e-001 2.1433523474485164e-001
      -2.0178063719018330e-001 -3.8590787253086165e-002
      9.4493603782726379e-002 -1.1924174664464396e-001
      -1.8363175913953531e-001 5.9993267680114037e-002
      -1.9131396091947625e-001 1.4523247082039192e-001
      1.8207221112802918e-001 -3.9483578388472251e-001
      2.4446277734913431e-002 -1.3541091156517237e-003
      2.8697735778653027e-001 7.3586586574366425e-002
      -3.7445595269546228e-001 4.3812073585912430e-002
      -9.6034986218270280e-001 -2.0030040049024242e-001
      1.2244914661300968e-002 1.1378828275400175e-001
      4.6179354598100636e-001 3.6486806495466434e-001
      -1.2951739760905198e-001 3.2425742098846980e-002
      9.7693328629570128e-002 -3.4444753011282653e-001
      -1.8704878005037499e-002 2.5577662391001232e-001
      -8.4738641400659061e-003 -4.3557896644067159e-002
      3.4920436144238243e-001 8.5764448180011763e-002
      -1.0295073405783749e-001 1.8799775132317517e-001
      -1.7904229600443151e-002 7.6300860179813912e-002
      1.3451956956249028e-001 -1.8129361706995986e-001
      -2.0610073466073453e-001 3.8382059334981772e-001
      -2.2228754426458211e-001 1.8258813282308085e-002
      1.2622602093529034e-001 -2.4660731929646529e-001
      2.1270484573734320e-002 1.6437432193427898e-001
      2.9789963509269785e-001 1.0450943343141365e-001
      -3.5246774834549538e-001 5.3035537694238202e-002
      -1.5706082051266226e+000 -2.1460790291219295e-001
      3.6016366169728461e-002 -1.8665957047649086e-002
      4.1864541458149501e-001 3.9529883950388239e-001
      -1.2141268261792815e-001 7.4682234933701269e-002
      1.0619510050084421e-001 -3.9406621506164780e-001
      -5.7615855419871020e-002 3.7737940808970388e-001
      -5.1757436035785823e-002 -2.8271222002996237e-002
      2.3382339313308984e-001 1.4431897365863097e-001
      -1.4605441541535835e-001 1.3835562078299521e-001
      1.6828569543061445e-001 1.1744750437080213e-001
      4.7364580057777932e-002 -9.9847947265939652e-002
      -1.3983527219389569e-001 2.9601723099342098e-001
      -8.8327347905985565e-002 -9.7931951665702580e-002
      3.7203412336578714e-002 -1.8594232498531871e-001
      6.4148871264799262e-002 1.0704899286693161e-001
      3.4783096261306284e-001 -4.4319130497311843e-002
      -2.9300311241188783e-002 -3.6203677782137310e-002
      -2.6116403765743068e+000 -1.3907887831710572e-001
      6.7912203124007350e-002 -2.2493281836794075e-002
      3.0636664963709098e-001 9.1086891717823915e-002
      4.3685195355029363e-002 9.1731590411690850e-002
      -3.2876436106414816e-002 -3.5900585046875527e-001
      -1.4249504098414939e-001 3.0735992191659323e-001
      2.3772673711138698e-001 -4.4880255809670441e-003
      2.0276060190891035e-001 6.6751838838025629e-002
      1.9733910175468658e-001 1.9030525571713336e-001
      1.1397456710290249e-001 1.5318800163071922e-001
      8.3016696187464031e-002 4.2198793240179291e-002
      -1.5114969952856933e-001 9.1903324437266787e-002
      1.9340450609750223e-001 -1.7737809622384512e-001
      1.8270229166883875e-001 -1.1680975475937287e-001
      -1.6420931172187857e-002 1.1288981361359315e-001
      1.3609719824750341e-001 -4.8322542461705115e-002
      9.6958155811580959e-002 -2.5646978728928991e-002
      -1.8217371308962602e+000 -1.2613099150306617e-001
      6.9966797745736428e-002 -4.8370833753685789e-002
      2.9017498557214022e-001 -9.6972028825688866e-002
      -9.2573586179310247e-002 1.2557177417015969e-001
      -1.0311640175714144e-001 -3.1173785222197042e-001
      -1.5365272433298310e-001 1.6709791907586299e-001
      3.6071239191589927e-001 -1.4234283287030355e-001
      1.1011675524052963e-001 3.4382354007258469e-002
      2.1509783437598207e-001 6.7663262333324514e-001
      -1.7798968251539457e-001 -7.9010275903341837e-002
      8.5598140094509233e-003 -7.6851961180805367e-002
      -3.7909759529448284e-001 -3.5779468967807732e-002
      2.2558590289673366e-001 -1.7290841349049790e-001
      2.3845568525197361e-001 -1.7226475721259987e-001
      1.0668281972661214e-001 2.0679619379428277e-001
      1.4844769084193302e-001 -5.0783893241585110e-002
      7.9515197918818781e-002 7.5254156268863845e-003
      -1.9659653832092885e+000 4.7801014356208371e-002
      -8.9102279341728305e-002 9.2378255761910374e-002
      4.2420562392960348e-001 -3.6753542570625919e-001
      -2.4926656701467648e-001 2.3036740215102514e-001
      -2.0414677150855506e-001 -2.2949464202497141e-001
      -3.7747569198498876e-001 2.3221692423024573e-001
      3.4123176932017868e-001 -2.4095879802989315e-001
      3.1904527724142789e-001 2.8653260154284516e-002
      3.2363641894629253e-001 6.0687076131673423e-001
      -2.1337900501472146e-001 -1.1222030962617133e-001
      8.6491113602249967e-002 -6.8717686496245975e-002
      -3.3235863004156346e-001 1.6622868240287478e-001
      1.7558162581417322e-001 -1.7201896348364945e-001
      2.0991663741641334e-001 -2.6254553306548917e-001
      3.7702342863810789e-001 2.6975533515148303e-001
      3.2325604618121900e-001 6.1695236293068625e-002
      -4.9311200090132618e-001 3.0936899357129403e-002
      -1.3677150418416730e+000 1.9013670581568998e-001
      -7.1381139673568225e-002 1.1090048655493157e-001
      3.4416956353848122e-001 -1.5879927978559291e-001
      -1.5433723908321001e-001 3.3594188725124391e-001
      -2.4740528315803664e-001 -4.2513974113680725e-001
      -2.1424103079051643e-001 2.3100307317274796e-001
      2.7511303903049805e-001 -2.6493021185448823e-001
      2.3396391197623270e-001 4.3619302051287036e-002
      3.9280487723762286e-001 5.4844904600432576e-001
      -2.2342336707411406e-001 -6.6452002107570241e-002
      2.2303293048598696e-001 6.0797276533119039e-002
      -2.2577293020755740e-001 2.7943671044403495e-001
      1.4851174182290947e-001 -2.6775082417871826e-001
      8.3163399719300507e-002 -4.4204786280099784e-001
      3.0130781148460289e-001 3.1450279003629183e-001
      4.8476846120732880e-001 4.3698772348620803e-002
      -3.7368269348634348e-001 2.5125524451257372e-002
      -6.7037893664393899e-001 2.2122462941421811e-001
      -4.0539099685277476e-002 1.2375279389506319e-001
      2.5877169197909033e-001 5.8294951587605386e-002
      -1.2591611765303812e-001 9.9928228227340918e-002
      -9.0803831820050834e-002 -3.0256552488788552e-001
      -1.0396035655837951e-001 2.6381857900921624e-001
      3.3410656432641345e-001 -2.1845599677486136e-001
      2.5299192025633288e-001 5.0544374721619913e-002
      4.5070138917621005e-001 4.7261737670846193e-001
      -5.5148243209921988e-001 -1.2854976299219914e-001
      2.0136191185982497e-001 1.6340954589916312e-001
      -1.8914707321349555e-001 7.6857023896381035e-002
      2.4478434955175760e-001 -2.6634946745052074e-001
      -3.5407116333556407e-002 -3.5555245914381661e-001
      1.8869512162435392e-001 2.8502313931819540e-001
      4.9457749520363353e-001 1.0745365468404683e-001
      -4.5084845146449104e-001 1.3574785586700364e-001
      -1.4580244349507203e+000 1.4785301563851297e-001
      -3.2724006042089145e-002 9.9424387532407385e-002
      2.1340553057857656e-001 1.7733646035731684e-001
      4.4532050999577417e-002 -7.9604161794943173e-002
      8.8551236973981887e-002 -3.2464468072237046e-003
      -4.3227003513914182e-003 2.3188706328535053e-001
      2.2804539900039192e-001 -4.5713175630927042e-002
      1.1090019158002556e-001 -4.5592474533043947e-003
      3.1759000744720089e-001 1.4907086717395038e-001
      -4.8693672741114674e-001 -1.5353015115403756e-001
      8.9944518624156353e-002 1.6701237743024946e-001
      -1.5835218303241338e-001 5.8823069780768081e-002
      2.1257130803076577e-001 -1.7990413547318138e-001
      -8.2909634923149129e-003 -2.5909183908940597e-001
      -1.0608486372436440e-001 2.4813335953542578e-001
      1.5308297444716193e-001 6.6955967043957829e-002
      -3.7897646604211099e-001 -5.5712744230120258e-002
      -3.0054214294130359e+000 1.9934112492893633e-001
      1.6791126389622209e-002 4.1851900924639765e-002
      1.8810743471909194e-001 -1.8210898923638247e-001
      1.5948830658086471e-001 7.0632605770036508e-002
      2.2032138018366076e-001 -1.7883682750700072e-001
      -9.8540150067469839e-003 1.9052958967805536e-001
      2.6289992504923712e-002 -1.7138677746748803e-002
      2.3395747615261689e-001 -1.5524131071886657e-001
      6.1021331783471988e-001 1.2019965738807643e-001
      6.7896343864955244e-002 -2.2404709606244380e-001
      1.9827316473192780e-001 1.9824503861364443e-001
      -1.3765076860568590e-001 2.7624645016635702e-001
      3.3120324986985383e-001 -1.7736191429414525e-001
      2.9833090937608840e-003 -7.0507086481806203e-002
