<?xml version="1.0"?>
<opencv_storage>
<my_nn type_id="opencv-ml-ann-mlp">
  <layer_sizes type_id="opencv-matrix">
    <rows>1</rows>
    <cols>3</cols>
    <dt>i</dt>
    <data>
      784 35 36</data></layer_sizes>
  <activation_function>SIGMOID_SYM</activation_function>
  <f_param1>1.</f_param1>
  <f_param2>1.</f_param2>
  <min_val>-9.4999999999999996e-001</min_val>
  <max_val>9.4999999999999996e-001</max_val>
  <min_val1>-9.7999999999999998e-001</min_val1>
  <max_val1>9.7999999999999998e-001</max_val1>
  <training_params>
    <train_method>BACKPROP</train_method>
    <dw_scale>1.0000000000000001e-001</dw_scale>
    <moment_scale>1.0000000000000001e-001</moment_scale>
    <term_criteria><epsilon>9.9999999747524271e-007</epsilon>
      <iterations>5000</iterations></term_criteria></training_params>
  <input_scale>
    1.0694223922303016e-002 -2.2707055004971912e+000
    1.0385332683851469e-002 -2.1674261140300128e+000
    9.7823332340041588e-003 -1.9560266301900480e+000
    9.5102038651637515e-003 -1.8654526034356693e+000
    9.2769045196653601e-003 -1.7236482153098971e+000
    9.0373644429043842e-003 -1.5018824147348049e+000
    8.4147743737320695e-003 -1.1497224300564073e+000
    8.4213154666088735e-003 -9.8399860769856262e-001
    8.2622410753003198e-003 -8.4606768785332642e-001
    8.5503945042384958e-003 -7.8452753434131173e-001
    9.2034528857155469e-003 -7.1598961485054924e-001
    1.0076821125577546e-002 -5.7269115323779296e-001
    1.0581059576930651e-002 -4.9402419273232639e-001
    1.0350031561917947e-002 -5.3636097231728019e-001
    9.7962986210018629e-003 -5.7160881558167620e-001
    1.0103419533805088e-002 -5.3289072309648955e-001
    1.0648042552960011e-002 -5.2248266729691617e-001
    9.9916911531910228e-003 -5.6998998611978002e-001
    9.8535309028173115e-003 -5.8311543957463929e-001
    9.5959032022283220e-003 -6.1486979375093909e-001
    9.3930133541070982e-003 -6.7997396179443048e-001
    8.9961627305718602e-003 -7.8857296598014937e-001
    8.4043918650640471e-003 -9.4122142256472896e-001
    8.3351383601268213e-003 -1.0687445731186052e+000
    8.5423687486358008e-003 -1.2956357457123777e+000
    8.4107527105044509e-003 -1.3773460239389912e+000
    8.5220150829150437e-003 -1.4458844010153713e+000
    8.5317811245149266e-003 -1.4866042269844260e+000
    1.0200671921828863e-002 -2.1202685758404689e+000
    1.0557661566849490e-002 -2.1792923777884714e+000
    9.9738559391258485e-003 -1.9546408704741922e+000
    9.4473468627248296e-003 -1.6927048684326851e+000
    9.0654273044925050e-003 -1.4789557914295459e+000
    8.4835422935919461e-003 -1.1759349939156003e+000
    8.2933976025700278e-003 -1.0451845864179525e+000
    8.7156204373260993e-003 -1.1550261718901178e+000
    8.8950175352502207e-003 -1.3003492879325114e+000
    8.9682656568115179e-003 -1.2802422057641960e+000
    8.9344234977141047e-003 -1.2911467197134616e+000
    8.7745991364968964e-003 -1.1785691480563103e+000
    8.7581522307511143e-003 -1.1810638803890057e+000
    8.9507957923838366e-003 -1.3926893247212120e+000
    9.5136643119698144e-003 -1.5402443842273312e+000
    9.0225139912292057e-003 -1.3748010542535642e+000
    8.6347516413510100e-003 -1.1894398398438868e+000
    8.9616949746958025e-003 -1.3826829595893810e+000
    9.1300404177562106e-003 -1.3710875788223618e+000
    9.1512860537078418e-003 -1.2054741481563658e+000
    8.7198983511294226e-003 -1.0221967905894824e+000
    8.7823154733232735e-003 -9.7205373304323117e-001
    8.6373334634638824e-003 -1.0315695537858172e+000
    8.7869756021075694e-003 -1.2284364238951357e+000
    8.9999557044077010e-003 -1.4871666235744667e+000
    9.5587798384291160e-003 -1.7885155717162311e+000
    9.6913266773689839e-003 -1.7185063024577034e+000
    8.3774990253501960e-003 -1.4188005784498723e+000
    9.7276430114774850e-003 -1.9661885472282936e+000
    1.0066018230412945e-002 -1.9549533271854231e+000
    8.7683815256117455e-003 -1.4916474231383861e+000
    8.4533931267854797e-003 -1.1720389804637263e+000
    8.4873074205294059e-003 -1.0100387010885141e+000
    8.2004156320683273e-003 -1.0280002731354154e+000
    8.4530673450663486e-003 -1.2491618940689495e+000
    8.8977653853053226e-003 -1.4852158552728392e+000
    9.5428510103792701e-003 -1.7359646351800320e+000
    8.8953000600151509e-003 -1.5391073441959964e+000
    8.8450676655232874e-003 -1.4846513827550893e+000
    8.6882473730377704e-003 -1.3127300065715493e+000
    8.6367863817413022e-003 -1.2152474906639021e+000
    8.2157730996260704e-003 -1.1110661749596222e+000
    8.2926817788171389e-003 -1.0616942837957328e+000
    8.3868153632211586e-003 -1.1086178399613662e+000
    8.3705228740711801e-003 -1.1808883072036922e+000
    8.8389680877004884e-003 -1.4859951479770670e+000
    9.9750889235983957e-003 -1.8500547802101168e+000
    9.1336689640557928e-003 -1.6022886141822912e+000
    8.7259211900139032e-003 -1.4886277711623388e+000
    8.8102095500038127e-003 -1.4054214373558829e+000
    8.5550592720011545e-003 -1.2890636904708854e+000
    8.4988600796901681e-003 -1.1372268213267331e+000
    8.5607539798379321e-003 -1.2356108121697087e+000
    8.6208650577844978e-003 -1.3585078448797041e+000
    8.9865553209255312e-003 -1.4156863004658220e+000
    8.2490991902567767e-003 -1.3333012730436944e+000
    9.1541590070757951e-003 -1.6948621841019627e+000
    8.8992676213722061e-003 -1.4398382158872705e+000
    8.4199721690687238e-003 -1.1878846274780228e+000
    8.3448179093819456e-003 -1.0808681277604038e+000
    8.4523016941644435e-003 -1.1306503215385706e+000
    8.4326890357967980e-003 -1.2519155044044930e+000
    9.2130806773088256e-003 -1.5871411632046093e+000
    9.4258332278800011e-003 -1.6638955189000511e+000
    8.8385197614022325e-003 -1.4767247194937230e+000
    8.4975455507031381e-003 -1.2926173086976078e+000
    8.5330926686849416e-003 -1.2451077405177113e+000
    8.4830991105504464e-003 -1.1514873944489206e+000
    8.5020797817470066e-003 -1.1668331920497341e+000
    8.3712705605621246e-003 -1.1494413630004843e+000
    8.2880348024519622e-003 -1.0777947177681628e+000
    8.6734820968623026e-003 -1.1546987998123779e+000
    8.6108908493498833e-003 -1.2119979736363982e+000
    8.6768261620071181e-003 -1.3599181896547541e+000
    8.6017791403993765e-003 -1.3914803866731718e+000
    8.8896919646877706e-003 -1.4520869774485397e+000
    9.0919800928343300e-003 -1.5553200668311704e+000
    9.3478265587045584e-003 -1.6058603394175694e+000
    8.5401887302725028e-003 -1.3037200335644503e+000
    8.4507514485700624e-003 -1.1709047129205676e+000
    8.3918497545343463e-003 -1.1167435329039093e+000
    8.5920565078529392e-003 -1.1585508899717814e+000
    8.3709218007694073e-003 -1.1736373961066786e+000
    8.2269511220336017e-003 -1.2838411714922133e+000
    8.8313132329023627e-003 -1.5405244763897314e+000
    8.7080541561682830e-003 -1.2739962110878316e+000
    8.4246602971954250e-003 -1.1224078997190319e+000
    8.8486802847558988e-003 -1.2985212652695859e+000
    8.9198084534850598e-003 -1.3597456032143755e+000
    9.2146011117252031e-003 -1.5165085611671292e+000
    9.0701333081070860e-003 -1.5434979381075749e+000
    8.6264901896019684e-003 -1.3003809182755068e+000
    8.7430770547386200e-003 -1.0987254006865173e+000
    8.9055339762287109e-003 -1.0324417211911652e+000
    8.5263367026882173e-003 -1.0562556817748052e+000
    8.7641573123720465e-003 -1.1130074663761726e+000
    8.9738928323365389e-003 -1.2730463415278543e+000
    9.3429661210607893e-003 -1.4855144096831752e+000
    8.9361370230740585e-003 -1.3471953276601780e+000
    8.8898356839851242e-003 -1.2731767870276098e+000
    8.6078937715681151e-003 -1.2268219180631146e+000
    8.4869876938579083e-003 -1.1610272114885007e+000
    8.6340885623204730e-003 -1.0605922666593144e+000
    8.6984650934211535e-003 -1.1022725088169385e+000
    8.5192648202739706e-003 -1.1743842969982585e+000
    8.6928173442780577e-003 -1.3914141009452468e+000
    8.6502670814158824e-003 -1.3384162557084440e+000
    8.6262296437359474e-003 -1.2915854710755745e+000
    8.6267242348140767e-003 -1.1574692773043234e+000
    8.4942991588320901e-003 -1.0461314152898176e+000
    8.3075208899525809e-003 -1.1328884287081622e+000
    8.5378502301780360e-003 -1.3798203605403487e+000
    8.6111889900309085e-003 -1.4475806035392786e+000
    8.5670629420469668e-003 -1.2188600344874672e+000
    9.1201515020605459e-003 -1.3558986232248356e+000
    9.0151136804956337e-003 -1.4313289783082845e+000
    9.1586850492099952e-003 -1.4913413604710055e+000
    8.8073819554529732e-003 -1.4494295883383426e+000
    8.8381610787896941e-003 -1.2501134042498787e+000
    9.0125804933468556e-003 -1.0222629219908808e+000
    9.0061406501211402e-003 -9.3683532121332291e-001
    8.8445408671807071e-003 -9.4395187542072323e-001
    8.9758077993902317e-003 -1.1807795413890108e+000
    9.3818111821134930e-003 -1.3921585727826431e+000
    9.1002335457630434e-003 -1.4887506939037840e+000
    9.5698400810605710e-003 -1.7793932305751883e+000
    9.1377441065605310e-003 -1.5763170673459825e+000
    9.1170651314788128e-003 -1.4621214888375913e+000
    9.2285419203708176e-003 -1.3927218843901576e+000
    8.8316820632209844e-003 -1.2167782733963302e+000
    8.8781241938534240e-003 -1.1225941974971094e+000
    8.6179237361507441e-003 -1.0571433338176888e+000
    8.5964148593817066e-003 -1.1588918213340402e+000
    9.0886808541283132e-003 -1.4468844950900053e+000
    9.2135249452572933e-003 -1.5614746500427679e+000
    8.9785103120349780e-003 -1.4469964132160937e+000
    8.7373330319089892e-003 -1.2904979687817890e+000
    8.5572140111490960e-003 -1.1231694017171248e+000
    8.8200467567767053e-003 -1.2501699461915017e+000
    8.9685214880487318e-003 -1.5824423211511702e+000
    8.3426064399426611e-003 -1.3235574409833231e+000
    8.5541779920741672e-003 -1.2143497695686056e+000
    8.7839092532598795e-003 -1.2991718677302397e+000
    8.9237044226471614e-003 -1.3819647871112237e+000
    8.9131127576864491e-003 -1.3713289833208298e+000
    8.9506533868601943e-003 -1.3374971825564290e+000
    8.8152239852508224e-003 -1.1334491639371687e+000
    8.6781873362313747e-003 -9.5610776640053208e-001
    8.5747029360291552e-003 -9.4595449367012407e-001
    9.0496432269415120e-003 -1.1449867788531893e+000
    9.2390087205685683e-003 -1.4795597479602596e+000
    9.2992110172988099e-003 -1.6145443915105657e+000
    9.4688395029497389e-003 -1.7054619025312863e+000
    1.0971412195694086e-002 -2.2295264832842125e+000
    9.7198730121642474e-003 -1.8059782498352643e+000
    8.9972144557092220e-003 -1.5230045769882257e+000
    9.0327067785293917e-003 -1.4498118267353657e+000
    8.8985650725701658e-003 -1.3851371439985385e+000
    8.8859876332828651e-003 -1.2856893219314960e+000
    8.6324724011847005e-003 -1.1614080457945983e+000
    8.8295026976622486e-003 -1.2968834386621573e+000
    9.2295964991932766e-003 -1.5040958242377287e+000
    9.0139705087773584e-003 -1.5159182427041282e+000
    8.9225940416312564e-003 -1.4541507758870988e+000
    8.9613732430040352e-003 -1.4130665286038970e+000
    8.8798354079696294e-003 -1.2980751728883022e+000
    8.6337407866317970e-003 -1.2540359270253560e+000
    8.7954738967384906e-003 -1.5520233042592078e+000
    8.5093307037455365e-003 -1.4019347266733884e+000
    8.7652558416588932e-003 -1.3658059057024070e+000
    9.1384055981835171e-003 -1.5592061120573479e+000
    9.4126242038124266e-003 -1.6647828564264278e+000
    9.3297835825676585e-003 -1.6502235353374115e+000
    9.0581477974172250e-003 -1.5111049210089262e+000
    8.9920374072087177e-003 -1.3072483867465137e+000
    8.6979232923273340e-003 -1.1934018962123643e+000
    8.8186590117051988e-003 -1.2682135264198353e+000
    8.7400283749487911e-003 -1.2964979371426208e+000
    8.8149827354083495e-003 -1.4820049337016099e+000
    9.3604966388109757e-003 -1.6387639028215231e+000
    9.7993414235401175e-003 -1.8030395290053265e+000
    1.0365203758896350e-002 -2.0754287916520830e+000
    9.8189021305386693e-003 -1.8133781559010351e+000
    8.9214767134005672e-003 -1.4471470489063620e+000
    8.9848656023601946e-003 -1.4022020201105567e+000
    9.2362553994532210e-003 -1.5437961872710255e+000
    9.1025605755858802e-003 -1.4617359604850126e+000
    8.5795196923777479e-003 -1.1738614841740929e+000
    8.6470371541134301e-003 -1.3234907225047567e+000
    9.2312271156119417e-003 -1.5267131453714089e+000
    9.6863532020190334e-003 -1.7116610054656158e+000
    9.0381969321249294e-003 -1.5278297370746829e+000
    9.0152753221108273e-003 -1.4829064323769252e+000
    8.9320561162037453e-003 -1.3806184502182912e+000
    8.5439366976796226e-003 -1.2636557599158034e+000
    8.6902236870067141e-003 -1.5012933860570075e+000
    8.5228084968394496e-003 -1.4859259587232909e+000
    9.0798452599239951e-003 -1.5905074797573799e+000
    9.9596475478224006e-003 -1.9099854171604449e+000
    1.0120391158821363e-002 -2.0063449651069454e+000
    9.9988309776188680e-003 -1.9910185878515223e+000
    9.5289234858325633e-003 -1.7693468498439742e+000
    9.4966936673672852e-003 -1.6649410292547657e+000
    9.3546265362928309e-003 -1.5633959788337846e+000
    9.1869227154650138e-003 -1.5391977366537850e+000
    8.9394635152427130e-003 -1.4708394232141206e+000
    8.6388016581222145e-003 -1.4454015544741234e+000
    9.6145096478378635e-003 -1.7045432668600269e+000
    9.5306783778663969e-003 -1.7330957952232733e+000
    1.0634683512364355e-002 -2.1120083299439965e+000
    9.9480477226516709e-003 -1.8343027158839755e+000
    8.8234909820706763e-003 -1.4407638568732934e+000
    8.9771991679400819e-003 -1.3800848969037520e+000
    8.8211898389247631e-003 -1.4193156924163162e+000
    8.9360866150567913e-003 -1.3449254601676977e+000
    8.6346444036435408e-003 -1.2632887929173433e+000
    8.7477013291818086e-003 -1.3589700912759188e+000
    1.0588379290882875e-002 -1.9158166746643297e+000
    1.0065337025989964e-002 -1.9150814908029461e+000
    9.3439685776041479e-003 -1.6547086349553237e+000
    9.0663975002763016e-003 -1.5618503146693448e+000
    9.0587305797855677e-003 -1.5336034295431826e+000
    8.8374140065897704e-003 -1.4293295787828260e+000
    8.7580980277239730e-003 -1.5413496438286445e+000
    8.5427306730231807e-003 -1.4826747209487634e+000
    9.4394050643498359e-003 -1.7192718253764541e+000
    1.0178310681608370e-002 -1.9945144095455731e+000
    1.0761229528172586e-002 -2.2233125332804091e+000
    1.0934034640903889e-002 -2.2752275538637510e+000
    1.1014593259791818e-002 -2.2699572792272789e+000
    1.0608039792833925e-002 -2.0726197017322625e+000
    9.5921613500339360e-003 -1.7394487588656093e+000
    9.6515263032296520e-003 -1.7591436675288987e+000
    9.2584475841702742e-003 -1.5890603755421679e+000
    8.6422676184309908e-003 -1.4128908661781818e+000
    8.8233558894762181e-003 -1.4342787248176176e+000
    9.3527023668482905e-003 -1.6031542407740591e+000
    1.0354339647038432e-002 -1.9848416209396575e+000
    1.0144613122221749e-002 -1.8851041225024643e+000
    9.0545808869421304e-003 -1.4248714653708605e+000
    8.6408459982256804e-003 -1.2191251247190555e+000
    8.5585255406298959e-003 -1.2646817844614049e+000
    8.9081483556873071e-003 -1.2720681131380596e+000
    8.7311751274599236e-003 -1.2888069128184110e+000
    9.8781696572992003e-003 -1.7306360984590086e+000
    1.1196995732181338e-002 -2.2250815371907620e+000
    1.0346957930861567e-002 -1.9942121296696291e+000
    9.2128841711650051e-003 -1.6324174018660422e+000
    9.1950896860749625e-003 -1.6538626282464202e+000
    9.2654731775497334e-003 -1.6845722675380401e+000
    9.3655067218170341e-003 -1.6669317269547457e+000
    8.7211226074899711e-003 -1.5628297034025636e+000
    8.5558582693864519e-003 -1.4986393341386559e+000
    9.6820981380923501e-003 -1.7900149413432671e+000
    9.7461006416736974e-003 -1.8784163849594684e+000
    1.0562207796841760e-002 -2.1565293463774906e+000
    1.2025435138171147e-002 -2.5566608013434262e+000
    1.2452062827101533e-002 -2.6654998379328831e+000
    1.0608825695945571e-002 -2.1336730017662093e+000
    9.8380418617849408e-003 -1.9120184278525421e+000
    1.0521774859361465e-002 -2.0378557399548356e+000
    1.0303942005798754e-002 -1.8737584013884527e+000
    8.5564143967611743e-003 -1.3702677475348892e+000
    8.7605958924914639e-003 -1.2760202303655261e+000
    9.0344718648421567e-003 -1.4668556711272487e+000
    9.8013308088531273e-003 -1.8272481372791345e+000
    9.6310307522320879e-003 -1.7087094815537507e+000
    8.9462515593842426e-003 -1.3967962840604651e+000
    8.7311290588877027e-003 -1.2124882607077074e+000
    8.7905887650545963e-003 -1.2744391524336967e+000
    8.8981063505084879e-003 -1.3006245145258395e+000
    9.0618609570745461e-003 -1.4761573089556947e+000
    9.1652303338726447e-003 -1.5571320294195765e+000
    1.0173206934662327e-002 -1.8427583404472159e+000
    9.3033226975246276e-003 -1.5934091081323676e+000
    8.9432635264394249e-003 -1.5125551245560718e+000
    9.4339362625163060e-003 -1.7597028655740516e+000
    1.0323988199799133e-002 -2.0480161885759838e+000
    1.0311180720052779e-002 -2.0285587018590294e+000
    8.9775533094897993e-003 -1.6638818627706651e+000
    8.5275217573701073e-003 -1.4095029585507060e+000
    9.0142345394892999e-003 -1.5649985662216765e+000
    9.5203052709932224e-003 -1.7979670368039218e+000
    9.7353722190569123e-003 -1.8854988498852385e+000
    1.0419985437323354e-002 -2.0436239091039177e+000
    1.0379059201967888e-002 -2.0404553365942530e+000
    9.6613021557405039e-003 -1.8387523648214728e+000
    9.7419858973319205e-003 -1.8567176547116246e+000
    1.0194451091380738e-002 -1.8983113042205764e+000
    9.1695061171164979e-003 -1.5315178170328714e+000
    8.7962965763391139e-003 -1.2238520796283681e+000
    8.5572136640415190e-003 -1.1528031276017310e+000
    8.9239101950526947e-003 -1.2943652543530473e+000
    8.8356005929258030e-003 -1.4489265505957905e+000
    8.8233701315474020e-003 -1.3991072265510693e+000
    8.6086950605453929e-003 -1.2000476211192463e+000
    8.6025825689220129e-003 -1.0608252317176976e+000
    8.8057914699458881e-003 -1.3207213284305950e+000
    9.8997202545437236e-003 -1.7230641180436927e+000
    9.2937376543876602e-003 -1.5537786643235643e+000
    8.9593020819984538e-003 -1.3815729440713238e+000
    8.9413285280100039e-003 -1.3259036823266912e+000
    8.4579671906383370e-003 -1.2079968828007015e+000
    8.8837593184872051e-003 -1.4024367257813390e+000
    9.7890026374904560e-003 -1.8353209712218408e+000
    1.1006715820682852e-002 -2.2650547321783963e+000
    1.0152843135614830e-002 -1.9904499905441153e+000
    8.6579749539472863e-003 -1.5371287911650899e+000
    8.2401132003301434e-003 -1.3312463606135008e+000
    9.0818998936997158e-003 -1.6347016190004586e+000
    9.6478760429729513e-003 -1.8386197982292232e+000
    1.0427320703438240e-002 -2.0677666371388090e+000
    9.8617120825661517e-003 -1.8959986008427692e+000
    9.4281140577567781e-003 -1.7874719827291252e+000
    9.4124274940356623e-003 -1.6959283899997957e+000
    9.3962656833199050e-003 -1.6989394100031341e+000
    9.4236437308589591e-003 -1.6518508027688987e+000
    8.7565162765290572e-003 -1.3905915939820368e+000
    8.3619370143486506e-003 -1.1375207030763694e+000
    8.3698478053551954e-003 -1.0173957047874600e+000
    9.1975246178387024e-003 -1.3520762929341836e+000
    8.8621617458159944e-003 -1.4260381728595988e+000
    8.7400691396150847e-003 -1.3664230782934412e+000
    8.9183664568285251e-003 -1.3172241130567384e+000
    8.5286412896653768e-003 -1.1351480642584140e+000
    8.6246686225077366e-003 -1.2936383837851033e+000
    9.6495443189296478e-003 -1.6240285933367018e+000
    8.6425380313256191e-003 -1.2881011385225754e+000
    8.3436891568622155e-003 -1.1809510785697914e+000
    8.7263545321054001e-003 -1.2339829187959472e+000
    8.7681762432701479e-003 -1.3497307626744204e+000
    8.9723027279970374e-003 -1.4433137617736296e+000
    9.6427109299263500e-003 -1.7855927555907984e+000
    1.0358392455347714e-002 -2.0567734628644172e+000
    9.5496876986196598e-003 -1.7960314457355759e+000
    8.4047417954501002e-003 -1.4348056907747220e+000
    8.2880054888429221e-003 -1.3559848076346070e+000
    9.9720270722961427e-003 -1.9340960436214734e+000
    1.1011574394873205e-002 -2.2901097216393871e+000
    1.1060968256284961e-002 -2.3254750483501154e+000
    1.1229162033031578e-002 -2.3383545372035441e+000
    1.1259861743711803e-002 -2.3709799201569464e+000
    1.0916765915039650e-002 -2.2623992722063497e+000
    1.0221704759873591e-002 -2.0539180588383403e+000
    9.8860297780720956e-003 -1.8296935127426714e+000
    9.4930930630966852e-003 -1.5935331641283466e+000
    8.9079443967600702e-003 -1.4568153213288024e+000
    8.7291983415867195e-003 -1.3358124475365214e+000
    9.2373485171505024e-003 -1.5358300267460974e+000
    9.1231725177595563e-003 -1.6180455908101250e+000
    9.5009879919677707e-003 -1.7224446425110975e+000
    1.0320876211345436e-002 -1.9740825096248136e+000
    9.5046626636575721e-003 -1.6997594983663420e+000
    1.0194345486214267e-002 -1.9364786941744152e+000
    1.0749124182804885e-002 -2.1025795008332140e+000
    9.1464309757304137e-003 -1.5980212942331566e+000
    8.9648330177098078e-003 -1.4799784494469201e+000
    9.4310697947662409e-003 -1.5871430561328306e+000
    9.1578585011318006e-003 -1.5868298457588881e+000
    9.2494696664003947e-003 -1.6454034419063728e+000
    9.9152537172768947e-003 -1.8922136741214073e+000
    1.0162531159477170e-002 -2.0077271624447501e+000
    9.7334240461426670e-003 -1.8342984017567350e+000
    8.3778725426838490e-003 -1.3836056003136599e+000
    8.3366093458916001e-003 -1.3905820926129022e+000
    1.0222714566636341e-002 -1.9873346942365036e+000
    1.0977894423009348e-002 -2.2983403965767084e+000
    1.1434198337420933e-002 -2.4454819258031124e+000
    1.1634116919157615e-002 -2.4287160583729399e+000
    1.1743591925196200e-002 -2.5210338576552003e+000
    1.0790112361058004e-002 -2.2191198945718456e+000
    9.9452177144699859e-003 -1.8826722525652226e+000
    9.5915041565977875e-003 -1.7297378944693156e+000
    9.3961868228065008e-003 -1.5903512945384952e+000
    9.0294910049519735e-003 -1.4191863282220303e+000
    9.0905769797106472e-003 -1.3352954975907025e+000
    9.1195635278788906e-003 -1.4336423466632311e+000
    8.7426112500176324e-003 -1.4715550517218516e+000
    9.4996437305215637e-003 -1.6578569555676428e+000
    9.6635881953047887e-003 -1.7408258363844349e+000
    9.2330846657472775e-003 -1.5612502058868871e+000
    9.7329960222289433e-003 -1.7693041139657752e+000
    1.0853253423345494e-002 -2.0991233685970716e+000
    9.7014382387096334e-003 -1.7788972079101291e+000
    9.1097990995077007e-003 -1.5752126135285458e+000
    9.8382651757251832e-003 -1.7991999313443261e+000
    9.9829430510039781e-003 -1.8962635041466693e+000
    9.7642045418935373e-003 -1.7849419521715322e+000
    9.6214140413642991e-003 -1.7574881009796426e+000
    9.5837344252876367e-003 -1.7770160169003266e+000
    9.3293273408390290e-003 -1.6844711720983185e+000
    8.0950416272185279e-003 -1.2440982795148607e+000
    8.2213771599601426e-003 -1.3286379600713178e+000
    9.8555340311808539e-003 -1.8574686866223109e+000
    1.0375574497833563e-002 -2.0786290047062859e+000
    1.0058582868984747e-002 -1.9765067581259446e+000
    1.0178396277516431e-002 -1.9959953377748827e+000
    1.0387507121219356e-002 -2.1311306654494810e+000
    9.8236165265190856e-003 -1.8909030261895887e+000
    9.0093059989511757e-003 -1.6117206898199765e+000
    8.9770257369384803e-003 -1.5102603089035986e+000
    8.9086138685650126e-003 -1.3307738616192659e+000
    8.6799652644193627e-003 -1.0339150233597292e+000
    8.6752319967369519e-003 -8.8571182530350445e-001
    8.6513013737681277e-003 -1.0024121491077556e+000
    8.3215157702749443e-003 -1.0963015663324702e+000
    8.5218910742407405e-003 -1.2337487417193100e+000
    8.6244947581170395e-003 -1.2930583355849978e+000
    8.8851056494255697e-003 -1.2816334783161685e+000
    8.7720316881350398e-003 -1.3105808679317839e+000
    9.3064548536185773e-003 -1.5430402114369945e+000
    8.9051265922979288e-003 -1.4812572574450402e+000
    9.0007914613459972e-003 -1.5681538521873295e+000
    9.7934669193919677e-003 -1.8227673404288993e+000
    1.0240327210673016e-002 -2.0178067810705458e+000
    9.7048281008782957e-003 -1.8284849771343088e+000
    8.8855044995411209e-003 -1.5506423228044786e+000
    8.5750812329968076e-003 -1.3570557589337351e+000
    8.6141858930892067e-003 -1.2540709104223617e+000
    8.1079071128112180e-003 -1.1425567188654566e+000
    8.3684960790559523e-003 -1.3588808586213159e+000
    9.5979173602257772e-003 -1.7340686800289555e+000
    1.0001458045095188e-002 -1.9898297463841037e+000
    1.0746934452660867e-002 -2.2395843249577556e+000
    1.1005405140412691e-002 -2.2981704180758253e+000
    1.1918978289369227e-002 -2.5375419357248363e+000
    1.2365775426331885e-002 -2.6543718028954819e+000
    1.0896424139925436e-002 -2.1981272051004908e+000
    1.0174372250741090e-002 -1.8686787367286355e+000
    9.0460083942674845e-003 -1.4264245397838826e+000
    8.6638750088142494e-003 -1.1610449058455166e+000
    8.6644756136578984e-003 -1.0734011097488860e+000
    8.7740948087880483e-003 -1.2139372514759177e+000
    9.1381414384603087e-003 -1.5581962835605736e+000
    9.3793233298716285e-003 -1.6549611074549333e+000
    8.9676822557903796e-003 -1.4784573748995284e+000
    9.1000652114251804e-003 -1.3365648746193703e+000
    8.7115407427200836e-003 -1.2200393167030255e+000
    8.8237698908289666e-003 -1.2893729902933297e+000
    8.9322859343320821e-003 -1.4690115091155946e+000
    9.8709071853096859e-003 -1.8347962088754188e+000
    1.1055508054291731e-002 -2.2619774536331505e+000
    1.2054254337305394e-002 -2.6005081737583895e+000
    1.0965360172205028e-002 -2.1998167232505605e+000
    9.2095819894427774e-003 -1.6646407473413380e+000
    8.7129957367472356e-003 -1.4425947663557290e+000
    8.6034723112054547e-003 -1.2236284886416346e+000
    8.0853307670098479e-003 -1.0672548371128145e+000
    8.2222926308632548e-003 -1.3159928859229746e+000
    9.6916039411453180e-003 -1.7700079770101957e+000
    1.1502791776856560e-002 -2.4559707584885002e+000
    1.3805796326809273e-002 -3.1400482516076580e+000
    1.4044404568513233e-002 -3.1685560504449217e+000
    1.4367021717071460e-002 -3.2902014554343868e+000
    1.3585944590931855e-002 -3.0117712904803717e+000
    1.0704224390225019e-002 -2.1042198052684080e+000
    8.8583581004260063e-003 -1.4821366372084599e+000
    8.6243060043499024e-003 -1.3211812440440021e+000
    8.6179168889378918e-003 -1.3277459117560617e+000
    8.8079936962763370e-003 -1.3833409508490626e+000
    9.5241054782665927e-003 -1.6729975029383584e+000
    1.1055467606623074e-002 -2.2595669400519913e+000
    1.1324286536940169e-002 -2.3655878124724912e+000
    9.2276969219393327e-003 -1.5807653880577406e+000
    8.9333470435079849e-003 -1.3023358939521321e+000
    8.5261646245477288e-003 -1.1590255036494568e+000
    8.8975250515337719e-003 -1.2614923539240726e+000
    9.3939210534629038e-003 -1.6202716671145896e+000
    1.0264855951812358e-002 -2.0028252679878094e+000
    1.2141841498934767e-002 -2.5767341469933611e+000
    1.2835921133539404e-002 -2.8115211184894742e+000
    1.2298437769634364e-002 -2.6220261376150051e+000
    1.0340748318537272e-002 -2.0803254332119820e+000
    9.5581689292864626e-003 -1.7928653044356926e+000
    9.1690389665103449e-003 -1.4480926266984970e+000
    8.0214712487724268e-003 -1.1314533318870115e+000
    8.0722408397211343e-003 -1.2519704724834697e+000
    9.2154992674028744e-003 -1.6278871681763489e+000
    1.1945847355470329e-002 -2.5613956764621264e+000
    1.4636454549395612e-002 -3.3531994304759070e+000
    1.4182885106281566e-002 -3.2272587357459224e+000
    1.2623191604575548e-002 -2.7595302903746779e+000
    1.1107406013569002e-002 -2.2330757061475932e+000
    9.1027983629053833e-003 -1.5043377395472721e+000
    8.6462959404061401e-003 -1.2812613140109215e+000
    8.7774550434163868e-003 -1.3103865946415949e+000
    9.1173890989148347e-003 -1.5162311183686021e+000
    9.2020933221810559e-003 -1.5273401285080763e+000
    9.7749287959476485e-003 -1.7417568659836706e+000
    1.1642599689706375e-002 -2.4041500631176831e+000
    1.1280604228882512e-002 -2.2631750013839351e+000
    8.9545271763654486e-003 -1.4890001242547446e+000
    8.7437518116360961e-003 -1.3270163771813968e+000
    8.6956462718816331e-003 -1.2794121428789946e+000
    8.9936770396579595e-003 -1.3664802071260937e+000
    9.3703446858252205e-003 -1.6188720256725888e+000
    9.8003255355760335e-003 -1.8547512793340060e+000
    1.1286881688321294e-002 -2.2958472520018436e+000
    1.0415867276457871e-002 -2.0623530817308331e+000
    9.8701353817489176e-003 -1.9086619176447324e+000
    9.5851542428516782e-003 -1.8461584589429614e+000
    9.3639865184240619e-003 -1.7009314679683114e+000
    9.0370958026738269e-003 -1.4034863873841275e+000
    7.9319136095501140e-003 -1.0899299142323240e+000
    8.1388877952071302e-003 -1.2231690010853120e+000
    8.7218507783951241e-003 -1.4279160352891114e+000
    1.0239473494993229e-002 -2.0511038758316196e+000
    1.0793314239734316e-002 -2.2517276932161350e+000
    1.0736069026058937e-002 -2.1918622700582757e+000
    1.0069726097134067e-002 -1.9166973991881717e+000
    9.4406978372291277e-003 -1.6046874259901063e+000
    8.5572406366954904e-003 -1.1773709525545926e+000
    8.6715293195461646e-003 -1.2487167917613069e+000
    8.9026148351417020e-003 -1.4217315957991836e+000
    9.1381460260598728e-003 -1.5864708153565226e+000
    8.8306075097754257e-003 -1.4359281623727351e+000
    9.1498604203916877e-003 -1.5326224523343945e+000
    9.7415613904571988e-003 -1.7663446754669383e+000
    9.4738435147644282e-003 -1.7209675683789698e+000
    8.6149910870047097e-003 -1.4187803298398824e+000
    9.1502093411686986e-003 -1.5077244493891369e+000
    9.0605218827291539e-003 -1.5202088240601228e+000
    8.9599506984680242e-003 -1.4110942918416882e+000
    9.0161606615327839e-003 -1.5384995244723076e+000
    9.7167120914541209e-003 -1.7478329172050890e+000
    9.9960035645870055e-003 -1.8108442306629815e+000
    9.3709165995176074e-003 -1.7102391839757185e+000
    9.2709369541117154e-003 -1.6967403861118466e+000
    9.1191676530670493e-003 -1.6549282398683329e+000
    9.2946659372724061e-003 -1.6412206020597140e+000
    8.7583092746351798e-003 -1.3246592959613321e+000
    7.9474061052551646e-003 -1.0928733043906613e+000
    8.1779479435871126e-003 -1.2447836124522453e+000
    8.7752356093920500e-003 -1.4167696788812640e+000
    1.0170106523901202e-002 -1.9470238262733988e+000
    1.0265672816720341e-002 -2.0100798566923075e+000
    9.5756904633872569e-003 -1.7785016975872767e+000
    9.6607271094429330e-003 -1.7227907421600279e+000
    8.8740994201336864e-003 -1.3459923438970636e+000
    8.5928789785688683e-003 -1.1713503416036541e+000
    8.8093734107742190e-003 -1.2994227351335941e+000
    9.1455434810155719e-003 -1.5092708711176437e+000
    9.4543497167475458e-003 -1.6290664418101306e+000
    9.0170641290561720e-003 -1.4523718930343439e+000
    9.1433761908104646e-003 -1.4897575978232531e+000
    9.3378756598515595e-003 -1.6470193651709373e+000
    9.5125594773953284e-003 -1.7284587767475446e+000
    9.1098822225777563e-003 -1.5592664753489389e+000
    9.6906203437428142e-003 -1.7352300278269708e+000
    9.5096371854997992e-003 -1.7123942604455671e+000
    8.8978318737636935e-003 -1.3574077957517570e+000
    8.7604262206665111e-003 -1.2874467026378880e+000
    8.7921918561910343e-003 -1.3201683968593565e+000
    9.0574366867982731e-003 -1.4225016231222709e+000
    9.0469462655076820e-003 -1.5335989121478246e+000
    9.3556504581757561e-003 -1.6460277399344909e+000
    9.4336320460451026e-003 -1.7202088715932669e+000
    9.2974939755808977e-003 -1.5680721608156676e+000
    9.0172667022502921e-003 -1.3595310764984756e+000
    8.1048472079779752e-003 -1.1664489269673368e+000
    8.4435806962912703e-003 -1.2928983140729819e+000
    8.9510524738921366e-003 -1.3613617061312429e+000
    9.6093995342189636e-003 -1.6356346550118057e+000
    9.3002682538507585e-003 -1.6082110549060995e+000
    8.9250976357710850e-003 -1.4417152441841412e+000
    8.8488855673050804e-003 -1.3639870031630175e+000
    8.9979855005524103e-003 -1.3336782869084831e+000
    9.0227724017061719e-003 -1.3317262020792466e+000
    9.0509470432195028e-003 -1.3396974794359555e+000
    9.0624497315950365e-003 -1.4117309303397518e+000
    9.0185816372787761e-003 -1.4793091241314196e+000
    9.0373726800861923e-003 -1.4785719424805874e+000
    9.3381210756144275e-003 -1.5933966339032610e+000
    9.6975220424209332e-003 -1.7795075677927716e+000
    1.0364681961728548e-002 -1.9809351259595993e+000
    9.3974559462293786e-003 -1.6860325817243298e+000
    9.3938243274519582e-003 -1.6189713019063126e+000
    9.4335832082218570e-003 -1.5804562786973264e+000
    9.2688656943016035e-003 -1.3163547204641413e+000
    8.6399217865152471e-003 -1.0995356520532635e+000
    8.6141528532663481e-003 -1.1012535146938114e+000
    9.1955941264459853e-003 -1.4070804092044595e+000
    9.2296249293078291e-003 -1.5338080810227648e+000
    9.1134351710039311e-003 -1.5621350598704578e+000
    8.9680896962338417e-003 -1.4760029543351190e+000
    9.0165019929969552e-003 -1.4086333526119763e+000
    8.7289346277224164e-003 -1.3005514787436760e+000
    8.1619504497193150e-003 -1.2212223664388435e+000
    8.1695842795763418e-003 -1.1584968648469449e+000
    8.6327301050187800e-003 -1.2205607776018823e+000
    8.6274652170932851e-003 -1.2667806463148508e+000
    8.4439592926370873e-003 -1.2376148610295801e+000
    8.6184371391040959e-003 -1.3151498795906889e+000
    8.5670722922148168e-003 -1.3036032202571557e+000
    8.6611089280486907e-003 -1.2053361394170288e+000
    8.6588962464147837e-003 -1.1095473232598656e+000
    8.8902110233365882e-003 -1.1461008939912909e+000
    8.6836949562808328e-003 -1.1627961550825496e+000
    8.7938848510647170e-003 -1.3455611950772475e+000
    9.1109205938200623e-003 -1.4909317838935441e+000
    9.6028722811575627e-003 -1.7123521699504571e+000
    9.8419676754261283e-003 -1.9115238410683271e+000
    9.8642852651558127e-003 -1.8399147943182359e+000
    9.2328903715296756e-003 -1.5769391355815352e+000
    9.0146873535050208e-003 -1.3746588084550946e+000
    8.7338232804726364e-003 -1.2143871901227588e+000
    8.8673776911727814e-003 -1.1407155697498812e+000
    8.6652946555462254e-003 -1.0794237577821357e+000
    8.6475667223082173e-003 -1.1649132007596619e+000
    9.3559669540979919e-003 -1.5118684927376149e+000
    8.9654410504240722e-003 -1.5557676679707113e+000
    9.1844749077046872e-003 -1.5115160524170577e+000
    9.1023403778192347e-003 -1.4183585530797256e+000
    8.8992936656971250e-003 -1.3826478636312278e+000
    8.7082378530813753e-003 -1.3180978230794058e+000
    8.4392361060490247e-003 -1.3644684559083087e+000
    8.1348041272649128e-003 -1.1204579199242080e+000
    8.6492754116823702e-003 -1.1989640410815003e+000
    8.7866128163267675e-003 -1.2724278489600562e+000
    8.6655589189550790e-003 -1.2992121242719581e+000
    8.9157637540691146e-003 -1.4300972689819629e+000
    8.7896406049324458e-003 -1.4031823101412839e+000
    8.5395171221355950e-003 -1.2741966645694973e+000
    8.5619201410480524e-003 -1.1629001467832121e+000
    8.7575303176602726e-003 -1.0221529670669467e+000
    8.7266282177235234e-003 -1.0848604467796266e+000
    8.7830471397471726e-003 -1.2403044176689881e+000
    8.7316482126316205e-003 -1.2800674936354561e+000
    9.3245499756472779e-003 -1.5282067084238651e+000
    9.7966078017176633e-003 -1.7483981942274507e+000
    9.4895723954869504e-003 -1.5668723105978597e+000
    8.9711084464274230e-003 -1.2467276690578715e+000
    8.6249509318854604e-003 -1.0256323881795333e+000
    8.3804949772796726e-003 -1.0584718107931690e+000
    8.5986014414568789e-003 -1.1203083918756045e+000
    8.6910882480533466e-003 -1.2298629374260190e+000
    8.6276370643510111e-003 -1.3602529849116136e+000
    8.8778734502387713e-003 -1.4704816650389991e+000
    8.9708820481602287e-003 -1.4086108976995413e+000
    8.8367270343835558e-003 -1.2928605217163076e+000
    8.7320036574576737e-003 -1.3154809181960863e+000
    8.6682416921719588e-003 -1.2909340815080128e+000
    8.6634659934808154e-003 -1.3395556381869729e+000
    8.9365664487619598e-003 -1.6209352500915046e+000
    7.9992624062420227e-003 -1.0188346244450417e+000
    8.4175852539974463e-003 -1.1111695673252771e+000
    8.6110528067135841e-003 -1.2731026972145472e+000
    8.5177486378889868e-003 -1.2785178731134930e+000
    8.3891781843154940e-003 -1.2624094664113266e+000
    8.4815988574446690e-003 -1.3337625279805485e+000
    8.9643353640515219e-003 -1.5030412045663311e+000
    8.6692834855418566e-003 -1.3245882857923814e+000
    8.3403855097499580e-003 -1.1529997710398452e+000
    8.4966075669510206e-003 -1.1542760287498335e+000
    8.4573228858220682e-003 -1.0675482348063348e+000
    8.5122963838029416e-003 -9.5787763731032027e-001
    8.4993041111387554e-003 -1.0433532353245323e+000
    8.5047636287596123e-003 -1.1542654126644845e+000
    8.3297897158137301e-003 -1.0687417614559638e+000
    8.5244498116849188e-003 -9.9494273293779245e-001
    8.5871892002341906e-003 -1.0535462824662138e+000
    8.4087829786044406e-003 -1.1441951124458187e+000
    8.9528494729197265e-003 -1.4213148351970195e+000
    8.8348341170214322e-003 -1.4629453975661866e+000
    8.8272845689433155e-003 -1.5008143339312641e+000
    8.8458025088061915e-003 -1.4220065215544253e+000
    8.4562431817731005e-003 -1.1496621765296091e+000
    8.3935276779404898e-003 -1.0311111609598373e+000
    8.5131770561664693e-003 -1.0707505450275450e+000
    8.5861375331593437e-003 -1.2542851421168351e+000
    8.8868560158211259e-003 -1.4694130368719966e+000
    9.2358981017965601e-003 -1.7282409305382829e+000
    8.0684194819899621e-003 -1.0941020115187354e+000
    8.4887963512267264e-003 -1.0969300044400234e+000
    8.4667774384100999e-003 -1.2800978130631391e+000
    8.6240591058022419e-003 -1.3323636692542897e+000
    8.6903482545785827e-003 -1.3552768962853641e+000
    8.6329579469212239e-003 -1.4039361365425835e+000
    8.9023191698963614e-003 -1.4819216370975474e+000
    8.6705877184863073e-003 -1.4804853865298171e+000
    8.9338544033270503e-003 -1.5169126945739431e+000
    9.0745847980771947e-003 -1.4827222375197080e+000
    8.7200345791475543e-003 -1.3301111401277914e+000
    8.3853365591693863e-003 -1.0681163180903448e+000
    8.3688436087226911e-003 -1.0577408068264798e+000
    8.4255704850876318e-003 -1.1362661224214410e+000
    8.3166046497214971e-003 -1.0435489451167734e+000
    8.5647165298517111e-003 -1.0236255915370633e+000
    8.7081395978430079e-003 -1.3156166972813537e+000
    9.0761204080829164e-003 -1.5860999481337632e+000
    9.4968707100642931e-003 -1.7531972150955675e+000
    9.4108391926901076e-003 -1.7351801076363433e+000
    9.0472260830990591e-003 -1.5432871570556030e+000
    8.6813575067327536e-003 -1.2356608683392263e+000
    8.2869623889041087e-003 -9.6926264047716837e-001
    8.4209443556881730e-003 -9.6550476692872167e-001
    8.3715558289702979e-003 -1.1685809099275606e+000
    8.9693100314407210e-003 -1.4848330710826150e+000
    9.1931856714090095e-003 -1.6804156756502948e+000
    9.3373646289426557e-003 -1.8208914376549767e+000
    8.0253201113277446e-003 -1.1715068322687703e+000
    8.4718989154318365e-003 -1.2093063896414742e+000
    8.5370728537900020e-003 -1.2449418347038677e+000
    8.5150373580831877e-003 -1.1195534981096165e+000
    8.8502233424899053e-003 -1.1465124432636267e+000
    8.7228110326434440e-003 -1.1672530138764159e+000
    8.7748085420116875e-003 -1.2579858083799964e+000
    8.7103793031830419e-003 -1.2860257482469450e+000
    9.2294103917111119e-003 -1.4574444098562018e+000
    9.2121732707771582e-003 -1.4552920451833788e+000
    8.7648252167109742e-003 -1.3701257363889938e+000
    8.6873071035050604e-003 -1.2487182116935658e+000
    9.0110269951550210e-003 -1.3360421137886049e+000
    9.4741607915905506e-003 -1.5711474721284950e+000
    9.1832089480524629e-003 -1.4328421787901524e+000
    8.8310413513187202e-003 -1.2113615702253766e+000
    8.8412489924920203e-003 -1.2024793585562055e+000
    9.1281357931780622e-003 -1.4232294135272121e+000
    9.1522395262736249e-003 -1.4810297740510461e+000
    8.9655844092433705e-003 -1.3473247569183588e+000
    8.6399230497105819e-003 -1.1721338721806456e+000
    8.3354042276005905e-003 -1.0187992345063852e+000
    8.3092950628640711e-003 -1.0731470045438338e+000
    8.8123046578728517e-003 -1.3728480523240099e+000
    9.3947326908771795e-003 -1.6704485002083334e+000
    1.0200925313142040e-002 -1.9857301854650933e+000
    9.5900283570057986e-003 -1.8593513031438951e+000
    9.2398790213081752e-003 -1.7959930772392050e+000
    8.6825144935949953e-003 -1.4443768768731107e+000
    8.2771241374110845e-003 -1.2126305514603883e+000
    8.0989124901109256e-003 -1.1081871793099498e+000
    8.3249744631696508e-003 -9.9232708685500093e-001
    8.5320940750043192e-003 -8.5280904411608205e-001
    8.7363376737824676e-003 -7.6696767083292505e-001
    8.9029955448130596e-003 -7.1121857997352722e-001
    9.1652621896570995e-003 -6.9131501074527313e-001
    9.2243870998319592e-003 -6.6317502929961092e-001
    9.4788564353687349e-003 -6.2535004099603697e-001
    9.6815526153403234e-003 -6.0907192248752440e-001
    1.0217996478790349e-002 -5.9232218122256186e-001
    9.7062795536012880e-003 -5.8555714288323557e-001
    9.4771964390181155e-003 -5.8081301606447644e-001
    9.8425994211868879e-003 -5.9339768845932062e-001
    1.0532837407603341e-002 -5.3206264808018744e-001
    1.0463339390360786e-002 -5.4802072973899862e-001
    9.4266355622710987e-003 -6.1185967833256716e-001
    9.0792457937231789e-003 -6.6369344125452623e-001
    8.8548474514446029e-003 -7.3865701794421779e-001
    8.6234568973348261e-003 -8.5419845467085853e-001
    8.4834774734481276e-003 -9.8493775844037446e-001
    8.5266420929715533e-003 -1.2287996724081545e+000
    8.5909321035987918e-003 -1.4184401983798884e+000
    8.7786676096690535e-003 -1.5509353062907423e+000
    9.0600980658090916e-003 -1.6815423096446411e+000
    9.4007615436187287e-003 -1.7988367436828534e+000
    9.7639460328587287e-003 -1.9600293289453317e+000</input_scale>
  <output_scale>
    5.2631578947368418e-001 4.9999999999999994e-001
    5.2631578947368418e-001 4.9999999999999994e-001
    5.2631578947368418e-001 4.9999999999999994e-001
    5.2631578947368418e-001 4.9999999999999994e-001
    5.2631578947368418e-001 4.9999999999999994e-001
    5.2631578947368418e-001 4.9999999999999994e-001
    5.2631578947368418e-001 4.9999999999999994e-001
    5.2631578947368418e-001 4.9999999999999994e-001
    5.2631578947368418e-001 4.9999999999999994e-001
    5.2631578947368418e-001 4.9999999999999994e-001
    5.2631578947368418e-001 4.9999999999999994e-001
    5.2631578947368418e-001 4.9999999999999994e-001
    5.2631578947368418e-001 4.9999999999999994e-001
    5.2631578947368418e-001 4.9999999999999994e-001
    5.2631578947368418e-001 4.9999999999999994e-001
    5.2631578947368418e-001 4.9999999999999994e-001
    5.2631578947368418e-001 4.9999999999999994e-001
    5.2631578947368418e-001 4.9999999999999994e-001
    5.2631578947368418e-001 4.9999999999999994e-001
    5.2631578947368418e-001 4.9999999999999994e-001
    5.2631578947368418e-001 4.9999999999999994e-001
    5.2631578947368418e-001 4.9999999999999994e-001
    5.2631578947368418e-001 4.9999999999999994e-001
    5.2631578947368418e-001 4.9999999999999994e-001
    5.2631578947368418e-001 4.9999999999999994e-001
    5.2631578947368418e-001 4.9999999999999994e-001
    5.2631578947368418e-001 4.9999999999999994e-001
    5.2631578947368418e-001 4.9999999999999994e-001
    5.2631578947368418e-001 4.9999999999999994e-001 1. 0.
    5.2631578947368418e-001 4.9999999999999994e-001
    5.2631578947368418e-001 4.9999999999999994e-001
    5.2631578947368418e-001 4.9999999999999994e-001
    5.2631578947368418e-001 4.9999999999999994e-001
    5.2631578947368418e-001 4.9999999999999994e-001 1. 0.</output_scale>
  <inv_output_scale>
    1.8999999999999999e+000 -9.4999999999999996e-001
    1.8999999999999999e+000 -9.4999999999999996e-001
    1.8999999999999999e+000 -9.4999999999999996e-001
    1.8999999999999999e+000 -9.4999999999999996e-001
    1.8999999999999999e+000 -9.4999999999999996e-001
    1.8999999999999999e+000 -9.4999999999999996e-001
    1.8999999999999999e+000 -9.4999999999999996e-001
    1.8999999999999999e+000 -9.4999999999999996e-001
    1.8999999999999999e+000 -9.4999999999999996e-001
    1.8999999999999999e+000 -9.4999999999999996e-001
    1.8999999999999999e+000 -9.4999999999999996e-001
    1.8999999999999999e+000 -9.4999999999999996e-001
    1.8999999999999999e+000 -9.4999999999999996e-001
    1.8999999999999999e+000 -9.4999999999999996e-001
    1.8999999999999999e+000 -9.4999999999999996e-001
    1.8999999999999999e+000 -9.4999999999999996e-001
    1.8999999999999999e+000 -9.4999999999999996e-001
    1.8999999999999999e+000 -9.4999999999999996e-001
    1.8999999999999999e+000 -9.4999999999999996e-001
    1.8999999999999999e+000 -9.4999999999999996e-001
    1.8999999999999999e+000 -9.4999999999999996e-001
    1.8999999999999999e+000 -9.4999999999999996e-001
    1.8999999999999999e+000 -9.4999999999999996e-001
    1.8999999999999999e+000 -9.4999999999999996e-001
    1.8999999999999999e+000 -9.4999999999999996e-001
    1.8999999999999999e+000 -9.4999999999999996e-001
    1.8999999999999999e+000 -9.4999999999999996e-001
    1.8999999999999999e+000 -9.4999999999999996e-001
    1.8999999999999999e+000 -9.4999999999999996e-001 1. 0.
    1.8999999999999999e+000 -9.4999999999999996e-001
    1.8999999999999999e+000 -9.4999999999999996e-001
    1.8999999999999999e+000 -9.4999999999999996e-001
    1.8999999999999999e+000 -9.4999999999999996e-001
    1.8999999999999999e+000 -9.4999999999999996e-001 1. 0.</inv_output_scale>
  <weights>
    <_>
      -5.4482920412221674e+001 -8.1787859775678359e-002
      4.4089738462958911e-002 -1.2757104053322429e-001
      2.2107186768063330e-001 -3.8111025869652426e-001
      -1.9607374517888598e-001 3.9770453833354741e-001
      1.8815644168912316e-001 3.4432037256618649e-002
      4.8253408428022622e-002 3.8385472809046896e-002
      -2.1718892130606141e-001 -4.8811457108009909e-003
      1.9235166127701603e-001 -1.1720768753396591e-002
      2.4516029839932642e-003 1.0174678994369930e-001
      6.3275197315498008e-002 -1.3735544403780359e-001
      -1.4046030925133743e-001 -8.4179836895339005e-002
      1.3599101497437430e-001 5.7267006157027844e-002
      -1.8983682906126914e-001 -9.4190367123608301e-002
      5.5628136469771045e-003 -1.6115861657706063e-001
      -7.0315579706006284e-002 3.4439659506958931e-001
      -3.4467348279812279e-002 -1.5657611474114340e-002
      -8.2217564664031392e-002 1.5336497220336842e-001
      1.5718779565264582e-001 -4.9971868380122785e+001
      -9.3155706571096064e-002 4.1589018543845814e-002
      -1.8530739053092274e-001 1.6564420035610122e-001
      -3.5762835173597635e-001 -1.9753972640207085e-001
      3.7368851137718617e-001 2.1033510517241050e-001
      -6.3610866306272607e-002 6.9664599656082529e-002
      2.3454199922760880e-002 -2.0576571227363752e-001
      -2.0792217293761742e-002 2.1459254796769270e-001
      2.4479855201696269e-002 -1.0486313369933201e-002
      9.6219243466424936e-002 8.1422880899672201e-002
      -1.3900080074923638e-001 -1.2244555704553889e-001
      -1.1058349334664655e-001 1.7767435123410025e-001
      7.5594024475640190e-002 -1.9525275560947994e-001
      -8.9120026567981930e-002 3.2843501208796116e-003
      -1.6109110097095752e-001 -6.7376497690791320e-002
      4.0276782186235760e-001 -1.7672373658612680e-002
      1.1662332873635691e-002 -5.0152576115239371e-002
      1.5782345025925973e-001 1.2383100455263264e-001
      -4.9869025451691826e+001 -3.2117185553576968e-002
      1.8232995925070123e-002 -3.0560704050022053e-001
      -1.0111850727407599e-001 -3.1172195632670668e-001
      -2.1060934697450232e-001 3.5085938652921056e-001
      2.6168183833762176e-001 -1.7272009823894480e-001
      4.2467354021340234e-002 -3.2476792548577306e-002
      -1.8893415505217667e-001 -6.2387318470140264e-002
      2.5319530109930971e-001 2.2218307125409478e-002
      -7.0552946915509715e-002 4.7004773750625277e-002
      1.3788433483039345e-001 -1.6473961370274098e-001
      -1.4287551217495711e-001 -2.5609188134140959e-001
      2.3232571882976641e-001 1.0014010165844953e-001
      -1.8456657609288341e-001 -2.4806868910215409e-002
      -2.9805082433688379e-003 -2.0794604795517915e-001
      -4.7296089191996106e-002 4.7854743898419888e-001
      3.5631939666021305e-003 1.0620684660969254e-001
      1.1909463562604913e-001 2.2813116769806027e-001
      1.6816791816304130e-002 -5.0411617248462491e+001
      -1.2751570267819864e-001 -9.3672285377997266e-003
      -3.0608984208346807e-001 -2.7635238718022992e-001
      -3.9432228233171235e-001 -1.5080107348849639e-001
      9.8103981025364981e-002 1.4966062472004205e-001
      -2.2433337127247904e-001 1.8213122419900110e-001
      -9.9386369356297593e-004 -5.7525376069878398e-002
      -1.2813744831196180e-001 1.3562660624074369e-001
      1.0764182165157992e-002 -5.7197368668565195e-002
      1.9380836641075209e-002 9.7524679994490295e-003
      -1.6539938552185673e-001 -1.1849468790010143e-002
      -2.7611541320652316e-001 1.2925020626331557e-001
      2.5116501903511473e-002 -1.4792837714663742e-001
      3.5936067624874883e-002 6.8757324895908963e-003
      -1.3796794031200171e-001 -1.2014611915368098e-001
      4.5973248666782646e-001 -8.7859970904891546e-002
      9.3072052762657953e-002 2.7612254088539256e-001
      2.1887415460206538e-001 -3.6654504857320601e-002
      -7.0574175121404835e+001 -2.4579396403842035e-001
      -9.9240908517367332e-002 -6.6279622603042626e-002
      -3.4314951853632197e-001 -4.0416911476537848e-001
      -9.4568428743814867e-002 -2.2767041034355814e-001
      -8.2102193268332291e-002 -3.6133870161863918e-001
      3.0722001148499012e-001 9.0428854955652178e-003
      6.5797524082816278e-002 -8.9295840706902926e-002
      -4.2695386293964903e-002 1.4926677688056547e-002
      -3.6598558412613752e-002 2.7331756165987191e-002
      -1.6156986019413536e-001 -1.3414962781221401e-001
      1.6464802597505149e-001 -2.2074156749333065e-001
      -9.3461659891865570e-002 -4.2093275038168239e-002
      -5.0016973364979171e-002 4.0144495359728069e-002
      -1.0819992060577409e-001 -8.9059191944284063e-002
      -1.9377888982952424e-001 3.6232976025812957e-001
      -2.8075350009835032e-001 7.7880952785156776e-002
      4.0216888742764273e-001 3.4188356569143132e-002
      -9.7780065091254684e-002 -7.7869421270686274e+001
      -2.0294182751657475e-001 -5.4495774135136732e-002
      -4.6929164781702511e-002 -2.3660576710146841e-001
      -3.3558576451342303e-001 -1.3077117282606382e-001
      -7.1349951278574325e-002 -2.3464717391362612e-002
      -2.3253805444117054e-001 1.1057807447936972e-001
      -2.1277402125107866e-002 -3.3866815087849556e-002
      -1.4876408790051365e-001 -5.0073493753144821e-002
      8.1586742901676411e-003 -1.9347174638015812e-002
      4.3723256511054666e-002 -6.6426087726511415e-002
      -1.4656954488224455e-001 2.0091397967457132e-002
      -8.9528875280946524e-002 -3.3535822165587419e-002
      8.6108276272452169e-002 -7.1768309857484738e-002
      -2.2901432522298891e-002 -2.3696899025674883e-002
      -7.7043675634790545e-002 -8.5966750904687222e-002
      2.7449735441672202e-001 -2.8207538765663537e-001
      3.4875126271009166e-002 3.0965776712694992e-001
      -4.0600075355420942e-002 -6.1211140566880214e-002
      -7.2855700411555176e+001 -1.6993951150071934e-001
      -1.4714343000011446e-001 -6.1283861224501718e-002
      -5.8531413524972917e-002 -3.9680563417122527e-001
      -1.8193315310713271e-001 1.0343923213896462e-001
      6.0916113772998236e-002 -2.0825675062284715e-001
      -8.4579577708283477e-002 -7.6664298753787621e-002
      -1.5318296909066226e-001 -1.7022501331092180e-001
      -3.6538682505254272e-002 1.0692255422728699e-002
      -9.4984271194372222e-002 6.6287243528982701e-002
      -4.8318935798193838e-002 -1.4485674144179925e-001
      -1.2400412387139627e-001 -1.3880088396658688e-001
      7.9776234196525575e-002 1.6614290958305841e-001
      -1.5523062583313493e-001 -1.4652314940748778e-001
      -6.6500087862656321e-002 -1.7280130981977354e-001
      4.5745745351281779e-002 3.0185995985432551e-001
      -1.5692411918171320e-001 -6.1977559056345853e-002
      1.7106653408041589e-001 2.1576137341502623e-002
      -5.4176585885961658e-002 -6.9689153620999249e+001
      -1.4845729760050580e-001 -2.2575564104254889e-001
      -1.4957074168157664e-001 1.0983855622744763e-002
      -4.5151943491501617e-001 -1.6761103569675734e-001
      2.1943134975668327e-001 8.0019481099457543e-002
      -2.2432405595861094e-001 -4.6524589154169245e-002
      1.6951510100994979e-002 -2.7647526398846850e-001
      -1.8357058424750181e-001 3.4107810356912836e-003
      8.2735942827235330e-004 -1.2812888706583803e-001
      1.1677093844074274e-001 4.9437452632889310e-002
      -1.4364964420169235e-002 -1.5852809063987833e-001
      -2.6123461767791334e-001 1.2460351617426722e-001
      1.5119977950994876e-001 -1.3518161081409055e-001
      -2.7892031448223631e-001 -1.0848774506271411e-001
      -2.9301932318742652e-001 9.9453256604575435e-002
      1.3590824720510358e-001 1.5943662195033435e-002
      -5.9366664966592118e-002 2.0212186426696943e-001
      -3.8419334445419992e-002 -6.3093181738443249e-002
      -3.5501906868883907e+001 -2.1374698318344917e-001
      -2.4182421230196208e-001 -7.6117155267162798e-002
      -1.2897243324335894e-001 -5.0823557829569987e-001
      -9.9005018383618124e-002 5.9653064006381287e-003
      -4.4483792312305310e-003 -3.4208585645592449e-001
      4.2980744733340022e-002 3.8944253802293501e-002
      -1.1361609510624318e-001 -9.8352774951441915e-002
      -1.0277609869277743e-001 1.4761350937593301e-002
      -8.3873152189675726e-002 2.0900170224766643e-001
      1.2420134133612579e-001 5.3629151340741907e-002
      -5.0332331412301153e-002 -2.8329614545954263e-001
      3.3204269111088945e-002 1.0368651166290124e-001
      -1.9692212996577974e-002 -2.8475291605671893e-001
      -2.0659032113110093e-001 -2.0223483304640566e-001
      5.3438944124368795e-002 -3.9978404845936427e-002
      -1.5410998916535393e-002 -8.2697562860526833e-002
      2.7000573553874291e-001 -4.9464260706115690e-002
      -1.2432084708762829e-002 -1.1886603194961102e+001
      -1.8072979671128667e-001 -1.9555488587134870e-001
      -7.4922699813705654e-002 -3.8385940142557196e-001
      -4.6192030351376095e-001 5.3919595233241038e-002
      -3.2079754010078793e-001 -2.1157850760911290e-001
      -4.0849548537270436e-001 5.8970846401764185e-002
      1.1428043231049262e-001 7.9653593674615386e-002
      -1.5290159830020944e-001 -2.4486878566773890e-001
      2.7578595775004752e-002 -2.2115139430571692e-002
      2.1885771279028945e-001 8.8086910679272754e-002
      2.0287338911930763e-001 1.0828187514213856e-001
      -2.6949672161059013e-001 -1.1904323322241601e-001
      -5.4701980568811218e-002 1.7547349290379946e-001
      -2.5960092966166254e-001 -1.2577311167342273e-001
      -2.1910280330008072e-001 -9.9309389256182365e-002
      -2.2988028628275867e-001 -8.8756145592950614e-002
      1.6199155557374275e-002 4.7320967336066622e-001
      -1.0315862204941659e-001 5.7374132682711382e-002
      -3.0818802263164660e+000 -1.4460379918053123e-001
      -1.4607570437569822e-001 -1.8600696063935468e-002
      -4.5717759014032966e-001 -3.3403921065444331e-001
      -2.4131331839526440e-002 -2.1800040788221292e-001
      -9.5857884965077925e-002 -3.1997138054938923e-001
      4.6446611792487803e-002 4.5650202702063158e-002
      -8.6939080256772053e-003 -2.0315711318654020e-001
      -1.4846245273418776e-001 -1.4801477504744898e-001
      -4.7681979458898106e-002 1.3504966502778715e-001
      7.5221748088851556e-002 4.5304748935795824e-001
      1.4564830808485876e-001 -2.4501914785984993e-001
      2.9588319466207002e-002 2.8630901513009501e-003
      9.9015830882743849e-002 -1.8706092077240066e-001
      -6.3230121277304333e-002 -2.9902173896959222e-001
      -8.9456721773379336e-002 -3.4080325362936120e-001
      4.9354407361836161e-002 -5.4327580059628906e-002
      3.8896984588718864e-001 7.7396409747156433e-002
      3.9413673784445165e-002 1.7017499863400836e+001
      -1.4350581076604690e-001 -1.1910640295180848e-001
      -1.1409888380389355e-001 -3.4626323816796045e-001
      -1.0431242918241516e-001 3.8907461201401240e-002
      -1.2106803535297615e-001 2.5586506717752887e-002
      -3.7343213615992149e-001 3.6987130665092578e-002
      7.7171103470956320e-002 -5.8172788098014634e-002
      -2.7264355475360641e-001 -2.9906913448638293e-002
      -1.9521399677581697e-001 -8.2287194373156555e-002
      -2.2685328272790295e-002 -8.4846443578312808e-002
      3.5114532595975229e-001 6.0367411013939248e-002
      -1.9297533219808877e-001 1.6444139099078731e-001
      5.4750868558989571e-002 9.5427685085472044e-002
      -3.1660803367753310e-001 3.6765834223403430e-003
      -3.3741746495977010e-001 1.4958504187461000e-001
      -3.1218165881425697e-001 1.7461571306678311e-001
      -9.1182191788657316e-002 3.0486054329915696e-001
      2.2911226901787413e-001 -8.8843687254007764e-002
      -2.1182530139654627e+001 -1.3423409077097170e-001
      -1.2385572189835217e-001 -1.9531321955701553e-001
      -4.8276739415285647e-001 -5.6312232891338430e-002
      1.9858735232461391e-001 -1.4769356540552084e-001
      -1.2818150180922569e-001 -4.0422850407383026e-001
      1.0921409665605640e-001 1.2005623136240490e-001
      4.9491315291903211e-002 -4.1078258758953323e-001
      4.1144938911243337e-002 -1.1061551175797885e-001
      4.6579886911104840e-003 -1.4266827054873923e-001
      -1.6621442454585780e-001 1.4676460075264880e-001
      2.0292941963871000e-001 9.2824643900557377e-002
      2.5246605267575210e-002 -7.1134650059217736e-002
      2.1244752011345294e-001 -7.7121725106020236e-002
      4.1374140084817372e-002 -2.1351067570423338e-001
      9.2183700967691004e-002 -2.8593832550345122e-001
      1.7820657377327442e-001 4.2439560300242499e-002
      3.9023024286830699e-001 1.8163372633630631e-001
      -1.6957718695856042e-001 -5.4434265553022534e+001
      1.7184554894607476e-003 -5.4502779473974264e-002
      -2.1353675897682634e-001 -3.6022589698168639e-001
      -7.3761225498374869e-003 3.3859002791771578e-002
      1.0591663334042004e-001 8.0838094699945934e-002
      -4.0484569262459086e-001 6.7452436466719876e-002
      4.2656962868710159e-002 -1.3423799168496156e-001
      -3.2464465648514662e-001 2.2344199803240408e-001
      -1.6167485051319139e-001 -5.4319024389781527e-002
      -1.5762238295347455e-001 -7.5875853236861260e-002
      1.0005083207753059e-001 1.2362794288181998e-001
      6.6933065080384121e-003 2.1669459708136157e-001
      7.9930860874469919e-002 6.4684713898384608e-002
      4.7369448932959198e-002 -9.0007896184819372e-002
      -1.0209102626917271e-001 2.8364510256297926e-001
      -3.0631010731788771e-001 3.3312872962652129e-001
      -1.3236726832814452e-002 2.2217647310026303e-001
      3.2466384480467148e-001 -5.1221276633697230e-002
      -7.2858847381797915e+001 1.2234026704115864e-003
      1.5957480654942467e-003 -1.9398612431107179e-004
      -3.4239135089889983e-001 3.2094607507609098e-002
      -1.3961654504887938e-001 3.2463396070774542e-001
      2.4084839915882802e-001 -3.9036557365709029e-001
      6.4875269275994671e-002 -5.9177372517528352e-002
      -3.1808057967492137e-001 -2.9022248656858834e-001
      3.1550574131350112e-001 -1.9378755950027296e-001
      -4.2185630939114913e-002 -1.8516805818618362e-001
      1.4775107875514629e-002 1.2380681035711945e-001
      3.1292099158246420e-002 -9.3311336184089974e-002
      3.8378699686880902e-001 2.5573414148339313e-001
      -1.9929642285256804e-001 1.7050998017194080e-001
      -2.2952382964345924e-001 -4.7968461036283855e-002
      3.3022966490989236e-001 -3.3512012912223521e-001
      4.1044526633433398e-001 -2.2473066170651403e-002
      1.9903041038046663e-002 3.6442907964579985e-001
      -7.2844515998823980e-002 -6.1718697035753493e+001
      -1.0556943648041076e-001 4.8655595139579969e-002
      8.0637742860108386e-002 -3.0847208748417765e-001
      -1.8011362653405239e-002 -1.9498125053387627e-001
      3.8406636946775102e-001 2.5389766162267768e-001
      -3.9631248429784433e-001 9.9343399931485485e-002
      -2.3921137784607964e-002 -3.6732679211014208e-001
      -3.2555922119843111e-001 2.9483357517302433e-001
      -1.9750557776870345e-001 -1.4299738035714424e-002
      -2.0463628226418903e-001 3.0736983016829755e-002
      2.9186489010713029e-001 9.8994602676374839e-003
      -1.3469580598634998e-001 4.3197516307302797e-001
      2.9150046361812260e-001 -2.7997630630464304e-001
      3.3913817482849849e-002 -2.3136806735090990e-001
      -5.9026723128340446e-002 3.0263429517336865e-001
      -3.0475392842121546e-001 3.7631226843349647e-001
      -8.5667747917074044e-002 -2.2259247676778535e-002
      4.0232548263284668e-001 -2.2909924109403010e-001
      -9.1054604323411354e+001 -3.8812996787716922e-002
      2.0315184072378004e-001 -2.3762531533249249e-003
      -2.6262004122038479e-001 3.1674594286811897e-001
      -2.4491582692337630e-001 2.8039852656185166e-001
      2.7188846908458086e-001 -1.4377119031861457e-001
      1.6429868511718887e-001 -9.3880708980122560e-002
      -3.2674256272291358e-001 -1.7200461790275084e-001
      3.0638778651938797e-001 -1.4864579186418903e-001
      -6.7037456886641325e-002 -9.6730795338422396e-002
      2.3741064165393899e-001 4.4555537813436197e-001
      7.3596558077706903e-002 -2.6599219207842256e-001
      4.4024356848196922e-001 3.0600835456825531e-001
      -3.2625351045592760e-001 2.7354197073279168e-001
      -1.6534339296954581e-001 7.9510131497681560e-002
      2.9331897640827520e-001 -1.3084346229938537e-001
      2.8532517072281710e-001 -6.8885156607649864e-002
      -1.0582814853887378e-001 4.0302611927740678e-001
      -7.4020433093031149e-002 -7.0079274133308331e+001
      -1.9603508432433966e-002 2.6902491666595385e-001
      4.2526736499589525e-002 -3.4667774577570065e-001
      1.4945134797750631e-001 -2.8405859934458305e-001
      2.1128347639561662e-001 1.7624323173275541e-001
      -1.1045972693276043e-001 -7.9339510007700592e-003
      -2.4437672542896266e-001 -1.9470891159498618e-001
      -1.6516475792082777e-002 2.7458985990280527e-001
      -1.7968791349363936e-001 -1.5264906030096578e-001
      -8.7745510992220624e-002 2.6497117005634035e-001
      4.5744910077325468e-001 1.5131837023462680e-001
      -2.3062786093997242e-001 3.0232257638091808e-001
      2.4313680158389731e-001 -3.0645740253572490e-001
      4.2598620837504556e-002 -1.8320247235116291e-001
      4.0939820979174590e-002 1.8128936521663927e-001
      -2.4087100223144831e-001 2.7514863201045542e-001
      -1.0255774338145472e-001 -1.8185458193224163e-001
      3.4305570657330442e-001 7.9372152455231409e-002
      -3.7614662312483190e+001 6.8540648860599216e-003
      1.8888730706420720e-001 8.7762862314783779e-002
      -2.6246747328770537e-001 3.1550341789019436e-002
      -2.7268420097126944e-001 1.6720229910658774e-001
      1.5356859767570424e-001 -9.5822465631230952e-002
      -4.8437605368656600e-002 -2.6775813316256519e-001
      -1.5736101321288115e-001 2.2860553269856150e-002
      2.7860898846266413e-001 -2.3691384818758018e-001
      -2.0231678638576539e-001 -4.8967997887023905e-002
      2.2972797225955366e-001 5.1514540820870058e-001
      9.7848225074428238e-002 -2.9096260504483579e-001
      2.6682133125115237e-001 1.9946525886887903e-001
      -2.6525816744380376e-001 -2.6230453756036023e-002
      -1.7687262031624940e-001 2.2940405416229984e-001
      2.3226040787488397e-001 3.6987245408671106e-002
      2.4858705536034140e-001 -1.5535574842840086e-001
      -2.6110414577899305e-001 2.9595231935624511e-001
      1.0289667062785617e-001 -4.2473287344716844e+001
      -3.2275502157628908e-002 6.8489469928124797e-002
      5.4412800723323641e-002 -2.4513056761787164e-001
      -9.1852031814542920e-002 -2.5444414374503094e-001
      1.7815336139768220e-001 1.2288475004547551e-001
      -1.1781984250605884e-001 -1.1670762573947722e-002
      -2.2413503800910362e-001 -1.5768459766375034e-001
      6.2621204365669009e-002 2.7285802295651101e-001
      -2.6177946000775537e-001 -1.9698462884563853e-001
      -5.6793906385166855e-002 2.2897576155846103e-001
      4.6706029277420613e-001 7.3560161637213919e-002
      -2.3132846581399183e-001 2.2232361125040082e-001
      1.8329120914716063e-001 -2.3696079445544418e-001
      9.1151989788461393e-003 -1.2207379446694228e-001
      2.1627852661164190e-001 2.0470397395510703e-001
      9.3320869889195010e-002 2.3944664435363694e-001
      -1.6152277457751976e-001 -2.2361107367805191e-001
      3.0927825153502297e-001 -3.6827517678298650e-002
      -3.6747336355567889e+001 -1.0705318805507923e-001
      1.1385835369337353e-001 2.3089086746959667e-001
      -1.5843514067970901e-001 -6.6515218454644531e-002
      -2.2337104672668812e-001 1.8567842506849591e-001
      5.3897124032015478e-002 -5.8810321571151791e-002
      -1.9971608736716934e-001 -1.1885654787759939e-001
      -1.1115305192480898e-001 -1.3415052029677813e-002
      1.8161601952680562e-001 -2.8794332671583683e-001
      -1.9496203747094551e-001 -3.8326124372611778e-002
      1.1332015701000020e-001 3.8116674068883749e-001
      3.1365021122904541e-002 -1.7609603397166218e-001
      1.2879411129818114e-001 1.5612540791442034e-001
      -2.0041698025745130e-001 4.6850841914266368e-002
      -6.3063111028795013e-002 1.2580526660568894e-001
      8.3765548049795011e-002 1.1380328492058063e-003
      1.5891843473992470e-001 -2.3149299430517731e-001
      -1.2195347771816890e-001 2.7543525083108372e-001
      -9.2392291953325711e-002 -1.7110987112473858e+001
      -1.7014492747258278e-001 1.6883237052175101e-001
      1.0791280079726569e-001 8.8214896558223940e-002
      -2.1746820986411430e-001 -2.0483174702632928e-001
      1.3958940502300643e-001 7.8804905510155634e-002
      8.4337199354094731e-003 -2.5003341524152861e-001
      -7.3055980830359538e-002 -9.5694711744971045e-002
      7.5864374761753367e-002 1.6568113340517185e-001
      -1.5580695020576638e-001 -1.9673070422987893e-001
      3.4935345397749715e-002 5.9777137597618789e-002
      2.3694061859360352e-001 -9.1130879281892091e-002
      -1.0989047561603885e-001 8.6695041406596562e-002
      1.2940039953134141e-001 -1.0779201578842511e-001
      -8.5352578107774232e-002 -5.9854886279832785e-002
      1.5301219197041618e-001 3.8386186217485282e-002
      8.9605429548290857e-002 1.8977971678931899e-001
      -2.0236084804748469e-001 -6.7888881935334308e-002
      2.1250956526298323e-001 -6.4911061159408506e-002
      -1.8933601833203870e+001 -1.8739300350084132e-001
      2.7570982184502280e-001 -2.9670523127150467e-001
      2.3852054247322510e-001 -5.3233900935566649e-003
      -2.1878141516821098e-001 3.5808095620295738e-001
      2.6356524409802151e-001 3.6860097057607916e-001
      -2.8873025104750433e-001 -3.3254637352293373e-003
      -1.2464551372601963e-001 1.0361637386220938e-001
      2.4896254731829445e-001 -6.8851233596708972e-002
      -2.6520529503424989e-001 1.3518134634714854e-001
      7.6686711520148790e-002 2.4261825028160119e-001
      -2.3529844899022817e-001 -1.6286676264911387e-001
      2.0393072576616966e-001 9.2374767459486015e-002
      -7.6657382441913710e-002 -1.3493362004003620e-001
      1.2533726022868186e-001 1.3707561898199364e-001
      3.9694213634826746e-002 1.4035961344390604e-001
      2.5413052075475234e-001 -2.1204310220722000e-001
      -3.4569810154654892e-002 2.5727109736124509e-001
      4.6717745905131856e-002 -8.4986756120471956e+000
      -3.1989080228505433e-002 2.1973520033154265e-001
      -2.3373880086878887e-001 1.8173477100578739e-001
      -4.5280630310633702e-002 -2.3266974813214666e-001
      4.5396362428412285e-001 2.8390176054334820e-001
      4.0590390619101785e-001 -2.2054995214180928e-001
      -4.0842802452709062e-002 -1.9444792360290572e-001
      2.4130855209546775e-002 1.7251727500181202e-001
      -3.0888406793841677e-002 -2.7150635324359701e-001
      1.1550984126932499e-001 1.1518597364094198e-001
      2.9966283505832897e-001 -2.6757422081385479e-001
      -2.0853586373248739e-001 2.3635524559489288e-001
      8.9949976168215845e-002 -1.2631482045779147e-001
      -1.7835336896750242e-001 9.5418451335033766e-002
      7.5902715715622071e-002 3.6936957169466371e-002
      1.9932986518834511e-001 1.7272222320943423e-001
      -1.3880784231768650e-001 -1.0650714088081688e-001
      2.7407456931617608e-001 8.7189490870448361e-002
      -6.2601360730540492e+000 1.3293393925547936e-001
      6.3371879522617441e-002 -1.3963971803081382e-001
      1.4454542510882981e-001 -2.8179106072266358e-001
      -2.5994912779723017e-001 4.0253254876880279e-001
      2.6196219384160957e-001 2.4040095174950527e-001
      -1.0144759164095063e-001 -4.6965024354202148e-002
      -2.4227805799625418e-001 1.1077870949903283e-002
      1.1805059726143903e-001 5.8315194196904372e-003
      -1.9526102547028526e-001 1.0092079849226930e-002
      6.3456511136940355e-002 -3.5183434138952078e-003
      -2.2504424575922366e-001 -7.5985594816100274e-002
      2.3571219028942403e-001 7.4987204327106788e-002
      -1.0335476987152326e-001 -2.8510038989114483e-001
      4.5250716656141173e-002 -4.6925444003603774e-002
      -3.8539466786010883e-002 2.4879899838891134e-001
      1.1092368419653754e-001 1.5161733651301922e-002
      -6.6554478141131426e-002 1.8017790449280019e-001
      1.0679036605597760e-001 -1.8464787678024361e+001
      1.7019423995402716e-001 7.7111610180827669e-002
      -3.2189875383025292e-002 1.5437992889365726e-001
      -2.5874356746337851e-001 -2.0364634451076227e-001
      4.7718851933559320e-001 2.8150199101517093e-001
      1.6892789738506395e-001 -1.4718873814366698e-001
      -6.6863443711636703e-002 -2.7760889198278849e-001
      6.0122678815684262e-002 1.5236957679324695e-001
      5.8469481569514365e-003 -1.7087017296867235e-001
      -6.7934405361637834e-002 9.8550767983996382e-002
      -1.1454912851095357e-001 -2.1370429242405484e-001
      -3.3682654100889470e-002 2.6745814092440312e-001
      6.0579803641524800e-002 -8.1890905941125483e-002
      -3.0074942563186119e-001 5.1966094624037500e-002
      -1.4550355345117982e-001 -3.3962884173885995e-002
      2.7697101229600379e-001 1.0769231857666701e-001
      8.3919726615123910e-002 -3.3187507780250286e-002
      1.2197512250744322e-001 1.0264576196160918e-001
      -1.4236570299517503e+001 1.4353265373965407e-001
      8.4904541763798275e-002 1.1847838835046017e-003
      1.4123998239084434e-001 -2.0115716362813824e-001
      -1.9670263651666600e-001 4.5388987562314786e-001
      2.6392190015656009e-001 1.6020579639050422e-001
      -1.1738035831398172e-001 -4.7965837725314882e-002
      -2.6020568443057274e-001 8.3492693597159523e-002
      2.0676269712742273e-001 -4.7032190507088310e-003
      -1.6822314219556894e-001 -4.3576520990127314e-002
      6.4584269564356186e-002 -8.1239858134901352e-002
      -1.6637597329933354e-001 -1.2310889623220461e-004
      2.5767698631256297e-001 6.4179237936969433e-002
      -6.1932882855509623e-002 -2.8764639105910522e-001
      7.5085861173710050e-002 -1.2999526259696609e-001
      4.7436026872113138e-002 2.5586441154092759e-001
      1.1995509802654886e-001 2.0266168270627650e-002
      -7.5204452103054986e-002 1.1927384918086636e-001
      9.7022652931653852e-002 1.4240526426243616e+001
      1.2701434122998576e-001 1.0969196681401516e-001
      -1.2330540815997437e-001 -5.8115840695113496e-002
      -1.6339989050930434e-001 -1.8347337460542623e-001
      4.2828669889500925e-001 2.4232688612534140e-001
      1.5885425409308557e-001 -8.3456122106235625e-002
      -6.1143729403545760e-002 -2.3864296637044763e-001
      5.1931741533146274e-002 2.0383911028190596e-001
      -7.8370039729126553e-003 -1.2581455445097281e-001
      -3.9775043249314135e-002 4.9129390482001720e-003
      -9.2192478255818874e-002 -1.3572163441519705e-001
      -8.4383999801590756e-005 2.5195652617779307e-001
      4.8197739771584293e-002 -4.6616538992982556e-002
      -2.7017006604288896e-001 6.7061484832237631e-002
      -3.5049257552625217e-002 1.4121272122762457e-001
      2.1620429934967936e-001 1.3875664126122028e-001
      -6.2620229033623007e-003 1.2280832825767427e-002
      1.5066682103977974e-001 1.1256893507391771e-001
      -5.0780364419539978e+001 -2.1330575282174949e-001
      2.8966517081297403e-002 -2.8799582791560963e-002
      1.9904647771639677e-001 -3.1437005132751383e-001
      -2.0004218161335111e-001 4.2392489298877428e-001
      2.0200396596525666e-001 -3.8836882618479285e-002
      -8.0907534739759791e-003 4.2606211436961638e-002
      -2.3058489308841529e-001 -2.8469181273103911e-002
      1.9454919799638085e-001 2.4649674966661678e-002
      4.5820944057059004e-003 9.8081429090140226e-002
      3.8732772439140958e-002 -1.2705891134900166e-001
      -1.4258185908979024e-001 -8.7988849134378544e-002
      1.4881968629884398e-001 6.9595147124075080e-002
      -1.9546826386461408e-001 -1.0667342237962425e-001
      1.9844787604920703e-002 -1.7550294984931000e-001
      -3.3990324388436410e-002 3.3726472395482798e-001
      -2.5738015461210028e-002 2.7427629769548389e-002
      -7.1488946146163829e-002 1.6960384822193933e-001
      -7.9390715051359070e-002 -9.0637951590686484e+001
      -1.8590738156951125e-001 4.2304517644367629e-002
      -1.2251869068603542e-001 2.3612933529406410e-001
      -1.3678017721439800e-001 -2.0990493114685771e-001
      4.0683512312472198e-001 2.2794930738344954e-001
      -1.5825321926576677e-001 2.7322600341396698e-002
      -4.6391527901270137e-002 -2.2244024517068064e-001
      5.8911876305920083e-003 2.2249379937935201e-001
      6.8777245251271395e-004 -1.2231514260699464e-002
      9.6026713847897585e-002 1.1390116590601908e-002
      -1.4811249290290379e-001 -1.3105572527802128e-001
      -1.3618981383476414e-001 1.9094331838353451e-001
      8.5359671512316604e-002 -2.1487650606672684e-001
      -6.5529436615316544e-002 1.2102217740433789e-002
      -1.4668394172425347e-001 -4.7272316544627276e-002
      3.6075047170567520e-001 -1.0246248208758742e-002
      1.2486350287923444e-002 -3.4227213394285326e-002
      3.2150066779318731e-001 -1.1056802226738331e-001
      -9.2293743032733602e+001 -2.3546312538149866e-001
      -9.2614405521028731e-003 -1.2991623291240800e-001
      -2.8435819554154657e-001 -1.8983662845160032e-001
      -1.1908435873420839e-001 -4.6573016926047699e-002
      6.3936428837035625e-002 -3.8818436400774803e-001
      2.1219386223749775e-001 -7.4424698766749411e-002
      -1.5108717774706933e-002 -4.7487732212132809e-002
      3.7971808618120467e-002 -4.3591265042901478e-002
      -6.6517569082997552e-002 -7.4189776752163674e-003
      -1.3966372659160156e-001 -1.4346983329101051e-001
      7.4835313384699564e-002 -2.3698105250830498e-001
      6.3875778616703432e-002 -2.5121932522539279e-002
      -1.2347740634826512e-001 1.6278055076874103e-003
      5.0428343500108476e-002 -1.7751291228363014e-001
      -1.1160129100175302e-001 3.8895395219714196e-001
      -1.3898311964618965e-001 8.3490717687783808e-002
      3.5725172483643347e-001 3.2862926149541016e-001
      -2.4559799441707167e-001 -8.8728586161150020e+001
      -4.4987575907056698e-001 -7.6734661815739416e-002
      1.6096192066267771e-002 -2.6244684392888495e-001
      -1.1698643458964823e-001 -1.1357089018056787e-001
      -1.6990072660939209e-001 -7.1806061685306330e-002
      -3.9707705037486407e-001 1.8068557615982805e-001
      -6.1700574108749677e-002 2.2673174811304493e-002
      -5.6491831372781715e-002 -2.3717301486237744e-002
      -1.8428554177003630e-002 -9.4725140141588324e-002
      1.5501997938264784e-002 2.0583959134530014e-002
      -8.4694877369881169e-002 1.7320334281675842e-001
      -8.1216881638696004e-002 -2.0287685629380166e-002
      2.6577233031071408e-002 -2.9326640905287665e-002
      1.2472613368442426e-002 -1.7980138001690205e-003
      -2.6283496483908037e-001 -4.1108072942002270e-002
      2.1113024197164651e-001 -1.8030780629776028e-001
      4.4455984331663617e-002 4.8000077945359487e-001
      5.1446494542064264e-002 -2.7311169000015312e-001
      -7.1395394326308207e+001 -3.7914219378515046e-001
      -9.8617035716244084e-002 -2.9974298088042348e-003
      -9.9245110625929570e-002 -6.9893666395105289e-002
      -1.3592058809703855e-001 -7.4437550467174179e-002
      -4.1768607788985009e-002 -3.2730316909281548e-001
      1.1899326342413381e-002 -7.2340231347408676e-002
      -6.0327338674294968e-002 -1.3241702756071783e-001
      -1.4247092997570735e-002 -5.7596379991826312e-002
      -9.5079245280419805e-002 5.8163775947488096e-002
      1.3806988040434884e-001 3.2391383344964231e-003
      3.9622698788336602e-002 9.8154687202704261e-002
      5.6080773667848791e-002 1.5451214051656667e-001
      1.4176546200295303e-003 -1.3055033027755983e-001
      -6.3855832946435070e-002 -3.9445093304540957e-001
      1.2878982878626266e-001 5.6251051462979686e-002
      -1.3019094664854630e-001 -7.3289194190531856e-002
      3.9143882940626673e-001 -1.2501297045038873e-001
      -2.2102001782637748e-001 -4.4640592529778075e+001
      -1.5219972075859853e-001 -1.4774498146319728e-001
      -2.1366565960398126e-001 1.1633695321513993e-001
      -1.4109002011755806e-001 -1.5825776722096677e-001
      5.6517937945594308e-002 2.4056259172896031e-002
      -3.0521294666184290e-001 -9.1480757815134567e-003
      -5.3479991756662154e-002 -1.9354198381837581e-001
      -5.5961443423892233e-002 -2.8747939503162658e-002
      -7.5343226315846959e-002 -1.5438910334470990e-001
      1.3101282769911399e-001 1.4090352487391258e-001
      1.8302108065755887e-001 -1.3458990858363915e-001
      -5.6971637950703598e-002 1.6812853490398813e-001
      1.6029892965837927e-001 -8.7313921563622124e-002
      -3.3079292566490870e-001 -8.4563802297323978e-002
      -3.4660641866348696e-001 2.3428568948207146e-001
      5.2107591272385470e-002 1.0594129998076930e-001
      -3.1045968153060427e-001 1.5565116454927744e-001
      -1.6378109033571017e-001 8.8716235080379946e-004
      -4.7329776255866939e+001 -7.4893243098384632e-002
      -2.6507058786121590e-001 -3.8206858894054863e-001
      2.2305196467211930e-001 -2.6310158812723450e-001
      -1.4838758782226791e-001 5.5367499430803557e-003
      1.0575819196680267e-001 -2.6977666397441896e-001
      1.2963587158634838e-002 -7.7140304279797248e-002
      -1.3037615550437986e-001 7.3890147189721964e-002
      2.4254227766040890e-002 -1.4737991726768906e-001
      -1.6895060122752215e-001 2.6498859471179403e-001
      1.3619277146459560e-001 3.9789674219995341e-001
      -1.3181992609718288e-001 -1.2780163844592446e-001
      2.3446479184874491e-001 1.2144304660257758e-001
      -2.8237303276156145e-002 -3.2333933006314491e-001
      -2.2683114770233098e-001 -2.1075843391033033e-001
      2.5954775652612216e-001 -1.0485524093338429e-001
      1.7584350635071425e-001 -2.2950197005130646e-001
      1.3118017067860657e-001 4.7414516063664362e-002
      1.8766895421630697e-001 -6.6178252322119491e+001
      -9.5122892825708669e-002 -1.9963203546942571e-001
      -3.6245526724396682e-001 2.1004568840246268e-001
      -1.7875632690194901e-001 -1.1485213447060758e-001
      1.8103737761704784e-002 7.6317399919013290e-002
      -1.0301136571797462e-001 -5.8576851435984172e-002
      -2.0793961078473928e-002 -1.0301127366154957e-001
      -2.5686215523024747e-002 1.1816987379790958e-001
      -2.7413284941577931e-001 -1.1817284752743451e-001
      2.5227331729779306e-001 8.6646129206863889e-002
      4.3133778057387101e-001 -5.1777088507455250e-002
      -1.0085649400833660e-002 1.9454032230180673e-001
      5.2819001916076080e-002 -2.6967387656599565e-002
      -1.8655822000742470e-001 -1.6726120267302921e-001
      -1.5885180371515317e-001 1.9241742879504456e-001
      -1.4764256714292387e-001 2.2627121646808704e-001
      -1.5975850738522210e-001 1.2830468807096695e-001
      1.8141714995623884e-001 1.6128389864401863e-001
      -3.4137462222431649e+000 -9.8648967058667478e-002
      -1.9509821725660423e-001 -2.5402754070003364e-001
      -2.1898203876896094e-001 -3.0821306958069261e-001
      1.8051052860683950e-001 -3.1359165832779895e-001
      -3.0135443222533326e-001 -4.8515028383017421e-004
      1.5012890991511002e-001 8.1750616998742781e-002
      2.9401833956895679e-001 -8.2486660209003582e-002
      -9.4278733784999069e-002 -2.1905185168551583e-001
      7.5489461383141984e-002 6.5714123287177975e-002
      6.0072810707609791e-004 4.5075300738426455e-001
      2.7549153038038615e-001 -3.1919680513170789e-002
      -2.2707067419717447e-001 -2.6154514994390843e-001
      2.7784340496287874e-001 9.1761596071823909e-003
      -5.1893883440542139e-002 -1.0075261921325841e-001
      -1.9444540229548368e-001 -2.6974315198941329e-001
      1.2714267606027249e-001 -1.6911838630050496e-001
      4.7971239530210785e-001 1.0138468127915415e-001
      1.8303802386424783e-001 -3.6245420870370508e+000
      -1.2950034384166229e-001 -1.0493726629958480e-001
      -1.2234092582111443e-001 -3.5314665474389600e-001
      -2.2060666989152036e-001 3.0752463895453597e-001
      -3.7989861081964016e-001 -3.3065755108010020e-001
      -4.5785354519512822e-002 2.9736823288027164e-001
      6.3740016327275925e-002 3.8388808835466726e-001
      -1.5392040040208788e-001 -1.0829322005843262e-001
      -2.1363374699857990e-001 9.8059386430801435e-002
      8.9160647069653123e-003 -6.6460240046879601e-002
      3.3058657734172758e-001 3.5744260627546959e-001
      -6.7655974299767094e-002 -3.5374281968565652e-001
      -4.3230136839729905e-001 2.7798256613382033e-001
      2.0481299743444253e-001 5.6193173936385260e-002
      -8.9281064028852691e-002 -4.1303798656198537e-001
      -3.3163355746005813e-001 2.4091099761232894e-002
      -1.4140772519487005e-002 5.1237018469140949e-001
      1.2318280571211773e-001 1.0569530406023310e-001
      -5.6452042822050494e+001 -9.5959566714178782e-002
      2.1939792527329277e-001 1.2847681283846306e-002
      1.3030709204129612e-001 -4.4379968665880884e-002
      1.2904940039778106e-002 9.5558026492510398e-002
      -5.8052007090669171e-003 2.5040294551126885e-001
      1.7176731811875465e-001 1.4136503470788387e-002
      1.1510507540818414e-002 -6.7149300876143458e-002
      -7.5115759670893331e-002 -2.5233175141211500e-001
      1.7479425422180703e-002 -3.0154936860356082e-002
      -1.1733396047453239e-001 1.8195377345282415e-001
      1.4719310831912513e-001 -8.4599133847926236e-002
      -1.2618470254717176e-002 -1.0625497650943028e-001
      -5.1536461073249253e-002 1.8253387269086921e-001
      -1.1260595759103122e-001 7.2789488003118755e-002
      -1.7352963781784506e-001 -2.3636594280333847e-001
      6.8324914470749287e-002 -2.3318033371807170e-001
      1.7356584429716118e-001 2.7192804535891379e-001
      1.9433618096694003e-001 -4.7991442753990782e+001
      -1.6310870687402636e-002 1.2914162678773924e-001
      -6.2567989416151132e-002 8.7815980726458132e-002
      1.6134606679863789e-001 2.1832259266374474e-001
      -3.2887741229692991e-001 -1.9865092981974120e-001
      1.2125904844980585e-001 4.0368051406487021e-001
      -1.0435098282910850e-002 2.2483035900086831e-001
      -1.4886623436089769e-001 -2.7198293804595025e-001
      -1.3597998360088058e-002 1.4751948680402133e-001
      -8.9713020069015104e-002 -2.8340095006878024e-001
      -1.3826034451402683e-001 1.5100505651084126e-001
      -7.9868338991624613e-002 -2.1874948144530681e-001
      -2.4752066623041882e-001 1.0389671641521755e-001
      9.5812229457384684e-002 -9.7393439104419319e-002
      -8.8749660541470295e-004 -3.8972178099513055e-001
      -6.3354620188646044e-002 -1.5301736801673199e-001
      -9.3583175425684173e-002 3.2622188446551637e-001
      -4.3035560487646625e-003 2.4861451577523966e-001
      -3.7716501995288553e+001 -3.8934750701326043e-002
      1.1836875597445032e-001 -1.6991942624396142e-001
      1.5203128113135328e-001 2.0358165490137248e-001
      1.7593285557299362e-001 7.0720001555329747e-003
      -9.4424175318911896e-002 1.2996658634443425e-001
      8.6412829272554559e-002 7.3062227038373048e-002
      1.9629723342735741e-002 -5.2082075821066089e-002
      -7.0104682524835399e-002 1.0896805848442961e-001
      1.4367802314661271e-001 -1.0730923924121358e-001
      -7.8234833848952898e-002 -3.8906471636688933e-001
      3.6200467885741145e-003 6.4229698942995100e-002
      -1.2978999024290341e-001 -2.0310199118166242e-001
      7.6621558366426090e-002 4.4390370676546345e-002
      1.2970148829221617e-001 -1.3131235544756377e-002
      -4.0430431954883472e-001 1.8784438752874832e-001
      6.4092571626699745e-003 3.3883681141544879e-002
      1.8983008460784775e-001 -1.1740627431969859e-002
      2.2104656263986500e-001 -1.6135819028567862e+001
      -1.5136631147691035e-001 9.0016679782483427e-002
      -2.2636845772181838e-001 3.4886570035454573e-001
      6.1753195246656546e-002 1.7495975816402845e-002
      1.8779801654896267e-001 2.4769525962841286e-002
      5.4858627832185244e-002 2.9623040648206589e-002
      -1.3639856859423977e-001 -2.2804798939552270e-002
      2.3703777313748586e-001 1.6818090688971513e-001
      1.9347152326468463e-002 6.4639787270129529e-003
      -5.5081920030430644e-002 -2.2382095722547009e-002
      -2.3478661893187847e-001 3.4687104000494268e-002
      5.0959204710169403e-002 -3.5436589801430440e-002
      -9.4433458488296568e-002 1.0296432287604394e-001
      -8.9969320969590025e-002 -6.3818685693116176e-002
      -5.5027528620655027e-002 -2.9089133485764163e-001
      8.2171380687575207e-002 9.6215816388088883e-003
      3.9244545214861232e-002 1.8329730303007721e-001
      6.4712022755374706e-004 3.0998507347960280e-001
      -2.2922843186304831e+001 1.5265442101662349e-001
      1.0650228107916601e-001 -1.3824391593699681e-001
      3.4002492012803215e-001 1.9855471653196025e-001
      -2.6004466143927579e-001 5.7751972301840859e-001
      2.7056914754857014e-001 -2.3418214152058438e-002
      -1.1574245707498119e-001 -1.9258981794667507e-001
      -2.5830381906965960e-001 4.3228845658964710e-001
      2.7763336669292688e-001 9.2465282355749644e-003
      -1.1191871471199308e-001 3.7604541207936354e-002
      -3.0397062030637537e-002 -1.4586069966486051e-001
      -1.3860520126751361e-001 2.7436584784647114e-003
      2.6216836907357877e-001 1.4905839585331931e-001
      -4.4581299991315222e-002 -2.0635416149438329e-001
      -2.6361339925914234e-001 4.8565096486464128e-002
      6.0279111582983200e-002 7.7038586777778473e-002
      6.1889280823236782e-002 3.6131456143418637e-002
      -2.3026026591785062e-001 -8.5262253398275829e-003
      2.7398861297880484e-001 -9.6229895948539923e+000
      1.8942700665490916e-001 1.9417114258082310e-001
      9.6905675532912346e-003 2.9380759602260359e-001
      4.6167637075847373e-001 -3.5977694328839482e-001
      5.2910992577260874e-001 3.7418984097604219e-001
      2.2254391545527302e-001 5.2610594186833053e-002
      2.7724512629069251e-002 -3.6902665156786624e-001
      2.3813214169951005e-001 2.8921674458385455e-001
      3.3467029252338368e-002 -1.1766232653363071e-001
      5.8598062914456909e-003 -1.1964475892653589e-001
      -1.0802522485161539e-001 -2.2757463463077748e-001
      -1.3817532754953016e-001 4.3901936713663275e-001
      1.7984030400406473e-001 -1.5684131440034027e-001
      -1.1884733341596797e-001 -3.6463745634320706e-002
      1.4869593073361245e-001 2.5552820237125257e-001
      2.9472885304028751e-001 2.9316057623193361e-002
      4.7991570199348646e-002 -3.9908438610210417e-001
      -8.9877376542464679e-002 -2.0691014935286637e-002
      -2.6751170080819115e+001 2.8478095927147723e-001
      2.9985033328726074e-001 -5.5595534459018149e-004
      2.6761566977531936e-001 6.6026256396744321e-001
      -3.7349783960850746e-001 3.6200377814802542e-001
      3.8243725343216090e-001 2.7387497784606130e-001
      1.4394642066854882e-001 -1.5377814946764831e-001
      -2.5291378593676506e-001 2.2158316966219735e-001
      2.6961980737575209e-001 -5.7089732439930513e-002
      -1.7433937267602445e-001 8.4953822508163964e-003
      1.2305191043219668e-001 -9.1729303150848651e-002
      -1.1243649520016032e-001 -1.4037483136312776e-001
      4.4903131857029183e-001 2.0454862429335668e-001
      -2.0809511249963047e-001 2.1871633887803882e-001
      1.0261216406458927e-001 1.6462850710341545e-001
      1.6129841489474286e-001 4.1322318683828341e-001
      2.2775380582559977e-002 -1.1720025619118343e-001
      -3.6346606485887445e-001 7.1803107617992065e-002
      8.6875247538024100e-002 -1.3315972280420732e+001
      2.3543737956410615e-001 2.4341219443606293e-001
      -5.9775090425283166e-002 3.9375396863966412e-002
      4.4864449946326390e-001 -3.2339430115280332e-001
      2.6835662247642872e-001 2.5368067049301241e-001
      1.6676945837984283e-001 1.5999222381229786e-001
      -2.0232796662183813e-001 -1.5682058177420835e-001
      2.0022614870412364e-001 1.9724053137795006e-001
      -1.5258331250680190e-001 -2.1612820489458626e-001
      -8.7355347984951620e-003 1.4178284908731670e-001
      -5.2015383774195734e-002 5.6612485501523410e-002
      -6.4498729246818456e-003 3.2023381508864623e-001
      1.4532053008950568e-001 -1.5874711130667349e-001
      6.8873640702607894e-003 5.6480131785759356e-002
      -1.0585668502026889e-001 -1.7729960441406093e-003
      1.9565832027592445e-001 1.0054967064982676e-001
      -1.6916415910640187e-001 -1.5380191118198769e-001
      1.6282259103332149e-002 1.1014385798148169e-001
      -1.2483851519675907e+001 2.5764036623457814e-001
      1.1646915634753466e-001 -2.5137478383941286e-001
      -1.6713566890462184e-001 -1.4440954048494076e-001
      -2.1453864440305548e-001 -5.0627322458696174e-002
      1.0912232852269041e-001 -1.0739382668241286e-001
      1.7759075878285821e-001 -1.3545674647427738e-001
      -7.2665046666842356e-002 8.0103692891170128e-002
      7.6493889347851438e-002 -2.1064099696787805e-001
      -2.5640076731224304e-001 7.1232535749448919e-002
      4.8758249820233843e-002 -1.3696224320813999e-001
      1.5857849542471816e-001 -1.2512305531282750e-001
      1.8297384186688331e-001 1.0665303138287392e-001
      -1.2495004167954749e-001 -6.6236179814439813e-002
      -1.1075000742343810e-001 -1.5244125466475164e-001
      -3.7189673614910268e-002 1.0973116988718977e-001
      2.0176200006669809e-002 -9.8936509101389361e-002
      -4.8594136504250547e-002 -3.9117863950622042e-002
      1.3341885661615629e-001 -2.1202226165499209e+001
      2.9412168714597414e-001 -1.4009787373260515e-001
      -3.6788347718231562e-001 -2.9419078187819482e-003
      -5.2431083276280566e-001 -2.2329672086499425e-001
      2.6492462026502711e-002 8.1341509646405588e-002
      -2.8108805886768079e-001 1.2434606947573612e-001
      -2.0830423503291794e-002 -2.4506884841261434e-001
      2.1363099763437570e-002 -3.1460853448548348e-002
      -2.2034760281170654e-001 -1.7429205167275402e-001
      9.6495222020300198e-002 1.8339415424375709e-002
      -1.2518659739992730e-001 5.8247328509719150e-002
      1.4514886196394156e-001 2.7403115505325054e-001
      1.7458163472338981e-001 -1.8956070321798535e-001
      -1.2955059267529792e-001 -1.2802031565545477e-001
      -2.8643071232977757e-001 9.7703616860472589e-002
      5.2300720326037449e-002 6.6465778698746869e-002
      -6.7759711529818176e-002 -1.3102773356105099e-001
      5.4474035779255053e-002 3.7134528355898262e-002
      -3.8361122795482736e+001 6.8531695911503460e-002
      -1.8271174452901662e-001 -1.7213562530041945e-001
      5.7070211048585798e-002 -5.0947393147713449e-001
      -1.0436741988534436e-001 -1.6633735222066851e-001
      7.7628075491066517e-003 -2.6097858139013508e-001
      7.2276460636106390e-002 -8.7775442192484926e-003
      -4.7134599940454720e-002 1.3469483272206820e-001
      -8.1219788148121488e-002 -1.6607050944784960e-001
      -1.0280398436038668e-001 1.7529193051019984e-001
      -2.6710564997860918e-002 -2.2342064117597257e-001
      1.0097533141757707e-001 4.9119000278458141e-002
      1.4219768257557741e-001 2.5419318463173898e-002
      -5.7019224748155711e-002 -1.3565967147730601e-001
      -1.9536314230705343e-001 -1.8767074403243406e-001
      4.8386248937567544e-002 1.2058858058099969e-001
      2.7188018072656236e-002 -1.0799598539721771e-001
      -1.9772449785900377e-002 1.0606023432104050e-002
      6.4899831516466944e-002 -4.2210794510021309e+001
      -7.1909781257024658e-002 -2.1741970245349040e-001
      -9.0700104100914808e-002 1.3619938462573233e-001
      -1.5252163368911661e-001 -7.4640471865697611e-002
      -1.5887114203745409e-001 -2.2537236438735862e-002
      -1.9469604554692166e-001 2.9553731767144455e-002
      -6.3969511786459640e-002 -2.4835390635578835e-002
      1.8566627673029173e-001 -3.6662725603640561e-002
      -2.3970526285755916e-001 -1.3546493952224800e-001
      1.7183284421946415e-001 8.9898182304164506e-002
      -3.7220698739003520e-003 1.8127493043777646e-002
      -7.4128793168766360e-002 9.6449294095614521e-002
      -1.9837715960799147e-002 -2.9661904480477098e-002
      -1.5687077322199366e-001 -1.5421478562338731e-001
      -1.0628071089868144e-001 3.7417989588840260e-002
      2.3123868015583657e-001 8.8739193625495386e-002
      -2.4042453605568267e-001 7.9844751110776380e-002
      9.6256455912818849e-003 3.7225700255646220e-002
      -1.3385359632884127e+001 -1.8115014173145449e-001
      -1.0649070824183112e-002 -7.7032029161574644e-002
      5.6245036469048083e-002 -1.4061188586797077e-002
      -8.1823454736293100e-002 -2.2113129267536627e-001
      -8.0755497581678465e-002 -2.4190457070847514e-002
      -1.7324481371796341e-001 1.4063923530566751e-002
      1.1548115253820138e-001 7.7228683498790807e-002
      2.6438308894545026e-002 -2.1241231698185575e-001
      -1.1040608600535164e-001 2.1628547030149028e-001
      1.1399865574322994e-001 3.7581018942586514e-001
      -6.9021738034271779e-002 -1.2323491990106573e-001
      -6.5459393383257000e-002 -2.1099895996918278e-002
      4.0714722830531368e-002 -1.0649256262072489e-001
      -7.5708733166664585e-002 -1.6105275662083612e-001
      -8.3108177962360419e-002 2.3593407508443548e-001
      1.1378171456505165e-001 -3.5207880407054920e-001
      1.4138427354150451e-001 -5.7586751802889871e-002
      1.4865392707830659e-002 -1.9956501090307551e+001
      -2.6747343191995249e-001 1.6523103819864260e-001
      -2.8916334127044210e-002 2.4739389320593067e-001
      -1.1782656454909770e-002 -2.2563054218529122e-001
      9.0529248144916405e-002 4.6029271202239853e-002
      8.5877225192786344e-002 -4.7077031410028397e-001
      -3.4038244882116021e-002 -7.9424956981981612e-002
      2.9145839671399526e-001 2.1273769311736282e-001
      -6.3618333378827663e-002 -1.6693562824297359e-001
      2.5524249739797017e-001 2.5483718578035941e-001
      4.2211366485369090e-001 -1.9620437853756084e-001
      -5.3941733976272742e-002 7.2078197247527537e-002
      1.6058826901060325e-001 5.2459481433513158e-002
      -9.6539672133159490e-002 -7.0266562905720864e-002
      -1.7404243406416178e-001 8.1774130579826632e-002
      1.3001365200392656e-001 1.9650424202491565e-001
      -2.7988804735835465e-001 -5.3469023650081916e-002
      -4.4048389024979130e-002 1.5805472027137912e-001
      -3.4731785159213452e+001 -5.6738725265626606e-003
      3.5858950596598625e-002 -7.4491866183951705e-002
      3.1376697068884346e-001 -9.4119046459916339e-002
      -2.6411609604922121e-001 2.2578543786917260e-001
      1.7128511939700261e-001 -3.6461442193863179e-002
      -3.3753907480542417e-001 -1.7329725345183691e-001
      -2.2055798472446905e-001 1.6633975175775648e-001
      1.9584334154249833e-001 -1.1369865969932955e-002
      -1.7836169712843009e-001 1.1255338421811666e-001
      3.1346277687147550e-001 4.9684433460026406e-001
      -2.4330977826323583e-001 -2.2727254426984331e-001
      2.2651063762557605e-001 1.3306489275655492e-001
      -1.5853703489879127e-002 -2.3586821790446780e-001
      -1.2637097793282123e-001 -1.7665388805234547e-001
      1.3859038535434645e-001 -1.1880476735119610e-002
      2.6848446331120884e-001 -9.0842990941372950e-002
      -6.0503475059365618e-002 1.2039963384712261e-001
      1.8780030550583432e-001 -2.6461222794561131e+001
      7.6120399282801052e-002 7.5837417085057049e-002
      6.1868947717370282e-002 3.1120496798413161e-001
      -9.4470540596062209e-003 -2.4094220334859828e-001
      4.2350579382871684e-001 2.3003925608444301e-001
      4.5337748131171099e-002 -2.0107416087152671e-001
      -1.4843505603172327e-001 -2.9370571817562563e-001
      1.1579696704718605e-002 1.0309144273347373e-001
      -2.8675429425561387e-002 -1.1808146871309420e-001
      2.5777108827490604e-002 1.5616770900836191e-001
      3.9266766709871936e-001 -1.8025107507147820e-001
      -8.5287113096172137e-002 2.9213613750610995e-001
      1.1947088358628360e-001 -1.3851686119115397e-001
      -9.3327256601067873e-002 -2.1613614893464861e-001
      -2.4888158103980323e-001 7.8973826492099081e-002
      -7.7894711333430830e-002 1.8100282625129457e-001
      -2.6058499584936112e-002 -1.3885169709084058e-001
      2.4022330298107486e-001 1.5180703384690328e-001
      -1.2689672665883815e+000 1.3127451708038476e-001
      9.3835869018535620e-002 -1.2258672263102724e-001
      2.5278857016873579e-001 -1.4129692891131282e-001
      -2.2879406713007322e-001 4.5071710500115031e-001
      2.5466384708237622e-001 1.3645209270218234e-001
      -4.3005062163338388e-003 -4.4513256223873698e-002
      -2.8310142931834448e-001 2.7792662901130758e-003
      4.3123088845115003e-002 -2.6503628956335706e-002
      -1.4598121798896424e-001 2.0413029800627529e-002
      9.7398593431014785e-002 2.3309550538725451e-001
      -2.1112720871102575e-001 6.2850054521095294e-002
      2.7744383345758816e-001 7.9264824126980882e-002
      -7.7004229171207098e-002 -3.1190885340479740e-001
      -6.8577946943848320e-002 -1.5884255906400896e-001
      2.2366068929244816e-002 8.0277729480541182e-002
      1.3134315116738518e-001 -1.4935051125714870e-002
      -1.0790326828471161e-001 9.2574851419939153e-002
      1.2278398451207158e-001 1.5383609577815069e+001
      1.3697178823255410e-001 9.5584869811413856e-002
      -1.5796561512013699e-001 -5.2051418537903689e-002
      -1.5260169014763458e-001 -1.9462910747203380e-001
      4.2259945484757211e-001 2.3017217907855489e-001
      1.6918685227621602e-001 -8.2868212936707528e-002
      -5.8443299107675990e-002 -2.5342317119627594e-001
      2.3333258700823981e-002 2.0552815493826229e-001
      -3.6531125767402545e-003 -1.4931448010114337e-001
      -3.6315311071409770e-002 -1.2934150637003353e-002
      -1.0419477092455599e-001 -1.7654476554403162e-001
      2.0978560454655879e-002 2.5428435327525134e-001
      6.1133154827687268e-002 -5.5774233895984550e-002
      -2.8177654933503743e-001 7.5438200656025092e-002
      -7.8673866781489923e-002 1.0283623514704721e-001
      2.4071751251666218e-001 1.1701904564479954e-001
