<?xml version="1.0"?>
<opencv_storage>
<my_nn type_id="opencv-ml-ann-mlp">
  <layer_sizes type_id="opencv-matrix">
    <rows>1</rows>
    <cols>3</cols>
    <dt>i</dt>
    <data>
      784 34 37</data></layer_sizes>
  <activation_function>SIGMOID_SYM</activation_function>
  <f_param1>1.</f_param1>
  <f_param2>1.</f_param2>
  <min_val>-9.4999999999999996e-001</min_val>
  <max_val>9.4999999999999996e-001</max_val>
  <min_val1>-9.7999999999999998e-001</min_val1>
  <max_val1>9.7999999999999998e-001</max_val1>
  <training_params>
    <train_method>BACKPROP</train_method>
    <dw_scale>1.0000000000000001e-001</dw_scale>
    <moment_scale>1.0000000000000001e-001</moment_scale>
    <term_criteria><epsilon>1.0000000149011612e-001</epsilon>
      <iterations>5000</iterations></term_criteria></training_params>
  <input_scale>
    1.0148560412903632e-002 -2.1046824344751447e+000
    1.0124192258955427e-002 -2.0809694398263106e+000
    9.8318252110548357e-003 -1.9733767698068343e+000
    9.5966186239795168e-003 -1.8626114427990792e+000
    9.2185363091559624e-003 -1.6861536787648181e+000
    8.7988246761480874e-003 -1.4300787350257655e+000
    8.4122309725854615e-003 -1.1586859160811658e+000
    8.3565572065512090e-003 -9.7149760327135215e-001
    8.6987325114513073e-003 -8.2210229207438079e-001
    8.9619975878489095e-003 -7.3065327633100607e-001
    9.4061473888233695e-003 -7.0348476451120223e-001
    9.8452922265443461e-003 -6.6268293972084780e-001
    1.0637248709558704e-002 -5.8362776013011364e-001
    1.0272447562904961e-002 -6.1999150963992511e-001
    9.3811788399178597e-003 -7.1106547077565418e-001
    8.9412662519192682e-003 -7.5748947228805075e-001
    8.7721656885631615e-003 -7.8324930222281719e-001
    8.6990982318195693e-003 -7.5935504881750848e-001
    8.7907380010905766e-003 -7.4559313549745676e-001
    8.7096419799807100e-003 -8.0582211224829381e-001
    8.7004558870055326e-003 -9.1766451703794349e-001
    8.6789132222937562e-003 -1.0400377952473505e+000
    8.4757839609718444e-003 -1.0756763523285433e+000
    8.3108398073126893e-003 -1.1467436839994676e+000
    8.3527488024564226e-003 -1.2734077933231915e+000
    8.3116407563152469e-003 -1.3285509724127189e+000
    8.3192068047131598e-003 -1.3423331875657221e+000
    8.4854099959392748e-003 -1.4272276364944732e+000
    9.8949849214467148e-003 -1.9861624734460415e+000
    9.9337197906078350e-003 -1.9507309018883547e+000
    9.4116590128341358e-003 -1.7304749805833406e+000
    8.8820815670828442e-003 -1.4474621510817625e+000
    8.5251024890990890e-003 -1.2277220924853096e+000
    8.4659545367025257e-003 -1.1453846919382329e+000
    8.5074566473616296e-003 -1.0905451060191342e+000
    8.7695307545953751e-003 -1.0769648244794230e+000
    8.6842710253558827e-003 -1.0555749648967376e+000
    8.8263323843927547e-003 -1.1982738159501327e+000
    8.9949352133964176e-003 -1.3284529206097497e+000
    8.7314318098170411e-003 -1.2178208352323803e+000
    8.6750778673447531e-003 -1.0835133819595335e+000
    8.7468085816331809e-003 -1.1439287995206582e+000
    8.8924303392912234e-003 -1.2285204023379677e+000
    8.9429435966340530e-003 -1.3744501854789872e+000
    8.7868492324034483e-003 -1.3855217938443816e+000
    8.6646040189495323e-003 -1.3483249368508636e+000
    8.8047002071568563e-003 -1.3057004786311150e+000
    8.6917865987449303e-003 -1.2331468385857227e+000
    8.5788483242512578e-003 -1.0500236799408909e+000
    8.6321670675093744e-003 -8.6045957924839900e-001
    8.6942488460399030e-003 -9.3786525852656832e-001
    8.8374813008717298e-003 -1.2695533858984926e+000
    9.2222409391730029e-003 -1.5990078592681225e+000
    9.8111770542686372e-003 -1.8995184155824412e+000
    9.8198904181677395e-003 -1.8572373219149756e+000
    8.2776419763645782e-003 -1.3486723344176335e+000
    9.4762794144783759e-003 -1.8320159129706739e+000
    9.7265417135096784e-003 -1.8479236712938489e+000
    8.8251277000241206e-003 -1.4594858020637600e+000
    8.4270728583246812e-003 -1.2204906375310161e+000
    8.5879841856581346e-003 -1.2175628544854302e+000
    8.5472446473913461e-003 -1.2933463574160617e+000
    8.8923492432349573e-003 -1.3798059175773030e+000
    8.5697041075309868e-003 -1.2139370621747070e+000
    8.8267373059939761e-003 -1.3318875193314841e+000
    8.9991158559009111e-003 -1.4631607707047534e+000
    8.8887628376406128e-003 -1.4275859344544348e+000
    8.9344369435720959e-003 -1.4030343445116813e+000
    8.7293216417048368e-003 -1.2637219906866854e+000
    8.5835090923592101e-003 -1.2302136078977548e+000
    8.5598593346030375e-003 -1.0910878872300565e+000
    8.8010890063407211e-003 -1.3115293083608499e+000
    8.7950479724415755e-003 -1.3326909441445594e+000
    8.7448384148635268e-003 -1.3731747887140282e+000
    9.5222369018019577e-003 -1.7043661696383952e+000
    9.8512987607260356e-003 -1.8061940722947309e+000
    8.7797320756578551e-003 -1.4399680922536129e+000
    8.7428111520334081e-003 -1.2900825019810078e+000
    8.6281391130855842e-003 -1.2244995575868012e+000
    8.4385573884106779e-003 -1.1320210410711731e+000
    8.6943488254381217e-003 -1.3292127885112757e+000
    9.2666731761566097e-003 -1.6582650211318009e+000
    1.0077842561811068e-002 -1.9491706475686779e+000
    8.4113111722544064e-003 -1.3899227167562120e+000
    9.1179341926064580e-003 -1.6488119732247624e+000
    8.9135094970636507e-003 -1.5133415766978955e+000
    8.4177546990117126e-003 -1.3073573717897635e+000
    8.6306389153934064e-003 -1.3560329781370797e+000
    8.8143697446864972e-003 -1.4372349559109836e+000
    8.7666810925568963e-003 -1.4300168981453787e+000
    8.6523527335076178e-003 -1.2554774345337854e+000
    8.5676481230019565e-003 -1.1773934292707400e+000
    8.5307448360400738e-003 -1.2176277121360417e+000
    8.5112598118522453e-003 -1.1652818663817304e+000
    8.6700965774119728e-003 -1.2395428845290899e+000
    8.7654710233188680e-003 -1.3964882113428274e+000
    8.5578816168721799e-003 -1.3169426309947165e+000
    8.6161077058996248e-003 -1.3192091874629923e+000
    8.3842152525331372e-003 -1.1006930812803306e+000
    8.7351216559033943e-003 -1.2386143981398596e+000
    8.5434183001281451e-003 -1.2852409383901713e+000
    8.6619076996874642e-003 -1.3306310343977041e+000
    8.8324081415057012e-003 -1.3519501054408114e+000
    8.5319014992147994e-003 -1.2103771065645204e+000
    8.8369211559996188e-003 -1.4317049750689885e+000
    9.4568243084936655e-003 -1.7157479909553490e+000
    8.8693131853760741e-003 -1.4683161800794504e+000
    8.4765086755549373e-003 -1.2495397875073297e+000
    8.4615559107203992e-003 -1.2731388325515733e+000
    8.6899343680917045e-003 -1.3980288793847111e+000
    9.0325371274899476e-003 -1.6057303318579681e+000
    8.4276451905103238e-003 -1.3466741604439068e+000
    8.8688660513527012e-003 -1.5140030665914284e+000
    8.7680250441693666e-003 -1.4177969550933900e+000
    8.6598221061399434e-003 -1.3492408483995098e+000
    9.1144782869288388e-003 -1.5459134580479086e+000
    9.1183058503878280e-003 -1.5760527977863088e+000
    9.0421627462437155e-003 -1.4480642208514207e+000
    8.5751146741694928e-003 -1.2807578899037191e+000
    8.8200214560840602e-003 -1.3165435999201482e+000
    8.7495410565405912e-003 -1.1248215393134018e+000
    8.6028216971379239e-003 -1.0545091059981504e+000
    8.4396197651767698e-003 -1.1194686679138834e+000
    8.8599793697883497e-003 -1.3812892230887637e+000
    9.0336683216515959e-003 -1.4991925305800915e+000
    9.3666377423399175e-003 -1.6565981409880384e+000
    8.8121250639327554e-003 -1.3592142280568431e+000
    8.8769561245824573e-003 -1.3615666601560328e+000
    8.8421393237028238e-003 -1.4503590173981349e+000
    8.5774076063557664e-003 -1.2763672057234792e+000
    8.5192905029443551e-003 -1.0536696508318177e+000
    8.6761563978576036e-003 -1.0968392279068557e+000
    8.8688051285049103e-003 -1.4251159779445153e+000
    9.5085205182420633e-003 -1.7517276108905953e+000
    9.3397819935346887e-003 -1.6875445887900216e+000
    8.9324039829429339e-003 -1.5069305744987396e+000
    8.6646794666693106e-003 -1.3414598791305175e+000
    8.4591183135771294e-003 -1.2585834223035448e+000
    8.7243715886132188e-003 -1.3507440708807519e+000
    8.5473324093055560e-003 -1.3460570034693233e+000
    8.7476291470411967e-003 -1.4645732384524974e+000
    9.0575477582720242e-003 -1.4804623192762012e+000
    9.0968919608491964e-003 -1.4566535047760607e+000
    9.2084105281078216e-003 -1.5690442557458646e+000
    9.4870123828871711e-003 -1.6081695392332345e+000
    8.7758495296272367e-003 -1.3610547921947347e+000
    9.0114377809396729e-003 -1.3725203015108944e+000
    8.9054652577268117e-003 -1.3229938505190595e+000
    8.6705781568921260e-003 -1.0760049387710824e+000
    8.8874473276411379e-003 -1.2539280577109266e+000
    8.8164466648351369e-003 -1.3456538306228119e+000
    8.9907810662164817e-003 -1.4333422436029195e+000
    9.3876098767116840e-003 -1.6593001431570686e+000
    9.6630543714247303e-003 -1.8172579580059149e+000
    9.1870455441176498e-003 -1.5727190245444773e+000
    9.0141889527569855e-003 -1.4938635543047303e+000
    9.7242248120933267e-003 -1.7917673629907862e+000
    8.8770986103403945e-003 -1.3882137809463011e+000
    8.7248318149196775e-003 -1.2114974689888451e+000
    8.5574509368333725e-003 -1.2158600938046882e+000
    8.6116966443555362e-003 -1.2963047366003151e+000
    9.2110856931897286e-003 -1.4811443375803053e+000
    9.1930996413956793e-003 -1.5712052157271155e+000
    8.9304677246092590e-003 -1.4769201411105377e+000
    8.7520354233579650e-003 -1.3152597757595688e+000
    8.4281058012062593e-003 -1.1363187581599119e+000
    8.6953239476912150e-003 -1.2511321584467425e+000
    8.9452109695829438e-003 -1.4767696674885984e+000
    8.6475975423822779e-003 -1.4469019884922123e+000
    8.8830428839335191e-003 -1.4300907214181353e+000
    8.7422701666752707e-003 -1.3695429002843125e+000
    9.1607028170267463e-003 -1.5077863236662425e+000
    8.8168979520870071e-003 -1.3197544939151085e+000
    8.8034786215449301e-003 -1.2921064762769869e+000
    8.6818123223664050e-003 -1.3088018123078680e+000
    8.6484116462816549e-003 -1.1315275876750785e+000
    8.5203849138456664e-003 -1.0932704949251550e+000
    8.9662903554343573e-003 -1.4355893381751834e+000
    9.4865530289097375e-003 -1.6803718269890289e+000
    8.8093390301737552e-003 -1.4652795762267281e+000
    9.5037749916280136e-003 -1.7263130639363193e+000
    1.0017042088732272e-002 -1.9580694734516730e+000
    9.4413509024629944e-003 -1.7033734840842909e+000
    8.7963756487892085e-003 -1.4402427184959907e+000
    9.5997798355212383e-003 -1.7363074540233541e+000
    8.6876807188255231e-003 -1.3960503717560180e+000
    9.0359183154524458e-003 -1.4735980576738015e+000
    8.6967840159611221e-003 -1.3077097204864874e+000
    8.6607471406417568e-003 -1.1693379268632467e+000
    8.6413099518098044e-003 -1.1923528322804593e+000
    9.0987263752148224e-003 -1.4995041868537202e+000
    8.9874223419329751e-003 -1.4716272179257208e+000
    9.0952389299022024e-003 -1.4736896322166027e+000
    8.8983711832832414e-003 -1.3703429380386958e+000
    8.7824186197826837e-003 -1.3408215995612156e+000
    8.8260960171100879e-003 -1.5247399759494298e+000
    8.7398801883539316e-003 -1.4635185817261225e+000
    8.7967596569818556e-003 -1.4407317964913222e+000
    9.0463121311586108e-003 -1.5388755439186672e+000
    9.1586675916886795e-003 -1.5726084579408008e+000
    8.6674924127054364e-003 -1.3118848053168288e+000
    9.0854752942038288e-003 -1.4629782317001498e+000
    8.9125237885206623e-003 -1.3602887217562654e+000
    8.4647605162524609e-003 -1.1317040473137050e+000
    8.8915963638283285e-003 -1.3681893171792345e+000
    9.3902831455600685e-003 -1.6865488106129494e+000
    9.6853615786841579e-003 -1.8157264298649463e+000
    8.8523461980641073e-003 -1.4811062687779450e+000
    9.5838641459907118e-003 -1.7588594261427890e+000
    1.0831872177849009e-002 -2.2251337449044124e+000
    9.9530243777000461e-003 -1.8674097934242231e+000
    8.7059191278636341e-003 -1.4127184397979093e+000
    9.0142127119629458e-003 -1.5014152334690074e+000
    9.0544343858349925e-003 -1.5128920438380853e+000
    9.4330745398826694e-003 -1.6755418194287530e+000
    8.8225343007569020e-003 -1.3615715207396291e+000
    8.6362489608023205e-003 -1.2615823967029507e+000
    8.8420382599024849e-003 -1.3739583092154319e+000
    9.6475633517792078e-003 -1.7289009439591398e+000
    9.1358224469266433e-003 -1.5966674432753474e+000
    9.2792640397770729e-003 -1.6137029253688724e+000
    9.0132819124648864e-003 -1.4933413530709898e+000
    8.5707280181902337e-003 -1.3066566720659440e+000
    9.0054294987562365e-003 -1.5664742001449050e+000
    9.2570466014331651e-003 -1.6680034448004546e+000
    9.2369069151998062e-003 -1.6482704349292512e+000
    9.9377494312339748e-003 -1.8733095969975408e+000
    1.0275577806424753e-002 -2.0099182826862707e+000
    9.3286276697323103e-003 -1.6991475483347169e+000
    1.0346624866753713e-002 -1.9961724579691140e+000
    9.2437201034179430e-003 -1.5403845570469967e+000
    8.9471082330971462e-003 -1.4197944901806323e+000
    9.6677938698253602e-003 -1.7546702017434463e+000
    1.0802529633496991e-002 -2.1472288024997566e+000
    1.0216263638505294e-002 -2.0070603806299339e+000
    9.3008711362139399e-003 -1.6391020674303340e+000
    1.0183080373305654e-002 -1.9134582718588722e+000
    1.2458746807824366e-002 -2.6842972054670544e+000
    1.1182277071236917e-002 -2.2382161432296037e+000
    9.1162286419257214e-003 -1.5545337329235969e+000
    9.1162814850531178e-003 -1.5157786346089879e+000
    9.4074285257783174e-003 -1.6608306554452195e+000
    9.5921384526382273e-003 -1.6633249859086214e+000
    9.0705665111310285e-003 -1.4986879253507739e+000
    9.4025859686493359e-003 -1.6083876397900507e+000
    9.7865680718085147e-003 -1.7542523129556264e+000
    1.0003095534361801e-002 -1.8958569480563436e+000
    9.6642565169720203e-003 -1.7696039469101279e+000
    9.4194841702236673e-003 -1.6907810381650814e+000
    9.1269708084746690e-003 -1.5644215626517410e+000
    9.0336233862928807e-003 -1.4956296000591967e+000
    9.1113721103015625e-003 -1.6334284603455429e+000
    9.2583828306364857e-003 -1.7094299776775410e+000
    9.4832385798010541e-003 -1.7722383620239122e+000
    1.0762937851099301e-002 -2.1817169362809570e+000
    1.1040173986336107e-002 -2.2764932196965200e+000
    9.6625166413221806e-003 -1.8364884500506511e+000
    9.7644090931244074e-003 -1.8417159167173305e+000
    9.0778051910182754e-003 -1.5582142035806696e+000
    9.7724753195772267e-003 -1.7851976037932951e+000
    1.0458589513238692e-002 -2.0752120830302370e+000
    1.0353456492222876e-002 -2.0625716213251697e+000
    9.5000432856104898e-003 -1.8064604125529227e+000
    9.2726652949112268e-003 -1.6475207601925304e+000
    9.4306687349235870e-003 -1.6894037717106773e+000
    1.1312463673335271e-002 -2.3761305907339589e+000
    1.0890997586778613e-002 -2.2139899401304231e+000
    9.3788191593226142e-003 -1.6848758271443487e+000
    9.1293081115981362e-003 -1.5537838481243782e+000
    9.1169743485400856e-003 -1.5707790129416404e+000
    8.9520638021280390e-003 -1.4733402988669722e+000
    9.5159375723333304e-003 -1.6727876034606641e+000
    1.0058208108418770e-002 -1.9235659939029861e+000
    1.0827373700603587e-002 -2.1727735396574519e+000
    1.1332029436287238e-002 -2.3422412677337432e+000
    1.0596595591579923e-002 -2.1151836416313428e+000
    1.0077199519497973e-002 -1.9595517642752283e+000
    9.6657185114364438e-003 -1.8309136287319605e+000
    1.0019687048595381e-002 -1.9023104296119788e+000
    9.4451824814213194e-003 -1.7960124393036363e+000
    9.1337745267044378e-003 -1.6774282658356903e+000
    9.8224702063727954e-003 -1.9017765127263240e+000
    1.0649485792908048e-002 -2.1940787441594285e+000
    1.1282661996850131e-002 -2.3825808888660864e+000
    1.1414209420978748e-002 -2.3953787572501395e+000
    1.1504043746334068e-002 -2.4078602553196653e+000
    1.0146687478592157e-002 -2.0030126427720507e+000
    1.0740412548331106e-002 -2.1879454172891752e+000
    1.0603719441428959e-002 -2.1206678471599569e+000
    1.0531065329921688e-002 -2.0883315602264658e+000
    9.6578589369316712e-003 -1.8521237733983744e+000
    9.4712392809341312e-003 -1.6721888206892372e+000
    9.0920509583900990e-003 -1.5387145155005655e+000
    1.0655089020608270e-002 -2.1586429195557879e+000
    1.0614850309907862e-002 -2.1399137877980428e+000
    9.9741962331755078e-003 -1.8978704168373322e+000
    9.1123943275938490e-003 -1.5579852583599187e+000
    8.7937577247615955e-003 -1.3777019328085327e+000
    9.2010888095874453e-003 -1.5473431582740416e+000
    9.5984099719824949e-003 -1.7731489279548633e+000
    9.9515022577461067e-003 -1.9382199680359193e+000
    1.0726639212709090e-002 -2.1651277316757795e+000
    1.0449685285761278e-002 -2.0749046087416891e+000
    1.0522256619759376e-002 -2.1407159378751244e+000
    1.0603036890066626e-002 -2.1659881967974575e+000
    1.0950363769997503e-002 -2.2787557515435966e+000
    1.1193136916919987e-002 -2.3547060769855856e+000
    9.7040495145942329e-003 -1.9059300074813741e+000
    9.1556756867225246e-003 -1.6846003084316461e+000
    1.0073062485924668e-002 -1.9992353746364644e+000
    1.1295872382852028e-002 -2.4035512041855878e+000
    1.1840053957490755e-002 -2.5542009416576290e+000
    1.1892238011696093e-002 -2.5635516605812656e+000
    1.1873569857606993e-002 -2.5682536145294508e+000
    1.0735883091054504e-002 -2.2255333320012771e+000
    1.1205114538596204e-002 -2.3555859994218262e+000
    1.0510508578625575e-002 -2.1205356932881809e+000
    1.0290622162714883e-002 -2.0429774852199287e+000
    9.5414430095336067e-003 -1.7747348018675075e+000
    9.3795648692966815e-003 -1.6561410417074167e+000
    8.6994560110642445e-003 -1.3856658392709094e+000
    9.8930549275625633e-003 -1.8917828188020893e+000
    9.7012966217021341e-003 -1.8379639824151188e+000
    9.2560160524093795e-003 -1.6499632614578599e+000
    8.7160450064194869e-003 -1.3338505436326207e+000
    8.7756618379933645e-003 -1.3837279426055122e+000
    9.7031512631104051e-003 -1.7726491046410797e+000
    9.5128844660718644e-003 -1.7492929951504392e+000
    9.6291408875208862e-003 -1.7641550893903499e+000
    9.3126843496228549e-003 -1.6712599125495391e+000
    9.3099845555400327e-003 -1.6906265860576497e+000
    9.7825883922927157e-003 -1.8873852759143903e+000
    1.0730987914433710e-002 -2.1922010902614808e+000
    1.1904335331681141e-002 -2.5738783377006724e+000
    1.1701347555710321e-002 -2.5206384808660784e+000
    9.7467114686136391e-003 -1.9321733521698521e+000
    8.9423986851821236e-003 -1.6062741690646820e+000
    1.0450051085076125e-002 -2.1198649209572595e+000
    1.0696095139212936e-002 -2.2037306968033126e+000
    1.0753583114546257e-002 -2.2313015974682737e+000
    1.0336585988108335e-002 -2.0809462549199282e+000
    1.0244425120831211e-002 -2.0726506752475373e+000
    1.0023272369203022e-002 -1.9576162150073622e+000
    9.6580178849454100e-003 -1.8253613887861460e+000
    9.2962771998000970e-003 -1.7027301013432190e+000
    9.1864330017842558e-003 -1.6618502920261893e+000
    8.9128599884231614e-003 -1.5394946218106509e+000
    8.8205809530670139e-003 -1.4699743847916047e+000
    8.8559776994365548e-003 -1.4162110019596372e+000
    9.7278728757896303e-003 -1.8331405275010757e+000
    9.7544770183513423e-003 -1.8553240093087242e+000
    9.5723595339462005e-003 -1.7439088607328701e+000
    8.5684903866294158e-003 -1.3001690669437502e+000
    9.0724937094551639e-003 -1.4899879319696336e+000
    9.3207428945290029e-003 -1.6466329187256510e+000
    8.8746312889782537e-003 -1.4975989623686650e+000
    8.7836703389516293e-003 -1.4834048662993760e+000
    9.0863383182457642e-003 -1.5862664289588300e+000
    9.4387807135019545e-003 -1.7339380273799361e+000
    9.4000100847513694e-003 -1.6901719269602211e+000
    9.6546644617940339e-003 -1.8390081444074295e+000
    1.1535638016113183e-002 -2.4392069747967611e+000
    1.1156218560121226e-002 -2.3647951284148157e+000
    9.2844022802348308e-003 -1.7642740795470064e+000
    9.0455313599172235e-003 -1.6546423317603021e+000
    1.2327984754842590e-002 -2.6963949318124709e+000
    1.3409118814027341e-002 -3.0062689693602294e+000
    1.2339258298105523e-002 -2.7154307768723993e+000
    1.1107384876793820e-002 -2.3317099611776255e+000
    1.1065534274704695e-002 -2.3268718027096420e+000
    1.0822756697489437e-002 -2.2281900773559320e+000
    1.0301202340026799e-002 -2.0639812425275390e+000
    9.4804818779346371e-003 -1.7710403533886692e+000
    9.8328662677806371e-003 -1.8466177224361775e+000
    1.0050492478078430e-002 -1.9587579315572057e+000
    1.0228165810719338e-002 -1.9968854303334933e+000
    9.6647159072099902e-003 -1.8026136872369563e+000
    1.0475990875045591e-002 -2.1316329294659138e+000
    1.1458032265535292e-002 -2.4325171483272845e+000
    1.1682927845849083e-002 -2.4366164354847744e+000
    8.9758736287272912e-003 -1.5247134892830219e+000
    9.8276440973012261e-003 -1.8260723068920943e+000
    1.0104073560030470e-002 -1.9600922582440163e+000
    9.2723870718435623e-003 -1.6707518809531869e+000
    9.3370598478385407e-003 -1.6871347753742201e+000
    9.8261010294068904e-003 -1.8483449811981765e+000
    9.4714298075302319e-003 -1.7501398928946450e+000
    9.4996213544208761e-003 -1.7761597541973009e+000
    1.0655870683122416e-002 -2.1505006911921027e+000
    1.1469606560732084e-002 -2.4364844066022684e+000
    1.2280962912959161e-002 -2.6770749261135900e+000
    9.3763891683605050e-003 -1.7802581675745315e+000
    8.9893294745694019e-003 -1.6472828132216504e+000
    1.2303341917485071e-002 -2.6902675852137419e+000
    1.2820647757447567e-002 -2.8563333047961530e+000
    1.2075071881099016e-002 -2.6368255102646110e+000
    1.0787611892289618e-002 -2.2165481142397789e+000
    1.1034128158726102e-002 -2.2948609820618358e+000
    1.0664815497093545e-002 -2.1689967247851234e+000
    1.0082837884581426e-002 -1.9663802517835691e+000
    9.3689791550896490e-003 -1.7134454624788160e+000
    9.5512430088603526e-003 -1.7491144814575388e+000
    9.2192499604567529e-003 -1.6524218577711463e+000
    8.9988378567506522e-003 -1.4707430057767708e+000
    8.9831682630146358e-003 -1.4995799434767860e+000
    9.6528314759575431e-003 -1.8578342465399307e+000
    1.0103893342614417e-002 -1.9718016722792115e+000
    9.8155985311259297e-003 -1.8616488283326742e+000
    8.8261394072576323e-003 -1.4206970573325168e+000
    9.3002236065730486e-003 -1.6221668156725506e+000
    1.0461370625638691e-002 -2.0279454871036018e+000
    9.5353040559546468e-003 -1.7693742347704504e+000
    9.3306329857207118e-003 -1.6812245901680996e+000
    1.0183602386786582e-002 -1.9718690422071330e+000
    1.0004350003050271e-002 -1.9162341748668372e+000
    9.5112612576016518e-003 -1.7721214209421301e+000
    9.9075921484782815e-003 -1.9251922700798132e+000
    1.0697468764233773e-002 -2.1629895684524589e+000
    1.0656480564623174e-002 -2.1693018400188322e+000
    9.0099478381231828e-003 -1.6352986805944254e+000
    9.1957909695572649e-003 -1.7293731573504296e+000
    1.2134078141562310e-002 -2.6436124898266646e+000
    1.3628193467866275e-002 -3.0794823229459878e+000
    1.2657703706616834e-002 -2.8175234217475591e+000
    1.1475710998006441e-002 -2.4416570673850750e+000
    1.1864332637001486e-002 -2.5792202770800636e+000
    1.1452826291408048e-002 -2.4393883639409055e+000
    1.0625257441383514e-002 -2.1724326876084112e+000
    9.7253756772388063e-003 -1.8727447077327821e+000
    9.9190617319978684e-003 -1.8996175862827374e+000
    9.1782798078533876e-003 -1.5942608894549459e+000
    8.5354028062857770e-003 -1.3275314799873150e+000
    8.9488029874309483e-003 -1.5103559677305582e+000
    9.3470155311852592e-003 -1.7153194450852427e+000
    9.5685613509753718e-003 -1.7912566014426630e+000
    9.9486306822351329e-003 -1.9212995910225408e+000
    9.0844401187472699e-003 -1.5358002593189082e+000
    9.1671881430141974e-003 -1.5120909380428258e+000
    9.2103743639900901e-003 -1.6043513576485424e+000
    8.9973781089924872e-003 -1.5631925350783968e+000
    9.7450982476199929e-003 -1.8271385309583057e+000
    1.0356420793220640e-002 -2.0649002219052144e+000
    1.0712912467867200e-002 -2.1953115721543046e+000
    1.1288125937523718e-002 -2.3654289699327711e+000
    1.0514072362137368e-002 -2.1477557216445895e+000
    9.9435028882552713e-003 -1.9504012215071596e+000
    9.2472165253491556e-003 -1.6781429277383730e+000
    8.8345966810263309e-003 -1.5101006211328594e+000
    9.4123954912504193e-003 -1.8045388398701561e+000
    1.1925397609223100e-002 -2.5730322438441471e+000
    1.2856062656239967e-002 -2.8868865098465992e+000
    1.3692341943061246e-002 -3.1166964437334008e+000
    1.2427578562598381e-002 -2.7617664823940964e+000
    1.3157863534606885e-002 -2.9544443478911275e+000
    1.2881561188535250e-002 -2.8623340973593430e+000
    1.2132609171541114e-002 -2.6308139649486892e+000
    1.0646528579551383e-002 -2.1638907019579077e+000
    1.0052101540783818e-002 -1.9403763521531232e+000
    8.9687977691462091e-003 -1.5406649606226968e+000
    9.1152206418283702e-003 -1.5581634321389330e+000
    9.7232255268348330e-003 -1.7918220792339188e+000
    1.0398257568643699e-002 -2.0678092277740245e+000
    1.0569335301886229e-002 -2.1379440387867539e+000
    1.0459904656945275e-002 -2.0824998945383468e+000
    9.4482556174366843e-003 -1.6589305655742999e+000
    8.6852711807316307e-003 -1.3662200629228407e+000
    9.2559696057232053e-003 -1.6251956175112789e+000
    9.4765095567163858e-003 -1.7499558036442575e+000
    9.5538938658239429e-003 -1.7624124094907341e+000
    1.0500534092714998e-002 -2.1096817330301967e+000
    1.2832801162272435e-002 -2.8311271992900466e+000
    1.2663230957176211e-002 -2.7846017455782244e+000
    1.1992944222960470e-002 -2.6076454819048784e+000
    1.1034298130006500e-002 -2.3091860268560742e+000
    9.2517035344899384e-003 -1.6882240296057947e+000
    8.4590575433761261e-003 -1.3585322242119129e+000
    9.1194711661607020e-003 -1.6870131439133336e+000
    1.0863381072449177e-002 -2.2423172667509905e+000
    1.2461475808387641e-002 -2.7405227609331373e+000
    1.3984798203516530e-002 -3.1847723008819231e+000
    1.3088690093941592e-002 -2.9271318286678341e+000
    1.3464641360068376e-002 -3.0314893882342298e+000
    1.2523338821938922e-002 -2.7520522262574567e+000
    1.1961586087656595e-002 -2.5561036825903538e+000
    1.0072132712560262e-002 -1.9904080323006412e+000
    9.0607558766371468e-003 -1.5987214539979255e+000
    9.1282048001843138e-003 -1.6082862715865280e+000
    1.0146487520115360e-002 -1.9694918189344759e+000
    9.8106534357914645e-003 -1.8752652634029416e+000
    1.0324137286961922e-002 -2.0788237207514739e+000
    1.1703166708820493e-002 -2.4813390101796120e+000
    1.0463899401681437e-002 -2.1032266243495537e+000
    9.7371442387453652e-003 -1.8058385371495957e+000
    8.7545311450445244e-003 -1.4153937298220454e+000
    9.6431165552643815e-003 -1.7615697182246015e+000
    9.6851098119911886e-003 -1.8540990305904701e+000
    9.8495323553798638e-003 -1.8696797187351153e+000
    1.0267945930674885e-002 -2.0243649784377524e+000
    1.2562212913876405e-002 -2.7241843478701964e+000
    1.2466409911959540e-002 -2.7162842760944135e+000
    1.1718597351499145e-002 -2.5268934107614003e+000
    1.1493314899964677e-002 -2.4485391973399762e+000
    1.0028343434768178e-002 -1.9180889405870838e+000
    8.3266458937100961e-003 -1.3285613613006033e+000
    8.8300483290908831e-003 -1.5462202055740926e+000
    9.8922075923650547e-003 -1.8876118440130312e+000
    1.1157290320111911e-002 -2.3361510200383551e+000
    1.1939699999444707e-002 -2.5797963992881350e+000
    1.1636927332985830e-002 -2.4738974916534411e+000
    1.1616477600459306e-002 -2.4659550801269337e+000
    1.0677791661428395e-002 -2.1634929610350362e+000
    1.0230121846309403e-002 -2.0051801170830101e+000
    9.2071235011277671e-003 -1.5804072148929118e+000
    9.1132064711728633e-003 -1.5589279212528091e+000
    9.7049967929662469e-003 -1.8352805798793721e+000
    9.8876568296926929e-003 -1.8583199026545494e+000
    9.6352841095924801e-003 -1.7655038621631860e+000
    9.7240697615140880e-003 -1.8512249150714779e+000
    1.0777797023399212e-002 -2.1761039817725103e+000
    1.0414720927785575e-002 -2.0770850152659222e+000
    9.9079063805081607e-003 -1.8952453962863145e+000
    8.7714030182112698e-003 -1.4504817445529719e+000
    9.7930030819233984e-003 -1.8361233115106783e+000
    1.0387663753121336e-002 -2.0722222017159462e+000
    1.0191272075019261e-002 -2.0108843790370337e+000
    9.9492923642281496e-003 -1.9104768448305063e+000
    9.7676859525310921e-003 -1.8425671704294926e+000
    9.6595584825202134e-003 -1.8233067586173430e+000
    9.5950671482486951e-003 -1.8311584010113324e+000
    1.0135872591033220e-002 -1.9948219015263275e+000
    1.0028978478047210e-002 -1.9051855104826305e+000
    8.3247416879099895e-003 -1.3174900551796005e+000
    8.6049714558259841e-003 -1.4048053594380592e+000
    9.3671152775642932e-003 -1.6503879996720809e+000
    1.0142002441070936e-002 -1.9775114179689595e+000
    1.0011572133945953e-002 -1.9453271422446865e+000
    9.4027235990515896e-003 -1.7138947529258128e+000
    9.6274674094387787e-003 -1.7345947315067189e+000
    9.0633966255607400e-003 -1.5085009428673952e+000
    8.9752962225757502e-003 -1.4178633103488973e+000
    8.8441371405543097e-003 -1.3751069774666524e+000
    9.6025133320096455e-003 -1.7063394224662105e+000
    9.5097484225988137e-003 -1.7171042921602331e+000
    8.9152364897082254e-003 -1.4509504664380735e+000
    9.4544967643241020e-003 -1.6506810152935631e+000
    9.4302422742242684e-003 -1.6694798608428076e+000
    9.7619886845894104e-003 -1.8038881119641423e+000
    9.9023332283867550e-003 -1.8932128574349667e+000
    1.0131055547573818e-002 -1.9502036731472676e+000
    8.8929850039573249e-003 -1.4575158160390078e+000
    9.7163617457973715e-003 -1.7704191187625540e+000
    1.0620987391381250e-002 -2.1482096348791537e+000
    9.9620052296514831e-003 -1.8968712299287926e+000
    9.7059947128814474e-003 -1.7396590756448749e+000
    9.1607411203506722e-003 -1.5777770056918330e+000
    9.5754081933544476e-003 -1.7350328782651299e+000
    9.4967314360945663e-003 -1.7288453545910456e+000
    9.5334894963107278e-003 -1.7121505087492643e+000
    9.5302526615533810e-003 -1.6760941250586356e+000
    8.3419326462843280e-003 -1.2201810664724639e+000
    8.2949170751542081e-003 -1.2525314906298528e+000
    8.9485511031329058e-003 -1.4737866226137224e+000
    1.0246968193679391e-002 -1.9854038010376658e+000
    1.0284420474519837e-002 -2.0343370204902524e+000
    9.3707942260638256e-003 -1.6960882474754906e+000
    9.3107425028013426e-003 -1.5963760852715216e+000
    9.0242644006067983e-003 -1.3733760044443684e+000
    8.5648741667661132e-003 -1.1292606147096669e+000
    8.9227153286518431e-003 -1.3363843684000887e+000
    9.4778209632044308e-003 -1.6596850812848962e+000
    8.9810945719832874e-003 -1.4498317666365734e+000
    8.9447011112290670e-003 -1.4329208079666222e+000
    9.3474797657677119e-003 -1.6166448048348037e+000
    9.2563314990290885e-003 -1.5652150808492782e+000
    9.2279226068346151e-003 -1.5784603512310660e+000
    9.6115835151581400e-003 -1.7771908150904252e+000
    1.0204406154820857e-002 -1.9667301874494789e+000
    8.8946554409382803e-003 -1.4857221366363138e+000
    9.3105266872282981e-003 -1.6077249697246800e+000
    9.3899459657232776e-003 -1.7074806317457449e+000
    8.8767327055108963e-003 -1.4700560295919167e+000
    8.9243040754757880e-003 -1.3883087969263339e+000
    8.9109492165448546e-003 -1.4045016199259113e+000
    9.0634430632870345e-003 -1.5380675757502187e+000
    8.9297016626035831e-003 -1.4670177693682505e+000
    8.9972392323858699e-003 -1.4654845246335251e+000
    9.2405492895880313e-003 -1.5419183081495749e+000
    8.0804842186814191e-003 -1.0823942093228025e+000
    8.3748570778414445e-003 -1.2785853407846421e+000
    9.0278577920806114e-003 -1.4693084141880217e+000
    9.3377687702223128e-003 -1.6249918337576825e+000
    9.1023013606011949e-003 -1.5317804426956922e+000
    8.6334990535545629e-003 -1.3454932699544258e+000
    9.0315921195871819e-003 -1.4268973439971040e+000
    8.5526264758009514e-003 -1.1635236268603228e+000
    8.8317790409199980e-003 -1.1003971017274647e+000
    8.7408593020663061e-003 -1.2623955842224477e+000
    8.8827432636854036e-003 -1.3901337925262125e+000
    8.6763860152682740e-003 -1.3230993955309449e+000
    9.0386704023524018e-003 -1.4967722295452024e+000
    9.2529367507660810e-003 -1.6147960751243597e+000
    9.1263357786533893e-003 -1.5472071024639085e+000
    9.0027165923892462e-003 -1.5109927257155473e+000
    9.3871572651392857e-003 -1.6881563306204368e+000
    9.6309290318714411e-003 -1.7909647923182523e+000
    9.0983418634300196e-003 -1.5182944866885568e+000
    9.1569689197790877e-003 -1.5116475685007615e+000
    8.8497916016333777e-003 -1.4633524766288435e+000
    8.7417564876277592e-003 -1.2672083429246543e+000
    8.7056870598927454e-003 -1.1971953807433051e+000
    8.9510151704240582e-003 -1.4031698654447899e+000
    8.8345372099636194e-003 -1.4218554931215617e+000
    8.6117730192791283e-003 -1.2758445719741995e+000
    9.0329339350579060e-003 -1.5151521834809076e+000
    9.2747651626845715e-003 -1.5497179543763508e+000
    8.0801350884846680e-003 -1.1076518540292695e+000
    8.3168766781084539e-003 -1.1907960464467080e+000
    8.6076495479394700e-003 -1.2828991914808889e+000
    8.4899980922106908e-003 -1.1757131709283761e+000
    8.3845718884884620e-003 -1.1937326882065113e+000
    8.6433506204815370e-003 -1.3173752526473570e+000
    8.7151051854530478e-003 -1.4030594373638434e+000
    8.8177396596022320e-003 -1.2993507451500839e+000
    8.4573501326194594e-003 -1.1887545609362176e+000
    8.7513377308310325e-003 -1.2099310023331560e+000
    8.6227551646811448e-003 -1.1952622863821962e+000
    8.7678944748895600e-003 -1.3589355627680504e+000
    9.1324271820824813e-003 -1.5618473244902129e+000
    9.6633883072564479e-003 -1.7920439586256134e+000
    9.8771547560681204e-003 -1.8877251491398397e+000
    9.0154380797572674e-003 -1.5605312680047370e+000
    9.2509689078972678e-003 -1.6461147563240268e+000
    9.4500241950535805e-003 -1.7124950539694936e+000
    9.0551474594794401e-003 -1.5047860636852928e+000
    8.8054339239001227e-003 -1.3318114399835455e+000
    8.7237267538448644e-003 -1.3317747939062325e+000
    8.6746193915445847e-003 -1.1358672494545190e+000
    8.9009934283616320e-003 -1.2672578181382335e+000
    9.2600976437662054e-003 -1.6106677404052705e+000
    9.0266280859334063e-003 -1.4218895546003771e+000
    8.9499364750771481e-003 -1.3836392584904069e+000
    9.3504109647085821e-003 -1.6194896966686461e+000
    9.2026041794652062e-003 -1.5361951538647025e+000
    8.2991718967704142e-003 -1.2381981323309121e+000
    8.1955013019309256e-003 -1.1396749429269941e+000
    8.9915362960957500e-003 -1.4361455911953276e+000
    8.7686839863967588e-003 -1.3954173190250159e+000
    8.8515065504328246e-003 -1.3886185550900891e+000
    8.9790798549060566e-003 -1.5047545315423942e+000
    9.1445499906733767e-003 -1.5646989289226674e+000
    8.9565007790921216e-003 -1.5232889506927094e+000
    8.8472884253484180e-003 -1.3974363002585870e+000
    8.6065801911875475e-003 -1.0885669745141833e+000
    8.5034981105542081e-003 -1.1226209087929344e+000
    8.7141344165645902e-003 -1.3071449231681225e+000
    8.7747004751323725e-003 -1.4269168987078440e+000
    9.3406421813745609e-003 -1.6392220916959428e+000
    9.7517114963438806e-003 -1.7993325805297848e+000
    8.8537735992541035e-003 -1.4324231933851581e+000
    9.0871545075084329e-003 -1.5072828305776345e+000
    8.9218502843314892e-003 -1.4774503991578685e+000
    8.7840468148050379e-003 -1.3619241999951406e+000
    8.5725616178015246e-003 -1.1018450214107336e+000
    8.4710767084112040e-003 -1.0785153696926111e+000
    8.5479107057272515e-003 -1.1513272528668501e+000
    9.0754633396521005e-003 -1.4891619515177972e+000
    9.5533134034932431e-003 -1.6793407828568601e+000
    8.7640972529288066e-003 -1.3865839288011776e+000
    8.9724286189315390e-003 -1.4571913662406326e+000
    8.8998020441075770e-003 -1.4568639386104572e+000
    8.6341476321099512e-003 -1.3598471122414229e+000
    8.8295320678946458e-003 -1.4759899498072102e+000
    8.2442216517083985e-003 -1.0737133813732205e+000
    8.3992929926037779e-003 -1.2634300060601866e+000
    8.6371770763628199e-003 -1.3611490649996167e+000
    8.6986074186817131e-003 -1.4112487031156398e+000
    8.8004013817258690e-003 -1.4528093835140081e+000
    8.7896433307500001e-003 -1.4940508812424516e+000
    8.9434623487343653e-003 -1.4959008202183155e+000
    8.6682851655464875e-003 -1.2891871935248502e+000
    8.4036722063896858e-003 -1.1073785107175824e+000
    8.5611539559738350e-003 -1.2185857987858137e+000
    8.5302977936423038e-003 -1.2404332798611988e+000
    8.4660618258525500e-003 -1.2264866677934301e+000
    8.4823214795405732e-003 -1.2430952022665469e+000
    8.5531151831022747e-003 -1.3251564755061902e+000
    8.4345236616576568e-003 -1.1529062257527418e+000
    8.5976012137331283e-003 -1.1918382052514223e+000
    8.5302747255357782e-003 -1.2005846206425190e+000
    8.4600363562978426e-003 -1.1520336285936064e+000
    8.6034534431439422e-003 -1.1728205971579029e+000
    8.5294826236975846e-003 -1.1630888175199534e+000
    8.7685549708333491e-003 -1.4192123069230942e+000
    8.9840966524060047e-003 -1.5544062637014200e+000
    8.6808113580368884e-003 -1.3509502584895849e+000
    8.5818579913012633e-003 -1.2911136807808028e+000
    8.7346035432049069e-003 -1.3773272334115527e+000
    8.4424722112376952e-003 -1.3118809734251164e+000
    8.7816403579560175e-003 -1.4613855715061670e+000
    9.3579044576792107e-003 -1.7128447038259933e+000
    8.1802850400746717e-003 -1.0682644069663194e+000
    8.7483753540188135e-003 -1.3279634576075527e+000
    8.6100344492444497e-003 -1.3390557069769100e+000
    8.6916283626663569e-003 -1.3376095507940944e+000
    8.8018955539412944e-003 -1.3838848799246732e+000
    8.7167602263528710e-003 -1.3534213760825111e+000
    8.7483720917284780e-003 -1.2712898692315242e+000
    8.4684664564734970e-003 -1.1841670678233405e+000
    8.8580123115229465e-003 -1.3812144335542373e+000
    8.9625206893954226e-003 -1.4301314351289032e+000
    9.0407741423958309e-003 -1.4376429628030569e+000
    8.8395971631035648e-003 -1.3532695753506105e+000
    8.6411796120107933e-003 -1.2324074170396697e+000
    8.7657453323306579e-003 -1.3574808269458667e+000
    8.5752500796036496e-003 -1.1586862937364475e+000
    8.7505184787327345e-003 -1.0657699105631679e+000
    8.7910973024756464e-003 -1.2864113122023366e+000
    8.9717693305566403e-003 -1.4425547068920330e+000
    9.2596753831963412e-003 -1.5927780276771224e+000
    9.4113373231252719e-003 -1.6999573159688250e+000
    9.4624058412260369e-003 -1.7011499997710882e+000
    8.7853246013547392e-003 -1.2681338337194232e+000
    8.4482129733510925e-003 -1.0050640156427129e+000
    8.5473575619156306e-003 -1.1005557092319092e+000
    8.4854978523714823e-003 -1.2475718248467600e+000
    8.9817870347759475e-003 -1.4965382850789193e+000
    9.2774115333856908e-003 -1.6720723825187211e+000
    9.2213090344981721e-003 -1.7076170508670783e+000
    8.0101571015460150e-003 -1.0193842435929534e+000
    9.0352741446330168e-003 -1.4318962214433542e+000
    8.8891848616461881e-003 -1.4735070110147319e+000
    8.5732953330236623e-003 -1.2564394891649060e+000
    8.6415817838103176e-003 -1.1615380556666175e+000
    8.6714148199517598e-003 -1.0694335880588761e+000
    8.6493199458867014e-003 -1.0714235093594513e+000
    8.7488616927217811e-003 -1.2312846172377345e+000
    8.7452189155199332e-003 -1.3341865356701548e+000
    8.7836750801447549e-003 -1.3401613914587513e+000
    8.7103404018712659e-003 -1.3135984500438949e+000
    8.8574690709009810e-003 -1.3465328414549036e+000
    8.7307718095575269e-003 -1.2431878355834791e+000
    8.9361740111553404e-003 -1.3917390446112712e+000
    9.0340368440752113e-003 -1.3583276488775453e+000
    8.6309924329031149e-003 -1.1363469374286510e+000
    9.0153129078094692e-003 -1.3559878494079030e+000
    9.2802138315559914e-003 -1.5964378975463545e+000
    9.1824756185128146e-003 -1.5487250261788434e+000
    8.9518480249432993e-003 -1.3621162762451826e+000
    8.7433478567370392e-003 -1.1054138231695845e+000
    8.5145567526833596e-003 -9.2994441407560913e-001
    8.5819866319236451e-003 -1.0616553929975396e+000
    8.6699184575489783e-003 -1.2808845510347995e+000
    9.1186925476823485e-003 -1.5199050723272738e+000
    9.4264670538492263e-003 -1.6733502499080899e+000
    9.0163020632767262e-003 -1.5888918091188597e+000
    8.6105267419279152e-003 -1.5093764139565882e+000
    8.1641520153103962e-003 -1.1306831580617138e+000
    8.1589380536030622e-003 -1.0499805938523152e+000
    8.1806113803918317e-003 -1.0195344191235243e+000
    8.4238640084239088e-003 -9.3757253204578972e-001
    8.5509062622749626e-003 -8.4441128877654992e-001
    8.8317036201430599e-003 -8.1737564383522998e-001
    8.7770448280918272e-003 -8.2304256572900936e-001
    8.6806491179595609e-003 -7.9575153430739576e-001
    8.9054683399307569e-003 -7.7128636357213387e-001
    8.7406374261579361e-003 -7.6596200603587017e-001
    8.8388597023174743e-003 -7.3156009942898681e-001
    9.0202471723313925e-003 -7.4761624569776308e-001
    9.0869403493886378e-003 -7.4065628317412635e-001
    9.0323099443534276e-003 -7.4846902743098975e-001
    9.1388117875944030e-003 -7.6634489826542440e-001
    9.9223504025380254e-003 -6.7535110388213582e-001
    1.0125575951878249e-002 -5.9455504363242484e-001
    9.9021272926870917e-003 -5.8380944278863867e-001
    9.6778439522686513e-003 -6.0310216280773832e-001
    9.5554103280081244e-003 -6.5109759916582521e-001
    9.2524299971901963e-003 -7.6188009048408778e-001
    8.7867607520941207e-003 -1.0311856896521312e+000
    8.5202255374628253e-003 -1.2089104152524859e+000
    8.6258257961557647e-003 -1.3278205630660991e+000
    8.7044119642814052e-003 -1.4198657067350144e+000
    8.6514681514737232e-003 -1.4419269350089650e+000
    8.5094249140205414e-003 -1.4287448903462345e+000
    8.7026528719217379e-003 -1.5581086564472939e+000</input_scale>
  <output_scale>
    5.2631578947368418e-001 4.9999999999999994e-001
    5.2631578947368418e-001 4.9999999999999994e-001
    5.2631578947368418e-001 4.9999999999999994e-001
    5.2631578947368418e-001 4.9999999999999994e-001
    5.2631578947368418e-001 4.9999999999999994e-001
    5.2631578947368418e-001 4.9999999999999994e-001
    5.2631578947368418e-001 4.9999999999999994e-001
    5.2631578947368418e-001 4.9999999999999994e-001
    5.2631578947368418e-001 4.9999999999999994e-001
    5.2631578947368418e-001 4.9999999999999994e-001
    5.2631578947368418e-001 4.9999999999999994e-001
    5.2631578947368418e-001 4.9999999999999994e-001
    5.2631578947368418e-001 4.9999999999999994e-001
    5.2631578947368418e-001 4.9999999999999994e-001
    5.2631578947368418e-001 4.9999999999999994e-001
    5.2631578947368418e-001 4.9999999999999994e-001
    5.2631578947368418e-001 4.9999999999999994e-001
    5.2631578947368418e-001 4.9999999999999994e-001
    5.2631578947368418e-001 4.9999999999999994e-001
    5.2631578947368418e-001 4.9999999999999994e-001
    5.2631578947368418e-001 4.9999999999999994e-001
    5.2631578947368418e-001 4.9999999999999994e-001
    5.2631578947368418e-001 4.9999999999999994e-001
    5.2631578947368418e-001 4.9999999999999994e-001
    5.2631578947368418e-001 4.9999999999999994e-001
    5.2631578947368418e-001 4.9999999999999994e-001
    5.2631578947368418e-001 4.9999999999999994e-001
    5.2631578947368418e-001 4.9999999999999994e-001
    5.2631578947368418e-001 4.9999999999999994e-001 1. 0.
    5.2631578947368418e-001 4.9999999999999994e-001
    5.2631578947368418e-001 4.9999999999999994e-001
    5.2631578947368418e-001 4.9999999999999994e-001
    5.2631578947368418e-001 4.9999999999999994e-001
    5.2631578947368418e-001 4.9999999999999994e-001
    5.2631578947368418e-001 4.9999999999999994e-001 1. 0.</output_scale>
  <inv_output_scale>
    1.8999999999999999e+000 -9.4999999999999996e-001
    1.8999999999999999e+000 -9.4999999999999996e-001
    1.8999999999999999e+000 -9.4999999999999996e-001
    1.8999999999999999e+000 -9.4999999999999996e-001
    1.8999999999999999e+000 -9.4999999999999996e-001
    1.8999999999999999e+000 -9.4999999999999996e-001
    1.8999999999999999e+000 -9.4999999999999996e-001
    1.8999999999999999e+000 -9.4999999999999996e-001
    1.8999999999999999e+000 -9.4999999999999996e-001
    1.8999999999999999e+000 -9.4999999999999996e-001
    1.8999999999999999e+000 -9.4999999999999996e-001
    1.8999999999999999e+000 -9.4999999999999996e-001
    1.8999999999999999e+000 -9.4999999999999996e-001
    1.8999999999999999e+000 -9.4999999999999996e-001
    1.8999999999999999e+000 -9.4999999999999996e-001
    1.8999999999999999e+000 -9.4999999999999996e-001
    1.8999999999999999e+000 -9.4999999999999996e-001
    1.8999999999999999e+000 -9.4999999999999996e-001
    1.8999999999999999e+000 -9.4999999999999996e-001
    1.8999999999999999e+000 -9.4999999999999996e-001
    1.8999999999999999e+000 -9.4999999999999996e-001
    1.8999999999999999e+000 -9.4999999999999996e-001
    1.8999999999999999e+000 -9.4999999999999996e-001
    1.8999999999999999e+000 -9.4999999999999996e-001
    1.8999999999999999e+000 -9.4999999999999996e-001
    1.8999999999999999e+000 -9.4999999999999996e-001
    1.8999999999999999e+000 -9.4999999999999996e-001
    1.8999999999999999e+000 -9.4999999999999996e-001
    1.8999999999999999e+000 -9.4999999999999996e-001 1. 0.
    1.8999999999999999e+000 -9.4999999999999996e-001
    1.8999999999999999e+000 -9.4999999999999996e-001
    1.8999999999999999e+000 -9.4999999999999996e-001
    1.8999999999999999e+000 -9.4999999999999996e-001
    1.8999999999999999e+000 -9.4999999999999996e-001
    1.8999999999999999e+000 -9.4999999999999996e-001 1. 0.</inv_output_scale>
  <weights>
    <_>
      1.3132627868679907e+000 2.7525244096972290e-001
      -1.6459498225840619e-001 -9.6532112729701761e-002
      2.6055022368223135e-001 6.1669268654722131e-001
      -3.6048873477389604e-001 -1.6013486690595113e-001
      2.0622372954655929e-001 -3.1417885001963275e-001
      1.8831319980544544e-002 3.5399449979870011e-002
      4.5560341382552841e-002 -7.6467672934379588e-002
      3.5473617537000335e-001 3.0364979038004409e-002
      2.7057690711486965e-001 2.9721081930643317e-001
      1.8572335598858014e-001 1.0008521670010213e-001
      -2.6892472174246601e-001 2.1836642482625712e-001
      4.0148020633620086e-002 5.3349683668550037e-002
      -1.3617007783087340e-001 1.2984485719044314e-001
      -2.7771522908038659e-001 1.6010390952586728e-001
      -1.1649073244642655e-001 1.6016148893399540e-001
      2.2115174095453477e-001 2.0087049922465827e-001
      -4.0153748020386543e-001 2.2983751062321794e-001
      1.7033333457687470e+000 2.6277444694263430e-001
      -2.0181306824211676e-001 -6.0523246883674157e-002
      2.9090821883665052e-001 6.3860916004067780e-001
      -3.0797273796919999e-001 -1.6979627892156038e-001
      1.9476682707165732e-001 -3.1333059348158654e-001
      -1.2622505034046505e-004 5.0284820929832309e-002
      3.6612882397897548e-002 -1.0149709507746749e-001
      3.7511189044555537e-001 2.0068220077030467e-002
      2.5382007842749743e-001 2.8485946956076008e-001
      1.8060519266748767e-001 7.3486912363195780e-002
      -2.1119588103769651e-001 2.2657428426812320e-001
      4.4437222737022428e-002 1.0454912073527152e-001
      -1.6227431831515446e-001 1.1265065020414874e-001
      -2.8059738789717970e-001 1.6317334164135275e-001
      -1.1914152440514197e-001 1.5727192591526926e-001
      2.2550168283982636e-001 1.5676473084067691e-001
      -3.8377312469277935e-001 2.7314096149045014e-001
      2.8591259006616361e+000 2.8858262150760139e-001
      -2.3681760689902723e-001 3.6782991978483405e-003
      2.6679447388413280e-001 6.8435063465913248e-001
      -1.9631098536428906e-001 -1.6207492523283065e-001
      1.6956113643481632e-001 -3.0363240813610354e-001
      2.2076456350724843e-002 9.4925694814337713e-002
      1.4874638217001782e-002 -1.0410982921721475e-001
      3.8942811384935322e-001 1.6641863067344675e-002
      1.9975498406050038e-001 3.1100440608906227e-001
      2.1017464681351913e-001 5.0141422325152230e-002
      -1.7650528875221516e-001 2.0609508609362787e-001
      1.9201479500703403e-002 1.0693852009528075e-001
      -1.4927876813368529e-001 3.7701745587613189e-002
      -3.0802138920526079e-001 1.5186070743622410e-001
      -3.9419873140713095e-002 2.0107959189773458e-001
      2.4526623020502150e-001 1.1180864748258366e-001
      -3.2938206271401493e-001 2.5421088226005967e-001
      2.4183564723307769e+000 3.1230614092212267e-001
      -3.3110867808976385e-001 8.0388464815821254e-003
      2.4269740442163115e-001 5.6206999527632173e-001
      -2.0489492269381179e-001 -4.9620575066390997e-002
      3.5452026290759897e-001 -2.7025263421545587e-001
      3.6442589964514632e-002 9.2676257315979046e-002
      8.0319181362963152e-003 -1.0364600131820564e-001
      3.8418866181112654e-001 7.4512446982033607e-003
      2.0965646477771974e-001 2.6250421526648388e-001
      2.2263602091368770e-001 7.9231870747498837e-002
      -1.7826411203885639e-001 1.9937863544029347e-001
      8.2809295588193707e-002 1.8992668889274972e-001
      -1.1428982004663882e-001 -6.9016911319995837e-003
      -3.5879267813470972e-001 2.9239113794583221e-001
      -1.7102426260393773e-002 1.5443008476898501e-001
      3.0046494729008166e-001 9.7496498412643240e-002
      -3.0330546724594243e-001 2.4037340337671134e-001
      1.4610799460324404e+000 4.2405027267140144e-001
      -2.2279431160868537e-001 2.3321011033779891e-002
      1.5218835518410839e-001 2.2358584953426866e-001
      -2.4087954449100640e-001 1.9633336446429292e-001
      9.3691751059938322e-002 -2.5917956211633153e-001
      4.0393211593867884e-002 7.2666351823292827e-002
      -1.1878155987081659e-002 -5.6726077750084834e-002
      1.4646242110458546e-001 9.1556212513704688e-002
      2.4170126941668713e-001 1.0607231574470219e-001
      2.8643822620621379e-001 1.4859966043247430e-001
      -2.1856652653080685e-001 -9.4620786782794356e-002
      1.5252400833147831e-001 1.1093535623557385e-001
      -1.6894221755866309e-001 3.0094477899561517e-002
      -3.3091256710284706e-001 2.6571742691692379e-001
      -1.2222783447560748e-002 2.2121076272107709e-001
      2.5913654921402723e-001 2.5096978306559453e-001
      -3.3808983772260520e-001 1.6284333175251794e-001
      -5.0269586605485095e-001 4.1435977245531586e-001
      -1.4077351716435563e-001 -3.3822947729364325e-002
      2.2759576842126755e-001 1.8181384894192017e-002
      -3.0377209015276957e-001 2.6213099623271441e-001
      7.0277593376698679e-005 -2.8972845457727925e-001
      -2.0785654996574809e-002 3.5905712777791865e-002
      -6.2923563273081115e-002 1.1167982123465424e-002
      6.6245997154133859e-002 6.6189988824894052e-004
      1.9356127722172575e-001 1.9911480167478905e-002
      1.9035671568181770e-001 1.5577913066962651e-001
      -2.0322055755774965e-001 -2.0068082092257333e-001
      2.5685180922461498e-001 6.7403036813106151e-002
      -1.7210666617936654e-001 4.6196757462660845e-002
      -2.6189675485614977e-001 2.0670606424269655e-001
      -5.1030269728815865e-002 1.2764713098561525e-001
      2.5122903484312520e-001 1.5647492299337565e-001
      -3.3764212878493444e-001 1.1902825578057102e-001
      -5.6191219891862465e-001 3.4131385196467479e-001
      1.0783441080005346e-002 -1.6319588965186448e-002
      1.2952795176259321e-001 -5.4511367067915914e-002
      -3.9949205976856422e-001 4.0574274068266980e-001
      -1.5689244315890080e-001 -1.5575847731855930e-001
      -9.1071768764989600e-003 -1.2112039447323984e-001
      2.0479357594649809e-002 -9.1049917387430818e-002
      -2.0491575622178668e-002 -1.2151849650329933e-002
      2.8693937752118476e-001 -9.0947077139762633e-002
      3.6128241276335898e-001 1.6432642744340639e-001
      -1.3274049968603946e-001 -3.8932831061224832e-001
      1.8256115248368260e-001 -5.6234321612749043e-002
      -5.6483200389230735e-002 8.0440518504280245e-002
      -2.3340867285984845e-001 6.2403105242642691e-002
      1.1578791224431955e-003 1.0328391482425411e-001
      3.8985634033498884e-001 5.4410311702717255e-002
      -1.8010314787140894e-001 7.7935768051393989e-002
      -1.0171612928439944e-001 2.3614088586773582e-001
      1.3437231265412151e-002 1.0262790521708316e-001
      1.4582936213483527e-001 6.7620612096397720e-002
      -2.8101558652885611e-001 3.7795186181325746e-001
      -1.6711297331921893e-001 -1.0772033892547683e-001
      -3.3206664858566375e-002 -2.4391650183274322e-001
      8.3408306802718366e-002 -8.7217896445623319e-002
      -6.9681270838174630e-002 -1.9732156587576904e-002
      2.7012830453187414e-001 -1.0800581468679089e-001
      2.6328275558977071e-001 2.3972966751687272e-001
      -6.4422966071775320e-002 -3.7806680503574430e-001
      9.5861848191792096e-002 -8.4379008292831629e-003
      -5.8080379301586167e-002 1.1745019651839320e-001
      -5.7005093287124456e-002 5.5907140355530106e-002
      -3.8932958294282728e-003 6.1627769853257817e-002
      3.6296673813409785e-001 -4.7735280417686807e-002
      -1.5791963842054799e-001 9.5981578911352450e-002
      -1.9044681042446741e+000 2.0083733804151699e-001
      7.6557769136068087e-003 1.0494198290055834e-001
      2.7435390903539136e-001 1.7892059261505250e-001
      -1.5706697108873738e-001 9.6602145262887643e-002
      -1.4806765356102308e-001 -1.3753939289869999e-001
      1.0925348620467427e-001 -1.1913520095212024e-001
      1.8910113537520473e-001 -1.1685756691753305e-001
      -1.5049324493546806e-001 3.8091496381233457e-002
      1.7820285554000159e-001 -1.5544921340141205e-001
      2.2042959969673703e-001 2.2197998930553742e-001
      5.8388094763043470e-002 -2.9381926455942264e-001
      -4.6807436311565247e-002 6.5053235762768280e-002
      -2.2621228818315212e-001 1.9551612882145392e-001
      -4.9868839652220500e-003 1.6293235288613284e-001
      9.4241386192530044e-002 8.3971675184103006e-002
      3.1098134531186722e-001 -6.5167960636764036e-003
      -1.4499131085815592e-001 3.4749342347557582e-001
      -2.9645573431975425e+000 1.0492027594900526e-001
      4.0087607579347317e-002 1.1646721821459352e-002
      3.8878966822181410e-001 3.9867588271344717e-001
      -1.7075556530463926e-001 -6.4519526682315712e-002
      -3.8001112587067210e-001 -3.1956715813896874e-001
      3.4436559898060465e-001 -8.7630075514414707e-002
      1.4044133889511937e-001 -2.8126829851490470e-001
      -3.8694082650908235e-002 1.6199463523141658e-001
      2.7773859002907564e-001 1.7937540587355819e-001
      2.7726194282526079e-001 1.4145235096033665e-001
      6.4919452561193094e-002 -1.8270575908717440e-001
      -1.9172613328423468e-001 3.2008505994972530e-001
      -2.2507264944940938e-001 2.7995946836758223e-001
      -1.2115747671579664e-001 1.0347815798801953e-001
      3.6221163266955564e-001 7.1260551816044571e-002
      3.0269688541167067e-001 1.3903019419643420e-002
      -4.7868985248994000e-001 3.3363275931913566e-001
      -2.1420519129951732e+000 1.1171447843830737e-001
      -2.2313562027654336e-002 -5.4584587587441537e-003
      3.0033861011343621e-001 4.0636508670251797e-001
      -5.1199552480619068e-002 -3.5104988944288547e-002
      -3.5916093696972595e-001 -2.7528805468666412e-001
      4.3541547091217381e-001 -5.0193715149395170e-002
      1.5569057937733363e-001 -1.9955247527653133e-001
      6.5806732220452819e-003 3.0732762739796893e-001
      2.2608279919484608e-001 2.4401098704050378e-001
      2.7527659026059059e-001 1.7142060233616385e-001
      1.3766091471662079e-001 -7.6641301004173532e-002
      -1.3812420949070209e-001 3.4611863597388542e-001
      -3.2169420410150434e-001 1.9789333948861282e-001
      -1.3074560421193659e-001 1.5886405665866488e-001
      3.7498450328360250e-001 8.5017930296818228e-002
      8.0973683324608817e-002 3.9099722146704763e-002
      -4.4594202849283698e-001 2.0182135276796581e-001
      8.6191613273617879e-002 1.8278760433187338e-002
      -3.8245164957886693e-003 2.1149684458839923e-002
      1.6138713681638014e-001 3.5285347453317611e-001
      2.9430706707914204e-002 -2.6158231924574619e-002
      -1.8656023262885474e-001 -1.3542278912712155e-001
      3.8296551969131193e-001 1.0302402710166364e-001
      7.5482178089315316e-002 -2.0358948853135020e-001
      -6.2259471239399219e-002 1.9088935158206000e-001
      2.0462608307622596e-001 1.8293707414918828e-001
      3.5876963954213531e-001 1.1343126326359712e-001
      -3.3488473827354301e-002 -3.5311233298062927e-003
      -4.7572011352974682e-002 2.3692965224327220e-001
      -2.8272490391420901e-001 1.6006685268752964e-003
      -1.3472940300770073e-001 2.3648955538997488e-002
      3.3384972773324173e-001 1.1323152641286548e-001
      -8.2292347896242735e-002 4.0789093220322856e-002
      -2.8209356066350749e-001 3.2052840394649162e-001
      5.0282481029798420e-001 -3.9321199057357023e-002
      -1.0527908720181167e-001 1.4231290807902985e-001
      8.9992085162632560e-002 3.1296185068964111e-001
      5.4306618120989941e-002 1.6388354897465901e-001
      1.6807964355259046e-002 -1.6372262264054621e-001
      2.9243706647720680e-001 2.9109586447281893e-001
      -4.0082384868602487e-002 -1.1140981220944626e-003
      -7.6181868963503152e-002 2.1568867195454519e-001
      1.8372343496694216e-001 1.1316163538061555e-001
      3.1284174745398369e-001 4.4089045735901861e-002
      -5.9405709793818526e-002 6.3956522186914055e-002
      -9.0808796293485428e-002 2.6728933744121353e-001
      -2.4284700589458494e-001 -1.3534562369197503e-001
      -3.4996415583445580e-002 6.4842103417065127e-005
      3.4787159720622729e-001 2.0756394169790809e-001
      -1.0450431094418873e-001 -4.5046527814902905e-002
      -1.6118854477876043e-001 3.0248555160324558e-001
      2.5294382496552563e+000 -9.8869927206962055e-002
      -9.5832233458628444e-002 2.5548737746173761e-001
      -6.4042597339957902e-002 4.3943834921224084e-001
      1.7181601741864561e-001 4.3362693080692898e-002
      1.0445131743480286e-001 -2.1673965476646163e-002
      -1.6062018607013007e-002 4.1875724325324465e-002
      -1.1881535273546143e-001 2.0489965860114648e-001
      -8.1441964361351871e-002 -1.0025912953893210e-001
      2.5370625853451765e-002 -2.3515693968794410e-001
      9.5550430779030623e-002 7.3780449428777026e-002
      -2.1739348516119689e-001 -1.9451895260070452e-002
      5.5078973038859159e-003 3.8916327075780986e-002
      -1.1579078847419338e-001 -3.5533050564706037e-001
      -9.0337605551134459e-002 7.5212127385010458e-002
      2.4683960773701610e-001 1.1880028251193635e-001
      -2.2389610913035815e-001 -1.9597732484701541e-001
      2.4616459410779837e-001 2.5787233675596621e-001
      5.6758688566941995e+000 1.1428299016652980e-001
      -5.2855615834728573e-002 2.4205095088566173e-001
      -2.1104814039543116e-001 3.1944375576818101e-001
      1.1104773566002903e-001 -1.4224858118418535e-002
      1.2909857039977483e-002 -1.4575611244290806e-001
      -5.3999929002072185e-002 -2.0353653021520005e-001
      -4.6288052440296497e-002 9.5356127987868272e-002
      -5.1416481882683518e-003 -8.9132673652923877e-002
      1.6491575124579044e-001 -1.4728213936491186e-001
      1.0158846425888216e-001 9.8791791692275574e-002
      -2.2848406189055068e-001 -2.7356880595536281e-001
      1.0014613386931404e-001 2.6366278310559869e-002
      -1.6948258587916759e-001 -2.5217781261196193e-001
      -2.2040247423578022e-001 1.7383948475527813e-001
      1.5902684638117995e-001 1.1738419710112319e-001
      -1.3228058187583550e-001 -2.6023685207539682e-001
      1.0863700634193348e-001 -9.0036597323568696e-002
      6.1479448306886244e+000 2.2722817075969629e-001
      -9.2067679856582374e-002 1.3739657229968660e-001
      -2.2543760081477265e-001 2.9801505079461366e-001
      -4.5081880845913053e-002 -2.8269557173228977e-002
      4.4570817353161526e-002 -2.1989444550782508e-001
      -1.1544065870760459e-002 -3.2386811418347855e-001
      -6.2995499757578538e-002 8.6603901467647168e-002
      -1.8404308853653098e-003 -9.9082946437686809e-002
      2.0962234741982916e-001 -9.3048070531122698e-002
      1.5319696767197469e-001 1.4019677654679130e-001
      -1.9146952128310407e-001 -3.4845056612718156e-001
      7.3159570098215970e-002 -1.2684764108289049e-002
      -2.4260699628249066e-001 -2.2824361044678021e-001
      -2.8612051752489559e-001 1.2391858263005485e-001
      1.0262125600806994e-001 -4.2675353013573426e-002
      -6.5190219412087136e-002 -1.5748375950612201e-001
      8.7903035576047742e-002 -9.3693666137056267e-003
      6.9291585722710787e+000 3.5651483439528042e-001
      2.9633745005160788e-002 9.7257062910851719e-002
      4.0805619821671454e-002 2.7649932824115447e-001
      -2.1725738068350767e-001 -6.3043221642165720e-003
      -2.1013778578013506e-001 -3.8125184297846787e-001
      2.2470393992429238e-001 -3.5516971918334905e-001
      -9.1504081413550958e-002 -1.6324742405283826e-001
      7.8971423183619729e-002 -1.2623401497676140e-001
      4.2911396479890868e-001 2.9971852831586693e-001
      3.9384996928937666e-001 1.0234659610282192e-001
      -1.7081642186629697e-001 -4.9156293759779451e-001
      -8.5403204348014974e-002 1.6142181281035556e-001
      -2.9020615386293902e-001 -2.2736506410270741e-002
      -2.2175790013071661e-001 1.5596032508527877e-001
      2.9152433895386032e-001 4.6955998822364467e-002
      1.5732786281595720e-001 -5.5594015010277706e-002
      -4.1156199440374558e-001 5.3695378661157846e-002
      8.1004173494021536e+000 3.2150287788641557e-001
      -3.4957473832908190e-002 1.1420487351895195e-001
      -5.5794805469336177e-002 1.0968424627361477e-001
      -2.2665137899499391e-001 3.8989897839316029e-002
      -2.6889671072272453e-001 -3.2038725171261628e-001
      1.9580428455059060e-001 -3.1628903725361207e-001
      5.7427298920753142e-002 -2.2853449797261535e-001
      1.9170129992621851e-001 -5.7151067561501671e-002
      3.7750516814435947e-001 3.2720024306255685e-001
      3.8626039733877032e-001 1.1037607254054152e-001
      -5.0870493153543618e-002 -6.0596336111566884e-001
      -1.7995208594851045e-001 9.3520261685835396e-002
      -2.3311343612261529e-001 1.3663402390074608e-001
      -1.8792988556558296e-001 1.8784517237539261e-001
      3.1292910887639719e-001 6.1133355381106737e-002
      1.0333170483511685e-001 -3.2174948561189617e-002
      -4.2520621621324739e-001 -6.4449038954657881e-002
      7.1013035740184804e+000 2.0400630482970605e-001
      -6.9695747649518761e-002 5.5104719512522250e-002
      4.1662696128205307e-003 4.1332066159494169e-002
      -1.7114839699429130e-001 -2.4140802325424850e-002
      -2.5109632310760166e-001 -2.4390461827047535e-001
      1.7241343307406262e-001 -3.2468218730762310e-001
      9.8147058541351237e-002 -2.5162921313830561e-001
      2.2038951822107034e-001 4.5290531050369842e-003
      4.3587167517362746e-001 2.8885427160343635e-001
      3.7821622098225738e-001 7.4194309564884042e-002
      3.6633805244361127e-002 -6.7032298363846698e-001
      -1.5617464017985438e-001 3.8224748299779170e-002
      -1.3324650998021761e-001 1.7306968360144695e-001
      -1.3918883114122216e-001 3.4073674481225430e-001
      3.2832830238441257e-001 8.3244023905829065e-002
      1.6400716487857483e-001 4.2113164661306005e-002
      -4.8541015710383673e-001 -6.0854044826675585e-002
      5.7981654710395842e+000 1.2288705216963654e-001
      -1.4262378247582411e-001 1.6879817152388343e-001
      -1.1901141508240845e-001 -9.8266504609600236e-002
      4.9758668370694356e-002 1.1987010368507403e-001
      -6.5672957692910164e-002 2.1096600472070841e-002
      -6.7566154739506459e-002 -3.5036495157481495e-001
      -6.8218965090590649e-003 -5.3910439988697587e-002
      -1.0943677611781479e-002 -1.3539641574877703e-001
      3.0611995705255757e-001 -9.1480375968377332e-003
      1.8084204302249232e-001 9.0399843862983595e-002
      2.0198302344216539e-002 -6.1718785333219506e-001
      2.8735736078671394e-003 -6.9135771554956163e-002
      -5.5227130975779741e-002 -6.0187208434488562e-002
      -7.3961783056192928e-002 4.6391567421023810e-001
      2.8463903589213333e-002 5.5044523985386104e-002
      4.6896675902492822e-002 -2.5964246796531910e-002
      -1.3622292779625317e-001 -2.0541703297002004e-002
      6.3512407801538586e+000 1.6987774210434747e-001
      -2.8886341612633176e-001 1.8526230194130339e-001
      -1.2745856918509615e-001 -1.5502465027349727e-001
      1.1287397878716657e-001 3.2447362188507423e-001
      -1.4809642507551526e-001 2.0038466275785341e-001
      -9.2308986030436010e-002 -1.7611002605163037e-001
      9.3140723847831272e-002 -5.8365045353476024e-002
      -6.3653027814453339e-002 -2.2932358652249443e-001
      3.2233936440215588e-001 1.9311569401275083e-002
      1.9719498400605920e-001 1.4052199342248362e-001
      1.1443577004906383e-002 -4.4921685383597115e-001
      1.2117107255247219e-002 -1.1878732028728071e-001
      9.5692864947719516e-002 -1.8227388868492808e-001
      -9.3845276232920119e-002 3.5252808757181447e-001
      -5.7647932066693143e-002 1.0338880362802114e-001
      -5.2128759345210655e-002 1.6927200842501355e-001
      -1.9571365238304422e-001 -1.9717362062856930e-002
      5.4065469653814766e+000 8.8376852780174250e-002
      -3.5395499639532074e-001 6.2764707981547485e-002
      -4.1142747327049915e-002 -2.5123204103210850e-001
      1.3608615712472102e-001 1.0817943625015863e-001
      -2.2711859802368339e-001 2.5687552461148205e-001
      -3.7311075019465248e-002 1.2468769467205813e-001
      3.3313171715163466e-002 -9.5055440522467186e-002
      -9.5908507571636881e-002 -3.5299089658954613e-001
      1.2959503710080880e-001 -1.3593027282254918e-002
      6.2206136798891448e-002 5.0668479972299993e-002
      1.2863257483570064e-002 -1.6799975380193818e-001
      8.0740321857283526e-002 -1.6524313513676003e-001
      1.7391420590697160e-001 -1.9070510405702615e-001
      -1.2884153901460990e-001 1.6638112026703739e-001
      -2.2768308337366994e-001 1.2492048253316341e-002
      -1.9876458352684304e-001 1.3690290489191084e-001
      -6.7282406831417826e-002 1.2566262024598571e-001
      1.9370761588929315e+000 -1.4343045410482426e-003
      -4.3935998930952103e-001 2.2118522941461202e-002
      4.5406768178740758e-002 -6.1605426016931331e-001
      2.2055241116685767e-001 1.0071278254181491e-002
      -1.6750406175484961e-001 2.9463002290617085e-001
      -8.4461143236587488e-002 3.5275899087528728e-001
      3.8741430498843460e-002 9.8038891940691000e-002
      -2.1001234941693908e-001 -2.4719558195585592e-001
      -7.6710194565461270e-002 -1.4121158604728631e-001
      -1.2862095297813561e-001 -6.3528627621941378e-002
      7.0758759361352369e-002 1.0750674639698161e-001
      1.0048614772367519e-001 -2.1588788685328433e-001
      2.8246006560296288e-001 -2.6350249782149004e-001
      -8.4041899526624636e-002 8.3331443890459586e-002
      -4.2524830799696434e-001 1.1006032179756009e-002
      -4.0228101741825234e-001 6.8360021963670123e-002
      1.7837951495572288e-001 2.0967225937706421e-001
      2.2214266067548141e-001 -1.4380306961766398e-001
      -4.7859340190576372e-001 -7.0114770750600791e-003
      -2.5959179818759462e-002 -5.5303163414435397e-001
      2.7299933125633086e-001 7.7543338281574392e-002
      3.3744621026985708e-002 3.1528312848268236e-001
      -8.6798320326562081e-002 3.5709407785266473e-001
      9.3966091863070839e-002 2.5912038163955142e-001
      -2.5872638143069920e-001 -1.8831565005747544e-001
      -2.1058307118381653e-001 -1.9172745182710699e-001
      -2.6541802887451565e-001 -6.3196605848043777e-002
      1.2813310492260380e-001 3.6411607081816300e-001
      1.2949280608076283e-001 -6.8346748440097138e-002
      2.1005215739249189e-001 -2.3682685574818679e-001
      -2.9949541918085857e-002 2.8360365783359241e-002
      -4.8556046630026928e-001 -2.3066499678555518e-002
      -4.5960612125920919e-001 3.7015998808352844e-002
      2.4131086948969008e-001 1.9389352771271975e-001
      -1.6477546322419083e+000 -2.4648833698091793e-001
      -4.1588737518417351e-001 3.1994277644511571e-002
      1.2294181596821658e-002 -1.9185918049791290e-001
      3.8046234153159519e-001 1.4519292809445894e-001
      3.2149387826053055e-001 2.6629928979159939e-001
      -1.8076616205917082e-001 4.0524218835103742e-001
      5.7816393966040838e-002 3.6672888019014688e-001
      -9.5554199111236429e-002 -1.7045040726288617e-002
      -2.1321993374881429e-001 -3.3419939536286796e-003
      -3.1904035071024506e-001 3.5385087836342151e-002
      1.1975644371296355e-001 4.5145625831431624e-001
      2.6780062626967255e-001 7.9077789206099230e-002
      1.8849365248340838e-001 -2.6075234360947891e-001
      6.8138804849629281e-002 6.9580865576083853e-002
      -3.3917560237479705e-001 1.9790787185067101e-002
      -4.3007591897432618e-001 1.9370827625057194e-001
      2.2029140915856402e-001 2.4104226995895031e-001
      -1.2408672050449316e+000 -2.7524379794326509e-001
      -3.3010916073314706e-001 5.7297348693868544e-002
      4.5181854086599291e-002 -1.2855438660936711e-001
      3.8769549147272941e-001 -5.2728641371687784e-002
      3.3952667868537512e-001 2.2125589463033113e-001
      -1.9942084805844051e-001 4.3453189773072171e-001
      7.3845344306300839e-002 3.2806624236192516e-001
      -8.0929408365940272e-002 2.8580627095824235e-002
      -2.1886203606658611e-001 -1.7740758570464078e-002
      -2.8241903644781458e-001 3.1214745643510910e-002
      -3.4201626843300317e-002 4.2100440767519853e-001
      2.6963237068063806e-001 1.3530523273107473e-002
      2.2892005520768721e-001 -2.6695783719611604e-001
      1.3818815355039518e-001 -3.4115777346240349e-002
      -2.7417466958102277e-001 9.8683353564984616e-002
      -3.8326785438184369e-001 2.4653800106032103e-001
      2.5007259829876100e-001 2.6716757984181438e-001
      -1.3691364156333625e+000 -2.4465088250187775e-001
      -3.2563433830679922e-001 -1.7963125095537782e-002
      -3.2841291895641153e-002 1.3348238667876992e-002
      2.9645728087769302e-001 -1.3504179277919179e-001
      3.4856137880351068e-001 1.7579753418062591e-001
      -2.1409718263690333e-001 4.1384250070134071e-001
      6.6721071892926628e-002 3.5177560106704842e-001
      -5.1162840344985000e-002 4.2256724067095325e-002
      -2.9080489586165459e-001 -1.1016115450501381e-002
      -2.8710575619794826e-001 3.9599321877862373e-002
      -6.9889633531494591e-002 4.3411246358916356e-001
      2.8276425531078708e-001 5.6178695371591557e-002
      2.3140120008309004e-001 -2.8157359337720733e-001
      -7.6416841251692111e-003 -2.5829245604421042e-002
      -2.9269694134467295e-001 3.6943761857209031e-002
      -4.0891914070729996e-001 2.0898681765347410e-001
      2.7546259181395744e-001 2.1308285500989790e-001
      2.6882802144753432e-001 -2.6082951649841302e-001
      -1.6746442371357301e-001 -7.7123284875704953e-002
      -5.8320094484247000e-002 8.8947738595660325e-002
      1.8344614738050641e-001 -2.9030074120506771e-001
      3.3734300579757731e-001 1.1405419905807990e-001
      -2.0107706308051729e-001 4.2411031081107731e-001
      1.0964480196582338e-001 3.5006179183490804e-001
      -6.2374132938980476e-002 5.5846699988462395e-002
      -2.6332762986181696e-001 2.6064228359160479e-003
      -2.4948640143704809e-001 2.6511883165498323e-002
      -7.6318410652136723e-002 4.1875212021467523e-001
      2.5563268608431994e-001 -3.1422646183689425e-003
      2.2592908150193727e-001 -2.2750712612593110e-001
      -1.9140215823136483e-001 9.6714921506148036e-002
      -1.4852080531370870e-001 5.4491331192541646e-002
      -3.7020698820176240e-001 2.5151689095766927e-001
      3.0533651344573171e-001 2.4957688981409898e-001
      3.4732121363245633e-001 3.0152548187698003e-001
      -1.5253816546833390e-001 -3.2898650410918048e-003
      1.6950335183221313e-001 5.8127419212064191e-001
      -3.3714111440953098e-001 -2.2235600744147055e-001
      3.6538414325465962e-001 -2.9487518797529233e-001
      -6.4451900427827599e-002 1.2751907683463773e-001
      -8.2209490846256849e-003 -8.6766295729803766e-002
      3.9324449239458659e-001 1.9852445296645857e-002
      2.7145421505665035e-001 2.7246487559083093e-001
      1.6268297801833698e-001 2.3393522840667291e-001
      -2.7193780320462890e-001 2.0707525447340569e-001
      1.5013679863258703e-001 1.4082609456344017e-001
      -2.9796760927614446e-001 7.4632271535331363e-002
      -1.5572577661058862e-001 1.3447180400307931e-001
      -4.3449724354866128e-003 1.2303900869916330e-001
      1.7503807424035819e-001 2.9673753829522531e-001
      -3.6847755725998599e-001 1.9289184451844557e-001
      5.1087816293227961e-001 2.8997549168351083e-001
      -1.3047949454973240e-001 5.6457773183397564e-002
      5.6506427216333893e-002 5.2915358445176286e-001
      -3.0833216712624417e-001 9.9394323490804154e-003
      1.6654766332644241e-001 -2.5760742820853405e-001
      -7.0723838419356713e-002 1.1972614534455525e-001
      -3.7915743887486759e-002 2.5001267230027369e-002
      3.2011597368092365e-001 8.2719953565330948e-002
      1.6794807336855547e-001 1.3050631056504214e-001
      1.5123378257957876e-001 2.6059666121078845e-001
      -3.1136170338503416e-001 7.5724096587439393e-002
      1.3360461541398183e-001 2.3813839550913973e-001
      -3.1980558111207785e-001 7.2606988465295827e-002
      -1.6703924908991408e-001 7.8950072498633575e-002
      6.1292890964792159e-002 1.5202825124405034e-001
      1.8757322213646616e-001 1.2348040497087746e-001
      -2.9131719585014471e-001 2.0078871117411606e-001
      1.9415124647038859e+000 3.4017017974150554e-001
      -2.6718988728257714e-001 3.8828256662979656e-002
      1.0492108893137859e-001 2.7237787123650686e-001
      -2.6582348162553782e-001 7.4998251695928927e-002
      6.0596717244999501e-002 -2.4483959637955985e-001
      -6.1871238567894678e-002 1.5297271071484034e-001
      -5.8036732509902059e-002 1.7238880798738389e-002
      2.5449595198297331e-001 4.1429875835338567e-002
      1.4481918164239749e-001 2.4025421243233575e-001
      2.9139075219241745e-001 2.3999476874752329e-001
      -2.7371825770135638e-001 -2.7483564403697227e-002
      1.2644443009175121e-001 1.9495025396279214e-001
      -2.3772867948769558e-001 2.1551532756530350e-002
      -2.9542870742411553e-001 -9.7578649481757738e-003
      -3.7488844260241280e-002 1.4760213049707135e-001
      2.6321317443181907e-001 -5.3231036799214836e-002
      -1.8101754615826463e-001 1.0430668403629254e-001
      -2.9884343673497504e-001 5.0021838607044766e-001
      -7.2014367604865764e-002 1.0528989675319794e-002
      3.7734897933271616e-002 -9.1288190269726871e-002
      -2.4361437503424579e-001 3.2436998163578634e-001
      -9.2224112413726536e-002 -2.3957391430649569e-001
      -2.7902073635166745e-003 9.3321754300408608e-002
      4.2013665396938363e-002 -1.2383591275479333e-001
      1.4393274217770408e-001 -6.9552833327904823e-003
      2.7791557100313719e-001 1.1682554651145970e-001
      2.7493151356388101e-001 2.3584300378410558e-001
      -2.5726015927540496e-001 -5.0196524579648127e-002
      2.0607869945081325e-001 1.8840449092981093e-001
      -2.3478418135974530e-001 8.2675224506605249e-002
      -3.1347493536649201e-001 1.3743431985387250e-001
      -6.5961748948021551e-002 5.5886734070274260e-004
      2.2140276516377133e-001 -8.6702087582785817e-002
      -2.6327848967286771e-001 2.8091006217214529e-002
      5.3056615093999338e-001 3.2617358371863869e-001
      1.8156839898784211e-001 -5.2314574157465571e-002
      7.2475610127481771e-002 2.1353625737534099e-001
      -3.0862071346799302e-001 2.5912188660102847e-001
      -1.7038783159775611e-001 -2.4240697268595521e-001
      -1.0846882424048221e-002 -7.7644353724851858e-002
      1.4208042914598529e-001 -1.6437739888052019e-001
      6.8624243020306633e-002 1.0940739232423245e-001
      3.5029990461725474e-001 9.1866714643007302e-002
      3.6936862561687778e-001 1.8797132852057394e-001
      -1.7752914614910736e-001 -4.4709234089285832e-001
      8.8162053142198867e-005 7.9666751268512581e-003
      -3.2274063052349612e-004 1.4598759598727801e-001
      -3.0704439599728489e-001 4.9448476256590872e-002
      2.1994122730348155e-002 5.1657963438105720e-002
      2.1121030771264665e-001 -2.4160407723553565e-001
      -1.3584558762739030e-001 5.2230769900908261e-002
      1.0283530959172784e+000 1.8338197191124833e-001
      1.5643306360253365e-001 2.2757414762383927e-002
      -2.4208237932987778e-002 3.4665031209677616e-001
      -1.7872405977758948e-001 9.9437278970578649e-003
      -4.4682690895203614e-001 -9.7749038274230690e-002
      2.1911653780433468e-002 -1.6229880040637146e-001
      2.7473631716123442e-001 -1.0990382446797024e-001
      1.2183472207534138e-001 1.6035014095319178e-001
      3.0934907732442457e-001 -1.0960065722136269e-002
      2.0348710618384228e-001 1.5333670694279952e-001
      1.7865058280631338e-001 -6.2380830701577361e-001
      -1.3020694642404695e-001 2.2858337340669378e-002
      -1.8162171363430987e-003 1.6670227799234449e-001
      -2.3510689700892695e-001 -1.6965068636347665e-002
      1.1971714360324553e-001 4.9939827607558961e-002
      9.0459937728377529e-002 -4.9093896775572708e-002
      -7.7874005141307920e-002 9.5929791448925703e-002
      1.1021352852813726e+000 8.3949951414169374e-002
      1.1219212787465484e-002 9.8145471730838374e-002
      1.8062162077862906e-001 2.9137371092880632e-001
      -3.0750546871751119e-002 -2.7075820860352723e-001
      -3.2997027582330551e-001 -2.2205167544224344e-001
      1.7387655681656722e-001 -2.3183967791671092e-001
      2.7629646801414259e-001 -5.8152979332110590e-002
      1.6258151839588134e-002 1.6310227756435963e-001
      2.2935273592114055e-001 1.9806775781032507e-001
      1.8093938479560662e-001 3.1431870618644214e-001
      2.4460137504642743e-001 -5.8551944271895917e-001
      -2.1024684279961649e-002 2.8968830361131970e-001
      -2.9997052803510238e-001 2.3652365078931525e-001
      3.3390378144805125e-002 -1.4924714039923709e-001
      3.1698420785329140e-001 6.2161945726937139e-002
      -5.8289612045441886e-003 7.9659929645761476e-002
      -3.2948129035051105e-001 -5.9345933617812895e-002
      2.4089739227573312e-001 -1.4978361282996705e-001
      -2.3134563605219861e-002 5.5275112440044523e-002
      5.6129329180944265e-002 1.7657681028747221e-001
      3.3400364251498546e-002 -1.4967258601999592e-001
      -6.7913221872545212e-002 -8.8239505850508895e-002
      -1.8178243898601426e-002 -1.9862104422361632e-001
      1.2270498986845431e-001 1.8523718919050039e-001
      5.2720371324496945e-002 7.1314554018863260e-002
      5.6364899781017705e-002 4.3068130426908635e-003
      1.6433533777028018e-002 2.8548788145361109e-001
      8.0754810943485467e-002 -3.2807900518739952e-001
      1.7619090965473205e-001 1.7751986788908067e-001
      -1.4867670180552386e-001 7.9555149045426168e-002
      6.3201790656931517e-002 -2.6852711194774659e-001
      1.1698498457295106e-001 5.8774230208370477e-002
      -1.6358589848100150e-001 1.7932774997878560e-002
      9.2421243509750624e-003 1.5860277645559342e-001
      1.1640736082863209e-001 -1.2546113538584669e-001
      1.4491055751427466e-002 4.4485908679693743e-002
      -4.4472030985700183e-004 5.9696166891130698e-001
      1.1457135815096561e-001 -4.8360215202347312e-001
      1.3155652202776077e-001 1.1380268369951828e-001
      -1.6387367862511421e-001 2.0175913436946921e-001
      6.0437515379194187e-002 3.1609669638928095e-001
      8.6261575498911544e-002 3.3775778675602698e-002
      -2.8634702247476596e-001 -4.4776657647863433e-001
      -3.1985440723859249e-001 2.4530691604258645e-001
      -1.7009345677570920e-001 1.1050845531596168e-001
      2.2696176966067236e-001 8.0493326727511444e-002
      -2.1083897318292305e-001 -9.5743800992455608e-002
      1.9267904860590124e-001 -1.4158366396791888e-001
      1.7896334348036394e-003 7.4898880765159992e-002
      -3.1830347509236179e-001 -2.5012673319910111e-001
      4.0991644199951283e-001 1.5291457444274612e-001
      2.8556669283022291e+000 -1.3815858455830082e-001
      -1.8391004296303026e-002 -9.4478882438510214e-002
      -7.6299027631262159e-002 6.5341127832314883e-001
      9.0494522410804787e-002 -3.6809570264069180e-001
      4.6494546587384243e-002 1.9970481256466444e-001
      -1.3438794592464434e-001 2.5268618225892070e-001
      -5.0126925944810899e-002 3.3949829708210472e-001
      9.9187387948241092e-003 7.1756906508441409e-002
      -2.0596492192862362e-001 -4.0395872471116612e-001
      -3.2077987408795461e-001 2.1593309297291677e-001
      -1.8881743107957524e-001 4.4438746009751541e-002
      1.8804861668015477e-001 -7.5078319165133231e-002
      1.2047759193286078e-001 -1.6533232003185566e-001
      4.4753570713420482e-002 3.4539607531785525e-002
      -7.2537044813431845e-002 7.3755858084052411e-002
      -3.4170419813307362e-001 -1.4420933074441589e-001
      4.6095279457228866e-001 -3.2375903002557129e-003
      4.4774673788639356e+000 4.5011675578118769e-002
      -2.1937569243248217e-002 7.0475988579553409e-003
      -4.8904010919515843e-002 3.8997639142653701e-001
      2.8681664022400456e-002 -9.1138588964802293e-003
      3.6187991285622523e-001 2.2327569394012833e-001
      -8.3787212902758298e-002 2.7352784187399454e-001
      -1.4170498657192612e-001 3.6900378244395937e-001
      -1.6650260527347394e-001 2.8052417118756540e-001
      -1.6374559878744838e-001 -2.4160454623639022e-001
      -2.2079463694301985e-001 1.8305591671145377e-001
      -7.2475324374690966e-002 -2.5204020119376813e-001
      2.6211589024926879e-001 -7.3176133857903544e-002
      2.9577540296716467e-002 -2.0456344574348401e-001
      7.1372243907929900e-002 1.4523143653882459e-001
      -1.3445030715771245e-001 1.5485799300217809e-001
      -2.9620180791981493e-001 8.7974005994228568e-002
      3.2897777061859246e-001 -1.3662958223391572e-001
      1.9270757263373057e+000 3.8367443200946663e-002
      -9.1138512336549321e-002 1.9948546954691487e-001
      -5.9095094769530530e-002 2.2650181412008946e-001
      -7.6012853642268133e-002 2.7974655180340469e-001
      2.4219414061876518e-001 6.1237336446292617e-002
      -8.3130685230325657e-002 2.5921535611505980e-001
      -2.0202992072471476e-001 2.1232800296675322e-001
      -6.2154210002301598e-002 1.0496403412275510e-001
      -1.4588264932111461e-001 6.8548420992432607e-002
      -2.1202921721271717e-001 4.3272811357777621e-002
      -4.0643516418212747e-002 -3.1098129024213139e-001
      1.2916794881459961e-001 1.6417223915643647e-001
      -1.8002049480885654e-001 -1.4965773737181723e-001
      1.3036105637089575e-002 -1.3964826047963451e-003
      -2.5876720485858724e-003 9.5365047460010219e-002
      -2.1921414242865270e-001 2.1031879622935942e-001
      2.7551283972476080e-003 -1.1507931814051173e-001
      -1.9638204314389351e+000 2.0339864858266575e-002
      2.3261905167500635e-001 8.5327201361026686e-002
      2.0526472734096392e-002 1.0065424783315279e-001
      -1.5960027626625012e-001 1.1025002880346516e-001
      2.8356887290753646e-001 2.9972021086631554e-002
      -5.5841944630082005e-002 4.0660275755196013e-001
      -1.5952953716190748e-002 2.2255213330758025e-001
      -1.2980507705232970e-002 2.2180407854315709e-001
      -1.9286770478725992e-001 -7.0005525719992981e-002
      -1.8237187785248421e-001 1.0869235707014421e-001
      2.0034611944797162e-001 -2.0893098866513107e-001
      2.3232150780315219e-001 3.0115770992640389e-001
      1.1164797733363351e-001 -3.7671698296257917e-002
      -7.5306477360562757e-002 -1.2788589767184086e-001
      8.4146692084723224e-002 1.4163368606752660e-001
      -6.7112390841972402e-002 1.1867236384925339e-001
      1.3943480905359248e-001 9.5270767666292611e-002
      -2.0141528656600287e+000 -3.7196984172522742e-002
      1.2344926692406401e-003 -1.3698516332398989e-002
      6.0180117207966642e-002 2.2791789056843417e-001
      -1.1558229933897816e-002 -1.5354939698383246e-001
      1.4954863114563988e-001 4.6457626286633899e-002
      5.6848761479672077e-002 5.0869009857545833e-001
      1.1528840102967682e-001 1.2981397451790921e-001
      3.8908128201595331e-002 1.9582133859049922e-001
      -1.7368242785888174e-001 5.6928398751534798e-002
      -1.8969660567192395e-001 -7.4392211772057704e-004
      1.2671014753922982e-001 -1.5719849181954959e-001
      2.1767650748915943e-001 2.8634007547248835e-001
      -7.7959225948130817e-002 -1.3532065808974111e-002
      -1.3905542850121161e-002 -1.7365197812702701e-001
      1.3167896229774068e-001 2.5746958324957253e-001
      -2.6352464579450446e-001 -1.9442429412369570e-002
      1.8846738733371260e-001 2.3009320221900051e-001
      -2.8337034758202795e+000 -1.5557459485566449e-001
      -1.4093830318412873e-001 8.1649353299799929e-002
      1.6275092318012352e-001 4.6394734659831455e-001
      1.7637122064575675e-001 -3.0124869017741673e-001
      -4.7865971644547303e-003 -7.9726223989018720e-003
      3.9510814112374455e-002 3.3181021947024419e-001
      2.2609949758434880e-001 1.0477022340824579e-001
      5.6605454596291384e-002 1.7969412163011778e-001
      -1.0105831282260319e-001 1.3789084389994252e-001
      -1.7701674136813297e-001 4.2684156127336191e-002
      7.0900007472846277e-002 -4.4162901056960641e-001
      1.2215735369398577e-001 1.5629332647131924e-001
      1.0146557365154657e-001 1.7644537436443419e-003
      -1.8159817442357368e-002 -9.7096850610595323e-002
      1.6267980254816800e-001 1.5257052832663404e-001
      -3.3757391278961413e-001 1.4955513753068375e-001
      8.8883793715125906e-002 -5.2264245770388011e-002
      8.9816822893679904e-001 -8.7417139719932438e-002
      -1.0072439438467268e-001 8.1705359609335129e-002
      1.5952795417796758e-001 5.4368575290273990e-001
      4.7436061741773831e-002 -3.9890073756084693e-001
      3.2324480286151168e-002 -1.7903183719563159e-001
      5.1652414817463889e-002 2.0314087205142151e-001
      2.6089055557522617e-001 7.0917780416164949e-002
      2.3075946857498292e-001 -1.3884734044344925e-002
      7.3403093786188645e-002 3.0706362159150841e-001
      -1.2427395680930925e-002 -3.4463716321759312e-002
      -4.2572352742598664e-002 -4.9511422533837829e-001
      4.5744719284054693e-002 1.1395700776582300e-001
      2.7600287799376166e-001 -6.9151104855050285e-002
      -2.1216923371265478e-001 1.6094228757522144e-002
      1.1468684154572550e-001 -6.8912186433944547e-002
      -2.2075236706404783e-001 4.3396040996557278e-001
      -2.6279696188389162e-001 1.5682158530955767e-001
      4.1561533424942008e+000 -8.1525253542692855e-002
      -1.4544882713161394e-001 -3.8505668568961607e-002
      1.0602144860221356e-001 5.4368633854747539e-001
      -1.8202944645367775e-001 -2.9977314973740515e-001
      -2.4333987982329819e-001 -2.5457394560084845e-001
      9.3351927941518545e-002 -2.9068175085260428e-003
      1.8489907174765952e-001 -4.9965251770026170e-002
      2.1426195384850541e-001 -5.5605281115398662e-002
      2.9777431253064097e-002 3.4126804393182453e-001
      2.1593050189569302e-001 -1.2729475090564799e-001
      -1.6444139222224219e-001 -3.8864946816088614e-001
      -8.6738743047849898e-002 -2.8375798481894886e-002
      1.4160873530831652e-001 6.2995933128671550e-002
      -4.0981399388704209e-001 6.5695100503643633e-002
      1.3229119792812518e-002 -1.2353312385445689e-001
      -2.0620624729226963e-001 3.1590274600352980e-001
      -2.7678361041595223e-001 7.7964088614189797e-002
      5.2200166683490732e+000 -5.4293930624332791e-002
      -1.1162993891383337e-001 3.6709431321899988e-003
      1.5175511146496073e-001 3.8159412651321178e-001
      -7.6896577988541437e-002 -2.0222117010151555e-001
      -3.1392283314241165e-001 -1.9461569098933032e-001
      3.2280181361323497e-002 8.2323876422248962e-002
      2.2099206571522997e-001 -5.6293807633869264e-002
      2.0087354359918963e-001 -5.2903074848817080e-002
      8.1516081181397831e-002 2.1457216674245538e-001
      2.3806954079961257e-001 -2.4317218467641094e-002
      -9.4257952609778636e-002 -2.0833071210984813e-001
      -1.0081762521621801e-001 6.1737241500234172e-002
      2.1237761857177601e-002 1.1615599908299076e-001
      -2.7981944488962335e-001 1.3928081909799350e-001
      -8.9121555301250849e-002 -1.0902318801669163e-001
      -1.8796148618306840e-001 4.7705694772854607e-002
      -2.4124850266986173e-001 1.1187304493072887e-001
      4.5979133774999612e+000 -8.3227644282468011e-002
      -1.4693847085756642e-001 -9.3484746709799102e-002
      2.6539194340192929e-001 1.6441171004144473e-001
      -1.3847091321767221e-001 -2.3356440373722115e-001
      -3.0508913774290614e-001 -2.5553604751002607e-001
      -2.3627255772092529e-002 -1.5903971969286063e-001
      -2.2076094154666395e-002 -2.7775967308693802e-002
      1.1725064831741443e-001 -1.5521273004469427e-001
      1.1710665568654838e-001 1.9938857113491545e-001
      2.4552849970838631e-001 -2.6029110100351475e-002
      -1.5286957344096908e-001 -2.6645724438952467e-001
      -1.0460290784961987e-001 -2.5515659976127408e-002
      1.3334473934225866e-001 1.2587883693379262e-001
      -2.0976205283960753e-001 1.5874452287184931e-001
      3.8586803263179675e-002 -2.3716906676585131e-002
      -8.6473586602947405e-002 1.5494788904303278e-001
      -2.4121385553132993e-001 1.1418016784698141e-001
      4.6007980744596351e+000 -9.2503541142733403e-002
      -9.3169211197006094e-002 1.0342642180361579e-001
      1.9073561853215698e-001 2.6080422574942330e-001
      -9.9487564190821651e-002 5.4138237709401842e-002
      -1.4398186822124595e-001 -1.5379578504792588e-001
      -3.8475954285885322e-002 -3.4842129759509732e-001
      -8.9676426396508475e-003 -8.4017148219562618e-002
      1.6236349073580850e-002 1.1799506015696919e-002
      2.6192446078217602e-001 1.0078848687112552e-001
      2.1787161539132807e-001 2.8510251537525327e-001
      2.0230294395932630e-001 -2.4194120534859101e-001
      -7.6899822825501646e-002 -1.0655213616996032e-001
      -2.4119055763018388e-001 4.6542563040107995e-002
      -1.0409270178782033e-001 1.3323682923314925e-001
      2.6891031392808590e-001 1.0318590035973164e-001
      -1.0870882671709542e-002 2.6065892109166677e-001
      -2.5220107928507507e-001 8.3528204543212817e-002
      2.4599261962901990e+000 2.2352321260100352e-001
      2.2088672156316727e-001 2.7034553732469113e-002
      2.5430672922243958e-001 4.6231404400553278e-001
      -3.5183350034742117e-001 4.4491162160712354e-002
      -3.9539951695745897e-003 -3.1955665971253300e-001
      2.0648553609291484e-001 -3.3539062079358367e-001
      5.6198881945001763e-002 -2.8305752751627583e-001
      2.2962702302033780e-001 2.3057692788303705e-001
      4.3685089751217898e-001 4.0275031944614381e-001
      4.4786796352310715e-001 2.6356811500918542e-001
      1.7669809098406608e-001 -5.4969047947306970e-001
      -1.2028613697333762e-001 3.1617272894721264e-002
      -2.7806205506235915e-001 1.5543324710282108e-001
      -1.7709437389932070e-003 4.7772721715078681e-002
      6.2807637990389198e-001 1.6072718389816876e-001
      2.5461364382777274e-001 3.7741270177386999e-001
      -5.3477394596083971e-001 2.4629238121360253e-002
      -1.2169080604693219e-001 1.9462655216642044e-001
      1.9323818210467866e-001 -1.3852144853895840e-001
      1.8978730425228688e-001 2.9750782397681669e-001
      -3.5107098028178702e-001 -4.8033911284384189e-004
      -1.4144764264534768e-001 -3.0051781060506605e-001
      2.2082820046782223e-001 -2.6437050819938623e-001
      2.0798881685953366e-001 -2.9132504627135608e-001
      2.1810838630688398e-001 1.5821936822945157e-001
      4.3154545653717891e-001 2.8528776694670110e-001
      4.2642266827846409e-001 2.2958204962853168e-001
      2.1901856946592407e-001 -2.4499684413816239e-001
      -1.1983363685799853e-001 1.1346577313797986e-001
      -1.1985894701988040e-001 1.2450731674784417e-001
      -6.3074626464481712e-002 -1.6562753031286903e-002
      5.8689399642252327e-001 1.5969357492695960e-001
      2.5369921734202411e-001 2.2048432609915505e-001
      -4.6907681409171315e-001 4.2724710170379149e-001
      -2.8270306278929247e-001 9.2149071881420297e-002
      -1.3019551019647627e-001 -3.9319787419818730e-001
      1.7814140130763583e-002 -5.8799849946120600e-002
      -1.7576285021132715e-001 1.1291204425467240e-002
      -4.8495452037960585e-001 -2.1582845301646189e-001
      1.6862390241930419e-001 -3.5681707387070237e-002
      1.6023118246568926e-001 -1.5039237610142353e-001
      -1.5205650681949570e-001 6.0813576923430805e-002
      2.6294583739221516e-001 -1.5134888125057969e-001
      2.2516442250979676e-001 1.4313099347778873e-002
      4.0270351620000491e-002 -1.7489767272303958e-001
      -9.5815650512039427e-002 1.5616102998330325e-001
      3.5709670466970223e-001 9.9389406853192641e-002
      -1.0089221097276622e-001 -1.1933314308891717e-001
      1.6904642307576143e-001 1.5809982440993706e-001
      -4.7624861390098326e-002 -1.7093920771484117e-001
      7.7623535696622670e-002 4.3912147288021136e-001
      8.5499888439429894e-001 1.8128008426908482e-001
      -1.7134164804453980e-001 -3.4557703467545470e-001
      -9.9242800041776491e-002 -4.7247728840551939e-001
      -1.2074013931276925e-001 3.9985947748998170e-002
      -3.4385180566365436e-001 -1.9697337054035358e-001
      1.6356558151269721e-001 -4.6394746239894154e-002
      2.1806452949705271e-001 -8.8286303949257933e-002
      -2.6906748793147273e-001 -4.6178815739462961e-002
      1.5869497812118477e-001 4.1928985577798117e-002
      1.5750631543128749e-001 -8.8124170840407662e-002
      -3.2225193500402954e-002 -2.7868848270739732e-001
      5.1795961834617536e-002 2.0062418646869087e-001
      7.2301584557658796e-002 1.9003879973184107e-001
      -3.8326940638660451e-001 6.1756614748919816e-002
      -5.2353709997186464e-002 8.3868093438183175e-002
      -1.9169375364729224e-001 -3.4447446018797939e-001
      2.7912541610158703e-003 -6.4548947697734019e-002
      2.5085168854078348e+000 1.4913125213015814e-003
      -1.3127214755076774e-001 2.3758687722689950e-002
      -1.0298925685594625e-001 -1.3525387342849959e-001
      -9.4966756240349587e-003 -8.9266523219159233e-002
      1.1003501677255760e-001 -7.9689418753270385e-003
      -2.8231792718104221e-002 5.3232898731574068e-003
      8.3003093531897734e-002 1.0321690696660210e-001
      -3.1534842381687418e-002 -3.2658163736237200e-001
      8.6458309981409298e-002 6.5353580161825933e-003
      -9.2694500448506426e-002 -7.4698137604919460e-002
      -4.3449315262971022e-002 -2.9174887572291041e-002
      2.6986051575285025e-001 -4.6962757839473887e-002
      -1.2373445739531757e-002 -2.1940565598579231e-001
      -3.6756061095226505e-001 9.7806716097059793e-002
      -6.8403655417039924e-002 -1.5233676759968304e-001
      -3.2660508366521884e-001 -1.4752741888936433e-001
      8.6639720816050619e-002 1.3445972459582856e-001
      2.9437479135147857e+000 -5.9563347336768727e-002
      -1.6068930177160257e-001 2.3142481105094162e-001
      8.3378609006025353e-002 7.5438876022270118e-002
      5.1495597040696298e-002 -9.2934345362678888e-002
      3.1980708509190314e-001 1.1814258167072045e-001
      -2.1636494381957314e-001 1.5098088810299312e-001
      1.2994071670254859e-001 2.9302171395951065e-001
      4.8738407754007423e-002 -3.3609165731527457e-001
      6.5012950417862050e-002 -9.1107723030083951e-002
      -2.5238861495980924e-001 -5.2581334675591111e-003
      7.5215204391585286e-002 -1.8623853092314711e-002
      2.3446112221495111e-001 -2.0786173964342175e-001
      3.5513777174508168e-002 -3.6838924529192052e-001
      -9.2717171241749746e-002 -4.9767213163356402e-002
      -3.8449165203819573e-002 -1.2435811698748994e-001
      -4.1411749955285693e-001 -5.1443461921103599e-002
      -7.2424187516011540e-002 1.1508535797188761e-002
      2.2596190815398431e+000 -1.4336561680084489e-001
      -2.3842975535430408e-001 2.4865803472203138e-001
      -2.6462809670469836e-002 -1.6301134173853551e-002
      1.9119380881210685e-001 1.1233287796493786e-001
      3.1743366728132194e-001 3.3682663923528228e-001
      -1.8994053082962720e-001 2.5915681722832623e-001
      1.0003281351863226e-001 3.6912635851625741e-001
      -1.8594269761721313e-001 -2.2317534449655677e-001
      -1.6680582044250755e-001 -1.4001456513317997e-001
      -3.7080474729552848e-001 1.2090184162077545e-001
      1.7715837533150872e-001 7.9217689082068651e-002
      2.4201450482333753e-001 1.7027986560225108e-002
      -1.1774307479550440e-003 -3.1872128218707618e-001
      1.3205700808517845e-001 1.7216255583021381e-002
      -9.4607772096781895e-002 -1.2596635077764626e-001
      -4.4916144974572086e-001 7.0595125480719098e-002
      -1.0941696729133266e-001 2.0846291685381496e-001
      -3.2010112101184102e-001 -2.9436359435000764e-001
      -1.3277138932594693e-001 -8.6693857206854213e-002
      4.2264118851917283e-003 -4.8032992667829510e-002
      1.6800765054937164e-001 -1.2196037630298757e-001
      3.2583173084191208e-001 1.3960336278605717e-001
      -2.1809454948113344e-001 4.5682199709684806e-001
      -9.2142760084513824e-003 3.2806059291435768e-001
      -2.0314975146314693e-001 -1.0710703339759813e-002
      -4.0248587822155968e-001 1.6032530247668379e-002
      -2.6112104065799174e-001 2.0598756167666654e-002
      1.1480420486659966e-002 4.2152082301437310e-001
      2.5673746791164370e-001 1.1372272428651116e-001
      2.0376464147853743e-001 -2.0746205903441306e-001
      -8.1202202406617838e-002 1.2904688344185546e-002
      -1.7362399323978575e-001 4.7390191441436691e-002
      -4.1132353961113249e-001 1.1679568694638176e-001
      3.4158125362633668e-001 2.3102908949375817e-001
      1.1343436815720520e+000 1.8623265819000309e-001
      -6.4122739944894522e-002 -1.1447600463675860e-002
      9.9429857571549124e-002 6.5711153899865848e-001
      -1.8359371624986362e-001 -1.5535525158189548e-001
      2.5744384284902239e-001 -3.9396870958538582e-001
      -7.9266876336836933e-002 1.1972622594678223e-001
      2.7596682980565401e-002 4.5701242855337838e-002
      5.2911953462879391e-001 1.0802770799743486e-001
      2.6367335060115754e-001 3.3431581199932897e-001
      1.1129944289962800e-001 4.7129152708102424e-002
      -3.0306986164553940e-001 8.8655887421705146e-002
      1.6721399912452983e-001 2.7991184093815819e-001
      -2.8623371309483009e-001 5.8601365270298404e-002
      -1.8814444431578617e-001 -8.1112797375313433e-002
      2.4364419378147142e-001 2.2163316493826826e-001
      -3.0110626549826325e-002 2.3252223896394066e-002
      -3.3231279363065702e-001 3.2651150669406848e-001
      2.2503883129730817e+000 3.5006289374845961e-001
      4.3327676349071143e-002 -7.9033404131193224e-002
      1.2454872511867607e-001 3.7643600461712545e-001
      -1.9944309264989507e-001 -3.0283175579351301e-001
      -2.2033324622305520e-001 -2.3639522516712366e-001
      9.5194414036839425e-002 2.4946058392605910e-001
      -5.1041627815245159e-003 -2.3677437538555085e-001
      3.4180852963687197e-001 6.3622293019998319e-002
      1.0390159690698238e-001 2.4289269249308010e-001
      4.2738999889021079e-001 1.2830695179008111e-001
      -1.8157392143911652e-001 -1.2532159989931321e-001
