<?xml version="1.0"?>
<opencv_storage>
<my_nn type_id="opencv-ml-ann-mlp">
  <layer_sizes type_id="opencv-matrix">
    <rows>1</rows>
    <cols>3</cols>
    <dt>i</dt>
    <data>
      784 34 37</data></layer_sizes>
  <activation_function>SIGMOID_SYM</activation_function>
  <f_param1>1.</f_param1>
  <f_param2>1.</f_param2>
  <min_val>-9.4999999999999996e-001</min_val>
  <max_val>9.4999999999999996e-001</max_val>
  <min_val1>-9.7999999999999998e-001</min_val1>
  <max_val1>9.7999999999999998e-001</max_val1>
  <training_params>
    <train_method>BACKPROP</train_method>
    <dw_scale>1.0000000000000001e-001</dw_scale>
    <moment_scale>1.0000000000000001e-001</moment_scale>
    <term_criteria><epsilon>1.0000000149011612e-001</epsilon>
      <iterations>5000</iterations></term_criteria></training_params>
  <input_scale>
    1.0360178922275261e-002 -2.1743466449563673e+000
    1.0213430214862701e-002 -2.1115605321301203e+000
    9.9916897664216620e-003 -2.0267786687141744e+000
    9.8272381556820023e-003 -1.9269636420652385e+000
    9.3458520178876341e-003 -1.7275899038126326e+000
    8.8379071114503792e-003 -1.4616032492573368e+000
    8.3979828006934751e-003 -1.1916048224042703e+000
    8.3996744543491098e-003 -9.9559144513819298e-001
    8.8244970791741938e-003 -8.0945930928316501e-001
    9.2558705769010818e-003 -6.9454112604885632e-001
    9.5092340354951885e-003 -6.4745287963975640e-001
    9.9237836296389263e-003 -6.1378960059790399e-001
    1.1320589704651076e-002 -5.1008772047375428e-001
    1.1107900006948427e-002 -5.2514346952375790e-001
    9.8737161279926437e-003 -6.4565488032699869e-001
    8.8852407797261300e-003 -7.1946055249467200e-001
    8.5037049486771845e-003 -7.8611155938823229e-001
    8.4728897907695635e-003 -7.7760610512214279e-001
    8.5503378492538841e-003 -7.7714225655030711e-001
    8.5282432010197213e-003 -8.2027291722539986e-001
    8.6790874229239496e-003 -9.2591691491981754e-001
    8.8857727445089043e-003 -1.0317059453795328e+000
    8.4568944670199465e-003 -1.0040254193212077e+000
    8.2418180309226791e-003 -1.0721433155043238e+000
    8.2416021738972844e-003 -1.1858314367385765e+000
    8.1656666689227733e-003 -1.2386820025187006e+000
    8.1710998234293310e-003 -1.2623698673425712e+000
    8.2970356534089705e-003 -1.3378816106358398e+000
    9.7688550721250194e-003 -1.9449748092426351e+000
    9.7013572448425098e-003 -1.8745958142021981e+000
    9.3242517398675184e-003 -1.6921785278810086e+000
    8.8671250017087078e-003 -1.4357585656648137e+000
    8.3962277243309746e-003 -1.2094541425247023e+000
    8.3171582948245032e-003 -1.1278009339954198e+000
    8.4800864211424989e-003 -1.0667124807310069e+000
    8.8300889901609843e-003 -9.7989553885452685e-001
    8.8221046759611611e-003 -9.0382423319336802e-001
    8.7640389004284662e-003 -1.0572814719514938e+000
    9.0165075211842971e-003 -1.2786160710523164e+000
    8.9045890320298936e-003 -1.2888928235875923e+000
    8.8317802948092855e-003 -1.1234590379979257e+000
    8.8689560242961093e-003 -1.1536491176327004e+000
    8.9518009218310275e-003 -1.1961259819983816e+000
    9.0153851085500152e-003 -1.3760154325016851e+000
    8.9031694960433616e-003 -1.4525324113446600e+000
    8.7723303005055649e-003 -1.3866464141258019e+000
    8.7902674712796534e-003 -1.2960166296704680e+000
    8.6654027722831480e-003 -1.1645395287558375e+000
    8.6937692444383225e-003 -9.4897819691034402e-001
    8.7435992544843272e-003 -7.9612373880153642e-001
    8.8818729820252171e-003 -8.7297245698822845e-001
    8.8917517121851562e-003 -1.2451990527530050e+000
    9.2169752886166034e-003 -1.5918145380459097e+000
    9.7461632158579777e-003 -1.8684969770728754e+000
    9.7704025918935421e-003 -1.8309126180134128e+000
    8.1534135058995479e-003 -1.2798367026597852e+000
    9.3854468406621636e-003 -1.8079114071288882e+000
    9.6281719917719541e-003 -1.7984460822035644e+000
    8.7394897523371887e-003 -1.4197239314224361e+000
    8.3627431651689902e-003 -1.2308160649760620e+000
    8.5251706861587031e-003 -1.2406832227687106e+000
    8.7483574104682341e-003 -1.3469616258246830e+000
    8.9526859100318330e-003 -1.3817671536075895e+000
    8.6003850653927991e-003 -1.2137483536118370e+000
    8.8181643030153731e-003 -1.3153577336789366e+000
    9.3721966317151326e-003 -1.5801820120986818e+000
    9.0670867616318238e-003 -1.5184692092326026e+000
    8.9532536301671507e-003 -1.4441313744308013e+000
    8.6645476069151899e-003 -1.2472873356041640e+000
    8.7177404366463214e-003 -1.1824096707188667e+000
    8.6655999190068164e-003 -9.9337217269661005e-001
    8.8240782240391405e-003 -1.2233011007427821e+000
    9.0045873410076332e-003 -1.4627640084839950e+000
    9.2725814160415296e-003 -1.6106198408892658e+000
    1.0019770016250953e-002 -1.8960552063019704e+000
    9.6712837499306932e-003 -1.7461288593417676e+000
    8.6928433043301518e-003 -1.3519602621192364e+000
    8.8150391011259724e-003 -1.1979509127597057e+000
    8.5771806413708612e-003 -1.1372613070524371e+000
    8.4397064214641292e-003 -1.1313560417457871e+000
    8.6386198145739397e-003 -1.3314595780536760e+000
    9.3298010310907866e-003 -1.6838845616414355e+000
    1.0361147841851288e-002 -2.0652238814276620e+000
    8.2325024027151816e-003 -1.3082921516481987e+000
    9.0517797237751694e-003 -1.6226936531550298e+000
    8.8423507503769989e-003 -1.5032375666730367e+000
    8.3512639388976812e-003 -1.3179483353630839e+000
    8.7053739715987014e-003 -1.3943315589043916e+000
    9.0434010797324146e-003 -1.5265363508730054e+000
    8.8686014553575349e-003 -1.4610163362911206e+000
    8.5340500185936384e-003 -1.2158535388039298e+000
    8.6087257155463160e-003 -1.1899171131736679e+000
    8.6624662837233475e-003 -1.2495369098059863e+000
    8.6250692353776939e-003 -1.1817884387719180e+000
    8.6839108926458249e-003 -1.1786726145466289e+000
    8.7749625133949662e-003 -1.3508678378362386e+000
    8.4915559451769901e-003 -1.2589152379942874e+000
    8.7162966063183064e-003 -1.2898604473015594e+000
    8.5894117515457266e-003 -9.6173559440486989e-001
    8.8036133501378355e-003 -1.0325852251702730e+000
    8.4786380343122667e-003 -1.2191560056142616e+000
    8.6514363867680934e-003 -1.3123176228972535e+000
    8.9227416400846568e-003 -1.3555782373339740e+000
    8.5374906901780224e-003 -1.2669032637417414e+000
    8.8114522058603782e-003 -1.4499391763075988e+000
    9.5012219735126861e-003 -1.7271055868125660e+000
    8.7855552620313242e-003 -1.4185679680535896e+000
    8.4586983684258529e-003 -1.2088847739972695e+000
    8.4299443936359606e-003 -1.2740200281722998e+000
    8.6854955170137110e-003 -1.4260299401689456e+000
    9.4157415547306295e-003 -1.7319897563367688e+000
    8.2518546301161167e-003 -1.2730495751252033e+000
    8.7007666957586334e-003 -1.4579359050781571e+000
    8.6141795322734853e-003 -1.3928108464912445e+000
    8.6950922792357922e-003 -1.3791142467722923e+000
    9.2417285302203167e-003 -1.6093240757646738e+000
    9.4164301040046295e-003 -1.6708999418603181e+000
    8.9207568430502149e-003 -1.4085426665032723e+000
    8.5584657880714236e-003 -1.2635479177978310e+000
    8.9393069764731516e-003 -1.3227064603097907e+000
    8.8221405217578357e-003 -1.0847363130477492e+000
    8.6982820866626145e-003 -9.4420136359247542e-001
    8.5485172075981213e-003 -1.0223960760211053e+000
    8.7630800693748023e-003 -1.2669930435341674e+000
    8.9587173005023623e-003 -1.4548023843799738e+000
    9.2375883949256249e-003 -1.5992963956233213e+000
    8.6263651446346901e-003 -1.1827888843447456e+000
    8.6556944637758634e-003 -1.1319560861566811e+000
    8.7231226166953925e-003 -1.3457100302815910e+000
    8.5992450120562017e-003 -1.1399229613739565e+000
    8.5662605914542857e-003 -9.6318981249533253e-001
    8.6926705596888140e-003 -1.0954076785045066e+000
    9.3609825000234240e-003 -1.6106383333555114e+000
    1.0007904271624861e-002 -1.9514272112887951e+000
    9.5779344521515538e-003 -1.7547573540326309e+000
    8.9393640935725525e-003 -1.4395654516604424e+000
    8.6799072796434323e-003 -1.2646538070756097e+000
    8.4388803656143888e-003 -1.2009212956922399e+000
    8.7649001487934489e-003 -1.3129843163245487e+000
    8.3371956131909480e-003 -1.2416829639135494e+000
    8.5805151572850794e-003 -1.4149685928614988e+000
    8.8056093236014710e-003 -1.4145329837312282e+000
    8.9694953045882358e-003 -1.4368850988719815e+000
    9.3123350977928447e-003 -1.6230315078902600e+000
    9.3171323924982584e-003 -1.5589534462861163e+000
    8.6564249385016768e-003 -1.3244922198756790e+000
    8.9634462503299199e-003 -1.3809364278169070e+000
    8.8983630467077499e-003 -1.3127854463051489e+000
    8.7824556433988721e-003 -9.7701136349014750e-001
    8.7837225677226856e-003 -1.0775841987223329e+000
    8.6120701890622826e-003 -1.1539628548129883e+000
    8.6793032224792982e-003 -1.2407988423667662e+000
    9.2053992740478915e-003 -1.5743020522085909e+000
    9.6704844915206974e-003 -1.8031653621357755e+000
    9.0287261736399158e-003 -1.4406368866089934e+000
    8.6484058383612481e-003 -1.2735015810897008e+000
    9.4457551626777984e-003 -1.6558221935374642e+000
    8.6614754114240806e-003 -1.2020059863871611e+000
    8.6679059229457286e-003 -1.0238680367553616e+000
    8.5778284544106107e-003 -1.1468445013732582e+000
    8.8997376055606411e-003 -1.4024002394849886e+000
    9.2890862020225552e-003 -1.5554425851670297e+000
    8.9252486516708876e-003 -1.4819516274370819e+000
    8.6816532334334038e-003 -1.3271868850449544e+000
    8.6921124616108365e-003 -1.1834641202452472e+000
    8.3678942966443175e-003 -1.0484792579371118e+000
    8.6241154029032159e-003 -1.1388244707683193e+000
    8.6863560011452377e-003 -1.3423132271871578e+000
    8.5769886815095769e-003 -1.4255252044390685e+000
    8.7582021260585036e-003 -1.3835505175729712e+000
    8.7687514254030045e-003 -1.3943214947298217e+000
    9.2155872078911062e-003 -1.5350125909717773e+000
    8.6944224579110704e-003 -1.2919090266063629e+000
    8.7120847201934606e-003 -1.2945099432777147e+000
    8.7678169535173496e-003 -1.3750790950609209e+000
    8.7322106841988077e-003 -1.0973373545570357e+000
    8.6059356874023021e-003 -9.6403725450066691e-001
    8.7795022368850738e-003 -1.2873232502517227e+000
    9.0503024302251225e-003 -1.4582538895376398e+000
    8.5484982950832390e-003 -1.2954077631973338e+000
    9.2551754615695717e-003 -1.5949468769817297e+000
    9.7455113439279470e-003 -1.8690261308214164e+000
    9.1970396947846679e-003 -1.5772210243966358e+000
    8.5301564845748357e-003 -1.2756280085356160e+000
    9.4545340154200755e-003 -1.6344301365137170e+000
    8.4904695356573627e-003 -1.2829008148881242e+000
    8.8062650121392763e-003 -1.2931694481368945e+000
    8.6316534861035164e-003 -1.2184146196470134e+000
    8.7088130048109634e-003 -1.1386624691855138e+000
    8.5492895798094243e-003 -1.2065344258025377e+000
    8.8632852632988795e-003 -1.4292407995808554e+000
    9.0384665503670178e-003 -1.4547584909088846e+000
    9.2386346918244613e-003 -1.4939695235062864e+000
    8.7805287359812838e-003 -1.3201482536377083e+000
    8.7041711183652171e-003 -1.2515637385288856e+000
    8.7437360254739444e-003 -1.4752847777199156e+000
    8.6546863438638315e-003 -1.4306921511819197e+000
    8.6062091012409029e-003 -1.3520685499678087e+000
    8.9087455362550499e-003 -1.4846539316921950e+000
    9.3509134206790964e-003 -1.5793625860160927e+000
    8.5786547082115083e-003 -1.2475957629533982e+000
    9.0186583882264585e-003 -1.4377088735309766e+000
    8.9633442289146006e-003 -1.3562358421818985e+000
    8.5958491315880590e-003 -1.0434138461479481e+000
    8.6701226148469396e-003 -1.1232275516263663e+000
    9.1800800127527574e-003 -1.5515112540553397e+000
    9.4265184443029747e-003 -1.6577548761773344e+000
    8.5878775629133035e-003 -1.3334279517629273e+000
    9.2950796727270385e-003 -1.6024816500990382e+000
    1.0563275534081424e-002 -2.1358385152067823e+000
    9.7632413513076815e-003 -1.7829479465939555e+000
    8.5181941612433015e-003 -1.2930560234414823e+000
    8.9456329094601671e-003 -1.4414458092114550e+000
    8.8206936346371875e-003 -1.4053367757123387e+000
    9.1262534062748358e-003 -1.5188255989807267e+000
    8.6717703276592128e-003 -1.2171720382043949e+000
    8.6314582217169086e-003 -1.1481320232397978e+000
    8.8336525154265478e-003 -1.3524752198327343e+000
    9.5695718970247538e-003 -1.6960048587952263e+000
    9.2488419240753707e-003 -1.6405308327062609e+000
    9.5689522948395039e-003 -1.6962871417527445e+000
    8.9049695659952355e-003 -1.4325068224631752e+000
    8.5227479813376351e-003 -1.2404756440236042e+000
    8.9693922331010398e-003 -1.5387080076743382e+000
    9.0273892320212636e-003 -1.5872996452969852e+000
    8.9528176829596611e-003 -1.5254772894062811e+000
    9.6032385828410758e-003 -1.7436885510840503e+000
    9.8971397805557755e-003 -1.8368839701150717e+000
    8.8432327531476722e-003 -1.4790776370908594e+000
    9.8409290308511983e-003 -1.8101289571325099e+000
    9.2751312731717741e-003 -1.4757386633349712e+000
    8.6672379344017361e-003 -1.2083446829750470e+000
    8.9963479931120770e-003 -1.4567815267454871e+000
    1.0181865963748210e-002 -1.9371846643217363e+000
    9.9466641618439853e-003 -1.8877193936815406e+000
    8.9471661588798254e-003 -1.4977834532145438e+000
    9.5544013856722291e-003 -1.6854714353509916e+000
    1.2338420961716619e-002 -2.6575812419552629e+000
    1.1303092567370001e-002 -2.2679563314219675e+000
    8.8224051134250265e-003 -1.4325171492669462e+000
    8.9031224010645438e-003 -1.4343360377364582e+000
    9.1484999096368824e-003 -1.5364570219247873e+000
    9.1737592066559129e-003 -1.4868061044973142e+000
    8.6690939674245824e-003 -1.2784758849267408e+000
    9.0961678804918848e-003 -1.4549764775084306e+000
    9.7433734690194895e-003 -1.7558180665086682e+000
    9.7279665748242466e-003 -1.8226853299932337e+000
    9.6732465390802977e-003 -1.7905577374694548e+000
    9.6843422698189539e-003 -1.7768477296376226e+000
    8.9897304294849906e-003 -1.4772505837697776e+000
    8.7958189745436441e-003 -1.3918013463180374e+000
    9.2572127497606276e-003 -1.6631481527473877e+000
    9.1546079288650183e-003 -1.6672570609420996e+000
    9.1076799840785587e-003 -1.6316303317794831e+000
    1.0054018888616017e-002 -1.9277276164143933e+000
    1.0107954162380792e-002 -1.9227494274847532e+000
    9.0224318122161581e-003 -1.5594857402824576e+000
    9.2449900363301106e-003 -1.6159277586474194e+000
    8.7714979428606919e-003 -1.3819500879466511e+000
    8.9162880343606251e-003 -1.4187748273574741e+000
    9.5846716355058332e-003 -1.7237539577533358e+000
    9.9233338118584289e-003 -1.9011547234400274e+000
    9.5714781671199563e-003 -1.8042366777506218e+000
    9.1242761904291435e-003 -1.5611110956030880e+000
    9.0982695432887655e-003 -1.5324363959702805e+000
    1.1851483746626311e-002 -2.5174107845353655e+000
    1.1489758830857840e-002 -2.3859525620057194e+000
    9.5286020365719440e-003 -1.6810182415979451e+000
    9.0554665310906435e-003 -1.4957106919320682e+000
    8.8937880560722507e-003 -1.4238799896141485e+000
    8.6464457235560684e-003 -1.2940065530180138e+000
    9.0956919858365126e-003 -1.4673565658104692e+000
    1.0178094503715452e-002 -1.9159825065997900e+000
    1.0945474702101840e-002 -2.2126523395903228e+000
    1.0964677298967508e-002 -2.2431971861440396e+000
    1.1131920916312267e-002 -2.2429012013650946e+000
    9.8880775273698877e-003 -1.8833823137984287e+000
    9.0619551722240267e-003 -1.6122567293698997e+000
    9.3403747903403264e-003 -1.6718680979295915e+000
    9.5753981274582737e-003 -1.8376211506986970e+000
    9.1804485179958831e-003 -1.7002968458890479e+000
    9.6352297900874611e-003 -1.8300326366058139e+000
    1.0425402346716277e-002 -2.1043834665558210e+000
    1.1035117378815412e-002 -2.2740335436623553e+000
    1.0538726974154790e-002 -2.0891045354625453e+000
    1.0515889933977717e-002 -2.0743575750832113e+000
    9.5828630191531101e-003 -1.7672797365242177e+000
    1.0035686827762584e-002 -1.9052765383696402e+000
    1.0057255884787689e-002 -1.9216822484066969e+000
    1.0308376288943833e-002 -2.0101443569701840e+000
    9.9336655105808653e-003 -1.9206801498137605e+000
    9.4769053168254937e-003 -1.6420960808124019e+000
    8.7804388905286281e-003 -1.3937453680551617e+000
    1.0681758597489630e-002 -2.1474239836865605e+000
    1.0605804894817199e-002 -2.1273080335748542e+000
    9.6884889573101707e-003 -1.7751571647759534e+000
    8.9288136213482670e-003 -1.4332947507876903e+000
    8.6004554259753417e-003 -1.2106698515030545e+000
    8.9724707527885760e-003 -1.4183584768754205e+000
    9.7342207547491851e-003 -1.7766407872115659e+000
    1.0417255349668078e-002 -2.0727690072962655e+000
    1.0593711156183115e-002 -2.1349349334344669e+000
    1.0759926357670960e-002 -2.1555208143609392e+000
    1.0760258000434533e-002 -2.1892189768214543e+000
    9.9793852274398295e-003 -1.9389336110869788e+000
    9.7258499090371025e-003 -1.8890003378168123e+000
    1.0528375927114426e-002 -2.1245335789219553e+000
    9.9038010480618170e-003 -1.9835204343705417e+000
    9.3367702147673214e-003 -1.7678140329823202e+000
    1.0231833674124780e-002 -2.0489773052920657e+000
    1.1555686934905581e-002 -2.4769038230314986e+000
    1.2620795765228298e-002 -2.7630840562896433e+000
    1.2656129220953870e-002 -2.7836032332276459e+000
    1.2591869305759427e-002 -2.7584226587144274e+000
    1.0839032973524168e-002 -2.2435295951018364e+000
    1.0955040015542549e-002 -2.2378889566818736e+000
    1.0279751354123751e-002 -2.0171125432503607e+000
    1.0306751115769241e-002 -2.0386905859996172e+000
    9.8692839880985678e-003 -1.8901684264872101e+000
    9.5492525104953572e-003 -1.6798954543966791e+000
    8.5842825440528795e-003 -1.2935847721226794e+000
    9.7418292740770376e-003 -1.7865577214938486e+000
    9.5867724000014299e-003 -1.7776057981972391e+000
    9.0925119039064212e-003 -1.5652231036346094e+000
    8.6671844620975960e-003 -1.2463634546466733e+000
    8.6944009955057279e-003 -1.2934437154252267e+000
    9.8898066460700578e-003 -1.8186954953290984e+000
    1.0103544209803304e-002 -1.9629530047166357e+000
    9.8972547169090350e-003 -1.8421138995779676e+000
    9.3667122188838842e-003 -1.6923706891263444e+000
    9.5743343057052132e-003 -1.7767960961207678e+000
    9.6778711866191362e-003 -1.8422142659427365e+000
    9.8076847013381686e-003 -1.8816888412190851e+000
    1.0810814025403454e-002 -2.2382776305088443e+000
    1.1816631793088445e-002 -2.5466961307721134e+000
    1.0045242300689549e-002 -2.0477701224472051e+000
    8.9123983318847664e-003 -1.6078113748698271e+000
    1.0182031418485997e-002 -2.0423018678923186e+000
    1.0735146060032877e-002 -2.2291313131905088e+000
    1.0879265693680024e-002 -2.2773909679579951e+000
    1.0420689532711625e-002 -2.1303185085031666e+000
    1.0377543279659474e-002 -2.1139887722011310e+000
    9.8020578302010809e-003 -1.8855222081467373e+000
    9.2835337433553947e-003 -1.6885665591376886e+000
    8.9904355903324597e-003 -1.5931890177497137e+000
    9.2218934126151418e-003 -1.6694179746759374e+000
    9.0962982613975989e-003 -1.6131035512838729e+000
    9.1107786895603202e-003 -1.5288528017301686e+000
    8.6366167996431969e-003 -1.2921137571979622e+000
    9.4776343026462644e-003 -1.6875645511328017e+000
    9.8926606534843666e-003 -1.8805970148966682e+000
    9.3022504988646247e-003 -1.6361736426261371e+000
    8.4873676440688564e-003 -1.2109741278887480e+000
    9.0350807339460645e-003 -1.4179812591699090e+000
    9.5194473379179058e-003 -1.7189296008146364e+000
    8.8600102090513749e-003 -1.4930284312900253e+000
    8.6579717094727483e-003 -1.4129851685907322e+000
    8.9487245160120941e-003 -1.5341612075355049e+000
    9.2503179242009303e-003 -1.6470827809193369e+000
    9.0643872381054279e-003 -1.5467145147389130e+000
    9.1402109409507593e-003 -1.6511687752451345e+000
    1.0809616077609626e-002 -2.2109635131419227e+000
    1.1102840054073698e-002 -2.3427751613672858e+000
    9.3257504597022839e-003 -1.7984234010603140e+000
    8.9050879170862081e-003 -1.6220227173672643e+000
    1.2415694297818991e-002 -2.7322050146419996e+000
    1.4777109952426272e-002 -3.3859858749496046e+000
    1.3458583091730049e-002 -3.0391919590870256e+000
    1.1747724584651278e-002 -2.5405911603891984e+000
    1.1358989167041226e-002 -2.4172776110374330e+000
    1.0585504728829525e-002 -2.1486839246818934e+000
    1.0039644485162544e-002 -1.9660982681029491e+000
    9.6775978239986432e-003 -1.8299290250991997e+000
    1.0444007774842440e-002 -2.0647958188095874e+000
    1.0548795312954514e-002 -2.1111459664312937e+000
    1.0265176525726980e-002 -1.9753178816134394e+000
    9.0996385192349590e-003 -1.5967204746235766e+000
    9.8835706942943455e-003 -1.9009236983661044e+000
    1.1128706535493027e-002 -2.3412240586771875e+000
    1.1162258187909132e-002 -2.2745996592039073e+000
    9.0311469183061415e-003 -1.5097059631790881e+000
    9.8550066003574351e-003 -1.8004738843966961e+000
    1.0107115222583628e-002 -1.9618991869839923e+000
    9.0590292484595859e-003 -1.5977803931859194e+000
    9.3843679747043374e-003 -1.6450325237030858e+000
    9.5703471772133116e-003 -1.7559697423321083e+000
    9.3802643629993018e-003 -1.6986745140066837e+000
    9.2425928903259250e-003 -1.6868481250307181e+000
    1.0343382208585156e-002 -2.0485545320336520e+000
    1.2039819131473097e-002 -2.5990797020161605e+000
    1.2866950006001455e-002 -2.8513409939435621e+000
    9.3623423049987269e-003 -1.7993240352491418e+000
    8.8418102241155008e-003 -1.6085174145826389e+000
    1.2337104472271007e-002 -2.7041853468544383e+000
    1.3797854245913781e-002 -3.1234395902400758e+000
    1.2228339068877488e-002 -2.6845070780479383e+000
    1.1037366502264410e-002 -2.3120336743399110e+000
    1.1108774903649390e-002 -2.3158604999188204e+000
    1.0271213356703087e-002 -2.0375753649170272e+000
    9.7109169254538195e-003 -1.8320021225992549e+000
    9.0962363261653540e-003 -1.6047912157197564e+000
    9.2326908684634886e-003 -1.6290162509413084e+000
    9.1538107616790411e-003 -1.5812997088168188e+000
    8.8091883968159750e-003 -1.3361950331963903e+000
    8.6012258613812273e-003 -1.2834163658105269e+000
    9.2936154686014873e-003 -1.6902769483862674e+000
    1.0077022724141063e-002 -1.9693234957569197e+000
    9.9937107914152643e-003 -1.9096242600302156e+000
    8.7552360374453676e-003 -1.3745394049948119e+000
    9.1311422413616356e-003 -1.5248586819491570e+000
    1.0074946538987837e-002 -1.8978101109655476e+000
    9.1029291243483901e-003 -1.5803398566506452e+000
    9.1598181695970917e-003 -1.5673684442976252e+000
    9.5717220737086689e-003 -1.7522732227159563e+000
    9.3688909733874830e-003 -1.7065584414662147e+000
    9.3038440026418402e-003 -1.6926361043478615e+000
    9.9344985307178724e-003 -1.9293851563284499e+000
    1.0942720681268600e-002 -2.2439364033020111e+000
    1.0831227024951363e-002 -2.2336649176533641e+000
    9.0276175738991365e-003 -1.6566878397374611e+000
    9.0920470559097601e-003 -1.6958440154323189e+000
    1.1709070469625767e-002 -2.5141457274685073e+000
    1.3007799716722303e-002 -2.9093910887355396e+000
    1.2445163621206564e-002 -2.7550953578847439e+000
    1.1930534816067708e-002 -2.5845201722670823e+000
    1.2324926106261198e-002 -2.6981864807917715e+000
    1.1122526900901954e-002 -2.3278597849206872e+000
    1.0342015218820187e-002 -2.0383725440419012e+000
    9.3421905172128214e-003 -1.7058979119197462e+000
    9.3967365879542002e-003 -1.7052381393508889e+000
    9.0348418976361929e-003 -1.4748430949703288e+000
    8.4073963402016127e-003 -1.2290689348724084e+000
    8.8311204001473853e-003 -1.4193745762337184e+000
    9.5136482615301131e-003 -1.7511873001367884e+000
    1.0070567173395785e-002 -1.9530802270457237e+000
    9.9029681192432106e-003 -1.9147447754946891e+000
    8.9936716852697385e-003 -1.4693359531770946e+000
    8.8634358742601116e-003 -1.3317575651718148e+000
    8.9285628852390931e-003 -1.4687194248301210e+000
    8.8417706989888916e-003 -1.4686732186375733e+000
    9.6095332907786546e-003 -1.7543782273392940e+000
    9.9440296223872425e-003 -1.9205303121291442e+000
    1.0595349710642913e-002 -2.1346606031974957e+000
    1.1335271186140600e-002 -2.3537095577054337e+000
    1.0486634703103893e-002 -2.1373541356952619e+000
    1.0036317246188002e-002 -1.9895873798793411e+000
    9.4158345315130381e-003 -1.7483925575257266e+000
    8.8706942482494004e-003 -1.5524566103297484e+000
    9.4114715346278553e-003 -1.8225957433146547e+000
    1.2163571166830686e-002 -2.6555545503407800e+000
    1.3945498367507463e-002 -3.2022100395430129e+000
    1.4842677235738287e-002 -3.4321993317931065e+000
    1.4225939839696878e-002 -3.2760415111308614e+000
    1.4756177134340518e-002 -3.3971779202274170e+000
    1.2604459804714342e-002 -2.7784826406932499e+000
    1.1559303629824044e-002 -2.4399323515741909e+000
    1.0346252724967545e-002 -2.0555275779045417e+000
    9.6588576063424848e-003 -1.7823165599267408e+000
    8.8982111235574295e-003 -1.4840775087841154e+000
    9.1972656972165601e-003 -1.5682658305032728e+000
    1.0171633069947035e-002 -1.8972001893507584e+000
    1.0392802779925136e-002 -2.0499084727321146e+000
    1.0581491036141829e-002 -2.1340489528703945e+000
    1.0451642811058582e-002 -2.0712357258613419e+000
    9.3869971989481715e-003 -1.6034589328071520e+000
    8.5711536714320538e-003 -1.2713917437673077e+000
    9.0360615033847087e-003 -1.5198705827868328e+000
    9.1567619861940373e-003 -1.6116023809089837e+000
    9.5009670180625332e-003 -1.7146147338308659e+000
    1.0409906308868568e-002 -2.0831434907600115e+000
    1.3548523858271480e-002 -3.0215421340262001e+000
    1.3899484581314918e-002 -3.1376660416162983e+000
    1.3013092395663480e-002 -2.8822517349826056e+000
    1.1273460813283679e-002 -2.3904596980734807e+000
    9.4811168076632552e-003 -1.7942389272297474e+000
    8.5559379378912850e-003 -1.4418349311547989e+000
    9.0408772475293886e-003 -1.6790257659619796e+000
    1.0954808319600936e-002 -2.2802621376921759e+000
    1.2847896452179959e-002 -2.8607693297314243e+000
    1.4232827835120150e-002 -3.2444718043959435e+000
    1.3700070862612235e-002 -3.0951792044352522e+000
    1.3955206218569167e-002 -3.1494691452122514e+000
    1.1741396875057160e-002 -2.5161275205210907e+000
    1.1189860729211909e-002 -2.3058813926418118e+000
    9.5767383814967331e-003 -1.7619010959690267e+000
    8.7518621881078652e-003 -1.4520575305970811e+000
    9.0062626311379831e-003 -1.5315887529037275e+000
    1.0301920036044566e-002 -2.0003072353867628e+000
    9.8250148910086644e-003 -1.8594469776509526e+000
    1.0055667823612413e-002 -1.9469350178346503e+000
    1.0931952135144087e-002 -2.1865084510328741e+000
    1.0107582299548673e-002 -1.9748884588560627e+000
    9.6695894071545420e-003 -1.7547275454277209e+000
    8.6568265106535328e-003 -1.3607659474197693e+000
    9.5914037052987379e-003 -1.7136667196273876e+000
    9.1948349816695484e-003 -1.6468778971928775e+000
    9.4947724692896578e-003 -1.7068478688417634e+000
    1.0460303479959843e-002 -2.0671585540778867e+000
    1.2246894353849284e-002 -2.6110978165260059e+000
    1.1689222328789432e-002 -2.4708330641960212e+000
    1.1252005633078451e-002 -2.3519642691130711e+000
    1.1090340434401906e-002 -2.2961426630274770e+000
    9.9415243586556245e-003 -1.8982772330541531e+000
    8.3529019129627517e-003 -1.3680898075283350e+000
    8.8381530694835470e-003 -1.5739012155063665e+000
    9.9670348017151782e-003 -1.9315813420823802e+000
    1.1614756592419130e-002 -2.4805558627049078e+000
    1.1860703486238541e-002 -2.5483261506684607e+000
    1.1315076630689178e-002 -2.3753855728597473e+000
    1.1323608813004852e-002 -2.3711126833987071e+000
    1.0071709467330141e-002 -1.9475359466494360e+000
    9.4812880981217044e-003 -1.7160393993036422e+000
    8.8418334205003155e-003 -1.3776984732251694e+000
    9.0521408580979887e-003 -1.4980457592431022e+000
    9.8501757852816410e-003 -1.8763454265082191e+000
    9.8763203917259339e-003 -1.8517473418253783e+000
    9.3946560636574122e-003 -1.6386909458633760e+000
    9.1701943591519022e-003 -1.6099304536566903e+000
    9.5831948349429583e-003 -1.7580549454616745e+000
    1.0108611744113545e-002 -1.9751029579221753e+000
    1.0273710142785450e-002 -1.9986483809298785e+000
    8.7577835585335578e-003 -1.4446413909558025e+000
    9.5981712044466878e-003 -1.7267592878157692e+000
    9.8771998667949393e-003 -1.8796962176987244e+000
    9.7274545218632366e-003 -1.8135755673945222e+000
    9.6916223917782179e-003 -1.7758782691665542e+000
    9.1928215325122117e-003 -1.6298487077839234e+000
    9.2749389098530383e-003 -1.6613680392156733e+000
    9.2417239009544641e-003 -1.6763063854961304e+000
    9.5262184788500927e-003 -1.7612455935397111e+000
    9.7844505389691628e-003 -1.7798770563313862e+000
    8.2851117492856244e-003 -1.3073476271869533e+000
    8.6827474661161398e-003 -1.4586851843452882e+000
    9.4904515501221427e-003 -1.7037434530596847e+000
    1.0138945240775315e-002 -1.9784108457510485e+000
    9.9146556330694489e-003 -1.9000664520357124e+000
    9.3104747485577566e-003 -1.6729258768107511e+000
    9.3532980130967749e-003 -1.6401757470994491e+000
    8.8904822486454843e-003 -1.4182887841719605e+000
    8.8206941541956723e-003 -1.2796032419533332e+000
    8.7229983961406056e-003 -1.3082919120700349e+000
    9.7968813711620823e-003 -1.7568356245254471e+000
    9.8349064210928819e-003 -1.8256580403477278e+000
    8.8433621950538208e-003 -1.4062748068479192e+000
    8.9971214072920597e-003 -1.4518616372126916e+000
    9.0176074537146288e-003 -1.4626440701645649e+000
    9.3170267888022015e-003 -1.5987230230402139e+000
    9.9448874720307577e-003 -1.9154640073017275e+000
    1.0690257419624191e-002 -2.1359344853619033e+000
    8.8251419960332072e-003 -1.4294257452492107e+000
    9.4732687731202535e-003 -1.6638260706110382e+000
    1.0199126828009292e-002 -1.9899049116711807e+000
    9.5308122094858519e-003 -1.7351423093072440e+000
    9.2363663207220108e-003 -1.5321070051552428e+000
    8.9062487393492106e-003 -1.4649264901811887e+000
    9.6926448057476616e-003 -1.7249670772924257e+000
    9.3651937070510123e-003 -1.6463938596339569e+000
    9.0224207162468966e-003 -1.4964083300000444e+000
    9.2754578483265800e-003 -1.5278863102147380e+000
    8.2485373097162945e-003 -1.1920205877191912e+000
    8.3134683881074551e-003 -1.2799221791816389e+000
    8.9836839548640655e-003 -1.4779322558964010e+000
    9.9100703870661309e-003 -1.8380452219723702e+000
    9.9376286966374461e-003 -1.8878354578160723e+000
    9.2789060067844775e-003 -1.6358470455380054e+000
    9.1722726484343708e-003 -1.5108772438617031e+000
    8.9628501323830625e-003 -1.2447922623848084e+000
    8.5895889106125389e-003 -1.0740620825782023e+000
    8.9709042162160729e-003 -1.2762681404849687e+000
    9.5246687784743319e-003 -1.6594756314373798e+000
    8.9728217941397685e-003 -1.4040233334256251e+000
    8.6359672542416586e-003 -1.2791467963380949e+000
    8.9437462324253938e-003 -1.3844101510180356e+000
    8.9640974295946921e-003 -1.3930799446799602e+000
    9.0362276588389738e-003 -1.4564321348629747e+000
    9.6818360436548550e-003 -1.8007314432557491e+000
    1.0484554077531525e-002 -2.0490408360620909e+000
    8.7997760028943467e-003 -1.4184429119544930e+000
    9.1384536404317662e-003 -1.5056551438352712e+000
    9.2013352931555915e-003 -1.6302234079407198e+000
    8.8145384974163549e-003 -1.3910677498377306e+000
    8.7755236126198424e-003 -1.2751532977606941e+000
    8.8427119064787597e-003 -1.3348508386392590e+000
    9.0592202592605052e-003 -1.5307970356738057e+000
    9.0265887674882070e-003 -1.4425595040805783e+000
    8.8801172564631735e-003 -1.3773839377227599e+000
    9.2304109642023964e-003 -1.4660417192127488e+000
    8.0565852190197101e-003 -1.0863755498392549e+000
    8.3524384504357618e-003 -1.2694913319198848e+000
    8.9348896752809645e-003 -1.3763592931771249e+000
    9.1049477665064698e-003 -1.5163362687159860e+000
    8.8997969462603025e-003 -1.4364807488465514e+000
    8.6033253325416750e-003 -1.3274460581130874e+000
    8.8432720238265233e-003 -1.3540745920520210e+000
    8.5305428859889718e-003 -1.1493644280890059e+000
    8.8746983327368072e-003 -1.0527071813662607e+000
    8.7179900152793283e-003 -1.1943298848112911e+000
    8.7705660351818267e-003 -1.3009799487169562e+000
    8.5158766043509915e-003 -1.1796730639624902e+000
    8.7198316254197359e-003 -1.2881341998107287e+000
    8.9405370213360494e-003 -1.4520931250663827e+000
    8.9472465638863706e-003 -1.4332067706904086e+000
    8.7679836897856141e-003 -1.3998224400130348e+000
    9.1673262771106781e-003 -1.5801559916637857e+000
    9.5382763779609248e-003 -1.7415944106297636e+000
    8.9429352911426768e-003 -1.4087648036955567e+000
    8.8160004486381865e-003 -1.3644164177833658e+000
    8.7332846321562206e-003 -1.3727020353437243e+000
    8.7078939802768002e-003 -1.1436489213334251e+000
    8.5675909180781325e-003 -1.1082586268557224e+000
    8.8590822931102209e-003 -1.3562332937126125e+000
    8.8458222148553329e-003 -1.4044207418123416e+000
    8.6395402739446060e-003 -1.2509598781916960e+000
    8.8295764613405842e-003 -1.4063705055568139e+000
    9.1057981603572622e-003 -1.4412107429995809e+000
    8.0140934809156284e-003 -1.0978518575437053e+000
    8.2944852623386967e-003 -1.1248065699748435e+000
    8.5939729182521497e-003 -1.1902450236710644e+000
    8.4596008924011212e-003 -1.1331415808675993e+000
    8.3956685214388559e-003 -1.1495425400024810e+000
    8.7343201457336563e-003 -1.3280346626340123e+000
    8.8617501468698460e-003 -1.4677121923842207e+000
    8.9878431185774123e-003 -1.3891017938134851e+000
    8.5785807710017058e-003 -1.2201963925034889e+000
    8.7713613308241459e-003 -1.1330472018417461e+000
    8.7639905623324681e-003 -1.0511666797376056e+000
    8.4878346069325872e-003 -1.1175233794561859e+000
    8.9069048393038697e-003 -1.4040420171414900e+000
    9.3123258567011889e-003 -1.6427245993309241e+000
    9.4655666015505471e-003 -1.6772659202518641e+000
    8.6669767937071034e-003 -1.3379822537249324e+000
    8.7563982661903808e-003 -1.4135491018715696e+000
    9.1558062633026530e-003 -1.5945349884778406e+000
    8.8492635013977354e-003 -1.3835290607159578e+000
    8.6276976781578859e-003 -1.1901239442500096e+000
    8.6426902296305071e-003 -1.1738758544576249e+000
    8.6594721803725551e-003 -1.0238382594607089e+000
    8.7422850052987135e-003 -1.1621173217746468e+000
    9.1569329132546139e-003 -1.5719610966942708e+000
    9.0640974061297341e-003 -1.4059839588507497e+000
    8.6915080592805758e-003 -1.3041942909705162e+000
    9.3306288397574846e-003 -1.5334005681027032e+000
    8.8404068727118423e-003 -1.4048970181608513e+000
    8.1700985188699407e-003 -1.1936700844423176e+000
    8.1593965794652459e-003 -1.0416209480508547e+000
    8.7627077062437855e-003 -1.2518099828369171e+000
    8.7366645623348504e-003 -1.3196342454864560e+000
    8.8689860088463687e-003 -1.3813110725428019e+000
    9.1283533365144522e-003 -1.5580737672570617e+000
    9.5917766623675599e-003 -1.7367050921855136e+000
    9.3757922830414852e-003 -1.6837732724670205e+000
    8.9089789161828862e-003 -1.4221676805357706e+000
    8.8326868356177202e-003 -1.0067847894814623e+000
    8.5152514605435492e-003 -9.6566445156963487e-001
    8.6690840493572931e-003 -1.1252585710721481e+000
    8.7123723087661076e-003 -1.3474385691783568e+000
    9.0025563822494215e-003 -1.4664150091497514e+000
    9.0967223864922390e-003 -1.4838759401321915e+000
    8.4970396455985499e-003 -1.2053159202298800e+000
    8.8791894148105965e-003 -1.3451107693182112e+000
    9.0173339515126141e-003 -1.4839920313763597e+000
    8.8716472686746813e-003 -1.3217321501193360e+000
    8.6306993144799025e-003 -1.0056470223412992e+000
    8.5425076694177066e-003 -9.9225180712845296e-001
    8.6646616359128820e-003 -1.1020918881358808e+000
    9.2366043668800774e-003 -1.5433955581768553e+000
    9.6828497959808111e-003 -1.7345784988563966e+000
    8.7396161780470584e-003 -1.3793593934829846e+000
    8.8270143072242280e-003 -1.3588880969822206e+000
    8.8053805976242329e-003 -1.3737501094128406e+000
    8.4738016745367090e-003 -1.3007003890581967e+000
    8.5331124133499157e-003 -1.3602756594868488e+000
    8.2042738967030189e-003 -9.5315959145215845e-001
    8.3547749016616279e-003 -1.2167748684548296e+000
    8.6763565132423788e-003 -1.3676121991982524e+000
    9.0261632514918970e-003 -1.5300168993156247e+000
    9.1004667170661337e-003 -1.6010997239831368e+000
    8.9889241870664723e-003 -1.5905259123329720e+000
    9.0768309442871981e-003 -1.5510379887441836e+000
    8.6015677484241066e-003 -1.2329431245177751e+000
    8.4505390908052452e-003 -1.0670894529915946e+000
    8.7225026791029892e-003 -1.1591041653422791e+000
    8.5404390283565779e-003 -1.2139570157753667e+000
    8.5279022554474171e-003 -1.1970228206800724e+000
    8.4487946151169512e-003 -1.1368124111852194e+000
    8.6345909570302599e-003 -1.2168817582761080e+000
    8.5670112173554559e-003 -1.0653380837410360e+000
    8.6958929809733011e-003 -1.1015379600502604e+000
    8.4960748057852625e-003 -1.2183618150965767e+000
    8.4899271998305926e-003 -1.1855724900994438e+000
    8.7111228848024969e-003 -1.1960672547341191e+000
    8.6400088102971204e-003 -1.2218576343500431e+000
    9.0045231643412476e-003 -1.5165833786765035e+000
    9.3366948937181164e-003 -1.6863478929571480e+000
    8.7815958555516951e-003 -1.3957023254035135e+000
    8.6057990183122570e-003 -1.2909490876868446e+000
    8.7936682853805102e-003 -1.3409246868734155e+000
    8.2974430884757734e-003 -1.2481273116526883e+000
    8.6211646752774734e-003 -1.3931515469904980e+000
    9.1152212327840643e-003 -1.6224322984063408e+000
    8.1939629963479216e-003 -9.6611509477360313e-001
    8.6674667576948708e-003 -1.3034821498193350e+000
    8.5647145919644525e-003 -1.3364167972574328e+000
    8.6314852421544453e-003 -1.3562548015874456e+000
    8.8633050026730009e-003 -1.4239886234257002e+000
    8.8637344231884789e-003 -1.4300110494035174e+000
    8.6986652002539640e-003 -1.2713342950765618e+000
    8.4854229413006722e-003 -1.1970798999168433e+000
    8.8620808742268537e-003 -1.3672076705397613e+000
    9.2111915622369641e-003 -1.5349548100897954e+000
    9.0449745964204520e-003 -1.4799245813481745e+000
    8.9436758023457522e-003 -1.4054297385105301e+000
    8.6071831603837072e-003 -1.2236930230811964e+000
    8.8842933443406286e-003 -1.3892759101190923e+000
    8.5778690661628427e-003 -1.1528119603043196e+000
    8.7586950873380729e-003 -1.0543210602718629e+000
    9.0574950743667962e-003 -1.4443466825107290e+000
    9.3886594814665738e-003 -1.6479435172038115e+000
    9.7422598395987443e-003 -1.7951027161860411e+000
    9.7800273096267393e-003 -1.8445213903574569e+000
    9.5989297883776522e-003 -1.7407582393125804e+000
    8.8206017880822617e-003 -1.2731646103683649e+000
    8.3938510353963013e-003 -9.8083948292064438e-001
    8.5710668752175378e-003 -1.0611051343418783e+000
    8.4172483490273023e-003 -1.1866441955369564e+000
    8.6817219637199544e-003 -1.3594173485165029e+000
    9.1566510674051596e-003 -1.6057836925348925e+000
    9.0165988604632569e-003 -1.6395085196987573e+000
    8.0041593902295295e-003 -9.3700004383702717e-001
    8.9898171208145777e-003 -1.3948043806505028e+000
    8.9174268777616125e-003 -1.4588078346808886e+000
    8.6423869967206090e-003 -1.2592010184439217e+000
    8.7344081024707376e-003 -1.1647955022623209e+000
    8.6752001372908758e-003 -1.0439692065944812e+000
    8.7053418154650099e-003 -1.0249092223781848e+000
    8.8418948545556826e-003 -1.1461433760230280e+000
    8.7137696280215199e-003 -1.2715493936235112e+000
    8.6591254314857605e-003 -1.2887083842500966e+000
    8.7726493554301337e-003 -1.3422435960638042e+000
    9.0012958176656204e-003 -1.4372610141187292e+000
    8.7882657272463516e-003 -1.3037428121849426e+000
    9.2363230357342830e-003 -1.5104885806965136e+000
    9.0720431113134464e-003 -1.3657195937995299e+000
    8.5670875982968350e-003 -1.0700679405349283e+000
    8.9324393002673894e-003 -1.3101285103554570e+000
    9.0909433789205935e-003 -1.5031961961716496e+000
    9.0530006668151867e-003 -1.4415047379782884e+000
    8.9671297864117334e-003 -1.2828031706134924e+000
    8.7251179393834644e-003 -1.0331044291214493e+000
    8.5292729189382945e-003 -9.0096314247916798e-001
    8.6079151828045777e-003 -1.0227039215763105e+000
    8.7576195935017680e-003 -1.2982623381118834e+000
    8.9663283555451671e-003 -1.4584399714811880e+000
    9.1416529372197984e-003 -1.5847700954499802e+000
    8.9864053770056709e-003 -1.5751317525763491e+000
    8.6508287876852288e-003 -1.5345893597647582e+000
    8.0572896521366264e-003 -1.0142172667842142e+000
    8.0739477486730105e-003 -9.5258961730162284e-001
    8.1656866685465117e-003 -9.2860648585264538e-001
    8.5084005269073226e-003 -8.6239789834256853e-001
    8.7173422385447060e-003 -7.7651549759062000e-001
    9.0451355143928071e-003 -7.3967532826903193e-001
    9.0017175923399473e-003 -7.7847467669423742e-001
    8.7222284285638947e-003 -7.8735770130221983e-001
    8.8648113887392563e-003 -7.6726768310863103e-001
    8.6716204674236411e-003 -7.6658646981136769e-001
    8.6093993860488285e-003 -7.4819151035354037e-001
    8.6646345570155544e-003 -7.5636849729063904e-001
    8.9105131507083001e-003 -7.1062079715708959e-001
    8.7976934539895166e-003 -7.2367304454461390e-001
    9.0990839100346353e-003 -7.2571278949386553e-001
    1.0303750193668576e-002 -5.9931621148670022e-001
    9.9971472309938469e-003 -5.6663273539790060e-001
    9.8849785626205222e-003 -5.6432746724096472e-001
    9.7373274257619609e-003 -5.7413315470262860e-001
    9.6755149634658467e-003 -6.1244949010112559e-001
    9.3312943764820612e-003 -7.0509653022668806e-001
    8.8049031569558713e-003 -9.5493768092851183e-001
    8.4871134529703983e-003 -1.1662644470366299e+000
    8.4793639713262141e-003 -1.2791504748243092e+000
    8.4877901236150837e-003 -1.3494946110672106e+000
    8.4951721545897235e-003 -1.3912814349186011e+000
    8.5541309121833341e-003 -1.4571800374794670e+000
    8.8279386468095248e-003 -1.6136039522902987e+000</input_scale>
  <output_scale>
    5.2631578947368418e-001 4.9999999999999994e-001
    5.2631578947368418e-001 4.9999999999999994e-001
    5.2631578947368418e-001 4.9999999999999994e-001
    5.2631578947368418e-001 4.9999999999999994e-001
    5.2631578947368418e-001 4.9999999999999994e-001
    5.2631578947368418e-001 4.9999999999999994e-001
    5.2631578947368418e-001 4.9999999999999994e-001
    5.2631578947368418e-001 4.9999999999999994e-001
    5.2631578947368418e-001 4.9999999999999994e-001
    5.2631578947368418e-001 4.9999999999999994e-001
    5.2631578947368418e-001 4.9999999999999994e-001
    5.2631578947368418e-001 4.9999999999999994e-001
    5.2631578947368418e-001 4.9999999999999994e-001
    5.2631578947368418e-001 4.9999999999999994e-001
    5.2631578947368418e-001 4.9999999999999994e-001
    5.2631578947368418e-001 4.9999999999999994e-001
    5.2631578947368418e-001 4.9999999999999994e-001
    5.2631578947368418e-001 4.9999999999999994e-001
    5.2631578947368418e-001 4.9999999999999994e-001
    5.2631578947368418e-001 4.9999999999999994e-001
    5.2631578947368418e-001 4.9999999999999994e-001
    5.2631578947368418e-001 4.9999999999999994e-001
    5.2631578947368418e-001 4.9999999999999994e-001
    5.2631578947368418e-001 4.9999999999999994e-001
    5.2631578947368418e-001 4.9999999999999994e-001
    5.2631578947368418e-001 4.9999999999999994e-001
    5.2631578947368418e-001 4.9999999999999994e-001
    5.2631578947368418e-001 4.9999999999999994e-001
    5.2631578947368418e-001 4.9999999999999994e-001 1. 0.
    5.2631578947368418e-001 4.9999999999999994e-001
    5.2631578947368418e-001 4.9999999999999994e-001
    5.2631578947368418e-001 4.9999999999999994e-001
    5.2631578947368418e-001 4.9999999999999994e-001
    5.2631578947368418e-001 4.9999999999999994e-001
    5.2631578947368418e-001 4.9999999999999994e-001 1. 0.</output_scale>
  <inv_output_scale>
    1.8999999999999999e+000 -9.4999999999999996e-001
    1.8999999999999999e+000 -9.4999999999999996e-001
    1.8999999999999999e+000 -9.4999999999999996e-001
    1.8999999999999999e+000 -9.4999999999999996e-001
    1.8999999999999999e+000 -9.4999999999999996e-001
    1.8999999999999999e+000 -9.4999999999999996e-001
    1.8999999999999999e+000 -9.4999999999999996e-001
    1.8999999999999999e+000 -9.4999999999999996e-001
    1.8999999999999999e+000 -9.4999999999999996e-001
    1.8999999999999999e+000 -9.4999999999999996e-001
    1.8999999999999999e+000 -9.4999999999999996e-001
    1.8999999999999999e+000 -9.4999999999999996e-001
    1.8999999999999999e+000 -9.4999999999999996e-001
    1.8999999999999999e+000 -9.4999999999999996e-001
    1.8999999999999999e+000 -9.4999999999999996e-001
    1.8999999999999999e+000 -9.4999999999999996e-001
    1.8999999999999999e+000 -9.4999999999999996e-001
    1.8999999999999999e+000 -9.4999999999999996e-001
    1.8999999999999999e+000 -9.4999999999999996e-001
    1.8999999999999999e+000 -9.4999999999999996e-001
    1.8999999999999999e+000 -9.4999999999999996e-001
    1.8999999999999999e+000 -9.4999999999999996e-001
    1.8999999999999999e+000 -9.4999999999999996e-001
    1.8999999999999999e+000 -9.4999999999999996e-001
    1.8999999999999999e+000 -9.4999999999999996e-001
    1.8999999999999999e+000 -9.4999999999999996e-001
    1.8999999999999999e+000 -9.4999999999999996e-001
    1.8999999999999999e+000 -9.4999999999999996e-001
    1.8999999999999999e+000 -9.4999999999999996e-001 1. 0.
    1.8999999999999999e+000 -9.4999999999999996e-001
    1.8999999999999999e+000 -9.4999999999999996e-001
    1.8999999999999999e+000 -9.4999999999999996e-001
    1.8999999999999999e+000 -9.4999999999999996e-001
    1.8999999999999999e+000 -9.4999999999999996e-001
    1.8999999999999999e+000 -9.4999999999999996e-001 1. 0.</inv_output_scale>
  <weights>
    <_>
      9.3809819460435351e-001 -6.2426942893866931e-002
      -1.2579746870043906e-002 2.6888990557382350e-002
      6.8702981217126619e-002 -1.9647604254918807e-002
      -9.7653875185020708e-002 1.8205374237047537e-003
      1.3197262252959743e-001 1.7570926399605219e-001
      -4.5670499031248986e-002 -4.1235990997828964e-001
      3.6808301575119806e-001 -1.2641948089532232e-001
      -1.9763426981687451e-001 -3.7117098124135404e-002
      1.1505206593213367e-001 1.1659972301441078e-001
      -9.9998702501223353e-003 1.4838728286077171e-001
      -1.3005203501374563e-001 5.9360031753462890e-002
      -6.3046571146310529e-002 -2.4679983151976215e-001
      -4.5689276169108596e-002 1.9540793486633573e-001
      -5.6185129697451132e-002 3.7293032172179263e-001
      1.0732653402535228e-001 3.5118502659397466e-001
      -1.6442014833339132e-002 6.1164049325559702e-002
      2.3642168902057265e-001 3.4338870903450930e-001
      6.0270810962571686e-001 -4.3921513775048812e-002
      -3.3745991670040401e-002 9.7747117843516237e-003
      3.6366109407208455e-002 -5.9619092261906773e-002
      -1.2142820127317075e-001 1.7755263111133061e-002
      7.4423523705938480e-002 2.0927397185916344e-001
      -7.7704441444731931e-002 -4.1076724137559806e-001
      3.8727949685689161e-001 -7.8373787786880103e-002
      -2.1836268903786737e-001 -3.4604940201889867e-002
      1.1979925539882055e-001 9.4801903178653432e-002
      -1.2370673811813166e-002 1.5845483914707834e-001
      -1.5841821335547537e-001 5.6650431402242074e-002
      -5.7371090398253284e-002 -2.5258680179920417e-001
      -4.2319657891937937e-002 1.1856952924305311e-001
      -6.8168463307779578e-002 4.0502030733812772e-001
      9.4294664398854658e-002 3.5567433840157814e-001
      -2.0449968271582949e-002 1.2043515393006726e-001
      2.3590639303286479e-001 2.5909409652673848e-001
      7.7727218405478460e-001 -1.4605403524225603e-002
      -9.9980316074736605e-002 4.8429551409923430e-002
      1.6325055811295491e-002 -4.1203144552021079e-002
      -2.3171083286713723e-001 2.2490143686275887e-002
      4.0607891768540780e-002 2.3389498483476190e-001
      -1.4029951241965105e-001 -4.2403033830772224e-001
      4.2945115075402562e-001 8.1984640392092675e-002
      -2.4152121377792207e-001 5.7851708570521312e-002
      1.2279555332237993e-001 8.1660144801771389e-002
      1.7168902569285247e-002 1.2991329854415057e-001
      -1.9774359797034455e-001 4.2598282839145067e-002
      -6.5112272342473826e-002 -2.5325695574680351e-001
      -4.6990802421106190e-002 1.3304413843466897e-001
      -6.1607426410544015e-002 5.0868281887900979e-001
      1.5130151190080934e-001 2.7622360599151996e-001
      8.2950789779451684e-003 1.2106391474786818e-001
      2.3043819263747009e-001 2.6634063908247929e-001
      -4.4745211469340013e-001 2.9551040901936020e-002
      -8.2390019814287119e-002 1.8787373622410050e-002
      4.8574926232662165e-002 -9.7522053121623792e-002
      -2.7182953486944239e-001 3.1987891556245020e-002
      4.7286631217772122e-002 1.7743927756525077e-001
      -9.6041415200784297e-002 -3.7945109539549776e-001
      4.3873880280393646e-001 1.9709248840339594e-001
      -2.8833638630904124e-001 1.5985822332524785e-001
      7.5264046737382448e-002 9.9206534264965784e-002
      1.0533113857474763e-002 9.3900380560061059e-002
      -1.9550936895514703e-001 6.5274099860036002e-004
      -7.5102739424760034e-002 -2.2936817353914074e-001
      -1.1226517751235836e-001 6.1439508695919645e-002
      -5.9524573677801854e-002 4.7777669888176483e-001
      2.1700567740203980e-001 2.6302571475050396e-001
      1.3596139255779077e-002 3.2034990025546953e-002
      2.5044666764817280e-001 2.5551203924325250e-001
      -8.8426804113953517e-001 2.6237147175609817e-002
      -6.8404302404027548e-002 1.2016592896197736e-001
      9.6933609721826710e-003 -1.7646073646897131e-001
      -2.0141415157244016e-001 5.4994017306872416e-002
      5.5135620514133288e-002 1.8033443017091796e-001
      -1.5218400325885431e-001 -2.6275935784546295e-001
      3.1566731726926051e-001 2.1119424071187859e-001
      -2.3700427706871277e-001 1.5270602125717053e-001
      1.1195934773014511e-002 4.4872363305699950e-002
      -4.2389614218290586e-002 1.0788579348543241e-001
      -2.5702223482126757e-001 7.4622122160359669e-002
      -4.0220587848728846e-002 -1.6571940056875564e-001
      -1.2503148230447811e-001 1.5834696697068169e-002
      -8.2684643461065133e-002 4.9195137999242644e-001
      1.1835041692180569e-001 1.4793664360158376e-001
      -1.4477425167415975e-001 3.2087283157966350e-002
      2.6777675560054648e-001 2.6499748195637002e-001
      -3.4998527590758011e+000 -8.6711446504476042e-002
      3.6843055124940675e-002 1.6503515488648049e-001
      -2.1872703541962083e-002 -1.5191854857949241e-001
      -2.2092063917214222e-001 1.0411076911155515e-001
      3.8629189030764878e-002 1.8018590032504216e-002
      -1.4549781757136146e-001 -2.6733103723568946e-001
      1.9874710464061754e-001 1.0640996159507290e-001
      -2.4685238056163733e-001 1.7013625327747611e-001
      -7.3475476616853053e-002 -5.9789336127018228e-002
      -1.1139744891451556e-001 1.3369891752378085e-002
      -2.9523621430595565e-001 1.0028894927348818e-001
      4.3007867884633108e-002 -1.6458024573898200e-001
      -2.0021730275237917e-001 3.4675428912064018e-003
      -7.7791217043482519e-002 4.6717576012176315e-001
      1.0572297430908634e-001 2.3174776542860367e-001
      -1.7363300712122057e-001 -4.4784452860658290e-002
      2.9892414536530926e-001 2.2331342778511917e-001
      -2.0281245107631176e+000 -2.3810523161497871e-001
      -3.4395528948561557e-002 7.9468061382010485e-002
      1.7379451185229284e-002 -1.0113504910662113e-001
      -1.9748593622640900e-001 -1.0258163836016862e-001
      3.1755762326829695e-002 1.2722177295949599e-001
      6.7598983154425987e-002 -1.4567265244107686e-001
      1.7590685810488321e-001 -1.1629440559640990e-001
      -1.6729495538287009e-001 2.6886578363591557e-002
      -4.6996172964067606e-002 1.9616484714818491e-001
      1.2479662416725910e-001 5.4002414941724301e-002
      -1.0458611029176400e-001 -4.5668900148250924e-002
      1.1732172465618762e-001 5.0960840004700469e-002
      -1.4902255826995522e-001 -6.0539942855095501e-003
      -9.5538457742341501e-002 1.9392577619202384e-001
      1.3265342540330496e-001 1.5709925357789151e-001
      -1.1942305273027432e-001 1.3776523508230193e-002
      -1.5009659433252113e-002 1.3875920721821239e-001
      -2.9556240371959461e-002 -1.6498178271707564e-001
      -1.9629500054549283e-002 1.8928494310446156e-001
      8.6638139746512105e-002 -6.5991961160440801e-002
      -1.7282395755478741e-001 -4.2326628941971839e-002
      -1.0859736139016177e-001 7.5882442886729434e-002
      4.5734575752838430e-002 -2.1457966077768675e-001
      1.4351653171920001e-001 -4.3953189503054220e-002
      -2.6219065237993744e-001 -1.9902668847035546e-001
      -3.1138185268818622e-002 2.5521198917160276e-001
      1.2334756989489011e-001 6.9290724343511786e-002
      -7.4634639329012971e-003 -3.4237319946879327e-002
      -1.5178446525815794e-002 1.2283517317508946e-001
      -7.2160243505995605e-002 -9.0185052987004535e-002
      -9.4074195299855140e-002 1.3084348416829114e-001
      2.1701333343827675e-001 7.3374469076123314e-002
      -1.4907901582891955e-001 4.3232479091544714e-002
      -1.5771972376863685e-001 -2.8520267731539884e-003
      9.2765294560010880e-001 -4.3464805687277334e-002
      -3.8326330250418296e-002 1.7199936064551641e-001
      1.0334375195583582e-001 -7.1240361108789035e-002
      -2.0050353639330473e-001 2.0169013054997333e-002
      -2.1336827436936084e-001 1.0360225757577005e-001
      3.2148943675828781e-002 -2.9128264579787283e-001
      2.7772479541636708e-001 -7.9154250684489072e-002
      -3.3968758522956832e-001 -1.6061183447985855e-001
      -3.8794795531038165e-002 2.1796802061534679e-001
      1.6503833758439168e-001 8.2302836664209039e-002
      1.3797216255475270e-001 -2.1535263649967183e-002
      -1.4983703094955548e-002 2.6398008369203246e-001
      -5.7397671409380506e-002 -9.5385171785745959e-002
      -4.8370051826640788e-002 1.3966737647912231e-001
      2.4097063460772606e-002 1.4542491074367780e-001
      -5.1935517515671048e-002 6.6202496937911456e-002
      -2.1284794340190416e-001 -1.1180585051892374e-002
      6.0402572377049313e-001 -6.0712571394708377e-002
      1.3797736315299985e-001 2.5871230523694233e-001
      1.2539989230146717e-001 1.2652878922679875e-001
      -2.0052006158195623e-001 7.0191736485720385e-002
      -2.0665225306700133e-001 1.6447527996023692e-001
      1.0668227233051429e-001 -2.4131320235439313e-001
      2.3932535283561313e-001 -4.0002223105878476e-002
      -2.2526089749300160e-001 -3.1905275399643068e-001
      4.7919384829741229e-002 1.4424727873726054e-001
      1.5889753448332813e-001 1.6158058197120057e-001
      2.8936936120863638e-001 -2.4032506553415931e-003
      -4.6113474223959353e-002 2.4369224938066314e-001
      -1.4978211157287619e-001 -5.2201434989667048e-002
      1.4214047137355210e-001 1.0064126993862632e-001
      4.7111475825360009e-002 2.4761109140914978e-001
      -1.3928274879288624e-001 -4.9714745006869988e-002
      -2.1018882756559695e-001 -1.0680470261957264e-001
      -3.3928418802686927e-001 -1.5980179428754293e-002
      2.5411453756514324e-001 1.7516933517303920e-001
      1.2555051652451127e-001 1.2335824501913387e-001
      -1.6812094965295790e-001 3.6035778139467489e-001
      -1.8149782158249195e-001 1.2425466257592271e-001
      1.6211938565511824e-001 -5.6592031753969650e-003
      2.6270700989080886e-001 1.1442558583775103e-001
      -1.1497162551468956e-001 -2.7270320277007404e-001
      1.8584961784878959e-001 1.4159960202931379e-001
      1.6718572540860097e-001 9.0222973435231071e-002
      2.0463556066960581e-001 5.6551595737371500e-002
      -8.8070495603090201e-002 2.3928740046852276e-001
      -1.9597060120839707e-001 -3.8746313088625507e-002
      1.5435538303587076e-001 1.4063007809115079e-002
      5.4825263110556438e-002 3.3584347029990086e-001
      -9.1109564441882188e-002 -7.1492083582537752e-002
      -1.5420390759179867e-001 -2.3173286374966648e-001
      -8.5451928725555026e-001 -2.0008814317290222e-001
      1.6838777950578351e-001 1.2982086159687675e-001
      2.4648899063275664e-002 1.2408746902016410e-001
      -1.3707502766058774e-002 1.9207856032554005e-001
      -1.4092636619774890e-001 2.3925932942134182e-001
      1.5044373582302323e-001 1.6164085750130303e-001
      1.4711231947178149e-001 1.6332816401126168e-001
      1.1269694359614388e-001 -2.6508228198478412e-001
      2.5816288106295021e-001 3.1461956725142723e-002
      1.4414921383036469e-001 6.5796048533365820e-002
      2.3121390538247821e-001 -1.3966542372999058e-001
      -7.8328078755485989e-002 1.8256903211559483e-001
      -1.9432143917237302e-001 4.6091139197630762e-003
      8.4907841463958578e-002 2.0723231637560294e-002
      8.8792906943431005e-002 2.0054432927736468e-001
      -9.6270155362268947e-002 4.8948690341472451e-002
      -1.1079985921012808e-001 -1.8086994402780843e-001
      -2.4176704028594300e+000 -1.0313388213368034e-001
      3.6871695424516668e-002 1.4102881351012120e-001
      -3.9041213846890126e-002 -9.4041358413998966e-002
      -1.3921374118700072e-001 6.3226715298476699e-001
      -1.2875378749900943e-001 2.4851633114906746e-001
      5.4723990780661515e-002 7.8830534373001290e-002
      7.7263248796709011e-002 5.1489916508749074e-002
      -2.4671168800083167e-002 -2.6669186335974138e-002
      2.4441495442696387e-001 6.1206659643397859e-002
      2.6584305109282008e-001 4.6809860888022657e-002
      -3.4340401874332904e-002 3.3963619184641143e-002
      1.7914458133529074e-001 3.6042998798594622e-001
      -1.9700103164678051e-001 9.4199456604748946e-002
      1.0280605654235027e-001 4.2803562064956979e-001
      -2.1561937870409787e-003 2.4669407509537267e-001
      -2.2246804197261472e-001 -7.3151885877257614e-002
      -2.2395154826680364e-002 -8.8764193004066350e-002
      -6.3627350802201232e-001 -1.3645919054463709e-001
      -8.6514069456168366e-002 -5.9143222568855118e-002
      -3.8884239071787910e-002 -3.1320166369917732e-002
      -1.6386474600723766e-001 2.7986598273111141e-001
      -8.5298615005891948e-002 2.7415615740749572e-001
      -5.4682618229809521e-002 1.7313416230648543e-001
      3.0003756501551578e-002 -1.4559107655786292e-002
      1.7439959290720861e-001 -2.5344362666129851e-002
      2.1971628583017722e-001 3.8978135125907011e-002
      3.2805503848627365e-001 -6.2039799488866230e-003
      2.8472451563881517e-002 -1.5184134264473623e-001
      1.2854922999945642e-001 3.8522123251520951e-001
      -1.7022767399197214e-001 8.2030096995807711e-002
      1.8134356054019338e-001 5.4341444612297773e-001
      6.7207500153737665e-002 1.4953903960095108e-001
      1.9199533066874271e-002 -5.2258781996462285e-002
      3.6782386205265363e-003 -1.3198838790077931e-002
      1.2676156045401019e+000 -1.3337523774456408e-001
      -2.1562684748204439e-001 -8.5053386950288620e-002
      1.8389636103876783e-002 -6.3747072545235484e-002
      -2.0198706018360577e-001 3.1559295304830391e-002
      1.4631693827755112e-002 2.3768009403638438e-002
      1.7659805144880247e-002 1.9505378094742956e-001
      -1.2960335006428891e-001 1.3839902709206822e-001
      1.2204458270025201e-001 8.2927925255069548e-002
      1.0839919353983808e-001 3.1761551787793343e-002
      3.0057939761411817e-001 -8.6121829498761612e-002
      -1.9787815728812819e-002 -1.5357106332145540e-001
      -9.6516296151216846e-002 4.0421082425427773e-001
      -7.6910504868450941e-002 9.8513247751060490e-002
      1.1241366836185625e-001 5.8587997573597039e-001
      -5.0899570734665583e-002 5.9641083785805127e-002
      -7.0719862796472813e-002 1.1701883992339696e-001
      -4.0806418963866754e-002 2.7697132699470365e-003
      1.4943813696116570e+000 -1.8581502618710025e-001
      -2.0706230802230866e-001 -1.8456730870703805e-001
      5.5279689090353291e-003 -1.4637333702652813e-001
      -1.8905885243347886e-001 -2.9548881779830760e-001
      -4.7360078317873769e-002 3.2498580734912304e-002
      -1.6201355205486734e-001 1.5644482635140947e-001
      -1.3397674880708896e-001 9.5948447201748999e-002
      3.9726094712507286e-002 6.1515889854154730e-002
      2.5909496404721860e-001 4.0159550610741487e-002
      3.4455133044906777e-001 4.0279732346972914e-002
      -5.7219714751357287e-002 -1.3889660320524727e-001
      -5.9511938456563121e-002 4.4225384789398381e-001
      1.9909767515552954e-001 -5.1810023653940974e-002
      -1.7146208185438350e-001 3.1765044694291505e-001
      -3.2449812174128012e-001 6.7252516259268202e-002
      -3.1828546556021832e-002 2.8913091834783267e-001
      -2.9056770168572423e-003 -7.3477513853373949e-002
      2.0173754922039442e+000 -2.0489353144971956e-001
      -1.1061663800873157e-001 -1.3401418012909447e-001
      2.5872507423150989e-003 -2.3354412850776660e-001
      -2.1789668364630366e-001 -4.7151283676171335e-001
      -9.4040523524802369e-002 1.0311408780608093e-001
      -7.5280312743466540e-002 2.2123613338758460e-001
      -1.8623998256056201e-001 -1.7600393661408163e-002
      2.1193526409044951e-002 1.6944761322389611e-002
      2.6743403419829315e-001 1.3416205804755202e-002
      3.0062979062663525e-001 7.8035210980615277e-002
      -3.5735177195549396e-002 -1.5946069635168175e-001
      -3.0949850485541908e-001 2.4955420015599913e-001
      2.6291849572486947e-001 -3.6777560137633183e-002
      -2.9795362154702487e-001 2.1214281901773366e-002
      -2.2954353241586567e-001 -1.1038707219246935e-001
      2.2803934581778328e-002 2.7276941964292156e-001
      -7.1508770628820925e-002 -1.2602191085905609e-001
      3.3757366974691760e+000 -2.9081905357141249e-002
      -1.2101161573871236e-001 -2.2947080314003410e-001
      -3.1946948115232618e-002 -2.1722168469465400e-001
      -2.6285673526235909e-001 -4.7519816179113650e-001
      -1.8026610091452067e-001 7.8243946527236735e-002
      -8.6544793786747180e-003 2.9334975663381124e-001
      -1.8235860953198413e-001 -2.6128830847718124e-002
      -5.6880246420790891e-002 1.2055039931569946e-002
      1.9501006720786609e-001 2.4098051376605649e-003
      2.5323824750770435e-001 6.7887273132812870e-002
      -7.4384438727652852e-002 -1.2615859389832207e-001
      -4.0778349420683652e-001 1.6122538524891297e-001
      3.1894523870057839e-001 -6.8076316281159829e-002
      -2.8156458177960875e-001 2.1525376856736271e-002
      -3.0468495140284363e-001 -3.1668134077940630e-001
      5.0015139051863416e-002 3.3321059533376207e-001
      -1.7060381670252728e-001 -1.4429223571464886e-001
      3.4182188749673128e+000 -8.0740400196953596e-002
      -8.3258655661921990e-002 -2.2636366375183875e-001
      -6.8920857185313295e-002 -2.4203913622702472e-001
      -2.6801071262413501e-001 -3.6221336551990968e-001
      -1.2742190987299751e-001 7.2483533665681457e-002
      1.8412128499192462e-002 1.9845300963838391e-001
      -1.3088126427189709e-001 -8.3878673736297621e-002
      -1.6107745139750895e-001 1.1133648027739410e-001
      5.6672016524080451e-002 3.8766526579659635e-002
      1.6844253162268757e-001 -1.2590625764601621e-002
      6.0122666945948509e-003 -1.5992690524755881e-001
      -3.4576070416285820e-001 1.7634814474737598e-001
      3.3087906697184122e-001 -6.1017910240294272e-002
      -2.4193179798376890e-001 5.3259507432881610e-002
      -2.7697849019391835e-001 -2.8641683825042191e-001
      1.0517695915577145e-001 4.2867534441922073e-001
      -2.4141479959072468e-001 -1.3732818265376881e-001
      1.9776300998682277e+000 -1.7109072520673108e-002
      -1.7542398464779810e-001 -1.4876024985368308e-001
      -6.3206972642192383e-002 -2.1653090047682119e-001
      -2.3731460576189131e-001 -2.2205022323496434e-001
      -1.7727177323490154e-001 9.6988610969183705e-003
      -1.7092535844789200e-001 4.1051767121400573e-002
      -7.5079457068276165e-002 -1.4212646502368112e-001
      -2.0395301394386528e-001 5.9917904961899568e-002
      5.1780264921987930e-002 6.6520954443186148e-002
      1.3644860293582661e-001 -7.6497740707781869e-002
      1.6374987502839063e-002 -1.4786790570365085e-001
      -3.2868212370528443e-001 2.0619263144521874e-001
      2.7607618935060013e-001 -1.5262046714348452e-002
      -2.5358925463821774e-001 9.2862883470185689e-002
      -2.8460748920714940e-001 -2.0765279383779686e-001
      1.1447392956573033e-001 2.9927582215244758e-001
      -2.6273923934251497e-001 -1.5025138856692313e-001
      4.8671322963367603e-001 -2.7417280652121963e-002
      -1.4409936776249135e-001 -9.2901158825953928e-002
      -8.1257944663286980e-002 -4.7978000243771468e-002
      -1.3626268305481418e-001 -2.4184627843827766e-001
      -1.0987922772871719e-001 -2.7979794902620481e-002
      -2.4693868692722853e-001 1.6100382193094079e-001
      -5.1460953597720710e-002 -7.4459383246301844e-002
      -1.7177001683643903e-001 -2.8340534976043046e-002
      7.9301527827792973e-003 1.1730176404518394e-001
      9.4179020755290721e-002 -2.5358015630857000e-002
      3.3612872022641016e-002 -2.1964044955228337e-001
      -2.9944269187178457e-001 6.5251610944726243e-002
      3.7239333482255005e-001 -7.9397904997240198e-002
      -2.7750942838941622e-001 1.0292906676702486e-001
      -1.1783185269120131e-001 -2.0886332853007300e-001
      9.5420933645082945e-002 2.9714701281955641e-001
      -2.1210636214412151e-001 -9.5494594146176559e-002
      -2.4449680689103030e+000 1.0600936418743916e-001
      -1.6688427075746548e-001 -3.3239985564069680e-001
      -1.0159741506774131e-001 -2.0331172408397612e-002
      -7.6326247453000024e-003 -2.7272300942832456e-001
      1.0576180587831933e-002 2.0719944722807662e-001
      -2.6724231150362998e-001 2.2026654546259600e-001
      -2.2603521123737993e-002 -1.0136450135840656e-001
      7.3265915407006180e-002 5.8106672429409832e-002
      -1.8350124195806172e-002 6.1172506188821196e-002
      5.0111017474456836e-002 1.6576974469807595e-001
      -3.0107906457649974e-002 -3.2985759786561437e-002
      -2.1943106018555900e-001 7.6380905673214608e-002
      5.5700800819207597e-001 -2.5748228610607371e-001
      -2.2856805717447262e-001 -8.9280345091809835e-002
      7.0163738762539229e-003 -4.6767282806592328e-002
      1.7952778490049431e-001 2.4662949736815667e-001
      -1.4493013192291285e-001 -2.1018501307464271e-001
      -5.4004479784991011e+000 1.8240067416461148e-001
      1.1139823203741739e-001 -2.1049289885243283e-001
      -8.4787580627540091e-002 1.1025806535576541e-001
      1.3646132071683090e-001 -2.0284640023594930e-001
      7.2095005789875932e-002 1.8088259202017426e-001
      -2.7867289727580064e-001 7.4985770746680086e-002
      1.6177957428690545e-001 9.1363581313203934e-002
      6.4294316147541372e-002 1.4480671796033234e-001
      -1.0729452069685182e-001 -2.1113257447737541e-001
      -1.9267511084192473e-001 3.0202591398369621e-001
      -7.0362840081535927e-002 2.6009028269422863e-002
      -1.3497481132069000e-001 -2.0322332962313988e-001
      2.0377062355788564e-001 -1.5416559663713306e-001
      -3.2564415637666476e-003 -2.8433877403951935e-001
      4.3574740936276041e-001 2.0738775870496054e-001
      1.6531378188116175e-001 -1.4179435303119564e-001
      2.3299448131812683e-001 -1.4481738841962913e-001
      -5.7374793654076086e+000 2.3415418304291005e-001
      2.0285366579147854e-001 -1.1009591385528006e-001
      -5.9702670629323620e-002 7.8875459063281222e-002
      1.4080050697681160e-001 1.3378081267491310e-001
      1.1813554343515383e-001 1.0054553294080049e-001
      -3.2067106115289956e-001 -3.6164878276016013e-002
      2.1512181470662051e-001 2.6207360469399943e-001
      -1.1088254890152243e-003 1.1858796621639092e-001
      -7.1318864019103881e-002 -1.4690632522433875e-001
      -1.1464519165837621e-001 3.1614056239994942e-001
      -5.9747450970949176e-002 -3.1480326026479808e-003
      -1.1207387421642337e-001 -1.1949253796245807e-001
      1.2706023090394647e-001 -7.3909376481569103e-002
      1.1655353495902770e-002 -7.7300317981658345e-002
      4.0179991060749881e-001 1.5782219811411990e-001
      1.2014484249065728e-001 -2.6246577836337154e-001
      2.0776538609652845e-001 -5.7850775295013340e-002
      -4.2122038054416517e+000 1.6215786563637408e-001
      2.4969461878242116e-001 2.2274712330682133e-002
      -1.1152950331073062e-001 8.0286097728489103e-002
      2.1664513482965522e-001 2.4053426809674841e-001
      1.6749775278592390e-002 -6.7130335367149866e-005
      -3.9149740539028588e-001 -2.2447990849465399e-001
      3.6277489257327183e-001 1.2037568452804384e-001
      -1.1400537220022532e-001 7.8136219651105079e-002
      -6.2626950357198785e-002 -1.0109353549361691e-001
      -9.6328986062390459e-002 3.4753947045860301e-001
      -3.2761131261474244e-002 -3.6522401751836887e-002
      -4.8816861945001309e-002 -5.8260272591349818e-002
      -6.4814934772855978e-002 -5.5398481273150543e-002
      3.0225211858206386e-002 7.4566372962523456e-002
      3.3631370260389010e-001 2.6667445981109639e-001
      1.0444037787935131e-001 -1.8757171027699390e-001
      2.2379029214406676e-001 1.5908609147421576e-002
      -2.3244440493993554e+000 5.5566442193956192e-002
      2.6550468002979316e-001 -2.3737396109693720e-003
      -1.7963391229407688e-001 -5.4465209324710405e-002
      1.7476871603126293e-001 1.9995891959545098e-001
      -1.7153835923196060e-002 2.9073807085113017e-002
      -3.3106287067636342e-001 -2.8472180652615542e-001
      4.4635461732607812e-001 3.8061092920510742e-002
      -4.9014758423654450e-002 5.3363351415932986e-002
      -5.0972483773489015e-002 -1.0690451442989683e-001
      -9.0132305608810678e-002 3.0004511270005396e-001
      -2.2442196868152839e-004 -2.0700722796740182e-002
      -7.2094786236060237e-003 -1.4990664521836558e-001
      -1.0588598997728206e-001 3.5212444846769851e-002
      2.5732859230183057e-002 9.7254061739014602e-002
      3.2458280201527751e-001 1.6990568874227624e-001
      1.0963097328278552e-001 -9.4244301117363469e-002
      2.6017886255886508e-001 -8.0822309183865126e-002
      -2.0995334274756412e+000 6.2017958833916476e-002
      2.3962725146621391e-001 -5.8097023835851379e-002
      -1.5932339132671122e-001 -2.7609465584626586e-002
      1.7225140892446197e-001 1.9214670437790551e-001
      1.8805709331441746e-002 9.9692162903634945e-002
      -2.7543732847726266e-001 -2.8396988939334067e-001
      4.6885817711184358e-001 2.6019916605428753e-002
      -4.1532845595005113e-002 1.0453610691889768e-001
      6.2906819265523467e-002 -1.0167491352115046e-001
      -1.8203653705398500e-002 2.4704079666211567e-001
      -9.5917397703384449e-002 2.9405173362175501e-002
      1.8280219754185881e-002 -9.6397274192038959e-002
      -5.8183293153948996e-002 7.1351067831510365e-002
      2.5260543106003779e-002 6.4784005746469475e-002
      3.3165729173313413e-001 2.2826364376041103e-001
      1.4560914877304507e-001 -1.4267481482619493e-001
      3.4038233317291311e-001 -1.0477161888540534e-001
      -1.8183949654855109e+000 3.3231181626742781e-002
      1.2394166355849201e-001 -9.9016661159230038e-002
      -1.9712262463656985e-001 -6.9341473966434475e-002
      1.7843019755850845e-001 2.6883643856517547e-001
      5.0015892258889236e-002 1.0543127326990309e-001
      -2.7732077357255736e-001 -4.4044385298999800e-001
      4.9615854249664820e-001 3.8643276500993334e-002
      -8.3140529312095590e-002 7.2980495514837457e-002
      7.7889283752646615e-002 -9.4119951786171385e-002
      -4.5619597328423168e-002 2.3605025610753719e-001
      -1.1965037854297376e-001 5.4273110711809083e-002
      3.4131008349032946e-002 -2.6468641855650857e-002
      -1.6790934456530515e-002 1.7637510427096373e-001
      5.3250006124057779e-003 9.8995108456186462e-002
      3.3713732615244968e-001 3.3986110705807360e-001
      2.3950938084769449e-001 -1.0402788030582229e-001
      3.4094516258383084e-001 -1.1265371706075581e-002
      2.4270824622591651e+000 -1.1019960631622241e-001
      -1.4020313942705107e-001 1.9912886618883213e-001
      -3.3163653884058841e-002 -1.2228470958006890e-001
      -1.1172266428935770e-001 1.1441704450132519e-001
      -2.3227642107028497e-002 3.0317419367421833e-001
      -3.3192034378487612e-001 -2.6974143422291552e-001
      2.8900027576930981e-001 -1.4119471559281499e-001
      -2.3430814141510189e-001 1.1065829939270554e-001
      6.4010266505729635e-002 9.4338603268491628e-003
      -6.4437389163840758e-002 1.1050508685534451e-001
      -3.1447419174240043e-001 1.0592181917559278e-001
      -3.3450970005808899e-002 -2.2018317235629739e-001
      -1.1802381242170684e-001 2.3281651745529708e-001
      -8.0758093620587793e-002 6.8674099571299052e-001
      1.2999917041756689e-001 1.7914909853301100e-001
      -1.0684493482253186e-001 2.6645478506825571e-001
      2.3716600043217059e-001 4.3994193926622166e-001
      1.7957040407998568e+000 -4.3572635059279316e-002
      -1.5777729960798528e-001 1.8803538280069715e-001
      -3.3343001996696334e-002 -1.9319069748865944e-001
      -1.8232676780644846e-001 1.5694242220645968e-001
      -3.4619266612822164e-002 2.1630913801750271e-001
      -3.0067585805392177e-001 -3.2570634167890783e-001
      2.4634656217496331e-001 -5.4845579080186266e-002
      -2.0153630441172821e-001 2.2956159758915906e-001
      4.4257843607152965e-002 -1.1670491201238023e-002
      -6.6120299470219995e-002 7.4432873846117770e-002
      -4.0986647803934256e-001 1.3083273363172640e-001
      4.2248956622994716e-003 -2.3440947003556575e-001
      -2.3031779985597017e-001 1.7549947542654085e-001
      -8.1701437237754596e-002 7.6718822650216389e-001
      1.8388928409644389e-001 2.4109440016143407e-001
      -1.2966291488102188e-001 2.9200495498180717e-001
      2.5049961774186419e-001 4.5926750476701605e-001
      1.0977384349095760e+000 -7.2557701462054175e-003
      -1.8647459869180213e-001 2.5129161224878388e-001
      1.7914081500314454e-003 -2.2673074540467608e-001
      -2.4582048647556054e-001 1.6652856555652504e-001
      -2.9282722212104446e-002 1.5170976753113313e-001
      -2.6932208623365522e-001 -3.4942583023247842e-001
      1.4582880848842955e-001 1.2296245145840283e-001
      -2.3891092936135344e-001 1.6644173800850845e-001
      1.5490568603986116e-002 -4.9656366300138324e-002
      -6.1070456118797842e-002 5.1262796813041529e-002
      -4.1595881960572206e-001 1.3599663233919951e-001
      -8.9314290500500722e-004 -1.2910244426443246e-001
      -2.0351665911807892e-001 2.1253442406234432e-001
      -7.6520713624764744e-002 6.9873656236256332e-001
      2.1735919522450847e-001 1.9902314749021521e-001
      -8.4442527850657895e-002 2.0892785241619496e-001
      2.6743087124944220e-001 4.5864183987140245e-001
      -6.5096365326307415e-001 -2.6328123259571373e-001
      -1.1025040485123080e-001 2.1929547206548239e-001
      1.9314145402091878e-002 -1.8227760666375178e-001
      -2.4075181381197772e-001 1.3433195060670522e-001
      1.3559638231985408e-001 -1.0244850974712554e-001
      -1.9240506743944491e-001 -5.0365168535872216e-002
      1.4401986477335832e-001 1.8728333736225722e-001
      -3.3032816612882177e-001 2.6650140073672207e-001
      -1.4574778545763944e-001 -1.0107463137942661e-001
      -1.1515128566364678e-001 -2.5004083176397995e-001
      -2.8173900551940845e-001 4.1230276614888775e-002
      2.8458479539578876e-002 -1.0474870450984655e-001
      -2.5433023445158282e-001 1.5666105421093238e-001
      -5.7552293361904518e-002 6.3954720561805023e-001
      1.4320016089813131e-001 2.0396940070991321e-001
      -6.6930729348134779e-002 -1.7052693911650332e-002
      2.5836058134553042e-001 5.0605951011551897e-001
      5.4532770873387848e-001 -1.1492663964436822e-001
      -1.8597702375056765e-001 2.5028941205636579e-001
      -1.8175596920635178e-002 -2.3556825482998767e-001
      -1.8680600028061950e-001 -2.9445732018882056e-003
      -1.1193202880243228e-001 -1.8723387404740180e-001
      -5.8336361200094888e-002 -1.3953728367095391e-002
      -7.3583722784957718e-003 8.5626369409390807e-002
      -2.4178447798729225e-001 7.6069631077757466e-002
      -9.1953806478218131e-002 -9.1650277657451276e-002
      2.6824309580551129e-002 -9.2383788644592305e-002
      -1.8706534659961649e-001 1.5438708686212508e-002
      -2.5697658703636547e-002 1.2097170812658662e-002
      -1.5869984911719859e-001 1.2204660814667224e-001
      -1.2475159449025931e-001 5.3173056904293192e-001
      2.5867840096562705e-001 1.0130838891787577e-001
      4.5513142565651213e-002 -8.0325608263888931e-002
      1.7307892666279745e-001 3.7149475148797678e-001
      2.4292024037072375e+000 8.3690145212860258e-003
      -9.6632563141026404e-002 2.0489562403033090e-001
      -2.0339731008421128e-002 -1.6667660583938759e-002
      -8.8423088532496141e-002 -1.7014825638159212e-001
      -2.8965199999785940e-001 5.6240744662858506e-002
      1.5379766023111188e-001 7.4670123639991856e-002
      5.6524906499763737e-002 -1.1881452858094927e-002
      -5.8461234350809061e-003 -2.7969397906266430e-002
      8.0926321697865941e-002 1.2090650987057688e-001
      2.9474454571478115e-001 9.5709299550021693e-002
      -1.2015143668313918e-001 1.0255128681646856e-002
      -3.0035142531878944e-002 2.7049003133069155e-001
      4.7806275554976296e-002 -7.5279050616991805e-002
      -1.5232444217072408e-001 3.3328959460075575e-001
      3.0062291833520455e-001 -2.2002990568668928e-002
      1.1021853708327287e-001 1.4246969959970060e-001
      -1.9303835486918358e-001 1.7110230306926791e-001
      3.3751233425234877e+000 3.0291907371672772e-001
      2.7492333252556025e-002 3.5877233812916670e-001
      5.8558369828294037e-002 4.2023251744531136e-002
      4.9436762209991429e-002 -8.0751009529877751e-002
      -2.3714232099989627e-001 2.4306744025257823e-001
      7.5832916234905942e-002 -5.9011852192785243e-002
      4.7599080467144318e-002 1.6084974821227446e-002
      1.0435411959139745e-002 -2.5991358475894399e-001
      1.8694050012416857e-001 1.2955798041795449e-001
      2.6241889407675922e-001 2.7666222503886284e-001
      1.4756592980245473e-001 1.4579194687404867e-001
      -8.3714274216423343e-002 3.0649065469362874e-001
      1.4520246963590375e-001 1.4038144522891250e-002
      -3.4558524294187168e-002 3.2984784956391333e-001
      9.9429331365327930e-002 2.5489624689363699e-001
      -9.5540721882104232e-002 1.0694516308885950e-001
      -2.4692800600265030e-001 -7.7868803983919765e-002
      3.9782182557626617e+000 2.1784249569464029e-001
      9.7645076119842758e-002 3.0371267810786828e-001
      6.6550376572406103e-002 1.0179500114730559e-001
      1.3222374171903642e-001 1.3468434050925979e-001
      -2.2715091846201188e-001 3.9272619812030396e-001
      -4.7265123550285830e-002 -9.1055782662834303e-002
      -2.0158087195452049e-001 1.7224105937653172e-001
      7.0012329372391470e-003 8.0003924651915775e-002
      1.2274814426755269e-001 4.1088557038521080e-002
      3.0130490777538751e-002 9.1797883453075046e-002
      2.1496645618785132e-001 9.2768169620781230e-002
      -6.1989712598512582e-002 2.1245250605962099e-001
      7.2260036131892982e-002 -1.7152840873766254e-001
      -2.4375299598549442e-002 1.8210601437099186e-001
      1.7613956003312176e-001 2.9389059438143977e-001
      -1.3093389335055941e-001 5.5282901015885268e-002
      -6.6425895844973257e-002 1.7988636211218583e-002
      1.3896225798006063e+000 1.7406218695964387e-001
      -1.3555394971513202e-001 2.3191129446692233e-002
      9.0530458177184955e-002 7.1393728120258793e-002
      -8.8090538891807846e-002 3.4684361826667720e-001
      -1.2312769217102373e-001 2.1374975532451193e-001
      -8.6789984939579054e-002 -2.4023078650825033e-003
      -5.7816203973892463e-002 1.3354860965781673e-001
      2.4119916048055585e-002 2.2722470758667587e-001
      -5.2778562133336697e-002 6.1411683988436647e-002
      -4.0733681026006587e-002 -7.2341182510700375e-002
      -2.5809232004321121e-002 9.4639552956176556e-002
      -1.7470633646349046e-001 4.5467085825059629e-002
      -1.2200293664854046e-001 1.1977507747904996e-001
      1.2864447439841986e-001 5.4424451729499534e-001
      8.6624757456802468e-002 3.5273790813073180e-001
      -1.1833012722809599e-001 7.0545609862620665e-002
      1.1720396328552901e-001 2.5474892255258547e-001
      1.0483209445015615e+000 -9.1015019004168446e-002
      -4.4980415159380040e-002 2.8655601516743574e-002
      3.1203629819401397e-003 1.2707370262974518e-001
      -1.3025098681039660e-001 2.5229138247854510e-001
      1.8236670562054072e-001 3.4452335741235240e-001
      -2.3186152967581047e-001 1.4203250012287727e-001
      -2.1440581170320286e-001 2.5847156769560858e-001
      1.2105484014853203e-001 3.3842685100324441e-002
      -8.5058801063907119e-002 -1.9539543163661871e-001
      -1.7118694930694203e-001 -5.4911408069685794e-002
      2.9724967910047827e-002 3.4401339182279648e-003
      -1.0886411673210689e-001 -2.8305628968477964e-001
      -1.7486137953304765e-001 1.6696827771143544e-001
      1.4726022052381277e-001 1.8423620455818951e-001
      2.1449150609620157e-001 1.2678289549576036e-001
      -2.5955807504547712e-001 8.2278835066836725e-002
      3.0405920340874931e-001 1.8052390016666567e-001
      7.6628408517871038e-001 -7.7201559859308350e-002
      -1.2348631211324353e-001 1.6868105392588120e-002
      -4.5559892435532136e-002 -1.3239971584437654e-001
      -1.8589114440806007e-001 2.4278677269852580e-001
      2.5280762102888049e-001 2.3691619108452330e-001
      -3.2640020692651867e-001 1.4111710284506073e-002
      -1.5344728584502348e-001 2.1685818060594358e-001
      1.6863841459588957e-001 -1.7395136855472657e-001
      3.3262300664908727e-002 -1.3974259695220900e-001
      1.6925298480941021e-002 1.5107647959329090e-001
      -3.0101479112151826e-002 1.0224039176440441e-002
      -2.0419918208548263e-001 -3.6316073796068266e-001
      -2.8373389923023445e-001 1.9762912364770019e-001
      -8.8979265614876693e-002 1.5346287477685167e-001
      3.3420032961127627e-001 -6.1963589072166446e-003
      -2.2506984769842323e-001 7.3791780989614961e-002
      2.5928607963418909e-001 3.3267785791043369e-001
      1.3761328797191696e+000 -6.4249976929430919e-001
      -1.7342616623350890e-001 1.0786876678389599e-001
      -1.9988018103051819e-001 2.3104376284569350e-002
      1.1058785981596181e-001 2.0593075102297492e-002
      2.5594989126617657e-001 2.1228572436274118e-001
      -3.5616206048398552e-001 -6.1047593126514607e-003
      -1.9595122342341598e-001 5.9744063584610152e-002
      1.6079228918080399e-001 2.7088791776747451e-003
      7.9485651020602829e-002 -1.4096013558968748e-001
      -6.4028693582591736e-002 1.6397596564076355e-001
      -1.4386839415287786e-001 -5.9995101434397971e-002
      3.7666565217436374e-002 -2.5828148820196117e-001
      -1.7498109912673057e-001 1.4254201372461781e-001
      -2.2981046746187889e-001 5.4431707630929471e-001
      3.4861821463420756e-001 -9.3735101087903408e-002
      -3.1645985216485534e-001 2.3059783858990920e-001
      2.1754835491533914e-001 5.1152644727854046e-001
      7.5248561013665671e-001 -4.9962593143152328e-001
      -1.8743580316863231e-001 -2.7272341003671395e-002
      -2.3014196874639342e-001 -8.3659089294349787e-002
      3.0508026187095016e-001 2.8162916630345697e-001
      2.9719274917481536e-001 2.3425266187424770e-001
      -2.2001917363899970e-001 -8.0756442035999909e-002
      -2.5685952909125187e-001 9.6386927876944875e-002
      -1.3581071620619728e-001 4.1264381702136238e-001
      -1.0515886236971412e-002 -2.4296640163131625e-001
      -2.1888838081709294e-001 2.0997530184767080e-001
      -3.1538051920579585e-001 1.4136005532021295e-001
      3.7295138052398313e-001 -4.2083544207050325e-003
      -1.2126237734503169e-001 5.0807017296517099e-002
      -1.2077450017107302e-001 6.1523072242835897e-001
      2.3041160596453822e-001 1.3290658527100888e-001
      -1.7278115305948893e-001 5.4409636059431457e-002
      3.7827934936642027e-001 4.9882260522897354e-001
      1.7964131056927033e+000 -1.8719571514031461e-001
      -6.3911487834288044e-002 7.1855788741608043e-002
      -1.7151745283178835e-001 1.0427929992268727e-001
      2.2410321436984826e-001 8.3461879257020824e-002
      1.4927967870114384e-001 2.3137746813301030e-001
      -2.4332598079425247e-001 -1.1922717374926037e-002
      -1.3042587382564311e-001 1.0256142138720592e-001
      -6.0619718368741873e-003 1.0162205788141401e-001
      -6.7860459203824955e-002 -2.2141056151128718e-001
      -1.9298055588581095e-001 2.9014746898187621e-001
      -1.0204763509524860e-001 4.9688996927430583e-002
      -3.4478933552715731e-002 -4.9688099104047506e-002
      -1.5159009973545909e-001 1.7467004567679650e-001
      1.0695007856769638e-001 4.2400123749150942e-001
      3.8141170517278566e-001 1.4752648647661196e-001
      2.2254393861202627e-002 1.3142893144108850e-001
      3.4512444177803009e-001 4.5617322657201970e-001
      5.9293250620459106e-002 -2.1458841755972811e-002
      -4.4982596449290122e-003 2.7215094353675034e-001
      -1.8647074585786538e-001 1.6027945886854575e-001
      1.9064488247618927e-001 4.6419804959651804e-002
      9.4155787918571140e-002 -1.3995882860072983e-001
      -3.4143249268694303e-001 -1.0256326018820189e-001
      -3.0812896457342424e-002 2.1379533545998912e-002
      -8.9288907084805122e-002 -8.9152503645029239e-003
      -1.6058487994555418e-001 -1.5674128894127498e-001
      -1.8988113015616606e-001 2.3736172019018184e-001
      5.4799972342883752e-002 8.2319403255512028e-002
      -2.6012203068749179e-001 -1.1127503674247990e-001
      1.4432062939613791e-001 2.1319546517529334e-001
      6.6224277714390142e-002 2.6583822869233642e-001
      4.3201812481328472e-001 -8.7126120572480741e-003
      1.3704521154840130e-001 8.4000817443955600e-002
      1.6390574772093472e-001 4.4435307808257146e-001
      -7.6738468120637815e-001 8.9747328664765300e-002
      -1.0966849168482525e-001 2.2643219076694407e-001
      -1.1466019220608216e-001 5.3683097739553771e-002
      1.5190270311424306e-001 -6.7813898165936928e-002
      6.4017415058068100e-002 -4.9741810562051819e-002
      -4.1294065210112441e-001 -9.9600485664938343e-002
      8.3189214475284143e-002 1.9915126631055761e-002
      -1.1374057233083110e-001 8.1234128722608365e-002
      3.6457010816154599e-003 -5.2274742029659038e-002
      -1.4731260692716813e-001 1.5485574654437662e-001
      1.6117341275877289e-001 5.7849199602911620e-003
      9.2579126366997735e-002 -2.3088218752712555e-001
      2.3461615262454569e-001 1.5597414443629898e-001
      -5.2599412989988242e-002 -1.2283972266181985e-002
      1.0093547907739872e-001 -2.8280049958516262e-001
      -1.8073934036902859e-002 1.1394530979383960e-001
      1.4712852713644611e-001 1.7242961532654572e-001
      -1.0813725671064149e+000 -2.1547096326195891e-002
      -1.7348097071778240e-001 -8.0579262622610115e-002
      -5.4165784782683336e-002 -9.1903307414131177e-002
      9.0122017354474657e-002 -1.5293502189668057e-001
      4.9797863007716214e-002 -1.4306532346541787e-001
      -2.1787352989795244e-001 -8.1202183319570409e-002
      3.1417856752351973e-002 5.7494002700451949e-002
      5.6304106353229133e-002 2.1637904395746126e-002
      9.1742296237586576e-002 -1.8288441507223665e-002
      -6.9584999926970773e-002 1.2001909329140169e-001
      -1.6119243593235705e-002 -9.8770358810020081e-002
      -1.5378650309436540e-001 -3.9113671700684921e-001
      2.2395839999652925e-001 1.2237589680949901e-001
      -3.0605143459866102e-001 -1.0084952358064721e-001
      3.1728773828220619e-001 2.5105401495893680e-002
      -3.7615329168789241e-003 1.1593007315126813e-001
      2.1724674489776274e-001 1.0615160250984967e-001
      -2.1441689100695491e+000 2.3320771370411754e-002
      1.0550005244932981e-001 -9.2807035837255136e-002
      -5.2308433251274274e-002 -6.0316094273122338e-002
      -1.8346963109016439e-002 -1.7651327095036823e-001
      4.7495823322113119e-003 -1.1590805832479897e-001
      -1.7338315181251582e-001 -1.7208340046742282e-001
      6.9418806818376436e-002 7.6345462392451602e-002
      4.7695919491223350e-002 -1.0517652545976024e-001
      2.9369982237645888e-002 2.5589013293124897e-002
      -1.2107208117385959e-001 1.0091685862031460e-001
      5.8679972252717684e-002 -4.3423141643377523e-002
      -2.4604003662395052e-001 -5.5271197671627914e-001
      2.1852576800185430e-001 7.9629205244453570e-003
      -2.4889551829231918e-001 -1.4572573669424516e-001
      9.0956310045732014e-002 1.0777328854257583e-001
      4.5973431627986137e-002 7.1221458411741156e-002
      -7.5828077712885907e-003 1.5210561050410312e-001
      -2.1151255800124038e+000 5.7568640679258591e-002
      1.8860228357000305e-001 6.5950002552443127e-002
      -4.9661972262507945e-002 -1.4340546782400740e-001
      -2.9912955378568677e-003 -3.5811921628294371e-002
      5.2155649585574733e-002 -6.7426891315871221e-002
      -1.8429422264186474e-001 1.1319418320554073e-001
      -1.0443108618978340e-001 -4.0809455188290510e-002
      -1.1236947817940464e-001 -4.1685292509672933e-001
      -9.1063142342292777e-002 2.3509149299741114e-002
      -1.1010081210509048e-001 1.2629467972227545e-001
      1.8850282344353178e-001 -3.3529123823948785e-002
      -1.4572886178262298e-001 -5.1520848713447776e-001
      1.1153541557846791e-001 2.0998607003314540e-001
      -3.5035328256264701e-002 5.4770496256679659e-002
      1.0079256819298882e-001 4.8268600568524882e-002
      -7.3375457545822179e-003 1.5257693351901924e-001
      8.5977867731471341e-002 1.5299666991151137e-001
      4.7546549778184344e-001 6.6645969098003462e-003
      4.2669918923135756e-002 3.2019952040422001e-001
      -6.0439023039139887e-002 -4.6047967301751695e-002
      1.3568215821677082e-001 3.8590124544386595e-002
      -1.9262922005195338e-001 3.9156045637647095e-002
      -2.1904553269451033e-001 -2.5387726007507522e-002
      -7.5655242980497903e-002 -2.2996799720621497e-001
      -9.3658533302547628e-002 -3.2760431629892861e-001
      9.0448321659469116e-003 2.0374609386174711e-001
      1.2503055246793512e-001 9.8526801937645306e-002
      2.7082365441100376e-001 -2.4721686775770697e-002
      -1.9010799004255591e-001 -7.3616749230846532e-002
      -2.5603752866177255e-002 1.3341204291507375e-001
      -3.6440217814157301e-002 2.7697767391288958e-001
      -6.9373648813695843e-002 1.6431603347244184e-001
      -5.7881425199304342e-003 2.0503118241391108e-001
      -1.2358162511863816e-001 1.2706785490252488e-002
      3.2221644235812898e+000 1.1098404941559634e-001
      -3.6455256577135892e-001 1.7088082733823773e-001
      -3.0932020109212581e-002 -2.3618918480507439e-001
      4.6841678843944218e-002 -1.5982709078265936e-001
      -3.6333098492782673e-001 3.8668544853523357e-001
      1.5025852373701789e-002 -5.5929612951706308e-002
      -1.0835200251281558e-001 -3.0418245993327370e-001
      -6.8699344778543017e-002 -8.1518395737064236e-003
      6.0811495247784619e-002 1.1493143287197792e-001
      2.4530527574201311e-001 1.5669891180664497e-001
      9.2564148396623760e-002 -3.7793899325342458e-003
      8.4711820524599607e-003 1.0814602695430675e-001
      -8.7589835454982584e-002 -1.0421726509829687e-001
      -3.2272200884059854e-002 2.1834915386964113e-001
      -1.5159475363617850e-001 2.8473555760354963e-001
      1.1791795531253705e-002 1.2684910155808740e-001
      -1.3058372497187921e-003 2.2506026827665011e-002
      6.3007139810681005e+000 4.9359244109367574e-002
      -3.1723714477422049e-001 -1.2784703695136981e-001
      1.4597452973342140e-002 -1.4958050001287598e-001
      -5.3212931054138567e-002 -1.8568071716384263e-001
      -3.0602683454953805e-001 2.7749272630090027e-001
      1.0740876411799540e-001 -8.3615550014623327e-002
      -7.3687832521013644e-002 -2.2743375040245015e-001
      -3.0359295582870795e-002 4.8815439337816020e-002
      -1.6974690006792709e-002 3.7043156911908737e-002
      1.9480802964504990e-001 1.5988446856239910e-001
      8.7789443568680861e-002 -6.6653122961889563e-002
      -2.1482291584572741e-002 2.4839870809453921e-001
      4.6534567214707745e-004 -2.1432755100043813e-001
      -2.1829004916262818e-002 5.5458380562226808e-002
      -3.6410030268031073e-002 4.1995176545413199e-001
      -2.5890449051196366e-002 1.4627887592835219e-002
      -9.3189577197298673e-002 -4.1643320104833535e-002
      3.9882098700763797e+000 1.5286942413602664e-001
      -3.3434772619482245e-001 -1.5259766469114958e-001
      2.2445599947782863e-002 4.7559092365466439e-002
      -9.7408895924928823e-002 -1.4701101607858769e-001
      -2.3277767931004620e-001 1.1534656475358875e-001
      -9.8756316530583699e-002 -9.9584337905003803e-002
      6.2595398833786417e-003 -2.5506836823757034e-001
      8.8670317886808875e-002 -8.6546054069371603e-002
      9.8286155483087848e-002 4.3478913697910515e-002
      2.1136967840881066e-001 9.1016902949373923e-002
      9.8650212161033854e-002 -5.3600887333867864e-002
      -1.8589860028845559e-001 9.6543909805257566e-002
      1.3396071077611035e-001 -8.0276132501235012e-002
      8.4948067433612565e-002 -1.6042259851372601e-001
      4.3125328719266814e-001 1.8657225790705825e-001
      9.7157363883678724e-002 -9.8968588340526104e-002
      -9.9170557062291428e-002 -8.3430159954494251e-002
      -4.1508490814182780e-001 7.7122611582477962e-002
      -1.4822614683210200e-001 -3.4041827801797159e-001
      1.1793313248562437e-001 1.5020630981344046e-001
      4.3735626866733185e-002 -1.7181254891745290e-001
      1.6162715394601385e-003 -2.1849040220469623e-001
      -9.8327258709839951e-002 -6.2427562640758542e-002
      -3.7729611505003265e-002 3.7712994973355535e-002
      6.2307995795484961e-002 -4.2409404726976441e-001
      1.4005399252665773e-001 7.5548877522153612e-002
      9.2191305473808258e-002 1.8008385176237485e-001
      8.2016795842691823e-002 -9.7785172358651057e-002
      -2.8444679082754670e-001 1.2040150385421580e-001
      3.7989978681624226e-001 -1.0624557796933646e-002
      -1.2347294310081898e-001 1.1855569868319202e-001
      4.1732746808630955e-001 2.7536037859041568e-001
      2.4712183160884773e-002 -3.7764460609878585e-002
      -2.0840367046793440e-001 1.3712697109368876e-002
      -1.5853648205332407e+000 -4.1167424659004727e-002
      -9.7446987919460423e-002 -2.5621624017298356e-001
      2.8386364923194254e-002 2.2379960507805483e-001
      6.6621621448989435e-002 -6.9418158769134083e-002
      1.5969361062069146e-001 6.4969883098454126e-002
      -2.5660020745686946e-001 3.9926492235820621e-002
      4.7410451016720770e-002 1.5855172912149781e-001
      -1.7714677623402130e-002 -1.8597924028220514e-001
      3.2796840039622487e-002 -3.3735416334666007e-003
      -1.8985337398935660e-002 3.5753477258997052e-001
      4.5558136066138663e-002 -1.6738233898144114e-001
      -2.5473695500334392e-001 4.2963998286414298e-002
      4.6314060838982629e-001 -4.6336428206113348e-002
      -2.4029450124756463e-001 1.8044639975402854e-001
      5.8052778756974399e-002 4.4487467993027510e-002
      5.7150556176209157e-002 1.7509729936694546e-001
      -8.8093450862257089e-002 -1.1215417356162050e-001
      6.4679455910187911e-001 1.2718326931132803e-001
      1.6169271176720371e-001 -1.1366434045003959e-002
      -6.1247969667431811e-002 3.4264005146371024e-001
      2.9034956090783937e-002 -2.1139758103005064e-002
      4.9718002608824668e-002 1.4024521699602066e-001
      -3.1494037703274874e-001 3.8703363048572435e-002
      1.4767343087766105e-001 5.2764262844919245e-002
      -1.4825111676736794e-001 6.3490577406010912e-002
      -7.9706771511179594e-002 -1.3237168560956172e-001
      -1.3881892787464326e-001 2.7477323734703879e-001
      -1.8590937216133085e-002 -1.9138914580907440e-001
      -1.4829789972840882e-001 -1.4012959072838976e-001
      2.3844293510967385e-001 2.6857372961648255e-002
      -2.7052978415300000e-001 3.9247724316512267e-001
      8.0113974572953259e-002 -9.2313917387630770e-002
      3.7249301706046747e-002 1.7659419243852378e-001
      6.4257678320633255e-002 -8.9182157763564959e-002
      -1.8057509327926020e+000 2.1229793611138059e-001
      3.7675558569034656e-001 1.6214937643467342e-001
      -8.3293225587612985e-002 2.9807387522320794e-001
      1.2656721651835440e-001 7.6019397926965354e-002
      1.2178149069222689e-002 -3.2028246831439192e-002
      -3.2568552220482272e-001 -1.0455575960718100e-001
      2.0977909711575798e-001 -6.2829068410993866e-002
      -2.0286049392912608e-001 -1.0997556734109419e-001
      -5.5076887219284242e-002 -4.6711567703415405e-002
      -1.0531007749969108e-002 1.6436148897132505e-001
      -1.6465091900224774e-002 -7.7002408981225137e-002
      -1.4140822024255542e-001 -1.2305071353412091e-001
      1.0569261908930634e-002 -3.8873201613949637e-002
      -9.3138800768706488e-003 1.6949591548340945e-001
      2.1696325118964449e-001 -5.6893086489020042e-002
      -1.9062235026574962e-003 -8.2739501190149417e-002
      1.4274066155792045e-001 -6.1652044794637290e-002
      -1.8869011896789383e+000 1.2083456151520999e-001
      2.0403654647965400e-001 7.8348069593459857e-002
      -2.2283890894708117e-001 1.0905071298793681e-001
      3.1288586447531047e-001 1.6496761788028147e-001
      -4.0920369858156433e-002 4.7280921412346154e-002
      -3.5659057677958889e-001 -2.9758356383988160e-001
      4.2283720883683418e-001 4.6050130357958203e-004
      -7.9264944150953309e-002 -1.1994515137859824e-001
      5.8315122296173680e-002 -1.2149569276124203e-001
      -1.1668524954327127e-001 3.1775885320234243e-001
      -1.0565015375943719e-001 5.3826323407766821e-003
