<?xml version="1.0"?>
<opencv_storage>
<my_svm type_id="opencv-ml-svm">
  <svm_type>C_SVC</svm_type>
  <kernel><type>RBF</type>
    <gamma>8.</gamma></kernel>
  <C>10.</C>
  <term_criteria><epsilon>1.0000000116860974e-007</epsilon>
    <iterations>2147483647</iterations></term_criteria>
  <var_all>784</var_all>
  <var_count>784</var_count>
  <class_count>15</class_count>
  <class_labels type_id="opencv-matrix">
    <rows>1</rows>
    <cols>15</cols>
    <dt>i</dt>
    <data>
      0 1 2 3 4 5 6 7 8 9 10 11 12 13 26</data></class_labels>
  <sv_total>175</sv_total>
  <support_vectors>
    <_>
      2.55000031e+002 2.55000015e+002 2.55000015e+002 2.15725464e+002
      1.50267868e+002 6.17171364e+001 0. 0. 0. 0. 0. 0. 0. 0. 0. 0. 0.
      0. 0. 1.34166508e+001 1.70840225e+002 2.55000015e+002
      2.55000015e+002 2.55000015e+002 2.55000015e+002 2.55000015e+002
      2.55000015e+002 2.55000015e+002 255. 255. 1.86696442e+002 0. 0. 0.
      0. 4.75685616e+001 5.91964455e+001 6.16359100e+001 1.95803558e+002
      1.95803558e+002 1.95803558e+002 1.95803558e+002 2.28573029e+002
      255. 255. 8.36718903e+001 1.05704713e+000 0. 0. 5.94404182e+001
      2.20116440e+002 255. 255. 255. 255. 255. 2.55000015e+002
      2.14017868e+002 0. 0. 0. 1.50267899e+002 255. 255. 2.42559052e+002
      0. 0. 0. 0. 0. 0. 1.59456543e+002 2.51828766e+002 255. 255.
      1.24409714e+001 0. 0. 0. 1.24979172e+002 2.49877258e+002 255. 255.
      255. 2.55000015e+002 2.14017868e+002 0. 0. 1.07578140e+002
      2.41908493e+002 255. 255. 2.27678909e+001 0. 0. 5.17967834e+001
      1.47421844e+002 0. 0. 0. 2.44754295e+001 2.27109375e+002 255.
      2.52154037e+002 1.79296936e+002 0. 0. 0. 1.99218750e+001
      1.95234497e+002 255. 255. 2.41339294e+002 0. 0. 0. 1.22946449e+002
      255. 255. 5.00893364e+001 0. 0. 3.18750000e+001 255. 255.
      2.20441696e+002 7.92809067e+001 0. 0. 0. 7.60283737e+001 255. 255.
      2.31500320e+002 1.04650719e+002 0. 0. 5.66757050e+001
      2.26458710e+002 255. 0. 0. 0. 9.56250000e+001 255. 255.
      7.74106598e+001 0. 0. 4.55367565e+000 255. 255. 255. 255. 255.
      1.73767517e+002 3.06553898e+001 0. 0. 255. 255. 255.
      2.04504089e+002 6.36688080e+001 0. 0. 1.03186996e+002
      2.47925659e+002 0. 0. 6.83035507e+001 255. 255. 2.04016220e+002
      5.11463165e+001 0. 0. 255. 255. 255. 255. 255. 255. 255.
      5.91965714e+001 0. 0. 2.27676487e+001 255. 255. 255.
      1.67750427e+002 3.24442101e+001 0. 0. 2.41339218e+002 0.
      4.09821396e+001 255. 255. 255. 1.04732109e+002 0. 0.
      3.73229828e+001 255. 255. 255. 255. 255. 255. 255. 255.
      3.18750000e+001 0. 1.91085663e+001 2.22067947e+002 255. 255. 255.
      9.56250000e+001 0. 0. 2.41339233e+002 0. 4.09821396e+001 255. 255.
      255. 1.04732109e+002 0. 0. 2.32232101e+002 255. 255. 255. 255.
      255. 255. 255. 255. 3.18750000e+001 0. 0. 5.00892181e+001 255.
      255. 255. 9.56250000e+001 0. 0. 4.30972767e+000 0. 4.09821396e+001
      255. 255. 255. 1.04732109e+002 0. 0. 2.32232101e+002 255. 255.
      255. 255. 255. 255. 255. 255. 255. 4.55343246e+000 0.
      5.00892181e+001 255. 255. 255. 2.23694244e+002 5.48867073e+001 0.
      0. 0. 4.09821396e+001 255. 255. 255. 1.04732101e+002 0. 0.
      2.32232101e+002 255. 255. 255. 255. 255. 255. 255. 255. 255.
      4.55343246e+000 0. 1.87834568e+001 1.44006744e+002 255. 255. 255.
      6.83034363e+001 0. 0. 0. 4.09821396e+001 255. 255. 255.
      1.04732109e+002 0. 0. 2.32232086e+002 255. 255. 255. 255. 255.
      255. 255. 255. 255. 1.16359871e+002 0. 0. 7.74107819e+001 255.
      255. 255. 6.83034363e+001 0. 0. 0. 4.09821396e+001 255. 255. 255.
      1.04732109e+002 0. 0. 2.32232101e+002 255. 255. 255. 255. 255.
      255. 255. 255. 255. 255. 0. 0. 7.74107819e+001 255. 255. 255.
      6.83034363e+001 0. 0. 0. 4.09821396e+001 255. 255. 255.
      1.04732109e+002 0. 0. 2.32232101e+002 255. 255. 255. 255. 255.
      255. 255. 255. 255. 255. 0. 0. 7.74107819e+001 255. 255. 255.
      6.83034363e+001 0. 0. 0. 4.09821396e+001 255. 255. 255.
      1.04732109e+002 0. 0. 2.32232101e+002 255. 255. 255. 255. 255.
      255. 255. 255. 255. 255. 0. 0. 7.74107819e+001 255. 255. 255.
      2.38330811e+002 3.73232498e+001 0. 0. 4.09821396e+001 255. 255.
      255. 1.04732109e+002 0. 0. 6.22048988e+001 255. 255. 255. 255.
      255. 255. 255. 255. 255. 255. 0. 0. 7.74107819e+001 255. 255. 255.
      255. 4.09823532e+001 0. 0. 4.09821396e+001 255. 255. 255.
      1.87916168e+002 4.28523521e+001 0. 0. 255. 255. 255. 255. 255.
      255. 255. 255. 255. 255. 0. 0. 7.74107819e+001 255. 255. 255. 255.
      4.09823532e+001 0. 0. 4.09821396e+001 255. 255. 255. 255.
      7.74106598e+001 0. 0. 255. 255. 255. 255. 255. 255. 255. 255. 255.
      255. 0. 0. 7.74107819e+001 255. 255. 255. 1.84988785e+002
      2.56139717e+001 0. 0. 0. 6.83035507e+001 255. 255. 255.
      7.74106598e+001 0. 0. 2.05804779e+002 255. 255. 255. 255. 255.
      255. 255. 255. 255. 0. 0. 7.74107819e+001 255. 255. 255.
      6.83034363e+001 0. 0. 0. 0. 6.83035507e+001 255. 255. 255.
      8.05818024e+001 8.94425154e-001 0. 4.55367565e+000 255. 255. 255.
      255. 255. 255. 255. 255. 4.55343246e+000 0. 0. 7.74107819e+001
      255. 255. 255. 6.83034363e+001 0. 0. 0. 0. 1.09772816e+001
      1.21238663e+002 255. 255. 255. 5.00893364e+001 0. 7.31835783e-001
      6.77341309e+001 255. 255. 255. 255. 255. 255. 255. 4.55343246e+000
      0. 4.20392189e+001 2.26459061e+002 255. 255. 255. 6.83034363e+001
      0. 0. 1.59456055e+002 0. 0. 9.56250000e+001 255. 255. 255.
      1.85476532e+002 1.50430460e+001 0. 3.18750000e+001 255. 255. 255.
      255. 255. 255. 1.07578369e+002 1.54491949e+000 0. 5.00892181e+001
      255. 255. 255. 1.49698837e+002 2.31744537e+001 0. 0.
      2.41339294e+002 0. 0. 0. 6.36686287e+001 2.04504120e+002 255. 255.
      2.27678909e+001 0. 0. 3.06552067e+001 1.73767471e+002 255. 255.
      255. 1.60594666e+002 1.65066795e+001 0. 1.09772720e+001
      1.48885590e+002 255. 255. 1.91331314e+002 4.95200386e+001 0. 0.
      1.16360115e+002 255. 2.26458801e+002 5.66753998e+001 0. 0.
      1.04651100e+002 2.31500458e+002 255. 255. 7.60279388e+001 0. 0. 0.
      7.92810669e+001 1.77589706e+002 6.02535019e+001 0. 0. 0.
      9.32663727e+001 255. 255. 2.23206421e+002 8.56237030e+001 0. 0.
      6.49692917e+001 2.45486221e+002 2.55000015e+002 255.
      1.95234390e+002 1.99218750e+001 0. 0. 0. 2.04910660e+002 255. 255.
      2.27109375e+002 2.44754601e+001 0. 0. 0. 0. 0. 2.78906250e+001
      2.51015747e+002 255. 255. 2.45323654e+002 1.31484192e+002 0. 0.
      2.33370705e+001 2.19140442e+002 255. 2.55000015e+002 255. 255.
      2.49877396e+002 1.24979477e+002 0. 0. 1.09770222e+001
      1.36602974e+001 255. 255. 2.51828873e+002 1.59456543e+002 0. 0. 0.
      1.85314285e+002 2.53292465e+002 255. 255. 2.07594040e+002
      9.51341820e+000 0. 0. 0. 1.86696564e+002 255. 255. 2.55000031e+002
      255. 255. 255. 2.26458801e+002 8.04192429e+001 0. 0. 0.
      1.05710578e+000 5.91965675e+001 5.91965675e+001 1.25629898e+002
      255. 255. 1.25629715e+002 5.91965675e+001 5.91965675e+001
      1.05704927e+000 0. 0. 0. 0. 1.01398102e+002 2.32801300e+002 255.
      255. 255. 2.55000015e+002 255. 255. 255. 255. 255. 255.
      1.70840485e+002 1.34168177e+001 0. 0. 0. 0. 0. 0. 0. 0. 0. 0.
      1.34166746e+001 1.50268127e+002 1.50268127e+002 1.93283081e+002
      255. 255. 255. 255. 255.</_>
    <_>
      255. 255. 255. 255. 255. 255. 2.12066330e+002 1.45714279e+002
      2.60204449e+001 0. 0. 0. 0. 0. 0. 0. 0. 0. 0. 0. 5.72448158e+001
      2.12066376e+002 255. 255. 255. 255. 255. 255. 255. 255. 255. 255.
      255. 1.49617371e+002 0. 0. 0. 2.60203171e+000 7.28571701e+001
      7.28571701e+001 7.28571701e+001 2.35484772e+002 255. 255.
      1.57423340e+002 7.28571701e+001 7.28571701e+001 0. 0. 0.
      1.49617279e+002 255. 255. 255. 255. 255. 255. 255. 255.
      2.27678574e+002 7.80609322e+000 0. 0. 2.21173210e+001
      2.15969330e+002 255. 2.45892853e+002 1.17091812e+002 0. 0. 0. 0.
      1.17092018e+002 2.45892853e+002 255. 2.15969330e+002
      2.21173553e+001 0. 0. 7.80630159e+000 2.27678574e+002 255. 255.
      255. 255. 255. 1.18392830e+002 0. 0. 0. 1.00178551e+002 255. 255.
      2.45892899e+002 0. 0. 0. 0. 0. 0. 0. 0. 2.45892654e+002 255. 255.
      1.00178436e+002 0. 0. 0. 1.18392647e+002 255. 255. 255. 255.
      1.18392830e+002 0. 0. 2.25076538e+002 255. 255. 7.54592285e+001 0.
      0. 0. 1.48316391e+002 2.51096954e+002 2.51096924e+002
      1.48316391e+002 0. 0. 0. 7.54592285e+001 255. 255. 2.25076553e+002
      0. 0. 1.69132271e+001 1.84744949e+002 255. 255. 1.73035721e+002 0.
      0. 0. 255. 255. 1.00178673e+002 0. 0. 4.55357246e+001
      2.15969421e+002 255. 255. 255. 255. 2.15969360e+002
      4.55357246e+001 0. 1.30102167e+001 1.44413147e+002 255. 255.
      1.75637650e+002 0. 0. 4.94387703e+001 2.35484589e+002
      2.27678558e+002 0. 0. 0. 2.45892899e+002 255. 1.54821442e+002 0.
      0. 9.10710812e+000 255. 255. 255. 255. 255. 255. 255.
      1.73035660e+002 5.20419836e+000 0. 0. 1.54821564e+002 255.
      2.51096848e+002 1.09285660e+002 0. 0. 2.27678436e+002
      1.30101974e+002 0. 0. 1.91250000e+002 255. 2.35484711e+002
      8.84693527e+001 0. 0. 255. 255. 255. 255. 255. 255. 255. 255. 255.
      255. 0. 0. 1.54821564e+002 255. 255. 1.91250000e+002 0. 0. 0. 0.
      0. 3.90305977e+001 2.09464264e+002 255. 2.09464340e+002 0. 0.
      5.98468895e+001 255. 255. 255. 255. 255. 255. 255. 255. 255. 255.
      0. 0. 1.10586853e+002 2.41989792e+002 255. 255. 1.36607346e+002 0.
      0. 0. 0. 1.36607162e+002 255. 255. 2.09464325e+002 0. 0.
      2.09464218e+002 255. 255. 255. 255. 255. 255. 255. 255. 255. 255.
      2.99233456e+001 0. 0. 2.09464218e+002 255. 255. 1.36607346e+002 0.
      0. 0. 0. 1.36607162e+002 255. 255. 2.09464340e+002 0. 0.
      2.09464218e+002 255. 255. 255. 255. 255. 255. 255. 255. 255. 255.
      2.09464218e+002 0. 0. 2.09464218e+002 255. 255. 255.
      8.19642181e+001 0. 0. 0. 1.36607162e+002 255. 255. 2.09464325e+002
      0. 0. 2.09464218e+002 255. 255. 255. 255. 255. 255. 255. 255. 255.
      255. 2.09464218e+002 0. 0. 2.99233456e+001 255. 255. 255.
      8.19642181e+001 0. 0. 0. 1.36607162e+002 255. 255. 2.09464340e+002
      0. 0. 2.09464218e+002 255. 255. 255. 255. 255. 255. 255. 255. 255.
      255. 2.41989746e+002 1.10586708e+002 0. 0. 255. 255. 255.
      8.19642181e+001 0. 0. 0. 1.36607162e+002 255. 255. 2.09464340e+002
      0. 0. 2.09464218e+002 255. 255. 255. 255. 255. 255. 255. 255. 255.
      255. 255. 1.54821564e+002 0. 0. 255. 255. 255. 8.19642181e+001 0.
      0. 8.19642792e+001 255. 255. 255. 2.09464340e+002 0. 0.
      2.09464218e+002 255. 255. 255. 255. 255. 255. 255. 255. 255. 255.
      255. 1.54821564e+002 0. 0. 255. 255. 255. 8.19642181e+001 0. 0.
      5.85458450e+001 2.21173386e+002 255. 255. 2.09464340e+002 0. 0.
      2.09464218e+002 255. 255. 255. 255. 255. 255. 255. 255. 255. 255.
      255. 1.54821564e+002 0. 0. 255. 255. 255. 8.19642181e+001 0. 0. 0.
      1.36607162e+002 255. 255. 2.09464325e+002 0. 0. 2.09464218e+002
      255. 255. 255. 255. 255. 255. 255. 255. 255. 255. 255.
      1.54821564e+002 0. 0. 255. 255. 255. 8.19642181e+001 0. 0. 0.
      1.36607162e+002 255. 255. 2.09464340e+002 0. 0. 2.09464218e+002
      255. 255. 255. 255. 255. 255. 255. 255. 255. 255. 255.
      1.54821564e+002 0. 0. 255. 255. 255. 8.19642181e+001 0. 0. 0.
      1.95152340e+001 2.00357117e+002 255. 2.09464325e+002 0. 0. 0. 255.
      255. 255. 255. 255. 255. 255. 255. 255. 255. 2.09464218e+002 0. 0.
      0. 255. 255. 255. 8.19642181e+001 0. 1.62627808e+002 0. 0.
      1.91250000e+002 255. 255. 1.54821442e+002 0. 0. 255. 255. 255.
      255. 255. 255. 255. 255. 255. 255. 2.09464218e+002 0. 0.
      2.09464218e+002 255. 255. 1.70433685e+002 2.34182587e+001 0.
      2.27678574e+002 0. 0. 1.91250000e+002 255. 255. 1.54821442e+002 0.
      0. 1.14489372e+002 255. 255. 255. 255. 255. 255. 255. 255. 255.
      2.09464218e+002 0. 0. 2.09464218e+002 255. 255. 1.36607346e+002 0.
      0. 2.27678574e+002 0. 0. 0. 2.45892914e+002 255. 1.97754944e+002
      4.29335518e+001 0. 5.20407677e+000 1.73036026e+002 255. 255. 255.
      255. 255. 255. 255. 255. 0. 0. 0. 2.09464218e+002 255.
      2.27678680e+002 7.80615616e+001 0. 0. 255. 1.73035721e+002 0. 0.
      0. 255. 255. 1.44413177e+002 1.30101738e+001 0. 4.55357819e+001
      2.15969543e+002 255. 255. 255. 255. 255. 255. 9.10735130e+000 0.
      0. 1.54821564e+002 255. 255. 1.91250000e+002 0. 0. 6.50507355e+001
      255. 255. 1.18392822e+002 0. 0. 4.55356636e+001 255. 255.
      7.54591293e+001 0. 0. 0. 1.73035782e+002 255. 255. 255. 255.
      6.37500000e+001 0. 0. 1.00178436e+002 255. 255. 2.10765259e+002 0.
      0. 0. 2.27678436e+002 255. 255. 255. 6.37500000e+001 0. 0.
      1.00178551e+002 255. 255. 2.45892899e+002 0. 0. 0. 0. 255.
      1.73035782e+002 0. 0. 0. 4.55357819e+001 255. 255. 255. 0. 0. 0.
      1.73035782e+002 255. 255. 255. 255. 2.27678665e+002
      7.80609751e+000 0. 0. 2.21172466e+001 2.15969315e+002
      2.53698990e+002 1.63928680e+002 0. 0. 0. 0. 0. 0. 0. 0.
      2.25076645e+002 255. 1.22295715e+002 6.50508690e+000 0. 0.
      1.18392647e+002 255. 255. 255. 255. 255. 255. 255. 1.49617615e+002
      0. 0. 0. 7.28568649e+001 1.18392647e+002 255. 2.05561386e+002
      1.82143127e+002 1.82143127e+002 1.82143127e+002 1.82143127e+002
      2.36785767e+002 255. 5.98466911e+001 0. 0. 0. 6.50526094e+000
      2.00357346e+002 255. 255. 255. 255. 255. 255. 255. 255. 255.
      2.12066498e+002 5.72451210e+001 0. 0. 0. 0. 0. 0. 0. 0. 0. 0. 0.
      0. 0. 8.84697189e+001 1.45714706e+002 255. 255. 255. 255. 255.</_>
    <_>
      255. 2.55000015e+002 2.55000015e+002 2.55000015e+002
      2.55000015e+002 2.55000015e+002 2.38168076e+002 9.92840958e+001 0.
      0. 0. 0. 0. 0. 0. 0. 0. 0. 0. 0. 0. 0. 1.50267868e+002
      1.70840225e+002 2.55000015e+002 2.55000015e+002 2.55000015e+002
      2.55000015e+002 2.54999985e+002 255. 255. 255. 2.07431442e+002
      1.95803558e+002 0. 0. 0. 4.12260818e+001 5.91964455e+001 255. 255.
      255. 255. 255. 255. 2.30524551e+002 5.91964455e+001
      5.91964455e+001 2.00844593e+001 0. 0. 0. 7.34263306e+001
      2.28573029e+002 255. 255. 2.54999985e+002 255. 2.48901489e+002
      9.05022507e+001 0. 0. 0. 4.63486910e+000 1.38640060e+002 255. 255.
      2.28410385e+002 0. 0. 0. 0. 0. 2.43046921e+002 255. 255. 255. 255.
      1.34167290e+001 0. 0. 1.33598633e+002 2.51340897e+002 255.
      2.54999985e+002 255. 1.41160721e+002 0. 0. 0. 2.23125000e+002
      2.33939743e+002 255. 255. 5.97656250e+001 0. 0. 0. 0. 0. 0.
      3.98437500e+000 9.96094360e+001 255. 255. 255. 2.50446564e+002 0.
      0. 0. 1.86696564e+002 255. 2.39143799e+002 5.66756592e+001 0. 0.
      0. 2.50446442e+002 255. 255. 255. 7.74107819e+001 0. 0.
      4.12260246e+001 2.09382996e+002 255. 1.95559723e+002
      9.51376247e+000 0. 0. 1.22946564e+002 255. 255. 255.
      2.04910782e+002 0. 0. 0. 2.32232346e+002 2.32232132e+002 0. 0.
      8.25335464e+001 2.30849808e+002 255. 255. 255. 1.22946327e+002 0.
      0. 1.36607838e+001 255. 255. 255. 255. 255. 0. 0. 0.
      1.68482346e+002 255. 255. 255. 1.59375000e+002 0. 0. 0.
      1.53439056e+002 0. 0. 1.59375000e+002 255. 255. 255.
      1.68482101e+002 0. 0. 0. 255. 255. 255. 255. 255. 255.
      2.23125000e+002 0. 0. 0. 2.14017654e+002 255. 255. 255.
      1.13839218e+002 0. 0. 0. 0. 1.82955837e+001 1.74743286e+002 255.
      255. 2.14017899e+002 0. 0. 0. 2.23125000e+002 255. 255. 255. 255.
      255. 255. 255. 1.77589203e+002 0. 0. 2.14017654e+002 255. 255.
      255. 255. 6.83034363e+001 0. 0. 0. 1.13839279e+002 255. 255. 255.
      2.14017899e+002 0. 0. 1.74417908e+002 2.54430786e+002 255. 255.
      255. 255. 255. 255. 255. 1.77589218e+002 0. 0. 2.14017654e+002
      255. 255. 255. 255. 6.83034363e+001 0. 0. 5.48868256e+001
      2.27272034e+002 255. 255. 255. 2.14017899e+002 0. 0.
      1.77589218e+002 255. 255. 255. 255. 255. 255. 255. 255.
      1.77589218e+002 0. 0. 0. 255. 255. 255. 255. 6.83034363e+001 0. 0.
      6.83035812e+001 255. 255. 255. 255. 2.14017899e+002 0. 0.
      1.77589218e+002 255. 255. 255. 255. 255. 255. 255. 255. 255.
      1.32053436e+002 0. 0. 255. 255. 255. 255. 6.83034363e+001 0. 0.
      6.83035812e+001 255. 255. 255. 255. 2.14017899e+002 0. 0.
      1.77589218e+002 255. 255. 255. 255. 255. 255. 255. 255. 255.
      1.32053436e+002 0. 0. 255. 255. 255. 255. 6.83034363e+001 0. 0.
      6.83035812e+001 255. 255. 255. 255. 2.14017899e+002 0. 0.
      1.77589203e+002 255. 255. 255. 255. 255. 255. 255. 255. 255.
      1.32053436e+002 0. 0. 255. 255. 255. 255. 6.83034363e+001 0. 0.
      6.83035812e+001 255. 255. 255. 255. 2.14017899e+002 0. 0.
      1.77589218e+002 255. 255. 255. 255. 255. 255. 255. 255. 255.
      1.32053436e+002 0. 0. 255. 255. 255. 255. 6.83034363e+001 0. 0.
      6.83035812e+001 255. 255. 255. 255. 2.14017899e+002 0. 0.
      1.77589218e+002 255. 255. 255. 255. 255. 255. 255. 255. 255.
      1.32053436e+002 0. 0. 255. 255. 255. 255. 6.83034363e+001 0. 0.
      6.83035812e+001 255. 255. 255. 255. 2.14017899e+002 0. 0.
      1.77589203e+002 255. 255. 255. 255. 255. 255. 255. 255. 255.
      1.32053436e+002 0. 0. 255. 255. 255. 255. 6.83034363e+001 0. 0.
      6.83035812e+001 255. 255. 255. 255. 2.14017899e+002 0. 0.
      1.77589218e+002 255. 255. 255. 255. 255. 255. 255. 255. 255.
      1.32053436e+002 0. 0. 255. 255. 255. 255. 6.83034363e+001 0. 0. 0.
      1.13839279e+002 255. 255. 255. 2.14017899e+002 0. 0.
      1.77589218e+002 255. 255. 255. 255. 255. 255. 255. 255. 255.
      1.32053436e+002 0. 0. 255. 255. 255. 255. 6.83034363e+001 0. 0. 0.
      1.13839279e+002 255. 255. 255. 2.14017899e+002 0. 0.
      1.77589233e+002 255. 255. 255. 255. 255. 255. 255. 255. 255.
      1.32053436e+002 0. 0. 255. 255. 255. 255. 6.83034363e+001 0. 0. 0.
      1.13839279e+002 255. 255. 255. 2.14017899e+002 0. 0. 0.
      2.23125000e+002 255. 255. 255. 255. 255. 255. 255. 1.77589218e+002
      0. 0. 0. 255. 255. 255. 2.52479340e+002 6.70837708e+001 0. 0. 0.
      1.82954750e+001 1.74743195e+002 255. 255. 2.48413635e+002
      1.41404800e+002 0. 0. 2.23125000e+002 255. 255. 255. 255. 255.
      255. 2.28247742e+002 2.85409317e+001 0. 0. 1.79622192e+002 255.
      255. 255. 1.13839218e+002 0. 0. 1.53438828e+002 0. 0.
      5.40738335e+001 2.21905304e+002 255. 255. 1.68482101e+002 0. 0. 0.
      255. 255. 255. 255. 255. 255. 2.23125000e+002 0. 0.
      1.11318512e+002 2.41095245e+002 255. 255. 255. 1.13839218e+002 0.
      0. 2.43209503e+002 9.00144424e+001 0. 0. 1.06114334e+002
      2.52804535e+002 255. 255. 1.22946327e+002 0. 0. 7.07432699e+000
      1.60594559e+002 255. 255. 255. 1.38639893e+002 0. 0. 0.
      1.68482346e+002 255. 255. 255. 2.08895050e+002 5.89523888e+001 0.
      0. 2.54999985e+002 2.07431320e+002 4.28521309e+001 0. 0.
      1.74418472e+002 255. 255. 255. 1.31321503e+002 9.67628670e+000 0.
      0. 7.29386063e+001 1.77589706e+002 4.12262764e+001 0. 0.
      2.34995747e+001 1.63033997e+002 255. 255. 2.53617722e+002
      1.42706055e+002 0. 0. 0. 7.04987259e+001 2.54999985e+002 255.
      1.55390625e+002 1.19531250e+001 0. 0. 3.58593445e+001
      2.33939743e+002 255. 255. 255. 3.01674023e+001 0. 0. 0. 0. 0.
      5.97656250e+001 255. 255. 255. 255. 2.19140747e+002 0. 0.
      1.76450977e+001 1.95234497e+002 255. 2.54999985e+002 255. 255.
      2.46462311e+002 4.74060593e+001 0. 0. 4.63474560e+000
      1.38639893e+002 255. 255. 2.54268204e+002 2.41339706e+002
      2.41339706e+002 2.41339706e+002 2.41339706e+002 2.41339706e+002
      255. 255. 255. 9.55432129e+001 1.36602974e+001 0. 0. 0.
      1.41160782e+002 255. 255. 2.54999985e+002 255. 255. 255. 255.
      1.96860519e+002 0. 0. 0. 0. 5.17969971e+001 5.91965675e+001
      1.04650856e+002 255. 255. 255. 6.96860886e+001 5.91965675e+001
      5.91965675e+001 3.06553345e+001 0. 0. 0. 3.84613380e+001
      2.18002151e+002 255. 255. 255. 2.54999985e+002 255. 255. 255. 255.
      255. 2.38168106e+002 1.50268127e+002 7.24506454e+001 0. 0. 0. 0.
      0. 0. 0. 0. 0. 0. 0. 0. 1.26117783e+002 255. 255. 255. 255. 255.
      255.</_>
    <_>
      255. 255. 255. 255. 255. 1.56610321e+002 1.29939438e+002 0. 0. 0.
      0. 0. 0. 0. 0. 0. 0. 0. 0. 0. 1.02292854e+002 2.38899780e+002 255.
      255. 255. 255. 255. 255. 2.54999985e+002 255. 255. 2.26540176e+002
      4.11448097e+001 0. 0. 0. 2.35810184e+001 1.91412567e+002 255. 255.
      255. 255. 255. 255. 5.67570801e+001 4.55357246e+001
      3.17123661e+001 0. 0. 0. 2.09464279e+002 2.18408783e+002 255. 255.
      255. 255. 2.54999985e+002 255. 1.45226410e+002 3.41518831e+000 0.
      0. 3.95184593e+001 2.45892838e+002 2.50609055e+002 255. 255.
      9.10716915e+000 9.10716915e+000 9.10716915e+000 9.10716915e+000
      1.97917603e+002 255. 255. 2.52235321e+002 1.27337227e+002 0. 0. 0.
      1.78890574e+000 1.01316978e+002 255. 255. 255. 2.54999985e+002
      1.86696411e+002 0. 0. 0. 1.87834839e+002 255. 255. 255.
      1.21808090e+002 7.96875000e+000 0. 0. 0. 0. 0. 6.03348045e+001
      255. 255. 255. 2.12879410e+002 1.91250000e+002 0. 0.
      2.39062500e+001 1.69620590e+002 255. 255. 2.32232132e+002 0. 0. 0.
      2.04910660e+002 255. 255. 255. 1.22946335e+002 0. 0.
      7.31827497e+000 1.64091110e+002 2.06374359e+002 5.61066017e+001 0.
      0. 1.47991114e+001 1.59862946e+002 255. 255. 255. 1.34167770e+002
      0. 0. 6.55389557e+001 2.18408875e+002 255. 1.57586151e+002 0. 0.
      1.59375000e+002 255. 255. 255. 1.68482101e+002 0. 0. 0. 255. 255.
      255. 255. 1.22133331e+002 4.39096260e+000 0. 5.25287666e+001
      2.12554291e+002 255. 255. 2.51910172e+002 6.58641205e+001 0. 0.
      1.26687004e+002 2.47681824e+002 0. 0. 1.21970186e+001
      1.69620499e+002 255. 255. 2.14017899e+002 0. 0. 0. 2.23125000e+002
      255. 255. 255. 255. 255. 3.95184555e+001 0. 0. 1.22946564e+002
      255. 255. 255. 2.10277466e+002 1.70758286e+001 0. 0.
      2.32232346e+002 0. 0. 1.13839279e+002 255. 255. 255.
      2.14017899e+002 0. 0. 1.58561874e+002 2.51584839e+002 255. 255.
      255. 255. 255. 255. 0. 0. 1.31727962e+001 1.77752060e+002 255.
      255. 255. 1.59375000e+002 0. 0. 2.32232346e+002 0. 0.
      1.13839279e+002 255. 255. 255. 2.14017899e+002 0. 0.
      1.77589218e+002 255. 255. 255. 255. 255. 255. 255. 1.51406311e+002
      0. 0. 1.68482346e+002 255. 255. 255. 1.59375000e+002 0. 0.
      7.46460495e+001 0. 6.83035812e+001 255. 255. 255. 255.
      2.14017899e+002 0. 0. 1.77589218e+002 255. 255. 255. 255. 255.
      255. 255. 2.23125000e+002 0. 0. 1.68482346e+002 255. 255. 255.
      2.03772247e+002 5.28538284e+001 0. 0. 0. 6.83035812e+001 255. 255.
      255. 255. 1.60513428e+002 0. 0. 1.77589218e+002 255. 255. 255.
      255. 255. 255. 255. 2.23125000e+002 0. 0. 0. 2.14017654e+002 255.
      255. 255. 1.49129410e+002 1.70758591e+001 0. 0. 6.83035812e+001
      255. 255. 255. 255. 0. 0. 4.71631098e+000 1.80353943e+002 255.
      255. 255. 255. 255. 255. 255. 255. 1.77589218e+002 0. 0.
      2.14017654e+002 255. 255. 255. 255. 6.83034363e+001 0. 0.
      6.83035812e+001 255. 255. 255. 255. 0. 0. 1.32053680e+002 255.
      255. 255. 255. 255. 255. 255. 255. 255. 1.77589218e+002 0. 0.
      2.14017654e+002 255. 255. 255. 255. 6.83034363e+001 0. 0.
      6.83035812e+001 255. 255. 255. 255. 0. 0. 1.32053680e+002 255.
      255. 255. 255. 255. 255. 255. 255. 255. 1.77589218e+002 0. 0.
      2.14017654e+002 255. 255. 255. 255. 6.83034363e+001 0. 0.
      6.83035812e+001 255. 255. 255. 255. 0. 0. 8.01755219e+001
      2.24588654e+002 255. 255. 255. 255. 255. 255. 255. 255.
      1.77589218e+002 0. 0. 2.14017654e+002 255. 255. 255. 255.
      6.83034363e+001 0. 0. 6.83035812e+001 255. 255. 255. 255.
      3.82175407e+001 0. 0. 1.77589218e+002 255. 255. 255. 255. 255.
      255. 255. 255. 1.77589218e+002 0. 0. 2.14017654e+002 255. 255.
      255. 255. 6.83034363e+001 0. 0. 6.83035812e+001 255. 255. 255.
      255. 2.14017899e+002 0. 0. 1.77589218e+002 255. 255. 255. 255.
      255. 255. 255. 255. 1.77589218e+002 0. 0. 2.14017654e+002 255.
      255. 255. 255. 6.83034363e+001 0. 0. 1.70758953e+001
      1.49129456e+002 255. 255. 255. 2.14017899e+002 0. 0.
      1.77589218e+002 255. 255. 255. 255. 255. 255. 255. 255.
      1.77589218e+002 0. 0. 2.14017654e+002 255. 255. 255.
      1.49129410e+002 1.70758591e+001 0. 0. 0. 1.13839279e+002 255. 255.
      255. 2.14017899e+002 0. 0. 8.24523315e+001 2.37924133e+002 255.
      255. 255. 255. 255. 255. 255. 1.77589218e+002 0. 0.
      2.14017654e+002 255. 255. 255. 1.13839218e+002 0. 0. 0. 0.
      7.72478943e+001 2.24263229e+002 255. 255. 2.27190781e+002
      5.41552353e+001 0. 0. 2.23125000e+002 255. 255. 255. 255. 255.
      255. 255. 1.77589218e+002 0. 0. 2.14017670e+002 255. 255. 255.
      1.13839218e+002 0. 0. 2.48821411e+001 0. 0. 1.42299026e+002
      2.49633255e+002 255. 255. 1.68482101e+002 0. 0. 1.99218628e+002
      255. 255. 255. 255. 255. 255. 2.23125000e+002 0. 0. 0.
      2.14017670e+002 255. 255. 255. 1.13839218e+002 0. 0.
      2.32232132e+002 0. 0. 0. 2.04910660e+002 255. 255. 1.68482101e+002
      0. 0. 0. 255. 255. 255. 255. 255. 255. 2.39063721e+001 0. 0.
      1.50430573e+002 2.50609009e+002 255. 255. 1.69620590e+002
      1.21971207e+001 0. 0. 255. 1.86696411e+002 0. 0. 2.04910675e+002
      255. 255. 255. 1.22946327e+002 0. 0. 1.36607838e+001 255. 255.
      255. 255. 255. 0. 0. 8.34278259e+001 2.27190613e+002 255. 255.
      255. 1.59375000e+002 0. 0. 1.57585861e+002 2.54999985e+002
      1.86696411e+002 0. 0. 0. 1.34167465e+002 255. 255. 255.
      7.74107819e+001 0. 0. 3.17122517e+001 1.85232605e+002
      1.85232727e+002 1.36606873e+002 7.31826210e+000 0. 0.
      1.22946564e+002 255. 255. 255. 2.04910782e+002 0. 0. 0.
      2.32232346e+002 2.54999985e+002 255. 1.69620544e+002
      2.39062500e+001 0. 0. 2.01495529e+002 255. 255. 255.
      8.76562500e+001 0. 0. 0. 0. 0. 0. 7.96875000e+000 1.21808090e+002
      255. 255. 255. 1.87834930e+002 0. 0. 0. 1.86696564e+002 255.
      2.54999985e+002 255. 255. 1.01316788e+002 1.78885031e+000 0. 0.
      8.34280624e+001 2.45893127e+002 2.52235413e+002 255.
      2.41827087e+002 9.10686493e+000 9.10686493e+000 9.10686493e+000
      9.10686493e+000 2.41827087e+002 255. 255. 2.50609177e+002
      2.45893127e+002 3.95187416e+001 0. 0. 3.41507435e+000
      1.45226349e+002 255. 255. 2.54999985e+002 255. 255. 255.
      2.18409149e+002 3.74042678e+000 0. 0. 0. 3.17120705e+001
      4.55352974e+001 255. 255. 255. 255. 255. 255. 255. 1.91412445e+002
      2.35807552e+001 0. 0. 0. 4.11447983e+001 2.26540436e+002 255. 255.
      255. 255. 255. 255. 255. 255. 255. 1.54821564e+002 1.02292793e+002
      0. 0. 0. 0. 0. 0. 0. 0. 0. 0. 0. 0. 0. 1.29939407e+002
      1.56610413e+002 255. 255. 255. 255. 255.</_>
    <_>
      2.54999969e+002 255. 255. 255. 255. 255. 2.37436234e+002
      9.62754822e+001 0. 0. 0. 0. 0. 0. 0. 0. 0. 0. 0. 7.02551727e+001
      1.45714279e+002 1.45714279e+002 255. 255. 255. 255. 255. 255.
      2.54999985e+002 255. 255. 255. 1.96454086e+002 3.25253820e+000 0.
      0. 0. 5.07397957e+001 7.28571701e+001 8.26148682e+001 255. 255.
      1.47665985e+002 7.28571701e+001 7.28571701e+001 6.37500229e+001 0.
      0. 0. 0. 3.25245118e+000 1.96454041e+002 255. 255. 255. 255.
      2.54999969e+002 255. 255. 9.56250000e+001 0. 0. 5.85458422e+000
      3.64285545e+001 1.49617432e+002 255. 255. 2.18571442e+002
      2.18571442e+002 2.18571442e+002 2.18571442e+002 2.18571442e+002
      2.53048462e+002 255. 255. 255. 1.10586548e+002 5.85461903e+000 0.
      4.29336205e+001 2.32232147e+002 255. 255. 255. 2.54999985e+002
      255. 1.41160721e+002 0. 0. 0. 255. 255. 255. 255. 3.18750000e+001
      0. 0. 0. 0. 0. 0. 255. 255. 255. 255. 4.09823532e+001 0. 0.
      9.56250000e+001 255. 255. 255. 2.54999969e+002 1.86696411e+002 0.
      0. 0. 2.14668396e+002 255. 255. 1.41811127e+002 1.10586777e+001 0.
      0. 5.07397079e+001 2.18571442e+002 8.97705994e+001 0. 0.
      4.55356932e+000 1.02780655e+002 255. 255. 255. 0. 0. 0.
      1.41160782e+002 255. 255. 2.32232132e+002 0. 0. 0. 2.04910675e+002
      255. 255. 1.93201492e+002 3.51275063e+001 0. 0. 1.86045975e+002
      255. 255. 255. 1.99056198e+002 9.75770473e+000 0. 2.21173553e+001
      1.60676102e+002 255. 255. 2.50446564e+002 0. 0. 0. 1.86696564e+002
      255. 0. 0. 0. 1.59375000e+002 255. 255. 2.31581665e+002
      7.22066574e+001 0. 0. 1.27499939e+002 255. 255. 255. 255. 255.
      1.51568848e+002 0. 0. 5.26914177e+001 2.05561371e+002 255. 255.
      2.04910782e+002 0. 0. 0. 2.32232346e+002 0. 0. 1.13839279e+002
      255. 255. 255. 2.14017899e+002 0. 0. 7.61097107e+001
      2.36785721e+002 255. 255. 255. 255. 255. 255. 9.56250610e+001 0.
      0. 1.68482346e+002 255. 255. 255. 1.59375000e+002 0. 0. 0. 0. 0.
      1.13839279e+002 255. 255. 255. 2.14017883e+002 0. 0.
      1.77589218e+002 255. 255. 255. 255. 255. 255. 255. 2.23125000e+002
      0. 0. 1.68482346e+002 255. 255. 255. 255. 1.13839218e+002 0. 0. 0.
      9.75761700e+000 1.34005020e+002 255. 255. 255. 1.83444031e+002 0.
      0. 1.77589218e+002 255. 255. 255. 255. 255. 255. 255.
      2.23125000e+002 0. 0. 1.44413528e+002 2.49145401e+002 255. 255.
      255. 1.34004974e+002 9.75759697e+000 0. 0. 6.83035812e+001 255.
      255. 255. 255. 0. 0. 0. 1.77589218e+002 255. 255. 255. 255. 255.
      255. 255. 2.23125000e+002 0. 0. 0. 2.14017654e+002 255. 255. 255.
      255. 6.83034363e+001 0. 0. 6.83035812e+001 255. 255. 255. 255. 0.
      0. 1.32053680e+002 255. 255. 255. 255. 255. 255. 255. 255. 255.
      1.77589218e+002 0. 0. 2.14017654e+002 255. 255. 255. 255.
      6.83034363e+001 0. 0. 6.83035812e+001 255. 255. 255. 255. 0. 0.
      1.32053680e+002 255. 255. 255. 255. 255. 255. 255. 255. 255.
      1.77589218e+002 0. 0. 2.14017654e+002 255. 255. 255. 255.
      6.83034363e+001 0. 0. 6.83035812e+001 255. 255. 255. 255. 0. 0.
      1.32053680e+002 255. 255. 255. 255. 255. 255. 255. 255. 255.
      1.77589218e+002 0. 0. 9.17219086e+001 255. 255. 255. 255.
      6.83034363e+001 0. 0. 6.83035812e+001 255. 255. 255. 255. 0. 0.
      1.32053680e+002 255. 255. 255. 255. 255. 255. 255. 255. 255.
      2.10765289e+002 5.65943642e+001 0. 0. 255. 255. 255. 255.
      6.83034363e+001 0. 0. 6.83035812e+001 255. 255. 255. 255. 0. 0.
      1.32053680e+002 255. 255. 255. 255. 255. 255. 255. 255. 255. 255.
      1.32053436e+002 0. 0. 255. 255. 255. 255. 6.83034363e+001 0. 0.
      6.83035812e+001 255. 255. 255. 255. 0. 0. 0. 1.77589218e+002 255.
      255. 255. 255. 255. 255. 255. 255. 255. 1.32053436e+002 0. 0. 255.
      255. 255. 255. 6.83034363e+001 0. 0. 0. 1.13839279e+002 255. 255.
      255. 2.14017899e+002 0. 0. 1.77589218e+002 255. 255. 255. 255.
      255. 255. 255. 255. 1.77589218e+002 0. 0. 0. 255. 255. 255. 255.
      6.83034363e+001 0. 0. 0. 1.13839279e+002 255. 255. 255.
      2.14017899e+002 0. 0. 2.53697910e+001 2.27678558e+002 255. 255.
      255. 255. 255. 255. 255. 1.77589218e+002 0. 0. 1.83443817e+002
      255. 255. 255. 255. 6.83034363e+001 0. 0. 0. 3.25253830e+001
      1.86696320e+002 255. 255. 2.43290863e+002 1.20344543e+002 0. 0.
      2.23125000e+002 255. 255. 255. 255. 255. 255. 255. 1.77589218e+002
      0. 0. 2.14017639e+002 255. 255. 255. 1.54170715e+002
      1.95151939e+001 0. 1.32704453e+002 0. 0. 1.59375000e+002 255. 255.
      255. 1.68482101e+002 0. 0. 0. 255. 255. 255. 255. 255. 255.
      2.23125000e+002 0. 0. 0. 2.14017654e+002 255. 255. 255.
      1.13839218e+002 0. 0. 2.32232132e+002 0. 0. 0. 2.04910660e+002
      255. 255. 255. 1.22946320e+002 0. 0. 1.36607838e+001 255. 255.
      255. 255. 255. 1.27500366e+002 0. 0. 1.68482346e+002 255. 255.
      255. 2.14018021e+002 6.50511703e+001 0. 0. 2.54999985e+002
      1.86696411e+002 0. 0. 1.46364975e+002 2.53698975e+002 255. 255.
      255. 7.74107819e+001 0. 0. 5.91963234e+001 255. 255. 255.
      1.86046188e+002 0. 0. 3.51274567e+001 1.93201584e+002 255. 255.
      2.40688843e+002 1.13839462e+002 0. 0. 6.63518448e+001
      2.54999969e+002 1.96454041e+002 2.01657410e+001 0. 0.
      2.14668518e+002 255. 255. 255. 255. 3.18750000e+001 0. 0. 0.
      1.28800934e+002 5.07399483e+001 0. 0. 1.10586405e+001
      1.41811264e+002 255. 255. 2.50446564e+002 0. 0. 0. 2.66708355e+001
      2.35484863e+002 2.54999985e+002 255. 1.41160721e+002 0. 0. 0. 255.
      255. 255. 255. 255. 0. 0. 0. 0. 0. 0. 3.18750000e+001 255. 255.
      255. 255. 0. 0. 0. 1.41160782e+002 255. 255. 2.54999969e+002 255.
      255. 9.56250000e+001 0. 0. 5.85456467e+000 3.64284325e+001
      1.49617371e+002 255. 255. 255. 2.46543411e+002 1.28801132e+002 0.
      0. 2.06862320e+002 255. 255. 255. 1.10586456e+002 5.85459948e+000
      0. 0. 8.19643402e+001 2.38737305e+002 255. 255. 2.54999985e+002
      255. 255. 255. 1.96454315e+002 3.25254369e+000 0. 0. 0.
      5.07395821e+001 7.28568649e+001 255. 255. 255. 255. 255. 255.
      7.28568649e+001 5.07395821e+001 0. 0. 0. 3.25245667e+000
      1.96454285e+002 255. 255. 255. 255. 2.54999985e+002 255. 255. 255.
      255. 255. 2.37436310e+002 9.62757645e+001 0. 0. 0. 0. 0. 0. 0. 0.
      0. 0. 0. 0. 9.62759018e+001 1.45714706e+002 255. 255. 255. 255.
      255. 255.</_>
    <_>
      255. 2.55000015e+002 2.55000015e+002 2.55000015e+002
      2.55000015e+002 2.55000015e+002 2.55000015e+002 2.19465881e+002
      7.24505157e+001 0. 0. 0. 0. 0. 0. 0. 0. 0. 0. 0. 9.92842407e+001
      2.38167969e+002 2.55000015e+002 2.55000015e+002 2.55000015e+002
      2.55000015e+002 2.55000015e+002 2.55000015e+002 2.54999985e+002
      255. 255. 255. 255. 1.96860626e+002 0. 0. 0. 0. 5.17968903e+001
      255. 255. 255. 255. 1.04650948e+002 5.91964455e+001
      5.91964455e+001 4.12260818e+001 0. 0. 0. 1.96860611e+002 255. 255.
      255. 255. 255. 2.54999985e+002 255. 255. 2.46462082e+002
      4.74059906e+001 0. 0. 4.63486910e+000 1.36606617e+001
      1.81736206e+002 255. 2.41339340e+002 2.41339340e+002
      2.41339340e+002 2.41339340e+002 2.51828766e+002 255. 255. 255.
      1.38639832e+002 4.63485622e+000 0. 0. 4.74058762e+001
      2.46462082e+002 255. 255. 255. 2.54999985e+002 255.
      1.55390625e+002 1.19531250e+001 0. 0. 3.58593445e+001
      2.33939743e+002 255. 9.96094360e+001 3.18750000e+001 0. 0. 0. 0.
      2.44754295e+001 2.43046814e+002 255. 255. 255. 2.33939713e+002
      3.58595581e+001 0. 0. 9.56250000e+001 255. 255. 255.
      2.39143799e+002 5.66756592e+001 0. 0. 0. 1.74418106e+002 255. 255.
      1.22946327e+002 0. 0. 0. 4.12260246e+001 1.04650887e+002 0. 0. 0.
      9.67633247e+000 1.31321747e+002 255. 255. 255. 0. 0. 0.
      4.28523521e+001 2.07431519e+002 255. 0. 0. 0. 8.25335464e+001
      2.30849808e+002 255. 255. 1.68482101e+002 0. 0. 0. 255. 255. 255.
      1.82549591e+002 1.32053680e+002 7.07433987e+000 0. 7.74107819e+001
      255. 255. 255. 2.52804596e+002 1.06114594e+002 0. 0.
      9.00143356e+001 2.43209595e+002 0. 0. 1.13839279e+002 255. 255.
      255. 2.14017883e+002 0. 0. 0. 2.23125000e+002 255. 255. 255. 255.
      255. 1.36607838e+001 0. 0. 8.12325363e+001 2.25645782e+002 255.
      255. 2.21905334e+002 5.40736809e+001 0. 0. 0. 0. 0.
      1.13839279e+002 255. 255. 255. 2.14017899e+002 0. 0.
      1.77589203e+002 255. 255. 255. 255. 255. 255. 255. 3.58593445e+001
      0. 0. 1.68482346e+002 255. 255. 255. 255. 1.13839218e+002 0. 0. 0.
      0. 1.13839279e+002 255. 255. 255. 2.14017899e+002 0. 0.
      1.77589218e+002 255. 255. 255. 255. 255. 255. 255. 2.23125000e+002
      0. 0. 1.68482346e+002 255. 255. 255. 255. 1.13839218e+002 0. 0. 0.
      0. 1.13839279e+002 255. 255. 255. 2.14017899e+002 0. 0.
      1.77589218e+002 255. 255. 255. 255. 255. 255. 255. 2.23125000e+002
      0. 0. 1.68482346e+002 255. 255. 255. 255. 1.13839218e+002 0. 0. 0.
      4.26897392e+001 2.02064728e+002 255. 255. 255. 8.02567139e+001 0.
      0. 1.77589218e+002 255. 255. 255. 255. 255. 255. 255.
      2.23125000e+002 0. 0. 0. 2.14017654e+002 255. 255. 255.
      2.02064697e+002 4.26896477e+001 0. 0. 6.83035812e+001 255. 255.
      255. 255. 0. 0. 5.89524994e+001 2.12147583e+002 255. 255. 255.
      255. 255. 255. 255. 255. 1.77589218e+002 0. 0. 2.14017654e+002
      255. 255. 255. 255. 6.83034363e+001 0. 0. 6.83035812e+001 255.
      255. 255. 255. 0. 0. 1.32053680e+002 255. 255. 255. 255. 255. 255.
      255. 255. 255. 1.77589203e+002 0. 0. 2.14017670e+002 255. 255.
      255. 255. 6.83034363e+001 0. 0. 6.83035812e+001 255. 255. 255.
      255. 0. 0. 1.32053680e+002 255. 255. 255. 255. 255. 255. 255. 255.
      255. 1.77589218e+002 0. 0. 2.14017639e+002 255. 255. 255. 255.
      6.83034363e+001 0. 0. 6.83035812e+001 255. 255. 255. 255. 0. 0.
      1.32053680e+002 255. 255. 255. 255. 255. 255. 255. 255. 255.
      1.77589218e+002 0. 0. 2.14017639e+002 255. 255. 255. 255.
      6.83034363e+001 0. 0. 6.83035812e+001 255. 255. 255. 255. 0. 0.
      1.32053680e+002 255. 255. 255. 255. 255. 255. 255. 255. 255.
      1.77589203e+002 0. 0. 2.14017670e+002 255. 255. 255. 255.
      6.83034363e+001 0. 0. 6.83035812e+001 255. 255. 255. 255. 0. 0.
      1.32053680e+002 255. 255. 255. 255. 255. 255. 255. 255. 255.
      1.77589218e+002 0. 0. 0. 255. 255. 255. 255. 6.83034363e+001 0. 0.
      6.83035812e+001 255. 255. 255. 255. 0. 0. 0. 1.77589218e+002 255.
      255. 255. 255. 255. 255. 255. 255. 1.77589218e+002 0. 0.
      8.02566223e+001 255. 255. 255. 255. 6.83034363e+001 0. 0.
      6.83035812e+001 255. 255. 255. 255. 2.14017899e+002 0. 0.
      1.77589233e+002 255. 255. 255. 255. 255. 255. 255. 255.
      1.77589233e+002 0. 0. 2.14017654e+002 255. 255. 255. 255.
      6.83034363e+001 0. 0. 6.83035812e+001 255. 255. 255. 255.
      2.14017899e+002 0. 0. 1.74418076e+002 2.54430817e+002 255. 255.
      255. 255. 255. 255. 2.54430817e+002 1.74418076e+002 0. 0.
      2.14017654e+002 255. 255. 255. 1.13839218e+002 0. 0. 0.
      1.09772873e+001 1.36525665e+002 255. 255. 255. 2.14017883e+002 0.
      0. 0. 2.23125000e+002 255. 255. 255. 255. 255. 255.
      2.23125000e+002 0. 0. 0. 2.14017654e+002 255. 255. 255.
      1.13839218e+002 0. 0. 0. 0. 3.86241646e+001 1.91819305e+002 255.
      255. 255. 1.68482101e+002 0. 0. 0. 255. 255. 255. 255. 255. 255.
      7.57033691e+001 0. 0. 1.68482346e+002 255. 255. 255. 255.
      1.13839218e+002 0. 0. 1.11969193e+002 0. 0. 1.59375000e+002 255.
      255. 255. 255. 1.22946327e+002 0. 0. 1.36607838e+001 255. 255.
      255. 255. 1.38639893e+002 0. 0. 5.92778740e+001 2.10196259e+002
      255. 255. 2.30849823e+002 8.25333939e+001 0. 0. 0. 2.32232132e+002
      0. 0. 0. 2.04910660e+002 255. 255. 255. 255. 7.74107819e+001 0. 0.
      4.12261086e+001 2.09383209e+002 2.09383286e+002 1.77589706e+002
      9.51378250e+000 0. 2.34995747e+001 1.63033997e+002 255. 255.
      2.53617722e+002 1.42706055e+002 0. 0. 5.66754379e+001
      2.39143921e+002 2.54999985e+002 1.86696411e+002 0. 0. 0.
      2.19140640e+002 255. 255. 255. 255. 5.97656250e+001 0. 0. 0. 0. 0.
      0. 3.98437500e+000 9.96094360e+001 255. 255. 255. 2.19140747e+002
      0. 0. 1.76450977e+001 1.95234497e+002 255. 2.54999985e+002
      2.51340988e+002 1.33598770e+002 0. 0. 0. 5.24470024e+001 255. 255.
      255. 255. 2.28410721e+002 0. 0. 0. 0. 2.28410721e+002
      2.43047241e+002 255. 255. 255. 5.24472351e+001 0. 0. 0.
      1.41160782e+002 255. 255. 2.54999985e+002 255. 255.
      2.18002151e+002 3.84614258e+001 0. 0. 2.00845585e+001
      5.91965675e+001 5.91965675e+001 2.30524567e+002 255. 255. 255.
      255. 255. 255. 2.30524567e+002 5.91965675e+001 3.06553345e+001 0.
      0. 0. 3.84613380e+001 2.18002151e+002 255. 255. 255.
      2.54999985e+002 255. 255. 255. 255. 1.52138336e+002 0. 0. 0. 0. 0.
      0. 0. 0. 0. 0. 0. 0. 0. 0. 0. 1.26117783e+002 1.52138275e+002 255.
      255. 255. 255. 255.</_>
    <_>
      2.55000031e+002 2.55000015e+002 2.55000015e+002 2.55000015e+002
      2.55000015e+002 1.93282837e+002 4.56169968e+001 0. 0. 0. 0. 0. 0.
      0. 0. 0. 0. 0. 0. 0. 2.95168610e+001 1.82061584e+002
      2.55000015e+002 2.55000015e+002 2.55000015e+002 2.55000015e+002
      2.55000015e+002 2.55000015e+002 255. 255. 255. 2.32801331e+002
      1.01398262e+002 0. 0. 0. 5.39110413e+001 6.26930161e+001 255. 255.
      255. 255. 255. 1.25629639e+002 5.91964455e+001 5.91964455e+001
      5.91964455e+001 0. 0. 0. 8.04194794e+001 2.26458832e+002 255. 255.
      255. 255. 2.55000015e+002 2.52804535e+002 1.76694885e+002 0. 0. 0.
      9.51367855e+000 2.07594009e+002 255. 2.54756058e+002
      2.41339340e+002 1.85314240e+002 0. 0. 0. 1.59456543e+002
      2.51828766e+002 255. 255. 2.33452042e+002 1.09773216e+001 0. 0. 0.
      1.50837082e+002 2.51340897e+002 255. 255. 2.55000015e+002
      2.14017868e+002 0. 0. 0. 1.31484406e+002 2.45323669e+002 255. 255.
      3.13057899e+001 0. 0. 0. 0. 0. 0. 2.44754295e+001 2.27109375e+002
      255. 255. 2.48738846e+002 1.55390564e+002 0. 0. 0. 1.86696564e+002
      255. 255. 2.45486298e+002 6.49696655e+001 0. 0. 1.22946449e+002
      255. 255. 255. 2.27678909e+001 0. 0. 4.12260246e+001
      1.77589340e+002 1.77589340e+002 7.92809067e+001 0. 0.
      6.77343292e+001 2.51828857e+002 255. 255. 255. 1.50267654e+002 0.
      0. 0. 2.14017654e+002 255. 1.16359917e+002 0. 0. 4.95201302e+001
      1.91331390e+002 255. 255. 1.48885468e+002 1.09773664e+001 0.
      3.18750000e+001 255. 255. 255. 1.86940399e+002 4.48038177e+001 0.
      0. 0. 255. 255. 255. 255. 1.22946564e+002 0. 0. 1.03186996e+002
      2.47925659e+002 0. 0. 2.31744289e+001 1.49698685e+002 255. 255.
      255. 5.00893364e+001 0. 1.54499769e+000 1.07578156e+002 255. 255.
      255. 255. 255. 5.91965714e+001 0. 0. 2.27676487e+001 255. 255.
      255. 1.67750427e+002 3.24442101e+001 0. 0. 1.59456238e+002 0. 0.
      6.83035507e+001 255. 255. 255. 2.26458893e+002 4.20392723e+001 0.
      4.55367565e+000 255. 255. 255. 255. 255. 255. 255. 3.18750000e+001
      0. 0. 5.00892181e+001 255. 255. 255. 1.21238815e+002
      1.09773283e+001 0. 0. 0. 0. 6.83035507e+001 255. 255. 255.
      7.74106598e+001 0. 0. 4.55367565e+000 255. 255. 255. 255. 255.
      255. 255. 2.51015533e+002 4.47211933e+000 0. 5.00892181e+001 255.
      255. 255. 255. 6.83034363e+001 0. 0. 0. 4.09821396e+001 255. 255.
      255. 255. 7.74106598e+001 0. 0. 255. 255. 255. 255. 255. 255. 255.
      255. 255. 4.55343246e+000 0. 5.00892181e+001 255. 255. 255. 255.
      6.83034363e+001 0. 0. 0. 4.09821396e+001 255. 255. 255. 255.
      7.74106598e+001 0. 0. 255. 255. 255. 255. 255. 255. 255. 255. 255.
      4.55343246e+000 0. 1.87834568e+001 1.44006744e+002 255. 255. 255.
      1.84988785e+002 2.56139717e+001 0. 0. 4.09821396e+001 255. 255.
      255. 255. 7.74106598e+001 0. 0. 255. 255. 255. 255. 255. 255. 255.
      255. 255. 1.16359871e+002 0. 0. 7.74107819e+001 255. 255. 255.
      255. 4.09823532e+001 0. 0. 4.09821396e+001 255. 255. 255. 255.
      7.74106598e+001 0. 0. 255. 255. 255. 255. 255. 255. 255. 255. 255.
      255. 0. 0. 7.74107819e+001 255. 255. 255. 255. 4.09823532e+001 0.
      0. 4.09821396e+001 255. 255. 255. 255. 7.74106598e+001 0. 0. 255.
      255. 255. 255. 255. 255. 255. 255. 255. 255. 0. 0. 7.74107819e+001
      255. 255. 255. 255. 4.09823532e+001 0. 0. 4.09821396e+001 255.
      255. 255. 255. 7.74106598e+001 0. 0. 255. 255. 255. 255. 255. 255.
      255. 255. 255. 255. 0. 0. 7.74107819e+001 255. 255. 255. 255.
      4.09823532e+001 0. 0. 4.09821396e+001 255. 255. 255. 255.
      7.74106598e+001 0. 0. 255. 255. 255. 255. 255. 255. 255. 255. 255.
      255. 0. 0. 7.74107819e+001 255. 255. 255. 255. 4.09823532e+001 0.
      0. 4.09821396e+001 255. 255. 255. 255. 7.74106598e+001 0. 0. 255.
      255. 255. 255. 255. 255. 255. 255. 255. 255. 0. 0. 7.74107819e+001
      255. 255. 255. 255. 4.09823532e+001 0. 0. 4.09821396e+001 255.
      255. 255. 255. 7.74106598e+001 0. 0. 4.55367565e+000 255. 255.
      255. 255. 255. 255. 255. 255. 255. 0. 0. 7.74107819e+001 255. 255.
      255. 255. 4.09823532e+001 0. 0. 0. 6.83035507e+001 255. 255. 255.
      255. 5.00893364e+001 0. 4.55367565e+000 255. 255. 255. 255. 255.
      255. 255. 255. 2.05804718e+002 0. 0. 7.74107819e+001 255. 255.
      255. 6.83034363e+001 0. 0. 0. 0. 6.83035507e+001 255. 255. 255.
      255. 5.00893364e+001 0. 4.47236252e+000 2.51015747e+002 255. 255.
      255. 255. 255. 255. 255. 4.55343246e+000 0. 8.94423008e-001
      8.05819244e+001 255. 255. 255. 6.83034363e+001 0. 0. 0. 0.
      1.09772816e+001 1.21238663e+002 255. 255. 255. 5.00893364e+001 0.
      0. 3.18750000e+001 255. 255. 255. 255. 255. 255. 255.
      4.55343246e+000 0. 5.00892181e+001 255. 255. 255. 255.
      6.83034363e+001 0. 0. 1.59456055e+002 0. 0. 3.24443016e+001
      1.67750473e+002 255. 255. 255. 2.27678909e+001 0. 0.
      5.91963272e+001 255. 255. 255. 255. 255. 1.07578369e+002
      1.54491949e+000 0. 5.00892181e+001 255. 255. 255. 255.
      6.83034363e+001 0. 0. 2.47925720e+002 1.03187302e+002 0. 0.
      1.22946449e+002 255. 255. 255. 255. 0. 0. 3.06552067e+001
      1.73767471e+002 255. 255. 255. 5.91965675e+001 0. 0.
      1.09772720e+001 1.48885590e+002 255. 255. 1.91331314e+002
      4.95200386e+001 0. 0. 0. 255. 2.14017868e+002 0. 0. 0.
      1.50267899e+002 255. 255. 255. 7.60279388e+001 0. 0. 0.
      7.92810669e+001 7.92810669e+001 0. 0. 0. 0. 255. 255. 255.
      2.23206421e+002 8.56237030e+001 0. 0. 6.49692917e+001
      2.45486221e+002 2.55000015e+002 255. 1.86696442e+002 0. 0. 0.
      1.55390671e+002 2.23125000e+002 2.52154007e+002 255.
      2.27109375e+002 2.44754601e+001 0. 0. 0. 0. 2.44754295e+001
      3.18750000e+001 2.51015747e+002 255. 255. 2.45323654e+002
      1.31484192e+002 0. 0. 2.33370705e+001 2.19140442e+002 255.
      2.55000015e+002 255. 2.51341003e+002 1.50837311e+002 0. 0. 0. 0.
      1.24406261e+001 1.79700336e+001 255. 2.51828873e+002
      2.41339706e+002 2.41339706e+002 2.41339706e+002 2.41339706e+002
      2.51828857e+002 255. 255. 2.33451996e+002 1.36602974e+001
      9.51341820e+000 0. 0. 0. 1.86696564e+002 255. 255. 2.55000031e+002
      255. 255. 255. 2.26458801e+002 1.95803436e+002 5.94402847e+001 0.
      0. 0. 0. 1.37420359e+001 5.91965675e+001 1.46608765e+002 255. 255.
      1.04651047e+002 5.91965675e+001 1.05704927e+000 0. 0. 0. 0.
      1.01398102e+002 2.32801300e+002 255. 255. 255. 2.55000015e+002
      255. 255. 255. 255. 255. 255. 255. 1.59619202e+002 1.47584717e+002
      0. 0. 0. 0. 0. 0. 0. 0. 0. 1.34166746e+001 1.50268127e+002
      1.82061752e+002 255. 255. 255. 255. 255. 255.</_>
    <_>
      2.54999969e+002 255. 255. 255. 255. 255. 1.45714279e+002
      9.62754822e+001 0. 0. 0. 0. 0. 0. 0. 0. 0. 0. 0. 0. 0.
      1.22295792e+002 1.47665756e+002 255. 255. 255. 255. 255.
      2.54999985e+002 255. 255. 255. 1.96454086e+002 3.25253820e+000 0.
      0. 0. 5.07397957e+001 7.28571701e+001 8.26148682e+001 255. 255.
      255. 255. 8.26148682e+001 7.28571701e+001 7.28571701e+001
      3.77295685e+001 0. 0. 0. 3.57780075e+001 2.09464279e+002 255. 255.
      255. 2.54999969e+002 255. 2.38737244e+002 8.19642944e+001 0. 0.
      5.85458422e+000 1.10586746e+002 255. 255. 255. 2.18571442e+002
      2.18571442e+002 2.18571442e+002 2.18571442e+002 2.18571442e+002
      2.18571442e+002 255. 255. 255. 255. 7.15562897e+001 0. 0.
      8.19642944e+001 2.38737259e+002 255. 255. 2.54999985e+002
      1.86696411e+002 0. 0. 0. 0. 255. 255. 255. 255. 3.18750000e+001 0.
      0. 0. 0. 0. 0. 3.18750000e+001 255. 255. 255. 255. 0. 0. 0. 0.
      1.86696564e+002 255. 2.54999969e+002 1.86696411e+002 0. 0.
      1.75637726e+002 2.54349487e+002 255. 255. 255. 7.74107819e+001 0.
      0. 5.07397079e+001 2.18571442e+002 2.18571442e+002 5.07399178e+001
      0. 4.55356932e+000 1.02780655e+002 255. 255. 255. 2.54349503e+002
      1.75637833e+002 0. 0. 2.66709251e+001 2.35484863e+002
      2.32232132e+002 0. 0. 0. 2.04910675e+002 255. 255. 255.
      1.22946335e+002 0. 0. 1.36607838e+001 255. 255. 255.
      1.99056198e+002 9.75770473e+000 0. 0. 1.22946564e+002 255. 255.
      255. 2.40688812e+002 1.13839310e+002 0. 0. 6.63520660e+001 0. 0.
      0. 1.59375000e+002 255. 255. 255. 1.68482101e+002 0. 0. 0. 255.
      255. 255. 255. 255. 255. 0. 0. 5.26914177e+001 2.05561371e+002
      255. 255. 255. 2.14017822e+002 6.50509491e+001 0. 0. 0. 0.
      1.13839279e+002 255. 255. 255. 255. 1.68482101e+002 0. 0.
      2.23125000e+002 255. 255. 255. 255. 255. 255. 9.56250610e+001 0.
      0. 9.62755814e+001 2.37436127e+002 255. 255. 255. 1.74336731e+002
      2.92729206e+001 0. 0. 1.95152988e+001 1.54170898e+002 255. 255.
      255. 2.14017883e+002 0. 0. 0. 2.23125000e+002 255. 255. 255. 255.
      255. 255. 2.32232147e+002 5.07397537e+001 0. 0. 2.14017654e+002
      255. 255. 255. 255. 6.83034363e+001 0. 0. 6.83035812e+001 255.
      255. 255. 255. 2.14017899e+002 0. 0. 1.77589218e+002 255. 255.
      255. 255. 255. 255. 255. 255. 1.77589218e+002 0. 0.
      2.14017654e+002 255. 255. 255. 255. 6.83034363e+001 0. 0.
      6.83035812e+001 255. 255. 255. 255. 2.14017899e+002 0. 0.
      1.77589218e+002 255. 255. 255. 255. 255. 255. 255. 255.
      1.77589218e+002 0. 0. 2.14017654e+002 255. 255. 255. 255.
      6.83034363e+001 0. 0. 6.83035812e+001 255. 255. 255. 255.
      3.05738697e+001 0. 0. 1.77589218e+002 255. 255. 255. 255. 255.
      255. 255. 255. 1.77589218e+002 0. 0. 2.14017654e+002 255. 255.
      255. 255. 6.83034363e+001 0. 0. 6.83035812e+001 255. 255. 255.
      255. 0. 0. 9.43239517e+001 2.32882568e+002 255. 255. 255. 255.
      255. 255. 255. 255. 1.77589218e+002 0. 0. 2.14017654e+002 255.
      255. 255. 255. 6.83034363e+001 0. 0. 6.83035812e+001 255. 255.
      255. 255. 0. 0. 1.32053680e+002 255. 255. 255. 255. 255. 255. 255.
      255. 255. 1.77589218e+002 0. 0. 0. 255. 255. 255. 255.
      6.83034363e+001 0. 0. 6.83035812e+001 255. 255. 255. 255. 0. 0.
      1.32053680e+002 255. 255. 255. 255. 255. 255. 255. 255. 255.
      1.77589218e+002 0. 0. 9.17219086e+001 255. 255. 255. 255.
      6.83034363e+001 0. 0. 6.83035812e+001 255. 255. 255. 255. 0. 0.
      1.32053680e+002 255. 255. 255. 255. 255. 255. 255. 255. 255.
      1.77589218e+002 0. 0. 2.14017654e+002 255. 255. 255. 255.
      6.83034363e+001 0. 0. 6.83035812e+001 255. 255. 255. 255. 0. 0. 0.
      1.77589218e+002 255. 255. 255. 255. 255. 255. 255. 255.
      1.77589218e+002 0. 0. 2.14017654e+002 255. 255. 255. 255.
      6.83034363e+001 0. 0. 6.83035812e+001 255. 255. 255. 255.
      2.14017899e+002 0. 0. 1.77589218e+002 255. 255. 255. 255. 255.
      255. 255. 255. 1.77589218e+002 0. 0. 2.14017654e+002 255. 255.
      255. 255. 6.83034363e+001 0. 0. 6.83035812e+001 255. 255. 255.
      255. 2.14017899e+002 0. 0. 2.53697910e+001 2.27678558e+002 255.
      255. 255. 255. 255. 255. 255. 1.77589218e+002 0. 0.
      2.14017654e+002 255. 255. 255. 255. 6.83034363e+001 0. 0.
      6.83035812e+001 255. 255. 255. 255. 2.43290863e+002
      1.20344543e+002 0. 0. 2.23125000e+002 255. 255. 255. 255. 255.
      255. 2.32232117e+002 5.07395821e+001 0. 0. 2.14017639e+002 255.
      255. 255. 255. 6.83034363e+001 0. 0. 0. 1.13839279e+002 255. 255.
      255. 255. 1.68482101e+002 0. 0. 2.23125000e+002 255. 255. 255.
      255. 255. 255. 2.23125000e+002 0. 0. 9.62759018e+001
      2.37436218e+002 255. 255. 255. 255. 6.83034363e+001 0. 0. 0.
      6.50512009e+001 2.14018021e+002 255. 255. 255. 1.68482101e+002 0.
      0. 0. 255. 255. 255. 255. 255. 255. 0. 0. 0. 1.68482346e+002 255.
      255. 255. 255. 1.13839218e+002 0. 0. 6.63517838e+001 0. 0.
      1.13839462e+002 2.40688812e+002 255. 255. 255. 1.22946327e+002 0.
      0. 1.36607838e+001 255. 255. 255. 255. 1.86046188e+002 0. 0.
      1.22946564e+002 255. 255. 255. 255. 1.59375000e+002 0. 0. 0.
      2.35484680e+002 2.66708145e+001 0. 0. 1.75637817e+002
      2.54349487e+002 255. 255. 255. 7.74107819e+001 0. 0.
      5.07397385e+001 2.33533234e+002 2.33533264e+002 5.07399483e+001 0.
      0. 1.10586405e+001 1.41811264e+002 255. 255. 255. 2.04910782e+002
      0. 0. 0. 2.32232346e+002 2.54999985e+002 1.86696411e+002 0. 0. 0.
      2.50446442e+002 255. 255. 255. 255. 3.18750000e+001 0. 0. 0. 0. 0.
      0. 3.18750000e+001 255. 255. 255. 255. 2.50446564e+002 0. 0. 0.
      1.86696564e+002 255. 2.54999969e+002 255. 1.41160721e+002 0. 0. 0.
      7.15559769e+001 255. 255. 255. 255. 2.06862320e+002 0. 0. 0. 0.
      2.06862320e+002 255. 255. 255. 255. 7.15561829e+001 0. 0. 0.
      1.20995033e+002 2.45242401e+002 255. 2.54999985e+002 255. 255.
      2.09464447e+002 3.57781525e+001 0. 0. 2.47193031e+001
      7.28568649e+001 7.28568649e+001 7.28568649e+001 255. 255. 255.
      255. 255. 255. 255. 255. 1.67180893e+002 2.47192326e+001 0. 0.
      3.57780685e+001 2.09464447e+002 255. 255. 255. 2.54999985e+002
      255. 255. 255. 255. 1.47666229e+002 0. 0. 0. 0. 0. 0. 0. 0. 0. 0.
      0. 0. 0. 0. 0. 0. 1.47666168e+002 255. 255. 255. 255. 255.</_>
    <_>
      255. 2.55000015e+002 2.55000015e+002 2.55000015e+002
      2.55000015e+002 2.55000015e+002 2.38168076e+002 1.50267868e+002
      1.50267868e+002 4.56170692e+001 0. 0. 0. 0. 0. 0. 0. 0. 0. 0. 0.
      0. 1.52138031e+002 2.55000015e+002 2.55000015e+002 2.55000015e+002
      2.55000015e+002 2.55000015e+002 2.54999985e+002 255. 255. 255.
      2.07431442e+002 3.49647880e+000 0. 0. 0. 0. 0. 5.91964455e+001
      5.91964455e+001 1.39615738e+002 255. 255. 255. 2.30524551e+002
      5.91964455e+001 5.91964455e+001 2.00844593e+001 0. 0.
      3.84613609e+001 2.18002228e+002 255. 255. 255. 2.54999985e+002
      255. 2.48901489e+002 9.05022507e+001 0. 0. 2.19546175e+000
      1.36606617e+001 1.38640060e+002 255. 255. 2.41339340e+002
      2.41339340e+002 2.41339340e+002 2.41339340e+002 2.51828766e+002
      255. 255. 255. 255. 255. 5.24475403e+001 0. 0. 9.05022507e+001
      2.48901489e+002 255. 255. 2.54999985e+002 1.95234360e+002
      1.76450901e+001 0. 0. 0. 2.28247757e+002 255. 255. 255.
      5.97656250e+001 0. 0. 0. 0. 2.44754295e+001 2.43046814e+002 255.
      255. 255. 255. 255. 0. 0. 0. 1.76450977e+001 1.95234497e+002 255.
      2.54999985e+002 1.86696411e+002 0. 0. 1.42705673e+002
      2.53617676e+002 255. 255. 1.63034027e+002 2.34996853e+001 0. 0.
      4.12260246e+001 1.04650887e+002 0. 0. 0. 9.96093292e+001 255. 255.
      255. 255. 2.53617706e+002 1.42705765e+002 0. 0. 0. 2.32232346e+002
      1.11968971e+002 0. 0. 0. 2.04910660e+002 255. 255. 2.10196045e+002
      5.92776451e+001 0. 0. 1.38640121e+002 255. 255. 1.82549591e+002
      3.06553898e+001 0. 0. 7.74107819e+001 255. 255. 255. 255. 255.
      1.59375000e+002 0. 0. 0. 0. 0. 3.86240578e+001 1.91819214e+002
      255. 255. 255. 1.68482101e+002 0. 0. 7.57031555e+001 255. 255.
      255. 255. 255. 1.36607838e+001 0. 7.74107819e+001 255. 255. 255.
      255. 255. 255. 1.13839218e+002 0. 0. 0. 0. 1.13839279e+002 255.
      255. 255. 2.14017899e+002 0. 0. 0. 2.23125000e+002 255. 255. 255.
      255. 255. 1.36607838e+001 0. 0. 1.22946564e+002 255. 255. 255.
      255. 255. 1.13839218e+002 0. 0. 0. 0. 1.13839279e+002 255. 255.
      255. 2.14017899e+002 0. 0. 1.74417908e+002 2.54430786e+002 255.
      255. 255. 255. 255. 2.50690262e+002 0. 0. 1.22946564e+002 255.
      255. 255. 255. 255. 1.13839218e+002 0. 0. 0. 5.48868256e+001
      2.27272034e+002 255. 255. 255. 0. 0. 0. 1.77589218e+002 255. 255.
      255. 255. 255. 255. 255. 0. 0. 0. 1.68482346e+002 255. 255. 255.
      255. 1.13839218e+002 0. 0. 0. 6.83035812e+001 255. 255. 255. 255.
      0. 0. 1.32053680e+002 255. 255. 255. 255. 255. 255. 255. 255.
      2.23125000e+002 0. 0. 1.68482346e+002 255. 255. 255. 255.
      1.13839218e+002 0. 0. 0. 6.83035812e+001 255. 255. 255. 255. 0. 0.
      1.32053680e+002 255. 255. 255. 255. 255. 255. 255. 255.
      2.23125000e+002 0. 0. 0. 2.14017654e+002 255. 255. 255.
      1.13839218e+002 0. 0. 0. 6.83035812e+001 255. 255. 255. 255. 0. 0.
      1.32053680e+002 255. 255. 255. 255. 255. 255. 255. 255. 255.
      1.77589203e+002 0. 0. 2.14017670e+002 255. 255. 255. 255.
      6.83034363e+001 0. 0. 6.83035812e+001 255. 255. 255. 255. 0. 0.
      1.32053680e+002 255. 255. 255. 255. 255. 255. 255. 255. 255.
      1.77589218e+002 0. 0. 2.14017639e+002 255. 255. 255. 255.
      6.83034363e+001 0. 0. 6.83035812e+001 255. 255. 255. 255. 0. 0.
      1.32053680e+002 255. 255. 255. 255. 255. 255. 255. 255. 255.
      1.77589218e+002 0. 0. 2.14017639e+002 255. 255. 255. 255.
      6.83034363e+001 0. 0. 6.83035812e+001 255. 255. 255. 255. 0. 0.
      1.32053680e+002 255. 255. 255. 255. 255. 255. 255. 255. 255.
      1.77589203e+002 0. 0. 2.14017670e+002 255. 255. 255. 255.
      6.83034363e+001 0. 0. 6.83035812e+001 255. 255. 255. 255. 0. 0.
      1.32053680e+002 255. 255. 255. 255. 255. 255. 255. 255. 255.
      1.77589218e+002 0. 0. 2.14017654e+002 255. 255. 255.
      1.76857391e+002 3.04925861e+001 0. 0. 6.83035812e+001 255. 255.
      255. 255. 0. 0. 1.32053680e+002 255. 255. 255. 255. 255. 255. 255.
      255. 255. 1.77589218e+002 0. 0. 2.14017654e+002 255. 255. 255.
      1.13839218e+002 0. 0. 0. 6.83035812e+001 255. 255. 255. 255. 0. 0.
      0. 1.77589233e+002 255. 255. 255. 255. 255. 255. 255.
      2.48738785e+002 1.42705338e+002 0. 0. 2.14017654e+002 255. 255.
      255. 1.13839218e+002 0. 0. 0. 6.70839081e+001 2.52479340e+002 255.
      255. 255. 2.14017899e+002 0. 0. 1.74418076e+002 2.54430817e+002
      255. 255. 255. 255. 255. 255. 2.19140747e+002 0. 0.
      3.00852156e+000 2.14749466e+002 255. 255. 2.53292465e+002
      1.11806435e+002 0. 0. 0. 0. 1.13839279e+002 255. 255. 255.
      2.14017883e+002 0. 0. 0. 2.23125000e+002 255. 255. 255. 255. 255.
      255. 0. 0. 0. 1.68482346e+002 255. 255. 255. 1.59375000e+002 0. 0.
      0. 0. 0. 1.13839279e+002 255. 255. 255. 255. 1.68482101e+002 0. 0.
      7.57033691e+001 255. 255. 255. 255. 255. 9.55439911e+001 0. 0.
      1.22946564e+002 255. 255. 255. 255. 1.59375000e+002 0. 0.
      2.32232361e+002 0. 0. 0. 1.59375000e+002 255. 255. 255.
      2.10196136e+002 5.92777596e+001 0. 0. 1.36607838e+001 255. 255.
      255. 255. 1.36607838e+001 0. 3.73230972e+001 1.86615250e+002 255.
      255. 255. 2.04910782e+002 0. 0. 0. 2.32232346e+002 2.32232132e+002
      0. 0. 0. 1.42705978e+002 2.53617676e+002 255. 255. 255.
      7.74107819e+001 0. 0. 0. 7.29386063e+001 1.77589706e+002
      4.12262764e+001 0. 0. 7.74107819e+001 255. 255. 255.
      1.74418549e+002 0. 0. 0. 1.86696564e+002 255. 2.54999985e+002
      1.95234360e+002 1.76450901e+001 0. 0. 2.19140640e+002 255. 255.
      255. 255. 5.97656250e+001 3.01674023e+001 0. 0. 0. 0. 0.
      5.97656250e+001 255. 255. 255. 2.28247787e+002 0. 0.
      1.19531250e+001 1.55390686e+002 255. 255. 2.54999985e+002 255.
      1.41160721e+002 0. 0. 0. 5.24470024e+001 255. 255. 255. 255.
      2.54268204e+002 2.41339706e+002 2.41339706e+002 2.41339706e+002
      2.41339706e+002 2.41339706e+002 255. 255. 255. 9.55432129e+001
      2.19541621e+000 0. 0. 9.56250000e+001 255. 255. 255.
      2.54999985e+002 255. 255. 2.18002151e+002 3.84614258e+001 0. 0.
      2.00845585e+001 1.60594864e+002 255. 255. 255. 255.
      1.74580765e+002 5.91965675e+001 5.91965675e+001 5.91965675e+001
      5.17969971e+001 0. 0. 0. 0. 3.49638319e+000 2.07431320e+002 255.
      255. 255. 255. 2.54999985e+002 255. 255. 255. 255. 1.52138336e+002
      0. 0. 0. 0. 0. 0. 0. 0. 0. 0. 0. 0. 0. 7.24507904e+001
      1.50268127e+002 1.50268127e+002 255. 255. 255. 255. 255. 255.</_>
    <_>
      255. 2.55000015e+002 2.55000015e+002 2.55000015e+002
      2.55000015e+002 2.55000015e+002 1.26117691e+002 0. 0. 0. 0. 0. 0.
      0. 0. 0. 0. 0. 0. 0. 0. 0. 1.52138031e+002 2.55000015e+002
      2.55000015e+002 2.55000015e+002 2.55000015e+002 2.55000015e+002
      2.54999985e+002 255. 255. 255. 2.07431442e+002 3.49647880e+000 0.
      0. 3.06553268e+001 5.91964455e+001 5.91964455e+001 6.96859741e+001
      255. 255. 255. 255. 255. 255. 1.95559586e+002 5.91964455e+001
      2.00844593e+001 0. 0. 3.84613609e+001 2.18002228e+002 255. 255.
      255. 2.54999985e+002 255. 255. 9.56250000e+001 0. 0.
      2.19546175e+000 9.55436783e+001 255. 255. 2.43046921e+002
      2.28410385e+002 0. 0. 0. 0. 2.28410385e+002 255. 255. 255. 255.
      5.24475403e+001 0. 0. 9.05022507e+001 2.48901489e+002 255. 255.
      2.54999985e+002 255. 1.55390625e+002 1.19531250e+001 0. 0.
      2.28247757e+002 255. 255. 9.96094360e+001 3.98437500e+000 0. 0. 0.
      0. 0. 0. 5.97656250e+001 255. 255. 255. 255. 0. 0. 0.
      1.76450977e+001 1.95234497e+002 255. 2.54999985e+002
      2.07431412e+002 4.28523331e+001 0. 0. 1.74418106e+002 255. 255.
      1.22946327e+002 0. 0. 9.51376247e+000 1.77589340e+002
      2.09382996e+002 2.09383072e+002 4.12261925e+001 0. 0.
      2.34996853e+001 1.63034180e+002 255. 255. 2.53617706e+002
      1.42705765e+002 0. 0. 5.66757050e+001 2.39143951e+002
      2.43209473e+002 9.00142670e+001 0. 0. 1.06114532e+002
      2.52804535e+002 255. 2.10196045e+002 5.92776451e+001 0. 0. 255.
      255. 255. 255. 255. 1.38640121e+002 0. 0. 5.92777557e+001
      2.10196182e+002 255. 255. 2.30849869e+002 8.25335464e+001 0. 0.
      2.32232346e+002 2.32232132e+002 0. 0. 5.40736809e+001
      2.21905273e+002 255. 255. 1.68482101e+002 0. 0. 7.57031555e+001
      255. 255. 255. 255. 255. 255. 7.57031555e+001 0. 0.
      1.68482346e+002 255. 255. 255. 1.59375000e+002 0. 0. 0.
      2.32232147e+002 0. 0. 1.59375000e+002 255. 255. 2.14017899e+002 0.
      0. 0. 2.23125000e+002 255. 255. 255. 255. 255. 255.
      2.23125000e+002 0. 0. 1.41404846e+002 2.48413559e+002 255. 255.
      255. 1.13839218e+002 0. 0. 4.14709711e+000 0. 0. 1.59375000e+002
      255. 255. 2.14017899e+002 0. 0. 1.74417908e+002 2.54430786e+002
      255. 255. 255. 255. 255. 255. 2.23125000e+002 0. 0. 0.
      2.14017654e+002 255. 255. 255. 1.13839218e+002 0. 0. 0. 0.
      9.14780197e+001 2.36216537e+002 255. 255. 2.14017899e+002 0. 0.
      1.77589218e+002 255. 255. 255. 255. 255. 255. 255. 255.
      1.77589218e+002 0. 0. 2.14017654e+002 255. 255. 255.
      1.13839218e+002 0. 0. 0. 0. 1.13839279e+002 255. 255. 255. 0. 0.
      0. 1.77589218e+002 255. 255. 255. 255. 255. 255. 255. 255.
      1.77589218e+002 0. 0. 2.14017654e+002 255. 255. 255.
      1.13839218e+002 0. 0. 0. 0. 1.13839279e+002 255. 255. 255. 0. 0.
      1.32053680e+002 255. 255. 255. 255. 255. 255. 255. 255. 255.
      1.77589218e+002 0. 0. 0. 255. 255. 255. 1.13839218e+002 0. 0. 0.
      1.82955647e+001 1.51650116e+002 255. 255. 255. 0. 0.
      1.32053680e+002 255. 255. 255. 255. 255. 255. 255. 255. 255. 255.
      1.32053436e+002 0. 0. 255. 255. 255. 255. 6.83034363e+001 0. 0.
      6.83035812e+001 255. 255. 255. 255. 0. 0. 1.20263283e+002
      2.48088379e+002 255. 255. 255. 255. 255. 255. 255. 255. 255.
      1.32053436e+002 0. 0. 255. 255. 255. 255. 6.83034363e+001 0. 0.
      6.83035812e+001 255. 255. 255. 255. 0. 0. 0. 1.77589218e+002 255.
      255. 255. 255. 255. 255. 255. 255. 255. 1.32053436e+002 0. 0. 255.
      255. 255. 255. 6.83034363e+001 0. 0. 6.83035812e+001 255. 255.
      255. 255. 2.14017899e+002 0. 0. 1.77589203e+002 255. 255. 255.
      255. 255. 255. 255. 255. 1.77589203e+002 0. 0. 0. 255. 255. 255.
      255. 6.83034363e+001 0. 0. 6.83035812e+001 255. 255. 255. 255.
      2.14017899e+002 0. 0. 1.77589218e+002 255. 255. 255. 255. 255.
      255. 255. 255. 1.77589218e+002 0. 0. 2.14017654e+002 255. 255.
      255. 255. 6.83034363e+001 0. 0. 4.26897392e+001 2.02064728e+002
      255. 255. 255. 2.14017899e+002 0. 0. 1.77589218e+002 255. 255.
      255. 255. 255. 255. 255. 255. 1.77589218e+002 0. 0.
      2.14017654e+002 255. 255. 255. 255. 6.83034363e+001 0. 0. 0.
      1.13839279e+002 255. 255. 255. 2.14017899e+002 0. 0.
      1.77589233e+002 255. 255. 255. 255. 255. 255. 255. 255.
      1.77589233e+002 0. 0. 2.14017654e+002 255. 255. 255.
      2.27271759e+002 5.48865776e+001 0. 0. 0. 1.13839279e+002 255. 255.
      255. 2.14017899e+002 0. 0. 1.74418076e+002 2.54430817e+002 255.
      255. 255. 255. 255. 255. 255. 1.77589218e+002 0. 0.
      2.14017654e+002 255. 255. 255. 1.13839218e+002 0. 0. 0. 0.
      1.13839279e+002 255. 255. 255. 2.14017883e+002 0. 0. 0.
      2.23125000e+002 255. 255. 255. 255. 255. 255. 2.28247742e+002
      2.85409317e+001 0. 0. 2.14017654e+002 255. 255. 1.74743195e+002
      1.82954655e+001 0. 0. 0. 0. 0. 1.59375000e+002 255. 255. 255.
      1.68482101e+002 0. 0. 7.57033691e+001 255. 255. 255. 255. 255.
      255. 7.57033691e+001 0. 0. 1.11318512e+002 2.41095245e+002 255.
      255. 1.59375000e+002 0. 0. 1.53438980e+002 2.32232132e+002 0. 0.
      0. 2.04910660e+002 255. 255. 2.10196136e+002 5.92777596e+001 0. 0.
      1.38639893e+002 255. 255. 255. 255. 1.38639893e+002 0. 0.
      5.92778740e+001 2.10196259e+002 255. 255. 255. 1.59375000e+002 0.
      0. 2.32232346e+002 2.54999985e+002 1.86696411e+002 0. 0. 0.
      1.74418472e+002 255. 255. 1.63033829e+002 2.34995747e+001 0. 0.
      4.12261086e+001 2.09383209e+002 2.09383286e+002 1.77589706e+002
      9.51378250e+000 0. 2.34995747e+001 1.63033997e+002 255. 255. 255.
      2.04910782e+002 0. 0. 0. 2.32232361e+002 2.54999985e+002 255.
      1.55390625e+002 1.19531250e+001 0. 0. 255. 255. 255. 255.
      5.97656250e+001 0. 0. 0. 0. 0. 0. 3.98437500e+000 9.96094360e+001
      255. 255. 2.28247787e+002 2.19140747e+002 0. 0. 0. 1.86696564e+002
      255. 2.54999985e+002 255. 255. 9.56250000e+001 0. 0.
      5.24470024e+001 255. 255. 255. 255. 2.28410721e+002 0. 0. 0. 0.
      2.28410721e+002 2.43047241e+002 255. 255. 9.55432129e+001
      2.19541621e+000 0. 0. 0. 1.33598831e+002 2.51341003e+002 255.
      2.54999985e+002 255. 255. 2.18002151e+002 3.84614258e+001 0. 0. 0.
      3.06553898e+001 1.95559616e+002 255. 255. 255. 255. 255. 255. 255.
      2.30524567e+002 5.91965675e+001 3.06553345e+001 0. 0.
      3.49638319e+000 1.95803436e+002 2.18002151e+002 255. 255. 255.
      2.54999985e+002 255. 255. 255. 255. 1.52138336e+002
      1.26117920e+002 0. 0. 0. 0. 0. 0. 0. 0. 0. 0. 0. 0. 0. 0.
      1.26117783e+002 255. 255. 255. 255. 255. 255.</_>
    <_>
      2.55000015e+002 2.55000015e+002 2.55000015e+002 2.55000015e+002
      2.55000015e+002 2.55000015e+002 2.55000015e+002 2.55000015e+002
      2.55000015e+002 2.55000015e+002 2.28816986e+002 1.23434273e+002 0.
      0. 0. 0. 0. 0. 0. 0. 0. 1.18392654e+002 2.55000015e+002
      2.55000015e+002 2.55000015e+002 2.55000015e+002 2.55000015e+002
      2.55000015e+002 255. 255. 255. 255. 255. 255. 255. 2.27515930e+002
      1.95803558e+002 1.32866745e+002 0. 0. 0. 2.11415076e+000
      5.70822983e+001 2.34021133e+002 255. 255. 8.19642181e+001 0. 0.
      1.18392647e+002 255. 255. 255. 255. 255. 255. 255. 255. 255.
      2.44754501e+002 2.41339340e+002 9.48118668e+001 0. 0. 0. 0. 0.
      2.43940759e+000 3.95183487e+001 255. 255. 255. 255. 255.
      8.19642181e+001 0. 0. 1.18392647e+002 255. 255. 255. 255. 255.
      255. 255. 5.57812500e+001 3.18750000e+001 7.96875000e+000 0. 0. 0.
      0. 0. 7.17186890e+001 2.23125000e+002 2.28816971e+002 255. 255.
      255. 255. 255. 255. 8.19642181e+001 0. 0. 1.18392647e+002 255.
      255. 255. 255. 255. 255. 0. 0. 0. 0. 0. 1.07822105e+002
      1.77589340e+002 2.13530014e+002 1.85232758e+002 7.74106598e+001
      7.74106598e+001 1.09123093e+002 255. 255. 255. 255. 255. 255.
      8.19642181e+001 0. 0. 1.18392654e+002 255. 255. 255. 255. 255.
      255. 0. 0. 1.08472656e+002 2.24263428e+002 255. 255.
      1.84256989e+002 6.58640823e+001 0. 0. 0. 0. 2.73213234e+001 255.
      255. 255. 255. 255. 8.19642181e+001 0. 0. 1.18392647e+002 255.
      255. 255. 255. 255. 255. 0. 0. 0. 0. 0. 0. 0. 0. 0. 0. 0. 0.
      2.73213234e+001 255. 255. 255. 255. 255. 8.19642181e+001 0. 0.
      1.18392639e+002 255. 255. 255. 255. 255. 255. 4.09821091e+001
      4.09821091e+001 4.09821091e+001 4.09821091e+001 4.09821091e+001
      4.09821091e+001 4.09821091e+001 4.09821091e+001 1.25060547e+002
      1.73035782e+002 0. 0. 2.73213234e+001 255. 255. 255. 255. 255.
      8.19642181e+001 0. 0. 1.18392647e+002 255. 255. 255. 255. 255.
      255. 255. 255. 255. 255. 255. 255. 255. 255. 255. 1.73035782e+002
      0. 0. 2.73213234e+001 255. 255. 255. 255. 255. 8.19642181e+001 0.
      0. 1.18392647e+002 255. 255. 255. 255. 255. 255. 255. 255. 255.
      255. 255. 255. 255. 255. 255. 1.73035782e+002 0. 0.
      2.73213234e+001 255. 255. 255. 255. 255. 8.19642181e+001 0. 0.
      1.18392647e+002 255. 255. 255. 255. 255. 255. 255. 255. 255. 255.
      255. 255. 255. 255. 255. 1.73035782e+002 0. 0. 2.73213234e+001
      255. 255. 255. 255. 255. 8.19642181e+001 0. 0. 1.18392654e+002
      255. 255. 255. 255. 255. 255. 255. 255. 255. 255. 255. 255. 255.
      255. 255. 1.73035782e+002 0. 0. 2.73213234e+001 255. 255. 255.
      255. 255. 8.19642181e+001 0. 0. 1.18392647e+002 255. 255. 255.
      255. 255. 255. 255. 255. 255. 255. 255. 255. 255. 255. 255.
      1.73035782e+002 0. 0. 2.73213234e+001 255. 255. 255. 255. 255.
      8.19642181e+001 0. 0. 1.18392647e+002 255. 255. 255. 255. 255.
      255. 255. 255. 255. 255. 255. 255. 255. 255. 255. 1.73035782e+002
      0. 0. 2.73213234e+001 255. 255. 255. 255. 255. 8.19642181e+001 0.
      0. 1.18392639e+002 255. 255. 255. 255. 255. 255. 255. 255. 255.
      255. 255. 255. 255. 255. 255. 1.73035782e+002 0. 0.
      2.73213234e+001 255. 255. 255. 255. 255. 8.19642181e+001 0. 0.
      1.18392639e+002 255. 255. 255. 255. 255. 255. 255. 255. 255. 255.
      255. 255. 255. 255. 255. 1.73035782e+002 0. 0. 2.73213234e+001
      255. 255. 255. 255. 255. 8.19642181e+001 0. 0. 1.18392647e+002
      255. 255. 255. 255. 255. 255. 255. 255. 255. 255. 255. 255. 255.
      255. 255. 1.73035782e+002 0. 0. 2.73213234e+001 255. 255. 255.
      255. 255. 8.19642181e+001 0. 0. 1.18392647e+002 255. 255. 255.
      255. 255. 255. 255. 255. 255. 255. 255. 255. 255. 255. 255.
      1.73035782e+002 0. 0. 2.73213234e+001 255. 255. 255. 255. 255.
      8.19642181e+001 0. 0. 1.18392654e+002 255. 255. 255. 255. 255.
      255. 255. 255. 255. 255. 255. 255. 255. 255. 255. 1.73035782e+002
      0. 0. 2.73213234e+001 255. 255. 255. 255. 255. 8.19642181e+001 0.
      0. 1.18392647e+002 255. 255. 255. 255. 255. 255. 255. 255. 255.
      255. 255. 255. 255. 255. 255. 1.73035782e+002 0. 0.
      2.73213234e+001 255. 255. 255. 255. 255. 8.19642181e+001 0. 0.
      1.18392647e+002 255. 255. 255. 255. 255. 255. 255. 255. 255. 255.
      255. 255. 255. 255. 1.70921448e+002 2.78091335e+001 0. 0.
      2.73213234e+001 255. 255. 255. 255. 255. 8.19642181e+001 0. 0.
      1.18392647e+002 255. 255. 255. 255. 255. 255. 255. 255. 255. 255.
      255. 255. 255. 255. 1.54821442e+002 0. 0. 3.00860920e+001
      1.77751633e+002 255. 255. 255. 255. 255. 8.19642181e+001 0. 0.
      1.18392654e+002 255. 255. 255. 255. 255. 255. 255. 255. 255. 255.
      255. 255. 255. 255. 1.54821442e+002 0. 0. 4.55357819e+001 255.
      255. 255. 255. 255. 255. 8.19642181e+001 0. 0. 1.18392647e+002
      255. 255. 255. 255. 255. 255. 255. 255. 255. 255. 255. 255. 255.
      255. 1.54821442e+002 0. 0. 4.55357819e+001 255. 255. 255. 255.
      255. 255. 8.19642181e+001 0. 0. 8.24522171e+001 2.08000854e+002
      255. 255. 255. 255. 255. 2.23125000e+002 2.39062519e+001 0. 0. 0.
      0. 0. 0. 0. 0. 0. 4.55357819e+001 255. 255. 255. 255. 255. 255.
      1.03593689e+002 1.25223045e+001 0. 0. 0. 0. 0. 0. 0. 0. 0. 0. 0.
      0. 0. 0. 0. 0. 0. 0. 6.03349266e+001 2.43779053e+002 255. 255.
      255. 255. 255. 255. 255. 2.46706238e+002 1.12050377e+002 0. 0. 0.
      0. 0. 0. 0. 0. 0. 0. 1.91250000e+002 255. 255. 255.
      1.64091232e+002 5.91965675e+001 5.91965675e+001 5.91965675e+001
      5.91965675e+001 5.91965675e+001 5.91965675e+001 5.91965675e+001
      5.91965675e+001 5.91965675e+001 5.91965675e+001 5.91965675e+001
      5.91965675e+001 5.91965675e+001 5.91965675e+001 5.91965675e+001
      5.91965675e+001 5.91965675e+001 4.86257362e+001 0. 0. 0. 0. 0. 0.
      0. 0. 0. 0. 0. 0. 0. 0. 0. 0. 0. 0. 0. 0. 0. 0. 0. 0. 0. 0. 0. 0.
      0. 0.</_>
    <_>
      2.55000015e+002 2.55000015e+002 2.55000015e+002 2.55000015e+002
      2.55000015e+002 2.55000015e+002 2.55000015e+002 2.55000015e+002
      2.13855255e+002 1.01967514e+002 0. 0. 0. 0. 0. 0. 0. 0. 0.
      1.54821564e+002 2.55000015e+002 2.55000015e+002 2.55000015e+002
      2.55000015e+002 2.55000015e+002 2.55000015e+002 2.55000015e+002
      2.55000015e+002 255. 255. 255. 255. 2.14830994e+002
      1.95803558e+002 9.09088211e+001 0. 0. 0. 0. 1.05708094e+001
      8.01753159e+001 255. 255. 255. 4.55357819e+001 0. 0.
      1.54821564e+002 255. 255. 255. 255. 255. 255. 255. 255. 255.
      2.42802979e+002 4.30963211e+001 0. 0. 0. 0. 0. 5.36668777e+000
      1.36606617e+001 7.39954987e+001 255. 255. 255. 255. 255.
      4.55357819e+001 0. 0. 1.54821564e+002 255. 255. 255. 255. 255.
      255. 255. 255. 3.18750000e+001 3.41517878e+000 0. 0. 0. 0.
      1.19531212e+002 2.23125000e+002 2.35647324e+002 255. 255. 255.
      255. 255. 255. 255. 4.55357819e+001 0. 0. 1.54821564e+002 255.
      255. 255. 255. 255. 255. 255. 255. 0. 0. 0. 1.33192001e+002
      2.30118011e+002 255. 1.59862885e+002 7.74106598e+001
      7.74106598e+001 7.74106598e+001 1.21807999e+002 255. 255. 255.
      255. 255. 4.55357819e+001 0. 0. 1.54821564e+002 255. 255. 255.
      255. 255. 255. 255. 255. 0. 0. 2.09464279e+002 255.
      1.65392151e+002 4.83003311e+001 0. 0. 0. 0. 0. 4.55357819e+001
      255. 255. 255. 255. 4.55357819e+001 0. 0. 7.46460495e+001
      1.93689484e+002 255. 255. 255. 255. 255. 255. 255. 0. 0. 0. 0. 0.
      0. 0. 4.01690331e+001 5.25287247e+001 0. 0. 4.55357819e+001 255.
      255. 255. 255. 1.16604027e+002 2.16294727e+001 0. 0.
      1.36607346e+002 255. 255. 255. 255. 255. 255. 255. 4.09821091e+001
      4.09821091e+001 4.09821091e+001 4.09821091e+001 4.09821091e+001
      4.09821091e+001 1.55634521e+002 255. 1.54821442e+002 0. 0.
      4.55357819e+001 255. 255. 255. 255. 255. 6.37500000e+001 0. 0.
      1.36607346e+002 255. 255. 255. 255. 255. 255. 255. 255. 255. 255.
      255. 255. 255. 255. 255. 1.54821442e+002 0. 0. 4.55357819e+001
      255. 255. 255. 255. 255. 6.37500000e+001 0. 0. 1.36607346e+002
      255. 255. 255. 255. 255. 255. 255. 255. 255. 255. 255. 255. 255.
      255. 255. 1.54821442e+002 0. 0. 4.55357819e+001 255. 255. 255.
      255. 255. 6.37500000e+001 0. 0. 1.36607346e+002 255. 255. 255.
      255. 255. 255. 255. 255. 255. 255. 255. 255. 255. 255. 255.
      1.54821442e+002 0. 0. 4.55357819e+001 255. 255. 255. 255. 255.
      6.37500000e+001 0. 0. 1.36607346e+002 255. 255. 255. 255. 255.
      255. 255. 255. 255. 255. 255. 255. 255. 255. 255. 1.54821442e+002
      0. 0. 4.55357819e+001 255. 255. 255. 255. 255. 6.37500000e+001 0.
      0. 1.36607346e+002 255. 255. 255. 255. 255. 255. 255. 255. 255.
      255. 255. 255. 255. 255. 255. 1.54821442e+002 0. 0.
      4.55357819e+001 255. 255. 255. 255. 255. 6.37500000e+001 0. 0.
      1.36607346e+002 255. 255. 255. 255. 255. 255. 255. 255. 255. 255.
      255. 255. 255. 255. 255. 1.54821442e+002 0. 0. 4.55357819e+001
      255. 255. 255. 255. 255. 6.37500000e+001 0. 0. 1.36607346e+002
      255. 255. 255. 255. 255. 255. 255. 255. 255. 255. 255. 255. 255.
      255. 255. 1.54821442e+002 0. 0. 4.55357819e+001 255. 255. 255.
      255. 255. 6.37500000e+001 0. 0. 1.36607346e+002 255. 255. 255.
      255. 255. 255. 255. 255. 255. 255. 255. 255. 255. 255. 255.
      1.54821442e+002 0. 0. 4.55357819e+001 255. 255. 255. 255. 255.
      6.37500000e+001 0. 0. 1.36607346e+002 255. 255. 255. 255. 255.
      255. 255. 255. 255. 255. 255. 255. 255. 255. 255. 1.54821442e+002
      0. 0. 4.55357819e+001 255. 255. 255. 255. 255. 6.37500000e+001 0.
      0. 1.36607346e+002 255. 255. 255. 255. 255. 255. 255. 255. 255.
      255. 255. 255. 255. 255. 255. 1.54821442e+002 0. 0.
      4.55357819e+001 255. 255. 255. 255. 255. 6.37500000e+001 0. 0. 0.
      1.18392654e+002 255. 255. 255. 255. 255. 255. 255. 255. 255. 255.
      255. 255. 255. 255. 1.54821442e+002 0. 0. 4.55357819e+001 255.
      255. 255. 255. 255. 255. 8.19642181e+001 0. 0. 1.18392647e+002
      255. 255. 255. 255. 255. 255. 255. 255. 255. 255. 255. 255. 255.
      255. 1.54821442e+002 0. 0. 4.55357819e+001 255. 255. 255. 255.
      255. 255. 8.19642181e+001 0. 0. 1.18392647e+002 255. 255. 255.
      255. 255. 255. 255. 255. 255. 255. 255. 255. 255. 255.
      1.54821442e+002 0. 0. 7.31820107e+000 6.39122925e+001 255. 255.
      255. 255. 255. 8.19642181e+001 0. 0. 1.18392647e+002 255. 255.
      255. 255. 255. 255. 255. 255. 255. 255. 255. 255. 255. 255.
      2.21010742e+002 1.14327026e+002 0. 0. 2.73213234e+001 255. 255.
      255. 255. 255. 8.19642181e+001 0. 0. 1.18392654e+002 255. 255.
      255. 255. 255. 255. 255. 255. 255. 255. 255. 255. 255. 255. 255.
      1.73035782e+002 0. 0. 2.73213234e+001 255. 255. 255. 255. 255.
      8.19642181e+001 0. 0. 1.18392647e+002 255. 255. 255. 255. 255.
      255. 255. 255. 255. 255. 255. 255. 255. 255. 2.24588821e+002
      1.20507347e+002 0. 0. 2.73213234e+001 255. 255. 255. 255. 255.
      8.19642181e+001 0. 0. 0. 6.97672882e+001 2.02471573e+002 255. 255.
      255. 255. 255. 255. 255. 2.31093750e+002 7.17187424e+001 0. 0. 0.
      0. 0. 0. 5.69197273e+000 5.57811584e+001 255. 255. 255. 255. 255.
      255. 1.19531128e+002 1.47990808e+001 0. 0. 0. 0. 0. 0. 0. 255.
      255. 255. 6.37500000e+001 0. 0. 0. 0. 0. 0. 6.03349266e+001
      2.43779053e+002 255. 255. 255. 255. 255. 255. 255. 255.
      2.47681976e+002 1.29289322e+002 0. 0. 0. 0. 0. 0. 255. 255. 255.
      6.37500000e+001 0. 0. 3.17124367e+001 5.91965675e+001
      5.91965675e+001 5.91965675e+001 5.91965675e+001 5.91965675e+001
      5.91965675e+001 5.91965675e+001 5.91965675e+001 5.91965675e+001
      5.91965675e+001 5.91965675e+001 5.91965675e+001 5.91965675e+001
      5.91965675e+001 5.91965675e+001 1.36119247e+002 255. 255.
      2.09464218e+002 0. 0. 255. 255. 255. 1.76451096e+002
      4.83004684e+001 0. 0. 0. 0. 0. 0. 0. 0. 0. 0. 0. 0. 0. 0. 0. 0. 0.
      0. 0. 0. 0. 0. 0.</_>
    <_>
      2.55000015e+002 2.55000015e+002 2.55000015e+002 2.55000015e+002
      2.55000015e+002 2.55000015e+002 2.55000015e+002 2.55000015e+002
      2.55000015e+002 1.85802002e+002 1.50267868e+002 6.17171364e+001 0.
      0. 0. 0. 0. 0. 0. 0. 0. 0. 5.00892181e+001 2.55000015e+002
      2.55000015e+002 2.55000015e+002 2.55000015e+002 2.55000015e+002
      255. 255. 255. 255. 255. 2.07431442e+002 1.95803558e+002
      1.95803558e+002 5.94403229e+001 0. 0. 0. 0. 3.06553268e+001
      5.91964455e+001 1.46608688e+002 255. 255. 255. 1.77589233e+002 0.
      0. 5.00892181e+001 255. 255. 255. 255. 255. 255. 2.42071167e+002
      2.41339340e+002 2.41339340e+002 3.87867050e+001 0. 0. 0. 0. 0.
      8.53791428e+000 1.55878525e+002 255. 255. 255. 255. 255. 255. 255.
      1.77589218e+002 0. 0. 5.00892181e+001 255. 255. 255. 255. 255.
      3.18750000e+001 1.70758843e+000 0. 0. 0. 0. 0. 1.63359390e+002
      2.23125000e+002 2.23125000e+002 2.43046875e+002 255. 255. 255.
      255. 255. 255. 255. 255. 1.77589218e+002 0. 0. 5.00892181e+001
      255. 255. 255. 255. 255. 0. 0. 0. 1.55390671e+002 1.77589340e+002
      1.77589340e+002 2.37029663e+002 255. 1.31321671e+002
      7.74106598e+001 7.74106598e+001 1.82061554e+002 255. 255. 255.
      255. 255. 255. 1.68482346e+002 0. 0. 0. 5.00892181e+001 255. 255.
      255. 255. 255. 0. 0. 1.11968971e+002 1.22946327e+002
      1.22946327e+002 1.22946327e+002 1.22946327e+002 3.29320412e+001 0.
      0. 0. 0. 1.41160782e+002 255. 255. 255. 255. 255. 1.68482346e+002
      0. 0. 5.91965675e+001 255. 255. 255. 255. 255. 255. 0. 0. 0. 0. 0.
      0. 0. 0. 0. 0. 0. 0. 1.41160782e+002 255. 255. 255. 255. 255.
      1.68482346e+002 0. 0. 5.91965714e+001 255. 255. 255. 255. 255.
      255. 255. 255. 255. 255. 255. 255. 255. 255. 255. 8.65178909e+001
      0. 0. 1.41160782e+002 255. 255. 255. 255. 255. 1.68482346e+002 0.
      0. 5.91965675e+001 255. 255. 255. 255. 255. 255. 255. 255. 255.
      255. 255. 255. 255. 255. 255. 8.65178909e+001 0. 0.
      1.41160782e+002 255. 255. 255. 255. 255. 1.68482346e+002 0. 0.
      5.91965675e+001 255. 255. 255. 255. 255. 255. 255. 255. 255. 255.
      255. 255. 255. 255. 255. 8.65178909e+001 0. 0. 1.41160782e+002
      255. 255. 255. 255. 255. 1.68482346e+002 0. 0. 5.91965675e+001
      255. 255. 255. 255. 255. 255. 255. 255. 255. 255. 255. 255. 255.
      255. 255. 8.65178909e+001 0. 0. 1.41160782e+002 255. 255. 255.
      255. 255. 1.68482346e+002 0. 0. 5.91965714e+001 255. 255. 255.
      255. 255. 255. 255. 255. 255. 255. 255. 255. 255. 255. 255.
      8.65178909e+001 0. 0. 1.41160782e+002 255. 255. 255. 255. 255.
      1.68482346e+002 0. 0. 5.91965637e+001 255. 255. 255. 255. 255.
      255. 255. 255. 255. 255. 255. 255. 255. 255. 255. 8.65178909e+001
      0. 0. 1.41160782e+002 255. 255. 255. 255. 255. 1.68482346e+002 0.
      0. 5.91965714e+001 255. 255. 255. 255. 255. 255. 255. 255. 255.
      255. 255. 255. 255. 255. 255. 8.65178909e+001 0. 0.
      1.41160782e+002 255. 255. 255. 255. 255. 1.68482346e+002 0. 0.
      5.91965675e+001 255. 255. 255. 255. 255. 255. 255. 255. 255. 255.
      255. 255. 255. 255. 255. 8.65178909e+001 0. 0. 1.41160782e+002
      255. 255. 255. 255. 255. 1.68482346e+002 0. 0. 5.91965675e+001
      255. 255. 255. 255. 255. 255. 255. 255. 255. 255. 255. 255. 255.
      255. 255. 8.65178909e+001 0. 0. 1.41160782e+002 255. 255. 255.
      255. 255. 1.68482346e+002 0. 0. 5.91965714e+001 255. 255. 255.
      255. 255. 255. 255. 255. 255. 255. 255. 255. 255. 255. 255.
      8.65178909e+001 0. 0. 1.41160782e+002 255. 255. 255. 255. 255.
      1.68482346e+002 0. 0. 5.91965637e+001 255. 255. 255. 255. 255.
      255. 255. 255. 255. 255. 255. 255. 255. 255. 255. 8.65178909e+001
      0. 0. 1.41160782e+002 255. 255. 255. 255. 255. 1.68482346e+002 0.
      0. 5.91965714e+001 255. 255. 255. 255. 255. 255. 255. 255. 255.
      255. 255. 255. 255. 255. 255. 8.65178909e+001 0. 0.
      1.13432541e+002 2.30849625e+002 255. 255. 255. 255.
      1.68482346e+002 0. 0. 5.91965675e+001 255. 255. 255. 255. 255.
      255. 255. 255. 255. 255. 255. 255. 255. 255. 255. 8.65178909e+001
      0. 0. 0. 1.32053680e+002 255. 255. 255. 255. 1.68482346e+002 0. 0.
      5.91965675e+001 255. 255. 255. 255. 255. 255. 255. 255. 255. 255.
      255. 255. 255. 255. 255. 8.65178909e+001 0. 0. 1.18474380e+002
      2.35240891e+002 255. 255. 255. 255. 1.68482346e+002 0. 0.
      5.91965714e+001 255. 255. 255. 255. 255. 255. 255. 255. 255. 255.
      255. 255. 255. 255. 255. 8.65178909e+001 0. 0. 1.41160782e+002
      255. 255. 255. 255. 255. 1.68482346e+002 0. 0. 2.00846138e+001
      1.19612747e+002 255. 255. 255. 255. 255. 255. 255. 255. 255. 255.
      255. 255. 255. 255. 8.65178909e+001 0. 0. 1.41160782e+002 255.
      255. 255. 255. 255. 2.10196259e+002 8.56234665e+001 0. 0.
      5.00892181e+001 255. 255. 255. 255. 255. 255. 255. 255. 255. 255.
      255. 255. 255. 2.01089249e+002 6.02536736e+001 0. 0.
      1.41160782e+002 255. 255. 255. 255. 255. 255. 1.77589218e+002 0.
      0. 3.48836441e+001 1.90030716e+002 255. 255. 255. 255. 255.
      2.24832596e+002 1.99218788e+001 0. 0. 0. 0. 0. 0. 0. 0.
      1.87834873e+001 1.55390686e+002 255. 255. 255. 255. 255. 255.
      1.87265564e+002 2.33370705e+001 0. 0. 0. 0. 0. 0. 0. 255.
      1.36607075e+001 0. 0. 0. 0. 0. 0. 0. 0. 1.50837311e+002
      2.49389526e+002 255. 255. 255. 255. 255. 255. 255. 255.
      2.51341003e+002 1.85314285e+002 0. 0. 0. 0. 0. 0. 255.
      1.36607075e+001 0. 0. 2.14017838e+002 255. 255. 255.
      1.18636856e+002 5.91965675e+001 5.91965675e+001 5.91965675e+001
      5.91965675e+001 5.91965675e+001 5.91965675e+001 5.91965675e+001
      5.91965675e+001 5.91965675e+001 5.91965675e+001 5.91965675e+001
      5.91965675e+001 1.04651047e+002 255. 255. 255. 2.32232346e+002 0.
      0. 255. 1.36607075e+001 0. 0. 0. 0. 0. 0. 0. 0. 0. 0. 0. 0. 0. 0.
      0. 0. 0. 0. 0. 0. 0. 0. 0. 0. 0. 0.</_>
    <_>
      2.55000015e+002 2.55000015e+002 2.55000015e+002 2.55000015e+002
      2.55000015e+002 2.55000015e+002 2.55000015e+002 2.55000015e+002
      2.55000015e+002 2.23206360e+002 1.31484375e+002 8.05010509e+000 0.
      0. 0. 0. 0. 0. 0. 0. 0. 0. 0. 2.04910797e+002 2.55000015e+002
      2.55000015e+002 2.55000015e+002 2.55000015e+002 255. 255. 255.
      255. 255. 2.53942932e+002 2.05317261e+002 6.64333725e+001 0. 0. 0.
      0. 0. 3.48836288e+001 1.39615738e+002 255. 255. 255. 255.
      1.22946327e+002 0. 0. 0. 2.04910782e+002 255. 255. 255. 255. 255.
      2.44998444e+002 2.41339340e+002 1.50837082e+002 0. 0. 0. 0. 0.
      4.14698362e+000 1.36606617e+001 1.36606617e+001 1.98974899e+002
      255. 255. 255. 255. 255. 255. 1.22946327e+002 0. 0. 0.
      2.04910782e+002 255. 255. 255. 255. 3.18750000e+001
      8.53794575e+000 0. 0. 0. 0. 0. 0. 1.07578140e+002 2.32801331e+002
      255. 255. 255. 255. 255. 255. 255. 255. 255. 1.22946327e+002 0. 0.
      0. 2.04910782e+002 255. 255. 255. 255. 0. 0. 0. 6.65960007e+001
      1.77589340e+002 1.78971664e+002 2.42559021e+002 255. 255. 255.
      255. 255. 255. 255. 255. 255. 255. 255. 255. 1.22946327e+002 0. 0.
      0. 2.04910782e+002 255. 255. 255. 255. 0. 0. 0. 4.61048698e+001
      1.22946327e+002 1.22946327e+002 1.22946327e+002 1.22946327e+002
      1.22946327e+002 1.22946327e+002 1.39453033e+002 2.47925659e+002
      255. 255. 255. 255. 255. 255. 255. 1.22946327e+002 0. 0. 0.
      2.04910782e+002 255. 255. 255. 255. 8.65178909e+001
      2.31744328e+001 0. 0. 0. 0. 0. 0. 0. 0. 0. 0. 1.95803680e+002 255.
      255. 255. 255. 255. 7.74107819e+001 0. 0. 0. 0. 2.04910782e+002
      255. 255. 255. 255. 255. 255. 255. 255. 255. 255. 255. 255.
      1.32053558e+002 0. 0. 0. 1.95803680e+002 255. 255. 255. 255. 255.
      7.74107819e+001 0. 0. 4.09823532e+001 2.50446564e+002 255. 255.
      255. 255. 255. 255. 255. 255. 255. 255. 255. 255. 255.
      1.32053558e+002 0. 0. 0. 1.95803680e+002 255. 255. 255. 255. 255.
      7.74107819e+001 0. 0. 4.09823532e+001 2.50446564e+002 255. 255.
      255. 255. 255. 255. 255. 255. 255. 255. 255. 255. 255.
      1.32053558e+002 0. 0. 0. 1.95803680e+002 255. 255. 255. 255. 255.
      7.74107819e+001 0. 0. 4.09823532e+001 2.50446564e+002 255. 255.
      255. 255. 255. 255. 255. 255. 255. 255. 255. 255. 255.
      1.32053558e+002 0. 0. 0. 1.95803680e+002 255. 255. 255. 255. 255.
      7.74107819e+001 0. 0. 4.09823532e+001 2.50446564e+002 255. 255.
      255. 255. 255. 255. 255. 255. 255. 255. 255. 255. 255.
      1.32053558e+002 0. 0. 0. 1.95803680e+002 255. 255. 255. 255. 255.
      7.74107819e+001 0. 0. 4.09823532e+001 2.50446564e+002 255. 255.
      255. 255. 255. 255. 255. 255. 255. 255. 255. 255. 255.
      1.32053558e+002 0. 0. 0. 1.95803680e+002 255. 255. 255. 255. 255.
      7.74107819e+001 0. 0. 4.09823532e+001 2.50446564e+002 255. 255.
      255. 255. 255. 255. 255. 255. 255. 255. 255. 255. 2.39957092e+002
      1.20263168e+002 0. 0. 0. 1.95803680e+002 255. 255. 255. 255. 255.
      7.74107819e+001 0. 0. 4.09823532e+001 2.50446564e+002 255. 255.
      255. 255. 255. 255. 255. 255. 255. 255. 255. 255. 8.65178909e+001
      0. 0. 0. 0. 1.95803680e+002 255. 255. 255. 255. 255.
      7.74107819e+001 0. 0. 4.09823532e+001 2.50446564e+002 255. 255.
      255. 255. 255. 255. 255. 255. 255. 255. 255. 255. 8.65178909e+001
      0. 0. 3.18750000e+001 2.41339218e+002 255. 255. 255. 255. 255.
      255. 7.74107819e+001 0. 0. 4.09823532e+001 2.50446564e+002 255.
      255. 255. 255. 255. 255. 255. 255. 255. 255. 255. 255.
      8.65178909e+001 0. 0. 1.42299023e+001 1.07740654e+002
      2.22230591e+002 255. 255. 255. 255. 255. 7.74107819e+001 0. 0.
      4.09823532e+001 2.50446564e+002 255. 255. 255. 255. 255. 255. 255.
      255. 255. 255. 255. 255. 1.49698685e+002 4.95200844e+001 0. 0. 0.
      1.95803680e+002 255. 255. 255. 255. 255. 7.74107819e+001 0. 0.
      4.09823532e+001 2.50446564e+002 255. 255. 255. 255. 255. 255. 255.
      255. 255. 255. 255. 255. 255. 1.32053558e+002 0. 0. 0.
      1.95803680e+002 255. 255. 255. 255. 255. 7.74107819e+001 0. 0.
      4.09823532e+001 2.50446564e+002 255. 255. 255. 255. 255. 255. 255.
      255. 255. 255. 255. 255. 255. 1.32053558e+002 0. 0. 0.
      1.95803680e+002 255. 255. 255. 255. 255. 7.74107819e+001 0. 0.
      4.02505493e+001 2.45974442e+002 2.54105576e+002 255. 255. 255.
      255. 255. 255. 255. 255. 255. 255. 255. 255. 1.32053558e+002 0. 0.
      0. 1.95803680e+002 255. 255. 255. 255. 255. 7.74107819e+001 0. 0.
      0. 0. 2.04910782e+002 255. 255. 255. 255. 255. 255. 255. 255. 255.
      255. 255. 1.43681641e+002 4.48040314e+001 0. 0. 0. 1.95803680e+002
      255. 255. 255. 255. 255. 255. 1.22946327e+002 0. 0. 0.
      2.04910767e+002 255. 255. 255. 255. 255. 255. 255. 255. 255. 255.
      255. 8.65178909e+001 0. 0. 1.53683205e+001 1.16360115e+002
      2.24344788e+002 255. 255. 255. 255. 255. 255. 1.22946327e+002 0.
      0. 0. 2.04910782e+002 255. 255. 255. 255. 255. 255. 255. 255. 255.
      2.53617676e+002 1.90030640e+002 6.02536736e+001 0. 0.
      3.18750000e+001 2.41339233e+002 255. 255. 255. 255. 255. 255. 255.
      1.22946327e+002 0. 0. 0. 2.04910782e+002 255. 255. 255. 255. 0. 0.
      0. 0. 0. 0. 0. 0. 0. 9.67633247e+000 5.97656250e+001
      2.43046814e+002 255. 255. 255. 255. 255. 255. 255. 1.22946327e+002
      0. 0. 0. 0. 0. 0. 0. 0. 0. 0. 0. 0. 0. 0. 0. 0. 1.16360237e+002
      2.45486572e+002 255. 255. 255. 255. 255. 255. 255. 255. 255.
      2.47925919e+002 1.59456787e+002 0. 0. 0. 0. 0. 0. 0. 0. 0.
      1.41160721e+002 255. 255. 255. 255. 1.25629898e+002
      5.91965675e+001 5.91965675e+001 5.91965675e+001 5.91965675e+001
      5.91965675e+001 5.91965675e+001 5.91965675e+001 5.91965675e+001
      5.91965675e+001 5.91965675e+001 5.91965675e+001 5.91965675e+001
      5.91965675e+001 5.91965675e+001 5.91965675e+001 5.91965675e+001
      5.91965675e+001 3.27695427e+001 0. 0. 0. 0. 0. 0. 0. 0. 0. 0. 0.
      0. 0. 0. 0. 0. 0. 0. 0. 0. 0. 0. 0. 0. 0. 0. 0. 0. 0. 0.</_>
    <_>
      255. 255. 255. 255. 255. 255. 255. 255. 255. 2.22799774e+002
      1.54821426e+002 1.27174706e+002 0. 0. 0. 0. 0. 0. 0. 0. 0.
      1.18392639e+002 255. 255. 255. 255. 255. 255. 255. 255. 255. 255.
      255. 255. 2.30605865e+002 1.12212975e+002 0. 0. 0. 0. 0.
      1.62626958e+000 4.39094543e+001 2.32557480e+002 255. 255.
      8.19642181e+001 0. 0. 1.18392647e+002 255. 255. 255. 255. 255.
      255. 255. 255. 255. 7.05803757e+001 9.10716915e+000
      9.10716915e+000 4.22832966e+000 0. 0. 0. 0. 4.39095001e+001
      2.45892838e+002 2.46218094e+002 2.54674759e+002 255. 255. 255.
      8.19642181e+001 0. 0. 1.18392654e+002 255. 255. 255. 255. 255.
      255. 6.37500000e+001 6.37500000e+001 1.13839312e+001 0. 0. 0. 0.
      0. 7.51339111e+001 2.11741058e+002 255. 255. 255. 255. 255. 255.
      255. 255. 8.19642181e+001 0. 0. 1.18392647e+002 255. 255. 255.
      255. 255. 255. 0. 0. 0. 0. 9.26976852e+001 2.08488495e+002 255.
      255. 255. 255. 255. 255. 255. 255. 255. 255. 255. 255.
      8.19642181e+001 0. 0. 1.18392647e+002 255. 255. 255. 255. 255.
      255. 0. 0. 2.09464279e+002 255. 1.99381424e+002 1.73035782e+002
      8.03380661e+001 0. 0. 0. 4.32589455e+001 1.87672272e+002 255. 255.
      255. 255. 255. 255. 8.19642181e+001 0. 0. 1.18392647e+002 255.
      255. 255. 255. 255. 255. 0. 0. 0. 0. 0. 0. 0. 0. 0. 0. 0.
      4.55357819e+001 255. 255. 255. 255. 255. 255. 8.19642181e+001 0.
      0. 1.18392647e+002 255. 255. 255. 255. 255. 255. 0. 0. 0. 0. 0. 0.
      1.21970680e+002 2.27678680e+002 1.38233490e+002 0. 0.
      4.55357819e+001 255. 255. 255. 255. 255. 255. 8.19642181e+001 0.
      0. 1.18392647e+002 255. 255. 255. 255. 255. 255. 255. 255. 255.
      255. 255. 255. 255. 255. 1.54821442e+002 0. 0. 4.55357819e+001
      255. 255. 255. 255. 255. 255. 8.19642181e+001 0. 0.
      1.18392647e+002 255. 255. 255. 255. 255. 255. 255. 255. 255. 255.
      255. 255. 255. 255. 1.54821442e+002 0. 0. 4.55357819e+001 255.
      255. 255. 255. 255. 255. 8.19642181e+001 0. 0. 1.18392647e+002
      255. 255. 255. 255. 255. 255. 255. 255. 255. 255. 255. 255. 255.
      255. 1.54821442e+002 0. 0. 4.55357819e+001 255. 255. 255. 255.
      255. 255. 8.19642181e+001 0. 0. 1.18392647e+002 255. 255. 255.
      255. 255. 255. 255. 255. 255. 255. 255. 255. 255. 255.
      1.54821442e+002 0. 0. 4.55357819e+001 255. 255. 255. 255. 255.
      255. 8.19642181e+001 0. 0. 1.18392647e+002 255. 255. 255. 255.
      255. 255. 255. 255. 255. 255. 255. 255. 255. 255. 1.54821442e+002
      0. 0. 4.55357819e+001 255. 255. 255. 255. 255. 255.
      8.19642181e+001 0. 0. 1.18392647e+002 255. 255. 255. 255. 255.
      255. 255. 255. 255. 255. 255. 255. 255. 255. 1.54821442e+002 0. 0.
      4.55357819e+001 255. 255. 255. 255. 255. 255. 8.19642181e+001 0.
      0. 1.18392654e+002 255. 255. 255. 255. 255. 255. 255. 255. 255.
      255. 255. 255. 255. 255. 1.54821442e+002 0. 0. 4.55357819e+001
      255. 255. 255. 255. 255. 255. 8.19642181e+001 0. 0.
      1.18392654e+002 255. 255. 255. 255. 255. 255. 255. 255. 255. 255.
      255. 255. 255. 255. 1.54821442e+002 0. 0. 4.55357819e+001 255.
      255. 255. 255. 255. 255. 8.19642181e+001 0. 0. 1.18392647e+002
      255. 255. 255. 255. 255. 255. 255. 255. 255. 255. 255. 255. 255.
      255. 1.54821442e+002 0. 0. 4.55357819e+001 255. 255. 255. 255.
      255. 255. 8.19642181e+001 0. 0. 1.18392647e+002 255. 255. 255.
      255. 255. 255. 255. 255. 255. 255. 255. 255. 255. 255.
      1.54821442e+002 0. 0. 4.55357819e+001 255. 255. 255. 255. 255.
      255. 8.19642181e+001 0. 0. 1.18392647e+002 255. 255. 255. 255.
      255. 255. 255. 255. 255. 255. 255. 255. 255. 255. 1.54821442e+002
      0. 0. 0. 2.73213234e+001 255. 255. 255. 255. 255. 8.19642181e+001
      0. 0. 1.18392647e+002 255. 255. 255. 255. 255. 255. 255. 255. 255.
      255. 255. 255. 255. 255. 255. 1.73035782e+002 0. 0.
      2.73213234e+001 255. 255. 255. 255. 255. 8.19642181e+001 0. 0.
      1.18392654e+002 255. 255. 255. 255. 255. 255. 255. 255. 255. 255.
      255. 255. 255. 255. 255. 1.73035782e+002 0. 0. 2.73213234e+001
      255. 255. 255. 255. 255. 8.19642181e+001 0. 0. 1.18392647e+002
      255. 255. 255. 255. 255. 255. 255. 255. 255. 255. 255. 255. 255.
      255. 255. 1.73035782e+002 0. 0. 2.73213234e+001 255. 255. 255.
      255. 255. 8.19642181e+001 0. 0. 1.18392647e+002 255. 255. 255.
      255. 255. 255. 255. 255. 255. 255. 255. 255. 255. 255.
      1.87021851e+002 5.56189270e+001 0. 0. 2.73213234e+001 255. 255.
      255. 255. 255. 8.19642181e+001 0. 0. 1.18392654e+002 255. 255.
      255. 255. 255. 255. 255. 255. 255. 255. 255. 255. 255. 255.
      1.54821442e+002 0. 0. 2.11416626e+001 1.33029526e+002 255. 255.
      255. 255. 255. 8.19642181e+001 0. 0. 6.34245033e+001
      1.83118393e+002 255. 255. 255. 255. 255. 255. 255. 2.02633926e+002
      4.78125000e+001 0. 0. 0. 0. 0. 0. 0. 4.55357819e+001 255. 255.
      255. 255. 255. 255. 1.25223160e+002 2.50446091e+001 0. 0. 0. 0. 0.
      0. 0. 0. 255. 255. 4.55357246e+001 0. 0. 5.52916861e+000
      9.10686493e+000 9.10686493e+000 9.10686493e+000 9.10686493e+000
      7.05801468e+001 255. 255. 255. 255. 255. 255. 255. 255. 255.
      1.23271332e+002 9.10686493e+000 9.10686493e+000 9.10686493e+000
      9.10686493e+000 7.48063660e+000 0. 0. 255. 255. 4.55357246e+001 0.
      0. 1.54821442e+002 255. 255. 255. 255. 255. 255. 255. 255. 255.
      255. 255. 255. 255. 255. 255. 255. 255. 255. 255. 2.09464233e+002
      0. 0. 255. 255. 4.55357246e+001 0. 0. 0. 0. 0. 0. 0. 0. 0. 0. 0.
      0. 0. 0. 0. 0. 0. 0. 0. 0. 0. 0. 0. 0. 0.</_>
    <_>
      255. 255. 255. 255. 255. 255. 255. 255. 255. 255. 1.86696426e+002
      5.98469162e+001 0. 0. 0. 0. 0. 0. 0. 0. 3.90305328e+001
      1.71084229e+002 255. 255. 255. 255. 255. 255. 255. 255. 255. 255.
      255. 255. 1.99056122e+002 1.82142838e+002 5.52933197e+001 0. 0. 0.
      0. 3.77296371e+001 1.60675964e+002 255. 255. 1.86696442e+002
      4.81378288e+001 0. 0. 5.91965675e+001 255. 255. 255. 255. 255.
      255. 255. 255. 2.21823990e+002 2.18571442e+002 3.51275787e+001 0.
      0. 0. 0. 0. 2.27678471e+001 3.64285545e+001 1.57423523e+002 255.
      255. 255. 255. 255. 1.68482346e+002 0. 0. 5.91965675e+001 255.
      255. 255. 255. 255. 255. 0. 0. 0. 0. 0. 0. 0. 0. 1.77589340e+002
      255. 255. 255. 255. 255. 255. 255. 255. 1.59375000e+002 0. 0. 0.
      5.91965675e+001 255. 255. 255. 255. 255. 255. 0. 0. 0. 0.
      1.83443878e+002 2.18571442e+002 2.46543365e+002 255. 255. 255.
      255. 255. 255. 255. 255. 255. 255. 1.59375000e+002 0. 0.
      5.85458069e+001 2.27028091e+002 255. 255. 255. 255. 255. 255. 0.
      0. 2.32232132e+002 255. 255. 255. 1.15140289e+002 1.95152912e+001
      0. 0. 4.55356941e+001 1.80191345e+002 255. 255. 255. 255. 255.
      1.59375000e+002 0. 0. 6.83034363e+001 255. 255. 255. 255. 255.
      255. 255. 0. 0. 9.95281219e+001 1.09285782e+002 1.75637989e+001 0.
      0. 0. 0. 0. 0. 1.50267899e+002 255. 255. 255. 255. 255.
      1.59375000e+002 0. 0. 2.92729206e+001 1.43112381e+002 255. 255.
      255. 255. 255. 255. 0. 0. 0. 0. 0. 0. 8.39158630e+001
      1.09285782e+002 3.31760178e+001 0. 0. 1.50267899e+002 255. 255.
      255. 255. 255. 2.00357178e+002 7.22067642e+001 0. 0.
      5.91965714e+001 255. 255. 255. 255. 255. 255. 255. 255. 255. 255.
      255. 255. 255. 255. 7.74106598e+001 0. 0. 1.07334236e+002
      2.22474533e+002 255. 255. 255. 255. 255. 1.68482346e+002 0. 0.
      5.91965714e+001 255. 255. 255. 255. 255. 255. 255. 255. 255. 255.
      255. 255. 255. 255. 1.02780472e+002 1.23596516e+001 0. 0.
      1.41160782e+002 255. 255. 255. 255. 255. 1.68482346e+002 0. 0.
      5.91965675e+001 255. 255. 255. 255. 255. 255. 255. 255. 255. 255.
      255. 255. 255. 255. 255. 8.65178909e+001 0. 0. 1.41160782e+002
      255. 255. 255. 255. 255. 1.68482346e+002 0. 0. 5.91965675e+001
      255. 255. 255. 255. 255. 255. 255. 255. 255. 255. 255. 255. 255.
      255. 255. 8.65178909e+001 0. 0. 1.41160782e+002 255. 255. 255.
      255. 255. 1.68482346e+002 0. 0. 5.91965675e+001 255. 255. 255.
      255. 255. 255. 255. 255. 255. 255. 255. 255. 255. 255. 255.
      8.65178909e+001 0. 0. 1.41160782e+002 255. 255. 255. 255. 255.
      1.68482346e+002 0. 0. 5.91965675e+001 255. 255. 255. 255. 255.
      255. 255. 255. 255. 255. 255. 255. 255. 255. 255. 8.65178909e+001
      0. 0. 1.41160782e+002 255. 255. 255. 255. 255. 1.68482346e+002 0.
      0. 5.91965714e+001 255. 255. 255. 255. 255. 255. 255. 255. 255.
      255. 255. 255. 255. 255. 255. 8.65178909e+001 0. 0.
      1.41160782e+002 255. 255. 255. 255. 255. 1.68482346e+002 0. 0.
      5.91965714e+001 255. 255. 255. 255. 255. 255. 255. 255. 255. 255.
