<?xml version="1.0"?>
<opencv_storage>
<my_svm type_id="opencv-ml-svm">
  <svm_type>C_SVC</svm_type>
  <kernel><type>RBF</type>
    <gamma>8.</gamma></kernel>
  <C>10.</C>
  <term_criteria><epsilon>9.9999999747524271e-007</epsilon>
    <iterations>2147483647</iterations></term_criteria>
  <var_all>140</var_all>
  <var_count>140</var_count>
  <class_count>35</class_count>
  <class_labels type_id="opencv-matrix">
    <rows>1</rows>
    <cols>35</cols>
    <dt>i</dt>
    <data>
      0 1 2 3 4 5 6 7 8 9 10 11 12 13 14 15 16 17 18 19 20 21 22 23 24
      25 26 27 28 29 30 31 32 33 34</data></class_labels>
  <sv_total>244</sv_total>
  <support_vectors>
    <_>
      132. 130. 175. 54. 40. 46. 225. 121. 131. 131. 130. 239. 45. 94.
      133. 122. 57. 68. 122. 129. 151. 45. 66. 131. 135. 132. 119. 54.
      238. 125. 193. 44. 124. 133. 132. 136. 133. 75. 44. 110. 47. 43.
      129. 134. 136. 138. 133. 116. 45. 140. 48. 30. 134. 135. 137. 138.
      134. 134. 50. 192. 47. 46. 131. 138. 134. 137. 133. 131. 53. 38.
      48. 43. 135. 137. 135. 139. 136. 133. 57. 33. 51. 34. 132. 138.
      137. 139. 132. 132. 45. 41. 195. 50. 127. 140. 139. 138. 134. 133.
      47. 192. 144. 47. 106. 137. 139. 141. 135. 110. 48. 147. 131. 62.
      53. 134. 138. 140. 138. 51. 56. 125. 134. 106. 57. 79. 131. 133.
      78. 49. 108. 136. 140. 139. 125. 77. 49. 49. 54. 187. 139. 136.</_>
    <_>
      145. 142. 136. 171. 161. 42. 180. 131. 146. 145. 145. 144. 47. 71.
      152. 131. 80. 51. 135. 146. 138. 110. 60. 147. 147. 145. 143. 61.
      108. 138. 109. 49. 97. 143. 146. 147. 148. 106. 49. 209. 241. 55.
      134. 146. 146. 148. 146. 134. 42. 148. 60. 50. 145. 145. 146. 147.
      145. 142. 50. 64. 65. 58. 147. 147. 146. 150. 149. 146. 60. 72.
      61. 56. 147. 146. 148. 147. 150. 147. 63. 72. 59. 55. 144. 147.
      148. 147. 150. 143. 53. 71. 241. 48. 137. 148. 150. 147. 147. 147.
      43. 239. 107. 46. 105. 147. 147. 147. 146. 117. 50. 210. 140. 114.
      62. 138. 147. 148. 147. 59. 115. 150. 147. 142. 50. 85. 139. 139.
      82. 54. 135. 149. 146. 145. 153. 140. 54. 53. 144. 160. 146. 150.</_>
    <_>
      152. 149. 164. 175. 43. 48. 174. 163. 149. 150. 149. 151. 56. 67.
      155. 164. 83. 57. 141. 146. 153. 114. 45. 150. 152. 149. 159. 63.
      116. 134. 132. 57. 97. 149. 151. 151. 148. 114. 56. 213. 244. 52.
      145. 150. 150. 151. 147. 145. 55. 240. 185. 44. 154. 151. 150.
      149. 151. 157. 50. 71. 77. 36. 152. 153. 151. 152. 151. 151. 60.
      74. 73. 39. 157. 154. 154. 153. 150. 151. 55. 74. 184. 44. 151.
      153. 152. 152. 153. 156. 56. 66. 243. 56. 149. 154. 153. 153. 151.
      153. 55. 242. 124. 56. 104. 151. 152. 153. 152. 110. 56. 217. 158.
      122. 50. 145. 152. 151. 160. 52. 119. 153. 156. 154. 61. 73. 143.
      145. 76. 59. 153. 148. 153. 151. 167. 181. 48. 47. 176. 170. 153.
      152.</_>
    <_>
      146. 144. 127. 170. 36. 39. 172. 162. 142. 146. 143. 128. 48. 68.
      146. 136. 92. 51. 128. 146. 138. 71. 57. 138. 145. 146. 137. 65.
      80. 129. 115. 50. 99. 141. 145. 146. 145. 112. 45. 212. 248. 49.
      134. 141. 145. 146. 146. 131. 40. 247. 45. 53. 139. 144. 145. 145.
      146. 139. 48. 57. 38. 64. 143. 146. 146. 147. 146. 141. 51. 66.
      49. 61. 140. 143. 144. 146. 147. 142. 48. 65. 38. 59. 142. 144.
      143. 143. 144. 135. 32. 60. 247. 53. 138. 142. 143. 147. 145. 134.
      48. 248. 212. 49. 112. 142. 145. 143. 144. 93. 46. 115. 133. 71.
      72. 140. 143. 145. 140. 38. 87. 147. 142. 126. 47. 96. 137. 135.
      58. 50. 135. 144. 144. 138. 153. 90. 41. 36. 173. 133. 139. 146.</_>
    <_>
      144. 145. 169. 84. 44. 48. 89. 157. 142. 147. 145. 149. 45. 85.
      144. 138. 95. 46. 133. 143. 141. 69. 52. 145. 145. 145. 138. 63.
      78. 136. 215. 45. 117. 142. 142. 145. 141. 105. 44. 103. 248. 50.
      139. 144. 145. 146. 146. 124. 43. 248. 51. 49. 142. 146. 144. 145.
      146. 135. 35. 189. 46. 61. 142. 146. 145. 145. 145. 138. 41. 59.
      53. 60. 143. 145. 143. 144. 144. 138. 40. 61. 46. 60. 138. 145.
      144. 144. 145. 133. 38. 248. 247. 50. 133. 146. 146. 143. 144.
      120. 46. 249. 93. 49. 111. 145. 146. 146. 141. 74. 46. 139. 131.
      77. 70. 137. 143. 144. 140. 42. 232. 141. 144. 132. 51. 87. 139.
      138. 45. 95. 137. 144. 148. 143. 164. 172. 92. 171. 175. 146. 142.
      146.</_>
    <_>
      147. 138. 168. 174. 43. 43. 101. 162. 142. 145. 150. 141. 50. 89.
      146. 141. 86. 50. 135. 142. 135. 81. 63. 143. 146. 148. 139. 56.
      83. 142. 210. 47. 120. 146. 148. 147. 146. 99. 46. 109. 247. 50.
      144. 144. 146. 147. 146. 132. 45. 248. 52. 51. 144. 145. 148. 149.
      147. 137. 43. 62. 52. 62. 147. 146. 146. 147. 146. 141. 43. 63.
      48. 67. 146. 144. 146. 148. 146. 139. 46. 61. 54. 59. 141. 144.
      148. 148. 149. 133. 41. 247. 247. 47. 142. 143. 146. 147. 147.
      127. 47. 249. 212. 52. 121. 144. 148. 148. 144. 80. 50. 133. 133.
      78. 67. 141. 145. 147. 134. 45. 231. 145. 146. 135. 46. 91. 142.
      143. 47. 95. 144. 148. 148. 146. 122. 175. 40. 45. 170. 144. 147.
      144.</_>
    <_>
      145. 144. 153. 37. 44. 36. 52. 177. 144. 146. 148. 222. 43. 86.
      143. 137. 104. 50. 212. 144. 146. 109. 53. 146. 146. 144. 143. 74.
      46. 118. 208. 44. 114. 146. 144. 146. 146. 120. 45. 241. 240. 40.
      136. 145. 144. 145. 146. 139. 49. 68. 59. 49. 146. 143. 143. 144.
      146. 141. 63. 66. 61. 62. 146. 144. 144. 144. 146. 142. 69. 73.
      62. 66. 144. 145. 145. 145. 144. 144. 68. 72. 58. 58. 147. 144.
      145. 142. 144. 141. 45. 71. 147. 45. 139. 144. 143. 144. 147. 140.
      36. 239. 241. 45. 112. 144. 144. 142. 141. 107. 42. 208. 131. 47.
      68. 139. 141. 142. 150. 46. 113. 144. 141. 213. 45. 91. 143. 140.
      60. 43. 144. 144. 143. 141. 140. 135. 43. 37. 171. 159. 143. 145.</_>
    <_>
      148. 147. 147. 169. 49. 48. 171. 142. 148. 149. 148. 146. 47. 45.
      157. 141. 60. 95. 136. 148. 149. 67. 42. 149. 150. 149. 138. 41.
      78. 147. 147. 51. 93. 150. 147. 148. 148. 89. 48. 139. 250. 49.
      150. 149. 149. 149. 148. 138. 49. 249. 248. 49. 148. 149. 152.
      150. 148. 145. 46. 248. 47. 42. 150. 148. 149. 149. 148. 145. 34.
      247. 49. 42. 148. 149. 148. 149. 150. 147. 35. 247. 248. 48. 145.
      148. 149. 149. 151. 147. 45. 248. 249. 53. 143. 146. 147. 151.
      149. 144. 48. 250. 136. 50. 97. 146. 150. 148. 148. 86. 50. 144.
      145. 67. 53. 141. 148. 149. 147. 50. 77. 147. 146. 125. 50. 75.
      143. 156. 62. 46. 149. 149. 147. 145. 138. 165. 38. 37. 161. 144.
      148. 147.</_>
    <_>
      151. 148. 146. 61. 82. 70. 65. 155. 150. 154. 149. 142. 47. 147.
      151. 148. 143. 53. 152. 152. 145. 47. 142. 151. 151. 149. 149. 95.
      51. 148. 113. 44. 148. 152. 152. 151. 150. 144. 46. 119. 32. 48.
      150. 153. 151. 150. 149. 145. 32. 52. 37. 87. 152. 152. 152. 150.
      150. 149. 80. 43. 40. 105. 151. 152. 151. 151. 150. 148. 102. 46.
      41. 98. 151. 152. 152. 150. 149. 149. 103. 47. 46. 77. 150. 152.
      152. 151. 150. 148. 82. 49. 36. 44. 149. 151. 152. 152. 150. 150.
      34. 50. 119. 52. 148. 153. 150. 151. 152. 146. 45. 106. 142. 42.
      115. 151. 152. 150. 148. 132. 48. 150. 148. 136. 49. 154. 150.
      149. 146. 45. 144. 154. 154. 150. 148. 57. 70. 71. 70. 162. 151.
      152.</_>
    <_>
      147. 145. 134. 141. 75. 75. 124. 140. 145. 147. 143. 131. 79. 131.
      142. 145. 147. 83. 152. 141. 142. 79. 97. 148. 145. 145. 143. 133.
      76. 134. 176. 83. 114. 143. 144. 145. 146. 152. 81. 165. 179. 77.
      130. 142. 146. 144. 145. 141. 75. 182. 86. 73. 141. 144. 143. 142.
      140. 153. 72. 77. 182. 73. 149. 143. 145. 144. 144. 152. 70. 74.
      66. 74. 151. 142. 143. 143. 143. 144. 75. 74. 182. 77. 134. 142.
      143. 145. 144. 144. 73. 76. 178. 76. 134. 144. 142. 142. 143. 149.
      75. 184. 172. 81. 125. 141. 144. 144. 143. 152. 81. 184. 142. 80.
      94. 143. 143. 143. 142. 130. 84. 133. 140. 159. 80. 131. 139. 144.
      141. 76. 151. 144. 143. 142. 136. 121. 80. 83. 127. 128. 143. 145.</_>
    <_>
      144. 145. 127. 219. 106. 106. 116. 130. 144. 145. 140. 121. 92.
      127. 141. 142. 132. 97. 119. 142. 125. 99. 107. 141. 144. 144.
      143. 120. 91. 131. 199. 85. 122. 140. 144. 145. 144. 128. 86. 157.
      180. 86. 130. 140. 143. 142. 142. 131. 86. 182. 138. 88. 133. 140.
      143. 144. 143. 134. 88. 156. 151. 89. 136. 142. 142. 144. 142.
      131. 86. 89. 151. 87. 138. 142. 142. 144. 143. 129. 86. 153. 85.
      87. 131. 142. 142. 144. 144. 134. 89. 156. 151. 91. 133. 140. 140.
      143. 145. 131. 85. 195. 196. 88. 127. 140. 142. 142. 143. 125. 86.
      156. 123. 91. 113. 139. 142. 141. 140. 114. 125. 131. 137. 227.
      95. 131. 140. 141. 130. 98. 118. 142. 143. 137. 119. 115. 111.
      109. 114. 126. 142. 142.</_>
    <_>
      144. 139. 120. 110. 103. 102. 139. 131. 145. 148. 137. 166. 100.
      134. 147. 143. 133. 97. 124. 145. 118. 88. 122. 143. 143. 144.
      147. 119. 111. 135. 188. 86. 127. 142. 144. 145. 144. 125. 86.
      118. 163. 89. 131. 143. 146. 144. 144. 135. 91. 188. 90. 90. 132.
      142. 146. 144. 147. 134. 93. 166. 90. 93. 136. 144. 147. 145. 146.
      135. 94. 164. 165. 92. 136. 144. 146. 144. 146. 137. 94. 165. 163.
      90. 131. 145. 146. 147. 144. 137. 97. 106. 187. 85. 129. 144. 146.
      145. 147. 135. 94. 188. 108. 86. 122. 144. 145. 144. 146. 130. 91.
      192. 128. 114. 109. 140. 144. 145. 140. 122. 86. 127. 143. 120.
      99. 124. 141. 142. 130. 100. 190. 145. 145. 144. 130. 245. 105.
      109. 114. 129. 142. 147.</_>
    <_>
      255. 255. 254. 254. 96. 95. 254. 254. 254. 254. 254. 255. 96. 210.
      253. 253. 210. 83. 254. 254. 253. 138. 159. 255. 254. 254. 252.
      120. 137. 254. 254. 1. 245. 255. 253. 255. 254. 244. 1. 255. 127.
      98. 254. 255. 255. 255. 254. 254. 92. 127. 128. 116. 254. 255.
      255. 255. 255. 253. 116. 129. 127. 128. 254. 255. 255. 255. 255.
      251. 127. 127. 127. 128. 254. 255. 255. 255. 255. 251. 127. 127.
      128. 116. 254. 255. 255. 255. 255. 253. 116. 129. 127. 98. 254.
      255. 255. 255. 254. 254. 92. 127. 255. 1. 246. 255. 254. 255. 254.
      246. 1. 254. 252. 137. 162. 255. 253. 255. 255. 117. 137. 252.
      254. 254. 95. 210. 253. 253. 209. 83. 254. 255. 255. 255. 254.
      254. 95. 95. 254. 253. 254. 254.</_>
    <_>
      255. 253. 254. 255. 77. 75. 255. 255. 254. 254. 255. 254. 55. 240.
      255. 255. 239. 55. 254. 254. 254. 123. 223. 253. 255. 254. 255.
      210. 124. 253. 255. 1. 253. 254. 255. 253. 253. 255. 1. 255. 102.
      133. 254. 254. 254. 254. 253. 255. 133. 102. 103. 184. 255. 255.
      254. 255. 255. 255. 181. 102. 102. 204. 255. 255. 255. 255. 255.
      255. 204. 102. 103. 203. 254. 255. 254. 255. 255. 255. 204. 104.
      102. 183. 254. 252. 255. 254. 255. 255. 181. 102. 104. 132. 255.
      252. 255. 255. 255. 254. 132. 103. 253. 1. 251. 254. 255. 255.
      254. 252. 1. 255. 253. 124. 220. 254. 255. 254. 255. 209. 124.
      255. 254. 252. 55. 240. 253. 254. 239. 55. 254. 254. 255. 255.
      255. 255. 78. 76. 255. 255. 255. 255.</_>
    <_>
      124. 124. 121. 109. 147. 44. 128. 127. 128. 127. 233. 152. 43. 39.
      37. 43. 127. 128. 131. 129. 126. 120. 119. 111. 36. 42. 126. 124.
      131. 126. 129. 126. 128. 124. 32. 43. 125. 129. 128. 128. 127.
      127. 130. 121. 30. 45. 128. 127. 129. 129. 126. 128. 131. 123. 88.
      44. 133. 127. 133. 127. 128. 126. 129. 124. 177. 40. 126. 124.
      132. 127. 129. 130. 130. 127. 177. 41. 125. 127. 132. 131. 126.
      130. 129. 125. 179. 39. 128. 128. 132. 129. 127. 129. 127. 122.
      177. 42. 121. 129. 132. 130. 128. 129. 133. 126. 177. 38. 128.
      128. 131. 131. 129. 131. 129. 126. 177. 42. 126. 129. 134. 129.
      126. 124. 122. 101. 180. 36. 81. 126. 126. 127. 142. 47. 52. 48.
      48. 51. 49. 48. 47. 48.</_>
    <_>
      146. 143. 137. 137. 171. 37. 168. 143. 145. 146. 225. 215. 37. 50.
      45. 101. 129. 143. 144. 145. 153. 142. 141. 115. 96. 99. 131. 142.
      140. 147. 144. 143. 142. 134. 92. 102. 132. 143. 141. 144. 143.
      144. 144. 133. 92. 106. 136. 141. 143. 145. 141. 141. 144. 132.
      94. 104. 139. 141. 141. 146. 144. 142. 143. 132. 89. 103. 143.
      140. 142. 142. 140. 137. 142. 131. 94. 103. 140. 140. 142. 144.
      144. 143. 144. 133. 92. 107. 136. 145. 142. 144. 143. 141. 141.
      133. 96. 101. 138. 140. 144. 146. 142. 142. 143. 127. 96. 99. 139.
      145. 142. 146. 141. 141. 144. 129. 92. 105. 141. 142. 144. 144.
      142. 137. 139. 131. 53. 119. 107. 139. 144. 144. 103. 37. 38. 172.
      172. 170. 170. 170. 42. 102.</_>
    <_>
      156. 154. 155. 155. 188. 197. 148. 155. 156. 155. 206. 217. 219.
      58. 57. 106. 147. 154. 157. 156. 170. 167. 171. 113. 104. 103.
      151. 157. 157. 158. 155. 157. 160. 152. 111. 106. 148. 154. 158.
      160. 157. 159. 157. 155. 105. 105. 146. 155. 158. 159. 155. 158.
      156. 149. 105. 103. 151. 153. 158. 159. 155. 157. 157. 152. 107.
      105. 149. 154. 158. 158. 157. 156. 156. 152. 111. 108. 147. 154.
      158. 159. 156. 157. 158. 154. 108. 107. 145. 155. 157. 157. 155.
      157. 155. 152. 105. 106. 148. 156. 157. 159. 156. 158. 158. 156.
      106. 107. 147. 155. 157. 159. 157. 157. 156. 154. 213. 104. 141.
      159. 157. 157. 152. 154. 158. 135. 110. 68. 146. 162. 158. 155.
      232. 44. 174. 176. 175. 172. 174. 175. 42. 84.</_>
    <_>
      144. 144. 142. 136. 172. 91. 140. 147. 149. 148. 226. 39. 40. 55.
      51. 99. 141. 147. 149. 149. 146. 145. 143. 124. 98. 105. 140. 147.
      147. 147. 147. 148. 148. 137. 91. 102. 141. 147. 149. 149. 148.
      147. 148. 140. 92. 102. 143. 145. 150. 149. 148. 147. 148. 137.
      92. 102. 141. 149. 148. 149. 145. 149. 147. 144. 94. 102. 139.
      146. 149. 148. 147. 149. 147. 137. 96. 103. 143. 145. 147. 149.
      148. 147. 148. 134. 92. 103. 140. 147. 149. 148. 147. 147. 148.
      133. 98. 99. 145. 147. 148. 149. 147. 149. 147. 137. 97. 100. 143.
      147. 150. 148. 149. 148. 147. 134. 95. 214. 139. 149. 147. 150.
      145. 143. 141. 194. 46. 61. 131. 133. 148. 147. 201. 173. 175.
      174. 174. 171. 173. 173. 173. 183.</_>
    <_>
      153. 152. 149. 148. 182. 138. 182. 152. 153. 152. 203. 216. 219.
      53. 49. 105. 148. 152. 152. 155. 156. 165. 159. 130. 103. 104.
      152. 153. 154. 154. 154. 152. 151. 153. 89. 105. 149. 154. 152.
      152. 155. 154. 152. 153. 85. 102. 149. 151. 153. 154. 152. 153.
      151. 154. 93. 103. 150. 154. 154. 154. 154. 154. 152. 153. 90.
      103. 150. 152. 154. 154. 153. 155. 153. 152. 89. 103. 149. 152.
      154. 154. 154. 154. 157. 153. 87. 103. 152. 153. 152. 154. 152.
      153. 153. 153. 90. 101. 150. 151. 153. 154. 154. 153. 152. 154.
      90. 102. 152. 154. 152. 154. 156. 153. 153. 153. 217. 105. 152.
      151. 155. 156. 153. 150. 155. 149. 99. 58. 144. 155. 152. 152.
      231. 39. 138. 175. 175. 176. 175. 170. 75. 85.</_>
    <_>
      147. 147. 145. 136. 110. 38. 129. 147. 150. 148. 141. 74. 116.
      118. 38. 38. 124. 147. 144. 145. 145. 145. 138. 136. 87. 39. 119.
      140. 142. 143. 135. 136. 138. 135. 84. 38. 123. 138. 139. 140.
      134. 133. 132. 130. 245. 37. 119. 136. 136. 135. 130. 129. 128.
      127. 245. 40. 118. 133. 133. 135. 129. 128. 127. 125. 244. 34.
      121. 132. 133. 132. 127. 127. 127. 119. 244. 30. 119. 131. 130.
      132. 127. 127. 127. 119. 244. 32. 119. 130. 130. 126. 131. 125.
      127. 121. 244. 229. 115. 130. 128. 126. 126. 124. 121. 116. 244.
      244. 120. 130. 127. 130. 128. 124. 121. 119. 38. 244. 121. 126.
      129. 128. 125. 127. 126. 111. 33. 243. 114. 126. 130. 128. 216.
      209. 25. 32. 33. 32. 26. 41. 210. 72.</_>
    <_>
      146. 143. 141. 138. 110. 60. 146. 146. 144. 145. 247. 52. 40. 45.
      37. 58. 140. 147. 146. 146. 140. 139. 135. 128. 220. 56. 143. 146.
      147. 147. 143. 143. 143. 135. 219. 52. 147. 144. 146. 146. 143.
      140. 142. 134. 220. 60. 150. 141. 145. 146. 144. 140. 138. 132.
      221. 45. 149. 142. 146. 144. 146. 143. 142. 131. 221. 52. 147.
      141. 144. 146. 142. 141. 142. 134. 219. 54. 149. 145. 146. 147.
      143. 141. 140. 136. 102. 60. 149. 143. 143. 146. 143. 140. 139.
      137. 99. 54. 153. 140. 146. 144. 143. 143. 141. 136. 190. 58. 148.
      138. 144. 144. 142. 139. 135. 136. 108. 54. 151. 139. 144. 142.
      142. 142. 138. 134. 96. 51. 143. 139. 142. 142. 131. 189. 189. 43.
      40. 43. 43. 44. 51. 73.</_>
    <_>
      141. 143. 144. 134. 149. 90. 131. 143. 145. 144. 175. 161. 135.
      162. 89. 177. 131. 141. 145. 143. 144. 145. 146. 128. 178. 178.
      129. 142. 143. 142. 138. 140. 143. 131. 177. 131. 129. 144. 143.
      143. 140. 141. 140. 132. 176. 178. 127. 141. 142. 144. 143. 142.
      143. 134. 178. 178. 128. 141. 141. 141. 141. 144. 141. 136. 178.
      132. 127. 141. 140. 142. 144. 143. 142. 131. 179. 85. 126. 140.
      142. 142. 141. 141. 140. 140. 177. 178. 127. 139. 141. 144. 142.
      142. 139. 136. 178. 86. 128. 142. 142. 143. 142. 143. 143. 136.
      179. 84. 122. 138. 143. 144. 142. 143. 138. 139. 178. 83. 122.
      138. 142. 141. 144. 141. 142. 135. 170. 83. 117. 144. 143. 142.
      255. 76. 163. 161. 162. 165. 160. 71. 164. 169.</_>
    <_>
      141. 138. 140. 135. 120. 114. 135. 143. 145. 145. 235. 91. 113.
      121. 192. 95. 126. 143. 145. 146. 141. 142. 141. 133. 157. 95.
      126. 143. 147. 145. 142. 143. 145. 134. 198. 92. 125. 141. 145.
      143. 143. 142. 143. 131. 199. 88. 122. 141. 145. 145. 144. 144.
      140. 132. 198. 92. 122. 143. 142. 144. 143. 142. 141. 131. 198.
      92. 124. 139. 141. 145. 143. 144. 142. 130. 199. 91. 122. 143.
      144. 144. 142. 143. 142. 129. 198. 92. 125. 142. 143. 144. 145.
      144. 142. 129. 199. 197. 123. 140. 143. 144. 144. 143. 143. 131.
      199. 91. 124. 142. 144. 142. 145. 144. 141. 127. 198. 94. 124.
      141. 142. 142. 144. 143. 139. 125. 152. 92. 122. 137. 139. 141.
      148. 100. 140. 134. 134. 141. 140. 98. 100. 146.</_>
    <_>
      147. 144. 140. 139. 124. 100. 133. 147. 148. 148. 249. 249. 91.
      87. 92. 102. 137. 147. 147. 149. 139. 138. 141. 130. 240. 102.
      134. 144. 148. 147. 146. 147. 147. 137. 103. 99. 137. 144. 145.
      146. 146. 144. 144. 132. 106. 102. 132. 145. 146. 145. 146. 145.
      146. 131. 109. 104. 131. 145. 146. 146. 147. 145. 143. 132. 109.
      99. 130. 144. 145. 146. 146. 146. 144. 135. 108. 101. 130. 142.
      146. 147. 146. 145. 145. 133. 105. 99. 128. 143. 146. 147. 146.
      147. 144. 128. 103. 103. 133. 142. 143. 144. 146. 144. 141. 133.
      240. 103. 129. 144. 147. 147. 145. 144. 143. 129. 108. 104. 131.
      143. 144. 146. 145. 144. 142. 127. 107. 106. 128. 143. 144. 145.
      199. 132. 202. 144. 144. 145. 128. 204. 97. 200.</_>
    <_>
      143. 141. 136. 128. 164. 105. 138. 144. 144. 145. 126. 82. 156.
      225. 93. 240. 142. 143. 146. 145. 142. 145. 141. 124. 107. 240.
      140. 143. 144. 144. 146. 145. 146. 123. 108. 240. 138. 147. 144.
      145. 147. 144. 143. 123. 107. 240. 138. 146. 145. 145. 146. 146.
      145. 120. 91. 241. 135. 142. 144. 144. 145. 145. 146. 124. 103.
      240. 137. 144. 142. 143. 146. 145. 144. 125. 105. 240. 138. 142.
      144. 144. 148. 144. 141. 124. 95. 240. 136. 144. 143. 141. 148.
      146. 145. 130. 105. 103. 134. 142. 141. 144. 147. 145. 144. 124.
      108. 240. 135. 142. 142. 143. 147. 144. 141. 121. 107. 240. 133.
      142. 144. 144. 142. 143. 139. 115. 102. 215. 127. 138. 143. 143.
      115. 92. 190. 133. 154. 153. 132. 188. 190. 165.</_>
    <_>
      148. 146. 148. 136. 192. 86. 134. 143. 142. 145. 130. 110. 75.
      223. 103. 102. 137. 144. 143. 143. 147. 146. 142. 130. 102. 105.
      129. 141. 141. 143. 147. 146. 144. 133. 101. 101. 135. 141. 144.
      141. 146. 146. 144. 131. 107. 99. 128. 141. 140. 142. 143. 144.
      143. 135. 106. 97. 131. 141. 143. 142. 144. 143. 143. 130. 104.
      101. 128. 143. 142. 143. 146. 146. 144. 134. 104. 100. 131. 141.
      141. 142. 144. 143. 143. 134. 104. 102. 129. 140. 142. 143. 143.
      142. 141. 133. 106. 104. 130. 141. 142. 143. 144. 143. 143. 139.
      240. 101. 129. 141. 142. 143. 144. 144. 141. 134. 240. 97. 126.
      144. 143. 144. 142. 142. 140. 135. 240. 101. 122. 136. 138. 141.
      240. 85. 185. 80. 147. 148. 145. 79. 185. 97.</_>
    <_>
      253. 255. 254. 250. 226. 227. 255. 253. 255. 255. 255. 139. 64.
      36. 0. 217. 254. 254. 255. 255. 255. 254. 253. 255. 164. 217. 254.
      253. 255. 255. 255. 253. 254. 254. 217. 217. 254. 255. 255. 255.
      255. 255. 255. 255. 217. 217. 254. 255. 255. 255. 255. 255. 255.
      255. 217. 217. 254. 255. 255. 255. 255. 255. 255. 255. 217. 217.
      254. 255. 255. 255. 255. 255. 255. 255. 217. 217. 254. 255. 255.
      255. 255. 255. 255. 255. 217. 217. 254. 255. 255. 255. 255. 255.
      255. 255. 217. 217. 254. 255. 255. 255. 255. 253. 254. 254. 217.
      217. 255. 254. 255. 255. 254. 253. 254. 255. 217. 217. 253. 255.
      255. 255. 255. 254. 254. 253. 54. 55. 255. 252. 255. 255. 189. 64.
      65. 150. 255. 255. 150. 64. 66. 188.</_>
    <_>
      255. 253. 254. 254. 254. 176. 254. 253. 255. 255. 168. 82. 169.
      214. 0. 128. 254. 254. 255. 255. 255. 254. 254. 254. 248. 127.
      255. 255. 255. 255. 255. 254. 255. 255. 255. 127. 255. 255. 255.
      255. 255. 255. 254. 253. 255. 127. 255. 255. 255. 255. 255. 255.
      255. 255. 255. 127. 255. 255. 255. 255. 255. 255. 255. 255. 255.
      127. 255. 255. 255. 255. 255. 255. 255. 255. 255. 127. 255. 255.
      255. 255. 255. 255. 255. 255. 255. 127. 255. 255. 255. 255. 255.
      255. 255. 255. 255. 127. 255. 255. 255. 255. 254. 255. 255. 254.
      255. 128. 255. 255. 254. 255. 255. 254. 255. 254. 253. 127. 254.
      254. 254. 254. 255. 255. 254. 254. 210. 87. 249. 253. 255. 255.
      255. 28. 27. 141. 255. 255. 255. 27. 27. 141.</_>
    <_>
      123. 113. 213. 40. 46. 38. 39. 213. 125. 128. 117. 40. 206. 119.
      122. 125. 104. 38. 42. 129. 139. 38. 121. 127. 133. 128. 129. 138.
      34. 176. 176. 37. 202. 128. 134. 131. 129. 114. 38. 145. 169. 43.
      203. 130. 129. 130. 129. 133. 42. 153. 125. 127. 123. 126. 126.
      127. 119. 32. 42. 118. 129. 128. 129. 128. 126. 122. 136. 43. 100.
      131. 130. 127. 133. 130. 118. 78. 46. 100. 128. 127. 129. 130.
      129. 109. 38. 58. 118. 128. 130. 130. 129. 129. 114. 45. 229. 123.
      130. 130. 130. 131. 127. 114. 44. 182. 127. 127. 133. 132. 118.
      43. 117. 39. 137. 127. 129. 132. 133. 130. 247. 181. 178. 245. 81.
      85. 82. 87. 88. 255. 38. 169. 50. 41. 46. 47. 47. 46. 46. 44. 51.
      130.</_>
    <_>
      149. 147. 140. 177. 42. 43. 98. 180. 141. 148. 147. 133. 51. 165.
      152. 148. 112. 54. 90. 141. 144. 79. 201. 150. 147. 150. 146. 148.
      50. 112. 137. 50. 130. 142. 150. 149. 147. 130. 52. 250. 141. 78.
      78. 145. 151. 151. 147. 152. 52. 111. 150. 145. 149. 148. 147.
      149. 150. 51. 78. 154. 147. 149. 149. 150. 148. 146. 84. 48. 181.
      147. 148. 147. 149. 147. 145. 115. 49. 200. 149. 148. 149. 151.
      149. 140. 134. 55. 140. 150. 147. 149. 147. 147. 147. 118. 137.
      154. 148. 147. 147. 154. 148. 146. 90. 171. 145. 152. 149. 148.
      158. 67. 145. 197. 191. 147. 148. 146. 145. 149. 185. 221. 242.
      56. 86. 190. 248. 248. 247. 61. 82. 158. 53. 39. 146. 182. 183.
      183. 182. 181. 179. 149.</_>
    <_>
      146. 141. 165. 178. 80. 113. 39. 180. 169. 145. 143. 237. 54. 173.
      140. 139. 134. 199. 52. 130. 135. 76. 204. 144. 143. 146. 148.
      124. 47. 248. 139. 77. 55. 136. 143. 145. 145. 134. 35. 248. 139.
      119. 86. 141. 145. 147. 147. 165. 45. 249. 147. 146. 144. 144.
      145. 146. 139. 204. 52. 142. 146. 145. 146. 148. 148. 136. 176.
      49. 162. 144. 146. 144. 148. 147. 137. 113. 51. 192. 143. 146.
      144. 144. 148. 133. 127. 62. 131. 145. 146. 147. 147. 147. 136.
      57. 145. 146. 146. 147. 142. 145. 147. 136. 94. 176. 144. 146.
      147. 151. 154. 59. 138. 67. 142. 144. 146. 147. 146. 141. 185.
      218. 240. 45. 81. 191. 247. 247. 246. 53. 48. 142. 58. 48. 50. 49.
      47. 48. 49. 52. 90. 143.</_>
    <_>
      156. 156. 183. 140. 48. 51. 142. 176. 145. 154. 149. 110. 154.
      157. 154. 150. 129. 65. 109. 148. 118. 56. 203. 156. 155. 152.
      150. 195. 58. 135. 246. 57. 149. 154. 157. 155. 152. 208. 56. 245.
      144. 101. 158. 154. 155. 157. 154. 188. 58. 130. 156. 154. 155.
      158. 155. 157. 147. 65. 114. 153. 157. 157. 156. 157. 156. 162.
      115. 52. 147. 154. 157. 156. 155. 156. 156. 74. 99. 150. 156. 156.
      158. 158. 154. 149. 59. 229. 152. 157. 158. 156. 156. 156. 197.
      62. 209. 156. 157. 157. 156. 225. 158. 196. 55. 184. 153. 157.
      159. 156. 178. 154. 158. 101. 196. 155. 156. 157. 155. 157. 169.
      223. 242. 61. 245. 244. 244. 244. 110. 63. 111. 160. 71. 179. 184.
      179. 181. 179. 181. 180. 200. 153.</_>
    <_>
      148. 148. 189. 173. 124. 124. 48. 170. 138. 146. 151. 103. 60.
      153. 144. 140. 122. 69. 101. 140. 128. 47. 199. 147. 149. 147.
      150. 194. 47. 108. 244. 47. 158. 150. 151. 147. 148. 128. 46. 244.
      131. 44. 139. 146. 146. 147. 146. 192. 46. 106. 150. 146. 146.
      148. 146. 146. 145. 44. 105. 151. 148. 147. 148. 149. 147. 158.
      102. 56. 146. 150. 150. 147. 146. 148. 152. 65. 32. 149. 148. 147.
      146. 146. 145. 179. 46. 170. 147. 146. 148. 148. 147. 145. 172.
      47. 186. 147. 148. 147. 147. 202. 148. 171. 50. 204. 146. 150.
      146. 147. 175. 110. 152. 106. 203. 142. 146. 145. 144. 153. 41.
      241. 89. 61. 234. 234. 233. 232. 229. 48. 100. 153. 62. 173. 171.
      169. 172. 171. 168. 166. 194. 148.</_>
    <_>
      149. 151. 135. 76. 147. 216. 52. 229. 142. 148. 143. 174. 174.
      142. 146. 141. 146. 120. 39. 137. 135. 34. 126. 144. 143. 141.
      143. 141. 36. 115. 118. 35. 137. 141. 143. 139. 143. 136. 42. 247.
      138. 79. 147. 140. 139. 136. 135. 131. 32. 88. 135. 132. 136. 137.
      135. 135. 134. 130. 34. 134. 131. 132. 134. 133. 133. 133. 107.
      37. 128. 130. 132. 129. 131. 131. 130. 170. 35. 130. 132. 132.
      130. 127. 129. 133. 185. 134. 130. 128. 132. 131. 130. 126. 126.
      139. 171. 126. 128. 129. 131. 129. 129. 129. 84. 118. 126. 128.
      128. 126. 128. 39. 130. 88. 127. 128. 127. 127. 126. 132. 122.
      249. 178. 116. 125. 126. 125. 125. 125. 115. 32. 126. 38. 32. 34.
      32. 31. 27. 30. 33. 67. 129.</_>
    <_>
      148. 136. 199. 56. 170. 160. 45. 182. 146. 147. 130. 64. 149. 137.
      140. 146. 142. 191. 57. 142. 83. 49. 141. 145. 147. 146. 144. 125.
      39. 145. 229. 44. 134. 143. 145. 143. 144. 124. 41. 116. 122. 138.
      139. 145. 147. 146. 145. 105. 45. 148. 140. 143. 145. 146. 147.
      145. 140. 44. 63. 142. 145. 143. 144. 143. 143. 137. 229. 59. 147.
      144. 146. 142. 145. 148. 136. 167. 67. 143. 146. 149. 145. 144.
      145. 133. 96. 171. 141. 146. 147. 145. 144. 145. 132. 59. 127.
      143. 147. 149. 148. 148. 143. 134. 99. 143. 143. 146. 147. 147.
      142. 63. 132. 153. 141. 145. 146. 147. 145. 145. 107. 123. 122.
      125. 141. 146. 143. 145. 144. 115. 55. 149. 39. 45. 43. 44. 44.
      46. 45. 39. 70. 143.</_>
    <_>
      146. 141. 198. 147. 68. 150. 190. 136. 141. 142. 139. 104. 148.
      140. 146. 141. 164. 84. 117. 140. 161. 131. 140. 144. 141. 143.
      133. 170. 92. 126. 207. 83. 178. 141. 141. 142. 142. 182. 84. 157.
      167. 81. 175. 137. 142. 145. 140. 106. 82. 152. 143. 148. 140.
      143. 143. 140. 137. 178. 87. 161. 144. 143. 143. 143. 141. 142.
      125. 86. 241. 134. 143. 142. 142. 143. 141. 136. 105. 172. 129.
      143. 144. 143. 143. 145. 137. 194. 226. 131. 140. 143. 146. 146.
      142. 137. 225. 230. 137. 140. 141. 142. 146. 145. 138. 203. 197.
      136. 140. 143. 139. 218. 144. 136. 173. 204. 135. 140. 138. 139.
      137. 191. 138. 162. 87. 156. 180. 181. 181. 181. 84. 160. 153. 82.
      77. 80. 78. 78. 80. 78. 79. 125.</_>
    <_>
      146. 137. 199. 95. 205. 206. 139. 142. 137. 140. 130. 102. 128.
      139. 145. 145. 125. 102. 184. 130. 180. 209. 139. 145. 143. 142.
      140. 112. 88. 181. 184. 92. 221. 141. 144. 142. 142. 124. 88. 181.
      197. 95. 222. 142. 144. 145. 144. 123. 90. 180. 142. 143. 144.
      145. 144. 144. 140. 112. 89. 176. 144. 143. 144. 144. 146. 143.
      133. 134. 91. 128. 145. 146. 145. 144. 143. 139. 198. 93. 135.
      140. 145. 144. 144. 143. 136. 228. 114. 129. 142. 144. 144. 146.
      142. 137. 164. 175. 138. 143. 143. 140. 143. 144. 137. 232. 248.
      139. 142. 143. 137. 255. 140. 133. 216. 119. 138. 142. 139. 140.
      129. 184. 133. 194. 215. 234. 234. 235. 235. 234. 114. 178. 160.
      86. 125. 138. 91. 91. 130. 90. 90. 121.</_>
    <_>
      145. 141. 213. 88. 200. 82. 143. 124. 143. 145. 132. 102. 156.
      142. 139. 142. 117. 92. 241. 136. 179. 115. 138. 143. 144. 143.
      142. 144. 84. 165. 121. 89. 200. 143. 147. 144. 143. 119. 89. 114.
      205. 87. 209. 142. 145. 144. 141. 123. 87. 86. 144. 142. 143. 146.
      143. 145. 140. 127. 85. 158. 145. 148. 147. 148. 146. 143. 131.
      113. 92. 126. 145. 145. 146. 145. 144. 140. 186. 101. 125. 143.
      146. 146. 145. 144. 141. 234. 93. 130. 144. 144. 145. 146. 146.
      140. 221. 216. 139. 144. 145. 144. 146. 148. 142. 185. 235. 141.
      141. 145. 142. 217. 145. 139. 170. 146. 136. 141. 139. 141. 134.
      91. 139. 242. 214. 97. 250. 250. 250. 250. 250. 163. 100. 89. 90.
      88. 89. 91. 89. 90. 89. 170.</_>
    <_>
      143. 139. 177. 89. 192. 84. 148. 125. 140. 144. 132. 103. 134.
      146. 145. 144. 124. 85. 238. 137. 171. 118. 138. 142. 143. 147.
      141. 198. 84. 131. 96. 86. 184. 141. 143. 145. 143. 131. 86. 197.
      180. 87. 156. 143. 143. 145. 140. 150. 85. 197. 144. 144. 141.
      144. 142. 142. 140. 144. 84. 163. 143. 144. 145. 146. 145. 144.
      126. 89. 146. 130. 143. 146. 146. 145. 143. 135. 174. 118. 128.
      139. 145. 145. 143. 141. 136. 130. 177. 134. 141. 145. 144. 142.
      143. 136. 199. 212. 138. 142. 142. 142. 144. 144. 135. 182. 176.
      139. 143. 142. 137. 180. 142. 137. 152. 135. 135. 142. 143. 140.
      122. 196. 134. 236. 205. 113. 243. 242. 243. 243. 98. 167. 164.
      84. 81. 84. 86. 84. 84. 85. 88. 124.</_>
    <_>
      142. 134. 162. 75. 188. 74. 176. 130. 142. 144. 130. 88. 135. 136.
      138. 139. 190. 87. 119. 136. 172. 123. 141. 142. 143. 142. 138.
      212. 84. 138. 139. 85. 181. 142. 143. 141. 142. 148. 84. 177. 198.
      83. 165. 141. 140. 141. 142. 117. 81. 193. 143. 142. 144. 141.
      143. 142. 138. 148. 85. 162. 142. 142. 142. 143. 142. 137. 132.
      83. 141. 133. 142. 142. 142. 143. 137. 133. 170. 115. 127. 140.
      141. 142. 141. 141. 138. 234. 174. 133. 139. 141. 143. 144. 141.
      134. 198. 210. 135. 143. 141. 141. 145. 143. 137. 178. 176. 135.
      139. 141. 135. 179. 142. 135. 149. 129. 138. 139. 141. 139. 128.
      194. 133. 243. 85. 242. 242. 242. 242. 242. 92. 165. 159. 80. 82.
      77. 80. 78. 79. 82. 83. 171.</_>
    <_>
      145. 146. 189. 107. 67. 67. 144. 188. 141. 143. 143. 113. 172.
      144. 141. 145. 127. 88. 118. 144. 179. 249. 145. 144. 143. 145.
      149. 209. 82. 172. 194. 87. 181. 144. 143. 143. 143. 154. 85. 193.
      195. 83. 148. 142. 146. 144. 142. 156. 83. 194. 146. 153. 144.
      144. 144. 146. 145. 211. 83. 163. 146. 144. 145. 144. 144. 143.
      133. 79. 82. 139. 147. 145. 146. 146. 144. 139. 148. 85. 137. 145.
      145. 145. 145. 144. 143. 193. 141. 137. 145. 144. 146. 144. 144.
      140. 150. 179. 141. 144. 144. 143. 147. 143. 139. 178. 152. 138.
      144. 144. 142. 132. 145. 140. 123. 124. 137. 141. 141. 142. 126.
      167. 144. 217. 189. 165. 222. 222. 222. 222. 86. 132. 80. 81. 80.
      79. 81. 79. 80. 80. 78. 140.</_>
    <_>
      255. 255. 254. 255. 142. 55. 255. 254. 254. 255. 254. 255. 109.
      254. 252. 254. 254. 126. 196. 254. 254. 90. 191. 254. 251. 253.
      255. 255. 0. 255. 253. 89. 192. 255. 255. 254. 254. 254. 166. 254.
      253. 255. 255. 254. 252. 254. 253. 255. 3. 255. 254. 255. 254.
      255. 253. 254. 253. 214. 89. 250. 255. 255. 254. 254. 254. 255.
      245. 15. 254. 254. 255. 255. 255. 254. 255. 245. 30. 254. 254.
      255. 255. 254. 254. 254. 195. 145. 254. 253. 253. 254. 255. 252.
      253. 155. 234. 255. 255. 255. 253. 253. 254. 254. 162. 241. 255.
      253. 255. 254. 255. 208. 254. 252. 255. 254. 255. 254. 255. 253.
      247. 254. 254. 93. 213. 255. 254. 255. 254. 91. 58. 255. 254. 185.
      255. 255. 255. 255. 255. 255. 255. 255.</_>
    <_>
      255. 249. 253. 255. 99. 18. 189. 255. 253. 254. 255. 254. 227.
      254. 251. 255. 254. 215. 64. 254. 255. 14. 255. 253. 255. 255.
      255. 254. 156. 255. 254. 14. 158. 254. 255. 255. 255. 255. 242.
      254. 254. 253. 254. 254. 255. 255. 255. 253. 156. 255. 255. 255.
      255. 255. 255. 255. 255. 255. 12. 255. 255. 255. 255. 255. 254.
      254. 247. 2. 255. 253. 255. 255. 255. 255. 255. 230. 3. 250. 254.
      254. 254. 254. 254. 254. 255. 83. 254. 254. 254. 255. 255. 255.
      254. 165. 170. 253. 254. 254. 254. 253. 255. 255. 201. 213. 254.
      255. 255. 255. 255. 212. 254. 255. 255. 254. 254. 254. 253. 254.
      250. 254. 255. 175. 254. 254. 254. 255. 252. 211. 4. 254. 255.
      243. 255. 255. 255. 255. 255. 255. 255. 255.</_>
    <_>
      129. 111. 95. 47. 57. 41. 43. 208. 119. 128. 119. 39. 202. 130.
      125. 128. 110. 37. 40. 126. 164. 38. 201. 130. 131. 128. 129. 185.
      37. 187. 165. 45. 188. 128. 130. 132. 129. 155. 37. 174. 127. 129.
      129. 130. 128. 130. 126. 199. 38. 123. 129. 132. 127. 123. 119.
      114. 159. 42. 99. 128. 130. 131. 128. 42. 36. 41. 37. 124. 129.
      133. 132. 132. 131. 127. 129. 125. 133. 38. 132. 127. 133. 130.
      131. 132. 131. 132. 132. 151. 36. 166. 128. 127. 134. 130. 132.
      131. 132. 132. 52. 40. 37. 42. 168. 133. 135. 134. 133. 132. 48.
      40. 38. 40. 154. 133. 130. 134. 130. 116. 41. 180. 146. 37. 193.
      129. 133. 129. 117. 58. 42. 120. 134. 125. 45. 39. 42. 44. 42.
      248. 117. 134.</_>
    <_>
      145. 138. 181. 52. 125. 125. 52. 175. 129. 142. 141. 106. 65. 133.
      140. 139. 129. 154. 53. 119. 134. 43. 58. 128. 144. 145. 146. 120.
      50. 241. 138. 116. 138. 140. 144. 146. 143. 123. 45. 242. 145.
      145. 146. 145. 144. 142. 143. 177. 52. 119. 148. 144. 143. 139.
      139. 134. 182. 88. 188. 142. 145. 145. 145. 91. 71. 72. 51. 193.
      140. 144. 150. 146. 147. 145. 144. 140. 133. 141. 65. 126. 146.
      144. 145. 146. 146. 145. 147. 128. 49. 122. 140. 139. 142. 146.
      147. 145. 146. 139. 192. 71. 61. 52. 183. 145. 145. 149. 148. 142.
      194. 75. 241. 48. 182. 145. 146. 146. 145. 113. 48. 241. 124. 56.
      152. 123. 138. 137. 203. 49. 113. 143. 147. 134. 177. 139. 53. 61.
      178. 187. 146. 148.</_>
    <_>
      146. 150. 163. 169. 170. 36. 176. 173. 147. 150. 153. 136. 59.
      166. 148. 150. 124. 58. 56. 135. 135. 51. 102. 157. 150. 150. 150.
      127. 54. 237. 131. 42. 93. 148. 152. 150. 151. 149. 47. 235. 150.
      148. 151. 150. 152. 150. 150. 172. 50. 241. 149. 151. 149. 153.
      150. 154. 175. 52. 159. 149. 150. 150. 149. 38. 37. 53. 53. 178.
      148. 149. 150. 152. 148. 146. 150. 151. 128. 50. 149. 141. 148.
      150. 149. 151. 151. 149. 147. 132. 46. 128. 149. 152. 149. 150.
      150. 150. 148. 148. 160. 82. 82. 53. 230. 150. 151. 151. 150. 154.
      162. 85. 81. 47. 115. 150. 149. 148. 148. 138. 49. 79. 207. 51.
      220. 150. 149. 150. 147. 58. 40. 154. 146. 153. 174. 36. 119. 90.
      176. 173. 150. 149.</_>
    <_>
      148. 144. 187. 172. 41. 40. 61. 177. 135. 148. 144. 120. 106. 136.
      147. 145. 122. 102. 56. 128. 116. 50. 98. 142. 150. 148. 147. 119.
      45. 235. 124. 54. 110. 146. 149. 149. 147. 133. 46. 234. 150. 147.
      148. 149. 149. 150. 144. 223. 53. 175. 149. 147. 148. 147. 146.
      141. 183. 50. 165. 147. 149. 149. 169. 58. 68. 63. 52. 165. 146.
      149. 149. 149. 147. 146. 146. 142. 137. 93. 83. 136. 148. 149.
      149. 149. 149. 147. 147. 123. 45. 132. 147. 147. 146. 149. 148.
      149. 149. 146. 156. 81. 79. 49. 146. 147. 148. 147. 147. 146. 160.
      82. 81. 51. 114. 149. 147. 147. 147. 124. 48. 232. 235. 47. 218.
      144. 145. 141. 122. 60. 129. 151. 145. 155. 175. 47. 43. 43. 176.
      182. 153. 150.</_>
    <_>
      144. 142. 169. 159. 42. 33. 43. 172. 123. 141. 142. 180. 45. 117.
      143. 140. 124. 151. 54. 113. 134. 39. 44. 131. 142. 142. 141. 121.
      42. 241. 135. 42. 147. 138. 143. 145. 142. 131. 38. 240. 143. 141.
      143. 147. 144. 142. 142. 183. 45. 243. 144. 143. 143. 143. 138.
      146. 190. 48. 186. 143. 145. 143. 141. 110. 36. 39. 44. 195. 141.
      141. 143. 141. 142. 140. 143. 133. 172. 92. 168. 126. 143. 141.
      142. 141. 141. 142. 143. 115. 39. 193. 144. 144. 140. 142. 141.
      143. 141. 138. 190. 72. 48. 48. 190. 143. 140. 142. 141. 138. 192.
      71. 68. 40. 119. 138. 141. 139. 142. 124. 46. 214. 240. 42. 178.
      131. 133. 134. 113. 75. 90. 142. 134. 156. 108. 66. 127. 47. 38.
      172. 138. 141.</_>
    <_>
      149. 146. 185. 163. 41. 42. 167. 184. 150. 153. 153. 114. 78. 157.
      151. 149. 195. 55. 106. 149. 128. 54. 155. 150. 150. 150. 149.
      178. 51. 154. 144. 51. 148. 153. 150. 153. 153. 207. 56. 142. 152.
      152. 149. 151. 151. 150. 153. 159. 46. 154. 151. 148. 150. 150.
      151. 155. 140. 45. 168. 150. 151. 151. 160. 38. 45. 56. 49. 142.
      147. 152. 152. 151. 151. 149. 152. 149. 177. 54. 171. 152. 150.
      151. 151. 150. 151. 150. 150. 178. 53. 244. 151. 149. 150. 151.
      152. 151. 150. 153. 50. 60. 69. 50. 209. 150. 152. 153. 148. 154.
      51. 58. 74. 49. 208. 150. 151. 149. 153. 195. 56. 244. 243. 50.
      160. 153. 149. 154. 192. 52. 101. 146. 151. 135. 173. 52. 38. 52.
      163. 170. 147. 155.</_>
    <_>
      147. 146. 215. 173. 142. 144. 181. 47. 134. 144. 142. 93. 202.
      142. 145. 145. 142. 119. 37. 142. 136. 35. 92. 142. 143. 144. 141.
      137. 35. 249. 139. 178. 131. 139. 137. 135. 138. 138. 36. 248.
      139. 136. 138. 137. 136. 137. 134. 121. 36. 138. 134. 138. 134.
      134. 135. 132. 125. 42. 132. 134. 133. 135. 133. 63. 244. 62. 196.
      124. 130. 134. 130. 129. 135. 135. 130. 131. 130. 192. 76. 131.
      130. 134. 134. 131. 130. 133. 131. 131. 30. 247. 132. 129. 131.
      134. 132. 135. 134. 131. 221. 29. 38. 35. 125. 130. 129. 130. 131.
      130. 156. 32. 40. 32. 127. 133. 133. 132. 132. 130. 32. 115. 98.
      32. 117. 127. 131. 132. 128. 141. 45. 129. 131. 132. 243. 26. 239.
      144. 55. 115. 130. 129.</_>
    <_>
      148. 141. 171. 47. 203. 202. 39. 164. 145. 145. 134. 35. 162. 143.
      143. 145. 140. 144. 97. 143. 114. 46. 182. 141. 145. 144. 142.
      130. 46. 150. 129. 93. 140. 141. 144. 143. 142. 135. 46. 140. 144.
      148. 147. 146. 145. 147. 143. 159. 56. 144. 144. 144. 146. 143.
      142. 142. 111. 82. 146. 146. 144. 143. 141. 35. 35. 55. 145. 141.
      141. 148. 144. 145. 144. 142. 142. 146. 132. 43. 137. 144. 146.
      145. 145. 145. 144. 144. 145. 134. 30. 103. 146. 147. 147. 147.
      144. 145. 145. 145. 186. 53. 205. 91. 146. 146. 147. 145. 145.
      147. 183. 56. 38. 48. 152. 146. 145. 142. 140. 135. 33. 240. 120.
      47. 147. 144. 142. 142. 136. 144. 62. 138. 140. 122. 44. 185. 154.
      203. 42. 124. 144. 142.</_>
    <_>
      144. 141. 170. 145. 152. 145. 196. 132. 142. 145. 140. 241. 148.
      141. 144. 141. 139. 88. 229. 141. 127. 87. 84. 129. 142. 143. 136.
      171. 83. 118. 130. 89. 89. 126. 141. 142. 133. 170. 87. 122. 141.
      143. 141. 141. 144. 140. 125. 87. 171. 134. 140. 142. 143. 140.
      140. 135. 240. 146. 128. 145. 143. 142. 137. 105. 93. 93. 238.
      145. 143. 143. 142. 141. 141. 140. 141. 149. 111. 80. 124. 135.
      143. 144. 141. 139. 141. 140. 134. 174. 86. 156. 139. 138. 139.
      140. 142. 142. 139. 143. 85. 204. 205. 87. 173. 137. 141. 142.
      142. 109. 83. 204. 201. 78. 185. 137. 142. 141. 135. 179. 82. 155.
      157. 211. 138. 139. 143. 140. 121. 85. 217. 134. 138. 132. 149.
      183. 183. 183. 152. 164. 138. 142.</_>
    <_>
      143. 137. 228. 124. 221. 221. 127. 227. 138. 143. 137. 165. 121.
      138. 139. 140. 129. 106. 161. 132. 124. 91. 94. 125. 145. 145.
      139. 104. 86. 176. 134. 177. 116. 129. 144. 146. 136. 219. 86.
      179. 143. 139. 143. 143. 143. 142. 132. 132. 91. 127. 144. 142.
      144. 144. 140. 132. 190. 171. 121. 142. 143. 144. 140. 224. 213.
      81. 90. 128. 139. 141. 143. 144. 143. 140. 139. 137. 120. 125.
      191. 133. 143. 144. 144. 143. 142. 144. 140. 106. 87. 177. 135.
      130. 137. 142. 140. 145. 143. 121. 90. 89. 139. 91. 220. 139. 142.
      142. 141. 121. 90. 91. 184. 95. 119. 140. 145. 142. 139. 111. 89.
      172. 143. 206. 131. 143. 145. 141. 130. 108. 163. 130. 140. 132.
      138. 116. 221. 220. 126. 227. 139. 144.</_>
    <_>
      145. 144. 125. 135. 89. 89. 133. 121. 139. 143. 144. 223. 114.
      138. 142. 141. 123. 91. 189. 136. 132. 86. 129. 129. 143. 146.
      137. 255. 86. 173. 137. 126. 91. 131. 145. 146. 139. 255. 89. 175.
      144. 142. 142. 143. 145. 146. 131. 87. 89. 130. 145. 147. 145.
      145. 143. 138. 161. 132. 125. 141. 145. 147. 142. 160. 134. 124.
      124. 129. 137. 141. 146. 146. 142. 138. 139. 136. 117. 87. 158.
      137. 145. 145. 144. 145. 143. 144. 139. 144. 87. 184. 141. 133.
      139. 144. 144. 146. 143. 116. 86. 88. 192. 89. 140. 140. 146. 145.
      143. 121. 86. 87. 191. 102. 112. 143. 144. 144. 142. 113. 87. 186.
      140. 226. 135. 142. 144. 144. 135. 96. 191. 136. 143. 132. 139.
      193. 215. 215. 133. 224. 139. 146.</_>
    <_>
      144. 136. 217. 90. 204. 204. 134. 124. 137. 143. 136. 100. 133.
      139. 141. 146. 121. 88. 224. 136. 166. 90. 88. 133. 143. 145. 134.
      213. 85. 169. 124. 89. 94. 134. 144. 143. 133. 213. 85. 121. 140.
      142. 142. 142. 143. 141. 123. 88. 157. 134. 143. 143. 144. 143.
      138. 131. 168. 231. 128. 141. 145. 146. 138. 207. 187. 82. 185.
      135. 138. 142. 145. 142. 142. 142. 143. 137. 137. 85. 209. 138.
      142. 141. 145. 145. 144. 141. 137. 203. 87. 169. 133. 131. 140.
      143. 141. 141. 143. 126. 87. 195. 91. 86. 215. 143. 142. 141. 142.
      113. 84. 89. 93. 159. 140. 144. 143. 142. 139. 143. 83. 182. 168.
      229. 137. 145. 141. 142. 128. 107. 225. 134. 144. 136. 161. 144.
      206. 205. 128. 195. 138. 146.</_>
    <_>
      142. 136. 217. 106. 203. 202. 130. 126. 141. 142. 134. 88. 137.
      142. 141. 136. 114. 84. 224. 141. 167. 86. 81. 135. 143. 141. 142.
      79. 82. 126. 127. 82. 94. 137. 141. 136. 137. 82. 85. 124. 140.
      145. 141. 143. 141. 139. 123. 84. 158. 139. 140. 144. 143. 140.
      137. 139. 163. 230. 133. 140. 140. 140. 134. 206. 72. 66. 181.
      133. 138. 140. 141. 141. 137. 139. 140. 142. 119. 76. 211. 137.
      142. 140. 140. 140. 139. 140. 137. 202. 85. 167. 136. 135. 137.
      141. 140. 141. 137. 124. 86. 193. 87. 83. 212. 137. 140. 140. 140.
      114. 83. 83. 133. 88. 137. 137. 140. 141. 139. 140. 81. 180. 129.
      248. 137. 139. 139. 136. 126. 109. 224. 135. 140. 135. 156. 99.
      202. 203. 126. 194. 143. 142.</_>
    <_>
      144. 141. 222. 121. 203. 203. 125. 120. 144. 146. 148. 81. 136.
      141. 142. 144. 153. 86. 80. 143. 142. 85. 80. 154. 144. 142. 146.
      65. 83. 184. 148. 80. 76. 139. 143. 144. 145. 79. 79. 177. 147.
      145. 144. 141. 144. 144. 138. 80. 137. 139. 147. 146. 146. 144.
      140. 142. 95. 229. 135. 142. 146. 144. 147. 73. 102. 70. 121. 140.
      140. 143. 147. 147. 145. 146. 145. 145. 143. 74. 194. 142. 143.
      142. 148. 141. 142. 143. 141. 94. 81. 171. 136. 131. 142. 146.
      146. 143. 143. 255. 78. 121. 80. 85. 255. 143. 145. 142. 141. 255.
      74. 179. 123. 164. 198. 142. 145. 142. 148. 71. 80. 169. 139. 124.
      140. 144. 142. 148. 136. 85. 147. 139. 144. 143. 221. 121. 73.
      121. 217. 137. 143. 143.</_>
    <_>
      146. 142. 124. 121. 109. 110. 111. 116. 135. 141. 142. 205. 142.
      136. 143. 143. 132. 89. 103. 128. 135. 90. 93. 121. 144. 144. 140.
      255. 88. 199. 138. 181. 100. 128. 141. 146. 137. 255. 84. 113.
      144. 141. 142. 143. 146. 144. 131. 78. 160. 126. 145. 145. 145.
      145. 140. 131. 226. 222. 127. 139. 146. 145. 144. 222. 112. 105.
      91. 116. 134. 141. 147. 145. 147. 141. 139. 138. 120. 86. 216.
      130. 145. 149. 143. 142. 141. 140. 135. 131. 81. 166. 132. 121.
      131. 142. 142. 143. 141. 114. 84. 113. 158. 88. 179. 140. 143.
      144. 141. 111. 83. 121. 158. 140. 121. 142. 145. 147. 135. 255.
      84. 106. 129. 110. 124. 138. 139. 138. 117. 90. 224. 136. 143.
      135. 246. 120. 116. 112. 219. 127. 140. 143.</_>
    <_>
      143. 135. 183. 108. 239. 169. 118. 180. 137. 143. 132. 128. 121.
      142. 143. 141. 119. 89. 178. 136. 188. 89. 93. 134. 145. 145. 128.
      173. 86. 117. 127. 140. 179. 139. 146. 143. 134. 172. 86. 119.
      144. 142. 144. 144. 144. 141. 121. 86. 173. 133. 145. 144. 145.
      144. 139. 127. 175. 179. 129. 140. 146. 145. 141. 170. 162. 88.
      175. 121. 137. 140. 146. 145. 143. 143. 142. 139. 115. 89. 179.
      132. 144. 144. 146. 144. 144. 141. 136. 165. 82. 181. 131. 128.
      138. 143. 144. 143. 138. 110. 83. 90. 96. 88. 181. 140. 143. 143.
      141. 115. 86. 171. 98. 176. 124. 142. 142. 146. 139. 107. 83. 179.
      121. 182. 130. 141. 145. 142. 125. 146. 178. 134. 143. 132. 241.
      109. 239. 112. 180. 119. 138. 145.</_>
    <_>
      255. 255. 255. 240. 55. 57. 239. 254. 254. 254. 254. 183. 133.
      254. 252. 252. 255. 45. 182. 254. 255. 2. 254. 255. 255. 255. 254.
      255. 2. 255. 254. 128. 255. 254. 254. 254. 254. 254. 89. 254. 255.
      255. 254. 255. 255. 255. 254. 255. 13. 255. 255. 255. 254. 254.
      253. 255. 254. 146. 223. 254. 255. 255. 255. 55. 55. 55. 207. 255.
      254. 253. 255. 255. 255. 255. 255. 255. 255. 142. 186. 255. 255.
      255. 255. 255. 255. 255. 253. 254. 90. 208. 255. 255. 255. 255.
      255. 255. 255. 254. 254. 140. 198. 174. 254. 255. 255. 255. 255.
      254. 249. 140. 142. 89. 255. 255. 255. 254. 255. 254. 84. 148.
      250. 33. 255. 253. 255. 253. 255. 132. 223. 254. 255. 255. 255.
      148. 55. 115. 254. 255. 254. 255.</_>
    <_>
      254. 254. 254. 233. 20. 18. 233. 255. 255. 254. 254. 95. 201. 254.
      253. 253. 254. 201. 98. 254. 254. 0. 255. 253. 253. 252. 255. 255.
      1. 255. 248. 128. 255. 254. 254. 254. 253. 254. 204. 255. 254.
      254. 254. 255. 253. 254. 254. 253. 18. 251. 255. 255. 254. 254.
      254. 254. 251. 1. 255. 253. 255. 255. 254. 207. 18. 18. 210. 255.
      252. 252. 255. 255. 255. 255. 254. 255. 254. 237. 66. 254. 254.
      255. 255. 255. 255. 255. 252. 255. 205. 135. 254. 253. 255. 255.
      255. 255. 254. 255. 250. 102. 174. 128. 255. 255. 255. 255. 254.
      255. 246. 102. 102. 3. 253. 254. 253. 254. 254. 251. 131. 158.
      254. 14. 245. 255. 253. 255. 254. 200. 95. 254. 255. 255. 255.
      208. 19. 88. 255. 255. 255. 255.</_>
    <_>
      129. 127. 129. 126. 130. 122. 39. 131. 128. 129. 126. 127. 126.
      126. 128. 143. 34. 131. 130. 129. 131. 131. 130. 130. 125. 37. 36.
      129. 129. 129. 129. 129. 130. 126. 38. 83. 35. 127. 132. 130. 129.
      128. 131. 144. 67. 111. 34. 129. 129. 130. 131. 130. 147. 44. 129.
      111. 36. 127. 130. 132. 131. 125. 38. 115. 131. 116. 37. 121. 130.
      133. 131. 157. 56. 130. 130. 116. 39. 118. 129. 132. 118. 44. 129.
      132. 130. 115. 39. 120. 128. 132. 69. 78. 102. 108. 105. 98. 39.
      97. 113. 118. 141. 138. 135. 135. 135. 123. 37. 122. 132. 204.
      133. 131. 130. 133. 133. 130. 38. 114. 131. 132. 135. 133. 133.
      134. 131. 118. 37. 107. 131. 133. 135. 135. 135. 135. 38. 42. 44.
      40. 34. 138.</_>
    <_>
      158. 153. 156. 156. 155. 163. 47. 165. 156. 155. 154. 155. 155.
      155. 153. 240. 53. 168. 157. 156. 156. 156. 154. 155. 122. 60. 55.
      161. 156. 157. 157. 157. 159. 162. 55. 95. 56. 162. 156. 157. 156.
      154. 155. 213. 84. 110. 54. 163. 157. 154. 155. 153. 155. 43. 159.
      112. 59. 165. 156. 155. 159. 157. 54. 166. 154. 115. 60. 168. 156.
      157. 155. 181. 84. 156. 155. 117. 59. 166. 156. 157. 154. 54. 149.
      155. 155. 121. 58. 163. 158. 155. 55. 120. 126. 119. 119. 94. 54.
      115. 236. 235. 201. 202. 201. 202. 200. 182. 54. 203. 206. 206.
      151. 156. 156. 155. 156. 135. 56. 166. 156. 154. 157. 155. 159.
      155. 156. 125. 56. 163. 154. 157. 156. 156. 155. 178. 48. 51. 50.
      49. 46. 150.</_>
    <_>
      143. 141. 139. 137. 141. 140. 190. 147. 138. 138. 137. 141. 138.
      137. 133. 129. 37. 151. 133. 137. 138. 139. 138. 137. 135. 43. 38.
      153. 137. 138. 136. 137. 138. 137. 77. 134. 38. 154. 134. 135.
      137. 136. 136. 174. 117. 134. 37. 149. 134. 132. 133. 135. 133.
      48. 134. 135. 33. 151. 135. 134. 135. 136. 36. 130. 132. 137. 37.
      152. 134. 134. 133. 152. 131. 133. 132. 129. 33. 150. 132. 135.
      131. 52. 135. 131. 130. 133. 34. 147. 133. 133. 40. 128. 129. 127.
      119. 127. 33. 135. 133. 130. 129. 125. 124. 125. 125. 125. 32.
      130. 164. 166. 136. 134. 133. 131. 132. 131. 33. 142. 133. 136.
      133. 132. 134. 131. 132. 131. 34. 146. 132. 135. 132. 133. 131.
      134. 26. 34. 37. 42. 231. 137.</_>
    <_>
      149. 149. 149. 148. 145. 143. 46. 153. 149. 148. 148. 147. 148.
      146. 144. 114. 52. 159. 144. 149. 149. 148. 148. 148. 140. 68. 46.
      163. 146. 147. 148. 148. 146. 139. 62. 145. 47. 160. 146. 149.
      149. 145. 145. 168. 150. 140. 46. 160. 144. 148. 147. 147. 127.
      69. 139. 139. 49. 158. 143. 148. 147. 147. 50. 141. 146. 140. 48.
      168. 144. 149. 143. 127. 145. 144. 145. 135. 43. 160. 144. 149.
      131. 71. 145. 143. 146. 133. 42. 156. 143. 148. 212. 150. 144.
      138. 143. 133. 47. 173. 148. 158. 225. 108. 110. 107. 128. 116.
      41. 131. 135. 146. 146. 149. 146. 145. 144. 138. 46. 159. 142.
      148. 149. 149. 148. 145. 145. 132. 43. 144. 147. 147. 146. 146.
      147. 142. 188. 26. 40. 43. 187. 150.</_>
    <_>
      146. 147. 146. 144. 145. 144. 182. 189. 143. 146. 146. 145. 145.
      144. 142. 124. 89. 114. 142. 144. 145. 145. 145. 146. 133. 105.
      87. 115. 142. 145. 144. 145. 145. 142. 177. 111. 83. 114. 141.
      145. 145. 143. 143. 187. 117. 126. 80. 114. 142. 144. 144. 141.
      129. 102. 136. 125. 79. 115. 142. 144. 143. 136. 140. 132. 141.
      127. 83. 114. 141. 144. 140. 183. 113. 141. 143. 126. 80. 115.
      142. 144. 128. 99. 138. 143. 141. 125. 82. 116. 138. 143. 174.
      131. 144. 140. 144. 122. 87. 112. 140. 141. 255. 255. 255. 255.
      255. 255. 85. 255. 255. 255. 143. 144. 139. 142. 140. 114. 81.
      115. 140. 144. 144. 145. 143. 142. 138. 112. 85. 111. 141. 143.
      144. 142. 144. 255. 76. 157. 158. 152. 129. 224.</_>
    <_>
      146. 146. 147. 143. 144. 140. 235. 216. 144. 144. 146. 146. 146.
      145. 144. 126. 99. 150. 143. 143. 147. 145. 144. 140. 137. 248.
      88. 145. 144. 145. 145. 144. 145. 142. 249. 113. 88. 149. 143.
      143. 145. 143. 144. 144. 108. 134. 84. 145. 141. 142. 143. 142.
      136. 98. 130. 133. 84. 147. 140. 142. 143. 139. 216. 131. 143.
      132. 86. 147. 143. 142. 141. 173. 107. 139. 140. 131. 87. 145.
      140. 141. 134. 99. 136. 143. 140. 133. 83. 147. 139. 142. 169.
      131. 143. 143. 137. 131. 83. 106. 145. 143. 222. 119. 118. 115.
      115. 217. 83. 215. 220. 126. 142. 145. 145. 143. 140. 125. 84.
      143. 140. 141. 144. 144. 145. 142. 141. 125. 84. 142. 138. 141.
      143. 142. 141. 190. 171. 166. 78. 78. 170. 181.</_>
    <_>
      255. 255. 255. 255. 255. 255. 255. 255. 253. 254. 255. 255. 255.
      255. 254. 253. 33. 255. 255. 255. 255. 255. 255. 254. 254. 198. 0.
      255. 255. 255. 255. 255. 255. 255. 187. 247. 1. 255. 255. 255.
      254. 255. 255. 220. 222. 255. 0. 255. 255. 255. 255. 254. 255.
      138. 255. 254. 0. 255. 255. 255. 255. 254. 30. 254. 254. 254. 0.
      255. 255. 255. 252. 142. 249. 254. 254. 254. 1. 255. 254. 254.
      222. 190. 254. 251. 253. 254. 1. 255. 254. 254. 103. 20. 19. 19.
      18. 20. 0. 23. 19. 113. 255. 255. 255. 255. 254. 255. 52. 254.
      254. 255. 255. 255. 255. 253. 254. 255. 53. 254. 253. 255. 255.
      255. 255. 254. 254. 243. 52. 255. 254. 253. 255. 255. 255. 254.
      56. 55. 255. 254. 55. 255.</_>
    <_>
      255. 255. 255. 255. 255. 255. 254. 255. 255. 255. 255. 255. 255.
      255. 255. 255. 14. 254. 255. 255. 255. 254. 254. 252. 254. 119. 1.
      254. 255. 255. 255. 255. 254. 253. 159. 255. 1. 253. 255. 255.
      255. 255. 254. 232. 196. 254. 0. 255. 255. 255. 255. 255. 255. 80.
      254. 254. 0. 255. 255. 255. 254. 255. 65. 255. 251. 254. 0. 255.
      255. 255. 255. 195. 221. 254. 254. 254. 0. 255. 255. 255. 255.
      105. 254. 253. 254. 254. 2. 251. 254. 253. 64. 91. 90. 91. 91. 91.
      1. 91. 94. 133. 254. 254. 255. 255. 255. 253. 65. 254. 254. 255.
      254. 255. 255. 255. 255. 254. 65. 254. 255. 254. 254. 254. 255.
      255. 255. 255. 52. 253. 253. 253. 255. 255. 255. 253. 77. 77. 255.
      196. 20. 255.</_>
    <_>
      128. 52. 27. 25. 30. 22. 21. 29. 27. 170. 130. 44. 239. 239. 238.
      238. 238. 237. 237. 131. 130. 40. 131. 129. 132. 131. 131. 131.
      129. 129. 127. 36. 132. 130. 132. 131. 132. 131. 131. 132. 123.
      99. 130. 129. 124. 125. 129. 132. 131. 130. 123. 154. 159. 35.
      129. 47. 36. 166. 123. 130. 172. 39. 164. 124. 131. 126. 108. 39.
      48. 129. 147. 183. 130. 132. 133. 131. 133. 146. 39. 164. 134.
      133. 135. 134. 134. 132. 133. 138. 39. 39. 127. 127. 132. 135.
      136. 135. 134. 133. 233. 43. 37. 39. 196. 135. 134. 133. 134. 133.
      40. 44. 36. 40. 202. 135. 135. 137. 135. 176. 41. 193. 159. 43.
      166. 123. 131. 128. 104. 42. 68. 133. 137. 124. 248. 50. 46. 51.
      51. 177. 134. 136.</_>
    <_>
      141. 68. 43. 42. 45. 42. 41. 45. 41. 152. 141. 71. 144. 145. 145.
      149. 149. 146. 154. 153. 139. 30. 140. 144. 143. 147. 148. 148.
      148. 155. 142. 224. 141. 140. 144. 147. 144. 146. 148. 154. 137.
      222. 142. 141. 144. 145. 144. 148. 146. 151. 136. 129. 162. 102.
      204. 200. 47. 176. 144. 148. 145. 41. 139. 142. 142. 144. 146.
      191. 72. 147. 142. 140. 140. 141. 142. 142. 143. 140. 40. 249.
      138. 139. 140. 139. 141. 140. 142. 143. 223. 51. 138. 140. 139.
      139. 139. 142. 140. 140. 109. 40. 36. 38. 136. 135. 133. 140. 140.
      137. 223. 50. 50. 37. 133. 136. 137. 139. 140. 139. 39. 249. 121.
      35. 138. 135. 138. 138. 138. 132. 74. 145. 135. 133. 110. 31. 222.
      223. 41. 203. 142. 147.</_>
    <_>
      132. 47. 31. 38. 36. 35. 43. 40. 42. 145. 135. 176. 147. 151. 152.
      150. 145. 146. 145. 146. 137. 179. 147. 147. 148. 149. 149. 149.
      148. 148. 128. 188. 146. 148. 149. 149. 149. 151. 152. 150. 119.
      135. 146. 147. 146. 146. 149. 149. 151. 150. 109. 140. 148. 49.
      246. 245. 36. 142. 146. 149. 98. 54. 149. 151. 147. 145. 141. 86.
      58. 142. 145. 147. 147. 149. 148. 148. 145. 138. 36. 235. 149.
      149. 149. 149. 148. 148. 147. 147. 150. 34. 147. 148. 149. 149.
      149. 148. 146. 146. 164. 48. 45. 47. 146. 147. 150. 148. 146. 147.
      153. 54. 32. 46. 145. 143. 149. 151. 147. 141. 40. 234. 95. 46.
      153. 149. 149. 145. 137. 86. 53. 143. 142. 125. 94. 177. 158. 180.
      46. 141. 144. 151.</_>
    <_>
      143. 202. 153. 202. 123. 126. 174. 202. 89. 157. 143. 202. 90. 87.
      86. 85. 88. 137. 136. 145. 144. 200. 118. 139. 148. 148. 150. 143.
      144. 145. 143. 200. 117. 141. 142. 143. 142. 144. 143. 145. 147.
      200. 117. 138. 146. 146. 144. 141. 143. 144. 143. 200. 208. 141.
      199. 197. 80. 144. 135. 141. 142. 164. 239. 139. 145. 146. 137.
      237. 161. 131. 145. 142. 140. 143. 145. 145. 142. 119. 86. 147.
      146. 145. 145. 146. 145. 144. 145. 123. 84. 222. 238. 162. 195.
      141. 144. 146. 144. 123. 82. 87. 95. 91. 152. 143. 145. 146. 144.
      117. 86. 221. 223. 186. 146. 148. 145. 147. 145. 111. 87. 146.
      136. 110. 151. 140. 138. 139. 137. 90. 118. 138. 146. 144. 208.
      146. 84. 151. 206. 139. 141. 143.</_>
    <_>
      141. 168. 103. 230. 111. 115. 116. 231. 95. 130. 140. 166. 110.
      90. 91. 93. 95. 133. 136. 142. 139. 164. 112. 129. 133. 135. 138.
      143. 144. 144. 139. 165. 116. 137. 140. 139. 138. 144. 145. 142.
      139. 166. 116. 132. 134. 131. 138. 140. 141. 143. 135. 164. 249.
      102. 250. 250. 97. 212. 132. 141. 139. 178. 194. 134. 139. 140.
      134. 193. 131. 129. 139. 138. 140. 141. 140. 142. 140. 116. 91.
      174. 139. 138. 139. 140. 141. 140. 137. 123. 145. 181. 184. 155.
      180. 133. 139. 139. 139. 124. 149. 91. 99. 104. 195. 134. 139.
      140. 137. 122. 89. 181. 177. 117. 131. 139. 138. 142. 136. 111.
      90. 121. 129. 158. 122. 132. 137. 134. 118. 97. 138. 136. 141.
      137. 150. 134. 103. 124. 232. 134. 142. 142.</_>
    <_>
      147. 222. 155. 145. 139. 141. 131. 190. 75. 169. 145. 222. 84. 84.
      88. 88. 86. 211. 134. 147. 144. 221. 116. 134. 128. 132. 149. 141.
      145. 147. 144. 221. 122. 140. 145. 147. 144. 145. 146. 147. 149.
      221. 122. 140. 142. 145. 146. 145. 145. 146. 144. 171. 187. 170.
      157. 156. 97. 186. 143. 145. 146. 123. 202. 140. 146. 142. 141.
      112. 142. 143. 142. 146. 142. 145. 145. 144. 143. 205. 91. 148.
      142. 143. 144. 143. 145. 144. 143. 128. 83. 80. 208. 204. 134.
      144. 144. 146. 143. 129. 85. 79. 83. 85. 153. 143. 144. 144. 143.
      130. 86. 113. 157. 173. 143. 144. 145. 145. 143. 222. 83. 154.
      135. 82. 139. 144. 144. 143. 131. 79. 218. 139. 146. 147. 191. 72.
      197. 102. 154. 133. 145. 143.</_>
    <_>
      254. 255. 156. 255. 255. 255. 255. 255. 56. 254. 254. 152. 172.
      254. 254. 254. 254. 254. 255. 253. 253. 255. 253. 255. 255. 255.
      255. 254. 252. 253. 254. 255. 255. 255. 255. 255. 255. 253. 254.
      255. 255. 191. 253. 255. 253. 253. 254. 255. 255. 255. 254. 119.
      254. 254. 125. 91. 255. 254. 255. 253. 252. 83. 185. 255. 255.
      253. 253. 67. 227. 253. 254. 227. 254. 255. 255. 255. 255. 254.
      101. 254. 254. 254. 252. 255. 255. 255. 255. 254. 170. 128. 255.
      252. 255. 255. 255. 255. 255. 255. 255. 129. 191. 191. 254. 254.
      254. 255. 254. 255. 188. 128. 127. 129. 255. 254. 255. 255. 254.
      253. 118. 254. 254. 71. 254. 254. 254. 254. 255. 70. 210. 254.
      255. 254. 254. 203. 56. 84. 255. 255. 255. 255.</_>
    <_>
      255. 255. 255. 255. 255. 255. 255. 255. 19. 255. 254. 130. 254.
      254. 254. 254. 254. 254. 254. 253. 254. 166. 254. 255. 255. 255.
      255. 255. 255. 255. 255. 253. 254. 255. 255. 255. 255. 255. 255.
      255. 254. 255. 254. 255. 255. 255. 255. 255. 255. 255. 115. 250.
      251. 250. 61. 59. 214. 255. 254. 253. 115. 128. 255. 254. 255.
      253. 255. 196. 89. 254. 254. 254. 255. 254. 255. 253. 255. 254.
      154. 255. 253. 254. 254. 255. 255. 255. 255. 254. 220. 116. 252.
      253. 255. 255. 255. 255. 255. 255. 254. 115. 180. 128. 250. 255.
      255. 255. 255. 255. 203. 115. 116. 1. 253. 255. 254. 255. 254.
      255. 108. 255. 255. 20. 241. 253. 255. 255. 253. 155. 162. 254.
      254. 254. 254. 255. 22. 25. 255. 255. 255. 255.</_>
    <_>
      130. 133. 129. 122. 20. 38. 42. 28. 96. 127. 131. 125. 127. 43.
      106. 128. 116. 52. 40. 144. 130. 241. 38. 131. 131. 131. 128. 146.
      39. 189. 129. 36. 153. 131. 132. 132. 134. 130. 135. 126. 138. 39.
      116. 132. 132. 128. 132. 130. 131. 132. 190. 39. 132. 125. 74. 35.
      36. 162. 118. 128. 118. 233. 163. 47. 107. 128. 102. 48. 39. 116.
      37. 36. 54. 134. 134. 134. 134. 115. 39. 190. 37. 40. 136. 137.
      135. 133. 136. 135. 39. 39. 191. 42. 134. 135. 136. 136. 136. 133.
      27. 43. 148. 42. 130. 133. 135. 136. 136. 136. 34. 44. 127. 42.
      67. 134. 137. 135. 138. 123. 39. 191. 136. 241. 41. 102. 131. 132.
      128. 43. 67. 136. 136. 133. 120. 59. 49. 47. 53. 180. 135. 136.</_>
    <_>
      150. 151. 145. 184. 45. 121. 64. 50. 214. 142. 151. 146. 41. 62.
      142. 150. 152. 105. 52. 240. 147. 150. 95. 156. 152. 152. 152.
      195. 56. 240. 140. 51. 229. 149. 150. 151. 150. 148. 153. 148.
      240. 51. 152. 149. 147. 150. 146. 149. 152. 150. 92. 165. 152.
      128. 121. 50. 55. 199. 137. 148. 85. 46. 120. 59. 144. 154. 136.
      63. 52. 133. 86. 49. 79. 148. 151. 151. 149. 136. 51. 176. 86. 40.
      150. 150. 152. 151. 154. 154. 57. 84. 82. 39. 152. 152. 151. 151.
      151. 149. 52. 83. 238. 46. 154. 151. 153. 151. 152. 159. 50. 86.
      134. 59. 89. 147. 152. 152. 152. 120. 56. 240. 149. 193. 56. 128.
      146. 142. 152. 53. 136. 151. 153. 149. 184. 72. 51. 51. 60. 173.
      150. 155.</_>
    <_>
      153. 152. 148. 186. 45. 115. 48. 44. 175. 141. 150. 145. 190. 69.
      138. 143. 139. 101. 47. 234. 148. 152. 96. 156. 152. 150. 152.
      223. 53. 236. 137. 46. 223. 151. 152. 152. 151. 147. 154. 153.
      238. 50. 132. 152. 149. 150. 151. 150. 154. 153. 80. 164. 150.
      131. 124. 61. 69. 67. 195. 150. 74. 53. 118. 57. 132. 152. 128.
      59. 51. 116. 75. 47. 78. 149. 150. 151. 152. 131. 47. 86. 66. 53.
      153. 154. 151. 151. 152. 147. 65. 82. 66. 54. 147. 150. 152. 151.
      150. 149. 68. 83. 236. 49. 135. 150. 150. 153. 151. 148. 53. 82.
      133. 48. 95. 150. 151. 151. 152. 134. 49. 233. 147. 189. 54. 111.
      151. 149. 149. 46. 139. 152. 151. 147. 178. 179. 48. 42. 56. 170.
      150. 152.</_>
    <_>
      157. 154. 147. 182. 49. 53. 56. 46. 175. 145. 155. 155. 59. 71.
      152. 151. 146. 111. 59. 239. 162. 147. 95. 151. 158. 154. 155.
      114. 58. 239. 128. 58. 175. 156. 156. 156. 157. 156. 163. 152.
      202. 78. 151. 157. 156. 156. 158. 157. 157. 156. 93. 165. 153.
      116. 59. 56. 52. 68. 148. 151. 90. 66. 58. 63. 151. 158. 132. 63.
      55. 136. 88. 58. 103. 157. 158. 158. 156. 135. 63. 178. 91. 65.
      153. 156. 158. 157. 158. 153. 65. 88. 91. 60. 147. 159. 157. 157.
      158. 155. 70. 86. 163. 52. 151. 155. 157. 159. 153. 160. 66. 82.
      219. 62. 114. 156. 158. 158. 156. 130. 62. 237. 155. 148. 58. 143.
      153. 157. 159. 62. 137. 154. 153. 154. 178. 64. 45. 48. 48. 172.
      151. 157.</_>
    <_>
      161. 163. 167. 139. 51. 240. 180. 56. 232. 171. 161. 162. 101.
      184. 168. 172. 170. 144. 55. 250. 161. 137. 203. 168. 167. 170.
      174. 169. 55. 183. 155. 47. 161. 167. 167. 167. 168. 171. 169.
      173. 248. 41. 162. 165. 163. 165. 168. 168. 170. 172. 61. 223.
      160. 155. 209. 48. 50. 197. 165. 171. 44. 137. 215. 131. 163. 161.
      166. 69. 56. 169. 45. 50. 155. 161. 161. 163. 165. 166. 56. 249.
      43. 111. 156. 161. 162. 162. 168. 168. 95. 57. 47. 103. 161. 161.
      161. 166. 166. 168. 112. 52. 60. 59. 156. 161. 164. 165. 169. 168.
      75. 65. 125. 47. 157. 160. 164. 166. 168. 165. 55. 208. 157. 234.
      85. 162. 165. 164. 168. 80. 109. 170. 157. 160. 145. 63. 85. 86.
      61. 177. 171. 169.</_>
    <_>
      148. 147. 144. 216. 46. 140. 79. 40. 179. 147. 149. 138. 32. 145.
      147. 148. 141. 139. 39. 110. 141. 48. 172. 147. 148. 148. 148.
      129. 36. 146. 136. 54. 154. 144. 149. 150. 150. 149. 146. 150. 43.
      49. 142. 147. 149. 148. 148. 150. 150. 151. 32. 147. 146. 143. 66.
      27. 39. 235. 147. 149. 42. 161. 164. 141. 146. 149. 144. 58. 40.
      148. 36. 46. 145. 150. 150. 148. 149. 141. 35. 239. 33. 94. 147.
      151. 150. 149. 147. 148. 71. 47. 36. 90. 147. 151. 150. 150. 147.
      147. 102. 48. 44. 55. 149. 151. 150. 149. 148. 146. 52. 52. 126.
      50. 149. 149. 150. 148. 147. 144. 31. 147. 146. 191. 78. 148. 148.
      146. 147. 87. 91. 143. 148. 149. 127. 38. 91. 86. 32. 133. 148.
      150.</_>
    <_>
      144. 148. 146. 140. 210. 143. 192. 144. 212. 141. 148. 143. 151.
      84. 131. 143. 144. 142. 217. 211. 142. 141. 90. 123. 145. 146.
      141. 142. 92. 100. 127. 109. 165. 138. 143. 143. 144. 141. 198.
      136. 142. 84. 114. 138. 144. 147. 146. 143. 147. 149. 213. 213.
      113. 212. 87. 96. 80. 205. 139. 143. 213. 84. 89. 121. 141. 144.
      139. 107. 115. 130. 213. 84. 104. 136. 142. 142. 145. 126. 87.
      215. 213. 88. 119. 142. 146. 146. 145. 130. 92. 89. 213. 88. 120.
      141. 144. 144. 146. 132. 92. 90. 147. 90. 121. 143. 145. 145. 145.
      129. 93. 155. 126. 92. 112. 140. 144. 144. 144. 122. 90. 152. 143.
      215. 96. 130. 144. 144. 138. 99. 143. 136. 144. 142. 151. 147. 89.
      89. 148. 150. 143. 147.</_>
    <_>
      255. 255. 255. 255. 255. 95. 56. 254. 253. 254. 254. 253. 209.
      174. 254. 252. 253. 129. 2. 254. 254. 254. 121. 253. 252. 253.
      254. 239. 0. 255. 254. 65. 255. 254. 254. 255. 254. 255. 254. 254.
      245. 127. 255. 254. 255. 252. 254. 252. 255. 254. 128. 200. 253.
      254. 254. 125. 173. 255. 255. 254. 128. 252. 217. 249. 252. 252.
      254. 155. 101. 253. 127. 128. 235. 254. 255. 255. 255. 253. 100.
      248. 128. 254. 254. 254. 255. 255. 254. 254. 248. 130. 129. 247.
      255. 255. 254. 254. 255. 255. 254. 127. 192. 128. 255. 255. 254.
      255. 255. 254. 184. 128. 253. 9. 255. 254. 254. 253. 252. 254.
      118. 255. 254. 224. 95. 254. 253. 254. 254. 100. 210. 253. 255.
      254. 254. 255. 96. 86. 255. 254. 255. 255.</_>
    <_>
      255. 254. 250. 255. 255. 58. 18. 255. 244. 255. 255. 253. 255.
      211. 254. 255. 253. 200. 0. 255. 254. 255. 191. 255. 255. 254.
      253. 231. 0. 255. 254. 27. 254. 254. 254. 255. 254. 252. 252. 255.
      251. 204. 253. 255. 253. 254. 254. 254. 253. 255. 102. 204. 253.
      255. 243. 79. 199. 201. 254. 255. 102. 203. 123. 252. 255. 252.
      255. 224. 47. 255. 103. 66. 255. 254. 253. 253. 255. 255. 122.
      251. 103. 203. 255. 255. 255. 255. 255. 255. 195. 102. 102. 188.
      255. 255. 255. 255. 255. 255. 203. 102. 250. 137. 255. 255. 254.
      255. 253. 255. 169. 102. 254. 19. 255. 254. 254. 254. 255. 254.
      39. 255. 253. 255. 97. 254. 255. 253. 255. 133. 255. 254. 255.
      255. 255. 255. 76. 61. 255. 255. 254. 254.</_>
    <_>
      128. 39. 47. 45. 36. 44. 41. 38. 39. 35. 113. 38. 47. 90. 175. 94.
      91. 98. 77. 155. 157. 86. 131. 131. 128. 133. 133. 102. 43. 128.
      70. 126. 132. 132. 132. 132. 131. 41. 149. 131. 169. 131. 126.
      132. 128. 132. 212. 187. 127. 132. 132. 131. 132. 134. 132. 118.
      40. 131. 135. 132. 132. 130. 134. 135. 132. 98. 223. 133. 133.
      133. 134. 136. 135. 134. 148. 39. 138. 133. 134. 134. 133. 135.
      136. 131. 89. 125. 134. 134. 136. 134. 135. 134. 135. 98. 41. 105.
      137. 133. 133. 136. 137. 138. 136. 78. 40. 135. 137. 137. 135.
      138. 138. 138. 142. 42. 42. 138. 137. 139. 138. 140. 138. 141.
      142. 44. 45. 138. 137. 138. 139. 139. 139. 140. 134. 52. 53. 135.
      141. 140. 138. 142.</_>
    <_>
      160. 90. 55. 60. 57. 58. 58. 62. 63. 68. 140. 61. 200. 129. 123.
      122. 128. 132. 67. 250. 250. 225. 153. 159. 158. 159. 162. 165.
      100. 148. 69. 172. 157. 158. 159. 158. 162. 70. 213. 156. 174.
      159. 158. 159. 160. 156. 186. 112. 155. 158. 157. 159. 159. 159.
      159. 172. 62. 138. 156. 157. 160. 159. 157. 158. 156. 169. 142.
      154. 162. 162. 158. 158. 158. 159. 192. 65. 145. 156. 158. 159.
      158. 157. 153. 159. 149. 145. 153. 158. 158. 156. 160. 159. 152.
      143. 64. 206. 158. 159. 159. 159. 158. 156. 152. 205. 62. 134.
      158. 158. 158. 156. 159. 157. 152. 130. 58. 142. 161. 159. 159.
      160. 157. 156. 148. 130. 56. 142. 161. 161. 156. 159. 158. 157.
      157. 130. 55. 148. 160. 160. 159. 161.</_>
    <_>
      156. 86. 53. 51. 49. 47. 52. 52. 49. 53. 163. 59. 200. 248. 247.
      248. 193. 92. 58. 239. 223. 188. 150. 154. 152. 153. 151. 167. 73.
      152. 159. 166. 155. 153. 151. 155. 151. 65. 181. 154. 164. 149.
      154. 154. 152. 154. 166. 99. 148. 154. 155. 150. 155. 155. 150.
      139. 55. 144. 155. 153. 154. 154. 155. 154. 153. 167. 120. 149.
      154. 155. 152. 153. 151. 151. 155. 57. 135. 154. 157. 155. 151.
      152. 154. 151. 149. 141. 153. 151. 156. 156. 152. 152. 150. 132.
      55. 200. 154. 155. 156. 153. 155. 150. 145. 207. 55. 123. 153.
      155. 152. 153. 153. 151. 152. 125. 53. 135. 152. 155. 152. 153.
      153. 150. 152. 119. 51. 135. 151. 155. 156. 152. 154. 153. 149.
      126. 47. 143. 152. 153. 155. 153.</_>
    <_>
      182. 66. 63. 65. 64. 65. 65. 67. 67. 59. 170. 88. 186. 186. 187.
      187. 192. 195. 189. 175. 237. 180. 186. 189. 193. 190. 191. 189.
      75. 194. 84. 182. 186. 188. 189. 189. 189. 99. 188. 194. 179. 183.
      185. 183. 188. 189. 169. 203. 191. 196. 183. 184. 184. 186. 188.
      184. 60. 189. 192. 190. 180. 183. 181. 186. 186. 236. 178. 189.
      192. 192. 181. 183. 184. 185. 170. 62. 188. 190. 191. 193. 180.
      183. 186. 182. 89. 136. 188. 190. 189. 189. 180. 182. 183. 175.
      63. 188. 185. 189. 189. 187. 181. 183. 185. 218. 60. 183. 187.
      187. 187. 191. 180. 181. 182. 69. 61. 183. 188. 187. 188. 188.
      183. 181. 178. 61. 60. 183. 187. 184. 186. 186. 179. 180. 180. 81.
      235. 183. 185. 183. 187. 184.</_>
    <_>
      146. 38. 37. 36. 39. 42. 45. 39. 44. 50. 145. 43. 162. 151. 148.
      144. 145. 148. 133. 120. 244. 143. 150. 149. 149. 148. 149. 146.
      46. 145. 50. 147. 152. 150. 147. 150. 146. 93. 153. 149. 145. 146.
      150. 149. 150. 153. 138. 201. 148. 152. 150. 149. 151. 150. 148.
      139. 44. 146. 149. 150. 149. 150. 148. 147. 150. 167. 160. 147.
      150. 151. 150. 151. 149. 148. 143. 50. 146. 149. 150. 151. 150.
      149. 147. 147. 162. 152. 150. 152. 150. 151. 151. 148. 149. 144.
      45. 150. 148. 150. 151. 150. 148. 146. 147. 145. 43. 155. 150.
      150. 151. 151. 149. 145. 146. 54. 46. 149. 151. 150. 150. 151.
      149. 147. 142. 35. 45. 148. 150. 151. 151. 150. 148. 146. 146. 87.
      38. 147. 151. 151. 151. 151.</_>
    <_>
      136. 100. 151. 203. 203. 203. 202. 204. 204. 204. 129. 93. 86. 87.
      87. 87. 88. 83. 92. 132. 192. 125. 149. 150. 149. 151. 146. 124.
      185. 138. 168. 132. 143. 144. 143. 143. 132. 122. 136. 146. 145.
      145. 146. 146. 144. 136. 144. 130. 144. 144. 146. 147. 146. 145.
      143. 183. 191. 142. 145. 144. 148. 148. 145. 145. 131. 97. 136.
      144. 145. 143. 148. 147. 146. 139. 175. 179. 144. 145. 145. 146.
      149. 147. 145. 124. 88. 123. 143. 144. 147. 145. 148. 144. 143.
      185. 90. 128. 144. 146. 145. 144. 147. 144. 136. 174. 173. 134.
      145. 146. 147. 148. 147. 145. 129. 92. 173. 134. 145. 144. 146.
      148. 144. 145. 127. 88. 173. 137. 145. 146. 146. 148. 147. 146.
      132. 93. 178. 140. 147. 147. 146. 149.</_>
    <_>
      255. 254. 255. 255. 255. 255. 255. 255. 217. 255. 254. 53. 64.
      255. 255. 255. 255. 255. 58. 255. 255. 166. 255. 254. 254. 255.
      254. 254. 225. 253. 238. 254. 255. 254. 254. 255. 254. 210. 255.
      254. 253. 255. 255. 255. 255. 253. 254. 211. 255. 255. 254. 255.
      255. 255. 254. 254. 52. 254. 255. 255. 254. 255. 255. 255. 255.
      254. 205. 255. 255. 255. 255. 255. 253. 255. 254. 115. 253. 254.
      255. 255. 255. 253. 255. 253. 179. 153. 255. 254. 255. 255. 255.
      254. 253. 255. 116. 255. 253. 253. 255. 255. 255. 255. 252. 253.
      77. 248. 254. 253. 255. 255. 255. 255. 255. 204. 102. 253. 254.
      253. 255. 255. 255. 254. 255. 204. 102. 255. 251. 255. 255. 255.
      255. 255. 253. 217. 140. 254. 255. 255. 255. 255.</_>
    <_>
      255. 255. 255. 255. 255. 255. 255. 255. 255. 107. 255. 13. 189.
      255. 254. 254. 254. 254. 172. 90. 255. 242. 253. 255. 254. 253.
      254. 254. 248. 255. 141. 255. 253. 254. 254. 255. 254. 255. 255.
      254. 255. 254. 254. 254. 255. 253. 254. 68. 252. 254. 255. 255.
      255. 255. 253. 254. 161. 243. 255. 255. 254. 255. 255. 255. 254.
      232. 115. 253. 255. 255. 254. 255. 255. 255. 254. 132. 254. 255.
      255. 255. 254. 255. 255. 255. 255. 76. 254. 255. 255. 255. 255.
      255. 254. 255. 38. 255. 253. 255. 255. 255. 254. 255. 254. 254. 0.
      231. 254. 255. 255. 255. 254. 255. 252. 168. 1. 253. 254. 255.
      255. 255. 254. 255. 254. 116. 2. 254. 254. 255. 255. 255. 254.
      253. 255. 131. 27. 253. 255. 255. 255. 255.</_>
    <_>
      131. 125. 217. 36. 44. 54. 32. 93. 127. 131. 130. 244. 48. 126.
      128. 129. 89. 44. 244. 128. 121. 40. 118. 132. 132. 136. 131. 73.
      41. 122. 179. 40. 119. 132. 131. 134. 130. 88. 41. 128. 121. 37.
      57. 127. 130. 133. 131. 38. 244. 130. 127. 245. 38. 38. 94. 117.
      40. 45. 128. 134. 134. 132. 87. 42. 41. 42. 157. 108. 129. 132.
      134. 122. 40. 56. 101. 61. 43. 43. 27. 123. 119. 39. 85. 137. 134.
      131. 128. 65. 43. 178. 181. 41. 132. 135. 136. 137. 135. 135. 57.
      183. 41. 34. 129. 136. 135. 139. 138. 136. 80. 32. 181. 41. 130.
      140. 138. 140. 137. 142. 46. 178. 165. 43. 62. 128. 135. 135. 132.
      60. 46. 135. 137. 117. 107. 46. 36. 39. 48. 255. 138. 140.</_>
    <_>
      200. 200. 132. 129. 203. 162. 91. 167. 200. 207. 198. 69. 196.
      201. 200. 199. 199. 128. 214. 202. 200. 147. 198. 200. 201. 201.
      196. 186. 72. 194. 251. 124. 197. 199. 202. 201. 196. 187. 70.
      194. 164. 67. 179. 199. 200. 197. 196. 137. 238. 196. 197. 162.
      70. 79. 177. 193. 102. 209. 198. 197. 199. 200. 183. 148. 67. 67.
      182. 188. 199. 197. 194. 180. 66. 192. 198. 188. 100. 69. 185.
      190. 168. 72. 195. 196. 196. 192. 190. 184. 85. 249. 68. 148. 191.
      193. 192. 191. 192. 192. 175. 67. 69. 153. 190. 190. 191. 189.
      191. 190. 181. 72. 80. 132. 189. 187. 185. 187. 185. 188. 170. 86.
      156. 68. 169. 182. 182. 180. 182. 180. 65. 186. 183. 176. 142. 53.
      118. 112. 58. 232. 184. 184.</_>
    <_>
      149. 146. 120. 50. 113. 107. 31. 174. 151. 151. 150. 102. 151.
      150. 149. 148. 148. 94. 118. 150. 145. 68. 143. 152. 150. 147.
      148. 144. 52. 152. 107. 65. 148. 150. 151. 149. 148. 147. 50. 156.
      135. 48. 137. 149. 148. 149. 149. 118. 93. 148. 150. 188. 41. 56.
      152. 143. 94. 76. 148. 150. 149. 146. 141. 148. 41. 39. 214. 157.
      149. 148. 149. 142. 110. 141. 142. 154. 27. 41. 94. 146. 147. 47.
      151. 148. 149. 150. 147. 143. 44. 113. 42. 69. 149. 153. 153. 150.
      150. 149. 141. 49. 37. 89. 147. 149. 151. 152. 149. 150. 143. 47.
      40. 53. 147. 150. 151. 151. 150. 149. 151. 68. 132. 47. 148. 150.
      150. 150. 150. 141. 41. 151. 148. 146. 220. 36. 83. 82. 40. 173.
      150. 151.</_>
    <_>
      144. 142. 132. 145. 95. 108. 92. 162. 133. 145. 143. 135. 111.
      137. 143. 143. 143. 130. 98. 128. 132. 95. 122. 142. 141. 144.
      144. 138. 116. 198. 123. 87. 108. 139. 140. 142. 142. 139. 112.
      200. 131. 247. 88. 95. 122. 138. 139. 124. 97. 129. 136. 118. 170.
      82. 85. 101. 106. 175. 133. 142. 138. 139. 133. 182. 88. 89. 179.
      110. 135. 145. 134. 147. 91. 121. 124. 100. 90. 90. 220. 130. 143.
      95. 128. 141. 138. 141. 125. 100. 92. 182. 93. 117. 137. 140. 141.
      144. 144. 139. 111. 106. 94. 125. 140. 140. 142. 142. 145. 143.
      124. 94. 199. 115. 138. 143. 141. 142. 143. 141. 117. 183. 127.
      102. 119. 134. 143. 142. 136. 117. 114. 139. 144. 143. 196. 142.
      81. 135. 184. 135. 143. 146.</_>
    <_>
      255. 254. 254. 176. 55. 139. 255. 255. 254. 255. 254. 196. 188.
      254. 253. 255. 217. 102. 254. 255. 254. 136. 255. 252. 253. 253.
      255. 160. 255. 255. 186. 166. 254. 254. 254. 254. 255. 191. 90.
      255. 255. 109. 254. 255. 255. 253. 255. 157. 255. 255. 253. 57.
      132. 250. 254. 255. 238. 188. 255. 255. 254. 255. 100. 7. 128.
      154. 222. 255. 253. 255. 253. 252. 145. 232. 241. 172. 3. 105.
      254. 254. 255. 56. 250. 254. 254. 254. 255. 213. 57. 255. 115.
      154. 254. 252. 253. 255. 255. 255. 150. 255. 115. 165. 255. 254.
      252. 255. 255. 253. 165. 185. 115. 128. 255. 255. 252. 254. 255.
      252. 109. 254. 255. 59. 186. 252. 255. 255. 254. 159. 214. 254.
      255. 254. 255. 167. 57. 113. 254. 255. 255. 255.</_>
    <_>
      254. 255. 255. 255. 19. 88. 255. 253. 254. 253. 254. 243. 193.
      252. 255. 253. 232. 30. 254. 252. 254. 23. 254. 255. 255. 255.
      255. 111. 229. 254. 255. 26. 254. 255. 255. 255. 255. 128. 229.
      254. 254. 9. 244. 255. 255. 255. 255. 82. 229. 254. 254. 238. 28.
      214. 255. 254. 146. 153. 252. 254. 253. 254. 255. 113. 0. 2. 211.
      254. 254. 254. 255. 255. 183. 245. 247. 101. 3. 253. 251. 254.
      254. 76. 254. 255. 254. 255. 253. 183. 51. 254. 77. 233. 254. 254.
      254. 254. 253. 252. 192. 255. 76. 254. 254. 255. 255. 255. 255.
      255. 254. 165. 77. 203. 254. 255. 254. 255. 255. 254. 175. 254.
      255. 26. 238. 254. 254. 255. 254. 207. 235. 253. 255. 254. 255.
      144. 18. 100. 255. 255. 255. 255.</_>
    <_>
      130. 129. 250. 50. 48. 48. 43. 141. 128. 127. 129. 94. 45. 120.
      130. 129. 95. 53. 215. 122. 188. 41. 106. 133. 131. 132. 128. 91.
      42. 134. 44. 44. 125. 133. 135. 135. 130. 134. 47. 201. 46. 35.
      127. 133. 135. 133. 130. 129. 54. 33. 52. 39. 129. 136. 136. 135.
      132. 128. 42. 43. 205. 45. 106. 135. 134. 135. 133. 76. 43. 42.
      133. 53. 44. 112. 126. 122. 54. 118. 55. 43. 135. 120. 136. 54.
      50. 54. 196. 132. 204. 44. 137. 137. 135. 135. 137. 139. 137. 138.
      45. 202. 137. 135. 134. 138. 138. 138. 139. 132. 46. 149. 203. 46.
      98. 135. 136. 139. 136. 87. 98. 128. 131. 41. 95. 122. 132. 130.
      187. 39. 132. 139. 136. 213. 53. 48. 48. 46. 249. 138. 141. 135.</_>
    <_>
      153. 153. 184. 178. 34. 41. 174. 192. 153. 154. 156. 156. 52. 146.
      154. 160. 118. 58. 169. 152. 225. 55. 161. 155. 157. 157. 153.
      114. 56. 232. 95. 50. 153. 154. 157. 153. 156. 170. 52. 119. 94.
      67. 152. 154. 154. 153. 155. 154. 64. 98. 96. 56. 151. 155. 157.
      154. 154. 155. 66. 98. 108. 49. 157. 155. 152. 155. 154. 84. 54.
      93. 137. 58. 53. 147. 152. 165. 59. 39. 64. 99. 153. 167. 188. 47.
      47. 160. 175. 155. 138. 96. 153. 155. 153. 152. 153. 151. 155.
      167. 51. 228. 150. 189. 148. 153. 155. 154. 153. 255. 56. 133. 85.
      52. 255. 156. 153. 153. 144. 63. 175. 151. 229. 53. 91. 146. 160.
      135. 73. 44. 150. 155. 151. 180. 176. 49. 43. 175. 184. 150. 155.
      156.</_>
    <_>
      154. 152. 183. 44. 54. 53. 50. 173. 147. 151. 157. 131. 57. 148.
      146. 151. 142. 65. 143. 146. 214. 54. 117. 152. 153. 154. 152.
      117. 52. 218. 73. 45. 164. 151. 152. 152. 154. 157. 47. 153. 81.
      43. 156. 151. 152. 153. 154. 156. 52. 80. 221. 41. 158. 150. 154.
      152. 153. 156. 51. 83. 239. 54. 117. 150. 154. 154. 156. 79. 50.
      82. 153. 146. 56. 112. 152. 151. 40. 121. 57. 82. 157. 145. 202.
      64. 52. 58. 125. 157. 164. 77. 153. 152. 151. 153. 155. 153. 151.
      157. 53. 239. 149. 155. 149. 152. 155. 152. 154. 230. 51. 149.
      242. 55. 99. 148. 154. 154. 166. 95. 158. 150. 241. 54. 103. 139.
      150. 162. 67. 34. 150. 154. 150. 180. 50. 48. 41. 90. 179. 155.
      153. 156.</_>
    <_>
      204. 203. 133. 88. 192. 156. 115. 179. 207. 202. 199. 72. 188.
      204. 204. 205. 204. 126. 158. 201. 250. 85. 198. 202. 205. 205.
      207. 193. 82. 185. 92. 129. 198. 202. 202. 205. 205. 201. 120.
      221. 88. 131. 199. 197. 201. 203. 205. 201. 150. 94. 105. 113.
      202. 202. 202. 202. 203. 198. 162. 76. 156. 74. 185. 200. 196.
      201. 203. 189. 73. 69. 193. 239. 78. 181. 195. 197. 159. 209. 167.
      81. 194. 193. 182. 249. 87. 248. 198. 196. 167. 83. 196. 197. 196.
      194. 196. 198. 199. 195. 231. 249. 193. 196. 195. 197. 195. 197.
      198. 189. 80. 162. 179. 68. 209. 197. 192. 194. 197. 177. 103.
      193. 173. 76. 71. 184. 194. 196. 180. 72. 196. 195. 189. 176. 147.
      67. 219. 57. 242. 194. 194. 195.</_>
    <_>
      149. 146. 209. 41. 120. 104. 32. 130. 151. 150. 148. 32. 132. 146.
      149. 148. 146. 66. 212. 151. 239. 49. 148. 150. 151. 149. 148.
      145. 48. 149. 40. 83. 150. 151. 151. 150. 149. 147. 30. 240. 42.
      106. 149. 150. 151. 150. 149. 150. 70. 37. 43. 83. 150. 150. 150.
      149. 148. 146. 83. 41. 205. 44. 147. 151. 149. 148. 147. 141. 39.
      42. 139. 40. 71. 149. 147. 144. 109. 174. 164. 44. 150. 144. 179.
      31. 30. 154. 148. 148. 184. 39. 151. 152. 155. 149. 149. 148. 150.
      147. 28. 240. 149. 150. 151. 153. 153. 150. 149. 150. 44. 153.
      138. 30. 130. 149. 150. 149. 146. 144. 170. 149. 243. 43. 149.
      149. 150. 148. 124. 39. 148. 154. 146. 181. 43. 86. 146. 33. 147.
      150. 151. 153.</_>
    <_>
      144. 139. 169. 140. 200. 200. 102. 212. 137. 145. 134. 237. 180.
      129. 142. 139. 133. 178. 236. 133. 155. 95. 123. 140. 141. 140.
      141. 119. 86. 113. 207. 239. 125. 141. 142. 141. 139. 123. 87.
      149. 91. 239. 126. 140. 141. 143. 139. 123. 238. 88. 206. 239.
      128. 141. 141. 142. 137. 120. 238. 87. 208. 123. 124. 141. 141.
      140. 135. 113. 84. 205. 125. 93. 185. 136. 139. 140. 125. 178. 84.
      107. 140. 130. 181. 165. 196. 185. 182. 108. 238. 204. 140. 139.
      141. 137. 141. 140. 134. 114. 86. 150. 136. 133. 139. 143. 142.
      140. 137. 183. 108. 122. 143. 92. 187. 137. 143. 143. 123. 127.
      164. 137. 209. 234. 127. 137. 141. 125. 95. 187. 138. 144. 136.
      204. 141. 83. 137. 164. 132. 141. 141. 144.</_>
    <_>
      255. 255. 254. 255. 86. 96. 255. 254. 254. 254. 252. 209. 122.
      254. 253. 253. 247. 90. 255. 254. 255. 50. 252. 254. 255. 255.
      255. 243. 10. 255. 128. 113. 254. 255. 254. 254. 255. 254. 98.
      192. 129. 126. 254. 254. 255. 254. 255. 254. 121. 127. 127. 118.
      253. 255. 254. 255. 254. 253. 127. 128. 156. 49. 250. 253. 255.
      254. 255. 205. 14. 127. 255. 101. 85. 245. 253. 254. 120. 209.
      128. 128. 253. 254. 174. 91. 92. 173. 254. 254. 236. 128. 254.
      255. 255. 253. 253. 254. 255. 252. 127. 254. 255. 254. 254. 255.
      254. 254. 254. 255. 64. 255. 253. 0. 253. 255. 254. 255. 255. 121.
      255. 254. 254. 1. 127. 253. 254. 254. 150. 210. 254. 254. 254.
      253. 255. 56. 96. 255. 255. 255. 255. 255.</_>
    <_>
      254. 250. 255. 233. 60. 75. 255. 255. 252. 253. 253. 255. 165.
      255. 254. 254. 254. 99. 255. 254. 255. 67. 255. 255. 255. 255.
      254. 254. 20. 255. 103. 177. 255. 255. 255. 255. 254. 254. 149.
      179. 102. 203. 255. 255. 255. 255. 255. 254. 191. 103. 103. 188.
      255. 255. 254. 253. 253. 254. 198. 102. 247. 56. 255. 254. 255.
      254. 254. 245. 9. 103. 254. 47. 86. 254. 254. 254. 155. 237. 204.
      102. 254. 255. 201. 160. 2. 200. 244. 255. 230. 102. 253. 253.
      254. 252. 254. 254. 254. 255. 204. 255. 254. 253. 255. 253. 254.
      254. 254. 255. 53. 254. 254. 34. 232. 253. 254. 254. 254. 192.
      255. 254. 255. 2. 200. 253. 254. 253. 211. 255. 254. 255. 254.
      237. 255. 18. 64. 255. 255. 255. 255. 255.</_>
    <_>
      129. 131. 129. 157. 22. 178. 130. 130. 130. 130. 126. 130. 129.
      125. 38. 173. 129. 129. 130. 131. 128. 130. 131. 127. 36. 167.
      126. 128. 129. 133. 126. 128. 128. 126. 129. 164. 129. 131. 130.
      130. 130. 131. 128. 129. 159. 157. 130. 130. 131. 134. 129. 129.
      127. 128. 161. 157. 130. 128. 129. 133. 200. 201. 199. 199. 41.
      36. 201. 199. 200. 200. 32. 35. 203. 203. 43. 42. 202. 202. 35.
      37. 129. 132. 128. 128. 153. 159. 135. 128. 133. 129. 131. 134.
      128. 133. 157. 159. 134. 129. 132. 134. 131. 133. 133. 130. 161.
      160. 134. 131. 132. 133. 129. 133. 133. 131. 167. 71. 132. 132.
      132. 134. 131. 133. 131. 131. 169. 39. 129. 132. 135. 133. 131.
      134. 134. 131. 180. 34. 131. 132. 133. 135.</_>
    <_>
      147. 148. 150. 144. 136. 143. 146. 147. 148. 145. 149. 150. 149.
      148. 138. 142. 144. 147. 149. 147. 148. 149. 149. 146. 137. 143.
      145. 147. 151. 147. 148. 147. 149. 148. 137. 144. 144. 146. 150.
      148. 150. 149. 147. 145. 138. 142. 144. 147. 148. 149. 145. 145.
      145. 139. 135. 181. 144. 144. 145. 145. 72. 76. 244. 244. 55. 143.
      244. 244. 71. 93. 80. 78. 201. 243. 57. 62. 243. 80. 77. 93. 145.
      146. 144. 144. 133. 179. 145. 146. 146. 148. 151. 153. 152. 147.
      138. 143. 147. 150. 152. 149. 153. 152. 149. 146. 136. 142. 147.
      151. 150. 151. 150. 152. 149. 145. 134. 141. 148. 149. 149. 149.
      150. 150. 151. 145. 132. 142. 149. 152. 150. 149. 150. 151. 151.
      146. 142. 146. 150. 149. 149. 152.</_>
    <_>
      158. 156. 155. 162. 59. 134. 157. 156. 156. 155. 158. 155. 156.
      160. 151. 133. 156. 155. 156. 154. 156. 155. 157. 160. 150. 192.
      156. 157. 155. 157. 156. 157. 154. 161. 146. 134. 154. 156. 157.
      156. 157. 155. 153. 159. 148. 188. 156. 155. 154. 157. 152. 153.
      151. 156. 147. 188. 152. 153. 154. 152. 66. 60. 50. 60. 53. 60.
      60. 53. 54. 52. 89. 245. 245. 246. 66. 145. 246. 245. 245. 249.
      154. 153. 153. 155. 147. 185. 155. 152. 154. 156. 154. 155. 154.
      159. 146. 137. 155. 155. 156. 156. 157. 156. 155. 153. 143. 137.
      153. 156. 154. 155. 156. 156. 156. 152. 144. 137. 155. 156. 155.
      157. 156. 155. 156. 153. 148. 136. 155. 156. 155. 155. 158. 155.
      156. 153. 141. 135. 154. 156. 156. 158.</_>
    <_>
      146. 147. 148. 147. 147. 146. 147. 148. 149. 150. 145. 146. 148.
      144. 136. 141. 147. 146. 148. 149. 146. 148. 147. 145. 136. 142.
      146. 147. 149. 148. 148. 148. 148. 145. 137. 138. 145. 146. 147.
      149. 147. 146. 146. 146. 140. 143. 149. 148. 148. 149. 143. 143.
      142. 139. 180. 140. 145. 144. 143. 138. 176. 173. 174. 172. 103.
      49. 172. 172. 172. 61. 176. 173. 174. 151. 104. 104. 155. 174.
      175. 177. 147. 146. 148. 144. 181. 181. 142. 147. 147. 146. 146.
      147. 149. 145. 133. 143. 144. 148. 147. 149. 149. 148. 146. 144.
      138. 139. 147. 148. 149. 149. 148. 147. 147. 146. 137. 139. 143.
      147. 150. 148. 148. 147. 147. 145. 137. 141. 147. 148. 147. 149.
      147. 149. 146. 146. 151. 156. 145. 148. 149. 148.</_>
    <_>
      153. 152. 152. 150. 132. 133. 152. 151. 153. 153. 154. 153. 151.
      150. 133. 142. 154. 151. 152. 154. 154. 154. 151. 149. 133. 142.
      153. 154. 152. 153. 156. 155. 151. 150. 131. 142. 154. 151. 154.
      154. 154. 150. 152. 149. 166. 141. 154. 154. 151. 156. 152. 150.
      150. 147. 184. 142. 152. 148. 150. 154. 71. 246. 245. 246. 50. 55.
      245. 245. 49. 64. 82. 71. 244. 244. 146. 56. 245. 244. 219. 87.
      153. 151. 149. 146. 185. 139. 152. 148. 149. 151. 153. 153. 154.
      150. 186. 137. 156. 153. 152. 152. 152. 153. 150. 149. 131. 141.
      156. 152. 151. 152. 150. 153. 151. 151. 134. 139. 158. 151. 155.
      156. 153. 152. 151. 150. 133. 142. 157. 151. 153. 152. 152. 152.
      153. 151. 131. 141. 156. 151. 152. 156.</_>
    <_>
      156. 154. 155. 160. 46. 23. 154. 154. 156. 153. 157. 156. 154.
      157. 236. 235. 153. 157. 155. 154. 156. 158. 156. 157. 235. 235.
      153. 156. 156. 154. 158. 158. 156. 158. 236. 235. 154. 157. 156.
      156. 157. 157. 155. 159. 236. 235. 153. 156. 155. 155. 154. 151.
      153. 154. 235. 235. 152. 149. 150. 149. 82. 57. 51. 51. 61. 55.
      55. 52. 55. 70. 247. 247. 248. 247. 71. 65. 248. 248. 247. 248.
      154. 155. 154. 153. 235. 235. 155. 154. 153. 155. 156. 158. 156.
      158. 235. 235. 158. 154. 153. 155. 156. 159. 157. 158. 236. 235.
      159. 157. 156. 157. 158. 159. 157. 158. 236. 235. 158. 157. 155.
      157. 157. 157. 157. 155. 236. 77. 157. 156. 157. 156. 158. 157.
      157. 159. 234. 41. 158. 155. 157. 157.</_>
    <_>
      152. 154. 153. 154. 60. 133. 151. 152. 154. 153. 152. 154. 154.
      152. 145. 134. 153. 152. 153. 154. 150. 153. 152. 152. 142. 136.
      151. 151. 153. 152. 152. 154. 150. 150. 145. 134. 149. 151. 152.
      154. 153. 153. 149. 151. 147. 130. 150. 152. 151. 153. 152. 151.
      150. 151. 145. 185. 152. 151. 151. 152. 51. 177. 177. 178. 56.
      111. 178. 177. 158. 44. 172. 170. 168. 159. 108. 105. 162. 163.
      169. 169. 152. 151. 150. 147. 142. 182. 148. 151. 150. 150. 152.
      153. 151. 148. 141. 132. 149. 154. 152. 153. 151. 155. 150. 148.
      142. 136. 151. 153. 153. 153. 151. 153. 151. 147. 142. 140. 150.
      152. 151. 155. 153. 155. 152. 147. 141. 138. 150. 151. 152. 153.
      151. 153. 152. 151. 243. 154. 150. 153. 154. 148.</_>
    <_>
      153. 152. 150. 150. 125. 154. 151. 152. 155. 155. 153. 153. 151.
      152. 142. 156. 155. 155. 152. 153. 155. 154. 152. 151. 142. 158.
      152. 152. 153. 155. 152. 151. 151. 150. 141. 160. 151. 154. 155.
      154. 152. 151. 151. 150. 140. 159. 153. 154. 154. 151. 150. 152.
      152. 149. 142. 155. 150. 149. 149. 154. 129. 127. 121. 113. 91.
      101. 213. 251. 251. 250. 132. 124. 125. 137. 136. 141. 145. 154.
      157. 159. 151. 154. 152. 150. 147. 158. 152. 152. 154. 154. 155.
      150. 151. 152. 152. 161. 153. 155. 154. 155. 155. 152. 152. 152.
      149. 155. 152. 154. 154. 154. 154. 153. 151. 152. 146. 157. 153.
      153. 154. 154. 153. 154. 153. 153. 149. 154. 151. 153. 154. 153.
      153. 154. 153. 154. 154. 165. 154. 151. 153. 153.</_>
    <_>
      147. 147. 146. 146. 130. 249. 147. 147. 147. 149. 146. 147. 148.
      148. 126. 125. 148. 148. 148. 147. 147. 149. 148. 147. 127. 127.
      146. 147. 147. 149. 147. 148. 149. 148. 125. 128. 147. 148. 148.
      150. 148. 147. 146. 146. 125. 129. 146. 145. 147. 149. 146. 146.
      144. 144. 121. 130. 143. 145. 146. 147. 194. 118. 118. 117. 104.
      104. 116. 119. 121. 196. 126. 126. 124. 121. 111. 111. 117. 122.
      123. 197. 146. 145. 143. 146. 125. 127. 144. 148. 144. 146. 145.
      147. 146. 145. 127. 132. 146. 147. 148. 148. 146. 148. 147. 145.
      123. 131. 147. 148. 148. 150. 147. 147. 146. 144. 124. 131. 147.
      148. 147. 148. 147. 145. 146. 145. 126. 133. 145. 148. 145. 147.
      147. 145. 144. 146. 249. 139. 146. 149. 148. 149.</_>
    <_>
      146. 147. 145. 145. 167. 130. 145. 149. 150. 148. 145. 145. 146.
      145. 125. 128. 144. 148. 148. 146. 147. 146. 146. 145. 126. 127.
      143. 145. 144. 146. 147. 145. 146. 144. 127. 126. 143. 144. 146.
      146. 145. 145. 144. 144. 128. 124. 146. 147. 145. 145. 145. 144.
      144. 143. 125. 120. 143. 145. 144. 144. 176. 171. 171. 170. 163.
      162. 169. 171. 174. 173. 174. 174. 173. 172. 167. 163. 171. 169.
      171. 171. 145. 143. 143. 144. 133. 121. 143. 142. 143. 144. 145.
      145. 146. 145. 136. 179. 144. 143. 145. 145. 145. 146. 145. 146.
      136. 176. 143. 144. 146. 145. 148. 147. 145. 143. 138. 178. 144.
      148. 145. 145. 146. 145. 146. 145. 140. 177. 145. 146. 145. 144.
      146. 145. 147. 146. 141. 179. 146. 145. 147. 147.</_>
    <_>
      255. 255. 255. 255. 255. 251. 255. 255. 255. 255. 255. 255. 255.
      255. 255. 255. 255. 255. 255. 255. 255. 255. 255. 255. 255. 255.
      255. 255. 255. 255. 255. 255. 255. 255. 254. 255. 255. 255. 255.
      255. 255. 255. 255. 255. 254. 255. 255. 255. 255. 255. 254. 255.
      255. 255. 255. 254. 255. 255. 252. 254. 254. 254. 254. 254. 253.
      255. 254. 254. 253. 255. 254. 255. 255. 255. 255. 255. 255. 255.
      255. 254. 255. 255. 255. 255. 255. 254. 255. 255. 255. 254. 255.
      255. 255. 255. 253. 254. 255. 255. 255. 254. 255. 255. 255. 255.
      254. 255. 255. 255. 255. 255. 255. 255. 255. 255. 255. 255. 255.
      255. 255. 255. 255. 255. 255. 255. 255. 255. 255. 255. 255. 255.
      255. 255. 255. 255. 255. 250. 255. 255. 255. 255.</_>
    <_>
      255. 255. 255. 255. 255. 255. 255. 255. 255. 255. 255. 255. 255.
      255. 254. 255. 255. 255. 255. 255. 255. 255. 255. 255. 255. 255.
      255. 255. 255. 255. 255. 255. 255. 255. 255. 255. 255. 255. 255.
      255. 255. 255. 255. 255. 255. 255. 255. 255. 255. 255. 254. 255.
      255. 255. 254. 255. 255. 255. 255. 254. 254. 254. 254. 254. 255.
      254. 254. 254. 255. 255. 254. 255. 255. 255. 255. 255. 255. 255.
      255. 254. 254. 254. 254. 254. 255. 254. 254. 254. 252. 253. 255.
      255. 255. 255. 255. 255. 255. 255. 255. 254. 255. 255. 255. 255.
      255. 255. 255. 255. 255. 255. 255. 255. 255. 255. 255. 255. 255.
      255. 255. 255. 255. 255. 255. 255. 255. 255. 255. 255. 255. 255.
      255. 255. 255. 255. 254. 255. 255. 255. 255. 255.</_>
    <_>
      255. 255. 255. 255. 255. 255. 255. 255. 255. 255. 222. 223. 224.
      223. 223. 223. 223. 223. 222. 222. 125. 129. 129. 128. 129. 128.
      127. 128. 123. 125. 27. 35. 35. 34. 34. 33. 32. 34. 25. 27. 28.
      38. 38. 37. 38. 37. 36. 37. 33. 34. 28. 42. 41. 41. 41. 42. 41.
      42. 41. 42. 28. 43. 43. 43. 43. 45. 43. 44. 44. 44. 28. 42. 43.
      43. 43. 46. 46. 45. 44. 45. 27. 41. 42. 43. 42. 46. 46. 46. 43.
      44. 25. 38. 38. 40. 36. 42. 42. 44. 39. 41. 24. 35. 34. 36. 31.
      38. 39. 43. 36. 38. 123. 129. 128. 130. 127. 131. 131. 134. 130.
      131. 222. 223. 223. 224. 223. 224. 224. 225. 224. 224. 255. 255.
      255. 255. 255. 255. 255. 255. 255. 255.</_>
    <_>
      255. 255. 255. 255. 255. 255. 255. 255. 255. 255. 247. 248. 248.
      247. 248. 248. 248. 248. 248. 248. 174. 174. 174. 173. 176. 175.
      174. 177. 175. 180. 100. 101. 101. 99. 104. 102. 101. 105. 101.
      111. 48. 50. 50. 48. 53. 51. 50. 55. 51. 63. 49. 52. 52. 50. 55.
      52. 52. 55. 52. 62. 49. 53. 54. 53. 56. 54. 54. 55. 53. 61. 50.
      53. 54. 54. 56. 54. 55. 55. 53. 59. 51. 51. 54. 54. 55. 54. 56.
      53. 52. 57. 52. 50. 54. 53. 54. 53. 56. 52. 51. 55. 103. 101. 105.
      104. 104. 104. 106. 103. 102. 103. 175. 174. 176. 176. 176. 176.
      177. 175. 175. 172. 248. 247. 248. 248. 248. 248. 248. 248. 248.
      241. 255. 255. 255. 255. 255. 255. 255. 255. 255. 248.</_>
    <_>
      249. 255. 106. 104. 104. 103. 255. 105. 255. 249. 223. 226. 127.
      126. 126. 124. 225. 126. 225. 219. 145. 140. 191. 190. 190. 189.
      136. 190. 133. 127. 67. 54. 255. 255. 255. 255. 47. 255. 42. 36.
      65. 53. 167. 168. 169. 168. 50. 168. 46. 41. 63. 51. 80. 81. 84.
      82. 54. 81. 50. 47. 63. 52. 53. 54. 55. 54. 55. 53. 51. 106. 63.
      55. 57. 55. 55. 54. 55. 55. 51. 192. 63. 57. 87. 85. 83. 83. 83.
      84. 75. 250. 61. 56. 171. 170. 169. 169. 169. 170. 150. 250. 58.
      55. 255. 255. 255. 255. 255. 255. 224. 250. 140. 141. 192. 193.
      194. 197. 195. 195. 187. 250. 221. 226. 129. 132. 133. 140. 136.
      136. 151. 250. 249. 255. 108. 112. 112. 121. 116. 116. 138. 250.</_>
    <_>
      249. 255. 102. 95. 98. 255. 255. 255. 255. 255. 220. 225. 123.
      118. 120. 225. 225. 225. 225. 225. 134. 136. 189. 186. 187. 135.
      137. 134. 136. 136. 47. 46. 255. 255. 255. 45. 49. 43. 47. 47. 52.
      47. 167. 167. 167. 47. 49. 47. 50. 50. 56. 48. 80. 79. 80. 48. 48.
      51. 52. 53. 57. 49. 52. 51. 51. 49. 49. 51. 53. 55. 54. 50. 54.
      51. 52. 50. 50. 50. 53. 55. 53. 48. 76. 81. 82. 80. 80. 78. 82.
      84. 54. 41. 138. 168. 168. 167. 167. 167. 168. 169. 55. 33. 201.
      255. 255. 255. 255. 255. 255. 255. 138. 128. 175. 194. 199. 197.
      196. 200. 200. 204. 221. 223. 150. 133. 144. 139. 137. 145. 144.
      152. 249. 255. 142. 112. 126. 119. 117. 127. 126. 135.</_>
    <_>
      141. 125. 121. 110. 106. 99. 99. 255. 255. 255. 157. 144. 140.
      131. 127. 121. 122. 224. 224. 225. 206. 199. 197. 193. 191. 188.
      188. 133. 130. 135. 255. 255. 255. 255. 255. 255. 255. 42. 37. 45.
      167. 165. 165. 161. 160. 158. 159. 36. 34. 43. 80. 76. 75. 67. 65.
      62. 62. 31. 31. 41. 47. 45. 44. 37. 33. 31. 31. 30. 30. 41. 41.
      44. 43. 38. 32. 34. 32. 31. 31. 41. 38. 42. 42. 39. 32. 35. 64.
      63. 63. 72. 38. 40. 40. 40. 34. 37. 159. 159. 159. 163. 38. 38.
      37. 40. 37. 39. 255. 255. 255. 255. 131. 131. 131. 132. 130. 132.
      189. 191. 193. 195. 224. 224. 224. 224. 224. 224. 123. 128. 131.
      135. 255. 255. 255. 255. 255. 255. 101. 107. 110. 116.</_>
    <_>
      255. 255. 255. 255. 255. 255. 255. 255. 255. 255. 255. 255. 255.
      255. 255. 255. 255. 255. 255. 255. 219. 216. 217. 216. 216. 215.
      216. 216. 217. 218. 172. 165. 166. 164. 165. 163. 164. 165. 167.
      170. 124. 114. 114. 111. 113. 110. 112. 113. 116. 121. 89. 76. 76.
      73. 75. 71. 73. 74. 79. 85. 90. 78. 77. 75. 77. 74. 75. 76. 81.
      87. 92. 79. 78. 77. 79. 77. 77. 78. 83. 88. 94. 81. 80. 79. 82.
      81. 79. 80. 85. 90. 129. 119. 117. 117. 119. 119. 117. 117. 122.
      125. 175. 168. 168. 167. 169. 168. 168. 168. 170. 173. 220. 218.
      217. 217. 218. 218. 217. 217. 219. 220. 255. 255. 255. 255. 255.
      255. 255. 255. 255. 255. 255. 255. 255. 255. 255. 255. 255. 255.
      255. 255.</_>
    <_>
      255. 255. 255. 255. 255. 255. 255. 255. 255. 255. 249. 249. 249.
      249. 249. 249. 249. 249. 249. 249. 190. 188. 189. 190. 189. 190.
      190. 189. 189. 191. 130. 127. 128. 131. 128. 130. 132. 130. 129.
      133. 89. 84. 86. 89. 85. 88. 90. 87. 86. 92. 90. 84. 86. 86. 83.
      85. 87. 84. 85. 91. 91. 85. 86. 84. 80. 82. 83. 81. 83. 89. 121.
      115. 116. 113. 110. 112. 113. 111. 113. 105. 179. 176. 176. 175.
      173. 174. 175. 174. 175. 140. 237. 237. 237. 236. 236. 236. 236.
      236. 236. 175. 224. 224. 223. 223. 223. 223. 222. 222. 222. 185.
      179. 179. 176. 177. 176. 176. 175. 175. 175. 184. 134. 134. 131.
      131. 130. 130. 128. 127. 128. 183. 129. 129. 126. 126. 126. 125.
      123. 123. 123. 183.</_>
    <_>
      255. 255. 255. 255. 255. 255. 255. 255. 255. 255. 255. 255. 255.
      255. 255. 255. 255. 255. 255. 255. 215. 216. 216. 216. 215. 215.
      217. 215. 215. 214. 162. 165. 164. 164. 162. 162. 166. 161. 162.
      161. 109. 114. 112. 112. 108. 108. 115. 107. 108. 107. 69. 75. 73.
      73. 68. 68. 76. 67. 67. 66. 68. 73. 71. 71. 67. 66. 72. 67. 66.
      66. 68. 71. 70. 68. 67. 65. 69. 68. 65. 65. 67. 69. 68. 66. 67.
      64. 66. 68. 63. 65. 107. 109. 108. 106. 107. 105. 106. 108. 104.
      105. 161. 162. 162. 160. 161. 159. 160. 162. 159. 160. 215. 215.
      215. 214. 215. 214. 214. 215. 214. 214. 255. 255. 255. 255. 255.
      255. 255. 255. 255. 255. 255. 255. 255. 255. 255. 255. 255. 255.
      255. 255.</_>
    <_>
      255. 255. 255. 255. 255. 255. 255. 255. 255. 255. 255. 255. 255.
      255. 255. 255. 255. 255. 255. 255. 223. 222. 222. 222. 222. 222.
      223. 223. 223. 223. 181. 178. 179. 179. 179. 179. 181. 180. 180.
      180. 138. 134. 135. 135. 135. 135. 138. 136. 137. 137. 106. 101.
      102. 102. 102. 103. 106. 104. 105. 104. 106. 102. 103. 102. 102.
      103. 106. 104. 105. 104. 106. 103. 103. 102. 102. 103. 106. 103.
      104. 104. 105. 104. 104. 102. 102. 103. 105. 103. 104. 103. 137.
      136. 136. 135. 135. 135. 137. 135. 136. 136. 180. 180. 180. 179.
      179. 179. 180. 179. 180. 179. 223. 223. 223. 222. 222. 222. 223.
      222. 223. 222. 255. 255. 255. 255. 255. 255. 255. 255. 255. 255.
      255. 255. 255. 255. 255. 255. 255. 255. 255. 255.</_>
    <_>
      253. 252. 254. 254. 254. 254. 254. 254. 254. 255. 253. 253. 254.
      254. 254. 254. 254. 254. 254. 249. 253. 253. 254. 254. 254. 254.
      254. 254. 254. 195. 254. 254. 255. 255. 255. 255. 255. 255. 255.
      140. 228. 228. 228. 228. 228. 228. 228. 228. 228. 91. 137. 137.
      137. 137. 137. 137. 137. 137. 137. 55. 46. 46. 46. 46. 46. 46. 46.
      46. 46. 19. 46. 46. 46. 46. 46. 46. 46. 46. 46. 19. 137. 137. 137.
      137. 137. 137. 137. 137. 137. 56. 228. 228. 228. 228. 228. 228.
      228. 228. 228. 92. 255. 255. 255. 255. 255. 255. 255. 255. 255.
