<?xml version="1.0"?>
<opencv_storage>
<my_svm type_id="opencv-ml-svm">
  <svm_type>C_SVC</svm_type>
  <kernel><type>LINEAR</type></kernel>
  <C>1.0000000000000001e-001</C>
  <term_criteria><epsilon>1.0000000116860974e-007</epsilon>
    <iterations>2147483647</iterations></term_criteria>
  <var_all>784</var_all>
  <var_count>784</var_count>
  <class_count>15</class_count>
  <class_labels type_id="opencv-matrix">
    <rows>1</rows>
    <cols>15</cols>
    <dt>i</dt>
    <data>
      0 1 2 3 4 5 6 7 8 9 10 11 12 13 26</data></class_labels>
  <sv_total>105</sv_total>
  <support_vectors>
    <_>
      -2.35307021e-012 -2.41377204e-013 -2.41377204e-013
      -5.98907434e-007 -1.59708623e-006 -2.94741790e-006
      -9.57331758e-006 -2.10455746e-005 -3.11950498e-005
      -2.65482413e-005 -1.32914201e-005 -2.58742944e-006 0. 0. 0. 0. 0.
      0. 0. -1.00659317e-005 -1.35047658e-005 -5.85554244e-006
      2.65740482e-006 -1.57642930e-007 -2.41377204e-013 -2.41377204e-013
      -2.41377204e-013 -2.41377204e-013 -1.79380382e-012 8.15269212e-021
      -1.04157755e-006 -3.88855733e-006 -6.37589892e-006
      -1.85467070e-005 -2.41882608e-005 -1.05297731e-005
      -3.15647685e-006 4.60129468e-006 1.07802816e-005 2.44702569e-005
      2.62192207e-005 1.56630995e-005 8.13153747e-006 -3.30690750e-006
      1.63176730e-006 1.94275663e-006 -5.86856686e-006 -1.33366411e-005
      -1.78647133e-005 -1.93068554e-005 -1.56599981e-005
      -1.88198937e-005 -1.02092336e-005 -1.17055822e-006 8.15269212e-021
      8.15269212e-021 -2.11169320e-012 4.89205263e-007 9.83349037e-006
      6.20915372e-008 -2.44799912e-006 2.15823525e-006 4.13395537e-006
      8.74429406e-006 2.52613409e-005 3.23830791e-005 2.75725506e-005
      9.48300112e-006 -1.57169652e-005 -2.19874310e-005 -2.19874310e-005
      -1.91658182e-005 -1.30869432e-006 1.76957656e-005 2.10487178e-005
      1.36718663e-005 5.76336924e-006 -5.59548880e-006 -2.56063922e-005
      -3.21448460e-005 -2.07223929e-005 -6.04047091e-006
      -1.62076603e-007 8.15269212e-021 3.42439671e-005 3.38642094e-005
      1.22444699e-005 2.58511591e-007 1.64048527e-006 3.68892165e-006
      2.18994937e-005 2.19069861e-005 7.06344781e-006 -5.70181146e-006
      -3.29920113e-005 -3.79596568e-005 -3.65994820e-005
      -3.88475528e-005 -3.88475528e-005 -3.79375015e-005
      -1.54334648e-005 -3.12901534e-006 1.89028324e-005 2.06063232e-005
      1.81709129e-005 6.73769182e-006 -1.51073755e-005 -3.52774150e-005
      -3.63665749e-005 -2.74772356e-005 -6.34172875e-006 8.15269212e-021
      3.75939780e-005 1.83581906e-005 2.31284798e-006 -1.15066359e-005
      -1.81807227e-005 4.03503782e-006 7.77015703e-006 8.57764917e-006
      1.33851756e-007 -2.03902873e-005 -2.91483666e-005 -3.45416156e-005
      -2.68718250e-005 -9.52854316e-006 -1.36986673e-005
      -2.55150662e-005 -2.44223138e-005 -1.57318755e-005
      -1.20931043e-006 1.12931411e-005 1.80729221e-005 1.33799986e-005
      3.91954609e-006 -1.78442097e-005 -3.88475528e-005 -3.65650740e-005
      -2.60761881e-005 -2.04451590e-006 2.53892176e-005 3.38031714e-006
      -2.49336645e-005 -2.43559771e-005 1.43864077e-006 1.78591526e-005
      2.46980071e-005 2.25827152e-005 4.60628416e-006 -6.02815726e-006
      -3.35591176e-006 -3.25116366e-006 1.20979689e-006 8.15269212e-021
      -2.69386715e-006 -9.40600057e-006 -8.35713490e-006
      -1.67653270e-005 -9.98038740e-006 4.83975737e-006 1.55688649e-005
      1.29223636e-005 1.18241796e-005 -4.90881848e-006 -2.53313610e-005
      -3.88475528e-005 -3.41484883e-005 -2.25973163e-005 8.09958237e-006
      -8.42315217e-007 8.92494143e-007 2.16704539e-005 3.81028367e-005
      3.80700876e-005 3.28688729e-005 1.35808496e-005 -3.23271684e-006
      4.06646768e-006 1.50186515e-005 3.14502104e-005 4.50765356e-006
      8.15269212e-021 8.15269212e-021 8.15269212e-021 -2.44721559e-006
      -5.72257159e-006 -5.10286645e-006 4.81459892e-006 7.74290402e-006
      1.24140142e-005 1.26468785e-005 1.39051281e-006 -1.23087402e-005
      -2.97613842e-005 -3.88475528e-005 -3.04545938e-005
      -9.84957205e-006 -1.17662157e-005 6.48176183e-007 2.16561148e-005
      2.64563914e-005 2.37836812e-005 5.12434872e-006 -2.45569554e-005
      -1.76398116e-005 1.18685039e-005 3.58053185e-005 3.14502104e-005
      4.50765356e-006 8.15269212e-021 8.15269212e-021 8.15269212e-021
      -2.64104369e-006 -1.78520065e-006 4.37247127e-006 1.59369404e-006
      4.67596237e-006 1.27586927e-005 3.22399933e-006 1.46837851e-006
      -3.78481900e-006 -1.72281616e-005 -3.47992718e-005
      -3.51673116e-005 -3.88475528e-005 -3.75407108e-005
      -1.94044660e-005 -8.89557555e-007 8.15269212e-021 -3.18102775e-006
      -1.36878816e-005 -3.88475528e-005 -1.77710936e-005 2.23724091e-005
      3.76997232e-005 3.27026573e-005 5.45647572e-006 8.15269212e-021
      8.15269212e-021 8.15269212e-021 6.28594933e-007 4.95437598e-006
      3.33688172e-006 1.61080152e-006 -5.66581377e-007 1.10762721e-005
      1.29892715e-006 8.15269212e-021 -2.43034810e-006 -1.16111123e-005
      -3.34354845e-005 -3.87818327e-005 -3.88475528e-005
      -3.25399051e-005 -7.16327668e-006 8.15269212e-021 8.15269212e-021
      -3.18102798e-006 -1.70518306e-005 -3.88475528e-005
      -1.55883426e-005 2.84069120e-005 3.88475528e-005 3.58337784e-005
      7.82853385e-006 8.15269212e-021 8.15269212e-021 8.15269212e-021
      8.15269212e-021 8.09383619e-006 7.83864289e-006 2.82918364e-007
      -1.93983078e-006 -5.70476175e-007 6.63527999e-007 8.15269212e-021
      -4.77389108e-007 -1.07511260e-005 -3.34243523e-005
      -3.88475528e-005 -3.88475528e-005 -3.07468763e-005
      -3.45768535e-006 8.15269212e-021 8.15269212e-021 -3.18102775e-006
      -2.01539751e-005 -3.88475528e-005 -1.79747312e-005 2.74477261e-005
      3.88475528e-005 3.58337784e-005 7.82853385e-006 8.15269212e-021
      8.15269212e-021 8.15269212e-021 8.15269212e-021 1.15645689e-005
      1.12674825e-005 9.63950060e-006 -6.22575681e-006 -3.18944376e-006
      6.63527999e-007 8.15269212e-021 8.15269212e-021 -6.18759032e-006
      -3.08331073e-005 -3.88475528e-005 -3.88475528e-005
      -3.01929249e-005 -2.31284821e-006 8.15269212e-021 8.15269212e-021
      -3.18102798e-006 -2.82995279e-005 -3.88475528e-005
      -1.65491092e-005 2.82834353e-005 3.88475528e-005 3.58337784e-005
      7.82853385e-006 8.15269212e-021 8.15269212e-021 8.15269212e-021
      8.15269212e-021 1.22902966e-005 1.70157855e-005 9.63950060e-006
      -9.13295116e-006 -4.84246630e-006 -2.84386965e-006 8.15269212e-021
      8.15269212e-021 -5.04275249e-006 -3.02791541e-005 -3.88475528e-005
      -3.88475528e-005 -3.01929249e-005 -2.31284821e-006 8.15269212e-021
      8.15269212e-021 -3.18102775e-006 -2.93678277e-005 -3.88475528e-005
      -1.16723104e-005 3.11422482e-005 3.88475528e-005 3.58337784e-005
      7.82853385e-006 8.15269212e-021 8.15269212e-021 8.15269212e-021
      8.15269212e-021 1.27861158e-005 2.18923615e-005 1.02748991e-005
      -6.97259838e-006 -4.84246584e-006 -3.42843350e-006 8.15269212e-021
      8.15269212e-021 -2.84698149e-006 -2.92166860e-005 -3.88475528e-005
      -3.88475528e-005 -3.01929249e-005 -2.31284821e-006 8.15269212e-021
      8.15269212e-021 -3.18102775e-006 -2.93678277e-005 -3.83007937e-005
      -9.92543028e-006 3.19150677e-005 3.88475528e-005 3.58337784e-005
      7.82853385e-006 8.15269212e-021 8.15269212e-021 8.15269212e-021
      8.15269212e-021 1.27861158e-005 2.18923615e-005 1.05290592e-005
      -6.10845382e-006 -1.24601074e-005 -3.42843350e-006 8.15269212e-021
      8.15269212e-021 -2.84698149e-006 -2.92166860e-005 -3.88475528e-005
      -3.88475528e-005 -2.85917213e-005 8.15269212e-021 8.15269212e-021
      8.15269212e-021 -3.18102775e-006 -2.93678277e-005 -3.27237758e-005
      -5.55425549e-006 3.19150677e-005 3.88475528e-005 3.60263184e-005
      7.97439861e-006 8.15269212e-021 8.15269212e-021 8.15269212e-021
      8.15269212e-021 1.27861158e-005 2.19302092e-005 1.05936233e-005
      -6.10845382e-006 -9.35983371e-006 -3.42843350e-006 8.15269212e-021
      8.15269212e-021 -2.54192543e-007 -2.86475351e-005 -3.88475528e-005
      -3.88475528e-005 -2.90492098e-005 -6.60815488e-007 8.15269212e-021
      8.15269212e-021 -3.18102775e-006 -2.93678277e-005 -3.27237758e-005
      -8.32997375e-006 3.18259445e-005 3.76890021e-005 2.72732996e-005
      5.83710562e-006 8.15269212e-021 8.15269212e-021 8.15269212e-021
      8.15269212e-021 1.27861158e-005 2.19806734e-005 1.06797088e-005
      -6.10845382e-006 -5.08662106e-006 -3.42843350e-006 8.15269212e-021
      8.15269212e-021 8.15269212e-021 -2.85917358e-005 -3.88475528e-005
      -3.88475528e-005 -3.01929249e-005 -2.31284821e-006 8.15269212e-021
      8.15269212e-021 -1.91253412e-006 -2.87143630e-005 -3.27237758e-005
      -1.39719814e-005 2.90675562e-005 3.83303413e-005 3.21291736e-005
      7.02816715e-006 8.15269212e-021 8.15269212e-021 8.15269212e-021
      8.15269212e-021 1.27861158e-005 2.19806734e-005 1.06797088e-005
      -6.10845382e-006 -9.71520603e-006 -3.42843350e-006 8.15269212e-021
      8.15269212e-021 -1.21551659e-006 -2.91798879e-005 -3.88475528e-005
      -3.88475528e-005 -3.32962918e-005 -8.72647070e-006 8.15269212e-021
      8.15269212e-021 -8.89556077e-007 -2.04650878e-005 -3.50201917e-005
      -1.85162717e-005 2.74477261e-005 3.88475528e-005 3.59659134e-005
      7.92863739e-006 8.15269212e-021 8.15269212e-021 8.15269212e-021
      8.15269212e-021 1.27861158e-005 2.18923615e-005 1.05290592e-005
      2.29861985e-006 4.27586798e-007 -3.42843350e-006 8.15269212e-021
      8.15269212e-021 -3.26338909e-006 -2.98885607e-005 -3.88475528e-005
      -3.88475528e-005 -3.39212384e-005 -1.38608848e-005
      -1.06746904e-006 8.15269212e-021 -8.89556361e-007 -1.58364983e-005
      -3.88475528e-005 -2.76621649e-005 2.00009563e-005 3.78617297e-005
      3.58337784e-005 9.14116481e-006 1.14325769e-006 8.15269212e-021
      8.15269212e-021 8.15269212e-021 9.18836065e-007 1.63055065e-005
      9.63950060e-006 -7.25877101e-007 3.54608846e-006 -3.37180290e-006
      8.15269212e-021 8.15269212e-021 -5.04275249e-006 -3.02791541e-005
      -3.88475528e-005 -3.56705568e-005 -3.39402104e-005
      -1.43740954e-005 -1.32330206e-006 8.15269212e-021 8.15269212e-021
      -8.37833522e-006 -3.44915898e-005 -2.24815885e-005 9.43737268e-006
      3.56292439e-005 3.58375510e-005 9.33154388e-006 1.30658020e-006
      8.15269212e-021 8.15269212e-021 8.15269212e-021 -3.49420930e-007
      2.33466267e-006 3.78585446e-006 -6.79079221e-007 3.68587575e-006
      1.14992361e-006 6.37506474e-008 -2.65608850e-008 -1.00059851e-005
      -3.30097610e-005 -3.88475528e-005 -3.42483763e-005
      -3.86101456e-005 -2.91686101e-005 -6.94913115e-006 8.15269212e-021
      8.15269212e-021 -3.77256856e-006 -2.57410902e-005 -2.24815885e-005
      -5.22523464e-007 3.09739298e-005 3.40136103e-005 1.79278668e-005
      1.30658020e-006 8.15269212e-021 8.15269212e-021 8.15269212e-021
      -5.97478038e-006 -1.01345249e-005 3.54045778e-006 5.89998535e-006
      1.68223087e-005 1.20456189e-005 3.57013710e-006 -1.48745698e-006
      -1.85929039e-005 -3.64609223e-005 -3.88475528e-005
      -2.49068180e-005 -3.88475528e-005 -3.39684484e-005
      -1.94010081e-005 -1.70095211e-006 8.15269212e-021 -1.11830343e-006
      -1.12291500e-005 -2.32639704e-005 -9.82623897e-006 4.02773685e-006
      3.60673257e-005 2.16029730e-005 1.30658020e-006 8.15269212e-021
      8.15269212e-021 -2.48035508e-006 -1.95434986e-005 -1.79597155e-005
      -6.18456897e-006 1.87205405e-005 2.36080687e-005 1.20456189e-005
      3.57013778e-006 -3.67370535e-006 -2.54128445e-005 -3.88475528e-005
      -3.52351526e-005 -1.43821335e-005 -3.12671436e-005
      -3.88475528e-005 -2.89439013e-005 -1.51179202e-005
      -8.68754285e-007 8.15269212e-021 3.26649297e-006 -1.13620217e-005
      -1.41737419e-005 -6.85259977e-007 1.75582136e-006 1.68195347e-005
      1.30658020e-006 8.15269212e-021 8.15269212e-021 -1.53522851e-005
      -3.34872893e-005 -2.37730037e-005 5.91234254e-007 2.67125488e-005
      2.72484649e-005 1.29351774e-005 1.28146974e-006 -1.76198082e-005
      -3.62363098e-005 -3.88475528e-005 -3.21142652e-005
      -1.52845735e-006 -2.00686900e-005 -3.27815505e-005
      -3.77848737e-005 -2.49963723e-005 -8.93127708e-006 3.06575294e-006
      8.34253024e-006 1.46212933e-005 2.68199324e-006 -1.70981673e-006
      -8.77189632e-006 -1.14536742e-005 -1.42967774e-005
      -7.69400140e-006 -2.48082797e-005 -3.36602789e-005
      -3.76021744e-005 -2.16030203e-005 1.31560682e-005 3.51594317e-005
      3.82184553e-005 2.84991329e-005 -9.46848286e-006 -3.82065555e-005
      -3.88475528e-005 -3.36965822e-005 -1.00118514e-005 9.26841858e-006
      1.15576258e-005 -6.22333528e-006 -1.50726210e-005 -4.68591134e-006
      1.68991392e-005 2.22278686e-005 3.71508831e-005 3.88475528e-005
      3.83179395e-005 1.62128399e-005 -1.19247852e-005 -2.28743229e-005
      -3.75409727e-005 -3.38660320e-005 -3.54672338e-005
      -3.88475528e-005 -3.36090197e-005 -7.48348248e-006 1.41082164e-005
      3.69009758e-005 3.81556638e-005 2.98508876e-005 -1.69371663e-006
      -1.50778442e-006 2.40349937e-006 2.86793584e-005 3.71538372e-005
      9.26841858e-006 1.65691072e-005 1.11654126e-005 1.50221013e-005
      -1.19322215e-006 -6.37609719e-006 -2.17914726e-006 1.25230472e-005
      1.81863834e-005 2.31846589e-005 1.36978697e-005 -4.21906316e-006
      -2.06321438e-005 -2.42566311e-005 -2.44035691e-005
      -2.44035691e-005 -9.17370562e-006 -5.26606209e-006
      -4.98151985e-006 7.14985163e-007 -1.27031899e-006 -4.65521771e-006
      -1.18617208e-006 0. 1.58096350e-006 2.29319830e-005
      3.85066087e-005 3.88475528e-005 9.26841949e-006 1.66482423e-005
      1.44087480e-005 2.23503466e-005 6.82139171e-006 -5.58091415e-006
      -2.44769199e-005 -1.65945548e-005 -8.04314550e-006
      -5.07737332e-006 2.72363013e-006 1.28215634e-005 1.48821755e-005
      2.18061341e-005 1.74494944e-005 1.27251024e-005 3.50373853e-006
      3.25435281e-006 -1.81267887e-006 -1.06490888e-005 -1.87261576e-005
      -1.93418800e-005 -2.40177487e-005 -2.24823689e-005 2.01955504e-006
      1.30313147e-005 3.88475528e-005 3.88475528e-005 9.26841858e-006
      1.66482423e-005 1.95394805e-005 2.76496758e-005 3.58750513e-005
      3.12725133e-005 1.88516624e-005 1.04893143e-005 3.41373061e-006 0.
      0. 0. 0. 0. 0. 0. 0. 0. 0. 1.33157380e-006 4.73874525e-006
      1.48372692e-005 2.97964689e-005 3.88475528e-005 3.88475528e-005
      3.88475528e-005 3.88475528e-005 3.88475528e-005</_>
    <_>
      -5.63693894e-013 -6.87731122e-014 -6.87731122e-014
      -3.45583260e-007 2.76521541e-006 8.84850124e-006 9.65218987e-006
      9.09975824e-006 6.40601775e-006 2.48903120e-006 0. 0. 0. 0. 0. 0.
      0. 0. -4.63308282e-007 -4.35473930e-006 -6.96885081e-007
      -7.69715825e-006 -5.97765029e-006 -1.50386583e-007
      -6.87731122e-014 -6.87731122e-014 -6.87731122e-014
      -6.87731122e-014 -9.84849612e-014 6.77626358e-021 5.53837936e-007
      7.20036815e-006 7.40296673e-006 -2.74191734e-006 -5.11254541e-007
      -3.76396542e-006 -9.20404818e-006 -9.31279192e-006
      -6.85271607e-006 -3.20760614e-006 -2.72599664e-006 9.08197399e-006
      1.62693559e-005 1.60879190e-005 7.22305504e-006 3.33284402e-006
      2.23264237e-006 1.04509820e-006 1.13176952e-006 -2.68527242e-006
      -8.17063210e-006 -4.17286810e-006 -1.23721031e-006
      -4.72227910e-008 6.77626358e-021 6.77626358e-021 1.15871967e-006
      9.06029254e-006 1.54223490e-005 3.99439114e-006 -4.53333087e-006
      7.79544678e-007 -7.74943055e-006 -1.51084841e-005 -5.73417083e-006
      -3.42234102e-006 -3.66146060e-006 -1.35221962e-005
      -1.89652874e-005 -1.89652874e-005 -1.96528272e-005
      -1.44793548e-005 -6.57031342e-006 -4.12965903e-007 7.80368055e-007
      6.01598822e-006 1.31342586e-005 3.53082896e-006 -2.78290145e-006
      -1.56281985e-005 7.65361051e-007 4.15667046e-006 -6.53851195e-009
      6.77626358e-021 1.24676344e-005 1.87617334e-005 -7.73234035e-007
      -1.96449787e-006 -1.02548611e-005 -1.70172571e-005 3.65169103e-006
      2.04999810e-006 1.48032723e-006 6.02249747e-006 -2.11197912e-005
      -2.45329629e-005 -2.30174956e-005 -2.53538401e-005
      -2.69328939e-005 -3.04537880e-005 -2.30268470e-005
      -1.24721682e-005 -6.69285214e-007 1.24262203e-006 7.67634356e-006
      8.00908310e-006 -8.81078995e-006 -2.86848558e-006 -1.67999879e-005
      -1.56051901e-005 -3.57183671e-006 6.77626358e-021 1.21280673e-005
      1.43022826e-005 -5.96475559e-007 -2.03993277e-005 -1.20397681e-005
      1.01180149e-005 9.41185681e-006 9.78913340e-006 -4.16223202e-006
      -1.30663102e-005 -1.25915740e-005 -1.75369223e-005 3.83053020e-006
      2.09372683e-005 5.03418050e-006 -1.11928721e-005 -2.78132829e-005
      -3.26781992e-005 -1.88961531e-005 -7.77224886e-006 1.89411355e-006
      6.15399358e-006 1.46577695e-005 7.61549063e-006 -3.00170359e-006
      -1.60516647e-005 -1.55551916e-005 -1.33690105e-006
      -1.84311716e-006 -4.21344430e-006 -7.33619072e-006
      -2.01813327e-005 -6.04526531e-006 1.50334172e-005 1.74690485e-005
      9.64537321e-006 -4.76825971e-006 -8.03176044e-006 -7.38630570e-006
      1.45108388e-005 2.51766942e-005 2.45907449e-005 2.63947386e-005
      1.59225328e-005 -2.78664697e-006 -2.03218769e-005 -3.27667258e-005
      -1.33212325e-005 -4.40563917e-006 2.36423148e-006 7.86137571e-006
      1.41671171e-005 6.30694831e-006 -2.01830026e-005 -2.53312282e-005
      -1.59744231e-005 -1.57050235e-005 -1.19176266e-005 8.26712778e-008
      9.95513074e-006 2.32940838e-005 2.51956608e-005 1.90135488e-005
      -3.97810754e-006 -1.45231115e-005 -1.29577338e-005 1.03455034e-006
      5.26073836e-006 6.49669346e-006 1.21374223e-005 2.00090526e-005
      2.97115512e-005 8.54487189e-006 -7.70932093e-006 -2.39491437e-005
      -2.13698622e-005 -1.25397783e-005 -2.13930775e-006 8.65206039e-006
      2.23671741e-005 1.77931961e-005 -1.35883292e-005 -3.41049636e-005
      -1.82312324e-005 -2.80268141e-005 -1.37750785e-005 1.10333795e-005
      3.33116950e-005 3.61963539e-005 3.29757495e-005 1.91768449e-005
      -1.95076409e-005 -2.39234196e-005 -1.25316692e-005
      -8.25345467e-007 3.82742371e-008 3.54293405e-007 4.92933441e-006
      1.25950464e-005 2.27916480e-005 1.86095967e-005 -3.18347503e-007
      -1.02514132e-005 -3.12536649e-005 -1.51052882e-005
      -2.18784749e-006 8.47700903e-006 2.54200459e-005 2.77692907e-005
      -1.25330298e-005 -3.39020116e-005 -3.20297040e-005
      -3.65021115e-005 -3.57020144e-005 -1.84136952e-005 4.52669246e-006
      6.59954958e-006 2.26007023e-006 -1.42690697e-005 -3.39436265e-005
      -2.95269674e-005 -7.20005301e-006 -1.20165367e-007 6.77626358e-021
      6.77626358e-021 1.09694918e-006 9.66201696e-006 1.43167272e-005
      3.13087257e-005 6.53618099e-006 -1.01111882e-005 -3.17014456e-005
      -1.81988780e-005 -4.15465638e-006 7.68416794e-006 2.60660090e-005
      3.21610169e-005 -4.47114508e-006 -3.37941456e-005 -3.75201744e-005
      -3.84098494e-005 -3.35586992e-005 -9.36301694e-006 6.77626358e-021
      6.77626358e-021 -4.33947980e-006 -3.09728093e-005 -3.84098530e-005
      -2.57224856e-005 -7.10467748e-006 6.77626358e-021 6.77626358e-021
      6.77626358e-021 1.13649764e-006 7.91542516e-006 1.39594995e-005
      3.15438811e-005 1.09243583e-005 -9.68846416e-006 -3.71231508e-005
      -2.33350183e-005 -9.39336587e-006 1.43159195e-005 2.60791912e-005
      3.46791930e-005 -2.94849656e-006 -3.39025719e-005 -3.84098530e-005
      -3.84098494e-005 -3.16042715e-005 -5.32386548e-006 6.77626358e-021
      6.77626358e-021 -4.33947935e-006 -3.53164978e-005 -3.84098530e-005
      -1.85171612e-005 -2.88086721e-006 6.77626358e-021 6.77626358e-021
      6.77626358e-021 3.44015098e-006 1.02190834e-005 2.60450270e-005
      3.44363398e-005 2.30988589e-005 -9.55013729e-006 -2.91669348e-005
      -2.89191685e-005 -1.05853933e-005 2.24771247e-005 3.50273986e-005
      3.27203343e-005 2.29738589e-006 -2.89918353e-005 -3.84098530e-005
      -3.84098494e-005 -3.14915378e-005 -5.09088431e-006 6.77626358e-021
      6.77626358e-021 -4.33947980e-006 -3.79429257e-005 -3.84098530e-005
      -1.59265637e-005 -1.36224094e-006 6.77626358e-021 6.77626358e-021
      5.31440776e-007 6.06728781e-006 1.33481526e-005 2.86010363e-005
      3.17427039e-005 2.26696429e-005 -1.38346941e-005 -2.91669348e-005
      -3.68972833e-005 -1.64225150e-006 1.54208719e-005 3.75279960e-005
      1.96779365e-005 -2.87590660e-006 -3.12717784e-005 -3.84098530e-005
      -3.84098494e-005 -3.14915378e-005 -5.09088431e-006 6.77626358e-021
      6.77626358e-021 -4.33947889e-006 -3.80274214e-005 -3.84098530e-005
      -1.39429803e-005 -1.99450454e-007 6.77626358e-021 1.15511355e-007
      4.21028881e-006 1.23987584e-005 2.17880970e-005 3.64874504e-005
      2.71296340e-005 2.26996253e-005 -6.96635198e-006 -2.68485383e-005
      -2.29578491e-005 6.32376714e-006 2.60201650e-005 3.22903070e-005
      1.40008324e-005 3.94602102e-006 -2.84252073e-005 -3.84098530e-005
      -3.84098494e-005 -3.14915378e-005 -5.09088431e-006 6.77626358e-021
      6.77626358e-021 -4.33947889e-006 -3.80274214e-005 -3.84098530e-005
      -1.38387104e-005 -1.38326598e-007 6.77626358e-021 1.25454824e-006
      1.33343519e-005 1.82345520e-005 3.62054561e-005 2.96419530e-005
      2.38770117e-005 3.79400217e-006 -6.96635107e-006 -2.49301393e-005
      -1.17684767e-005 1.38034184e-005 2.48500983e-005 1.78082555e-005
      9.53913150e-006 -2.25707390e-006 -2.86165814e-005 -3.84098530e-005
      -3.84098494e-005 -2.79670785e-005 6.77626358e-021 6.77626358e-021
      6.77626358e-021 -4.33947889e-006 -3.80274214e-005 -3.84098530e-005
      -1.44095584e-005 -4.72961830e-007 7.41627537e-006 1.07206615e-005
      1.69631930e-005 3.65620035e-005 3.09292300e-005 2.42127626e-005
      1.13742381e-005 6.77626358e-021 -6.04625302e-006 -1.28000074e-005
      1.39437111e-006 1.64547764e-005 1.88284666e-005 1.17796671e-005
      1.51822053e-006 -2.64173650e-007 -2.80250806e-005 -3.84098530e-005
      -3.84098494e-005 -2.89740692e-005 -1.45454226e-006 6.77626358e-021
      6.77626358e-021 -4.33947889e-006 -3.76068892e-005 -3.84098530e-005
      -1.79863746e-005 3.72490308e-006 1.04235960e-005 1.43090992e-005
      3.12885568e-005 3.00840111e-005 2.54200386e-005 9.92119385e-006
      6.77626358e-021 1.84762155e-006 1.52478269e-005 5.92737024e-006
      6.65731704e-006 1.41864530e-005 2.61165746e-006 2.93437239e-007
      6.77626358e-021 6.77626358e-021 -2.79670912e-005 -3.84098530e-005
      -3.84098494e-005 -3.14915378e-005 -5.09088431e-006 6.77626358e-021
      6.77626358e-021 -3.02117701e-006 -3.49933216e-005 -3.68979418e-005
      -1.37315428e-005 8.91873970e-006 2.08168422e-005 3.37652637e-005
      3.21932821e-005 2.73464357e-005 1.69631239e-005 9.15090084e-008
      4.59172179e-006 1.84799537e-005 2.22352228e-005 1.28496877e-005
      -4.53678422e-006 -8.08654659e-006 -9.50614685e-006 6.77626358e-021
      6.77626358e-021 -4.26374163e-006 -3.00301872e-005 -3.84098530e-005
      -3.84098494e-005 -3.33561948e-005 -8.94451114e-006 6.77626358e-021
      6.77626358e-021 -1.95803045e-006 -2.63329857e-005 -2.94538477e-005
      -1.04556293e-005 2.05615124e-005 3.54235926e-005 2.70432283e-005
      2.50293124e-005 1.20597861e-005 6.77626358e-021 4.34813091e-006
      2.18011246e-005 3.39414219e-005 3.02591925e-005 1.35340804e-006
      -1.67297057e-005 -1.83779193e-005 -1.06970629e-005 6.77626358e-021
      6.77626358e-021 -9.97673942e-006 -3.25012188e-005 -3.84098530e-005
      -3.84098494e-005 -3.41935774e-005 -1.73265453e-005
      -2.34964045e-006 6.77626358e-021 -4.05037838e-007 -1.84223791e-005
      -2.49580262e-005 -1.70829589e-005 1.67352991e-005 2.71605277e-005
      2.45467236e-005 9.47865647e-006 6.49433389e-007 7.16143586e-006
      2.30455025e-005 3.69743357e-005 3.78705627e-005 1.91867912e-005
      -1.81074374e-005 -3.55102311e-005 -1.84508699e-005
      -1.09649836e-005 6.77626358e-021 6.77626358e-021 -1.22142919e-005
      -3.30950461e-005 -3.84098530e-005 -3.14168647e-005
      -3.42601270e-005 -2.01093462e-005 -4.16853936e-006 6.56275915e-006
      1.08743870e-005 2.94285474e-006 -1.48910876e-005 -1.79242506e-005
      6.61699823e-006 2.18754285e-005 9.89730324e-006 8.71826705e-006
      2.19217563e-005 2.74449922e-005 3.64288207e-005 3.82738108e-005
      2.50561752e-005 -1.36286135e-005 -2.91604993e-005 -3.82456965e-005
      -1.78832379e-005 -1.95803568e-006 6.77626358e-021 -9.31692341e-008
      -1.83276461e-005 -3.67573994e-005 -3.84098530e-005
      -2.60554243e-005 -3.83615370e-005 -2.80600998e-005 6.23445715e-007
      1.15233206e-005 1.57115683e-005 1.78324899e-005 -1.44404030e-005
      -2.35863718e-005 -1.25335191e-005 1.11038453e-005 2.40794197e-005
      3.07457049e-005 3.84098530e-005 3.84098530e-005 3.19205574e-005
      1.93429951e-005 -4.87329453e-006 -2.52707396e-005 -2.26467910e-005
      -2.14756965e-005 -5.76124648e-006 6.76724358e-006 9.88671673e-006
      4.66907295e-006 -1.69398791e-005 -2.83343725e-005 -2.85231363e-005
      -1.87798578e-005 -3.19344072e-005 -1.97979844e-005
      -7.43780856e-006 2.06262976e-005 2.05326542e-005 1.36783992e-005
      -4.52930180e-006 -2.96077415e-005 -3.20394247e-005
      -1.10177516e-005 2.44215116e-005 3.00634383e-005 2.89416967e-005
      2.55958312e-005 1.84946493e-005 2.64244818e-006 -1.30335111e-005
      -1.76458725e-005 -2.17687375e-005 -5.24864299e-006 2.72710076e-006
      2.19346530e-005 2.53242688e-005 1.57631221e-005 -6.93866195e-006
      -1.29386262e-005 -2.67194224e-007 -1.02910581e-005
      -1.17891659e-005 -2.06415625e-005 -5.85764099e-007 1.36257431e-005
      2.57607371e-005 2.30977839e-005 7.77653349e-006 -1.71480715e-005
      -3.20068139e-005 -1.68072329e-005 -3.93413302e-006 2.09417958e-005
      2.55288924e-005 2.33842802e-005 2.19272024e-005 5.16197542e-006
      -5.74121486e-006 -1.79357230e-005 -7.88247598e-006 7.09692017e-007
      1.23362815e-005 1.71734719e-005 1.61066091e-005 -3.63373715e-007
      -1.89640341e-005 -5.21937363e-006 2.01919302e-005 1.34383372e-005
      4.95693575e-006 2.74326203e-006 -9.43693340e-006 -5.17966055e-006
      3.17178979e-006 8.42518421e-006 1.26324294e-005 5.27741531e-006
      -1.38827590e-005 -2.84103589e-005 -1.43167272e-005
      -6.01420743e-006 7.15097667e-006 1.68292136e-005 4.75803063e-006
      -1.69836983e-006 -1.00445077e-005 -8.19509114e-006 2.78015091e-006
      1.01691758e-005 1.62523775e-005 1.39865951e-005 -6.50231141e-006
      -2.56866551e-005 -2.21992286e-005 5.17016815e-006 3.60345002e-005
      3.84098494e-005 3.19584724e-005 7.56791042e-006 -1.28057891e-005
      -2.88885767e-005 -2.47961252e-005 -1.16788869e-005 7.47608340e-007
      1.17301133e-005 1.24072321e-005 -1.23209638e-005 -2.32660041e-005
      -2.64528189e-005 -2.73564765e-005 -1.63914938e-005
      -1.99159495e-005 -2.73564765e-005 -2.28031695e-005
      -5.45203079e-007 3.62548144e-006 1.26324294e-005 1.10193814e-005
      -8.61359604e-006 -2.57774227e-005 -2.67042706e-005
      -2.10356775e-005 2.32881393e-005 3.84098530e-005 3.84098494e-005
      3.38735335e-005 1.15241664e-005 -2.07771645e-005 -3.59891201e-005
      -3.84098530e-005 -3.50185219e-005 -1.99890492e-005
      -7.34008290e-006 5.90352613e-007 -3.23934432e-006 -1.07747692e-005
      -1.76376143e-005 -2.24869291e-005 -2.47100288e-005
      -2.47100288e-005 -1.40649909e-005 -1.10446517e-005
      -1.02882668e-005 -6.58300905e-007 -1.16528208e-005
      -3.12149750e-005 -3.74534175e-005 -3.77331344e-005
      -3.17399317e-005 -3.32173477e-006 2.87697003e-005 3.84098530e-005
      3.84098494e-005 2.94168949e-005 1.30433136e-005 8.49727439e-006
      -4.57086981e-006 -1.94653039e-005 -2.74905797e-005
      -2.67929136e-005 -2.00556769e-005 -1.05302906e-005
      -6.40222697e-006 5.46574893e-006 4.47395178e-006 1.14939621e-006
      -5.20040885e-006 -2.89116656e-007 4.31571692e-007 -1.86317175e-006
      -1.24011267e-005 -2.39512938e-005 -2.85621372e-005
      -2.88163174e-005 -2.84590315e-005 -4.87517718e-006 1.50137712e-005
      2.50684370e-005 3.73381663e-005 3.84098530e-005 3.32443415e-005
      3.34025353e-005 3.36661942e-005 3.36661942e-005 3.36661942e-005
      2.73043461e-005 1.93874093e-005 8.22484162e-006 -2.70287632e-008
      0. 0. 0. 0. 0. 0. 0. 0. 0. 0. 4.16580315e-006 1.22423362e-005
      1.91100808e-005 3.09005118e-005 3.84098530e-005 3.84098530e-005
      3.84098530e-005 3.49368165e-005 2.25945369e-005</_>
    <_>
      -2.99150310e-012 1.24566058e-012 1.24566058e-012 1.31219124e-007
      6.14761234e-007 9.72961743e-007 1.75470097e-006 6.89711555e-007
      -1.56931651e-006 -2.46847605e-007 0. 0. 0. 0. 0. 0. 0. 0. 0.
      2.30302550e-008 3.68089832e-006 8.15361909e-006 1.98379930e-005
      1.60055133e-005 8.61149420e-006 7.42417853e-007 1.24566058e-012
      1.24566058e-012 -3.60638234e-012 -1.52465931e-020 2.43907323e-007
      2.28258682e-006 3.62739615e-006 -1.60455113e-006 -4.49306663e-006
      8.16534751e-008 -2.56792674e-007 -7.38633787e-007 -1.09515795e-005
      -4.26389761e-006 -4.60199453e-006 -9.56203394e-007
      -4.53630271e-008 -1.43285035e-006 -6.60659407e-006
      -1.12792040e-005 -2.39288747e-005 -1.47649444e-005
      -9.93354024e-006 -3.59692262e-006 8.63501919e-006 1.00567877e-005
      2.28566005e-005 1.65863348e-005 1.48360880e-006 -1.52465931e-020
      -4.75265920e-012 -7.03475820e-008 2.12755594e-006 -1.02180672e-006
      -7.98651763e-006 -5.08219330e-007 -1.30305250e-006
      -1.68268627e-006 1.07297610e-005 7.84714393e-006 2.01317766e-006
      -9.00703799e-006 -2.47744429e-005 -2.47744429e-005
      -2.47744429e-005 -2.34939744e-005 -1.80371553e-005
      -9.52208779e-007 -1.52465931e-020 -3.01698196e-006
      -6.74258808e-006 -1.73534518e-005 -2.25930144e-005
      -2.46109698e-006 1.13425849e-005 2.93171743e-005 2.30048390e-005
      9.71117515e-007 3.30156666e-007 4.46248441e-006 -1.52917692e-005
      -1.74200886e-005 -1.95821235e-006 -4.98508007e-006 1.18227617e-005
      5.49010565e-006 1.60376464e-006 1.72300503e-007 -2.89443087e-005
      -2.67808664e-005 -2.24916894e-005 -2.16197350e-005
      -2.16197350e-005 -1.95786379e-005 -5.43885790e-007
      -1.31677161e-005 -7.71779014e-006 -4.88521668e-009
      -3.30655439e-007 -2.52596055e-006 -2.35046991e-005
      -2.47985954e-005 -4.87932539e-006 -7.84869599e-007 2.39718556e-005
      1.49276038e-005 -4.82246946e-007 -5.13613941e-006 -2.49562327e-005
      -1.91848085e-005 1.48942388e-006 2.44092644e-005 1.56412370e-005
      6.48274363e-006 -6.20917717e-007 -8.43046018e-006 -7.42360908e-006
      -5.28507098e-006 5.53104474e-006 2.18950026e-005 1.26282594e-005
      3.93322671e-006 -1.83179236e-005 -1.18547969e-005 -1.15759508e-006
      -5.03679212e-006 2.98470781e-007 -4.03382074e-008 3.39748635e-006
      -1.05079089e-005 -1.74959278e-005 -1.16491583e-005
      -1.99160854e-006 2.09461905e-005 -1.59427964e-005 -2.86117847e-005
      -3.01216842e-005 -1.62594661e-005 1.54623103e-005 3.42295461e-005
      3.47819005e-005 2.92162786e-005 1.05775034e-005 -7.13211818e-007
      -7.30949466e-007 1.49824336e-005 2.47945500e-005 2.18471978e-005
      1.30757244e-005 4.47938919e-006 7.18797992e-006 -1.42220124e-005
      -1.07814321e-005 3.73497460e-006 -2.94581741e-006 -1.52465931e-020
      7.37605114e-006 7.14586258e-006 -6.29289298e-006 -1.53751444e-005
      -9.18250134e-006 -1.16084839e-005 -3.12839657e-005
      -3.63458203e-005 -3.02886874e-005 3.17609874e-007 2.94764850e-005
      3.76472344e-005 3.27217203e-005 1.21405837e-005 -1.27291023e-005
      -1.42033350e-005 -1.44810692e-005 1.16045999e-006 4.19000116e-006
      4.69279894e-006 1.63729546e-005 1.95049743e-005 -2.65673179e-006
      4.92120625e-006 -2.30390629e-006 3.35925529e-006 -4.93036850e-006
      -6.20556739e-006 7.48365210e-006 1.21437233e-005 1.50095275e-005
      6.67299162e-007 -1.23260043e-005 -1.44933965e-005 -4.30759064e-005
      -4.61016934e-005 -2.37367294e-005 5.82161329e-006 1.23956552e-005
      1.14524419e-005 -8.63833179e-007 -3.55632546e-005 -4.27468876e-005
      -3.50249102e-005 -4.31187163e-006 -1.52465931e-020
      -1.52465931e-020 -1.52465931e-020 7.77897924e-007 7.97241591e-006
      -6.68550911e-007 7.01223897e-008 8.08180630e-006 -9.01389649e-006
      -5.89872798e-006 -6.26455812e-006 7.48365210e-006 1.49349707e-005
      2.96397266e-005 1.21146459e-005 -9.35085518e-006 -2.58038181e-005
      -4.86718272e-005 -4.85359305e-005 -2.97561000e-005
      -1.94206564e-006 -1.52465931e-020 -2.20000356e-006
      -1.73173266e-005 -4.86718236e-005 -4.57207607e-005
      -1.23611935e-005 -1.83112846e-007 -1.52465931e-020
      -1.52465931e-020 -1.52465931e-020 3.97459189e-006 1.54865393e-005
      2.38532302e-005 2.06456079e-005 9.55446649e-006 -1.02746189e-005
      -6.51729351e-006 -8.22979109e-006 6.99147813e-006 2.05155666e-005
      4.13910566e-005 1.95114826e-005 -1.26311606e-005 -4.00349272e-005
      -4.86718272e-005 -4.10383509e-005 -1.00995312e-005
      -1.52465931e-020 -1.52465931e-020 -2.20000425e-006
      -3.58187208e-005 -4.86718236e-005 -3.93396949e-005
      -1.13409960e-005 -1.52465931e-020 -1.52465931e-020 2.17879597e-006
      3.34571155e-006 1.33022613e-005 2.22867548e-005 3.07520822e-005
      1.85142035e-005 5.46783485e-006 -2.55171435e-005 -3.09214593e-005
      -1.60640684e-005 1.89256061e-005 3.98867232e-005 4.80287963e-005
      1.95116445e-005 -2.07311696e-005 -4.76553068e-005 -4.86718272e-005
      -3.88388253e-005 -5.55384895e-006 -1.52465931e-020
      -1.52465931e-020 -2.20000356e-006 -3.70934831e-005
      -4.86718236e-005 -2.76169521e-005 -4.14338410e-006 4.93986045e-006
      9.65597155e-006 1.86139168e-005 2.04013213e-005 3.89406268e-005
      4.46808626e-005 4.22090270e-005 3.29415052e-005 3.24475673e-006
      -1.55725047e-005 -1.31164861e-005 1.45953964e-005 4.34132635e-005
      4.86718236e-005 3.94273193e-005 1.21420526e-005 -3.65951237e-005
      -4.85111086e-005 -4.86718272e-005 -3.85947242e-005
      -5.04936725e-006 -1.52465931e-020 -1.52465931e-020
      -2.20000425e-006 -3.84744708e-005 -4.73525288e-005
      -1.03125758e-005 2.68426102e-005 3.71339120e-005 4.07906737e-005
      4.78606416e-005 4.84081284e-005 4.28337844e-005 3.96670766e-005
      2.71099761e-005 1.29154532e-005 -8.75124806e-006 -8.35394985e-006
      -7.28884106e-006 1.80134375e-005 3.90724708e-005 3.36359408e-005
      1.80338084e-005 -9.17873058e-006 -4.10539542e-005 -4.86718236e-005
      -4.86718272e-005 -3.85947242e-005 -5.04936725e-006
      -1.52465931e-020 -1.52465931e-020 -2.20000356e-006
      -3.85771564e-005 -3.07267183e-005 1.28996380e-005 4.25984908e-005
      4.74258450e-005 4.70105188e-005 3.37931451e-005 2.70626078e-005
      1.84461987e-005 1.32871028e-005 5.71392320e-007 -1.52465931e-020
      -4.24497966e-006 -1.04725323e-005 -2.67674523e-006 1.57005579e-005
      3.61001548e-005 4.81667485e-005 3.68448418e-005 1.51822578e-005
      -2.99385483e-005 -4.85176279e-005 -4.86718272e-005
      -3.85947242e-005 -5.04936725e-006 -1.52465931e-020
      -1.52465931e-020 -2.20000356e-006 -3.85771564e-005
      -2.64401660e-005 1.61698354e-005 4.25189392e-005 2.43803552e-005
      9.41632152e-006 9.21737183e-007 -1.52465931e-020 -1.52465931e-020
      -1.52465931e-020 -1.52465931e-020 -1.52465931e-020
      -7.68973132e-006 -3.10574433e-005 -3.31088995e-005
      -1.92570178e-006 2.43833874e-005 4.44223369e-005 4.78740476e-005
      4.83513504e-005 4.57582109e-006 -3.93560331e-005 -4.86718272e-005
      -3.50990049e-005 -1.52465931e-020 -1.52465931e-020
      -1.52465931e-020 -2.20000356e-006 -3.85771564e-005
      -2.64401660e-005 1.61698354e-005 4.26727784e-005 3.87494692e-005
      3.50976297e-005 3.05009253e-005 2.99020558e-005 2.78212356e-005
      2.58301516e-005 2.38852845e-005 8.01358783e-006 -7.62380341e-006
      -3.15676443e-005 -4.20687975e-005 -2.76898900e-005
      -1.02120293e-005 1.06379366e-005 3.41382474e-005 4.75627676e-005
      1.35665132e-005 -7.21637298e-006 -4.86718272e-005 -3.60977865e-005
      -1.44268017e-006 -1.52465931e-020 -1.52465931e-020
      -2.20000356e-006 -3.85771564e-005 -4.06160616e-005 1.62904871e-006
      3.56945384e-005 4.51488959e-005 4.56201305e-005 4.61471973e-005
      4.62104472e-005 4.62104472e-005 4.78367147e-005 4.60928386e-005
      3.30788498e-005 1.93571159e-005 -2.32446273e-005 -4.20687975e-005
      -2.72791385e-005 -1.08755621e-005 -1.52465931e-020 7.59369641e-006
      3.15309298e-005 1.24987864e-005 0. -4.86718272e-005
      -3.85947242e-005 -5.04936725e-006 -1.52465931e-020
      -1.52465931e-020 -2.05721517e-006 -3.85036001e-005
      -4.84359880e-005 -1.94074910e-005 8.41474321e-006 1.25209654e-005
      1.25859524e-005 1.26913683e-005 1.75912282e-005 1.80659827e-005
      2.60662182e-005 3.89887718e-005 4.83610056e-005 3.49046568e-005
      -1.31867648e-006 -2.16921508e-005 -2.67170835e-005
      -1.08755621e-005 -1.52465931e-020 -1.52465931e-020 8.25135976e-006
      5.94706580e-006 0. -4.86718272e-005 -4.18164236e-005
      -1.17075515e-005 -1.52465931e-020 -1.52465931e-020
      -1.94206223e-006 -3.77254655e-005 -4.86718236e-005
      -2.83225691e-005 -4.64899858e-006 -1.52465931e-020
      -1.52465931e-020 -1.52465931e-020 -1.52465931e-020 1.56981130e-007
      5.80832602e-006 1.80906700e-005 2.50194225e-005 3.57594181e-005
      1.06376592e-005 -6.96548841e-006 -1.42303870e-005 -1.08755621e-005
      -1.52465931e-020 -1.52465931e-020 -9.79199467e-006 1.54293321e-006
      0. -4.86718272e-005 -4.18867712e-005 -1.70219082e-005
      -2.33047876e-006 -1.52465931e-020 -1.94206291e-006
      -3.56858400e-005 -4.86718236e-005 -4.86718236e-005
      -1.19366923e-005 -9.17633400e-008 -1.52465931e-020
      -1.52465931e-020 -1.52465931e-020 -1.52465931e-020 5.63138428e-007
      6.47133766e-006 1.34064740e-005 1.64924895e-005 9.65362506e-006
      -1.19177066e-005 -7.57374301e-006 -1.01798350e-005
      -1.52465931e-020 -1.52465931e-020 -1.25235229e-005 1.16880324e-006
      0. -4.17358715e-005 -4.19922108e-005 -1.80721254e-005
      -2.71889053e-006 -1.52465931e-020 -1.52465931e-020
      -1.04776655e-005 -4.82660944e-005 -4.86718236e-005
      -2.10481412e-005 -1.66514712e-006 -1.52465931e-020
      -1.52465931e-020 -1.52465931e-020 -1.52465931e-020 7.79831453e-007
      7.27839097e-006 7.17804187e-006 -5.27922748e-006 1.93995538e-006
      -1.20058839e-005 -6.68825078e-006 -6.43374278e-007
      -1.52465931e-020 -1.47612752e-007 -1.44467867e-005
      -1.58915441e-006 0. -3.83983643e-005 -4.80040690e-005
      -3.57022691e-005 -6.17086425e-006 5.63138428e-007 5.63138428e-007
      -8.21490539e-006 -4.13502748e-005 -4.86718236e-005
      -4.37876806e-005 -4.99126782e-006 -1.52465931e-020
      -1.52465931e-020 -1.52465931e-020 1.87710711e-007 5.47262562e-006
      9.47946592e-006 -4.11247902e-006 -5.79281004e-006 1.56105091e-006
      1.95929260e-006 5.40839119e-006 -7.82520715e-007 -1.52465931e-020
      -8.26657833e-006 -1.46655684e-005 -2.14831402e-006 0.
      -3.23600631e-007 -1.70015246e-005 -6.57378132e-006 1.03042321e-005
      2.97208990e-005 3.16703008e-005 1.90475912e-005 -1.64210269e-005
      -4.68024009e-005 -4.84498742e-005 -3.46928537e-005
      -1.52465931e-020 -1.52465931e-020 4.52519498e-006 4.77739741e-006
      8.26406631e-006 4.73494219e-006 -1.91350267e-007 1.93041637e-006
      -9.73447527e-007 9.93020694e-006 -1.32502043e-006 -1.94206746e-006
      -1.52465931e-020 -9.61256592e-006 -5.26207396e-006
      -6.96289078e-007 2.00759951e-005 2.40513291e-005 1.08478907e-005
      -6.13238171e-006 9.35835851e-006 2.65979452e-005 4.84815901e-005
      4.62379940e-005 2.92595887e-005 -1.57739723e-005 -4.02925034e-005
      -4.17908595e-005 -3.39059807e-005 1.70796500e-006 6.62831144e-006
      7.57710495e-006 1.83131015e-005 4.21430786e-006 3.72683940e-006
      -5.91078469e-006 -2.89487701e-007 2.44579201e-006 -2.73771775e-006
      2.16538729e-006 4.33549516e-008 -1.16877254e-006 6.04145328e-007
      -6.96516906e-008 2.30500955e-005 4.64210643e-005 1.56540009e-005
      -3.26832669e-005 -3.98511438e-005 -2.15133314e-005 1.83669072e-005
      4.36032751e-005 4.71028798e-005 3.67343455e-005 1.73993726e-006
      -3.00544543e-005 -3.26185182e-005 -2.46753607e-005 5.82512541e-007
      2.00346112e-005 2.86833188e-006 3.12311818e-006 -5.99020041e-006
      -9.44176463e-006 -5.49131119e-006 -4.33340892e-006 2.24628479e-006
      2.65892072e-006 -5.02448211e-006 -4.67818381e-006 -2.00449881e-006
      1.43509096e-005 3.88013586e-006 4.86718236e-005 3.67409739e-005
      -2.51776746e-005 -4.53549401e-005 -4.86718236e-005
      -2.33183036e-005 -7.81507367e-007 3.18603634e-005 4.01828438e-005
      4.47092061e-005 1.64411776e-005 2.16652083e-007 -4.29892452e-006
      -5.70931115e-006 3.48711819e-006 -2.98004329e-006 -1.22785586e-005
      -2.25287949e-005 -1.95389453e-006 -4.88952219e-006 5.16662931e-006
      1.49721272e-005 1.39584672e-005 -7.96925860e-007 -3.31375986e-007
      6.88482942e-006 1.32911982e-005 8.09408277e-007 4.86718236e-005
      4.67899008e-005 1.75919049e-005 -1.88214945e-005 -4.58393333e-005
      -4.86718236e-005 -4.31459630e-005 -1.64521953e-005 6.26739711e-006
      1.79393301e-005 1.77991878e-005 1.02894501e-005 5.53187419e-006
      -1.48520751e-008 -3.52454890e-007 -2.28505701e-006
      -7.13011241e-006 -6.05238301e-006 -7.03632622e-006 6.88078853e-006
      4.00817362e-006 4.56810631e-006 -1.09282496e-006 -5.64931906e-006
      -1.33103058e-005 -4.65467701e-006 4.35745591e-007 -1.52465931e-020
      3.85699423e-005 4.86718236e-005 4.86718236e-005 4.33016430e-005
      1.60571308e-005 -1.18742464e-005 -3.79112098e-005 -3.59005098e-005
      -2.42065253e-005 -1.77848506e-005 -9.33427236e-006 4.79079347e-007
      5.65018036e-006 2.74699732e-006 -6.97157884e-006 -4.70124996e-006
      6.61873355e-006 8.49500884e-006 9.87017211e-006 2.21197979e-006
      -1.76686194e-006 -4.33534478e-006 -9.13472923e-006
      -8.07369906e-006 -1.36954338e-006 1.05412774e-007 -1.52465931e-020
      -1.52465931e-020 6.90895467e-006 1.68415645e-005 4.05232640e-005
      4.69039514e-005 4.86718236e-005 3.84388659e-005 2.07159683e-005
      9.82247457e-006 3.44033924e-006 0. 0. 0. 0. 0. 0. -1.31563766e-007
      -1.22792210e-006 -1.42655620e-006 -2.02245815e-006 2.57061470e-006
      -3.89941488e-006 -3.77693982e-006 1.00778800e-006 4.17436922e-007
      -1.52465931e-020 -1.52465931e-020 -1.52465931e-020
      -1.52465931e-020</_>
    <_>
      -1.39756869e-012 -3.57455385e-013 -3.57455385e-013
      -3.57455385e-013 -3.57455385e-013 -1.01421119e-006
      -4.15716795e-006 -1.52648627e-005 -2.22377494e-005
      -2.81206540e-005 -3.02304270e-005 -3.02304270e-005
      -3.02304270e-005 -3.02304270e-005 -2.79463875e-005
      -2.46837499e-005 -1.04394776e-005 -9.96417100e-008 0. 0.
      3.34868696e-006 1.09617404e-005 2.31778686e-005 2.34827639e-005
      1.60029103e-005 5.54852068e-006 -3.57455385e-013 -3.57455385e-013
      -8.25312908e-013 6.24686799e-021 6.24686799e-021 -2.93366782e-007
      -5.44694558e-006 -1.97813151e-005 -3.02304252e-005
      -3.02304252e-005 -2.99873500e-005 -2.72495636e-005
      -2.33846076e-005 -1.63557161e-005 -1.63557161e-005
      -6.11860833e-006 8.05756008e-006 2.54882434e-005 2.36768210e-005
      1.79840481e-005 -1.53891506e-006 -1.93272463e-005 -2.76692608e-005
      -2.03509626e-005 -4.00858397e-007 7.61168303e-006 1.27448484e-005
      6.70672534e-006 6.24686799e-021 6.24686799e-021 -8.25312908e-013
      6.24686799e-021 -1.54726160e-006 -1.49013094e-005 -2.99175754e-005
      -3.02304252e-005 -2.97215265e-005 -2.60759498e-005
      -9.54118241e-006 6.24686799e-021 -3.64993696e-007 -9.27625206e-006
      -1.89746861e-005 -1.18448934e-005 9.65019171e-006 1.36871486e-005
      1.63748427e-005 1.77819020e-005 1.72217995e-007 -2.88022125e-006
      -1.14359937e-005 -1.27896665e-005 -1.32427494e-005
      -6.10980078e-006 2.55970372e-006 4.34328740e-006 -8.01900200e-008
      6.24686799e-021 -8.25312908e-013 -3.46822071e-006 -2.15758646e-005
      -3.02304252e-005 -3.02304252e-005 -2.82942055e-005
      -8.14072064e-006 -4.61539969e-007 6.24686799e-021 -1.73794774e-006
      -2.60743673e-005 -3.02304252e-005 -2.27892542e-005
      -3.18250272e-006 0. -2.23685646e-007 -4.55913187e-006
      -1.53511137e-005 -3.77041852e-006 6.24686799e-021 9.17945755e-008
      2.56466274e-006 -8.04819047e-006 -2.95649511e-006 -1.15487901e-005
      -1.56350943e-005 -4.26101815e-006 6.24686799e-021 -5.82185805e-007
      -1.01339028e-005 -2.54855113e-005 -3.02304252e-005
      -2.15180971e-005 -1.36298831e-006 6.24686799e-021 6.24686799e-021
      -1.28102020e-005 -2.74471004e-005 -3.02304252e-005
      -2.32122384e-005 5.04746595e-007 2.10298167e-005 1.52662869e-005
      -5.08356879e-006 -2.81147586e-005 -2.54709776e-005
      -1.67888793e-005 -1.00895641e-005 6.24686799e-021 6.79681034e-006
      1.41849014e-005 8.13426050e-006 -1.17952186e-005 -2.15911223e-005
      -2.05748875e-005 -1.55195414e-006 -8.11824975e-006
      -2.32955481e-005 -3.02304252e-005 -2.67788328e-005
      -1.30656899e-005 6.24686799e-021 6.24686799e-021 -9.16888894e-006
      -2.47944608e-005 -3.02228891e-005 -2.37672630e-005 9.48690013e-006
      2.84614816e-005 2.94095244e-005 1.19559263e-005 -5.00573606e-006
      -1.59412248e-005 -2.84054586e-005 -2.61087316e-005
      -1.57243121e-005 -6.32812180e-006 6.79681034e-006 1.66617956e-005
      2.21436367e-005 -9.31442742e-007 -2.29445486e-005 -2.69431293e-005
      -1.82396107e-005 -1.77429392e-005 -3.02304252e-005
      -2.83183490e-005 -1.61176504e-005 -3.64991877e-007 6.24686799e-021
      -4.43737599e-006 -1.87458663e-005 -2.98854102e-005
      -2.36050146e-005 5.37743472e-006 2.72821908e-005 2.98495797e-005
      1.47111550e-005 7.66542325e-006 1.24919814e-006 -1.19554061e-005
      -1.75134355e-005 -2.64416321e-005 -1.71694173e-005
      -1.58081966e-005 1.88374997e-006 1.66936461e-005 2.66564966e-005
      1.01427622e-005 -1.51847125e-005 -3.02304252e-005 -1.87117184e-005
      -2.50162357e-005 -3.02304252e-005 -2.33909795e-005
      -4.31379749e-006 6.24686799e-021 -7.82128325e-007 -9.89015643e-006
      -2.97600927e-005 -2.19050817e-005 -2.47345747e-006 1.97673980e-005
      2.69847606e-005 1.58747116e-005 8.94210734e-006 2.94628580e-006
      4.79395158e-006 -6.36790446e-006 -1.00678726e-005 -1.45407685e-005
      -2.44084022e-005 -1.66044774e-005 1.88374997e-006 1.66936461e-005
      2.72739308e-005 1.48945410e-005 -1.20911445e-005 -2.87335424e-005
      -2.78365515e-005 -3.02304252e-005 -3.02304252e-005
      -1.97328627e-005 -1.82496854e-006 6.24686799e-021 -1.82496547e-006
      -1.34358061e-005 -2.39435449e-005 -6.03073386e-006 1.55760881e-005
      2.18251917e-005 1.47064648e-005 1.08853146e-005 1.19637498e-005
      1.71914635e-005 1.71914635e-005 1.29986629e-005 -3.94340350e-006
      -1.45173226e-005 -2.45441897e-005 -1.67000308e-005 1.10923601e-007
      1.87283295e-005 2.89780037e-005 1.74494944e-005 -6.61623335e-006
      -2.87335424e-005 -2.94609672e-005 -3.02304252e-005
      -2.57849933e-005 -6.63498804e-006 6.24686799e-021 6.24686799e-021
      -1.07887377e-006 -8.92738990e-006 -8.35838546e-006 1.39779857e-007
      1.57051109e-005 8.94447840e-006 7.35991671e-006 1.83778211e-005
      2.88686133e-005 2.92836121e-005 2.75273924e-005 2.42174301e-005
      9.97122129e-007 -1.15690791e-005 -2.90311655e-005 -2.07014418e-005
      -8.82633867e-006 1.75256810e-005 2.90089865e-005 1.79071467e-005
      -9.55701125e-006 -2.87335424e-005 -3.02304252e-005
      -3.02304252e-005 -2.48704418e-005 -4.74491526e-006 6.24686799e-021
      1.58254494e-007 8.95446374e-006 -2.82727979e-006 -3.09565075e-006
      6.03680792e-006 5.71760029e-006 5.32353351e-006 1.26047689e-005
      2.13943567e-005 1.87221340e-005 2.01148086e-005 1.92882544e-005
      2.92620916e-005 1.81424039e-005 -9.23958851e-006 -1.89415987e-005
      -2.24381747e-005 -9.03527052e-006 1.75884797e-005 2.90031257e-005
      1.83121210e-005 -4.67171913e-006 -2.52725822e-005 -3.02304252e-005
      -3.02304252e-005 -2.48704418e-005 -4.73235514e-006 6.37011851e-007
      1.16765950e-005 2.30459809e-005 4.35462334e-006 -2.90482785e-006
      -2.60459774e-006 6.53962343e-006 1.90508217e-005 2.88009815e-005
      2.37443019e-005 1.54796380e-005 9.99059648e-006 1.56209117e-005
      3.02304252e-005 1.89228649e-005 -7.43158898e-006 -1.89415987e-005
      -3.02304252e-005 -1.03410439e-005 1.68790230e-005 2.89855416e-005
      1.79428607e-005 -3.58039438e-006 -2.47445241e-005 -3.02304252e-005
      -3.00724842e-005 -2.26592656e-005 6.68135840e-007 1.93486358e-005
      3.02304252e-005 2.83091686e-005 2.07240032e-006 -1.96281380e-005
      -9.03431282e-006 1.03268439e-005 3.00916254e-005 3.02304252e-005
      1.83961056e-005 7.80031223e-006 4.63682181e-006 1.56209117e-005
      3.02304252e-005 2.03970721e-005 4.50906509e-006 -1.76380490e-005
      -2.57983629e-005 -1.03410439e-005 1.56797632e-005 2.89855416e-005
      1.49209136e-005 7.89706405e-007 -2.15855125e-005 -3.02304252e-005
      -2.18865425e-005 -1.29080272e-005 2.11160168e-005 3.02304252e-005
      2.97566057e-005 2.53469752e-005 -1.57950471e-005 -2.95822483e-005
      -4.16972125e-006 2.29593497e-005 3.01307846e-005 2.88264091e-005
      7.42593511e-006 6.24686799e-021 4.18076297e-006 1.32507048e-005
      2.86502836e-005 2.03970721e-005 4.50906555e-006 -1.71166284e-005
      -2.40255304e-005 -7.46716978e-006 1.59613919e-005 2.89855416e-005
      1.79428607e-005 3.42206272e-006 -2.14275733e-005 -3.02304252e-005
      -1.63278000e-005 2.54493420e-006 2.75454204e-005 2.25189888e-005
      1.33411786e-005 -1.29036800e-006 -2.48896777e-005 -1.86355610e-005
      8.76576814e-006 2.82204692e-005 2.77357030e-005 1.51025451e-005
      2.02684100e-006 2.76316037e-008 1.02758750e-005 2.48632041e-005
      3.02304252e-005 2.03970721e-005 4.50906555e-006 -1.71166284e-005
      -2.40255304e-005 -8.00416910e-006 1.00543739e-005 2.94746023e-005
      2.16766057e-005 1.69999694e-005 -1.73736989e-005 -2.77875479e-005
      -2.38044140e-006 5.93742561e-006 1.83774300e-005 1.29351210e-005
      6.24686799e-021 -1.82496547e-006 -2.13051353e-005 -1.53999044e-005
      8.01616170e-006 2.73133337e-005 2.91033321e-005 2.91033321e-005
      2.91033321e-005 2.91033321e-005 2.91033321e-005 3.00895390e-005
      3.02304252e-005 1.28411339e-005 -1.99128181e-006 -1.71166284e-005
      -2.40255304e-005 -1.19338056e-005 2.59944750e-006 2.36532906e-005
      3.02304252e-005 3.02304252e-005 8.64491267e-006 -4.60024467e-006
      0. 1.83823795e-006 5.23083918e-006 3.18093299e-007 6.24686799e-021
      -1.82496603e-006 -2.21243117e-005 -2.40430381e-005
      -2.34917297e-006 1.41341216e-005 1.89976745e-005 2.02520496e-005
      2.29923553e-005 2.29923553e-005 1.96306919e-005 1.84688270e-005
      8.14550185e-006 1.17991851e-006 -4.37818017e-006 -1.71166284e-005
      -2.40255304e-005 -1.74216329e-005 -6.64415120e-006 5.16322507e-006
      1.15007206e-005 1.28281645e-005 4.41656402e-006 0. 0.
      -5.45935745e-006 -8.09058383e-006 6.24686799e-021 6.24686799e-021
      -1.82496547e-006 -2.33340597e-005 -3.02304252e-005
      -1.57281393e-005 -2.49443178e-006 6.24686799e-021 6.24686799e-021
      6.24686799e-021 6.24686799e-021 6.24686799e-021 6.24686799e-021
      6.24686799e-021 6.24686799e-021 -4.37818017e-006 -1.71166284e-005
      -2.40255304e-005 -1.81260675e-005 -1.02198192e-005 6.24686799e-021
      6.24686799e-021 -7.61996262e-006 -4.41752991e-006 0. 0.
      -3.28738520e-006 -4.86879981e-006 2.82974406e-006 4.05137462e-006
      2.22640870e-006 -1.92826847e-005 -2.55348205e-005 -1.83526699e-005
      4.82242240e-006 1.17017362e-005 1.18777562e-005 1.18777562e-005
      4.87267562e-006 6.41070937e-006 7.33121669e-006 4.61916488e-006
      3.14929650e-007 -5.99154782e-006 -1.89415987e-005 -3.02304252e-005
      -1.78161135e-005 -7.27997531e-006 4.20782362e-006 5.10651535e-006
      -6.09835297e-007 -2.04388175e-006 0. 1.99381816e-006
      2.83319491e-006 1.47571664e-005 2.71476256e-005 3.00194188e-005
      3.00194188e-005 2.29242905e-005 3.47230639e-007 -2.11007048e-007
      1.80229417e-005 2.88185693e-005 2.99667736e-005 3.00194188e-005
      3.00194188e-005 2.95348018e-005 2.22287017e-005 1.64035118e-005
      3.38794962e-006 -1.26867144e-005 -2.18355781e-005 -3.00912834e-005
      -1.47845249e-005 1.27807862e-005 1.89456823e-005 3.00763149e-005
      1.86330690e-005 2.33356786e-006 -7.51374145e-008 -1.23181899e-005
      -1.92662101e-005 -1.01621581e-005 8.92675871e-006 1.43469706e-005
      1.44022915e-005 8.34761249e-006 -1.09924877e-005 -1.58281346e-005
      -1.53539968e-005 5.23111748e-006 1.07100141e-005 1.33510594e-005
      1.36246945e-005 2.16737717e-005 2.60043998e-005 2.72885354e-005
      2.35598600e-006 -1.77837464e-005 -2.18355781e-005 -2.24381747e-005
      -2.57085753e-006 1.57294180e-005 2.76673873e-005 2.09161517e-005
      4.19878506e-006 -1.36982771e-005 -1.75556197e-005 -1.53490710e-005
      -3.02304252e-005 -2.49653986e-005 -1.72517248e-005
      -1.60659454e-006 6.24686799e-021 -2.29425132e-006 -1.52884568e-005
      -3.02304252e-005 -3.00218580e-005 -1.97942809e-005 6.24686799e-021
      6.24686799e-021 1.73382625e-006 9.41054623e-006 2.25047734e-005
      2.02734136e-005 2.91727042e-006 -1.64612848e-005 -2.45441897e-005
      -1.44465412e-005 -2.56830248e-007 2.22155504e-005 2.72155212e-005
      1.08109480e-005 -1.66068003e-005 -2.93474095e-005 -1.94897584e-005
      -1.20520535e-005 -1.93983778e-005 -3.02304252e-005
      -2.28593872e-005 -1.39990052e-005 -4.81140781e-008 6.24686799e-021
      -6.50423090e-006 -2.30056939e-005 -3.02304252e-005
      -2.84054549e-005 -2.06471996e-005 -2.06891514e-006 6.24686799e-021
      8.86015278e-006 1.94252552e-005 1.39362874e-005 -1.15266425e-006
      -1.92679072e-005 -2.07395515e-005 -1.24025337e-005 4.88705109e-006
      2.36255200e-005 2.49573222e-005 -2.03705576e-006 -2.46008367e-005
      -3.02304252e-005 -1.52582634e-005 -1.05300614e-006
      -1.35402206e-005 -2.45463980e-005 -3.02304252e-005
      -2.36303240e-005 -1.14703007e-005 6.24686799e-021 6.24686799e-021
      -7.19558875e-006 -2.29743073e-005 -3.00183674e-005
      -3.02304252e-005 -2.29686520e-005 -1.31293600e-005 2.55897044e-006
      2.74103684e-007 7.71302985e-006 -8.97578411e-006 -1.85881763e-005
      -1.35964938e-005 -6.20489527e-006 7.38645576e-006 1.94226213e-005
      1.07301703e-005 -1.48050558e-005 -2.58927903e-005 -2.15957734e-005
      -5.37306141e-006 -8.25312908e-013 -2.76414039e-006
      -1.40406437e-005 -2.71670870e-005 -3.02304252e-005
      -2.00952472e-005 -1.15589337e-005 -4.61539969e-007 6.24686799e-021
      -3.64991877e-007 -2.09743375e-005 -2.81740686e-005
      -3.02304252e-005 -3.02304252e-005 -1.14558061e-005
      -7.22917639e-006 -2.58222667e-006 -7.37468008e-006
      -7.06659785e-006 -8.39484892e-006 6.24686799e-021 5.95193342e-006
      9.71066675e-006 -2.95649511e-006 -1.16880792e-005 -1.83193297e-005
      -5.29879162e-006 6.24686799e-021 -8.25312908e-013 6.24686799e-021
      -5.26502754e-006 -1.46599268e-005 -2.88602223e-005
      -3.02304252e-005 -2.78047701e-005 -1.65887977e-005
      -4.20819151e-006 -8.06391682e-008 -3.64993093e-006
      -1.04054898e-005 -1.36856625e-005 -1.36856625e-005
      -5.13086161e-006 2.38070697e-006 1.88053382e-005 9.62035210e-006
      -5.69364192e-006 -1.24452094e-006 -1.09632256e-005
      -1.87123023e-005 -8.36787240e-006 -2.95649511e-006
      -7.78308095e-006 -4.76364494e-006 6.24686799e-021 6.24686799e-021
      -8.25312908e-013 6.24686799e-021 6.24686799e-021 -1.71113777e-006
      -1.03920165e-005 -1.98812959e-005 -3.02304252e-005
      -2.93015219e-005 -2.28029694e-005 -1.51899349e-005
      -1.20873319e-005 -4.29107331e-006 -5.27632028e-006
      -6.63929950e-006 -6.72560418e-006 4.09059112e-006 1.41934534e-005
      5.48559728e-006 -4.80847211e-006 -2.55587256e-005 -2.62336107e-005
      -1.63001805e-005 -1.93137430e-006 9.49713558e-006 1.46953862e-005
      4.33763489e-006 6.24686799e-021 6.24686799e-021 -1.04011331e-012
      6.24686799e-021 6.24686799e-021 6.24686799e-021 6.24686799e-021
      -4.75731667e-006 -1.49158632e-005 -2.35885691e-005
      -2.86426548e-005 -3.02304252e-005 -3.02304252e-005
      -3.02304252e-005 -3.02304252e-005 -3.02304252e-005
      -2.59793269e-005 -1.67401322e-005 -4.14968781e-006 0. 0.
      3.35082404e-006 6.94984919e-006 1.45988406e-005 2.48363103e-005
      2.89075397e-005 1.36895187e-005 1.78152402e-006 6.24686799e-021
      6.24686799e-021</_>
    <_>
      1.84801461e-013 4.85873982e-013 4.85873982e-013 -4.42588146e-007
      -1.18023593e-006 -2.17812249e-006 -5.80273718e-006
      -1.27347948e-005 -1.08117347e-005 -1.65215206e-005
      -8.71541579e-006 -2.28213412e-006 -5.23291476e-007 0. 0. 0. 0. 0.
      0. 1.51193504e-007 3.85065914e-006 1.00065281e-005 2.48653014e-005
      3.35882760e-005 3.39485196e-005 3.39485196e-005 3.39485196e-005
      3.39485196e-005 -7.68971258e-013 -8.47032947e-021 -7.69719236e-007
      -2.87361900e-006 -7.07045456e-006 -2.77844447e-005
      -3.39485196e-005 -3.01393375e-005 -2.12528739e-005
      -3.02173839e-006 -5.05699563e-006 1.07086021e-006 -3.37430401e-006
      8.08675668e-006 1.17434311e-005 6.61041031e-006 3.32839340e-006
      -8.94769698e-007 -1.16636011e-005 -1.40534021e-005
      -1.75041387e-005 -1.86062935e-005 -1.17632026e-005
      -5.84824647e-006 5.75385502e-006 9.52379651e-006 2.66021107e-005
      3.39485196e-005 -3.01072535e-013 -4.61831519e-007 -3.41167288e-006
      -1.83057400e-005 -3.36859594e-005 -3.22551350e-005
      -3.08905983e-005 -2.57563224e-005 6.65075959e-006 3.10748983e-005
      2.23273619e-005 1.39522413e-007 -1.06393227e-005 -1.34272595e-005
      -1.36889039e-005 -1.10114224e-005 -5.76583534e-006
      -3.57486442e-007 -8.47032947e-021 -4.04622733e-006
      -1.07066880e-005 -2.84542002e-005 -3.38910868e-005
      -3.22775486e-005 -1.58772436e-005 -1.54368482e-008 2.37940512e-005
      3.39485196e-005 -8.78339773e-013 -5.47895297e-006 -2.78808620e-005
      -3.39485196e-005 -3.27362104e-005 -3.12224292e-005
      -7.58966098e-006 5.70155817e-006 1.75008354e-005 3.07685805e-005
      -6.31873809e-006 -2.94302190e-005 -3.22872074e-005
      -3.39485196e-005 -3.39485196e-005 -2.44862968e-005
      -3.62264632e-006 -3.18660994e-007 8.67562812e-006 9.61503429e-006
      8.79400068e-006 1.56602209e-006 -2.32293769e-005 -2.43014129e-005
      -2.40769114e-005 -6.99639486e-006 2.75470175e-005 3.39485196e-005
      -2.21816904e-007 -9.45639931e-006 -2.99663443e-005
      -3.39485196e-005 -2.05833694e-005 -1.14201646e-006
      -8.47032947e-021 5.92576998e-006 5.49108199e-006 2.30407500e-006
      -1.47584951e-005 -2.79798314e-005 -2.05294127e-005
      -4.50230255e-006 -1.53327005e-006 1.57960790e-006 -1.53861913e-006
      7.95485903e-006 2.18561472e-005 2.69373577e-005 3.28788883e-005
      3.18495004e-005 2.92974964e-005 1.10225828e-005 -6.62052173e-007
      1.20756476e-006 8.76593003e-006 2.14515512e-005 -1.49780435e-005
      -2.81284156e-005 -3.39485196e-005 -3.25176261e-005
      -1.28851962e-005 -8.47032947e-021 1.81499558e-007 2.18236650e-007
      -5.62453579e-006 -1.12743203e-006 -3.53012319e-006
      -2.74906756e-006 1.61909684e-005 2.72366033e-005 2.71397603e-005
      8.90899810e-006 9.97965572e-007 -1.76152680e-005 -1.26485029e-005
      5.57072735e-006 1.07116884e-005 1.48016443e-005 1.42326016e-005
      9.97614188e-006 -5.08568201e-006 -1.91468735e-005 -2.04330754e-005
      -2.01237126e-005 -2.56336934e-005 -3.39485196e-005
      -2.99364419e-005 -1.42901263e-005 -3.06319777e-007 5.21059569e-008
      4.31915032e-006 6.16358079e-007 -7.25570135e-006 -1.71865418e-006
      2.14683632e-006 1.55277939e-005 3.22042106e-005 3.38176978e-005
      2.58063028e-005 1.52828088e-005 -2.04892513e-005 -2.68680778e-005
      -2.72751022e-005 -1.22855681e-005 -9.66851985e-006
      -3.54495296e-006 -8.47032947e-021 -1.11450720e-006
      -7.40914265e-006 -2.39048168e-005 -3.39485196e-005
      -2.35708194e-005 -2.95725040e-005 -3.34866854e-005
      -2.14401662e-005 -2.48778679e-006 -8.47032947e-021 8.97201062e-006
      7.20951903e-006 -1.31667218e-006 -2.24350947e-006 -2.80109862e-006
      8.47752472e-006 1.13626793e-005 3.30327603e-005 3.39485196e-005
      3.15481630e-005 2.09442642e-005 -1.14673785e-005 -1.99978767e-005
      -2.46113559e-005 -2.34122381e-005 -1.00396337e-005
      -3.54495296e-006 -8.47032947e-021 -8.47032947e-021
      -3.94026029e-006 -2.33005776e-005 -3.36561461e-005
      -3.12288430e-005 -3.39485196e-005 -3.34866854e-005
      -1.97183872e-005 -1.53160659e-006 -8.47032947e-021 1.28645243e-005
      1.75625810e-005 -3.27312637e-006 -9.17881971e-006 8.18524768e-007
      3.38246338e-008 3.90437833e-007 1.11288518e-005 3.01601576e-005
      3.20896652e-005 3.39485196e-005 3.35437253e-005 2.09684458e-006
      -1.25646775e-005 -2.15315486e-005 -1.19776787e-005
      -5.03279944e-006 -4.37601784e-007 -8.47032947e-021
      -1.79601193e-006 -1.87057540e-005 -3.36561461e-005
      -3.38999525e-005 -3.39485196e-005 -2.86441827e-005
      -6.42853229e-006 -8.47032947e-021 -8.47032947e-021 1.33119656e-005
      9.16103147e-007 -3.27312637e-006 -1.77673192e-005 -6.82972768e-006
      -8.47032947e-021 -8.47032947e-021 -8.47032947e-021 9.24470839e-007
      7.12419342e-006 2.06980621e-005 3.19384199e-005 1.25421384e-005
      9.38847552e-006 -4.98535610e-006 -1.91161894e-006 -9.28713507e-006
      -1.53160806e-006 -8.47032947e-021 -3.52787509e-007
      -1.80872303e-005 -3.36561461e-005 -3.39485196e-005
      -3.39485196e-005 -2.74604608e-005 -3.98217435e-006
      -8.47032947e-021 -8.47032947e-021 1.33119656e-005 9.16103147e-007
      -3.27312637e-006 -1.08449149e-005 -3.31356688e-007
      -8.47032947e-021 -8.47032947e-021 -8.47032947e-021
      -8.47032947e-021 -8.47032947e-021 -8.47032947e-021 5.02122521e-006
      1.28762103e-005 9.61807928e-006 7.61063893e-006 1.43551906e-005
      1.74694123e-005 1.25478391e-005 -8.47032947e-021 -8.47032947e-021
      -1.39538670e-005 -3.08992567e-005 -3.39485196e-005
      -3.39485196e-005 -2.74604608e-005 -3.98217435e-006
      -8.47032947e-021 -8.47032947e-021 1.33119656e-005 9.16103147e-007
      0. 1.90997889e-005 2.61845580e-005 1.75213918e-005 1.07514620e-006
      -8.47032947e-021 -8.47032947e-021 -8.47032947e-021
      -8.47032947e-021 -8.47032947e-021 -2.52577570e-006
      -2.11137449e-005 -6.55162148e-006 0. 1.88384020e-005
      2.56493258e-005 1.95135981e-005 5.24704035e-007 -1.39538670e-005
      -3.08992567e-005 -3.39485196e-005 -3.39485196e-005
      -2.74604608e-005 -3.98217435e-006 -8.47032947e-021
      -8.47032947e-021 -3.07962796e-006 -1.80495172e-005
      -4.62099706e-006 2.02531646e-005 3.36171615e-005 3.37450147e-005
      3.16128499e-005 1.46511466e-005 7.42099610e-006 -8.47032947e-021
      -8.47032947e-021 -8.47032947e-021 -8.47032947e-021
      -6.49837239e-006 -2.52438749e-005 -2.49978220e-005 1.38027590e-005
      2.53715261e-005 3.22982742e-005 1.58090625e-005 -2.29958587e-007
      -2.50304929e-005 -3.39485196e-005 -3.39485196e-005
      -2.74604608e-005 -3.98217435e-006 -8.47032947e-021
      -8.47032947e-021 -3.22498704e-006 -3.30324146e-005
      -3.32071868e-005 -1.19153228e-005 1.53318670e-005 2.79107389e-005
      3.39485196e-005 3.31126830e-005 3.10580581e-005 1.71659103e-005
      1.79457629e-006 -8.47032947e-021 -8.47032947e-021 -6.49837102e-006
      -2.48062715e-005 -2.87410548e-005 -7.97350276e-006 2.23407478e-005
      3.38135978e-005 3.07980517e-005 1.62744636e-005 -2.46616983e-005
      -3.39485196e-005 -3.39485196e-005 -2.47035714e-005
      -8.47032947e-021 -8.47032947e-021 -8.47032947e-021
      -3.22498704e-006 -3.30324146e-005 -3.39485196e-005
      -1.32006326e-005 -3.31356688e-007 3.22244205e-006 8.23118444e-006
      3.03150900e-005 3.39485196e-005 3.33454518e-005 2.75377788e-005
      7.94681728e-006 -8.47032947e-021 -6.49837102e-006 -2.48062715e-005
      -2.87410548e-005 -1.51101185e-005 -3.50375308e-006 3.10086398e-005
      3.39485196e-005 1.81905179e-005 -2.42410988e-005 -3.39485196e-005
      -3.39485196e-005 -2.54912557e-005 -1.13776707e-006
      -8.47032947e-021 -8.47032947e-021 -3.22498704e-006
      -3.30324146e-005 -3.39485196e-005 -1.51166851e-005
      -3.31356745e-007 -8.47032947e-021 -8.47032947e-021 3.19418200e-006
      1.76000485e-005 3.28164533e-005 3.39485196e-005 2.86875584e-005
      1.91187246e-005 -2.24310429e-006 -2.48062715e-005 -2.87410548e-005
      -1.51101158e-005 -8.25470215e-006 3.08685703e-005 3.39485196e-005
      2.88030660e-005 -1.24501430e-005 -3.37806086e-005 -3.39485196e-005
      -2.74604608e-005 -3.98217435e-006 -8.47032947e-021
      -8.47032947e-021 -2.28757858e-006 -3.25495093e-005
      -3.39485196e-005 -1.58176790e-005 -3.31356688e-007
      -8.47032947e-021 -8.47032947e-021 -8.47032947e-021
      -8.47032947e-021 1.02630038e-005 2.74586491e-005 3.38746904e-005
      2.79163723e-005 9.64243463e-006 -2.19518770e-005 -2.87410548e-005
      -1.51101176e-005 -8.42696682e-006 8.55215512e-006 3.27731796e-005
      2.31880895e-005 -1.49701218e-005 -3.37806086e-005 -3.39485196e-005
      -2.77528343e-005 -4.58641262e-006 -8.47032947e-021
      -8.47032947e-021 -1.53160397e-006 -3.21600673e-005
      -3.39485196e-005 -1.58176790e-005 -3.31356688e-007
      -8.47032947e-021 -8.47032947e-021 -8.47032947e-021
      -8.47032947e-021 1.05536765e-006 7.04965760e-006 2.95698846e-005
      3.28983624e-005 1.75736550e-005 -1.96904693e-005 -2.77965846e-005
      -1.51101176e-005 -8.42696682e-006 6.19734146e-006 3.27731796e-005
      1.71089650e-005 -1.77030579e-005 -3.37806086e-005 -3.39485196e-005
      -2.82146666e-005 -1.06287307e-005 -1.83792781e-006
      -8.47032947e-021 -1.53160443e-006 -3.21600673e-005
      -3.39485196e-005 -3.39485196e-005 -7.38411200e-006
      -8.47032947e-021 -8.47032947e-021 -8.47032947e-021
      -8.47032947e-021 1.07158677e-007 3.44470891e-006 1.84233704e-005
      3.16801379e-005 2.03211421e-005 -4.09030690e-006 -3.14299359e-005
      -1.51101176e-005 -8.42696682e-006 6.19734192e-006 3.27731796e-005
      1.57940285e-005 -1.79917042e-005 -3.37806086e-005 -2.84784892e-005
      -2.83170539e-005 -1.14967315e-005 -2.14424813e-006
      -8.47032947e-021 -8.47032947e-021 -8.95079847e-006
      -3.39384387e-005 -3.39485196e-005 -1.06784082e-005
      -1.84221875e-007 -8.47032947e-021 -8.47032947e-021
      -8.47032947e-021 -8.47032947e-021 2.25033750e-006 5.76989896e-006
      1.97712707e-005 6.83809503e-006 -4.65556104e-006 -3.11773802e-005
      -1.50486840e-005 -1.38158248e-006 6.19734146e-006 3.26298396e-005
      1.27681824e-005 -1.99661336e-005 -3.37806086e-005 -2.62904887e-005
      -3.39485196e-005 -2.41900816e-005 -3.99515648e-006
      -8.47032947e-021 -8.47032947e-021 -6.83803410e-006
      -3.27787748e-005 -3.39485196e-005 -3.00893917e-005
      -4.92255504e-006 -8.47032947e-021 -8.47032947e-021
      -8.47032947e-021 -8.47032947e-021 2.25033750e-006 1.33525482e-005
      1.18275348e-005 5.25709538e-006 -4.65556104e-006 -1.68126717e-005
      -9.22127765e-006 2.66901566e-006 1.81613377e-005 2.47457883e-005
      1.65120696e-006 -2.10409653e-005 -3.37806086e-005 -1.64652447e-005
      -2.54868064e-005 -1.07477508e-005 5.52086203e-006 1.63059485e-005
      1.67539310e-005 1.48284780e-005 -1.20105506e-006 -2.13523217e-005
      -2.73357382e-005 -2.14141637e-005 -8.47032947e-021
      -8.47032947e-021 -8.47032947e-021 7.50112463e-007 5.44919749e-006
      1.50097403e-005 9.69423309e-006 3.13867440e-006 -1.63496188e-005
      -1.15011799e-005 -8.63651167e-006 3.67198754e-006 2.20340353e-005
      2.02662741e-005 -5.25890391e-006 -2.50663070e-005 -1.42854951e-005
      1.23377258e-005 6.20540868e-006 0. 1.33789872e-005 2.25780896e-005
      3.33700773e-005 3.39485196e-005 2.64677692e-005 2.93965945e-006
      -1.02937420e-005 -2.03109194e-005 -2.44054245e-005
      -1.31951936e-006 9.85856673e-007 8.48380387e-006 3.07800656e-005
      1.21269732e-005 4.56238422e-006 -1.09475413e-005 -1.58685198e-005
      -1.01431442e-005 -2.48851020e-008 8.23475148e-006 2.66748539e-005
      4.53099574e-006 -1.04135188e-005 -2.86869872e-005 -1.08671802e-005
      3.20372346e-005 7.17892863e-006 -1.54804511e-005 -2.16075005e-005
      -1.83683023e-005 -3.87776345e-006 9.87442854e-006 1.43636626e-005
      2.39114652e-005 6.50276070e-006 -6.62524690e-006 -9.16170393e-006
      -1.80640291e-005 1.53243275e-006 2.29688103e-005 1.25717934e-005
      4.50728703e-006 -1.35570535e-005 -2.73495571e-005 -1.07205651e-005
      -2.08369192e-006 9.24294454e-006 2.22558228e-005 7.00012106e-006
      -5.21813445e-006 -1.82687563e-005 -1.71930296e-005
      -1.81593703e-006 3.39485159e-005 1.79711387e-005 -2.10250164e-005
      -3.15286052e-005 -3.39485196e-005 -1.55524103e-005
      -9.01911062e-006 6.12934127e-006 1.15201383e-005 2.22813069e-005
      8.07966444e-006 2.93739822e-006 0. 0. 8.55600410e-006
      2.54134420e-006 -2.25000385e-005 -2.83612699e-005 -8.62189154e-006
      8.51170796e-008 1.24887483e-005 3.00432821e-005 1.08467057e-005
      -7.04965760e-006 -1.30461513e-005 -1.98308953e-005
      -3.41681903e-006 -8.47032947e-021 3.39485159e-005 3.05033191e-005
      1.50084688e-005 -1.78339960e-005 -3.20746331e-005 -3.39485196e-005
      -2.95457721e-005 -1.16546789e-005 -3.77757056e-006 2.62967887e-006
      3.42235467e-006 8.62598245e-006 7.92914670e-006 2.81123675e-006
      -5.41527879e-006 -1.16635683e-005 -1.05674953e-005
      -5.86457782e-006 9.58659803e-006 3.07386545e-005 1.88783015e-005
      5.37541723e-007 -6.75817773e-006 -2.20865404e-005 -2.49968180e-005
      -5.85183079e-006 -8.47032947e-021 -8.47032947e-021 2.76729679e-005
      3.39485196e-005 3.24408611e-005 2.40289282e-005 4.72909096e-006
      -8.44770238e-006 -2.43116065e-005 -3.10578725e-005
      -2.04671269e-005 -1.00796660e-005 -7.67116217e-006
      -3.04466357e-006 -3.76433400e-006 -9.20148068e-006
      -1.55401740e-005 -3.26773852e-006 4.61919626e-006 1.14120821e-005
      8.84229485e-006 1.78078108e-006 -5.74103478e-006 -1.25974111e-005
      -2.94266029e-005 -1.50092619e-005 -2.24644850e-006
      -8.47032947e-021 -8.47032947e-021 -8.47032947e-021 3.69329791e-006
      1.23178233e-005 2.35010866e-005 3.30240437e-005 3.39485196e-005
      2.53136332e-005 1.10260098e-005 4.49389472e-006 4.61320212e-007 0.
      0. 0. 0. 0. 0. 0. 0. -6.00090800e-007 -6.53422512e-006
      -1.55065773e-005 -1.72034615e-005 -1.61250864e-005
      -4.37133349e-006 -8.47032947e-021 -8.47032947e-021
      -8.47032947e-021 -8.47032947e-021 -8.47032947e-021</_>
    <_>
      -1.94021340e-012 -4.92989547e-013 -4.92989547e-013
      -6.73342072e-007 -1.79557821e-006 -3.54954591e-006
      -1.04298533e-005 -2.31480062e-005 -3.68044093e-005
      -4.32071865e-005 -4.48663595e-005 -4.48663595e-005
      -4.48663595e-005 -3.90451169e-005 -3.83465740e-005
      -3.53397772e-005 -2.72712696e-005 -1.83786196e-005
      -1.12466842e-005 -1.35213008e-006 7.48175989e-006 2.13290314e-005
      3.45639455e-005 4.20314136e-005 4.48663595e-005 4.48663595e-005
      4.48663595e-005 4.48663595e-005 -1.31419322e-012 -8.47032947e-022
      -1.17102866e-006 -4.44005127e-006 -9.87138083e-006
      -2.82565397e-005 -4.48663559e-005 -4.40508193e-005
      -4.37949493e-005 -4.04379425e-005 -3.21839543e-005
      -9.98805353e-006 1.41336909e-006 1.22236161e-005 2.44363073e-005
      2.31587637e-005 3.00403717e-005 2.09015689e-005 6.10811685e-006
      -6.48391449e-007 -1.90458413e-005 -2.47921398e-005
      -1.73407716e-005 -1.32901932e-005 -7.82757434e-006 8.45414343e-006
      3.54830227e-005 4.48663559e-005 -1.48379475e-012 -7.02617172e-007
      -5.52175788e-006 -2.25370932e-005 -4.34875692e-005
      -4.22900921e-005 -4.01545003e-005 -3.52508177e-005
      -1.53702931e-005 -4.69684664e-006 1.13669921e-005 6.88249247e-006
      -4.43989535e-007 1.41494138e-005 1.81558134e-005 8.32217574e-006
      1.38070181e-005 2.72666948e-005 1.32956347e-005 -6.01365446e-006
      -1.80689858e-005 -3.14964564e-005 -3.08493982e-005
      -2.36417800e-005 6.93014999e-006 3.05349058e-005 4.38144452e-005
      4.41070697e-005 -1.05258933e-012 -4.97032852e-006 -3.17277045e-005
      -4.45870464e-005 -4.30219879e-005 -3.77884280e-005 1.34688332e-006
      1.26884388e-005 9.90848184e-006 1.22978990e-005 -1.12850430e-005
      -4.26951232e-007 -6.89787703e-006 -1.56616625e-005
      -1.64166195e-005 -2.78050902e-005 -2.51942001e-005
      -2.21844348e-005 -5.55059296e-006 1.50994474e-005 2.46404525e-005
      1.79540548e-005 3.36745893e-006 0. 2.63334005e-006 1.44649312e-005
      2.90361932e-005 2.92046971e-005 -1.19341064e-006 -2.07124540e-005
      -4.07555781e-005 -4.48663559e-005 -3.21135012e-005 1.27302483e-005
      1.58742623e-005 1.49954631e-005 6.77461594e-006 -1.86306693e-006
      -2.58459431e-006 -8.90329193e-006 -4.56544240e-006
      -1.31064587e-006 -1.52810699e-005 -3.10131836e-005
      -3.62990213e-005 -1.81604919e-005 7.29681551e-006 2.65047020e-005
      4.43848330e-005 3.75621494e-005 2.38775083e-005 5.82896837e-006
      -2.70645796e-005 -3.30526600e-005 -2.14131232e-005
      -1.01564569e-006 -1.71766078e-005 -3.88582921e-005
      -4.48663559e-005 -3.81361933e-005 -5.54214057e-006 1.65199217e-005
      1.70134554e-005 6.36971345e-006 -8.35214541e-006 -1.59253232e-005
      -1.38986097e-005 -2.92390223e-006 3.89256411e-006 -8.47032947e-022
      5.09992515e-006 9.47844183e-006 5.72801036e-006 1.34030768e-006
      4.75034221e-006 1.51746017e-005 2.32691582e-005 1.81787818e-005
      7.69258077e-006 -8.75378828e-006 -2.97616880e-005 -4.48663559e-005
      -3.89736597e-005 -2.42875813e-005 -3.17923768e-005
      -4.48663559e-005 -3.67158464e-005 -1.18941707e-005 1.79727122e-005
      2.17905344e-005 2.19977646e-005 5.85811165e-007 -1.82502845e-005
      -1.77530055e-005 -1.36374974e-005 -8.47032947e-022 5.61753086e-006
      2.23131410e-005 3.18863058e-005 4.29874308e-005 2.36902761e-005
      5.96876180e-006 -2.07921330e-005 -2.58646487e-005 -1.80821935e-005
      -4.29133843e-006 -8.47032947e-022 -2.51188999e-006
      -1.52984940e-005 -3.50528098e-005 -4.48663559e-005
      -3.22667875e-005 -4.03490194e-005 -3.90612986e-005
      -1.37134330e-005 1.47537694e-005 2.52195550e-005 3.30064067e-005
      2.21478313e-005 -1.50386495e-005 -2.43733048e-005 -1.85158133e-005
      -9.46525745e-007 1.23326299e-005 2.72676207e-005 4.27854829e-005
      4.43605713e-005 3.58633224e-005 1.48044728e-005 -1.53408255e-005
      -2.99614385e-005 -4.00353929e-005 -2.47006246e-005
      -5.35519530e-006 -8.47032947e-022 -8.47032947e-022
      -5.17508352e-006 -2.45493029e-005 -4.17383017e-005
      -4.01721300e-005 -4.48663559e-005 -3.85098065e-005
      -5.28829923e-006 3.12342818e-005 2.77924355e-005 2.41606103e-005
      5.24088045e-006 -3.27121670e-005 -3.40511360e-005 -1.46126713e-005
      8.08988079e-006 3.12529519e-005 4.40924778e-005 4.35750408e-005
      2.41832331e-005 6.97073438e-006 1.14035356e-006 -1.47366900e-005
      -2.85963488e-005 -4.03945705e-005 -3.03920260e-005
      -7.55288556e-006 -4.51734252e-007 -8.47032947e-022
      -2.96158646e-006 -1.75265850e-005 -4.06353174e-005
      -4.46135637e-005 -4.34221511e-005 -2.23484731e-005 2.36628184e-005
      4.41534576e-005 2.95590307e-005 1.58919265e-005 -1.68653369e-005
      -4.36103001e-005 -3.30179391e-005 -3.95907227e-006 3.44099317e-005
      4.45991827e-005 4.14314527e-005 2.23519710e-005 7.35608228e-006
      -8.47032947e-022 -8.47032947e-022 -1.00960315e-005
      -2.49335826e-005 -4.38273746e-005 -3.35388286e-005
      -1.86018715e-005 -1.58107173e-006 -8.47032947e-022
      -6.59498937e-007 -1.64589073e-005 -4.06353174e-005
      -4.48663559e-005 -2.84497401e-005 -8.56674887e-006 3.75095442e-005
      3.74252959e-005 2.29633515e-005 -4.20010423e-007 -2.93489884e-005
      -4.48663559e-005 -1.56510414e-005 2.68105941e-005 4.44126927e-005
      4.25161597e-005 2.67782725e-005 5.05014759e-006 -8.47032947e-022
      -8.47032947e-022 -8.47032947e-022 -1.98057705e-006
      -2.23259813e-005 -3.31451847e-005 -3.84163213e-005
      -2.15606597e-005 -1.58107173e-006 -8.47032947e-022
      -8.47032947e-022 -9.82577876e-006 -3.67509310e-005
      -4.48663559e-005 -2.24687119e-005 2.97739348e-006 2.89612453e-005
      2.51956226e-005 6.79094683e-006 -4.06166191e-006 -3.67931061e-005
      -4.22320700e-005 -7.02356431e-007 3.88909175e-005 4.36008668e-005
      3.12424927e-005 1.28912006e-005 1.19444439e-005 1.19444439e-005
      1.19444439e-005 1.19444439e-005 1.07850938e-005 -3.88927083e-006
      -2.12007417e-005 -3.35291297e-005 -2.14089487e-005
      -7.81500421e-006 -8.47032947e-022 -8.47032947e-022
      -8.33508420e-006 -3.60296290e-005 -4.48663559e-005
      -1.83351749e-005 4.07531843e-006 2.29443413e-005 1.06223288e-005
      1.39185386e-006 -4.15733166e-006 -3.62366591e-005 -3.80312558e-005
      6.18104059e-006 4.16337280e-005 4.48663559e-005 4.44192265e-005
      4.39033065e-005 4.39033065e-005 4.39033065e-005 4.39033065e-005
      4.39033065e-005 4.39033065e-005 3.69057379e-005 1.18874559e-005
      2.87668718e-006 1.73704229e-005 2.41096222e-005 2.19619942e-005
      8.33167724e-006 -2.04351340e-006 -3.35453115e-005 -4.48663559e-005
      0. 4.07531843e-006 2.03638301e-005 4.98947020e-006
      -8.47032947e-022 -4.15733166e-006 -3.56684795e-005
      -3.44742548e-005 -2.32541174e-006 4.02342121e-005 4.34490248e-005
      4.21060540e-005 2.95742775e-005 2.42638962e-005 1.80702882e-005
      1.43541238e-005 1.43541238e-005 1.43541238e-005 7.35655840e-006
      -5.44081286e-006 2.69359202e-006 1.26007717e-005 3.57592726e-005
      4.32755114e-005 3.86031352e-005 2.28046083e-005 -3.01330565e-005
      -4.48663559e-005 0. 5.83781321e-006 1.27812109e-005
      4.45484744e-007 -8.47032947e-022 -4.15733166e-006 -3.76571079e-005
      -4.28169878e-005 -1.18960270e-005 1.20773293e-005 1.25757851e-005
      1.22165702e-005 2.83293002e-006 2.16941430e-006 1.93697610e-006
      -8.47032947e-022 -8.47032947e-022 -8.47032947e-022
      -6.99756583e-006 -3.12201664e-005 -3.69936861e-005
      -2.18612367e-005 2.19113713e-006 3.65449232e-005 4.43848330e-005
      3.96335890e-005 -1.46769980e-005 -4.40793956e-005 0.
      3.39762983e-006 8.26352698e-006 -8.47032947e-022 -8.47032947e-022
      -4.15733166e-006 -3.75655109e-005 -4.48663559e-005
      -2.37184267e-005 1.50059750e-005 2.80993481e-005 3.70737398e-005
      3.93593691e-005 4.04523562e-005 4.20160395e-005 3.84996601e-005
      2.69352477e-005 1.74429479e-005 2.06209779e-006 -3.05682806e-005
      -3.94907183e-005 -2.41930120e-005 -6.87630154e-006 9.50879894e-006
      4.04377352e-005 4.37485360e-005 5.52764322e-006 -2.41111284e-005
      0. -1.22753340e-006 -3.02892254e-008 -8.47032947e-022
      -8.47032947e-022 -2.73118508e-006 -3.64094885e-005
      -3.43476386e-005 1.16876390e-006 3.68495566e-005 4.46855738e-005
      4.00632889e-005 3.53556788e-005 3.53556788e-005 4.42207020e-005
      3.95957213e-005 3.95957213e-005 3.73844559e-005 1.34594229e-005
      -1.79083618e-005 -3.42200801e-005 -2.91940178e-005
      -8.85398913e-006 3.08713538e-006 1.31847046e-005 3.49247894e-005
      8.36117761e-006 -1.74114248e-005 0. -1.73772025e-006
      -2.27524492e-006 -8.47032947e-022 -8.47032947e-022
      -1.58106752e-006 -2.35342486e-005 -1.52051380e-005 1.20759451e-005
      3.76833741e-005 2.73528804e-005 1.30356766e-005 5.95071560e-006
      -8.47032947e-022 1.42415888e-006 1.68325587e-005 3.00316951e-005
      3.80655401e-005 3.78687910e-005 -6.84661427e-006 -2.66859206e-005
      -2.73186415e-005 -8.85398913e-006 1.20383817e-007 5.99632631e-006
      2.34442778e-005 5.89371348e-006 -1.74114248e-005 0.
      -3.37272832e-006 -9.10036852e-006 -1.89728428e-006
      -8.47032947e-022 -7.52415943e-008 -8.54358950e-006
      -1.36016354e-006 0. 1.99246697e-005 3.43807642e-006
      -8.47032947e-022 -8.47032947e-022 -8.47032947e-022
      -8.47032947e-022 1.54775122e-007 1.09207604e-005 2.82847195e-005
      3.66000022e-005 7.93746767e-006 -2.56441162e-005 -2.26375887e-005
      -8.85398913e-006 1.20384016e-007 5.99632631e-006 1.06405378e-005
      -1.30901105e-006 -1.74114248e-005 5.64668562e-006 -3.37079905e-006
      -9.86167925e-006 -2.28716431e-006 -8.47032947e-022 1.50582594e-006
      5.41807822e-006 2.07448056e-006 -2.76876517e-006 -4.68572779e-007
      -2.08488655e-006 -8.47032947e-022 -8.47032947e-022
      -8.47032947e-022 -8.47032947e-022 -8.47032947e-022
      -8.47032947e-022 2.01370949e-005 1.40991087e-005 6.67101040e-006
      -2.23674906e-005 -2.26109714e-005 -1.58107173e-006 1.20383817e-007
      5.93422010e-006 4.34254935e-006 -4.93267407e-006 -1.74114248e-005
      7.96498261e-006 -5.76512093e-006 -2.11971274e-005 -7.48034881e-006
      -1.28625439e-008 6.01904958e-007 7.66268272e-007 3.19054652e-006
      -1.18660910e-006 -9.61845217e-006 -3.79823564e-006
      -8.47032947e-022 -8.47032947e-022 -8.47032947e-022
      -8.47032947e-022 -8.47032947e-022 -8.47032947e-022
      -5.28946521e-006 2.40558552e-006 6.67101040e-006 -1.29074633e-005
      -1.18792159e-005 -1.58107173e-006 1.20384016e-007 2.51827419e-006
      -3.06798967e-007 -5.45945977e-006 -1.74114248e-005 1.63643581e-005
      -6.18587137e-006 -2.05411579e-005 -2.01592611e-005
      -1.55106522e-006 3.43946624e-007 3.19775472e-006 1.08364584e-005
      2.57905128e-007 -5.77247738e-006 -1.43844127e-005 1.36016354e-006
      -8.47032947e-022 -8.47032947e-022 -8.47032947e-022
      -8.47032947e-022 7.17737407e-007 8.03972341e-007 1.95954885e-006
      3.86987949e-006 4.65169649e-007 -7.77747300e-006 -1.58107173e-006
      1.97864566e-007 1.18672688e-006 -2.47647290e-006 -4.01843226e-006
      -8.96471829e-006 2.04049720e-005 8.40425128e-006 -1.00120133e-005
      -1.63183413e-005 -1.76739941e-005 -9.39680206e-007 2.12967461e-006
      1.16827323e-005 2.63544212e-006 -1.20380676e-007 -7.07893105e-006
      -1.16551737e-005 2.47790149e-006 -8.47032947e-022 -8.47032947e-022
      -8.47032947e-022 -2.72318130e-006 -1.22337258e-006
      -1.81669634e-006 -2.27885016e-006 -1.94973768e-006
      -1.92292327e-006 -8.47032947e-022 -2.24790142e-006
      -5.48569005e-007 -4.65551921e-006 -3.26864028e-006
      -4.48839546e-006 2.05755096e-005 1.41242281e-005 4.97817609e-006
      -1.75906225e-005 -1.86900561e-005 -2.04193748e-006 5.74212618e-006
      4.74622311e-006 8.96239453e-006 3.82513612e-008 -1.63505274e-006
      -1.00102634e-005 -7.51173775e-006 -3.48663457e-006 3.06825996e-007
      -1.09764778e-005 2.19628942e-006 2.21349728e-006 2.40426698e-006
      -5.60541821e-006 2.36133292e-006 1.08324514e-006 -1.09477855e-006
      -2.71297813e-006 -1.61182943e-005 -2.23563703e-007
      -3.44903947e-006 1.01788974e-005 5.72300314e-006 2.35035932e-005
      1.35532764e-005 -8.73179488e-007 -2.47596745e-005 -1.37947072e-005
      -6.37621542e-006 9.31313298e-006 1.68453462e-005 1.33962440e-005
      -6.11846372e-006 -1.08025688e-006 0. -3.47808418e-006
      3.85606910e-007 4.04218736e-006 0. 3.67987377e-006 5.68718815e-006
      -2.88750971e-006 1.70020442e-007 3.79167113e-006 7.07111258e-006
      0. 2.64736059e-007 -1.78710229e-006 1.57022769e-005
      2.45692081e-006 4.07432509e-007 1.15919947e-005 2.17762026e-005
      9.85303450e-006 -7.25785003e-006 -2.10668004e-005 -1.97081372e-005
      -1.02332097e-005 1.44701335e-006 1.15566918e-005 1.27844096e-005
      5.20837466e-006 -5.65910796e-006 -4.53100711e-006 1.90549213e-006
      5.10869768e-007 6.38536960e-007 2.48700388e-007 -8.49292155e-006
      -1.04950800e-006 -7.80592654e-006 -1.36367271e-006
      -5.51188677e-008 0. -8.81240067e-006 4.41019711e-006
      5.54260851e-006 9.11125255e-008 -7.90985333e-013 3.09550472e-007
      8.54761220e-006 2.61752411e-005 1.42771250e-005 2.16068020e-006
      -1.40910724e-005 -1.47411783e-005 -8.20872083e-006
      -2.83940403e-006 8.93774086e-007 -4.72504371e-006 -4.62716662e-006
      -2.24492874e-006 -7.40470341e-006 -5.70474867e-006
      -2.87785929e-006 3.90239791e-007 1.52976963e-006 -2.80912286e-006
      -6.37249968e-008 0. 1.27169699e-007 -1.17444642e-006
      -4.90972468e-007 -8.47032947e-022 -8.47032947e-022
      -8.47032947e-022 -1.01601832e-012 -8.47032947e-022
      -8.47032947e-022 3.56776673e-006 1.39516860e-005 1.42303861e-005
      7.49142646e-006 -6.57712064e-007 -2.94014171e-006 0. 0. 0. 0. 0.
      0. 0. 0. 0. 0. 2.86518639e-006 7.24026177e-006 3.60300692e-006
      2.21973801e-006 -8.47032947e-022 -8.47032947e-022 -8.47032947e-022
      -8.47032947e-022 -8.47032947e-022</_>
    <_>
      2.00236973e-005 3.05263384e-005 3.16520600e-005 3.13639903e-005
      3.13082346e-005 2.92558434e-005 2.26945394e-005 1.40627308e-005
      6.27966938e-006 1.65867698e-006 0. 0. 0. 0. 0. 0. 0. 0. 0.
      3.10965703e-007 5.75441300e-006 1.58339772e-005 2.55892865e-005
      3.25046567e-005 3.37356760e-005 3.37356760e-005 3.37356760e-005
      3.37356760e-005 3.06286747e-005 3.04175119e-005 2.25889780e-005
      1.65694728e-005 3.04307378e-006 -1.93795477e-005 -2.99890489e-005
      -2.88252977e-005 -2.77598483e-005 -2.56599469e-005
      -1.94924796e-005 -1.42146910e-005 -6.85382292e-006 2.46907553e-006
      8.50666947e-006 1.12846665e-005 3.60913350e-006 -7.15866918e-006
      -1.78091705e-005 -2.10585786e-005 -2.40631816e-005
      -2.37095628e-005 -1.86170309e-005 -1.58524999e-005
      -5.22058053e-006 -3.86551847e-007 1.74603829e-005 3.37356723e-005
      3.36415214e-005 2.89996951e-005 -2.44359484e-007 -1.73523513e-005
      -3.33763164e-005 -3.02487315e-005 -2.75887778e-005
      -2.36060532e-005 -7.44501358e-006 -5.91028675e-006
      -6.19581533e-006 -1.20951672e-005 -1.91072450e-005
      -1.91072450e-005 -1.91072450e-005 -1.50300202e-005
      -9.10265953e-006 -4.60368284e-007 4.65868121e-021 -6.84563020e-006
      -1.32116566e-005 -2.61825026e-005 -3.35394252e-005
      -3.05942121e-005 -1.53202491e-005 -2.19810909e-006 1.93710839e-005
      3.37356723e-005 3.37356723e-005 1.64755220e-005 -2.47585540e-005
      -3.37356723e-005 -3.12422708e-005 -2.81288176e-005
      -6.29296028e-006 -3.08051995e-007 -5.38258200e-006
      -6.19581397e-006 -2.98347622e-005 -2.06044278e-005
      -1.83880693e-005 -2.18049536e-005 -2.18049536e-005
      -2.09150057e-005 -1.24002754e-005 -1.82879394e-005
      -2.55845907e-006 -6.59625670e-008 -1.75461503e-006
      -1.07642745e-005 -3.00723495e-005 -3.37356723e-005
      -3.32739328e-005 -1.62030046e-005 2.59348544e-005 3.37356723e-005
      3.31871197e-005 5.13470832e-006 -2.98641571e-005 -3.13686069e-005
      -1.53740839e-005 7.57106773e-006 1.64602479e-005 2.30641508e-005
      1.53656201e-005 2.35184871e-006 -7.51264565e-007 4.42023656e-006
      1.25310644e-005 2.42126825e-005 1.78029622e-005 7.37923438e-006
      -1.35089101e-006 2.25377266e-006 1.22964902e-005 2.40165100e-005
      2.56527273e-005 1.74913475e-005 4.33783998e-006 -2.08461006e-005
      -2.46360196e-005 -1.29758937e-005 1.16825213e-005 2.93737248e-005
      2.16819226e-005 8.21108131e-007 -9.32032162e-006 -3.99945247e-006
      1.89767652e-005 3.12752854e-005 2.58591335e-005 1.85243862e-005
      8.06811418e-009 -1.20630584e-005 -4.83067288e-006 5.74787555e-006
      1.59772735e-005 1.01945152e-005 7.56015379e-006 4.43901354e-006
      -1.27384362e-006 -1.13190508e-005 -2.93305425e-006 1.36455546e-005
      2.77928921e-005 1.89583261e-005 1.50462156e-005 -4.62568960e-006
      -6.10461620e-006 -1.92222501e-007 -4.72411052e-008
      -6.75088529e-007 6.54729274e-006 -2.83529675e-006 1.52220238e-007
      1.66488098e-005 2.98626510e-005 2.38365337e-005 1.44254018e-005
      -3.10275732e-006 -3.05386166e-005 -2.46743784e-005
      -1.63615878e-005 4.65868121e-021 4.65868121e-021 4.65868121e-021
      4.65868121e-021 4.65868121e-021 -1.33135600e-005 -1.63069490e-005
      -1.38025725e-005 1.04845549e-005 1.53968649e-005 1.49837542e-005
      3.24658390e-006 1.27811609e-005 1.89918555e-005 6.33935542e-006
      -1.13460092e-005 -1.73985663e-005 -2.57879838e-005
      -2.89170930e-005 -1.65012643e-005 6.96086374e-007 3.35999698e-006
      -2.46628201e-006 -1.28771208e-005 -2.88800402e-005
      -3.25390429e-005 -1.98305916e-005 -2.47882394e-006 4.65868121e-021
      4.65868121e-021 4.65868121e-021 4.65868121e-021 4.65868121e-021
      -6.91132891e-006 -3.49065135e-006 -5.64981383e-006 1.92163225e-006
      1.03394166e-006 3.16823457e-006 9.31700743e-006 2.32663970e-005
      2.77082363e-005 3.71520241e-006 -2.14945194e-005 -2.77707386e-005
      -3.37356723e-005 -3.22632077e-005 -1.66687132e-005
      -1.42764281e-006 4.65868121e-021 -4.91048877e-006 -1.70921394e-005
      -3.37356723e-005 -2.64767641e-005 -1.09373614e-005
      -8.82602762e-007 4.65868121e-021 4.65868121e-021 4.65868121e-021
      4.65868121e-021 1.07396181e-006 1.13305223e-005 2.21666392e-006
      5.27357861e-006 -5.34542687e-006 -6.10338247e-006 5.92768447e-006
      1.71111878e-005 3.37356723e-005 2.67275082e-005 1.48570894e-006
      -3.06682814e-005 -3.36357843e-005 -3.37356723e-005
      -2.81581342e-005 -5.12566385e-006 4.65868121e-021 4.65868121e-021
      -4.91048922e-006 -2.48740180e-005 -3.37356723e-005
      -2.17859415e-005 -6.02000637e-006 4.65868121e-021 4.65868121e-021
      4.65868121e-021 4.65868121e-021 3.51985335e-007 1.02663489e-005
      1.71104166e-005 1.25329279e-005 9.95302162e-006 -1.57121685e-005
      -1.34614056e-005 2.92204527e-006 2.39181481e-005 3.07293412e-005
      1.71006832e-005 -1.30840544e-005 -3.09074931e-005 -3.37356723e-005
      -3.37356723e-005 -2.74740396e-005 -3.71186889e-006 4.65868121e-021
      4.65868121e-021 -4.91048877e-006 -2.48740180e-005 -3.37356723e-005
      -1.69843515e-005 -3.20528170e-006 4.65868121e-021 4.65868121e-021
      4.65868121e-021 4.65868121e-021 1.21931143e-005 1.90814317e-005
      3.24573775e-005 2.90282496e-005 6.07831518e-009 -8.87030092e-006
      -1.56316419e-005 4.74320041e-006 3.23080312e-005 2.04711232e-005
      1.36924127e-005 -9.31040177e-006 -2.83377394e-005 -3.37356723e-005
      -3.37356723e-005 -2.74740396e-005 -3.71186889e-006 4.65868121e-021
      4.65868121e-021 -4.91048922e-006 -2.97864608e-005 -3.37356723e-005
      -1.69843534e-005 -3.20528170e-006 4.65868121e-021 4.65868121e-021
      1.47451613e-006 1.16962328e-005 2.00988088e-005 3.37356723e-005
      2.71690260e-005 1.59535484e-005 1.17981756e-006 -1.88939557e-005
      -1.64856119e-005 1.03766943e-005 2.16956032e-005 1.68368515e-005
      4.14385158e-006 -9.45990814e-006 -2.83377394e-005 -3.37356723e-005
      -3.37356723e-005 -2.74740396e-005 -3.71186889e-006 4.65868121e-021
      4.65868121e-021 -4.91048877e-006 -3.06051988e-005 -3.37356723e-005
      -1.44584537e-005 -1.72458306e-006 4.65868121e-021 4.65868121e-021
      9.74172508e-006 2.71288845e-005 3.31138835e-005 2.97192037e-005
      1.87159130e-005 2.68864596e-006 9.75759917e-007 -8.81500819e-006
      -7.40707173e-006 1.32839659e-005 1.12533426e-005 1.01836185e-005
      4.65868121e-021 -4.32717752e-006 -2.58541659e-005 -3.37356723e-005
      -3.37356723e-005 -2.74740396e-005 -3.71186889e-006 4.65868121e-021
      4.65868121e-021 -4.91048877e-006 -3.06051988e-005 -3.37356723e-005
      -1.34480906e-005 -1.13230078e-006 3.72008664e-008 4.75625984e-006
      1.43706757e-005 3.08152848e-005 3.01106247e-005 1.37198249e-005
      1.38721339e-006 4.65868121e-021 5.79366679e-006 -6.26550218e-006
      -7.39705456e-007 -2.56177009e-006 8.22179300e-006 4.65868121e-021
      4.65868121e-021 -4.32717752e-006 -2.58541659e-005 -3.37356723e-005
      -3.37356723e-005 -2.49042841e-005 4.65868121e-021 4.65868121e-021
      4.65868121e-021 -4.91048877e-006 -3.06051988e-005 -3.37356723e-005
      -1.34480906e-005 -1.13230078e-006 9.00249177e-007 1.22447273e-005
      1.96132423e-005 3.10097275e-005 2.24197320e-005 8.28413340e-006
      1.10035307e-006 9.39586153e-006 1.17120917e-005 2.35972024e-008
      4.08936899e-007 -4.12575355e-006 1.39678320e-006 4.65868121e-021
      4.65868121e-021 -3.86351729e-007 -2.49891018e-005 -3.37356723e-005
      -3.37356723e-005 -2.56385028e-005 -1.06053676e-006 4.65868121e-021
      4.65868121e-021 -4.91048877e-006 -3.06051988e-005 -3.37356723e-005
      -1.73889130e-005 -9.56448275e-007 1.27211724e-005 2.09524133e-005
      3.34964643e-005 2.51214369e-005 1.65166803e-005 7.22652521e-006
      5.29312410e-006 1.46017774e-005 1.45582335e-005 5.38937093e-006
      -9.53363724e-006 -4.17073898e-006 -7.99479585e-006 4.65868121e-021
      4.65868121e-021 4.65868121e-021 -2.49042932e-005 -3.37356723e-005
      -3.37356723e-005 -2.74740396e-005 -3.71186889e-006 4.65868121e-021
      4.65868121e-021 -2.98248278e-006 -2.96119833e-005 -3.37356723e-005
      -2.23669340e-005 2.08426945e-006 1.58234325e-005 3.33369899e-005
      2.58360596e-005 1.77100337e-005 1.50326548e-006 2.06856498e-006
      1.16679394e-005 1.74929028e-005 2.18902169e-005 -1.14432112e-006
      -1.24315657e-005 -1.33152735e-005 -7.99479585e-006 4.65868121e-021
      4.65868121e-021 -2.84133444e-006 -2.62791291e-005 -3.37356723e-005
      -3.37356723e-005 -2.84731286e-005 -5.77665105e-006 4.65868121e-021
      4.65868121e-021 -1.42764043e-006 -2.30798250e-005 -3.37356723e-005
      -1.51287059e-005 1.62449996e-005 3.21832922e-005 3.20211038e-005
      2.20569964e-005 4.10023995e-006 5.27563088e-007 8.69753967e-006
      1.63192999e-005 2.08107267e-005 1.92309453e-005 -6.22598236e-006
      -1.80373863e-005 -1.84284345e-005 -7.99479585e-006 4.65868121e-021
      4.65868121e-021 -6.75542242e-006 -2.77440686e-005 -3.37356723e-005
      -3.37356723e-005 -2.94229958e-005 -1.37749084e-005
      -1.71317140e-006 4.65868121e-021 -1.42764088e-006 -2.30798250e-005
      -2.83372210e-005 -2.06507248e-005 1.72973596e-005 3.16898404e-005
      2.20276961e-005 5.07294544e-006 7.97364592e-008 9.98288033e-006
      1.54608952e-005 1.78280461e-005 2.92421846e-005 1.28923484e-005
      -9.08388847e-006 -2.87239473e-005 -1.84284345e-005
      -7.99479585e-006 4.65868121e-021 4.65868121e-021 -9.45990814e-006
      -2.83377394e-005 -3.37356723e-005 -2.86369450e-005
      -2.94673446e-005 -1.44784062e-005 -1.99869896e-006 4.65868121e-021
      4.65868121e-021 -8.93184369e-006 -1.84778419e-005 -1.12860253e-005
      1.19454180e-005 2.28973131e-005 1.07542064e-005 2.39210237e-007
      4.39633914e-006 1.24919470e-005 1.54765567e-005 1.70507283e-005
      1.79265826e-005 -5.37264759e-006 -2.66003808e-005 -3.36262819e-005
      -1.84018263e-005 -1.42764429e-006 4.65868121e-021 -6.20874729e-008
      -1.22220272e-005 -3.01911205e-005 -3.37356723e-005
      -2.65974631e-005 -3.37356723e-005 -2.60258403e-005
      -6.27289501e-006 4.65868121e-021 5.43810074e-007 5.11741973e-006
      -9.09095615e-006 -1.40962101e-007 -3.26514441e-006 9.72878115e-006
      5.14015710e-007 3.37966185e-006 1.02691019e-005 1.42750632e-005
      2.47673233e-005 2.34580639e-005 8.91402942e-006 -9.94636957e-006
      -2.66612533e-005 -2.40569698e-005 -1.02292106e-005
      -1.42764429e-006 4.65868121e-021 -3.47700961e-006 -1.93758497e-005
      -3.19065766e-005 -3.37356723e-005 -2.06572804e-005
      -3.37356723e-005 -2.78543739e-005 -1.57251616e-005
      -1.27332584e-007 1.08353152e-005 1.26286859e-005 1.24870458e-005
      -4.48532273e-006 -1.44649612e-005 -2.00087925e-005 2.17642400e-006
      6.03887565e-006 1.37590896e-005 1.73570079e-005 1.93394862e-005
      1.50209707e-005 -6.81091160e-006 -2.50354860e-005 -2.92652276e-005
      -1.71626416e-005 -8.19818342e-006 -1.42764429e-006 4.65868121e-021
      -6.77421895e-006 -2.60375054e-005 -3.37356723e-005
      -2.52914997e-005 -1.48129138e-005 -2.69939774e-005
      -3.37356723e-005 -2.48921551e-005 -9.19942158e-006 1.22999081e-005
      2.89494710e-005 2.30559672e-005 -5.11582130e-006 -2.23348488e-005
      -3.05188987e-005 -1.88654885e-005 9.94112906e-006 1.45389722e-005
      1.69438244e-005 2.22588769e-005 2.11118868e-006 -1.34275724e-005
      -3.20930376e-005 -2.34033687e-005 -1.17197815e-005
      -3.14080853e-006 4.65868121e-021 -3.29697536e-006 -1.92683801e-005
      -3.28733659e-005 -3.37356723e-005 -2.05550732e-005
      -1.35046014e-006 -1.67437574e-005 -2.80834010e-005
      -3.08923263e-005 -1.09740567e-005 1.26870591e-005 3.15950929e-005
      2.14481242e-005 5.29016052e-006 -2.45835363e-005 -2.98992654e-005
      -2.18403675e-005 -1.25723755e-005 -2.48421566e-006 1.49291091e-005
      -8.89465468e-007 -9.48939123e-006 -3.17369741e-005
      -3.02810786e-005 -1.61196731e-005 -4.85398732e-006 4.65868121e-021
      -3.68713040e-006 -1.75684945e-005 -3.37356723e-005
      -3.37356723e-005 -2.54413899e-005 -4.38552206e-006
      -8.32968568e-013 -4.00223144e-006 -1.83012980e-005
      -1.88289741e-005 -1.58702005e-005 1.37227607e-005 1.05570971e-005
      1.38779269e-005 7.67465508e-007 1.07733672e-006 -1.11293593e-005
      -1.74101897e-005 -1.95797584e-005 -1.33065287e-005
      -5.58733518e-006 -9.62348895e-006 -3.17733829e-005
      -2.91883243e-005 -8.08714140e-006 -6.56715156e-006 4.65868121e-021
      -1.19700849e-006 -1.27812809e-005 -3.37356723e-005
      -3.33010466e-005 -2.72865364e-005 -6.10418783e-006 4.65868121e-021
      -1.24158323e-012 4.65868121e-021 -7.18779529e-006 -4.92943673e-006
      -4.79167056e-006 -7.29913654e-006 -1.08933591e-005
      -1.06522421e-005 -8.37494190e-006 8.09450466e-006 1.11050922e-005
      5.23563767e-006 -7.69552935e-006 -3.81180143e-006 -2.27820397e-006
      -1.26077284e-005 -1.15955327e-005 -8.03437251e-006
      -7.99479585e-006 -9.38161236e-007 -9.22914751e-006
      -2.74851045e-005 -3.35317272e-005 -3.37356723e-005
      -3.02586650e-005 -1.11197032e-005 -2.61298453e-007 4.65868121e-021
      -4.79306536e-013 4.65868121e-021 4.65868121e-021 9.70675046e-006
      1.07035394e-005 1.98527050e-006 -1.96471283e-005 -3.13068485e-005
      -2.02007905e-005 -5.95278834e-006 4.55540913e-007 8.46921375e-006
      1.36084200e-005 1.42290037e-005 9.14006432e-006 -5.01662544e-006
      -1.66526752e-005 -1.53619985e-005 -1.80218631e-005
      -2.69340198e-005 -3.30737203e-005 -3.37356723e-005
      -3.36085432e-005 -2.21184891e-005 -3.98824568e-006 4.65868121e-021
      4.65868121e-021 4.65868121e-021 -8.32968568e-013 4.65868121e-021
      4.65868121e-021 1.22714200e-005 2.51091260e-005 2.68820349e-005
      1.60427517e-005 7.95242613e-006 1.37071754e-006 0.
      -1.23097436e-006 -9.78944081e-006 -1.53286928e-005
      -1.64875000e-005 -2.86022259e-005 -3.37356723e-005
      -3.37356723e-005 -3.37356723e-005 -3.37356723e-005
      -3.07903319e-005 -2.47889384e-005 -2.01704770e-005
      -7.73106694e-006 4.65868121e-021 4.65868121e-021 4.65868121e-021
      4.65868121e-021 4.65868121e-021</_>
    <_>
      -2.97250462e-012 3.46938850e-006 8.45574414e-006 1.17075042e-005
      1.88941831e-005 2.70807377e-005 2.35309235e-005 1.10680339e-005
      5.87730574e-006 2.26654311e-006 0. 0. 0. 0. 0. 0. 0. 0. 0.
      4.80040683e-007 8.27997610e-006 2.55942396e-005 3.11192089e-005
      3.55306911e-005 1.63606874e-005 3.16256114e-006 -3.26700235e-014
      -3.26700235e-014 2.07195399e-006 9.50614503e-006 1.69646937e-005
      3.63639811e-005 3.17488630e-005 5.51741959e-006 -3.01989871e-006
      -8.38289361e-006 -1.64933917e-005 -2.36822088e-005
      -2.16211520e-005 -1.19601564e-005 -8.97305927e-006
      -6.51796290e-006 1.26290001e-006 4.96862231e-006 -2.28304975e-006
      -1.15483235e-005 -1.86076377e-005 -2.38285866e-005
      -1.65718338e-005 -4.35406082e-006 1.20391005e-005 2.20576367e-005
      3.57904828e-005 3.92125730e-005 1.10396222e-005 3.24276101e-007
      8.98779581e-006 1.89879083e-005 3.96436189e-005 1.32344476e-005
      -9.05185880e-006 -1.74620254e-005 -2.80474105e-005
      -3.20712352e-005 2.16770331e-006 7.52349752e-006 4.70394707e-006
      -4.45948945e-006 -1.34540696e-005 1.30299140e-005 1.37942407e-005
      2.02206556e-005 1.93659471e-005 2.87604889e-005 1.46172551e-005
      -9.90506851e-006 -1.54889385e-005 -2.76378014e-005
      -3.25075926e-005 -9.93209505e-006 2.74116319e-005 4.73323016e-005
