<?xml version="1.0"?>
<opencv_storage>
<my_svm type_id="opencv-ml-svm">
  <svm_type>C_SVC</svm_type>
  <kernel><type>RBF</type>
    <gamma>1.0000000000000001e-001</gamma></kernel>
  <C>1.</C>
  <term_criteria><epsilon>9.9999999747524271e-007</epsilon>
    <iterations>2147483647</iterations></term_criteria>
  <var_all>140</var_all>
  <var_count>140</var_count>
  <class_count>32</class_count>
  <class_labels type_id="opencv-matrix">
    <rows>1</rows>
    <cols>32</cols>
    <dt>i</dt>
    <data>
      0 1 2 3 4 5 6 7 8 9 10 11 12 13 14 15 16 17 18 19 20 21 22 23 24
      25 26 27 28 30 31 32</data></class_labels>
  <sv_total>32</sv_total>
  <support_vectors>
    <_>
      151. 148. 146. 61. 82. 70. 65. 155. 150. 154. 149. 142. 47. 147.
      151. 148. 143. 53. 152. 152. 145. 47. 142. 151. 151. 149. 149. 95.
      51. 148. 113. 44. 148. 152. 152. 151. 150. 144. 46. 119. 32. 48.
      150. 153. 151. 150. 149. 145. 32. 52. 37. 87. 152. 152. 152. 150.
      150. 149. 80. 43. 40. 105. 151. 152. 151. 151. 150. 148. 102. 46.
      41. 98. 151. 152. 152. 150. 149. 149. 103. 47. 46. 77. 150. 152.
      152. 151. 150. 148. 82. 49. 36. 44. 149. 151. 152. 152. 150. 150.
      34. 50. 119. 52. 148. 153. 150. 151. 152. 146. 45. 106. 142. 42.
      115. 151. 152. 150. 148. 132. 48. 150. 148. 136. 49. 154. 150.
      149. 146. 45. 144. 154. 154. 150. 148. 57. 70. 71. 70. 162. 151.
      152.</_>
    <_>
      146. 143. 141. 138. 110. 60. 146. 146. 144. 145. 247. 52. 40. 45.
      37. 58. 140. 147. 146. 146. 140. 139. 135. 128. 220. 56. 143. 146.
      147. 147. 143. 143. 143. 135. 219. 52. 147. 144. 146. 146. 143.
      140. 142. 134. 220. 60. 150. 141. 145. 146. 144. 140. 138. 132.
      221. 45. 149. 142. 146. 144. 146. 143. 142. 131. 221. 52. 147.
      141. 144. 146. 142. 141. 142. 134. 219. 54. 149. 145. 146. 147.
      143. 141. 140. 136. 102. 60. 149. 143. 143. 146. 143. 140. 139.
      137. 99. 54. 153. 140. 146. 144. 143. 143. 141. 136. 190. 58. 148.
      138. 144. 144. 142. 139. 135. 136. 108. 54. 151. 139. 144. 142.
      142. 142. 138. 134. 96. 51. 143. 139. 142. 142. 131. 189. 189. 43.
      40. 43. 43. 44. 51. 73.</_>
    <_>
      148. 136. 199. 56. 170. 160. 45. 182. 146. 147. 130. 64. 149. 137.
      140. 146. 142. 191. 57. 142. 83. 49. 141. 145. 147. 146. 144. 125.
      39. 145. 229. 44. 134. 143. 145. 143. 144. 124. 41. 116. 122. 138.
      139. 145. 147. 146. 145. 105. 45. 148. 140. 143. 145. 146. 147.
      145. 140. 44. 63. 142. 145. 143. 144. 143. 143. 137. 229. 59. 147.
      144. 146. 142. 145. 148. 136. 167. 67. 143. 146. 149. 145. 144.
      145. 133. 96. 171. 141. 146. 147. 145. 144. 145. 132. 59. 127.
      143. 147. 149. 148. 148. 143. 134. 99. 143. 143. 146. 147. 147.
      142. 63. 132. 153. 141. 145. 146. 147. 145. 145. 107. 123. 122.
      125. 141. 146. 143. 145. 144. 115. 55. 149. 39. 45. 43. 44. 44.
      46. 45. 39. 70. 143.</_>
    <_>
      148. 141. 171. 47. 203. 202. 39. 164. 145. 145. 134. 35. 162. 143.
      143. 145. 140. 144. 97. 143. 114. 46. 182. 141. 145. 144. 142.
      130. 46. 150. 129. 93. 140. 141. 144. 143. 142. 135. 46. 140. 144.
      148. 147. 146. 145. 147. 143. 159. 56. 144. 144. 144. 146. 143.
      142. 142. 111. 82. 146. 146. 144. 143. 141. 35. 35. 55. 145. 141.
      141. 148. 144. 145. 144. 142. 142. 146. 132. 43. 137. 144. 146.
      145. 145. 145. 144. 144. 145. 134. 30. 103. 146. 147. 147. 147.
      144. 145. 145. 145. 186. 53. 205. 91. 146. 146. 147. 145. 145.
      147. 183. 56. 38. 48. 152. 146. 145. 142. 140. 135. 33. 240. 120.
      47. 147. 144. 142. 142. 136. 144. 62. 138. 140. 122. 44. 185. 154.
      203. 42. 124. 144. 142.</_>
    <_>
      149. 149. 149. 148. 145. 143. 46. 153. 149. 148. 148. 147. 148.
      146. 144. 114. 52. 159. 144. 149. 149. 148. 148. 148. 140. 68. 46.
      163. 146. 147. 148. 148. 146. 139. 62. 145. 47. 160. 146. 149.
      149. 145. 145. 168. 150. 140. 46. 160. 144. 148. 147. 147. 127.
      69. 139. 139. 49. 158. 143. 148. 147. 147. 50. 141. 146. 140. 48.
      168. 144. 149. 143. 127. 145. 144. 145. 135. 43. 160. 144. 149.
      131. 71. 145. 143. 146. 133. 42. 156. 143. 148. 212. 150. 144.
      138. 143. 133. 47. 173. 148. 158. 225. 108. 110. 107. 128. 116.
      41. 131. 135. 146. 146. 149. 146. 145. 144. 138. 46. 159. 142.
      148. 149. 149. 148. 145. 145. 132. 43. 144. 147. 147. 146. 146.
      147. 142. 188. 26. 40. 43. 187. 150.</_>
    <_>
      132. 47. 31. 38. 36. 35. 43. 40. 42. 145. 135. 176. 147. 151. 152.
      150. 145. 146. 145. 146. 137. 179. 147. 147. 148. 149. 149. 149.
      148. 148. 128. 188. 146. 148. 149. 149. 149. 151. 152. 150. 119.
      135. 146. 147. 146. 146. 149. 149. 151. 150. 109. 140. 148. 49.
      246. 245. 36. 142. 146. 149. 98. 54. 149. 151. 147. 145. 141. 86.
      58. 142. 145. 147. 147. 149. 148. 148. 145. 138. 36. 235. 149.
      149. 149. 149. 148. 148. 147. 147. 150. 34. 147. 148. 149. 149.
      149. 148. 146. 146. 164. 48. 45. 47. 146. 147. 150. 148. 146. 147.
      153. 54. 32. 46. 145. 143. 149. 151. 147. 141. 40. 234. 95. 46.
      153. 149. 149. 145. 137. 86. 53. 143. 142. 125. 94. 177. 158. 180.
      46. 141. 144. 151.</_>
    <_>
      148. 147. 144. 216. 46. 140. 79. 40. 179. 147. 149. 138. 32. 145.
      147. 148. 141. 139. 39. 110. 141. 48. 172. 147. 148. 148. 148.
      129. 36. 146. 136. 54. 154. 144. 149. 150. 150. 149. 146. 150. 43.
      49. 142. 147. 149. 148. 148. 150. 150. 151. 32. 147. 146. 143. 66.
      27. 39. 235. 147. 149. 42. 161. 164. 141. 146. 149. 144. 58. 40.
      148. 36. 46. 145. 150. 150. 148. 149. 141. 35. 239. 33. 94. 147.
      151. 150. 149. 147. 148. 71. 47. 36. 90. 147. 151. 150. 150. 147.
      147. 102. 48. 44. 55. 149. 151. 150. 149. 148. 146. 52. 52. 126.
      50. 149. 149. 150. 148. 147. 144. 31. 147. 146. 191. 78. 148. 148.
      146. 147. 87. 91. 143. 148. 149. 127. 38. 91. 86. 32. 133. 148.
      150.</_>
    <_>
      146. 38. 37. 36. 39. 42. 45. 39. 44. 50. 145. 43. 162. 151. 148.
      144. 145. 148. 133. 120. 244. 143. 150. 149. 149. 148. 149. 146.
      46. 145. 50. 147. 152. 150. 147. 150. 146. 93. 153. 149. 145. 146.
      150. 149. 150. 153. 138. 201. 148. 152. 150. 149. 151. 150. 148.
      139. 44. 146. 149. 150. 149. 150. 148. 147. 150. 167. 160. 147.
      150. 151. 150. 151. 149. 148. 143. 50. 146. 149. 150. 151. 150.
      149. 147. 147. 162. 152. 150. 152. 150. 151. 151. 148. 149. 144.
      45. 150. 148. 150. 151. 150. 148. 146. 147. 145. 43. 155. 150.
      150. 151. 151. 149. 145. 146. 54. 46. 149. 151. 150. 150. 151.
      149. 147. 142. 35. 45. 148. 150. 151. 151. 150. 148. 146. 146. 87.
      38. 147. 151. 151. 151. 151.</_>
    <_>
      149. 146. 120. 50. 113. 107. 31. 174. 151. 151. 150. 102. 151.
      150. 149. 148. 148. 94. 118. 150. 145. 68. 143. 152. 150. 147.
      148. 144. 52. 152. 107. 65. 148. 150. 151. 149. 148. 147. 50. 156.
      135. 48. 137. 149. 148. 149. 149. 118. 93. 148. 150. 188. 41. 56.
      152. 143. 94. 76. 148. 150. 149. 146. 141. 148. 41. 39. 214. 157.
      149. 148. 149. 142. 110. 141. 142. 154. 27. 41. 94. 146. 147. 47.
      151. 148. 149. 150. 147. 143. 44. 113. 42. 69. 149. 153. 153. 150.
      150. 149. 141. 49. 37. 89. 147. 149. 151. 152. 149. 150. 143. 47.
      40. 53. 147. 150. 151. 151. 150. 149. 151. 68. 132. 47. 148. 150.
      150. 150. 150. 141. 41. 151. 148. 146. 220. 36. 83. 82. 40. 173.
      150. 151.</_>
    <_>
      149. 146. 209. 41. 120. 104. 32. 130. 151. 150. 148. 32. 132. 146.
      149. 148. 146. 66. 212. 151. 239. 49. 148. 150. 151. 149. 148.
      145. 48. 149. 40. 83. 150. 151. 151. 150. 149. 147. 30. 240. 42.
      106. 149. 150. 151. 150. 149. 150. 70. 37. 43. 83. 150. 150. 150.
      149. 148. 146. 83. 41. 205. 44. 147. 151. 149. 148. 147. 141. 39.
      42. 139. 40. 71. 149. 147. 144. 109. 174. 164. 44. 150. 144. 179.
      31. 30. 154. 148. 148. 184. 39. 151. 152. 155. 149. 149. 148. 150.
      147. 28. 240. 149. 150. 151. 153. 153. 150. 149. 150. 44. 153.
      138. 30. 130. 149. 150. 149. 146. 144. 170. 149. 243. 43. 149.
      149. 150. 148. 124. 39. 148. 154. 146. 181. 43. 86. 146. 33. 147.
      150. 151. 153.</_>
    <_>
      153. 152. 150. 150. 125. 154. 151. 152. 155. 155. 153. 153. 151.
      152. 142. 156. 155. 155. 152. 153. 155. 154. 152. 151. 142. 158.
      152. 152. 153. 155. 152. 151. 151. 150. 141. 160. 151. 154. 155.
      154. 152. 151. 151. 150. 140. 159. 153. 154. 154. 151. 150. 152.
      152. 149. 142. 155. 150. 149. 149. 154. 129. 127. 121. 113. 91.
      101. 213. 251. 251. 250. 132. 124. 125. 137. 136. 141. 145. 154.
      157. 159. 151. 154. 152. 150. 147. 158. 152. 152. 154. 154. 155.
      150. 151. 152. 152. 161. 153. 155. 154. 155. 155. 152. 152. 152.
      149. 155. 152. 154. 154. 154. 154. 153. 151. 152. 146. 157. 153.
      153. 154. 154. 153. 154. 153. 153. 149. 154. 151. 153. 154. 153.
      153. 154. 153. 154. 154. 165. 154. 151. 153. 153.</_>
    <_>
      141. 125. 121. 110. 106. 99. 99. 255. 255. 255. 157. 144. 140.
      131. 127. 121. 122. 224. 224. 225. 206. 199. 197. 193. 191. 188.
      188. 133. 130. 135. 255. 255. 255. 255. 255. 255. 255. 42. 37. 45.
      167. 165. 165. 161. 160. 158. 159. 36. 34. 43. 80. 76. 75. 67. 65.
      62. 62. 31. 31. 41. 47. 45. 44. 37. 33. 31. 31. 30. 30. 41. 41.
      44. 43. 38. 32. 34. 32. 31. 31. 41. 38. 42. 42. 39. 32. 35. 64.
      63. 63. 72. 38. 40. 40. 40. 34. 37. 159. 159. 159. 163. 38. 38.
      37. 40. 37. 39. 255. 255. 255. 255. 131. 131. 131. 132. 130. 132.
      189. 191. 193. 195. 224. 224. 224. 224. 224. 224. 123. 128. 131.
      135. 255. 255. 255. 255. 255. 255. 101. 107. 110. 116.</_>
    <_>
      153. 156. 153. 153. 149. 145. 138. 40. 246. 154. 152. 153. 151.
      145. 255. 51. 135. 145. 146. 154. 152. 149. 122. 51. 255. 159.
      151. 153. 151. 153. 148. 255. 45. 255. 156. 151. 150. 151. 151.
      152. 102. 44. 37. 164. 149. 154. 154. 153. 153. 151. 32. 45. 255.
      157. 149. 152. 153. 153. 153. 152. 24. 40. 106. 147. 151. 152.
      153. 153. 154. 154. 25. 48. 102. 147. 152. 153. 154. 154. 154.
      153. 255. 46. 255. 158. 151. 153. 152. 153. 153. 154. 146. 38. 30.
      157. 148. 151. 153. 153. 154. 154. 148. 123. 36. 44. 170. 153.
      153. 152. 153. 153. 148. 145. 137. 38. 55. 140. 153. 150. 151.
      151. 150. 151. 150. 146. 136. 40. 223. 155. 153. 151. 154. 153.
      152. 152. 151. 149. 148. 241. 50. 125.</_>
    <_>
      247. 32. 129. 146. 147. 152. 150. 152. 152. 152. 147. 147. 156.
      89. 36. 165. 148. 149. 148. 151. 150. 148. 147. 145. 151. 40. 40.
      158. 149. 151. 149. 148. 148. 148. 149. 152. 33. 42. 154. 145.
      150. 150. 150. 150. 147. 146. 142. 35. 35. 166. 151. 150. 150.
      150. 148. 146. 145. 255. 46. 255. 151. 149. 149. 149. 149. 149.
      144. 112. 49. 28. 151. 150. 149. 149. 150. 148. 149. 115. 37. 28.
      149. 149. 148. 149. 150. 148. 141. 124. 46. 255. 148. 147. 147.
      148. 150. 147. 155. 22. 46. 119. 149. 149. 150. 149. 147. 149.
      255. 52. 173. 147. 149. 147. 150. 149. 155. 255. 41. 126. 147.
      149. 151. 149. 142. 133. 48. 135. 147. 151. 152. 148. 157. 246.
      32. 132. 148. 150. 150. 149. 149. 151.</_>
    <_>
      149. 148. 150. 148. 34. 175. 147. 149. 150. 150. 149. 147. 148.
      148. 31. 117. 147. 150. 149. 150. 148. 144. 146. 145. 233. 140.
      147. 147. 148. 148. 53. 158. 141. 145. 233. 150. 146. 146. 154.
      57. 75. 55. 173. 142. 212. 151. 145. 129. 44. 122. 143. 126. 54.
      195. 119. 156. 93. 145. 154. 144. 148. 144. 153. 97. 48. 32. 124.
      145. 150. 149. 148. 143. 149. 95. 29. 43. 110. 147. 145. 152. 145.
      131. 54. 230. 138. 132. 96. 62. 132. 150. 229. 53. 184. 143. 120.
      141. 148. 172. 51. 106. 39. 172. 148. 145. 233. 118. 148. 147.
      154. 197. 150. 145. 146. 143. 233. 194. 147. 150. 146. 149. 150.
      148. 148. 145. 233. 232. 146. 149. 149. 149. 150. 150. 148. 146.
      142. 232. 149. 150. 150. 150.</_>
    <_>
      148. 147. 150. 150. 149. 149. 148. 149. 147. 30. 178. 144. 148.
      150. 148. 148. 149. 149. 235. 148. 143. 63. 146. 147. 147. 148.
      150. 144. 230. 151. 148. 145. 37. 144. 147. 148. 143. 34. 145.
      148. 150. 147. 138. 171. 147. 147. 117. 148. 147. 150. 151. 148.
      146. 169. 143. 131. 168. 148. 149. 152. 149. 148. 147. 146. 84.
      86. 144. 149. 150. 149. 149. 148. 147. 148. 158. 161. 144. 150.
      150. 149. 148. 148. 148. 127. 157. 150. 165. 148. 148. 151. 150.
      148. 145. 108. 146. 147. 119. 147. 146. 149. 149. 145. 72. 144.
      148. 147. 145. 40. 147. 149. 147. 175. 141. 151. 150. 148. 147.
      143. 158. 148. 145. 140. 147. 148. 150. 149. 148. 149. 126. 121.
      30. 147. 148. 151. 150. 149. 150. 149. 146. 64.</_>
    <_>
      141. 144. 207. 123. 122. 122. 191. 202. 138. 143. 143. 108. 48.
      43. 38. 40. 35. 36. 97. 143. 144. 56. 41. 40. 40. 39. 39. 43. 31.
      133. 138. 48. 41. 37. 37. 36. 38. 35. 38. 255. 160. 43. 38. 37.
      35. 36. 36. 37. 37. 255. 41. 43. 38. 35. 34. 37. 36. 39. 39. 26.
      40. 43. 39. 36. 35. 37. 36. 35. 40. 21. 42. 43. 38. 36. 36. 35.
      37. 39. 40. 25. 48. 44. 38. 36. 35. 36. 37. 37. 39. 25. 161. 47.
      40. 37. 36. 36. 37. 38. 44. 156. 143. 46. 40. 38. 38. 36. 37. 40.
      38. 134. 149. 247. 44. 40. 39. 40. 40. 42. 34. 145. 142. 127. 82.
      35. 43. 42. 36. 66. 115. 146. 146. 149. 116. 196. 192. 118. 195.
      122. 141. 142.</_>
    <_>
      148. 148. 147. 146. 146. 146. 145. 145. 161. 57. 148. 147. 147.
      146. 145. 147. 145. 137. 36. 154. 146. 148. 147. 146. 146. 144.
      146. 156. 157. 143. 147. 147. 146. 146. 146. 144. 109. 144. 142.
      146. 146. 146. 146. 146. 145. 148. 38. 145. 144. 146. 146. 148.
      146. 145. 146. 210. 157. 141. 147. 149. 146. 145. 145. 144. 119.
      33. 142. 146. 147. 148. 146. 146. 147. 150. 36. 136. 146. 146.
      146. 146. 145. 145. 144. 186. 241. 143. 145. 145. 147. 147. 146.
      145. 133. 38. 143. 146. 148. 147. 149. 148. 145. 142. 49. 142.
      145. 147. 147. 148. 148. 146. 141. 209. 183. 143. 146. 147. 146.
      147. 147. 146. 133. 35. 139. 146. 148. 147. 147. 147. 147. 147.
      42. 135. 145. 147. 147. 147. 147. 147. 148. 147.</_>
    <_>
      145. 146. 145. 141. 46. 19. 142. 146. 144. 146. 146. 146. 146.
      143. 45. 39. 142. 145. 145. 146. 146. 145. 146. 145. 127. 132.
      143. 145. 144. 146. 146. 145. 145. 145. 143. 143. 143. 145. 143.
      144. 144. 145. 145. 143. 144. 143. 143. 144. 144. 143. 143. 144.
      143. 143. 142. 140. 142. 142. 143. 143. 173. 111. 105. 247. 246.
      246. 245. 245. 244. 68. 125. 127. 126. 138. 136. 141. 145. 148.
      151. 148. 144. 143. 142. 144. 144. 145. 143. 142. 146. 142. 145.
      145. 144. 144. 144. 143. 143. 144. 144. 145. 145. 145. 143. 144.
      142. 144. 145. 145. 145. 144. 146. 146. 144. 144. 121. 203. 143.
      146. 145. 143. 146. 146. 145. 143. 44. 43. 141. 145. 146. 145.
      146. 146. 147. 145. 234. 15. 143. 146. 145. 145.</_>
    <_>
      142. 145. 160. 115. 128. 34. 161. 36. 140. 141. 138. 44. 120. 140.
      140. 137. 121. 45. 210. 141. 185. 20. 138. 141. 142. 142. 143.
      136. 50. 140. 181. 18. 135. 142. 143. 144. 145. 144. 129. 204.
      121. 43. 132. 140. 142. 142. 144. 143. 143. 142. 140. 194. 40.
      191. 126. 144. 139. 142. 143. 143. 143. 138. 162. 32. 45. 38. 121.
      131. 139. 145. 143. 143. 144. 143. 149. 194. 115. 41. 79. 135.
      143. 142. 143. 143. 141. 141. 142. 133. 43. 164. 147. 141. 142.
      143. 141. 141. 143. 144. 157. 36. 141. 140. 140. 141. 142. 141.
      144. 142. 138. 37. 144. 40. 142. 140. 142. 142. 143. 138. 154. 30.
      140. 38. 43. 125. 136. 140. 140. 145. 44. 121. 142. 152. 154. 167.
      47. 132. 128. 67. 138. 142.</_>
    <_>
      143. 145. 228. 39. 44. 40. 47. 141. 142. 143. 142. 141. 125. 39.
      34. 33. 166. 144. 140. 142. 143. 143. 141. 143. 143. 144. 141.
      143. 143. 144. 142. 142. 143. 143. 144. 142. 141. 140. 141. 141.
      141. 141. 142. 142. 143. 143. 138. 138. 142. 142. 136. 247. 38.
      44. 41. 37. 127. 140. 140. 140. 139. 139. 129. 156. 42. 34. 126.
      137. 139. 137. 142. 142. 140. 169. 40. 37. 181. 139. 141. 140.
      142. 141. 141. 175. 39. 38. 178. 136. 138. 138. 142. 142. 138.
      114. 41. 37. 173. 133. 139. 139. 142. 141. 139. 115. 37. 37. 162.
      139. 139. 141. 140. 139. 137. 121. 34. 42. 160. 134. 138. 140.
      141. 140. 137. 133. 31. 38. 155. 140. 139. 140. 140. 148. 218. 45.
      41. 38. 43. 214. 217. 215.</_>
    <_>
      141. 157. 193. 137. 105. 28. 34. 120. 136. 138. 80. 41. 196. 128.
      230. 147. 122. 32. 132. 136. 135. 197. 196. 121. 135. 140. 139.
      37. 146. 137. 138. 202. 153. 138. 140. 138. 134. 38. 130. 136.
      138. 206. 20. 138. 138. 138. 135. 36. 116. 137. 140. 206. 15. 140.
      138. 139. 134. 28. 114. 135. 138. 207. 14. 139. 139. 138. 136. 31.
      103. 136. 138. 100. 19. 138. 139. 137. 135. 30. 101. 137. 138.
      105. 18. 137. 139. 137. 138. 37. 98. 137. 137. 104. 16. 137. 138.
      138. 135. 31. 94. 139. 140. 106. 23. 138. 137. 137. 135. 198. 126.
      139. 139. 110. 15. 136. 137. 138. 136. 198. 205. 139. 135. 193.
      39. 144. 139. 140. 146. 44. 46. 141. 30. 25. 22. 30. 139. 135. 51.
      161. 163. 164.</_>
    <_>
      138. 137. 134. 188. 30. 27. 26. 167. 132. 133. 136. 135. 76. 175.
      132. 135. 108. 39. 28. 129. 135. 203. 172. 133. 136. 134. 134. 86.
      37. 138. 149. 39. 132. 136. 136. 136. 137. 139. 26. 129. 213. 27.
      131. 137. 139. 137. 137. 134. 132. 134. 32. 72. 136. 136. 138.
      137. 137. 135. 137. 138. 36. 75. 135. 137. 136. 134. 136. 135.
      136. 135. 39. 70. 135. 137. 137. 134. 137. 137. 136. 136. 43. 25.
      133. 136. 137. 135. 138. 136. 136. 136. 74. 31. 128. 133. 134.
      135. 137. 134. 136. 135. 104. 38. 148. 135. 136. 135. 134. 136.
      133. 97. 132. 37. 33. 136. 134. 136. 134. 132. 180. 159. 135. 134.
      30. 33. 131. 145. 147. 174. 159. 135. 137. 135. 136. 160. 29. 36.
      28. 173. 132. 137.</_>
    <_>
      136. 137. 128. 30. 49. 38. 25. 132. 131. 136. 136. 129. 30. 131.
      133. 127. 137. 41. 124. 131. 130. 32. 130. 133. 136. 134. 133. 86.
      40. 125. 111. 34. 129. 135. 135. 136. 134. 134. 39. 109. 45. 18.
      132. 134. 135. 136. 134. 130. 31. 15. 27. 34. 134. 133. 137. 135.
      134. 132. 59. 40. 39. 52. 136. 136. 136. 134. 135. 133. 85. 41.
      37. 60. 134. 135. 135. 133. 134. 132. 90. 39. 34. 25. 131. 135.
      134. 137. 135. 131. 62. 36. 209. 28. 130. 133. 134. 134. 134. 133.
      31. 12. 132. 39. 133. 134. 134. 134. 135. 132. 39. 102. 132. 36.
      50. 132. 135. 135. 133. 103. 38. 121. 138. 129. 42. 114. 133. 135.
      138. 43. 133. 137. 134. 134. 143. 147. 33. 43. 108. 129. 134. 134.</_>
    <_>
      135. 134. 133. 166. 126. 131. 132. 134. 135. 136. 133. 134. 130.
      172. 119. 132. 135. 134. 132. 132. 134. 133. 140. 46. 113. 131.
      132. 136. 133. 135. 141. 179. 39. 35. 104. 194. 190. 184. 184.
      133. 140. 141. 132. 37. 101. 131. 133. 134. 131. 132. 133. 129.
      107. 37. 127. 129. 131. 132. 133. 134. 133. 130. 111. 36. 122.
      130. 134. 134. 136. 136. 133. 129. 126. 38. 109. 133. 135. 134.
      134. 136. 133. 129. 137. 38. 109. 130. 134. 135. 132. 135. 134.
      130. 139. 40. 208. 129. 132. 131. 132. 135. 134. 128. 136. 39.
      207. 128. 133. 133. 133. 132. 135. 132. 133. 41. 207. 128. 133.
      132. 133. 131. 135. 132. 140. 33. 31. 128. 129. 129. 169. 200.
      134. 134. 133. 126. 40. 38. 34. 30. 117. 131.</_>
    <_>
      132. 130. 145. 22. 135. 30. 170. 129. 132. 132. 130. 35. 131. 131.
      130. 126. 55. 102. 133. 132. 184. 36. 128. 133. 131. 125. 91. 19.
      128. 130. 220. 72. 124. 130. 134. 129. 112. 29. 126. 130. 130.
      126. 131. 129. 132. 128. 117. 31. 121. 131. 133. 134. 131. 128.
      129. 136. 186. 29. 123. 132. 131. 125. 128. 247. 19. 112. 141. 34.
      121. 132. 134. 134. 40. 108. 125. 130. 130. 32. 122. 135. 129. 42.
      103. 130. 130. 130. 133. 38. 119. 131. 244. 19. 129. 131. 131.
      131. 133. 38. 118. 131. 42. 25. 132. 132. 130. 130. 132. 35. 123.
      131. 39. 12. 123. 131. 131. 131. 82. 36. 122. 130. 155. 26. 92.
      140. 136. 56. 127. 38. 132. 132. 130. 155. 31. 31. 80. 125. 126.
      67. 21. 120.</_>
    <_>
      40. 166. 164. 41. 130. 130. 26. 28. 25. 122. 132. 117. 27. 120.
      129. 130. 130. 67. 124. 127. 131. 125. 44. 103. 130. 129. 131.
      124. 128. 129. 131. 127. 144. 30. 123. 126. 42. 126. 127. 128.
      132. 132. 125. 43. 81. 163. 116. 133. 126. 128. 129. 132. 126. 86.
      31. 95. 129. 128. 127. 128. 131. 129. 130. 124. 37. 128. 128. 127.
      129. 129. 131. 130. 129. 128. 232. 36. 114. 124. 128. 130. 130.
      132. 126. 147. 114. 102. 210. 127. 130. 126. 130. 128. 130. 113.
      130. 113. 34. 111. 127. 125. 132. 125. 170. 121. 129. 128. 82.
      160. 126. 125. 131. 120. 101. 129. 127. 129. 119. 38. 114. 128.
      131. 128. 115. 130. 132. 128. 126. 41. 42. 129. 37. 24. 28. 207.
      131. 126. 43. 160. 165. 160.</_>
    <_>
      40. 19. 16. 22. 126. 130. 129. 31. 32. 73. 123. 93. 32. 121. 128.
      128. 124. 135. 90. 130. 129. 124. 44. 115. 127. 127. 127. 111.
      118. 129. 127. 125. 152. 142. 132. 127. 122. 41. 128. 130. 129.
      127. 127. 32. 124. 130. 130. 89. 131. 134. 129. 128. 124. 43. 124.
      132. 227. 122. 126. 129. 128. 128. 125. 110. 32. 120. 51. 127.
      126. 128. 128. 127. 128. 127. 40. 120. 121. 131. 128. 124. 128.
      128. 130. 129. 152. 32. 120. 132. 129. 129. 126. 127. 131. 129.
      133. 25. 125. 132. 131. 129. 128. 129. 132. 132. 127. 153. 128.
      131. 130. 130. 126. 126. 121. 128. 116. 118. 128. 130. 132. 128.
      124. 45. 36. 123. 46. 129. 130. 130. 130. 128. 128. 193. 34. 24.
      118. 130. 131. 131. 130. 129.</_>
    <_>
      123. 140. 171. 31. 23. 29. 23. 22. 30. 195. 124. 42. 44. 126. 124.
      123. 120. 41. 34. 119. 121. 39. 113. 126. 126. 123. 90. 32. 98.
      124. 163. 115. 124. 130. 127. 124. 43. 21. 118. 126. 226. 126.
      127. 127. 122. 188. 32. 112. 129. 129. 123. 129. 127. 127. 121.
      41. 207. 126. 123. 126. 126. 127. 126. 124. 165. 26. 117. 130.
      128. 126. 125. 127. 130. 103. 31. 85. 121. 127. 128. 127. 128.
      124. 121. 42. 32. 119. 123. 127. 129. 124. 126. 121. 89. 32. 116.
      128. 126. 126. 125. 190. 126. 122. 46. 145. 122. 128. 126. 123.
      125. 129. 133. 88. 39. 114. 128. 126. 124. 120. 176. 108. 110. 37.
      77. 123. 122. 123. 125. 76. 34. 118. 46. 33. 106. 108. 107. 106.
      32. 27. 73. 121.</_>
    <_>
      125. 122. 128. 150. 28. 41. 157. 112. 123. 125. 124. 118. 45. 121.
      123. 124. 117. 42. 107. 125. 119. 42. 109. 124. 128. 124. 121. 93.
      26. 121. 116. 16. 121. 125. 124. 123. 123. 128. 42. 99. 39. 58.
      125. 125. 124. 123. 119. 118. 41. 220. 38. 68. 108. 102. 94. 83.
      75. 76. 40. 65. 39. 61. 115. 119. 116. 122. 128. 126. 131. 125.
      44. 189. 126. 125. 127. 122. 124. 125. 125. 126. 46. 178. 122.
      125. 124. 127. 127. 128. 126. 125. 79. 42. 116. 125. 125. 127.
      128. 123. 124. 124. 131. 37. 107. 124. 127. 128. 127. 127. 125.
      220. 119. 52. 102. 118. 126. 127. 123. 129. 118. 77. 124. 114. 39.
      157. 123. 121. 128. 101. 32. 118. 128. 126. 117. 151. 32. 30. 30.
      164. 118. 125.</_>
    <_>
      125. 122. 116. 27. 44. 39. 184. 104. 38. 36. 119. 175. 23. 119.
      121. 118. 55. 137. 109. 109. 113. 38. 125. 120. 124. 120. 115. 34.
      119. 124. 130. 31. 112. 121. 123. 123. 117. 37. 143. 120. 123. 40.
      98. 122. 124. 121. 119. 30. 95. 122. 125. 173. 35. 118. 121. 118.
      109. 25. 119. 124. 122. 117. 110. 34. 104. 70. 84. 108. 125. 123.
      122. 160. 103. 115. 121. 118. 121. 122. 121. 123. 118. 38. 26.
      196. 119. 122. 118. 120. 123. 122. 119. 118. 115. 38. 22. 31. 37.
      22. 98. 117. 121. 36. 114. 122. 120. 120. 116. 95. 35. 93. 40. 79.
      125. 121. 127. 124. 123. 119. 73. 14. 122. 43. 117. 127. 121. 122.
      122. 122. 41. 107. 120. 126. 35. 39. 66. 60. 39. 123. 119. 122.</_>
    <_>
      122. 126. 106. 210. 35. 93. 111. 124. 125. 125. 116. 113. 97. 126.
      36. 82. 102. 121. 122. 123. 123. 121. 122. 234. 40. 86. 121. 123.
      125. 125. 123. 120. 119. 107. 36. 22. 114. 119. 123. 121. 122.
      120. 118. 113. 36. 9. 109. 127. 131. 125. 122. 121. 120. 94. 31.
      21. 96. 120. 126. 124. 124. 124. 122. 119. 38. 27. 84. 119. 122.
      124. 123. 122. 118. 130. 40. 27. 86. 115. 121. 123. 122. 121. 122.
      120. 99. 30. 92. 115. 123. 122. 122. 119. 119. 118. 104. 29. 82.
      118. 126. 122. 122. 121. 119. 131. 102. 28. 229. 118. 123. 121.
      124. 123. 121. 129. 104. 36. 230. 112. 126. 123. 122. 121. 118.
      120. 200. 32. 229. 105. 121. 119. 122. 211. 132. 40. 32. 28. 32.
      43. 36. 53.</_></support_vectors>
  <decision_functions>
    <_>
      <sv_count>2</sv_count>
      <rho>0.</rho>
      <alpha>
        1. -1.</alpha>
      <index>
        0 1</index></_>
    <_>
      <sv_count>2</sv_count>
      <rho>0.</rho>
      <alpha>
        1. -1.</alpha>
      <index>
        0 2</index></_>
    <_>
      <sv_count>2</sv_count>
      <rho>0.</rho>
      <alpha>
        1. -1.</alpha>
      <index>
        0 3</index></_>
    <_>
      <sv_count>2</sv_count>
      <rho>0.</rho>
      <alpha>
        1. -1.</alpha>
      <index>
        0 4</index></_>
    <_>
      <sv_count>2</sv_count>
      <rho>0.</rho>
      <alpha>
        1. -1.</alpha>
      <index>
        0 5</index></_>
    <_>
      <sv_count>2</sv_count>
      <rho>0.</rho>
      <alpha>
        1. -1.</alpha>
      <index>
        0 6</index></_>
    <_>
      <sv_count>2</sv_count>
      <rho>0.</rho>
      <alpha>
        1. -1.</alpha>
      <index>
        0 7</index></_>
    <_>
      <sv_count>2</sv_count>
      <rho>0.</rho>
      <alpha>
        1. -1.</alpha>
      <index>
        0 8</index></_>
    <_>
      <sv_count>2</sv_count>
      <rho>0.</rho>
      <alpha>
        1. -1.</alpha>
      <index>
        0 9</index></_>
    <_>
      <sv_count>2</sv_count>
      <rho>0.</rho>
      <alpha>
        1. -1.</alpha>
      <index>
        0 10</index></_>
    <_>
      <sv_count>2</sv_count>
      <rho>0.</rho>
      <alpha>
        1. -1.</alpha>
      <index>
        0 11</index></_>
    <_>
      <sv_count>2</sv_count>
      <rho>0.</rho>
      <alpha>
        1. -1.</alpha>
      <index>
        0 12</index></_>
    <_>
      <sv_count>2</sv_count>
      <rho>0.</rho>
      <alpha>
        1. -1.</alpha>
      <index>
        0 13</index></_>
    <_>
      <sv_count>2</sv_count>
      <rho>0.</rho>
      <alpha>
        1. -1.</alpha>
      <index>
        0 14</index></_>
    <_>
      <sv_count>2</sv_count>
      <rho>0.</rho>
      <alpha>
        1. -1.</alpha>
      <index>
        0 15</index></_>
    <_>
      <sv_count>2</sv_count>
      <rho>0.</rho>
      <alpha>
        1. -1.</alpha>
      <index>
        0 16</index></_>
    <_>
      <sv_count>2</sv_count>
      <rho>0.</rho>
      <alpha>
        1. -1.</alpha>
      <index>
        0 17</index></_>
    <_>
      <sv_count>2</sv_count>
      <rho>0.</rho>
      <alpha>
        1. -1.</alpha>
      <index>
        0 18</index></_>
    <_>
      <sv_count>2</sv_count>
      <rho>0.</rho>
      <alpha>
        1. -1.</alpha>
      <index>
        0 19</index></_>
    <_>
      <sv_count>2</sv_count>
      <rho>0.</rho>
      <alpha>
        1. -1.</alpha>
      <index>
        0 20</index></_>
    <_>
      <sv_count>2</sv_count>
      <rho>0.</rho>
      <alpha>
        1. -1.</alpha>
      <index>
        0 21</index></_>
    <_>
      <sv_count>2</sv_count>
      <rho>0.</rho>
      <alpha>
        1. -1.</alpha>
      <index>
        0 22</index></_>
    <_>
      <sv_count>2</sv_count>
      <rho>0.</rho>
      <alpha>
        1. -1.</alpha>
      <index>
        0 23</index></_>
    <_>
      <sv_count>2</sv_count>
      <rho>0.</rho>
      <alpha>
        1. -1.</alpha>
      <index>
        0 24</index></_>
    <_>
      <sv_count>2</sv_count>
      <rho>0.</rho>
      <alpha>
        1. -1.</alpha>
      <index>
        0 25</index></_>
    <_>
      <sv_count>2</sv_count>
      <rho>0.</rho>
      <alpha>
        1. -1.</alpha>
      <index>
        0 26</index></_>
    <_>
      <sv_count>2</sv_count>
      <rho>0.</rho>
      <alpha>
        1. -1.</alpha>
      <index>
        0 27</index></_>
    <_>
      <sv_count>2</sv_count>
      <rho>0.</rho>
      <alpha>
        1. -1.</alpha>
      <index>
        0 28</index></_>
    <_>
      <sv_count>2</sv_count>
      <rho>0.</rho>
      <alpha>
        1. -1.</alpha>
      <index>
        0 29</index></_>
    <_>
      <sv_count>2</sv_count>
      <rho>0.</rho>
      <alpha>
        1. -1.</alpha>
      <index>
        0 30</index></_>
    <_>
      <sv_count>2</sv_count>
      <rho>0.</rho>
      <alpha>
        1. -1.</alpha>
      <index>
        0 31</index></_>
    <_>
      <sv_count>2</sv_count>
      <rho>0.</rho>
      <alpha>
        1. -1.</alpha>
      <index>
        1 2</index></_>
    <_>
      <sv_count>2</sv_count>
      <rho>0.</rho>
      <alpha>
        1. -1.</alpha>
      <index>
        1 3</index></_>
    <_>
      <sv_count>2</sv_count>
      <rho>0.</rho>
      <alpha>
        1. -1.</alpha>
      <index>
        1 4</index></_>
    <_>
      <sv_count>2</sv_count>
      <rho>0.</rho>
      <alpha>
        1. -1.</alpha>
      <index>
        1 5</index></_>
    <_>
      <sv_count>2</sv_count>
      <rho>0.</rho>
      <alpha>
        1. -1.</alpha>
      <index>
        1 6</index></_>
    <_>
      <sv_count>2</sv_count>
      <rho>0.</rho>
      <alpha>
        1. -1.</alpha>
      <index>
        1 7</index></_>
    <_>
      <sv_count>2</sv_count>
      <rho>0.</rho>
      <alpha>
        1. -1.</alpha>
      <index>
        1 8</index></_>
    <_>
      <sv_count>2</sv_count>
      <rho>0.</rho>
      <alpha>
        1. -1.</alpha>
      <index>
        1 9</index></_>
    <_>
      <sv_count>2</sv_count>
      <rho>0.</rho>
      <alpha>
        1. -1.</alpha>
      <index>
        1 10</index></_>
    <_>
      <sv_count>2</sv_count>
      <rho>0.</rho>
      <alpha>
        1. -1.</alpha>
      <index>
        1 11</index></_>
    <_>
      <sv_count>2</sv_count>
      <rho>0.</rho>
      <alpha>
        1. -1.</alpha>
      <index>
        1 12</index></_>
    <_>
      <sv_count>2</sv_count>
      <rho>0.</rho>
      <alpha>
        1. -1.</alpha>
      <index>
        1 13</index></_>
    <_>
      <sv_count>2</sv_count>
      <rho>0.</rho>
      <alpha>
        1. -1.</alpha>
      <index>
        1 14</index></_>
    <_>
      <sv_count>2</sv_count>
      <rho>0.</rho>
      <alpha>
        1. -1.</alpha>
      <index>
        1 15</index></_>
    <_>
      <sv_count>2</sv_count>
      <rho>0.</rho>
      <alpha>
        1. -1.</alpha>
      <index>
        1 16</index></_>
    <_>
      <sv_count>2</sv_count>
      <rho>0.</rho>
      <alpha>
        1. -1.</alpha>
      <index>
        1 17</index></_>
    <_>
      <sv_count>2</sv_count>
      <rho>0.</rho>
      <alpha>
        1. -1.</alpha>
      <index>
        1 18</index></_>
    <_>
      <sv_count>2</sv_count>
      <rho>0.</rho>
      <alpha>
        1. -1.</alpha>
      <index>
        1 19</index></_>
    <_>
      <sv_count>2</sv_count>
      <rho>0.</rho>
      <alpha>
        1. -1.</alpha>
      <index>
        1 20</index></_>
    <_>
      <sv_count>2</sv_count>
      <rho>0.</rho>
      <alpha>
        1. -1.</alpha>
      <index>
        1 21</index></_>
    <_>
      <sv_count>2</sv_count>
      <rho>0.</rho>
      <alpha>
        1. -1.</alpha>
      <index>
        1 22</index></_>
    <_>
      <sv_count>2</sv_count>
      <rho>0.</rho>
      <alpha>
        1. -1.</alpha>
      <index>
        1 23</index></_>
    <_>
      <sv_count>2</sv_count>
      <rho>0.</rho>
      <alpha>
        1. -1.</alpha>
      <index>
        1 24</index></_>
    <_>
      <sv_count>2</sv_count>
      <rho>0.</rho>
      <alpha>
        1. -1.</alpha>
      <index>
        1 25</index></_>
    <_>
      <sv_count>2</sv_count>
      <rho>0.</rho>
      <alpha>
        1. -1.</alpha>
      <index>
        1 26</index></_>
    <_>
      <sv_count>2</sv_count>
      <rho>0.</rho>
      <alpha>
        1. -1.</alpha>
      <index>
        1 27</index></_>
    <_>
      <sv_count>2</sv_count>
      <rho>0.</rho>
      <alpha>
        1. -1.</alpha>
      <index>
        1 28</index></_>
    <_>
      <sv_count>2</sv_count>
      <rho>0.</rho>
      <alpha>
        1. -1.</alpha>
      <index>
        1 29</index></_>
    <_>
      <sv_count>2</sv_count>
      <rho>0.</rho>
      <alpha>
        1. -1.</alpha>
      <index>
        1 30</index></_>
    <_>
      <sv_count>2</sv_count>
      <rho>0.</rho>
      <alpha>
        1. -1.</alpha>
      <index>
        1 31</index></_>
    <_>
      <sv_count>2</sv_count>
      <rho>0.</rho>
      <alpha>
        1. -1.</alpha>
      <index>
        2 3</index></_>
    <_>
      <sv_count>2</sv_count>
      <rho>0.</rho>
      <alpha>
        1. -1.</alpha>
      <index>
        2 4</index></_>
    <_>
      <sv_count>2</sv_count>
      <rho>0.</rho>
      <alpha>
        1. -1.</alpha>
      <index>
        2 5</index></_>
    <_>
      <sv_count>2</sv_count>
      <rho>0.</rho>
      <alpha>
        1. -1.</alpha>
      <index>
        2 6</index></_>
    <_>
      <sv_count>2</sv_count>
      <rho>0.</rho>
      <alpha>
        1. -1.</alpha>
      <index>
        2 7</index></_>
    <_>
      <sv_count>2</sv_count>
      <rho>0.</rho>
      <alpha>
        1. -1.</alpha>
      <index>
        2 8</index></_>
    <_>
      <sv_count>2</sv_count>
      <rho>0.</rho>
      <alpha>
        1. -1.</alpha>
      <index>
        2 9</index></_>
    <_>
      <sv_count>2</sv_count>
      <rho>0.</rho>
      <alpha>
        1. -1.</alpha>
      <index>
        2 10</index></_>
    <_>
      <sv_count>2</sv_count>
      <rho>0.</rho>
      <alpha>
        1. -1.</alpha>
      <index>
        2 11</index></_>
    <_>
      <sv_count>2</sv_count>
      <rho>0.</rho>
      <alpha>
        1. -1.</alpha>
      <index>
        2 12</index></_>
    <_>
      <sv_count>2</sv_count>
      <rho>0.</rho>
      <alpha>
        1. -1.</alpha>
      <index>
        2 13</index></_>
    <_>
      <sv_count>2</sv_count>
      <rho>0.</rho>
      <alpha>
        1. -1.</alpha>
      <index>
        2 14</index></_>
    <_>
      <sv_count>2</sv_count>
      <rho>0.</rho>
      <alpha>
        1. -1.</alpha>
      <index>
        2 15</index></_>
    <_>
      <sv_count>2</sv_count>
      <rho>0.</rho>
      <alpha>
        1. -1.</alpha>
      <index>
        2 16</index></_>
    <_>
      <sv_count>2</sv_count>
      <rho>0.</rho>
      <alpha>
        1. -1.</alpha>
      <index>
        2 17</index></_>
    <_>
      <sv_count>2</sv_count>
      <rho>0.</rho>
      <alpha>
        1. -1.</alpha>
      <index>
        2 18</index></_>
    <_>
      <sv_count>2</sv_count>
      <rho>0.</rho>
      <alpha>
        1. -1.</alpha>
      <index>
        2 19</index></_>
    <_>
      <sv_count>2</sv_count>
      <rho>0.</rho>
      <alpha>
        1. -1.</alpha>
      <index>
        2 20</index></_>
    <_>
      <sv_count>2</sv_count>
      <rho>0.</rho>
      <alpha>
        1. -1.</alpha>
      <index>
        2 21</index></_>
    <_>
      <sv_count>2</sv_count>
      <rho>0.</rho>
      <alpha>
        1. -1.</alpha>
      <index>
        2 22</index></_>
    <_>
      <sv_count>2</sv_count>
      <rho>0.</rho>
      <alpha>
        1. -1.</alpha>
      <index>
        2 23</index></_>
    <_>
      <sv_count>2</sv_count>
      <rho>0.</rho>
      <alpha>
        1. -1.</alpha>
      <index>
        2 24</index></_>
    <_>
      <sv_count>2</sv_count>
      <rho>0.</rho>
      <alpha>
        1. -1.</alpha>
      <index>
        2 25</index></_>
    <_>
      <sv_count>2</sv_count>
      <rho>0.</rho>
      <alpha>
        1. -1.</alpha>
      <index>
        2 26</index></_>
    <_>
      <sv_count>2</sv_count>
      <rho>0.</rho>
      <alpha>
        1. -1.</alpha>
      <index>
        2 27</index></_>
    <_>
      <sv_count>2</sv_count>
      <rho>0.</rho>
      <alpha>
        1. -1.</alpha>
      <index>
        2 28</index></_>
    <_>
      <sv_count>2</sv_count>
      <rho>0.</rho>
      <alpha>
        1. -1.</alpha>
      <index>
        2 29</index></_>
    <_>
      <sv_count>2</sv_count>
      <rho>0.</rho>
      <alpha>
        1. -1.</alpha>
      <index>
        2 30</index></_>
    <_>
      <sv_count>2</sv_count>
      <rho>0.</rho>
      <alpha>
        1. -1.</alpha>
      <index>
        2 31</index></_>
    <_>
      <sv_count>2</sv_count>
      <rho>0.</rho>
      <alpha>
        1. -1.</alpha>
      <index>
        3 4</index></_>
    <_>
      <sv_count>2</sv_count>
      <rho>0.</rho>
      <alpha>
        1. -1.</alpha>
      <index>
        3 5</index></_>
    <_>
      <sv_count>2</sv_count>
      <rho>0.</rho>
      <alpha>
        1. -1.</alpha>
      <index>
        3 6</index></_>
    <_>
      <sv_count>2</sv_count>
      <rho>0.</rho>
      <alpha>
        1. -1.</alpha>
      <index>
        3 7</index></_>
    <_>
      <sv_count>2</sv_count>
      <rho>0.</rho>
      <alpha>
        1. -1.</alpha>
      <index>
        3 8</index></_>
    <_>
      <sv_count>2</sv_count>
      <rho>0.</rho>
      <alpha>
        1. -1.</alpha>
      <index>
        3 9</index></_>
    <_>
      <sv_count>2</sv_count>
      <rho>0.</rho>
      <alpha>
        1. -1.</alpha>
      <index>
        3 10</index></_>
    <_>
      <sv_count>2</sv_count>
      <rho>0.</rho>
      <alpha>
        1. -1.</alpha>
      <index>
        3 11</index></_>
    <_>
      <sv_count>2</sv_count>
      <rho>0.</rho>
      <alpha>
        1. -1.</alpha>
      <index>
        3 12</index></_>
    <_>
      <sv_count>2</sv_count>
      <rho>0.</rho>
      <alpha>
        1. -1.</alpha>
      <index>
        3 13</index></_>
    <_>
      <sv_count>2</sv_count>
      <rho>0.</rho>
      <alpha>
        1. -1.</alpha>
      <index>
        3 14</index></_>
    <_>
      <sv_count>2</sv_count>
      <rho>0.</rho>
      <alpha>
        1. -1.</alpha>
      <index>
        3 15</index></_>
    <_>
      <sv_count>2</sv_count>
      <rho>0.</rho>
      <alpha>
        1. -1.</alpha>
      <index>
        3 16</index></_>
    <_>
      <sv_count>2</sv_count>
      <rho>0.</rho>
      <alpha>
        1. -1.</alpha>
      <index>
        3 17</index></_>
    <_>
      <sv_count>2</sv_count>
      <rho>0.</rho>
      <alpha>
        1. -1.</alpha>
      <index>
        3 18</index></_>
    <_>
      <sv_count>2</sv_count>
      <rho>0.</rho>
      <alpha>
        1. -1.</alpha>
      <index>
        3 19</index></_>
    <_>
      <sv_count>2</sv_count>
      <rho>0.</rho>
      <alpha>
        1. -1.</alpha>
      <index>
        3 20</index></_>
    <_>
      <sv_count>2</sv_count>
      <rho>0.</rho>
      <alpha>
        1. -1.</alpha>
      <index>
        3 21</index></_>
    <_>
      <sv_count>2</sv_count>
      <rho>0.</rho>
      <alpha>
        1. -1.</alpha>
      <index>
        3 22</index></_>
    <_>
      <sv_count>2</sv_count>
      <rho>0.</rho>
      <alpha>
        1. -1.</alpha>
      <index>
        3 23</index></_>
    <_>
      <sv_count>2</sv_count>
      <rho>0.</rho>
      <alpha>
        1. -1.</alpha>
      <index>
        3 24</index></_>
    <_>
      <sv_count>2</sv_count>
      <rho>0.</rho>
      <alpha>
        1. -1.</alpha>
      <index>
        3 25</index></_>
    <_>
      <sv_count>2</sv_count>
      <rho>0.</rho>
      <alpha>
        1. -1.</alpha>
      <index>
        3 26</index></_>
    <_>
      <sv_count>2</sv_count>
      <rho>0.</rho>
      <alpha>
        1. -1.</alpha>
      <index>
        3 27</index></_>
    <_>
      <sv_count>2</sv_count>
      <rho>0.</rho>
      <alpha>
        1. -1.</alpha>
      <index>
        3 28</index></_>
    <_>
      <sv_count>2</sv_count>
      <rho>0.</rho>
      <alpha>
        1. -1.</alpha>
      <index>
        3 29</index></_>
    <_>
      <sv_count>2</sv_count>
      <rho>0.</rho>
      <alpha>
        1. -1.</alpha>
      <index>
        3 30</index></_>
    <_>
      <sv_count>2</sv_count>
      <rho>0.</rho>
      <alpha>
        1. -1.</alpha>
      <index>
        3 31</index></_>
    <_>
      <sv_count>2</sv_count>
      <rho>0.</rho>
      <alpha>
        1. -1.</alpha>
      <index>
        4 5</index></_>
    <_>
      <sv_count>2</sv_count>
      <rho>0.</rho>
      <alpha>
        1. -1.</alpha>
      <index>
        4 6</index></_>
    <_>
      <sv_count>2</sv_count>
      <rho>0.</rho>
      <alpha>
        1. -1.</alpha>
      <index>
        4 7</index></_>
    <_>
      <sv_count>2</sv_count>
      <rho>0.</rho>
      <alpha>
        1. -1.</alpha>
      <index>
        4 8</index></_>
    <_>
      <sv_count>2</sv_count>
      <rho>0.</rho>
      <alpha>
        1. -1.</alpha>
      <index>
        4 9</index></_>
    <_>
      <sv_count>2</sv_count>
      <rho>0.</rho>
      <alpha>
        1. -1.</alpha>
      <index>
        4 10</index></_>
    <_>
      <sv_count>2</sv_count>
      <rho>0.</rho>
      <alpha>
        1. -1.</alpha>
      <index>
        4 11</index></_>
    <_>
      <sv_count>2</sv_count>
      <rho>0.</rho>
      <alpha>
        1. -1.</alpha>
      <index>
        4 12</index></_>
    <_>
      <sv_count>2</sv_count>
      <rho>0.</rho>
      <alpha>
        1. -1.</alpha>
      <index>
        4 13</index></_>
    <_>
      <sv_count>2</sv_count>
      <rho>0.</rho>
      <alpha>
        1. -1.</alpha>
      <index>
        4 14</index></_>
    <_>
      <sv_count>2</sv_count>
      <rho>0.</rho>
      <alpha>
        1. -1.</alpha>
      <index>
        4 15</index></_>
    <_>
      <sv_count>2</sv_count>
      <rho>0.</rho>
      <alpha>
        1. -1.</alpha>
      <index>
        4 16</index></_>
    <_>
      <sv_count>2</sv_count>
      <rho>0.</rho>
      <alpha>
        1. -1.</alpha>
      <index>
        4 17</index></_>
    <_>
      <sv_count>2</sv_count>
      <rho>0.</rho>
      <alpha>
        1. -1.</alpha>
      <index>
        4 18</index></_>
    <_>
      <sv_count>2</sv_count>
      <rho>0.</rho>
      <alpha>
        1. -1.</alpha>
      <index>
        4 19</index></_>
    <_>
      <sv_count>2</sv_count>
      <rho>0.</rho>
      <alpha>
        1. -1.</alpha>
      <index>
        4 20</index></_>
    <_>
      <sv_count>2</sv_count>
      <rho>0.</rho>
      <alpha>
        1. -1.</alpha>
      <index>
        4 21</index></_>
    <_>
      <sv_count>2</sv_count>
      <rho>0.</rho>
      <alpha>
        1. -1.</alpha>
      <index>
        4 22</index></_>
    <_>
      <sv_count>2</sv_count>
      <rho>0.</rho>
      <alpha>
        1. -1.</alpha>
      <index>
        4 23</index></_>
    <_>
      <sv_count>2</sv_count>
      <rho>0.</rho>
      <alpha>
        1. -1.</alpha>
      <index>
        4 24</index></_>
    <_>
      <sv_count>2</sv_count>
      <rho>0.</rho>
      <alpha>
        1. -1.</alpha>
      <index>
        4 25</index></_>
    <_>
      <sv_count>2</sv_count>
      <rho>0.</rho>
      <alpha>
        1. -1.</alpha>
      <index>
        4 26</index></_>
    <_>
      <sv_count>2</sv_count>
      <rho>0.</rho>
      <alpha>
        1. -1.</alpha>
      <index>
        4 27</index></_>
    <_>
      <sv_count>2</sv_count>
      <rho>0.</rho>
      <alpha>
        1. -1.</alpha>
      <index>
        4 28</index></_>
    <_>
      <sv_count>2</sv_count>
      <rho>0.</rho>
      <alpha>
        1. -1.</alpha>
      <index>
        4 29</index></_>
    <_>
      <sv_count>2</sv_count>
      <rho>0.</rho>
      <alpha>
        1. -1.</alpha>
      <index>
        4 30</index></_>
    <_>
      <sv_count>2</sv_count>
      <rho>0.</rho>
      <alpha>
        1. -1.</alpha>
      <index>
        4 31</index></_>
    <_>
      <sv_count>2</sv_count>
      <rho>0.</rho>
      <alpha>
        1. -1.</alpha>
      <index>
        5 6</index></_>
    <_>
      <sv_count>2</sv_count>
      <rho>0.</rho>
      <alpha>
        1. -1.</alpha>
      <index>
        5 7</index></_>
    <_>
      <sv_count>2</sv_count>
      <rho>0.</rho>
      <alpha>
        1. -1.</alpha>
      <index>
        5 8</index></_>
    <_>
      <sv_count>2</sv_count>
      <rho>0.</rho>
      <alpha>
        1. -1.</alpha>
      <index>
        5 9</index></_>
    <_>
      <sv_count>2</sv_count>
      <rho>0.</rho>
      <alpha>
        1. -1.</alpha>
      <index>
        5 10</index></_>
    <_>
      <sv_count>2</sv_count>
      <rho>0.</rho>
      <alpha>
        1. -1.</alpha>
      <index>
        5 11</index></_>
    <_>
      <sv_count>2</sv_count>
      <rho>0.</rho>
      <alpha>
        1. -1.</alpha>
      <index>
        5 12</index></_>
    <_>
      <sv_count>2</sv_count>
      <rho>0.</rho>
      <alpha>
        1. -1.</alpha>
      <index>
        5 13</index></_>
    <_>
      <sv_count>2</sv_count>
      <rho>0.</rho>
      <alpha>
        1. -1.</alpha>
      <index>
        5 14</index></_>
    <_>
      <sv_count>2</sv_count>
      <rho>0.</rho>
      <alpha>
        1. -1.</alpha>
      <index>
        5 15</index></_>
    <_>
      <sv_count>2</sv_count>
      <rho>0.</rho>
      <alpha>
        1. -1.</alpha>
      <index>
        5 16</index></_>
    <_>
      <sv_count>2</sv_count>
      <rho>0.</rho>
      <alpha>
        1. -1.</alpha>
      <index>
        5 17</index></_>
    <_>
      <sv_count>2</sv_count>
      <rho>0.</rho>
      <alpha>
        1. -1.</alpha>
      <index>
        5 18</index></_>
    <_>
      <sv_count>2</sv_count>
      <rho>0.</rho>
      <alpha>
        1. -1.</alpha>
      <index>
        5 19</index></_>
    <_>
      <sv_count>2</sv_count>
      <rho>0.</rho>
      <alpha>
        1. -1.</alpha>
      <index>
        5 20</index></_>
    <_>
      <sv_count>2</sv_count>
      <rho>0.</rho>
      <alpha>
        1. -1.</alpha>
      <index>
        5 21</index></_>
    <_>
      <sv_count>2</sv_count>
      <rho>0.</rho>
      <alpha>
        1. -1.</alpha>
      <index>
        5 22</index></_>
    <_>
      <sv_count>2</sv_count>
      <rho>0.</rho>
      <alpha>
        1. -1.</alpha>
      <index>
        5 23</index></_>
    <_>
      <sv_count>2</sv_count>
      <rho>0.</rho>
      <alpha>
        1. -1.</alpha>
      <index>
        5 24</index></_>
    <_>
      <sv_count>2</sv_count>
      <rho>0.</rho>
      <alpha>
        1. -1.</alpha>
      <index>
        5 25</index></_>
    <_>
      <sv_count>2</sv_count>
      <rho>0.</rho>
      <alpha>
        1. -1.</alpha>
      <index>
        5 26</index></_>
    <_>
      <sv_count>2</sv_count>
      <rho>0.</rho>
      <alpha>
        1. -1.</alpha>
      <index>
        5 27</index></_>
    <_>
      <sv_count>2</sv_count>
      <rho>0.</rho>
      <alpha>
        1. -1.</alpha>
      <index>
        5 28</index></_>
    <_>
      <sv_count>2</sv_count>
      <rho>0.</rho>
      <alpha>
        1. -1.</alpha>
      <index>
        5 29</index></_>
    <_>
      <sv_count>2</sv_count>
      <rho>0.</rho>
      <alpha>
        1. -1.</alpha>
      <index>
        5 30</index></_>
    <_>
      <sv_count>2</sv_count>
      <rho>0.</rho>
      <alpha>
        1. -1.</alpha>
      <index>
        5 31</index></_>
    <_>
      <sv_count>2</sv_count>
      <rho>0.</rho>
      <alpha>
        1. -1.</alpha>
      <index>
        6 7</index></_>
    <_>
      <sv_count>2</sv_count>
      <rho>0.</rho>
      <alpha>
        1. -1.</alpha>
      <index>
        6 8</index></_>
    <_>
      <sv_count>2</sv_count>
      <rho>0.</rho>
      <alpha>
        1. -1.</alpha>
      <index>
        6 9</index></_>
    <_>
      <sv_count>2</sv_count>
      <rho>0.</rho>
      <alpha>
        1. -1.</alpha>
      <index>
        6 10</index></_>
    <_>
      <sv_count>2</sv_count>
      <rho>0.</rho>
      <alpha>
        1. -1.</alpha>
      <index>
        6 11</index></_>
    <_>
      <sv_count>2</sv_count>
      <rho>0.</rho>
      <alpha>
        1. -1.</alpha>
      <index>
        6 12</index></_>
    <_>
      <sv_count>2</sv_count>
      <rho>0.</rho>
      <alpha>
        1. -1.</alpha>
      <index>
        6 13</index></_>
    <_>
      <sv_count>2</sv_count>
      <rho>0.</rho>
      <alpha>
        1. -1.</alpha>
      <index>
        6 14</index></_>
    <_>
      <sv_count>2</sv_count>
      <rho>0.</rho>
      <alpha>
        1. -1.</alpha>
      <index>
        6 15</index></_>
    <_>
      <sv_count>2</sv_count>
      <rho>0.</rho>
      <alpha>
        1. -1.</alpha>
      <index>
        6 16</index></_>
    <_>
      <sv_count>2</sv_count>
      <rho>0.</rho>
      <alpha>
        1. -1.</alpha>
      <index>
        6 17</index></_>
    <_>
      <sv_count>2</sv_count>
      <rho>0.</rho>
      <alpha>
        1. -1.</alpha>
      <index>
        6 18</index></_>
    <_>
      <sv_count>2</sv_count>
      <rho>0.</rho>
      <alpha>
        1. -1.</alpha>
      <index>
        6 19</index></_>
    <_>
      <sv_count>2</sv_count>
      <rho>0.</rho>
      <alpha>
        1. -1.</alpha>
      <index>
        6 20</index></_>
    <_>
      <sv_count>2</sv_count>
      <rho>0.</rho>
      <alpha>
        1. -1.</alpha>
      <index>
        6 21</index></_>
    <_>
      <sv_count>2</sv_count>
      <rho>0.</rho>
      <alpha>
        1. -1.</alpha>
      <index>
        6 22</index></_>
    <_>
      <sv_count>2</sv_count>
      <rho>0.</rho>
      <alpha>
        1. -1.</alpha>
      <index>
        6 23</index></_>
    <_>
      <sv_count>2</sv_count>
      <rho>0.</rho>
      <alpha>
        1. -1.</alpha>
      <index>
        6 24</index></_>
    <_>
      <sv_count>2</sv_count>
      <rho>0.</rho>
      <alpha>
        1. -1.</alpha>
      <index>
        6 25</index></_>
    <_>
      <sv_count>2</sv_count>
      <rho>0.</rho>
      <alpha>
        1. -1.</alpha>
      <index>
        6 26</index></_>
    <_>
      <sv_count>2</sv_count>
      <rho>0.</rho>
      <alpha>
        1. -1.</alpha>
      <index>
        6 27</index></_>
    <_>
      <sv_count>2</sv_count>
      <rho>0.</rho>
      <alpha>
        1. -1.</alpha>
      <index>
        6 28</index></_>
    <_>
      <sv_count>2</sv_count>
      <rho>0.</rho>
      <alpha>
        1. -1.</alpha>
      <index>
        6 29</index></_>
    <_>
      <sv_count>2</sv_count>
      <rho>0.</rho>
      <alpha>
        1. -1.</alpha>
      <index>
        6 30</index></_>
    <_>
      <sv_count>2</sv_count>
      <rho>0.</rho>
      <alpha>
        1. -1.</alpha>
      <index>
        6 31</index></_>
    <_>
      <sv_count>2</sv_count>
      <rho>0.</rho>
      <alpha>
        1. -1.</alpha>
      <index>
        7 8</index></_>
    <_>
      <sv_count>2</sv_count>
      <rho>0.</rho>
      <alpha>
        1. -1.</alpha>
      <index>
        7 9</index></_>
    <_>
      <sv_count>2</sv_count>
      <rho>0.</rho>
      <alpha>
        1. -1.</alpha>
      <index>
        7 10</index></_>
    <_>
      <sv_count>2</sv_count>
      <rho>0.</rho>
      <alpha>
        1. -1.</alpha>
      <index>
        7 11</index></_>
    <_>
      <sv_count>2</sv_count>
      <rho>0.</rho>
      <alpha>
        1. -1.</alpha>
      <index>
        7 12</index></_>
    <_>
      <sv_count>2</sv_count>
      <rho>0.</rho>
      <alpha>
        1. -1.</alpha>
      <index>
        7 13</index></_>
    <_>
      <sv_count>2</sv_count>
      <rho>0.</rho>
      <alpha>
        1. -1.</alpha>
      <index>
        7 14</index></_>
    <_>
      <sv_count>2</sv_count>
      <rho>0.</rho>
      <alpha>
        1. -1.</alpha>
      <index>
        7 15</index></_>
    <_>
      <sv_count>2</sv_count>
      <rho>0.</rho>
      <alpha>
        1. -1.</alpha>
      <index>
        7 16</index></_>
    <_>
      <sv_count>2</sv_count>
      <rho>0.</rho>
      <alpha>
        1. -1.</alpha>
      <index>
        7 17</index></_>
    <_>
      <sv_count>2</sv_count>
      <rho>0.</rho>
      <alpha>
        1. -1.</alpha>
      <index>
        7 18</index></_>
    <_>
      <sv_count>2</sv_count>
      <rho>0.</rho>
      <alpha>
        1. -1.</alpha>
      <index>
        7 19</index></_>
    <_>
      <sv_count>2</sv_count>
      <rho>0.</rho>
      <alpha>
        1. -1.</alpha>
      <index>
        7 20</index></_>
    <_>
      <sv_count>2</sv_count>
      <rho>0.</rho>
      <alpha>
        1. -1.</alpha>
      <index>
        7 21</index></_>
    <_>
      <sv_count>2</sv_count>
      <rho>0.</rho>
      <alpha>
        1. -1.</alpha>
      <index>
        7 22</index></_>
    <_>
      <sv_count>2</sv_count>
      <rho>0.</rho>
      <alpha>
        1. -1.</alpha>
      <index>
        7 23</index></_>
    <_>
      <sv_count>2</sv_count>
      <rho>0.</rho>
      <alpha>
        1. -1.</alpha>
      <index>
        7 24</index></_>
    <_>
      <sv_count>2</sv_count>
      <rho>0.</rho>
      <alpha>
        1. -1.</alpha>
      <index>
        7 25</index></_>
    <_>
      <sv_count>2</sv_count>
      <rho>0.</rho>
      <alpha>
        1. -1.</alpha>
      <index>
        7 26</index></_>
    <_>
      <sv_count>2</sv_count>
      <rho>0.</rho>
      <alpha>
        1. -1.</alpha>
      <index>
        7 27</index></_>
    <_>
      <sv_count>2</sv_count>
      <rho>0.</rho>
      <alpha>
        1. -1.</alpha>
      <index>
        7 28</index></_>
    <_>
      <sv_count>2</sv_count>
      <rho>0.</rho>
      <alpha>
        1. -1.</alpha>
      <index>
        7 29</index></_>
    <_>
      <sv_count>2</sv_count>
      <rho>0.</rho>
      <alpha>
        1. -1.</alpha>
      <index>
        7 30</index></_>
    <_>
      <sv_count>2</sv_count>
      <rho>0.</rho>
      <alpha>
        1. -1.</alpha>
      <index>
        7 31</index></_>
    <_>
      <sv_count>2</sv_count>
      <rho>0.</rho>
      <alpha>
        1. -1.</alpha>
      <index>
        8 9</index></_>
    <_>
      <sv_count>2</sv_count>
      <rho>0.</rho>
      <alpha>
        1. -1.</alpha>
      <index>
        8 10</index></_>
    <_>
      <sv_count>2</sv_count>
      <rho>0.</rho>
      <alpha>
        1. -1.</alpha>
      <index>
        8 11</index></_>
    <_>
      <sv_count>2</sv_count>
      <rho>0.</rho>
      <alpha>
        1. -1.</alpha>
      <index>
        8 12</index></_>
    <_>
      <sv_count>2</sv_count>
      <rho>0.</rho>
      <alpha>
        1. -1.</alpha>
      <index>
        8 13</index></_>
    <_>
      <sv_count>2</sv_count>
      <rho>0.</rho>
      <alpha>
        1. -1.</alpha>
      <index>
        8 14</index></_>
    <_>
      <sv_count>2</sv_count>
      <rho>0.</rho>
      <alpha>
        1. -1.</alpha>
      <index>
        8 15</index></_>
    <_>
      <sv_count>2</sv_count>
      <rho>0.</rho>
      <alpha>
        1. -1.</alpha>
      <index>
        8 16</index></_>
    <_>
      <sv_count>2</sv_count>
      <rho>0.</rho>
      <alpha>
        1. -1.</alpha>
      <index>
        8 17</index></_>
    <_>
      <sv_count>2</sv_count>
      <rho>0.</rho>
      <alpha>
        1. -1.</alpha>
      <index>
        8 18</index></_>
    <_>
      <sv_count>2</sv_count>
      <rho>0.</rho>
      <alpha>
        1. -1.</alpha>
      <index>
        8 19</index></_>
    <_>
      <sv_count>2</sv_count>
      <rho>0.</rho>
      <alpha>
        1. -1.</alpha>
      <index>
        8 20</index></_>
    <_>
      <sv_count>2</sv_count>
      <rho>0.</rho>
      <alpha>
        1. -1.</alpha>
      <index>
        8 21</index></_>
    <_>
      <sv_count>2</sv_count>
      <rho>0.</rho>
      <alpha>
        1. -1.</alpha>
      <index>
        8 22</index></_>
    <_>
      <sv_count>2</sv_count>
      <rho>0.</rho>
      <alpha>
        1. -1.</alpha>
      <index>
        8 23</index></_>
    <_>
      <sv_count>2</sv_count>
      <rho>0.</rho>
      <alpha>
        1. -1.</alpha>
      <index>
        8 24</index></_>
    <_>
      <sv_count>2</sv_count>
      <rho>0.</rho>
      <alpha>
        1. -1.</alpha>
      <index>
        8 25</index></_>
    <_>
      <sv_count>2</sv_count>
      <rho>0.</rho>
      <alpha>
        1. -1.</alpha>
      <index>
        8 26</index></_>
    <_>
      <sv_count>2</sv_count>
      <rho>0.</rho>
      <alpha>
        1. -1.</alpha>
      <index>
        8 27</index></_>
    <_>
      <sv_count>2</sv_count>
      <rho>0.</rho>
      <alpha>
        1. -1.</alpha>
      <index>
        8 28</index></_>
    <_>
      <sv_count>2</sv_count>
      <rho>0.</rho>
      <alpha>
        1. -1.</alpha>
      <index>
        8 29</index></_>
    <_>
      <sv_count>2</sv_count>
      <rho>0.</rho>
      <alpha>
        1. -1.</alpha>
      <index>
        8 30</index></_>
    <_>
      <sv_count>2</sv_count>
      <rho>0.</rho>
      <alpha>
        1. -1.</alpha>
      <index>
        8 31</index></_>
    <_>
      <sv_count>2</sv_count>
      <rho>0.</rho>
      <alpha>
        1. -1.</alpha>
      <index>
        9 10</index></_>
    <_>
      <sv_count>2</sv_count>
      <rho>0.</rho>
      <alpha>
        1. -1.</alpha>
      <index>
        9 11</index></_>
    <_>
      <sv_count>2</sv_count>
      <rho>0.</rho>
      <alpha>
        1. -1.</alpha>
      <index>
        9 12</index></_>
    <_>
      <sv_count>2</sv_count>
      <rho>0.</rho>
      <alpha>
        1. -1.</alpha>
      <index>
        9 13</index></_>
    <_>
      <sv_count>2</sv_count>
      <rho>0.</rho>
      <alpha>
        1. -1.</alpha>
      <index>
        9 14</index></_>
    <_>
      <sv_count>2</sv_count>
      <rho>0.</rho>
      <alpha>
        1. -1.</alpha>
      <index>
        9 15</index></_>
    <_>
      <sv_count>2</sv_count>
      <rho>0.</rho>
      <alpha>
        1. -1.</alpha>
      <index>
        9 16</index></_>
    <_>
      <sv_count>2</sv_count>
      <rho>0.</rho>
      <alpha>
        1. -1.</alpha>
      <index>
        9 17</index></_>
    <_>
      <sv_count>2</sv_count>
      <rho>0.</rho>
      <alpha>
        1. -1.</alpha>
      <index>
        9 18</index></_>
    <_>
      <sv_count>2</sv_count>
      <rho>0.</rho>
      <alpha>
        1. -1.</alpha>
      <index>
        9 19</index></_>
    <_>
      <sv_count>2</sv_count>
      <rho>0.</rho>
      <alpha>
        1. -1.</alpha>
      <index>
        9 20</index></_>
    <_>
      <sv_count>2</sv_count>
      <rho>0.</rho>
      <alpha>
        1. -1.</alpha>
      <index>
        9 21</index></_>
    <_>
      <sv_count>2</sv_count>
      <rho>0.</rho>
      <alpha>
        1. -1.</alpha>
      <index>
        9 22</index></_>
    <_>
      <sv_count>2</sv_count>
      <rho>0.</rho>
      <alpha>
        1. -1.</alpha>
      <index>
        9 23</index></_>
    <_>
      <sv_count>2</sv_count>
      <rho>0.</rho>
      <alpha>
        1. -1.</alpha>
      <index>
        9 24</index></_>
    <_>
      <sv_count>2</sv_count>
      <rho>0.</rho>
      <alpha>
        1. -1.</alpha>
      <index>
        9 25</index></_>
    <_>
      <sv_count>2</sv_count>
      <rho>0.</rho>
      <alpha>
        1. -1.</alpha>
      <index>
        9 26</index></_>
    <_>
      <sv_count>2</sv_count>
      <rho>0.</rho>
      <alpha>
        1. -1.</alpha>
      <index>
        9 27</index></_>
    <_>
      <sv_count>2</sv_count>
      <rho>0.</rho>
      <alpha>
        1. -1.</alpha>
      <index>
        9 28</index></_>
    <_>
      <sv_count>2</sv_count>
      <rho>0.</rho>
      <alpha>
        1. -1.</alpha>
      <index>
        9 29</index></_>
    <_>
      <sv_count>2</sv_count>
      <rho>0.</rho>
      <alpha>
        1. -1.</alpha>
      <index>
        9 30</index></_>
    <_>
      <sv_count>2</sv_count>
      <rho>0.</rho>
      <alpha>
        1. -1.</alpha>
      <index>
        9 31</index></_>
    <_>
      <sv_count>2</sv_count>
      <rho>0.</rho>
      <alpha>
        1. -1.</alpha>
      <index>
        10 11</index></_>
    <_>
      <sv_count>2</sv_count>
      <rho>0.</rho>
      <alpha>
        1. -1.</alpha>
      <index>
        10 12</index></_>
    <_>
      <sv_count>2</sv_count>
      <rho>0.</rho>
      <alpha>
        1. -1.</alpha>
      <index>
        10 13</index></_>
    <_>
      <sv_count>2</sv_count>
      <rho>0.</rho>
      <alpha>
        1. -1.</alpha>
      <index>
        10 14</index></_>
    <_>
      <sv_count>2</sv_count>
      <rho>0.</rho>
      <alpha>
        1. -1.</alpha>
      <index>
        10 15</index></_>
    <_>
      <sv_count>2</sv_count>
      <rho>0.</rho>
      <alpha>
        1. -1.</alpha>
      <index>
        10 16</index></_>
    <_>
      <sv_count>2</sv_count>
      <rho>0.</rho>
      <alpha>
        1. -1.</alpha>
      <index>
        10 17</index></_>
    <_>
      <sv_count>2</sv_count>
      <rho>0.</rho>
      <alpha>
        1. -1.</alpha>
      <index>
        10 18</index></_>
    <_>
      <sv_count>2</sv_count>
      <rho>0.</rho>
      <alpha>
        1. -1.</alpha>
      <index>
        10 19</index></_>
    <_>
      <sv_count>2</sv_count>
      <rho>0.</rho>
      <alpha>
        1. -1.</alpha>
      <index>
        10 20</index></_>
    <_>
      <sv_count>2</sv_count>
      <rho>0.</rho>
      <alpha>
        1. -1.</alpha>
      <index>
        10 21</index></_>
    <_>
      <sv_count>2</sv_count>
      <rho>0.</rho>
      <alpha>
        1. -1.</alpha>
      <index>
        10 22</index></_>
    <_>
      <sv_count>2</sv_count>
      <rho>0.</rho>
      <alpha>
        1. -1.</alpha>
      <index>
        10 23</index></_>
    <_>
      <sv_count>2</sv_count>
      <rho>0.</rho>
      <alpha>
        1. -1.</alpha>
      <index>
        10 24</index></_>
    <_>
      <sv_count>2</sv_count>
      <rho>0.</rho>
      <alpha>
        1. -1.</alpha>
      <index>
        10 25</index></_>
    <_>
      <sv_count>2</sv_count>
      <rho>0.</rho>
      <alpha>
        1. -1.</alpha>
      <index>
        10 26</index></_>
    <_>
      <sv_count>2</sv_count>
      <rho>0.</rho>
      <alpha>
        1. -1.</alpha>
      <index>
        10 27</index></_>
    <_>
      <sv_count>2</sv_count>
      <rho>0.</rho>
      <alpha>
        1. -1.</alpha>
      <index>
        10 28</index></_>
    <_>
      <sv_count>2</sv_count>
      <rho>0.</rho>
      <alpha>
        1. -1.</alpha>
      <index>
        10 29</index></_>
    <_>
      <sv_count>2</sv_count>
      <rho>0.</rho>
      <alpha>
        1. -1.</alpha>
      <index>
        10 30</index></_>
    <_>
      <sv_count>2</sv_count>
      <rho>0.</rho>
      <alpha>
        1. -1.</alpha>
      <index>
        10 31</index></_>
    <_>
      <sv_count>2</sv_count>
      <rho>0.</rho>
      <alpha>
        1. -1.</alpha>
      <index>
        11 12</index></_>
    <_>
      <sv_count>2</sv_count>
      <rho>0.</rho>
      <alpha>
        1. -1.</alpha>
      <index>
        11 13</index></_>
    <_>
      <sv_count>2</sv_count>
      <rho>0.</rho>
      <alpha>
        1. -1.</alpha>
      <index>
        11 14</index></_>
    <_>
      <sv_count>2</sv_count>
      <rho>0.</rho>
      <alpha>
        1. -1.</alpha>
      <index>
        11 15</index></_>
    <_>
      <sv_count>2</sv_count>
      <rho>0.</rho>
      <alpha>
        1. -1.</alpha>
      <index>
        11 16</index></_>
    <_>
      <sv_count>2</sv_count>
      <rho>0.</rho>
      <alpha>
        1. -1.</alpha>
      <index>
        11 17</index></_>
    <_>
      <sv_count>2</sv_count>
      <rho>0.</rho>
      <alpha>
        1. -1.</alpha>
      <index>
        11 18</index></_>
    <_>
      <sv_count>2</sv_count>
      <rho>0.</rho>
      <alpha>
        1. -1.</alpha>
      <index>
        11 19</index></_>
    <_>
      <sv_count>2</sv_count>
      <rho>0.</rho>
      <alpha>
        1. -1.</alpha>
      <index>
        11 20</index></_>
    <_>
      <sv_count>2</sv_count>
      <rho>0.</rho>
      <alpha>
        1. -1.</alpha>
      <index>
        11 21</index></_>
    <_>
      <sv_count>2</sv_count>
      <rho>0.</rho>
      <alpha>
        1. -1.</alpha>
      <index>
        11 22</index></_>
    <_>
      <sv_count>2</sv_count>
      <rho>0.</rho>
      <alpha>
        1. -1.</alpha>
      <index>
        11 23</index></_>
    <_>
      <sv_count>2</sv_count>
      <rho>0.</rho>
      <alpha>
        1. -1.</alpha>
      <index>
        11 24</index></_>
    <_>
      <sv_count>2</sv_count>
      <rho>0.</rho>
      <alpha>
        1. -1.</alpha>
      <index>
        11 25</index></_>
    <_>
      <sv_count>2</sv_count>
      <rho>0.</rho>
      <alpha>
        1. -1.</alpha>
      <index>
        11 26</index></_>
    <_>
      <sv_count>2</sv_count>
      <rho>0.</rho>
      <alpha>
        1. -1.</alpha>
      <index>
        11 27</index></_>
    <_>
      <sv_count>2</sv_count>
      <rho>0.</rho>
      <alpha>
        1. -1.</alpha>
      <index>
        11 28</index></_>
    <_>
      <sv_count>2</sv_count>
      <rho>0.</rho>
      <alpha>
        1. -1.</alpha>
      <index>
        11 29</index></_>
    <_>
      <sv_count>2</sv_count>
      <rho>0.</rho>
      <alpha>
        1. -1.</alpha>
      <index>
        11 30</index></_>
    <_>
      <sv_count>2</sv_count>
      <rho>0.</rho>
      <alpha>
        1. -1.</alpha>
      <index>
        11 31</index></_>
    <_>
      <sv_count>2</sv_count>
      <rho>0.</rho>
      <alpha>
        1. -1.</alpha>
      <index>
        12 13</index></_>
    <_>
      <sv_count>2</sv_count>
      <rho>0.</rho>
      <alpha>
        1. -1.</alpha>
      <index>
        12 14</index></_>
    <_>
      <sv_count>2</sv_count>
      <rho>0.</rho>
      <alpha>
        1. -1.</alpha>
      <index>
        12 15</index></_>
    <_>
      <sv_count>2</sv_count>
      <rho>0.</rho>
      <alpha>
        1. -1.</alpha>
      <index>
        12 16</index></_>
    <_>
      <sv_count>2</sv_count>
      <rho>0.</rho>
      <alpha>
        1. -1.</alpha>
      <index>
        12 17</index></_>
    <_>
      <sv_count>2</sv_count>
      <rho>0.</rho>
      <alpha>
        1. -1.</alpha>
      <index>
        12 18</index></_>
    <_>
      <sv_count>2</sv_count>
      <rho>0.</rho>
      <alpha>
        1. -1.</alpha>
      <index>
        12 19</index></_>
    <_>
      <sv_count>2</sv_count>
      <rho>0.</rho>
      <alpha>
        1. -1.</alpha>
      <index>
        12 20</index></_>
    <_>
      <sv_count>2</sv_count>
      <rho>0.</rho>
      <alpha>
        1. -1.</alpha>
      <index>
        12 21</index></_>
    <_>
      <sv_count>2</sv_count>
      <rho>0.</rho>
      <alpha>
        1. -1.</alpha>
      <index>
        12 22</index></_>
    <_>
      <sv_count>2</sv_count>
      <rho>0.</rho>
      <alpha>
        1. -1.</alpha>
      <index>
        12 23</index></_>
    <_>
      <sv_count>2</sv_count>
      <rho>0.</rho>
      <alpha>
        1. -1.</alpha>
      <index>
        12 24</index></_>
    <_>
      <sv_count>2</sv_count>
      <rho>0.</rho>
      <alpha>
        1. -1.</alpha>
      <index>
        12 25</index></_>
    <_>
      <sv_count>2</sv_count>
      <rho>0.</rho>
      <alpha>
        1. -1.</alpha>
      <index>
        12 26</index></_>
    <_>
      <sv_count>2</sv_count>
      <rho>0.</rho>
      <alpha>
        1. -1.</alpha>
      <index>
        12 27</index></_>
    <_>
      <sv_count>2</sv_count>
      <rho>0.</rho>
      <alpha>
        1. -1.</alpha>
      <index>
        12 28</index></_>
    <_>
      <sv_count>2</sv_count>
      <rho>0.</rho>
      <alpha>
        1. -1.</alpha>
      <index>
        12 29</index></_>
    <_>
      <sv_count>2</sv_count>
      <rho>0.</rho>
      <alpha>
        1. -1.</alpha>
      <index>
        12 30</index></_>
    <_>
      <sv_count>2</sv_count>
      <rho>0.</rho>
      <alpha>
        1. -1.</alpha>
      <index>
        12 31</index></_>
    <_>
      <sv_count>2</sv_count>
      <rho>0.</rho>
      <alpha>
        1. -1.</alpha>
      <index>
        13 14</index></_>
    <_>
      <sv_count>2</sv_count>
      <rho>0.</rho>
      <alpha>
        1. -1.</alpha>
      <index>
        13 15</index></_>
    <_>
      <sv_count>2</sv_count>
      <rho>0.</rho>
      <alpha>
        1. -1.</alpha>
      <index>
        13 16</index></_>
    <_>
      <sv_count>2</sv_count>
      <rho>0.</rho>
      <alpha>
        1. -1.</alpha>
      <index>
        13 17</index></_>
    <_>
      <sv_count>2</sv_count>
      <rho>0.</rho>
      <alpha>
        1. -1.</alpha>
      <index>
        13 18</index></_>
    <_>
      <sv_count>2</sv_count>
      <rho>0.</rho>
      <alpha>
        1. -1.</alpha>
      <index>
        13 19</index></_>
    <_>
      <sv_count>2</sv_count>
      <rho>0.</rho>
      <alpha>
        1. -1.</alpha>
      <index>
        13 20</index></_>
    <_>
      <sv_count>2</sv_count>
      <rho>0.</rho>
      <alpha>
        1. -1.</alpha>
      <index>
        13 21</index></_>
    <_>
      <sv_count>2</sv_count>
      <rho>0.</rho>
      <alpha>
        1. -1.</alpha>
      <index>
        13 22</index></_>
    <_>
      <sv_count>2</sv_count>
      <rho>0.</rho>
      <alpha>
        1. -1.</alpha>
      <index>
        13 23</index></_>
    <_>
      <sv_count>2</sv_count>
      <rho>0.</rho>
      <alpha>
        1. -1.</alpha>
      <index>
        13 24</index></_>
    <_>
      <sv_count>2</sv_count>
      <rho>0.</rho>
      <alpha>
        1. -1.</alpha>
      <index>
        13 25</index></_>
    <_>
      <sv_count>2</sv_count>
      <rho>0.</rho>
      <alpha>
        1. -1.</alpha>
      <index>
        13 26</index></_>
    <_>
      <sv_count>2</sv_count>
      <rho>0.</rho>
      <alpha>
        1. -1.</alpha>
      <index>
        13 27</index></_>
    <_>
      <sv_count>2</sv_count>
      <rho>0.</rho>
      <alpha>
        1. -1.</alpha>
      <index>
        13 28</index></_>
    <_>
      <sv_count>2</sv_count>
      <rho>0.</rho>
      <alpha>
        1. -1.</alpha>
      <index>
        13 29</index></_>
    <_>
      <sv_count>2</sv_count>
      <rho>0.</rho>
      <alpha>
        1. -1.</alpha>
      <index>
        13 30</index></_>
    <_>
      <sv_count>2</sv_count>
      <rho>0.</rho>
      <alpha>
        1. -1.</alpha>
      <index>
        13 31</index></_>
    <_>
      <sv_count>2</sv_count>
      <rho>0.</rho>
      <alpha>
        1. -1.</alpha>
      <index>
        14 15</index></_>
    <_>
      <sv_count>2</sv_count>
      <rho>0.</rho>
      <alpha>
        1. -1.</alpha>
      <index>
        14 16</index></_>
    <_>
      <sv_count>2</sv_count>
      <rho>0.</rho>
      <alpha>
        1. -1.</alpha>
      <index>
        14 17</index></_>
    <_>
      <sv_count>2</sv_count>
      <rho>0.</rho>
      <alpha>
        1. -1.</alpha>
      <index>
        14 18</index></_>
    <_>
      <sv_count>2</sv_count>
      <rho>0.</rho>
      <alpha>
        1. -1.</alpha>
      <index>
        14 19</index></_>
    <_>
      <sv_count>2</sv_count>
      <rho>0.</rho>
      <alpha>
        1. -1.</alpha>
      <index>
        14 20</index></_>
    <_>
      <sv_count>2</sv_count>
      <rho>0.</rho>
      <alpha>
        1. -1.</alpha>
      <index>
        14 21</index></_>
    <_>
      <sv_count>2</sv_count>
      <rho>0.</rho>
      <alpha>
        1. -1.</alpha>
      <index>
        14 22</index></_>
    <_>
      <sv_count>2</sv_count>
      <rho>0.</rho>
      <alpha>
        1. -1.</alpha>
      <index>
        14 23</index></_>
    <_>
      <sv_count>2</sv_count>
      <rho>0.</rho>
      <alpha>
        1. -1.</alpha>
      <index>
        14 24</index></_>
    <_>
      <sv_count>2</sv_count>
      <rho>0.</rho>
      <alpha>
        1. -1.</alpha>
      <index>
        14 25</index></_>
    <_>
      <sv_count>2</sv_count>
      <rho>0.</rho>
      <alpha>
        1. -1.</alpha>
      <index>
        14 26</index></_>
    <_>
      <sv_count>2</sv_count>
      <rho>0.</rho>
      <alpha>
        1. -1.</alpha>
      <index>
        14 27</index></_>
    <_>
      <sv_count>2</sv_count>
      <rho>0.</rho>
      <alpha>
        1. -1.</alpha>
      <index>
        14 28</index></_>
    <_>
      <sv_count>2</sv_count>
      <rho>0.</rho>
      <alpha>
        1. -1.</alpha>
      <index>
        14 29</index></_>
    <_>
      <sv_count>2</sv_count>
      <rho>0.</rho>
      <alpha>
        1. -1.</alpha>
      <index>
        14 30</index></_>
    <_>
      <sv_count>2</sv_count>
      <rho>0.</rho>
      <alpha>
        1. -1.</alpha>
      <index>
        14 31</index></_>
    <_>
      <sv_count>2</sv_count>
      <rho>0.</rho>
      <alpha>
        1. -1.</alpha>
      <index>
        15 16</index></_>
    <_>
      <sv_count>2</sv_count>
      <rho>0.</rho>
      <alpha>
        1. -1.</alpha>
      <index>
        15 17</index></_>
    <_>
      <sv_count>2</sv_count>
      <rho>0.</rho>
      <alpha>
        1. -1.</alpha>
      <index>
        15 18</index></_>
    <_>
      <sv_count>2</sv_count>
      <rho>0.</rho>
      <alpha>
        1. -1.</alpha>
      <index>
        15 19</index></_>
    <_>
      <sv_count>2</sv_count>
      <rho>0.</rho>
      <alpha>
        1. -1.</alpha>
      <index>
        15 20</index></_>
    <_>
      <sv_count>2</sv_count>
      <rho>0.</rho>
      <alpha>
        1. -1.</alpha>
      <index>
        15 21</index></_>
    <_>
      <sv_count>2</sv_count>
      <rho>0.</rho>
      <alpha>
        1. -1.</alpha>
      <index>
        15 22</index></_>
    <_>
      <sv_count>2</sv_count>
      <rho>0.</rho>
      <alpha>
        1. -1.</alpha>
      <index>
        15 23</index></_>
    <_>
      <sv_count>2</sv_count>
      <rho>0.</rho>
      <alpha>
        1. -1.</alpha>
      <index>
        15 24</index></_>
    <_>
      <sv_count>2</sv_count>
      <rho>0.</rho>
      <alpha>
        1. -1.</alpha>
      <index>
        15 25</index></_>
    <_>
      <sv_count>2</sv_count>
      <rho>0.</rho>
      <alpha>
        1. -1.</alpha>
      <index>
        15 26</index></_>
    <_>
      <sv_count>2</sv_count>
      <rho>0.</rho>
      <alpha>
        1. -1.</alpha>
      <index>
        15 27</index></_>
    <_>
      <sv_count>2</sv_count>
      <rho>0.</rho>
      <alpha>
        1. -1.</alpha>
      <index>
        15 28</index></_>
    <_>
      <sv_count>2</sv_count>
      <rho>0.</rho>
      <alpha>
        1. -1.</alpha>
      <index>
        15 29</index></_>
    <_>
      <sv_count>2</sv_count>
      <rho>0.</rho>
      <alpha>
        1. -1.</alpha>
      <index>
        15 30</index></_>
    <_>
      <sv_count>2</sv_count>
      <rho>0.</rho>
      <alpha>
        1. -1.</alpha>
      <index>
        15 31</index></_>
    <_>
      <sv_count>2</sv_count>
      <rho>0.</rho>
      <alpha>
        1. -1.</alpha>
      <index>
        16 17</index></_>
    <_>
      <sv_count>2</sv_count>
      <rho>0.</rho>
      <alpha>
        1. -1.</alpha>
      <index>
        16 18</index></_>
    <_>
      <sv_count>2</sv_count>
      <rho>0.</rho>
      <alpha>
        1. -1.</alpha>
      <index>
        16 19</index></_>
    <_>
      <sv_count>2</sv_count>
      <rho>0.</rho>
      <alpha>
        1. -1.</alpha>
      <index>
        16 20</index></_>
    <_>
      <sv_count>2</sv_count>
      <rho>0.</rho>
      <alpha>
        1. -1.</alpha>
      <index>
        16 21</index></_>
    <_>
      <sv_count>2</sv_count>
      <rho>0.</rho>
      <alpha>
        1. -1.</alpha>
      <index>
        16 22</index></_>
    <_>
      <sv_count>2</sv_count>
      <rho>0.</rho>
      <alpha>
        1. -1.</alpha>
      <index>
        16 23</index></_>
    <_>
      <sv_count>2</sv_count>
      <rho>0.</rho>
      <alpha>
        1. -1.</alpha>
      <index>
        16 24</index></_>
    <_>
      <sv_count>2</sv_count>
      <rho>0.</rho>
      <alpha>
        1. -1.</alpha>
      <index>
        16 25</index></_>
    <_>
      <sv_count>2</sv_count>
      <rho>0.</rho>
      <alpha>
        1. -1.</alpha>
      <index>
        16 26</index></_>
    <_>
      <sv_count>2</sv_count>
      <rho>0.</rho>
      <alpha>
        1. -1.</alpha>
      <index>
        16 27</index></_>
    <_>
      <sv_count>2</sv_count>
      <rho>0.</rho>
      <alpha>
        1. -1.</alpha>
      <index>
        16 28</index></_>
    <_>
      <sv_count>2</sv_count>
      <rho>0.</rho>
      <alpha>
        1. -1.</alpha>
      <index>
        16 29</index></_>
    <_>
      <sv_count>2</sv_count>
      <rho>0.</rho>
      <alpha>
        1. -1.</alpha>
      <index>
        16 30</index></_>
    <_>
      <sv_count>2</sv_count>
      <rho>0.</rho>
      <alpha>
        1. -1.</alpha>
      <index>
        16 31</index></_>
    <_>
      <sv_count>2</sv_count>
      <rho>0.</rho>
      <alpha>
        1. -1.</alpha>
      <index>
        17 18</index></_>
    <_>
      <sv_count>2</sv_count>
      <rho>0.</rho>
      <alpha>
        1. -1.</alpha>
      <index>
        17 19</index></_>
    <_>
      <sv_count>2</sv_count>
      <rho>0.</rho>
      <alpha>
        1. -1.</alpha>
      <index>
        17 20</index></_>
    <_>
      <sv_count>2</sv_count>
      <rho>0.</rho>
      <alpha>
        1. -1.</alpha>
      <index>
        17 21</index></_>
    <_>
      <sv_count>2</sv_count>
      <rho>0.</rho>
      <alpha>
        1. -1.</alpha>
      <index>
        17 22</index></_>
    <_>
      <sv_count>2</sv_count>
      <rho>0.</rho>
      <alpha>
        1. -1.</alpha>
      <index>
        17 23</index></_>
    <_>
      <sv_count>2</sv_count>
      <rho>0.</rho>
      <alpha>
        1. -1.</alpha>
      <index>
        17 24</index></_>
    <_>
      <sv_count>2</sv_count>
      <rho>0.</rho>
      <alpha>
        1. -1.</alpha>
      <index>
        17 25</index></_>
    <_>
      <sv_count>2</sv_count>
      <rho>0.</rho>
      <alpha>
        1. -1.</alpha>
      <index>
        17 26</index></_>
    <_>
      <sv_count>2</sv_count>
      <rho>0.</rho>
      <alpha>
        1. -1.</alpha>
      <index>
        17 27</index></_>
    <_>
      <sv_count>2</sv_count>
      <rho>0.</rho>
      <alpha>
        1. -1.</alpha>
      <index>
        17 28</index></_>
    <_>
      <sv_count>2</sv_count>
      <rho>0.</rho>
      <alpha>
        1. -1.</alpha>
      <index>
        17 29</index></_>
    <_>
      <sv_count>2</sv_count>
      <rho>0.</rho>
      <alpha>
        1. -1.</alpha>
      <index>
        17 30</index></_>
    <_>
      <sv_count>2</sv_count>
      <rho>0.</rho>
      <alpha>
        1. -1.</alpha>
      <index>
        17 31</index></_>
    <_>
      <sv_count>2</sv_count>
      <rho>0.</rho>
      <alpha>
        1. -1.</alpha>
      <index>
        18 19</index></_>
    <_>
      <sv_count>2</sv_count>
      <rho>0.</rho>
      <alpha>
        1. -1.</alpha>
      <index>
        18 20</index></_>
    <_>
      <sv_count>2</sv_count>
      <rho>0.</rho>
      <alpha>
        1. -1.</alpha>
      <index>
        18 21</index></_>
    <_>
      <sv_count>2</sv_count>
      <rho>0.</rho>
      <alpha>
        1. -1.</alpha>
      <index>
        18 22</index></_>
    <_>
      <sv_count>2</sv_count>
      <rho>0.</rho>
      <alpha>
        1. -1.</alpha>
      <index>
        18 23</index></_>
    <_>
      <sv_count>2</sv_count>
      <rho>0.</rho>
      <alpha>
        1. -1.</alpha>
      <index>
        18 24</index></_>
    <_>
      <sv_count>2</sv_count>
      <rho>0.</rho>
      <alpha>
        1. -1.</alpha>
      <index>
        18 25</index></_>
    <_>
      <sv_count>2</sv_count>
      <rho>0.</rho>
      <alpha>
        1. -1.</alpha>
      <index>
        18 26</index></_>
    <_>
      <sv_count>2</sv_count>
      <rho>0.</rho>
      <alpha>
        1. -1.</alpha>
      <index>
        18 27</index></_>
    <_>
      <sv_count>2</sv_count>
      <rho>0.</rho>
      <alpha>
        1. -1.</alpha>
      <index>
        18 28</index></_>
    <_>
      <sv_count>2</sv_count>
      <rho>0.</rho>
      <alpha>
        1. -1.</alpha>
      <index>
        18 29</index></_>
    <_>
      <sv_count>2</sv_count>
      <rho>0.</rho>
      <alpha>
        1. -1.</alpha>
      <index>
        18 30</index></_>
    <_>
      <sv_count>2</sv_count>
      <rho>0.</rho>
      <alpha>
        1. -1.</alpha>
      <index>
        18 31</index></_>
    <_>
      <sv_count>2</sv_count>
      <rho>0.</rho>
      <alpha>
        1. -1.</alpha>
      <index>
        19 20</index></_>
    <_>
      <sv_count>2</sv_count>
      <rho>0.</rho>
      <alpha>
        1. -1.</alpha>
      <index>
        19 21</index></_>
    <_>
      <sv_count>2</sv_count>
      <rho>0.</rho>
      <alpha>
        1. -1.</alpha>
      <index>
        19 22</index></_>
    <_>
      <sv_count>2</sv_count>
      <rho>0.</rho>
      <alpha>
        1. -1.</alpha>
      <index>
        19 23</index></_>
    <_>
      <sv_count>2</sv_count>
      <rho>0.</rho>
      <alpha>
        1. -1.</alpha>
      <index>
        19 24</index></_>
    <_>
      <sv_count>2</sv_count>
      <rho>0.</rho>
      <alpha>
        1. -1.</alpha>
      <index>
        19 25</index></_>
    <_>
      <sv_count>2</sv_count>
      <rho>0.</rho>
      <alpha>
        1. -1.</alpha>
      <index>
        19 26</index></_>
    <_>
      <sv_count>2</sv_count>
      <rho>0.</rho>
      <alpha>
        1. -1.</alpha>
      <index>
        19 27</index></_>
    <_>
      <sv_count>2</sv_count>
      <rho>0.</rho>
      <alpha>
        1. -1.</alpha>
      <index>
        19 28</index></_>
    <_>
      <sv_count>2</sv_count>
      <rho>0.</rho>
      <alpha>
        1. -1.</alpha>
      <index>
        19 29</index></_>
    <_>
      <sv_count>2</sv_count>
      <rho>0.</rho>
      <alpha>
        1. -1.</alpha>
      <index>
        19 30</index></_>
    <_>
      <sv_count>2</sv_count>
      <rho>0.</rho>
      <alpha>
        1. -1.</alpha>
      <index>
        19 31</index></_>
    <_>
      <sv_count>2</sv_count>
      <rho>0.</rho>
      <alpha>
        1. -1.</alpha>
      <index>
        20 21</index></_>
    <_>
      <sv_count>2</sv_count>
      <rho>0.</rho>
      <alpha>
        1. -1.</alpha>
      <index>
        20 22</index></_>
    <_>
      <sv_count>2</sv_count>
      <rho>0.</rho>
      <alpha>
        1. -1.</alpha>
      <index>
        20 23</index></_>
    <_>
      <sv_count>2</sv_count>
      <rho>0.</rho>
      <alpha>
        1. -1.</alpha>
      <index>
        20 24</index></_>
    <_>
      <sv_count>2</sv_count>
      <rho>0.</rho>
      <alpha>
        1. -1.</alpha>
      <index>
        20 25</index></_>
    <_>
      <sv_count>2</sv_count>
      <rho>0.</rho>
      <alpha>
        1. -1.</alpha>
      <index>
        20 26</index></_>
    <_>
      <sv_count>2</sv_count>
      <rho>0.</rho>
      <alpha>
        1. -1.</alpha>
      <index>
        20 27</index></_>
    <_>
      <sv_count>2</sv_count>
      <rho>0.</rho>
      <alpha>
        1. -1.</alpha>
      <index>
        20 28</index></_>
    <_>
      <sv_count>2</sv_count>
      <rho>0.</rho>
      <alpha>
        1. -1.</alpha>
      <index>
        20 29</index></_>
    <_>
      <sv_count>2</sv_count>
      <rho>0.</rho>
      <alpha>
        1. -1.</alpha>
      <index>
        20 30</index></_>
    <_>
      <sv_count>2</sv_count>
      <rho>0.</rho>
      <alpha>
        1. -1.</alpha>
      <index>
        20 31</index></_>
    <_>
      <sv_count>2</sv_count>
      <rho>0.</rho>
      <alpha>
        1. -1.</alpha>
      <index>
        21 22</index></_>
    <_>
      <sv_count>2</sv_count>
      <rho>0.</rho>
      <alpha>
        1. -1.</alpha>
      <index>
        21 23</index></_>
    <_>
      <sv_count>2</sv_count>
      <rho>0.</rho>
      <alpha>
        1. -1.</alpha>
      <index>
        21 24</index></_>
    <_>
      <sv_count>2</sv_count>
      <rho>0.</rho>
      <alpha>
        1. -1.</alpha>
      <index>
        21 25</index></_>
    <_>
      <sv_count>2</sv_count>
      <rho>0.</rho>
      <alpha>
        1. -1.</alpha>
      <index>
        21 26</index></_>
    <_>
      <sv_count>2</sv_count>
      <rho>0.</rho>
      <alpha>
        1. -1.</alpha>
      <index>
        21 27</index></_>
    <_>
      <sv_count>2</sv_count>
      <rho>0.</rho>
      <alpha>
        1. -1.</alpha>
      <index>
        21 28</index></_>
    <_>
      <sv_count>2</sv_count>
      <rho>0.</rho>
      <alpha>
        1. -1.</alpha>
      <index>
        21 29</index></_>
    <_>
      <sv_count>2</sv_count>
      <rho>0.</rho>
      <alpha>
        1. -1.</alpha>
      <index>
        21 30</index></_>
    <_>
      <sv_count>2</sv_count>
      <rho>0.</rho>
      <alpha>
        1. -1.</alpha>
      <index>
        21 31</index></_>
    <_>
      <sv_count>2</sv_count>
      <rho>0.</rho>
      <alpha>
        1. -1.</alpha>
      <index>
        22 23</index></_>
    <_>
      <sv_count>2</sv_count>
      <rho>0.</rho>
      <alpha>
        1. -1.</alpha>
      <index>
        22 24</index></_>
    <_>
      <sv_count>2</sv_count>
      <rho>0.</rho>
      <alpha>
        1. -1.</alpha>
      <index>
        22 25</index></_>
    <_>
      <sv_count>2</sv_count>
      <rho>0.</rho>
      <alpha>
        1. -1.</alpha>
      <index>
        22 26</index></_>
    <_>
      <sv_count>2</sv_count>
      <rho>0.</rho>
      <alpha>
        1. -1.</alpha>
      <index>
        22 27</index></_>
    <_>
      <sv_count>2</sv_count>
      <rho>0.</rho>
      <alpha>
        1. -1.</alpha>
      <index>
        22 28</index></_>
    <_>
      <sv_count>2</sv_count>
      <rho>0.</rho>
      <alpha>
        1. -1.</alpha>
      <index>
        22 29</index></_>
    <_>
      <sv_count>2</sv_count>
      <rho>0.</rho>
      <alpha>
        1. -1.</alpha>
      <index>
        22 30</index></_>
    <_>
      <sv_count>2</sv_count>
      <rho>0.</rho>
      <alpha>
        1. -1.</alpha>
      <index>
        22 31</index></_>
    <_>
      <sv_count>2</sv_count>
      <rho>0.</rho>
      <alpha>
        1. -1.</alpha>
      <index>
        23 24</index></_>
    <_>
      <sv_count>2</sv_count>
      <rho>0.</rho>
      <alpha>
        1. -1.</alpha>
      <index>
        23 25</index></_>
    <_>
      <sv_count>2</sv_count>
      <rho>0.</rho>
      <alpha>
        1. -1.</alpha>
      <index>
        23 26</index></_>
    <_>
      <sv_count>2</sv_count>
      <rho>0.</rho>
      <alpha>
        1. -1.</alpha>
      <index>
        23 27</index></_>
    <_>
      <sv_count>2</sv_count>
      <rho>0.</rho>
      <alpha>
        1. -1.</alpha>
      <index>
        23 28</index></_>
    <_>
      <sv_count>2</sv_count>
      <rho>0.</rho>
      <alpha>
        1. -1.</alpha>
      <index>
        23 29</index></_>
    <_>
      <sv_count>2</sv_count>
      <rho>0.</rho>
      <alpha>
        1. -1.</alpha>
      <index>
        23 30</index></_>
    <_>
      <sv_count>2</sv_count>
      <rho>0.</rho>
      <alpha>
        1. -1.</alpha>
      <index>
        23 31</index></_>
    <_>
      <sv_count>2</sv_count>
      <rho>0.</rho>
      <alpha>
        1. -1.</alpha>
      <index>
        24 25</index></_>
    <_>
      <sv_count>2</sv_count>
      <rho>0.</rho>
      <alpha>
        1. -1.</alpha>
      <index>
        24 26</index></_>
    <_>
      <sv_count>2</sv_count>
      <rho>0.</rho>
      <alpha>
        1. -1.</alpha>
      <index>
        24 27</index></_>
    <_>
      <sv_count>2</sv_count>
      <rho>0.</rho>
      <alpha>
        1. -1.</alpha>
      <index>
        24 28</index></_>
    <_>
      <sv_count>2</sv_count>
      <rho>0.</rho>
      <alpha>
        1. -1.</alpha>
      <index>
        24 29</index></_>
    <_>
      <sv_count>2</sv_count>
      <rho>0.</rho>
      <alpha>
        1. -1.</alpha>
      <index>
        24 30</index></_>
    <_>
      <sv_count>2</sv_count>
      <rho>0.</rho>
      <alpha>
        1. -1.</alpha>
      <index>
        24 31</index></_>
    <_>
      <sv_count>2</sv_count>
      <rho>0.</rho>
      <alpha>
        1. -1.</alpha>
      <index>
        25 26</index></_>
    <_>
      <sv_count>2</sv_count>
      <rho>0.</rho>
      <alpha>
        1. -1.</alpha>
      <index>
        25 27</index></_>
    <_>
      <sv_count>2</sv_count>
      <rho>0.</rho>
      <alpha>
        1. -1.</alpha>
      <index>
        25 28</index></_>
    <_>
      <sv_count>2</sv_count>
      <rho>0.</rho>
      <alpha>
        1. -1.</alpha>
      <index>
        25 29</index></_>
    <_>
      <sv_count>2</sv_count>
      <rho>0.</rho>
      <alpha>
        1. -1.</alpha>
      <index>
        25 30</index></_>
    <_>
      <sv_count>2</sv_count>
      <rho>0.</rho>
      <alpha>
        1. -1.</alpha>
      <index>
        25 31</index></_>
    <_>
      <sv_count>2</sv_count>
      <rho>0.</rho>
      <alpha>
        1. -1.</alpha>
      <index>
        26 27</index></_>
    <_>
      <sv_count>2</sv_count>
      <rho>0.</rho>
      <alpha>
        1. -1.</alpha>
      <index>
        26 28</index></_>
    <_>
      <sv_count>2</sv_count>
      <rho>0.</rho>
      <alpha>
        1. -1.</alpha>
      <index>
        26 29</index></_>
    <_>
      <sv_count>2</sv_count>
      <rho>0.</rho>
      <alpha>
        1. -1.</alpha>
      <index>
        26 30</index></_>
    <_>
      <sv_count>2</sv_count>
      <rho>0.</rho>
      <alpha>
        1. -1.</alpha>
      <index>
        26 31</index></_>
    <_>
      <sv_count>2</sv_count>
      <rho>0.</rho>
      <alpha>
        1. -1.</alpha>
      <index>
        27 28</index></_>
    <_>
      <sv_count>2</sv_count>
      <rho>0.</rho>
      <alpha>
        1. -1.</alpha>
      <index>
        27 29</index></_>
    <_>
      <sv_count>2</sv_count>
      <rho>0.</rho>
      <alpha>
        1. -1.</alpha>
      <index>
        27 30</index></_>
    <_>
      <sv_count>2</sv_count>
      <rho>0.</rho>
      <alpha>
        1. -1.</alpha>
      <index>
        27 31</index></_>
    <_>
      <sv_count>2</sv_count>
      <rho>0.</rho>
      <alpha>
        1. -1.</alpha>
      <index>
        28 29</index></_>
    <_>
      <sv_count>2</sv_count>
      <rho>0.</rho>
      <alpha>
        1. -1.</alpha>
      <index>
        28 30</index></_>
    <_>
      <sv_count>2</sv_count>
      <rho>0.</rho>
      <alpha>
        1. -1.</alpha>
      <index>
        28 31</index></_>
    <_>
      <sv_count>2</sv_count>
      <rho>0.</rho>
      <alpha>
        1. -1.</alpha>
      <index>
        29 30</index></_>
    <_>
      <sv_count>2</sv_count>
      <rho>0.</rho>
      <alpha>
        1. -1.</alpha>
      <index>
        29 31</index></_>
    <_>
      <sv_count>2</sv_count>
      <rho>0.</rho>
      <alpha>
        1. -1.</alpha>
      <index>
        30 31</index></_></decision_functions></my_svm>
</opencv_storage>
