<?xml version="1.0"?>
<opencv_storage>
<my_svm type_id="opencv-ml-svm">
  <svm_type>C_SVC</svm_type>
  <kernel><type>LINEAR</type></kernel>
  <C>1.0000000000000001e-001</C>
  <term_criteria><epsilon>1.0000000116860974e-007</epsilon>
    <iterations>2147483647</iterations></term_criteria>
  <var_all>140</var_all>
  <var_count>140</var_count>
  <class_count>35</class_count>
  <class_labels type_id="opencv-matrix">
    <rows>1</rows>
    <cols>35</cols>
    <dt>i</dt>
    <data>
      0 1 2 3 4 5 6 7 8 9 10 11 12 13 14 15 16 17 18 19 20 21 22 23 24
      25 26 27 28 29 30 31 32 33 34</data></class_labels>
  <sv_total>595</sv_total>
  <support_vectors>
    <_>
      1.00394915e-004 9.48506422e-005 -2.38442779e-004 7.64265598e-004
      -7.85133510e-004 2.41279151e-004 -1.34746748e-004 -2.00293434e-004
      5.84086702e-005 9.86071973e-005 -9.16007499e-004 6.17392070e-004
      -5.05549018e-004 -3.07974406e-004 8.10017402e-004 2.49091554e-005
      3.32153249e-005 -9.64812294e-004 -4.18313983e-004 3.40078841e-005
      -3.46868270e-004 -9.88523127e-004 -4.74318629e-004 3.60954873e-004
      3.36132478e-004 5.53108875e-005 3.26185662e-004 -4.16749564e-004
      -8.93881079e-004 -1.55172282e-004 1.10015844e-003 -1.20982772e-003
      -3.36052792e-004 2.87815172e-004 3.55096272e-004 1.89070866e-004
      3.15211597e-004 -2.77120038e-004 -1.21381017e-003 -4.55863847e-005
      5.73133526e-004 -1.09995576e-003 -1.62807526e-004 3.36334546e-004
      8.02417126e-005 6.59550205e-005 3.21234635e-004 -1.26331128e-004
      -1.12087256e-003 8.32903432e-004 -5.80379274e-004 -1.06561626e-003
      -1.22051140e-004 3.42621002e-004 7.73156571e-005 5.40900182e-005
      3.73436254e-004 -8.13321094e-005 -1.02988130e-003 3.61977844e-004
      -4.32964414e-004 -9.96204792e-004 -4.90948914e-005 3.56354081e-004
      -1.76842819e-004 1.89576589e-004 3.36969242e-004 -8.51268269e-005
      -1.00396574e-003 -3.54165997e-004 2.99591222e-004 -1.04167592e-003
      -2.46107247e-005 3.64975858e-004 -2.10410231e-004 2.80422653e-004
      3.60686128e-004 -9.34482305e-005 -1.03537855e-003 3.16935853e-004
      -4.13398986e-004 -1.05794042e-003 -1.23030186e-004 3.74104100e-004
      -1.14664203e-004 1.19193428e-004 3.47486552e-004 -5.28595119e-005
      -9.71205067e-004 -2.00987823e-004 4.89043829e-004 -1.10781263e-003
      -1.40399599e-004 3.18548904e-004 -2.10114900e-004 3.10492440e-004
      4.21681907e-004 -8.12184444e-005 -1.04957889e-003 9.99587937e-004
      2.73799466e-004 -1.16193248e-003 -2.78118125e-004 3.48484551e-004
      -4.58663824e-004 -1.13600989e-004 3.73882824e-004 -2.02715135e-004
      -1.13313983e-003 6.97828305e-004 -3.01839726e-004 -8.10249010e-004
      -5.23179711e-004 3.35996679e-004 1.41866534e-004 -1.42710865e-004
      2.94466736e-004 -4.01342200e-004 -7.31840846e-004 -1.89148966e-004
      4.22296689e-005 7.69136357e-004 -8.56882019e-004 2.16412067e-004
      4.31341672e-004 1.84910186e-005 2.77666724e-004 -8.11295991e-004
      3.18933598e-004 1.20294797e-004 -1.77889931e-004 8.85329850e-004
      -3.39655438e-004 1.19639852e-003 -4.44209843e-004 -4.68939950e-004
      -9.02137908e-005 5.74321457e-005 1.08006418e-004 9.88300235e-005</_>
    <_>
      6.95368508e-005 1.09646331e-004 -8.48168624e-004 9.29927337e-004
      -1.54728215e-004 -3.02400324e-004 1.88244576e-005 -3.53895302e-004
      1.64121506e-004 1.37508643e-004 1.22558355e-004 5.39603236e-004
      -7.20497221e-004 -1.47710613e-004 9.18530350e-005 1.02965532e-004
      6.83522303e-005 -1.17749123e-005 9.72829075e-005 1.87157479e-004
      -3.34805984e-004 -2.81653774e-004 -5.68321091e-004 6.00329877e-005
      1.11486210e-004 1.05375533e-004 1.68636980e-004 -5.63268142e-004
      4.56821668e-004 5.02924377e-005 3.15352867e-004 1.40908887e-004
      -5.69149270e-004 9.39944657e-005 9.94508227e-005 1.32955189e-004
      1.19867153e-004 -1.89181912e-004 1.47668397e-004 -5.49827935e-004
      -4.59919065e-005 2.31437771e-005 -3.12631368e-004 1.16082279e-004
      1.01152080e-004 7.39341267e-005 1.24055223e-004 1.67454637e-004
      3.21824686e-004 6.97623589e-004 -4.94578853e-004 -8.51705787e-004
      -3.67031789e-005 5.61105335e-005 1.22652971e-004 1.22061560e-004
      1.76003683e-004 3.54805321e-004 2.46236246e-004 -1.04857165e-004
      -3.69052927e-004 -7.85306445e-004 -1.25727365e-005 8.50478900e-005
      1.20780831e-004 1.39938289e-004 4.16998984e-004 1.07403530e-003
      -1.05401175e-003 -4.40305681e-004 2.37662662e-005 -7.96298846e-004
      1.59525298e-005 9.72188864e-005 1.43558602e-004 3.06228321e-004
      7.71697029e-004 -8.56191255e-005 -6.66500186e-004 6.18607082e-005
      -6.19559782e-004 -8.64972186e-004 -7.38524759e-005 1.16606221e-004
      3.36664059e-004 -3.49520968e-004 -4.57679453e-005 1.04258223e-004
      -7.86436198e-004 -2.22883507e-004 1.35756680e-004 -9.39176534e-004
      -8.31183934e-005 4.72550746e-004 -6.04466593e-004 -5.72487537e-004
      1.99612288e-004 -3.73063376e-005 -9.42406245e-004 4.91058221e-004
      3.82293860e-004 -1.12523721e-003 3.20286374e-004 -5.47524076e-004
      -4.97099478e-004 1.46202845e-004 1.45767364e-004 -1.39391283e-004
      -1.10548188e-003 3.01485998e-004 -1.55928661e-004 -7.30733562e-004
      -8.68101255e-004 -1.73321474e-004 1.84808188e-004 1.35042690e-004
      1.25450199e-004 -3.23457760e-004 -4.77981637e-004 -6.95022289e-004
      -2.28905061e-004 7.10359367e-004 -9.03251232e-004 -4.01416648e-004
      -1.00211450e-003 -9.94693837e-004 -1.07804616e-003
      -1.07790541e-003 6.97379117e-004 -7.43737110e-005 9.42834187e-004
      1.18527270e-003 6.20757462e-004 9.90062836e-004 8.45835748e-005
      8.70949953e-005 3.06430156e-004 6.42405299e-004 7.30749336e-004
      1.59979070e-004</_>
    <_>
      1.42469449e-004 1.95235902e-004 -8.19630164e-004 5.69826167e-004
      -6.12284581e-004 -4.60712414e-004 -1.97178873e-004
      -8.37003317e-005 2.78441876e-004 1.98232025e-004 1.04631989e-004
      -4.79180366e-004 -1.14421558e-003 -3.91593931e-005 1.75217065e-004
      1.63832097e-004 1.57928283e-004 6.96706556e-005 -4.26064333e-004
      2.95986683e-004 -1.42857811e-004 3.40475963e-004 4.01392492e-004
      2.95936974e-004 1.46801845e-004 1.47348983e-004 2.79715692e-004
      -1.05305051e-003 5.56218380e-004 -6.12738135e-004 1.20301847e-003
      -3.39854829e-004 6.15534780e-004 3.27411602e-004 1.68683968e-004
      1.69506267e-004 2.71259778e-004 -7.64339697e-004 8.84527763e-005
      -5.78267558e-004 2.44992232e-004 -1.34866126e-003 -8.84986148e-005
      1.38222822e-004 1.55368602e-004 1.46000457e-004 4.09789965e-004
      5.32836071e-004 -7.68469647e-004 6.31760689e-004 -8.77485261e-004
      -1.19407603e-003 -7.29741587e-005 1.38998657e-004 2.49654084e-004
      3.37317208e-004 -7.19087024e-004 2.44558789e-004 -9.12189833e-004
      7.65688601e-005 -7.61380594e-004 -1.08441815e-003 -1.50255182e-005
      1.09984900e-003 1.12778961e-003 1.52074976e-003 3.76158641e-005
      -1.31988963e-005 -1.03045034e-003 -6.20802224e-004
      -2.65410763e-005 -1.12924119e-003 4.39985197e-005 2.01741088e-004
      2.11348961e-004 1.87313373e-004 6.14995835e-004 1.35274802e-003
      -9.83256265e-004 2.01691219e-004 -6.90339250e-004 -1.22403796e-003
      -1.08727872e-004 1.80550880e-004 1.86637437e-004 2.19829279e-004
      2.74258491e-004 -7.35934882e-005 5.28981851e-004 -1.05158333e-003
      2.95726379e-004 -1.19145354e-003 -3.21398875e-005 1.31448935e-004
      1.40479751e-004 1.59581046e-004 2.38025648e-004 -2.46179203e-004
      -2.60986271e-004 1.13170885e-003 3.34999582e-004 8.00321504e-005
      -9.52968141e-004 1.98492358e-004 1.44968741e-004 1.49218264e-004
      1.97869333e-004 -1.35186856e-004 -3.21216532e-004 7.60649273e-004
      -2.75683269e-004 9.64472565e-005 -8.77869199e-004 1.22278638e-004
      1.54406531e-004 1.52382912e-004 1.43073266e-004 -1.74460074e-004
      6.50038535e-004 -9.55112104e-004 -2.90068681e-004 4.43355413e-004
      -1.49535004e-003 -1.07240863e-004 9.86685991e-005 1.45611266e-004
      2.44175782e-004 1.04828658e-004 -2.16071596e-004 3.09564988e-004
      2.18424771e-004 2.35008629e-004 -6.47482346e-004 8.08087061e-004
      -1.02867757e-003 -9.06513538e-004 -8.10207275e-004
      -9.69249289e-004 2.08254918e-004 1.60820928e-004</_>
    <_>
      1.94932963e-005 1.18782270e-006 -2.17278590e-004 2.83849717e-004
      -4.10351931e-004 -3.67211236e-004 -3.02736444e-004
      -5.94032870e-004 4.32202905e-005 6.02765103e-005 -3.26802765e-005
      2.24362557e-005 -5.11472987e-004 -1.11800749e-004 4.66877209e-005
      1.61174088e-004 6.45157415e-004 -5.08920813e-004 -2.07282617e-004
      3.32281452e-005 -2.43938412e-004 -5.47292002e-004 -3.02748522e-004
      2.89187974e-005 1.07440421e-004 -1.06984822e-004 8.53929087e-004
      -2.29337122e-004 -4.45167796e-004 -9.47275912e-005 5.88711468e-004
      -6.26966532e-004 -1.91913539e-004 3.73880175e-005 -2.08519617e-004
      3.96467774e-004 8.49655364e-004 -1.60764801e-004 -6.15157944e-004
      -3.73106523e-005 3.37516802e-004 -5.88593655e-004 -1.16824980e-004
      -1.27325722e-004 4.46062593e-004 1.66834026e-004 8.69068550e-004
      -7.09400701e-005 -5.66039875e-004 5.06055425e-004 -3.00532003e-004
      -5.71875309e-004 -4.56437483e-005 6.73885341e-004 1.43680780e-004
      1.86729274e-004 8.82794790e-004 -6.33834425e-005 -5.39097760e-004
      2.29441852e-004 -2.25288124e-004 -5.11842605e-004 -4.43441131e-005
      1.62327415e-004 4.79373666e-005 1.79701572e-004 8.53533915e-004
      -7.25707578e-005 -5.61613706e-004 -1.66552156e-004 2.17287525e-004
      -8.40930850e-004 4.10917477e-004 5.91626049e-005 6.04229608e-005
      1.88909093e-004 8.60294851e-004 -4.22245721e-005 -5.43660135e-004
      2.10766608e-004 -5.81770146e-005 7.66833400e-005 -5.41736372e-005
      3.58196739e-005 6.17043625e-005 2.01980118e-004 8.75636644e-004
      -2.55666564e-005 -4.94219596e-004 -1.05877771e-004 1.99370916e-004
      -3.69278714e-004 -2.55170107e-005 9.70303372e-005 1.36211020e-004
      2.47225165e-004 8.83171277e-004 2.15719760e-004 -5.36446576e-004
      5.95930556e-004 -6.16296660e-004 -5.90171490e-004 -1.56012029e-004
      6.26176334e-005 4.66097663e-005 -4.72462154e-004 8.83980130e-004
      -6.57285331e-004 -1.15913851e-003 1.10762216e-004 -1.69400082e-004
      -4.46939870e-004 -3.35486780e-004 -1.37442748e-005 4.67897225e-005
      1.84611155e-004 8.22827918e-004 -1.87921964e-004 -3.66617314e-004
      -1.25858001e-004 -2.84433081e-005 3.57597106e-004 -5.10921003e-004
      -1.46179213e-004 1.98389971e-005 2.13072824e-004 7.11680215e-004
      -3.48182715e-004 1.79134076e-004 3.78711302e-005 2.71048229e-005
      -4.18329137e-006 -1.83846423e-004 1.68704446e-005 -2.36327382e-004
      -6.96322459e-005 4.45641286e-004 6.12819975e-004 8.99102961e-005
      -3.06568050e-004</_>
    <_>
      1.30897330e-004 3.74556475e-005 4.98611364e-004 -6.58170320e-005
      1.39109921e-004 1.08049884e-004 3.82983912e-004 -3.20744992e-004
      1.11198274e-003 1.64918274e-005 5.09967831e-005 -4.72694701e-005
      -6.24095206e-004 1.25364793e-004 3.02628119e-004 2.68024480e-004
      1.17211763e-004 -1.04704453e-003 -4.28806292e-004 8.60083746e-005
      -1.77518290e-004 -9.25104541e-004 -1.21072244e-005 1.74480258e-004
      1.39448646e-004 1.29410837e-004 1.03551574e-004 -3.11994343e-004
      -6.18008606e-004 -6.12893855e-005 7.32537534e-004 -1.08024897e-003
      9.49031164e-005 1.00495927e-004 1.03087514e-004 1.16838921e-004
      1.12256239e-004 -1.63636432e-004 -9.18271078e-004 -9.70428300e-005
      2.84248090e-004 -1.08260417e-003 1.75428097e-004 1.50615830e-004
      1.66463185e-004 1.54438574e-004 1.01520825e-004 -3.80740639e-005
      -8.09052784e-004 4.31395776e-004 -4.34673479e-004 -1.08200521e-003
      -9.77157964e-004 7.00688630e-004 -8.18153669e-004 -5.76353108e-004
      1.07174506e-003 -5.77389030e-004 -5.97266422e-004 1.40851349e-004
      -5.14104497e-004 -4.48169507e-004 -7.45008467e-004 1.61911987e-004
      1.17057753e-004 1.26550454e-004 2.43689981e-004 -1.67049788e-004
      -2.62078451e-004 -9.63515049e-005 6.57205383e-005 -8.12266837e-004
      2.77335148e-005 8.45251052e-005 9.81347621e-005 8.68177158e-005
      1.16461502e-004 6.82269456e-005 3.22696957e-004 -3.24233610e-004
      -2.48748343e-004 -7.25144753e-004 -7.72708809e-005 8.44893366e-005
      9.00888044e-005 1.22040750e-004 1.11686735e-004 1.51038097e-004
      -1.53997724e-004 -2.22095638e-004 -3.19290673e-004
      -1.01034774e-003 -4.35407739e-004 1.14640112e-004 8.77806960e-005
      9.12768082e-005 1.30666871e-004 1.31571331e-004 -8.99770996e-004
      1.47657201e-003 9.49809677e-004 9.76909814e-006 -6.90227840e-004
      1.11244080e-004 8.91669479e-005 8.02044015e-005 1.25855411e-004
      8.22581424e-005 -5.09424499e-005 4.99316549e-004 -1.07164989e-004
      -1.69281237e-004 -5.45016315e-004 3.55770208e-005 8.65393376e-005
      4.92355612e-005 5.76869097e-005 -2.30338774e-004 3.54480406e-004
      -3.36009689e-004 1.56425158e-004 8.42187786e-004 -7.33810128e-004
      -4.51487540e-005 8.88892901e-005 1.31602137e-004 1.66286380e-004
      1.75561043e-004 6.59618527e-004 1.51493019e-004 8.65228285e-005
      1.37139010e-004 -6.95855590e-004 9.53330484e-004 2.03686286e-005
      -1.99974966e-004 -6.78338809e-004 -1.54993962e-004 7.03732803e-005
      8.99065344e-005</_>
    <_>
      -2.07412977e-005 -7.46131991e-005 -3.08249000e-004
      -2.42426497e-004 -3.81638616e-004 -6.28246693e-004
      -2.31730650e-004 9.55902855e-004 -8.65287380e-004 1.11263369e-004
      -1.35291237e-004 -1.02608305e-004 -7.48683407e-004 7.49633356e-004
      1.66965750e-004 -7.16977183e-006 -1.24915838e-004 -8.09452322e-004
      1.06882901e-004 -8.08736309e-004 -3.02651548e-004 -7.52186868e-004
      1.42094592e-004 1.29122986e-004 -3.23655368e-005 -3.50866248e-005
      8.11680457e-006 -7.72210129e-004 4.23267484e-004 -2.35141430e-004
      9.09566414e-004 -1.19171291e-005 -8.71272874e-004 1.44399764e-005
      -1.01311798e-005 -4.49427580e-006 -3.21710140e-005
      -2.68003816e-004 -1.86845288e-003 -7.73791326e-005 1.56228445e-004
      2.51293415e-004 1.63218574e-004 1.93342748e-006 -1.34095426e-005
      -5.96771752e-005 -6.40145663e-005 -2.19509020e-004
      -1.46002497e-003 9.63645289e-005 -5.73847617e-004 -1.73687423e-003
      1.11648347e-004 -5.38391818e-004 1.17128179e-003 1.57086784e-003
      1.62536663e-003 -8.47672054e-004 -1.26594573e-003 -2.42495124e-004
      -3.82870756e-004 -2.38549474e-004 4.35592927e-004 7.14826339e-004
      1.15342460e-004 -1.64305075e-005 1.68163548e-004 1.10362109e-003
      2.94214551e-004 -6.82837213e-004 8.41175643e-005 5.40845911e-004
      6.47327455e-004 3.49621077e-005 -1.41465907e-005 -4.00559020e-006
      -4.44807811e-005 8.96545316e-005 5.87804592e-004 -1.23328017e-003
      -5.61654626e-004 1.11668909e-004 2.02034494e-006 -4.08803971e-005
      -5.49563229e-005 -2.52084701e-005 -3.13270175e-005
      -2.71683457e-005 2.32235703e-004 9.23362444e-004 5.32703743e-005
      4.85423743e-006 2.92907116e-005 -4.74882800e-005 -6.23554733e-005
      -3.12046432e-005 -7.82841471e-006 -7.96775494e-005
      -2.07521123e-004 1.71399652e-003 4.24395170e-004 2.08581230e-004
      -4.60181000e-005 -5.20428330e-005 -5.50107179e-005
      -6.36365512e-005 -2.18641926e-005 -1.55324786e-004 1.51891072e-004
      9.59833269e-004 -4.44593279e-005 3.35418852e-004 -8.51431469e-005
      -5.43065544e-005 -4.82981777e-005 -5.03553310e-005
      -9.34180280e-005 -2.12580169e-004 7.12754787e-004 -7.27923296e-004
      -7.53468921e-005 -4.20086290e-004 1.31278517e-004 7.97841130e-005
      -7.27914157e-005 -4.70846462e-005 -1.83937882e-004 1.00363861e-004
      3.32338561e-004 7.52488413e-005 -8.78258197e-006 -6.54753094e-005
      -4.17396426e-004 3.35942634e-004 4.40570206e-004 4.92117542e-004
      2.66326650e-004 -3.31119954e-004 -3.18016209e-005 -6.32592491e-005</_>
    <_>
      1.23274236e-004 9.51717724e-004 2.27183657e-004 5.31653233e-004
      -6.15534140e-004 -6.39694161e-004 -2.49597448e-004
      -1.78102593e-004 5.16418440e-005 7.92691426e-005 1.32564586e-004
      1.05556066e-003 -1.15386312e-004 2.01555798e-004 1.75471039e-004
      3.95313429e-004 4.07082611e-004 1.41416676e-004 6.66373875e-004
      -1.96893001e-004 -1.09113927e-003 -5.73761703e-004
      -5.01527218e-004 -5.59679211e-005 -1.27213480e-006
      -3.33381358e-005 3.34275464e-005 -1.17556840e-004 -6.10071060e-004
      -6.64238178e-005 7.69240491e-004 -8.75582278e-004 -2.75494676e-004
      -1.08469048e-005 5.70268166e-005 5.94598205e-005 1.70263113e-004
      5.40358888e-004 -1.02261477e-003 -2.16763929e-005 3.04388639e-004
      -8.97267251e-004 -1.82433956e-004 -2.78492280e-005 5.84268455e-005
      9.84849103e-005 -2.57290929e-004 1.16999436e-005 -8.59379768e-004
      6.34739001e-004 -4.35135036e-004 -8.79467523e-004 -1.67979553e-004
      -3.29759932e-005 6.31556177e-005 -2.66214396e-004 1.63914970e-004
      -6.68756693e-005 -8.68999283e-004 2.48767901e-004 -3.28041468e-004
      -8.64629517e-004 -1.09557681e-004 -7.97670282e-007 1.71589054e-004
      5.75902988e-004 -4.73137661e-005 -1.31378169e-004 -8.65544134e-004
      -4.04149294e-004 1.51861823e-004 -8.94852914e-004 -9.08649235e-005
      7.23224293e-005 -3.32376570e-004 2.71798257e-004 8.40640496e-005
      -1.63944540e-004 -8.78173509e-004 1.81783587e-004 -4.96381137e-004
      -9.07596492e-004 -1.92300402e-004 2.37868386e-004 7.38527451e-004
      3.30436364e-004 4.46721970e-005 -9.93134527e-005 -8.60226515e-004
      -1.60131676e-004 2.89738149e-004 -8.83751374e-004 -1.49619678e-004
      -2.43950184e-004 1.14414340e-003 1.26684987e-004 5.12369115e-005
      -1.71205262e-004 -9.03687440e-004 7.50805659e-004 2.55835912e-004
      -9.51668888e-004 -1.69195497e-004 -3.15363170e-004 3.23048065e-004
      2.10109094e-004 1.85575718e-005 -2.72948382e-004 -9.66705091e-004
      4.03821818e-004 -3.11125623e-004 -7.19639473e-004 -3.65377287e-004
      8.47010466e-004 3.17210302e-004 1.59058327e-004 -4.49262734e-005
      -4.28209634e-004 -5.86598471e-004 -2.56366649e-004
      -5.08607336e-005 6.53163996e-004 -6.31954521e-004 7.17776304e-004
      2.75903090e-004 1.09651111e-004 -2.06135082e-004 -7.86300690e-004
      3.48233661e-005 -3.03160759e-005 -1.68145525e-005 -7.02322504e-005
      -1.60058349e-004 1.24561437e-003 -3.46304703e-004 -5.09095087e-004
      -4.91641229e-004 -2.81332759e-004 -3.57338831e-005
      -3.93958289e-005</_>
    <_>
      -1.45780796e-005 -8.33049398e-006 -3.11002252e-004 3.83664970e-004
      1.72147120e-004 -4.68120998e-005 5.31756727e-004 -2.70764547e-004
      9.16773133e-005 1.09558823e-005 -7.41638942e-005 -1.00575220e-004
      -3.52377770e-004 -1.01334386e-004 6.06514868e-006 -2.43233135e-005
      -2.62281974e-005 -2.96744984e-004 -7.23913472e-005 1.31820416e-004
      -1.44835314e-004 4.52728909e-006 -1.21550547e-004 -2.64444297e-005
      1.99055899e-006 -2.85306724e-005 -5.92944343e-006 -2.06409488e-004
      -9.84410799e-005 -6.06779358e-004 6.00692118e-004 -2.68654603e-005
      1.14696173e-004 -3.79673520e-006 1.98892540e-005 6.87515058e-006
      4.83083431e-006 -3.66770983e-005 -1.61233998e-004 -7.18156109e-004
      5.62985260e-005 -1.32700708e-003 5.53353573e-004 4.10355889e-004
      1.92293519e-004 2.08450147e-005 1.27905905e-005 3.95787327e-004
      -7.74498796e-004 2.46671232e-004 -6.74844894e-004 -8.97561898e-004
      2.05585966e-004 9.80048906e-004 6.08931528e-004 4.14385257e-004
      7.14569294e-004 3.40545485e-005 -7.37851777e-004 -1.78682705e-004
      -6.32914074e-004 -7.07126805e-004 2.13571024e-004 1.34271086e-005
      1.05868152e-003 1.03609229e-003 -5.35218220e-004 1.97277506e-004
      -6.89394830e-004 -5.37382206e-004 -1.42473393e-004
      -7.80083472e-004 7.70671468e-004 4.11798916e-004 2.71463039e-004
      5.88878174e-004 1.13001710e-003 9.15241602e-004 -1.03665458e-003
      -4.08842061e-005 -5.09339501e-004 1.54210036e-004 9.84567014e-005
      -1.58930345e-006 3.64536500e-005 2.81387820e-005 1.63102115e-004
      4.83276177e-004 2.46177078e-004 -8.99120176e-004 5.48339565e-004
      -2.73982965e-004 -1.07526706e-004 -1.81345313e-005
      -1.47601568e-005 -2.85023580e-005 -7.80224400e-006
      -1.04376697e-004 -4.46602964e-004 6.11701573e-004 9.54044110e-004
      -3.63386935e-004 -1.97822854e-004 -5.33754337e-006
      -1.81703836e-005 -3.54064541e-005 -3.15372017e-005
      -2.17855442e-004 -6.11125666e-004 1.17345247e-003 -5.24701143e-004
      -3.54492076e-005 -4.43510740e-004 -8.13149090e-005
      -1.64712401e-005 -3.74994452e-005 -7.84689910e-005
      -3.64238716e-004 -2.70554563e-004 -4.57210030e-004 3.62495848e-005
      1.17099693e-003 -4.35702823e-004 -9.51263646e-005 -6.04342022e-005
      -4.38599891e-005 -1.20468503e-004 -3.73243762e-004 8.81623419e-004
      2.08243619e-005 -1.68673450e-005 5.96486416e-008 -8.06536060e-004
      6.93064940e-004 3.86221363e-004 -1.10623099e-004 -4.90248553e-004
      -4.64389828e-004 -4.87796387e-005 -4.96051543e-005</_>
    <_>
      4.59467519e-005 4.87513789e-005 -7.90394959e-004 5.70436241e-004
      -3.98331584e-004 -3.77119984e-004 2.61454406e-004 -5.43117232e-004
      6.76506315e-005 7.68408136e-005 3.99124583e-005 -7.95114029e-005
      -5.37578657e-004 -1.86320121e-005 1.64728681e-005 1.14859313e-005
      2.90171476e-004 -3.70904396e-004 -8.60374945e-004 1.10563538e-004
      -8.80223990e-004 2.38096982e-004 -3.06567061e-004 3.62985302e-005
      2.34328563e-005 1.77648253e-005 3.46959569e-005 7.31936670e-005
      2.87908420e-004 -2.61018286e-004 1.03853282e-003 -7.66282377e-004
      -1.46721781e-004 6.09922608e-006 7.34557125e-006 2.71482768e-005
      4.37335693e-005 -3.54693293e-005 -3.09241514e-005 -2.11608945e-004
      1.03978615e-003 -6.49831491e-004 -2.04045591e-005 2.36250489e-005
      3.34499528e-005 9.54055395e-006 3.04227979e-005 2.91728738e-005
      -8.30530655e-004 1.22167694e-003 -4.18308831e-004 -3.97909636e-004
      4.06511463e-005 -5.35044046e-006 2.54241968e-007 2.22497920e-006
      2.81754474e-005 1.42760895e-004 -6.03000051e-004 4.59255592e-004
      -7.29645602e-004 3.58756020e-004 2.48875469e-004 1.15240218e-005
      5.27868397e-005 2.66266870e-005 4.91025530e-005 7.19829346e-004
      5.00810507e-004 -3.68125213e-004 -7.03793019e-004 -3.10490541e-005
      9.76048119e-004 2.20784219e-004 9.15347337e-005 4.54744695e-005
      9.73949034e-004 2.98641127e-004 1.88593142e-004 3.29303264e-004
      -4.85680677e-004 -9.38272045e-004 -4.07574727e-004 5.90148207e-004
      8.93032469e-004 5.30982397e-005 -5.42730035e-004 1.39796728e-004
      -1.65076274e-003 -2.22456249e-004 -2.20446702e-004
      -1.18941662e-003 -9.73906572e-005 4.89990125e-005 1.05851486e-005
      2.02433166e-005 5.08499688e-005 5.14812928e-005 -2.04307551e-004
      -7.53923669e-004 2.80733686e-004 -1.40681351e-003 -1.57175498e-004
      -1.37331635e-005 6.64550817e-006 1.65972724e-005 3.26621121e-005
      -6.39749516e-004 -3.36207195e-005 4.59411531e-004 -1.23552032e-004
      2.92017241e-004 -1.10675453e-003 9.31403156e-006 2.64003065e-005
      -3.01670184e-006 1.12539368e-004 3.90513975e-004 -7.68726983e-004
      -4.39239848e-005 -5.91072603e-004 1.10624288e-003 -3.49738257e-004
      6.43948260e-006 -2.52505652e-005 1.92464140e-004 2.55421444e-004
      -2.04369760e-004 7.32193221e-005 4.14491797e-006 8.91917880e-005
      -7.33501860e-004 2.67610158e-004 1.13397813e-003 -1.86605859e-004
      -4.18963900e-004 -1.24514394e-003 -1.14887109e-004
      -8.03355397e-006 2.27982855e-005</_>
    <_>
      1.63674922e-004 1.10522924e-004 -1.93444459e-004 4.27415129e-004
      -4.98779584e-004 -6.73876377e-004 -9.74686991e-005
      -9.66329826e-005 1.27450839e-004 1.95117478e-004 7.54668363e-005
      1.70918356e-004 -1.02476380e-003 -8.43626694e-005 4.34374495e-004
      9.69155590e-005 -3.01102045e-005 -1.03056780e-003 -2.54319835e-004
      1.55188609e-004 -2.43137765e-004 -9.69665998e-004 -4.11601068e-004
      1.40784439e-004 4.20661410e-004 1.35244205e-004 2.33095125e-004
      -3.30661569e-004 -8.00551206e-004 -3.66146523e-005 1.00779638e-003
      -1.29713630e-003 -1.85056299e-004 1.25942272e-004 2.34642022e-004
      1.61250937e-004 2.03325428e-004 -1.27764142e-004 -1.30759925e-003
      2.22578055e-005 3.57032230e-004 -1.03624747e-003 -4.68514154e-005
      1.40411430e-004 1.69676714e-004 1.66939877e-004 1.60377618e-004
      -3.34310207e-005 -1.01004809e-003 5.99799387e-004 -6.25198532e-004
      -8.77779559e-004 5.93133109e-006 1.79804221e-004 2.14363085e-004
      9.44321873e-005 2.36534499e-004 3.14946265e-005 -8.53348116e-004
      2.26950186e-004 -6.47757959e-004 -7.10805296e-004 -3.69707122e-004
      -2.35596381e-004 7.95105530e-004 5.40141424e-004 -2.19152236e-004
      -4.24386526e-004 -7.38067669e-004 -4.98884066e-004 1.18464603e-004
      -8.98888684e-004 -7.13952177e-004 -7.25211052e-004 6.98230346e-004
      7.36274756e-004 -6.81578822e-004 -3.38611426e-004 -8.49208795e-004
      -2.88010415e-005 -3.97371390e-004 -8.94893717e-004
      -1.10142419e-005 1.90926512e-004 1.46009712e-004 1.18874799e-004
      1.95086657e-004 6.35425386e-005 -8.13371094e-004 -3.34875629e-004
      3.43526830e-004 -1.05472014e-003 -7.63964927e-005 1.26159401e-004
      7.24959536e-005 -3.53947107e-004 2.05715231e-004 -3.90722835e-006
      -1.00500800e-003 7.10769498e-004 2.48215569e-004 -1.31066551e-003
      -1.91909698e-004 1.29415261e-004 8.38520282e-005 -3.39380524e-004
      1.83593089e-004 -1.28445419e-004 -1.26595376e-003 6.81360718e-004
      -1.92846011e-004 -8.20203801e-004 -4.79009701e-004 1.16579467e-004
      4.80386043e-005 -1.77045426e-004 9.93323047e-005 -4.02129721e-004
      -7.55201501e-004 -1.10144960e-004 7.88893303e-005 6.17156737e-004
      -1.02277321e-003 -1.34438713e-004 -1.99932729e-005 2.31392434e-004
      -1.03336868e-004 -9.95758222e-004 3.56921315e-004 1.59131218e-004
      1.46084480e-004 9.40037498e-005 -1.99549046e-004 8.41193425e-004
      -1.19890284e-003 -5.98699378e-004 -3.74328403e-004
      -1.26389641e-004 1.00459438e-004 1.30361208e-004</_>
    <_>
      -3.46322311e-004 -3.47496185e-004 -2.36767490e-004
      -1.04169238e-004 -3.91830574e-004 -3.91212263e-004
      -4.07944783e-004 -3.38274316e-004 -4.66304773e-004
      -4.49767831e-004 -3.28707276e-004 -3.01398482e-004
      -4.84728807e-004 -2.24414995e-004 -1.60754760e-004
      -1.59552626e-004 -3.28417169e-004 -5.61293564e-004
      -4.62184893e-004 -3.71647446e-004 -1.92905951e-004
      -3.78777710e-004 -2.78302032e-004 -1.53721921e-004
      -1.43532918e-004 -1.40319971e-004 -7.21319084e-005
      -2.18461922e-004 -2.69083015e-004 -5.70644079e-005 2.76734121e-004
      -2.52365367e-004 -1.97846501e-004 -1.38565258e-004
      -1.20431505e-004 -1.21660538e-004 1.18996861e-004 1.77915808e-005
      -1.79927520e-005 3.03512032e-004 2.71594239e-004 -7.36280663e-006
      1.08406355e-004 1.48795647e-004 1.67347564e-004 1.58410723e-004
      2.93866382e-004 2.42600174e-004 1.27155246e-004 4.76638204e-004
      1.39056385e-004 1.25151084e-004 3.10114992e-004 3.49689217e-004
      3.67457105e-004 3.65853106e-004 3.99532088e-004 3.61347717e-004
      1.71455744e-004 3.75132135e-004 1.95057582e-004 1.75800567e-004
      3.85749707e-004 4.23110643e-004 4.39805561e-004 4.37890325e-004
      4.33148671e-004 3.97348020e-004 1.90980267e-004 1.79872120e-004
      2.86461873e-004 1.01743986e-004 3.22371459e-004 3.60093080e-004
      3.75896780e-004 3.69244604e-004 3.69614747e-004 3.31260817e-004
      1.27458596e-004 1.66135476e-004 4.22507073e-005 -4.68920080e-005
      1.38685064e-004 1.93894157e-004 2.11066465e-004 2.09411606e-004
      1.72446904e-004 1.41064069e-004 -6.93777911e-005 -1.17720090e-004
      9.13551921e-005 -2.07401536e-004 -8.64129179e-005 -4.17031333e-005
      -2.74670911e-005 -2.89954496e-005 -1.44066900e-004
      -1.96220411e-004 -4.34533751e-004 -4.58946924e-005 1.46943290e-004
      -2.31285798e-004 -1.80121744e-004 -1.12993788e-004
      -1.03240476e-004 -1.09351487e-004 -3.17753264e-004
      -3.87597247e-004 -6.43155014e-004 -1.36861549e-004
      -7.38463496e-005 -2.58531392e-004 -2.12218234e-004
      -7.90184567e-005 -6.07274706e-005 -6.88866712e-005
      -1.33457870e-004 -2.46283977e-004 -3.56520672e-004
      -2.65723036e-004 -1.46732229e-004 -3.54237382e-005
      -3.18798178e-004 -8.68324205e-005 -3.14180979e-005
      -3.62907485e-005 2.19683789e-005 -2.17548019e-004 9.70743786e-005
      -1.80259391e-004 -1.94731241e-004 -2.16695436e-004
      -9.66505468e-005 8.10934798e-005 -2.70842720e-004 -2.75826460e-004
      -1.78099854e-005 6.47220295e-005 8.65669936e-005 -1.68967279e-004</_>
    <_>
      4.89326012e-005 8.82507356e-006 -3.48553294e-004 4.14743408e-004
      -7.20139185e-004 -6.61685888e-004 -4.73929773e-004 2.39396380e-004
      5.60376095e-004 -7.57235801e-004 -3.94086092e-005 7.45126235e-005
      -8.79205647e-004 -1.40072283e-004 2.45773350e-004 1.15765375e-003
      -4.89516649e-004 -6.77584088e-004 -3.46807501e-004 3.87822984e-005
      -3.58690042e-004 -8.62151966e-004 -5.15830063e-004 4.72979154e-004
      3.31584924e-005 6.70484442e-005 1.07293483e-004 -4.39839729e-004
      -7.92908366e-004 -1.74638553e-004 1.15444395e-003 -1.11326040e-003
      9.12158401e-004 -3.24371184e-004 3.41831910e-004 1.41489305e-004
      7.71949708e-005 -2.68099597e-004 -1.12901488e-003 -9.69496396e-005
      4.81443480e-004 4.17583542e-005 4.62451164e-004 -1.76987654e-004
      1.16285795e-004 4.36213813e-005 4.02945589e-005 -1.83282289e-004
      -1.07805198e-003 8.31816636e-004 -1.30993279e-003 3.33976874e-004
      -1.23053219e-003 1.53692148e-004 9.87286403e-005 5.59112741e-005
      1.08424101e-004 -1.44726597e-004 -1.01371238e-003 3.76651966e-004
      -7.24161044e-004 3.48257745e-004 1.54680180e-004 1.16626936e-004
      8.77148923e-005 8.82111708e-005 8.59235515e-005 -1.61919234e-004
      -1.01982476e-003 -2.87200295e-004 -7.21009826e-007 2.88460520e-004
      1.11363152e-004 9.23379048e-005 6.16413963e-005 7.92311766e-005
      7.36652364e-005 -1.58104333e-004 -1.01576815e-003 3.35063873e-004
      -1.02418743e-003 3.49790207e-004 -2.32556762e-004 1.73118286e-004
      9.83542559e-005 1.10964589e-004 6.24931927e-005 -9.14392658e-005
      -9.55587020e-004 -2.53102568e-004 3.62049206e-004 -5.88765484e-004
      3.31493327e-004 1.18168973e-004 7.97255343e-005 8.12132421e-005
      1.11070076e-004 -1.52310065e-004 -1.04377035e-003 9.58854216e-004
      3.24625376e-004 -1.79759518e-003 -1.49176287e-006 1.49243569e-004
      1.87641963e-005 6.81535021e-005 8.17399632e-005 -2.84670736e-004
      -1.08158891e-003 6.64969266e-004 -2.80778215e-004 -6.79989113e-004
      -5.76771039e-004 9.14626216e-005 1.92981184e-004 8.88343275e-005
      1.06039588e-004 -4.55530506e-004 -7.32429209e-004 -2.58217508e-004
      -1.99406677e-005 5.79849700e-004 -8.57537903e-004 -1.45339945e-004
      -7.73294654e-004 1.63817331e-005 -1.20418035e-005 -9.09998664e-004
      3.83328239e-004 8.35252868e-005 5.45706098e-005 -6.99782504e-007
      -3.21122265e-004 8.46500392e-004 -6.77670818e-004 -5.78430190e-004
      -7.99320464e-004 -5.02550916e-004 4.81037394e-004 -9.04547778e-005</_>
    <_>
      -2.83976551e-004 1.15903595e-003 -6.28485752e-004 2.23301031e-004
      -6.98497926e-004 -7.66112818e-004 -2.72420264e-004
      -2.10412152e-004 4.85183446e-005 9.30719325e-005 -2.98035884e-005
      1.22516183e-004 -9.94338538e-004 -3.23255488e-004 6.31114584e-004
      -5.75238548e-004 -9.67635424e-005 -8.82723602e-004
      -3.71646427e-004 1.52233088e-005 -3.46956949e-004 -9.18679347e-004
      -4.63419768e-004 5.14224994e-005 3.06536786e-005 -1.56060254e-004
      4.09910863e-004 -5.17609762e-004 -7.05314684e-004 -1.35069640e-004
      9.95508977e-004 -1.11561106e-003 -3.13503173e-004 2.69945413e-005
      9.43176055e-005 -1.07252112e-004 3.49700567e-004 1.05824543e-003
      -1.19121652e-003 -3.10008654e-005 5.35146624e-004 -1.02708826e-003
      -1.82368472e-004 1.22199717e-005 7.76022571e-005 1.00052952e-004
      -2.22655552e-004 7.19014148e-004 -6.82964674e-005 8.20197398e-004
      -5.78021398e-004 -1.00033183e-003 -1.42280536e-004 2.65408762e-005
      9.00117666e-005 8.74387624e-005 2.29935104e-004 -1.03629648e-003
      3.87195731e-004 -6.37396181e-004 -4.48488776e-004 -9.47875495e-004
      -7.93109575e-005 7.87928075e-005 9.01996900e-005 9.94587172e-005
      1.23895064e-004 -3.02440603e-004 4.03686601e-004 -7.38941191e-004
      3.13766708e-004 -9.70192952e-004 -6.56644552e-005 6.11653304e-005
      8.14520317e-005 8.91855670e-005 1.46697043e-004 -3.85864463e-004
      3.60773352e-004 1.64749901e-004 -2.89271760e-004 -1.00699125e-003
      -1.92135034e-004 4.96520734e-005 9.33073024e-005 1.47287778e-004
      1.74576431e-004 -9.04015556e-004 4.75386507e-004 -8.71436961e-004
      5.28188713e-004 -1.02605508e-003 -1.69058316e-004 3.01603613e-005
      9.34952186e-005 1.40818665e-004 3.19528190e-004 -3.98369666e-005
      -7.78220012e-004 8.03812232e-004 1.56756578e-004 -1.08870259e-003
      -2.89505289e-004 4.24234531e-005 1.08610191e-004 3.29162198e-004
      -2.57512613e-004 6.13950891e-004 -1.36534846e-003 7.30740954e-004
      -2.84301728e-004 -7.48767750e-004 -5.60348213e-004 3.18230341e-005
      3.34447512e-004 1.95758301e-004 5.59006643e-004 -6.89012406e-004
      -6.64647785e-004 -2.23971481e-004 -3.14874596e-005 5.81269676e-004
      -7.63031247e-004 -4.95760818e-004 7.70542421e-004 2.09265374e-004
      -1.38338015e-004 -8.18483008e-004 2.89610703e-004 3.49962320e-005
      -4.24374040e-004 -4.09421737e-005 -5.92151227e-005 3.74959316e-004
      -6.00751489e-004 -6.76444324e-004 -5.40034438e-004
      -2.90423166e-004 -2.67952782e-005 3.66237145e-005</_>
    <_>
      8.06344615e-005 6.43743842e-005 -1.85058685e-004 3.73039249e-004
      -3.78563651e-004 -9.96209565e-004 -1.34063725e-004
      -7.93654544e-005 6.35826582e-005 8.91868549e-005 8.74731177e-006
      4.59893381e-005 -7.12200883e-004 -9.66383741e-005 2.96554003e-006
      1.87587895e-004 -5.05553871e-005 -7.02378806e-004 -2.14419779e-004
      6.13531811e-005 -1.93132873e-004 -6.75511197e-004 -2.75676372e-004
      7.14871130e-005 -2.70246062e-004 5.87272109e-004 1.06907908e-004
      -2.13645675e-004 -6.05716545e-004 -6.52298259e-005 3.47738154e-004
      -6.93482521e-004 -2.53849255e-004 9.09346709e-005 -5.10735612e-004
      -2.66444578e-004 6.77268545e-005 -2.29737387e-004 -7.14873546e-004
      -8.77161292e-005 1.36919087e-004 3.90961999e-004 -1.14657196e-004
      1.63365214e-004 -3.01080261e-004 -2.81334243e-004 5.79319094e-005
      -1.36991104e-004 3.84525047e-004 3.67841218e-004 -6.59469457e-004
      -7.44182733e-004 2.96941318e-004 -4.72297659e-004 2.68326199e-004
      3.96710129e-005 3.01545340e-004 2.89559888e-004 -7.34542438e-004
      -1.13453032e-004 -3.04398010e-004 -5.73895057e-004
      -7.03152909e-005 -1.82850690e-005 1.21442322e-003 1.22159394e-003
      -2.82389257e-004 -1.09436769e-004 -6.29786286e-004
      -3.04672751e-004 1.31874462e-004 -6.34916883e-004 5.08621015e-005
      7.77139940e-005 1.23306538e-003 1.21310726e-003 -3.79123667e-004
      5.55666229e-005 -6.08624774e-004 1.49004656e-004 -5.15740365e-004
      -8.76054808e-004 3.10166943e-004 -3.74146301e-004 3.79902398e-004
      1.49379441e-004 4.01947109e-005 4.77926980e-004 -8.32423917e-004
      -4.60980576e-004 5.87970542e-004 4.01751022e-004 -4.49053652e-004
      9.44605708e-005 -6.41936960e-004 -2.91663018e-004 2.64827453e-004
      -2.80652312e-004 3.95801006e-004 5.27885684e-004 3.71110291e-005
      -3.14997975e-004 -2.67789117e-004 4.21971345e-005 -1.37992465e-004
      -2.37641856e-004 1.11699446e-004 -7.47081867e-005 -5.39197761e-004
      2.38725901e-004 -2.97212770e-004 -8.36508640e-004 -3.62551946e-004
      5.14423700e-005 -2.73043115e-004 5.18097368e-004 7.11929461e-005
      -3.02547531e-004 -7.10348831e-004 -2.69217562e-004 3.81867940e-005
      4.90175094e-004 -6.98585704e-004 -1.30216984e-004 4.03979328e-004
      1.63541728e-004 -6.22274674e-005 -6.58633769e-004 1.76708680e-004
      7.33542111e-005 6.49828144e-005 2.82392830e-005 -1.62800527e-004
      4.77449648e-004 -1.05549162e-003 -9.99449519e-004 -3.52101488e-004
      -1.42000019e-004 5.78863473e-005 9.35366043e-005</_>
    <_>
      8.61158886e-004 1.12944108e-004 -2.69513170e-004 3.01561668e-004
      -6.82064972e-004 -7.04972306e-004 -2.22102914e-004
      -1.59135147e-004 7.87398385e-005 7.36387330e-004 5.54863873e-005
      -5.10321057e-004 -7.52006599e-004 -1.44481644e-004 4.44456637e-005
      -4.77500134e-006 -1.51509812e-004 -7.54564127e-004
      -8.26734933e-004 6.82736063e-005 -2.89297488e-004 -1.01732765e-003
      -5.80023217e-004 5.06301403e-005 5.91725075e-005 4.06076688e-005
      7.81935378e-005 -2.39064058e-004 -7.09307555e-004 -1.13231057e-004
      7.70674669e-004 -9.24454129e-004 6.78575248e-004 1.09436223e-004
      7.59544855e-005 5.90677737e-005 7.44356657e-005 7.25427817e-004
      -9.68141772e-004 -9.73033166e-005 3.54287477e-004 -8.72101518e-004
      -3.01757857e-004 9.01858788e-004 1.19764154e-004 6.62748353e-005
      2.03876029e-004 -1.88266044e-004 -8.46965122e-004 5.32989390e-004
      -5.25801675e-004 -8.12477607e-004 -1.01639540e-004 4.12964757e-004
      9.17350335e-005 -1.47442086e-004 -7.04319391e-005 -6.54077085e-005
      -8.02587485e-004 1.71962660e-004 -4.18605021e-004 -7.61291361e-004
      -3.21475636e-005 1.02765531e-004 3.74320516e-004 1.45070415e-004
      1.26341198e-004 -1.34109316e-004 -7.95516418e-004 -3.30703595e-004
      1.81352400e-004 -8.08015175e-004 -4.01139623e-005 9.27574511e-005
      3.03332403e-004 2.42528607e-004 1.35267721e-004 -1.30388857e-004
      -7.76643225e-004 1.53319008e-004 -3.40180559e-004 -8.26081552e-004
      -1.32122310e-004 -3.66268272e-004 -4.18968033e-004 1.44812468e-004
      -1.36545626e-004 -5.56831401e-005 -7.60193274e-004
      -2.86341383e-004 3.40624742e-004 -8.76558712e-004 -1.64093464e-004
      6.02902961e-004 1.16242794e-004 9.80047625e-005 6.20087842e-004
      -2.70816905e-004 -8.41447792e-004 6.24711101e-004 1.47432889e-004
      -8.70689575e-004 6.61946600e-004 1.81760712e-004 3.78385521e-005
      1.56198421e-005 1.55209840e-004 6.88599714e-004 -8.77447892e-004
      4.86790610e-004 -1.84352801e-004 -7.01669429e-004 -1.03107514e-003
      1.22185547e-005 1.88572212e-005 6.97032083e-005 -1.27517878e-005
      -6.65472995e-004 -4.99400601e-004 -1.74432440e-004 7.66719531e-005
      2.34085703e-004 -7.79127469e-004 -2.08679383e-004 -5.83845758e-006
      8.91160653e-006 -1.83766708e-004 -7.50493375e-004 3.22899868e-004
      1.44953854e-004 6.44118059e-004 8.26424512e-005 -2.37704997e-004
      6.21794083e-004 -6.34707336e-004 -5.97953680e-004 -4.13838308e-004
      -2.13627922e-004 1.04694278e-004 5.26405871e-004</_>
    <_>
      -2.36353071e-006 -1.10522167e-004 -2.76987877e-004
      -6.19261627e-005 -2.81244662e-004 -2.78053223e-004
      -2.60200555e-004 -2.71797471e-004 -9.83416830e-005 3.00749230e-006
      -1.13954527e-004 6.91638488e-005 1.57483901e-005 1.26902029e-004
      2.04807919e-004 1.95981047e-004 1.46393591e-004 5.60339176e-005
      2.41096677e-005 -1.05189174e-004 -1.92499836e-004 1.87277201e-005
      1.56600596e-004 2.87820614e-004 2.90969445e-004 2.95142847e-004
      2.92628800e-004 1.79754905e-004 1.32231056e-004 -1.66335638e-004
      7.54750772e-006 -1.53310211e-005 2.20245071e-004 2.86764902e-004
      2.93219113e-004 2.99463369e-004 2.92860932e-004 2.23994590e-004
      6.73261684e-006 -3.38340906e-004 -8.16331303e-005 -1.17469006e-006
      2.58235697e-004 2.91029370e-004 2.99783424e-004 2.92553741e-004
      2.95008038e-004 2.54055136e-004 9.08585662e-006 -1.91714134e-004
      -9.98116884e-005 2.89037257e-006 2.66955671e-004 2.91293720e-004
      3.01391177e-004 2.96106504e-004 2.98654864e-004 2.65611860e-004
      1.03054626e-005 9.27185101e-005 -8.15308013e-005 1.60330746e-005
      2.70811928e-004 2.95214471e-004 2.97088089e-004 2.96771468e-004
      2.95862061e-004 2.70017859e-004 1.10806013e-005 -9.40797763e-005
      -3.49767288e-005 1.05315621e-005 2.76553794e-004 2.94002239e-004
      2.92749115e-004 2.99548177e-004 2.96510756e-004 2.61023350e-004
      1.14051591e-005 -2.74131344e-006 -1.51053377e-004 5.87433715e-006
      2.60502187e-004 2.93765799e-004 2.96504411e-004 3.00475862e-004
      2.96737388e-004 2.68657750e-004 1.07808592e-005 3.29767354e-005
      -6.84723491e-005 1.73804642e-006 2.56389729e-004 2.91694887e-004
      2.93092802e-004 2.97825027e-004 3.01859895e-004 2.59458990e-004
      2.28855924e-006 7.94908556e-006 -9.28461741e-005 -1.30571766e-006
      2.21368260e-004 2.82125053e-004 2.84658454e-004 2.92918674e-004
      2.95933394e-004 2.25230629e-004 3.18032326e-005 -9.01076492e-005
      -1.33858033e-004 -3.69879854e-004 7.82928910e-005 2.77464715e-004
      2.91330332e-004 2.92740850e-004 1.81496420e-004 1.17441314e-005
      8.09475459e-005 -1.23311635e-004 -2.21503797e-005 5.54406543e-005
      -1.02530452e-004 1.40180520e-004 1.95382338e-004 1.97733389e-004
      3.34871693e-005 -1.26728541e-004 -6.35044635e-005 -3.35050463e-005
      -2.13655476e-005 -7.36338916e-006 -5.77646970e-005
      -2.38139633e-004 -3.67343397e-004 -2.19505819e-004
      -1.62345023e-004 2.87474304e-005 -2.64384744e-005 -1.53311139e-005</_>
    <_>
      1.19821361e-005 -2.35467469e-005 -1.94936409e-004 2.48878114e-005
      -4.44009929e-004 -4.55818808e-004 -9.32579351e-005
      -1.42324745e-004 3.40076716e-004 1.94926426e-004 -3.85630046e-005
      9.03611217e-005 -5.18039917e-004 -1.05672123e-004 2.79777487e-005
      5.12682982e-006 -8.73867903e-005 -5.06002456e-004 6.52611896e-004
      -7.43775890e-005 -2.21216091e-004 -5.65998082e-004
      -2.64520728e-004 2.89399054e-006 4.42115106e-006 3.10283467e-005
      1.34245187e-004 9.91585330e-005 -8.07725941e-004 -5.90774471e-005
      4.71484265e-004 -6.69357833e-004 -1.66323982e-004 -1.91415293e-005
      1.11130430e-005 2.75989005e-005 3.82502738e-004 -1.78395363e-004
      -6.28163514e-004 -1.27502091e-004 1.89688712e-004 -5.86941082e-004
      -1.27472056e-004 -1.66937989e-005 2.69445572e-005 -4.18965472e-004
      1.03947509e-003 -7.00680175e-005 -5.57449763e-004 3.54592805e-004
      -4.26380284e-004 -5.59516484e-004 -9.84686048e-005
      -8.52926496e-006 -7.66028388e-005 4.97074780e-006 -1.21990699e-004
      -4.81346287e-005 -5.39062486e-004 9.33630217e-005 -3.91442649e-004
      -5.22602466e-004 -6.51149967e-005 8.39300083e-006 -1.75504319e-004
      1.10401423e-003 1.66635309e-005 -9.29763555e-005 -5.36916603e-004
      -1.09786917e-004 1.06641492e-004 -5.33269253e-004 -6.70755253e-005
      -2.09696096e-004 1.08637952e-003 3.22325395e-005 1.72051114e-005
      -8.14435189e-005 -5.26740740e-004 1.04684688e-004 -1.02385624e-004
      -5.53693681e-004 -1.33781912e-004 -1.88669743e-004
      -4.77202702e-004 4.43032332e-005 1.28005768e-005 -7.30065367e-005
      -5.17735665e-004 -2.92042940e-004 2.50055367e-004 -5.92975586e-004
      -2.45151983e-004 1.06689683e-003 -2.08282399e-005 6.26905785e-006
      9.64040100e-006 -1.07832784e-004 -5.79004816e-004 3.65807384e-004
      -6.20191786e-005 -6.94219139e-004 8.10127822e-004 -2.74878083e-004
      2.18856803e-005 -9.40208338e-006 1.08370068e-005 -1.74870409e-004
      -6.38782512e-004 3.60406179e-004 -1.18437740e-004 -5.99531515e-004
      -1.95814864e-004 -2.62661069e-005 -7.71454961e-006
      -6.19415505e-006 -3.63330655e-005 -2.70518387e-004
      -5.14998159e-004 -1.50755659e-004 1.73222797e-005 1.16800307e-003
      -7.14296883e-004 -1.68889135e-004 -3.81332211e-005
      -3.05139911e-005 -1.42397606e-004 -5.29463694e-004 2.24847216e-004
      -3.14660042e-006 9.28744907e-004 -1.27470121e-004 -1.57074785e-004
      5.88439172e-004 -4.29371983e-004 -4.22304816e-004 -2.95490376e-004
      -1.50053020e-004 -3.29617214e-005 -2.05889069e-006</_>
    <_>
      6.40674698e-005 4.33131936e-005 -1.61430144e-004 3.15420999e-004
      -7.21179706e-004 -7.67783131e-005 -8.41772708e-005
      -8.40049906e-005 5.27631310e-005 7.82835559e-005 -5.90185209e-006
      7.28132072e-005 -6.17921178e-004 -6.87341890e-005 1.17634726e-003
      1.21525628e-003 -2.30361129e-005 -5.82161883e-004 -1.76049914e-004
      4.64048499e-005 -1.73707464e-004 -5.71597833e-004 -2.73133483e-004
      4.10348875e-005 4.38028364e-004 7.77772628e-004 9.05862980e-005
      -2.32383420e-004 -5.00426453e-004 -5.24832940e-005 5.92246826e-004
      -7.67897931e-004 -1.44826583e-004 1.77052807e-005 1.13712602e-004
      7.56894151e-005 7.15967908e-005 -1.28450047e-004 -7.53291417e-004
      6.90398019e-006 2.45268864e-004 -6.27495465e-004 -8.02767681e-005
      4.58571121e-005 6.62355669e-005 6.18125050e-005 6.77636199e-005
      -4.82101495e-005 -6.18832710e-004 3.86422820e-004 -3.53159819e-004
      -5.59108856e-004 -5.55930965e-005 4.81134266e-005 6.90521920e-005
      9.37580480e-005 1.01940794e-004 -8.05852233e-006 -5.47771051e-004
      1.44760648e-004 -6.04502624e-004 -5.79045678e-004 -3.23293934e-005
      -5.84486930e-004 -5.36984415e-004 -5.03013260e-004
      -4.83588374e-004 -5.93724719e-004 -1.08704576e-003 7.75874832e-006
      1.29202628e-004 -5.20888483e-004 2.95032060e-005 1.84410837e-005
      -1.31294888e-004 -1.46688559e-004 -1.80089279e-004
      -3.43259773e-004 -8.75036640e-004 -2.01445480e-004
      -2.60927947e-004 -5.47132397e-004 -5.42428788e-005 6.78030774e-005
      6.86055646e-005 8.60555883e-005 7.34177156e-005 -5.59890668e-006
      -5.41812507e-004 -1.81966490e-004 2.14926258e-004 -6.15941128e-004
      -6.26549518e-005 4.49496765e-005 7.14517664e-005 7.31670007e-005
      1.08069740e-004 -4.90112870e-005 -6.09144627e-004 4.46934107e-004
      1.55565678e-004 -7.45085301e-004 -1.44107791e-004 3.96539399e-005
      5.24019633e-005 5.79385232e-005 7.54293578e-005 -1.13676142e-004
      -7.36010494e-004 3.86733707e-004 -1.32123227e-004 -4.80308052e-004
      -3.10117553e-004 3.35389850e-005 6.56340213e-004 1.63090721e-004
      5.11695325e-005 -2.53724720e-004 -4.56191570e-004 -9.27368164e-005
      1.59900483e-005 3.78931058e-004 -5.82371780e-004 -9.34903728e-005
      1.13526464e-003 1.13132910e-003 -6.53859461e-005 -5.88023395e-004
      1.63771809e-004 5.12986117e-005 5.92873985e-005 2.20153888e-005
      -1.39020500e-004 4.58031718e-004 -1.04847434e-003 1.56827064e-005
      -2.38398468e-004 -1.22740908e-004 2.24853557e-005 6.24023887e-005</_>
    <_>
      8.42127120e-005 1.45907456e-004 -6.93349051e-004 1.75873327e-004
      -3.29485134e-004 -6.92497881e-004 -1.02770259e-003 3.03916750e-004
      -1.58525116e-004 8.46726180e-005 8.30035060e-005 1.04347149e-004
      -8.29684432e-004 -2.33608705e-004 1.75087349e-004 -1.00652447e-004
      -1.20292010e-004 2.50435405e-004 -9.15639510e-004 1.04500316e-004
      -9.90679182e-005 3.81297170e-004 -4.29229141e-004 4.96360772e-005
      7.69273611e-005 7.56548034e-005 1.21306242e-004 -3.45410488e-004
      2.70683755e-004 -3.11806143e-005 5.54231228e-004 1.77488109e-004
      1.29297841e-005 5.65873161e-005 7.84801887e-005 6.83029430e-005
      5.21050570e-005 -1.37672294e-004 -8.11918522e-004 -5.69910510e-004
      6.11975673e-004 2.47020595e-004 -9.36992001e-005 2.45989650e-004
      2.52287136e-004 1.04530845e-004 4.14970091e-005 -7.98534165e-005
      -1.01681030e-003 2.59332417e-004 -3.59095080e-004 -1.18852197e-003
      9.58739023e-004 -9.23459811e-005 -1.81529991e-004 2.57610023e-004
      1.53234374e-004 -3.80404454e-005 -7.17882824e-004 1.64381010e-004
      -3.94070667e-004 -5.53145830e-004 6.55379554e-005 8.62810237e-004
      1.11715414e-003 7.90785649e-004 -1.08257642e-004 6.57394339e-005
      -6.76969124e-004 -2.47330492e-004 2.25363343e-004 -7.09464191e-004
      3.11310723e-005 2.84537353e-004 -2.09032194e-004 -2.91378616e-004
      -4.76370769e-006 9.54122224e-004 -6.97067473e-004 2.09365535e-004
      -2.63927563e-004 -7.40484160e-004 -1.00420977e-004 1.20410863e-004
      1.01098907e-004 1.49522297e-004 2.30581092e-004 1.88812221e-004
      3.21295258e-004 -3.73861752e-004 -8.72594173e-005 -9.76022857e-004
      -1.14750772e-004 3.59953228e-005 4.68781982e-005 1.54813170e-004
      1.08747081e-004 4.18415220e-005 -8.50426441e-004 1.14872854e-003
      -1.05864885e-004 -5.21337846e-004 -2.89247419e-005 4.34036338e-005
      4.93845291e-005 1.02313730e-004 6.21364743e-005 -6.54096075e-005
      -1.86689210e-003 5.78075240e-004 -3.35381483e-004 1.60893556e-004
      2.64638584e-005 1.67759135e-004 8.36146573e-005 6.00426465e-005
      3.16975602e-005 -1.38480187e-004 -2.73125246e-004 3.36182529e-005
      1.37046765e-004 6.90036046e-004 2.10178056e-004 2.90909520e-004
      -1.15417475e-004 -2.19410897e-004 -3.14901437e-004
      -6.33196731e-004 9.46310349e-004 6.67200584e-005 1.28270869e-004
      -7.10412627e-004 -4.46592516e-004 6.28168636e-005 -9.77333169e-004
      -2.51997466e-004 2.61774316e-004 -4.06463427e-004 1.25011473e-004
      7.47263548e-005</_>
    <_>
      -4.52978966e-005 -2.06530560e-004 -3.43968684e-004 8.77227343e-004
      3.02129280e-004 -2.83399597e-004 2.46041054e-005 -2.18221423e-004
      -2.75972525e-005 1.22551182e-006 -5.96564860e-005 -3.32067488e-004
      -3.77162709e-004 1.00928461e-004 2.61790788e-004 3.28362948e-004
      -5.74009609e-004 -4.62016527e-004 -2.25060881e-004
      -4.55868212e-005 -2.38247972e-004 -5.07401011e-004
      -2.88490817e-004 -3.67621979e-005 -2.71268200e-005
      -4.56104608e-005 -1.45945087e-005 -2.68778967e-004
      -4.69633524e-004 -1.56439055e-004 4.10650187e-004 -5.83348097e-004
      -1.83423472e-004 -5.49011747e-005 -1.80340630e-005 2.11680381e-005
      -2.29222533e-005 -1.93251864e-004 -6.00576575e-004
      -1.10553025e-004 2.01900955e-004 -5.63474430e-004 -1.17467906e-004
      -1.25827992e-005 5.57656022e-005 -1.16831852e-005 -5.53730706e-006
      -1.25167993e-004 -5.62798232e-004 3.07351584e-004 -5.91047341e-004
      -5.74199716e-004 -7.05535858e-005 6.98026037e-004 6.82890881e-004
      4.15477058e-004 -4.39297233e-004 -1.36993840e-004 -5.25339739e-004
      9.37106670e-005 -1.85658238e-004 -3.61701474e-004 -9.90396511e-005
      5.32119535e-004 6.88286324e-004 -9.88480042e-006 3.53931246e-005
      -1.33837879e-004 -5.25422220e-004 -2.22793111e-004 1.58517229e-004
      -5.21434704e-004 -1.45957683e-005 -3.28572205e-004 7.56235386e-004
      4.33271780e-004 -1.35152168e-005 -1.38755655e-004 -5.42842376e-004
      7.61101401e-005 -2.23190204e-004 -5.21016424e-004 -1.10665133e-004
      -3.42259969e-004 7.16363080e-004 4.15358285e-004 -4.07408428e-004
      -9.71321497e-005 -5.11444116e-004 -1.75224835e-004 1.70583968e-004
      -5.58365718e-004 -1.36889139e-004 -3.90603993e-004 7.47135957e-004
      4.92417603e-004 8.54635146e-005 -1.01772908e-004 -5.18076529e-004
      3.95704497e-004 4.01623947e-005 -5.09849458e-004 -1.40981690e-004
      1.38923235e-004 4.42150515e-004 4.52925742e-004 1.34776739e-004
      -1.61074524e-004 -5.42174559e-004 2.42127979e-004 -1.94186709e-004
      -4.35299648e-004 -3.13838129e-004 -3.40655271e-004 4.15420713e-004
      3.93914641e-004 -3.28387920e-004 -2.61839537e-004 -3.74329771e-004
      -1.57823248e-004 -7.36526272e-005 2.66669231e-004 -4.86087461e-004
      -2.27556520e-005 4.11082932e-004 3.78925644e-004 1.05401356e-004
      -4.62771772e-004 8.08008845e-005 -2.87961739e-005 -6.01118139e-004
      2.79057684e-004 3.25458444e-004 9.39143647e-004 2.67001858e-004
      2.52147933e-004 2.99547770e-004 5.20440692e-004 6.51881273e-004
      -5.21675509e-004</_>
    <_>
      1.20351840e-004 -4.40558826e-004 -2.60206551e-004 5.13954263e-004
      -3.00313492e-004 -5.39351080e-004 6.36661774e-004 -1.75247013e-004
      5.24976022e-005 3.32093841e-005 2.08763609e-004 1.09025638e-003
      -7.11759960e-004 -2.64488772e-004 6.21334999e-004 -7.40276533e-004
      -6.14206190e-004 4.15852090e-004 -2.39438552e-004 1.03423481e-005
      -1.92429245e-004 -1.03566993e-003 2.92815588e-004 2.81730114e-004
      1.35860464e-004 2.96910112e-005 1.98096677e-004 4.59726667e-004
      -7.54050852e-004 -1.34529124e-004 7.48542545e-004 -9.15959943e-004
      -2.45117844e-005 7.94181979e-005 5.71641103e-005 4.86586869e-005
      9.21150931e-005 5.09528269e-004 -9.63337370e-004 -5.46120646e-006
      3.95743933e-004 -9.22588864e-004 -1.75885900e-004 2.30954774e-005
      4.46994418e-005 3.08169911e-006 4.67330428e-005 3.48702655e-004
      -8.88145994e-004 5.84502297e-004 -3.68956069e-004 -8.90469120e-004
      1.43488302e-004 1.30058224e-005 3.09664647e-005 1.92311018e-005
      7.60171606e-005 4.28101717e-004 -8.24280491e-004 2.44814146e-004
      -2.50433775e-004 -8.53286765e-004 7.44086574e-004 3.76137432e-005
      2.68851254e-005 2.02396441e-005 6.79129444e-005 3.95915325e-004
      -8.04245065e-004 -3.37287114e-004 1.86917183e-004 -6.27766829e-004
      3.94394709e-004 6.29751157e-005 3.31546034e-005 2.36122760e-005
      6.51813534e-005 4.06181323e-004 -7.79005350e-004 2.08507539e-004
      -3.81159160e-004 -6.64575316e-004 3.07042472e-004 5.07349323e-005
      3.61122693e-005 4.71520143e-005 3.41064733e-005 4.33015666e-005
      -7.59097456e-004 -9.20879029e-005 3.22234002e-004 -6.65832078e-004
      3.22164240e-004 3.24206303e-005 1.37386560e-005 2.01015464e-005
      6.95392155e-005 3.96264280e-004 -8.14373605e-004 6.74251583e-004
      2.83084431e-004 -1.15583243e-003 -1.05384308e-004 3.31409865e-005
      2.68328731e-005 -6.74617149e-006 7.37098162e-005 -9.78214375e-005
      -9.08190035e-004 4.02944104e-004 -2.24043062e-004 -4.47990635e-004
      -6.64191102e-005 5.58963766e-005 2.42632086e-005 -5.97001929e-007
      4.01735269e-005 -2.29859623e-004 -7.90960155e-004 -1.67010265e-004
      -3.29982664e-004 7.71435210e-004 2.46317446e-004 -4.08023159e-004
      3.37015663e-005 1.64269659e-005 -4.55504050e-004 2.42451861e-004
      7.19692966e-004 -2.61034060e-004 7.33092369e-004 -1.82956108e-004
      -3.96183052e-004 5.14840242e-004 -7.81113748e-004 -4.78952075e-004
      -4.54377296e-004 -6.93415815e-004 -4.90588660e-004
      -1.75257403e-004</_>
    <_>
      1.58963856e-004 1.20084202e-004 -2.80812674e-004 -3.23928864e-004
      4.98415393e-005 -5.59722655e-004 -2.57337932e-004 -5.81139117e-004
      4.43231664e-004 3.34204349e-004 5.12423139e-005 1.92157517e-004
      -7.10715016e-004 1.83882352e-004 -1.64625279e-004 6.91370360e-006
      7.25925434e-004 7.14081863e-004 7.91649916e-004 5.35982661e-004
      -3.07107635e-004 -2.01734481e-003 8.72079399e-005 3.64205072e-004
      2.34683641e-004 2.57396343e-004 1.97782123e-004 -9.68410459e-005
      8.88013281e-004 -1.92529638e-004 1.05142919e-003 2.68537464e-004
      -1.82252134e-005 2.08206809e-004 2.99549574e-004 2.81841261e-004
      2.58645014e-004 5.59412816e-004 4.13934409e-004 -6.45057182e-004
      -6.96852512e-004 2.58358632e-004 1.32234010e-004 1.49206593e-004
      1.60566677e-004 1.38782954e-004 1.67693885e-004 -3.70885828e-004
      -1.93548016e-003 9.00367973e-004 -2.61316454e-004 -1.68715010e-003
      -3.16253354e-005 1.33273730e-004 1.64748533e-004 1.55915041e-004
      1.76758331e-004 -6.17620899e-005 -1.37427554e-003 1.62694225e-004
      6.56320888e-004 -5.71899698e-004 5.71775308e-005 2.39281537e-004
      1.78353934e-004 2.00159920e-004 1.53776215e-004 -8.59792417e-005
      -1.28756172e-003 -5.51093312e-004 8.03630857e-004 -5.91029471e-004
      6.73589166e-005 2.27553566e-004 1.64462093e-004 1.57777511e-004
      1.34183792e-004 -1.31098044e-004 -1.30522321e-003 1.54784051e-004
      2.31729318e-005 -1.30146183e-003 -7.89345086e-006 2.31118189e-004
      1.83957905e-004 2.60754925e-004 1.71253487e-004 -2.80212043e-005
      -1.28564169e-003 -5.62974601e-004 1.99994713e-004 2.02910480e-004
      2.36688444e-004 2.06974481e-004 2.04235272e-004 2.57183507e-004
      2.44529976e-004 -5.08191115e-005 -1.49055151e-003 1.05892960e-003
      4.31347493e-004 5.23936411e-004 -7.21382035e-004 2.49516132e-004
      1.67888036e-004 2.18366360e-004 2.77968880e-004 -2.12153449e-004
      -1.86462980e-003 9.07499343e-004 -5.80880442e-005 -1.50232619e-004
      5.70186239e-004 1.15187700e-004 2.72319943e-004 2.45165022e-004
      1.95273446e-004 -4.83644049e-004 -1.40463654e-003 -1.08731922e-003
      1.34401387e-004 9.62716993e-004 4.29822045e-004 1.57020334e-003
      1.05942263e-005 -1.10030393e-004 -2.35974265e-004 -2.19164090e-003
      -8.36183550e-004 2.77890824e-004 1.66541024e-004 1.45181635e-004
      1.40725853e-004 8.32809019e-004 2.64989765e-004 7.55273737e-004
      -1.66942278e-004 -7.04626844e-004 2.45061587e-004 1.93918837e-004</_>
    <_>
      1.54121110e-004 -2.95891456e-004 -1.46559149e-003 -2.24477984e-003
      -5.90094598e-004 -1.56912010e-003 1.78440765e-003 -2.14296323e-003
      6.34782133e-004 3.33686854e-004 5.88771945e-004 -7.48243649e-004
      -5.50110184e-004 5.98045473e-004 3.44588375e-003 2.17144331e-003
      6.56388758e-004 -1.30740646e-003 -5.86301903e-004 2.06648256e-004
      -3.84327868e-004 -2.92156008e-003 -1.33953243e-003 4.07440122e-004
      1.45309343e-004 1.39220734e-004 5.29393787e-004 4.98377776e-004
      -2.55192211e-003 1.02619677e-004 3.99499666e-004 -7.40635849e-004
      -2.79160566e-004 5.46057709e-004 6.34247845e-005 2.38438879e-004
      4.53220098e-004 8.92603071e-004 -1.08598918e-003 -2.95220292e-003
      1.58070424e-003 3.19971179e-004 -1.59132935e-004 5.07923018e-004
      3.48400245e-005 1.96847934e-004 6.64735780e-005 2.16729430e-004
      -1.82469015e-003 3.59517778e-003 2.44198134e-003 7.74653745e-004
      -5.49219898e-004 6.04350294e-004 4.69166378e-004 2.36690234e-004
      2.77423504e-004 -5.94190824e-005 -1.17715914e-003 2.23316508e-003
      2.49060569e-003 5.41249290e-004 1.94483218e-004 7.08323787e-004
      2.76977458e-004 5.05489006e-004 2.98139435e-004 -1.56228343e-004
      -1.91577442e-003 1.86436495e-003 1.29882910e-003 -1.05924883e-004
      1.73998487e-004 2.11793275e-004 3.37002246e-004 4.91064740e-004
      2.01851450e-004 -3.60810314e-004 -1.41329120e-003 2.21384619e-003
      -3.79806315e-003 9.18908860e-004 -5.09682344e-004 1.50356544e-004
      2.23907031e-004 9.82767902e-004 5.99728337e-005 -5.07436998e-005
      -1.43788802e-003 6.79654360e-004 -5.49302902e-003 -2.23785100e-004
      1.45036494e-003 3.29469971e-004 3.49342125e-004 1.36842229e-003
      1.16970987e-004 1.17096619e-003 -1.05354434e-003 5.08098863e-003
      4.94558015e-004 -9.50215617e-004 6.32078212e-004 4.57931339e-004
      3.41685198e-004 2.71145749e-004 2.83191941e-004 1.92800956e-003
      -9.61457845e-004 7.37182237e-003 2.16865126e-004 -3.34615732e-004
      1.96390529e-003 8.93698540e-004 2.06381286e-004 2.79455562e-004
      3.15383571e-004 8.65672133e-004 -1.14188369e-004 6.99381577e-004
      7.60165567e-005 -4.06563794e-003 -1.26364769e-003 1.76214450e-003
      1.40180276e-003 1.38127804e-003 8.65921378e-004 -1.02002267e-003
      2.23317213e-004 4.20247758e-004 5.16277214e-004 5.78950625e-004
      -1.58959912e-004 -2.98810611e-003 -2.84296228e-003
      -2.68658996e-003 -3.30857188e-003 1.70698529e-003 3.73933290e-004
      4.38140007e-004</_>
    <_>
      1.14506793e-005 -8.78320861e-006 -2.51234131e-004 1.39677897e-004
      -6.11436844e-004 -7.07930129e-004 -1.92674197e-004
      -1.89215541e-004 2.21329665e-005 7.38467788e-005 -7.51436164e-005
      1.72576139e-004 -6.01414882e-004 3.03292385e-004 2.98780651e-004
      7.49090177e-005 -1.50376974e-004 -8.53472215e-004 -3.19249200e-004
      4.26850856e-005 -2.93230085e-004 -6.81623409e-004 -1.03700336e-003
      3.84585932e-004 3.27728019e-004 1.17916425e-004 1.19828161e-004
      -4.07908636e-004 -7.28190178e-004 -1.26181316e-004 2.21315349e-004
      -1.69228739e-003 7.51503103e-004 -1.33903653e-004 5.48646320e-004
      3.13884666e-004 -7.09158718e-004 -1.13478664e-003 -1.69770606e-003
      -1.05077241e-004 6.74735813e-004 -5.46373834e-004 -6.54487696e-004
      3.79405945e-004 6.58503384e-004 2.19639624e-004 1.85810277e-004
      1.54838858e-006 -8.37534899e-004 7.19395000e-004 -5.97397913e-004
      -5.60071028e-004 -4.49799147e-004 3.87567619e-004 3.14200646e-004
      1.36816103e-004 8.83247558e-005 -1.12746624e-004 -8.76110513e-004
      2.99054373e-004 -5.30798163e-004 -5.23906027e-004 -3.84374202e-004
      3.96320102e-004 3.14625766e-004 1.26806422e-004 9.56560834e-005
      -1.09659813e-004 -8.87219328e-004 -1.38985793e-004 3.20280640e-004
      -5.34553837e-004 -4.30809043e-004 3.89455876e-004 3.40514001e-004
      1.24215672e-004 1.00051671e-004 -7.19834425e-005 -8.69937649e-004
      2.83032685e-004 -1.39621072e-004 -5.66696574e-004 -5.51016186e-004
      4.17472125e-004 3.55933560e-004 1.77392183e-004 1.17698357e-004
      -4.19172720e-005 -8.23546026e-004 -3.59216298e-004 5.17773908e-004
      -6.70657959e-004 -5.26058779e-004 3.77874967e-004 1.55339454e-004
      1.16770614e-004 1.09273467e-004 -9.33840493e-005 -9.23924905e-004
      7.93299987e-004 -1.79849958e-005 -7.08732347e-004 -6.87118678e-004
      3.92140384e-004 3.49150796e-004 9.41694743e-005 7.09264423e-005
      -2.03192394e-004 -1.00229541e-003 6.95572351e-004 -2.12066981e-004
      -3.23076092e-004 -8.58087384e-004 3.05720430e-004 3.59941594e-004
      1.26054278e-004 2.14757729e-005 -3.94318078e-004 -6.97760144e-004
      -2.25470212e-004 2.69752363e-005 5.50407043e-004 -1.33384462e-003
      7.85174896e-004 8.05612304e-004 3.16217483e-004 -4.20681572e-005
      -5.87677932e-004 1.61809876e-004 1.26608546e-004 8.94914701e-005
      5.75631602e-005 -1.23354530e-005 -1.99351751e-004 -3.78087774e-004
      2.66030169e-004 -2.32259627e-005 -1.12635780e-006 3.16303689e-004
      1.81056530e-004</_>
    <_>
      -7.11689863e-005 -3.66700588e-005 -1.87490514e-004
      -4.63711949e-005 -3.80371319e-004 -4.18382639e-004
      -6.47663372e-004 -1.57959134e-004 -4.55585177e-005
      -4.56849775e-005 1.07774416e-004 7.18118972e-005 -2.64815841e-004
      -3.35574005e-004 2.93464313e-004 1.02580874e-004 -3.34791548e-004
      -1.05364702e-003 -2.99078703e-004 -7.10686145e-005
      -1.09998370e-003 1.45564743e-004 -9.92220361e-004 -5.11133258e-005
      -6.25491448e-005 5.39043458e-006 2.65126058e-004 5.51735982e-004
      -5.51464793e-004 -2.06270008e-004 -1.86334291e-004
      -2.01500923e-004 -2.29326019e-004 4.85065757e-005 -7.28943996e-005
      -2.69130396e-005 1.21402227e-004 3.35570774e-004 -1.00594177e-003
      -1.52655746e-004 3.85636318e-004 -8.12919636e-004 -2.27758632e-004
      5.82598586e-005 -4.32751804e-005 -3.55093653e-005 8.69374271e-005
      4.27211402e-004 -9.26797919e-004 5.94786776e-004 -2.36507156e-004
      -8.60924367e-004 -2.22301780e-004 7.29436288e-005 6.67038912e-005
      1.33125959e-005 -3.08717827e-005 3.99812590e-004 -9.14658362e-004
      2.24893913e-004 -4.48781997e-004 -7.84428674e-004 -7.28931846e-005
      -5.34739986e-004 2.22133094e-005 4.94657259e-004 2.84070382e-004
      6.91658119e-004 -9.09336377e-004 -2.01277318e-004 1.78289323e-004
      -7.84731412e-004 4.93728498e-004 5.26889053e-004 2.20787100e-004
      1.24970480e-004 1.43730940e-004 7.24093290e-004 -9.66822146e-004
      2.03286647e-004 -1.60707990e-004 2.26735883e-005 3.04798828e-004
      8.44302995e-005 -2.53123417e-005 2.50840938e-004 8.50402794e-005
      6.74985000e-004 -8.58659798e-004 -2.54368817e-004 -3.58910591e-004
      3.22453940e-004 2.28121877e-004 -6.45473556e-005 -1.54891732e-005
      2.13305932e-004 9.98380128e-005 6.47942827e-004 -9.09220311e-004
      6.87976484e-004 8.46399344e-004 -1.09870216e-005 -3.09878349e-004
      -8.84716355e-005 -5.22616792e-005 -4.48053215e-005 1.13868962e-004
      5.73490979e-004 -9.42530751e-004 4.48911684e-004 -1.10459063e-004
      3.25118832e-004 -4.08888998e-004 -1.18167940e-004 -6.00862368e-005
      -1.56550968e-007 4.03742044e-004 4.51565225e-004 -7.31175067e-004
      -2.00916737e-004 -1.43646073e-004 1.20028260e-003 -2.11341161e-004
      -1.46456907e-004 1.19642536e-004 6.14891935e-004 -1.26628191e-004
      1.31274093e-004 -8.43289745e-005 8.12099752e-005 3.54350523e-005
      -1.66628102e-004 -2.11928374e-004 1.49985706e-003 -9.24539287e-004
      -5.95591089e-004 -2.84396578e-004 4.23328398e-004 -2.86451905e-005
      -6.35298638e-005</_>
    <_>
      5.42814727e-004 -2.17687775e-004 -2.05691307e-004 4.56915441e-004
      -4.71614971e-004 -1.86454679e-004 2.17183711e-004 2.27048222e-004
      3.82252241e-004 -1.96369205e-004 -2.30114209e-004 2.52851081e-004
      3.25520959e-004 1.10115194e-004 2.68009928e-004 2.50047015e-005
      -2.24010771e-004 8.12143626e-005 -2.76851264e-004 -1.32295972e-004
      -2.66291259e-004 -4.56427922e-004 4.09328524e-004 -1.66496946e-004
      -4.12187801e-005 -3.92989386e-005 -3.07825772e-004
      -1.60538737e-004 -4.82841278e-004 -1.58816474e-004 4.24521946e-004
      -6.44300948e-004 -5.89937903e-004 9.02502099e-004 5.92830183e-005
      -5.38481117e-006 7.40421587e-004 -1.90681953e-004 -6.41007209e-004
      -1.15182564e-004 1.74846151e-004 -6.42037659e-004 -9.21443134e-005
      8.32158781e-004 1.12551563e-004 -1.63251199e-004 -9.21964529e-005
      -1.80782998e-004 -5.86257840e-004 3.31295189e-004 -4.52839085e-005
      -6.23989967e-004 -1.26820873e-004 2.29717392e-004 8.74496181e-004
      3.92173213e-004 -4.45838341e-005 -1.45790851e-004 -5.73540048e-004
      9.99363619e-005 -3.05658148e-004 -5.78441599e-004 -1.26634870e-004
      1.44808815e-004 7.58452399e-004 2.05943739e-004 -3.52298593e-005
      -1.55703659e-004 -5.82577952e-004 -2.34289153e-004 5.45000476e-005
      -5.99225110e-004 -1.13945935e-004 -7.75095032e-005
      -4.46421443e-004 8.24208721e-004 1.51419808e-004 -1.26772167e-004
      -5.79806918e-004 6.64123872e-005 -2.61864188e-004 -6.20279461e-004
      -1.62938872e-004 -4.21935110e-004 -1.33507237e-005 3.64473235e-004
      -3.20909749e-004 -9.80270052e-005 -5.66970208e-004
      -1.98291484e-004 1.93136162e-004 -4.05605213e-004 1.53756788e-004
      2.69077369e-004 -4.04546008e-005 4.49879997e-004 7.86204881e-004
      -3.72765098e-005 -5.89126605e-004 4.48686478e-004 -1.67983017e-005
      -6.33656688e-004 -7.52866385e-004 -2.75604514e-004
      -5.29354475e-005 -2.83401423e-005 4.63429460e-004 -1.75452631e-004
      -5.81659086e-004 2.76991748e-004 -2.34332401e-004 -4.06584848e-004
      4.71817984e-005 -9.09783557e-005 -4.22957091e-005 -5.71302517e-005
      4.00872195e-005 4.86322300e-004 -5.19448484e-004 -1.67495455e-004
      -1.86780875e-004 4.48990759e-004 -2.17909648e-004 -2.89790769e-004
      -9.57438897e-005 -4.87090256e-005 -2.15063585e-004 2.49055302e-004
      8.54375947e-004 -9.85006191e-005 6.66444073e-004 4.39303229e-004
      3.28757655e-004 2.79467167e-005 -4.16842318e-004 -3.94460658e-004
      4.32995075e-005 -1.19096039e-004 -4.37250768e-004 -4.18755721e-004</_>
    <_>
      1.17146425e-004 2.16980654e-004 1.01690915e-004 3.87909851e-004
      -4.67777369e-004 -3.60537524e-004 -1.99912465e-004 2.09537866e-005
      5.06458513e-004 6.55760930e-004 -1.76906804e-004 4.66040947e-004
      5.05326316e-004 -1.92934880e-004 1.74111905e-004 1.98397938e-005
      -3.80236597e-005 -9.35469288e-005 -1.97449481e-004 3.26297522e-005
      -2.80486798e-004 -4.76916030e-004 6.76232332e-004 2.44861149e-004
      -6.46069338e-006 1.23980844e-005 -7.97849589e-006 3.58598802e-004
      -4.49081941e-004 -1.52802240e-004 5.93052828e-004 -6.79487130e-004
      1.95519460e-004 3.80765159e-005 -1.93256401e-005 7.37900655e-006
      -3.63070285e-004 -2.99037580e-004 -7.03252619e-004
      -1.50972148e-004 2.76897918e-004 -6.88062632e-004 -2.49918172e-004
      1.14599115e-003 9.67950618e-005 -3.34814249e-005 8.13070437e-005
      3.69045702e-005 -6.88614848e-004 4.21226752e-004 -2.52697588e-004
      -6.76763593e-004 -1.10509616e-004 1.07476069e-003 1.41927972e-004
      -4.71411731e-005 3.44991167e-005 -1.02620521e-004 -6.45967841e-004
      1.87604164e-004 -3.42580810e-004 -6.53708878e-004 -9.05183115e-005
      2.83044519e-005 2.06594530e-004 -1.28322950e-004 3.08806862e-004
      -1.30079090e-004 -6.40465936e-004 -1.82238087e-004 1.49944419e-004
      -6.71532180e-004 -9.39932361e-005 5.52358433e-005 1.07909995e-003
      3.07542185e-004 -1.88073445e-005 -1.72505199e-004 -6.67837856e-004
      1.72971952e-004 -2.15433131e-004 -7.04726262e-004 -1.85134515e-004
      1.16673364e-005 1.63839664e-004 1.00714888e-003 2.38318298e-005
      -1.24717058e-004 -6.25736080e-004 -2.22506453e-004 3.15538258e-004
      -5.99884312e-004 -2.74605427e-005 -3.39146281e-005
      -4.62116848e-004 2.78057269e-004 1.91592953e-005 -1.67213730e-004
      -6.90036104e-004 5.40719717e-004 2.82652345e-005 -7.08780077e-004
      -2.56300991e-004 -6.14938472e-005 1.51910339e-004 -1.95531626e-004
      -9.80569894e-006 -2.29019701e-004 -6.97457232e-004 3.39854276e-004
      -2.17961438e-004 -9.57656244e-004 -2.37753338e-004
      -9.31098621e-005 6.27714850e-004 3.74956908e-005 -8.27741605e-005
      -3.48123664e-004 -5.42965136e-004 -1.92522872e-004
      -2.12761170e-005 1.28204015e-003 4.93165280e-004 -3.47867463e-005
      1.97160727e-004 -5.02306684e-005 -1.89256258e-004 -5.83115849e-004
      1.51950051e-004 -2.40995887e-005 1.80179250e-005 -3.60112317e-004
      7.90075457e-004 9.33158677e-004 -3.97609372e-004 -4.50983585e-004
      -3.74072668e-004 -1.55713613e-004 -2.32740513e-005
      -2.30893329e-005</_>
    <_>
      -7.27449806e-005 -1.95783650e-004 -2.75702972e-004 6.57814671e-004
      -1.59532763e-004 1.44866775e-004 1.30022687e-004 1.34420465e-004
      2.38421650e-004 -6.94715360e-004 3.95817406e-005 2.84456997e-004
      2.02226787e-004 9.04002954e-005 2.59352528e-004 -5.04092641e-005
      -2.49765726e-004 2.19182286e-004 5.26274613e-004 -1.64018740e-004
      -3.06906441e-004 -9.13932818e-005 -5.76396342e-005
      -5.23129202e-005 -7.91777056e-005 -6.01192442e-005 1.76838555e-004
      5.08689845e-004 -3.74272873e-004 -1.90480860e-004 1.74609595e-004
      -3.40043625e-004 -2.28593301e-004 3.14010431e-005 -8.48070486e-005
      -9.10455856e-006 7.06219929e-004 6.69094792e-004 -6.62273495e-004
      -2.14290339e-004 -6.98026561e-004 -7.25394581e-004
      -2.36317472e-004 5.01703107e-005 -4.95855747e-005 -5.43729402e-004
      7.69229257e-004 -1.78269955e-004 -6.86294632e-004 3.28807510e-004
      -3.58690231e-005 -6.61241880e-004 -2.17755922e-004 4.34818176e-005
      -9.25488530e-006 7.24328158e-004 -5.30493271e-004 -1.85348443e-004
      -6.35100820e-004 9.66812368e-005 -4.13342175e-004 -6.58903155e-004
      -1.79058057e-004 6.01614156e-005 -2.02139126e-004 8.27672658e-004
      -1.30382559e-005 -2.29544894e-004 -6.67013635e-004
      -1.71573978e-004 8.09897901e-005 -6.76531286e-004 -1.80974617e-004
      -1.98911002e-004 7.85711280e-004 1.17578660e-004 -5.12062943e-005
      -2.05924109e-004 -6.68356312e-004 7.51937187e-005 -2.09087622e-004
      -6.63492072e-004 -2.62356596e-004 6.88679400e-004 7.84068310e-004
      3.32821452e-004 -7.10832683e-005 -1.83230804e-004 -6.31395844e-004
      -4.14235488e-004 2.52714002e-004 -3.99879093e-004 3.87541077e-004
      7.53653352e-004 -3.54860022e-005 2.43909628e-004 -6.67118438e-005
      -2.01852716e-004 -7.42167700e-004 -2.06065699e-004
      -1.10957175e-004 -8.70757503e-004 4.70350264e-004 -5.04717580e-004
      -5.52267338e-005 -1.07396598e-004 -8.13356019e-005
      -2.64082541e-004 -3.62713065e-004 2.67516356e-004 -3.22871550e-004
      -2.61189824e-004 2.75256549e-004 -5.01362119e-005 -9.37173900e-005
      -8.22503134e-005 -1.15380630e-004 -2.79934146e-004
      -7.50371895e-004 -1.57886374e-004 -2.94526748e-004 9.05220106e-004
      -9.57832090e-005 -3.27532354e-004 -1.63802077e-004
      -1.38171876e-004 -2.54840677e-004 3.75639756e-005 6.63196144e-004
      -2.81726334e-005 4.81903873e-004 2.81145360e-004 -2.33511542e-004
      4.06619307e-004 -6.02137530e-004 -5.88811527e-004 -1.82477597e-005
      2.79842265e-004 3.23070912e-004 -2.21695927e-006</_>
    <_>
      -2.16066073e-005 -1.28373122e-005 -1.34864909e-004 1.83853743e-004
      -4.04627906e-004 -2.45886215e-004 -1.59320931e-004
      -1.31243884e-004 -3.20515392e-005 -2.70573455e-005
      -5.62571920e-004 4.63824224e-004 1.48296211e-004 -1.31226872e-004
      1.29261578e-004 -2.02073370e-005 -1.34273505e-004 -4.60792246e-004
      -1.96337336e-004 -5.19450841e-005 -1.62677956e-004
      -5.42503607e-004 3.62387567e-004 -4.90323764e-005 -5.91831013e-005
      -6.19562634e-005 -5.40805449e-005 -2.45715171e-004
      -3.98890668e-004 -1.18980483e-004 2.71348836e-004 -7.02462799e-004
      4.63332253e-004 6.27575810e-006 -5.21929942e-005 -3.87625623e-005
      -4.73511209e-005 -1.59584088e-004 -5.77064988e-004
      -5.94027260e-005 4.80085946e-005 -6.32420939e-004 3.94204224e-004
      2.70549135e-005 -2.65591862e-005 -7.72870262e-005 -1.75292043e-005
      -6.87668653e-005 -4.61622578e-004 9.64443898e-005 -1.32657355e-004
      -5.53108170e-004 -1.35679889e-004 1.47610830e-004 5.30040590e-004
      4.49423707e-004 4.72005282e-004 4.90849197e-004 -5.66091097e-004
      -6.26409164e-005 -2.37031825e-004 -5.46817202e-004 5.21714683e-004
      -2.50510318e-004 -4.64527329e-005 -3.59766200e-005 5.51136509e-005
      4.69553488e-004 -6.72106631e-004 -3.17954487e-004 -7.66834928e-005
      -5.63658483e-004 5.50974044e-004 -4.07229054e-005 -6.09750678e-005
      -1.25534498e-005 -5.72851131e-005 -1.51095810e-004
      -6.65212108e-004 -6.91640453e-005 -3.35699791e-004
      -5.87384449e-004 5.08144731e-004 -5.85605194e-005 -5.49973338e-005
      1.12232206e-004 -5.14157473e-005 -1.38065603e-004 -6.68780587e-004
      -2.06725934e-004 -1.47714918e-005 -4.66443686e-004 7.03667174e-004
      -9.38931917e-005 -6.30308059e-005 8.89429139e-005 -6.55506301e-005
      -1.39702912e-004 -4.89394180e-004 1.64842873e-004 4.83788463e-005
      -7.16220646e-004 4.50715859e-004 -8.57232590e-005 -6.65502303e-005
      -6.44147658e-005 -7.62746495e-005 -1.84540928e-004
      -8.02724913e-004 1.01146987e-004 -1.77287788e-004 -5.33860526e-004
      3.80251557e-004 -9.39220263e-005 -6.36375189e-005 -4.88800579e-005
      -9.55721043e-005 -2.62047863e-004 -3.42382758e-004
      -1.53143774e-004 -6.29354108e-005 3.57569552e-005 1.41236596e-004
      -4.23057172e-005 -6.15020617e-005 -6.59641591e-005
      -6.73581308e-005 1.39909564e-004 -2.85230315e-004 6.12748845e-005
      4.42882883e-004 3.15542828e-004 -1.55256901e-004 6.28507754e-004
      -4.69991355e-004 -4.80774441e-004 8.72539531e-005 -1.27668085e-004
      -1.29838038e-004 -9.96516610e-005</_>
    <_>
      2.49927743e-005 1.77762959e-005 1.04673723e-004 -6.46282570e-004
      3.50941642e-004 8.08570359e-004 -1.05995266e-003 -1.00472091e-004
      8.63613095e-005 7.34651912e-005 2.85530114e-004 1.06284097e-004
      -1.00997138e-004 2.20608694e-004 9.85543826e-004 3.49495909e-004
      1.72086700e-004 1.17054304e-004 -3.27599468e-004 3.88626831e-005
      -2.55943916e-004 -9.89170585e-005 8.70946533e-005 8.12101207e-005
      -1.02342244e-006 5.06453034e-005 1.39348718e-004 8.47525880e-005
      4.79342008e-004 -5.67875418e-007 8.09088058e-004 1.92015199e-004
      4.83861277e-006 3.19825427e-004 4.06817053e-005 7.03721453e-005
      4.29123829e-005 -1.74479239e-004 -1.21638463e-004 -2.58306798e-004
      5.56176761e-004 -9.98870091e-005 -1.54221649e-004 3.29723145e-004
      5.10547070e-005 2.95723366e-005 7.39393581e-005 -7.45932039e-006
      6.01143656e-005 -1.36730948e-003 1.09957275e-003 -7.48391722e-006
      2.84257549e-004 8.12556595e-004 8.38354463e-004 7.80922303e-004
      9.20469931e-004 7.90058228e-004 3.25103349e-004 7.69431354e-004
      4.36236267e-004 1.10285699e-004 -3.10651172e-004 6.55261538e-005
      -1.98788199e-004 -2.70550314e-004 -3.58967431e-004
      -5.01246075e-004 -1.43567647e-003 -1.08110684e-003 9.14371340e-004
      -1.97330513e-003 -6.65124753e-005 2.85967490e-005 3.12280317e-005
      2.32521430e-004 4.29815846e-005 -1.35142487e-004 -1.00546214e-003
      -3.48555041e-004 4.72930726e-004 -1.62223878e-003 -1.16492098e-004
      -4.01626110e-008 3.44732689e-005 6.62818144e-004 -6.36332743e-006
      -1.59721923e-004 -1.09237526e-003 -6.75537332e-004 6.15824072e-004
      5.53458929e-004 8.26449657e-004 -1.98356283e-005 1.02364182e-004
      6.61584199e-004 -9.21390381e-007 -1.23674312e-004 -1.31759059e-003
      2.10320752e-004 -4.08083491e-004 -3.82355065e-005 -1.78312155e-004
      2.90279277e-005 9.29980899e-007 -2.60607121e-005 -2.29533521e-006
      -2.92127108e-004 -1.60197064e-003 -4.71047708e-004
      -1.48313309e-004 -1.03465945e-005 -6.68015564e-005 1.82361153e-004
      2.72886919e-005 -2.11430506e-005 -3.14080462e-005 -6.61226979e-004
      -5.33111684e-004 3.10214382e-004 -4.57564020e-005 3.86434869e-004
      1.33744499e-004 -2.38217501e-004 -1.03722159e-004 -2.18085534e-005
      -3.41654610e-004 -5.47769072e-004 1.29421090e-003 1.17112533e-004
      4.12798872e-005 1.61489923e-004 2.97539198e-004 -1.74635221e-004
      4.19201300e-004 4.32894012e-004 4.81959607e-004 -4.06251464e-004
      2.39703135e-004 1.10735280e-004</_>
    <_>
      -1.62403652e-004 -1.69654173e-004 -5.24293646e-005 5.39985602e-004
      -3.31301591e-004 3.12661752e-004 -7.17992836e-004 -1.80666466e-004
      1.60575772e-004 2.60229281e-004 5.59003565e-005 -4.38816118e-004
      -2.74270824e-005 2.31120594e-005 5.27277472e-004 1.68721279e-004
      3.86529602e-004 -4.67355538e-004 -2.82986239e-005 2.61451787e-004
      -3.41036968e-004 -3.13673896e-004 -1.77143898e-004
      -1.51460074e-004 -1.54790017e-004 -1.15502422e-004 7.58551687e-005
      3.80172860e-004 -5.25497191e-004 -2.76091363e-004 3.21762665e-004
      -3.20812251e-004 3.92476686e-005 5.81274071e-005 -1.56719456e-004
      -1.36109535e-004 -1.00822115e-004 4.52704204e-004 -8.47663381e-004
      -2.25468873e-004 1.21439210e-004 -3.51854105e-004 1.48221457e-004
      5.22185364e-005 -1.47795043e-004 -1.54305773e-004 -1.11376197e-004
      5.70158532e-004 -5.77754632e-004 2.82908761e-004 1.40878556e-005
      -1.11432455e-003 5.47782693e-004 1.21663536e-004 -4.92641129e-006
      -1.31225592e-004 2.18527886e-004 5.54247119e-004 -7.23528152e-004
      -8.62264926e-007 -4.32020141e-004 -6.52762188e-004 2.17124107e-005
      8.34810664e-004 8.97152131e-005 4.19338321e-004 3.65797867e-004
      -1.98600450e-004 -7.64734461e-004 -3.48447036e-004
      -1.57274735e-005 -9.66084015e-004 1.02396938e-004 1.69047655e-006
      -3.75111733e-004 -1.81776850e-005 -1.14661838e-004
      -2.68990465e-004 -7.45165162e-004 -1.83815318e-005
      -3.39539401e-004 2.39019319e-005 3.95956624e-004 -4.28797910e-004
      -3.36888297e-005 3.86954402e-004 -8.58997591e-005 -2.32053790e-004
      -7.20979995e-004 -3.32498748e-004 1.66488171e-004 -3.58029531e-004
      6.21334591e-004 6.23451662e-004 7.89541169e-004 1.15370518e-003
      6.84341590e-004 4.85381723e-004 -5.20869973e-004 4.42353426e-004
      -7.10110617e-005 -1.62774639e-004 -7.73747743e-005
      -1.10432527e-004 -1.10454312e-004 -7.75526132e-005 4.41829288e-005
      1.07959422e-004 1.01961468e-005 3.72150069e-004 3.94398347e-004
      -7.64422948e-005 -5.08959522e-004 -2.03393109e-004
      -1.83326818e-004 -1.73286622e-004 -1.95193366e-004
      -3.02521861e-004 -2.71546687e-005 3.16937949e-004 -4.15606453e-004
      8.63682013e-004 -5.71356679e-004 -3.42381478e-004 -1.79708266e-004
      -1.45091079e-004 -2.65434821e-004 -3.58851394e-004 6.88512227e-004
      -5.86970673e-005 -5.63905924e-005 -2.57441745e-004 7.17905583e-004
      1.17330917e-003 9.30884853e-005 1.31405497e-004 4.01867757e-004
      -1.78276940e-004 -2.94434994e-005 -8.44795359e-005</_>
    <_>
      -2.77816616e-005 -5.45093244e-005 -1.17765863e-004
      -2.47928314e-004 -9.31660543e-005 -3.73520888e-004
      -4.87496218e-005 -1.86528850e-004 -3.87138571e-005
      -2.74378544e-005 -6.01580687e-005 -1.27614927e-004
      -5.50542085e-004 -1.86433273e-004 5.52912126e-004 3.25020257e-004
      5.98265506e-005 -6.05045469e-004 -2.19571259e-004 -4.45708611e-005
      -2.23627081e-004 -5.40642242e-004 -3.16469523e-004
      -5.83262707e-004 2.83437519e-004 3.12764285e-004 8.24596791e-005
      -3.07824812e-004 -5.19970607e-004 -1.43752230e-004 3.93770286e-004
      -7.03958736e-004 -1.88522157e-004 4.53603643e-005 3.06677102e-004
      6.45549502e-004 1.13797250e-004 -2.01394738e-004 -7.06720108e-004
      -3.85457897e-005 1.04938452e-004 -5.99650375e-004 -1.36203540e-004
      3.05609174e-005 3.08622548e-004 6.88969740e-004 -8.79620275e-005
      -1.20927449e-004 -6.39917213e-004 1.79087539e-004 -3.47851310e-004
      -5.49405348e-004 -1.19379103e-004 1.20140270e-004 3.33744654e-004
      6.38352591e-004 -1.16232932e-005 -8.16038009e-005 -5.60360611e-004
      -2.37853365e-005 -2.91000353e-004 -5.34827006e-004
      -1.02591403e-004 2.36937394e-005 2.95378879e-004 6.06117130e-004
      4.19339594e-005 -9.64244609e-005 -5.28930861e-004 -3.91170557e-004
      -4.78460170e-005 -5.34108724e-004 -7.60502735e-005
      -3.33185053e-005 2.84930924e-004 6.18667633e-004 3.19918399e-005
      -8.07180404e-005 -5.36111649e-004 -4.16573457e-005
      -4.07357293e-004 -5.57230844e-004 -1.43989309e-004
      -1.66987185e-004 2.45543546e-004 6.03557623e-004 -4.33175001e-006
      -6.10048082e-005 -5.30869467e-004 -2.03993608e-004 2.35572461e-005
      -5.81250293e-004 -1.22036756e-004 -1.69011691e-004 2.09746373e-004
      6.06423127e-004 6.06756767e-005 -9.73752540e-005 -6.13195007e-004
      2.62549467e-004 1.24711136e-004 -6.98201417e-004 -1.82520031e-004
      -2.34583946e-004 2.22097588e-004 5.90762938e-004 -6.95962983e-004
      -1.51829503e-004 -7.06703053e-004 1.83385884e-004 -2.12139246e-004
      -5.10957674e-004 -3.31215793e-004 -2.44183786e-004 2.01932446e-004
      5.58089116e-004 -7.33363326e-004 -2.28822872e-004 -4.37758834e-004
      -1.66067679e-004 -7.25178543e-005 3.33900738e-004 -6.01337873e-004
      -1.73329958e-004 -2.96770886e-004 5.60043147e-004 -8.16325773e-004
      -4.38403920e-004 -9.03230648e-006 -2.44731709e-005
      -1.29362466e-004 -3.50163202e-004 -9.15521669e-005 5.71174198e-004
      -2.86845570e-005 -8.18318767e-006 1.50854234e-004 2.10251485e-004
      5.11155406e-004 2.56628147e-004</_>
    <_>
      -4.90055187e-004 -4.56780690e-004 -6.91507361e-004 2.36526845e-004
      -8.05528136e-004 -1.08323235e-003 -4.28528496e-004
      -2.35552448e-004 -1.26510771e-004 -5.90413285e-004 5.03138115e-004
      6.70035486e-004 -1.75227920e-004 3.85226362e-004 5.63073496e-004
      6.99966622e-004 4.78414382e-004 -2.61278969e-004 3.21750675e-004
      1.08383596e-003 -5.20481663e-005 -6.51235925e-004 -2.98371364e-004
      1.02872946e-004 1.52589244e-004 1.71011008e-004 2.01189236e-004
      -2.40298294e-004 -3.11180600e-004 -9.72073001e-004 6.68936467e-004
      -1.00466469e-003 -2.39147470e-004 4.25584258e-005 5.77708597e-005
      8.17192413e-005 5.85332709e-005 -1.79923867e-004 -9.54111165e-004
      -5.91704389e-004 2.34005973e-004 -8.71237891e-004 -2.49221193e-004
      -1.05782456e-004 -9.86833675e-006 -2.08792953e-005
      -8.87702408e-005 -1.97588102e-004 -9.55090916e-004 4.03734186e-004
      -4.68818704e-004 -7.48890918e-004 -9.08760485e-005 4.39562027e-005
      8.02189243e-005 7.98341061e-005 7.90325139e-005 -6.47179622e-005
      -7.38121278e-004 1.51355853e-004 -3.55513417e-004 -7.00727105e-004
      -4.17159172e-005 8.02079303e-005 6.71544403e-005 9.41089820e-005
      7.70697952e-005 -1.06284315e-004 -7.45052355e-004 -3.79355217e-004
      1.17673313e-004 -7.17514544e-004 -1.91151430e-005 9.03248729e-005
      7.01286917e-005 9.21239771e-005 8.42237423e-005 -9.89126274e-005
      -7.18658848e-004 1.36912131e-004 -3.62309307e-004 -7.12153094e-004
      -3.79262274e-005 1.24303770e-004 1.10208784e-004 1.51463988e-004
      1.10800160e-004 -5.33173697e-005 -6.61562954e-004 -1.74856556e-004
      2.05866483e-004 -8.75869649e-004 -1.34490198e-004 2.97600218e-005
      2.34375966e-005 4.46690174e-005 4.00640492e-005 -7.49297324e-005
      -8.23247421e-004 5.74200531e-004 2.71916535e-004 -8.66577204e-004
      -1.55760557e-004 1.09299268e-004 7.07295549e-005 6.89451044e-005
      5.66621275e-005 -1.55191825e-004 -9.24322056e-004 4.66195343e-004
      2.21659211e-004 -2.92721688e-005 -3.31793417e-004 6.23464293e-004
      6.60941063e-004 4.18773532e-004 3.34050012e-004 -2.36390297e-005
      -4.96638706e-004 9.80077821e-005 7.61601957e-004 8.74907942e-004
      -1.67644190e-004 1.92745356e-004 3.65345652e-004 3.91750335e-004
      2.26923643e-004 -4.16866475e-004 7.28632382e-004 7.11468747e-004
      -5.69889438e-004 -1.96122637e-004 -4.12861933e-004 3.07945505e-004
      -7.92467443e-004 -7.53932749e-004 -5.74191974e-004
      -4.22131823e-004 -2.66877032e-004 -6.10474846e-004</_>
    <_>
      -3.97036347e-005 -6.71776506e-005 -6.84480183e-005
      -1.31025547e-004 -3.73551215e-004 -3.74821568e-004
      -2.21410766e-004 -3.84332670e-005 1.27036674e-006 -1.85221943e-005
      -2.36629185e-005 -1.78573828e-004 -3.09947616e-004
      -3.82555008e-005 9.44739004e-005 9.06035493e-005 -3.34703145e-005
      -3.05221707e-004 -2.12018160e-004 8.77405455e-006 -1.82595977e-004
      -1.80233008e-004 -1.22388694e-004 1.31577544e-004 2.44395866e-004
      2.50629208e-004 1.46525665e-004 -1.67529346e-004 -3.36888334e-004
      2.59998978e-006 -1.52936758e-004 3.75184391e-006 1.60203417e-004
      1.98577429e-004 2.13407038e-004 2.25814423e-004 2.18369998e-004
      7.55961737e-005 -2.72962498e-004 -6.44331667e-005 -2.07707024e-004
      -8.59628562e-006 1.70010811e-004 1.92403371e-004 2.07292236e-004
      2.13466294e-004 2.08503348e-004 1.88710779e-004 3.36480844e-005
      -1.73525637e-004 -3.51310446e-004 5.02221064e-006 1.72433036e-004
      1.93614484e-004 2.07292236e-004 2.13407038e-004 2.18488509e-004
      1.96036694e-004 3.86110369e-005 -2.32962571e-004 -3.35566001e-004
      2.59998978e-006 1.83629309e-004 2.06021869e-004 2.09832971e-004
      2.12195926e-004 2.16007029e-004 1.98636684e-004 4.24221362e-005
      -3.16647696e-004 -2.40288500e-004 -6.05555215e-006 1.88533013e-004
      2.10984814e-004 2.13525549e-004 2.13407038e-004 2.17218141e-004
      1.49125655e-004 -1.11429450e-004 -1.01385027e-004 -3.22762528e-004
      -8.59628562e-006 1.71221924e-004 2.09773701e-004 2.16007029e-004
      2.22181101e-004 2.20851478e-004 7.57739399e-005 -3.49651265e-004
      3.32592754e-005 -2.12340427e-004 -1.77768811e-007 1.76066373e-004
      2.11044069e-004 2.11103325e-004 2.15947774e-004 2.28355158e-004
      6.95998751e-005 -3.60788283e-004 1.77218230e-004 -2.58199434e-004
      -5.92562728e-008 1.57425660e-004 2.03599644e-004 2.12255181e-004
      2.13466294e-004 2.19699621e-004 5.59813780e-005 -3.70832713e-004
      7.05479761e-005 -1.52462700e-004 -1.59373827e-004 6.43998937e-005
      2.04751501e-004 2.15947774e-004 2.18488509e-004 1.21592384e-004
      -1.26318308e-004 -1.95951463e-004 -6.46369226e-005 7.62220043e-006
      -8.87811766e-005 -1.18992393e-004 2.08851598e-005 5.33813873e-005
      5.83443434e-005 -5.70739758e-005 -2.55532883e-004 3.19109531e-005
      -3.09295792e-005 -2.97184706e-005 -2.08851598e-005
      -2.56506988e-004 -1.82259129e-004 -3.64954903e-004
      -3.62295657e-004 -2.63036578e-004 -6.56702614e-005
      -2.72962498e-005 -2.59073695e-005</_>
    <_>
      -7.58671740e-005 -1.08983568e-005 -1.04391330e-003 3.90678324e-004
      5.24744450e-004 -1.16629948e-004 2.17765628e-004 -2.14495449e-004
      7.67074598e-005 2.09551017e-005 8.61410401e-004 -3.64277046e-004
      -2.27806391e-004 2.84067355e-004 -6.27181726e-004 -5.79845218e-005
      4.76792775e-005 9.64845822e-004 2.98294064e-004 1.42890305e-004
      -1.80743897e-004 6.74222712e-004 -2.29515746e-004 -3.23126063e-004
      -4.63141041e-004 -7.76032175e-005 -1.71615247e-004
      -2.52985599e-004 1.63445191e-003 2.37771073e-005 -6.32457668e-004
      1.68526638e-003 -4.50382417e-004 -2.42651164e-004 -1.24107130e-004
      -8.59542342e-005 -2.33764949e-004 4.48058090e-005 1.53859844e-003
      -4.95662971e-004 -4.80985793e-004 1.04853522e-003 -3.39817139e-004
      -2.79817497e-004 9.08302754e-005 -1.58705239e-004 -2.49055476e-004
      3.32617143e-004 1.61154917e-003 8.94914483e-005 -1.68813028e-006
      -2.12412033e-005 -3.05797439e-005 -3.63762898e-004 6.76209893e-005
      -8.37140760e-005 -2.35522864e-004 5.32738573e-004 1.49092625e-003
      -2.84358277e-004 -3.48351059e-005 -5.15512038e-005
      -5.18786728e-005 -3.46258923e-004 3.20129708e-004 -6.58592544e-005
      -1.24278798e-004 1.42805325e-003 -1.90130333e-004 1.53629735e-004
      -3.27173075e-005 -1.01526475e-005 -5.75954291e-005
      -3.45085806e-004 3.95634765e-004 6.44523680e-005 4.10427281e-004
      6.58447534e-005 1.62648765e-004 -1.55495545e-005 -3.73300390e-005
      -5.34510982e-005 -7.66957965e-005 -2.77795596e-004 6.00378378e-004
      -6.14482269e-004 -3.87197884e-004 1.08327637e-004 -2.13919357e-005
      -5.97036815e-005 2.38771713e-006 -3.31997544e-005 -1.69825635e-005
      3.06645496e-004 -3.16559453e-004 -9.90767381e-004 -2.66107352e-004
      -6.87642460e-005 -5.29462086e-005 -8.64808244e-005
      -2.60809684e-005 -3.61450984e-005 4.93857195e-004 -1.09677424e-003
      -3.93255934e-004 2.28140067e-004 -2.76893756e-004 -6.71939997e-005
      -3.01046693e-005 -2.93756893e-004 6.25515167e-005 -1.01619342e-004
      -5.84114285e-004 -5.71042532e-004 2.22994902e-004 2.42481867e-004
      -2.45469040e-004 -3.01586479e-005 1.23593258e-004 -4.52300068e-004
      -2.77400861e-004 -3.70393391e-004 -2.82558321e-004
      -7.53714296e-004 -1.78906543e-003 -1.51506125e-003
      -1.81771116e-003 -6.86100742e-004 7.53654342e-004 -3.34099226e-004
      9.06167028e-004 3.52720177e-004 9.06267669e-004 2.99706298e-004
      7.20762939e-004 7.69611215e-004 5.01578150e-004 4.43516881e-004
      6.49437075e-004 -1.42813005e-004</_>
    <_>
      -1.33061476e-004 -6.92700269e-005 -9.63994535e-004 4.57388902e-004
      -4.97702917e-004 -1.01530342e-003 2.85636110e-004 -2.45637111e-005
      7.42875636e-005 -4.42740456e-005 1.34218601e-003 -8.06613767e-004
      -2.23250143e-004 2.17509019e-004 -7.50369101e-004 -2.82879500e-005
      -2.03172767e-005 1.23771874e-003 3.86553147e-005 1.54669789e-004
      -1.71228909e-004 2.03914894e-003 9.81430756e-004 -3.31869436e-004
      -1.68921193e-004 -8.39300847e-005 -2.19394380e-004
      -9.40367347e-004 2.12434912e-003 -4.89150116e-004 1.99055983e-004
      6.79290679e-004 5.84266149e-004 -2.12292187e-004 -2.75129161e-004
      -1.61519856e-004 -2.50078418e-004 -9.98558477e-004 1.88183691e-003
      -2.61723035e-004 -5.98224360e-005 -7.58858441e-005
      -9.22875697e-005 -4.82752162e-004 -2.08601836e-004
      -1.28581916e-004 -1.07802050e-004 1.17586122e-003 6.66405598e-004
      2.30772654e-004 -7.87043682e-005 -8.29717101e-005 -1.32425426e-004
      -5.12517465e-004 -2.46895419e-004 1.60150303e-004 -1.16403447e-003
      -1.83177006e-004 1.98233713e-004 -1.32235591e-005 -1.09822380e-004
      -1.07934255e-004 -4.66222446e-005 -3.41622981e-005 6.59517827e-004
      1.64242461e-003 -6.45058928e-004 1.53602188e-004 2.64196588e-005
      -2.26838583e-005 -1.01596459e-004 -8.33241138e-005
      -9.42465485e-005 -4.30537504e-004 -1.17775700e-004
      -1.35236216e-004 1.27356965e-004 1.48784393e-003 -3.11375392e-004
      1.63212288e-004 -6.55816111e-005 -1.09351633e-004 -1.50342064e-004
      -4.77026624e-004 -2.84980255e-004 -5.74352998e-005
      -3.31060262e-004 -1.22088430e-004 1.93973212e-003 -6.51111477e-004
      1.59428993e-004 2.53025733e-004 2.01624880e-005 -4.69787716e-004
      -2.15400301e-004 -3.57129407e-004 -4.20975353e-004
      -6.45574328e-005 9.64629813e-004 1.22511131e-003 1.44311722e-004
      1.74925372e-003 -1.01392833e-003 -3.83535022e-004 6.27381960e-004
      -1.02321355e-004 -4.52326436e-004 2.21747541e-005 1.09558587e-003
      3.62483959e-004 3.69267189e-004 9.11161420e-004 -1.87836820e-004
      -5.14403335e-004 2.55760504e-004 -9.33898264e-007 -4.30476357e-004
      2.20631118e-004 2.00507557e-003 -9.03784297e-004 2.16197586e-004
      -1.34696675e-004 4.65221419e-005 -5.47485251e-004 -4.98699374e-004
      -3.97411175e-004 -2.93059100e-004 7.65094941e-004 -5.80327527e-004
      9.06156347e-005 5.16721455e-004 -1.12534326e-003 -4.82071016e-004
      -2.96384620e-004 -7.37127324e-004 -5.44539444e-006
      -5.95264370e-004 -3.00667161e-004 -2.40790614e-004 1.21299701e-004</_>
    <_>
      -6.17196420e-005 -1.00799349e-004 -1.39479118e-004
      -2.26437434e-004 -8.77901402e-005 -9.18584992e-004
      -5.74145350e-004 -9.78225959e-004 2.58605141e-005 1.96516139e-005
      9.59509169e-004 -5.88897383e-004 -4.96922992e-004 2.02687079e-004
      -4.82237403e-004 4.00633726e-004 1.18062156e-003 -2.19942704e-005
      6.79726800e-005 3.51428025e-005 -9.44774874e-005 -4.58366958e-005
      -6.94024275e-005 -2.95049249e-004 2.08385871e-004 -3.46691813e-004
      1.29428960e-003 -1.23636291e-005 4.28900275e-005 -5.79956350e-006
      -3.82155849e-005 -2.33252922e-005 7.63337539e-006 -2.04382566e-004
      -6.20191917e-004 3.74886935e-004 1.30487804e-003 -1.40382572e-005
      2.44245348e-005 -1.10962656e-005 -3.20879808e-005 -8.97573864e-006
      -2.83027603e-005 -6.47548935e-004 8.22389091e-004 1.72905013e-004
      1.31581340e-003 8.20770947e-006 5.79323532e-005 1.78186565e-005
      8.48738864e-007 2.04277749e-005 1.79957118e-004 9.22908832e-004
      3.94696341e-004 2.36983629e-004 1.28422375e-003 -1.68114420e-005
      4.10946668e-005 -6.76851641e-006 -1.12315793e-005 6.29028218e-005
      -7.04828490e-005 -7.05315033e-005 3.22844688e-004 6.72975148e-005
      1.27040956e-003 -7.88511534e-005 -1.93142114e-005 -1.42330473e-005
      5.54988947e-005 -4.18350304e-004 6.28300710e-004 -2.48780212e-004
      3.74375028e-004 -2.94812362e-005 1.28316495e-003 -3.13677401e-006
      4.83223412e-005 1.70719375e-006 2.63883645e-004 1.21422240e-003
      5.41468762e-005 -2.92873679e-004 2.93878169e-004 2.31337195e-004
      1.33066112e-003 -6.43333078e-006 6.67441054e-005 -2.23091938e-005
      -6.18461228e-004 2.60755507e-004 3.13046403e-005 -1.92336709e-004
      4.47667408e-004 2.74207938e-004 1.26173988e-003 3.74212803e-004
      -2.45684696e-005 -4.49393519e-005 -1.73889182e-003
      -9.40109931e-006 -2.06008644e-005 -2.43579270e-004 7.60494790e-004
      -1.03604468e-003 1.30476628e-003 -1.15939090e-003 -1.21945748e-003
      -4.24899044e-004 2.49955392e-005 -5.48476637e-005 -8.21391732e-005
      -3.48831119e-004 1.78494141e-004 3.88622808e-004 1.27089897e-003
      9.76890442e-006 4.46060731e-005 -1.89037692e-005 -6.23813467e-005
      -7.28876475e-005 -1.31824490e-004 -4.36856004e-004
      -2.29914702e-004 2.84615060e-004 1.15640822e-003 8.79188228e-005
      5.57068915e-007 -2.85186270e-005 5.06545650e-004 -8.49352626e-004
      2.94195546e-004 -1.28144748e-003 -2.43583971e-004 4.44299338e-004
      1.07944652e-003 1.06435339e-003 -2.79481057e-004 -5.73198311e-004</_>
    <_>
      -3.62871760e-005 -4.17237985e-004 9.03541222e-004 -6.26320136e-004
      9.09338181e-004 -9.30493770e-005 6.81753736e-004 -5.85608708e-004
      1.89191347e-003 -2.38966299e-004 1.14067504e-003 -9.06012370e-004
      1.45271213e-006 6.25851448e-004 -2.70796649e-004 5.44623181e-004
      2.29606550e-004 -6.39009522e-004 -2.93856574e-004 -3.69853951e-005
      -4.96939501e-005 -1.48482170e-004 4.12132940e-004 -2.47586257e-004
      2.17832348e-004 9.77334057e-005 -3.42315005e-004 -6.50141883e-005
      -2.59651351e-005 -8.18122935e-005 -7.69434791e-007
      -7.52671331e-004 4.37658542e-004 -2.82410037e-004 -9.26620778e-005
      -1.01758116e-004 -2.81079701e-004 -7.00922028e-005
      -7.87225727e-005 -9.09845185e-005 7.72958356e-006 -9.55967000e-004
      3.76668992e-004 -2.72880425e-004 2.48431927e-004 5.98718289e-005
      -3.33569769e-004 -5.45424446e-005 -2.78804619e-005
      -6.60406877e-005 8.30930003e-005 -5.14266547e-004 -1.67373905e-003
      2.91419768e-004 -1.27718656e-003 -9.45265987e-004 1.16213528e-003
      -1.12226442e-003 9.66712905e-005 -3.93606279e-005 -1.79402530e-004
      4.73684922e-004 -1.26520428e-003 -2.75629602e-004 1.45408936e-004
      -7.78365284e-005 -1.71470427e-004 -4.35342372e-004 4.98993031e-004
      1.25090330e-004 -7.28480663e-005 -1.70931249e-004 -2.51615147e-005
      -4.07718006e-004 1.53426590e-004 -1.97844332e-004 -3.51446739e-004
      -7.89282858e-005 1.73107802e-003 -8.14994797e-004 -8.47991669e-006
      -3.32725213e-005 -8.89558651e-005 -4.09165194e-004
      -1.19907585e-004 -5.05533899e-006 -3.32387106e-004 2.22066359e-004
      6.23690838e-004 2.92039826e-004 -1.06334116e-003 -4.86867590e-004
      -5.91899618e-004 -3.00620421e-004 -4.06449317e-006
      -2.85477698e-004 -3.59598169e-004 1.98282738e-004 1.12733927e-004
      1.72274513e-003 1.59988331e-003 1.51581829e-003 -8.59267777e-004
      -3.28166934e-004 6.57421944e-004 1.64140030e-004 -3.45242181e-004
      2.64261267e-004 1.07217964e-003 1.36887029e-004 3.76528114e-005
      6.31812029e-004 -2.88772746e-004 -4.64957440e-004 -1.37117560e-004
      1.48766718e-004 -3.49775772e-004 -2.16441244e-004 1.72440871e-003
      -5.12265484e-004 7.45686775e-005 1.06881454e-003 -1.09976558e-004
      -4.21835459e-004 -6.49329624e-004 1.28979837e-005 -9.82620477e-005
      1.31503912e-003 2.06100507e-004 -6.99004522e-006 3.02728615e-004
      -8.69097130e-004 -4.69092571e-004 6.38598460e-004 3.64294305e-004
      3.17872007e-004 -9.86041850e-004 -3.97075375e-004 -2.01373914e-004
      1.02559403e-004</_>
    <_>
      -1.11408277e-004 -1.77310110e-004 -1.76712390e-004
      -4.57925402e-004 -3.99050739e-004 -5.60235756e-004
      -2.21093054e-004 3.59303434e-004 -8.80932901e-004 -3.01899181e-005
      5.33149694e-004 -4.20906028e-004 -5.28799610e-005 6.47544861e-004
      -5.04031486e-004 -1.67416394e-004 -1.98037931e-004 8.96629062e-005
      -2.11440158e-004 -7.51927262e-004 -9.77548625e-005 2.04129683e-004
      4.88275575e-004 -1.13397618e-004 -1.87144906e-004 -2.05591685e-004
      -2.23799027e-004 -4.02334226e-005 1.05628406e-003 2.45128933e-004
      1.30495464e-004 7.67888152e-004 -3.74093652e-004 -2.14245447e-004
      -3.41340579e-004 -2.05487420e-004 -2.63558672e-004
      -7.49459723e-005 -6.48009067e-004 -2.31045797e-005 1.40577002e-004
      9.57713695e-004 2.06643104e-004 -2.57706037e-004 -1.19014228e-004
      -2.44157738e-004 -3.04219517e-004 -1.09410670e-004
      -1.36069211e-004 -1.59718344e-004 -3.06893664e-004
      -7.85301323e-004 1.91056723e-004 -9.65667714e-004 7.58136681e-004
      8.45421338e-004 8.36958759e-004 -8.75922095e-004 -7.88447796e-005
      -9.72138296e-005 -3.33806092e-004 5.70591481e-004 5.00175112e-004
      6.07509792e-005 4.22688936e-005 -2.22086674e-004 -1.90238206e-004
      6.72918453e-004 6.98560674e-004 6.34893877e-005 -3.16785998e-004
      9.96165443e-004 3.74564668e-004 -2.42287293e-004 1.38620553e-005
      -2.03612552e-004 -3.04168090e-004 9.05706911e-005 1.01294392e-003
      -1.05932984e-003 -3.01239692e-004 7.19553616e-004 1.12147492e-004
      -3.21488973e-004 -1.43324025e-004 -2.42831899e-004
      -2.98143364e-004 1.45137064e-005 7.44196994e-004 8.79176543e-004
      -2.93438090e-004 7.52939668e-004 1.23079066e-004 -2.91880657e-004
      -7.18377996e-005 -2.36268635e-004 -3.25479836e-004
      -2.87430357e-005 6.28625334e-004 8.77709361e-004 1.45561047e-004
      8.99572566e-004 9.90293411e-005 -3.24082619e-004 2.96951504e-004
      6.99738885e-005 -3.02879518e-004 1.44547384e-005 8.30299337e-004
      2.13924781e-004 1.04341903e-004 9.59242519e-004 2.17299021e-004
      -3.25463014e-004 -2.54073500e-004 1.03826955e-004 -2.95631180e-004
      1.09729299e-004 9.69915127e-004 -3.13221622e-004 -1.19748212e-004
      -9.74678784e-004 7.31366279e-004 -2.69678188e-004 -5.46609226e-004
      -6.35867182e-005 -3.40016530e-004 6.66639418e-004 7.23023404e-005
      -4.40896838e-005 5.79158477e-005 -5.86346956e-004 -7.84026815e-006
      -1.14799965e-004 6.16339617e-004 6.65507221e-004 -5.44108807e-005
      -2.00858354e-004 -2.01211456e-004 -1.40205084e-004</_>
    <_>
