<?xml version="1.0"?>
<opencv_storage>
<my_svm type_id="opencv-ml-svm">
  <svm_type>C_SVC</svm_type>
  <kernel><type>LINEAR</type></kernel>
  <C>1.0000000000000001e-001</C>
  <term_criteria><epsilon>9.9999999747524271e-007</epsilon>
    <iterations>2147483647</iterations></term_criteria>
  <var_all>140</var_all>
  <var_count>140</var_count>
  <class_count>35</class_count>
  <class_labels type_id="opencv-matrix">
    <rows>1</rows>
    <cols>35</cols>
    <dt>i</dt>
    <data>
      0 1 2 3 4 5 6 7 8 9 10 11 12 13 14 15 16 17 18 19 20 21 22 23 24
      25 26 27 28 29 30 31 32 33 34</data></class_labels>
  <sv_total>595</sv_total>
  <support_vectors>
    <_>
      3.35397963e-005 2.65624476e-005 4.25572580e-005 -1.22742669e-004
      -4.07377636e-004 3.51691087e-005 -1.68910352e-004 1.88314389e-005
      1.86442303e-005 3.66297500e-005 -3.87217064e-004 1.87349215e-004
      -9.42892148e-005 2.07175908e-004 7.50327134e-004 4.69718390e-004
      -1.85778234e-004 -5.42452442e-004 -6.67863196e-006 3.29449103e-005
      -5.83785277e-006 -5.08468656e-004 -3.13408120e-004 1.75719630e-004
      3.45858687e-004 5.05821547e-004 9.50651884e-005 -4.79911367e-004
      -4.79146052e-004 8.98870894e-006 -9.36389406e-005 -6.37888908e-004
      -1.41498094e-004 1.03123952e-004 3.68721026e-004 5.14562358e-004
      1.12929330e-004 -1.55284753e-004 -6.44022599e-004 -1.33027947e-006
      5.49645156e-005 -6.13148382e-004 4.30528307e-005 1.19011318e-004
      6.06844806e-005 5.02233568e-004 1.00881924e-004 4.55521467e-006
      -6.96077012e-004 -2.43193626e-005 -2.35563231e-004
      -4.84625663e-004 7.10189342e-005 1.27344887e-004 2.53897724e-005
      5.10848593e-004 9.83003774e-005 4.48719657e-005 -5.33209299e-004
      -1.89619706e-004 -6.23290660e-004 -4.30811953e-004 7.91074126e-005
      1.21528559e-004 -3.38119753e-005 5.28275268e-004 9.80920595e-005
      5.93981713e-005 -4.74005326e-004 -1.97980611e-004 -6.08269824e-004
      -4.44690406e-004 7.69212056e-005 1.42003701e-004 -4.30161963e-005
      5.24958130e-004 1.03817678e-004 6.68459688e-005 -4.57523944e-004
      -2.03294185e-004 -2.10394661e-004 -5.09942882e-004 5.81659733e-005
      1.41688404e-004 3.93134433e-005 5.13364037e-004 1.20277720e-004
      4.53110551e-005 -5.19172172e-004 -1.21746227e-004 7.24452912e-005
      -6.07007009e-004 4.81366733e-005 1.35342110e-004 2.44380553e-005
      1.62391108e-004 1.10079687e-004 5.89117735e-005 -6.75904914e-004
      1.13766182e-004 -1.16183692e-004 -5.95994585e-004 -9.45361753e-005
      1.54374036e-004 -3.38871032e-005 1.28530461e-004 1.01546910e-004
      -1.34215239e-004 -6.22556254e-004 -3.70450448e-006 2.71076315e-005
      -4.85454832e-004 -3.54187330e-004 1.17491320e-004 4.24361147e-004
      -5.40237088e-005 8.73194294e-005 -3.30635870e-004 -4.15486225e-004
      6.53343013e-005 7.33577908e-005 -5.61637626e-006 -5.76977967e-004
      -1.53742527e-004 5.67050476e-004 1.46879785e-004 -7.50442923e-005
      -5.69327385e-004 2.95341215e-005 8.72274977e-005 -8.39962813e-005
      1.22131794e-004 4.64512152e-004 8.90822866e-006 -3.48025293e-004
      -3.16226593e-004 6.48661808e-005 3.03867855e-004 2.03559044e-004
      3.18696984e-004</_>
    <_>
      3.69061891e-005 4.78550246e-005 -1.44355465e-004 -7.37375303e-005
      -2.56390864e-004 -4.59812814e-004 2.74165766e-004 -3.78263474e-004
      6.88197470e-005 5.70916309e-005 7.56121153e-005 2.10437007e-004
      -7.00045144e-004 -2.73369020e-004 7.45113430e-005 3.13089549e-005
      -1.09367218e-004 -2.43502567e-004 6.47064706e-004 9.34449999e-005
      1.34850721e-004 4.28584353e-005 -4.28088388e-004 4.90335733e-005
      4.74989865e-005 4.58200957e-005 1.56087590e-005 -5.71276294e-004
      1.60012452e-004 1.09206230e-004 -2.63025984e-004 2.29284997e-005
      -1.48450257e-004 7.47530648e-005 3.58359066e-005 5.72083554e-005
      4.51891283e-005 -7.44785430e-005 1.51728209e-005 -7.01979909e-004
      -1.70242740e-004 -2.47055432e-004 7.35047652e-005 7.35229551e-005
      5.51809790e-005 5.60534172e-005 6.29029382e-005 -1.44241767e-005
      -3.86841166e-005 8.99080551e-005 -3.24312394e-004 -5.29651181e-004
      7.58085225e-005 7.29599778e-005 8.60306245e-005 6.92487083e-005
      8.96773417e-005 5.75367070e-004 3.13192504e-005 -1.62842451e-004
      -7.67611666e-004 -4.59750358e-004 7.08741209e-005 7.62868149e-005
      8.10408092e-005 8.72891978e-005 1.84600038e-004 7.88475387e-004
      -5.18840097e-004 -2.71004101e-004 -7.59820279e-004
      -4.80143121e-004 6.93612965e-005 8.05798409e-005 1.10486129e-004
      1.92599735e-004 7.94297259e-004 9.01513613e-006 -5.07891877e-004
      -2.69921293e-004 -2.81609420e-004 -5.74169273e-004 6.45595719e-005
      1.13377311e-004 2.86926486e-004 2.58361804e-004 1.19497854e-004
      5.41882109e-005 -5.87982940e-004 -8.38875203e-005 -1.34898248e-004
      -7.17091083e-004 5.60808803e-005 4.52752865e-004 -1.66730577e-004
      9.90949775e-005 7.63083081e-005 4.02935548e-005 -7.96362641e-004
      -1.56911890e-004 -1.41499942e-004 -6.97523472e-004 4.22920304e-004
      -5.83846486e-005 1.02560705e-004 7.75384178e-005 7.51932093e-005
      -1.48830601e-004 -7.62621756e-004 4.54440626e-004 4.99124217e-005
      -4.80559131e-004 -5.09794685e-004 7.01317622e-005 8.93388860e-005
      8.13788574e-005 7.04573104e-005 -3.40690021e-004 -5.83685178e-004
      -4.96252847e-004 -2.68834585e-004 1.25941588e-004 -6.23768719e-004
      -2.45988893e-004 -1.58964802e-004 -1.43317389e-004
      -3.86962987e-004 -5.18868619e-004 6.80684403e-004 2.27832843e-005
      8.16681597e-004 6.96389819e-004 4.98610141e-004 8.37965272e-005
      -2.20758331e-004 -1.34572590e-004 1.43482001e-004 5.17078501e-004
      3.13274766e-004 8.59358770e-005</_>
    <_>
      5.75562299e-005 9.95709124e-005 -2.12760817e-004 -3.91824760e-005
      -2.04452139e-004 -2.53331789e-004 3.28958376e-005 -1.05621439e-004
      1.36676259e-004 8.51068689e-005 8.04523297e-005 4.67273465e-004
      -6.71977235e-004 -2.47773452e-004 1.06599204e-004 4.26968581e-005
      -2.50257232e-004 -2.79864238e-004 7.40575080e-004 1.58526615e-004
      8.32725636e-005 8.86426351e-005 -1.23577047e-004 1.16267729e-004
      6.67842978e-005 5.45254406e-005 2.43156373e-005 -6.41620019e-004
      1.36016184e-004 -5.23290480e-004 -1.67024060e-004 -4.06969310e-004
      -1.62454700e-004 9.16949284e-005 7.45653088e-005 5.99590057e-005
      6.46724075e-005 -2.39581146e-004 1.79262624e-005 -6.64980558e-004
      -3.11519951e-004 -8.27029115e-004 6.82403916e-005 8.08073819e-005
      7.72536077e-005 7.29243475e-005 7.07444997e-005 -2.38972629e-004
      -6.75918345e-005 -1.35154551e-004 -2.90777389e-004
      -5.97287901e-004 8.94350160e-005 1.11985122e-004 1.25330276e-004
      1.28479820e-004 -5.38777458e-005 7.77500100e-004 -7.53020635e-004
      -2.35694650e-004 -8.74065794e-004 -5.18029206e-004 5.54438557e-005
      7.94903783e-004 5.81745757e-004 8.00439389e-004 6.50487433e-004
      -5.06591459e-005 -5.24886884e-004 -2.41316506e-004
      -8.77223327e-004 -5.55195147e-004 6.35781253e-005 9.01084641e-005
      8.73371100e-005 1.01742160e-004 5.63812282e-005 4.08421358e-004
      -2.56166939e-004 -1.63746678e-004 -2.32760256e-004
      -6.56445103e-004 5.43037313e-005 7.67724850e-005 8.12764265e-005
      7.52793494e-005 7.25006030e-005 2.67497289e-005 2.28846984e-004
      -5.40275592e-004 -2.66799325e-004 -8.01602670e-004 5.25168980e-005
      6.12852964e-005 6.63389510e-005 8.26006944e-005 6.39974169e-005
      6.76392883e-005 -8.38582113e-004 5.58360713e-004 5.54339204e-004
      2.54197475e-005 -3.75799398e-004 7.94972802e-005 6.73032118e-005
      5.55215884e-005 7.45999641e-005 -1.40737655e-004 -6.78239448e-004
      5.47980599e-004 2.68945936e-004 5.58302927e-005 -6.60807884e-004
      4.76106870e-005 7.62637574e-005 6.75748233e-005 5.21698275e-005
      -2.92291923e-004 1.11989619e-004 -5.28210832e-004 -9.06396672e-005
      7.57598027e-004 -9.69967281e-004 -6.19906350e-005 7.55006986e-005
      1.08922082e-004 -4.14932583e-004 -2.26740012e-004 5.43363800e-004
      1.33042820e-004 8.09124540e-005 1.36713585e-004 -9.11886673e-005
      1.40936172e-004 -1.96290333e-004 -1.32231129e-004 -1.82150659e-004
      -2.15188222e-004 1.02816295e-004 5.80962223e-005</_>
    <_>
      4.14932074e-005 3.37855236e-005 6.40880826e-005 -1.35262351e-004
      -3.30623967e-004 -3.90405097e-004 2.34232066e-004 1.98444250e-005
      4.55356858e-005 5.60902154e-005 5.30425532e-005 8.78857318e-005
      -4.52230306e-004 -1.70787040e-004 8.02852592e-005 5.47345444e-005
      3.02853179e-004 -4.04163875e-004 3.03745092e-005 4.79366972e-005
      3.39278631e-005 -3.93357157e-004 -2.32216888e-004 4.86066747e-005
      8.00354246e-005 4.98426496e-004 5.15452644e-004 -3.89152323e-004
      -2.47516466e-004 3.35014738e-005 1.22690162e-005 -4.59668081e-004
      -7.00266755e-005 7.60725525e-005 4.66862839e-004 1.62582946e-004
      5.45357703e-004 -1.54543566e-004 -4.59121482e-004 -3.26242189e-005
      -3.65400556e-005 -4.41514479e-004 4.47737839e-005 -5.56049417e-005
      2.11376289e-004 1.10766930e-004 5.47252595e-004 -3.21700427e-005
      -4.82364907e-004 2.22321833e-005 -1.96741923e-004 -3.70595633e-004
      5.31415317e-005 4.82289353e-004 8.07644246e-005 1.12869289e-004
      5.45930699e-004 7.71234500e-006 -3.75645555e-004 -9.85670922e-005
      -4.62479686e-004 -3.12470860e-004 5.40264300e-004 1.07768581e-004
      5.86954884e-005 9.86795421e-005 5.41155634e-004 2.89467357e-006
      -3.36745055e-004 -1.82124772e-004 -4.51589440e-004
      -3.85892752e-004 2.23959913e-004 6.59150028e-005 6.49038702e-005
      1.15016905e-004 5.52785641e-004 3.06660986e-005 -3.23346088e-004
      -1.82802294e-004 -1.17785785e-004 3.07133269e-005 4.88470505e-005
      6.54789474e-005 6.92397080e-005 1.17533775e-004 5.55713545e-004
      2.93044541e-005 -3.67994682e-004 -8.62565212e-005 2.08887941e-004
      -3.35075601e-004 1.05977444e-004 1.27063351e-004 1.40976772e-004
      1.65999270e-004 5.44990995e-004 6.71432717e-005 -4.47271537e-004
      1.05742438e-004 -1.60115887e-004 -3.79745150e-004 -5.08493576e-006
      1.24194223e-004 9.16867284e-005 1.37919749e-004 5.62242523e-004
      -4.81592469e-005 -4.74645378e-004 -2.17549139e-004 1.34284410e-005
      -3.89235036e-004 -2.72537000e-004 4.04014572e-005 6.08433620e-005
      7.78263566e-005 5.38198801e-004 -2.49133707e-004 -2.84930371e-004
      3.94691051e-005 3.36101875e-005 -3.93587688e-005 -4.47146624e-004
      -1.23798993e-004 4.31174558e-005 1.10697758e-004 3.20086110e-004
      -3.94962844e-004 2.02488500e-005 5.90409072e-005 5.83570072e-005
      4.35299226e-005 1.56434216e-005 -1.56557711e-004 -1.42604491e-004
      1.04701328e-004 3.41048668e-004 5.93381992e-004 7.73467400e-005
      3.23079294e-005</_>
    <_>
      9.49219102e-005 5.07860910e-004 6.14053628e-004 3.16470483e-004
      1.96183450e-004 1.70449042e-004 3.32227239e-004 6.13315962e-004
      6.07804279e-004 -1.61401476e-005 7.65800869e-005 1.99588860e-004
      -7.13132089e-004 -3.48293048e-004 -1.55058849e-004
      -1.91859508e-004 -3.28358030e-004 -6.10042305e-004
      -1.76955844e-004 4.70909617e-005 6.07227121e-005 -2.38201261e-004
      -1.47149098e-004 5.67272400e-005 5.13295017e-005 3.72697541e-005
      1.86061880e-005 -3.40251921e-004 -4.41586919e-004 2.73871265e-005
      -4.04532475e-005 -5.08516503e-004 -4.39748947e-005 6.24125241e-005
      4.69004262e-005 4.32433299e-005 4.09268505e-005 -8.07005781e-005
      -5.21374168e-004 -1.04365972e-004 -1.48678999e-004
      -4.95118031e-004 5.71625278e-005 6.77053031e-005 6.87437569e-005
      6.18790509e-005 4.29760075e-005 1.52819473e-006 -5.68179472e-004
      -1.75292313e-004 -1.08856264e-004 -3.60225968e-004
      -2.21712271e-005 5.15981810e-004 -2.30188030e-004 -7.46732476e-005
      5.97257167e-004 -5.40566907e-005 -3.62048682e-004 -2.05229982e-004
      -4.98011883e-004 2.17780776e-004 -8.63225159e-006 6.17304613e-005
      5.51129488e-005 6.71508606e-005 1.03677652e-004 3.00566113e-004
      1.31755267e-004 -1.76323141e-004 -5.46914409e-004 -4.14719310e-004
      5.77379433e-005 5.34982355e-005 5.11191647e-005 4.90339917e-005
      4.87049256e-005 3.81300633e-005 2.41516842e-004 -5.70048811e-004
      -1.90285878e-004 -3.90855654e-004 3.48625144e-005 5.02906259e-005
      5.19053392e-005 5.31473524e-005 5.06277320e-005 2.58294949e-005
      -2.91771634e-004 3.68670997e-004 -2.08326615e-004 -4.94919193e-004
      3.48620924e-005 4.13763373e-005 4.48089013e-005 5.20107169e-005
      5.00665155e-005 4.40441218e-005 -7.48285034e-004 3.48234782e-004
      4.50754276e-004 4.94843225e-005 -1.56345282e-004 5.80824744e-005
      5.04372001e-005 4.96098291e-005 5.60400913e-005 -6.23865053e-005
      -4.32623317e-004 3.64128238e-004 5.67980460e-004 4.02246296e-005
      -3.57263634e-004 5.05939606e-005 5.06205361e-005 3.38934260e-005
      3.50732698e-005 -2.44816008e-004 8.84132387e-005 -3.93771916e-004
      1.27789579e-004 4.84722725e-004 -5.65809198e-004 -3.25203109e-005
      4.17267984e-005 7.36711372e-005 -2.24262767e-005 -1.85613826e-004
      4.44211153e-004 6.83457474e-005 7.10483728e-005 1.19300319e-004
      -4.31878361e-005 -6.02095934e-005 -3.79162666e-004
      -4.38331772e-004 2.69998709e-004 -5.62564383e-005 5.45735456e-005
      3.11214317e-005</_>
    <_>
      1.65147103e-005 8.61802164e-007 3.84780760e-005 -1.04693021e-003
      3.35421297e-004 -3.11208481e-004 4.12131049e-004 1.26773538e-003
      -1.62575874e-004 1.15904804e-004 5.70586462e-006 8.83477969e-006
      -2.99819425e-004 2.42702416e-004 1.36031333e-004 7.20376647e-006
      -2.40499838e-004 -5.16017433e-004 1.14904274e-003 -2.58579326e-004
      -1.07802989e-005 -8.26822477e-004 -4.47835228e-005 4.26347106e-005
      1.87757287e-005 1.75627665e-005 -2.18552977e-005 -6.65473170e-004
      1.53827088e-004 -5.40230481e-004 -1.00075726e-004 -6.22046937e-005
      -4.27746301e-004 5.35315012e-005 1.78506270e-005 9.00044597e-006
      -5.52567417e-006 -2.40825568e-004 -1.19658769e-003
      -2.50697514e-004 -4.03381448e-004 -1.05303596e-004 1.16796778e-004
      3.77190845e-005 2.05746601e-005 2.33656228e-005 -4.66980282e-006
      -7.17326839e-005 -1.29035767e-003 -4.26289742e-004 2.00871000e-004
      -7.08806037e-004 4.87201141e-005 2.48774770e-004 9.29852482e-004
      1.24063541e-003 1.18531566e-003 -2.22743915e-006 -8.92857206e-004
      -4.61478601e-004 -3.72653012e-004 -4.94950742e-004 3.25385452e-004
      7.01929617e-004 1.21116718e-004 1.64832400e-005 2.08399360e-004
      1.02001545e-003 4.00404242e-004 -3.14271514e-004 -1.70131985e-004
      3.69073619e-004 4.78999660e-004 1.62969554e-005 7.50842310e-006
      2.78371522e-006 8.42665713e-007 1.69937019e-004 4.06766456e-004
      -9.81213292e-004 5.84043621e-004 -2.95649988e-005 6.82209020e-006
      7.40058113e-007 7.93193340e-006 1.22096371e-005 9.14444263e-006
      2.29884063e-006 8.79390864e-005 5.35963685e-004 2.01569084e-004
      -2.41545757e-004 2.63327602e-005 -1.78136979e-005 1.81672067e-006
      1.71020820e-005 4.52701397e-006 5.74708747e-006 -4.19297285e-004
      5.45775285e-004 1.90004030e-005 2.54227416e-006 -1.47274099e-004
      1.78148603e-005 6.65092216e-007 -7.30313786e-006 3.11441436e-005
      -2.51288729e-004 -8.50383803e-005 6.13738608e-004 -1.85524012e-004
      -3.39855578e-005 -2.48649274e-004 -1.26485365e-005 5.88249065e-007
      8.35671926e-007 -1.66541249e-005 -3.19040962e-004 1.37195617e-004
      -5.21127949e-004 -2.08096981e-006 -5.92276920e-004
      -1.50533917e-004 -5.88348885e-005 7.38153676e-006 3.88316730e-005
      -3.22083419e-004 -2.46291544e-004 4.31342109e-004 6.74526018e-005
      4.34586691e-005 6.77823027e-006 -4.50827029e-005 2.91167642e-004
      -3.96830364e-005 -1.44353144e-005 6.24832348e-004 -1.98541384e-005
      3.42932908e-005 1.64914900e-006</_>
    <_>
      7.20188473e-005 5.17825771e-004 5.52682613e-004 2.75192084e-004
      1.42237172e-004 8.05025920e-005 3.08811112e-004 5.96441561e-004
      5.77504456e-004 6.05091860e-004 1.15781477e-004 5.46993979e-004
      -2.29350131e-004 -1.47894621e-004 -2.34552223e-004 4.42889032e-005
      -4.77371286e-005 -1.75985333e-004 3.92314600e-004 -1.56417649e-004
      -1.60645010e-004 -3.08272720e-004 -2.14548985e-004 6.55923213e-005
      8.20648202e-005 5.33771235e-005 3.30227267e-005 -2.51198508e-004
      6.98301083e-005 5.94244411e-005 2.50263256e-004 -4.92528139e-004
      -6.53480020e-005 6.47091219e-005 6.30995128e-005 5.86365350e-005
      6.18045160e-005 3.99483077e-004 -6.05504843e-004 -7.77986279e-005
      -1.81851588e-004 -4.74078406e-004 7.80675473e-005 6.64625113e-005
      8.03932853e-005 5.97587496e-005 -2.78245745e-004 -1.27745676e-004
      -5.09337231e-004 3.39270264e-005 -1.99101429e-004 -3.64718580e-004
      5.88420298e-005 5.61098786e-005 7.42522898e-005 1.37847368e-004
      5.68433723e-004 5.94265584e-005 -4.25545964e-004 -5.56206433e-005
      -5.14094485e-004 -3.15063400e-004 5.11409708e-005 5.21973598e-005
      6.31764633e-005 1.76482106e-004 -2.50944373e-004 4.37633389e-005
      -3.65569053e-004 -1.76352696e-004 -5.06688433e-004
      -3.58181424e-004 5.11819744e-005 6.12856966e-005 -3.29630711e-006
      5.69215452e-004 6.12005388e-005 4.23397723e-005 -3.70673952e-004
      -1.75556532e-004 -1.75907044e-004 -4.03521175e-004 3.02212920e-005
      7.15086935e-005 2.40714275e-004 1.07779997e-004 5.56796294e-005
      3.55301199e-005 -4.23694233e-004 4.06378922e-006 -2.09380069e-005
      -4.95481305e-004 2.92962977e-005 2.24917050e-004 5.68811374e-004
      1.03894745e-004 3.81698665e-005 2.23472616e-005 -5.37927728e-004
      1.72732180e-005 -1.22014513e-004 -4.90918173e-004 -6.51401642e-005
      1.96740788e-004 5.71636599e-004 9.54978823e-005 4.10876528e-005
      -1.41073804e-004 -5.04964381e-004 -9.97401876e-005
      -5.41846612e-006 -4.64743818e-004 -3.04302434e-004 4.39442549e-004
      5.66549599e-004 6.25373359e-005 2.89513628e-005 -2.78753665e-004
      -2.89044576e-004 2.20154743e-005 2.54875395e-005 -6.06679787e-005
      -5.16170810e-004 2.95148726e-004 5.39881992e-004 6.46996996e-005
      -2.01684015e-004 -4.81728552e-004 3.51203721e-006 4.46467820e-005
      4.24618229e-005 2.06025543e-005 5.38581371e-005 2.00056107e-004
      7.04021368e-005 -3.21133120e-004 -1.55926609e-004 5.73675607e-005
      3.22662127e-005 2.44924577e-005</_>
    <_>
      5.29115277e-005 6.67766726e-005 -5.98141414e-005 3.36675468e-004
      -1.27522304e-004 -1.85672136e-004 4.64280398e-004 5.65919909e-005
      4.85543715e-005 6.17596233e-005 4.14737915e-005 -7.87692406e-005
      -4.95141081e-004 -1.85483455e-004 7.85333250e-005 3.15947291e-005
      -6.10606148e-005 -9.19058657e-005 -1.36164730e-004 6.09446652e-005
      6.92510876e-005 -3.38903810e-005 -1.77487949e-004 3.85878484e-005
      4.98071458e-005 4.08293527e-005 2.54795268e-005 -2.91789504e-004
      8.69045616e-005 4.29818283e-005 -4.44590878e-005 -7.63937715e-005
      -4.37198141e-005 5.35014588e-005 4.56493726e-005 4.51237902e-005
      5.40204273e-005 1.27251396e-005 -3.06533843e-006 -1.69397608e-004
      -2.05603210e-004 3.22196975e-005 3.09019961e-004 7.59249087e-005
      6.27259360e-005 4.54068868e-005 4.39593096e-005 3.95969430e-004
      -8.36183666e-004 -1.93447180e-004 -3.65924003e-004
      -9.98853240e-004 8.21152062e-004 7.54641835e-004 1.54068184e-004
      1.18867640e-004 5.58926724e-004 6.08537113e-004 -5.40918729e-004
      -2.89154006e-004 -7.56406691e-004 -4.12043359e-004 2.14445347e-004
      3.09685420e-004 8.11383245e-004 8.17971420e-004 -3.25312576e-004
      5.53684476e-005 -4.57878195e-004 -3.23080836e-004 -7.43954733e-004
      -4.00868594e-004 4.89443715e-004 3.03548062e-004 1.72421773e-004
      2.18828893e-004 8.61175358e-004 7.88540696e-004 8.52759840e-005
      -2.82799097e-004 -2.85811024e-004 1.80114366e-004 1.56161128e-004
      4.68179824e-005 5.18321176e-005 5.05221324e-005 7.21270262e-005
      2.40163819e-004 1.91501080e-004 -1.81047173e-004 8.55898543e-005
      -9.25678105e-005 2.55737650e-005 2.06771747e-005 2.49505774e-005
      4.25504295e-005 3.45225963e-005 1.80892785e-005 -5.35346859e-004
      1.20916258e-004 6.18845923e-004 -1.32858462e-004 -6.12852382e-005
      4.63212637e-005 3.27869275e-005 1.84172368e-005 3.77215765e-005
      -1.43426325e-004 -5.48679556e-004 5.68623771e-004 3.72089271e-004
      1.25954220e-005 -3.34825745e-004 7.27056886e-006 2.96016715e-005
      1.63695331e-005 1.34931179e-005 -3.10490868e-004 -3.36446770e-004
      2.98385741e-004 2.19278791e-005 6.49714435e-004 -4.99628368e-004
      -9.59347308e-005 2.09677910e-005 4.06731306e-005 -1.92336374e-004
      -4.68895305e-004 7.58691807e-004 5.02655093e-005 5.69439435e-005
      9.49809837e-005 -2.34928739e-004 3.91843612e-004 -2.09001792e-005
      1.65293459e-005 4.26678365e-004 -3.51578143e-004 2.87946150e-005
      2.36589276e-005</_>
    <_>
      1.36851077e-005 -1.01378591e-005 -5.85364818e-004 2.11444276e-005
      7.44037561e-006 -1.63663626e-005 5.15761421e-005 -7.41906333e-005
      7.48233049e-007 4.11110123e-005 -7.60854437e-006 3.59722908e-004
      -2.12050800e-004 -2.85993592e-004 2.21624305e-005 1.47429682e-005
      -1.10760557e-005 -1.22792248e-004 -4.38763615e-004 4.71537169e-005
      -6.67725224e-004 2.05737044e-004 -3.84792365e-004 -1.31646329e-005
      -7.60759985e-006 -3.73517869e-005 3.04916466e-005 -3.50801361e-004
      2.29768906e-004 -3.62751191e-004 5.63717505e-004 -1.14947346e-004
      -1.93310727e-004 -7.18611864e-006 -2.17431098e-005
      -1.73981571e-005 -2.11581719e-005 -2.70921300e-004
      -1.14211252e-004 -2.22999224e-004 4.93395841e-004 -1.28692409e-004
      6.65687639e-006 1.14860059e-005 -1.83486900e-005 -9.93067169e-006
      -2.68457170e-005 -4.98348709e-005 -3.38574086e-004 6.26422232e-004
      1.80234973e-004 1.41831930e-004 4.35188194e-005 -1.87182195e-005
      -2.99561125e-005 -3.01107575e-005 -8.48341733e-006 3.06465627e-005
      -1.61421904e-005 -1.05100298e-004 -1.15801534e-003 2.89831805e-004
      1.54952519e-004 -2.55986743e-006 6.51605296e-006 -1.44763544e-005
      -1.38132727e-005 5.51636680e-004 3.52178351e-004 -5.81803506e-005
      -9.63387429e-004 -9.56988006e-005 1.06318318e-003 1.82224554e-004
      6.71088783e-005 1.95412995e-005 8.13741353e-004 4.75697394e-004
      8.18056651e-005 -9.93885405e-005 -5.59224049e-004 -8.87995469e-004
      -1.22400903e-004 7.37734605e-004 1.02718407e-003 3.06591188e-004
      -4.02235746e-004 3.03650131e-006 -1.09838520e-003 -8.55028484e-005
      -3.69975896e-004 -1.10574102e-003 -2.59774115e-005 1.59226729e-005
      1.04853166e-006 -5.06021615e-006 -3.14361896e-005 -7.22992190e-005
      -3.68150475e-004 -9.78101161e-004 -3.01074557e-004
      -1.17015082e-003 -1.90233302e-004 -7.17148396e-006
      -2.60322558e-005 -1.59478386e-005 -1.73787193e-005
      -5.67290699e-004 -6.29391434e-005 2.71261761e-005 -1.06751249e-004
      2.11548206e-004 -8.60820233e-004 -4.09232634e-005 8.54767768e-006
      -2.65340950e-005 3.92026304e-005 7.63554053e-005 -5.15775057e-004
      4.67178033e-005 -2.28098652e-004 9.79100005e-004 -3.86466767e-004
      -1.90682767e-004 -4.82555261e-005 5.43740316e-005 -2.99164647e-004
      5.02337643e-005 -1.40292013e-005 -2.12842515e-005 3.85654057e-005
      -4.80903691e-004 4.61282354e-004 5.71710523e-004 -1.23290636e-004
      -3.19914805e-004 -1.19882717e-003 1.40724995e-004 -3.06574184e-005
      -1.68359065e-006</_>
    <_>
      5.35758627e-005 3.07717892e-005 6.79683944e-005 -2.88386451e-004
      -1.75368710e-004 -6.87278283e-004 -2.04486336e-004 8.75160404e-005
      3.68316723e-005 6.47380948e-005 4.44939178e-005 1.41688388e-005
      -6.90561079e-004 -2.88065814e-004 3.25369241e-004 -1.51632594e-005
      -2.43822127e-004 -5.98896411e-004 6.58451199e-006 4.12908521e-005
      3.60032973e-005 -5.37924643e-004 -3.88998771e-004 5.78202016e-005
      3.19596060e-004 -8.28647317e-005 5.92190154e-005 -4.99626331e-004
      -5.03868330e-004 -9.44825933e-006 -7.34410569e-005
      -6.88130327e-004 -1.51862681e-004 5.52978054e-005 9.39695674e-005
      5.18487241e-007 5.38738750e-005 -1.44817212e-004 -6.99293392e-004
      2.20755974e-005 3.06511606e-006 -6.91523543e-004 4.43064491e-005
      6.18936610e-005 1.25646702e-005 -4.48852516e-005 4.22384874e-005
      -7.00595047e-006 -7.44253164e-004 5.46334632e-005 -1.89484534e-004
      -5.51652978e-004 8.21381182e-005 9.00768791e-005 -1.87466048e-005
      -1.40245727e-004 6.29916613e-005 6.64480685e-005 -5.76563820e-004
      -3.19467363e-004 -5.71235607e-004 -4.23336722e-004
      -2.43746385e-004 -2.46120821e-004 6.76884898e-004 5.21282316e-004
      -2.81917397e-004 -2.91007891e-004 -4.08783148e-004
      -2.32543694e-004 -2.25731099e-004 -2.72509002e-004
      -3.79972393e-004 -4.62813798e-004 6.48904359e-004 5.42867288e-004
      -4.83884709e-004 -1.08520879e-004 -2.49741453e-004
      -1.76012560e-004 -1.69613530e-004 -5.94966346e-004 5.45149596e-005
      7.57585003e-005 3.70841417e-006 -1.72225715e-004 5.46906012e-005
      5.43573115e-005 -5.74720558e-004 -2.85108137e-004 1.22146866e-005
      -7.10458378e-004 1.97229874e-005 4.63902579e-005 3.22151136e-005
      1.64592220e-005 4.25055659e-005 2.66991847e-005 -7.50065607e-004
      5.38651148e-005 -1.80723160e-004 -6.84748986e-004 -1.47795203e-004
      6.43009334e-005 2.09737191e-005 1.62292272e-005 4.76627793e-005
      -1.82125979e-004 -7.02413090e-004 -1.46900197e-006 1.51263694e-005
      -5.49394172e-004 -4.52233100e-004 3.34373690e-005 1.45218901e-005
      2.26356613e-004 5.19744026e-005 -4.07166284e-004 -4.23038407e-004
      3.07895752e-005 3.63843501e-005 -4.60504198e-005 -6.75730174e-004
      -2.12648141e-004 -2.40478075e-005 3.07415030e-004 -2.84819514e-004
      -6.78826647e-004 8.49111802e-006 4.30065920e-005 5.36210500e-005
      2.17229353e-005 5.21277143e-005 -1.75527312e-004 -7.11691508e-004
      -3.02169588e-004 -1.53338522e-004 1.12279115e-004 3.88309236e-005
      2.79598171e-005</_>
    <_>
      -2.74588674e-004 -2.83170753e-004 2.37445329e-005 -1.81940530e-004
      -1.77414986e-004 -2.94658326e-004 -4.55222267e-004
      -8.82819659e-005 -3.59661382e-004 -3.37940961e-004
      -2.10601691e-004 -2.20697140e-004 -3.50911898e-004
      -9.90499029e-005 4.25467761e-006 -3.58782781e-005 -2.83369707e-004
      -4.09489818e-004 -2.66060408e-004 -2.42048336e-004
      -2.67510659e-005 -2.84691894e-004 -2.38639812e-004
      -9.05233828e-005 -9.02981701e-005 -7.87134486e-005 5.70281782e-006
      -2.66395044e-004 -2.11334729e-004 4.92353247e-005 1.55157424e-004
      -1.37212570e-004 -2.41504269e-004 -1.86807971e-004
      -1.85146157e-004 -1.33712892e-004 2.18498943e-004 -7.20655808e-005
      2.84052221e-005 3.12822696e-004 1.52106353e-004 -6.72520255e-005
      2.60799425e-005 4.42585551e-005 3.92818365e-005 7.13145419e-005
      2.70504621e-004 1.10853500e-004 -1.56939241e-005 2.53379723e-004
      -4.44234392e-005 6.07457514e-005 2.61662761e-004 2.68409261e-004
      2.63163034e-004 2.72682111e-004 3.21239262e-004 2.79837870e-004
      6.47614943e-005 1.24636063e-004 -1.97656755e-005 1.26803789e-004
      3.31345189e-004 3.39439139e-004 3.36847443e-004 3.40941886e-004
      3.38250858e-004 3.29702452e-004 1.14799732e-004 -7.53975546e-005
      -9.84455073e-006 1.07125823e-004 3.25445842e-004 3.35728313e-004
      3.38652928e-004 3.33634496e-004 3.32848722e-004 3.27634596e-004
      1.16985517e-004 -2.20200876e-004 -4.03826971e-006 6.43700187e-005
      2.62391579e-004 2.77076528e-004 2.85092770e-004 2.78109626e-004
      2.60748056e-004 2.42432885e-004 1.54022428e-006 -1.87603699e-004
      2.47397111e-004 -5.63817639e-006 9.79003380e-005 1.11714136e-004
      1.23290301e-004 1.12913003e-004 3.45773078e-005 1.15533849e-005
      -2.96869111e-004 -1.65630277e-004 2.15059801e-004 1.52984903e-005
      -9.40579994e-005 -4.91222854e-005 -4.84817028e-005
      -5.31541154e-005 -1.89829065e-004 -2.75938131e-004
      -4.75859269e-004 -2.37016327e-004 1.56612150e-005 -2.43603965e-004
      -2.32679246e-004 -7.30647953e-005 -6.05232053e-005
      -7.20727403e-005 -1.11327921e-004 -2.76694191e-004
      -2.38608685e-004 -2.04926415e-004 -2.50399404e-004
      -2.96448008e-004 -4.01218393e-004 -1.47862855e-004
      -8.65288966e-005 -1.00924779e-004 -1.45353784e-004
      -3.23808199e-004 -7.65017321e-005 -2.17658046e-004
      -3.35146382e-004 -3.59391852e-004 -6.25398243e-005
      -2.41666683e-004 -3.32956901e-004 -2.80289911e-004
      -1.24531696e-004 3.50850496e-005 -3.69517365e-005 -2.27582219e-004</_>
    <_>
      8.15711173e-005 5.65993942e-005 7.46659862e-005 -6.36339755e-005
      -3.83983861e-004 -5.09525591e-004 -2.82407767e-004 7.13804329e-004
      -1.45673170e-004 8.76598351e-005 8.04808224e-005 5.90952441e-005
      -5.74996346e-004 -3.08190531e-004 -2.06941058e-005 6.50623639e-004
      -3.50337476e-004 -4.09954140e-004 3.96506803e-005 6.76920099e-005
      5.99911145e-005 -4.05388302e-004 -4.77035413e-004 6.92906848e-004
      1.77672453e-004 -1.00129539e-004 6.33684831e-005 -4.59723291e-004
      -3.77468590e-004 3.71441492e-005 -5.78145737e-005 -8.90584313e-004
      4.89604543e-004 -1.74289613e-004 1.50176056e-004 8.62915549e-005
      8.30690333e-005 -1.37046649e-004 -5.83356537e-004 9.88069223e-005
      -2.98836003e-005 7.33083361e-005 6.96887437e-004 -2.38527267e-004
      8.47491901e-005 8.69909854e-005 6.19016282e-005 -3.26061013e-006
      -6.46433793e-004 1.29478300e-004 -6.81763850e-005 1.33626861e-004
      -1.66596525e-004 1.03242302e-004 9.30474998e-005 7.94920124e-005
      8.83238681e-005 6.64239778e-005 -5.08607365e-004 -1.40743141e-004
      -5.19028050e-004 1.69805717e-004 9.68151435e-005 1.02341837e-004
      6.27317713e-005 8.08784971e-005 7.26716680e-005 4.80277558e-005
      -4.69880033e-004 -1.61214513e-004 -5.45598741e-004 1.40032484e-004
      8.49306889e-005 9.42976840e-005 7.59316827e-005 7.95177039e-005
      7.26304643e-005 6.36500990e-005 -4.57283604e-004 -1.47307335e-004
      -5.31132624e-004 1.31915775e-004 -6.45502078e-005 8.88509749e-005
      8.76903578e-005 6.63472601e-005 7.33603374e-005 6.28051203e-005
      -5.06645476e-004 -1.30861401e-004 2.13310093e-004 -4.39688010e-004
      7.03007390e-004 8.08099321e-006 7.73580978e-005 9.14935154e-005
      7.25335049e-005 5.64360598e-005 -6.29055139e-004 2.18554531e-004
      -8.77264029e-005 -4.91294544e-004 -2.25080771e-006 6.99743105e-004
      -8.91221862e-005 6.07616967e-005 6.52109957e-005 -1.54403126e-004
      -5.98346931e-004 6.69849542e-005 4.61738491e-005 -4.17093106e-004
      -3.66169785e-004 6.30935610e-005 6.88642031e-004 1.22896645e-005
      1.10907626e-004 -3.67035449e-004 -3.74513591e-004 6.62551465e-005
      6.65006955e-005 -1.57626473e-005 -5.68130286e-004 -2.04032185e-004
      8.85213649e-006 -1.04837731e-004 6.20157662e-005 -6.98937802e-004
      7.48826133e-005 8.48846757e-005 7.33865527e-005 6.26485489e-005
      7.08389052e-005 -9.80015611e-005 -5.55465056e-004 -5.28717996e-004
      -7.38195376e-005 -1.03636208e-004 2.44671071e-004 7.53422792e-005</_>
    <_>
      -5.38467393e-005 7.61437870e-004 -2.72696750e-004 -1.54290916e-004
      -4.44403355e-004 -5.46244381e-004 -1.65100268e-004 6.18670310e-005
      5.56490158e-005 7.29978856e-005 6.49173599e-005 5.41740410e-005
      -7.70148472e-004 1.21326048e-004 2.42193913e-004 2.06684253e-005
      -2.52071244e-004 -4.64760204e-004 1.69206633e-005 5.22693190e-005
      5.26588774e-005 -4.80152259e-004 -3.71906470e-004 5.82804896e-005
      -1.16669595e-004 6.65355066e-004 2.54732236e-004 -6.17717393e-004
      -4.18193755e-004 4.31011977e-005 5.04533346e-005 -6.03491382e-004
      -1.41867611e-004 6.95337148e-005 5.71759010e-005 -2.29823636e-004
      6.14741934e-004 4.51917527e-004 -9.81904101e-004 -4.99178386e-005
      2.14498199e-004 -5.72712393e-004 4.97499532e-005 5.94148914e-005
      6.33752934e-005 5.94772682e-005 -2.75551691e-004 5.85203641e-004
      -1.85974306e-004 1.21138901e-005 -1.71351305e-004 -4.94062610e-004
      6.03172593e-005 6.83940743e-005 6.51503069e-005 6.05374189e-005
      7.18683150e-005 -1.07036874e-004 7.14857597e-005 -2.00365626e-004
      -5.99870051e-004 -4.48262872e-004 5.84383779e-005 8.17550390e-005
      6.27795234e-005 7.37836745e-005 4.45183068e-005 -2.51752557e-004
      1.10174653e-004 -1.83854805e-004 -5.93911565e-004 -4.69033723e-004
      5.55362676e-005 7.39617608e-005 5.45255316e-005 6.42524683e-005
      5.92215511e-005 -2.95088801e-004 8.64766698e-005 -1.92803651e-004
      -1.63231016e-004 -5.04556636e-004 3.35537479e-005 5.54645776e-005
      6.35067190e-005 6.47916095e-005 6.04343841e-005 -1.64139768e-004
      7.28751183e-005 2.47292828e-005 2.16216067e-004 -5.88462804e-004
      2.58064629e-005 4.66543715e-005 7.64443612e-005 7.82908683e-005
      -2.90158769e-005 2.65369104e-004 -2.30623427e-005 -5.00687893e-005
      -1.37834024e-004 -5.91253571e-004 -1.32925736e-004 5.60440603e-005
      5.81563181e-005 4.60632291e-005 3.30704570e-005 3.41775361e-004
      -6.24965003e-004 -2.13211788e-005 9.44527437e-006 -4.89882659e-004
      -3.91393260e-004 4.51181331e-005 8.73139361e-005 3.08185336e-005
      5.59308042e-004 -5.55060047e-004 -2.11270293e-004 4.26009792e-005
      3.88949047e-005 -2.61096829e-005 -5.79414598e-004 -2.36971391e-004
      6.06445363e-004 9.73938731e-005 -3.44957050e-004 -5.25205920e-004
      1.56476963e-005 6.39287755e-005 3.46607630e-005 4.30698856e-005
      5.03023446e-004 -3.80661280e-004 -4.97477711e-004 -3.93700553e-004
      -7.52895285e-005 5.87083305e-005 2.42458191e-005 4.77728026e-005</_>
    <_>
      2.10683484e-005 1.50198721e-005 1.73763947e-005 -3.09724623e-004
      -3.58704012e-004 -5.25715121e-004 -2.70799996e-004 2.97281495e-005
      4.66770234e-006 3.10710820e-005 1.22511146e-005 -1.14854756e-005
      -6.38587924e-004 -2.55724444e-004 2.41906964e-004 3.52034403e-004
      -2.02046125e-004 -5.28775330e-004 -1.35868622e-005 1.53884503e-005
      2.68657141e-006 -5.67271316e-004 -2.88493611e-004 3.06302391e-005
      -1.33667083e-004 3.56099248e-004 -1.12583748e-005 -4.47608094e-004
      -5.40204521e-004 -1.28395222e-005 -1.49261896e-005
      -3.13666591e-004 -1.36367555e-004 3.73637049e-005 -2.69661745e-004
      -1.78665214e-004 6.56435213e-006 -2.32959923e-004 -3.19866522e-004
      1.63883815e-004 1.75220324e-004 -5.86664146e-006 2.43462680e-004
      1.02525781e-004 -3.01537802e-004 -1.32495625e-004 1.54628469e-005
      2.80639797e-004 -5.83158835e-005 1.90305611e-004 -4.07146290e-004
      -4.99845599e-004 5.52857120e-004 -1.86171397e-004 1.76634247e-004
      1.32425717e-004 3.33023025e-004 3.69592890e-004 -5.94164128e-004
      -2.68397795e-004 -6.44503278e-004 -3.98063799e-004
      -3.83053248e-006 1.89720071e-004 6.55888231e-004 6.86492014e-004
      -1.25769890e-004 -4.90790335e-005 -4.75191831e-004
      -2.36884691e-004 -6.34775613e-004 -4.41922923e-004 2.35036205e-005
      2.36006119e-004 6.94168149e-004 6.51455775e-004 -1.10003610e-004
      7.90207341e-005 -4.55021916e-004 -2.31279075e-004 -3.64814303e-004
      -5.92000317e-004 1.22639191e-004 -1.46916413e-004 2.34943582e-004
      2.13264109e-004 2.26208882e-004 2.22127259e-004 -5.92880824e-004
      -1.73476699e-004 -1.74287561e-004 -1.80507159e-005
      -4.42402634e-005 5.18582201e-005 -1.27572610e-004 -1.22631827e-004
      9.22936306e-005 1.31195047e-004 -5.50972363e-005 2.40258931e-004
      1.57226255e-004 -2.29398924e-004 -1.98590889e-004 1.76926933e-005
      -6.78904107e-005 -1.13672053e-004 2.76483861e-005 -1.46195787e-004
      -2.34976033e-004 -1.09015920e-004 -1.00103483e-004
      -7.13901769e-004 -3.53590469e-004 1.56075894e-005 -1.40750068e-004
      2.44409777e-004 2.58405416e-005 -3.43891850e-004 -4.91731684e-004
      -7.09825690e-005 7.98049950e-006 -9.00431114e-005 -6.17524434e-004
      -1.55886082e-004 -1.63396646e-004 1.89471844e-004 -2.42939233e-004
      -5.93383505e-004 -1.33377935e-005 3.03682391e-005 2.83414884e-005
      4.46470722e-006 1.24478029e-005 -2.41147442e-004 -6.48119720e-004
      -5.38952881e-004 -2.23651266e-004 4.12157824e-005 8.66329538e-006
      2.50701123e-005</_>
    <_>
      3.21108208e-004 3.21850748e-005 2.09841946e-005 -2.02818643e-004
      -4.59199975e-004 -5.19699359e-004 -1.79498398e-004 3.54765907e-005
      3.54248150e-005 2.42101363e-004 -7.71042833e-005 -1.00322002e-004
      -5.79961983e-004 -2.79377069e-004 5.36628067e-005 6.44885586e-006
      -2.47049524e-004 -4.68350452e-004 -4.05701954e-004 2.52554637e-005
      3.11506083e-005 5.01546601e-005 -4.03807673e-004 3.10018368e-005
      3.96425385e-005 1.96086949e-005 -6.64447589e-006 -5.03398071e-004
      -4.53861459e-004 -2.58134719e-006 -7.04686536e-005
      -5.68562478e-004 4.96807566e-004 5.44947325e-005 3.36034864e-005
      3.14200261e-005 3.81785430e-005 4.74399771e-004 -5.74240577e-004
      -6.14708624e-005 -1.55310481e-005 -5.64563903e-004
      -8.18876797e-005 2.38517139e-004 2.94015263e-005 3.19672763e-005
      3.93817230e-004 -1.54991605e-004 -6.21438550e-004 1.36015688e-005
      -1.50355772e-004 -4.67030186e-004 4.56765883e-005 1.06907406e-004
      5.38845998e-005 -1.49374697e-004 1.02914055e-004 1.60211475e-005
      -5.06545184e-004 -1.40083357e-004 -5.93118370e-004
      -4.22643527e-004 3.74603733e-005 4.35652873e-005 4.98526322e-004
      4.93410800e-004 4.92512372e-005 -6.92547474e-007 -4.65407938e-004
      -1.75065172e-004 -5.84470807e-004 -4.46957449e-004 3.07760492e-005
      3.92885777e-005 2.75450933e-004 2.60621222e-004 4.64290206e-005
      9.54622374e-006 -4.50600841e-004 -1.69437961e-004 -1.16000963e-004
      -4.92530467e-004 1.59725550e-005 -7.51201223e-005 -8.83508837e-005
      -8.39437489e-005 1.45858736e-004 8.61550052e-006 -4.95987188e-004
      -9.52425689e-005 -4.72046167e-006 -5.82336099e-004 1.79261660e-005
      4.31345892e-004 4.63176038e-005 4.14837377e-005 3.75714211e-004
      -1.59332601e-004 -6.29062939e-004 3.12132324e-005 -1.34600617e-004
      -5.43133589e-004 3.81783408e-004 5.11338294e-005 2.86946251e-005
      1.88666163e-005 1.89818111e-005 4.51576314e-004 -5.74186211e-004
      -8.17811670e-005 -1.62579329e-006 -3.01605847e-004
      -4.21296572e-004 -5.48052003e-006 2.71247645e-005 2.98452251e-005
      1.19621263e-005 -3.96611489e-004 -1.68074141e-004 2.72350590e-005
      2.91256511e-005 1.46828461e-004 -5.69904456e-004 -1.89782964e-004
      -4.76468176e-006 2.58798609e-005 -2.51866528e-004 -5.78075356e-004
      -5.45598159e-005 1.24005004e-004 5.39349217e-004 1.86045709e-005
      1.29240061e-005 -1.95605739e-004 -5.27873344e-004 -4.92564403e-004
      -1.75842113e-004 5.53812970e-005 3.11579461e-005 4.66307771e-004</_>
    <_>
      -3.67766961e-006 -6.75499250e-005 -1.86746998e-004
      -1.11370464e-004 -2.56227562e-004 -3.13373515e-004
      -1.02247832e-004 -2.04548327e-004 -5.45519615e-005
      -4.72757301e-006 -6.24235981e-005 1.48261810e-004 -4.77227040e-005
      5.61899542e-005 2.39635963e-004 2.04199343e-004 7.36525471e-005
      5.56728492e-006 6.19663697e-005 -6.09338495e-005 -8.18841363e-005
      4.01676652e-006 4.68290455e-005 2.72988662e-004 2.79673142e-004
      2.80330016e-004 2.59692082e-004 4.98574300e-005 2.33214945e-004
      -9.05625784e-005 -2.12883533e-005 -5.21831353e-005 1.84526332e-004
      2.77065759e-004 2.80329812e-004 2.89032934e-004 2.80245498e-004
      1.65195554e-004 -3.27864655e-005 -2.77173443e-004 8.99479255e-006
      -3.59782789e-005 2.58489337e-004 2.82264489e-004 2.90504453e-004
      2.90502096e-004 2.87298724e-004 2.37866872e-004 -3.90069545e-005
      -1.67063161e-004 -1.23935344e-004 -4.50830776e-005 2.74660386e-004
      2.88262701e-004 2.92816258e-004 2.87815084e-004 2.87571165e-004
      2.66408431e-004 -3.34096476e-005 1.27411447e-004 -1.28464948e-004
      -1.17215823e-005 2.73577782e-004 2.91340228e-004 2.88909796e-004
      2.90224591e-004 2.88352981e-004 2.78764754e-004 -2.05326178e-005
      -6.18812192e-005 -1.21101715e-004 -1.83242864e-005 2.77335494e-004
      2.86972441e-004 2.85232964e-004 2.93016317e-004 2.89453805e-004
      2.72629492e-004 -1.84681703e-005 -7.40133983e-005 -1.45395970e-004
      -2.93760131e-005 2.71514728e-004 2.88448471e-004 2.89575139e-004
      2.89272342e-004 2.85114191e-004 2.65141658e-004 -4.64337318e-005
      4.71047351e-005 1.29165710e-004 -3.87068721e-005 2.53580394e-004
      2.89053511e-004 2.91533070e-004 2.90911412e-004 2.85938411e-004
      2.58478220e-004 -4.27253108e-005 1.38139672e-004 -7.60556795e-005
      -4.32747220e-005 1.82395641e-004 2.79731641e-004 2.82970432e-004
      2.90113181e-004 2.82825262e-004 1.63310600e-004 -1.63198492e-005
      -4.27070154e-005 -7.90365375e-005 -4.22631041e-004 1.18191956e-005
      2.64793198e-004 2.82166235e-004 2.85881863e-004 2.22558476e-004
      -6.44941319e-005 1.38612217e-004 -5.90329546e-005 -9.60547459e-006
      -5.36496336e-005 -1.42606397e-004 9.07789363e-005 2.14109066e-004
      2.15000633e-004 -1.49573698e-005 -1.19383658e-004 -2.95121372e-005
      -2.14071079e-005 -1.30066010e-005 -1.17680029e-005 3.65002961e-005
      -2.70036835e-004 -4.22402343e-004 -2.20359318e-004
      -1.42062650e-004 9.32379116e-005 -1.44898850e-005 -4.66477013e-006</_>
    <_>
      1.26300456e-005 -1.48972367e-006 2.66171264e-005 -1.72461427e-004
      -4.52350854e-004 -4.78436792e-004 -1.58308147e-004 1.80400693e-005
      1.88829756e-004 7.99035261e-005 9.40755399e-006 -1.04749724e-005
      -5.26397955e-004 -2.55880732e-004 3.01884666e-005 1.01940386e-005
      -2.17291046e-004 -4.39089170e-004 4.23652906e-004 -3.87862237e-005
      -1.93003393e-006 -4.31885448e-004 -3.17195954e-004 1.57636950e-005
      1.46973580e-005 1.57351406e-005 5.78972140e-005 -2.10677972e-004
      -6.05643669e-004 -5.28420924e-006 -7.65137738e-005
      -5.34300343e-004 -1.42773439e-004 1.00060042e-005 1.06731068e-005
      1.45265849e-005 2.00041890e-004 -1.53831439e-004 -5.15191525e-004
      -2.77842519e-005 1.32702871e-005 -5.30168938e-004 -3.21451444e-006
      1.07751175e-005 1.40505927e-005 -2.25183641e-004 5.47686708e-004
      -2.31457034e-005 -5.60526678e-004 5.11718790e-005 -1.30494620e-004
      -4.48030216e-004 1.78546361e-005 1.80829684e-005 -3.72930335e-005
      2.35785810e-005 -7.16735885e-005 2.44132698e-005 -4.67575534e-004
      -2.12251252e-004 -5.22766844e-004 -4.15486866e-004 1.40707489e-005
      1.73584904e-005 -1.07240201e-004 5.86233044e-004 6.30301793e-006
      -5.88442981e-006 -4.20324621e-004 -2.50528945e-004
      -5.21659560e-004 -4.27882420e-004 1.39356762e-005 -1.00344339e-004
      5.79738407e-004 2.05528268e-005 4.69983434e-006 1.61916853e-006
      -4.17361385e-004 -2.41186150e-004 -1.13456445e-004
      -4.64819866e-004 -9.13956046e-006 -8.38735941e-005
      -2.33625688e-004 1.96210149e-005 1.54175650e-005 -1.25858219e-006
      -4.60495823e-004 -1.69711449e-004 1.30469334e-005 -5.26967633e-004
      -8.01124988e-005 5.76938619e-004 -4.59411740e-006 1.40666343e-005
      -3.81297764e-006 -1.54428290e-005 -5.75509039e-004 3.52409734e-005
      -1.31957961e-004 -5.35874278e-004 3.95105773e-004 -1.40346892e-004
      1.80583702e-005 5.85092766e-006 7.36480524e-006 -1.80511459e-004
      -5.36940934e-004 -3.52565621e-005 9.07197318e-006 -5.16305910e-004
      -2.67540425e-004 -6.99463271e-006 6.51443997e-006 1.57457305e-006
      5.73172929e-006 -3.38930549e-004 -3.49348062e-004 2.95378391e-006
      2.17973866e-005 5.03224903e-004 -6.22062304e-004 -1.95306857e-004
      -1.85873305e-005 -3.39731878e-006 -2.52222875e-004
      -5.24318952e-004 -1.38486494e-005 7.89873047e-006 4.99951653e-004
      -6.49346111e-005 1.74253619e-005 -1.55679154e-004 -4.78400005e-004
      -4.51796164e-004 -1.36068367e-004 5.19203022e-005 -1.24563962e-006
      -1.28186423e-006</_>
    <_>
      2.53794369e-005 1.08185768e-005 3.11846379e-005 -1.72328000e-004
      -4.00381308e-004 -1.47421117e-004 -1.61703792e-004 4.56799717e-005
      1.33874873e-005 2.72965299e-005 9.87612020e-006 1.53390226e-006
      -5.60702989e-004 -2.32719904e-004 6.03980909e-004 6.17273268e-004
      -1.90259976e-004 -4.75864508e-004 -4.55447253e-006 1.36256658e-005
      9.12154519e-006 -4.38124931e-004 -3.03421839e-004 2.39671299e-005
      1.99068061e-004 3.02252971e-004 2.55525629e-005 -4.09373286e-004
      -4.10602923e-004 -1.32682380e-005 -9.56914882e-005
      -5.59974113e-004 -1.33855487e-004 2.06147015e-005 4.66576967e-005
      2.82017718e-005 2.24875366e-005 -1.30954795e-004 -5.52952173e-004
      7.52794494e-006 -2.94753481e-005 -5.51518868e-004 1.31449597e-005
      3.58487923e-005 2.46604504e-005 2.92937166e-005 2.19959547e-005
      -1.57328486e-005 -5.94424084e-004 1.93217147e-005 -1.53797271e-004
      -4.46160906e-004 3.45229419e-005 3.74518604e-005 3.46409615e-005
      3.94667368e-005 3.63231411e-005 3.81339341e-005 -4.64034209e-004
      -2.63452966e-004 -6.94709131e-004 -3.79632140e-004 8.59949796e-005
      -3.59213911e-004 -3.50823626e-004 -3.36737343e-004
      -3.31447518e-004 -3.40051716e-004 -7.54798239e-004
      -8.45288887e-005 -4.95913322e-004 -3.92057002e-004 7.86115343e-005
      3.25539695e-005 -2.53944709e-005 -4.47858401e-005 -7.11831381e-005
      -9.45978900e-005 -5.38348046e-004 -4.09642118e-004
      -1.36606570e-004 -4.64580749e-004 2.81951725e-005 3.57313365e-005
      3.26858863e-005 2.90858370e-005 3.42459316e-005 3.05983303e-005
      -4.62150754e-004 -2.39270768e-004 -2.41209855e-005
      -5.50264725e-004 1.21983912e-005 2.97952720e-005 3.74332885e-005
      3.93563096e-005 3.37541242e-005 1.61944008e-005 -5.89024450e-004
      1.35985920e-005 -1.32259360e-004 -5.36172476e-004 -1.16670861e-004
      2.83960308e-005 2.75524708e-005 3.06299626e-005 2.99673793e-005
      -1.39988799e-004 -5.59409207e-004 -1.09664998e-005 5.03489503e-007
      -4.41899203e-004 -3.51973460e-004 1.34756147e-005 2.88756972e-004
      -2.17968482e-005 4.01200377e-005 -3.17979866e-004 -3.77716293e-004
      2.60675824e-005 1.70778203e-005 -4.50569569e-005 -5.31905622e-004
      -1.66244252e-004 5.66850649e-004 5.77223895e-004 -2.07138859e-004
      -5.48943586e-004 2.60620664e-006 2.69366501e-005 3.21176813e-005
      1.41404898e-005 3.10197211e-005 -1.69740160e-004 -8.50790879e-004
      -1.04894832e-004 -1.39508891e-004 7.32827684e-005 1.87724509e-005
      2.52354348e-005</_>
    <_>
      5.51830526e-005 5.21759612e-005 -2.80976034e-004 -4.44377001e-005
      -3.92964750e-004 -2.23960189e-004 -6.03081833e-004 5.12558152e-004
      -7.67798556e-005 7.12921828e-005 2.79043470e-005 3.74882104e-004
      -3.78668599e-004 -3.85067193e-004 4.57243004e-005 -9.81526464e-005
      -2.49213826e-005 1.32608679e-004 -2.33883417e-004 7.03081678e-005
      -1.12196212e-004 1.39846437e-004 -3.91933223e-004 5.24646130e-005
      6.00856802e-005 5.05584212e-005 -3.51022063e-005 -4.49949235e-004
      -3.97648728e-005 6.42189552e-005 -1.56893831e-004 7.47123049e-005
      -6.64377512e-005 5.65940609e-005 4.52544155e-005 3.92745569e-005
      3.07699993e-005 -1.87191967e-004 -4.28664964e-004 -4.67853562e-004
      -7.45828947e-005 1.46189950e-005 4.68158141e-005 1.15929943e-004
      6.14236997e-005 4.82727737e-005 2.81678713e-005 -1.24966791e-005
      -9.07477224e-004 -1.91830375e-004 -1.47227765e-004
      -6.79892546e-004 7.21013639e-004 8.16899865e-006 -9.64902429e-005
      9.98933319e-005 6.63248356e-005 3.16208389e-005 -5.41955116e-004
      -9.68444801e-005 -6.75476098e-004 -3.87730281e-004
      -6.10601346e-005 7.32674322e-004 6.95888477e-004 7.24342943e-004
      3.06571077e-004 9.38739140e-006 -4.66116995e-004 -1.68653394e-004
      -6.71253132e-004 -4.63765784e-004 5.86678689e-005 7.63938515e-005
      -1.47691506e-004 -3.39770486e-004 3.39606573e-004 6.98369287e-004
      -8.64008416e-006 -1.32856934e-004 -1.67088307e-004
      -5.26033808e-004 3.08205563e-005 5.04167874e-005 5.70209886e-005
      5.47042218e-005 7.75195585e-005 1.24745693e-005 1.17364354e-004
      -7.01366298e-005 -1.64318670e-004 -7.54398061e-004 1.81520027e-005
      3.34608412e-005 4.52864297e-005 5.67592069e-005 4.22963531e-005
      2.40849968e-005 -8.85725254e-004 4.79306123e-004 -2.22696312e-004
      -4.14793991e-004 -7.47866507e-005 5.07403201e-005 4.34316462e-005
      4.19446878e-005 3.61155689e-005 -1.72892425e-004 -9.27575107e-004
      3.51203693e-004 2.88514343e-006 5.76053862e-005 -1.90521983e-004
      1.06937739e-004 6.23043597e-005 5.01089708e-005 3.37646452e-005
      -2.95467878e-004 -2.94354366e-004 4.95354994e-004 3.90345922e-005
      1.10605550e-004 2.25975018e-005 1.73213630e-004 -6.63674800e-005
      -1.17040356e-004 -4.02310106e-004 -5.03035553e-004 6.14658347e-004
      5.68976429e-005 5.38462191e-005 -3.87689761e-005 1.39042722e-005
      -6.41721883e-004 -3.07850103e-004 -2.60611967e-004 4.10933972e-005
      2.99653213e-004 6.49907015e-005 4.95186760e-005</_>
    <_>
      3.46081615e-005 -1.31977868e-004 1.13485425e-004 2.93181132e-004
      1.19887583e-004 -4.08749736e-004 6.21314030e-005 3.96550349e-005
      4.13332637e-005 4.80240487e-005 4.59706644e-005 -1.61373449e-004
      -2.17319161e-004 3.07110342e-004 5.81365719e-004 2.64462549e-004
      -2.14189247e-004 -3.91632522e-004 3.89344023e-005 3.61333987e-005
      3.30307084e-005 -4.40880191e-004 -2.30747144e-004 3.60391859e-005
      4.45124060e-005 1.74501602e-005 9.49420792e-006 -3.69521935e-004
      -3.01347609e-004 7.62040781e-006 -5.49724609e-006 -4.86562203e-004
      -8.35129758e-005 5.27312986e-005 4.54758956e-005 3.86210522e-005
      3.85719177e-005 -1.28084372e-004 -5.05004718e-004 -6.33306699e-005
      -1.23005491e-004 -4.95386368e-004 4.41015109e-005 6.46596891e-005
      5.49537435e-005 5.00092901e-005 5.00073220e-005 2.83651298e-006
      -5.31224359e-004 -4.98622139e-005 -2.43272560e-004
      -4.14780487e-004 3.55735508e-004 5.49992430e-004 5.50786266e-004
      2.99813255e-004 9.67985488e-006 2.49101922e-005 -4.04416758e-004
      -5.04339441e-005 -4.84707474e-004 -2.82960566e-004
      -6.83511171e-005 3.82281956e-004 5.48157666e-004 -7.26977232e-005
      4.54346336e-005 2.81660850e-005 -3.62075982e-004 -1.52701192e-004
      -5.05353091e-004 -3.65677755e-004 8.82623135e-005 -3.64354433e-004
      5.64876129e-004 3.26654932e-004 -6.81201927e-005 3.29069844e-005
      -3.66262888e-004 -1.68852945e-004 -1.42377656e-004
      -4.19947464e-004 5.75510057e-005 -3.73267569e-004 5.72582998e-004
      3.03274428e-004 -2.32648345e-005 2.85748592e-005 -4.08675667e-004
      -1.28990752e-004 -3.84521991e-005 -4.98278299e-004 3.39555445e-005
      -3.01448017e-004 5.79980842e-004 3.10870848e-004 1.30121980e-005
      4.38206407e-005 -5.13448264e-004 1.69031719e-005 -5.73768921e-005
      -4.79644077e-004 -9.12536707e-005 1.59879040e-004 3.05564376e-004
      2.84870184e-004 8.42198133e-005 -1.09644250e-004 -4.87526384e-004
      -6.72819806e-005 -2.61933178e-006 -4.57312795e-004
      -2.87473464e-004 1.30710789e-004 3.13587283e-004 3.01209366e-004
      9.83873979e-005 -2.69588461e-004 -3.95067444e-004 2.47971275e-005
      1.88455815e-005 -5.80430788e-005 -4.77486668e-004 -6.20889114e-005
      2.98761181e-004 3.05630907e-004 -6.04132983e-005 -4.92070976e-004
      1.85167519e-005 4.22225785e-005 -3.20473919e-005 5.41644986e-005
      1.35994502e-004 2.92181503e-004 6.34793250e-005 6.23000815e-005
      2.86172377e-004 3.91721929e-004 2.66511634e-004 -3.76901677e-004</_>
    <_>
      7.73755528e-005 -3.31856805e-004 1.81658994e-004 -1.80592484e-004
      -2.50671088e-004 -9.54410571e-005 1.68846265e-004 -4.47103594e-005
      3.95582065e-005 4.54028923e-005 1.86159072e-004 5.69657830e-004
      -2.54464103e-004 -3.77452845e-004 3.56286386e-004 -2.39900939e-004
      -2.82820751e-004 7.05224884e-005 2.26699794e-005 4.33573805e-005
      5.79408115e-005 -5.72310528e-004 9.16402059e-005 4.49089013e-004
      7.89066689e-005 2.50814064e-005 1.20055898e-004 1.63681645e-004
      -5.25881303e-004 1.01241349e-005 -4.87494617e-005 -6.67933666e-004
      9.94251241e-005 1.05291234e-004 4.30193504e-005 4.28473795e-005
      7.17649091e-005 1.72998873e-004 -5.78170700e-004 -5.62795685e-005
      -3.34635661e-005 -6.74176088e-004 2.08498313e-004 5.75032609e-005
      3.50142327e-005 2.63286056e-005 4.81661846e-005 7.36148140e-005
      -6.15390250e-004 -2.71179615e-005 -2.87235889e-004
      -5.90282492e-004 4.69138642e-004 5.59979344e-005 5.01358736e-005
      2.90097723e-005 5.71947530e-005 1.62794880e-004 -4.79362934e-004
      -1.47911967e-004 -5.69094263e-004 -5.12751110e-004 6.25005399e-004
      5.64235525e-005 3.43638385e-005 3.04974164e-005 5.62098794e-005
      1.88835969e-004 -4.04930674e-004 -2.31740196e-004 -5.55715465e-004
      -3.98922362e-004 6.24809181e-004 5.44268951e-005 4.84591583e-005
      2.58487689e-005 6.16552788e-005 2.09868449e-004 -3.93550843e-004
      -2.29067387e-004 -2.50865152e-004 -4.70680563e-004 6.08289498e-004
      5.75447993e-005 5.03753035e-005 3.63047875e-005 4.43139070e-005
      1.94121196e-004 -4.53269982e-004 -8.76074628e-005 -6.42433042e-006
      -5.61939378e-004 6.01208012e-004 4.46938429e-005 4.46239137e-005
      4.11828842e-005 4.00861318e-005 1.64163735e-004 -5.85854577e-004
      3.27334710e-005 -1.28731524e-004 -5.46004041e-004 6.98984295e-005
      5.47625277e-005 4.17988085e-005 2.89243781e-005 5.23987364e-005
      -2.18877190e-004 -5.90751995e-004 -6.22010339e-005
      -3.44799241e-006 -4.53185610e-004 -1.04809616e-004 6.18548729e-005
      5.08424600e-005 2.94815036e-005 6.80400117e-005 -3.52364616e-004
      -4.49533749e-004 3.44066102e-005 -2.61616136e-004 7.56322988e-005
      1.80616425e-005 -4.05751955e-004 2.64530645e-005 5.62245659e-005
      -5.07683784e-004 2.92113564e-005 3.32249387e-004 -2.34734543e-004
      3.08622664e-004 3.09656520e-004 2.99335050e-004 6.21502622e-005
      -4.65735444e-004 -4.02951031e-004 6.52638118e-005 1.58712384e-004
      1.20651181e-004 1.05982093e-004</_>
    <_>
      1.21963545e-004 8.83745597e-005 2.02284646e-004 -1.01164437e-003
      1.84608245e-004 1.29595064e-004 2.65584036e-004 4.32449542e-006
      1.79795912e-004 1.86950856e-004 1.49076586e-004 -4.16259936e-005
      -8.67494149e-004 -4.53668996e-004 -1.47249710e-004
      -1.78855713e-004 3.11383425e-004 2.91794888e-004 7.58923066e-004
      2.19192108e-004 6.31963703e-005 -1.66559836e-003 -3.66539665e-004
      1.71112566e-004 1.51027707e-004 1.53796966e-004 -3.23099157e-005
      5.02500334e-005 3.16752761e-004 1.18509262e-004 -3.02238390e-004
      5.09083438e-005 -1.64373225e-004 1.71853608e-004 1.46406775e-004
      1.41072829e-004 1.50253734e-004 2.78244814e-004 1.65110396e-004
      -1.76735251e-004 -8.35966901e-004 2.61829846e-005 1.87545549e-004
      1.44264806e-004 1.09876761e-004 1.32088273e-004 1.28012936e-004
      -2.91825796e-004 -1.77101314e-003 1.32074754e-004 4.41320211e-004
      -3.88141052e-004 1.18835211e-004 1.35304828e-004 1.44717415e-004
      1.37299561e-004 1.17757765e-004 9.52778501e-005 -1.06412231e-003
      -6.60229183e-004 -1.91590676e-004 -2.50922109e-004 1.45426355e-004
      1.35605122e-004 1.32031128e-004 1.47884493e-004 1.15239505e-004
      1.02187296e-004 -9.44330415e-004 -6.14167482e-004 -2.28333854e-004
      -2.52217986e-004 1.59313335e-004 1.31189401e-004 1.24774713e-004
      1.52829307e-004 1.11469446e-004 7.17389412e-005 -9.31738468e-004
      -6.27081492e-004 3.91869195e-004 -7.10579698e-005 1.29471780e-004
      1.43704121e-004 1.39959215e-004 1.64652840e-004 1.24652099e-004
      5.61546804e-005 -1.06423732e-003 8.45159229e-005 3.36331286e-004
      1.24193131e-004 3.20485036e-004 1.52676424e-004 1.54043257e-004
      1.60375377e-004 1.30846442e-004 5.65857226e-005 -1.35005603e-003
      1.97624846e-004 2.74751237e-005 1.29615946e-004 -8.46255571e-004
      1.81123847e-004 1.33154826e-004 1.29903361e-004 1.44320409e-004
      -3.48155154e-004 -1.52892328e-003 4.46701801e-004 9.24409105e-005
      9.20502061e-005 6.60627091e-004 -4.75053093e-005 1.65080724e-004
      1.50334876e-004 8.96483762e-005 -7.44716206e-004 -2.52796512e-004
      -5.18237648e-004 1.14758259e-004 -7.13776390e-005 1.03173013e-004
      8.19273468e-004 -7.41162439e-005 -2.84581736e-004 -7.65353383e-004
      -8.58526037e-004 -3.42420710e-004 1.80636591e-004 1.45579601e-004
      1.32742876e-004 2.08131096e-004 -3.01288528e-004 3.14705612e-005
      8.66623304e-006 8.93105811e-004 -5.22953866e-004 1.63705248e-004
      1.16996387e-004</_>
    <_>
      2.83009897e-004 1.63369623e-004 -1.68498882e-004 -8.68728093e-004
      -7.67859863e-004 -8.06423894e-004 4.05104505e-003 1.65812613e-004
      4.81490948e-004 3.34844604e-004 2.42230686e-004 -4.04306484e-005
      3.18717066e-004 2.40044421e-004 1.63175259e-003 1.65409478e-003
      2.31865240e-004 6.64747640e-005 -3.50069313e-004 3.02543049e-004
      6.39805337e-004 3.87065054e-004 -6.59780868e-004 3.42052255e-004
      3.41441104e-004 3.14663164e-004 6.80589175e-004 3.05828435e-004
      1.12581090e-003 -6.33167583e-005 -1.03266863e-003 3.77590011e-004
      4.66467143e-004 2.80513283e-004 2.86755385e-004 3.48509406e-004
      3.73177580e-004 6.94926362e-004 2.00487091e-004 -3.98489297e-004
      4.44060453e-004 8.95994483e-004 4.49064944e-004 3.08213843e-004
      2.17342676e-004 3.55077762e-004 2.03290940e-004 5.12520433e-004
      8.22716975e-005 8.65022070e-004 1.87050528e-003 1.39667280e-003
      1.97138084e-004 3.88957968e-004 2.48387514e-004 3.34392913e-004
      4.02286474e-004 3.04445188e-004 5.28698904e-004 2.25272216e-003
      8.28437078e-006 1.28890155e-003 2.67989672e-004 4.20414319e-004
      3.38154758e-004 4.48034581e-004 3.14259320e-004 3.11203876e-005
      2.79664731e-004 4.09356289e-004 2.25353942e-004 8.85840389e-004
      3.13526660e-004 4.57270304e-004 4.84073971e-004 4.40087315e-004
      3.09824187e-004 1.33865018e-004 4.24322119e-004 4.68097074e-004
      -4.50101588e-003 1.49310974e-003 4.24671802e-004 3.77732067e-004
      3.52112984e-004 2.40717243e-004 2.68089265e-004 3.56751931e-004
      3.33286356e-004 1.79636618e-003 -4.01594071e-003 6.57118217e-004
      9.26295586e-004 5.23470691e-004 4.01934609e-004 4.37174720e-004
      3.44036904e-004 8.84144159e-004 1.48156163e-004 2.67895474e-003
      1.10580574e-003 3.11273383e-004 1.02331978e-003 5.66634350e-004
      3.42218700e-004 3.80460842e-004 4.04551683e-004 1.11459056e-003
      7.73628926e-005 2.58103292e-003 4.07367479e-004 -6.92651898e-004
      1.67285115e-003 9.72200185e-004 3.72847047e-004 3.63745610e-004
      5.28249599e-004 1.10082598e-004 1.75394525e-003 7.88615143e-004
      3.08403658e-004 -4.09177475e-004 -5.62043570e-004 1.16084714e-003
      1.37128611e-003 1.15044240e-003 2.68498581e-004 6.88680166e-006
      -1.51580886e-003 3.33261909e-004 4.75671492e-004 3.03269946e-004
      1.17333187e-003 -1.05373946e-003 -1.87768938e-003 -1.65596220e-003
      8.37959698e-004 1.78626704e-003 3.80758400e-004 4.61999793e-004</_>
    <_>
      5.81540007e-005 4.81559837e-005 4.40476833e-005 -3.27160116e-004
      -3.26201029e-004 -3.87703767e-004 -4.74365806e-005 4.33008172e-005
      5.70504162e-005 6.14242526e-005 5.83856236e-005 3.15091747e-005
      -4.33230365e-004 -4.60892566e-004 5.31277601e-006 2.48069064e-005
      -1.75085937e-004 -3.63770640e-004 3.71924507e-005 7.01841709e-005
      3.62478931e-005 -3.36328114e-004 -2.44262861e-004 4.93788801e-004
      1.11123363e-005 6.45881664e-005 4.88843871e-005 -3.38040525e-004
      -3.15083278e-004 3.93357150e-005 -9.46744185e-005 -6.89094944e-004
      2.88532319e-004 5.70729433e-004 4.13802627e-005 -1.23259262e-004
      -1.24030586e-004 -3.87637847e-004 -7.46096775e-004 6.20539649e-005
      2.07532139e-005 -5.62597648e-004 -4.02167097e-005 5.47994568e-004
      2.46223964e-004 -2.38088487e-005 -3.76152602e-005 -4.61258314e-005
      -4.93853469e-004 -1.54167719e-005 -1.66861544e-004
      -3.38447659e-004 2.06078446e-004 5.13783481e-004 -3.84704035e-005
      7.83945725e-005 6.80958110e-005 5.50109617e-005 -3.71317990e-004
      -1.52744222e-004 -4.41291311e-004 -2.96259270e-004 1.87724552e-004
      5.21328591e-004 -2.51754809e-005 7.40375908e-005 6.20565115e-005
      4.91487117e-005 -3.37523117e-004 -1.45715210e-004 -4.43990284e-004
      -3.15166864e-004 1.26232990e-004 5.09996724e-004 2.67314081e-005
      5.53609025e-005 6.02026121e-005 5.29375393e-005 -3.23722954e-004
      -1.40779957e-004 -1.50020831e-004 -3.56366480e-004 7.19600648e-005
      5.13837556e-004 2.82115107e-005 6.88516011e-005 7.03984842e-005
      4.29674365e-005 -3.60585080e-004 -1.31692985e-004 6.28890266e-005
      -4.39564232e-004 4.22999328e-005 5.05121308e-004 -3.42538056e-004
      7.24317870e-005 6.30668219e-005 6.05511450e-005 -4.83765121e-004
      8.63577297e-005 -8.51668738e-005 -4.20483935e-004 -6.22901280e-005
      5.08194207e-004 -6.45783657e-005 7.88579346e-005 6.38275524e-005
      -7.68232494e-005 -4.50143329e-004 3.67407338e-005 2.10338221e-005
      -3.44350818e-004 -2.52576487e-004 4.74568194e-004 -7.22303666e-005
      9.39192614e-005 6.09304152e-005 -2.32877152e-004 -3.15820071e-004
      -3.48073372e-005 4.55802510e-005 -7.90802733e-006 -4.64419223e-004
      2.92056851e-004 5.52362180e-004 1.07356704e-004 -1.47667990e-004
      -4.55039029e-004 3.29265204e-005 -1.81276700e-004 6.46695262e-005
      5.25589494e-005 5.27942539e-005 -1.21165103e-004 -1.34038084e-004
      6.35239339e-005 3.48314730e-004 4.09918226e-004 1.02576450e-004
      7.10053209e-005</_>
    <_>
      4.53598332e-005 4.27792911e-005 -7.02570396e-005 -8.32627629e-005
      -3.24424822e-004 3.75945092e-005 -3.17594036e-004 7.09259257e-005
      4.49072686e-005 5.55912375e-005 7.71894702e-005 6.10433170e-004
      -3.04364745e-004 -2.90967670e-004 -3.50103546e-005
      -3.14160970e-005 2.28665274e-004 -3.35328485e-004 1.38522901e-005
      5.06454162e-005 -3.77438206e-004 1.02136102e-004 -1.93781176e-004
      7.32298940e-005 6.32242081e-005 8.90230658e-005 7.55481087e-005
      1.01169964e-004 -9.35195421e-005 3.63624240e-005 -4.41240263e-004
      -8.65166367e-005 -2.07252509e-004 7.00229793e-005 3.65703308e-005
      7.38165836e-005 8.60907166e-005 4.12374240e-004 -4.85770346e-004
      -7.87008103e-005 -3.11439071e-005 -5.91438555e-004 5.07984805e-005
      7.01388708e-005 5.72427416e-005 8.16393222e-005 6.96546922e-005
      5.73329860e-004 -4.95431595e-004 1.38578747e-004 -2.13747728e-004
      -4.91389888e-004 6.47520501e-005 8.24493764e-005 1.44200867e-005
      -4.68929320e-005 -1.03902159e-004 5.19105291e-004 -4.30206099e-004
      1.52072374e-004 -5.41142887e-004 -3.93757684e-004 3.87838045e-005
      -2.85811722e-004 7.09832471e-004 3.82526225e-004 2.12265863e-004
      4.95801040e-004 -3.94163566e-004 -2.13395455e-004 -5.32647944e-004
      -6.43383653e-004 6.09187176e-004 3.77823832e-004 1.20411685e-004
      8.15429084e-005 2.06715093e-004 6.37835532e-004 -3.73822957e-004
      -2.25131953e-004 -3.23366345e-004 7.76392917e-005 3.57364916e-004
      7.78767571e-005 6.98625008e-005 7.39025199e-005 1.80988354e-004
      4.75005334e-004 -4.24530677e-004 -4.08582746e-005 1.92305943e-005
      1.20525488e-004 7.44368954e-005 7.09206070e-005 7.26845246e-005
      7.28382583e-005 1.80395466e-004 4.72364336e-004 -4.92995547e-004
      2.33748884e-004 4.98618989e-004 1.09250694e-004 -1.05156250e-004
      6.96130155e-005 7.05327475e-005 7.97180255e-005 2.02183437e-004
      2.90716212e-004 -4.83563694e-004 -7.00967621e-006 5.79364656e-004
      2.01381932e-004 -2.91957258e-004 4.72882712e-005 7.73455031e-005
      1.12860769e-004 4.77796333e-004 8.12158178e-005 -2.58910441e-004
      6.06620852e-005 -2.92286772e-004 5.56380313e-004 -1.65679623e-004
      -9.85134902e-005 2.28452409e-004 5.78178384e-004 -2.91658635e-005
      7.17322982e-005 -5.66133240e-005 5.96641476e-005 1.35718001e-004
      -2.48942029e-004 5.71715471e-004 3.80778918e-004 -3.09539464e-004
      -3.21024883e-004 -8.67680210e-005 5.74296573e-004 5.81300177e-004
      1.08139029e-004</_>
    <_>
      4.60992596e-004 -8.41817200e-006 2.26368375e-005 -1.73046701e-005
      -3.36863508e-004 -4.66071971e-004 6.96411807e-005 2.91795615e-004
      2.95069127e-004 -6.65742773e-005 -1.59137489e-004 2.91641656e-004
      7.58365131e-005 3.69704321e-005 9.33449119e-005 4.57274509e-005
      -2.21159193e-004 4.91195215e-006 2.83258578e-005 9.98380892e-006
      5.78460458e-005 -3.30341107e-004 2.63076625e-004 -3.76790958e-005
      9.31488394e-005 7.84372533e-005 -1.77851194e-004 -2.65212788e-004
      -3.86258936e-004 5.13538325e-005 1.54901791e-005 -5.14975225e-004
      -3.53510550e-004 6.60704158e-004 1.61972232e-004 1.01973375e-004
      6.29528193e-004 -7.38119998e-005 -5.14726911e-004 -5.20899266e-006
      7.78640679e-005 -5.22110437e-004 1.33242880e-004 6.20142091e-004
      1.47249026e-004 3.58935940e-005 2.76357550e-005 1.46949810e-006
      -5.53968421e-004 6.37220728e-005 -2.67124735e-004 -4.27332474e-004
      1.03813822e-004 1.67379418e-004 6.70322392e-004 4.10633103e-004
      7.06260034e-005 5.55625229e-005 -4.41418466e-004 -9.46016953e-005
      -5.31836937e-004 -3.55242490e-004 8.17856780e-005 1.31879671e-004
      6.39254285e-004 2.94052676e-004 8.91378513e-005 5.72953068e-005
      -3.89528956e-004 -2.27634577e-004 -5.26530028e-004
      -3.80628568e-004 7.58985116e-005 6.46742847e-005 -1.17986143e-004
      6.36190001e-004 2.25171840e-004 8.33725135e-005 -3.84189450e-004
      -2.24687406e-004 -2.53161561e-004 -4.33257461e-004 7.09458618e-005
      -2.07881283e-004 9.33662232e-005 1.44782127e-004 -3.78517470e-005
      8.06549360e-005 -4.43340425e-004 -7.99083409e-006 8.98579092e-005
      -5.21920738e-004 3.04917594e-005 3.45807901e-004 6.48125424e-005
      2.44996365e-004 6.43986859e-004 1.17587457e-004 -5.55933220e-004
      1.46479404e-004 -1.33217414e-004 -4.97701112e-004 -4.49028652e-004
      -1.06536529e-004 7.70699917e-005 1.03407532e-004 4.46600723e-004
      -4.69843180e-005 -4.85370227e-004 1.36183826e-005 2.73463029e-005
      -3.77568998e-004 2.27694236e-005 5.64588809e-005 8.84088367e-005
      7.85349766e-005 1.61520482e-004 2.67138123e-004 -3.01498832e-004
      9.45944048e-005 -1.50202013e-005 1.86716992e-004 -2.50921817e-004
      -1.90141509e-004 4.77682406e-005 7.70873667e-005 -2.42367183e-004
      5.95917263e-005 5.81048604e-004 4.72158972e-005 5.53885533e-004
      3.01269261e-004 2.96096725e-004 -3.35682766e-004 -4.26200626e-004
      -3.30182869e-004 6.20477076e-005 8.93586548e-005 -2.48039258e-004
      -2.23604366e-004</_>
    <_>
      1.62934928e-004 2.28894685e-004 2.42680850e-004 -1.53597066e-005
      -3.59463185e-004 -5.72723220e-004 -1.43777739e-004 1.94867884e-004
      3.92043206e-004 4.77717520e-004 -3.75468917e-005 3.21304018e-004
      3.70284033e-005 -2.83533445e-004 1.08620960e-004 3.12000229e-005
      -1.67244842e-004 -2.27159209e-004 8.58093044e-005 1.05761530e-004
      4.75793095e-005 -4.04042192e-004 3.06392205e-004 2.48781900e-004
      8.67995768e-005 8.27216645e-005 3.47749847e-005 -5.96378632e-005
      -4.18521377e-004 3.97597469e-005 -2.81979574e-005 -6.09874784e-004
      1.40755263e-004 8.07703982e-005 6.92377216e-005 7.97533867e-005
      -1.39442913e-004 -1.70448213e-004 -6.27561298e-004
      -6.79610503e-006 8.11242571e-005 -6.10375835e-004 9.24916731e-006
      7.67385936e-004 1.37905095e-004 6.94747068e-005 1.31748398e-004
      1.20213808e-004 -6.90396584e-004 -1.14871682e-006 -2.78243417e-004
      -5.02467912e-004 9.91631823e-005 7.23969599e-004 1.49239626e-004
      5.53289465e-005 7.69144317e-005 6.93893817e-005 -5.32462960e-004
      -1.50604275e-004 -6.35907752e-004 -4.43569210e-004 8.87068236e-005
      6.94717382e-005 2.16137254e-004 8.07899505e-006 2.78399588e-004
      6.18836057e-005 -4.65286314e-004 -2.26965261e-004 -6.29358168e-004
      -4.68459388e-004 7.46765800e-005 1.26695246e-004 7.48240564e-004
      2.46554846e-004 6.91757159e-005 4.20440701e-005 -4.74407920e-004
      -2.14397412e-004 -2.54533108e-004 -5.34698542e-004 4.78680886e-005
      9.55064752e-005 1.83222146e-004 6.06041402e-004 1.05159801e-004
      4.31444205e-005 -5.29722776e-004 -8.78741630e-005 1.02102851e-004
      -6.37909048e-004 1.47157753e-005 7.40268588e-005 -1.99246962e-004
      1.82039585e-004 7.84664589e-005 2.99319672e-005 -6.92561676e-004
      1.32259302e-004 -1.28528874e-004 -6.15780067e-004 -1.11547437e-004
      6.06136018e-005 1.77536902e-004 -3.16365476e-005 7.17704606e-005
      -1.58243158e-004 -6.41588587e-004 -1.16077417e-005 3.06889124e-005
      -7.78884511e-004 -2.71371100e-004 2.90628395e-005 4.71238222e-004
      1.12125810e-004 4.80046183e-005 -3.70183581e-004 -3.77131597e-004
      7.21950055e-005 8.36057734e-005 5.98159560e-004 4.56429880e-005
      -6.37300036e-005 2.10300830e-004 5.90091404e-005 -2.61923007e-004
      -6.16028032e-004 2.40684149e-005 8.25888565e-005 9.44028070e-005
      -1.58645955e-004 6.53954223e-004 7.85391167e-005 -5.10663784e-004
      -4.95911227e-004 -1.53911315e-004 9.64361971e-005 5.86714086e-005
      5.83362926e-005</_>
    <_>
      8.42016307e-005 2.03743948e-005 2.45693773e-005 2.67254683e-004
      -2.24451986e-004 -3.58161837e-004 2.26102911e-005 2.58610176e-004
      2.12835090e-004 -3.52587784e-004 7.82753486e-005 2.15556283e-004
      -2.65436870e-006 3.05096455e-006 5.41722184e-005 -9.57210250e-006
      -2.56885833e-004 1.01181606e-004 6.15690136e-004 5.11509597e-006
      6.95465133e-005 -7.94382358e-005 -8.74428588e-005 1.25426130e-004
      9.19291415e-005 8.84546243e-005 2.02643336e-004 1.77433656e-004
      -3.03890614e-004 5.20681097e-005 -5.65639348e-005 -2.53083184e-004
      -5.29016943e-005 6.27534537e-005 7.68574246e-005 1.28905522e-004
      6.23607601e-004 5.22528018e-004 -5.21149894e-004 -3.45551525e-005
      -3.48079717e-004 -5.61631634e-004 5.45350267e-005 7.56836089e-005
      9.70746842e-005 -2.14487925e-004 6.72977010e-004 1.32881576e-006
      -5.94324141e-004 2.04714190e-004 -2.28462843e-004 -4.43343975e-004
      7.00496967e-005 7.66705125e-005 5.78868276e-005 6.45845081e-004
      -2.01579125e-004 5.49550059e-005 -4.91591811e-004 1.74333327e-005
      -5.58412343e-004 -4.09843080e-004 7.12054243e-005 7.04476624e-005
      2.44972944e-005 7.07085885e-004 1.24483122e-004 3.43889587e-005
      -4.65667719e-004 -2.12863888e-004 -5.34436491e-004
      -4.30231739e-004 6.03027584e-005 -3.49499569e-005 6.76199503e-004
      1.24158600e-004 9.43537307e-005 5.13190098e-005 -4.64213401e-004
      -2.15692358e-004 -2.56356841e-004 -4.46824939e-004 2.04870994e-005
      6.18342834e-004 6.80851226e-004 1.22086465e-004 9.23501429e-005
      3.90680907e-005 -4.95686720e-004 5.32002159e-005 2.56077590e-004
      -5.13414270e-004 1.51988716e-004 6.70733803e-004 7.36186194e-005
      7.16990762e-005 7.40055839e-005 1.57671166e-005 -6.50178234e-004
      -1.76716567e-004 -1.27688618e-004 -6.73342496e-004 4.40191419e-004
      -2.30221704e-004 9.91731722e-005 7.09867818e-005 7.01398531e-005
      -1.92652340e-004 -2.86998926e-004 4.49391973e-006 -7.20627486e-006
      -2.68594449e-004 1.36925606e-004 1.01065438e-004 7.72950443e-005
      8.47748743e-005 7.17394068e-005 -3.14591773e-004 -1.94219116e-004
      1.22160141e-004 -9.72329799e-005 5.56518964e-004 -1.83007971e-004
      -2.32335151e-004 9.35244589e-006 2.56896001e-005 -3.20535881e-004
      -2.11648057e-005 3.53704352e-004 1.21060293e-004 4.33771958e-004
      1.95916538e-004 -4.36232222e-005 -1.93789558e-004 -5.69447409e-004
      -4.14750830e-004 1.18746364e-004 2.56438710e-004 2.94648751e-004
      1.02463709e-004</_>
    <_>
      1.73761146e-005 2.01465045e-005 -5.00689603e-005 -1.04165309e-004
      -2.87914911e-004 -3.87310371e-004 -1.00963189e-004
      -2.32138677e-006 6.33561376e-006 1.09905486e-005 -3.94648931e-004
      3.54704505e-004 3.50581240e-006 -2.09165868e-004 1.69628656e-005
      -2.64618757e-005 -1.97978545e-004 -3.50150280e-004
      -2.81314169e-005 5.01868954e-007 -1.26973987e-006 -4.04495397e-004
      1.77946757e-004 1.07502437e-005 -4.04571483e-006 -1.56678852e-005
      -2.22659837e-005 -3.41528386e-004 -3.04010435e-004
      -1.90590417e-005 -9.51262991e-005 -5.11972001e-004 3.09996569e-004
      -2.20712855e-006 -2.90481739e-006 1.59954095e-006 -1.26183772e-006
      -1.31175082e-004 -4.28346480e-004 -6.00595013e-006 1.68388797e-005
      -5.21276670e-004 3.51395982e-004 1.36762856e-005 1.42879844e-005
      -1.51023996e-005 2.08861929e-005 -9.25139602e-007 -4.45589481e-004
      -2.30285023e-005 -1.62492695e-004 -4.30763117e-004
      -9.55150426e-006 9.57574957e-005 3.72157403e-004 3.41293286e-004
      3.51165305e-004 4.03892656e-004 -4.58828639e-004 -1.76769128e-004
      -4.16935334e-004 -4.15012299e-004 4.28014697e-004 -1.84523858e-004
      2.10784651e-006 9.36008473e-006 7.24372003e-005 3.94133618e-004
      -5.00582508e-004 -1.75761932e-004 -4.24683589e-004
      -4.32329078e-004 4.40447911e-004 1.35918108e-005 -3.26470035e-006
      -2.55831014e-006 -6.69534393e-006 -2.50115991e-005
      -4.93564701e-004 -1.73697917e-004 -1.39086842e-004
      -4.66901256e-004 4.30091168e-004 7.61391448e-008 1.38282792e-006
      -1.12463647e-006 1.86754164e-006 -3.21712250e-005 -5.31275698e-004
      -1.56739203e-004 5.74590877e-006 -5.01771166e-004 4.15718765e-004
      -1.97176341e-005 -1.57951254e-005 -9.22887830e-006
      -2.01772073e-005 -2.35950301e-005 -4.63067729e-004 3.12591619e-005
      -1.27338397e-004 -5.17114531e-004 3.09603318e-004 -1.38345176e-005
      -9.98256291e-006 -5.86070928e-006 -1.82227468e-005
      -1.45529179e-004 -5.90698677e-004 -3.05565627e-005
      -3.01702603e-005 -4.23707039e-004 1.63053817e-004 -2.84637154e-005
      -4.75210527e-006 5.67047346e-006 -1.87217302e-005 -2.70807999e-004
      -2.96567625e-004 -1.16356487e-005 4.07626112e-006 -1.78193150e-004
      7.00873943e-006 -8.20728310e-005 -1.11327063e-005 -9.66460357e-006
      -1.42519566e-004 -1.10669262e-005 -1.98635171e-004 8.38435517e-005
      3.33902601e-004 2.29793106e-004 -4.91665778e-005 2.02760726e-004
      -4.57669987e-004 -4.53702727e-004 7.18742231e-005 -1.65799120e-005
      -7.41209878e-005 -4.55941590e-005</_>
    <_>
      1.99929942e-004 1.82226548e-004 1.90252904e-004 -8.23533919e-004
      2.29812780e-004 -4.15969153e-005 -8.36734020e-004 2.50746409e-004
      2.35180443e-004 2.21272698e-004 1.85322089e-004 1.72154279e-004
      -2.02867581e-004 1.05012667e-004 4.70631057e-004 3.03967827e-004
      6.33356540e-005 1.72166037e-004 -1.00348889e-005 2.17683802e-004
      1.61908261e-004 -6.87865977e-005 8.88927752e-005 2.78679654e-004
      1.89719562e-004 2.09880760e-004 2.28828198e-004 -1.85855693e-004
      4.14617767e-004 2.82722380e-004 1.88111371e-004 2.58573884e-004
      1.84973062e-004 2.14159532e-004 2.14479151e-004 2.18849047e-004
      2.09279606e-004 -5.36543630e-005 1.76575722e-005 -1.78682894e-004
      4.70806757e-004 -8.33389349e-005 1.89684259e-004 2.15337714e-004
      2.12538784e-004 2.06354729e-004 2.33357059e-004 2.06928569e-004
      -8.44370297e-005 -1.04439945e-003 3.92595830e-004 8.39478889e-005
      5.85878966e-004 6.59436511e-004 7.73740700e-004 8.55701277e-004
      9.43644205e-004 9.44525469e-004 2.50785728e-004 2.88657553e-004
      -1.09209221e-004 1.91004379e-004 -9.98958203e-005 -1.31666384e-004
      -1.10064961e-004 -1.60669661e-004 -2.26640899e-004
      -2.50413199e-004 -1.28539896e-003 -9.61036421e-004
      -1.34611138e-004 -1.52886449e-003 1.90953826e-004 2.11681850e-004
      2.13159627e-004 2.39804649e-004 2.07624194e-004 1.65476886e-004
      -8.19942914e-004 -6.25945861e-004 3.88521556e-004 -1.20011123e-003
      2.09989317e-004 1.74686225e-004 2.08734273e-004 1.79896611e-004
      1.79606286e-004 8.72462770e-005 -9.94578353e-004 -1.52975786e-004
      6.96469739e-004 1.13287733e-005 3.16801976e-004 1.68092520e-004
      1.87044367e-004 1.98785987e-004 1.51267173e-004 1.18792719e-004
      -1.23436446e-003 1.19484270e-004 -2.84061534e-004 1.09284745e-004
      -5.08290759e-005 2.18968940e-004 1.78644492e-004 1.64140045e-004
      1.65623089e-004 -2.69568409e-004 -1.28658733e-003 -5.74623118e-004
      1.86746969e-004 -1.01535596e-004 -8.84652982e-005 3.77045624e-004
      2.08235855e-004 1.69892868e-004 1.47806510e-004 -7.66355835e-004
      -2.23260449e-005 5.15729946e-004 1.55104965e-004 -2.43920131e-005
      4.39966279e-005 -3.57617901e-005 5.10107348e-005 1.11398302e-004
      -5.44572948e-004 -3.84929532e-004 8.74746824e-004 2.76268838e-004
      1.77111491e-004 1.77758469e-004 3.08945018e-004 -9.88002867e-004
      7.19698801e-005 8.90297815e-005 4.31011315e-004 -2.70217424e-004
      2.52327445e-004 1.90866980e-004</_>
    <_>
      4.28589883e-005 4.09606073e-005 1.78543123e-004 2.99424191e-005
      -3.75099626e-004 -2.38984692e-004 -9.26377470e-005 9.60102770e-005
      2.00912735e-004 2.74576305e-004 5.33510720e-005 1.13338378e-004
      -1.26555839e-004 3.07032533e-005 1.96670211e-004 1.69022969e-004
      1.71417385e-004 -2.04204000e-004 3.03762092e-004 3.88558110e-004
      1.23735881e-004 -2.81103392e-004 -6.92099420e-005 6.34357493e-005
      6.05829919e-005 6.72500391e-005 1.69249077e-004 1.33807611e-004
      8.21985886e-005 2.05189590e-005 8.86390480e-005 -2.62518995e-004
      2.61615118e-004 6.33518284e-005 4.52962195e-005 5.80362066e-005
      8.67193958e-005 3.65500426e-004 -5.78863022e-004 -7.72922285e-005
      -2.34991181e-004 -2.94101133e-004 3.99748766e-004 5.71437777e-005
      5.87321374e-005 6.50635193e-005 8.51894001e-005 5.89233648e-004
      -4.55697387e-004 4.91241080e-005 -2.38462730e-004 -7.58830283e-004
      6.59933547e-004 1.18113545e-004 7.99209156e-005 7.80660048e-005
      3.43901629e-004 6.27066300e-004 -4.71037842e-004 1.47978266e-004
      -5.86808485e-004 -3.89309775e-004 2.60430708e-004 6.17882120e-004
      2.35422151e-004 4.82844334e-004 4.48311766e-004 7.90786507e-005
      -4.69596533e-004 -2.42756651e-004 -5.70599688e-004
      -6.12671021e-004 3.09519150e-004 1.96035573e-004 -1.40912860e-004
      7.62151467e-005 8.36553445e-005 4.54451874e-005 -4.45774029e-004
      -2.56319967e-004 -1.83242126e-004 4.76198657e-005 5.15909982e-004
      -7.70848346e-005 1.62335651e-004 1.19454213e-004 1.01729820e-004
      4.82831347e-005 -4.99286631e-004 -2.23287294e-004 1.61806791e-004
      -4.89049125e-004 3.05772759e-004 6.47946843e-004 7.01086072e-004
      6.77205273e-004 6.50085858e-004 5.61129942e-004 -4.05911589e-004
      1.94837674e-004 1.24272128e-005 -1.08990134e-004 1.26320185e-004
      1.13097187e-004 9.72334528e-005 1.38380667e-004 2.14758838e-004
      2.16369066e-004 1.12705120e-005 1.09716362e-004 5.62053581e-004
      -8.27056283e-005 -3.93171591e-004 3.72807772e-005 4.76239802e-005
      5.90084928e-005 5.79374828e-005 -2.60551664e-004 -4.57337483e-005
      4.31264809e-004 -1.51008280e-004 4.41024022e-004 -4.35420428e-004
      -2.16692672e-004 3.63300751e-005 6.66959968e-005 -2.26653632e-004
      -3.05666850e-004 4.51092725e-004 1.23238337e-004 1.18816555e-004
      -1.13241920e-004 6.08029019e-004 3.23418819e-004 -6.38666970e-005
      -3.57520476e-005 2.75560655e-004 9.07658468e-005 8.88102149e-005
      5.94024277e-005</_>
    <_>
      6.81428137e-005 5.08927078e-005 1.02012978e-004 -4.38390009e-004
      -5.34007522e-005 -3.02175002e-004 6.29086207e-005 1.74843790e-005
      5.91735516e-005 6.58662320e-005 5.87877948e-005 -8.58965086e-006
      -4.32958535e-004 -1.61857097e-004 4.96566179e-004 3.34483571e-004
      2.71139106e-005 -3.58159246e-004 4.98391237e-005 6.32419979e-005
      4.31676453e-005 -3.39725986e-004 -1.75297362e-004 -2.11119783e-004
      1.93084372e-004 3.42874147e-004 1.59378484e-004 -3.34195298e-004
      -2.72514735e-004 4.27456907e-005 -3.37462807e-005 -4.05290280e-004
      -4.53775465e-005 1.42843593e-004 2.01416973e-004 5.30513760e-004
      2.04027427e-004 -1.12441012e-004 -4.05411818e-004 1.04849942e-005
      -2.58704076e-005 -4.04245104e-004 5.80828964e-005 1.42548452e-004
      2.04378928e-004 5.62966918e-004 -2.51411730e-005 4.67613754e-005
      -4.71587962e-004 -2.67109936e-005 -1.55143483e-004
      -3.16796039e-004 7.03879559e-005 1.88967970e-004 2.25245210e-004
      5.28558914e-004 7.36375569e-006 8.54043319e-005 -3.40142433e-004
      -1.10476692e-004 -4.27619962e-004 -2.82109046e-004 6.42096275e-005
      1.33517940e-004 1.96425783e-004 5.08504279e-004 4.49512299e-005
      8.04521114e-005 -2.84313661e-004 -1.37911775e-004 -4.20599361e-004
      -2.88686104e-004 6.95373747e-005 1.01202924e-004 1.97217494e-004
      5.22163638e-004 3.52651077e-005 9.75574731e-005 -2.88140494e-004
      -1.36043906e-004 -1.39352618e-004 -3.38747166e-004 5.45324401e-005
      -7.61301199e-005 3.18722537e-004 5.06516430e-004 1.59431893e-005
      8.39789427e-005 -3.31714196e-004 -1.00306715e-004 1.15687226e-005
      -4.08715743e-004 5.42390335e-005 -7.27602455e-005 3.03544657e-004
      5.23722207e-004 3.93695409e-005 8.02589784e-005 -4.54894325e-004
      4.63093929e-005 -4.96292269e-005 -3.96949588e-004 -4.25714679e-005
      -1.07376793e-004 3.01009917e-004 5.07307879e-004 -3.71540082e-004
      -4.42299279e-005 -4.20417316e-004 -7.50099116e-006 2.04978278e-005
      -3.51123279e-004 -2.32229009e-004 -1.22092228e-004 2.89135787e-004
      4.95898246e-004 -3.83099192e-004 -1.54696783e-004 -3.20133287e-004
      5.14245658e-005 5.60484295e-005 -1.48836625e-005 -4.32151428e-004
      -8.94090626e-005 8.78763603e-006 4.96806693e-004 -5.56932413e-004
      -3.17458936e-004 5.32458980e-005 8.46863695e-005 -3.36413686e-005
      -5.30541411e-006 2.01619332e-004 1.12073096e-004 -1.37875977e-004
      -1.25781604e-004 1.08217333e-004 3.13067721e-004 4.47118102e-004
      1.97580594e-004</_>
    <_>
      -2.26201315e-004 -1.62034587e-004 -1.62036726e-004
      -2.19117836e-004 -4.83646203e-004 -6.13062468e-004
      -2.02151845e-004 -1.13942631e-004 -1.37078372e-004
      -3.00304004e-004 -7.61478659e-005 1.72673885e-004 -3.37405043e-004
      -1.25954029e-004 2.22128423e-004 1.64426558e-004 -8.85955451e-005
      -2.31366779e-004 2.16635628e-004 4.51054802e-004 1.85709490e-004
      6.72584356e-005 7.47902959e-005 4.14495822e-004 4.32489091e-004
      4.38383868e-004 4.18863987e-004 -2.34987383e-005 9.94990332e-005
      -3.23951768e-004 -3.04827583e-004 -6.20878302e-004
      -2.20969712e-004 -2.80006934e-005 -2.49699606e-005
      -3.95515672e-005 -2.22171002e-005 -2.17723995e-004
      -6.19023456e-004 -4.81882103e-004 2.96318685e-005 -5.78189152e-004
      -1.19128774e-004 -1.12546841e-004 -8.50808428e-005
      -9.43531631e-005 -1.11524314e-004 -1.32845031e-004
      -6.73360249e-004 -4.52414388e-005 -1.30770553e-004
      -4.73411928e-004 -2.08333713e-005 -1.37492334e-005
      -7.58128317e-006 -1.96708825e-005 -2.27203582e-005
      -3.52051647e-005 -5.04431664e-004 -1.51058965e-004
      -5.48007141e-004 -4.39771684e-004 -2.15198306e-005
      -2.38899770e-006 -2.18462683e-005 -1.86337566e-005
      -2.69191223e-005 -4.13681337e-005 -4.72061685e-004
      -1.38477146e-004 -5.38864639e-004 -4.61603719e-004
      -1.39870626e-005 -2.34515369e-006 -2.18754085e-005
      -2.05124215e-005 -2.66165516e-005 -3.67312859e-005
      -4.64704906e-004 -1.30536064e-004 -7.49793398e-005
      -4.74233471e-004 9.04251692e-007 8.17771615e-006 -4.50414973e-006
      1.08036429e-005 2.54178531e-006 -3.55863267e-005 -4.60800511e-004
      -9.01448439e-005 -3.00572701e-005 -6.88785978e-004
      -1.51946078e-004 -1.31285560e-004 2.41229554e-006 -5.97585677e-005
      -1.20340001e-005 -9.05037596e-005 -6.99514581e-004 2.38916364e-005
      -4.00661120e-005 -4.10436798e-004 -4.37557464e-005 1.23340229e-004
      -7.53748027e-005 2.83729478e-005 -8.06284734e-005 -1.24054626e-004
      -4.43072786e-004 7.76118759e-006 4.07213345e-004 6.32871306e-005
      1.03517341e-004 4.67899343e-004 4.88270132e-004 4.91694256e-004
      4.69277118e-004 1.17444135e-004 7.98095643e-005 2.33188126e-004
      3.59077414e-004 4.14638489e-005 -4.07295098e-004 -9.21903847e-005
      1.08953936e-004 1.32875095e-004 -1.42617893e-004 -4.25588951e-004
      8.26515679e-005 -3.12201119e-005 -2.79776519e-004 -1.15077337e-005
      -2.46417258e-005 -1.46770064e-004 -5.20066358e-004
      -5.12873870e-004 -1.76418558e-004 -8.58108797e-006
      -7.60791954e-005 -1.37774754e-004</_>
    <_>
      -2.67055075e-005 -4.51833075e-005 1.36980498e-005 -1.46969687e-004
      -3.80170852e-004 -3.78179859e-004 -9.61648839e-005
      -1.65415781e-006 5.55655731e-007 -1.47662358e-005 -5.98483575e-006
      -9.82381171e-005 -3.15789599e-004 -1.48647305e-004 8.07942633e-005
      6.43387975e-005 -1.37837327e-004 -2.65635346e-004 -1.33030277e-004
      6.68661050e-006 -8.50558645e-005 -1.70791725e-004 -2.10819606e-004
      1.03100865e-004 1.85978221e-004 1.86935620e-004 9.60088946e-005
      -2.47544696e-004 -2.31440339e-004 1.29146374e-005 -1.64992496e-004
      -6.24707027e-005 7.89091573e-005 1.54160880e-004 1.57456627e-004
      1.67833045e-004 1.60984724e-004 -3.06148149e-006 -2.69953249e-004
      -4.05592618e-005 -7.04057384e-005 -7.69402686e-005 1.48730716e-004
      1.49190659e-004 1.55591595e-004 1.64160840e-004 1.56933165e-004
      1.38564836e-004 -4.89175836e-005 -4.71406056e-005 -1.62650569e-004
      -7.63328717e-005 1.50692606e-004 1.52306122e-004 1.58087656e-004
      1.62195574e-004 1.62106458e-004 1.61144839e-004 -5.42993075e-005
      -1.08067557e-004 -3.70005670e-004 -8.13094448e-005 1.52762645e-004
      1.58447074e-004 1.57151619e-004 1.60216689e-004 1.61527802e-004
      1.63168428e-004 -5.46218762e-005 -1.98150185e-004 -3.66856082e-004
      -8.52666853e-005 1.55952468e-004 1.62604265e-004 1.60499490e-004
      1.62530778e-004 1.63449746e-004 1.28993706e-004 -1.67556937e-004
      -9.85826046e-005 -1.63878241e-004 -8.11914870e-005 1.47012150e-004
      1.59917952e-004 1.63479941e-004 1.65864956e-004 1.68089362e-004
      7.00858363e-005 -3.43580701e-004 1.19405609e-004 -2.92306304e-005
      -6.48924834e-005 1.45009893e-004 1.63117147e-004 1.61576492e-004
      1.65420133e-004 1.67756734e-004 6.23498927e-005 -3.39914259e-004
      2.17319961e-004 -2.34099556e-004 -6.68787980e-005 7.55078727e-005
      1.55472284e-004 1.63776669e-004 1.64783647e-004 1.62783399e-004
      -2.39572855e-005 -3.42967076e-004 1.93557426e-005 -8.15803214e-005
      -1.62319891e-004 -5.31594560e-005 1.50967389e-004 1.64370169e-004
      1.67679551e-004 1.01134261e-004 -2.18788744e-004 -1.32753659e-004
      -2.11266779e-005 1.53943074e-005 -1.45028651e-004 -1.67434831e-004
      -7.53253771e-005 3.88334156e-005 5.26029507e-005 -1.62641649e-004
      -2.62147340e-004 -2.26186398e-006 -1.85936533e-005
      -1.62160322e-005 -7.85182692e-006 -1.49391228e-004
      -1.82429896e-004 -3.70136404e-004 -3.43444757e-004
      -1.29093925e-004 3.26848681e-006 -1.22969086e-005 -1.65025067e-005</_>
    <_>
      1.44633141e-005 5.00181923e-005 -3.08291288e-004 3.33490956e-004
      4.78498114e-004 -2.64047208e-004 6.80433179e-004 -3.78436729e-004
      5.27510965e-005 1.89492748e-005 5.92818309e-004 4.33725188e-004
      -4.15958755e-004 -6.86113606e-004 -8.60750908e-004
      -5.51511534e-004 4.92710460e-005 3.23978282e-004 6.79119199e-004
      6.15414465e-005 2.93493562e-004 7.99381873e-004 -1.60541851e-004
      -2.03497504e-004 -3.18789826e-004 -5.72344754e-004
      -8.61321023e-005 -3.51243534e-006 8.80990585e-004 5.80909546e-005
      -3.97060241e-004 8.49401986e-004 7.31675118e-006 -3.89945126e-005
      -3.38750484e-004 -5.61111432e-004 -7.79381444e-005 4.51508131e-005
      8.65204784e-004 -3.74492345e-004 3.58164834e-005 4.00021527e-004
      5.90473246e-005 -6.37364501e-005 -6.13239138e-007 -5.54656610e-004
      -7.06982100e-005 3.80502242e-005 8.50924873e-004 8.84766268e-005
      -1.03087341e-005 -8.07218566e-006 -1.67607577e-005
      -9.34893615e-005 3.14392273e-005 -5.61966386e-004 -2.25151980e-005
      7.11363624e-004 6.51364564e-004 2.54561364e-005 -1.28643433e-005
      -1.77101956e-005 -2.28659355e-005 -8.50145298e-005 3.84554442e-005
      -5.34908613e-004 -9.72208727e-005 7.88804027e-004 -3.22093983e-005
      -1.69610905e-006 -3.79240373e-005 -2.74460308e-005
      -3.25430265e-005 -1.09059452e-004 1.02908576e-004 -4.02026461e-004
      6.64911000e-004 -9.30244569e-005 -1.57898576e-005 -7.35831918e-006
      -2.16079261e-005 -2.58151867e-005 -1.62234010e-005
      -1.48161621e-006 3.03033943e-004 -4.11257526e-004 -2.29535253e-005
      -1.44714577e-005 -2.43059549e-005 -1.88604899e-005
      -9.45099328e-006 -2.86511786e-005 -2.42440037e-005 4.81071387e-004
      -2.37861212e-004 -1.50263979e-004 -7.36100628e-005
      -3.96025607e-005 -1.72918189e-005 -1.24113474e-004
      -2.03583750e-005 -2.24795331e-005 5.24846953e-004 -2.61899491e-004
      4.55743793e-005 -1.32467860e-004 -7.55023866e-005 -2.25107215e-005
      -4.83216063e-005 6.21289830e-004 3.51227063e-005 9.06955975e-005
      -1.78518443e-004 -9.54116840e-005 -3.60472477e-004
      -5.27404118e-005 -5.31325713e-005 -3.01370092e-005
      -1.55612041e-004 -3.78407771e-004 -4.14111506e-004 2.17476307e-004
      5.94508892e-005 -2.76423350e-004 -9.78256459e-004 -4.41733806e-004
      -3.10509669e-004 2.26418415e-004 6.76993805e-004 -1.04598577e-004
      9.85185849e-004 3.85349296e-004 -4.23409329e-005 2.07485064e-004
      2.01508345e-004 1.91390121e-004 1.81895623e-004 2.36249776e-004
      -1.89021943e-004 -4.39972122e-004</_>
    <_>
      3.44020691e-006 3.57654717e-005 -3.46317887e-004 3.80152429e-004
      1.25064442e-004 -3.88927176e-004 4.08003922e-004 -7.09584447e-006
      8.89559597e-005 2.84964135e-005 5.37663582e-004 2.63767201e-004
      -2.40329566e-004 -6.54131523e-004 -8.51870573e-004
      -5.39873959e-004 -8.20435962e-005 2.15345412e-004 6.60753518e-004
      1.02344369e-004 2.16104570e-004 9.16323275e-004 2.06215671e-004
      -1.46607257e-004 -3.75366013e-004 -5.40729787e-004
      -7.25253194e-005 8.88542709e-005 8.86134512e-004 -4.37648414e-004
      8.04140436e-005 3.52133618e-004 8.81097658e-005 -3.10945870e-005
      -3.82221682e-004 -5.33089100e-004 -5.80231390e-005 5.04941090e-006
      8.93736375e-004 -3.91369744e-004 3.86899410e-006 -3.51589210e-006
      -4.82791620e-006 -5.01552968e-005 -5.45251642e-005
      -5.29118639e-004 -5.37052292e-005 -1.17058429e-004 8.59804975e-004
      3.94540148e-005 -7.37877554e-006 -2.02275828e-006 -1.13676811e-006
      -5.07602017e-005 -2.10514536e-005 -5.04156225e-004
      -2.40708250e-005 6.66220498e-004 -1.19375472e-004 2.97189144e-005
      -5.05220260e-006 3.83472025e-006 -6.55287886e-006 7.27187668e-004
      4.85541445e-004 1.90994251e-004 2.51776975e-004 -9.43504128e-005
      5.01934155e-005 1.40387249e-006 -1.45403146e-005 -5.74365367e-006
      -1.28863985e-005 -6.99607335e-005 5.66631434e-006 -5.23670693e-004
      -1.11898253e-005 3.80303391e-004 2.82659807e-004 7.22846453e-005
      -1.34009156e-006 -5.26754047e-006 -1.82848498e-006
      -7.97025059e-005 -8.48547352e-005 -5.23753930e-004
      -6.96848729e-005 4.36146547e-005 9.24819615e-004 -1.38832678e-004
      1.02066824e-005 3.87140926e-006 -4.29868533e-006 -9.40008395e-005
      -7.70148108e-005 -1.40605378e-004 -5.71249875e-005 9.65934851e-006
      -2.31239290e-004 7.82611780e-004 3.18110891e-004 7.21981574e-004
      -2.13369683e-004 -7.87749232e-005 -2.97164333e-005
      -1.09457120e-004 -5.26347212e-005 -2.80917379e-006
      -1.21742756e-004 7.66701298e-004 3.78632307e-004 8.57833831e-004
      -1.88841295e-004 -8.77244165e-005 -3.09293129e-004 2.42614318e-004
      -5.66119306e-005 5.04791169e-005 9.04733257e-004 -5.73383761e-004
      -3.43625561e-006 8.20500660e-004 -6.91122332e-005 9.52089249e-005
      -6.81526202e-004 -2.48948403e-004 -3.10311851e-004 3.53456562e-004
      5.88070601e-004 3.08839808e-005 4.49163112e-004 2.85954047e-005
      -2.19799273e-004 1.47682382e-004 7.36467628e-005 4.37616800e-005
      1.83281067e-004 -1.51352171e-004 -1.45080077e-004 -2.50611833e-004</_>
    <_>
      -7.10745098e-006 2.42489591e-006 -1.79012059e-005 -6.63426617e-005
      1.06142485e-004 -4.33059322e-004 7.19336444e-004 -3.61532075e-005
      3.13474411e-005 2.24259675e-005 5.36869513e-004 -1.66001191e-004
      -2.73447746e-004 -6.87353371e-004 -9.13828320e-004
      -7.02415127e-004 8.64166766e-004 -7.32145563e-005 4.58201393e-005
      1.82808508e-005 3.89907073e-005 1.90116953e-005 1.13503602e-005
      -2.11497711e-004 -4.83827054e-004 1.52938941e-004 8.74913821e-004
      -9.74930590e-005 2.64931277e-005 1.41012379e-005 -1.22602733e-005
      -9.55330779e-006 1.08986060e-005 -1.23908985e-005 2.42972412e-004
      -4.68178507e-004 8.73934710e-004 -8.51624573e-005 1.46790289e-005
      1.17725231e-005 -1.59171177e-005 9.62403010e-006 7.12973417e-007
      -3.17000056e-004 1.14476381e-004 -5.39233966e-004 8.78804771e-004
      -9.65848521e-005 2.51851288e-005 9.94491165e-006 -2.43779086e-005
      -1.33065196e-005 3.38588943e-005 7.63180549e-004 -1.52624727e-006
      -5.38445427e-004 8.75513069e-004 -9.43585401e-005 2.38187768e-005
      -3.24736311e-006 -3.74442461e-005 -1.44158030e-005 9.15433397e-004
      -6.21857089e-006 1.70207146e-004 -5.82063512e-004 8.54943471e-004
      -1.42647565e-004 2.03748696e-005 -2.64496812e-005 -4.77115736e-006
      -5.72455865e-005 2.82903260e-004 -6.86814747e-005 1.90719511e-004
      -5.51731908e-004 8.73386685e-004 -9.22165564e-005 1.29393293e-005
      -1.18524858e-005 7.76434972e-005 7.89336103e-004 2.86885847e-006
      -6.97318173e-005 1.76688132e-004 -5.52905432e-004 8.73146055e-004
      -6.48057103e-005 1.66858172e-005 -3.04534205e-005 1.08373846e-004
      1.49080253e-004 1.04103681e-004 6.41474762e-005 3.20103223e-004
      8.43972011e-005 8.50229175e-004 9.82303391e-006 -9.79248362e-005
      -1.52124834e-004 -4.71245614e-004 6.96847565e-005 6.71330199e-005
      2.35179687e-005 1.80969495e-004 2.57632178e-006 9.05496941e-004
      6.07858340e-007 -7.82624556e-005 -2.96817016e-004 -1.38035612e-005
      -3.65431952e-005 -3.68755500e-005 -7.90021149e-005
      -1.05790597e-004 1.77396549e-004 8.50142445e-004 -5.60055742e-005
      1.44723908e-005 -2.30112619e-005 -7.45543148e-005 -6.23566739e-005
      -6.63650935e-005 -9.25193744e-005 -4.97646804e-004
      -1.68342769e-004 7.46911974e-004 -1.33540300e-006 -1.32097402e-005
      -4.02451187e-005 5.64431015e-004 -2.41584654e-004 -3.77664284e-004
      -3.80133191e-004 -1.43088409e-005 6.76593860e-004 5.95353486e-004
      6.29791932e-004 -1.27541469e-004 -5.11380204e-004</_>
    <_>
      6.89620792e-005 5.08054218e-004 6.12270320e-004 5.75198676e-004
      6.44117245e-004 2.05190547e-004 6.17248646e-004 6.05717010e-004
      6.23013708e-004 -2.26860066e-005 3.53546406e-004 6.34865864e-005
      -4.24577069e-004 -5.21805661e-004 -6.73942268e-004
      -4.79783223e-004 -1.65194520e-004 -8.49086500e-005
      -1.00180696e-004 7.53597351e-006 7.61570118e-005 2.95415550e-004
      1.47005785e-005 -1.02708909e-004 -2.35929721e-004 -3.62933817e-004
      -6.96776988e-005 -3.84703844e-006 1.40942802e-006 -1.81065786e-006
      5.71499404e-005 -1.82571996e-004 1.66385144e-005 -2.25565891e-005
      -2.61367066e-004 -3.63555766e-004 -5.31323276e-005
      -7.91933689e-006 -1.11662221e-005 -1.37659226e-005 9.36950310e-005
      -1.16969808e-004 7.61757246e-006 -2.58178006e-005 2.00233790e-005
      -3.40366532e-004 -4.82356918e-005 -1.89283037e-005
      -4.85529199e-006 -1.18243979e-005 1.08748274e-004 1.73629160e-005
      -8.01775459e-005 3.76998156e-004 -3.56874225e-004 -6.30448456e-004
      5.39288099e-004 -9.91101333e-005 9.37052027e-006 -1.66996767e-006
      6.61407685e-005 5.41591202e-004 -3.74774245e-005 -3.96718460e-005
      1.45431977e-005 -3.48394999e-004 -3.55572251e-006 1.18656899e-004
      4.61474643e-004 6.04829529e-006 -2.22466206e-005 -6.00542044e-005
      -3.26236614e-006 -6.10245443e-005 2.18137757e-005 -3.58992605e-004
      -3.40069782e-005 3.05107346e-006 5.89150994e-004 -4.79677983e-004
      -2.47553339e-006 -6.73138902e-006 -7.08967946e-006
      -5.75974045e-005 -2.34062118e-005 -3.44746397e-004
      -4.70509149e-005 -8.70866916e-006 -1.02112564e-004 5.65985974e-004
      1.19568531e-005 -7.61999854e-006 -9.34264335e-006 -5.74197875e-005
      -1.06712505e-005 -4.07007101e-005 -3.54388358e-005
      -2.94149299e-006 -6.68895664e-005 5.58444823e-004 5.69947006e-004
      5.58875792e-004 -6.47236884e-005 -5.31906480e-005 2.96254711e-005
      -8.70864733e-006 -2.99208205e-005 8.65387210e-006 -1.13623937e-004
      5.25489915e-004 5.75515151e-004 5.57911058e-004 -6.25505563e-005
      -4.33477253e-005 -2.65067763e-004 1.47237763e-004 -3.65392043e-005
      -3.05671929e-005 5.80296270e-004 -5.13268227e-004 1.28181549e-004
      5.50088182e-004 -6.26965266e-005 1.70257226e-005 -4.88653197e-004
      -5.22543414e-005 -5.31876867e-005 2.25552751e-004 4.44708712e-004
      -4.15376599e-006 2.36079039e-004 1.00096468e-005 -1.91653075e-004
      1.62844008e-004 -2.23889714e-004 -2.93263234e-004 4.38141986e-004
      -2.59791879e-004 -9.10380186e-005 -2.15060543e-004</_>
    <_>
      -3.64685438e-005 -3.71365604e-005 -2.70271994e-005
      -2.69685290e-004 6.22120860e-004 -1.83227909e-004 4.47727041e-004
      6.23662723e-004 -1.15953502e-004 7.39883490e-006 3.35202029e-004
      -2.43908289e-004 -3.48912727e-005 -1.53110930e-004
      -6.00892294e-004 -4.65460762e-004 -4.62018579e-005 2.11406557e-004
      5.82469103e-004 -2.37561195e-004 -2.57471147e-005 3.22631022e-005
      1.51266067e-004 -1.41738681e-004 -3.09529511e-004 -4.71954059e-004
      -1.06531312e-004 3.98310221e-005 5.78968786e-004 -3.34887183e-004
      4.66207894e-005 5.43728296e-004 -1.54227746e-004 -8.23459050e-005
      -3.30194860e-004 -4.85190772e-004 -1.08610860e-004
      -4.94307424e-005 -6.42394443e-005 -3.03772322e-005
      -5.08047196e-005 4.96107677e-004 -7.18277533e-006 -9.83828795e-005
      -4.71234089e-005 -4.66331607e-004 -1.00822981e-004
      -6.55743861e-005 -5.41674963e-005 -5.54265680e-005 2.87720177e-004
      -6.83941926e-006 -5.27620614e-005 1.38937412e-005 4.41386510e-004
      1.65743564e-004 5.36645472e-004 -2.21861228e-005 -3.18398852e-005
      -3.57151839e-005 3.70543159e-004 5.18135857e-005 9.16080753e-005
      2.80142354e-004 1.28368178e-004 -4.89824219e-004 1.45013601e-005
      4.80274437e-004 5.67957759e-004 1.92129373e-005 4.74710396e-004
      5.37652231e-004 1.84572025e-004 -1.25083301e-004 7.50417748e-005
      -4.98079928e-004 -9.80931727e-005 2.06419081e-005 5.52285055e-004
      -3.41145264e-004 4.80659655e-004 4.08754655e-004 -6.04197412e-005
