<?xml version="1.0"?>
<opencv_storage>
<my_svm type_id="opencv-ml-svm">
  <svm_type>C_SVC</svm_type>
  <kernel><type>LINEAR</type></kernel>
  <C>1.0000000000000001e-001</C>
  <term_criteria><epsilon>9.9999999747524271e-007</epsilon>
    <iterations>2147483647</iterations></term_criteria>
  <var_all>140</var_all>
  <var_count>140</var_count>
  <class_count>35</class_count>
  <class_labels type_id="opencv-matrix">
    <rows>1</rows>
    <cols>35</cols>
    <dt>i</dt>
    <data>
      0 1 2 3 4 5 6 7 8 9 10 11 12 13 14 15 16 17 18 19 20 21 22 23 24
      25 26 27 28 29 30 31 32 33 34</data></class_labels>
  <sv_total>595</sv_total>
  <support_vectors>
    <_>
      1.00394798e-004 9.48505403e-005 -2.38442924e-004 7.64266355e-004
      -7.85133743e-004 2.41279864e-004 -1.34746981e-004 -2.00293565e-004
      5.84085865e-005 9.86070881e-005 -9.16007208e-004 6.17391604e-004
      -5.05548611e-004 -3.07974202e-004 8.10018159e-004 2.49089826e-005
      3.32153541e-005 -9.64812236e-004 -4.18314128e-004 3.40078150e-005
      -3.46868532e-004 -9.88523127e-004 -4.74318920e-004 3.60954902e-004
      3.36132478e-004 5.53107311e-005 3.26185662e-004 -4.16749564e-004
      -8.93881021e-004 -1.55172427e-004 1.10015878e-003 -1.20982761e-003
      -3.36052879e-004 2.87815084e-004 3.55095603e-004 1.89071012e-004
      3.15211568e-004 -2.77120096e-004 -1.21381006e-003 -4.55861591e-005
      5.73134050e-004 -1.09995564e-003 -1.62807599e-004 3.36334429e-004
      8.02408322e-005 6.59547586e-005 3.21234576e-004 -1.26331186e-004
      -1.12087245e-003 8.32903723e-004 -5.80378808e-004 -1.06561626e-003
      -1.22051199e-004 3.42620886e-004 7.73150168e-005 5.40898509e-005
      3.73436167e-004 -8.13321676e-005 -1.02988130e-003 3.61978106e-004
      -4.32963861e-004 -9.96204908e-004 -4.90949533e-005 3.56353965e-004
      -1.76842863e-004 1.89576705e-004 3.36969068e-004 -8.51269215e-005
      -1.00396585e-003 -3.54166172e-004 2.99591484e-004 -1.04167592e-003
      -2.46107593e-005 3.64975829e-004 -2.10410319e-004 2.80423119e-004
      3.60686012e-004 -9.34483396e-005 -1.03537855e-003 3.16936115e-004
      -4.13399190e-004 -1.05794030e-003 -1.23030259e-004 3.74103955e-004
      -1.14664028e-004 1.19193130e-004 3.47486493e-004 -5.28595992e-005
      -9.71205067e-004 -2.00987357e-004 4.89044061e-004 -1.10781239e-003
      -1.40399599e-004 3.18548729e-004 -2.10114755e-004 3.10492556e-004
      4.21681762e-004 -8.12185317e-005 -1.04957889e-003 9.99588403e-004
      2.73800048e-004 -1.16193236e-003 -2.78118183e-004 3.48484464e-004
      -4.58663009e-004 -1.13600792e-004 3.73882736e-004 -2.02715237e-004
      -1.13313971e-003 6.97828247e-004 -3.01839784e-004 -8.10248952e-004
      -5.23179711e-004 3.35996534e-004 1.41867044e-004 -1.42710676e-004
      2.94466619e-004 -4.01342288e-004 -7.31840439e-004 -1.89149010e-004
      4.22295816e-005 7.69137056e-004 -8.56881961e-004 2.16411747e-004
      4.31342429e-004 1.84909713e-005 2.77666666e-004 -8.11295933e-004
      3.18933191e-004 1.20294702e-004 -1.77890222e-004 8.85330082e-004
      -3.39654624e-004 1.19639770e-003 -4.44210251e-004 -4.68940358e-004
      -9.02142856e-005 5.74325168e-005 1.08006476e-004 9.88303582e-005</_>
    <_>
      6.95368144e-005 1.09646309e-004 -8.48168507e-004 9.29926638e-004
      -1.54728492e-004 -3.02399945e-004 1.88245212e-005 -3.53895040e-004
      1.64121506e-004 1.37508614e-004 1.22558456e-004 5.39603992e-004
      -7.20497221e-004 -1.47710511e-004 9.18530350e-005 1.02965467e-004
      6.83523685e-005 -1.17750596e-005 9.72826019e-005 1.87157508e-004
      -3.34805634e-004 -2.81653105e-004 -5.68320916e-004 6.00329586e-005
      1.11486159e-004 1.05375511e-004 1.68637067e-004 -5.63267327e-004
      4.56821930e-004 5.02924522e-005 3.15352983e-004 1.40908945e-004
      -5.69149037e-004 9.39944948e-005 9.94507645e-005 1.32955131e-004
      1.19867138e-004 -1.89182014e-004 1.47668412e-004 -5.49827761e-004
      -4.59919065e-005 2.31432259e-005 -3.12631426e-004 1.16082243e-004
      1.01152043e-004 7.39340758e-005 1.24055179e-004 1.67455000e-004
      3.21824744e-004 6.97623880e-004 -4.94579261e-004 -8.51705612e-004
      -3.67032480e-005 5.61104825e-005 1.22652942e-004 1.22061479e-004
      1.76003712e-004 3.54806485e-004 2.46236246e-004 -1.04856983e-004
      -3.69053538e-004 -7.85306329e-004 -1.25727784e-005 8.50478464e-005
      1.20780809e-004 1.39938304e-004 4.16998693e-004 1.07403507e-003
      -1.05401152e-003 -4.40304779e-004 2.37664208e-005 -7.96298671e-004
      1.59524498e-005 9.72188427e-005 1.43558646e-004 3.06228147e-004
      7.71696505e-004 -8.56192419e-005 -6.66500069e-004 6.18608101e-005
      -6.19558967e-004 -8.64972128e-004 -7.38525268e-005 1.16606549e-004
      3.36664147e-004 -3.49520997e-004 -4.57675487e-005 1.04258150e-004
      -7.86436023e-004 -2.22884017e-004 1.35757058e-004 -9.39176476e-004
      -8.31185025e-005 4.72550862e-004 -6.04466302e-004 -5.72487304e-004
      1.99612216e-004 -3.73063740e-005 -9.42406012e-004 4.91058046e-004
      3.82292899e-004 -1.12523721e-003 3.20286374e-004 -5.47523785e-004
      -4.97099711e-004 1.46202758e-004 1.45767277e-004 -1.39391268e-004
      -1.10548164e-003 3.01486114e-004 -1.55928545e-004 -7.30733620e-004
      -8.68101546e-004 -1.73321430e-004 1.84808072e-004 1.35042617e-004
      1.25450097e-004 -3.23457672e-004 -4.77982947e-004 -6.95021648e-004
      -2.28906079e-004 7.10358494e-004 -9.03251057e-004 -4.01416735e-004
      -1.00211438e-003 -9.94693837e-004 -1.07804534e-003
      -1.07790506e-003 6.97379350e-004 -7.43739438e-005 9.42834071e-004
      1.18527282e-003 6.20757171e-004 9.90063651e-004 8.45831673e-005
      8.70946242e-005 3.06429720e-004 6.42404892e-004 7.30748987e-004
      1.59979012e-004</_>
    <_>
      1.42469406e-004 1.95235873e-004 -8.19630339e-004 5.69825876e-004
      -6.12284755e-004 -4.60712647e-004 -1.97179077e-004
      -8.37003463e-005 2.78441876e-004 1.98232010e-004 1.04631916e-004
      -4.79180162e-004 -1.14421581e-003 -3.91593821e-005 1.75217050e-004
      1.63832039e-004 1.57928080e-004 6.96705902e-005 -4.26064071e-004
      2.95986654e-004 -1.42858160e-004 3.40476079e-004 4.01392608e-004
      2.95936916e-004 1.46801816e-004 1.47348968e-004 2.79715634e-004
      -1.05305051e-003 5.56218612e-004 -6.12738368e-004 1.20301824e-003
      -3.39854538e-004 6.15534373e-004 3.27411602e-004 1.68683968e-004
      1.69506253e-004 2.71259749e-004 -7.64339406e-004 8.84530746e-005
      -5.78267907e-004 2.44992290e-004 -1.34866138e-003 -8.84986657e-005
      1.38222807e-004 1.55368602e-004 1.46000471e-004 4.09789936e-004
      5.32836188e-004 -7.68469705e-004 6.31760515e-004 -8.77485494e-004
      -1.19407615e-003 -7.29741951e-005 1.38998672e-004 2.49654142e-004
      3.37317149e-004 -7.19087140e-004 2.44558818e-004 -9.12190008e-004
      7.65689983e-005 -7.61380885e-004 -1.08441827e-003 -1.50253627e-005
      1.09984924e-003 1.12778996e-003 1.52075011e-003 3.76155731e-005
      -1.31991346e-005 -1.03045045e-003 -6.20801817e-004
      -2.65408944e-005 -1.12924131e-003 4.39984651e-005 2.01741073e-004
      2.11348932e-004 1.87313330e-004 6.14995544e-004 1.35274802e-003
      -9.83256847e-004 2.01691379e-004 -6.90338842e-004 -1.22403807e-003
      -1.08727909e-004 1.80550924e-004 1.86637466e-004 2.19829264e-004
      2.74258462e-004 -7.35935973e-005 5.28982026e-004 -1.05158414e-003
      2.95726670e-004 -1.19145366e-003 -3.21399821e-005 1.31448949e-004
      1.40479766e-004 1.59581061e-004 2.38025663e-004 -2.46179581e-004
      -2.60986446e-004 1.13170897e-003 3.34999611e-004 8.00323905e-005
      -9.52968840e-004 1.98492344e-004 1.44968741e-004 1.49218249e-004
      1.97869318e-004 -1.35187118e-004 -3.21216387e-004 7.60649389e-004
      -2.75683007e-004 9.64476640e-005 -8.77869898e-004 1.22278652e-004
      1.54406516e-004 1.52382927e-004 1.43073237e-004 -1.74460278e-004
      6.50038477e-004 -9.55111929e-004 -2.90068565e-004 4.43355413e-004
      -1.49534980e-003 -1.07240885e-004 9.86686064e-005 1.45611251e-004
      2.44175753e-004 1.04828701e-004 -2.16070635e-004 3.09565075e-004
      2.18424801e-004 2.35008614e-004 -6.47481880e-004 8.08087760e-004
      -1.02867780e-003 -9.06513480e-004 -8.10206286e-004
      -9.69249464e-004 2.08255005e-004 1.60820971e-004</_>
    <_>
      1.94933855e-005 1.18793423e-006 -2.17278473e-004 2.83850008e-004
      -4.10351815e-004 -3.67211120e-004 -3.02736793e-004
      -5.94032870e-004 4.32203851e-005 6.02765904e-005 -3.26801710e-005
      2.24362575e-005 -5.11472870e-004 -1.11800662e-004 4.66877755e-005
      1.61173928e-004 6.45157357e-004 -5.08920639e-004 -2.07282545e-004
      3.32282325e-005 -2.43938295e-004 -5.47291827e-004 -3.02748434e-004
      2.89188883e-005 1.07440479e-004 -1.06985150e-004 8.53928970e-004
      -2.29336962e-004 -4.45167709e-004 -9.47275039e-005 5.88711526e-004
      -6.26966357e-004 -1.91913467e-004 3.73880612e-005 -2.08519894e-004
      3.96468065e-004 8.49655247e-004 -1.60764655e-004 -6.15157827e-004
      -3.73104849e-005 3.37516889e-004 -5.88593539e-004 -1.16824907e-004
      -1.27325518e-004 4.46063001e-004 1.66834143e-004 8.69068434e-004
      -7.09399465e-005 -5.66039758e-004 5.06055483e-004 -3.00531799e-004
      -5.71875193e-004 -4.56438538e-005 6.73885341e-004 1.43680823e-004
      1.86729390e-004 8.82794673e-004 -6.33833261e-005 -5.39097644e-004
      2.29441895e-004 -2.25287906e-004 -5.11842489e-004 -4.43444260e-005
      1.62327531e-004 4.79374212e-005 1.79701659e-004 8.53533857e-004
      -7.25705540e-005 -5.61613590e-004 -1.66552200e-004 2.17287539e-004
      -8.40931025e-004 4.10917884e-004 5.91626667e-005 6.04230227e-005
      1.88909165e-004 8.60294676e-004 -4.22244120e-005 -5.43660077e-004
      2.10766666e-004 -5.81771128e-005 7.66833982e-005 -5.41735462e-005
      3.58197103e-005 6.17044279e-005 2.01980161e-004 8.75636528e-004
      -2.55665254e-005 -4.94219537e-004 -1.05877589e-004 1.99371527e-004
      -3.69278307e-004 -2.55168179e-005 9.70304391e-005 1.36211180e-004
      2.47225282e-004 8.83171160e-004 2.15720182e-004 -5.36446401e-004
      5.95930731e-004 -6.16296020e-004 -5.90171432e-004 -1.56011985e-004
      6.26176407e-005 4.66099045e-005 -4.72462270e-004 8.83980014e-004
      -6.57285331e-004 -1.15913851e-003 1.10762070e-004 -1.69400009e-004
      -4.46939812e-004 -3.35486693e-004 -1.37442221e-005 4.67897698e-005
      1.84611185e-004 8.22827860e-004 -1.87921774e-004 -3.66617169e-004
      -1.25857900e-004 -2.84432481e-005 3.57597339e-004 -5.10920945e-004
      -1.46179140e-004 1.98390571e-005 2.13072868e-004 7.11680099e-004
      -3.48182570e-004 1.79134004e-004 3.78711957e-005 2.71048702e-005
      -4.18325044e-006 -1.83846365e-004 1.68702209e-005 -2.36326785e-004
      -6.96325587e-005 4.45641257e-004 6.12819975e-004 8.99109218e-005
      -3.06567992e-004</_>
    <_>
      1.30897359e-004 3.74559168e-005 4.98611189e-004 -6.58171193e-005
      1.39110052e-004 1.08050059e-004 3.82983853e-004 -3.20744002e-004
      1.11198321e-003 1.64916200e-005 5.09967358e-005 -4.72691390e-005
      -6.24095032e-004 1.25364575e-004 3.02627974e-004 2.68024334e-004
      1.17211588e-004 -1.04704418e-003 -4.28806292e-004 8.60083455e-005
      -1.77518450e-004 -9.25104949e-004 -1.21074054e-005 1.74480039e-004
      1.39448282e-004 1.29410531e-004 1.03551436e-004 -3.11994343e-004
      -6.18008373e-004 -6.12893928e-005 7.32537650e-004 -1.08024944e-003
      9.49029854e-005 1.00495825e-004 1.03087448e-004 1.16838841e-004
      1.12256144e-004 -1.63636534e-004 -9.18271195e-004 -9.70432156e-005
      2.84248148e-004 -1.08260405e-003 1.75427936e-004 1.50615713e-004
      1.66462996e-004 1.54438370e-004 1.01520738e-004 -3.80740748e-005
      -8.09052726e-004 4.31396009e-004 -4.34673828e-004 -1.08200544e-003
      -9.77157266e-004 7.00688630e-004 -8.18153261e-004 -5.76352701e-004
      1.07174553e-003 -5.77387807e-004 -5.97266422e-004 1.40851611e-004
      -5.14104846e-004 -4.48168925e-004 -7.45008816e-004 1.61911856e-004
      1.17057694e-004 1.26550338e-004 2.43689967e-004 -1.67050282e-004
      -2.62078480e-004 -9.63506391e-005 6.57207638e-005 -8.12266779e-004
      2.77334348e-005 8.45250615e-005 9.81346966e-005 8.68176357e-005
      1.16461488e-004 6.82274185e-005 3.22697451e-004 -3.24233348e-004
      -2.48747587e-004 -7.25144870e-004 -7.72710337e-005 8.44892274e-005
      9.00887535e-005 1.22040692e-004 1.11686582e-004 1.51038010e-004
      -1.53997084e-004 -2.22096569e-004 -3.19290586e-004
      -1.01034751e-003 -4.35408176e-004 1.14640003e-004 8.77806451e-005
      9.12766991e-005 1.30666784e-004 1.31571273e-004 -8.99770181e-004
      1.47657236e-003 9.49809037e-004 9.76926731e-006 -6.90227258e-004
      1.11243950e-004 8.91668533e-005 8.02042923e-005 1.25855309e-004
      8.22581569e-005 -5.09427919e-005 4.99316782e-004 -1.07165019e-004
      -1.69281193e-004 -5.45016548e-004 3.55768752e-005 8.65392212e-005
      4.92354848e-005 5.76867460e-005 -2.30338177e-004 3.54480377e-004
      -3.36010446e-004 1.56425289e-004 8.42187728e-004 -7.33810593e-004
      -4.51490487e-005 8.88892464e-005 1.31602050e-004 1.66286001e-004
      1.75561217e-004 6.59620564e-004 1.51492975e-004 8.65227703e-005
      1.37139068e-004 -6.95855822e-004 9.53331473e-004 2.03693289e-005
      -1.99975693e-004 -6.78337878e-004 -1.54994123e-004 7.03732803e-005
      8.99065126e-005</_>
    <_>
      -2.07412722e-005 -7.46131846e-005 -3.08248971e-004
      -2.42426409e-004 -3.81638733e-004 -6.28246111e-004
      -2.31730635e-004 9.55902564e-004 -8.65287089e-004 1.11263369e-004
      -1.35291237e-004 -1.02608159e-004 -7.48682593e-004 7.49633356e-004
      1.66965750e-004 -7.16977820e-006 -1.24915823e-004 -8.09452089e-004
      1.06882573e-004 -8.08736193e-004 -3.02651577e-004 -7.52186985e-004
      1.42094796e-004 1.29123073e-004 -3.23655295e-005 -3.50866030e-005
      8.11685459e-006 -7.72209314e-004 4.23267513e-004 -2.35141255e-004
      9.09566414e-004 -1.19171791e-005 -8.71272408e-004 1.44399901e-005
      -1.01311598e-005 -4.49425352e-006 -3.21710031e-005
      -2.68003816e-004 -1.86845264e-003 -7.73791398e-005 1.56228823e-004
      2.51293270e-004 1.63218501e-004 1.93344931e-006 -1.34095326e-005
      -5.96771533e-005 -6.40145518e-005 -2.19508962e-004
      -1.46002462e-003 9.63647544e-005 -5.73848141e-004 -1.73687376e-003
      1.11648362e-004 -5.38391760e-004 1.17128203e-003 1.57086761e-003
      1.62536651e-003 -8.47672112e-004 -1.26594503e-003 -2.42494847e-004
      -3.82871192e-004 -2.38549779e-004 4.35593160e-004 7.14826223e-004
      1.15342416e-004 -1.64304838e-005 1.68163577e-004 1.10362086e-003
      2.94214406e-004 -6.82836864e-004 8.41175352e-005 5.40845736e-004
      6.47327339e-004 3.49621041e-005 -1.41465835e-005 -4.00558974e-006
      -4.44807483e-005 8.96545534e-005 5.87804359e-004 -1.23328052e-003
      -5.61654510e-004 1.11668887e-004 2.02039109e-006 -4.08803571e-005
      -5.49563119e-005 -2.52084537e-005 -3.13270139e-005
      -2.71683293e-005 2.32235732e-004 9.23362270e-004 5.32700578e-005
      4.85427245e-006 2.92907316e-005 -4.74882727e-005 -6.23554442e-005
      -3.12046359e-005 -7.82842199e-006 -7.96775203e-005
      -2.07520905e-004 1.71399652e-003 4.24395286e-004 2.08581201e-004
      -4.60181764e-005 -5.20428075e-005 -5.50107070e-005
      -6.36365294e-005 -2.18641653e-005 -1.55324786e-004 1.51891043e-004
      9.59833269e-004 -4.44597390e-005 3.35418852e-004 -8.51431469e-005
      -5.43065435e-005 -4.82981741e-005 -5.03553165e-005
      -9.34180134e-005 -2.12580067e-004 7.12754496e-004 -7.27923180e-004
      -7.53468848e-005 -4.20086464e-004 1.31278561e-004 7.97839239e-005
      -7.27913794e-005 -4.70846462e-005 -1.83937867e-004 1.00363839e-004
      3.32338852e-004 7.52488559e-005 -8.78256196e-006 -6.54752803e-005
      -4.17396252e-004 3.35943856e-004 4.40570177e-004 4.92117426e-004
      2.66326562e-004 -3.31119983e-004 -3.18015991e-005 -6.32592200e-005</_>
    <_>
      1.23274163e-004 9.51717841e-004 2.27183671e-004 5.31653350e-004
      -6.15534023e-004 -6.39694044e-004 -2.49597419e-004
      -1.78102535e-004 5.16419277e-005 7.92692372e-005 1.32564543e-004
      1.05556077e-003 -1.15386196e-004 2.01555784e-004 1.75470908e-004
      3.95313429e-004 4.07082582e-004 1.41416705e-004 6.66373875e-004
      -1.96893103e-004 -1.09113939e-003 -5.73761703e-004
      -5.01527335e-004 -5.59679902e-005 -1.27219562e-006
      -3.33382013e-005 3.34274846e-005 -1.17556883e-004 -6.10071002e-004
      -6.64239051e-005 7.69240607e-004 -8.75582278e-004 -2.75494793e-004
      -1.08469758e-005 5.70267512e-005 5.94597586e-005 1.70263040e-004
      5.40358946e-004 -1.02261477e-003 -2.16764893e-005 3.04388697e-004
      -8.97267368e-004 -1.82434043e-004 -2.78492971e-005 5.84267909e-005
      9.84848448e-005 -2.57291133e-004 1.16997671e-005 -8.59379885e-004
      6.34739175e-004 -4.35135065e-004 -8.79467640e-004 -1.67979641e-004
      -3.29760696e-005 6.31555522e-005 -2.66214425e-004 1.63915058e-004
      -6.68757566e-005 -8.68999399e-004 2.48768018e-004 -3.28041497e-004
      -8.64629634e-004 -1.09557768e-004 -7.97742189e-007 1.71588981e-004
      5.75902930e-004 -4.73139735e-005 -1.31378256e-004 -8.65544309e-004
      -4.04149265e-004 1.51861896e-004 -8.94853030e-004 -9.08650109e-005
      7.23223566e-005 -3.32376658e-004 2.71798315e-004 8.40639768e-005
      -1.63944627e-004 -8.78173683e-004 1.81783675e-004 -4.96381079e-004
      -9.07596608e-004 -1.92300504e-004 2.37868313e-004 7.38527451e-004
      3.30436305e-004 4.46721315e-005 -9.93135400e-005 -8.60226690e-004
      -1.60131691e-004 2.89738266e-004 -8.83751491e-004 -1.49619780e-004
      -2.43950199e-004 1.14414340e-003 1.26684972e-004 5.12368424e-005
      -1.71205364e-004 -9.03687556e-004 7.50805833e-004 2.55835825e-004
      -9.51668946e-004 -1.69195613e-004 -3.15363141e-004 3.23048152e-004
      2.10109036e-004 1.85575009e-005 -2.72948499e-004 -9.66705091e-004
      4.03821818e-004 -3.11125710e-004 -7.19639531e-004 -3.65377433e-004
      8.47010524e-004 3.17210390e-004 1.59058254e-004 -4.49263571e-005
      -4.28209722e-004 -5.86598588e-004 -2.56366766e-004
      -5.08608173e-005 6.53163937e-004 -6.31954521e-004 7.17776362e-004
      2.75903149e-004 1.09651031e-004 -2.06135170e-004 -7.86300749e-004
      3.48233443e-005 -3.03161523e-005 -1.68146289e-005 -7.02323377e-005
      -1.60058466e-004 1.24561461e-003 -3.46304587e-004 -5.09095087e-004
      -4.91641345e-004 -2.81332876e-004 -3.57339632e-005
      -3.93959090e-005</_>
    <_>
      -1.45780732e-005 -8.33047670e-006 -3.11002368e-004 3.83665145e-004
      1.72147265e-004 -4.68119870e-005 5.31756668e-004 -2.70764518e-004
      9.16773497e-005 1.09558850e-005 -7.41638796e-005 -1.00575460e-004
      -3.52377509e-004 -1.01334386e-004 6.06514868e-006 -2.43233044e-005
      -2.62281701e-005 -2.96744925e-004 -7.23914563e-005 1.31820445e-004
      -1.44835300e-004 4.52735867e-006 -1.21550562e-004 -2.64444170e-005
      1.99057445e-006 -2.85306687e-005 -5.92944025e-006 -2.06409357e-004
      -9.84411454e-005 -6.06779475e-004 6.00692176e-004 -2.68654112e-005
      1.14696217e-004 -3.79672679e-006 1.98892722e-005 6.87516103e-006
      4.83084386e-006 -3.66770728e-005 -1.61234042e-004 -7.18156050e-004
      5.62988607e-005 -1.32700743e-003 5.53353631e-004 4.10355977e-004
      1.92293563e-004 2.08450274e-005 1.27906060e-005 3.95787327e-004
      -7.74498796e-004 2.46671523e-004 -6.74844545e-004 -8.97561724e-004
      2.05585617e-004 9.80048790e-004 6.08931703e-004 4.14385344e-004
      7.14569236e-004 3.40543047e-005 -7.37851660e-004 -1.78682429e-004
      -6.32913725e-004 -7.07126805e-004 2.13571038e-004 1.34270813e-005
      1.05868140e-003 1.03609206e-003 -5.35218103e-004 1.97277594e-004
      -6.89394772e-004 -5.37382090e-004 -1.42473131e-004
      -7.80083472e-004 7.70671526e-004 4.11798945e-004 2.71463068e-004
      5.88878349e-004 1.13001687e-003 9.15241370e-004 -1.03665481e-003
      -4.08839369e-005 -5.09339443e-004 1.54209934e-004 9.84567523e-005
      -1.58930550e-006 3.64536572e-005 2.81387947e-005 1.63102159e-004
      4.83276264e-004 2.46176962e-004 -8.99120059e-004 5.48339565e-004
      -2.73982936e-004 -1.07526699e-004 -1.81345149e-005
      -1.47601486e-005 -2.85023580e-005 -7.80223399e-006
      -1.04376704e-004 -4.46602702e-004 6.11701573e-004 9.54044110e-004
      -3.63386876e-004 -1.97822854e-004 -5.33754655e-006
      -1.81703726e-005 -3.54064468e-005 -3.15372054e-005
      -2.17855457e-004 -6.11125492e-004 1.17345236e-003 -5.24701609e-004
      -3.54492513e-005 -4.43510682e-004 -8.13149090e-005
      -1.64712328e-005 -3.74994415e-005 -7.84689837e-005
      -3.64238716e-004 -2.70554214e-004 -4.57210379e-004 3.62495448e-005
      1.17099693e-003 -4.35702561e-004 -9.51263573e-005 -6.04341949e-005
      -4.38599782e-005 -1.20468489e-004 -3.73243529e-004 8.81623069e-004
      2.08243691e-005 -1.68673560e-005 5.96406906e-008 -8.06535943e-004
      6.93064707e-004 3.86221480e-004 -1.10623114e-004 -4.90248785e-004
      -4.64389857e-004 -4.87796351e-005 -4.96051580e-005</_>
    <_>
      4.59467956e-005 4.87514299e-005 -7.90395890e-004 5.70436358e-004
      -3.98331496e-004 -3.77119984e-004 2.61454727e-004 -5.43117232e-004
      6.76506825e-005 7.68408645e-005 3.99125129e-005 -7.95117521e-005
      -5.37578424e-004 -1.86319412e-005 1.64728644e-005 1.14860004e-005
      2.90171767e-004 -3.70904309e-004 -8.60375469e-004 1.10563582e-004
      -8.80223874e-004 2.38096909e-004 -3.06567061e-004 3.62985847e-005
      2.34328963e-005 1.77648562e-005 3.46959750e-005 7.31939290e-005
      2.87908275e-004 -2.61018082e-004 1.03853282e-003 -7.66282086e-004
      -1.46721897e-004 6.09923109e-006 7.34555942e-006 2.71482677e-005
      4.37336239e-005 -3.54690819e-005 -3.09237548e-005 -2.11609295e-004
      1.03978673e-003 -6.49831432e-004 -2.04045737e-005 2.36250271e-005
      3.34499455e-005 9.54055122e-006 3.04228452e-005 2.91729448e-005
      -8.30530771e-004 1.22167764e-003 -4.18308860e-004 -3.97909898e-004
      4.06512190e-005 -5.35044637e-006 2.54212068e-007 2.22493418e-006
      2.81754037e-005 1.42761099e-004 -6.03000168e-004 4.59255214e-004
      -7.29645602e-004 3.58755642e-004 2.48875731e-004 1.15239936e-005
      5.27868033e-005 2.66266616e-005 4.91025494e-005 7.19829637e-004
      5.00810158e-004 -3.68125533e-004 -7.03793659e-004 -3.10489268e-005
      9.76048061e-004 2.20784263e-004 9.15347409e-005 4.54745568e-005
      9.73949092e-004 2.98640865e-004 1.88593083e-004 3.29302857e-004
      -4.85679921e-004 -9.38272104e-004 -4.07574757e-004 5.90148498e-004
      8.93032295e-004 5.30989164e-005 -5.42730442e-004 1.39796801e-004
      -1.65076379e-003 -2.22456511e-004 -2.20446294e-004
      -1.18941674e-003 -9.73907154e-005 4.89989798e-005 1.05850759e-005
      2.02432238e-005 5.08499070e-005 5.14814237e-005 -2.04307260e-004
      -7.53923377e-004 2.80733831e-004 -1.40681304e-003 -1.57175615e-004
      -1.37332408e-005 6.64544677e-006 1.65972215e-005 3.26620393e-005
      -6.39749051e-004 -3.36204575e-005 4.59411356e-004 -1.23552760e-004
      2.92017008e-004 -1.10675418e-003 9.31402792e-006 2.64002374e-005
      -3.01678574e-006 1.12539303e-004 3.90514033e-004 -7.68727041e-004
      -4.39239993e-005 -5.91072487e-004 1.10624265e-003 -3.49738490e-004
      6.43950307e-006 -2.52505906e-005 1.92464096e-004 2.55420862e-004
      -2.04369862e-004 7.32192639e-005 4.14485430e-006 8.91917080e-005
      -7.33502500e-004 2.67610681e-004 1.13397744e-003 -1.86605597e-004
      -4.18963638e-004 -1.24514464e-003 -1.14887225e-004
      -8.03363673e-006 2.27982528e-005</_>
    <_>
      1.63675038e-004 1.10523062e-004 -1.93444313e-004 4.27415944e-004
      -4.98779817e-004 -6.73875213e-004 -9.74687355e-005
      -9.66329171e-005 1.27450898e-004 1.95117565e-004 7.54669672e-005
      1.70918167e-004 -1.02476380e-003 -8.43625894e-005 4.34374786e-004
      9.69155662e-005 -3.01100790e-005 -1.03056780e-003 -2.54319777e-004
      1.55188696e-004 -2.43137620e-004 -9.69665882e-004 -4.11601097e-004
      1.40784556e-004 4.20661730e-004 1.35244263e-004 2.33095241e-004
      -3.30661482e-004 -8.00551323e-004 -3.66145578e-005 1.00779650e-003
      -1.29713642e-003 -1.85056211e-004 1.25942403e-004 2.34642139e-004
      1.61251024e-004 2.03325573e-004 -1.27763997e-004 -1.30759925e-003
      2.22582112e-005 3.57032404e-004 -1.03624747e-003 -4.68513026e-005
      1.40411532e-004 1.69676743e-004 1.66939994e-004 1.60377705e-004
      -3.34309734e-005 -1.01004809e-003 5.99799387e-004 -6.25198183e-004
      -8.77779501e-004 5.93143750e-006 1.79804323e-004 2.14363099e-004
      9.44323256e-005 2.36534572e-004 3.14947247e-005 -8.53348116e-004
      2.26950157e-004 -6.47757435e-004 -7.10805994e-004 -3.69707908e-004
      -2.35597166e-004 7.95105181e-004 5.40141016e-004 -2.19153051e-004
      -4.24387312e-004 -7.38068426e-004 -4.98884416e-004 1.18464348e-004
      -8.98888859e-004 -7.13952701e-004 -7.25211692e-004 6.98230055e-004
      7.36274524e-004 -6.81579520e-004 -3.38611891e-004 -8.49209027e-004
      -2.88004703e-005 -3.97371885e-004 -8.94893717e-004
      -1.10141455e-005 1.90926614e-004 1.46009697e-004 1.18874872e-004
      1.95086759e-004 6.35426841e-005 -8.13371094e-004 -3.34875280e-004
      3.43526597e-004 -1.05472014e-003 -7.63963690e-005 1.26159473e-004
      7.24959027e-005 -3.53947515e-004 2.05715332e-004 -3.90712012e-006
      -1.00500800e-003 7.10769615e-004 2.48216267e-004 -1.31066563e-003
      -1.91909567e-004 1.29415334e-004 8.38519481e-005 -3.39380902e-004
      1.83593205e-004 -1.28445317e-004 -1.26595388e-003 6.81360660e-004
      -1.92845968e-004 -8.20203975e-004 -4.79009614e-004 1.16579569e-004
      4.80385097e-005 -1.77045673e-004 9.93324284e-005 -4.02129721e-004
      -7.55201210e-004 -1.10144822e-004 7.88893958e-005 6.17157610e-004
      -1.02277333e-003 -1.34438582e-004 -1.99933620e-005 2.31392216e-004
      -1.03336781e-004 -9.95758222e-004 3.56920937e-004 1.59131319e-004
      1.46084582e-004 9.40037862e-005 -1.99549075e-004 8.41192668e-004
      -1.19890168e-003 -5.98699669e-004 -3.74328316e-004
      -1.26389525e-004 1.00459547e-004 1.30361295e-004</_>
    <_>
      -3.46322398e-004 -3.47496272e-004 -2.36767504e-004
      -1.04168961e-004 -3.91830574e-004 -3.91212292e-004
      -4.07944957e-004 -3.38274316e-004 -4.66304860e-004
      -4.49767918e-004 -3.28707334e-004 -3.01398686e-004
      -4.84728866e-004 -2.24415038e-004 -1.60754804e-004
      -1.59552656e-004 -3.28417256e-004 -5.61293564e-004
      -4.62185009e-004 -3.71647533e-004 -1.92905965e-004
      -3.78777710e-004 -2.78302148e-004 -1.53721980e-004
      -1.43532961e-004 -1.40320015e-004 -7.21319302e-005
      -2.18461995e-004 -2.69083102e-004 -5.70644443e-005 2.76734238e-004
      -2.52365309e-004 -1.97846588e-004 -1.38565330e-004
      -1.20431570e-004 -1.21660603e-004 1.18996919e-004 1.77914699e-005
      -1.79927392e-005 3.03512148e-004 2.71594385e-004 -7.36278298e-006
      1.08406326e-004 1.48795618e-004 1.67347549e-004 1.58410694e-004
      2.93866440e-004 2.42600116e-004 1.27155246e-004 4.76638292e-004
      1.39056530e-004 1.25151084e-004 3.10114992e-004 3.49689246e-004
      3.67457134e-004 3.65853106e-004 3.99532117e-004 3.61347717e-004
      1.71455744e-004 3.75132193e-004 1.95057772e-004 1.75800567e-004
      3.85749736e-004 4.23110643e-004 4.39805561e-004 4.37890354e-004
      4.33148671e-004 3.97348020e-004 1.90980238e-004 1.79871946e-004
      2.86461873e-004 1.01743964e-004 3.22371488e-004 3.60093080e-004
      3.75896809e-004 3.69244633e-004 3.69614747e-004 3.31260788e-004
      1.27458567e-004 1.66135433e-004 4.22505254e-005 -4.68920443e-005
      1.38685034e-004 1.93894142e-004 2.11066435e-004 2.09411592e-004
      1.72446889e-004 1.41064040e-004 -6.93778420e-005 -1.17720047e-004
      9.13551266e-005 -2.07401565e-004 -8.64130052e-005 -4.17032279e-005
      -2.74671929e-005 -2.89955387e-005 -1.44066958e-004
      -1.96220484e-004 -4.34533838e-004 -4.58947034e-005 1.46943494e-004
      -2.31285827e-004 -1.80121875e-004 -1.12993934e-004
      -1.03240614e-004 -1.09351626e-004 -3.17753380e-004
      -3.87597363e-004 -6.43155072e-004 -1.36861694e-004
      -7.38464005e-005 -2.58531480e-004 -2.12218292e-004
      -7.90185222e-005 -6.07275288e-005 -6.88867367e-005
      -1.33457928e-004 -2.46284064e-004 -3.56520643e-004
      -2.65723123e-004 -1.46732287e-004 -3.54234908e-005
      -3.18798149e-004 -8.68323987e-005 -3.14180834e-005
      -3.62907340e-005 2.19683698e-005 -2.17548019e-004 9.70742039e-005
      -1.80259492e-004 -1.94731285e-004 -2.16695495e-004
      -9.66505468e-005 8.10932470e-005 -2.70842662e-004 -2.75826431e-004
      -1.78099890e-005 6.47220222e-005 8.65669936e-005 -1.68967381e-004</_>
    <_>
      4.89325939e-005 8.82505628e-006 -3.48553323e-004 4.14743234e-004
      -7.20139185e-004 -6.61685888e-004 -4.73929744e-004 2.39396526e-004
      5.60376036e-004 -7.57235743e-004 -3.94086237e-005 7.45126963e-005
      -8.79205589e-004 -1.40072269e-004 2.45773263e-004 1.15765375e-003
      -4.89516708e-004 -6.77584088e-004 -3.46807501e-004 3.87822947e-005
      -3.58690042e-004 -8.62152025e-004 -5.15830063e-004 4.72979329e-004
      3.31583615e-005 6.70484078e-005 1.07293490e-004 -4.39839729e-004
      -7.92908308e-004 -1.74638553e-004 1.15444395e-003 -1.11326051e-003
      9.12158459e-004 -3.24371387e-004 3.41831910e-004 1.41489290e-004
      7.71949635e-005 -2.68099597e-004 -1.12901488e-003 -9.69497196e-005
      4.81443451e-004 4.17584051e-005 4.62450931e-004 -1.76987684e-004
      1.16285795e-004 4.36213850e-005 4.02945516e-005 -1.83282289e-004
      -1.07805198e-003 8.31816695e-004 -1.30993291e-003 3.33976874e-004
      -1.23053219e-003 1.53692148e-004 9.87286403e-005 5.59112632e-005
      1.08424094e-004 -1.44726597e-004 -1.01371238e-003 3.76651995e-004
      -7.24161160e-004 3.48257745e-004 1.54680180e-004 1.16626950e-004
      8.77148923e-005 8.82111635e-005 8.59235515e-005 -1.61919234e-004
      -1.01982476e-003 -2.87200150e-004 -7.20993228e-007 2.88460520e-004
      1.11363159e-004 9.23379121e-005 6.16413963e-005 7.92311694e-005
      7.36652291e-005 -1.58104333e-004 -1.01576815e-003 3.35063902e-004
      -1.02418731e-003 3.49790207e-004 -2.32556806e-004 1.73118286e-004
      9.83542559e-005 1.10964582e-004 6.24931781e-005 -9.14392731e-005
      -9.55587020e-004 -2.53102655e-004 3.62049323e-004 -5.88765542e-004
      3.31493386e-004 1.18168995e-004 7.97255416e-005 8.12132421e-005
      1.11070069e-004 -1.52310080e-004 -1.04377035e-003 9.58854216e-004
      3.24625231e-004 -1.79759506e-003 -1.49190191e-006 1.49243642e-004
      1.87641872e-005 6.81535021e-005 8.17399559e-005 -2.84670736e-004
      -1.08158879e-003 6.64969324e-004 -2.80778215e-004 -6.79989054e-004
      -5.76771039e-004 9.14624106e-005 1.92981170e-004 8.88342838e-005
      1.06039588e-004 -4.55530506e-004 -7.32429267e-004 -2.58217537e-004
      -1.99406732e-005 5.79849526e-004 -8.57537845e-004 -1.45339975e-004
      -7.73294596e-004 1.63815275e-005 -1.20418617e-005 -9.09998664e-004
      3.83328384e-004 8.35252795e-005 5.45705989e-005 -6.99783698e-007
      -3.21122265e-004 8.46500625e-004 -6.77670818e-004 -5.78430190e-004
      -7.99320405e-004 -5.02550974e-004 4.81037307e-004 -9.04547705e-005</_>
    <_>
      -2.83976056e-004 1.15903642e-003 -6.28486043e-004 2.23300594e-004
      -6.98498043e-004 -7.66112935e-004 -2.72420380e-004
      -2.10412254e-004 4.85183373e-005 9.30719543e-005 -2.98036339e-005
      1.22516241e-004 -9.94338887e-004 -3.23254964e-004 6.31114817e-004
      -5.75238897e-004 -9.67635715e-005 -8.82723776e-004
      -3.71646573e-004 1.52232751e-005 -3.46957066e-004 -9.18679580e-004
      -4.63419914e-004 5.14225030e-005 3.06537077e-005 -1.56060283e-004
      4.09911270e-004 -5.17610053e-004 -7.05314800e-004 -1.35069698e-004
      9.95509210e-004 -1.11561117e-003 -3.13503289e-004 2.69945613e-005
      9.43176128e-005 -1.07252410e-004 3.49700800e-004 1.05824578e-003
      -1.19121710e-003 -3.10009673e-005 5.35146915e-004 -1.02708861e-003
      -1.82368545e-004 1.22199508e-005 7.76022498e-005 1.00052945e-004
      -2.22655435e-004 7.19014439e-004 -6.82963582e-005 8.20197631e-004
      -5.78021514e-004 -1.00033206e-003 -1.42280580e-004 2.65408671e-005
      9.00117666e-005 8.74387770e-005 2.29935162e-004 -1.03629695e-003
      3.87195934e-004 -6.37396181e-004 -4.48488892e-004 -9.47875786e-004
      -7.93110084e-005 7.87928147e-005 9.01997046e-005 9.94587608e-005
      1.23895094e-004 -3.02440196e-004 4.03686892e-004 -7.38941599e-004
      3.13766941e-004 -9.70193185e-004 -6.56644770e-005 6.11653522e-005
      8.14520245e-005 8.91856034e-005 1.46697130e-004 -3.85864114e-004
      3.60773585e-004 1.64749974e-004 -2.89271673e-004 -1.00699149e-003
      -1.92135121e-004 4.96520661e-005 9.33073170e-005 1.47287807e-004
      1.74576504e-004 -9.04015906e-004 4.75386740e-004 -8.71437311e-004
      5.28189004e-004 -1.02605543e-003 -1.69058403e-004 3.01603523e-005
      9.34952550e-005 1.40818709e-004 3.19528132e-004 -3.98367956e-005
      -7.78220943e-004 8.03812232e-004 1.56756490e-004 -1.08870282e-003
      -2.89505435e-004 4.24234604e-005 1.08610198e-004 3.29162343e-004
      -2.57513078e-004 6.13950717e-004 -1.36534811e-003 7.30741187e-004
      -2.84301845e-004 -7.48767867e-004 -5.60348388e-004 3.18230486e-005
      3.34447890e-004 1.95758636e-004 5.59006759e-004 -6.89012522e-004
      -6.64648018e-004 -2.23971569e-004 -3.14874669e-005 5.81269735e-004
      -7.63031363e-004 -4.95760818e-004 7.70543003e-004 2.09265563e-004
      -1.38338160e-004 -8.18483124e-004 2.89610878e-004 3.49962356e-005
      -4.24374244e-004 -4.09418972e-005 -5.92154211e-005 3.74959636e-004
      -6.00751606e-004 -6.76444382e-004 -5.40034671e-004
      -2.90423312e-004 -2.67953201e-005 3.66237109e-005</_>
    <_>
      8.06345270e-005 6.43745007e-005 -1.85058598e-004 3.73040239e-004
      -3.78563680e-004 -9.96209797e-004 -1.34063899e-004
      -7.93654108e-005 6.35827091e-005 8.91868913e-005 8.74739362e-006
      4.59890216e-005 -7.12201057e-004 -9.66383959e-005 2.96547046e-006
      1.87587735e-004 -5.05553762e-005 -7.02378922e-004 -2.14419793e-004
      6.13532175e-005 -1.93132786e-004 -6.75511197e-004 -2.75676488e-004
      7.14871640e-005 -2.70246004e-004 5.87272109e-004 1.06907944e-004
      -2.13645646e-004 -6.05716777e-004 -6.52298040e-005 3.47738300e-004
      -6.93482871e-004 -2.53849284e-004 9.09347291e-005 -5.10735670e-004
      -2.66444520e-004 6.77269272e-005 -2.29737314e-004 -7.14873895e-004
      -8.77159910e-005 1.36919058e-004 3.90962028e-004 -1.14657298e-004
      1.63365243e-004 -3.01080232e-004 -2.81334302e-004 5.79319640e-005
      -1.36991293e-004 3.84525047e-004 3.67841043e-004 -6.59469166e-004
      -7.44182849e-004 2.96941202e-004 -4.72297688e-004 2.68326286e-004
      3.96710020e-005 3.01545311e-004 2.89559859e-004 -7.34542497e-004
      -1.13453134e-004 -3.04397574e-004 -5.73895173e-004
      -7.03152691e-005 -1.82851527e-005 1.21442333e-003 1.22159417e-003
      -2.82389228e-004 -1.09436776e-004 -6.29786402e-004
      -3.04673420e-004 1.31874345e-004 -6.34917000e-004 5.08621961e-005
      7.77138703e-005 1.23306550e-003 1.21310749e-003 -3.79123696e-004
      5.55665902e-005 -6.08624890e-004 1.49004569e-004 -5.15741063e-004
      -8.76054924e-004 3.10167117e-004 -3.74146359e-004 3.79902456e-004
      1.49379397e-004 4.01947327e-005 4.77927068e-004 -8.32424033e-004
      -4.60980227e-004 5.87970542e-004 4.01751138e-004 -4.49053827e-004
      9.44605781e-005 -6.41937193e-004 -2.91663076e-004 2.64827540e-004
      -2.80652428e-004 3.95800977e-004 5.27885626e-004 3.71116184e-005
      -3.14998149e-004 -2.67789030e-004 4.21971599e-005 -1.37992436e-004
      -2.37641856e-004 1.11699490e-004 -7.47082158e-005 -5.39198052e-004
      2.38725566e-004 -2.97212828e-004 -8.36508931e-004 -3.62551917e-004
      5.14424210e-005 -2.73043086e-004 5.18097368e-004 7.11930043e-005
      -3.02547618e-004 -7.10348657e-004 -2.69217533e-004 3.81868049e-005
      4.90176142e-004 -6.98585878e-004 -1.30216911e-004 4.03979706e-004
      1.63541656e-004 -6.22274383e-005 -6.58633944e-004 1.76708156e-004
      7.33542474e-005 6.49828580e-005 2.82392830e-005 -1.62800585e-004
      4.77448688e-004 -1.05549174e-003 -9.99449752e-004 -3.52101488e-004
      -1.42000004e-004 5.78864165e-005 9.35366334e-005</_>
    <_>
      8.61158769e-004 1.12944108e-004 -2.69513082e-004 3.01561638e-004
      -6.82064914e-004 -7.04972306e-004 -2.22102826e-004
      -1.59135059e-004 7.87398676e-005 7.36387563e-004 5.54863618e-005
      -5.10321057e-004 -7.52006599e-004 -1.44481601e-004 4.44457146e-005
      -4.77493495e-006 -1.51509739e-004 -7.54564127e-004
      -8.26734584e-004 6.82736791e-005 -2.89297430e-004 -1.01732765e-003
      -5.80022868e-004 5.06301694e-005 5.91725438e-005 4.06077015e-005
      7.81935960e-005 -2.39063913e-004 -7.09307671e-004 -1.13231014e-004
      7.70674669e-004 -9.24454129e-004 6.78575365e-004 1.09436245e-004
      7.59545292e-005 5.90678283e-005 7.44357312e-005 7.25427817e-004
      -9.68141714e-004 -9.73032511e-005 3.54287389e-004 -8.72101460e-004
      -3.01757740e-004 9.01858439e-004 1.19764212e-004 6.62749153e-005
      2.03876174e-004 -1.88265956e-004 -8.46965064e-004 5.32989332e-004
      -5.25801675e-004 -8.12477549e-004 -1.01639489e-004 4.12964262e-004
      9.17349316e-005 -1.47442071e-004 -7.04319536e-005 -6.54076575e-005
      -8.02587369e-004 1.71962645e-004 -4.18605050e-004 -7.61291245e-004
      -3.21475127e-005 1.02765589e-004 3.74320720e-004 1.45070808e-004
      1.26341256e-004 -1.34109243e-004 -7.95516302e-004 -3.30703537e-004
      1.81352341e-004 -8.08015058e-004 -4.01139368e-005 9.27574802e-005
      3.03331850e-004 2.42528069e-004 1.35267765e-004 -1.30388769e-004
      -7.76643108e-004 1.53318979e-004 -3.40180501e-004 -8.26081494e-004
      -1.32122266e-004 -3.66267806e-004 -4.18967917e-004 1.44812060e-004
      -1.36545641e-004 -5.56831037e-005 -7.60193216e-004
      -2.86341383e-004 3.40624712e-004 -8.76558595e-004 -1.64093450e-004
      6.02902845e-004 1.16242816e-004 9.80048208e-005 6.20087783e-004
      -2.70816818e-004 -8.41447676e-004 6.24711043e-004 1.47432904e-004
      -8.70689575e-004 6.61946659e-004 1.81760726e-004 3.78386321e-005
      1.56199130e-005 1.55209884e-004 6.88599888e-004 -8.77447892e-004
      4.86790639e-004 -1.84352699e-004 -7.01669545e-004 -1.03107526e-003
      1.22185811e-005 1.88572903e-005 6.97032228e-005 -1.27517424e-005
      -6.65473402e-004 -4.99400951e-004 -1.74432367e-004 7.66720259e-005
      2.34085732e-004 -7.79127411e-004 -2.08679325e-004 -5.83841256e-006
      8.91165473e-006 -1.83766664e-004 -7.50493375e-004 3.22899752e-004
      1.44953941e-004 6.44118118e-004 8.26425312e-005 -2.37704910e-004
      6.21794141e-004 -6.34707278e-004 -5.97953680e-004 -4.13838250e-004
      -2.13627849e-004 1.04694329e-004 5.26405813e-004</_>
    <_>
      -2.36352912e-006 -1.10522356e-004 -2.76988110e-004
      -6.19259663e-005 -2.81244662e-004 -2.78053252e-004
      -2.60201487e-004 -2.71797762e-004 -9.83419013e-005 3.00751844e-006
      -1.13954738e-004 6.91634268e-005 1.57484737e-005 1.26902174e-004
      2.04807729e-004 1.95980974e-004 1.46393737e-004 5.60339613e-005
      2.41095313e-005 -1.05189400e-004 -1.92500273e-004 1.87278238e-005
      1.56600858e-004 2.87820701e-004 2.90969503e-004 2.95142905e-004
      2.92628916e-004 1.79755298e-004 1.32230532e-004 -1.66335987e-004
      7.54772645e-006 -1.53310066e-005 2.20245187e-004 2.86764931e-004
      2.93219142e-004 2.99463427e-004 2.92860961e-004 2.23994779e-004
      6.73265231e-006 -3.38341226e-004 -8.16332831e-005 -1.17466277e-006
      2.58235697e-004 2.91029428e-004 2.99783453e-004 2.92553741e-004
      2.95008067e-004 2.54055165e-004 9.08590209e-006 -1.91714294e-004
      -9.98116666e-005 2.89043010e-006 2.66955700e-004 2.91293720e-004
      3.01391206e-004 2.96106562e-004 2.98654893e-004 2.65611860e-004
      1.03054517e-005 9.27184228e-005 -8.15306485e-005 1.60330601e-005
      2.70811928e-004 2.95214501e-004 2.97088089e-004 2.96771497e-004
      2.95862090e-004 2.70017830e-004 1.10805677e-005 -9.40803729e-005
      -3.49767288e-005 1.05315548e-005 2.76553852e-004 2.94002268e-004
      2.92749115e-004 2.99548177e-004 2.96510785e-004 2.61023320e-004
      1.14051300e-005 -2.74137369e-006 -1.51053857e-004 5.87437080e-006
      2.60502158e-004 2.93765828e-004 2.96504440e-004 3.00475920e-004
      2.96737446e-004 2.68657779e-004 1.07809565e-005 3.29772192e-005
      -6.84731203e-005 1.73809326e-006 2.56389758e-004 2.91694916e-004
      2.93092802e-004 2.97825027e-004 3.01859953e-004 2.59458960e-004
      2.28856925e-006 7.94865900e-006 -9.28465379e-005 -1.30566843e-006
      2.21368377e-004 2.82125053e-004 2.84658454e-004 2.92918703e-004
      2.95933423e-004 2.25230775e-004 3.18032944e-005 -9.01078529e-005
      -1.33858266e-004 -3.69879621e-004 7.82930292e-005 2.77464744e-004
      2.91330391e-004 2.92740879e-004 1.81496231e-004 1.17442387e-005
      8.09478879e-005 -1.23311882e-004 -2.21504270e-005 5.54413236e-005
      -1.02530437e-004 1.40180578e-004 1.95382236e-004 1.97733287e-004
      3.34871402e-005 -1.26728599e-004 -6.35048782e-005 -3.35050972e-005
      -2.13655730e-005 -7.36335687e-006 -5.77650353e-005
      -2.38139721e-004 -3.67343135e-004 -2.19505557e-004
      -1.62344979e-004 2.87472612e-005 -2.64385144e-005 -1.53311648e-005</_>
    <_>
      1.19821707e-005 -2.35466741e-005 -1.94936350e-004 2.48886117e-005
      -4.44009958e-004 -4.55818838e-004 -9.32580660e-005
      -1.42324730e-004 3.40076745e-004 1.94926542e-004 -3.85629537e-005
      9.03608525e-005 -5.18040033e-004 -1.05672152e-004 2.79777450e-005
      5.12685710e-006 -8.73867757e-005 -5.06002514e-004 6.52612012e-004
      -7.43775818e-005 -2.21216033e-004 -5.65998082e-004
      -2.64520844e-004 2.89401123e-006 4.42119426e-006 3.10283831e-005
      1.34245201e-004 9.91585257e-005 -8.07726115e-004 -5.90774434e-005
      4.71484411e-004 -6.69357949e-004 -1.66323996e-004 -1.91415093e-005
      1.11130794e-005 2.75989387e-005 3.82502796e-004 -1.78395319e-004
      -6.28163572e-004 -1.27501800e-004 1.89688828e-004 -5.86941140e-004
      -1.27472027e-004 -1.66937862e-005 2.69445754e-005 -4.18965472e-004
      1.03947532e-003 -7.00680175e-005 -5.57449821e-004 3.54592776e-004
      -4.26380022e-004 -5.59516484e-004 -9.84685685e-005
      -8.52924404e-006 -7.66028243e-005 4.97070596e-006 -1.21990699e-004
      -4.81345960e-005 -5.39062545e-004 9.33629417e-005 -3.91442270e-004
      -5.22602524e-004 -6.51149676e-005 8.39302538e-006 -1.75504276e-004
      1.10401434e-003 1.66635436e-005 -9.29763555e-005 -5.36916719e-004
      -1.09787470e-004 1.06641390e-004 -5.33269311e-004 -6.70754816e-005
      -2.09696067e-004 1.08637963e-003 3.22325905e-005 1.72051277e-005
      -8.14435480e-005 -5.26740856e-004 1.04684601e-004 -1.02386191e-004
      -5.53693739e-004 -1.33781883e-004 -1.88669772e-004
      -4.77202819e-004 4.43032550e-005 1.28006150e-005 -7.30065294e-005
      -5.17735782e-004 -2.92042620e-004 2.50055105e-004 -5.92975586e-004
      -2.45151896e-004 1.06689706e-003 -2.08282418e-005 6.26908104e-006
      9.64042374e-006 -1.07832784e-004 -5.79004933e-004 3.65807442e-004
      -6.20185310e-005 -6.94219198e-004 8.10127996e-004 -2.74878053e-004
      2.18856985e-005 -9.40206246e-006 1.08370223e-005 -1.74870424e-004
      -6.38782629e-004 3.60406004e-004 -1.18437747e-004 -5.99531806e-004
      -1.95814893e-004 -2.62660778e-005 -7.71452778e-006
      -6.19414823e-006 -3.63330328e-005 -2.70518445e-004
      -5.14997926e-004 -1.50755601e-004 1.73222870e-005 1.16800400e-003
      -7.14296999e-004 -1.68889077e-004 -3.81331956e-005
      -3.05139656e-005 -1.42397592e-004 -5.29463810e-004 2.24846764e-004
      -3.14658632e-006 9.28745023e-004 -1.27470121e-004 -1.57074828e-004
      5.88438357e-004 -4.29371983e-004 -4.22304875e-004 -2.95490376e-004
      -1.50053020e-004 -3.29616887e-005 -2.05888887e-006</_>
    <_>
      6.40674552e-005 4.33131936e-005 -1.61430144e-004 3.15421144e-004
      -7.21179647e-004 -7.67781166e-005 -8.41773217e-005
      -8.40050125e-005 5.27631164e-005 7.82835414e-005 -5.90185937e-006
      7.28131417e-005 -6.17921178e-004 -6.87342108e-005 1.17634737e-003
      1.21525640e-003 -2.30361311e-005 -5.82161883e-004 -1.76049944e-004
      4.64048317e-005 -1.73707478e-004 -5.71597833e-004 -2.73133512e-004
      4.10348730e-005 4.38028685e-004 7.77772744e-004 9.05862835e-005
      -2.32383434e-004 -5.00426453e-004 -5.24833122e-005 5.92246826e-004
      -7.67897931e-004 -1.44826612e-004 1.77052661e-005 1.13712595e-004
      7.56894005e-005 7.15967835e-005 -1.28450061e-004 -7.53291417e-004
      6.90402021e-006 2.45268893e-004 -6.27495523e-004 -8.02767827e-005
      4.58570976e-005 6.62355524e-005 6.18124905e-005 6.77636053e-005
      -4.82101714e-005 -6.18832710e-004 3.86422820e-004 -3.53159761e-004
      -5.59108856e-004 -5.55931147e-005 4.81134120e-005 6.90521701e-005
      9.37580407e-005 1.01940779e-004 -8.05853324e-006 -5.47771051e-004
      1.44760648e-004 -6.04502391e-004 -5.79045562e-004 -3.23292043e-005
      -5.84486872e-004 -5.36984415e-004 -5.03013202e-004
      -4.83588316e-004 -5.93724661e-004 -1.08704565e-003 7.75890749e-006
      1.29202817e-004 -5.20888309e-004 2.95034042e-005 1.84412656e-005
      -1.31294757e-004 -1.46688413e-004 -1.80089148e-004
      -3.43259686e-004 -8.75036523e-004 -2.01445364e-004
      -2.60928035e-004 -5.47132397e-004 -5.42428934e-005 6.78030628e-005
      6.86055500e-005 8.60555738e-005 7.34176938e-005 -5.59892715e-006
      -5.41812566e-004 -1.81966432e-004 2.14926215e-004 -6.15941186e-004
      -6.26549663e-005 4.49496583e-005 7.14517446e-005 7.31669861e-005
      1.08069726e-004 -4.90113125e-005 -6.09144627e-004 4.46934137e-004
      1.55565780e-004 -7.45085301e-004 -1.44107806e-004 3.96539253e-005
      5.24019379e-005 5.79385087e-005 7.54293360e-005 -1.13676171e-004
      -7.36010494e-004 3.86733649e-004 -1.32123241e-004 -4.80308081e-004
      -3.10117583e-004 3.35389705e-005 6.56340329e-004 1.63090954e-004
      5.11695180e-005 -2.53724749e-004 -4.56191541e-004 -9.27368310e-005
      1.59900264e-005 3.78931203e-004 -5.82371780e-004 -9.34903801e-005
      1.13526476e-003 1.13132910e-003 -6.53859679e-005 -5.88023395e-004
      1.63771707e-004 5.12985862e-005 5.92873839e-005 2.20153688e-005
      -1.39020529e-004 4.58031544e-004 -1.04847434e-003 1.56829046e-005
      -2.38398497e-004 -1.22740923e-004 2.24853393e-005 6.24023742e-005</_>
    <_>
      8.42127411e-005 1.45907499e-004 -6.93348818e-004 1.75873574e-004
      -3.29485192e-004 -6.92497822e-004 -1.02770259e-003 3.03916808e-004
      -1.58524999e-004 8.46726325e-005 8.30035933e-005 1.04347077e-004
      -8.29684606e-004 -2.33608589e-004 1.75087378e-004 -1.00652316e-004
      -1.20292025e-004 2.50435376e-004 -9.15639626e-004 1.04500330e-004
      -9.90678891e-005 3.81297199e-004 -4.29229054e-004 4.96361063e-005
      7.69273902e-005 7.56548252e-005 1.21306308e-004 -3.45410401e-004
      2.70683755e-004 -3.11806107e-005 5.54231170e-004 1.77488095e-004
      1.29298287e-005 5.65873488e-005 7.84802178e-005 6.83029793e-005
      5.21050897e-005 -1.37672207e-004 -8.11918580e-004 -5.69910393e-004
      6.11975789e-004 2.47020565e-004 -9.36991419e-005 2.45989650e-004
      2.52287136e-004 1.04530860e-004 4.14970382e-005 -7.98533947e-005
      -1.01681019e-003 2.59332475e-004 -3.59094905e-004 -1.18852197e-003
      9.58739023e-004 -9.23461339e-005 -1.81529802e-004 2.57610023e-004
      1.53234403e-004 -3.80404017e-005 -7.17882824e-004 1.64380981e-004
      -3.94070405e-004 -5.53145830e-004 6.55380354e-005 8.62810179e-004
      1.11715414e-003 7.90785591e-004 -1.08257766e-004 6.57395140e-005
      -6.76969066e-004 -2.47330783e-004 2.25363256e-004 -7.09464133e-004
      3.11311087e-005 2.84537353e-004 -2.09032092e-004 -2.91378499e-004
      -4.76381911e-006 9.54122224e-004 -6.97067589e-004 2.09365506e-004
      -2.63927854e-004 -7.40484160e-004 -1.00420941e-004 1.20410863e-004
      1.01098936e-004 1.49522326e-004 2.30581136e-004 1.88812308e-004
      3.21295229e-004 -3.73861636e-004 -8.72595483e-005 -9.76022682e-004
      -1.14750714e-004 3.59953447e-005 4.68782164e-005 1.54813155e-004
      1.08747103e-004 4.18415548e-005 -8.50426324e-004 1.14872865e-003
      -1.05864441e-004 -5.21337905e-004 -2.89247309e-005 4.34036556e-005
      4.93845509e-005 1.02313737e-004 6.21364961e-005 -6.54095711e-005
      -1.86689198e-003 5.78075123e-004 -3.35381483e-004 1.60893411e-004
      2.64638056e-005 1.67759121e-004 8.36146792e-005 6.00426647e-005
      3.16975966e-005 -1.38480173e-004 -2.73125188e-004 3.36183002e-005
      1.37046794e-004 6.90036744e-004 2.10177997e-004 2.90909462e-004
      -1.15417359e-004 -2.19410751e-004 -3.14901263e-004
      -6.33196789e-004 9.46310000e-004 6.67201675e-005 1.28270898e-004
      -7.10412744e-004 -4.46592661e-004 6.28165217e-005 -9.77333169e-004
      -2.51997553e-004 2.61774287e-004 -4.06463427e-004 1.25011517e-004
      7.47263548e-005</_>
    <_>
      -4.52978929e-005 -2.06530589e-004 -3.43968655e-004 8.77227343e-004
      3.02129309e-004 -2.83399684e-004 2.46040308e-005 -2.18221408e-004
      -2.75972507e-005 1.22551830e-006 -5.96564823e-005 -3.32067546e-004
      -3.77162796e-004 1.00928519e-004 2.61790876e-004 3.28362978e-004
      -5.74009668e-004 -4.62016644e-004 -2.25060867e-004
      -4.55868212e-005 -2.38247972e-004 -5.07401128e-004
      -2.88490817e-004 -3.67621979e-005 -2.71268182e-005
      -4.56104644e-005 -1.45945087e-005 -2.68779026e-004
      -4.69633640e-004 -1.56439055e-004 4.10650158e-004 -5.83348214e-004
      -1.83423472e-004 -5.49011711e-005 -1.80340594e-005 2.11680490e-005
      -2.29222514e-005 -1.93251864e-004 -6.00576692e-004
      -1.10553061e-004 2.01900824e-004 -5.63474547e-004 -1.17467906e-004
      -1.25827910e-005 5.57656240e-005 -1.16831807e-005 -5.53730433e-006
      -1.25167993e-004 -5.62798348e-004 3.07351467e-004 -5.91047457e-004
      -5.74199774e-004 -7.05535567e-005 6.98026153e-004 6.82890997e-004
      4.15477087e-004 -4.39297262e-004 -1.36993840e-004 -5.25339856e-004
      9.37105506e-005 -1.85658355e-004 -3.61701503e-004 -9.90396657e-005
      5.32119593e-004 6.88286440e-004 -9.88483589e-006 3.53931282e-005
      -1.33837879e-004 -5.25422220e-004 -2.22793227e-004 1.58517127e-004
      -5.21434762e-004 -1.45957565e-005 -3.28572263e-004 7.56235444e-004
      4.33271838e-004 -1.35152231e-005 -1.38755655e-004 -5.42842434e-004
      7.61100309e-005 -2.23190305e-004 -5.21016482e-004 -1.10665125e-004
      -3.42260028e-004 7.16363196e-004 4.15358314e-004 -4.07408457e-004
      -9.71321497e-005 -5.11444174e-004 -1.75224952e-004 1.70583837e-004
      -5.58365835e-004 -1.36889139e-004 -3.90604051e-004 7.47136015e-004
      4.92417661e-004 8.54635218e-005 -1.01772901e-004 -5.18076646e-004
      3.95704410e-004 4.01623583e-005 -5.09849517e-004 -1.40981676e-004
      1.38923249e-004 4.42150544e-004 4.52925800e-004 1.34776754e-004
      -1.61074538e-004 -5.42174676e-004 2.42127935e-004 -1.94186723e-004
      -4.35299764e-004 -3.13838158e-004 -3.40655271e-004 4.15420742e-004
      3.93914670e-004 -3.28387920e-004 -2.61839567e-004 -3.74329888e-004
      -1.57823248e-004 -7.36526272e-005 2.66669202e-004 -4.86087578e-004
      -2.27556284e-005 4.11082961e-004 3.78925673e-004 1.05401385e-004
      -4.62771888e-004 8.08008772e-005 -2.87961684e-005 -6.01118139e-004
      2.79057713e-004 3.25458503e-004 9.39143647e-004 2.67001858e-004
      2.52147904e-004 2.99547770e-004 5.20440808e-004 6.51881332e-004
      -5.21675567e-004</_>
    <_>
      1.20351811e-004 -4.40559117e-004 -2.60206376e-004 5.13954263e-004
      -3.00313608e-004 -5.39351371e-004 6.36661891e-004 -1.75247187e-004
      5.24975512e-005 3.32093332e-005 2.08763740e-004 1.09025673e-003
      -7.11759378e-004 -2.64489005e-004 6.21335639e-004 -7.40276882e-004
      -6.14206539e-004 4.15852206e-004 -2.39438741e-004 1.03423044e-005
      -1.92429361e-004 -1.03567005e-003 2.92815996e-004 2.81730579e-004
      1.35860435e-004 2.96909748e-005 1.98096735e-004 4.59727133e-004
      -7.54050852e-004 -1.34529211e-004 7.48542778e-004 -9.15959710e-004
      -2.45112406e-005 7.94181396e-005 5.71640885e-005 4.86586541e-005
      9.21150568e-005 5.09528327e-004 -9.63337137e-004 -5.46129240e-006
      3.95744195e-004 -9.22588690e-004 -1.75886147e-004 2.30954229e-005
      4.46994200e-005 3.08165545e-006 4.67330065e-005 3.48702597e-004
      -8.88145762e-004 5.84502588e-004 -3.68956069e-004 -8.90469004e-004
      1.43488243e-004 1.30057697e-005 3.09664356e-005 1.92310672e-005
      7.60171315e-005 4.28101630e-004 -8.24280374e-004 2.44814408e-004
      -2.50433804e-004 -8.53286707e-004 7.44086981e-004 3.76137032e-005
      2.68851163e-005 2.02395913e-005 6.79129371e-005 3.95915267e-004
      -8.04244948e-004 -3.37286881e-004 1.86917459e-004 -6.27767004e-004
      3.94394796e-004 6.29750866e-005 3.31545853e-005 2.36122360e-005
      6.51813461e-005 4.06181265e-004 -7.79005291e-004 2.08507772e-004
      -3.81158927e-004 -6.64575433e-004 3.07042559e-004 5.07348850e-005
      3.61122475e-005 4.71519925e-005 3.41064406e-005 4.33011919e-005
      -7.59097340e-004 -9.20878811e-005 3.22234351e-004 -6.65832136e-004
      3.22164327e-004 3.24205939e-005 1.37386332e-005 2.01015082e-005
      6.95391864e-005 3.96264222e-004 -8.14373430e-004 6.74251933e-004
      2.83084315e-004 -1.15583290e-003 -1.05384417e-004 3.31409574e-005
      2.68328477e-005 -6.74621378e-006 7.37097944e-005 -9.78211247e-005
      -9.08189802e-004 4.02944337e-004 -2.24043135e-004 -4.47990547e-004
      -6.64190375e-005 5.58963548e-005 2.42631813e-005 -5.97032283e-007
      4.01735269e-005 -2.29859303e-004 -7.90959748e-004 -1.67010367e-004
      -3.29982984e-004 7.71435618e-004 2.46317824e-004 -4.08023479e-004
      3.37015445e-005 1.64269495e-005 -4.55504342e-004 2.42452254e-004
      7.19692966e-004 -2.61034351e-004 7.33092369e-004 -1.82956355e-004
      -3.96183343e-004 5.14840183e-004 -7.81114097e-004 -4.78952075e-004
      -4.54377587e-004 -6.93415815e-004 -4.90588602e-004
      -1.75257679e-004</_>
    <_>
      1.58963798e-004 1.20084114e-004 -2.80812557e-004 -3.23929155e-004
      4.98415829e-005 -5.59722539e-004 -2.57337641e-004 -5.81139873e-004
      4.43231605e-004 3.34204262e-004 5.12422412e-005 1.92157750e-004
      -7.10714958e-004 1.83882279e-004 -1.64625206e-004 6.91358264e-006
      7.25924911e-004 7.14081572e-004 7.91649683e-004 5.35982486e-004
      -3.07107548e-004 -2.01734435e-003 8.72081655e-005 3.64204549e-004
      2.34683539e-004 2.57396285e-004 1.97781977e-004 -9.68408349e-005
      8.88013165e-004 -1.92529478e-004 1.05142943e-003 2.68537377e-004
      -1.82262465e-005 2.08206737e-004 2.99549574e-004 2.81841203e-004
      2.58644985e-004 5.59412874e-004 4.13934176e-004 -6.45057124e-004
      -6.96852978e-004 2.58358778e-004 1.32234200e-004 1.49206549e-004
      1.60566633e-004 1.38782896e-004 1.67693812e-004 -3.70885100e-004
      -1.93547981e-003 9.00367624e-004 -2.61316396e-004 -1.68714963e-003
      -3.16253572e-005 1.33273716e-004 1.64748475e-004 1.55914982e-004
      1.76758287e-004 -6.17621190e-005 -1.37427531e-003 1.62694138e-004
      6.56320481e-004 -5.71899640e-004 5.71774726e-005 2.39281508e-004
      1.78353876e-004 2.00159862e-004 1.53776156e-004 -8.59792635e-005
      -1.28756149e-003 -5.51093079e-004 8.03630799e-004 -5.91029355e-004
      6.73588147e-005 2.27553537e-004 1.64462093e-004 1.57777453e-004
      1.34183734e-004 -1.31098030e-004 -1.30522298e-003 1.54783964e-004
      2.31732447e-005 -1.30146148e-003 -7.89344449e-006 2.31118102e-004
      1.83957862e-004 2.60754838e-004 1.71253414e-004 -2.80212244e-005
      -1.28564145e-003 -5.62974717e-004 1.99994742e-004 2.02910451e-004
      2.36688473e-004 2.06974408e-004 2.04235199e-004 2.57183478e-004
      2.44529889e-004 -5.08191224e-005 -1.49055116e-003 1.05892925e-003
      4.31346998e-004 5.23936236e-004 -7.21381628e-004 2.49516073e-004
      1.67887978e-004 2.18366316e-004 2.77968793e-004 -2.12153333e-004
      -1.86462956e-003 9.07499401e-004 -5.80880114e-005 -1.50233362e-004
      5.70186239e-004 1.15187693e-004 2.72319856e-004 2.45164963e-004
      1.95273416e-004 -4.83644777e-004 -1.40463619e-003 -1.08731841e-003
      1.34401329e-004 9.62716411e-004 4.29821870e-004 1.57020334e-003
      1.05944764e-005 -1.10030502e-004 -2.35974294e-004 -2.19163997e-003
      -8.36183142e-004 2.77890736e-004 1.66540965e-004 1.45181621e-004
      1.40725781e-004 8.32808961e-004 2.64989591e-004 7.55273446e-004
      -1.66942176e-004 -7.04625912e-004 2.45061499e-004 1.93918822e-004</_>
    <_>
      1.54121211e-004 -2.95890990e-004 -1.46559137e-003 -2.24477891e-003
      -5.90097217e-004 -1.56912010e-003 1.78440753e-003 -2.14296253e-003
      6.34782133e-004 3.33686941e-004 5.88771771e-004 -7.48244347e-004
      -5.50110184e-004 5.98044891e-004 3.44588305e-003 2.17144378e-003
      6.56388700e-004 -1.30740623e-003 -5.86302660e-004 2.06648299e-004
      -3.84327432e-004 -2.92155985e-003 -1.33953255e-003 4.07439977e-004
      1.45309474e-004 1.39220778e-004 5.29394019e-004 4.98377485e-004
      -2.55192188e-003 1.02619306e-004 3.99498647e-004 -7.40635791e-004
      -2.79160537e-004 5.46057534e-004 6.34248281e-005 2.38438952e-004
      4.53219982e-004 8.92603130e-004 -1.08598906e-003 -2.95220152e-003
      1.58070377e-003 3.19970830e-004 -1.59132673e-004 5.07922901e-004
      3.48400390e-005 1.96847977e-004 6.64735635e-005 2.16729430e-004
      -1.82468991e-003 3.59517871e-003 2.44198460e-003 7.74653512e-004
      -5.49219782e-004 6.04350236e-004 4.69166320e-004 2.36690263e-004
      2.77423649e-004 -5.94190242e-005 -1.17715891e-003 2.23316718e-003
      2.49060453e-003 5.41248883e-004 1.94483073e-004 7.08323787e-004
      2.76977487e-004 5.05489006e-004 2.98139406e-004 -1.56228591e-004
      -1.91577384e-003 1.86436391e-003 1.29882980e-003 -1.05925268e-004
      1.73998444e-004 2.11793478e-004 3.37002304e-004 4.91064740e-004
      2.01851435e-004 -3.60810431e-004 -1.41329097e-003 2.21384666e-003
      -3.79806408e-003 9.18908336e-004 -5.09682111e-004 1.50356704e-004
      2.23906973e-004 9.82767553e-004 5.99728446e-005 -5.07435288e-005
      -1.43788790e-003 6.79653836e-004 -5.49302809e-003 -2.23784940e-004
      1.45036483e-003 3.29470029e-004 3.49342037e-004 1.36842206e-003
      1.16971052e-004 1.17096596e-003 -1.05354411e-003 5.08098723e-003
      4.94558248e-004 -9.50215443e-004 6.32078212e-004 4.57931397e-004
      3.41685198e-004 2.71145778e-004 2.83192028e-004 1.92800886e-003
      -9.61457845e-004 7.37182051e-003 2.16865301e-004 -3.34615906e-004
      1.96390483e-003 8.93698598e-004 2.06381359e-004 2.79455533e-004
      3.15383979e-004 8.65671143e-004 -1.14188770e-004 6.99381635e-004
      7.60167168e-005 -4.06563561e-003 -1.26364722e-003 1.76214415e-003
      1.40180276e-003 1.38127792e-003 8.65921087e-004 -1.02002278e-003
      2.23315932e-004 4.20247612e-004 5.16277272e-004 5.78950392e-004
      -1.58958836e-004 -2.98810680e-003 -2.84296158e-003
      -2.68658856e-003 -3.30857025e-003 1.70698517e-003 3.73933231e-004
      4.38139978e-004</_>
    <_>
      1.14506483e-005 -8.78320407e-006 -2.51234072e-004 1.39678348e-004
      -6.11436495e-004 -7.07929838e-004 -1.92674299e-004
      -1.89215541e-004 2.21329283e-005 7.38467133e-005 -7.51436019e-005
      1.72575834e-004 -6.01414707e-004 3.03292007e-004 2.98780593e-004
      7.49089668e-005 -1.50376974e-004 -8.53471924e-004 -3.19249200e-004
      4.26850384e-005 -2.93230027e-004 -6.81623176e-004 -1.03700312e-003
      3.84586077e-004 3.27728019e-004 1.17916359e-004 1.19828073e-004
      -4.07908548e-004 -7.28190003e-004 -1.26181345e-004 2.21315466e-004
      -1.69228693e-003 7.51503045e-004 -1.33903231e-004 5.48646203e-004
      3.13884200e-004 -7.09158718e-004 -1.13478641e-003 -1.69770548e-003
      -1.05077052e-004 6.74735755e-004 -5.46373718e-004 -6.54487405e-004
      3.79406090e-004 6.58503151e-004 2.19639551e-004 1.85810219e-004
      1.54833663e-006 -8.37534724e-004 7.19394942e-004 -5.97397448e-004
      -5.60070970e-004 -4.49798885e-004 3.87567794e-004 3.14200588e-004
      1.36816045e-004 8.83246976e-005 -1.12746624e-004 -8.76110338e-004
      2.99054314e-004 -5.30797639e-004 -5.23906027e-004 -3.84373969e-004
      3.96320305e-004 3.14625708e-004 1.26806364e-004 9.56560034e-005
      -1.09659850e-004 -8.87219212e-004 -1.38986099e-004 3.20280553e-004
      -5.34553837e-004 -4.30808839e-004 3.89456050e-004 3.40514001e-004
      1.24215614e-004 1.00051584e-004 -7.19835152e-005 -8.69937474e-004
      2.83032627e-004 -1.39621377e-004 -5.66696515e-004 -5.51016012e-004
      4.17472300e-004 3.55933560e-004 1.77392096e-004 1.17698284e-004
      -4.19173302e-005 -8.23545852e-004 -3.59215890e-004 5.17773675e-004
      -6.70657784e-004 -5.26058604e-004 3.77875142e-004 1.55339047e-004
      1.16770563e-004 1.09273402e-004 -9.33840711e-005 -9.23924672e-004
      7.93299929e-004 -1.79845520e-005 -7.08732114e-004 -6.87118445e-004
      3.92140559e-004 3.49150156e-004 9.41694307e-005 7.09263841e-005
      -2.03192409e-004 -1.00229506e-003 6.95571944e-004 -2.12067011e-004
      -3.23076150e-004 -8.58087093e-004 3.05720605e-004 3.59940954e-004
      1.26054190e-004 2.14757274e-005 -3.94318020e-004 -6.97759737e-004
      -2.25470096e-004 2.69751545e-005 5.50407392e-004 -1.33384415e-003
      7.85174896e-004 8.05612304e-004 3.16217309e-004 -4.20681827e-005
      -5.87677758e-004 1.61809236e-004 1.26608138e-004 8.94914047e-005
      5.75630620e-005 -1.23356031e-005 -1.99352071e-004 -3.78087163e-004
      2.66030343e-004 -2.32256807e-005 -1.12592397e-006 3.16303602e-004
      1.81056428e-004</_>
    <_>
      -7.11689572e-005 -3.66700151e-005 -1.87490499e-004
      -4.63713404e-005 -3.80371464e-004 -4.18382959e-004
      -6.47663372e-004 -1.57959119e-004 -4.55584741e-005
      -4.56849302e-005 1.07774453e-004 7.18120282e-005 -2.64815899e-004
      -3.35574034e-004 2.93464458e-004 1.02580991e-004 -3.34791781e-004
      -1.05364725e-003 -2.99078732e-004 -7.10685781e-005
      -1.09998405e-003 1.45564802e-004 -9.92220710e-004 -5.11132894e-005
      -6.25491084e-005 5.39049051e-006 2.65126291e-004 5.51736273e-004
      -5.51464851e-004 -2.06270008e-004 -1.86334277e-004
      -2.01500967e-004 -2.29325931e-004 4.85066012e-005 -7.28943633e-005
      -2.69129941e-005 1.21402365e-004 3.35570861e-004 -1.00594200e-003
      -1.52655819e-004 3.85636464e-004 -8.12919810e-004 -2.27758646e-004
      5.82598950e-005 -4.32751294e-005 -3.55093143e-005 8.69375581e-005
      4.27211548e-004 -9.26798210e-004 5.94787067e-004 -2.36507403e-004
      -8.60924600e-004 -2.22301795e-004 7.29436651e-005 6.67039931e-005
      1.33127232e-005 -3.08717244e-005 3.99812765e-004 -9.14658594e-004
      2.24894073e-004 -4.48782230e-004 -7.84428848e-004 -7.28931191e-005
      -5.34740277e-004 2.22132148e-005 4.94657434e-004 2.84070498e-004
      6.91658468e-004 -9.09336610e-004 -2.01277173e-004 1.78289469e-004
      -7.84731470e-004 4.93728672e-004 5.26889286e-004 2.20787260e-004
      1.24970567e-004 1.43730998e-004 7.24093639e-004 -9.66822437e-004
      2.03286807e-004 -1.60707743e-004 2.26736356e-005 3.04798945e-004
      8.44304159e-005 -2.53122817e-005 2.50840996e-004 8.50403158e-005
      6.74985291e-004 -8.58660031e-004 -2.54368933e-004 -3.58910765e-004
      3.22453998e-004 2.28121891e-004 -6.45473119e-005 -1.54891241e-005
      2.13305961e-004 9.98380565e-005 6.47943176e-004 -9.09220544e-004
      6.87976775e-004 8.46399518e-004 -1.09870025e-005 -3.09878407e-004
      -8.84716064e-005 -5.22616319e-005 -4.48052742e-005 1.13869013e-004
      5.73491270e-004 -9.42531042e-004 4.48911946e-004 -1.10459165e-004
      3.25119036e-004 -4.08889086e-004 -1.18167918e-004 -6.00862004e-005
      -1.56499482e-007 4.03742160e-004 4.51565487e-004 -7.31175358e-004
      -2.00916751e-004 -1.43645913e-004 1.20028283e-003 -2.11341205e-004
      -1.46456965e-004 1.19642558e-004 6.14892109e-004 -1.26628278e-004
      1.31274166e-004 -8.43288217e-005 8.12100916e-005 3.54350959e-005
      -1.66628015e-004 -2.11928564e-004 1.49985787e-003 -9.24539578e-004
      -5.95591264e-004 -2.84396665e-004 4.23328514e-004 -2.86452778e-005
      -6.35298420e-005</_>
    <_>
      5.42814785e-004 -2.17687848e-004 -2.05691365e-004 4.56915091e-004
      -4.71614971e-004 -1.86454665e-004 2.17184031e-004 2.27048426e-004
      3.82252445e-004 -1.96369059e-004 -2.30114063e-004 2.52851227e-004
      3.25520959e-004 1.10115150e-004 2.68010015e-004 2.50047342e-005
      -2.24010713e-004 8.12142971e-005 -2.76851177e-004 -1.32295900e-004
      -2.66291259e-004 -4.56427981e-004 4.09328582e-004 -1.66496771e-004
      -4.12187692e-005 -3.92989168e-005 -3.07825598e-004
      -1.60538766e-004 -4.82841162e-004 -1.58816416e-004 4.24521888e-004
      -6.44300948e-004 -5.89937728e-004 9.02502099e-004 5.92830111e-005
      -5.38479253e-006 7.40421528e-004 -1.90681938e-004 -6.41007267e-004
      -1.15182716e-004 1.74846049e-004 -6.42037601e-004 -9.21443061e-005
      8.32158781e-004 1.12551708e-004 -1.63251243e-004 -9.21963583e-005
      -1.80782954e-004 -5.86257840e-004 3.31295189e-004 -4.52840941e-005
      -6.23989908e-004 -1.26820843e-004 2.29717523e-004 8.74496181e-004
      3.92173155e-004 -4.45837904e-005 -1.45790822e-004 -5.73539990e-004
      9.99363911e-005 -3.05658439e-004 -5.78441541e-004 -1.26634855e-004
      1.44808844e-004 7.58452399e-004 2.05943652e-004 -3.52298193e-005
      -1.55703601e-004 -5.82577894e-004 -2.34288789e-004 5.45000985e-005
      -5.99225052e-004 -1.13945913e-004 -7.75094522e-005
      -4.46421589e-004 8.24208662e-004 1.51419808e-004 -1.26772095e-004
      -5.79806860e-004 6.64124309e-005 -2.61863810e-004 -6.20279403e-004
      -1.62938828e-004 -4.21934965e-004 -1.33506428e-005 3.64473322e-004
      -3.20909894e-004 -9.80269688e-005 -5.66970150e-004
      -1.98291717e-004 1.93136322e-004 -4.05605213e-004 1.53756831e-004
      2.69077311e-004 -4.04545353e-005 4.49879997e-004 7.86204881e-004
      -3.72764516e-005 -5.89126488e-004 4.48686420e-004 -1.67986927e-005
      -6.33656688e-004 -7.52866268e-004 -2.75604369e-004
      -5.29354074e-005 -2.83401187e-005 4.63429431e-004 -1.75452704e-004
      -5.81659086e-004 2.76991923e-004 -2.34332358e-004 -4.06584732e-004
      4.71817148e-005 -9.09783266e-005 -4.22956764e-005 -5.71302080e-005
      4.00872195e-005 4.86322329e-004 -5.19448542e-004 -1.67495455e-004
      -1.86780773e-004 4.48990148e-004 -2.17909721e-004 -2.89790740e-004
      -9.57438679e-005 -4.87089965e-005 -2.15063526e-004 2.49055272e-004
      8.54376238e-004 -9.85005536e-005 6.66444132e-004 4.39303461e-004
      3.28757946e-004 2.79472315e-005 -4.16842347e-004 -3.94460629e-004
      4.32997185e-005 -1.19096054e-004 -4.37250681e-004 -4.18755575e-004</_>
    <_>
      1.17146476e-004 2.16980727e-004 1.01690945e-004 3.87910084e-004
      -4.67777340e-004 -3.60537466e-004 -1.99912349e-004 2.09538048e-005
      5.06458571e-004 6.55760930e-004 -1.76906819e-004 4.66041005e-004
      5.05326490e-004 -1.92934909e-004 1.74111905e-004 1.98397938e-005
      -3.80236779e-005 -9.35468852e-005 -1.97449510e-004 3.26297450e-005
      -2.80486856e-004 -4.76915971e-004 6.76232332e-004 2.44861149e-004
      -6.46070021e-006 1.23980826e-005 -7.97849316e-006 3.58598860e-004
      -4.49081854e-004 -1.52802269e-004 5.93053002e-004 -6.79487130e-004
      1.95519402e-004 3.80764941e-005 -1.93256510e-005 7.37900427e-006
      -3.63070285e-004 -2.99037551e-004 -7.03252561e-004
      -1.50972133e-004 2.76898179e-004 -6.88062632e-004 -2.49918201e-004
      1.14599115e-003 9.67950618e-005 -3.34814322e-005 8.13070437e-005
      3.69045738e-005 -6.88614731e-004 4.21227014e-004 -2.52697471e-004
      -6.76763651e-004 -1.10509653e-004 1.07476080e-003 1.41927972e-004
      -4.71411804e-005 3.44990513e-005 -1.02620543e-004 -6.45967841e-004
      1.87604397e-004 -3.42580694e-004 -6.53708936e-004 -9.05183406e-005
      2.83044592e-005 2.06594588e-004 -1.28322950e-004 3.08806921e-004
      -1.30079119e-004 -6.40465994e-004 -1.82237913e-004 1.49944652e-004
      -6.71532238e-004 -9.39932652e-005 5.52358324e-005 1.07910007e-003
      3.07542214e-004 -1.88073391e-005 -1.72505228e-004 -6.67837914e-004
      1.72972184e-004 -2.15432970e-004 -7.04726262e-004 -1.85134559e-004
      1.16673282e-005 1.63839650e-004 1.00714900e-003 2.38318316e-005
      -1.24717073e-004 -6.25736080e-004 -2.22506322e-004 3.15538520e-004
      -5.99884253e-004 -2.74605718e-005 -3.39146391e-005
      -4.62116848e-004 2.78057356e-004 1.91592990e-005 -1.67213759e-004
      -6.90035988e-004 5.40720008e-004 2.82652727e-005 -7.08780077e-004
      -2.56301049e-004 -6.14938617e-005 1.51910339e-004 -1.95531640e-004
      -9.80570348e-006 -2.29019744e-004 -6.97457232e-004 3.39854450e-004
      -2.17961468e-004 -9.57656128e-004 -2.37753353e-004
      -9.31098766e-005 6.27714850e-004 3.74956908e-005 -8.27741751e-005
      -3.48123693e-004 -5.42965077e-004 -1.92522915e-004
      -2.12761224e-005 1.28204026e-003 4.93165397e-004 -3.47867972e-005
      1.97160771e-004 -5.02306757e-005 -1.89256287e-004 -5.83115791e-004
      1.51950109e-004 -2.40996014e-005 1.80179159e-005 -3.60112375e-004
      7.90075457e-004 9.33159085e-004 -3.97609314e-004 -4.50983527e-004
      -3.74072610e-004 -1.55713686e-004 -2.32740622e-005
      -2.30893365e-005</_>
    <_>
      -7.27449587e-005 -1.95783636e-004 -2.75702914e-004 6.57814671e-004
      -1.59532865e-004 1.44866717e-004 1.30022658e-004 1.34420436e-004
      2.38421620e-004 -6.94715360e-004 3.95817806e-005 2.84456997e-004
      2.02226744e-004 9.04003391e-005 2.59352615e-004 -5.04092422e-005
      -2.49765726e-004 2.19182242e-004 5.26274671e-004 -1.64018740e-004
      -3.06906441e-004 -9.13933327e-005 -5.76396051e-005
      -5.23128983e-005 -7.91776838e-005 -6.01192260e-005 1.76838585e-004
      5.08689904e-004 -3.74272902e-004 -1.90480845e-004 1.74609610e-004
      -3.40043684e-004 -2.28593271e-004 3.14010831e-005 -8.48070267e-005
      -9.10453582e-006 7.06219929e-004 6.69094850e-004 -6.62273611e-004
      -2.14290325e-004 -6.98026619e-004 -7.25394639e-004
      -2.36317457e-004 5.01703507e-005 -4.95855566e-005 -5.43729402e-004
      7.69229257e-004 -1.78269955e-004 -6.86294690e-004 3.28807480e-004
      -3.58690158e-005 -6.61241880e-004 -2.17755907e-004 4.34818576e-005
      -9.25486165e-006 7.24328158e-004 -5.30493213e-004 -1.85348414e-004
      -6.35100820e-004 9.66811931e-005 -4.13342204e-004 -6.58903155e-004
      -1.79058043e-004 6.01614556e-005 -2.02139097e-004 8.27672717e-004
      -1.30382377e-005 -2.29544879e-004 -6.67013694e-004
      -1.71574022e-004 8.09897392e-005 -6.76531286e-004 -1.80974588e-004
      -1.98911017e-004 7.85711338e-004 1.17578667e-004 -5.12062761e-005
      -2.05924094e-004 -6.68356312e-004 7.51936677e-005 -2.09087666e-004
      -6.63492130e-004 -2.62356567e-004 6.88679458e-004 7.84068310e-004
      3.32821510e-004 -7.10832537e-005 -1.83230790e-004 -6.31395902e-004
      -4.14235546e-004 2.52713973e-004 -3.99879093e-004 3.87541135e-004
      7.53653410e-004 -3.54859840e-005 2.43909686e-004 -6.67118293e-005
      -2.01852701e-004 -7.42167758e-004 -2.06065772e-004
      -1.10957168e-004 -8.70757620e-004 4.70350293e-004 -5.04717580e-004
      -5.52267156e-005 -1.07396576e-004 -8.13355873e-005
      -2.64082541e-004 -3.62713123e-004 2.67516385e-004 -3.22871521e-004
      -2.61189853e-004 2.75256578e-004 -5.01361937e-005 -9.37173681e-005
      -8.22502916e-005 -1.15380615e-004 -2.79934146e-004
      -7.50371895e-004 -1.57886359e-004 -2.94526777e-004 9.05220106e-004
      -9.57832599e-005 -3.27532354e-004 -1.63802077e-004
      -1.38171861e-004 -2.54840648e-004 3.75639356e-005 6.63196144e-004
      -2.81726152e-005 4.81903873e-004 2.81145331e-004 -2.33511528e-004
      4.06619307e-004 -6.02137647e-004 -5.88811585e-004 -1.82477743e-005
      2.79842265e-004 3.23070941e-004 -2.21693608e-006</_>
    <_>
      -2.16066201e-005 -1.28373258e-005 -1.34865026e-004 1.83853699e-004
      -4.04627935e-004 -2.45886331e-004 -1.59320974e-004
      -1.31243927e-004 -3.20515537e-005 -2.70573564e-005
      -5.62572153e-004 4.63824428e-004 1.48296371e-004 -1.31226916e-004
      1.29261505e-004 -2.02073807e-005 -1.34273549e-004 -4.60792275e-004
      -1.96337409e-004 -5.19451023e-005 -1.62678029e-004
      -5.42503782e-004 3.62387713e-004 -4.90323982e-005 -5.91831304e-005
      -6.19562925e-005 -5.40805631e-005 -2.45715230e-004
      -3.98890727e-004 -1.18980526e-004 2.71348923e-004 -7.02462858e-004
      4.63332399e-004 6.27570626e-006 -5.21930160e-005 -3.87625805e-005
      -4.73511391e-005 -1.59584160e-004 -5.77065046e-004
      -5.94027842e-005 4.80086746e-005 -6.32421114e-004 3.94204370e-004
      2.70548699e-005 -2.65591989e-005 -7.72870553e-005 -1.75292134e-005
      -6.87668944e-005 -4.61622665e-004 9.64445062e-005 -1.32657486e-004
      -5.53108286e-004 -1.35679948e-004 1.47610830e-004 5.30040765e-004
      4.49423853e-004 4.72005428e-004 4.90849372e-004 -5.66091272e-004
      -6.26408510e-005 -2.37031883e-004 -5.46817377e-004 5.21714857e-004
      -2.50510464e-004 -4.64527475e-005 -3.59766382e-005 5.51136654e-005
      4.69553663e-004 -6.72106806e-004 -3.17954458e-004 -7.66834346e-005
      -5.63658657e-004 5.50974219e-004 -4.07229236e-005 -6.09750896e-005
      -1.25534852e-005 -5.72851386e-005 -1.51095854e-004
      -6.65212283e-004 -6.91639871e-005 -3.35699762e-004
      -5.87384624e-004 5.08144847e-004 -5.85605412e-005 -5.49973520e-005
      1.12232141e-004 -5.14157691e-005 -1.38065661e-004 -6.68780762e-004
      -2.06725963e-004 -1.47713990e-005 -4.66443860e-004 7.03667291e-004
      -9.38932208e-005 -6.30308423e-005 8.89428338e-005 -6.55506519e-005
      -1.39702955e-004 -4.89394297e-004 1.64842990e-004 4.83787808e-005
      -7.16220762e-004 4.50716005e-004 -8.57232953e-005 -6.65502521e-005
      -6.44147949e-005 -7.62746786e-005 -1.84540986e-004
      -8.02725030e-004 1.01147045e-004 -1.77287846e-004 -5.33860642e-004
      3.80251673e-004 -9.39220627e-005 -6.36375480e-005 -4.88800761e-005
      -9.55721407e-005 -2.62047921e-004 -3.42382846e-004
      -1.53143832e-004 -6.29354327e-005 3.57568715e-005 1.41236742e-004
      -4.23057354e-005 -6.15020908e-005 -6.59641883e-005
      -6.73581526e-005 1.39909709e-004 -2.85230373e-004 6.12748991e-005
      4.42883029e-004 3.15542915e-004 -1.55257017e-004 6.28508045e-004
      -4.69991413e-004 -4.80774528e-004 8.72539458e-005 -1.27668201e-004
      -1.29838110e-004 -9.96517047e-005</_>
    <_>
      2.49928180e-005 1.77763450e-005 1.04673840e-004 -6.46282220e-004
      3.50941380e-004 8.08570185e-004 -1.05995242e-003 -1.00472149e-004
      8.63613604e-005 7.34652203e-005 2.85530172e-004 1.06284067e-004
      -1.00997298e-004 2.20608883e-004 9.85543942e-004 3.49496055e-004
      1.72086846e-004 1.17054209e-004 -3.27599613e-004 3.88627304e-005
      -2.55943858e-004 -9.89171385e-005 8.70947988e-005 8.12101935e-005
      -1.02336026e-006 5.06453507e-005 1.39348762e-004 8.47527408e-005
      4.79341921e-004 -5.67796064e-007 8.09088175e-004 1.92014981e-004
      4.83875920e-006 3.19825485e-004 4.06817417e-005 7.03721744e-005
      4.29124157e-005 -1.74479093e-004 -1.21638601e-004 -2.58306885e-004
      5.56176412e-004 -9.98869145e-005 -1.54221590e-004 3.29723174e-004
      5.10547434e-005 2.95723694e-005 7.39393799e-005 -7.45925672e-006
      6.01144238e-005 -1.36730925e-003 1.09957275e-003 -7.48380671e-006
      2.84257636e-004 8.12556711e-004 8.38354521e-004 7.80922303e-004
      9.20469931e-004 7.90058228e-004 3.25103378e-004 7.69431354e-004
      4.36236296e-004 1.10285728e-004 -3.10651318e-004 6.55260228e-005
      -1.98788344e-004 -2.70550459e-004 -3.58967547e-004
      -5.01246192e-004 -1.43567647e-003 -1.08110707e-003 9.14371223e-004
      -1.97330490e-003 -6.65124171e-005 2.85967944e-005 3.12280827e-005
      2.32521474e-004 4.29816282e-005 -1.35142429e-004 -1.00546202e-003
      -3.48554982e-004 4.72930551e-004 -1.62223843e-003 -1.16492047e-004
      -4.01388434e-008 3.44732944e-005 6.62818202e-004 -6.36327786e-006
      -1.59721880e-004 -1.09237502e-003 -6.75537158e-004 6.15824014e-004
      5.53458987e-004 8.26449716e-004 -1.98355992e-005 1.02364211e-004
      6.61584258e-004 -9.21345531e-007 -1.23674283e-004 -1.31759048e-003
      2.10320737e-004 -4.08083375e-004 -3.82356775e-005 -1.78312199e-004
      2.90279622e-005 9.30028364e-007 -2.60606648e-005 -2.29529860e-006
      -2.92127050e-004 -1.60197075e-003 -4.71047155e-004
      -1.48313251e-004 -1.03466500e-005 -6.68013963e-005 1.82361240e-004
      2.72887428e-005 -2.11430070e-005 -3.14080025e-005 -6.61226979e-004
      -5.33111335e-004 3.10214236e-004 -4.57563692e-005 3.86434986e-004
      1.33744397e-004 -2.38217166e-004 -1.03722174e-004 -2.18085588e-005
      -3.41654581e-004 -5.47768897e-004 1.29421044e-003 1.17112533e-004
      4.12799272e-005 1.61489967e-004 2.97539285e-004 -1.74635250e-004
      4.19201126e-004 4.32893779e-004 4.81959461e-004 -4.06251347e-004
      2.39703164e-004 1.10735309e-004</_>
    <_>
      -1.62403594e-004 -1.69654100e-004 -5.24293282e-005 5.39985544e-004
      -3.31301562e-004 3.12661636e-004 -7.17992836e-004 -1.80666379e-004
      1.60575801e-004 2.60229310e-004 5.59003711e-005 -4.38816089e-004
      -2.74270951e-005 2.31121539e-005 5.27277414e-004 1.68721323e-004
      3.86529689e-004 -4.67355479e-004 -2.82985056e-005 2.61451874e-004
      -3.41036881e-004 -3.13673896e-004 -1.77143782e-004
      -1.51460001e-004 -1.54789959e-004 -1.15502364e-004 7.58552342e-005
      3.80172918e-004 -5.25497191e-004 -2.76091305e-004 3.21762578e-004
      -3.20812251e-004 3.92477814e-005 5.81274217e-005 -1.56719398e-004
      -1.36109476e-004 -1.00822057e-004 4.52704291e-004 -8.47663323e-004
      -2.25468815e-004 1.21439072e-004 -3.51854105e-004 1.48221559e-004
      5.22185510e-005 -1.47794985e-004 -1.54305715e-004 -1.11376139e-004
      5.70158591e-004 -5.77754632e-004 2.82908615e-004 1.40877264e-005
      -1.11432443e-003 5.47782751e-004 1.21663550e-004 -4.92638037e-006
      -1.31225534e-004 2.18527945e-004 5.54247177e-004 -7.23528094e-004
      -8.62390380e-007 -4.32020141e-004 -6.52762130e-004 2.17124980e-005
      8.34810664e-004 8.97152713e-005 4.19338379e-004 3.65797954e-004
      -1.98600377e-004 -7.64734403e-004 -3.48447124e-004
      -1.57275990e-005 -9.66083957e-004 1.02397018e-004 1.69054613e-006
      -3.75111704e-004 -1.81776522e-005 -1.14661780e-004
      -2.68990378e-004 -7.45165104e-004 -1.83816483e-005
      -3.39539489e-004 2.39019973e-005 3.95956682e-004 -4.28797823e-004
      -3.36887642e-005 3.86954373e-004 -8.58996937e-005 -2.32053717e-004
      -7.20979937e-004 -3.32498777e-004 1.66487996e-004 -3.58029589e-004
      6.21334533e-004 6.23451720e-004 7.89541227e-004 1.15370506e-003
      6.84341649e-004 4.85381781e-004 -5.20869973e-004 4.42353252e-004
      -7.10109889e-005 -1.62774610e-004 -7.73746651e-005
      -1.10432462e-004 -1.10454253e-004 -7.75525477e-005 4.41829980e-005
      1.07959517e-004 1.01961659e-005 3.72149952e-004 3.94398434e-004
      -7.64423094e-005 -5.08959463e-004 -2.03393036e-004
      -1.83326760e-004 -1.73286564e-004 -1.95193294e-004
      -3.02521774e-004 -2.71546378e-005 3.16938007e-004 -4.15606395e-004
      8.63682071e-004 -5.71356679e-004 -3.42381361e-004 -1.79708193e-004
      -1.45091020e-004 -2.65434734e-004 -3.58851365e-004 6.88512169e-004
      -5.86970091e-005 -5.63905342e-005 -2.57441716e-004 7.17905641e-004
      1.17330893e-003 9.30885071e-005 1.31405512e-004 4.01867757e-004
      -1.78276896e-004 -2.94434594e-005 -8.44794922e-005</_>
    <_>
      -2.77816907e-005 -5.45093644e-005 -1.17765871e-004
      -2.47928372e-004 -9.31657851e-005 -3.73520772e-004
      -4.87497637e-005 -1.86528880e-004 -3.87138934e-005
      -2.74378854e-005 -6.01580687e-005 -1.27614869e-004
      -5.50541910e-004 -1.86433332e-004 5.52912126e-004 3.25020141e-004
      5.98264560e-005 -6.05045410e-004 -2.19571331e-004 -4.45708902e-005
      -2.23627125e-004 -5.40642242e-004 -3.16469581e-004
      -5.83263056e-004 2.83437810e-004 3.12764168e-004 8.24595481e-005
      -3.07824812e-004 -5.19970665e-004 -1.43752273e-004 3.93770344e-004
      -7.03958736e-004 -1.88522215e-004 4.53603388e-005 3.06677393e-004
      6.45549560e-004 1.13797134e-004 -2.01394738e-004 -7.06720108e-004
      -3.85457934e-005 1.04938568e-004 -5.99650375e-004 -1.36203569e-004
      3.05608628e-005 3.08622839e-004 6.88969856e-004 -8.79619038e-005
      -1.20927536e-004 -6.39917329e-004 1.79087641e-004 -3.47851281e-004
      -5.49405406e-004 -1.19379140e-004 1.20140270e-004 3.33744945e-004
      6.38352591e-004 -1.16231322e-005 -8.16038591e-005 -5.60360728e-004
      -2.37852619e-005 -2.91000266e-004 -5.34827122e-004
      -1.02591432e-004 2.36936648e-005 2.95379170e-004 6.06117188e-004
      4.19341450e-005 -9.64245191e-005 -5.28930977e-004 -3.91170586e-004
      -4.78459478e-005 -5.34108840e-004 -7.60502953e-005
      -3.33186072e-005 2.84931186e-004 6.18667633e-004 3.19920291e-005
      -8.07180913e-005 -5.36111707e-004 -4.16572693e-005
      -4.07357322e-004 -5.57230960e-004 -1.43989353e-004
      -1.66987069e-004 2.45543401e-004 6.03557623e-004 -4.33156811e-006
      -6.10048410e-005 -5.30869525e-004 -2.03993521e-004 2.35573207e-005
      -5.81250351e-004 -1.22036792e-004 -1.69011561e-004 2.09746213e-004
      6.06423186e-004 6.06758840e-005 -9.73753049e-005 -6.13195065e-004
      2.62549584e-004 1.24711209e-004 -6.98201358e-004 -1.82520060e-004
      -2.34583858e-004 2.22097427e-004 5.90762997e-004 -6.95963157e-004
      -1.51829547e-004 -7.06702995e-004 1.83385884e-004 -2.12139304e-004
      -5.10957732e-004 -3.31215822e-004 -2.44183699e-004 2.01932300e-004
      5.58089116e-004 -7.33363500e-004 -2.28822901e-004 -4.37758805e-004
      -1.66067723e-004 -7.25178834e-005 3.33900854e-004 -6.01337815e-004
      -1.73329972e-004 -2.96771264e-004 5.60043147e-004 -8.16325948e-004
      -4.38403920e-004 -9.03238106e-006 -2.44731909e-005
      -1.29362394e-004 -3.50163638e-004 -9.15524361e-005 5.71174314e-004
      -2.86842933e-005 -8.18291664e-006 1.50854408e-004 2.10251630e-004
      5.11155464e-004 2.56628322e-004</_>
    <_>
      -4.90055070e-004 -4.56780515e-004 -6.91507186e-004 2.36527063e-004
      -8.05528136e-004 -1.08323211e-003 -4.28528700e-004
      -2.35552419e-004 -1.26510742e-004 -5.90413227e-004 5.03137882e-004
      6.70035311e-004 -1.75228095e-004 3.85226274e-004 5.63073438e-004
      6.99966447e-004 4.78414469e-004 -2.61279085e-004 3.21750616e-004
      1.08383596e-003 -5.20484646e-005 -6.51236041e-004 -2.98371509e-004
      1.02872844e-004 1.52589142e-004 1.71010921e-004 2.01189119e-004
      -2.40298410e-004 -3.11180862e-004 -9.72073234e-004 6.68936467e-004
      -1.00466481e-003 -2.39147426e-004 4.25584658e-005 5.77709143e-005
      8.17192631e-005 5.85333182e-005 -1.79923838e-004 -9.54111223e-004
      -5.91704331e-004 2.34005987e-004 -8.71237891e-004 -2.49221193e-004
      -1.05782441e-004 -9.86832038e-006 -2.08792917e-005
      -8.87702117e-005 -1.97588088e-004 -9.55090916e-004 4.03734157e-004
      -4.68818645e-004 -7.48890918e-004 -9.08760121e-005 4.39562209e-005
      8.02189534e-005 7.98341280e-005 7.90325284e-005 -6.47179404e-005
      -7.38121278e-004 1.51355824e-004 -3.55513330e-004 -7.00727105e-004
      -4.17158953e-005 8.02079521e-005 6.71544476e-005 9.41090038e-005
      7.70698025e-005 -1.06284293e-004 -7.45052355e-004 -3.79355362e-004
      1.17673277e-004 -7.17514544e-004 -1.91151230e-005 9.03248874e-005
      7.01287063e-005 9.21239916e-005 8.42237496e-005 -9.89126347e-005
      -7.18658906e-004 1.36912087e-004 -3.62309424e-004 -7.12153094e-004
      -3.79262201e-005 1.24303784e-004 1.10208792e-004 1.51464003e-004
      1.10800182e-004 -5.33173552e-005 -6.61563012e-004 -1.74856512e-004
      2.05866367e-004 -8.75869708e-004 -1.34490212e-004 2.97599836e-005
      2.34376403e-005 4.46690246e-005 4.00640893e-005 -7.49297542e-005
      -8.23247479e-004 5.74200472e-004 2.71916739e-004 -8.66577204e-004
      -1.55760485e-004 1.09299312e-004 7.07295185e-005 6.89451263e-005
      5.66620947e-005 -1.55191810e-004 -9.24322114e-004 4.66195313e-004
      2.21659226e-004 -2.92720633e-005 -3.31793475e-004 6.23464468e-004
      6.60941238e-004 4.18773852e-004 3.34050361e-004 -2.36387204e-005
      -4.96638706e-004 9.80074765e-005 7.61601841e-004 8.74907826e-004
      -1.67644132e-004 1.92745109e-004 3.65345419e-004 3.91750073e-004
      2.26923381e-004 -4.16866766e-004 7.28632382e-004 7.11468747e-004
      -5.69889555e-004 -1.96122797e-004 -4.12862108e-004 3.07945127e-004
      -7.92467617e-004 -7.53932982e-004 -5.74192149e-004
      -4.22131998e-004 -2.66877207e-004 -6.10474846e-004</_>
    <_>
      -3.97036420e-005 -6.71776943e-005 -6.84480692e-005
      -1.31026172e-004 -3.73551273e-004 -3.74821626e-004
      -2.21410664e-004 -3.84332670e-005 1.27037254e-006 -1.85221797e-005
      -2.36629385e-005 -1.78573595e-004 -3.09947616e-004
      -3.82554645e-005 9.44739513e-005 9.06035639e-005 -3.34703109e-005
      -3.05221736e-004 -2.12018160e-004 8.77407274e-006 -1.82596035e-004
      -1.80233095e-004 -1.22388636e-004 1.31577573e-004 2.44395895e-004
      2.50629237e-004 1.46525708e-004 -1.67529361e-004 -3.36888275e-004
      2.60001275e-006 -1.52936846e-004 3.75185004e-006 1.60203475e-004
      1.98577472e-004 2.13407067e-004 2.25814452e-004 2.18370027e-004
      7.55961591e-005 -2.72962527e-004 -6.44333923e-005 -2.07707140e-004
      -8.59627016e-006 1.70010841e-004 1.92403415e-004 2.07292280e-004
      2.13466337e-004 2.08503378e-004 1.88710823e-004 3.36481171e-005
      -1.73525623e-004 -3.51310766e-004 5.02222247e-006 1.72433050e-004
      1.93614513e-004 2.07292280e-004 2.13407067e-004 2.18488552e-004
      1.96036723e-004 3.86110696e-005 -2.32962542e-004 -3.35566379e-004
      2.60001275e-006 1.83629338e-004 2.06021898e-004 2.09833015e-004
      2.12195955e-004 2.16007073e-004 1.98636742e-004 4.24221871e-005
      -3.16647318e-004 -2.40288442e-004 -6.05552486e-006 1.88533028e-004
      2.10984857e-004 2.13525607e-004 2.13407067e-004 2.17218185e-004
      1.49125728e-004 -1.11429421e-004 -1.01384969e-004 -3.22762120e-004
      -8.59627016e-006 1.71221953e-004 2.09773745e-004 2.16007073e-004
      2.22181145e-004 2.20851492e-004 7.57739690e-005 -3.49651265e-004
      3.32589952e-005 -2.12340252e-004 -1.77802875e-007 1.76066373e-004
      2.11044127e-004 2.11103397e-004 2.15947817e-004 2.28355202e-004
      6.95999042e-005 -3.60788283e-004 1.77218200e-004 -2.58199958e-004
      -5.92676237e-008 1.57425646e-004 2.03599688e-004 2.12255225e-004
      2.13466337e-004 2.19699665e-004 5.59814143e-005 -3.70832713e-004
      7.05481871e-005 -1.52462700e-004 -1.59373725e-004 6.43998792e-005
      2.04751530e-004 2.15947817e-004 2.18488552e-004 1.21592399e-004
      -1.26318278e-004 -1.95951710e-004 -6.46369517e-005 7.62223544e-006
      -8.87817951e-005 -1.18992386e-004 2.08851216e-005 5.33814018e-005
      5.83443543e-005 -5.70739830e-005 -2.55532912e-004 3.19113642e-005
      -3.09295683e-005 -2.97184633e-005 -2.08851216e-005
      -2.56506959e-004 -1.82258416e-004 -3.64954991e-004
      -3.62295716e-004 -2.63036607e-004 -6.56702541e-005
      -2.72962534e-005 -2.59073440e-005</_>
    <_>
      -7.58673268e-005 -1.08985359e-005 -1.04391389e-003 3.90677975e-004
      5.24745032e-004 -1.16629344e-004 2.17765788e-004 -2.14495871e-004
      7.67073507e-005 2.09550108e-005 8.61411216e-004 -3.64277133e-004
      -2.27806289e-004 2.84066802e-004 -6.27181085e-004 -5.79841908e-005
      4.76791647e-005 9.64845822e-004 2.98294879e-004 1.42890218e-004
      -1.80743998e-004 6.74222654e-004 -2.29515936e-004 -3.23126209e-004
      -4.63140896e-004 -7.76029046e-005 -1.71615349e-004
      -2.52985366e-004 1.63445226e-003 2.37769054e-005 -6.32458192e-004
      1.68526650e-003 -4.50382358e-004 -2.42651295e-004 -1.24106722e-004
      -8.59539141e-005 -2.33765080e-004 4.48058308e-005 1.53859868e-003
      -4.95662156e-004 -4.80985997e-004 1.04853546e-003 -3.39817110e-004
      -2.79817585e-004 9.08304210e-005 -1.58704934e-004 -2.49055593e-004
      3.32617492e-004 1.61154952e-003 8.94926998e-005 -1.68817257e-006
      -2.12412615e-005 -3.05798167e-005 -3.63763043e-004 6.76211857e-005
      -8.37137777e-005 -2.35523010e-004 5.32738457e-004 1.49092649e-003
      -2.84358190e-004 -3.48351714e-005 -5.15512875e-005
      -5.18787347e-005 -3.46259039e-004 3.20130115e-004 -6.58588979e-005
      -1.24278944e-004 1.42805337e-003 -1.90130319e-004 1.53629691e-004
      -3.27173839e-005 -1.01526530e-005 -5.75954764e-005
      -3.45085922e-004 3.95635172e-004 6.44524916e-005 4.10427805e-004
      6.58444987e-005 1.62648779e-004 -1.55496618e-005 -3.73300827e-005
      -5.34511455e-005 -7.66958765e-005 -2.77795742e-004 6.00378553e-004
      -6.14482560e-004 -3.87197419e-004 1.08327615e-004 -2.13920011e-005
      -5.97037069e-005 2.38768234e-006 -3.31998017e-005 -1.69824943e-005
      3.06645350e-004 -3.16559133e-004 -9.90767265e-004 -2.66107498e-004
      -6.87643114e-005 -5.29462741e-005 -8.64807371e-005
      -2.60810266e-005 -3.61450329e-005 4.93857136e-004 -1.09677424e-003
      -3.93256632e-004 2.28140052e-004 -2.76893843e-004 -6.71940870e-005
      -3.01047476e-005 -2.93756399e-004 6.25514804e-005 -1.01619764e-004
      -5.84114227e-004 -5.71043056e-004 2.22994655e-004 2.42481969e-004
      -2.45469069e-004 -3.01587243e-005 1.23593025e-004 -4.52299049e-004
      -2.77401094e-004 -3.70393245e-004 -2.82557507e-004
      -7.53714005e-004 -1.78906601e-003 -1.51506125e-003
      -1.81771163e-003 -6.86100451e-004 7.53653178e-004 -3.34099052e-004
      9.06167552e-004 3.52720672e-004 9.06268135e-004 2.99707084e-004
      7.20762997e-004 7.69611273e-004 5.01578441e-004 4.43517434e-004
      6.49436784e-004 -1.42813151e-004</_>
    <_>
      -1.33061520e-004 -6.92701651e-005 -9.63995466e-004 4.57388232e-004
      -4.97703382e-004 -1.01530401e-003 2.85635411e-004 -2.45641568e-005
      7.42875054e-005 -4.42740966e-005 1.34218647e-003 -8.06614815e-004
      -2.23251060e-004 2.17509689e-004 -7.50367471e-004 -2.82883884e-005
      -2.03175205e-005 1.23771874e-003 3.86555184e-005 1.54669848e-004
      -1.71228501e-004 2.03914894e-003 9.81431222e-004 -3.31869203e-004
      -1.68920800e-004 -8.39305285e-005 -2.19394584e-004
      -9.40366474e-004 2.12434935e-003 -4.89150640e-004 1.99056085e-004
      6.79290330e-004 5.84266731e-004 -2.12292158e-004 -2.75129132e-004
      -1.61519638e-004 -2.50078447e-004 -9.98558709e-004 1.88183715e-003
      -2.61723209e-004 -5.98223887e-005 -7.58858514e-005
      -9.22875697e-005 -4.82752395e-004 -2.08602039e-004
      -1.28582426e-004 -1.07802218e-004 1.17586076e-003 6.66405540e-004
      2.30772566e-004 -7.87043318e-005 -8.29716591e-005 -1.32425470e-004
      -5.12517698e-004 -2.46895739e-004 1.60149866e-004 -1.16403610e-003
      -1.83177064e-004 1.98233756e-004 -1.32236237e-005 -1.09822322e-004
      -1.07934291e-004 -4.66222882e-005 -3.41630730e-005 6.59517245e-004
      1.64242543e-003 -6.45059103e-004 1.53602057e-004 2.64195551e-005
      -2.26838965e-005 -1.01596423e-004 -8.33240629e-005
      -9.42465995e-005 -4.30537650e-004 -1.17775970e-004
      -1.35235314e-004 1.27356892e-004 1.48784358e-003 -3.11375275e-004
      1.63212331e-004 -6.55815675e-005 -1.09351669e-004 -1.50342050e-004
      -4.77026857e-004 -2.84980546e-004 -5.74357873e-005
      -3.31060350e-004 -1.22088197e-004 1.93973223e-003 -6.51111477e-004
      1.59429066e-004 2.53025763e-004 2.01625608e-005 -4.69787890e-004
      -2.15400534e-004 -3.57128243e-004 -4.20975528e-004
      -6.45575128e-005 9.64629638e-004 1.22511049e-003 1.44311591e-004
      1.74925395e-003 -1.01392902e-003 -3.83535196e-004 6.27383182e-004
      -1.02320620e-004 -4.52326494e-004 2.21751943e-005 1.09558587e-003
      3.62483785e-004 3.69266665e-004 9.11162468e-004 -1.87837111e-004
      -5.14403626e-004 2.55760591e-004 -9.33714659e-007 -4.30476299e-004
      2.20629692e-004 2.00507557e-003 -9.03783541e-004 2.16197077e-004
      -1.34696180e-004 4.65219491e-005 -5.47485892e-004 -4.98699024e-004
      -3.97410127e-004 -2.93058867e-004 7.65095348e-004 -5.80327993e-004
      9.06156274e-005 5.16719592e-004 -1.12534314e-003 -4.82070638e-004
      -2.96384620e-004 -7.37127208e-004 -5.44585782e-006
      -5.95265010e-004 -3.00666405e-004 -2.40791240e-004 1.21299890e-004</_>
    <_>
      -6.17195474e-005 -1.00799225e-004 -1.39479031e-004
      -2.26437318e-004 -8.77900675e-005 -9.18584992e-004
      -5.74144884e-004 -9.78225609e-004 2.58605887e-005 1.96516812e-005
      9.59508878e-004 -5.88896917e-004 -4.96922876e-004 2.02687006e-004
      -4.82237927e-004 4.00633464e-004 1.18062156e-003 -2.19941958e-005
      6.79727164e-005 3.51428571e-005 -9.44774147e-005 -4.58366412e-005
      -6.94023693e-005 -2.95049162e-004 2.08385842e-004 -3.46691464e-004
      1.29428960e-003 -1.23635682e-005 4.28900639e-005 -5.79950802e-006
      -3.82155267e-005 -2.33252395e-005 7.63341359e-006 -2.04382479e-004
      -6.20191917e-004 3.74886935e-004 1.30487792e-003 -1.40381790e-005
      2.44245548e-005 -1.10962073e-005 -3.20879299e-005 -8.97569953e-006
      -2.83027330e-005 -6.47548761e-004 8.22388974e-004 1.72905027e-004
      1.31581340e-003 8.20776586e-006 5.79323714e-005 1.78186838e-005
      8.48758361e-007 2.04277876e-005 1.79957002e-004 9.22908832e-004
      3.94696166e-004 2.36983629e-004 1.28422363e-003 -1.68113911e-005
      4.10946886e-005 -6.76848867e-006 -1.12315538e-005 6.29028509e-005
      -7.04825507e-005 -7.05314233e-005 3.22844600e-004 6.72974784e-005
      1.27040944e-003 -7.88510370e-005 -1.93141714e-005 -1.42330318e-005
      5.54988910e-005 -4.18350304e-004 6.28300884e-004 -2.48780154e-004
      3.74374940e-004 -2.94812944e-005 1.28316495e-003 -3.13669875e-006
      4.83223521e-005 1.70721955e-006 2.63883616e-004 1.21422240e-003
      5.41468798e-005 -2.92873592e-004 2.93878082e-004 2.31337122e-004
      1.33066101e-003 -6.43326166e-006 6.67441127e-005 -2.23091793e-005
      -6.18460646e-004 2.60755682e-004 3.13047640e-005 -1.92336578e-004
      4.47667378e-004 2.74207763e-004 1.26173976e-003 3.74212890e-004
      -2.45683750e-005 -4.49392646e-005 -1.73889124e-003
      -9.40113387e-006 -2.06008917e-005 -2.43579256e-004 7.60494848e-004
      -1.03604386e-003 1.30476616e-003 -1.15939043e-003 -1.21945713e-003
      -4.24899161e-004 2.49955337e-005 -5.48476455e-005 -8.21391513e-005
      -3.48831003e-004 1.78493588e-004 3.88623070e-004 1.27089885e-003
      9.76898991e-006 4.46060767e-005 -1.89037437e-005 -6.23813394e-005
      -7.28876257e-005 -1.31824461e-004 -4.36855917e-004
      -2.29914978e-004 2.84615380e-004 1.15640811e-003 8.79189101e-005
      5.57102169e-007 -2.85186052e-005 5.06545824e-004 -8.49352218e-004
      2.94195343e-004 -1.28144724e-003 -2.43583680e-004 4.44299192e-004
      1.07944617e-003 1.06435351e-003 -2.79480271e-004 -5.73198195e-004</_>
    <_>
      -3.62871433e-005 -4.17237694e-004 9.03541280e-004 -6.26320019e-004
      9.09338531e-004 -9.30496026e-005 6.81753503e-004 -5.85608359e-004
      1.89191347e-003 -2.38966328e-004 1.14067434e-003 -9.06011614e-004
      1.45270849e-006 6.25851797e-004 -2.70797871e-004 5.44623821e-004
      2.29606478e-004 -6.39009231e-004 -2.93856632e-004 -3.69854279e-005
      -4.96939174e-005 -1.48481893e-004 4.12132940e-004 -2.47586315e-004
      2.17832450e-004 9.77340242e-005 -3.42315034e-004 -6.50142101e-005
      -2.59651715e-005 -8.18123226e-005 -7.69490555e-007
      -7.52671331e-004 4.37658513e-004 -2.82410096e-004 -9.26622888e-005
      -1.01757869e-004 -2.81079672e-004 -7.00921737e-005
      -7.87225727e-005 -9.09845257e-005 7.72954081e-006 -9.55967000e-004
      3.76668904e-004 -2.72880425e-004 2.48431927e-004 5.98725819e-005
      -3.33569740e-004 -5.45424409e-005 -2.78805001e-005
      -6.60407095e-005 8.30929639e-005 -5.14266721e-004 -1.67373894e-003
      2.91419856e-004 -1.27718644e-003 -9.45265230e-004 1.16213551e-003
      -1.12226408e-003 9.66712832e-005 -3.93606606e-005 -1.79402574e-004
      4.73684981e-004 -1.26520440e-003 -2.75629573e-004 1.45408994e-004
      -7.78362955e-005 -1.71470412e-004 -4.35342925e-004 4.98992973e-004
      1.25090301e-004 -7.28481100e-005 -1.70931307e-004 -2.51615256e-005
      -4.07718006e-004 1.53426648e-004 -1.97844580e-004 -3.51446710e-004
      -7.89280166e-005 1.73107802e-003 -8.14994855e-004 -8.47997853e-006
      -3.32725831e-005 -8.89559233e-005 -4.09165106e-004
      -1.19907527e-004 -5.05459866e-006 -3.32387135e-004 2.22066301e-004
      6.23690838e-004 2.92039331e-004 -1.06334127e-003 -4.86867444e-004
      -5.91899909e-004 -3.00620391e-004 -4.06445133e-006
      -2.85478658e-004 -3.59598140e-004 1.98282753e-004 1.12734044e-004
      1.72274502e-003 1.59988331e-003 1.51581829e-003 -8.59267602e-004
      -3.28166905e-004 6.57422002e-004 1.64140132e-004 -3.45242239e-004
      2.64261238e-004 1.07217941e-003 1.36886709e-004 3.76525932e-005
      6.31811970e-004 -2.88772862e-004 -4.64957353e-004 -1.37118041e-004
      1.48766776e-004 -3.49775830e-004 -2.16440894e-004 1.72440871e-003
      -5.12265717e-004 7.45686411e-005 1.06881466e-003 -1.09976681e-004
      -4.21835372e-004 -6.49329508e-004 1.28981610e-005 -9.82621932e-005
      1.31503912e-003 2.06101075e-004 -6.99006296e-006 3.02729779e-004
      -8.69097013e-004 -4.69092658e-004 6.38598402e-004 3.64294712e-004
      3.17871658e-004 -9.86041734e-004 -3.97076015e-004 -2.01373012e-004
      1.02559599e-004</_>
    <_>
      -1.11408313e-004 -1.77310110e-004 -1.76712405e-004
      -4.57925576e-004 -3.99050274e-004 -5.60235698e-004
      -2.21092996e-004 3.59303842e-004 -8.80932785e-004 -3.01899236e-005
      5.33149985e-004 -4.20905766e-004 -5.28801211e-005 6.47544919e-004
      -5.04032243e-004 -1.67416176e-004 -1.98037815e-004 8.96628771e-005
      -2.11439896e-004 -7.51927437e-004 -9.77550662e-005 2.04129523e-004
      4.88275371e-004 -1.13397677e-004 -1.87144120e-004 -2.05591467e-004
      -2.23798983e-004 -4.02327205e-005 1.05628395e-003 2.45128409e-004
      1.30495566e-004 7.67888094e-004 -3.74093390e-004 -2.14245578e-004
      -3.41340899e-004 -2.05487217e-004 -2.63558584e-004
      -7.49460305e-005 -6.48008951e-004 -2.31045760e-005 1.40576958e-004
      9.57713462e-004 2.06642915e-004 -2.57706182e-004 -1.19014840e-004
      -2.44157418e-004 -3.04219429e-004 -1.09410707e-004
      -1.36069226e-004 -1.59718358e-004 -3.06893402e-004
      -7.85301207e-004 1.91056650e-004 -9.65667365e-004 7.58136739e-004
      8.45421688e-004 8.36959109e-004 -8.75921571e-004 -7.88444813e-005
      -9.72138369e-005 -3.33805830e-004 5.70591597e-004 5.00175636e-004
      6.07511502e-005 4.22687153e-005 -2.22086484e-004 -1.90238061e-004
      6.72918570e-004 6.98560791e-004 6.34892931e-005 -3.16785707e-004
      9.96165443e-004 3.74564610e-004 -2.42287380e-004 1.38619071e-005
      -2.03612319e-004 -3.04167974e-004 9.05706765e-005 1.01294380e-003
      -1.05933007e-003 -3.01239488e-004 7.19553733e-004 1.12147391e-004
      -3.21489031e-004 -1.43324636e-004 -2.42831651e-004
      -2.98143335e-004 1.45136337e-005 7.44197168e-004 8.79176427e-004
      -2.93437886e-004 7.52939843e-004 1.23079022e-004 -2.91880773e-004
      -7.18384254e-005 -2.36269945e-004 -3.25479778e-004
      -2.87430994e-005 6.28625450e-004 8.77709303e-004 1.45561338e-004
      8.99572624e-004 9.90292101e-005 -3.24082677e-004 2.96952116e-004
      6.99737138e-005 -3.02879460e-004 1.44545766e-005 8.30299337e-004
      2.13924985e-004 1.04341088e-004 9.59242287e-004 2.17298977e-004
      -3.25463130e-004 -2.54074548e-004 1.03826736e-004 -2.95631122e-004
      1.09729357e-004 9.69915069e-004 -3.13221972e-004 -1.19748271e-004
      -9.74678318e-004 7.31366279e-004 -2.69678450e-004 -5.46609052e-004
      -6.35866745e-005 -3.40016675e-004 6.66639360e-004 7.23023768e-005
      -4.40897020e-005 5.79153566e-005 -5.86346316e-004 -7.83959149e-006
      -1.14799564e-004 6.16339152e-004 6.65506697e-004 -5.44111281e-005
      -2.00858165e-004 -2.01211544e-004 -1.40204676e-004</_>
    <_>
