<?xml version="1.0"?>
<opencv_storage>
<my_svm type_id="opencv-ml-svm">
  <svm_type>C_SVC</svm_type>
  <kernel><type>RBF</type>
    <gamma>8.</gamma></kernel>
  <C>10.</C>
  <term_criteria><epsilon>9.9999999747524271e-007</epsilon>
    <iterations>2147483647</iterations></term_criteria>
  <var_all>140</var_all>
  <var_count>140</var_count>
  <class_count>35</class_count>
  <class_labels type_id="opencv-matrix">
    <rows>1</rows>
    <cols>35</cols>
    <dt>i</dt>
    <data>
      0 1 2 3 4 5 6 7 8 9 10 11 12 13 14 15 16 17 18 19 20 21 22 23 24
      25 26 27 28 29 30 31 32 33 34</data></class_labels>
  <sv_total>132</sv_total>
  <support_vectors>
    <_>
      132. 130. 175. 54. 40. 46. 225. 121. 131. 131. 130. 239. 45. 94.
      133. 122. 57. 68. 122. 129. 151. 45. 66. 131. 135. 132. 119. 54.
      238. 125. 193. 44. 124. 133. 132. 136. 133. 75. 44. 110. 47. 43.
      129. 134. 136. 138. 133. 116. 45. 140. 48. 30. 134. 135. 137. 138.
      134. 134. 50. 192. 47. 46. 131. 138. 134. 137. 133. 131. 53. 38.
      48. 43. 135. 137. 135. 139. 136. 133. 57. 33. 51. 34. 132. 138.
      137. 139. 132. 132. 45. 41. 195. 50. 127. 140. 139. 138. 134. 133.
      47. 192. 144. 47. 106. 137. 139. 141. 135. 110. 48. 147. 131. 62.
      53. 134. 138. 140. 138. 51. 56. 125. 134. 106. 57. 79. 131. 133.
      78. 49. 108. 136. 140. 139. 125. 77. 49. 49. 54. 187. 139. 136.</_>
    <_>
      145. 142. 136. 171. 161. 42. 180. 131. 146. 145. 145. 144. 47. 71.
      152. 131. 80. 51. 135. 146. 138. 110. 60. 147. 147. 145. 143. 61.
      108. 138. 109. 49. 97. 143. 146. 147. 148. 106. 49. 209. 241. 55.
      134. 146. 146. 148. 146. 134. 42. 148. 60. 50. 145. 145. 146. 147.
      145. 142. 50. 64. 65. 58. 147. 147. 146. 150. 149. 146. 60. 72.
      61. 56. 147. 146. 148. 147. 150. 147. 63. 72. 59. 55. 144. 147.
      148. 147. 150. 143. 53. 71. 241. 48. 137. 148. 150. 147. 147. 147.
      43. 239. 107. 46. 105. 147. 147. 147. 146. 117. 50. 210. 140. 114.
      62. 138. 147. 148. 147. 59. 115. 150. 147. 142. 50. 85. 139. 139.
      82. 54. 135. 149. 146. 145. 153. 140. 54. 53. 144. 160. 146. 150.</_>
    <_>
      152. 149. 164. 175. 43. 48. 174. 163. 149. 150. 149. 151. 56. 67.
      155. 164. 83. 57. 141. 146. 153. 114. 45. 150. 152. 149. 159. 63.
      116. 134. 132. 57. 97. 149. 151. 151. 148. 114. 56. 213. 244. 52.
      145. 150. 150. 151. 147. 145. 55. 240. 185. 44. 154. 151. 150.
      149. 151. 157. 50. 71. 77. 36. 152. 153. 151. 152. 151. 151. 60.
      74. 73. 39. 157. 154. 154. 153. 150. 151. 55. 74. 184. 44. 151.
      153. 152. 152. 153. 156. 56. 66. 243. 56. 149. 154. 153. 153. 151.
      153. 55. 242. 124. 56. 104. 151. 152. 153. 152. 110. 56. 217. 158.
      122. 50. 145. 152. 151. 160. 52. 119. 153. 156. 154. 61. 73. 143.
      145. 76. 59. 153. 148. 153. 151. 167. 181. 48. 47. 176. 170. 153.
      152.</_>
    <_>
      146. 144. 127. 170. 36. 39. 172. 162. 142. 146. 143. 128. 48. 68.
      146. 136. 92. 51. 128. 146. 138. 71. 57. 138. 145. 146. 137. 65.
      80. 129. 115. 50. 99. 141. 145. 146. 145. 112. 45. 212. 248. 49.
      134. 141. 145. 146. 146. 131. 40. 247. 45. 53. 139. 144. 145. 145.
      146. 139. 48. 57. 38. 64. 143. 146. 146. 147. 146. 141. 51. 66.
      49. 61. 140. 143. 144. 146. 147. 142. 48. 65. 38. 59. 142. 144.
      143. 143. 144. 135. 32. 60. 247. 53. 138. 142. 143. 147. 145. 134.
      48. 248. 212. 49. 112. 142. 145. 143. 144. 93. 46. 115. 133. 71.
      72. 140. 143. 145. 140. 38. 87. 147. 142. 126. 47. 96. 137. 135.
      58. 50. 135. 144. 144. 138. 153. 90. 41. 36. 173. 133. 139. 146.</_>
    <_>
      144. 145. 169. 84. 44. 48. 89. 157. 142. 147. 145. 149. 45. 85.
      144. 138. 95. 46. 133. 143. 141. 69. 52. 145. 145. 145. 138. 63.
      78. 136. 215. 45. 117. 142. 142. 145. 141. 105. 44. 103. 248. 50.
      139. 144. 145. 146. 146. 124. 43. 248. 51. 49. 142. 146. 144. 145.
      146. 135. 35. 189. 46. 61. 142. 146. 145. 145. 145. 138. 41. 59.
      53. 60. 143. 145. 143. 144. 144. 138. 40. 61. 46. 60. 138. 145.
      144. 144. 145. 133. 38. 248. 247. 50. 133. 146. 146. 143. 144.
      120. 46. 249. 93. 49. 111. 145. 146. 146. 141. 74. 46. 139. 131.
      77. 70. 137. 143. 144. 140. 42. 232. 141. 144. 132. 51. 87. 139.
      138. 45. 95. 137. 144. 148. 143. 164. 172. 92. 171. 175. 146. 142.
      146.</_>
    <_>
      147. 138. 168. 174. 43. 43. 101. 162. 142. 145. 150. 141. 50. 89.
      146. 141. 86. 50. 135. 142. 135. 81. 63. 143. 146. 148. 139. 56.
      83. 142. 210. 47. 120. 146. 148. 147. 146. 99. 46. 109. 247. 50.
      144. 144. 146. 147. 146. 132. 45. 248. 52. 51. 144. 145. 148. 149.
      147. 137. 43. 62. 52. 62. 147. 146. 146. 147. 146. 141. 43. 63.
      48. 67. 146. 144. 146. 148. 146. 139. 46. 61. 54. 59. 141. 144.
      148. 148. 149. 133. 41. 247. 247. 47. 142. 143. 146. 147. 147.
      127. 47. 249. 212. 52. 121. 144. 148. 148. 144. 80. 50. 133. 133.
      78. 67. 141. 145. 147. 134. 45. 231. 145. 146. 135. 46. 91. 142.
      143. 47. 95. 144. 148. 148. 146. 122. 175. 40. 45. 170. 144. 147.
      144.</_>
    <_>
      145. 144. 153. 37. 44. 36. 52. 177. 144. 146. 148. 222. 43. 86.
      143. 137. 104. 50. 212. 144. 146. 109. 53. 146. 146. 144. 143. 74.
      46. 118. 208. 44. 114. 146. 144. 146. 146. 120. 45. 241. 240. 40.
      136. 145. 144. 145. 146. 139. 49. 68. 59. 49. 146. 143. 143. 144.
      146. 141. 63. 66. 61. 62. 146. 144. 144. 144. 146. 142. 69. 73.
      62. 66. 144. 145. 145. 145. 144. 144. 68. 72. 58. 58. 147. 144.
      145. 142. 144. 141. 45. 71. 147. 45. 139. 144. 143. 144. 147. 140.
      36. 239. 241. 45. 112. 144. 144. 142. 141. 107. 42. 208. 131. 47.
      68. 139. 141. 142. 150. 46. 113. 144. 141. 213. 45. 91. 143. 140.
      60. 43. 144. 144. 143. 141. 140. 135. 43. 37. 171. 159. 143. 145.</_>
    <_>
      148. 147. 147. 169. 49. 48. 171. 142. 148. 149. 148. 146. 47. 45.
      157. 141. 60. 95. 136. 148. 149. 67. 42. 149. 150. 149. 138. 41.
      78. 147. 147. 51. 93. 150. 147. 148. 148. 89. 48. 139. 250. 49.
      150. 149. 149. 149. 148. 138. 49. 249. 248. 49. 148. 149. 152.
      150. 148. 145. 46. 248. 47. 42. 150. 148. 149. 149. 148. 145. 34.
      247. 49. 42. 148. 149. 148. 149. 150. 147. 35. 247. 248. 48. 145.
      148. 149. 149. 151. 147. 45. 248. 249. 53. 143. 146. 147. 151.
      149. 144. 48. 250. 136. 50. 97. 146. 150. 148. 148. 86. 50. 144.
      145. 67. 53. 141. 148. 149. 147. 50. 77. 147. 146. 125. 50. 75.
      143. 156. 62. 46. 149. 149. 147. 145. 138. 165. 38. 37. 161. 144.
      148. 147.</_>
    <_>
      151. 148. 146. 61. 82. 70. 65. 155. 150. 154. 149. 142. 47. 147.
      151. 148. 143. 53. 152. 152. 145. 47. 142. 151. 151. 149. 149. 95.
      51. 148. 113. 44. 148. 152. 152. 151. 150. 144. 46. 119. 32. 48.
      150. 153. 151. 150. 149. 145. 32. 52. 37. 87. 152. 152. 152. 150.
      150. 149. 80. 43. 40. 105. 151. 152. 151. 151. 150. 148. 102. 46.
      41. 98. 151. 152. 152. 150. 149. 149. 103. 47. 46. 77. 150. 152.
      152. 151. 150. 148. 82. 49. 36. 44. 149. 151. 152. 152. 150. 150.
      34. 50. 119. 52. 148. 153. 150. 151. 152. 146. 45. 106. 142. 42.
      115. 151. 152. 150. 148. 132. 48. 150. 148. 136. 49. 154. 150.
      149. 146. 45. 144. 154. 154. 150. 148. 57. 70. 71. 70. 162. 151.
      152.</_>
    <_>
      124. 124. 121. 109. 147. 44. 128. 127. 128. 127. 233. 152. 43. 39.
      37. 43. 127. 128. 131. 129. 126. 120. 119. 111. 36. 42. 126. 124.
      131. 126. 129. 126. 128. 124. 32. 43. 125. 129. 128. 128. 127.
      127. 130. 121. 30. 45. 128. 127. 129. 129. 126. 128. 131. 123. 88.
      44. 133. 127. 133. 127. 128. 126. 129. 124. 177. 40. 126. 124.
      132. 127. 129. 130. 130. 127. 177. 41. 125. 127. 132. 131. 126.
      130. 129. 125. 179. 39. 128. 128. 132. 129. 127. 129. 127. 122.
      177. 42. 121. 129. 132. 130. 128. 129. 133. 126. 177. 38. 128.
      128. 131. 131. 129. 131. 129. 126. 177. 42. 126. 129. 134. 129.
      126. 124. 122. 101. 180. 36. 81. 126. 126. 127. 142. 47. 52. 48.
      48. 51. 49. 48. 47. 48.</_>
    <_>
      146. 143. 137. 137. 171. 37. 168. 143. 145. 146. 225. 215. 37. 50.
      45. 101. 129. 143. 144. 145. 153. 142. 141. 115. 96. 99. 131. 142.
      140. 147. 144. 143. 142. 134. 92. 102. 132. 143. 141. 144. 143.
      144. 144. 133. 92. 106. 136. 141. 143. 145. 141. 141. 144. 132.
      94. 104. 139. 141. 141. 146. 144. 142. 143. 132. 89. 103. 143.
      140. 142. 142. 140. 137. 142. 131. 94. 103. 140. 140. 142. 144.
      144. 143. 144. 133. 92. 107. 136. 145. 142. 144. 143. 141. 141.
      133. 96. 101. 138. 140. 144. 146. 142. 142. 143. 127. 96. 99. 139.
      145. 142. 146. 141. 141. 144. 129. 92. 105. 141. 142. 144. 144.
      142. 137. 139. 131. 53. 119. 107. 139. 144. 144. 103. 37. 38. 172.
      172. 170. 170. 170. 42. 102.</_>
    <_>
      156. 154. 155. 155. 188. 197. 148. 155. 156. 155. 206. 217. 219.
      58. 57. 106. 147. 154. 157. 156. 170. 167. 171. 113. 104. 103.
      151. 157. 157. 158. 155. 157. 160. 152. 111. 106. 148. 154. 158.
      160. 157. 159. 157. 155. 105. 105. 146. 155. 158. 159. 155. 158.
      156. 149. 105. 103. 151. 153. 158. 159. 155. 157. 157. 152. 107.
      105. 149. 154. 158. 158. 157. 156. 156. 152. 111. 108. 147. 154.
      158. 159. 156. 157. 158. 154. 108. 107. 145. 155. 157. 157. 155.
      157. 155. 152. 105. 106. 148. 156. 157. 159. 156. 158. 158. 156.
      106. 107. 147. 155. 157. 159. 157. 157. 156. 154. 213. 104. 141.
      159. 157. 157. 152. 154. 158. 135. 110. 68. 146. 162. 158. 155.
      232. 44. 174. 176. 175. 172. 174. 175. 42. 84.</_>
    <_>
      144. 144. 142. 136. 172. 91. 140. 147. 149. 148. 226. 39. 40. 55.
      51. 99. 141. 147. 149. 149. 146. 145. 143. 124. 98. 105. 140. 147.
      147. 147. 147. 148. 148. 137. 91. 102. 141. 147. 149. 149. 148.
      147. 148. 140. 92. 102. 143. 145. 150. 149. 148. 147. 148. 137.
      92. 102. 141. 149. 148. 149. 145. 149. 147. 144. 94. 102. 139.
      146. 149. 148. 147. 149. 147. 137. 96. 103. 143. 145. 147. 149.
      148. 147. 148. 134. 92. 103. 140. 147. 149. 148. 147. 147. 148.
      133. 98. 99. 145. 147. 148. 149. 147. 149. 147. 137. 97. 100. 143.
      147. 150. 148. 149. 148. 147. 134. 95. 214. 139. 149. 147. 150.
      145. 143. 141. 194. 46. 61. 131. 133. 148. 147. 201. 173. 175.
      174. 174. 171. 173. 173. 173. 183.</_>
    <_>
      153. 152. 149. 148. 182. 138. 182. 152. 153. 152. 203. 216. 219.
      53. 49. 105. 148. 152. 152. 155. 156. 165. 159. 130. 103. 104.
      152. 153. 154. 154. 154. 152. 151. 153. 89. 105. 149. 154. 152.
      152. 155. 154. 152. 153. 85. 102. 149. 151. 153. 154. 152. 153.
      151. 154. 93. 103. 150. 154. 154. 154. 154. 154. 152. 153. 90.
      103. 150. 152. 154. 154. 153. 155. 153. 152. 89. 103. 149. 152.
      154. 154. 154. 154. 157. 153. 87. 103. 152. 153. 152. 154. 152.
      153. 153. 153. 90. 101. 150. 151. 153. 154. 154. 153. 152. 154.
      90. 102. 152. 154. 152. 154. 156. 153. 153. 153. 217. 105. 152.
      151. 155. 156. 153. 150. 155. 149. 99. 58. 144. 155. 152. 152.
      231. 39. 138. 175. 175. 176. 175. 170. 75. 85.</_>
    <_>
      147. 147. 145. 136. 110. 38. 129. 147. 150. 148. 141. 74. 116.
      118. 38. 38. 124. 147. 144. 145. 145. 145. 138. 136. 87. 39. 119.
      140. 142. 143. 135. 136. 138. 135. 84. 38. 123. 138. 139. 140.
      134. 133. 132. 130. 245. 37. 119. 136. 136. 135. 130. 129. 128.
      127. 245. 40. 118. 133. 133. 135. 129. 128. 127. 125. 244. 34.
      121. 132. 133. 132. 127. 127. 127. 119. 244. 30. 119. 131. 130.
      132. 127. 127. 127. 119. 244. 32. 119. 130. 130. 126. 131. 125.
      127. 121. 244. 229. 115. 130. 128. 126. 126. 124. 121. 116. 244.
      244. 120. 130. 127. 130. 128. 124. 121. 119. 38. 244. 121. 126.
      129. 128. 125. 127. 126. 111. 33. 243. 114. 126. 130. 128. 216.
      209. 25. 32. 33. 32. 26. 41. 210. 72.</_>
    <_>
      146. 143. 141. 138. 110. 60. 146. 146. 144. 145. 247. 52. 40. 45.
      37. 58. 140. 147. 146. 146. 140. 139. 135. 128. 220. 56. 143. 146.
      147. 147. 143. 143. 143. 135. 219. 52. 147. 144. 146. 146. 143.
      140. 142. 134. 220. 60. 150. 141. 145. 146. 144. 140. 138. 132.
      221. 45. 149. 142. 146. 144. 146. 143. 142. 131. 221. 52. 147.
      141. 144. 146. 142. 141. 142. 134. 219. 54. 149. 145. 146. 147.
      143. 141. 140. 136. 102. 60. 149. 143. 143. 146. 143. 140. 139.
      137. 99. 54. 153. 140. 146. 144. 143. 143. 141. 136. 190. 58. 148.
      138. 144. 144. 142. 139. 135. 136. 108. 54. 151. 139. 144. 142.
      142. 142. 138. 134. 96. 51. 143. 139. 142. 142. 131. 189. 189. 43.
      40. 43. 43. 44. 51. 73.</_>
    <_>
      123. 113. 213. 40. 46. 38. 39. 213. 125. 128. 117. 40. 206. 119.
      122. 125. 104. 38. 42. 129. 139. 38. 121. 127. 133. 128. 129. 138.
      34. 176. 176. 37. 202. 128. 134. 131. 129. 114. 38. 145. 169. 43.
      203. 130. 129. 130. 129. 133. 42. 153. 125. 127. 123. 126. 126.
      127. 119. 32. 42. 118. 129. 128. 129. 128. 126. 122. 136. 43. 100.
      131. 130. 127. 133. 130. 118. 78. 46. 100. 128. 127. 129. 130.
      129. 109. 38. 58. 118. 128. 130. 130. 129. 129. 114. 45. 229. 123.
      130. 130. 130. 131. 127. 114. 44. 182. 127. 127. 133. 132. 118.
      43. 117. 39. 137. 127. 129. 132. 133. 130. 247. 181. 178. 245. 81.
      85. 82. 87. 88. 255. 38. 169. 50. 41. 46. 47. 47. 46. 46. 44. 51.
      130.</_>
    <_>
      149. 147. 140. 177. 42. 43. 98. 180. 141. 148. 147. 133. 51. 165.
      152. 148. 112. 54. 90. 141. 144. 79. 201. 150. 147. 150. 146. 148.
      50. 112. 137. 50. 130. 142. 150. 149. 147. 130. 52. 250. 141. 78.
      78. 145. 151. 151. 147. 152. 52. 111. 150. 145. 149. 148. 147.
      149. 150. 51. 78. 154. 147. 149. 149. 150. 148. 146. 84. 48. 181.
      147. 148. 147. 149. 147. 145. 115. 49. 200. 149. 148. 149. 151.
      149. 140. 134. 55. 140. 150. 147. 149. 147. 147. 147. 118. 137.
      154. 148. 147. 147. 154. 148. 146. 90. 171. 145. 152. 149. 148.
      158. 67. 145. 197. 191. 147. 148. 146. 145. 149. 185. 221. 242.
      56. 86. 190. 248. 248. 247. 61. 82. 158. 53. 39. 146. 182. 183.
      183. 182. 181. 179. 149.</_>
    <_>
      146. 141. 165. 178. 80. 113. 39. 180. 169. 145. 143. 237. 54. 173.
      140. 139. 134. 199. 52. 130. 135. 76. 204. 144. 143. 146. 148.
      124. 47. 248. 139. 77. 55. 136. 143. 145. 145. 134. 35. 248. 139.
      119. 86. 141. 145. 147. 147. 165. 45. 249. 147. 146. 144. 144.
      145. 146. 139. 204. 52. 142. 146. 145. 146. 148. 148. 136. 176.
      49. 162. 144. 146. 144. 148. 147. 137. 113. 51. 192. 143. 146.
      144. 144. 148. 133. 127. 62. 131. 145. 146. 147. 147. 147. 136.
      57. 145. 146. 146. 147. 142. 145. 147. 136. 94. 176. 144. 146.
      147. 151. 154. 59. 138. 67. 142. 144. 146. 147. 146. 141. 185.
      218. 240. 45. 81. 191. 247. 247. 246. 53. 48. 142. 58. 48. 50. 49.
      47. 48. 49. 52. 90. 143.</_>
    <_>
      156. 156. 183. 140. 48. 51. 142. 176. 145. 154. 149. 110. 154.
      157. 154. 150. 129. 65. 109. 148. 118. 56. 203. 156. 155. 152.
      150. 195. 58. 135. 246. 57. 149. 154. 157. 155. 152. 208. 56. 245.
      144. 101. 158. 154. 155. 157. 154. 188. 58. 130. 156. 154. 155.
      158. 155. 157. 147. 65. 114. 153. 157. 157. 156. 157. 156. 162.
      115. 52. 147. 154. 157. 156. 155. 156. 156. 74. 99. 150. 156. 156.
      158. 158. 154. 149. 59. 229. 152. 157. 158. 156. 156. 156. 197.
      62. 209. 156. 157. 157. 156. 225. 158. 196. 55. 184. 153. 157.
      159. 156. 178. 154. 158. 101. 196. 155. 156. 157. 155. 157. 169.
      223. 242. 61. 245. 244. 244. 244. 110. 63. 111. 160. 71. 179. 184.
      179. 181. 179. 181. 180. 200. 153.</_>
    <_>
      148. 148. 189. 173. 124. 124. 48. 170. 138. 146. 151. 103. 60.
      153. 144. 140. 122. 69. 101. 140. 128. 47. 199. 147. 149. 147.
      150. 194. 47. 108. 244. 47. 158. 150. 151. 147. 148. 128. 46. 244.
      131. 44. 139. 146. 146. 147. 146. 192. 46. 106. 150. 146. 146.
      148. 146. 146. 145. 44. 105. 151. 148. 147. 148. 149. 147. 158.
      102. 56. 146. 150. 150. 147. 146. 148. 152. 65. 32. 149. 148. 147.
      146. 146. 145. 179. 46. 170. 147. 146. 148. 148. 147. 145. 172.
      47. 186. 147. 148. 147. 147. 202. 148. 171. 50. 204. 146. 150.
      146. 147. 175. 110. 152. 106. 203. 142. 146. 145. 144. 153. 41.
      241. 89. 61. 234. 234. 233. 232. 229. 48. 100. 153. 62. 173. 171.
      169. 172. 171. 168. 166. 194. 148.</_>
    <_>
      149. 151. 135. 76. 147. 216. 52. 229. 142. 148. 143. 174. 174.
      142. 146. 141. 146. 120. 39. 137. 135. 34. 126. 144. 143. 141.
      143. 141. 36. 115. 118. 35. 137. 141. 143. 139. 143. 136. 42. 247.
      138. 79. 147. 140. 139. 136. 135. 131. 32. 88. 135. 132. 136. 137.
      135. 135. 134. 130. 34. 134. 131. 132. 134. 133. 133. 133. 107.
      37. 128. 130. 132. 129. 131. 131. 130. 170. 35. 130. 132. 132.
      130. 127. 129. 133. 185. 134. 130. 128. 132. 131. 130. 126. 126.
      139. 171. 126. 128. 129. 131. 129. 129. 129. 84. 118. 126. 128.
      128. 126. 128. 39. 130. 88. 127. 128. 127. 127. 126. 132. 122.
      249. 178. 116. 125. 126. 125. 125. 125. 115. 32. 126. 38. 32. 34.
      32. 31. 27. 30. 33. 67. 129.</_>
    <_>
      148. 136. 199. 56. 170. 160. 45. 182. 146. 147. 130. 64. 149. 137.
      140. 146. 142. 191. 57. 142. 83. 49. 141. 145. 147. 146. 144. 125.
      39. 145. 229. 44. 134. 143. 145. 143. 144. 124. 41. 116. 122. 138.
      139. 145. 147. 146. 145. 105. 45. 148. 140. 143. 145. 146. 147.
      145. 140. 44. 63. 142. 145. 143. 144. 143. 143. 137. 229. 59. 147.
      144. 146. 142. 145. 148. 136. 167. 67. 143. 146. 149. 145. 144.
      145. 133. 96. 171. 141. 146. 147. 145. 144. 145. 132. 59. 127.
      143. 147. 149. 148. 148. 143. 134. 99. 143. 143. 146. 147. 147.
      142. 63. 132. 153. 141. 145. 146. 147. 145. 145. 107. 123. 122.
      125. 141. 146. 143. 145. 144. 115. 55. 149. 39. 45. 43. 44. 44.
      46. 45. 39. 70. 143.</_>
    <_>
      129. 111. 95. 47. 57. 41. 43. 208. 119. 128. 119. 39. 202. 130.
      125. 128. 110. 37. 40. 126. 164. 38. 201. 130. 131. 128. 129. 185.
      37. 187. 165. 45. 188. 128. 130. 132. 129. 155. 37. 174. 127. 129.
      129. 130. 128. 130. 126. 199. 38. 123. 129. 132. 127. 123. 119.
      114. 159. 42. 99. 128. 130. 131. 128. 42. 36. 41. 37. 124. 129.
      133. 132. 132. 131. 127. 129. 125. 133. 38. 132. 127. 133. 130.
      131. 132. 131. 132. 132. 151. 36. 166. 128. 127. 134. 130. 132.
      131. 132. 132. 52. 40. 37. 42. 168. 133. 135. 134. 133. 132. 48.
      40. 38. 40. 154. 133. 130. 134. 130. 116. 41. 180. 146. 37. 193.
      129. 133. 129. 117. 58. 42. 120. 134. 125. 45. 39. 42. 44. 42.
      248. 117. 134.</_>
    <_>
      145. 138. 181. 52. 125. 125. 52. 175. 129. 142. 141. 106. 65. 133.
      140. 139. 129. 154. 53. 119. 134. 43. 58. 128. 144. 145. 146. 120.
      50. 241. 138. 116. 138. 140. 144. 146. 143. 123. 45. 242. 145.
      145. 146. 145. 144. 142. 143. 177. 52. 119. 148. 144. 143. 139.
      139. 134. 182. 88. 188. 142. 145. 145. 145. 91. 71. 72. 51. 193.
      140. 144. 150. 146. 147. 145. 144. 140. 133. 141. 65. 126. 146.
      144. 145. 146. 146. 145. 147. 128. 49. 122. 140. 139. 142. 146.
      147. 145. 146. 139. 192. 71. 61. 52. 183. 145. 145. 149. 148. 142.
      194. 75. 241. 48. 182. 145. 146. 146. 145. 113. 48. 241. 124. 56.
      152. 123. 138. 137. 203. 49. 113. 143. 147. 134. 177. 139. 53. 61.
      178. 187. 146. 148.</_>
    <_>
      146. 150. 163. 169. 170. 36. 176. 173. 147. 150. 153. 136. 59.
      166. 148. 150. 124. 58. 56. 135. 135. 51. 102. 157. 150. 150. 150.
      127. 54. 237. 131. 42. 93. 148. 152. 150. 151. 149. 47. 235. 150.
      148. 151. 150. 152. 150. 150. 172. 50. 241. 149. 151. 149. 153.
      150. 154. 175. 52. 159. 149. 150. 150. 149. 38. 37. 53. 53. 178.
      148. 149. 150. 152. 148. 146. 150. 151. 128. 50. 149. 141. 148.
      150. 149. 151. 151. 149. 147. 132. 46. 128. 149. 152. 149. 150.
      150. 150. 148. 148. 160. 82. 82. 53. 230. 150. 151. 151. 150. 154.
      162. 85. 81. 47. 115. 150. 149. 148. 148. 138. 49. 79. 207. 51.
      220. 150. 149. 150. 147. 58. 40. 154. 146. 153. 174. 36. 119. 90.
      176. 173. 150. 149.</_>
    <_>
      148. 144. 187. 172. 41. 40. 61. 177. 135. 148. 144. 120. 106. 136.
      147. 145. 122. 102. 56. 128. 116. 50. 98. 142. 150. 148. 147. 119.
      45. 235. 124. 54. 110. 146. 149. 149. 147. 133. 46. 234. 150. 147.
      148. 149. 149. 150. 144. 223. 53. 175. 149. 147. 148. 147. 146.
      141. 183. 50. 165. 147. 149. 149. 169. 58. 68. 63. 52. 165. 146.
      149. 149. 149. 147. 146. 146. 142. 137. 93. 83. 136. 148. 149.
      149. 149. 149. 147. 147. 123. 45. 132. 147. 147. 146. 149. 148.
      149. 149. 146. 156. 81. 79. 49. 146. 147. 148. 147. 147. 146. 160.
      82. 81. 51. 114. 149. 147. 147. 147. 124. 48. 232. 235. 47. 218.
      144. 145. 141. 122. 60. 129. 151. 145. 155. 175. 47. 43. 43. 176.
      182. 153. 150.</_>
    <_>
      144. 142. 169. 159. 42. 33. 43. 172. 123. 141. 142. 180. 45. 117.
      143. 140. 124. 151. 54. 113. 134. 39. 44. 131. 142. 142. 141. 121.
      42. 241. 135. 42. 147. 138. 143. 145. 142. 131. 38. 240. 143. 141.
      143. 147. 144. 142. 142. 183. 45. 243. 144. 143. 143. 143. 138.
      146. 190. 48. 186. 143. 145. 143. 141. 110. 36. 39. 44. 195. 141.
      141. 143. 141. 142. 140. 143. 133. 172. 92. 168. 126. 143. 141.
      142. 141. 141. 142. 143. 115. 39. 193. 144. 144. 140. 142. 141.
      143. 141. 138. 190. 72. 48. 48. 190. 143. 140. 142. 141. 138. 192.
      71. 68. 40. 119. 138. 141. 139. 142. 124. 46. 214. 240. 42. 178.
      131. 133. 134. 113. 75. 90. 142. 134. 156. 108. 66. 127. 47. 38.
      172. 138. 141.</_>
    <_>
      149. 146. 185. 163. 41. 42. 167. 184. 150. 153. 153. 114. 78. 157.
      151. 149. 195. 55. 106. 149. 128. 54. 155. 150. 150. 150. 149.
      178. 51. 154. 144. 51. 148. 153. 150. 153. 153. 207. 56. 142. 152.
      152. 149. 151. 151. 150. 153. 159. 46. 154. 151. 148. 150. 150.
      151. 155. 140. 45. 168. 150. 151. 151. 160. 38. 45. 56. 49. 142.
      147. 152. 152. 151. 151. 149. 152. 149. 177. 54. 171. 152. 150.
      151. 151. 150. 151. 150. 150. 178. 53. 244. 151. 149. 150. 151.
      152. 151. 150. 153. 50. 60. 69. 50. 209. 150. 152. 153. 148. 154.
      51. 58. 74. 49. 208. 150. 151. 149. 153. 195. 56. 244. 243. 50.
      160. 153. 149. 154. 192. 52. 101. 146. 151. 135. 173. 52. 38. 52.
      163. 170. 147. 155.</_>
    <_>
      147. 146. 215. 173. 142. 144. 181. 47. 134. 144. 142. 93. 202.
      142. 145. 145. 142. 119. 37. 142. 136. 35. 92. 142. 143. 144. 141.
      137. 35. 249. 139. 178. 131. 139. 137. 135. 138. 138. 36. 248.
      139. 136. 138. 137. 136. 137. 134. 121. 36. 138. 134. 138. 134.
      134. 135. 132. 125. 42. 132. 134. 133. 135. 133. 63. 244. 62. 196.
      124. 130. 134. 130. 129. 135. 135. 130. 131. 130. 192. 76. 131.
      130. 134. 134. 131. 130. 133. 131. 131. 30. 247. 132. 129. 131.
      134. 132. 135. 134. 131. 221. 29. 38. 35. 125. 130. 129. 130. 131.
      130. 156. 32. 40. 32. 127. 133. 133. 132. 132. 130. 32. 115. 98.
      32. 117. 127. 131. 132. 128. 141. 45. 129. 131. 132. 243. 26. 239.
      144. 55. 115. 130. 129.</_>
    <_>
      148. 141. 171. 47. 203. 202. 39. 164. 145. 145. 134. 35. 162. 143.
      143. 145. 140. 144. 97. 143. 114. 46. 182. 141. 145. 144. 142.
      130. 46. 150. 129. 93. 140. 141. 144. 143. 142. 135. 46. 140. 144.
      148. 147. 146. 145. 147. 143. 159. 56. 144. 144. 144. 146. 143.
      142. 142. 111. 82. 146. 146. 144. 143. 141. 35. 35. 55. 145. 141.
      141. 148. 144. 145. 144. 142. 142. 146. 132. 43. 137. 144. 146.
      145. 145. 145. 144. 144. 145. 134. 30. 103. 146. 147. 147. 147.
      144. 145. 145. 145. 186. 53. 205. 91. 146. 146. 147. 145. 145.
      147. 183. 56. 38. 48. 152. 146. 145. 142. 140. 135. 33. 240. 120.
      47. 147. 144. 142. 142. 136. 144. 62. 138. 140. 122. 44. 185. 154.
      203. 42. 124. 144. 142.</_>
    <_>
      129. 127. 129. 126. 130. 122. 39. 131. 128. 129. 126. 127. 126.
      126. 128. 143. 34. 131. 130. 129. 131. 131. 130. 130. 125. 37. 36.
      129. 129. 129. 129. 129. 130. 126. 38. 83. 35. 127. 132. 130. 129.
      128. 131. 144. 67. 111. 34. 129. 129. 130. 131. 130. 147. 44. 129.
      111. 36. 127. 130. 132. 131. 125. 38. 115. 131. 116. 37. 121. 130.
      133. 131. 157. 56. 130. 130. 116. 39. 118. 129. 132. 118. 44. 129.
      132. 130. 115. 39. 120. 128. 132. 69. 78. 102. 108. 105. 98. 39.
      97. 113. 118. 141. 138. 135. 135. 135. 123. 37. 122. 132. 204.
      133. 131. 130. 133. 133. 130. 38. 114. 131. 132. 135. 133. 133.
      134. 131. 118. 37. 107. 131. 133. 135. 135. 135. 135. 38. 42. 44.
      40. 34. 138.</_>
    <_>
      158. 153. 156. 156. 155. 163. 47. 165. 156. 155. 154. 155. 155.
      155. 153. 240. 53. 168. 157. 156. 156. 156. 154. 155. 122. 60. 55.
      161. 156. 157. 157. 157. 159. 162. 55. 95. 56. 162. 156. 157. 156.
      154. 155. 213. 84. 110. 54. 163. 157. 154. 155. 153. 155. 43. 159.
      112. 59. 165. 156. 155. 159. 157. 54. 166. 154. 115. 60. 168. 156.
      157. 155. 181. 84. 156. 155. 117. 59. 166. 156. 157. 154. 54. 149.
      155. 155. 121. 58. 163. 158. 155. 55. 120. 126. 119. 119. 94. 54.
      115. 236. 235. 201. 202. 201. 202. 200. 182. 54. 203. 206. 206.
      151. 156. 156. 155. 156. 135. 56. 166. 156. 154. 157. 155. 159.
      155. 156. 125. 56. 163. 154. 157. 156. 156. 155. 178. 48. 51. 50.
      49. 46. 150.</_>
    <_>
      143. 141. 139. 137. 141. 140. 190. 147. 138. 138. 137. 141. 138.
      137. 133. 129. 37. 151. 133. 137. 138. 139. 138. 137. 135. 43. 38.
      153. 137. 138. 136. 137. 138. 137. 77. 134. 38. 154. 134. 135.
      137. 136. 136. 174. 117. 134. 37. 149. 134. 132. 133. 135. 133.
      48. 134. 135. 33. 151. 135. 134. 135. 136. 36. 130. 132. 137. 37.
      152. 134. 134. 133. 152. 131. 133. 132. 129. 33. 150. 132. 135.
      131. 52. 135. 131. 130. 133. 34. 147. 133. 133. 40. 128. 129. 127.
      119. 127. 33. 135. 133. 130. 129. 125. 124. 125. 125. 125. 32.
      130. 164. 166. 136. 134. 133. 131. 132. 131. 33. 142. 133. 136.
      133. 132. 134. 131. 132. 131. 34. 146. 132. 135. 132. 133. 131.
      134. 26. 34. 37. 42. 231. 137.</_>
    <_>
      149. 149. 149. 148. 145. 143. 46. 153. 149. 148. 148. 147. 148.
      146. 144. 114. 52. 159. 144. 149. 149. 148. 148. 148. 140. 68. 46.
      163. 146. 147. 148. 148. 146. 139. 62. 145. 47. 160. 146. 149.
      149. 145. 145. 168. 150. 140. 46. 160. 144. 148. 147. 147. 127.
      69. 139. 139. 49. 158. 143. 148. 147. 147. 50. 141. 146. 140. 48.
      168. 144. 149. 143. 127. 145. 144. 145. 135. 43. 160. 144. 149.
      131. 71. 145. 143. 146. 133. 42. 156. 143. 148. 212. 150. 144.
      138. 143. 133. 47. 173. 148. 158. 225. 108. 110. 107. 128. 116.
      41. 131. 135. 146. 146. 149. 146. 145. 144. 138. 46. 159. 142.
      148. 149. 149. 148. 145. 145. 132. 43. 144. 147. 147. 146. 146.
      147. 142. 188. 26. 40. 43. 187. 150.</_>
    <_>
      128. 52. 27. 25. 30. 22. 21. 29. 27. 170. 130. 44. 239. 239. 238.
      238. 238. 237. 237. 131. 130. 40. 131. 129. 132. 131. 131. 131.
      129. 129. 127. 36. 132. 130. 132. 131. 132. 131. 131. 132. 123.
      99. 130. 129. 124. 125. 129. 132. 131. 130. 123. 154. 159. 35.
      129. 47. 36. 166. 123. 130. 172. 39. 164. 124. 131. 126. 108. 39.
      48. 129. 147. 183. 130. 132. 133. 131. 133. 146. 39. 164. 134.
      133. 135. 134. 134. 132. 133. 138. 39. 39. 127. 127. 132. 135.
      136. 135. 134. 133. 233. 43. 37. 39. 196. 135. 134. 133. 134. 133.
      40. 44. 36. 40. 202. 135. 135. 137. 135. 176. 41. 193. 159. 43.
      166. 123. 131. 128. 104. 42. 68. 133. 137. 124. 248. 50. 46. 51.
      51. 177. 134. 136.</_>
    <_>
      141. 68. 43. 42. 45. 42. 41. 45. 41. 152. 141. 71. 144. 145. 145.
      149. 149. 146. 154. 153. 139. 30. 140. 144. 143. 147. 148. 148.
      148. 155. 142. 224. 141. 140. 144. 147. 144. 146. 148. 154. 137.
      222. 142. 141. 144. 145. 144. 148. 146. 151. 136. 129. 162. 102.
      204. 200. 47. 176. 144. 148. 145. 41. 139. 142. 142. 144. 146.
      191. 72. 147. 142. 140. 140. 141. 142. 142. 143. 140. 40. 249.
      138. 139. 140. 139. 141. 140. 142. 143. 223. 51. 138. 140. 139.
      139. 139. 142. 140. 140. 109. 40. 36. 38. 136. 135. 133. 140. 140.
      137. 223. 50. 50. 37. 133. 136. 137. 139. 140. 139. 39. 249. 121.
      35. 138. 135. 138. 138. 138. 132. 74. 145. 135. 133. 110. 31. 222.
      223. 41. 203. 142. 147.</_>
    <_>
      132. 47. 31. 38. 36. 35. 43. 40. 42. 145. 135. 176. 147. 151. 152.
      150. 145. 146. 145. 146. 137. 179. 147. 147. 148. 149. 149. 149.
      148. 148. 128. 188. 146. 148. 149. 149. 149. 151. 152. 150. 119.
      135. 146. 147. 146. 146. 149. 149. 151. 150. 109. 140. 148. 49.
      246. 245. 36. 142. 146. 149. 98. 54. 149. 151. 147. 145. 141. 86.
      58. 142. 145. 147. 147. 149. 148. 148. 145. 138. 36. 235. 149.
      149. 149. 149. 148. 148. 147. 147. 150. 34. 147. 148. 149. 149.
      149. 148. 146. 146. 164. 48. 45. 47. 146. 147. 150. 148. 146. 147.
      153. 54. 32. 46. 145. 143. 149. 151. 147. 141. 40. 234. 95. 46.
      153. 149. 149. 145. 137. 86. 53. 143. 142. 125. 94. 177. 158. 180.
      46. 141. 144. 151.</_>
    <_>
      130. 133. 129. 122. 20. 38. 42. 28. 96. 127. 131. 125. 127. 43.
      106. 128. 116. 52. 40. 144. 130. 241. 38. 131. 131. 131. 128. 146.
      39. 189. 129. 36. 153. 131. 132. 132. 134. 130. 135. 126. 138. 39.
      116. 132. 132. 128. 132. 130. 131. 132. 190. 39. 132. 125. 74. 35.
      36. 162. 118. 128. 118. 233. 163. 47. 107. 128. 102. 48. 39. 116.
      37. 36. 54. 134. 134. 134. 134. 115. 39. 190. 37. 40. 136. 137.
      135. 133. 136. 135. 39. 39. 191. 42. 134. 135. 136. 136. 136. 133.
      27. 43. 148. 42. 130. 133. 135. 136. 136. 136. 34. 44. 127. 42.
      67. 134. 137. 135. 138. 123. 39. 191. 136. 241. 41. 102. 131. 132.
      128. 43. 67. 136. 136. 133. 120. 59. 49. 47. 53. 180. 135. 136.</_>
    <_>
      150. 151. 145. 184. 45. 121. 64. 50. 214. 142. 151. 146. 41. 62.
      142. 150. 152. 105. 52. 240. 147. 150. 95. 156. 152. 152. 152.
      195. 56. 240. 140. 51. 229. 149. 150. 151. 150. 148. 153. 148.
      240. 51. 152. 149. 147. 150. 146. 149. 152. 150. 92. 165. 152.
      128. 121. 50. 55. 199. 137. 148. 85. 46. 120. 59. 144. 154. 136.
      63. 52. 133. 86. 49. 79. 148. 151. 151. 149. 136. 51. 176. 86. 40.
      150. 150. 152. 151. 154. 154. 57. 84. 82. 39. 152. 152. 151. 151.
      151. 149. 52. 83. 238. 46. 154. 151. 153. 151. 152. 159. 50. 86.
      134. 59. 89. 147. 152. 152. 152. 120. 56. 240. 149. 193. 56. 128.
      146. 142. 152. 53. 136. 151. 153. 149. 184. 72. 51. 51. 60. 173.
      150. 155.</_>
    <_>
      153. 152. 148. 186. 45. 115. 48. 44. 175. 141. 150. 145. 190. 69.
      138. 143. 139. 101. 47. 234. 148. 152. 96. 156. 152. 150. 152.
      223. 53. 236. 137. 46. 223. 151. 152. 152. 151. 147. 154. 153.
      238. 50. 132. 152. 149. 150. 151. 150. 154. 153. 80. 164. 150.
      131. 124. 61. 69. 67. 195. 150. 74. 53. 118. 57. 132. 152. 128.
      59. 51. 116. 75. 47. 78. 149. 150. 151. 152. 131. 47. 86. 66. 53.
      153. 154. 151. 151. 152. 147. 65. 82. 66. 54. 147. 150. 152. 151.
      150. 149. 68. 83. 236. 49. 135. 150. 150. 153. 151. 148. 53. 82.
      133. 48. 95. 150. 151. 151. 152. 134. 49. 233. 147. 189. 54. 111.
      151. 149. 149. 46. 139. 152. 151. 147. 178. 179. 48. 42. 56. 170.
      150. 152.</_>
    <_>
      157. 154. 147. 182. 49. 53. 56. 46. 175. 145. 155. 155. 59. 71.
      152. 151. 146. 111. 59. 239. 162. 147. 95. 151. 158. 154. 155.
      114. 58. 239. 128. 58. 175. 156. 156. 156. 157. 156. 163. 152.
      202. 78. 151. 157. 156. 156. 158. 157. 157. 156. 93. 165. 153.
      116. 59. 56. 52. 68. 148. 151. 90. 66. 58. 63. 151. 158. 132. 63.
      55. 136. 88. 58. 103. 157. 158. 158. 156. 135. 63. 178. 91. 65.
      153. 156. 158. 157. 158. 153. 65. 88. 91. 60. 147. 159. 157. 157.
      158. 155. 70. 86. 163. 52. 151. 155. 157. 159. 153. 160. 66. 82.
      219. 62. 114. 156. 158. 158. 156. 130. 62. 237. 155. 148. 58. 143.
      153. 157. 159. 62. 137. 154. 153. 154. 178. 64. 45. 48. 48. 172.
      151. 157.</_>
    <_>
      161. 163. 167. 139. 51. 240. 180. 56. 232. 171. 161. 162. 101.
      184. 168. 172. 170. 144. 55. 250. 161. 137. 203. 168. 167. 170.
      174. 169. 55. 183. 155. 47. 161. 167. 167. 167. 168. 171. 169.
      173. 248. 41. 162. 165. 163. 165. 168. 168. 170. 172. 61. 223.
      160. 155. 209. 48. 50. 197. 165. 171. 44. 137. 215. 131. 163. 161.
      166. 69. 56. 169. 45. 50. 155. 161. 161. 163. 165. 166. 56. 249.
      43. 111. 156. 161. 162. 162. 168. 168. 95. 57. 47. 103. 161. 161.
      161. 166. 166. 168. 112. 52. 60. 59. 156. 161. 164. 165. 169. 168.
      75. 65. 125. 47. 157. 160. 164. 166. 168. 165. 55. 208. 157. 234.
      85. 162. 165. 164. 168. 80. 109. 170. 157. 160. 145. 63. 85. 86.
      61. 177. 171. 169.</_>
    <_>
      148. 147. 144. 216. 46. 140. 79. 40. 179. 147. 149. 138. 32. 145.
      147. 148. 141. 139. 39. 110. 141. 48. 172. 147. 148. 148. 148.
      129. 36. 146. 136. 54. 154. 144. 149. 150. 150. 149. 146. 150. 43.
      49. 142. 147. 149. 148. 148. 150. 150. 151. 32. 147. 146. 143. 66.
      27. 39. 235. 147. 149. 42. 161. 164. 141. 146. 149. 144. 58. 40.
      148. 36. 46. 145. 150. 150. 148. 149. 141. 35. 239. 33. 94. 147.
      151. 150. 149. 147. 148. 71. 47. 36. 90. 147. 151. 150. 150. 147.
      147. 102. 48. 44. 55. 149. 151. 150. 149. 148. 146. 52. 52. 126.
      50. 149. 149. 150. 148. 147. 144. 31. 147. 146. 191. 78. 148. 148.
      146. 147. 87. 91. 143. 148. 149. 127. 38. 91. 86. 32. 133. 148.
      150.</_>
    <_>
      128. 39. 47. 45. 36. 44. 41. 38. 39. 35. 113. 38. 47. 90. 175. 94.
      91. 98. 77. 155. 157. 86. 131. 131. 128. 133. 133. 102. 43. 128.
      70. 126. 132. 132. 132. 132. 131. 41. 149. 131. 169. 131. 126.
      132. 128. 132. 212. 187. 127. 132. 132. 131. 132. 134. 132. 118.
      40. 131. 135. 132. 132. 130. 134. 135. 132. 98. 223. 133. 133.
      133. 134. 136. 135. 134. 148. 39. 138. 133. 134. 134. 133. 135.
      136. 131. 89. 125. 134. 134. 136. 134. 135. 134. 135. 98. 41. 105.
      137. 133. 133. 136. 137. 138. 136. 78. 40. 135. 137. 137. 135.
      138. 138. 138. 142. 42. 42. 138. 137. 139. 138. 140. 138. 141.
      142. 44. 45. 138. 137. 138. 139. 139. 139. 140. 134. 52. 53. 135.
      141. 140. 138. 142.</_>
    <_>
      160. 90. 55. 60. 57. 58. 58. 62. 63. 68. 140. 61. 200. 129. 123.
      122. 128. 132. 67. 250. 250. 225. 153. 159. 158. 159. 162. 165.
      100. 148. 69. 172. 157. 158. 159. 158. 162. 70. 213. 156. 174.
      159. 158. 159. 160. 156. 186. 112. 155. 158. 157. 159. 159. 159.
      159. 172. 62. 138. 156. 157. 160. 159. 157. 158. 156. 169. 142.
      154. 162. 162. 158. 158. 158. 159. 192. 65. 145. 156. 158. 159.
      158. 157. 153. 159. 149. 145. 153. 158. 158. 156. 160. 159. 152.
      143. 64. 206. 158. 159. 159. 159. 158. 156. 152. 205. 62. 134.
      158. 158. 158. 156. 159. 157. 152. 130. 58. 142. 161. 159. 159.
      160. 157. 156. 148. 130. 56. 142. 161. 161. 156. 159. 158. 157.
      157. 130. 55. 148. 160. 160. 159. 161.</_>
    <_>
      156. 86. 53. 51. 49. 47. 52. 52. 49. 53. 163. 59. 200. 248. 247.
      248. 193. 92. 58. 239. 223. 188. 150. 154. 152. 153. 151. 167. 73.
      152. 159. 166. 155. 153. 151. 155. 151. 65. 181. 154. 164. 149.
      154. 154. 152. 154. 166. 99. 148. 154. 155. 150. 155. 155. 150.
      139. 55. 144. 155. 153. 154. 154. 155. 154. 153. 167. 120. 149.
      154. 155. 152. 153. 151. 151. 155. 57. 135. 154. 157. 155. 151.
      152. 154. 151. 149. 141. 153. 151. 156. 156. 152. 152. 150. 132.
      55. 200. 154. 155. 156. 153. 155. 150. 145. 207. 55. 123. 153.
      155. 152. 153. 153. 151. 152. 125. 53. 135. 152. 155. 152. 153.
      153. 150. 152. 119. 51. 135. 151. 155. 156. 152. 154. 153. 149.
      126. 47. 143. 152. 153. 155. 153.</_>
    <_>
      182. 66. 63. 65. 64. 65. 65. 67. 67. 59. 170. 88. 186. 186. 187.
      187. 192. 195. 189. 175. 237. 180. 186. 189. 193. 190. 191. 189.
      75. 194. 84. 182. 186. 188. 189. 189. 189. 99. 188. 194. 179. 183.
      185. 183. 188. 189. 169. 203. 191. 196. 183. 184. 184. 186. 188.
      184. 60. 189. 192. 190. 180. 183. 181. 186. 186. 236. 178. 189.
      192. 192. 181. 183. 184. 185. 170. 62. 188. 190. 191. 193. 180.
      183. 186. 182. 89. 136. 188. 190. 189. 189. 180. 182. 183. 175.
      63. 188. 185. 189. 189. 187. 181. 183. 185. 218. 60. 183. 187.
      187. 187. 191. 180. 181. 182. 69. 61. 183. 188. 187. 188. 188.
      183. 181. 178. 61. 60. 183. 187. 184. 186. 186. 179. 180. 180. 81.
      235. 183. 185. 183. 187. 184.</_>
    <_>
      146. 38. 37. 36. 39. 42. 45. 39. 44. 50. 145. 43. 162. 151. 148.
      144. 145. 148. 133. 120. 244. 143. 150. 149. 149. 148. 149. 146.
      46. 145. 50. 147. 152. 150. 147. 150. 146. 93. 153. 149. 145. 146.
      150. 149. 150. 153. 138. 201. 148. 152. 150. 149. 151. 150. 148.
      139. 44. 146. 149. 150. 149. 150. 148. 147. 150. 167. 160. 147.
      150. 151. 150. 151. 149. 148. 143. 50. 146. 149. 150. 151. 150.
      149. 147. 147. 162. 152. 150. 152. 150. 151. 151. 148. 149. 144.
      45. 150. 148. 150. 151. 150. 148. 146. 147. 145. 43. 155. 150.
      150. 151. 151. 149. 145. 146. 54. 46. 149. 151. 150. 150. 151.
      149. 147. 142. 35. 45. 148. 150. 151. 151. 150. 148. 146. 146. 87.
      38. 147. 151. 151. 151. 151.</_>
    <_>
      131. 125. 217. 36. 44. 54. 32. 93. 127. 131. 130. 244. 48. 126.
      128. 129. 89. 44. 244. 128. 121. 40. 118. 132. 132. 136. 131. 73.
      41. 122. 179. 40. 119. 132. 131. 134. 130. 88. 41. 128. 121. 37.
      57. 127. 130. 133. 131. 38. 244. 130. 127. 245. 38. 38. 94. 117.
      40. 45. 128. 134. 134. 132. 87. 42. 41. 42. 157. 108. 129. 132.
      134. 122. 40. 56. 101. 61. 43. 43. 27. 123. 119. 39. 85. 137. 134.
      131. 128. 65. 43. 178. 181. 41. 132. 135. 136. 137. 135. 135. 57.
      183. 41. 34. 129. 136. 135. 139. 138. 136. 80. 32. 181. 41. 130.
      140. 138. 140. 137. 142. 46. 178. 165. 43. 62. 128. 135. 135. 132.
      60. 46. 135. 137. 117. 107. 46. 36. 39. 48. 255. 138. 140.</_>
    <_>
      200. 200. 132. 129. 203. 162. 91. 167. 200. 207. 198. 69. 196.
      201. 200. 199. 199. 128. 214. 202. 200. 147. 198. 200. 201. 201.
      196. 186. 72. 194. 251. 124. 197. 199. 202. 201. 196. 187. 70.
      194. 164. 67. 179. 199. 200. 197. 196. 137. 238. 196. 197. 162.
      70. 79. 177. 193. 102. 209. 198. 197. 199. 200. 183. 148. 67. 67.
      182. 188. 199. 197. 194. 180. 66. 192. 198. 188. 100. 69. 185.
      190. 168. 72. 195. 196. 196. 192. 190. 184. 85. 249. 68. 148. 191.
      193. 192. 191. 192. 192. 175. 67. 69. 153. 190. 190. 191. 189.
      191. 190. 181. 72. 80. 132. 189. 187. 185. 187. 185. 188. 170. 86.
      156. 68. 169. 182. 182. 180. 182. 180. 65. 186. 183. 176. 142. 53.
      118. 112. 58. 232. 184. 184.</_>
    <_>
      149. 146. 120. 50. 113. 107. 31. 174. 151. 151. 150. 102. 151.
      150. 149. 148. 148. 94. 118. 150. 145. 68. 143. 152. 150. 147.
      148. 144. 52. 152. 107. 65. 148. 150. 151. 149. 148. 147. 50. 156.
      135. 48. 137. 149. 148. 149. 149. 118. 93. 148. 150. 188. 41. 56.
      152. 143. 94. 76. 148. 150. 149. 146. 141. 148. 41. 39. 214. 157.
      149. 148. 149. 142. 110. 141. 142. 154. 27. 41. 94. 146. 147. 47.
      151. 148. 149. 150. 147. 143. 44. 113. 42. 69. 149. 153. 153. 150.
      150. 149. 141. 49. 37. 89. 147. 149. 151. 152. 149. 150. 143. 47.
      40. 53. 147. 150. 151. 151. 150. 149. 151. 68. 132. 47. 148. 150.
      150. 150. 150. 141. 41. 151. 148. 146. 220. 36. 83. 82. 40. 173.
      150. 151.</_>
    <_>
      130. 129. 250. 50. 48. 48. 43. 141. 128. 127. 129. 94. 45. 120.
      130. 129. 95. 53. 215. 122. 188. 41. 106. 133. 131. 132. 128. 91.
      42. 134. 44. 44. 125. 133. 135. 135. 130. 134. 47. 201. 46. 35.
      127. 133. 135. 133. 130. 129. 54. 33. 52. 39. 129. 136. 136. 135.
      132. 128. 42. 43. 205. 45. 106. 135. 134. 135. 133. 76. 43. 42.
      133. 53. 44. 112. 126. 122. 54. 118. 55. 43. 135. 120. 136. 54.
      50. 54. 196. 132. 204. 44. 137. 137. 135. 135. 137. 139. 137. 138.
      45. 202. 137. 135. 134. 138. 138. 138. 139. 132. 46. 149. 203. 46.
      98. 135. 136. 139. 136. 87. 98. 128. 131. 41. 95. 122. 132. 130.
      187. 39. 132. 139. 136. 213. 53. 48. 48. 46. 249. 138. 141. 135.</_>
    <_>
      153. 153. 184. 178. 34. 41. 174. 192. 153. 154. 156. 156. 52. 146.
      154. 160. 118. 58. 169. 152. 225. 55. 161. 155. 157. 157. 153.
      114. 56. 232. 95. 50. 153. 154. 157. 153. 156. 170. 52. 119. 94.
      67. 152. 154. 154. 153. 155. 154. 64. 98. 96. 56. 151. 155. 157.
      154. 154. 155. 66. 98. 108. 49. 157. 155. 152. 155. 154. 84. 54.
      93. 137. 58. 53. 147. 152. 165. 59. 39. 64. 99. 153. 167. 188. 47.
      47. 160. 175. 155. 138. 96. 153. 155. 153. 152. 153. 151. 155.
      167. 51. 228. 150. 189. 148. 153. 155. 154. 153. 255. 56. 133. 85.
      52. 255. 156. 153. 153. 144. 63. 175. 151. 229. 53. 91. 146. 160.
      135. 73. 44. 150. 155. 151. 180. 176. 49. 43. 175. 184. 150. 155.
      156.</_>
    <_>
      154. 152. 183. 44. 54. 53. 50. 173. 147. 151. 157. 131. 57. 148.
      146. 151. 142. 65. 143. 146. 214. 54. 117. 152. 153. 154. 152.
      117. 52. 218. 73. 45. 164. 151. 152. 152. 154. 157. 47. 153. 81.
      43. 156. 151. 152. 153. 154. 156. 52. 80. 221. 41. 158. 150. 154.
      152. 153. 156. 51. 83. 239. 54. 117. 150. 154. 154. 156. 79. 50.
      82. 153. 146. 56. 112. 152. 151. 40. 121. 57. 82. 157. 145. 202.
      64. 52. 58. 125. 157. 164. 77. 153. 152. 151. 153. 155. 153. 151.
      157. 53. 239. 149. 155. 149. 152. 155. 152. 154. 230. 51. 149.
      242. 55. 99. 148. 154. 154. 166. 95. 158. 150. 241. 54. 103. 139.
      150. 162. 67. 34. 150. 154. 150. 180. 50. 48. 41. 90. 179. 155.
      153. 156.</_>
    <_>
      204. 203. 133. 88. 192. 156. 115. 179. 207. 202. 199. 72. 188.
      204. 204. 205. 204. 126. 158. 201. 250. 85. 198. 202. 205. 205.
      207. 193. 82. 185. 92. 129. 198. 202. 202. 205. 205. 201. 120.
      221. 88. 131. 199. 197. 201. 203. 205. 201. 150. 94. 105. 113.
      202. 202. 202. 202. 203. 198. 162. 76. 156. 74. 185. 200. 196.
      201. 203. 189. 73. 69. 193. 239. 78. 181. 195. 197. 159. 209. 167.
      81. 194. 193. 182. 249. 87. 248. 198. 196. 167. 83. 196. 197. 196.
      194. 196. 198. 199. 195. 231. 249. 193. 196. 195. 197. 195. 197.
      198. 189. 80. 162. 179. 68. 209. 197. 192. 194. 197. 177. 103.
      193. 173. 76. 71. 184. 194. 196. 180. 72. 196. 195. 189. 176. 147.
      67. 219. 57. 242. 194. 194. 195.</_>
    <_>
      149. 146. 209. 41. 120. 104. 32. 130. 151. 150. 148. 32. 132. 146.
      149. 148. 146. 66. 212. 151. 239. 49. 148. 150. 151. 149. 148.
      145. 48. 149. 40. 83. 150. 151. 151. 150. 149. 147. 30. 240. 42.
      106. 149. 150. 151. 150. 149. 150. 70. 37. 43. 83. 150. 150. 150.
      149. 148. 146. 83. 41. 205. 44. 147. 151. 149. 148. 147. 141. 39.
      42. 139. 40. 71. 149. 147. 144. 109. 174. 164. 44. 150. 144. 179.
      31. 30. 154. 148. 148. 184. 39. 151. 152. 155. 149. 149. 148. 150.
      147. 28. 240. 149. 150. 151. 153. 153. 150. 149. 150. 44. 153.
      138. 30. 130. 149. 150. 149. 146. 144. 170. 149. 243. 43. 149.
      149. 150. 148. 124. 39. 148. 154. 146. 181. 43. 86. 146. 33. 147.
      150. 151. 153.</_>
    <_>
      129. 131. 129. 157. 22. 178. 130. 130. 130. 130. 126. 130. 129.
      125. 38. 173. 129. 129. 130. 131. 128. 130. 131. 127. 36. 167.
      126. 128. 129. 133. 126. 128. 128. 126. 129. 164. 129. 131. 130.
      130. 130. 131. 128. 129. 159. 157. 130. 130. 131. 134. 129. 129.
      127. 128. 161. 157. 130. 128. 129. 133. 200. 201. 199. 199. 41.
      36. 201. 199. 200. 200. 32. 35. 203. 203. 43. 42. 202. 202. 35.
      37. 129. 132. 128. 128. 153. 159. 135. 128. 133. 129. 131. 134.
      128. 133. 157. 159. 134. 129. 132. 134. 131. 133. 133. 130. 161.
      160. 134. 131. 132. 133. 129. 133. 133. 131. 167. 71. 132. 132.
      132. 134. 131. 133. 131. 131. 169. 39. 129. 132. 135. 133. 131.
      134. 134. 131. 180. 34. 131. 132. 133. 135.</_>
    <_>
      147. 148. 150. 144. 136. 143. 146. 147. 148. 145. 149. 150. 149.
      148. 138. 142. 144. 147. 149. 147. 148. 149. 149. 146. 137. 143.
      145. 147. 151. 147. 148. 147. 149. 148. 137. 144. 144. 146. 150.
      148. 150. 149. 147. 145. 138. 142. 144. 147. 148. 149. 145. 145.
      145. 139. 135. 181. 144. 144. 145. 145. 72. 76. 244. 244. 55. 143.
      244. 244. 71. 93. 80. 78. 201. 243. 57. 62. 243. 80. 77. 93. 145.
      146. 144. 144. 133. 179. 145. 146. 146. 148. 151. 153. 152. 147.
      138. 143. 147. 150. 152. 149. 153. 152. 149. 146. 136. 142. 147.
      151. 150. 151. 150. 152. 149. 145. 134. 141. 148. 149. 149. 149.
      150. 150. 151. 145. 132. 142. 149. 152. 150. 149. 150. 151. 151.
      146. 142. 146. 150. 149. 149. 152.</_>
    <_>
      158. 156. 155. 162. 59. 134. 157. 156. 156. 155. 158. 155. 156.
      160. 151. 133. 156. 155. 156. 154. 156. 155. 157. 160. 150. 192.
      156. 157. 155. 157. 156. 157. 154. 161. 146. 134. 154. 156. 157.
      156. 157. 155. 153. 159. 148. 188. 156. 155. 154. 157. 152. 153.
      151. 156. 147. 188. 152. 153. 154. 152. 66. 60. 50. 60. 53. 60.
      60. 53. 54. 52. 89. 245. 245. 246. 66. 145. 246. 245. 245. 249.
      154. 153. 153. 155. 147. 185. 155. 152. 154. 156. 154. 155. 154.
      159. 146. 137. 155. 155. 156. 156. 157. 156. 155. 153. 143. 137.
      153. 156. 154. 155. 156. 156. 156. 152. 144. 137. 155. 156. 155.
      157. 156. 155. 156. 153. 148. 136. 155. 156. 155. 155. 158. 155.
      156. 153. 141. 135. 154. 156. 156. 158.</_>
    <_>
      146. 147. 148. 147. 147. 146. 147. 148. 149. 150. 145. 146. 148.
      144. 136. 141. 147. 146. 148. 149. 146. 148. 147. 145. 136. 142.
      146. 147. 149. 148. 148. 148. 148. 145. 137. 138. 145. 146. 147.
      149. 147. 146. 146. 146. 140. 143. 149. 148. 148. 149. 143. 143.
      142. 139. 180. 140. 145. 144. 143. 138. 176. 173. 174. 172. 103.
      49. 172. 172. 172. 61. 176. 173. 174. 151. 104. 104. 155. 174.
      175. 177. 147. 146. 148. 144. 181. 181. 142. 147. 147. 146. 146.
      147. 149. 145. 133. 143. 144. 148. 147. 149. 149. 148. 146. 144.
      138. 139. 147. 148. 149. 149. 148. 147. 147. 146. 137. 139. 143.
      147. 150. 148. 148. 147. 147. 145. 137. 141. 147. 148. 147. 149.
      147. 149. 146. 146. 151. 156. 145. 148. 149. 148.</_>
    <_>
      153. 152. 152. 150. 132. 133. 152. 151. 153. 153. 154. 153. 151.
      150. 133. 142. 154. 151. 152. 154. 154. 154. 151. 149. 133. 142.
      153. 154. 152. 153. 156. 155. 151. 150. 131. 142. 154. 151. 154.
      154. 154. 150. 152. 149. 166. 141. 154. 154. 151. 156. 152. 150.
      150. 147. 184. 142. 152. 148. 150. 154. 71. 246. 245. 246. 50. 55.
      245. 245. 49. 64. 82. 71. 244. 244. 146. 56. 245. 244. 219. 87.
      153. 151. 149. 146. 185. 139. 152. 148. 149. 151. 153. 153. 154.
      150. 186. 137. 156. 153. 152. 152. 152. 153. 150. 149. 131. 141.
      156. 152. 151. 152. 150. 153. 151. 151. 134. 139. 158. 151. 155.
      156. 153. 152. 151. 150. 133. 142. 157. 151. 153. 152. 152. 152.
      153. 151. 131. 141. 156. 151. 152. 156.</_>
    <_>
      156. 154. 155. 160. 46. 23. 154. 154. 156. 153. 157. 156. 154.
      157. 236. 235. 153. 157. 155. 154. 156. 158. 156. 157. 235. 235.
      153. 156. 156. 154. 158. 158. 156. 158. 236. 235. 154. 157. 156.
      156. 157. 157. 155. 159. 236. 235. 153. 156. 155. 155. 154. 151.
      153. 154. 235. 235. 152. 149. 150. 149. 82. 57. 51. 51. 61. 55.
      55. 52. 55. 70. 247. 247. 248. 247. 71. 65. 248. 248. 247. 248.
      154. 155. 154. 153. 235. 235. 155. 154. 153. 155. 156. 158. 156.
      158. 235. 235. 158. 154. 153. 155. 156. 159. 157. 158. 236. 235.
      159. 157. 156. 157. 158. 159. 157. 158. 236. 235. 158. 157. 155.
      157. 157. 157. 157. 155. 236. 77. 157. 156. 157. 156. 158. 157.
      157. 159. 234. 41. 158. 155. 157. 157.</_>
    <_>
      152. 154. 153. 154. 60. 133. 151. 152. 154. 153. 152. 154. 154.
      152. 145. 134. 153. 152. 153. 154. 150. 153. 152. 152. 142. 136.
      151. 151. 153. 152. 152. 154. 150. 150. 145. 134. 149. 151. 152.
      154. 153. 153. 149. 151. 147. 130. 150. 152. 151. 153. 152. 151.
      150. 151. 145. 185. 152. 151. 151. 152. 51. 177. 177. 178. 56.
      111. 178. 177. 158. 44. 172. 170. 168. 159. 108. 105. 162. 163.
      169. 169. 152. 151. 150. 147. 142. 182. 148. 151. 150. 150. 152.
      153. 151. 148. 141. 132. 149. 154. 152. 153. 151. 155. 150. 148.
      142. 136. 151. 153. 153. 153. 151. 153. 151. 147. 142. 140. 150.
      152. 151. 155. 153. 155. 152. 147. 141. 138. 150. 151. 152. 153.
      151. 153. 152. 151. 243. 154. 150. 153. 154. 148.</_>
    <_>
      153. 152. 150. 150. 125. 154. 151. 152. 155. 155. 153. 153. 151.
      152. 142. 156. 155. 155. 152. 153. 155. 154. 152. 151. 142. 158.
      152. 152. 153. 155. 152. 151. 151. 150. 141. 160. 151. 154. 155.
      154. 152. 151. 151. 150. 140. 159. 153. 154. 154. 151. 150. 152.
      152. 149. 142. 155. 150. 149. 149. 154. 129. 127. 121. 113. 91.
      101. 213. 251. 251. 250. 132. 124. 125. 137. 136. 141. 145. 154.
      157. 159. 151. 154. 152. 150. 147. 158. 152. 152. 154. 154. 155.
      150. 151. 152. 152. 161. 153. 155. 154. 155. 155. 152. 152. 152.
      149. 155. 152. 154. 154. 154. 154. 153. 151. 152. 146. 157. 153.
      153. 154. 154. 153. 154. 153. 153. 149. 154. 151. 153. 154. 153.
      153. 154. 153. 154. 154. 165. 154. 151. 153. 153.</_>
    <_>
      255. 255. 255. 255. 255. 255. 255. 255. 255. 255. 222. 223. 224.
      223. 223. 223. 223. 223. 222. 222. 125. 129. 129. 128. 129. 128.
      127. 128. 123. 125. 27. 35. 35. 34. 34. 33. 32. 34. 25. 27. 28.
      38. 38. 37. 38. 37. 36. 37. 33. 34. 28. 42. 41. 41. 41. 42. 41.
      42. 41. 42. 28. 43. 43. 43. 43. 45. 43. 44. 44. 44. 28. 42. 43.
      43. 43. 46. 46. 45. 44. 45. 27. 41. 42. 43. 42. 46. 46. 46. 43.
      44. 25. 38. 38. 40. 36. 42. 42. 44. 39. 41. 24. 35. 34. 36. 31.
      38. 39. 43. 36. 38. 123. 129. 128. 130. 127. 131. 131. 134. 130.
      131. 222. 223. 223. 224. 223. 224. 224. 225. 224. 224. 255. 255.
      255. 255. 255. 255. 255. 255. 255. 255.</_>
    <_>
      255. 255. 255. 255. 255. 255. 255. 255. 255. 255. 247. 248. 248.
      247. 248. 248. 248. 248. 248. 248. 174. 174. 174. 173. 176. 175.
      174. 177. 175. 180. 100. 101. 101. 99. 104. 102. 101. 105. 101.
      111. 48. 50. 50. 48. 53. 51. 50. 55. 51. 63. 49. 52. 52. 50. 55.
      52. 52. 55. 52. 62. 49. 53. 54. 53. 56. 54. 54. 55. 53. 61. 50.
      53. 54. 54. 56. 54. 55. 55. 53. 59. 51. 51. 54. 54. 55. 54. 56.
      53. 52. 57. 52. 50. 54. 53. 54. 53. 56. 52. 51. 55. 103. 101. 105.
      104. 104. 104. 106. 103. 102. 103. 175. 174. 176. 176. 176. 176.
      177. 175. 175. 172. 248. 247. 248. 248. 248. 248. 248. 248. 248.
      241. 255. 255. 255. 255. 255. 255. 255. 255. 255. 248.</_>
    <_>
      249. 255. 106. 104. 104. 103. 255. 105. 255. 249. 223. 226. 127.
      126. 126. 124. 225. 126. 225. 219. 145. 140. 191. 190. 190. 189.
      136. 190. 133. 127. 67. 54. 255. 255. 255. 255. 47. 255. 42. 36.
      65. 53. 167. 168. 169. 168. 50. 168. 46. 41. 63. 51. 80. 81. 84.
      82. 54. 81. 50. 47. 63. 52. 53. 54. 55. 54. 55. 53. 51. 106. 63.
      55. 57. 55. 55. 54. 55. 55. 51. 192. 63. 57. 87. 85. 83. 83. 83.
      84. 75. 250. 61. 56. 171. 170. 169. 169. 169. 170. 150. 250. 58.
      55. 255. 255. 255. 255. 255. 255. 224. 250. 140. 141. 192. 193.
      194. 197. 195. 195. 187. 250. 221. 226. 129. 132. 133. 140. 136.
      136. 151. 250. 249. 255. 108. 112. 112. 121. 116. 116. 138. 250.</_>
    <_>
      249. 255. 102. 95. 98. 255. 255. 255. 255. 255. 220. 225. 123.
      118. 120. 225. 225. 225. 225. 225. 134. 136. 189. 186. 187. 135.
      137. 134. 136. 136. 47. 46. 255. 255. 255. 45. 49. 43. 47. 47. 52.
      47. 167. 167. 167. 47. 49. 47. 50. 50. 56. 48. 80. 79. 80. 48. 48.
      51. 52. 53. 57. 49. 52. 51. 51. 49. 49. 51. 53. 55. 54. 50. 54.
      51. 52. 50. 50. 50. 53. 55. 53. 48. 76. 81. 82. 80. 80. 78. 82.
      84. 54. 41. 138. 168. 168. 167. 167. 167. 168. 169. 55. 33. 201.
      255. 255. 255. 255. 255. 255. 255. 138. 128. 175. 194. 199. 197.
      196. 200. 200. 204. 221. 223. 150. 133. 144. 139. 137. 145. 144.
      152. 249. 255. 142. 112. 126. 119. 117. 127. 126. 135.</_>
    <_>
      141. 125. 121. 110. 106. 99. 99. 255. 255. 255. 157. 144. 140.
      131. 127. 121. 122. 224. 224. 225. 206. 199. 197. 193. 191. 188.
      188. 133. 130. 135. 255. 255. 255. 255. 255. 255. 255. 42. 37. 45.
      167. 165. 165. 161. 160. 158. 159. 36. 34. 43. 80. 76. 75. 67. 65.
      62. 62. 31. 31. 41. 47. 45. 44. 37. 33. 31. 31. 30. 30. 41. 41.
      44. 43. 38. 32. 34. 32. 31. 31. 41. 38. 42. 42. 39. 32. 35. 64.
      63. 63. 72. 38. 40. 40. 40. 34. 37. 159. 159. 159. 163. 38. 38.
      37. 40. 37. 39. 255. 255. 255. 255. 131. 131. 131. 132. 130. 132.
      189. 191. 193. 195. 224. 224. 224. 224. 224. 224. 123. 128. 131.
      135. 255. 255. 255. 255. 255. 255. 101. 107. 110. 116.</_>
    <_>
      131. 132. 131. 132. 132. 129. 188. 39. 145. 131. 130. 131. 131.
      136. 123. 44. 157. 123. 133. 133. 132. 130. 167. 41. 78. 165. 131.
      133. 132. 133. 133. 161. 39. 149. 116. 131. 131. 132. 133. 132.
      193. 37. 41. 194. 132. 130. 133. 137. 137. 134. 172. 41. 148. 126.
      132. 132. 129. 132. 132. 133. 167. 42. 145. 130. 136. 133. 133.
      135. 134. 135. 172. 42. 149. 132. 134. 132. 133. 133. 132. 133.
      195. 37. 124. 129. 132. 135. 135. 133. 134. 134. 131. 143. 40.
      145. 135. 132. 133. 134. 134. 134. 132. 127. 147. 42. 161. 136.
      135. 136. 136. 136. 134. 134. 132. 168. 41. 150. 125. 134. 134.
      135. 134. 134. 134. 134. 146. 207. 43. 157. 127. 133. 134. 133.
      133. 133. 136. 133. 134. 150. 133. 143.</_>
    <_>
      154. 154. 152. 152. 153. 155. 161. 98. 41. 190. 155. 155. 155.
      159. 184. 55. 143. 153. 152. 154. 153. 156. 113. 96. 49. 213. 150.
      153. 154. 155. 153. 154. 51. 54. 198. 154. 153. 151. 155. 155.
      206. 57. 56. 207. 155. 151. 154. 154. 153. 153. 176. 57. 46. 182.
      151. 154. 155. 152. 152. 155. 171. 54. 255. 154. 154. 154. 155.
      155. 155. 154. 173. 55. 255. 152. 151. 153. 154. 155. 154. 154.
      184. 57. 48. 184. 151. 154. 154. 154. 153. 155. 145. 204. 54. 213.
      155. 155. 156. 155. 154. 152. 155. 173. 54. 53. 175. 154. 154.
      155. 155. 154. 153. 153. 145. 105. 57. 190. 156. 154. 156. 153.
      154. 152. 154. 154. 164. 133. 70. 211. 147. 153. 154. 154. 154.
      154. 154. 153. 147. 230. 59. 166.</_>
    <_>
      153. 156. 153. 153. 149. 145. 138. 40. 246. 154. 152. 153. 151.
      145. 255. 51. 135. 145. 146. 154. 152. 149. 122. 51. 255. 159.
      151. 153. 151. 153. 148. 255. 45. 255. 156. 151. 150. 151. 151.
      152. 102. 44. 37. 164. 149. 154. 154. 153. 153. 151. 32. 45. 255.
      157. 149. 152. 153. 153. 153. 152. 24. 40. 106. 147. 151. 152.
      153. 153. 154. 154. 25. 48. 102. 147. 152. 153. 154. 154. 154.
      153. 255. 46. 255. 158. 151. 153. 152. 153. 153. 154. 146. 38. 30.
      157. 148. 151. 153. 153. 154. 154. 148. 123. 36. 44. 170. 153.
      153. 152. 153. 153. 148. 145. 137. 38. 55. 140. 153. 150. 151.
      151. 150. 151. 150. 146. 136. 40. 223. 155. 153. 151. 154. 153.
      152. 152. 151. 149. 148. 241. 50. 125.</_>
    <_>
      145. 23. 195. 133. 133. 135. 137. 135. 134. 134. 133. 133. 163.
      66. 125. 129. 135. 132. 134. 136. 132. 133. 134. 137. 159. 42.
      113. 151. 132. 133. 135. 135. 136. 133. 135. 191. 41. 39. 197.
      135. 134. 133. 134. 136. 135. 136. 191. 44. 75. 168. 135. 134.
      134. 134. 136. 136. 136. 147. 42. 172. 133. 134. 135. 132. 135.
      134. 139. 183. 41. 147. 135. 135. 135. 133. 136. 135. 137. 192.
      46. 150. 136. 135. 136. 136. 135. 135. 140. 165. 42. 149. 135.
      135. 134. 137. 133. 133. 145. 110. 43. 191. 135. 137. 135. 136.
      137. 125. 148. 45. 146. 136. 135. 136. 136. 134. 120. 149. 45.
      169. 135. 137. 137. 133. 133. 155. 46. 124. 141. 134. 137. 136.
      136. 140. 51. 193. 136. 138. 139. 140. 141. 138.</_>
    <_>
      193. 67. 200. 146. 159. 161. 162. 163. 162. 163. 161. 156. 180.
      115. 76. 189. 151. 162. 161. 161. 161. 163. 162. 154. 220. 68. 65.
      228. 150. 160. 163. 166. 162. 162. 158. 150. 129. 75. 215. 148.
      162. 160. 162. 160. 159. 158. 201. 69. 49. 174. 162. 162. 162.
      162. 159. 157. 140. 209. 62. 185. 164. 165. 162. 158. 159. 155.
      154. 209. 67. 187. 162. 161. 162. 161. 160. 154. 149. 211. 73.
      185. 162. 161. 161. 162. 160. 156. 139. 209. 70. 187. 161. 162.
      162. 161. 157. 159. 197. 67. 62. 176. 160. 163. 162. 159. 155.
      238. 72. 113. 118. 148. 159. 159. 159. 147. 217. 72. 155. 142.
      149. 158. 157. 149. 174. 74. 82. 187. 151. 159. 161. 160. 190.
      102. 207. 153. 157. 158. 158. 160. 159. 159.</_>
    <_>
      247. 32. 129. 146. 147. 152. 150. 152. 152. 152. 147. 147. 156.
      89. 36. 165. 148. 149. 148. 151. 150. 148. 147. 145. 151. 40. 40.
      158. 149. 151. 149. 148. 148. 148. 149. 152. 33. 42. 154. 145.
      150. 150. 150. 150. 147. 146. 142. 35. 35. 166. 151. 150. 150.
      150. 148. 146. 145. 255. 46. 255. 151. 149. 149. 149. 149. 149.
      144. 112. 49. 28. 151. 150. 149. 149. 150. 148. 149. 115. 37. 28.
      149. 149. 148. 149. 150. 148. 141. 124. 46. 255. 148. 147. 147.
      148. 150. 147. 155. 22. 46. 119. 149. 149. 150. 149. 147. 149.
      255. 52. 173. 147. 149. 147. 150. 149. 155. 255. 41. 126. 147.
      149. 151. 149. 142. 133. 48. 135. 147. 151. 152. 148. 157. 246.
      32. 132. 148. 150. 150. 149. 149. 151.</_>
    <_>
      142. 140. 145. 144. 134. 122. 144. 143. 145. 142. 143. 145. 145.
      147. 101. 103. 147. 145. 144. 144. 143. 145. 140. 142. 100. 97.
      147. 141. 142. 146. 138. 90. 160. 142. 179. 182. 143. 149. 89.
      113. 103. 45. 40. 142. 220. 214. 141. 49. 47. 111. 194. 145. 73.
      158. 74. 81. 45. 72. 145. 184. 144. 141. 161. 137. 45. 46. 148.
      168. 143. 142. 142. 143. 143. 154. 45. 47. 153. 143. 141. 142.
      179. 144. 144. 157. 78. 73. 50. 143. 141. 190. 96. 52. 187. 146.
      221. 215. 132. 52. 49. 98. 99. 65. 151. 148. 92. 181. 147. 147.
      49. 126. 183. 182. 147. 146. 102. 102. 146. 151. 199. 180. 144.
      146. 147. 142. 102. 102. 147. 143. 145. 144. 145. 146. 145. 147.
      132. 135. 150. 146. 144. 142.</_>
    <_>
      149. 148. 148. 144. 181. 136. 130. 151. 150. 149. 147. 145. 148.
      143. 190. 51. 122. 148. 148. 149. 145. 142. 142. 147. 191. 55.
      135. 143. 150. 151. 220. 37. 185. 142. 144. 195. 157. 129. 57.
      107. 213. 52. 55. 118. 165. 175. 165. 139. 53. 116. 192. 110. 112.
      186. 161. 73. 61. 115. 115. 194. 146. 141. 127. 188. 46. 52. 239.
      119. 151. 151. 147. 145. 148. 96. 48. 48. 238. 119. 147. 147. 141.
      222. 107. 241. 160. 55. 202. 106. 200. 192. 220. 50. 51. 111. 173.
      191. 127. 153. 49. 109. 217. 52. 170. 151. 143. 192. 139. 116. 70.
      119. 130. 228. 143. 147. 188. 50. 135. 140. 121. 137. 148. 148.
      148. 144. 192. 53. 124. 150. 149. 146. 149. 147. 145. 146. 220.
      140. 146. 148. 150. 148.</_>
    <_>
      146. 147. 147. 146. 182. 137. 142. 148. 147. 148. 147. 147. 148.
      146. 194. 53. 137. 148. 146. 147. 145. 149. 144. 147. 192. 48.
      146. 145. 156. 149. 216. 55. 128. 146. 178. 194. 150. 191. 58.
      114. 103. 49. 153. 121. 160. 130. 147. 108. 52. 103. 147. 187. 42.
      189. 180. 179. 179. 39. 185. 171. 140. 140. 139. 101. 47. 43. 220.
      153. 146. 145. 145. 148. 143. 83. 44. 49. 219. 114. 146. 143. 171.
      187. 189. 112. 118. 174. 190. 120. 191. 149. 156. 46. 102. 140.
      153. 133. 125. 155. 46. 108. 112. 37. 174. 146. 178. 193. 140.
      129. 59. 104. 138. 152. 141. 139. 193. 52. 135. 141. 147. 148.
      142. 144. 144. 146. 193. 45. 140. 147. 145. 146. 144. 144. 144.
      143. 218. 128. 149. 147. 148. 145.</_>
    <_>
      149. 148. 150. 148. 34. 175. 147. 149. 150. 150. 149. 147. 148.
      148. 31. 117. 147. 150. 149. 150. 148. 144. 146. 145. 233. 140.
      147. 147. 148. 148. 53. 158. 141. 145. 233. 150. 146. 146. 154.
      57. 75. 55. 173. 142. 212. 151. 145. 129. 44. 122. 143. 126. 54.
      195. 119. 156. 93. 145. 154. 144. 148. 144. 153. 97. 48. 32. 124.
      145. 150. 149. 148. 143. 149. 95. 29. 43. 110. 147. 145. 152. 145.
      131. 54. 230. 138. 132. 96. 62. 132. 150. 229. 53. 184. 143. 120.
      141. 148. 172. 51. 106. 39. 172. 148. 145. 233. 118. 148. 147.
      154. 197. 150. 145. 146. 143. 233. 194. 147. 150. 146. 149. 150.
      148. 148. 145. 233. 232. 146. 149. 149. 149. 150. 150. 148. 146.
      142. 232. 149. 150. 150. 150.</_>
    <_>
      17. 133. 138. 136. 136. 137. 137. 137. 134. 233. 143. 179. 136.
      139. 137. 138. 140. 137. 184. 145. 138. 44. 175. 140. 138. 140.
      140. 164. 48. 138. 138. 138. 41. 136. 138. 138. 136. 47. 135. 139.
      138. 134. 181. 42. 141. 139. 43. 178. 137. 141. 138. 138. 136. 94.
      120. 218. 98. 138. 141. 142. 137. 137. 138. 139. 46. 46. 135. 142.
      143. 143. 136. 139. 140. 135. 43. 40. 136. 140. 138. 142. 138.
      138. 138. 227. 190. 194. 82. 142. 141. 142. 138. 139. 121. 44.
      136. 140. 52. 196. 144. 142. 139. 138. 46. 135. 140. 145. 149. 45.
      141. 142. 136. 36. 166. 140. 138. 138. 143. 169. 45. 137. 141. 54.
      140. 141. 142. 140. 140. 140. 187. 141. 91. 140. 140. 137. 139.
      139. 142. 141. 141. 47.</_>
    <_>
      142. 153. 151. 154. 151. 151. 154. 153. 157. 52. 137. 187. 150.
      154. 152. 153. 155. 151. 185. 128. 146. 44. 166. 151. 149. 154.
      151. 175. 43. 151. 150. 137. 50. 147. 151. 150. 167. 55. 161. 153.
      154. 153. 226. 54. 149. 150. 55. 232. 150. 153. 152. 152. 149. 81.
      245. 245. 60. 152. 151. 153. 151. 151. 151. 142. 61. 61. 149. 153.
      151. 152. 153. 150. 152. 161. 52. 69. 151. 150. 151. 153. 150.
      151. 156. 82. 95. 106. 85. 148. 153. 151. 150. 152. 231. 43. 148.
      145. 48. 225. 149. 152. 151. 130. 54. 154. 150. 151. 145. 47. 123.
      150. 159. 56. 182. 151. 151. 151. 154. 171. 54. 153. 137. 176.
      152. 155. 149. 152. 151. 151. 185. 142. 127. 152. 151. 152. 151.
      151. 155. 153. 148. 255.</_>
    <_>
      148. 147. 150. 150. 149. 149. 148. 149. 147. 30. 178. 144. 148.
      150. 148. 148. 149. 149. 235. 148. 143. 63. 146. 147. 147. 148.
      150. 144. 230. 151. 148. 145. 37. 144. 147. 148. 143. 34. 145.
      148. 150. 147. 138. 171. 147. 147. 117. 148. 147. 150. 151. 148.
      146. 169. 143. 131. 168. 148. 149. 152. 149. 148. 147. 146. 84.
      86. 144. 149. 150. 149. 149. 148. 147. 148. 158. 161. 144. 150.
      150. 149. 148. 148. 148. 127. 157. 150. 165. 148. 148. 151. 150.
      148. 145. 108. 146. 147. 119. 147. 146. 149. 149. 145. 72. 144.
      148. 147. 145. 40. 147. 149. 147. 175. 141. 151. 150. 148. 147.
      143. 158. 148. 145. 140. 147. 148. 150. 149. 148. 149. 126. 121.
      30. 147. 148. 151. 150. 149. 150. 149. 146. 64.</_>
    <_>
      147. 223. 255. 255. 255. 255. 255. 255. 222. 144. 220. 141. 109.
      112. 117. 115. 110. 104. 136. 219. 255. 109. 47. 49. 52. 50. 46.
      42. 104. 255. 255. 118. 55. 52. 53. 53. 52. 53. 114. 255. 255.
      117. 53. 50. 52. 55. 52. 53. 115. 255. 255. 114. 53. 53. 52. 53.
      52. 53. 115. 255. 255. 115. 54. 53. 53. 53. 52. 52. 114. 255. 255.
      115. 54. 53. 54. 53. 52. 53. 114. 255. 255. 114. 54. 54. 53. 52.
      51. 53. 115. 255. 255. 116. 53. 52. 53. 52. 50. 51. 114. 255. 255.
      115. 55. 57. 59. 55. 51. 42. 99. 255. 199. 173. 107. 52. 51. 49.
      127. 154. 166. 208. 152. 194. 163. 113. 111. 112. 177. 215. 207.
      163. 157. 133. 189. 255. 255. 255. 146. 131. 162. 156.</_>
    <_>
      141. 144. 207. 123. 122. 122. 191. 202. 138. 143. 143. 108. 48.
      43. 38. 40. 35. 36. 97. 143. 144. 56. 41. 40. 40. 39. 39. 43. 31.
      133. 138. 48. 41. 37. 37. 36. 38. 35. 38. 255. 160. 43. 38. 37.
      35. 36. 36. 37. 37. 255. 41. 43. 38. 35. 34. 37. 36. 39. 39. 26.
      40. 43. 39. 36. 35. 37. 36. 35. 40. 21. 42. 43. 38. 36. 36. 35.
      37. 39. 40. 25. 48. 44. 38. 36. 35. 36. 37. 37. 39. 25. 161. 47.
      40. 37. 36. 36. 37. 38. 44. 156. 143. 46. 40. 38. 38. 36. 37. 40.
      38. 134. 149. 247. 44. 40. 39. 40. 40. 42. 34. 145. 142. 127. 82.
      35. 43. 42. 36. 66. 115. 146. 146. 149. 116. 196. 192. 118. 195.
      122. 141. 142.</_>
    <_>
      147. 148. 147. 147. 147. 148. 148. 157. 53. 238. 145. 148. 146.
      148. 150. 147. 147. 156. 103. 159. 150. 149. 149. 148. 150. 148.
      125. 54. 224. 147. 149. 149. 149. 151. 150. 151. 114. 156. 147.
      151. 148. 150. 152. 152. 150. 247. 57. 147. 149. 150. 148. 149.
      149. 150. 173. 62. 170. 148. 150. 154. 149. 152. 151. 152. 235.
      52. 156. 151. 152. 152. 150. 150. 150. 195. 52. 159. 151. 150.
      151. 152. 150. 151. 157. 141. 134. 151. 151. 153. 152. 153. 151.
      150. 197. 49. 162. 152. 153. 153. 151. 154. 149. 164. 50. 220.
      149. 152. 151. 155. 149. 152. 147. 107. 66. 153. 153. 152. 152.
      154. 154. 152. 160. 54. 204. 150. 151. 153. 151. 153. 152. 152.
      80. 193. 151. 151. 149. 152. 152. 150. 153. 155.</_>
    <_>
      148. 148. 147. 146. 146. 146. 145. 145. 161. 57. 148. 147. 147.
      146. 145. 147. 145. 137. 36. 154. 146. 148. 147. 146. 146. 144.
      146. 156. 157. 143. 147. 147. 146. 146. 146. 144. 109. 144. 142.
      146. 146. 146. 146. 146. 145. 148. 38. 145. 144. 146. 146. 148.
      146. 145. 146. 210. 157. 141. 147. 149. 146. 145. 145. 144. 119.
      33. 142. 146. 147. 148. 146. 146. 147. 150. 36. 136. 146. 146.
      146. 146. 145. 145. 144. 186. 241. 143. 145. 145. 147. 147. 146.
      145. 133. 38. 143. 146. 148. 147. 149. 148. 145. 142. 49. 142.
      145. 147. 147. 148. 148. 146. 141. 209. 183. 143. 146. 147. 146.
      147. 147. 146. 133. 35. 139. 146. 148. 147. 147. 147. 147. 147.
      42. 135. 145. 147. 147. 147. 147. 147. 148. 147.</_>
    <_>
      144. 144. 143. 145. 166. 27. 144. 145. 147. 149. 146. 143. 144.
      145. 52. 46. 144. 145. 145. 148. 145. 148. 145. 146. 151. 45. 145.
      148. 147. 147. 147. 147. 144. 145. 152. 147. 145. 146. 147. 147.
      145. 147. 146. 146. 146. 146. 144. 147. 149. 149. 144. 141. 143.
      143. 145. 145. 141. 146. 145. 145. 239. 240. 240. 241. 240. 241.
      241. 241. 241. 241. 241. 241. 239. 238. 240. 240. 241. 241. 241.
      240. 145. 146. 141. 144. 148. 147. 148. 146. 147. 146. 147. 145.
      148. 145. 149. 148. 148. 147. 150. 149. 147. 147. 145. 150. 149.
      143. 150. 150. 149. 150. 147. 147. 146. 146. 36. 44. 145. 149.
      148. 148. 145. 145. 145. 148. 51. 51. 148. 149. 148. 149. 150.
      146. 144. 150. 50. 46. 146. 148. 150. 149.</_>
    <_>
      147. 146. 148. 145. 247. 169. 145. 147. 150. 148. 148. 144. 148.
      145. 51. 47. 142. 145. 147. 148. 146. 146. 146. 147. 102. 50. 146.
      147. 148. 146. 146. 148. 147. 149. 141. 148. 147. 148. 148. 146.
      146. 146. 147. 147. 148. 147. 146. 147. 147. 147. 145. 145. 148.
      146. 149. 146. 145. 144. 146. 145. 171. 175. 175. 171. 167. 162.
      159. 158. 158. 161. 154. 153. 153. 156. 181. 180. 183. 187. 190.
      189. 146. 143. 146. 146. 147. 146. 147. 146. 147. 147. 146. 145.
      146. 147. 145. 147. 145. 147. 147. 147. 146. 147. 148. 148. 150.
      147. 146. 147. 148. 147. 146. 146. 147. 145. 74. 90. 144. 147.
      148. 148. 147. 146. 145. 144. 52. 55. 145. 149. 147. 148. 147.
      147. 145. 145. 173. 166. 146. 148. 150. 148.</_>
    <_>
      145. 146. 145. 141. 46. 19. 142. 146. 144. 146. 146. 146. 146.
      143. 45. 39. 142. 145. 145. 146. 146. 145. 146. 145. 127. 132.
      143. 145. 144. 146. 146. 145. 145. 145. 143. 143. 143. 145. 143.
      144. 144. 145. 145. 143. 144. 143. 143. 144. 144. 143. 143. 144.
      143. 143. 142. 140. 142. 142. 143. 143. 173. 111. 105. 247. 246.
      246. 245. 245. 244. 68. 125. 127. 126. 138. 136. 141. 145. 148.
      151. 148. 144. 143. 142. 144. 144. 145. 143. 142. 146. 142. 145.
      145. 144. 144. 144. 143. 143. 144. 144. 145. 145. 145. 143. 144.
      142. 144. 145. 145. 145. 144. 146. 146. 144. 144. 121. 203. 143.
      146. 145. 143. 146. 146. 145. 143. 44. 43. 141. 145. 146. 145.
      146. 146. 147. 145. 234. 15. 143. 146. 145. 145.</_>
    <_>
      136. 135. 238. 58. 122. 237. 221. 165. 139. 137. 182. 42. 105.
      188. 183. 167. 46. 47. 135. 136. 104. 69. 132. 137. 136. 134. 208.
      81. 183. 138. 97. 67. 139. 138. 139. 142. 139. 197. 48. 223. 179.
      52. 160. 136. 139. 140. 140. 139. 198. 159. 113. 49. 49. 164. 163.
      123. 140. 140. 141. 140. 133. 125. 154. 49. 48. 49. 52. 173. 133.
      138. 139. 136. 130. 143. 149. 226. 44. 49. 81. 122. 138. 138. 139.
      141. 140. 138. 136. 167. 46. 152. 210. 166. 140. 141. 142. 141.
      140. 137. 241. 111. 113. 73. 133. 139. 140. 144. 138. 142. 243.
      111. 151. 46. 80. 120. 136. 137. 137. 130. 66. 111. 138. 234. 47.
      48. 168. 189. 188. 108. 48. 183. 142. 127. 149. 239. 235. 70. 73.
      154. 137. 136.</_>
    <_>
      139. 132. 206. 78. 78. 80. 227. 81. 214. 141. 134. 203. 58. 187.
      122. 196. 156. 51. 134. 135. 129. 41. 198. 144. 139. 141. 131.
      196. 46. 127. 124. 42. 134. 142. 141. 142. 144. 134. 116. 139.
      130. 48. 140. 116. 137. 141. 144. 140. 191. 210. 134. 202. 46. 48.
      247. 119. 139. 140. 141. 143. 141. 133. 153. 56. 52. 49. 113. 142.
      146. 138. 142. 141. 138. 125. 213. 182. 114. 49. 57. 154. 137.
      141. 141. 140. 142. 142. 134. 145. 56. 111. 150. 184. 143. 144.
      145. 143. 142. 137. 169. 103. 223. 90. 134. 144. 145. 146. 146.
      140. 220. 107. 127. 54. 69. 112. 138. 142. 141. 125. 96. 113. 141.
      203. 49. 72. 187. 203. 197. 113. 57. 168. 142. 148. 87. 232. 120.
      79. 84. 133. 141. 144.</_>
    <_>
      152. 138. 239. 236. 236. 238. 239. 149. 162. 150. 145. 126. 113.
      172. 184. 173. 56. 57. 191. 149. 222. 59. 181. 152. 153. 150. 136.
      91. 50. 147. 217. 71. 135. 150. 152. 149. 146. 129. 74. 225. 221.
      53. 179. 143. 147. 151. 154. 151. 244. 225. 136. 134. 59. 156.
      177. 146. 140. 147. 150. 152. 150. 142. 163. 64. 57. 58. 66. 186.
      144. 150. 152. 153. 146. 149. 228. 227. 58. 55. 83. 141. 152. 151.
      151. 150. 150. 151. 135. 173. 55. 153. 124. 172. 151. 154. 152.
      153. 150. 147. 120. 107. 120. 66. 139. 152. 152. 149. 152. 162.
      239. 110. 152. 57. 162. 144. 148. 148. 147. 185. 60. 189. 155.
      134. 57. 53. 171. 197. 192. 49. 134. 136. 155. 222. 237. 239. 199.
      94. 93. 236. 150. 152.</_>
    <_>
      142. 145. 160. 115. 128. 34. 161. 36. 140. 141. 138. 44. 120. 140.
      140. 137. 121. 45. 210. 141. 185. 20. 138. 141. 142. 142. 143.
      136. 50. 140. 181. 18. 135. 142. 143. 144. 145. 144. 129. 204.
      121. 43. 132. 140. 142. 142. 144. 143. 143. 142. 140. 194. 40.
      191. 126. 144. 139. 142. 143. 143. 143. 138. 162. 32. 45. 38. 121.
      131. 139. 145. 143. 143. 144. 143. 149. 194. 115. 41. 79. 135.
      143. 142. 143. 143. 141. 141. 142. 133. 43. 164. 147. 141. 142.
      143. 141. 141. 143. 144. 157. 36. 141. 140. 140. 141. 142. 141.
      144. 142. 138. 37. 144. 40. 142. 140. 142. 142. 143. 138. 154. 30.
      140. 38. 43. 125. 136. 140. 140. 145. 44. 121. 142. 152. 154. 167.
      47. 132. 128. 67. 138. 142.</_>
    <_>
      140. 179. 97. 39. 40. 168. 129. 138. 138. 139. 136. 206. 74. 46.
      42. 112. 138. 140. 137. 140. 140. 139. 137. 140. 139. 143. 139.
      140. 140. 141. 140. 137. 140. 137. 137. 140. 139. 140. 142. 142.
      141. 141. 137. 135. 136. 137. 137. 138. 140. 141. 159. 112. 94.
      43. 47. 110. 149. 141. 140. 140. 135. 124. 172. 47. 45. 206. 140.
      140. 140. 140. 141. 139. 128. 233. 42. 103. 152. 140. 142. 143.
      139. 140. 133. 233. 41. 109. 142. 141. 141. 141. 141. 142. 137.
      233. 38. 109. 134. 138. 137. 142. 143. 141. 142. 116. 109. 114.
      120. 140. 139. 142. 142. 141. 139. 117. 108. 108. 115. 143. 140.
      141. 142. 144. 142. 122. 108. 109. 101. 140. 137. 142. 159. 135.
      86. 45. 45. 48. 52. 45. 61. 221.</_>
    <_>
      144. 142. 164. 79. 42. 50. 52. 207. 131. 141. 141. 139. 154. 100.
      56. 55. 75. 192. 139. 141. 146. 145. 144. 142. 141. 147. 148. 144.
      144. 146. 147. 145. 145. 145. 145. 145. 146. 147. 147. 147. 143.
      145. 140. 134. 139. 140. 128. 139. 144. 145. 193. 94. 99. 104. 44.
      51. 222. 137. 143. 144. 141. 137. 121. 217. 44. 46. 223. 137. 143.
      146. 146. 145. 137. 223. 38. 51. 221. 141. 144. 145. 145. 146.
      137. 224. 42. 55. 222. 142. 142. 142. 146. 145. 138. 224. 39. 49.
      220. 137. 145. 145. 145. 146. 138. 225. 43. 54. 222. 147. 145.
      145. 147. 145. 137. 225. 42. 46. 224. 142. 143. 147. 144. 139.
      130. 220. 41. 45. 218. 130. 143. 143. 208. 52. 50. 55. 56. 58. 58.
      49. 54. 206.</_>
    <_>
      143. 145. 228. 39. 44. 40. 47. 141. 142. 143. 142. 141. 125. 39.
      34. 33. 166. 144. 140. 142. 143. 143. 141. 143. 143. 144. 141.
      143. 143. 144. 142. 142. 143. 143. 144. 142. 141. 140. 141. 141.
      141. 141. 142. 142. 143. 143. 138. 138. 142. 142. 136. 247. 38.
      44. 41. 37. 127. 140. 140. 140. 139. 139. 129. 156. 42. 34. 126.
      137. 139. 137. 142. 142. 140. 169. 40. 37. 181. 139. 141. 140.
      142. 141. 141. 175. 39. 38. 178. 136. 138. 138. 142. 142. 138.
      114. 41. 37. 173. 133. 139. 139. 142. 141. 139. 115. 37. 37. 162.
      139. 139. 141. 140. 139. 137. 121. 34. 42. 160. 134. 138. 140.
      141. 140. 137. 133. 31. 38. 155. 140. 139. 140. 140. 148. 218. 45.
      41. 38. 43. 214. 217. 215.</_>
    <_>
      135. 136. 232. 135. 170. 127. 222. 120. 140. 142. 148. 44. 202.
      120. 45. 139. 53. 100. 138. 137. 129. 164. 42. 44. 117. 144. 99.
      45. 131. 138. 141. 188. 46. 158. 142. 141. 139. 44. 125. 140. 142.
      190. 42. 146. 145. 142. 133. 45. 193. 139. 140. 193. 47. 142. 143.
      141. 141. 44. 193. 140. 140. 145. 45. 141. 140. 140. 139. 43. 185.
      141. 140. 123. 43. 140. 141. 142. 142. 42. 186. 140. 142. 126. 45.
      149. 142. 141. 139. 34. 184. 142. 141. 128. 45. 148. 138. 140.
      144. 139. 181. 142. 143. 133. 47. 147. 140. 140. 140. 202. 179.
      142. 142. 135. 48. 126. 139. 141. 144. 202. 167. 140. 142. 167.
      45. 144. 169. 140. 136. 44. 47. 140. 211. 145. 231. 222. 195. 139.
      232. 234. 235. 235.</_>
    <_>
      133. 228. 84. 135. 122. 82. 85. 167. 143. 145. 115. 49. 53. 183.
      48. 201. 175. 53. 144. 144. 136. 144. 49. 61. 134. 145. 121. 48.
      162. 146. 143. 150. 102. 131. 142. 143. 136. 102. 150. 145. 146.
      154. 151. 141. 145. 147. 142. 155. 148. 143. 146. 155. 89. 140.
      143. 146. 140. 150. 149. 142. 145. 153. 51. 140. 145. 147. 140.
      151. 149. 143. 144. 154. 49. 141. 142. 147. 139. 148. 148. 143.
      143. 157. 50. 140. 142. 145. 144. 148. 150. 142. 142. 155. 49.
      142. 144. 145. 144. 149. 150. 142. 141. 154. 153. 140. 144. 147.
      142. 150. 151. 144. 143. 145. 144. 135. 142. 146. 134. 144. 148.
      144. 214. 95. 49. 206. 138. 139. 213. 49. 105. 213. 113. 101. 100.
      99. 142. 145. 100. 101. 100. 105.</_>
    <_>
      143. 146. 122. 129. 139. 127. 75. 204. 142. 140. 236. 39. 43. 205.
      100. 162. 163. 52. 121. 141. 124. 209. 42. 43. 178. 143. 115. 47.
      177. 141. 142. 114. 44. 87. 140. 141. 139. 202. 171. 139. 139.
      118. 41. 135. 140. 142. 137. 202. 170. 142. 139. 185. 48. 140.
      140. 143. 138. 133. 171. 140. 141. 181. 41. 143. 142. 142. 141.
      40. 172. 140. 137. 186. 41. 142. 139. 141. 138. 37. 174. 142. 139.
      182. 42. 139. 139. 143. 137. 36. 175. 142. 139. 175. 40. 141. 139.
      141. 140. 40. 173. 142. 140. 179. 46. 145. 139. 142. 135. 37. 176.
      140. 138. 177. 43. 132. 139. 141. 136. 37. 168. 136. 184. 109. 47.
      166. 163. 128. 164. 43. 52. 165. 86. 236. 235. 235. 121. 125. 238.
      238. 238. 240.</_>
    <_>
      141. 157. 193. 137. 105. 28. 34. 120. 136. 138. 80. 41. 196. 128.
      230. 147. 122. 32. 132. 136. 135. 197. 196. 121. 135. 140. 139.
      37. 146. 137. 138. 202. 153. 138. 140. 138. 134. 38. 130. 136.
      138. 206. 20. 138. 138. 138. 135. 36. 116. 137. 140. 206. 15. 140.
      138. 139. 134. 28. 114. 135. 138. 207. 14. 139. 139. 138. 136. 31.
      103. 136. 138. 100. 19. 138. 139. 137. 135. 30. 101. 137. 138.
      105. 18. 137. 139. 137. 138. 37. 98. 137. 137. 104. 16. 137. 138.
      138. 135. 31. 94. 139. 140. 106. 23. 138. 137. 137. 135. 198. 126.
      139. 139. 110. 15. 136. 137. 138. 136. 198. 205. 139. 135. 193.
      39. 144. 139. 140. 146. 44. 46. 141. 30. 25. 22. 30. 139. 135. 51.
      161. 163. 164.</_>
    <_>
      142. 139. 142. 188. 81. 74. 149. 114. 138. 141. 139. 163. 156. 96.
      202. 185. 48. 39. 168. 136. 143. 152. 67. 129. 140. 141. 160. 46.
      50. 138. 204. 47. 127. 138. 142. 142. 138. 49. 43. 139. 168. 76.
      144. 141. 143. 141. 139. 212. 213. 140. 85. 128. 145. 143. 142.
      142. 143. 140. 142. 142. 87. 125. 143. 142. 143. 144. 144. 140.
      143. 142. 90. 127. 138. 142. 144. 142. 143. 144. 145. 143. 90.
      129. 142. 140. 143. 139. 143. 143. 144. 140. 168. 45. 116. 140.
      142. 142. 141. 143. 141. 128. 197. 45. 255. 136. 143. 145. 143.
      147. 191. 79. 135. 47. 50. 168. 140. 140. 142. 142. 43. 234. 142.
      143. 53. 105. 185. 200. 168. 51. 183. 141. 143. 141. 104. 90. 81.
      80. 79. 235. 143. 144.</_>
    <_>
      150. 149. 139. 195. 76. 85. 142. 234. 135. 146. 150. 143. 152.
      113. 190. 192. 111. 53. 163. 142. 144. 164. 58. 188. 149. 147.
      171. 53. 52. 132. 139. 49. 255. 145. 149. 147. 140. 50. 56. 151.
      232. 57. 119. 147. 149. 149. 149. 125. 215. 153. 81. 135. 150.
      150. 150. 149. 150. 150. 149. 151. 93. 136. 151. 148. 150. 149.
      152. 151. 152. 151. 90. 135. 152. 148. 149. 150. 152. 152. 151.
      151. 90. 134. 144. 150. 149. 152. 152. 151. 151. 148. 170. 53.
      113. 148. 150. 151. 150. 150. 144. 144. 202. 58. 205. 142. 152.
      154. 150. 144. 190. 89. 138. 165. 51. 162. 148. 144. 143. 244. 61.
      157. 150. 151. 64. 52. 148. 205. 173. 58. 187. 148. 151. 148. 128.
      149. 93. 89. 100. 125. 150. 147.</_>
    <_>
      138. 137. 134. 188. 30. 27. 26. 167. 132. 133. 136. 135. 76. 175.
      132. 135. 108. 39. 28. 129. 135. 203. 172. 133. 136. 134. 134. 86.
      37. 138. 149. 39. 132. 136. 136. 136. 137. 139. 26. 129. 213. 27.
      131. 137. 139. 137. 137. 134. 132. 134. 32. 72. 136. 136. 138.
      137. 137. 135. 137. 138. 36. 75. 135. 137. 136. 134. 136. 135.
      136. 135. 39. 70. 135. 137. 137. 134. 137. 137. 136. 136. 43. 25.
      133. 136. 137. 135. 138. 136. 136. 136. 74. 31. 128. 133. 134.
      135. 137. 134. 136. 135. 104. 38. 148. 135. 136. 135. 134. 136.
      133. 97. 132. 37. 33. 136. 134. 136. 134. 132. 180. 159. 135. 134.
      30. 33. 131. 145. 147. 174. 159. 135. 137. 135. 136. 160. 29. 36.
      28. 173. 132. 137.</_>
    <_>
      141. 141. 130. 183. 62. 69. 187. 111. 139. 144. 141. 191. 93. 50.
      111. 107. 67. 92. 172. 140. 139. 88. 49. 139. 142. 140. 124. 53.
      94. 131. 100. 42. 92. 143. 141. 140. 140. 96. 44. 242. 242. 44.
      132. 143. 142. 143. 144. 124. 38. 239. 158. 31. 145. 144. 145.
      141. 141. 140. 38. 58. 59. 36. 148. 144. 142. 143. 144. 144. 45.
      66. 55. 44. 146. 142. 141. 143. 144. 146. 40. 65. 240. 42. 133.
      142. 145. 144. 143. 147. 28. 64. 242. 43. 108. 141. 144. 143. 143.
      135. 44. 240. 126. 46. 73. 138. 145. 148. 144. 89. 48. 246. 143.
      182. 51. 109. 139. 142. 153. 37. 92. 144. 142. 130. 140. 45. 86.
      93. 47. 91. 189. 143. 146. 144. 130. 236. 217. 218. 237. 135. 144.
      144.</_>
    <_>
      151. 149. 189. 187. 89. 84. 83. 183. 146. 150. 149. 181. 46. 69.
      123. 124. 72. 55. 171. 151. 144. 108. 58. 150. 150. 149. 143. 56.
      108. 148. 216. 52. 100. 149. 151. 150. 147. 89. 52. 214. 243. 50.
      140. 151. 153. 149. 151. 133. 54. 242. 68. 42. 155. 150. 150. 149.
      149. 152. 46. 62. 68. 45. 149. 149. 149. 149. 150. 155. 53. 64.
      66. 45. 153. 149. 148. 150. 150. 154. 43. 64. 234. 45. 150. 151.
      151. 151. 152. 147. 50. 66. 242. 51. 135. 149. 151. 150. 150. 129.
      52. 242. 115. 54. 87. 146. 151. 150. 147. 73. 55. 116. 140. 110.
      53. 133. 150. 149. 147. 50. 108. 147. 148. 174. 59. 71. 124. 127.
      50. 58. 183. 148. 150. 149. 133. 104. 99. 99. 106. 144. 149. 149.</_>
    <_>
      136. 137. 128. 30. 49. 38. 25. 132. 131. 136. 136. 129. 30. 131.
      133. 127. 137. 41. 124. 131. 130. 32. 130. 133. 136. 134. 133. 86.
      40. 125. 111. 34. 129. 135. 135. 136. 134. 134. 39. 109. 45. 18.
      132. 134. 135. 136. 134. 130. 31. 15. 27. 34. 134. 133. 137. 135.
      134. 132. 59. 40. 39. 52. 136. 136. 136. 134. 135. 133. 85. 41.
      37. 60. 134. 135. 135. 133. 134. 132. 90. 39. 34. 25. 131. 135.
      134. 137. 135. 131. 62. 36. 209. 28. 130. 133. 134. 134. 134. 133.
      31. 12. 132. 39. 133. 134. 134. 134. 135. 132. 39. 102. 132. 36.
      50. 132. 135. 135. 133. 103. 38. 121. 138. 129. 42. 114. 133. 135.
      138. 43. 133. 137. 134. 134. 143. 147. 33. 43. 108. 129. 134. 134.</_>
    <_>
      143. 144. 141. 238. 244. 139. 140. 144. 143. 144. 145. 147. 140.
      238. 244. 150. 145. 143. 146. 145. 146. 142. 142. 68. 244. 147.
      142. 142. 143. 144. 140. 196. 127. 40. 244. 116. 127. 226. 225.
      142. 156. 218. 215. 55. 99. 218. 218. 192. 154. 149. 145. 146.
      112. 78. 245. 147. 145. 144. 144. 146. 143. 143. 117. 76. 244.
      151. 145. 145. 145. 147. 145. 146. 119. 79. 244. 152. 145. 147.
      146. 145. 147. 146. 121. 76. 244. 152. 143. 146. 144. 147. 147.
      147. 127. 74. 245. 156. 149. 148. 147. 150. 149. 147. 131. 77. 36.
      149. 147. 146. 147. 148. 147. 146. 135. 79. 43. 138. 142. 146.
      146. 226. 147. 147. 145. 120. 50. 125. 150. 162. 46. 151. 146.
      145. 144. 154. 204. 61. 81. 202. 161. 150.</_>
    <_>
      140. 138. 134. 236. 50. 137. 138. 139. 141. 139. 139. 137. 135.
      236. 43. 136. 136. 138. 140. 142. 137. 137. 129. 69. 245. 138.
      135. 136. 139. 138. 137. 209. 99. 47. 245. 105. 105. 255. 255.
      131. 169. 168. 154. 60. 158. 171. 165. 166. 171. 164. 139. 137.
      96. 77. 245. 137. 134. 136. 139. 141. 140. 135. 222. 44. 245. 134.
      140. 139. 138. 142. 138. 133. 222. 41. 245. 136. 135. 137. 137.
      138. 136. 133. 224. 40. 245. 135. 138. 138. 138. 138. 141. 134.
      222. 45. 244. 136. 137. 137. 138. 138. 141. 134. 221. 43. 245.
      131. 138. 138. 142. 140. 136. 132. 222. 40. 245. 132. 135. 138.
      140. 200. 136. 135. 100. 72. 57. 113. 124. 173. 48. 199. 136. 134.
      127. 141. 61. 38. 42. 180. 156. 138.</_>
    <_>
      135. 134. 133. 166. 126. 131. 132. 134. 135. 136. 133. 134. 130.
      172. 119. 132. 135. 134. 132. 132. 134. 133. 140. 46. 113. 131.
      132. 136. 133. 135. 141. 179. 39. 35. 104. 194. 190. 184. 184.
      133. 140. 141. 132. 37. 101. 131. 133. 134. 131. 132. 133. 129.
      107. 37. 127. 129. 131. 132. 133. 134. 133. 130. 111. 36. 122.
      130. 134. 134. 136. 136. 133. 129. 126. 38. 109. 133. 135. 134.
      134. 136. 133. 129. 137. 38. 109. 130. 134. 135. 132. 135. 134.
      130. 139. 40. 208. 129. 132. 131. 132. 135. 134. 128. 136. 39.
      207. 128. 133. 133. 133. 132. 135. 132. 133. 41. 207. 128. 133.
      132. 133. 131. 135. 132. 140. 33. 31. 128. 129. 129. 169. 200.
      134. 134. 133. 126. 40. 38. 34. 30. 117. 131.</_>
    <_>
      146. 139. 177. 231. 97. 216. 147. 138. 146. 147. 139. 157. 47.
      158. 200. 185. 48. 182. 144. 148. 245. 50. 151. 146. 143. 134.
      113. 143. 148. 144. 244. 51. 188. 145. 144. 147. 218. 46. 147.
      146. 200. 205. 143. 144. 144. 144. 219. 47. 151. 146. 147. 144.
      144. 143. 138. 123. 104. 45. 144. 150. 147. 142. 135. 181. 98. 44.
      65. 44. 145. 147. 147. 153. 47. 57. 105. 135. 94. 46. 147. 145.
      138. 49. 49. 135. 145. 147. 99. 46. 143. 146. 242. 46. 125. 145.
      147. 149. 103. 48. 138. 146. 58. 46. 149. 145. 143. 149. 94. 48.
      142. 147. 60. 48. 128. 145. 144. 138. 51. 52. 139. 142. 241. 49.
      70. 108. 86. 43. 64. 50. 155. 61. 127. 135. 85. 76. 84. 232. 120.
      87. 85. 226.</_>
    <_>
      143. 143. 207. 235. 69. 76. 236. 132. 141. 142. 130. 129. 42. 163.
      187. 168. 46. 156. 136. 139. 249. 41. 89. 130. 141. 135. 174. 92.
      137. 139. 249. 42. 206. 138. 143. 139. 156. 47. 125. 137. 128.
      173. 139. 141. 142. 139. 156. 48. 127. 139. 138. 139. 138. 138.
      168. 181. 123. 99. 133. 143. 138. 137. 152. 109. 42. 37. 59. 99.
      134. 141. 135. 220. 51. 46. 125. 136. 81. 46. 128. 139. 198. 41.
      52. 138. 141. 140. 86. 102. 135. 138. 41. 45. 123. 139. 139. 140.
      86. 99. 134. 137. 51. 42. 138. 137. 142. 139. 79. 104. 133. 138.
      49. 48. 121. 138. 136. 122. 39. 100. 129. 132. 247. 42. 59. 84.
      53. 40. 45. 46. 161. 143. 117. 233. 71. 66. 154. 115. 106. 69. 95.
      139.</_>
    <_>
      132. 130. 145. 22. 135. 30. 170. 129. 132. 132. 130. 35. 131. 131.
      130. 126. 55. 102. 133. 132. 184. 36. 128. 133. 131. 125. 91. 19.
      128. 130. 220. 72. 124. 130. 134. 129. 112. 29. 126. 130. 130.
      126. 131. 129. 132. 128. 117. 31. 121. 131. 133. 134. 131. 128.
      129. 136. 186. 29. 123. 132. 131. 125. 128. 247. 19. 112. 141. 34.
      121. 132. 134. 134. 40. 108. 125. 130. 130. 32. 122. 135. 129. 42.
      103. 130. 130. 130. 133. 38. 119. 131. 244. 19. 129. 131. 131.
      131. 133. 38. 118. 131. 42. 25. 132. 132. 130. 130. 132. 35. 123.
      131. 39. 12. 123. 131. 131. 131. 82. 36. 122. 130. 155. 26. 92.
      140. 136. 56. 127. 38. 132. 132. 130. 155. 31. 31. 80. 125. 126.
      67. 21. 120.</_>
    <_>
      129. 113. 109. 237. 147. 146. 236. 237. 237. 237. 255. 54. 47. 49.
      148. 143. 170. 47. 164. 185. 141. 111. 53. 255. 140. 145. 255.
      103. 149. 148. 145. 145. 255. 51. 117. 142. 41. 142. 145. 147.
      147. 148. 120. 49. 206. 104. 195. 147. 145. 148. 148. 150. 140.
      188. 48. 50. 150. 149. 148. 147. 145. 149. 144. 133. 49. 46. 144.
      152. 147. 149. 147. 149. 148. 158. 48. 51. 104. 148. 149. 148.
      148. 147. 149. 255. 171. 167. 52. 138. 148. 150. 149. 150. 153.
      47. 155. 99. 51. 146. 148. 150. 152. 151. 255. 255. 149. 138. 56.
      53. 134. 149. 145. 143. 44. 146. 147. 147. 119. 49. 213. 139. 184.
      53. 48. 177. 146. 146. 168. 54. 50. 168. 95. 234. 236. 101. 146.
      150. 237. 101. 237. 239.</_>
    <_>
      40. 166. 164. 41. 130. 130. 26. 28. 25. 122. 132. 117. 27. 120.
      129. 130. 130. 67. 124. 127. 131. 125. 44. 103. 130. 129. 131.
      124. 128. 129. 131. 127. 144. 30. 123. 126. 42. 126. 127. 128.
      132. 132. 125. 43. 81. 163. 116. 133. 126. 128. 129. 132. 126. 86.
      31. 95. 129. 128. 127. 128. 131. 129. 130. 124. 37. 128. 128. 127.
      129. 129. 131. 130. 129. 128. 232. 36. 114. 124. 128. 130. 130.
      132. 126. 147. 114. 102. 210. 127. 130. 126. 130. 128. 130. 113.
      130. 113. 34. 111. 127. 125. 132. 125. 170. 121. 129. 128. 82.
      160. 126. 125. 131. 120. 101. 129. 127. 129. 119. 38. 114. 128.
      131. 128. 115. 130. 132. 128. 126. 41. 42. 129. 37. 24. 28. 207.
      131. 126. 43. 160. 165. 160.</_>
    <_>
      219. 218. 218. 217. 146. 148. 147. 217. 158. 92. 186. 104. 52.
      161. 146. 148. 133. 52. 175. 138. 147. 124. 51. 112. 148. 146.
      152. 45. 146. 150. 145. 144. 44. 132. 146. 149. 219. 255. 146.
      152. 150. 148. 164. 49. 135. 149. 128. 158. 146. 151. 149. 149.
      146. 49. 134. 151. 38. 150. 149. 147. 149. 150. 149. 172. 213.
      180. 173. 148. 148. 149. 149. 151. 149. 136. 45. 106. 159. 152.
      151. 151. 150. 153. 150. 143. 92. 96. 151. 147. 148. 149. 150.
      152. 153. 148. 228. 233. 151. 150. 149. 151. 147. 148. 146. 150.
      120. 154. 150. 150. 149. 152. 149. 233. 125. 154. 44. 149. 153.
      152. 150. 149. 147. 52. 51. 122. 191. 151. 149. 151. 150. 151.
      146. 144. 77. 187. 151. 150. 151. 153. 151. 155.</_>
    <_>
      40. 19. 16. 22. 126. 130. 129. 31. 32. 73. 123. 93. 32. 121. 128.
      128. 124. 135. 90. 130. 129. 124. 44. 115. 127. 127. 127. 111.
      118. 129. 127. 125. 152. 142. 132. 127. 122. 41. 128. 130. 129.
      127. 127. 32. 124. 130. 130. 89. 131. 134. 129. 128. 124. 43. 124.
      132. 227. 122. 126. 129. 128. 128. 125. 110. 32. 120. 51. 127.
      126. 128. 128. 127. 128. 127. 40. 120. 121. 131. 128. 124. 128.
      128. 130. 129. 152. 32. 120. 132. 129. 129. 126. 127. 131. 129.
      133. 25. 125. 132. 131. 129. 128. 129. 132. 132. 127. 153. 128.
      131. 130. 130. 126. 126. 121. 128. 116. 118. 128. 130. 132. 128.
      124. 45. 36. 123. 46. 129. 130. 130. 130. 128. 128. 193. 34. 24.
      118. 130. 131. 131. 130. 129.</_>
    <_>
      150. 147. 114. 114. 236. 236. 235. 236. 235. 223. 150. 213. 51.
      46. 168. 172. 175. 49. 52. 188. 150. 139. 67. 131. 145. 148. 139.
      51. 157. 150. 158. 46. 133. 148. 146. 132. 51. 44. 148. 150. 241.
      161. 149. 150. 148. 175. 50. 170. 147. 151. 142. 139. 149. 150.
      167. 49. 140. 146. 149. 151. 152. 151. 151. 157. 113. 48. 144.
      151. 150. 148. 150. 152. 149. 230. 51. 191. 150. 151. 151. 150.
      149. 149. 171. 59. 49. 142. 150. 150. 146. 192. 150. 146. 158. 52.
      168. 150. 150. 152. 179. 241. 146. 212. 52. 245. 148. 150. 150.
      158. 46. 150. 151. 145. 86. 145. 146. 146. 148. 136. 114. 155.
      239. 53. 83. 174. 172. 170. 159. 49. 161. 147. 130. 236. 236. 236.
      236. 236. 236. 237. 139. 149.</_>
    <_>
      123. 140. 171. 31. 23. 29. 23. 22. 30. 195. 124. 42. 44. 126. 124.
      123. 120. 41. 34. 119. 121. 39. 113. 126. 126. 123. 90. 32. 98.
      124. 163. 115. 124. 130. 127. 124. 43. 21. 118. 126. 226. 126.
      127. 127. 122. 188. 32. 112. 129. 129. 123. 129. 127. 127. 121.
      41. 207. 126. 123. 126. 126. 127. 126. 124. 165. 26. 117. 130.
      128. 126. 125. 127. 130. 103. 31. 85. 121. 127. 128. 127. 128.
      124. 121. 42. 32. 119. 123. 127. 129. 124. 126. 121. 89. 32. 116.
      128. 126. 126. 125. 190. 126. 122. 46. 145. 122. 128. 126. 123.
      125. 129. 133. 88. 39. 114. 128. 126. 124. 120. 176. 108. 110. 37.
      77. 123. 122. 123. 125. 76. 34. 118. 46. 33. 106. 108. 107. 106.
      32. 27. 73. 121.</_>
    <_>
      145. 142. 159. 145. 149. 149. 148. 149. 147. 148. 242. 60. 47.
      147. 149. 151. 150. 148. 150. 149. 146. 166. 47. 147. 151. 152.
      151. 152. 147. 149. 149. 170. 45. 150. 150. 149. 149. 150. 150.
      149. 148. 174. 63. 147. 146. 153. 143. 141. 147. 151. 153. 168.
      152. 127. 62. 68. 65. 51. 171. 152. 149. 171. 48. 194. 149. 148.
      132. 53. 190. 151. 151. 172. 45. 147. 151. 150. 151. 154. 189.
      151. 151. 173. 45. 150. 150. 150. 150. 155. 190. 152. 152. 168.
      46. 154. 154. 153. 154. 153. 152. 152. 152. 174. 48. 153. 152.
      151. 154. 154. 189. 152. 151. 170. 43. 152. 151. 148. 153. 152.
      149. 152. 147. 178. 49. 131. 148. 151. 137. 52. 192. 131. 71. 93.
      160. 67. 166. 167. 103. 161. 167. 161.</_>
    <_>
      151. 150. 144. 237. 95. 95. 196. 178. 142. 150. 154. 148. 97. 54.
      101. 114. 80. 56. 213. 146. 153. 117. 53. 132. 148. 149. 137. 76.
      57. 127. 136. 49. 93. 148. 151. 151. 151. 118. 51. 243. 242. 50.
      146. 148. 150. 153. 152. 135. 53. 240. 74. 50. 97. 95. 89. 89. 83.
      70. 50. 63. 79. 72. 236. 236. 236. 237. 237. 237. 238. 229. 78.
      194. 149. 148. 145. 148. 150. 150. 151. 154. 71. 112. 147. 156.
      153. 152. 153. 154. 154. 154. 121. 55. 131. 154. 154. 151. 155.
      155. 151. 182. 243. 54. 179. 148. 152. 153. 154. 154. 179. 66.
      139. 97. 80. 116. 147. 153. 153. 176. 54. 172. 156. 175. 57. 53.
      177. 173. 166. 52. 166. 153. 154. 148. 123. 235. 83. 85. 196. 189.
      151. 153.</_>
    <_>
      125. 122. 128. 150. 28. 41. 157. 112. 123. 125. 124. 118. 45. 121.
      123. 124. 117. 42. 107. 125. 119. 42. 109. 124. 128. 124. 121. 93.
      26. 121. 116. 16. 121. 125. 124. 123. 123. 128. 42. 99. 39. 58.
      125. 125. 124. 123. 119. 118. 41. 220. 38. 68. 108. 102. 94. 83.
      75. 76. 40. 65. 39. 61. 115. 119. 116. 122. 128. 126. 131. 125.
      44. 189. 126. 125. 127. 122. 124. 125. 125. 126. 46. 178. 122.
      125. 124. 127. 127. 128. 126. 125. 79. 42. 116. 125. 125. 127.
      128. 123. 124. 124. 131. 37. 107. 124. 127. 128. 127. 127. 125.
      220. 119. 52. 102. 118. 126. 127. 123. 129. 118. 77. 124. 114. 39.
      157. 123. 121. 128. 101. 32. 118. 128. 126. 117. 151. 32. 30. 30.
      164. 118. 125.</_>
    <_>
      151. 151. 150. 162. 213. 165. 158. 149. 212. 191. 152. 150. 126.
      56. 106. 97. 64. 54. 59. 42. 152. 176. 52. 150. 150. 148. 97. 55.
      124. 151. 156. 165. 41. 152. 153. 152. 146. 54. 126. 151. 151.
      165. 53. 154. 151. 154. 143. 53. 138. 151. 153. 170. 49. 137. 151.
      154. 62. 71. 150. 154. 156. 135. 91. 70. 111. 69. 57. 156. 153.
      154. 153. 150. 85. 114. 229. 155. 145. 153. 155. 155. 152. 53.
      110. 103. 121. 134. 140. 153. 151. 154. 154. 135. 57. 53. 56. 54.
      49. 99. 118. 153. 147. 109. 74. 134. 145. 131. 103. 62. 61. 148.
      66. 57. 147. 156. 153. 154. 151. 115. 57. 153. 226. 65. 125. 148.
      154. 151. 143. 56. 88. 153. 139. 212. 50. 52. 58. 56. 55. 195.
      149. 153.</_>
    <_>
      125. 122. 116. 27. 44. 39. 184. 104. 38. 36. 119. 175. 23. 119.
      121. 118. 55. 137. 109. 109. 113. 38. 125. 120. 124. 120. 115. 34.
      119. 124. 130. 31. 112. 121. 123. 123. 117. 37. 143. 120. 123. 40.
      98. 122. 124. 121. 119. 30. 95. 122. 125. 173. 35. 118. 121. 118.
      109. 25. 119. 124. 122. 117. 110. 34. 104. 70. 84. 108. 125. 123.
      122. 160. 103. 115. 121. 118. 121. 122. 121. 123. 118. 38. 26.
      196. 119. 122. 118. 120. 123. 122. 119. 118. 115. 38. 22. 31. 37.
      22. 98. 117. 121. 36. 114. 122. 120. 120. 116. 95. 35. 93. 40. 79.
      125. 121. 127. 124. 123. 119. 73. 14. 122. 43. 117. 127. 121. 122.
      122. 122. 41. 107. 120. 126. 35. 39. 66. 60. 39. 123. 119. 122.</_>
    <_>
      151. 148. 153. 192. 173. 164. 100. 170. 150. 152. 162. 203. 199.
      154. 62. 56. 95. 171. 148. 153. 155. 153. 150. 135. 207. 59. 93.
      171. 147. 152. 154. 151. 153. 136. 207. 57. 92. 176. 147. 153.
      154. 156. 158. 129. 206. 59. 216. 134. 151. 154. 154. 154. 154.
      131. 206. 60. 219. 139. 150. 154. 155. 154. 155. 124. 207. 63.
      218. 143. 149. 156. 154. 151. 157. 125. 205. 54. 221. 143. 156.
      157. 157. 155. 154. 231. 58. 59. 224. 147. 152. 155. 156. 156.
      153. 230. 58. 54. 224. 146. 152. 155. 157. 154. 155. 231. 61. 61.
      226. 149. 156. 156. 157. 153. 155. 232. 65. 55. 225. 144. 156.
      157. 153. 156. 175. 158. 62. 60. 220. 130. 146. 153. 208. 58. 57.
      137. 164. 164. 162. 160. 80. 186.</_>
    <_>
      122. 126. 106. 210. 35. 93. 111. 124. 125. 125. 116. 113. 97. 126.
      36. 82. 102. 121. 122. 123. 123. 121. 122. 234. 40. 86. 121. 123.
      125. 125. 123. 120. 119. 107. 36. 22. 114. 119. 123. 121. 122.
      120. 118. 113. 36. 9. 109. 127. 131. 125. 122. 121. 120. 94. 31.
      21. 96. 120. 126. 124. 124. 124. 122. 119. 38. 27. 84. 119. 122.
      124. 123. 122. 118. 130. 40. 27. 86. 115. 121. 123. 122. 121. 122.
      120. 99. 30. 92. 115. 123. 122. 122. 119. 119. 118. 104. 29. 82.
      118. 126. 122. 122. 121. 119. 131. 102. 28. 229. 118. 123. 121.
      124. 123. 121. 129. 104. 36. 230. 112. 126. 123. 122. 121. 118.
      120. 200. 32. 229. 105. 121. 119. 122. 211. 132. 40. 32. 28. 32.
      43. 36. 53.</_>
    <_>
      253. 207. 206. 207. 207. 206. 207. 206. 205. 207. 245. 61. 57. 62.
      61. 58. 61. 59. 59. 64. 245. 64. 108. 110. 111. 109. 111. 108. 68.
      55. 253. 196. 149. 153. 152. 165. 149. 155. 196. 204. 159. 161.
      158. 164. 162. 170. 161. 165. 158. 162. 156. 157. 157. 159. 156.
      160. 158. 157. 157. 157. 158. 156. 157. 157. 158. 159. 158. 159.
      158. 159. 158. 158. 159. 158. 157. 160. 160. 161. 160. 161. 158.
      161. 160. 162. 161. 163. 164. 163. 161. 160. 234. 234. 234. 236.
      116. 182. 118. 206. 234. 233. 47. 44. 48. 47. 207. 116. 207. 87.
      49. 107. 66. 61. 64. 64. 63. 66. 62. 63. 66. 245. 113. 110. 110.
      109. 109. 113. 110. 112. 116. 245. 171. 154. 161. 165. 161. 162.
      169. 153. 157. 177.</_>
    <_>
      173. 168. 167. 159. 163. 159. 160. 156. 165. 206. 138. 127. 126.
      128. 127. 128. 128. 127. 114. 65. 72. 56. 58. 61. 57. 54. 53. 60.
      54. 249. 163. 155. 158. 155. 154. 154. 154. 155. 154. 249. 161.
      157. 172. 173. 166. 166. 171. 165. 170. 164. 152. 150. 152. 150.
      151. 151. 151. 152. 153. 153. 150. 149. 153. 148. 152. 152. 153.
      153. 153. 152. 148. 150. 150. 148. 153. 151. 153. 153. 152. 150.
      142. 145. 143. 144. 148. 143. 146. 151. 143. 142. 155. 161. 155.
      155. 159. 156. 161. 152. 155. 149. 155. 151. 149. 149. 151. 152.
      152. 154. 155. 156. 68. 57. 57. 55. 57. 55. 60. 60. 60. 65. 71.
      131. 131. 128. 129. 128. 129. 132. 133. 131. 211. 148. 148. 143.
      148. 146. 154. 158. 165. 175.</_>
    <_>
      219. 218. 217. 146. 184. 217. 145. 218. 219. 250. 81. 60. 55. 153.
      100. 56. 153. 59. 59. 249. 84. 67. 66. 65. 62. 62. 65. 62. 65.
      249. 128. 104. 222. 222. 222. 222. 222. 223. 103. 222. 200. 203.
      150. 154. 154. 153. 155. 155. 206. 153. 163. 162. 164. 163. 163.
      165. 167. 164. 166. 162. 166. 165. 165. 165. 165. 166. 168. 168.
      168. 168. 165. 166. 164. 166. 167. 166. 168. 168. 165. 166. 163.
      162. 162. 165. 167. 163. 162. 165. 164. 162. 157. 161. 159. 163.
      164. 162. 161. 157. 162. 154. 229. 231. 227. 229. 229. 229. 229.
      226. 227. 227. 104. 72. 68. 68. 63. 65. 69. 68. 66. 102. 97. 65.
      61. 65. 63. 60. 65. 62. 59. 94. 222. 220. 219. 220. 220. 219. 220.
      220. 219. 220.</_>
    <_>
      215. 217. 217. 219. 218. 217. 218. 218. 218. 221. 70. 53. 53. 58.
      55. 52. 54. 54. 55. 67. 73. 55. 54. 55. 53. 56. 57. 58. 54. 70.
      225. 226. 225. 226. 225. 225. 227. 229. 228. 227. 151. 151. 153.
      153. 151. 154. 154. 155. 153. 152. 160. 158. 158. 157. 157. 160.
      152. 155. 159. 156. 157. 158. 158. 159. 158. 161. 156. 157. 160.
      159. 159. 157. 161. 158. 161. 161. 160. 160. 157. 157. 159. 156.
      155. 157. 155. 157. 153. 154. 154. 157. 154. 150. 153. 152. 155.
      147. 143. 143. 151. 196. 226. 224. 226. 223. 225. 222. 220. 221.
      224. 106. 78. 64. 64. 63. 62. 65. 61. 62. 61. 73. 83. 64. 62. 64.
      60. 64. 63. 59. 58. 71. 223. 220. 220. 220. 220. 220. 220. 219.
      219. 217.</_>
    <_>
      221. 219. 219. 220. 220. 219. 219. 220. 219. 223. 67. 57. 56. 57.
      59. 57. 57. 60. 60. 75. 235. 52. 52. 53. 54. 52. 48. 45. 59. 57.
      232. 232. 232. 231. 232. 232. 231. 230. 230. 229. 156. 161. 158.
      157. 162. 161. 159. 154. 158. 151. 150. 148. 150. 152. 153. 153.
      151. 147. 153. 157. 152. 150. 151. 153. 152. 156. 152. 151. 152.
      155. 155. 151. 152. 153. 156. 154. 156. 152. 150. 156. 155. 147.
      149. 150. 153. 153. 150. 151. 151. 154. 203. 202. 205. 202. 206.
      207. 204. 204. 206. 204. 255. 101. 100. 104. 100. 102. 104. 101.
      112. 112. 255. 58. 56. 58. 60. 62. 56. 56. 61. 68. 255. 49. 148.
      53. 149. 49. 149. 148. 52. 50. 157. 217. 137. 217. 135. 216. 137.
      137. 217. 216.</_>
    <_>
      160. 169. 151. 216. 255. 255. 217. 146. 144. 154. 148. 216. 221.
      146. 106. 106. 146. 220. 207. 140. 195. 166. 164. 89. 45. 43. 86.
      187. 237. 132. 255. 84. 60. 61. 58. 54. 56. 96. 196. 163. 255. 91.
      62. 64. 61. 57. 59. 57. 75. 255. 255. 87. 63. 63. 61. 58. 57. 55.
      75. 255. 255. 90. 62. 60. 60. 59. 57. 53. 73. 255. 255. 92. 61.
      58. 58. 58. 57. 73. 135. 200. 255. 92. 62. 59. 57. 56. 55. 105.
      234. 117. 255. 88. 60. 57. 58. 57. 54. 105. 235. 120. 255. 87. 61.
      60. 58. 57. 56. 105. 238. 146. 187. 167. 85. 57. 56. 55. 91. 169.
      184. 155. 137. 208. 145. 119. 119. 118. 153. 202. 142. 156. 156.
      149. 228. 255. 255. 255. 220. 154. 153. 155.</_></support_vectors>
  <decision_functions>
    <_>
      <sv_count>16</sv_count>
      <rho>-1.2500000000000000e-001</rho>
      <alpha>
        8.7500000000000000e-001 8.7500000000000000e-001
        8.7500000000000000e-001 8.7500000000000000e-001
        8.7500000000000000e-001 8.7500000000000000e-001
        8.7500000000000000e-001 8.7500000000000000e-001
        8.7500000000000000e-001 -1.1250000000000000e+000
        -1.1250000000000000e+000 -1.1250000000000000e+000
        -1.1250000000000000e+000 -1.1250000000000000e+000
        -1.1250000000000000e+000 -1.1250000000000000e+000</alpha>
      <index>
        0 1 2 3 4 5 6 7 8 9 10 11 12 13 14 15</index></_>
    <_>
